<?xml version="1.0"?>
<opencv_storage>
<opencv_ml_svm>
  <format>3</format>
  <svmType>C_SVC</svmType>
  <kernel>
    <type>RBF</type>
    <gamma>1.0000000000000001e-05</gamma></kernel>
  <C>1.0000000000000001e-01</C>
  <term_criteria><iterations>1000</iterations></term_criteria>
  <var_count>1000</var_count>
  <class_count>2</class_count>
  <class_labels type_id="opencv-matrix">
    <rows>2</rows>
    <cols>1</cols>
    <dt>i</dt>
    <data>
      0 1</data></class_labels>
  <sv_total>57</sv_total>
  <support_vectors>
    <_>
      0. 0. 0. 0. 0. 0. 0. 0. 0. 0. 7.04225339e-03 0. 2.34741787e-03
      2.34741787e-03 0. 0. 0. 0. 0. 4.69483575e-03 0. 0. 1.40845068e-02
      0. 0. 2.34741787e-03 0. 0. 0. 0. 0. 2.34741787e-03 0. 0.
      1.64319258e-02 0. 0. 0. 0. 0. 0. 0. 0. 0. 0. 0. 0. 0. 0. 0. 0. 0.
      0. 2.34741787e-03 0. 0. 0. 0. 0. 0. 0. 0. 0. 0. 0. 0. 0. 0. 0. 0.
      0. 0. 0. 2.34741787e-03 0. 0. 0. 0. 2.34741787e-03 0. 0. 0. 0. 0.
      0. 4.69483575e-03 7.04225339e-03 0. 0. 0. 0. 0. 0. 2.34741787e-03
      0. 4.69483575e-03 7.04225339e-03 2.34741787e-03 5.63380271e-02 0.
      2.34741787e-03 0. 0. 2.34741787e-03 0. 0. 0. 0. 0. 2.34741787e-03
      0. 0. 0. 0. 0. 0. 0. 0. 4.69483575e-03 0. 0. 3.75586860e-02 0.
      2.34741787e-03 0. 9.38967150e-03 0. 0. 0. 0. 0. 0. 0. 0. 0. 0.
      4.69483575e-03 2.34741787e-03 0. 0. 0. 4.69483575e-03
      2.34741787e-03 0. 0. 2.34741787e-03 0. 0. 0. 0. 0. 0. 0. 0. 0. 0.
      0. 0. 2.34741787e-03 4.69483575e-03 0. 0. 0. 0. 0. 2.34741787e-03
      0. 1.17370896e-02 0. 0. 0. 0. 0. 0. 2.34741787e-03 0. 0. 0. 0. 0.
      0. 0. 0. 0. 0. 0. 0. 0. 0. 0. 0. 0. 0. 2.34741787e-03 0. 0.
      2.34741787e-03 0. 0. 0. 0. 1.40845068e-02 0. 0. 2.34741787e-03 0.
      0. 2.34741787e-03 0. 0. 0. 4.69483575e-03 0. 0. 0. 2.34741787e-03
      2.34741787e-03 0. 0. 0. 0. 0. 0. 0. 0. 0. 2.34741787e-03 0. 0. 0.
      4.69483575e-03 0. 0. 0. 0. 0. 0. 0. 0. 0. 0. 0. 2.34741787e-03 0.
      0. 0. 2.34741787e-03 0. 0. 0. 2.34741787e-03 0. 4.69483575e-03 0.
      0. 0. 2.34741787e-03 4.69483575e-03 2.34741787e-03 0. 0.
      2.34741787e-03 0. 0. 0. 0. 2.34741787e-03 0. 0. 0. 2.34741787e-03
      0. 0. 0. 0. 2.34741787e-03 0. 4.69483575e-03 4.69483575e-03
      4.69483575e-03 0. 0. 0. 2.34741787e-03 0. 4.69483575e-03 0. 0. 0.
      0. 1.40845068e-02 0. 0. 0. 0. 0. 4.69483575e-03 0. 4.69483575e-03
      0. 2.34741787e-03 0. 0. 0. 0. 0. 0. 0. 4.69483575e-03 0. 0.
      2.34741787e-03 0. 2.34741787e-03 0. 0. 2.34741787e-03 0.
      2.34741787e-03 2.34741787e-03 4.69483575e-03 0. 0. 0. 0. 0. 0. 0.
      2.34741787e-03 0. 0. 0. 0. 0. 0. 2.34741787e-03 0. 7.04225339e-03
      0. 0. 0. 9.38967150e-03 1.17370896e-02 0. 0. 0. 4.69483575e-03 0.
      0. 0. 0. 0. 0. 0. 4.69483575e-03 0. 0. 0. 0. 2.34741787e-03 0.
      2.34741787e-03 0. 0. 0. 0. 0. 0. 0. 2.34741787e-03 0.
      2.34741787e-03 0. 4.69483575e-03 0. 2.34741787e-03 0. 0.
      2.34741792e-02 2.34741787e-03 0. 0. 0. 0. 2.34741787e-03 0. 0. 0.
      0. 2.34741787e-03 0. 0. 0. 0. 0. 0. 0. 0. 2.34741787e-03 0. 0. 0.
      0. 0. 0. 0. 0. 0. 0. 0. 2.34741787e-03 0. 0. 0. 0. 0. 0.
      2.34741787e-03 0. 2.34741787e-03 2.34741787e-03 0. 0. 0. 0. 0. 0.
      0. 0. 4.69483575e-03 0. 2.34741787e-03 0. 0. 0. 0. 0. 0. 0. 0. 0.
      0. 0. 0. 2.34741787e-03 0. 2.34741787e-03 0. 1.17370896e-02 0. 0.
      0. 0. 0. 0. 0. 0. 0. 4.69483575e-03 7.04225339e-03 0. 0. 0. 0. 0.
      0. 0. 0. 2.34741787e-03 0. 0. 0. 0. 0. 2.34741787e-03
      2.34741787e-03 0. 0. 0. 0. 0. 2.34741787e-03 0. 4.69483575e-03 0.
      0. 0. 0. 2.34741787e-03 2.34741787e-03 0. 0. 0. 0. 0. 0. 0. 0.
      2.34741787e-03 0. 0. 2.34741787e-03 0. 2.34741787e-03 0. 0. 0. 0.
      0. 0. 2.34741787e-03 2.34741787e-03 0. 2.34741787e-03 0.
      4.69483575e-03 0. 0. 0. 7.04225339e-03 0. 2.34741787e-03 0. 0.
      7.04225339e-03 4.69483575e-03 0. 0. 0. 0. 0. 0. 2.34741787e-03 0.
      2.34741787e-03 4.69483575e-03 0. 0. 0. 0. 0. 0. 0. 0.
      4.69483575e-03 0. 4.69483575e-03 0. 0. 0. 4.69483575e-03 0.
      2.58215964e-02 7.04225339e-03 0. 0. 0. 4.69483575e-03 0. 0. 0. 0.
      0. 4.69483575e-03 0. 0. 0. 0. 0. 4.69483575e-03 2.34741787e-03 0.
      0. 0. 0. 0. 0. 0. 0. 0. 0. 0. 0. 0. 4.69483575e-03 0. 0. 0. 0. 0.
      0. 0. 0. 2.34741787e-03 0. 0. 0. 2.34741787e-03 0. 0.
      2.34741787e-03 0. 0. 0. 0. 0. 4.69483575e-03 0. 0. 0. 0. 0. 0. 0.
      0. 2.34741787e-03 0. 2.34741787e-03 4.69483575e-03 0. 0. 0. 0. 0.
      0. 2.34741787e-03 0. 2.11267602e-02 2.34741787e-03 0. 0. 0. 0.
      2.34741787e-03 0. 0. 0. 0. 0. 2.34741787e-03 0. 0. 0.
      4.69483575e-03 0. 0. 2.34741787e-03 0. 0. 0. 0. 0. 0.
      4.69483575e-03 0. 0. 0. 0. 0. 0. 0. 0. 2.34741787e-03
      4.69483575e-03 0. 0. 4.69483575e-03 2.34741787e-03 0. 0. 0. 0. 0.
      2.34741787e-03 0. 0. 2.34741787e-03 2.34741787e-03 7.04225339e-03
      0. 0. 0. 1.17370896e-02 0. 0. 2.34741787e-03 0. 2.34741787e-03 0.
      0. 0. 0. 0. 4.69483575e-03 0. 0. 2.34741787e-03 2.34741787e-03 0.
      0. 2.34741787e-03 0. 2.34741787e-03 0. 0. 0. 9.38967150e-03 0. 0.
      0. 0. 0. 0. 0. 0. 0. 0. 0. 0. 0. 0. 0. 7.04225339e-03 0. 0. 0. 0.
      0. 0. 0. 0. 0. 0. 0. 0. 0. 0. 0. 0. 0. 0. 0. 0. 0. 2.34741787e-03
      0. 0. 0. 2.34741787e-03 0. 0. 0. 0. 0. 0. 2.34741787e-03
      2.34741787e-03 0. 0. 0. 0. 0. 0. 0. 0. 2.34741787e-03 0. 0. 0. 0.
      0. 0. 2.34741787e-03 2.34741787e-03 0. 2.34741787e-03
      2.34741787e-03 0. 0. 0. 0. 2.34741787e-03 0. 4.69483575e-03 0. 0.
      0. 0. 0. 0. 0. 0. 0. 0. 7.04225339e-03 0. 2.34741787e-03
      4.69483575e-03 0. 0. 0. 0. 0. 0. 0. 0. 0. 0. 0. 4.69483575e-03
      2.34741787e-03 0. 0. 0. 0. 0. 0. 0. 0. 0. 0. 0. 0. 2.34741787e-03
      0. 0. 0. 0. 0. 0. 0. 0. 4.69483575e-03 0. 0. 2.34741787e-03 0.
      2.34741787e-03 0. 0. 0. 0. 0. 0. 2.34741787e-03 0. 0.
      7.04225339e-03 0. 0. 0. 0. 0. 0. 0. 0. 0. 0. 0. 0. 0.
      2.34741787e-03 0. 2.34741787e-03 0. 0. 0. 7.04225339e-03 0. 0. 0.
      0. 0. 0. 0. 0. 0. 0. 0. 0. 0. 2.34741787e-03 0. 0. 0. 0.
      4.69483575e-03 7.04225339e-03 2.34741787e-03 0. 0. 0. 0. 0.
      2.34741787e-03 0. 0. 0. 0. 0. 0. 0. 0. 0. 0. 0. 0. 2.34741787e-03
      0. 1.64319258e-02 0. 2.34741787e-03 0. 0. 0. 4.69483575e-03 0. 0.
      0. 0. 0. 0. 0. 0. 0. 0. 0. 0. 0. 0. 0. 0. 0. 0. 0. 0. 0.
      9.38967150e-03 0. 0. 0. 0. 0. 0. 2.58215964e-02 0. 0. 0. 0. 0. 0.
      0. 0. 0. 0. 0. 2.34741787e-03 0. 0. 0. 7.04225339e-03
      2.34741787e-03 4.69483575e-03 0. 0. 0. 0. 2.34741787e-03 0. 0. 0.
      0. 0. 0. 0. 2.34741787e-03 0. 2.34741787e-03 0. 0. 4.69483575e-03
      0. 0. 0. 0. 7.04225339e-03 0. 7.04225339e-03 0. 0. 0. 0. 0. 0. 0.
      0. 0. 0. 2.34741787e-03 0.</_>
    <_>
      0. 0. 0. 0. 0. 4.59242240e-03 0. 0. 0. 0. 1.49253728e-02 0. 0.
      2.29621120e-03 0. 0. 0. 0. 0. 1.60734784e-02 0. 0. 1.83696896e-02
      2.29621120e-03 0. 0. 1.14810560e-03 0. 0. 0. 3.44431680e-03
      1.14810560e-03 0. 0. 3.44431680e-03 5.74052799e-03 0. 0. 0. 0. 0.
      0. 0. 1.14810560e-03 0. 0. 0. 0. 4.59242240e-03 0. 0.
      1.14810560e-03 0. 0. 0. 0. 1.14810560e-03 1.14810560e-03
      1.14810560e-03 1.14810560e-03 1.14810560e-03 0. 0. 0.
      1.14810560e-03 0. 0. 2.29621120e-03 0. 0. 1.14810560e-03 0. 0.
      1.14810560e-03 1.14810560e-03 0. 0. 2.29621120e-03 2.29621120e-03
      0. 0. 0. 1.14810560e-03 2.29621120e-03 0. 2.29621120e-03
      5.74052799e-03 0. 0. 1.14810560e-03 0. 0. 0. 1.14810560e-03 0.
      1.14810560e-03 1.14810560e-03 0. 1.83696896e-02 2.29621120e-03
      2.29621120e-03 0. 1.14810560e-03 2.29621120e-03 0. 0.
      1.14810560e-03 1.14810560e-03 0. 2.29621120e-03 0. 0. 0.
      1.14810560e-03 0. 0. 0. 0. 1.14810560e-03 1.14810560e-03 0.
      9.18484479e-03 0. 0. 1.14810560e-03 5.74052799e-03 0.
      1.14810560e-03 0. 1.14810560e-03 1.14810560e-03 0. 0. 0.
      2.29621120e-03 1.14810560e-03 1.14810560e-03 1.14810560e-03 0. 0.
      2.29621120e-03 0. 2.29621120e-03 1.14810560e-03 1.14810560e-03
      1.14810560e-03 1.14810560e-03 0. 0. 0. 1.14810560e-03 0. 0. 0. 0.
      3.44431680e-03 0. 0. 1.14810560e-03 1.14810560e-03 1.14810560e-03
      0. 0. 2.29621120e-03 0. 5.74052799e-03 0. 8.03673919e-03 0. 0. 0.
      0. 1.14810560e-03 0. 0. 0. 1.14810560e-03 0. 0. 1.14810560e-03 0.
      2.29621120e-03 0. 0. 0. 1.14810560e-03 1.14810560e-03
      1.14810560e-03 1.14810560e-03 0. 0. 0. 0. 0. 1.14810560e-03 0. 0.
      0. 0. 0. 1.14810560e-03 2.29621120e-02 0. 1.14810560e-03
      1.14810560e-03 0. 1.14810560e-03 0. 0. 0. 0. 0. 1.14810560e-03 0.
      4.59242240e-03 1.03329504e-02 0. 3.44431680e-03 2.29621120e-03
      1.14810560e-03 1.14810560e-03 0. 0. 2.29621120e-03 0.
      1.14810560e-03 3.44431680e-03 0. 1.14810560e-03 0. 0. 0. 0.
      4.59242240e-03 4.59242240e-03 0. 1.14810560e-03 0. 1.03329504e-02
      0. 0. 0. 3.44431680e-03 0. 0. 1.14810560e-03 2.29621120e-03 0.
      1.14810560e-03 2.29621120e-03 0. 0. 0. 0. 2.29621120e-03 0. 0.
      1.14810560e-03 0. 0. 0. 0. 0. 2.29621120e-03 0. 0. 6.88863359e-03
      0. 0. 0. 0. 0. 1.14810560e-03 2.29621120e-03 0. 0. 3.44431680e-03
      3.44431680e-03 0. 0. 0. 0. 0. 1.14810560e-03 8.03673919e-03
      2.29621120e-03 1.14810560e-03 0. 0. 0. 6.88863359e-03
      3.44431680e-03 0. 1.14810560e-03 1.14810560e-03 0. 8.03673919e-03
      4.59242240e-03 0. 0. 0. 9.18484479e-03 0. 1.14810560e-03 0.
      2.29621120e-03 0. 0. 0. 2.29621120e-03 0. 0. 5.74052799e-03
      1.14810560e-03 3.44431680e-03 0. 0. 0. 1.14810560e-03 0.
      2.52583232e-02 0. 1.14810560e-03 0. 2.29621120e-03 0.
      2.29621120e-03 6.88863359e-03 1.14810560e-03 0. 0. 0.
      1.14810560e-03 0. 0. 2.29621120e-03 0. 2.29621120e-03 0. 0. 0.
      1.14810560e-03 1.14810560e-03 0. 0. 0. 0. 0. 0. 0. 2.29621120e-03
      0. 0. 0. 0. 0. 0. 0. 3.44431680e-03 2.29621120e-03 0.
      1.14810560e-03 0. 0. 0. 5.74052799e-03 1.14810560e-03 0.
      1.14810560e-03 3.44431680e-03 0. 1.14810560e-03 1.14810560e-03
      2.29621120e-03 0. 0. 1.14810560e-03 1.14810560e-03 1.49253728e-02
      0. 0. 0. 1.14810560e-03 2.29621120e-03 0. 1.14810560e-03 0.
      2.29621120e-03 0. 4.59242240e-03 0. 0. 3.44431680e-03 0.
      3.44431680e-03 0. 0. 0. 0. 0. 1.14810560e-03 0. 0. 0. 0.
      1.14810560e-03 0. 0. 0. 0. 1.14810560e-03 1.14810560e-03 0. 0.
      1.14810560e-03 0. 0. 0. 1.14810560e-03 0. 0. 0. 0. 1.14810560e-03
      0. 2.29621120e-03 0. 3.44431680e-03 0. 0. 1.14810560e-03
      2.29621120e-03 0. 0. 0. 0. 0. 1.14810560e-03 3.44431680e-03
      3.44431680e-03 0. 0. 0. 0. 1.14810560e-03 0. 0. 0. 1.14810560e-03
      0. 0. 2.29621120e-03 0. 0. 0. 0. 0. 1.14810560e-03 5.74052799e-03
      1.14810560e-03 0. 0. 1.14810560e-03 0. 0. 0. 0. 0. 0. 0. 0. 0. 0.
      0. 1.26291616e-02 0. 0. 0. 0. 0. 0. 1.14810560e-03 0.
      2.29621120e-03 0. 1.14810560e-03 1.14810560e-03 0. 0. 0. 0. 0.
      3.44431680e-03 0. 0. 0. 0. 1.14810560e-03 0. 0. 2.29621120e-03 0.
      1.14810560e-03 1.14810560e-03 0. 0. 0. 1.14810560e-03 0. 0. 0. 0.
      0. 1.14810560e-03 3.44431680e-03 2.29621120e-03 0. 0. 0. 0.
      1.14810560e-03 0. 0. 0. 8.03673919e-03 0. 0. 1.14810560e-03 0. 0.
      0. 0. 0. 9.18484479e-03 8.03673919e-03 3.44431680e-03 0.
      1.14810560e-03 1.14810560e-03 1.14810560e-03 0. 0. 0.
      1.14810560e-03 0. 1.14810560e-03 1.14810560e-03 1.14810560e-03 0.
      0. 0. 0. 1.03329504e-02 0. 4.59242240e-03 0. 0. 8.03673919e-03 0.
      0. 0. 0. 4.59242240e-03 0. 0. 0. 0. 0. 0. 0. 0. 0. 0.
      1.14810560e-03 1.14810560e-03 0. 1.14810560e-03 0. 0. 0. 0.
      1.14810560e-03 0. 0. 8.03673919e-03 0. 1.14810560e-03 0. 0.
      4.59242240e-03 0. 0. 0. 0. 1.14810560e-03 0. 0. 1.14810560e-03 0.
      0. 0. 0. 0. 0. 1.14810560e-03 0. 0. 0. 0. 0. 0. 0. 1.14810560e-03
      2.29621120e-03 1.14810560e-03 1.14810560e-03 0. 0. 0. 0.
      1.14810560e-03 2.29621120e-03 3.44431680e-03 0. 0. 1.14810560e-03
      1.14810560e-03 9.18484479e-03 1.14810560e-03 2.29621120e-03 0. 0.
      0. 1.14810560e-03 1.14810560e-03 0. 1.14810560e-03 0. 0.
      2.29621120e-03 0. 0. 2.29621120e-03 3.44431680e-03 1.14810560e-03
      0. 0. 0. 3.44431680e-03 0. 0. 1.14810560e-03 0. 0. 0.
      1.14810560e-03 1.14810560e-03 0. 0. 0. 1.14810560e-03 0.
      1.14810560e-03 2.29621120e-03 0. 0. 0. 0. 0. 0. 3.44431680e-03 0.
      0. 0. 0. 2.29621120e-03 1.14810560e-03 0. 6.88863359e-03 0. 0.
      1.14810560e-03 1.14810560e-03 0. 0. 1.14810560e-03 1.14810560e-03
      1.14810560e-03 1.14810560e-03 0. 0. 0. 0. 0. 1.14810560e-03 0. 0.
      1.14810560e-03 0. 0. 4.59242240e-03 0. 0. 2.29621120e-03 0. 0.
      8.03673919e-03 2.29621120e-03 0. 1.14810560e-03 0. 0. 0. 0. 0. 0.
      0. 3.44431680e-03 0. 1.14810560e-03 0. 0. 1.14810560e-03
      1.14810560e-03 1.14810560e-03 0. 5.74052799e-03 0. 0. 0.
      3.44431680e-03 0. 0. 1.14810560e-03 0. 0. 0. 0. 1.14810560e-03 0.
      0. 0. 3.44431680e-03 0. 0. 0. 0. 0. 0. 0. 2.29621120e-03
      2.29621120e-03 0. 0. 0. 5.74052799e-03 0. 0. 0. 0. 1.14810560e-03
      0. 0. 2.29621120e-03 2.29621120e-03 1.14810560e-03 0. 0. 0. 0. 0.
      1.14810560e-03 2.29621120e-03 0. 2.29621120e-03 0. 0. 0.
      1.14810560e-03 0. 1.14810560e-03 1.14810560e-03 2.29621120e-03
      2.29621120e-03 2.29621120e-03 0. 0. 1.14810560e-03 0.
      1.14810560e-03 1.14810560e-03 1.14810560e-03 0. 0. 3.44431680e-03
      1.14810560e-03 0. 5.74052799e-03 0. 0. 0. 0. 0. 2.29621120e-03 0.
      0. 3.44431680e-03 0. 1.14810560e-03 1.14810560e-03 0. 0. 0.
      1.14810560e-03 1.14810560e-03 1.14810560e-03 0. 0. 0. 0.
      1.14810560e-03 0. 0. 2.29621120e-03 0. 0. 0. 1.14810560e-03 0.
      1.14810560e-02 0. 0. 1.14810560e-03 0. 0. 0. 0. 5.74052799e-03 0.
      0. 1.14810560e-03 0. 0. 0. 0. 0. 0. 8.03673919e-03 0. 0. 0. 0. 0.
      0. 1.14810560e-03 0. 0. 1.14810560e-03 0. 0. 0. 0. 0.
      1.14810560e-03 0. 0. 0. 2.29621120e-03 1.14810560e-03 0. 0. 0. 0.
      0. 0. 0. 1.14810560e-03 0. 0. 0. 0. 0. 0. 0. 0. 2.29621120e-03
      1.14810560e-03 8.03673919e-03 0. 0. 0. 0. 0. 0. 0. 0. 0. 0. 0.
      4.59242240e-03 0. 0. 0. 0. 0. 0. 0. 0. 0. 2.29621120e-03 0. 0. 0.
      0. 0. 1.14810560e-03 1.14810560e-03 0. 0. 1.14810560e-03
      2.29621120e-03 1.14810560e-03 0. 0. 0. 1.14810560e-03
      3.44431680e-03 0. 1.14810560e-03 0. 1.14810560e-03 0.
      1.14810560e-03 0. 1.14810560e-03 1.14810560e-03 0. 1.03329504e-02
      0. 0. 0. 1.14810560e-03 1.14810560e-03 1.14810560e-03
      1.83696896e-02 0. 0. 0. 0. 0. 0. 0. 1.14810560e-03 0.
      1.14810560e-03 2.29621120e-03 2.29621120e-03 0. 0. 1.14810560e-03
      3.44431680e-03 1.14810560e-03 0. 0. 0. 0. 0. 0. 0. 0.
      1.14810560e-03 0. 0. 0. 1.14810560e-03 1.14810560e-03 0.
      5.74052799e-03 1.14810560e-03 0. 4.59242240e-03 0. 0.
      1.14810560e-03 0. 1.14810560e-03 0. 1.14810560e-03 0.
      8.03673919e-03 0. 0. 0. 2.29621120e-03 0. 4.59242240e-03
      1.14810560e-03 1.14810560e-03 1.14810560e-03 0.</_>
    <_>
      0. 0. 0. 0. 9.29368020e-04 0. 0. 0. 0. 0. 0. 0. 0. 1.85873604e-03
      0. 4.64684004e-03 9.29368020e-04 0. 0. 7.43494416e-03 0. 0.
      2.04460956e-02 1.85873604e-03 0. 8.36431235e-03 0. 9.29368020e-04
      0. 9.29368020e-04 9.29368020e-04 0. 2.78810412e-03 0.
      1.85873604e-03 9.29368020e-04 1.85873604e-03 0. 0. 0. 0.
      9.29368020e-04 0. 0. 0. 9.29368020e-04 9.29368020e-04 0.
      9.29368020e-04 9.29368020e-04 2.78810412e-03 9.29368020e-04 0. 0.
      0. 0. 0. 0. 0. 2.78810412e-03 9.29368020e-04 0. 0. 0. 0. 0. 0.
      1.85873604e-03 0. 0. 9.29368020e-04 0. 0. 9.29368020e-04 0. 0. 0.
      0. 0. 0. 0. 0. 0. 1.85873604e-03 9.29368020e-04 0. 2.78810412e-03
      9.29368020e-04 0. 2.78810412e-03 0. 0. 0. 0. 1.85873604e-03 0.
      1.85873604e-03 9.29368020e-04 0. 0. 1.85873604e-03 0. 0.
      5.57620823e-03 0. 1.85873604e-03 0. 9.29368020e-04 0. 0. 0. 0. 0.
      0. 0. 0. 0. 0. 9.29368020e-04 9.29368020e-04 0. 0. 0. 0.
      9.29368020e-04 1.85873604e-03 0. 9.29368020e-04 5.57620823e-03 0.
      9.29368020e-04 0. 0. 2.78810412e-03 2.78810412e-03 9.29368020e-04
      2.78810412e-03 1.85873604e-03 0. 0. 1.85873604e-03 0.
      4.64684004e-03 2.78810412e-03 0. 2.78810412e-03 9.29368020e-04
      1.85873604e-03 0. 0. 0. 0. 1.85873604e-03 0. 0. 1.85873604e-03 0.
      0. 5.57620823e-03 0. 3.71747208e-03 9.29368020e-04 0. 0.
      3.71747208e-03 0. 1.85873604e-03 5.57620823e-03 0. 9.29368020e-04
      0. 0. 0. 9.29368020e-04 0. 0. 0. 0. 0. 0. 0. 2.78810412e-03
      2.78810412e-03 0. 9.29368020e-04 9.29368020e-04 0. 4.64684004e-03
      1.85873604e-03 9.29368020e-04 0. 0. 1.85873604e-03 0. 0.
      9.29368020e-04 0. 0. 0. 0. 0. 8.36431235e-03 9.29368020e-04 0.
      9.29368020e-04 9.29368020e-04 9.29368020e-04 0. 9.29368020e-04
      9.29368020e-04 0. 7.43494416e-03 0. 9.29368020e-04 4.64684004e-03
      3.71747208e-03 0. 0. 0. 0. 1.85873604e-03 9.29368020e-04
      4.64684004e-03 0. 0. 1.85873604e-03 3.71747208e-03 0. 0. 0. 0. 0.
      0. 3.71747208e-03 6.50557596e-03 0. 1.85873604e-03 9.29368020e-04
      0. 1.85873604e-03 0. 0. 2.78810412e-03 0. 0. 1.85873604e-03
      2.78810412e-03 9.29368020e-04 0. 9.29368020e-04 1.85873604e-03
      9.29368020e-04 2.78810412e-03 0. 2.78810412e-03 0. 9.29368020e-04
      1.85873604e-03 0. 0. 0. 0. 0. 1.85873604e-03 9.29368020e-04 0. 0.
      3.71747208e-03 0. 9.29368020e-04 1.85873604e-03 0. 1.85873604e-03
      1.85873604e-03 0. 3.71747208e-03 0. 9.29368020e-04 0.
      9.29368020e-04 9.29368020e-04 1.85873604e-03 9.29368020e-04 0. 0.
      0. 0. 0. 0. 3.71747208e-03 5.57620823e-03 3.71747208e-03 0. 0. 0.
      2.78810412e-03 1.30111519e-02 1.85873604e-03 9.29368020e-04
      9.29368020e-04 9.29368020e-04 2.78810412e-03 1.85873604e-03 0. 0.
      2.78810412e-03 9.29368020e-04 0. 9.29368020e-04 0. 0.
      9.29368020e-04 3.71747208e-03 0. 8.36431235e-03 0. 1.85873604e-03
      9.29368020e-04 1.85873604e-03 1.85873604e-03 0. 1.85873604e-03 0.
      0. 0. 0. 0. 0. 4.64684004e-03 1.85873604e-03 0. 0. 0. 0.
      9.29368020e-04 9.29368020e-04 1.85873604e-03 4.64684004e-03 0.
      3.71747208e-03 0. 0. 4.64684004e-03 0. 0. 0. 9.29368020e-04 0.
      2.78810412e-03 2.78810412e-03 3.71747208e-03 0. 0. 0.
      2.78810412e-03 0. 0. 0. 9.29368020e-04 0. 0. 0. 0. 9.29368020e-04
      9.29368020e-04 0. 1.85873604e-03 0. 9.29368020e-04 0.
      9.29368020e-04 1.85873604e-03 0. 9.29368020e-04 0. 0.
      9.29368020e-04 1.85873604e-03 8.36431235e-03 1.85873604e-03
      1.85873604e-03 1.85873604e-03 9.29368020e-04 9.29368020e-04 0.
      9.29368020e-04 0. 0. 0. 4.64684004e-03 0. 0. 9.29368020e-04 0.
      9.29368020e-04 9.29368020e-04 9.29368020e-04 9.29368020e-04
      1.85873604e-03 9.29368020e-04 0. 0. 1.85873604e-03 0.
      9.29368020e-04 0. 2.78810412e-03 0. 0. 0. 9.29368020e-04
      2.78810412e-03 9.29368020e-04 9.29368020e-04 1.85873604e-03
      9.29368020e-04 0. 9.29368020e-04 9.29368020e-04 9.29368020e-04
      9.29368020e-04 0. 0. 0. 0. 9.29368020e-04 0. 9.29368020e-04 0.
      9.29368020e-04 0. 4.64684004e-03 9.29368020e-04 0. 0. 0. 0. 0.
      2.78810412e-03 5.57620823e-03 0. 9.29368020e-04 0. 9.29368020e-04
      4.64684004e-03 0. 1.85873604e-03 9.29368020e-04 0. 0. 0.
      9.29368020e-04 9.29368020e-04 0. 0. 9.29368020e-04 1.85873604e-03
      9.29368020e-04 4.64684004e-03 1.85873604e-03 0. 0. 9.29368020e-04
      0. 0. 1.85873604e-03 2.78810412e-03 0. 0. 0. 0. 0. 0.
      9.29368020e-04 1.85873604e-03 0. 9.29368020e-04 9.29368020e-04 0.
      0. 9.29368020e-04 1.85873604e-03 9.29368020e-04 0. 9.29368020e-04
      0. 1.85873604e-03 0. 9.29368020e-04 0. 9.29368020e-04 0. 0. 0. 0.
      0. 0. 9.29368020e-04 1.85873604e-03 9.29368020e-04 9.29368020e-04
      3.71747208e-03 0. 7.43494416e-03 0. 2.78810412e-03 0. 0. 0.
      9.29368020e-04 0. 9.29368020e-04 0. 9.29368020e-04 2.78810412e-03
      1.85873604e-03 0. 0. 0. 2.78810412e-03 0. 0. 0. 9.29368020e-04
      3.71747208e-03 0. 9.29368020e-04 0. 0. 9.29368020e-04 0. 0.
      1.85873604e-03 7.43494416e-03 1.30111519e-02 9.29368020e-04 0. 0.
      9.29368020e-04 0. 0. 0. 0. 0. 0. 0. 1.85873604e-03 9.29368020e-04
      0. 9.29368020e-04 0. 9.29368020e-04 1.48698883e-02 1.85873604e-03
      2.78810412e-03 0. 0. 1.85873604e-03 2.78810412e-03 1.85873604e-03
      0. 0. 1.85873604e-03 0. 0. 9.29368020e-04 0. 9.29368020e-04 0.
      1.85873604e-03 0. 0. 0. 2.78810412e-03 0. 9.29368020e-04 0. 0. 0.
      9.29368020e-04 9.29368020e-04 9.29368020e-04 9.29368020e-04 0.
      3.71747208e-03 0. 0. 9.29368020e-04 0. 9.29368020e-04 0. 0.
      9.29368020e-04 9.29368020e-04 9.29368020e-04 0. 0. 0. 0.
      2.78810412e-03 0. 0. 0. 0. 9.29368020e-04 0. 2.78810412e-03 0.
      9.29368020e-04 9.29368020e-04 0. 9.29368020e-04 0. 0.
      9.29368020e-04 9.29368020e-04 0. 0. 4.64684004e-03 1.85873604e-03
      2.78810412e-03 9.29368020e-04 0. 2.78810412e-03 0. 9.29368020e-04
      2.78810412e-03 1.85873604e-03 1.85873604e-03 0. 0. 0. 0. 0.
      9.29368020e-04 3.71747208e-03 0. 1.85873604e-03 0. 9.29368020e-04
      0. 9.29368020e-04 1.85873604e-03 0. 7.43494416e-03 0.
      9.29368020e-04 1.85873604e-03 0. 0. 0. 9.29368020e-04 0. 0.
      5.57620823e-03 0. 7.43494416e-03 9.29368020e-04 0. 0. 0. 0.
      1.85873604e-03 9.29368020e-04 0. 9.29368020e-04 1.85873604e-03
      9.29368020e-04 0. 9.29368020e-04 2.78810412e-03 0. 1.85873604e-03
      9.29368020e-04 9.29368020e-04 1.85873604e-03 0. 3.71747208e-03
      7.43494416e-03 0. 1.85873604e-03 9.29368020e-04 0. 0. 0.
      9.29368020e-04 0. 1.20817842e-02 0. 0. 9.29368020e-04 0. 0. 0. 0.
      0. 0. 0. 0. 0. 9.29368020e-04 1.85873604e-03 0. 0. 0. 0.
      6.50557596e-03 1.85873604e-03 0. 0. 0. 3.71747208e-03 0.
      1.85873604e-03 9.29368020e-04 9.29368020e-04 0. 1.85873604e-03
      9.29368020e-04 0. 0. 0. 3.71747208e-03 0. 2.78810412e-03
      9.29368020e-04 2.78810412e-03 0. 9.29368020e-04 0. 1.85873604e-03
      9.29368020e-04 0. 2.78810412e-03 0. 1.85873604e-03 0. 0.
      9.29368020e-04 1.85873604e-03 0. 0. 2.78810412e-03 0.
      1.85873604e-03 0. 9.29368020e-04 0. 1.85873604e-03 0. 0. 0.
      9.29368020e-04 0. 9.29368020e-04 6.50557596e-03 1.85873604e-03
      1.85873604e-03 9.29368020e-04 9.29368020e-04 1.85873604e-03 0. 0.
      9.29368020e-04 0. 9.29368020e-04 9.29368020e-04 0. 1.85873604e-03
      1.85873604e-03 0. 9.29368020e-04 9.29368020e-04 1.85873604e-03 0.
      9.29368020e-04 9.29368020e-04 0. 0. 0. 2.78810412e-03
      1.85873604e-03 0. 1.85873604e-03 0. 0. 9.29368020e-04
      3.71747208e-03 9.29368020e-04 0. 9.29368020e-04 0. 9.29368020e-04
      0. 1.85873604e-03 2.78810412e-03 0. 9.29368020e-04 9.29368020e-04
      0. 9.29368020e-04 9.29368020e-04 0. 0. 0. 0. 3.71747208e-03 0. 0.
      7.43494416e-03 0. 0. 0. 0. 1.85873604e-03 0. 0. 0. 9.29368020e-04
      0. 3.71747208e-03 0. 0. 1.85873604e-03 9.29368020e-04
      9.29368020e-04 0. 0. 9.29368020e-04 9.29368020e-04 0.
      2.78810412e-03 0. 0. 0. 0. 1.85873604e-03 9.29368020e-04
      1.85873604e-03 0. 0. 9.29368020e-04 0. 9.29368020e-04
      9.29368020e-04 9.29368020e-04 9.29368020e-04 9.29368020e-04
      2.78810412e-03 1.85873604e-03 0. 0. 0. 0. 2.78810412e-03 0.
      2.78810412e-03 9.29368020e-04 0. 0. 1.85873604e-03 0. 0. 0.
      2.78810412e-03 0. 0. 1.85873604e-03 1.85873604e-03 9.29368020e-04
      0. 0. 1.85873604e-03 0. 9.29368020e-04 9.29368020e-04 0. 0. 0. 0.
      1.85873604e-03 0. 1.85873604e-03 0. 0. 0. 0. 9.29368020e-04 0.
      9.29368020e-04 2.78810412e-03 0. 0. 9.29368020e-04 1.85873604e-03
      9.29368020e-04 0. 9.29368020e-04 0. 9.29368020e-04 9.29368020e-04
      0. 0. 0. 9.29368020e-04 9.29368020e-04 9.29368020e-04
      9.29368020e-04 9.29368020e-04 9.29368020e-04 3.71747208e-03
      3.71747208e-03 0. 0. 0. 9.29368020e-04 3.71747208e-03 0. 0.
      9.29368020e-04 0. 2.78810412e-03 1.85873604e-03 0. 1.85873604e-03
      0. 9.29368020e-04 0. 6.50557596e-03 9.29368020e-04 1.85873604e-03
      1.85873604e-03 0. 0. 9.29368020e-04 0. 9.29368020e-04
      8.36431235e-03 0. 0. 9.29368020e-04 0. 0. 9.29368020e-04
      8.36431235e-03 9.29368020e-04 9.29368020e-04 9.29368020e-04
      9.29368020e-04 9.29368020e-04 1.85873604e-03 0. 3.71747208e-03
      9.29368020e-04 0. 9.29368020e-04 1.85873604e-03 0. 0.
      9.29368020e-04 2.78810412e-03 0. 9.29368020e-04 0. 0.
      1.85873604e-03 0. 0. 0. 0. 9.29368020e-04 0. 0. 0. 0.
      9.29368020e-04 0. 4.64684004e-03 1.85873604e-03 0. 2.78810412e-03
      0. 0. 2.78810412e-03 0. 0. 0. 3.71747208e-03 0. 3.71747208e-03
      9.29368020e-04 0. 9.29368020e-04 9.29368020e-04 0. 0.
      9.29368020e-04 1.85873604e-03 9.29368020e-04 0.</_>
    <_>
      0. 0. 0. 0. 0. 0. 0. 0. 0. 0. 0. 5.37634408e-03 0. 0.
      2.68817204e-03 2.68817204e-03 0. 0. 0. 5.37634408e-03 0. 0.
      2.68817209e-02 5.37634408e-03 0. 2.68817204e-03 0. 2.68817204e-03
      0. 0. 2.68817204e-03 0. 0. 0. 5.37634408e-03 0. 0. 0. 0. 0. 0.
      5.37634408e-03 0. 2.68817204e-03 0. 0. 0. 0. 0. 2.68817204e-03 0.
      0. 0. 0. 0. 0. 2.68817204e-03 2.68817204e-03 0. 0. 0.
      5.37634408e-03 0. 0. 0. 2.68817204e-03 2.68817204e-03
      2.68817204e-03 0. 0. 0. 2.68817204e-03 0. 0. 2.68817204e-03 0. 0.
      0. 0. 0. 0. 0. 2.68817204e-03 0. 0. 0. 2.95698922e-02 0. 0. 0. 0.
      0. 0. 0. 0. 0. 0. 0. 0. 0. 0. 0. 2.68817204e-03 8.06451589e-03 0.
      0. 0. 0. 0. 0. 2.68817204e-03 0. 0. 0. 0. 0. 2.68817204e-03
      2.68817204e-03 0. 0. 0. 0. 0. 0. 0. 0. 2.68817204e-03 0. 0. 0. 0.
      0. 0. 0. 0. 0. 0. 0. 2.68817204e-03 0. 0. 2.68817204e-03
      2.68817204e-03 0. 0. 0. 0. 0. 0. 0. 0. 0. 2.68817204e-03 0. 0. 0.
      0. 0. 0. 0. 2.68817204e-03 0. 5.37634408e-03 0. 0. 5.37634408e-03
      0. 1.07526882e-02 0. 2.68817204e-03 0. 0. 0. 0. 0. 0. 0.
      2.68817204e-03 0. 0. 0. 0. 0. 0. 2.68817204e-03 0. 0. 0. 0. 0. 0.
      0. 0. 0. 0. 0. 0. 0. 0. 0. 2.68817204e-03 1.88172050e-02 0. 0. 0.
      2.68817204e-03 0. 0. 0. 0. 0. 2.68817204e-03 0. 0. 8.06451589e-03
      0. 0. 0. 0. 0. 0. 2.68817204e-03 0. 0. 0. 0. 0. 0. 0. 0. 0. 0. 0.
      0. 2.68817204e-03 0. 2.68817204e-03 0. 0. 0. 0. 0. 0.
      2.68817204e-03 0. 0. 5.37634408e-03 0. 0. 0. 0. 0. 2.68817204e-03
      2.68817204e-03 0. 0. 2.68817204e-03 0. 0. 0. 0. 0. 0.
      2.68817204e-03 2.68817204e-03 0. 0. 0. 0. 0. 0. 1.61290318e-02 0.
      2.68817204e-03 5.37634408e-03 0. 0. 0. 0. 0. 0. 0. 2.68817204e-03
      2.68817204e-03 0. 0. 0. 0. 0. 0. 8.06451589e-03 0. 0. 0. 0.
      2.68817204e-03 2.68817204e-03 0. 0. 0. 0. 1.34408604e-02
      2.68817204e-03 0. 0. 0. 0. 0. 0. 5.37634408e-03 0. 0. 0. 0. 0.
      2.68817204e-03 0. 0. 0. 0. 2.41935477e-02 0. 0. 0. 0. 0.
      1.34408604e-02 1.34408604e-02 2.68817204e-03 2.68817204e-03 0. 0.
      8.06451589e-03 0. 0. 0. 0. 2.68817204e-03 0. 0. 0. 0. 0. 0. 0. 0.
      0. 0. 0. 0. 0. 0. 0. 2.68817204e-03 0. 0. 0. 0. 0. 0. 0. 0.
      8.06451589e-03 0. 0. 0. 2.68817204e-03 0. 0. 0. 0. 0. 0. 0.
      5.37634408e-03 0. 0. 0. 0. 0. 0. 0. 0. 2.68817204e-03 0. 0. 0. 0.
      0. 0. 0. 0. 2.68817204e-03 0. 0. 0. 0. 0. 0. 0. 0. 0. 0. 0. 0. 0.
      2.68817204e-03 0. 0. 0. 2.68817204e-03 0. 0. 0. 2.68817204e-03 0.
      0. 0. 0. 0. 0. 0. 0. 0. 0. 0. 0. 0. 0. 2.68817204e-03 0.
      2.68817204e-03 0. 0. 0. 0. 2.68817204e-03 0. 5.37634408e-03 0. 0.
      0. 0. 0. 0. 0. 0. 0. 2.68817204e-03 0. 0. 2.68817204e-03 0. 0. 0.
      0. 0. 0. 5.37634408e-03 0. 0. 0. 0. 0. 0. 0. 0. 0. 0. 0. 0. 0. 0.
      2.68817204e-03 2.68817204e-03 0. 0. 0. 0. 0. 5.37634408e-03
      2.68817204e-03 0. 2.68817204e-03 0. 0. 0. 0. 2.68817204e-03 0. 0.
      0. 0. 0. 0. 0. 0. 0. 0. 0. 0. 2.68817204e-03 0. 2.68817204e-03 0.
      0. 0. 0. 0. 0. 2.68817204e-03 2.68817204e-03 0. 0. 2.68817204e-03
      0. 0. 0. 0. 5.37634408e-03 0. 0. 0. 0. 2.68817204e-03
      2.68817204e-03 0. 0. 0. 0. 0. 0. 0. 1.88172050e-02 1.61290318e-02
      0. 0. 2.68817204e-03 0. 0. 0. 5.37634408e-03 0. 0. 0. 0.
      8.06451589e-03 0. 8.06451589e-03 0. 0. 1.34408604e-02
      2.15053763e-02 0. 0. 0. 0. 5.37634408e-03 0. 2.68817204e-03 0. 0.
      0. 0. 0. 2.68817204e-03 0. 0. 0. 0. 0. 0. 0. 2.68817204e-03 0. 0.
      0. 0. 2.68817204e-03 0. 0. 0. 0. 0. 0. 0. 0. 2.68817204e-03 0.
      2.68817204e-03 0. 0. 0. 2.68817204e-03 0. 0. 0. 0. 0. 0. 0. 0. 0.
      0. 5.37634408e-03 0. 0. 2.68817204e-03 0. 0. 0. 0. 0. 0. 0. 0. 0.
      0. 2.68817204e-03 0. 0. 0. 0. 0. 0. 2.68817204e-03 2.68817204e-03
      0. 0. 2.68817204e-03 0. 0. 0. 0. 0. 0. 0. 0. 0. 0. 0. 0. 0. 0.
      5.37634408e-03 0. 0. 0. 0. 0. 0. 0. 0. 0. 2.68817204e-03 0.
      1.07526882e-02 0. 2.68817204e-03 0. 0. 0. 0. 0. 2.68817204e-03 0.
      0. 0. 2.68817204e-03 0. 2.68817204e-03 0. 0. 2.68817204e-03
      2.68817204e-03 2.68817204e-03 0. 0. 5.37634408e-03 0. 0. 0.
      5.37634408e-03 0. 0. 0. 1.61290318e-02 8.06451589e-03 0. 0. 0. 0.
      2.68817204e-03 0. 2.68817204e-03 0. 0. 0. 0. 0. 0. 0. 0. 0.
      2.68817204e-03 0. 5.37634408e-03 0. 0. 0. 0. 2.68817204e-03 0.
      2.68817204e-03 0. 0. 2.68817204e-03 5.37634408e-03 0.
      2.68817204e-03 0. 0. 0. 0. 0. 2.68817204e-03 2.68817204e-03 0.
      2.68817204e-03 0. 0. 0. 0. 0. 0. 0. 0. 0. 0. 0. 2.68817204e-03 0.
      0. 0. 0. 0. 0. 0. 0. 0. 2.68817204e-03 0. 0. 0. 0. 2.68817204e-03
      0. 0. 0. 0. 0. 0. 0. 0. 0. 2.68817204e-03 0. 0. 2.68817204e-03 0.
      0. 0. 2.68817204e-03 2.68817204e-03 0. 0. 2.68817204e-03 0. 0. 0.
      8.06451589e-03 0. 0. 5.37634408e-03 0. 0. 0. 0. 0. 2.68817204e-03
      0. 0. 2.68817204e-03 0. 0. 0. 0. 2.68817204e-03 0. 0. 0. 0. 0. 0.
      0. 0. 2.68817204e-03 0. 0. 2.68817204e-03 0. 0. 0. 0. 0. 0.
      2.68817204e-03 0. 0. 0. 0. 0. 0. 0. 0. 0. 0. 0. 0. 0. 0. 0.
      2.68817204e-03 0. 0. 0. 2.68817204e-03 0. 0. 5.37634408e-03 0. 0.
      0. 0. 0. 0. 0. 1.61290318e-02 0. 0. 0. 0. 0. 0. 0. 0. 0. 0. 0. 0.
      0. 0. 8.06451589e-03 0. 2.68817204e-03 0. 2.68817204e-03 0. 0. 0.
      0. 0. 0. 0. 0. 0. 0. 2.68817204e-03 0. 0. 2.68817204e-03 0. 0. 0.
      0. 2.68817204e-03 0. 0. 2.68817204e-03 0. 5.37634408e-03
      2.68817204e-03 0. 0. 0. 0. 0. 0. 0. 0. 0. 0. 0. 2.68817204e-03 0.
      0. 0. 2.68817204e-03 0. 0. 2.68817204e-03 0. 2.68817204e-03 0.
      2.68817204e-03 0. 0. 0. 0. 0. 2.68817204e-03 2.68817204e-03 0. 0.
      0. 0. 0. 0. 0. 0. 0. 0. 0. 0. 0. 0. 0. 5.37634408e-03
      2.68817204e-03 0. 0. 0. 0. 0. 6.18279576e-02 0. 0. 0.
      2.68817204e-03 0. 2.68817204e-03 0. 0. 0. 2.68817204e-03 0. 0. 0.
      0. 0. 2.68817204e-03 0. 0. 0. 0. 2.68817204e-03 0. 0. 0. 0. 0. 0.
      0. 2.68817204e-03 0. 1.61290318e-02 0. 2.68817204e-03 0. 0.
      8.06451589e-03 0. 0. 0. 0. 0. 0. 0. 0. 1.07526882e-02 0.
      2.68817204e-03 0. 0. 0. 0. 0. 2.68817204e-03 0. 2.68817204e-03</_>
    <_>
      0. 0. 0. 0. 0. 0. 0. 0. 0. 0. 0. 0. 0. 0. 5.29100513e-03
      5.29100513e-03 0. 0. 0. 5.29100513e-03 0. 0. 0. 0. 0.
      1.05820103e-02 0. 0. 0. 5.29100513e-03 0. 0. 0. 0. 0.
      5.29100513e-03 0. 0. 0. 0. 0. 5.29100513e-03 0. 5.29100513e-03 0.
      0. 0. 0. 0. 0. 0. 0. 0. 0. 0. 0. 0. 5.29100513e-03 0. 0. 0. 0. 0.
      0. 0. 0. 1.05820103e-02 0. 0. 0. 0. 0. 0. 0. 0. 0. 0. 0. 0. 0. 0.
      0. 0. 1.05820103e-02 0. 0. 0. 0. 0. 0. 0. 0. 0. 0. 0. 0.
      3.17460299e-02 0. 5.29100513e-03 0. 0. 0. 0. 0. 0. 0. 0. 0. 0. 0.
      0. 0. 0. 0. 0. 0. 0. 0. 0. 0. 0. 0. 0. 0. 0. 0. 0. 0. 0. 0. 0. 0.
      0. 0. 0. 0. 0. 5.29100513e-03 0. 0. 0. 0. 5.29100513e-03 0. 0. 0.
      5.29100513e-03 0. 1.05820103e-02 0. 0. 0. 0. 0. 0. 0. 0. 0. 0. 0.
      5.29100513e-03 0. 0. 0. 5.29100513e-03 0. 0. 0. 0. 0. 0. 0.
      1.05820103e-02 0. 0. 0. 0. 0. 0. 0. 0. 5.29100513e-03 0. 0. 0. 0.
      0. 5.29100513e-03 0. 0. 0. 0. 0. 0. 0. 0. 0. 5.29100513e-03 0. 0.
      0. 5.29100513e-03 0. 0. 0. 0. 0. 0. 0. 0. 0. 0. 0. 0.
      5.29100513e-03 0. 0. 0. 0. 0. 0. 0. 0. 0. 0. 0. 5.29100513e-03 0.
      0. 0. 0. 0. 0. 0. 1.05820103e-02 0. 0. 0. 0. 0. 0. 0. 0. 0. 0. 0.
      5.29100513e-03 5.29100513e-03 0. 0. 0. 5.29100513e-03 0. 0.
      1.05820103e-02 0. 0. 0. 0. 0. 0. 0. 0. 0. 0. 0. 0. 0. 0.
      5.29100513e-03 0. 0. 0. 1.58730149e-02 0. 0. 0. 0. 0.
      1.05820103e-02 0. 0. 0. 1.05820103e-02 0. 0. 1.05820103e-02 0. 0.
      0. 1.05820103e-02 0. 0. 0. 0. 0. 1.05820103e-02 0. 0. 0. 0. 0. 0.
      0. 0. 0. 0. 0. 0. 0. 0. 5.29100513e-03 5.29100513e-03 0. 0. 0. 0.
      5.29100513e-03 0. 5.29100513e-03 0. 0. 0. 0. 0. 0. 0. 0. 0. 0. 0.
      0. 0. 0. 0. 0. 0. 1.05820103e-02 0. 0. 0. 0. 0. 0. 0. 0.
      1.05820103e-02 0. 5.29100513e-03 0. 0. 0. 0. 0. 0. 0. 0. 0.
      5.29100513e-03 5.29100513e-03 5.29100513e-03 0. 0. 0. 0. 0.
      5.29100513e-03 0. 0. 0. 5.29100513e-03 0. 0. 0. 0. 5.29100513e-03
      0. 5.29100513e-03 5.29100513e-03 0. 5.29100513e-03 0. 0. 0. 0. 0.
      0. 0. 0. 5.29100513e-03 5.29100513e-03 0. 0. 0. 0. 0. 0. 0. 0. 0.
      0. 0. 0. 0. 5.29100513e-03 0. 5.29100513e-03 0. 0. 0. 0.
      5.29100513e-03 0. 0. 0. 0. 0. 0. 0. 0. 5.29100513e-03 0. 0. 0. 0.
      0. 0. 5.29100513e-03 0. 0. 0. 0. 0. 0. 0. 0. 0. 0. 0. 0. 0. 0. 0.
      5.29100513e-03 0. 0. 0. 0. 0. 0. 0. 0. 0. 0. 0. 0. 0. 0. 0. 0. 0.
      0. 0. 0. 0. 0. 0. 0. 0. 0. 0. 0. 0. 0. 5.29100513e-03 0. 0. 0. 0.
      0. 0. 1.05820103e-02 0. 0. 0. 0. 0. 0. 5.29100513e-03 0. 0. 0. 0.
      0. 0. 0. 0. 0. 5.29100513e-03 0. 5.29100513e-03 0. 0.
      5.29100513e-03 0. 0. 0. 0. 0. 0. 0. 1.05820103e-02 0. 0. 0. 0. 0.
      0. 0. 0. 0. 0. 0. 0. 0. 0. 0. 0. 0. 5.29100513e-03 0. 0.
      5.29100513e-03 5.29100513e-03 5.29100513e-03 1.05820103e-02
      5.29100513e-03 0. 0. 0. 0. 0. 0. 0. 0. 0. 1.05820103e-02 0. 0. 0.
      5.29100513e-03 0. 0. 0. 0. 5.29100513e-03 0. 5.29100513e-03
      5.29100513e-03 5.29100513e-03 0. 0. 0. 0. 0. 0. 0. 0. 0. 0. 0. 0.
      0. 0. 0. 0. 0. 1.05820103e-02 0. 0. 0. 0. 5.29100513e-03 0. 0. 0.
      0. 0. 0. 0. 0. 0. 0. 0. 0. 0. 0. 5.29100513e-03 0. 5.29100513e-03
      0. 0. 0. 0. 0. 0. 0. 0. 0. 0. 0. 0. 1.05820103e-02 0. 0.
      5.29100513e-03 0. 0. 0. 0. 0. 0. 0. 0. 0. 0. 0. 0. 1.05820103e-02
      0. 0. 0. 0. 0. 0. 0. 0. 1.05820103e-02 0. 0. 0. 0. 0.
      5.29100513e-03 0. 0. 0. 5.29100513e-03 0. 0. 0. 5.29100513e-03 0.
      0. 1.05820103e-02 0. 5.29100513e-03 0. 0. 0. 0. 0. 0. 0. 0. 0.
      5.29100513e-03 0. 0. 0. 5.29100513e-03 0. 0. 0. 0. 0. 0. 0.
      5.29100513e-03 0. 0. 0. 0. 0. 0. 0. 0. 1.05820103e-02 0. 0.
      5.29100513e-03 0. 0. 0. 0. 0. 0. 0. 0. 0. 0. 0. 0. 0. 0. 0. 0.
      5.29100513e-03 0. 0. 0. 0. 0. 0. 0. 0. 0. 0. 0. 0. 5.29100513e-03
      0. 5.29100513e-03 0. 0. 0. 0. 0. 0. 0. 0. 5.29100513e-03 0. 0. 0.
      0. 0. 0. 0. 0. 5.29100513e-03 0. 0. 0. 0. 0. 0. 0. 5.29100513e-03
      0. 0. 0. 0. 0. 0. 0. 0. 0. 0. 0. 0. 0. 0. 0. 0. 1.05820103e-02 0.
      0. 0. 0. 0. 0. 0. 5.29100513e-03 0. 5.29100513e-03 0. 0. 0. 0. 0.
      1.05820103e-02 0. 5.29100513e-03 0. 0. 0. 1.05820103e-02
      1.05820103e-02 0. 0. 0. 1.05820103e-02 0. 0. 0. 0. 5.29100513e-03
      0. 0. 0. 0. 0. 0. 0. 0. 5.29100513e-03 0. 0. 0. 0. 0. 0. 0. 0. 0.
      0. 0. 0. 0. 0. 0. 0. 0. 0. 0. 0. 0. 0. 0. 0. 0. 0. 0. 0. 0. 0. 0.
      0. 0. 0. 0. 0. 0. 5.29100513e-03 5.29100513e-03 5.29100513e-03 0.
      0. 0. 0. 0. 0. 0. 0. 0. 5.29100513e-03 0. 5.29100513e-03 0. 0. 0.
      0. 0. 0. 1.05820103e-02 0. 0. 0. 0. 0. 0. 0. 0. 0. 5.29100513e-03
      0. 0. 0. 1.05820103e-02 0. 0. 0. 0. 0. 0. 0. 0. 0. 0. 0. 0. 0. 0.
      0. 0. 0. 5.29100513e-03 0. 0. 0. 0. 0. 0. 0. 1.05820103e-02 0. 0.
      0. 0. 0. 0. 0. 0. 0. 0. 5.29100513e-03 0. 0. 5.29100513e-03 0. 0.
      0. 0. 0. 0. 0. 0. 1.05820103e-02 0. 5.29100513e-03 0.
      5.29100513e-03 0. 5.29100513e-03 0. 0. 0. 0. 0. 0. 0. 0. 0.
      5.29100513e-03 0. 0. 5.29100513e-03 0. 0. 1.58730149e-02 0. 0. 0.
      5.29100513e-03 0. 0. 0. 0. 0. 5.29100513e-03 5.29100513e-03 0. 0.
      0. 1.05820103e-02 0. 0. 0. 5.29100513e-03 0. 0. 0. 0. 0. 0. 0. 0.
      0. 0. 1.58730149e-02 0. 5.29100513e-03 0. 0. 0. 0. 5.29100513e-03
      0. 1.05820103e-02 0. 0. 0. 0. 0. 0. 0. 0. 0. 0.</_>
    <_>
      0. 0. 0. 0. 0. 0. 0. 0. 0. 0. 5.55555569e-03 0. 0. 0. 0.
      5.55555569e-03 5.55555569e-03 0. 0. 1.66666675e-02 0. 0.
      2.22222228e-02 0. 0. 0. 0. 0. 0. 0. 0. 0. 0. 0. 0. 0. 0. 0. 0. 0.
      0. 0. 0. 5.55555569e-03 0. 0. 0. 0. 0. 0. 0. 0. 0. 0. 0. 0. 0.
      1.11111114e-02 0. 0. 0. 0. 0. 0. 0. 0. 0. 0. 0. 0. 0. 0. 0. 0. 0.
      0. 0. 0. 0. 0. 0. 0. 0. 0. 0. 0. 5.55555569e-03 0. 0. 0. 0. 0. 0.
      0. 0. 0. 5.55555569e-03 0. 0. 0. 0. 0. 0. 0. 0. 0. 0. 0. 0. 0. 0.
      0. 0. 0. 0. 0. 0. 0. 0. 0. 0. 0. 0. 0. 0. 0. 0. 0. 0. 0. 0. 0. 0.
      0. 5.55555569e-03 0. 5.55555569e-03 5.55555569e-03 0. 0. 0. 0. 0.
      0. 0. 0. 0. 0. 0. 0. 0. 5.55555569e-03 0. 0. 0. 0. 0. 0. 0. 0. 0.
      0. 0. 0. 0. 0. 0. 5.55555569e-03 0. 5.55555569e-03 0. 0. 0. 0. 0.
      0. 0. 0. 0. 0. 0. 1.11111114e-02 1.11111114e-02 0. 0. 0. 0. 0. 0.
      0. 0. 0. 0. 0. 0. 0. 0. 0. 0. 0. 0. 0. 0. 0. 0. 0. 0. 0. 0. 0. 0.
      1.66666675e-02 0. 0. 0. 0. 0. 0. 0. 0. 0. 0. 0. 0. 0. 0. 0. 0. 0.
      0. 0. 0. 0. 0. 5.55555569e-03 0. 0. 0. 0. 0. 0. 0. 0. 0. 0. 0.
      1.11111114e-02 0. 5.55555569e-03 0. 0. 0. 0. 0. 5.55555569e-03 0.
      1.11111114e-02 0. 5.55555569e-03 0. 0. 0. 0. 0. 0. 0. 0. 0. 0. 0.
      1.66666675e-02 0. 0. 0. 0. 1.11111114e-02 0. 0. 0. 5.55555569e-03
      0. 0. 0. 0. 0. 0. 0. 0. 0. 0. 1.66666675e-02 0. 0. 0. 0. 0.
      1.66666675e-02 5.55555569e-03 0. 0. 0. 0. 0. 0. 0. 5.55555569e-03
      0. 0. 0. 0. 0. 0. 0. 0. 0. 0. 1.11111114e-02 0. 5.55555569e-03 0.
      0. 0. 0. 0. 0. 0. 0. 0. 0. 0. 1.11111114e-02 0. 0. 0. 0.
      5.55555569e-03 0. 5.55555569e-03 0. 0. 0. 0. 0. 0. 0. 0. 0. 0. 0.
      0. 0. 0. 0. 0. 0. 0. 0. 0. 5.55555569e-03 0. 0. 0. 0. 0.
      5.55555569e-03 0. 5.55555569e-03 0. 0. 0. 0. 0. 0. 0. 0.
      5.55555569e-03 5.55555569e-03 0. 0. 0. 5.55555569e-03 0. 0. 0. 0.
      0. 0. 0. 0. 0. 0. 0. 0. 0. 0. 0. 0. 0. 0. 0. 0. 0. 1.66666675e-02
      0. 0. 0. 5.55555569e-03 0. 0. 0. 0. 5.55555569e-03 0. 0. 0. 0. 0.
      0. 0. 0. 0. 0. 0. 5.55555569e-03 0. 0. 0. 5.55555569e-03 0. 0. 0.
      0. 0. 1.11111114e-02 0. 0. 0. 0. 0. 0. 0. 0. 0. 0. 0. 0.
      1.11111114e-02 0. 5.55555569e-03 0. 0. 0. 0. 0. 0. 0. 0. 0. 0.
      5.55555569e-03 0. 0. 0. 0. 0. 5.55555569e-03 0. 0. 0. 0. 0. 0.
      5.55555569e-03 0. 5.55555569e-03 0. 0. 0. 5.55555569e-03 0. 0.
      5.55555569e-03 0. 1.11111114e-02 0. 0. 0. 0. 0. 0. 0. 0. 0. 0. 0.
      0. 0. 0. 0. 0. 5.55555569e-03 0. 0. 0. 0. 0. 0. 0. 0. 0. 0. 0. 0.
      0. 0. 0. 0. 0. 0. 0. 0. 0. 0. 0. 0. 0. 0. 0. 0. 0. 0. 0. 0. 0.
      2.22222228e-02 0. 0. 0. 0. 0. 0. 0. 0. 0. 0. 0. 0. 0. 0. 0. 0. 0.
      1.11111114e-02 0. 0. 0. 0. 5.55555569e-03 0. 0. 0. 5.55555569e-03
      0. 0. 0. 0. 0. 1.11111114e-02 0. 5.55555569e-03 0. 0. 0.
      5.55555569e-03 0. 0. 0. 0. 0. 0. 0. 0. 0. 0. 0. 0. 0. 0. 0.
      5.55555569e-03 0. 0. 0. 0. 0. 0. 0. 5.55555569e-03 0. 0. 0. 0. 0.
      0. 0. 0. 0. 0. 0. 0. 0. 1.66666675e-02 5.55555569e-03 0.
      5.55555569e-03 0. 0. 0. 0. 0. 0. 0. 0. 0. 0. 0. 0. 0.
      5.55555569e-03 0. 0. 0. 0. 5.55555569e-03 0. 0. 0. 0. 0. 0. 0. 0.
      0. 0. 5.55555569e-03 0. 5.55555569e-03 0. 0. 0. 0. 5.55555569e-03
      5.55555569e-03 0. 0. 0. 1.11111114e-02 0. 0. 0. 0. 0.
      5.55555569e-03 0. 0. 0. 0. 5.55555569e-03 5.55555569e-03
      5.55555569e-03 5.55555569e-03 0. 0. 0. 0. 0. 0. 0. 0. 0. 0. 0. 0.
      0. 0. 5.55555569e-03 0. 1.66666675e-02 5.55555569e-03 0. 0. 0. 0.
      0. 0. 0. 0. 0. 0. 0. 0. 0. 0. 0. 0. 0. 0. 0. 0. 0. 0. 0. 0. 0. 0.
      0. 0. 5.55555569e-03 0. 0. 0. 0. 0. 0. 0. 0. 1.11111114e-02 0. 0.
      0. 0. 0. 0. 0. 0. 0. 0. 0. 0. 0. 0. 0. 5.55555569e-03 0. 0. 0. 0.
      0. 0. 0. 0. 0. 0. 5.55555569e-03 0. 2.22222228e-02 0. 0. 0. 0. 0.
      0. 0. 0. 0. 0. 0. 0. 0. 0. 0. 1.11111114e-02 2.22222228e-02 0. 0.
      0. 0. 0. 0. 0. 0. 0. 0. 1.11111114e-02 0. 0. 0. 0. 0.
      5.55555569e-03 0. 0. 0. 0. 0. 5.55555569e-03 0. 0. 0. 0. 0. 0. 0.
      0. 0. 0. 0. 0. 0. 0. 0. 5.55555569e-03 0. 0. 0. 0. 5.55555569e-03
      0. 0. 0. 0. 0. 0. 0. 0. 0. 0. 0. 5.55555569e-03 0. 0. 0. 0. 0. 0.
      0. 5.55555569e-03 0. 0. 0. 0. 0. 0. 0. 0. 0. 0. 0. 0. 0. 0. 0. 0.
      0. 0. 0. 5.55555569e-03 0. 0. 0. 0. 0. 0. 0. 5.55555569e-03 0. 0.
      0. 5.55555569e-03 0. 0. 0. 0. 5.55555569e-03 0. 0. 0. 0. 0. 0. 0.
      0. 0. 0. 0. 0. 0. 0. 0. 0. 0. 0. 0. 0. 0. 0. 0. 0. 0. 0. 0. 0. 0.
      0. 0. 0. 0. 0. 5.55555569e-03 0. 0. 1.66666675e-02 0. 0. 0. 0.
      5.55555569e-03 0. 0. 0. 0. 0. 0. 0. 0. 0. 0. 0. 1.66666675e-02 0.
      0. 0. 5.55555569e-03 0. 0. 0. 0. 3.33333351e-02 0. 0. 0. 0. 0. 0.
      5.55555569e-03 0. 0. 0. 0. 0. 1.11111114e-02 0. 5.55555569e-03 0.
      1.66666675e-02 0. 0. 0. 0. 0. 0. 0. 0. 0. 0. 1.66666675e-02 0. 0.
      5.55555569e-03 0. 0. 0. 0. 0. 0. 0. 0. 1.11111114e-02 0. 0. 0.
      5.55555569e-03 0. 0. 0. 0. 0. 5.55555569e-03 0. 0. 0. 0.
      5.55555569e-03 0. 0. 0. 5.55555569e-03 0. 0. 0.</_>
    <_>
      0. 0. 0. 0. 0. 0. 0. 0. 0. 0. 0. 0. 0. 0. 0. 0. 0. 0. 0. 0. 0. 0.
      0. 0. 0. 0. 0. 0. 0. 0. 0. 0. 5.55555569e-03 0. 0. 0. 0. 0. 0. 0.
      0. 0. 5.55555569e-03 5.55555569e-03 0. 0. 0. 0. 0. 0. 0. 0. 0. 0.
      0. 0. 0. 0. 0. 0. 0. 0. 0. 0. 0. 0. 0. 0. 1.11111114e-02 0. 0. 0.
      0. 0. 0. 5.55555569e-03 0. 0. 0. 0. 0. 0. 0. 0. 0. 0. 0.
      5.55555569e-03 0. 0. 0. 0. 0. 0. 0. 0. 0. 0. 0. 0. 0. 0. 0. 0. 0.
      5.55555569e-03 0. 0. 0. 0. 0. 0. 0. 0. 0. 0. 5.55555569e-03 0. 0.
      0. 0. 0. 0. 0. 0. 0. 0. 0. 0. 0. 5.55555569e-03 0. 0. 0. 0. 0. 0.
      0. 0. 0. 0. 0. 0. 0. 0. 0. 0. 0. 1.66666675e-02 0. 0. 0. 0.
      5.55555569e-03 0. 0. 0. 0. 0. 0. 0. 0. 0. 0. 0. 0. 0. 0. 0. 0. 0.
      5.55555569e-03 0. 0. 0. 0. 0. 0. 0. 0. 0. 0. 0. 0. 0. 0. 0. 0. 0.
      0. 0. 1.11111114e-02 0. 0. 0. 0. 0. 5.55555569e-03 0. 0. 0. 0.
      5.55555569e-03 0. 0. 0. 0. 0. 0. 5.55555569e-03 0. 0. 0. 0. 0. 0.
      0. 0. 0. 0. 1.66666675e-02 0. 0. 5.55555569e-03 0. 0. 0. 0. 0. 0.
      0. 0. 0. 0. 0. 0. 0. 0. 0. 0. 0. 0. 0. 0. 0. 5.55555569e-03 0. 0.
      0. 0. 5.55555569e-03 0. 0. 0. 0. 0. 0. 0. 0. 0. 0. 0. 0. 0. 0. 0.
      0. 0. 0. 5.55555569e-03 0. 0. 0. 0. 0. 0. 0. 0. 0. 5.55555569e-03
      0. 0. 5.55555569e-03 0. 0. 0. 0. 0. 0. 0. 0. 0. 1.11111114e-02 0.
      0. 0. 0. 5.55555569e-03 0. 3.33333351e-02 5.55555569e-03 0. 0. 0.
      0. 0. 0. 0. 0. 0. 0. 0. 0. 0. 0. 0. 0. 0. 0. 0. 0. 1.11111114e-02
      0. 0. 0. 0. 0. 0. 0. 0. 0. 0. 0. 0. 0. 0. 0. 0. 0. 0. 0. 0. 0. 0.
      0. 0. 0. 0. 0. 0. 0. 0. 0. 0. 0. 0. 0. 0. 0. 0. 5.55555569e-03 0.
      0. 0. 0. 0. 1.11111114e-02 0. 0. 0. 0. 0. 0. 0. 0. 5.55555569e-03
      0. 0. 0. 0. 0. 0. 0. 0. 1.11111114e-02 0. 0. 0. 0. 0. 0. 0. 0. 0.
      0. 0. 0. 5.55555569e-03 0. 0. 0. 0. 0. 0. 0. 0. 5.55555569e-03
      5.55555569e-03 0. 0. 0. 0. 0. 0. 0. 0. 0. 0. 0. 0. 0. 0. 0. 0. 0.
      0. 0. 0. 0. 0. 0. 0. 0. 0. 5.55555569e-03 0. 2.22222228e-02 0. 0.
      0. 0. 5.55555569e-03 0. 0. 0. 0. 0. 0. 0. 0. 0. 0. 0. 0. 0. 0.
      5.55555569e-03 0. 0. 0. 0. 0. 0. 5.55555569e-03 0. 1.11111114e-02
      0. 0. 0. 0. 0. 0. 0. 0. 5.55555569e-03 0. 0. 0. 0. 0. 0.
      5.55555569e-03 0. 0. 0. 5.55555569e-03 0. 0. 0. 0. 0. 0.
      5.55555569e-03 0. 0. 0. 0. 0. 0. 0. 0. 0. 0. 0. 0. 5.55555569e-03
      0. 0. 1.11111114e-02 0. 0. 5.55555569e-03 0. 0. 5.55555569e-03 0.
      0. 0. 0. 0. 0. 0. 0. 0. 0. 5.55555569e-03 0. 0. 0. 0. 0.
      1.66666675e-02 0. 0. 0. 0. 0. 0. 0. 0. 0. 0. 0. 0. 5.55555569e-03
      0. 0. 0. 0. 0. 0. 0. 0. 0. 0. 5.55555569e-03 0. 0. 0.
      5.55555569e-03 0. 0. 0. 0. 0. 0. 0. 0. 1.11111114e-02 0. 0. 0. 0.
      0. 0. 0. 0. 0. 0. 0. 0. 0. 0. 0. 0. 0. 0. 0. 0. 0. 0. 0. 0.
      1.11111114e-02 0. 0. 0. 0. 0. 0. 1.11111114e-02 0. 2.22222228e-02
      0. 0. 0. 0. 5.55555569e-03 5.55555569e-03 0. 0. 1.11111114e-02 0.
      0. 0. 0. 0. 1.11111114e-02 0. 0. 0. 5.55555569e-03 0. 0. 0. 0. 0.
      0. 0. 5.55555569e-03 5.55555569e-03 5.55555569e-03 0. 0.
      1.11111114e-02 1.11111114e-02 0. 0. 0. 0. 0. 0. 5.55555569e-03 0.
      0. 0. 0. 0. 5.55555569e-03 0. 0. 0. 0. 5.55555569e-03 0.
      5.55555569e-03 0. 0. 0. 0. 0. 0. 0. 0. 0. 0. 5.55555569e-03 0. 0.
      5.55555569e-03 0. 0. 0. 0. 0. 5.55555569e-03 0. 0. 0. 0. 0. 0. 0.
      0. 0. 0. 0. 0. 5.55555569e-03 0. 0. 0. 0. 0. 0. 0. 0.
      5.55555569e-03 0. 0. 0. 0. 0. 0. 0. 0. 0. 5.55555569e-03 0. 0. 0.
      0. 5.55555569e-03 0. 0. 0. 0. 0. 0. 0. 0. 0. 0. 0. 0. 0. 0. 0. 0.
      5.55555569e-03 5.55555569e-03 0. 0. 0. 0. 0. 0. 0. 0. 0. 0.
      5.55555569e-03 0. 0. 5.55555569e-03 0. 5.55555569e-03
      5.55555569e-03 1.66666675e-02 0. 5.55555569e-03 0. 0. 0. 0. 0. 0.
      0. 0. 0. 0. 0. 0. 0. 0. 0. 0. 0. 5.55555569e-03 0. 0. 0. 0.
      5.55555569e-03 0. 0. 0. 0. 1.11111114e-02 0. 0. 5.55555569e-03 0.
      5.55555569e-03 0. 5.55555569e-03 5.55555569e-03 0. 0. 0. 0.
      5.55555569e-03 0. 0. 0. 0. 0. 0. 0. 0. 5.55555569e-03 0. 0. 0. 0.
      0. 0. 0. 0. 0. 0. 0. 0. 1.11111114e-02 5.55555569e-03 0. 0.
      5.55555569e-03 0. 5.55555569e-03 0. 5.55555569e-03 0. 0. 0. 0. 0.
      5.55555569e-03 0. 0. 0. 0. 0. 0. 0. 0. 0. 0. 0. 0. 0.
      1.11111114e-02 0. 5.55555569e-03 0. 5.55555569e-03 5.55555569e-03
      0. 0. 0. 0. 0. 0. 1.11111114e-02 0. 0. 1.11111114e-02 0. 0. 0. 0.
      0. 0. 5.55555569e-03 0. 0. 0. 0. 5.55555569e-03 1.11111114e-02 0.
      0. 0. 0. 0. 0. 0. 0. 0. 1.66666675e-02 0. 0. 5.55555569e-03 0. 0.
      0. 1.11111114e-02 0. 0. 0. 0. 0. 0. 0. 5.55555569e-03 0. 0. 0. 0.
      0. 5.55555569e-03 0. 0. 0. 0. 5.55555569e-03 0. 5.55555569e-03 0.
      0. 0. 0. 1.11111114e-02 0. 0. 0. 0. 0. 0. 0. 0. 0. 0. 0. 0.
      5.55555569e-03 0. 0. 0. 0. 0. 0. 0. 0. 0. 0. 0. 5.55555569e-03 0.
      0. 0. 0. 0. 5.55555569e-03 0. 5.55555569e-03 0. 0. 0. 0.
      5.55555569e-03 0. 1.66666675e-02 5.55555569e-03 5.55555569e-03 0.
      0. 0. 0. 0. 0. 0. 0. 0. 0. 0. 0. 0. 5.55555569e-03 0. 0. 0. 0. 0.
      0. 0. 0. 0. 0. 0. 0. 0. 0. 0. 1.66666675e-02 0. 0. 0. 0. 0. 0. 0.
      0. 0. 0. 0. 0. 5.55555569e-03 0. 1.11111114e-02</_>
    <_>
      0. 0. 0. 0. 0. 0. 0. 0. 0. 0. 0. 0. 0. 0. 0. 0. 0. 0. 0. 0. 0. 0.
      0. 0. 0. 0. 0. 0. 0. 0. 0. 0. 0. 0. 0. 0. 0. 0. 0. 0. 0. 0. 0. 0.
      0. 0. 0. 0. 0. 0. 0. 0. 0. 0. 0. 0. 0. 0. 0. 0. 0. 0. 0. 0. 0. 0.
      0. 0. 0. 0. 0. 0. 0. 0. 0. 0. 0. 0. 0. 0. 0. 0. 0. 0. 0. 0. 0. 0.
      0. 0. 0. 0. 0. 0. 0. 0. 0. 0. 0. 0. 0. 0. 0. 0. 0. 0. 0. 0. 0. 0.
      0. 0. 0. 0. 0. 0. 0. 0. 0. 0. 0. 0. 0. 0. 0. 0. 0. 0. 0. 0. 0. 0.
      0. 0. 0. 0. 0. 0. 0. 0. 0. 0. 0. 0. 0. 0. 0. 0. 0. 0. 0. 0. 0. 0.
      0. 0. 0. 0. 0. 0. 0. 0. 0. 0. 0. 0. 0. 0. 0. 0. 0. 0. 0. 0.
      4.16666679e-02 0. 0. 0. 0. 0. 0. 0. 0. 0. 0. 0. 0. 0. 0. 0. 0. 0.
      0. 0. 0. 0. 0. 0. 0. 0. 0. 0. 0. 0. 0. 0. 4.16666679e-02 0. 0. 0.
      0. 0. 0. 0. 0. 0. 0. 0. 0. 0. 0. 0. 0. 0. 0. 0. 0. 0. 0. 0. 0. 0.
      0. 0. 0. 0. 0. 0. 0. 0. 0. 0. 0. 0. 0. 0. 0. 0. 4.16666679e-02 0.
      0. 0. 0. 0. 0. 0. 0. 0. 0. 0. 0. 0. 0. 0. 0. 0. 0. 0. 0. 0. 0. 0.
      0. 0. 0. 0. 0. 0. 0. 0. 0. 0. 0. 0. 0. 0. 0. 0. 0. 0. 0. 0. 0. 0.
      0. 0. 0. 0. 0. 0. 0. 0. 0. 0. 0. 0. 0. 0. 0. 0. 0. 0. 0. 0. 0. 0.
      0. 0. 0. 0. 0. 0. 0. 0. 0. 0. 0. 0. 0. 0. 0. 0. 0. 4.16666679e-02
      0. 0. 0. 0. 0. 0. 0. 0. 0. 0. 0. 0. 0. 0. 0. 0. 0. 0. 0. 0. 0. 0.
      0. 0. 0. 0. 0. 0. 0. 0. 0. 0. 0. 0. 0. 0. 0. 0. 0. 0. 0. 0. 0.
      4.16666679e-02 0. 0. 0. 0. 0. 0. 0. 0. 0. 0. 0. 0. 0. 0. 0. 0. 0.
      0. 0. 0. 0. 0. 0. 0. 0. 4.16666679e-02 0. 0. 0. 0. 0. 0. 0. 0. 0.
      0. 0. 0. 0. 0. 4.16666679e-02 0. 0. 0. 0. 0. 4.16666679e-02 0. 0.
      0. 0. 0. 0. 0. 0. 0. 0. 0. 0. 0. 0. 0. 0. 0. 0. 0. 0. 0. 0. 0. 0.
      0. 0. 0. 0. 0. 0. 0. 0. 0. 0. 0. 4.16666679e-02 0. 0. 0. 0. 0. 0.
      0. 0. 0. 0. 0. 0. 0. 0. 0. 0. 0. 0. 0. 0. 0. 0. 0. 0. 0. 0. 0. 0.
      0. 0. 0. 0. 0. 0. 0. 0. 0. 0. 0. 0. 0. 0. 0. 0. 0. 0. 0. 0. 0. 0.
      0. 0. 0. 0. 0. 0. 0. 0. 0. 0. 0. 0. 0. 0. 0. 0. 0. 4.16666679e-02
      0. 0. 0. 0. 0. 0. 0. 0. 0. 0. 0. 0. 0. 0. 0. 0. 0. 0. 0. 0. 0. 0.
      0. 0. 0. 0. 0. 0. 0. 0. 0. 0. 0. 0. 0. 4.16666679e-02 0. 0. 0. 0.
      0. 0. 0. 0. 0. 0. 0. 0. 0. 0. 0. 0. 0. 0. 0. 0. 4.16666679e-02 0.
      0. 0. 0. 0. 0. 0. 0. 0. 0. 0. 0. 0. 0. 0. 0. 0. 0. 0. 0. 0. 0. 0.
      0. 0. 0. 0. 0. 0. 0. 0. 0. 0. 0. 0. 0. 0. 0. 0. 0. 0. 0. 0. 0.
      4.16666679e-02 0. 0. 0. 0. 0. 0. 0. 0. 0. 0. 4.16666679e-02 0. 0.
      0. 0. 0. 0. 0. 0. 0. 0. 0. 4.16666679e-02 0. 0. 0. 0. 0. 0. 0. 0.
      0. 0. 0. 0. 0. 0. 0. 0. 0. 0. 0. 0. 0. 0. 0. 0. 0. 0. 0. 0. 0. 0.
      0. 0. 0. 0. 4.16666679e-02 0. 0. 0. 0. 0. 0. 0. 0. 0. 0. 0. 0. 0.
      0. 0. 0. 0. 0. 0. 0. 0. 0. 0. 0. 0. 0. 0. 0. 0. 0. 0. 0. 0. 0. 0.
      0. 0. 0. 0. 0. 0. 4.16666679e-02 0. 0. 0. 0. 0. 0. 0. 0. 0. 0. 0.
      0. 0. 0. 0. 0. 0. 0. 0. 0. 0. 0. 0. 0. 0. 0. 0. 0. 0. 0. 0. 0. 0.
      0. 0. 0. 0. 0. 0. 0. 0. 0. 0. 0. 0. 0. 4.16666679e-02 0. 0. 0. 0.
      4.16666679e-02 0. 0. 0. 0. 0. 0. 0. 0. 0. 0. 0. 0. 0. 0. 0. 0. 0.
      0. 0. 0. 0. 0. 0. 0. 0. 0. 0. 0. 0. 0. 0. 0. 4.16666679e-02 0. 0.
      0. 0. 0. 0. 0. 0. 0. 0. 0. 0. 0. 0. 0. 0. 0. 4.16666679e-02 0. 0.
      0. 0. 0. 0. 0. 0. 0. 0. 0. 0. 0. 0. 0. 0. 0. 0. 0. 0. 0. 0. 0. 0.
      0. 0. 0. 0. 0. 0. 0. 0. 0. 0. 0. 0. 0. 0. 0. 0. 0. 0. 0. 0. 0. 0.
      0. 0. 0. 0. 0. 0. 0. 0. 0. 0. 0. 0. 0. 0. 0. 0. 0. 0. 0. 0. 0. 0.
      0. 0. 0. 0. 0. 4.16666679e-02 0. 0. 0. 0. 0. 0. 0. 0. 0. 0. 0. 0.
      0. 0. 0. 0. 0. 0. 0. 0. 0. 0. 0. 0. 0. 0. 0. 0. 0. 0. 0. 0. 0. 0.
      0. 0. 0. 0. 0. 0. 0. 0. 0. 0. 0. 0. 0. 0. 0. 0. 0. 4.16666679e-02
      0. 0. 0. 0. 0. 0. 0. 0. 0. 0. 0. 0. 0. 0. 0. 0. 0. 0. 0. 0. 0. 0.
      0. 0. 0. 0. 0. 0. 0. 0. 0. 0. 0. 0. 0. 0. 0. 0. 4.16666679e-02 0.</_>
    <_>
      0. 0. 0. 0. 0. 0. 0. 5.71428565e-03 0. 0. 0. 0. 0. 0.
      5.71428565e-03 0. 0. 5.71428565e-03 0. 0. 0. 0. 0. 5.71428565e-03
      0. 0. 0. 0. 0. 0. 0. 0. 0. 0. 0. 5.71428565e-03 0. 0. 0. 0.
      5.71428565e-03 1.71428565e-02 0. 0. 0. 0. 0. 0. 0. 0. 0.
      5.71428565e-03 5.71428565e-03 0. 0. 0. 0. 5.71428565e-03 0. 0. 0.
      0. 0. 0. 0. 0. 0. 5.71428565e-03 0. 0. 0. 0. 0. 0. 0. 0. 0. 0. 0.
      0. 0. 0. 0. 0. 0. 0. 0. 0. 0. 0. 0. 0. 0. 0. 0. 0. 0. 0. 0. 0. 0.
      0. 0. 0. 0. 0. 0. 0. 0. 0. 0. 0. 0. 0. 0. 5.71428565e-03 0. 0. 0.
      0. 0. 5.71428565e-03 0. 0. 0. 0. 0. 0. 0. 0. 0. 0. 0.
      5.71428565e-03 0. 0. 0. 0. 0. 0. 0. 0. 0. 0. 0. 0. 0. 0. 0. 0. 0.
      5.71428565e-03 1.14285713e-02 0. 0. 0. 0. 0. 0. 0. 0. 0. 0. 0.
      5.71428565e-03 0. 0. 0. 0. 0. 0. 0. 0. 0. 0. 0. 0. 0. 0. 0. 0. 0.
      0. 1.14285713e-02 0. 5.71428565e-03 0. 0. 0. 0. 0. 0. 0. 0. 0. 0.
      5.71428565e-03 0. 0. 0. 5.71428565e-03 0. 0. 0. 0. 1.71428565e-02
      0. 0. 0. 0. 0. 0. 0. 5.71428565e-03 0. 0. 0. 0. 0. 0. 0. 0. 0. 0.
      0. 0. 5.71428565e-03 0. 0. 0. 0. 0. 0. 0. 0. 0. 0. 0. 0. 0. 0. 0.
      0. 0. 0. 0. 0. 0. 0. 0. 0. 0. 0. 0. 0. 0. 0. 0. 0. 0. 0. 0.
      5.71428565e-03 0. 0. 0. 0. 0. 0. 1.14285713e-02 0. 0. 0.
      1.14285713e-02 0. 0. 0. 0. 0. 0. 0. 0. 2.85714287e-02 0. 0. 0. 0.
      0. 0. 0. 0. 0. 1.14285713e-02 0. 0. 0. 0. 0. 0. 1.71428565e-02
      5.71428565e-03 0. 0. 0. 0. 0. 0. 0. 0. 0. 0. 0. 0. 0. 0. 0. 0. 0.
      5.71428565e-03 0. 0. 0. 5.71428565e-03 0. 0. 0. 0. 0. 0. 0.
      5.71428565e-03 0. 0. 0. 0. 0. 1.14285713e-02 0. 0. 0. 0. 0. 0. 0.
      0. 0. 0. 0. 0. 0. 0. 0. 0. 0. 0. 0. 0. 0. 0. 0. 0. 0. 0. 0. 0. 0.
      5.71428565e-03 0. 0. 0. 0. 0. 0. 0. 0. 0. 0. 0. 0. 0.
      5.71428565e-03 0. 0. 0. 5.71428565e-03 5.71428565e-03 0. 0. 0. 0.
      0. 0. 0. 0. 0. 0. 0. 0. 0. 0. 0. 0. 0. 0. 5.71428565e-03 0. 0. 0.
      0. 0. 0. 0. 0. 0. 0. 5.71428565e-03 5.71428565e-03 0. 0. 0. 0. 0.
      5.71428565e-03 0. 0. 0. 0. 0. 0. 0. 0. 0. 0. 0. 5.71428565e-03 0.
      5.71428565e-03 0. 0. 0. 0. 0. 0. 0. 0. 0. 5.71428565e-03
      5.71428565e-03 0. 0. 0. 0. 0. 0. 0. 5.71428565e-03 0. 0. 0. 0. 0.
      0. 0. 5.71428565e-03 0. 0. 0. 0. 0. 0. 5.71428565e-03 0. 0. 0. 0.
      0. 5.71428565e-03 0. 0. 0. 0. 0. 0. 0. 0. 0. 0. 0. 5.71428565e-03
      0. 0. 0. 5.71428565e-03 0. 5.71428565e-03 0. 0. 0. 0. 0. 0. 0. 0.
      0. 0. 5.71428565e-03 0. 0. 0. 0. 0. 0. 0. 5.71428565e-03 0. 0. 0.
      0. 0. 0. 0. 0. 0. 0. 5.71428565e-03 0. 0. 0. 0. 5.71428565e-03 0.
      0. 0. 0. 0. 0. 0. 0. 0. 0. 0. 0. 0. 0. 0. 0. 0. 0. 0. 0. 0. 0. 0.
      0. 0. 0. 0. 0. 0. 0. 1.14285713e-02 0. 0. 0. 0. 0. 0.
      5.71428565e-03 0. 0. 0. 0. 0. 0. 5.71428565e-03 0. 0.
      5.71428565e-03 0. 0. 1.14285713e-02 0. 0. 0. 5.71428565e-03
      5.71428565e-03 0. 0. 0. 0. 0. 0. 0. 1.14285713e-02 0.
      5.71428565e-03 0. 0. 0. 0. 0. 0. 0. 0. 5.71428565e-03 0. 0. 0. 0.
      0. 0. 0. 0. 0. 0. 0. 0. 0. 0. 0. 5.71428565e-03 0. 0. 0. 0. 0. 0.
      0. 0. 1.14285713e-02 0. 0. 0. 0. 0. 0. 0. 0. 0. 0. 0. 0. 0. 0. 0.
      0. 0. 0. 0. 0. 0. 5.71428565e-03 0. 5.71428565e-03 1.71428565e-02
      0. 0. 0. 0. 0. 0. 0. 0. 0. 0. 0. 0. 0. 0. 0. 0. 0. 0. 0. 0.
      5.71428565e-03 0. 0. 0. 0. 0. 5.71428565e-03 1.71428565e-02
      5.71428565e-03 0. 1.14285713e-02 1.14285713e-02 0. 0. 0.
      5.71428565e-03 5.71428565e-03 0. 0. 0. 0. 0. 0. 0. 0. 0. 0. 0. 0.
      0. 0. 0. 0. 0. 0. 0. 0. 0. 0. 0. 0. 0. 5.71428565e-03 0. 0.
      1.71428565e-02 0. 0. 0. 1.14285713e-02 0. 0. 1.14285713e-02 0. 0.
      5.71428565e-03 0. 0. 5.71428565e-03 0. 0. 0. 0. 0. 0. 0. 0. 0. 0.
      0. 0. 0. 0. 5.71428565e-03 0. 5.71428565e-03 5.71428565e-03 0. 0.
      0. 0. 0. 0. 5.71428565e-03 0. 0. 5.71428565e-03 0. 0. 0. 0. 0. 0.
      5.71428565e-03 0. 1.14285713e-02 0. 0. 5.71428565e-03 0. 0. 0. 0.
      0. 0. 0. 5.71428565e-03 5.71428565e-03 0. 0. 0. 5.71428565e-03
      1.14285713e-02 0. 5.71428565e-03 0. 0. 0. 0. 0. 0. 0. 0. 0.
      5.71428565e-03 0. 0. 5.71428565e-03 0. 0. 0. 5.71428565e-03 0. 0.
      0. 1.14285713e-02 1.14285713e-02 0. 5.71428565e-03 0.
      5.71428565e-03 0. 0. 0. 0. 5.71428565e-03 0. 0. 0. 5.71428565e-03
      0. 0. 0. 0. 0. 0. 0. 5.71428565e-03 5.71428565e-03 0. 0. 0. 0. 0.
      0. 0. 5.71428565e-03 0. 5.71428565e-03 5.71428565e-03
      5.71428565e-03 0. 0. 0. 0. 0. 0. 0. 0. 0. 0. 0. 0. 0. 0. 0. 0.
      5.71428565e-03 0. 0. 0. 0. 0. 0. 0. 0. 0. 5.71428565e-03 0. 0. 0.
      0. 0. 0. 0. 5.71428565e-03 0. 0. 0. 5.71428565e-03 0. 0. 0. 0. 0.
      5.71428565e-03 0. 0. 0. 5.71428565e-03 0. 0. 0. 0. 0. 0.
      5.71428565e-03 0. 0. 5.71428565e-03 5.71428565e-03 0. 0. 0. 0. 0.
      0. 0. 0. 5.71428565e-03 0. 5.71428565e-03 0. 0. 0. 0. 0. 0. 0. 0.
      0. 0. 0. 0. 5.71428565e-03 0. 0. 0. 0. 0. 0. 0. 0. 0. 0. 0.
      5.71428565e-03 5.71428565e-03 5.71428565e-03 0. 0. 0. 0. 0. 0. 0.
      0. 5.71428565e-03 0. 0. 0. 0. 0. 0. 0. 0. 0. 0. 0. 0. 0. 0. 0. 0.
      0. 0. 0. 0. 5.71428565e-03 0. 0. 0. 5.71428565e-03 0.
      1.14285713e-02 5.71428565e-03 0. 0. 5.71428565e-03 1.14285713e-02
      0. 5.71428565e-03 0. 0. 0. 0. 0. 0. 0. 0. 0. 0. 0. 5.71428565e-03
      0.</_>
    <_>
      0. 0. 0. 0. 0. 0. 0. 0. 0. 0. 0. 0. 0. 0. 6.71140943e-03 0. 0.
      6.71140943e-03 0. 0. 0. 0. 0. 6.71140943e-03 0. 0. 0. 0. 0. 0. 0.
      0. 0. 0. 0. 0. 0. 0. 6.71140943e-03 0. 6.71140943e-03 0. 0. 0. 0.
      0. 0. 0. 0. 0. 0. 0. 0. 0. 0. 0. 0. 0. 0. 0. 0. 0. 0. 0. 0. 0. 0.
      0. 0. 0. 0. 0. 0. 0. 0. 0. 0. 0. 0. 0. 0. 0. 0. 0. 0. 0. 0. 0. 0.
      6.71140943e-03 0. 0. 0. 0. 0. 0. 0. 0. 0. 0. 0. 0. 0. 0.
      6.71140943e-03 0. 0. 0. 0. 0. 0. 0. 0. 0. 0. 0. 0. 0.
      6.71140943e-03 0. 0. 0. 0. 0. 0. 0. 0. 0. 0. 0. 0. 0. 0. 0. 0. 0.
      0. 0. 0. 0. 0. 0. 0. 0. 0. 0. 6.71140943e-03 0. 0. 0. 0. 0. 0. 0.
      0. 0. 0. 0. 0. 0. 0. 0. 0. 0. 6.71140943e-03 0. 0. 0. 0. 0. 0.
      1.34228189e-02 0. 0. 0. 0. 0. 0. 6.71140943e-03 6.71140943e-03 0.
      0. 0. 0. 0. 0. 0. 0. 0. 0. 0. 0. 0. 0. 0. 0. 0. 0. 0. 0. 0. 0. 0.
      0. 0. 6.71140943e-03 0. 0. 0. 6.71140943e-03 0. 0. 0. 0. 0. 0. 0.
      6.71140943e-03 0. 0. 0. 0. 0. 1.34228189e-02 0. 0. 6.71140943e-03
      0. 6.71140943e-03 0. 0. 0. 0. 0. 0. 0. 0. 0. 0. 0. 0. 0. 0. 0. 0.
      0. 0. 0. 0. 0. 0. 0. 0. 0. 0. 0. 1.34228189e-02 0. 0. 0. 0. 0.
      6.71140943e-03 6.71140943e-03 0. 0. 0. 0. 0. 6.71140943e-03 0. 0.
      0. 6.71140943e-03 0. 0. 0. 0. 0. 0. 0. 0. 0. 0. 0. 0. 0. 0. 0. 0.
      0. 0. 6.71140943e-03 0. 0. 6.71140943e-03 6.71140943e-03
      6.71140943e-03 0. 6.71140943e-03 0. 0. 0. 0. 0. 0. 0.
      6.71140943e-03 0. 0. 0. 0. 0. 0. 0. 0. 0. 0. 6.71140943e-03 0. 0.
      0. 0. 0. 0. 0. 0. 0. 0. 0. 0. 0. 0. 0. 0. 0. 0. 0. 0.
      6.71140943e-03 0. 0. 0. 0. 0. 6.71140943e-03 0. 0. 0.
      6.71140943e-03 0. 0. 0. 0. 0. 6.71140943e-03 0. 0. 0. 0. 0. 0. 0.
      0. 0. 0. 0. 0. 6.71140943e-03 0. 0. 0. 0. 0. 0. 0. 0. 0. 0. 0. 0.
      6.71140943e-03 0. 0. 6.71140943e-03 6.71140943e-03 0. 0. 0. 0. 0.
      0. 0. 1.34228189e-02 0. 0. 0. 0. 6.71140943e-03 0. 0. 0.
      6.71140943e-03 0. 0. 0. 0. 0. 0. 0. 0. 0. 0. 0. 0. 0.
      6.71140943e-03 0. 0. 0. 0. 0. 0. 0. 0. 0. 0. 0. 0. 0. 0. 0. 0. 0.
      1.34228189e-02 0. 0. 0. 0. 0. 0. 0. 0. 0. 0. 0. 0. 0. 0. 0. 0. 0.
      0. 0. 0. 0. 0. 0. 0. 0. 0. 0. 0. 1.34228189e-02 0. 0. 0. 0. 0. 0.
      0. 0. 0. 0. 0. 0. 0. 0. 6.71140943e-03 0. 0. 0. 0. 0. 0. 0. 0.
      6.71140943e-03 0. 0. 0. 0. 0. 0. 6.71140943e-03 0. 0. 0. 0. 0.
      6.71140943e-03 0. 0. 0. 0. 0. 0. 0. 1.34228189e-02 0. 0. 0. 0. 0.
      0. 0. 0. 0. 0. 0. 0. 0. 0. 0. 0. 0. 0. 6.71140943e-03 0. 0. 0. 0.
      0. 0. 0. 0. 6.71140943e-03 0. 0. 0. 0. 0. 0. 0. 0. 0. 0. 0. 0. 0.
      0. 0. 0. 0. 0. 0. 0. 0. 0. 0. 6.71140943e-03 0. 0. 0. 0. 0. 0.
      6.71140943e-03 0. 0. 0. 0. 0. 0. 0. 0. 0. 0. 0. 0. 6.71140943e-03
      0. 0. 0. 6.71140943e-03 1.34228189e-02 0. 0. 0. 0. 6.71140943e-03
      0. 0. 6.71140943e-03 0. 0. 0. 6.71140943e-03 0. 0. 0. 0.
      1.34228189e-02 0. 0. 6.71140943e-03 0. 0. 0. 0. 0. 0. 0. 0. 0. 0.
      0. 0. 0. 0. 6.71140943e-03 0. 0. 6.71140943e-03 0. 0. 0. 0. 0. 0.
      6.71140943e-03 0. 0. 0. 0. 0. 0. 0. 0. 0. 6.71140943e-03
      6.71140943e-03 0. 0. 0. 6.71140943e-03 0. 0. 0. 0. 0.
      6.71140943e-03 0. 0. 3.35570462e-02 0. 0. 0. 0. 0. 0. 0.
      6.71140943e-03 0. 0. 6.71140943e-03 0. 0. 0. 0. 0. 0. 0. 0. 0. 0.
      6.71140943e-03 0. 0. 0. 0. 6.71140943e-03 0. 0. 0. 0.
      6.71140943e-03 0. 6.71140943e-03 0. 6.71140943e-03 0. 0. 0. 0. 0.
      6.71140943e-03 1.34228189e-02 0. 0. 0. 0. 0. 0. 0. 0. 0. 0. 0. 0.
      0. 0. 0. 6.71140943e-03 0. 0. 0. 0. 0. 0. 1.34228189e-02 0. 0. 0.
      6.71140943e-03 0. 0. 0. 0. 0. 6.71140943e-03 0. 0. 0.
      6.71140943e-03 0. 0. 0. 0. 0. 0. 0. 0. 0. 0. 0. 0. 0. 0. 0. 0. 0.
      0. 0. 0. 0. 0. 0. 6.71140943e-03 6.71140943e-03 0. 6.71140943e-03
      0. 0. 0. 0. 0. 0. 0. 0. 6.71140943e-03 0. 0. 0. 6.71140943e-03
      6.71140943e-03 6.71140943e-03 0. 0. 0. 0. 0. 6.71140943e-03
      6.71140943e-03 0. 0. 0. 1.34228189e-02 0. 0. 6.71140943e-03 0.
      6.71140943e-03 0. 0. 0. 0. 0. 0. 0. 6.71140943e-03 0.
      6.71140943e-03 0. 0. 0. 0. 0. 0. 0. 2.01342292e-02 0. 0.
      6.71140943e-03 0. 0. 0. 6.71140943e-03 0. 0. 0. 0. 0. 0. 0. 0. 0.
      0. 6.71140943e-03 0. 0. 0. 0. 0. 0. 0. 6.71140943e-03 0. 0. 0. 0.
      0. 0. 6.71140943e-03 0. 0. 0. 0. 0. 0. 0. 0. 0. 0. 0. 0. 0. 0.
      1.34228189e-02 0. 0. 0. 0. 0. 0. 0. 0. 0. 0. 1.34228189e-02 0. 0.
      0. 6.71140943e-03 0. 0. 0. 0. 0. 0. 6.71140943e-03 0. 0. 0. 0. 0.
      0. 0. 0. 0. 0. 0. 0. 0. 0. 0. 0. 1.34228189e-02 0. 0. 0. 0. 0. 0.
      0. 0. 0. 0. 0. 0. 0. 0. 0. 0. 6.71140943e-03 0. 6.71140943e-03 0.
      0. 0. 0. 0. 0. 0. 6.71140943e-03 0. 0. 0. 0. 6.71140943e-03 0.
      6.71140943e-03 0. 0. 0. 0. 0. 0. 0. 0. 0. 0. 6.71140943e-03 0. 0.
      0. 0. 6.71140943e-03 0. 0. 0. 6.71140943e-03 0. 0. 6.71140943e-03
      0. 6.71140943e-03 0. 0. 0. 0. 6.71140943e-03 0. 0. 0. 0. 0. 0.
      6.71140943e-03 0. 0. 0. 0. 0. 0. 0. 0. 0. 0. 6.71140943e-03
      6.71140943e-03 0. 0. 6.71140943e-03 6.71140943e-03 0. 0. 0.
      6.71140943e-03 0. 6.71140943e-03 0. 0. 0. 0. 0. 0. 0. 0.
      6.71140943e-03</_>
    <_>
      0. 0. 0. 2.59740255e-03 0. 0. 0. 0. 0. 0. 7.79220741e-03 0. 0.
      2.59740255e-03 0. 5.19480510e-03 0. 0. 0. 1.03896102e-02 0. 0.
      1.29870130e-02 0. 0. 1.03896102e-02 0. 0. 0. 0. 0. 7.79220741e-03
      2.59740255e-03 0. 2.59740255e-03 0. 0. 0. 2.59740255e-03 0. 0.
      5.19480510e-03 0. 5.19480510e-03 0. 0. 0. 0. 0. 0. 0.
      2.59740255e-03 0. 0. 0. 0. 0. 5.19480510e-03 0. 0. 0. 0. 0. 0. 0.
      0. 0. 0. 2.59740255e-03 0. 0. 0. 0. 5.19480510e-03 0.
      2.59740255e-03 0. 0. 0. 0. 0. 0. 0. 0. 0. 0. 5.19480510e-03 0.
      2.59740255e-03 2.59740255e-03 0. 0. 0. 0. 0. 0. 0. 0.
      3.11688296e-02 0. 0. 0. 0. 2.59740255e-03 0. 0. 2.59740255e-03 0.
      0. 0. 0. 0. 0. 0. 0. 0. 0. 0. 0. 0. 0. 2.59740255e-03 0. 0. 0. 0.
      0. 0. 0. 0. 0. 0. 0. 2.59740255e-03 0. 0. 0. 0. 0. 0. 0.
      2.59740255e-03 5.19480510e-03 0. 0. 0. 0. 2.59740255e-03 0. 0. 0.
      0. 5.19480510e-03 0. 0. 2.59740255e-03 0. 0. 2.59740255e-03 0.
      5.19480510e-03 0. 0. 0. 0. 0. 5.19480510e-03 2.59740255e-03 0. 0.
      0. 0. 0. 0. 2.59740255e-03 0. 0. 0. 0. 0. 0. 5.19480510e-03
      2.59740255e-03 0. 0. 5.19480510e-03 0. 0. 0. 2.59740255e-03 0. 0.
      0. 0. 0. 0. 0. 0. 0. 0. 0. 7.79220741e-03 0. 0. 0. 0.
      2.59740255e-03 0. 0. 0. 0. 2.59740255e-03 0. 0. 0. 0. 0. 0. 0. 0.
      2.59740255e-03 0. 0. 0. 0. 0. 0. 0. 0. 0. 2.59740255e-03 0.
      2.59740255e-03 0. 2.59740255e-03 5.19480510e-03 0. 0. 0. 0.
      5.19480510e-03 0. 0. 2.59740255e-03 0. 0. 2.59740255e-03
      2.59740255e-03 0. 0. 0. 0. 2.59740255e-03 2.59740255e-03 0. 0.
      5.19480510e-03 2.59740255e-03 0. 0. 0. 0. 0. 0. 0. 0.
      7.79220741e-03 0. 0. 2.59740255e-03 0. 0. 2.59740255e-03
      5.19480510e-03 2.59740255e-03 0. 0. 0. 0. 2.59740255e-03 0. 0.
      2.59740255e-03 2.59740255e-03 0. 0. 0. 0. 0. 0. 2.59740255e-03
      2.59740255e-03 0. 0. 0. 0. 2.85714287e-02 2.59740255e-03 0.
      2.59740255e-03 0. 0. 2.59740255e-03 0. 2.59740255e-03
      2.59740255e-03 2.59740255e-03 0. 0. 0. 0. 0. 7.79220741e-03 0.
      5.19480510e-03 0. 0. 0. 2.59740255e-03 0. 2.59740255e-03 0. 0. 0.
      0. 0. 2.59740255e-03 0. 2.59740255e-03 2.59740255e-03
      2.59740255e-03 0. 0. 0. 0. 0. 0. 2.59740255e-03 0. 0. 0.
      2.59740255e-03 7.79220741e-03 0. 0. 7.79220741e-03 2.59740255e-03
      0. 0. 0. 2.59740255e-03 0. 0. 0. 0. 0. 0. 0. 2.59740255e-03
      2.59740255e-03 0. 0. 0. 0. 0. 0. 2.59740255e-03 0. 2.59740255e-03
      0. 0. 0. 0. 0. 0. 0. 0. 0. 2.59740255e-03 0. 2.59740255e-03 0.
      2.59740255e-03 0. 0. 0. 0. 0. 0. 0. 0. 0. 5.19480510e-03 0. 0. 0.
      2.59740255e-03 0. 0. 0. 0. 0. 0. 2.59740255e-03 0. 0.
      5.19480510e-03 0. 0. 0. 0. 2.59740255e-03 0. 0. 2.59740255e-03 0.
      7.79220741e-03 0. 0. 2.59740255e-03 0. 0. 0. 0. 0. 2.59740255e-03
      0. 2.59740255e-03 0. 0. 0. 0. 0. 7.79220741e-03 0. 0. 0. 0. 0. 0.
      0. 0. 0. 0. 0. 0. 1.03896102e-02 0. 0. 0. 0. 0. 0. 0.
      2.59740255e-03 0. 2.59740255e-03 0. 2.59740255e-03 0. 0. 0. 0. 0.
      0. 0. 0. 0. 0. 0. 0. 0. 0. 2.59740255e-03 5.19480510e-03 0. 0. 0.
      0. 2.59740255e-03 0. 0. 2.59740255e-03 2.59740255e-03 0.
      2.59740255e-03 0. 0. 0. 0. 5.19480510e-03 0. 0. 0. 2.59740255e-03
      0. 0. 0. 7.79220741e-03 0. 0. 0. 0. 0. 0. 0. 0. 0. 0. 0. 0.
      2.59740255e-03 0. 0. 7.79220741e-03 0. 0. 0. 0. 0. 0. 0. 0. 0.
      1.29870130e-02 0. 0. 0. 0. 0. 0. 0. 0. 5.19480510e-03
      2.59740255e-03 2.59740255e-03 0. 0. 2.59740255e-03 0.
      2.59740255e-03 0. 0. 2.59740255e-03 0. 0. 1.29870130e-02 0. 0. 0.
      0. 0. 1.03896102e-02 0. 0. 0. 0. 0. 0. 0. 0. 0. 0. 0.
      2.59740255e-03 0. 0. 0. 0. 0. 0. 0. 0. 2.59740255e-03 0. 0. 0. 0.
      0. 0. 0. 0. 0. 0. 0. 0. 0. 0. 0. 0. 0. 0. 0. 0. 0. 0. 0. 0. 0. 0.
      0. 0. 0. 0. 2.59740255e-03 0. 0. 2.59740255e-03 2.59740255e-03 0.
      0. 0. 0. 0. 0. 5.19480510e-03 0. 0. 2.59740255e-03 0. 0. 0. 0. 0.
      0. 0. 0. 2.59740255e-03 0. 0. 2.59740255e-03 0. 0. 0. 0. 0. 0. 0.
      0. 0. 0. 5.19480510e-03 0. 0. 5.19480510e-03 0. 2.59740255e-03 0.
      0. 0. 0. 0. 2.59740255e-03 0. 0. 0. 2.59740255e-03 0. 0. 0. 0. 0.
      2.59740255e-03 0. 0. 2.59740255e-03 0. 2.59740255e-03
      2.59740255e-03 0. 2.59740255e-03 0. 2.59740255e-03 0. 0. 0.
      5.19480510e-03 5.19480510e-03 2.59740255e-03 0. 0. 2.59740255e-03
      5.19480510e-03 0. 0. 2.59740255e-03 0. 0. 2.59740255e-03 0.
      2.59740255e-03 0. 0. 2.59740255e-03 2.59740255e-03 0. 0. 0. 0. 0.
      0. 0. 2.59740255e-03 0. 2.59740255e-03 0. 2.59740255e-03 0. 0. 0.
      0. 5.19480510e-03 0. 2.59740255e-03 0. 0. 0. 5.19480510e-03 0. 0.
      0. 0. 0. 0. 0. 0. 5.19480510e-03 0. 0. 0. 2.59740255e-03 0. 0. 0.
      0. 0. 0. 0. 7.79220741e-03 0. 1.29870130e-02 0. 2.59740255e-03 0.
      0. 0. 0. 0. 0. 0. 0. 0. 0. 2.59740255e-03 0. 1.03896102e-02 0.
      2.59740255e-03 0. 0. 0. 0. 0. 0. 0. 1.03896102e-02 0. 0.
      2.59740255e-03 0. 0. 0. 5.19480510e-03 2.59740255e-03
      2.59740255e-03 5.19480510e-03 0. 0. 0. 0. 0. 1.29870130e-02
      2.59740255e-03 7.79220741e-03 0. 2.59740255e-03 0. 0. 0. 0.
      2.59740255e-03 0. 2.59740255e-03 0. 2.59740255e-03 5.19480510e-03
      0. 0. 0. 0. 2.59740255e-03 2.59740255e-03 0. 0. 0. 0. 0. 0. 0. 0.
      7.79220741e-03 0. 0. 0. 0. 0. 1.03896102e-02 0. 0. 0.
      2.59740255e-03 0. 0. 0. 0. 0. 0. 0. 2.59740255e-03 0. 0. 0. 0.
      2.59740255e-03 0. 0. 0. 0. 0. 0. 0. 0. 0. 0. 0. 0. 0.
      7.79220741e-03 2.59740255e-03 0. 0. 0. 5.19480510e-03 0. 0. 0.
      2.59740255e-03 0. 0. 0. 0. 0. 0. 0. 2.59740255e-03 2.59740255e-03
      0. 0. 2.59740255e-03 2.59740255e-03 2.59740255e-03 2.59740255e-03
      2.59740255e-03 0. 0. 0. 0. 0. 2.59740255e-03 0. 0. 0. 0. 0. 0.
      2.59740255e-03 0. 5.19480510e-03 0. 0. 0. 0. 0. 2.59740255e-03
      2.59740255e-03 0. 0. 0. 0. 0. 0. 0. 0. 0. 0. 0. 0. 0.
      5.19480510e-03 0. 0. 5.19480510e-03 5.19480510e-03 0. 0.
      5.19480510e-03 0. 0. 0. 0. 0. 0. 0. 0. 0. 0. 2.59740255e-03 0.
      2.59740255e-03 2.59740255e-03 0. 2.59740255e-03 2.59740255e-03 0.
      0. 0. 0. 5.19480510e-03 0. 0. 0. 0. 2.59740255e-03 0.
      1.29870130e-02 2.59740255e-03 0. 2.59740255e-03 7.79220741e-03 0.
      2.59740255e-03 0. 0. 0. 2.59740255e-03 2.59740255e-03 0. 0. 0. 0.
      2.59740255e-03 0. 0. 0. 0. 2.59740255e-03 0. 0. 0. 0. 0. 0. 0. 0.
      0. 0. 0. 5.19480510e-03 0. 2.59740255e-03 1.03896102e-02 0. 0. 0.
      0. 0. 0. 5.19480510e-03 5.19480510e-03 5.19480510e-03 0.
      5.19480510e-03 0. 0. 2.59740255e-03 0. 0. 0. 0. 0.</_>
    <_>
      0. 0. 0. 0. 0. 0. 2.00803205e-03 0. 0. 0. 2.00803205e-03
      2.00803205e-03 0. 0. 0. 2.00803205e-03 0. 0. 0. 8.03212821e-03 0.
      0. 1.20481923e-02 0. 0. 4.01606411e-03 0. 0. 0. 0. 0.
      2.00803205e-03 0. 0. 4.01606411e-03 0. 0. 0. 0. 0. 0. 0. 0. 0. 0.
      0. 0. 0. 0. 0. 0. 0. 0. 0. 0. 0. 0. 2.00803205e-03 0. 0.
      2.00803205e-03 0. 0. 0. 0. 0. 0. 0. 0. 0. 0. 0. 0. 0. 0. 0. 0. 0.
      0. 0. 0. 0. 0. 0. 0. 0. 2.00803205e-03 0. 0. 8.03212821e-03 0.
      2.00803205e-03 0. 0. 0. 0. 4.01606411e-03 0. 1.00401603e-02
      2.00803205e-03 0. 0. 0. 0. 0. 0. 0. 0. 0. 0. 0. 0. 0. 0. 0. 0. 0.
      0. 0. 0. 0. 8.03212821e-03 0. 0. 0. 4.01606411e-03 0. 0. 0. 0.
      4.01606411e-03 0. 0. 0. 6.02409616e-03 2.00803205e-03 0. 0. 0. 0.
      2.00803205e-03 0. 8.03212821e-03 0. 0. 2.00803205e-03 0. 0.
      2.00803205e-03 0. 0. 0. 0. 0. 0. 0. 0. 0. 2.00803205e-03 0. 0. 0.
      0. 2.00803205e-03 0. 0. 6.02409616e-03 2.00803205e-03 0. 0. 0. 0.
      0. 0. 0. 0. 0. 0. 0. 0. 0. 0. 2.00803205e-03 0. 0. 0. 0.
      4.01606411e-03 2.00803205e-03 0. 0. 2.00803205e-03 0. 0. 0. 0. 0.
      0. 0. 0. 0. 6.02409616e-03 2.00803205e-03 0. 0. 0. 0. 0. 0.
      2.00803205e-03 0. 8.03212821e-03 6.02409616e-03 0. 4.01606411e-03
      2.00803205e-03 0. 2.00803205e-03 0. 2.00803205e-03 0. 0.
      2.00803205e-03 2.00803205e-03 0. 0. 2.00803205e-03 0.
      2.00803205e-03 2.00803205e-03 4.01606411e-03 0. 0. 0.
      6.02409616e-03 0. 2.00803205e-03 0. 0. 0. 2.00803205e-03 0. 0. 0.
      0. 0. 8.03212821e-03 6.02409616e-03 0. 0. 4.01606411e-03 0. 0. 0.
      2.00803205e-03 0. 6.02409616e-03 0. 2.00803205e-03 0. 0. 0.
      2.00803205e-03 6.02409616e-03 0. 0. 0. 0. 2.00803205e-03
      4.01606411e-03 0. 2.00803205e-03 0. 0. 0. 2.00803205e-03 0. 0. 0.
      1.00401603e-02 0. 0. 0. 0. 0. 0. 0. 0. 0. 2.00803205e-03
      1.80722885e-02 4.01606411e-03 0. 0. 0. 2.00803205e-03
      6.02409616e-03 0. 0. 2.00803205e-03 2.00803205e-03 2.00803205e-03
      0. 0. 0. 6.02409616e-03 0. 0. 2.00803205e-03 0. 2.00803205e-03 0.
      0. 0. 6.02409616e-03 0. 8.03212821e-03 0. 4.01606411e-03 0.
      1.00401603e-02 0. 0. 0. 0. 0. 0. 8.03212821e-03 0. 0.
      2.00803205e-03 0. 0. 0. 0. 2.00803205e-03 0. 6.02409616e-03 0. 0.
      0. 0. 2.00803205e-03 0. 0. 0. 0. 0. 0. 0. 0. 0. 0. 0.
      2.00803205e-03 0. 2.00803205e-03 4.01606411e-03 2.00803205e-03 0.
      0. 0. 0. 0. 0. 0. 0. 0. 4.01606411e-03 0. 0. 0. 0. 4.01606411e-03
      0. 2.00803205e-03 0. 6.02409616e-03 8.03212821e-03 0. 0. 0.
      2.00803205e-03 0. 2.00803205e-03 2.00803205e-03 0. 4.01606411e-03
      2.00803205e-03 0. 0. 0. 2.00803205e-03 0. 0. 0. 0. 0.
      4.01606411e-03 0. 0. 0. 6.02409616e-03 2.00803205e-03 0. 0. 0. 0.
      0. 0. 0. 0. 0. 0. 0. 0. 0. 0. 0. 0. 0. 0. 0. 0. 0. 2.00803205e-03
      0. 0. 0. 0. 0. 0. 0. 0. 0. 0. 4.01606411e-03 0. 0. 0. 0.
      2.00803205e-03 0. 0. 0. 0. 4.01606411e-03 0. 0. 0. 0. 0. 0. 0. 0.
      0. 0. 0. 2.00803205e-03 0. 0. 0. 0. 0. 0. 4.01606411e-03 0. 0. 0.
      0. 2.00803205e-03 0. 0. 0. 8.03212821e-03 0. 0. 0. 6.02409616e-03
      0. 2.00803205e-03 1.00401603e-02 2.00803205e-03 1.60642564e-02 0.
      0. 0. 0. 0. 0. 0. 0. 2.00803205e-03 0. 2.00803205e-03 0. 0. 0. 0.
      0. 2.00803205e-03 0. 2.00803205e-03 2.00803205e-03 0.
      4.01606411e-03 0. 0. 0. 0. 0. 0. 0. 0. 0. 2.00803205e-03 0.
      2.00803205e-03 2.00803205e-03 6.02409616e-03 0. 0. 0. 0.
      6.02409616e-03 0. 0. 0. 0. 0. 0. 0. 0. 6.02409616e-03
      6.02409616e-03 0. 0. 0. 0. 0. 0. 0. 0. 0. 0. 0. 0. 0. 0. 0. 0.
      2.00803205e-03 8.03212821e-03 0. 0. 0. 0. 1.60642564e-02 0. 0. 0.
      0. 0. 0. 2.00803205e-03 0. 0. 0. 2.00803205e-03 2.00803205e-03 0.
      0. 0. 2.00803205e-03 0. 0. 0. 0. 0. 0. 0. 0. 0. 0. 0. 0. 0. 0. 0.
      0. 0. 0. 0. 4.01606411e-03 0. 0. 0. 0. 0. 0. 0. 0. 0. 0.
      2.00803205e-03 0. 0. 6.02409616e-03 0. 0. 2.00803205e-03
      6.02409616e-03 0. 0. 0. 0. 0. 2.00803205e-03 6.02409616e-03 0. 0.
      0. 0. 0. 0. 0. 2.00803205e-03 2.00803205e-03 2.00803205e-03 0. 0.
      0. 0. 0. 0. 2.00803205e-03 0. 2.00803205e-03 0. 0. 0.
      2.00803205e-03 0. 4.01606411e-03 1.60642564e-02 0. 2.00803205e-03
      0. 0. 0. 2.00803205e-03 4.01606411e-03 2.00803205e-03
      2.00803205e-03 0. 0. 0. 0. 0. 0. 2.00803205e-03 0. 0.
      2.00803205e-03 0. 0. 0. 0. 0. 2.00803205e-03 4.01606411e-03 0. 0.
      0. 0. 0. 2.00803205e-03 2.00803205e-03 1.00401603e-02 0. 0. 0. 0.
      2.00803205e-03 2.00803205e-03 0. 0. 0. 2.00803205e-03 0.
      2.00803205e-03 0. 0. 2.00803205e-03 0. 0. 2.00803205e-03 0. 0. 0.
      2.00803205e-03 0. 4.01606411e-03 0. 0. 0. 0. 2.00803205e-03 0. 0.
      0. 0. 6.02409616e-03 0. 0. 0. 0. 0. 0. 0. 4.01606411e-03 0. 0. 0.
      4.01606411e-03 0. 0. 0. 2.00803205e-03 0. 0. 0. 0. 2.00803205e-03
      0. 0. 0. 0. 4.01606411e-03 0. 0. 2.00803205e-03 0. 0.
      2.00803205e-03 2.00803205e-03 0. 0. 2.00803205e-03 0. 0. 0. 0.
      2.00803205e-03 0. 2.00803205e-03 0. 0. 0. 2.00803205e-03 0. 0.
      2.00803205e-03 0. 2.00803205e-03 4.01606411e-03 4.01606411e-03 0.
      6.02409616e-03 8.03212821e-03 0. 2.00803205e-03 2.20883526e-02 0.
      4.01606411e-03 0. 0. 0. 0. 2.00803205e-03 2.00803205e-03
      2.00803205e-03 0. 6.02409616e-03 0. 0. 0. 2.00803205e-03 0. 0. 0.
      0. 2.00803205e-03 0. 0. 6.02409616e-03 0. 2.00803205e-03 0. 0. 0.
      0. 4.01606411e-03 0. 0. 2.00803205e-03 0. 0. 0. 6.02409616e-03
      6.02409616e-03 0. 0. 0. 0. 0. 2.00803205e-03 0. 0. 0.
      4.01606411e-03 2.00803205e-03 0. 0. 0. 0. 0. 0. 0. 0. 0. 0.
      2.00803205e-03 0. 0. 0. 0. 0. 0. 0. 2.00803205e-03 0. 0.
      2.00803205e-03 0. 4.01606411e-03 8.03212821e-03 4.01606411e-03 0.
      0. 2.00803205e-03 0. 0. 0. 2.00803205e-03 0. 4.01606411e-03 0. 0.
      2.00803205e-03 0. 0. 0. 0. 0. 0. 0. 2.00803205e-03 2.00803205e-03
      2.00803205e-03 0. 2.00803205e-03 0. 0. 0. 2.00803205e-03 0. 0. 0.
      0. 2.00803205e-03 0. 2.00803205e-03 0. 4.01606411e-03 0. 0. 0.
      2.00803205e-03 0. 2.00803205e-03 0. 0. 0. 8.03212821e-03 0. 0.
      2.00803205e-03 0. 0. 0. 0. 0. 0. 0. 0. 0. 0. 2.00803205e-03 0. 0.
      0. 0. 0. 2.00803205e-03 4.01606411e-03 8.03212821e-03 0.
      2.00803205e-03 0. 0. 2.00803205e-03 2.00803205e-03 6.02409616e-03
      0. 0. 0. 0. 0. 0. 0. 4.01606411e-03 2.00803205e-03 0.
      2.00803205e-03 0. 0. 6.02409616e-03 0. 0. 0. 0. 2.00803205e-03 0.
      1.20481923e-02 0. 0. 0. 0. 0. 0. 0. 6.02409616e-03 0. 0. 0.
      4.01606411e-03 0. 0. 0. 1.80722885e-02 0. 0. 0. 0. 0. 0. 0. 0.
      2.00803205e-03 4.01606411e-03 0. 0. 0. 0. 1.00401603e-02
      4.01606411e-03 4.01606411e-03 2.00803205e-03 2.00803205e-03
      6.02409616e-03 0. 0. 0. 2.00803205e-03 0. 0. 4.01606411e-03 0.
      8.03212821e-03 0. 0. 0. 0. 0. 0. 0. 0. 0. 2.00803205e-03</_>
    <_>
      0. 0. 0. 2.14132760e-03 0. 0. 0. 0. 0. 2.14132760e-03 0. 0. 0. 0.
      0. 6.42398279e-03 0. 0. 0. 2.14132760e-03 0. 0. 8.56531039e-03 0.
      0. 1.07066380e-02 0. 4.28265519e-03 0. 0. 0. 0. 0. 0.
      4.28265519e-03 0. 0. 0. 0. 0. 2.14132760e-03 0. 0. 0. 0. 0. 0. 0.
      0. 0. 2.14132760e-03 4.28265519e-03 0. 0. 0. 0. 0. 2.14132760e-03
      0. 0. 0. 0. 0. 0. 0. 0. 0. 2.14132760e-03 0. 2.14132760e-03 0. 0.
      0. 0. 0. 0. 0. 0. 0. 0. 0. 0. 0. 4.28265519e-03 0. 0.
      8.56531039e-03 0. 0. 0. 0. 0. 0. 0. 0. 0. 8.56531039e-03 0.
      4.28265519e-03 0. 0. 0. 2.14132760e-03 2.14132760e-03 0. 0.
      2.14132760e-03 0. 0. 0. 0. 0. 0. 0. 0. 0. 2.14132760e-03 0. 0. 0.
      0. 2.14132760e-03 0. 0. 0. 0. 0. 0. 0. 0. 0. 0. 0. 0.
      4.28265519e-03 0. 2.14132760e-03 0. 0. 0. 0. 0. 4.28265519e-03
      2.14132760e-03 0. 2.14132760e-03 0. 0. 2.14132760e-03 0. 0. 0. 0.
      0. 0. 4.28265519e-03 0. 0. 2.14132760e-03 0. 0. 0. 0.
      2.14132760e-03 2.14132760e-03 6.42398279e-03 0. 6.42398279e-03 0.
      0. 0. 0. 2.14132760e-03 2.14132760e-03 0. 0. 0. 0. 0. 0. 0. 0. 0.
      0. 0. 2.14132760e-03 0. 0. 0. 0. 0. 0. 0. 0. 0. 0. 0.
      2.14132760e-03 0. 0. 0. 1.28479656e-02 2.14132760e-03 0. 0. 0.
      4.28265519e-03 0. 0. 0. 0. 1.07066380e-02 0. 0. 6.42398279e-03
      6.42398279e-03 0. 0. 0. 0. 0. 0. 0. 0. 0. 0. 2.14132760e-03 0. 0.
      0. 0. 0. 0. 0. 6.42398279e-03 2.14132760e-03 2.14132760e-03
      2.14132760e-03 0. 2.14132760e-03 0. 0. 0. 0. 0. 0. 0.
      2.14132760e-03 0. 0. 0. 0. 0. 0. 0. 0. 4.28265519e-03 0.
      2.14132760e-03 0. 0. 2.14132760e-03 0. 4.28265519e-03
      2.14132760e-03 0. 0. 0. 0. 2.14132760e-03 2.14132760e-03
      2.14132760e-03 0. 0. 0. 0. 0. 0. 0. 2.14132760e-03 4.28265519e-03
      0. 0. 4.28265519e-03 0. 2.14132760e-03 0. 2.14132760e-03 0. 0.
      6.42398279e-03 0. 0. 0. 0. 0. 8.56531039e-03 0. 0. 0. 0. 0. 0. 0.
      0. 0. 2.14132760e-03 2.14132760e-03 2.14132760e-03 0. 0. 0.
      6.42398279e-03 2.14132760e-03 8.56531039e-03 2.14132760e-03
      2.14132760e-03 0. 6.42398279e-03 4.28265519e-03 1.49892932e-02 0.
      0. 0. 0. 2.14132760e-03 0. 0. 2.14132760e-03 0. 0. 0. 0. 0. 0. 0.
      0. 2.14132760e-03 0. 0. 0. 0. 4.28265519e-03 0. 0. 0.
      2.14132760e-03 0. 0. 0. 0. 0. 0. 0. 0. 0. 0. 0. 2.14132760e-03 0.
      0. 0. 0. 0. 0. 0. 0. 0. 0. 0. 0. 0. 0. 1.92719474e-02 0. 0. 0.
      4.28265519e-03 4.28265519e-03 2.14132760e-03 0. 0. 0. 0. 0. 0. 0.
      0. 0. 0. 0. 0. 0. 0. 0. 0. 0. 0. 0. 0. 0. 0. 4.28265519e-03 0.
      2.14132760e-03 2.14132760e-03 2.14132760e-03 2.14132760e-03
      2.14132760e-03 0. 0. 2.14132760e-03 0. 0. 0. 0. 0. 2.14132760e-03
      0. 0. 4.28265519e-03 0. 0. 0. 0. 2.14132760e-03 0. 6.42398279e-03
      0. 0. 2.14132760e-03 2.14132760e-03 0. 2.14132760e-03
      2.14132760e-03 0. 4.28265519e-03 0. 2.14132760e-03 0. 0. 0. 0. 0.
      0. 0. 2.14132760e-03 0. 4.28265519e-03 0. 0. 0. 0. 0.
      4.28265519e-03 2.14132760e-03 0. 0. 2.14132760e-03 4.28265519e-03
      0. 0. 2.14132760e-03 0. 0. 2.14132760e-03 0. 0. 0. 0. 0. 0. 0. 0.
      0. 0. 2.14132760e-03 0. 0. 0. 0. 1.28479656e-02 0. 1.07066380e-02
      0. 2.14132760e-03 0. 0. 6.42398279e-03 4.28265519e-03
      4.28265519e-03 0. 2.14132760e-03 0. 0. 0. 0. 0. 4.28265519e-03 0.
      2.14132760e-03 4.28265519e-03 0. 2.14132760e-03 0. 6.42398279e-03
      0. 0. 0. 0. 2.14132760e-03 2.14132760e-03 0. 0. 0. 0. 0. 0. 0.
      2.14132760e-03 0. 0. 0. 0. 2.14132760e-03 0. 0. 2.14132760e-03
      2.14132760e-03 0. 0. 4.28265519e-03 0. 6.42398279e-03
      4.28265519e-03 0. 2.14132760e-03 0. 4.28265519e-03 0. 0. 0. 0. 0.
      0. 0. 2.14132760e-03 0. 2.14132760e-03 0. 0. 0. 6.42398279e-03 0.
      0. 2.14132760e-03 2.14132760e-03 1.07066380e-02 0. 0. 0. 0.
      2.14132760e-03 4.28265519e-03 0. 0. 0. 2.14132760e-03
      2.14132760e-03 0. 0. 0. 0. 0. 0. 0. 0. 0. 0. 0. 0. 0. 0. 0.
      8.56531039e-03 2.14132760e-03 0. 0. 0. 0. 0. 0. 2.14132760e-03
      2.14132760e-03 0. 0. 0. 4.28265519e-03 0. 2.14132760e-03 0. 0. 0.
      0. 0. 0. 0. 2.14132760e-03 0. 2.14132760e-03 0. 2.14132760e-03 0.
      0. 4.28265519e-03 6.42398279e-03 0. 0. 0. 0. 0. 0. 0.
      2.14132760e-03 0. 2.14132760e-03 0. 8.56531039e-03 0. 0.
      2.14132760e-03 0. 0. 2.14132760e-03 0. 0. 0. 2.14132760e-03
      2.14132760e-03 0. 0. 0. 2.14132760e-03 2.14132760e-03
      4.28265519e-03 0. 0. 0. 0. 0. 0. 2.14132760e-03 0. 0. 0.
      2.14132760e-03 0. 0. 0. 0. 0. 0. 0. 0. 0. 2.14132760e-03 0. 0. 0.
      0. 2.14132760e-03 0. 0. 0. 0. 0. 0. 2.14132760e-03 8.56531039e-03
      0. 0. 0. 6.42398279e-03 2.14132760e-03 0. 0. 2.14132760e-03
      4.28265519e-03 0. 0. 0. 2.14132760e-03 0. 0. 0. 0. 2.14132760e-03
      0. 0. 0. 0. 0. 4.28265519e-03 0. 0. 0. 4.28265519e-03 0. 0. 0. 0.
      2.14132760e-03 2.14132760e-03 6.42398279e-03 0. 0. 2.14132760e-03
      0. 0. 2.14132760e-03 0. 0. 0. 0. 2.14132760e-03 0. 0. 0. 0.
      4.28265519e-03 0. 0. 0. 0. 0. 0. 0. 0. 2.14132760e-03
      2.14132760e-03 4.28265519e-03 0. 2.14132760e-03 2.14132760e-03 0.
      0. 0. 0. 0. 0. 2.14132760e-03 0. 0. 0. 0. 0. 0. 0. 0. 0. 0. 0. 0.
      0. 0. 2.14132760e-03 2.14132760e-03 0. 4.28265519e-03
      2.14132760e-03 0. 2.14132760e-03 4.28265519e-03 2.14132760e-03
      2.14132760e-03 2.14132760e-03 0. 0. 0. 0. 2.14132760e-03
      4.28265519e-03 0. 6.42398279e-03 0. 0. 4.28265519e-03
      4.28265519e-03 0. 6.42398279e-03 0. 0. 2.14132760e-03 0. 0.
      4.28265519e-03 0. 2.14132760e-03 0. 0. 0. 0. 0. 0. 0. 0. 0. 0. 0.
      0. 0. 0. 0. 0. 0. 0. 2.14132760e-03 0. 2.14132760e-03 0.
      2.14132760e-03 2.14132760e-03 0. 0. 0. 4.28265519e-03 0.
      6.42398279e-03 6.42398279e-03 0. 0. 0. 2.14132760e-03 0. 0. 0.
      2.14132760e-03 0. 2.14132760e-03 0. 0. 0. 4.28265519e-03 0.
      4.28265519e-03 4.28265519e-03 6.42398279e-03 2.14132760e-03 0. 0.
      0. 0. 0. 0. 0. 0. 4.28265519e-03 0. 2.14132760e-03 0. 0. 0. 0.
      2.14132760e-03 2.14132760e-03 0. 0. 2.14132760e-03 2.14132760e-03
      2.14132760e-03 0. 0. 0. 0. 0. 0. 0. 2.14132760e-03 0.
      2.14132760e-03 0. 4.28265519e-03 2.14132760e-03 0. 0.
      2.14132760e-03 0. 2.14132760e-03 0. 2.14132760e-03 0. 0.
      2.14132760e-03 0. 6.42398279e-03 0. 0. 2.14132760e-03 0. 0. 0. 0.
      0. 0. 2.14132760e-03 0. 0. 0. 0. 0. 0. 0. 0. 0. 0. 0.
      4.28265519e-03 0. 0. 0. 0. 2.14132760e-03 0. 0. 0. 0. 0.
      2.14132760e-03 8.56531039e-03 0. 0. 2.14132760e-03 2.14132760e-03
      0. 0. 0. 2.14132760e-03 1.07066380e-02 0. 0. 0. 0. 0. 0.
      6.42398279e-03 0. 2.14132760e-03 4.28265519e-03 2.14132760e-03 0.
      0. 0. 0. 2.14132760e-03 0. 0. 2.14132760e-03 0. 0. 2.14132760e-03
      1.71306208e-02 0. 8.56531039e-03 0. 0. 0. 0. 0. 0. 6.42398279e-03
      2.14132760e-03 0. 0. 0. 0. 4.28265519e-03 0. 2.14132760e-03 0. 0.
      6.42398279e-03 0. 0. 0. 0. 0. 0. 4.28265519e-03 0. 1.49892932e-02
      0. 0. 0. 0. 0. 2.14132760e-03 2.14132760e-03 0. 0. 2.14132760e-03</_>
    <_>
      0. 0. 0. 1.88679248e-02 0. 0. 0. 0. 0. 0. 0. 0. 0. 0. 0. 0. 0. 0.
      0. 0. 0. 0. 1.88679248e-02 0. 0. 0. 0. 0. 0. 0. 0. 0. 0. 0.
      1.88679248e-02 0. 0. 0. 0. 0. 0. 0. 0. 0. 0. 0. 0. 0. 0. 0. 0. 0.
      0. 0. 0. 0. 0. 1.88679248e-02 0. 0. 0. 0. 0. 0. 0. 0.
      1.88679248e-02 0. 0. 0. 0. 0. 0. 0. 0. 0. 0. 0. 0. 0. 0. 0. 0.
      1.88679248e-02 0. 0. 0. 0. 0. 0. 0. 0. 0. 0. 0. 0. 0. 0. 0. 0. 0.
      0. 0. 1.88679248e-02 0. 0. 0. 0. 0. 0. 0. 0. 0. 0. 0. 0. 0. 0. 0.
      0. 0. 0. 0. 0. 0. 0. 0. 0. 0. 0. 0. 0. 0. 0. 1.88679248e-02 0. 0.
      0. 0. 0. 0. 0. 0. 0. 0. 0. 0. 0. 1.88679248e-02 0. 0. 0. 0. 0. 0.
      0. 0. 0. 3.77358496e-02 0. 0. 0. 0. 0. 0. 0. 0. 0. 0. 0. 0. 0. 0.
      0. 0. 0. 0. 0. 0. 0. 0. 0. 0. 0. 0. 0. 0. 0. 0. 0. 0. 0. 0. 0. 0.
      0. 0. 0. 0. 0. 0. 0. 0. 0. 0. 0. 0. 0. 0. 0. 0. 0. 0. 0. 0.
      1.88679248e-02 0. 0. 0. 0. 0. 0. 0. 0. 0. 0. 0. 0. 0. 0. 0. 0. 0.
      0. 0. 0. 0. 0. 0. 0. 0. 0. 0. 0. 0. 3.77358496e-02 0. 0. 0. 0. 0.
      0. 0. 0. 3.77358496e-02 0. 0. 0. 0. 0. 0. 0. 0. 0. 0. 0. 0. 0. 0.
      0. 0. 0. 0. 0. 0. 0. 0. 0. 0. 0. 0. 0. 0. 0. 0. 0. 0. 0. 0. 0.
      1.88679248e-02 1.88679248e-02 0. 0. 0. 0. 0. 0. 0. 0. 0.
      1.88679248e-02 0. 0. 0. 0. 0. 0. 0. 0. 0. 0. 0. 0. 3.77358496e-02
      0. 1.88679248e-02 0. 0. 0. 0. 0. 0. 0. 0. 0. 0. 0. 0. 0. 0. 0. 0.
      0. 0. 0. 0. 0. 0. 0. 0. 0. 0. 0. 0. 0. 0. 0. 0. 0. 0. 0. 0. 0. 0.
      0. 0. 0. 0. 0. 0. 0. 0. 0. 0. 0. 0. 0. 0. 0. 0. 0. 0. 0. 0. 0. 0.
      0. 3.77358496e-02 0. 0. 0. 0. 0. 0. 0. 0. 0. 0. 0. 0. 0. 0. 0. 0.
      0. 0. 0. 0. 0. 0. 0. 0. 0. 0. 0. 0. 0. 0. 0. 0. 0. 0. 0.
      1.88679248e-02 0. 0. 0. 0. 0. 0. 0. 0. 0. 0. 0. 0. 0. 0. 0. 0. 0.
      0. 0. 0. 0. 0. 0. 0. 0. 0. 0. 0. 0. 0. 0. 0. 0. 0. 0. 0. 0. 0. 0.
      0. 0. 0. 0. 0. 0. 0. 0. 0. 0. 0. 0. 0. 0. 0. 0. 0. 0. 0. 0. 0. 0.
      0. 0. 0. 0. 0. 0. 0. 0. 0. 0. 0. 0. 0. 0. 1.88679248e-02 0. 0. 0.
      0. 0. 0. 0. 0. 0. 0. 0. 0. 0. 0. 0. 0. 0. 0. 0. 0. 0. 0. 0. 0. 0.
      0. 0. 0. 0. 0. 0. 0. 0. 0. 0. 0. 0. 0. 0. 0. 0. 0. 1.88679248e-02
      1.88679248e-02 0. 0. 0. 0. 0. 0. 0. 0. 0. 0. 0. 0. 0. 0. 0. 0.
      1.88679248e-02 3.77358496e-02 0. 0. 0. 0. 0. 0. 0. 0. 0. 0. 0. 0.
      0. 0. 0. 0. 0. 0. 0. 0. 0. 0. 0. 0. 0. 0. 0. 0. 0. 0. 0. 0. 0. 0.
      0. 0. 0. 0. 0. 0. 0. 0. 0. 0. 0. 0. 0. 0. 0. 0. 0. 0. 0. 0. 0. 0.
      0. 0. 1.88679248e-02 0. 0. 0. 0. 0. 0. 0. 0. 0. 0. 0.
      1.88679248e-02 0. 0. 0. 0. 1.88679248e-02 0. 0. 0. 0. 0. 0. 0. 0.
      0. 0. 0. 0. 0. 0. 0. 1.88679248e-02 0. 0. 0. 0. 0. 0. 0. 0. 0. 0.
      0. 0. 0. 0. 0. 0. 0. 0. 0. 0. 0. 0. 0. 0. 0. 0. 0. 0. 0. 0. 0. 0.
      0. 0. 0. 0. 0. 0. 0. 0. 0. 0. 3.77358496e-02 0. 0. 0. 0. 0. 0. 0.
      0. 0. 0. 0. 0. 0. 0. 0. 0. 0. 0. 0. 0. 0. 0. 0. 0. 0. 0. 0. 0. 0.
      0. 0. 0. 0. 0. 0. 0. 0. 0. 0. 0. 0. 0. 0. 0. 0. 0. 0. 0. 0. 0.
      3.77358496e-02 0. 0. 0. 0. 0. 0. 0. 0. 0. 0. 0. 0. 0. 0. 0. 0. 0.
      0. 0. 0. 0. 0. 0. 0. 0. 0. 0. 0. 0. 0. 0. 0. 0. 1.88679248e-02
      1.88679248e-02 0. 0. 0. 0. 0. 0. 0. 0. 0. 0. 0. 0. 0. 0. 0.
      1.88679248e-02 0. 0. 0. 0. 0. 0. 0. 1.88679248e-02 0. 0. 0. 0. 0.
      0. 0. 0. 1.88679248e-02 0. 0. 0. 0. 0. 0. 0. 0. 0. 0. 0. 0. 0. 0.
      0. 0. 0. 0. 0. 0. 0. 0. 0. 0. 0. 0. 0. 0. 0. 0. 0. 0. 0. 0. 0. 0.
      0. 0. 0. 0. 0. 0. 0. 0. 0. 0. 0. 0. 0. 0. 0. 0. 0. 0. 0. 0. 0. 0.
      0. 0. 0. 0. 0. 0. 0. 0. 0. 0. 0. 0. 0. 0. 0. 0. 0. 0. 0. 0. 0. 0.
      0. 0. 0. 0. 0. 0. 0. 0. 0. 0. 0. 0. 0. 0. 0. 0. 0. 0. 0. 0. 0. 0.
      0. 0. 0. 0. 0. 0. 0. 0. 0. 0. 0. 0. 0. 0. 0. 0. 0. 5.66037744e-02
      0. 0. 0. 0. 0. 0. 0. 0. 0. 0. 3.77358496e-02 0. 0. 0. 0. 0. 0. 0.
      1.88679248e-02 0. 0. 0. 0. 0. 0. 0. 0. 0. 0. 0. 0. 0. 0.
      3.77358496e-02 0. 0. 0. 0. 0. 0. 0. 0. 0. 0. 0. 0. 0. 0. 0. 0. 0.
      0. 0. 0. 0. 0. 0. 0. 0. 0. 0. 0. 1.88679248e-02 0. 0. 0. 0. 0. 0.
      0. 0. 0. 0.</_>
    <_>
      0. 0. 0. 0. 0. 0. 0. 0. 0. 0. 0. 0. 0. 0. 0. 0. 0. 0. 0. 0. 0. 0.
      2.08333340e-02 0. 0. 0. 0. 0. 0. 0. 0. 0. 0. 0. 0. 0. 0. 0. 0. 0.
      0. 0. 0. 0. 0. 0. 0. 0. 0. 0. 0. 0. 0. 0. 0. 0. 0. 0. 0. 0. 0. 0.
      0. 0. 0. 0. 0. 0. 0. 0. 0. 0. 0. 0. 0. 0. 0. 0. 0. 0. 0. 0. 0. 0.
      0. 0. 0. 0. 0. 0. 0. 0. 0. 0. 0. 0. 0. 0. 0. 0. 0. 0. 0. 0. 0. 0.
      0. 0. 0. 0. 0. 0. 0. 0. 2.08333340e-02 0. 0. 0. 0. 0. 0. 0. 0. 0.
      0. 0. 0. 0. 0. 0. 0. 0. 0. 0. 0. 2.08333340e-02 0. 0. 0. 0. 0. 0.
      0. 0. 0. 2.08333340e-02 2.08333340e-02 0. 0. 0. 0. 0. 0. 0. 0. 0.
      0. 0. 0. 0. 0. 0. 0. 0. 0. 0. 0. 0. 0. 0. 0. 0. 0. 0. 0. 0. 0. 0.
      0. 0. 0. 0. 0. 0. 0. 0. 0. 0. 0. 0. 0. 0. 0. 0. 0. 0. 0.
      2.08333340e-02 0. 0. 0. 0. 0. 0. 0. 0. 0. 0. 0. 0. 0. 0. 0. 0. 0.
      0. 0. 0. 0. 0. 0. 0. 0. 0. 0. 0. 0. 0. 0. 0. 0. 0. 0. 0. 0. 0. 0.
      0. 0. 0. 0. 0. 0. 0. 0. 0. 0. 0. 0. 0. 0. 0. 0. 0. 0. 0. 0. 0. 0.
      0. 0. 0. 0. 4.16666679e-02 0. 0. 0. 0. 0. 0. 0. 0. 0.
      2.08333340e-02 0. 0. 0. 0. 0. 2.08333340e-02 0. 0. 0. 0. 0. 0. 0.
      0. 0. 0. 0. 0. 0. 0. 0. 0. 0. 0. 0. 0. 0. 0. 0. 0. 0. 0. 0. 0. 0.
      0. 0. 0. 2.08333340e-02 0. 0. 0. 0. 0. 2.08333340e-02 0. 0. 0. 0.
      0. 0. 0. 0. 0. 0. 0. 0. 0. 0. 0. 0. 0. 0. 2.08333340e-02 0. 0. 0.
      0. 0. 0. 0. 0. 0. 0. 0. 0. 0. 0. 0. 0. 0. 0. 0. 0. 0. 0. 0. 0. 0.
      0. 0. 0. 0. 0. 0. 0. 0. 0. 0. 4.16666679e-02 0. 0. 0. 0. 0. 0. 0.
      0. 0. 0. 0. 0. 0. 0. 0. 0. 0. 0. 0. 0. 0. 0. 0. 0. 0. 0. 0. 0. 0.
      0. 0. 0. 0. 0. 0. 0. 0. 0. 0. 0. 0. 0. 0. 0. 0. 0. 0. 0. 0. 0. 0.
      0. 0. 0. 0. 0. 0. 0. 0. 0. 0. 0. 0. 0. 2.08333340e-02 0. 0. 0. 0.
      0. 0. 0. 0. 0. 0. 0. 0. 0. 0. 0. 0. 2.08333340e-02 0. 0.
      2.08333340e-02 0. 0. 0. 0. 0. 0. 0. 0. 0. 0. 0. 0. 0. 0. 0. 0. 0.
      0. 0. 0. 0. 0. 4.16666679e-02 0. 0. 0. 0. 0. 0. 0. 0. 0. 0. 0. 0.
      0. 0. 0. 0. 0. 0. 0. 0. 0. 0. 0. 0. 0. 0. 0. 0. 0. 0. 0. 0. 0. 0.
      0. 0. 0. 0. 0. 0. 0. 0. 0. 0. 0. 0. 0. 0. 0. 0. 0. 2.08333340e-02
      0. 4.16666679e-02 0. 0. 0. 0. 0. 0. 0. 0. 0. 0. 0. 0. 0. 0. 0. 0.
      2.08333340e-02 0. 0. 0. 0. 2.08333340e-02 0. 0. 0. 0. 0. 0. 0. 0.
      0. 0. 0. 0. 0. 0. 0. 0. 0. 0. 0. 0. 0. 0. 0. 0. 0. 0.
      2.08333340e-02 0. 0. 0. 0. 0. 0. 0. 0. 0. 0. 0. 0. 0. 0. 0. 0. 0.
      0. 0. 0. 0. 0. 0. 2.08333340e-02 0. 0. 0. 4.16666679e-02 0. 0. 0.
      0. 0. 0. 0. 0. 0. 0. 0. 0. 0. 0. 0. 0. 0. 0. 0. 0. 0. 0. 0. 0. 0.
      0. 0. 0. 0. 0. 0. 1.04166672e-01 0. 0. 0. 0. 0. 0. 0. 0. 0. 0. 0.
      0. 0. 0. 0. 0. 2.08333340e-02 0. 0. 0. 0. 0. 0. 0. 0. 0. 0. 0. 0.
      0. 0. 0. 2.08333340e-02 0. 0. 0. 0. 0. 0. 0. 0. 0. 0. 0. 0. 0. 0.
      0. 0. 0. 0. 0. 0. 0. 0. 0. 0. 0. 0. 0. 0. 0. 0. 0. 0. 0. 0. 0. 0.
      0. 0. 0. 0. 0. 2.08333340e-02 0. 0. 0. 0. 0. 0. 0. 0. 0. 0. 0. 0.
      0. 0. 0. 0. 0. 0. 0. 0. 0. 0. 0. 0. 0. 0. 0. 0. 0. 0. 0. 0. 0.
      4.16666679e-02 0. 0. 0. 0. 0. 0. 0. 0. 0. 0. 0. 0. 0. 0. 0. 0. 0.
      0. 0. 0. 0. 2.08333340e-02 0. 0. 0. 0. 0. 0. 0. 0. 0. 0. 0. 0. 0.
      0. 0. 0. 0. 0. 0. 0. 0. 0. 0. 0. 0. 0. 0. 0. 0. 0. 0. 0. 0. 0. 0.
      0. 0. 0. 0. 0. 2.08333340e-02 0. 0. 0. 0. 0. 0. 0. 0. 0. 0. 0. 0.
      0. 0. 0. 0. 0. 0. 0. 0. 0. 0. 0. 0. 0. 0. 0. 0. 0. 0. 0. 0. 0. 0.
      0. 0. 0. 0. 0. 0. 0. 0. 0. 0. 0. 0. 0. 0. 0. 0. 0. 0. 0. 0. 0. 0.
      0. 0. 0. 0. 0. 2.08333340e-02 0. 0. 0. 0. 0. 0. 0. 0. 0. 0. 0. 0.
      0. 0. 0. 0. 0. 0. 0. 0. 0. 0. 0. 0. 0. 0. 0. 0. 0. 0. 0. 0. 0. 0.
      0. 0. 0. 0. 0. 0. 0. 0. 0. 0. 0. 0. 0. 0. 0. 0. 0. 0. 0. 0. 0. 0.
      0. 0. 4.16666679e-02 0. 0. 0. 0. 0. 0. 4.16666679e-02
      2.08333340e-02 0. 0. 0. 0. 0. 0. 0. 0. 0. 0. 0. 0. 0. 0. 0. 0. 0.
      0. 0. 0. 0. 0. 0. 0. 0. 0. 0. 0. 0. 0. 0. 0. 0. 0. 0. 0. 0. 0. 0.
      0. 0. 0. 0. 2.08333340e-02 0. 0. 0. 0. 0. 0. 0. 0. 0. 0.</_>
    <_>
      0. 0. 0. 0. 0. 0. 0. 0. 0. 0. 0. 0. 0. 0. 8.45070370e-03 0. 0. 0.
      0. 0. 0. 2.81690131e-03 0. 0. 0. 0. 0. 2.81690131e-03
      2.81690131e-03 0. 0. 0. 0. 0. 0. 0. 0. 2.81690131e-03 0. 0. 0.
      2.81690131e-03 2.81690131e-03 0. 0. 0. 0. 2.81690131e-03 0. 0. 0.
      0. 2.81690131e-03 0. 0. 0. 0. 0. 0. 2.81690131e-03 2.81690131e-03
      0. 0. 0. 0. 0. 0. 0. 0. 0. 0. 0. 0. 0. 0. 0. 2.81690131e-03 0. 0.
      0. 0. 0. 0. 0. 0. 0. 0. 2.81690131e-03 0. 0. 0. 0. 0.
      2.81690131e-03 0. 0. 0. 0. 0. 0. 0. 0. 0. 0. 0. 0. 0. 0. 0.
      2.81690131e-03 0. 0. 0. 0. 2.81690131e-03 0. 2.81690131e-03 0. 0.
      0. 0. 0. 0. 0. 2.81690131e-03 0. 0. 0. 0. 0. 0. 0. 0.
      2.81690131e-03 0. 0. 0. 2.81690131e-03 0. 0. 0. 0. 2.81690131e-03
      0. 0. 0. 2.81690131e-03 2.81690131e-03 2.81690131e-03 0. 0. 0. 0.
      0. 0. 2.81690131e-03 0. 2.81690131e-03 0. 0. 2.81690131e-03 0. 0.
      0. 0. 0. 0. 0. 0. 0. 0. 0. 0. 0. 0. 0. 0. 0. 0. 0. 2.81690131e-03
      0. 0. 0. 0. 0. 0. 0. 0. 0. 0. 0. 0. 2.81690131e-03 0.
      2.81690131e-03 0. 0. 0. 0. 0. 0. 0. 0. 2.81690131e-03 0. 0. 0. 0.
      0. 0. 0. 0. 2.81690131e-03 0. 0. 0. 0. 0. 0. 2.81690131e-03 0.
      8.45070370e-03 0. 0. 0. 2.81690131e-03 0. 2.81690131e-03 0. 0. 0.
      0. 0. 0. 2.81690131e-03 2.81690131e-03 0. 0. 0. 0. 8.45070370e-03
      0. 0. 0. 0. 0. 2.81690131e-03 0. 0. 2.81690131e-03 0. 0. 0. 0. 0.
      2.81690131e-03 2.81690131e-03 0. 0. 0. 2.81690131e-03 0.
      5.63380262e-03 0. 0. 0. 0. 0. 0. 0. 0. 0. 2.81690131e-03 0.
      2.81690131e-03 0. 0. 0. 0. 2.81690131e-03 0. 2.81690131e-03 0. 0.
      0. 0. 0. 0. 0. 0. 0. 0. 2.81690131e-03 0. 2.81690131e-03 0. 0. 0.
      5.63380262e-03 2.81690131e-03 0. 0. 0. 8.45070370e-03 0. 0. 0. 0.
      0. 0. 2.81690131e-03 8.45070370e-03 0. 2.81690131e-03 0. 0.
      5.63380262e-03 0. 0. 0. 2.81690131e-03 0. 0. 0. 0. 0. 0. 0. 0.
      2.81690131e-03 0. 0. 0. 0. 0. 5.63380262e-03 2.81690131e-03
      2.81690131e-03 0. 0. 0. 0. 0. 0. 0. 2.81690131e-03 0. 0. 0. 0.
      2.81690131e-03 0. 2.81690131e-03 0. 2.81690131e-03 2.81690131e-03
      0. 2.81690131e-03 0. 5.63380262e-03 0. 0. 0. 0. 0. 2.81690131e-03
      0. 0. 2.81690131e-03 0. 2.81690131e-03 0. 0. 2.81690131e-03
      5.63380262e-03 0. 2.81690131e-03 0. 2.81690131e-03 5.63380262e-03
      0. 2.81690131e-03 0. 2.81690131e-03 2.81690131e-03 0. 0.
      2.81690131e-03 0. 0. 0. 0. 0. 0. 0. 0. 8.45070370e-03
      2.81690131e-03 5.63380262e-03 0. 0. 0. 0. 0. 0. 2.81690131e-03 0.
      0. 0. 0. 0. 0. 0. 0. 0. 0. 5.63380262e-03 0. 0. 0. 0.
      2.81690131e-03 0. 2.81690131e-03 0. 0. 0. 0. 0. 0. 2.81690131e-03
      0. 0. 0. 0. 5.63380262e-03 2.81690131e-03 2.81690131e-03
      2.81690131e-03 0. 2.81690131e-03 5.63380262e-03 2.81690131e-03 0.
      0. 2.81690131e-03 0. 0. 0. 0. 0. 0. 2.81690131e-03 0.
      8.45070370e-03 2.81690131e-03 0. 5.63380262e-03 2.81690131e-03
      5.63380262e-03 2.81690131e-03 2.81690131e-03 2.81690131e-03
      2.81690131e-03 0. 0. 0. 0. 0. 2.81690131e-03 0. 0. 2.81690131e-03
      0. 0. 0. 0. 2.81690131e-03 0. 0. 2.81690131e-03 0. 2.81690131e-03
      1.12676052e-02 0. 0. 0. 0. 2.81690131e-03 0. 0. 0. 2.81690131e-03
      0. 5.63380262e-03 0. 0. 0. 0. 0. 0. 0. 0. 0. 2.81690131e-03 0. 0.
      0. 2.81690131e-03 0. 0. 0. 8.45070370e-03 0. 0. 0. 0. 0.
      5.63380262e-03 0. 0. 2.81690131e-03 0. 0. 2.81690131e-03 0. 0. 0.
      5.63380262e-03 2.81690131e-03 8.45070370e-03 0. 0. 2.81690131e-03
      0. 0. 0. 5.63380262e-03 0. 2.81690131e-03 0. 0. 0. 0.
      2.81690131e-03 0. 0. 0. 2.81690131e-03 0. 0. 2.81690131e-03 0. 0.
      0. 2.81690131e-03 0. 8.45070370e-03 0. 0. 0. 0. 0. 0. 0. 0. 0.
      2.81690131e-03 0. 0. 0. 0. 0. 0. 0. 2.81690131e-03 0.
      2.81690131e-03 0. 5.63380262e-03 0. 0. 0. 0. 8.45070370e-03 0. 0.
      0. 2.81690131e-03 0. 0. 0. 0. 0. 0. 0. 2.81690131e-03 0. 0. 0. 0.
      2.81690131e-03 0. 0. 0. 5.63380262e-03 0. 0. 2.81690131e-03 0.
      5.63380262e-03 0. 0. 0. 0. 0. 2.81690131e-03 0. 0. 0. 0. 0. 0. 0.
      0. 0. 0. 8.45070370e-03 2.81690131e-03 0. 0. 5.63380262e-03 0.
      2.81690131e-03 0. 0. 0. 0. 5.63380262e-03 0. 0. 0. 0.
      2.81690131e-03 8.45070370e-03 2.81690131e-03 2.81690131e-03 0. 0.
      0. 0. 2.81690131e-03 0. 0. 0. 0. 0. 0. 0. 0. 5.63380262e-03 0.
      2.81690131e-03 0. 2.81690131e-03 0. 0. 2.81690131e-03 0. 0. 0.
      5.63380262e-03 0. 5.63380262e-03 0. 0. 0. 0. 0. 2.81690131e-03 0.
      0. 0. 0. 0. 0. 0. 0. 2.81690131e-03 2.81690131e-03 0. 0.
      2.81690131e-03 0. 0. 5.63380262e-03 2.81690131e-03 0. 0. 0. 0. 0.
      0. 0. 0. 0. 2.81690131e-03 0. 0. 0. 0. 0. 2.81690131e-03 0.
      8.45070370e-03 0. 0. 0. 2.81690131e-03 2.81690131e-03 0. 0.
      8.45070370e-03 0. 0. 0. 0. 0. 2.81690131e-03 5.63380262e-03 0.
      2.81690131e-03 0. 0. 0. 2.81690131e-03 0. 2.81690131e-03 0. 0. 0.
      0. 0. 0. 0. 5.63380262e-03 2.81690131e-03 0. 0. 0. 0. 0. 0. 0. 0.
      0. 0. 0. 0. 0. 0. 0. 0. 0. 0. 0. 0. 0. 0. 0. 2.81690131e-03
      2.81690131e-03 0. 0. 0. 0. 0. 0. 0. 0. 2.81690131e-03
      1.12676052e-02 0. 0. 5.63380262e-03 0. 2.81690131e-03 0.
      8.45070370e-03 0. 0. 2.81690131e-03 0. 0. 0. 0. 0. 2.81690131e-03
      0. 5.63380262e-03 5.63380262e-03 2.81690131e-03 0. 0. 0. 0. 0. 0.
      0. 0. 2.81690131e-03 0. 0. 0. 5.63380262e-03 2.81690131e-03 0.
      2.81690131e-03 0. 0. 0. 2.81690131e-03 0. 2.81690131e-03
      2.81690131e-03 0. 0. 2.81690131e-03 0. 0. 0. 2.81690131e-03
      5.63380262e-03 0. 0. 0. 0. 2.81690131e-03 2.81690131e-03 0.
      2.81690131e-03 2.81690131e-03 2.81690131e-03 2.81690131e-03 0. 0.
      0. 0. 0. 2.81690131e-03 0. 0. 2.81690131e-03 0. 2.81690131e-03 0.
      0. 0. 0. 0. 2.81690131e-03 0. 0. 0. 2.81690131e-03 0.
      2.81690131e-03 0. 0. 2.81690131e-03 5.63380262e-03 5.63380262e-03
      0. 2.81690131e-03 2.81690131e-03 2.81690131e-03 0. 0. 0.
      2.81690131e-03 0. 2.81690131e-03 2.81690131e-03 0. 5.63380262e-03
      0. 2.81690131e-03 2.81690131e-03 0. 2.81690131e-03 2.81690131e-03
      0. 2.81690131e-03 2.81690131e-03 2.81690131e-03 0. 2.81690131e-03
      0. 0. 0. 0. 0. 2.81690131e-03 0. 2.81690131e-03 0. 2.81690131e-03
      0. 0. 0. 0. 0. 0. 8.45070370e-03 2.81690131e-03 0. 0. 0. 0.
      2.81690131e-03 2.81690131e-03 0. 5.63380262e-03 0. 5.63380262e-03
      0. 2.81690131e-03 0. 8.45070370e-03 2.81690131e-03 0. 0.
      2.81690131e-03 2.81690131e-03 0. 0. 0. 0. 2.81690131e-03 0. 0. 0.
      2.81690131e-03 0. 0. 0. 0. 0. 0. 0. 5.63380262e-03 0. 0.
      2.81690131e-03 2.81690131e-03 0. 2.81690131e-03 0. 0. 0. 0.
      8.45070370e-03 2.81690131e-03 2.81690131e-03 0. 0. 0. 0. 0. 0. 0.
      0. 2.81690131e-03 0. 0. 2.81690131e-03 0. 0. 0. 0. 0.
      5.63380262e-03 2.81690131e-03 5.63380262e-03 0. 0. 5.63380262e-03
      2.81690131e-03 0. 0. 2.81690131e-03 5.63380262e-03 0. 0. 0. 0.
      2.81690131e-03 5.63380262e-03 0.</_>
    <_>
      0. 0. 0. 0. 0. 0. 0. 0. 0. 0. 0. 0. 0. 1.10294120e-02
      3.67647060e-03 7.35294120e-03 0. 0. 0. 7.35294120e-03
      3.67647060e-03 0. 7.35294120e-03 0. 3.67647060e-03 0. 0. 0. 0. 0.
      0. 0. 0. 0. 0. 0. 0. 0. 0. 0. 0. 0. 0. 0. 0. 0. 0. 0. 0. 0. 0. 0.
      0. 0. 0. 0. 0. 0. 0. 0. 0. 0. 0. 0. 0. 0. 0. 3.67647060e-03
      3.67647060e-03 0. 0. 0. 0. 0. 0. 0. 0. 0. 0. 0. 0. 0. 0.
      3.67647060e-03 0. 0. 3.67647060e-03 0. 0. 0. 0. 0. 0. 0. 0. 0. 0.
      0. 0. 0. 0. 0. 0. 3.67647060e-03 0. 0. 0. 0. 0. 0. 0. 0. 0. 0.
      3.67647060e-03 0. 0. 0. 0. 0. 0. 0. 0. 0. 0. 0. 0. 0. 0. 0.
      3.67647060e-03 0. 0. 3.67647060e-03 0. 0. 0. 0. 0. 0. 0. 0.
      3.67647060e-03 0. 0. 7.35294120e-03 3.67647060e-03 3.67647060e-03
      0. 0. 0. 0. 0. 0. 0. 0. 0. 0. 3.67647060e-03 0. 0. 0. 0.
      3.67647060e-03 0. 0. 0. 3.67647060e-03 0. 0. 0. 3.67647060e-03 0.
      0. 0. 0. 0. 0. 0. 0. 0. 0. 0. 0. 0. 0. 0. 0. 3.67647060e-03 0. 0.
      0. 0. 0. 0. 0. 0. 0. 0. 0. 0. 7.35294120e-03 3.67647060e-03 0.
      3.67647060e-03 0. 0. 0. 0. 0. 0. 0. 0. 0. 0. 7.35294120e-03 0.
      7.35294120e-03 0. 0. 0. 0. 0. 0. 0. 0. 3.67647060e-03 0. 0. 0. 0.
      0. 0. 0. 3.67647060e-03 0. 0. 0. 0. 0. 0. 0. 0. 0. 0.
      7.35294120e-03 0. 0. 0. 0. 3.67647060e-03 0. 0. 0. 3.67647060e-03
      0. 7.35294120e-03 3.67647060e-03 3.67647060e-03 3.67647060e-03 0.
      0. 0. 0. 0. 0. 0. 0. 0. 3.67647060e-03 3.67647060e-03 0. 0.
      7.35294120e-03 0. 0. 0. 0. 0. 1.47058824e-02 0. 0. 3.67647060e-03
      0. 0. 0. 0. 3.67647060e-03 0. 3.67647060e-03 0. 3.67647060e-03
      3.67647060e-03 7.35294120e-03 0. 0. 3.67647060e-03 0. 0. 0. 0.
      3.67647060e-03 0. 0. 0. 0. 0. 0. 0. 0. 0. 0. 0. 0. 1.10294120e-02
      0. 0. 0. 0. 7.35294120e-03 7.35294120e-03 3.67647060e-03
      3.67647060e-03 0. 0. 0. 0. 0. 0. 0. 0. 0. 0. 0. 3.67647060e-03 0.
      0. 0. 0. 0. 0. 0. 0. 0. 0. 0. 0. 0. 0. 0. 3.67647060e-03 0. 0. 0.
      0. 0. 0. 0. 0. 0. 0. 0. 0. 3.67647060e-03 0. 0. 3.67647060e-03 0.
      0. 0. 0. 0. 0. 3.67647060e-03 0. 0. 0. 7.35294120e-03 0.
      3.67647060e-03 3.67647060e-03 0. 0. 0. 0. 3.67647060e-03 0. 0. 0.
      0. 0. 0. 0. 3.67647060e-03 0. 0. 0. 3.67647060e-03 0.
      3.67647060e-03 0. 0. 3.67647060e-03 0. 0. 0. 3.67647060e-03 0. 0.
      0. 0. 0. 0. 0. 3.67647060e-03 0. 0. 0. 0. 0. 0. 0. 0. 0. 0. 0. 0.
      0. 0. 7.35294120e-03 0. 0. 0. 3.67647060e-03 0. 0. 3.67647060e-03
      0. 3.67647060e-03 0. 0. 0. 0. 3.67647060e-03 0. 0. 0. 0. 0. 0. 0.
      0. 0. 0. 3.67647060e-03 7.35294120e-03 3.67647060e-03 0.
      3.67647060e-03 3.67647060e-03 0. 0. 0. 0. 0. 0. 0. 0. 0. 0. 0. 0.
      0. 0. 3.67647060e-03 0. 0. 0. 0. 0. 0. 1.83823537e-02
      3.67647060e-03 0. 0. 0. 0. 3.67647060e-03 0. 0. 0. 0.
      3.67647060e-03 0. 0. 3.67647060e-03 0. 0. 7.35294120e-03 0. 0.
      3.67647060e-03 0. 0. 0. 3.67647060e-03 0. 0. 0. 0. 0. 0. 0. 0. 0.
      0. 0. 0. 0. 0. 0. 0. 7.35294120e-03 0. 3.67647060e-03 0.
      3.67647060e-03 0. 0. 3.67647060e-03 0. 3.67647060e-03 0. 0. 0.
      3.67647060e-03 0. 0. 3.67647060e-03 0. 0. 0. 0. 0. 0.
      3.67647060e-03 1.10294120e-02 0. 0. 0. 0. 0. 1.47058824e-02 0. 0.
      0. 0. 1.10294120e-02 0. 0. 3.67647060e-03 7.35294120e-03 0.
      3.67647060e-03 0. 0. 0. 0. 0. 3.67647060e-03 3.67647060e-03 0. 0.
      0. 0. 0. 0. 0. 3.67647060e-03 0. 0. 0. 3.67647060e-03 0. 0. 0. 0.
      0. 0. 3.67647060e-03 0. 0. 0. 0. 0. 0. 0. 0. 0. 0. 0. 0. 0. 0. 0.
      0. 0. 0. 7.35294120e-03 0. 0. 3.67647060e-03 0. 0. 0.
      3.67647060e-03 0. 0. 0. 0. 0. 0. 0. 0. 0. 0. 0. 0. 1.10294120e-02
      0. 0. 0. 0. 0. 3.67647060e-03 7.35294120e-03 0. 0. 0. 0. 0. 0. 0.
      0. 3.67647060e-03 0. 1.10294120e-02 0. 0. 0. 0. 0. 0.
      3.67647060e-03 0. 7.35294120e-03 0. 0. 0. 0. 0. 0. 0. 0.
      3.67647060e-03 7.35294120e-03 0. 0. 0. 0. 7.35294120e-03 0. 0. 0.
      0. 3.67647060e-03 0. 3.67647060e-03 0. 0. 0. 0. 0. 0. 0. 0. 0. 0.
      0. 0. 0. 0. 0. 0. 0. 0. 0. 0. 0. 0. 0. 0. 0. 0. 0. 0. 0.
      3.67647060e-03 0. 0. 0. 0. 3.67647060e-03 0. 0. 0. 0. 0. 0. 0. 0.
      0. 0. 0. 0. 0. 0. 0. 0. 3.67647060e-03 7.35294120e-03 0. 0. 0. 0.
      1.10294120e-02 0. 0. 0. 0. 0. 0. 0. 3.67647060e-03 7.35294120e-03
      3.67647060e-03 0. 7.35294120e-03 0. 0. 0. 0. 0. 7.35294120e-03 0.
      1.10294120e-02 1.10294120e-02 0. 0. 0. 0. 0. 0. 0. 0. 0.
      3.67647060e-03 0. 0. 0. 0. 0. 0. 3.67647060e-03 0. 0. 0. 0. 0. 0.
      0. 0. 0. 0. 0. 0. 0. 1.83823537e-02 0. 7.35294120e-03 0. 0. 0. 0.
      3.67647060e-03 0. 0. 3.67647060e-03 0. 0. 0. 0. 0. 0. 0. 0.
      3.67647060e-03 0. 0. 0. 0. 0. 0. 0. 0. 3.67647060e-03
      7.35294120e-03 0. 0. 0. 0. 7.35294120e-03 0. 0. 0. 0. 0.
      3.67647060e-03 7.35294120e-03 0. 0. 0. 0. 3.67647060e-03 0. 0. 0.
      0. 0. 0. 0. 3.67647060e-03 0. 0. 3.67647060e-03 3.67647060e-03
      3.67647060e-03 0. 0. 3.67647060e-03 0. 0. 0. 3.67647060e-03 0. 0.
      0. 0. 1.10294120e-02 0. 0. 0. 0. 0. 0. 0. 3.67647060e-03
      3.67647060e-03 0. 0. 0. 0. 0. 0. 0. 3.67647060e-03 0. 0. 0.
      3.67647060e-03 0. 1.10294120e-02 0. 3.67647060e-03 0.
      7.35294120e-03 0. 0. 0. 0. 7.35294120e-03 0. 0. 0. 0. 0. 0. 0. 0.
      0. 0. 0. 3.67647060e-03 3.67647060e-03 0. 0. 0. 0. 0.
      3.67647060e-03 0. 0. 0. 0. 0. 0. 0. 0. 0. 3.67647060e-03 0. 0. 0.
      0. 0. 0. 0. 0. 3.67647060e-03 0. 0. 0. 0. 0. 3.67647060e-03 0. 0.
      1.10294120e-02 0. 0. 0. 7.35294120e-03 0. 0. 7.35294120e-03 0. 0.
      0. 0. 3.67647060e-03 0. 0. 0. 3.67647060e-03 0. 0. 3.67647060e-03
      3.67647060e-03 0. 3.67647060e-03 0. 0. 1.10294120e-02
      3.67647060e-03 0. 0. 0. 3.67647060e-03 7.35294120e-03 0.
      1.10294120e-02 7.35294120e-03 0. 0. 0. 3.67647060e-03 0. 0. 0. 0.
      7.35294120e-03 0. 0. 0. 3.67647060e-03 0. 0. 3.67647060e-03 0. 0.
      0. 3.67647060e-03 0. 3.67647060e-03 0. 0. 0. 3.67647060e-03
      3.67647060e-03 0.</_>
    <_>
      0. 0. 0. 0. 0. 0. 0. 0. 0. 0. 0. 0. 0. 0. 1.17647061e-02 0. 0. 0.
      0. 5.88235306e-03 0. 0. 0. 0. 0. 0. 0. 0. 0. 0. 0. 5.88235306e-03
      0. 0. 0. 0. 0. 0. 0. 0. 5.88235306e-03 0. 5.88235306e-03 0. 0. 0.
      0. 0. 0. 0. 0. 0. 0. 0. 0. 0. 0. 0. 0. 0. 5.88235306e-03 0. 0. 0.
      0. 0. 0. 0. 5.88235306e-03 5.88235306e-03 0. 0. 0. 0. 0. 0. 0.
      5.88235306e-03 0. 1.76470596e-02 0. 0. 0. 1.76470596e-02 0. 0. 0.
      5.88235306e-03 0. 0. 0. 0. 0. 0. 0. 0. 0. 0. 5.88235306e-03 0. 0.
      0. 0. 1.17647061e-02 0. 0. 0. 0. 0. 0. 0. 0. 0. 0. 0. 0. 0. 0. 0.
