<?xml version="1.0"?>
<opencv_storage>
<opencv_ml_svm>
  <format>3</format>
  <svmType>C_SVC</svmType>
  <kernel>
    <type>RBF</type>
    <gamma>1.0000000000000001e-05</gamma></kernel>
  <C>1.0000000000000001e-01</C>
  <term_criteria><iterations>1000</iterations></term_criteria>
  <var_count>1000</var_count>
  <class_count>2</class_count>
  <class_labels type_id="opencv-matrix">
    <rows>2</rows>
    <cols>1</cols>
    <dt>i</dt>
    <data>
      0 1</data></class_labels>
  <sv_total>143</sv_total>
  <support_vectors>
    <_>
      0. 3.36322887e-03 0. 0. 0. 1.12107629e-03 0. 2.24215258e-03
      1.12107629e-03 2.24215258e-03 1.00896861e-02 0. 0. 0. 0.
      1.12107629e-03 0. 0. 0. 1.12107629e-03 0. 1.12107629e-03 0. 0.
      1.12107629e-03 2.24215258e-03 1.12107629e-03 0. 0. 0.
      1.12107629e-03 1.12107629e-03 0. 2.24215258e-03 0. 0.
      3.36322887e-03 1.12107629e-03 2.24215258e-03 0. 0. 0. 0. 0. 0.
      4.48430516e-03 4.48430516e-03 0. 5.60538145e-03 0. 0. 0. 0. 0. 0.
      0. 0. 1.12107629e-03 1.12107629e-03 0. 2.24215258e-03
      1.12107629e-03 0. 2.24215258e-03 1.12107629e-03 0. 0.
      1.12107629e-03 4.48430516e-03 0. 1.12107629e-03 1.12107629e-03
      1.12107629e-03 0. 0. 1.12107629e-03 0. 0. 0. 0. 1.12107629e-03
      1.12107629e-03 0. 1.12107629e-03 4.48430516e-03 1.12107629e-03 0.
      0. 0. 1.12107629e-03 0. 0. 0. 0. 0. 0. 0. 0. 0. 0. 1.12107629e-03
      1.12107629e-03 1.12107629e-03 1.12107629e-03 2.24215258e-03
      3.36322887e-03 0. 1.12107629e-03 2.24215258e-03 0. 0. 0. 0.
      3.36322887e-03 1.12107629e-03 0. 0. 1.12107629e-03 0.
      5.60538145e-03 0. 1.12107629e-03 3.36322887e-03 0. 1.12107629e-03
      0. 0. 2.24215258e-03 1.12107629e-03 0. 0. 0. 0. 1.12107629e-03
      1.12107629e-03 8.96861032e-03 0. 1.12107629e-03 1.12107629e-03
      2.24215258e-03 0. 2.24215258e-03 6.72645774e-03 1.12107629e-03
      2.24215258e-03 0. 5.60538145e-03 4.48430516e-03 3.36322887e-03
      4.48430516e-03 0. 0. 1.12107629e-03 5.60538145e-03 1.12107629e-03
      1.12107629e-03 3.36322887e-03 0. 1.12107629e-03 0. 0.
      1.12107629e-03 1.12107629e-03 1.45739913e-02 4.48430516e-03 0. 0.
      0. 1.12107629e-03 1.12107629e-03 0. 0. 0. 0. 4.48430516e-03 0.
      1.12107629e-03 1.12107629e-03 0. 1.12107629e-03 1.12107629e-03 0.
      1.12107629e-03 1.12107629e-03 0. 2.24215258e-03 0. 0. 0.
      1.12107629e-03 1.12107629e-03 0. 2.24215258e-03 1.12107629e-03 0.
      1.79372206e-02 0. 2.24215258e-03 1.12107629e-03 0. 0. 0. 0. 0. 0.
      1.12107629e-03 0. 2.24215258e-03 2.24215258e-03 0. 0. 0.
      3.36322887e-03 0. 3.36322887e-03 1.12107629e-03 2.24215258e-03
      2.24215258e-03 1.12107629e-03 0. 0. 0. 0. 3.36322887e-03 0. 0.
      1.12107629e-03 0. 1.12107629e-03 1.12107629e-03 1.12107629e-03
      2.24215258e-03 0. 0. 0. 2.24215258e-03 0. 0. 0. 3.36322887e-03
      1.12107629e-03 0. 4.48430516e-03 0. 0. 0. 8.96861032e-03 0.
      1.12107629e-03 0. 0. 3.36322887e-03 0. 0. 0. 1.12107629e-03 0. 0.
      1.12107629e-03 3.36322887e-03 2.24215258e-03 0. 6.72645774e-03
      2.24215258e-03 0. 0. 0. 0. 0. 1.12107629e-03 1.12107629e-03
      1.12107629e-03 0. 0. 1.12107629e-03 0. 0. 0. 0. 1.12107629e-03 0.
      0. 0. 0. 0. 0. 0. 3.36322887e-03 0. 0. 0. 0. 1.12107629e-03
      1.12107629e-03 0. 5.60538145e-03 0. 3.36322887e-03 3.36322887e-03
      0. 0. 0. 2.24215258e-03 0. 2.57847551e-02 0. 0. 0. 1.12107629e-03
      0. 1.12107629e-03 0. 0. 1.12107629e-03 0. 0. 0. 0. 0. 0.
      1.12107629e-03 0. 0. 0. 0. 2.24215258e-03 1.12107629e-03 0.
      2.24215258e-03 0. 0. 0. 4.59641293e-02 0. 0. 1.12107629e-03 0. 0.
      0. 1.12107629e-03 2.24215258e-03 0. 0. 2.24215258e-03 0.
      1.12107629e-03 0. 0. 0. 0. 0. 0. 0. 0. 1.12107629e-03
      2.24215258e-03 0. 0. 0. 4.48430516e-03 0. 0. 0. 0. 1.12107629e-03
      1.12107629e-03 1.12107629e-03 1.12107629e-03 0. 3.36322887e-03 0.
      0. 0. 0. 0. 0. 1.12107629e-03 0. 3.36322887e-03 0. 0. 0. 0.
      1.12107629e-03 0. 0. 0. 0. 1.12107629e-03 1.12107629e-03
      1.12107629e-03 0. 0. 0. 0. 2.24215258e-03 1.12107629e-03 0. 0. 0.
      0. 0. 0. 0. 0. 0. 1.12107629e-03 0. 0. 0. 0. 0. 0. 5.60538145e-03
      1.12107629e-03 0. 0. 0. 1.12107629e-03 2.24215258e-03 0.
      1.12107629e-03 1.12107629e-03 0. 1.12107629e-03 1.12107629e-03
      3.36322887e-03 1.12107629e-03 1.12107629e-03 0. 0. 1.12107629e-03
      1.12107629e-03 0. 2.24215258e-03 0. 3.36322887e-03 0. 0.
      1.12107629e-03 0. 1.12107629e-03 0. 0. 0. 0. 1.12107629e-03 0. 0.
      3.36322887e-03 0. 0. 0. 0. 0. 0. 1.12107629e-03 1.12107629e-03
      2.24215258e-03 1.12107629e-03 0. 0. 0. 0. 1.12107629e-03 0.
      1.12107629e-03 0. 0. 0. 2.24215258e-03 1.12107629e-03
      1.12107629e-03 1.12107629e-03 0. 1.12107629e-03 0. 1.12107629e-03
      0. 0. 0. 0. 0. 0. 1.12107629e-03 0. 0. 0. 0. 2.24215258e-03
      1.12107629e-03 0. 1.12107629e-03 0. 0. 0. 0. 1.12107629e-03
      2.24215258e-03 1.12107629e-03 0. 2.24215258e-03 5.60538145e-03 0.
      2.24215258e-03 1.12107629e-03 0. 0. 0. 0. 2.24215258e-03 0.
      3.36322887e-03 2.24215258e-03 2.24215258e-03 1.23318397e-02 0. 0.
      1.12107629e-03 0. 5.60538145e-03 0. 0. 0. 1.12107629e-03 0. 0.
      5.60538145e-03 0. 0. 0. 1.12107629e-03 2.24215258e-03
      3.36322887e-03 0. 6.72645774e-03 1.12107629e-03 0. 0. 0. 0. 0.
      1.12107629e-03 1.12107629e-03 0. 6.72645774e-03 0. 8.96861032e-03
      0. 0. 0. 0. 0. 0. 0. 0. 1.12107629e-03 0. 0. 2.24215258e-03 0.
      2.24215258e-03 1.12107629e-03 2.24215258e-03 0. 0. 2.24215258e-03
      1.12107629e-03 0. 1.12107629e-03 0. 1.68161448e-02 0. 0.
      1.12107629e-03 0. 1.12107629e-03 0. 0. 0. 1.12107629e-03 0.
      1.12107629e-03 1.12107629e-03 2.24215258e-03 1.12107629e-03 0.
      1.12107629e-03 3.36322887e-03 0. 4.48430516e-03 0. 0.
      2.24215258e-03 3.36322887e-03 0. 0. 0. 0. 0. 0. 1.12107629e-03 0.
      3.36322887e-03 1.12107629e-03 2.24215258e-03 0. 0. 0.
      3.36322887e-03 2.24215258e-03 1.12107629e-03 1.12107629e-03
      1.12107629e-03 1.12107629e-03 0. 0. 0. 0. 1.12107629e-03 0. 0.
      2.91479826e-02 1.12107629e-03 2.24215258e-03 0. 4.48430516e-03 0.
      1.12107629e-03 1.12107629e-03 0. 1.12107629e-03 0. 2.24215258e-03
      0. 1.12107629e-03 0. 1.12107629e-03 0. 0. 0. 0. 1.12107629e-03 0.
      1.12107629e-03 0. 0. 0. 2.24215258e-03 0. 1.12107629e-03
      2.24215258e-03 0. 0. 2.24215258e-03 0. 0. 0. 0. 1.12107629e-03 0.
      1.12107629e-03 0. 1.12107629e-03 0. 0. 2.24215258e-03 0. 0. 0. 0.
      0. 0. 0. 1.12107629e-03 0. 0. 0. 0. 0. 0. 0. 1.12107629e-03 0. 0.
      0. 0. 0. 0. 0. 0. 2.24215258e-03 0. 2.24215258e-03 0.
      1.12107629e-03 0. 0. 0. 0. 0. 3.36322887e-03 5.60538145e-03
      2.24215258e-03 1.12107629e-03 0. 4.48430516e-03 0. 1.12107629e-03
      2.24215258e-03 0. 0. 0. 0. 1.12107629e-03 1.12107629e-03
      1.12107629e-03 0. 0. 0. 0. 1.12107629e-03 1.12107629e-03 0. 0. 0.
      1.12107629e-03 0. 0. 0. 3.36322887e-03 0. 3.36322887e-03
      2.24215258e-03 0. 0. 0. 1.12107629e-03 2.24215258e-03 0.
      2.24215258e-03 0. 1.12107629e-03 1.12107629e-03 1.34529155e-02 0.
      0. 0. 3.36322887e-03 0. 2.24215258e-03 0. 0. 2.24215258e-03
      1.12107629e-03 3.36322887e-03 0. 1.12107629e-03 3.36322887e-03
      2.24215258e-03 0. 0. 0. 0. 0. 1.12107629e-03 2.24215258e-03 0. 0.
      0. 0. 1.12107629e-03 0. 0. 0. 0. 1.12107629e-03 0. 2.24215258e-03
      2.24215258e-03 3.36322887e-03 0. 0. 0. 0. 0. 1.12107629e-03
      1.12107629e-03 0. 3.36322887e-03 0. 0. 1.12107629e-03 0. 0. 0.
      2.24215258e-03 2.24215258e-03 1.12107629e-03 0. 0. 0. 0. 0. 0. 0.
      2.24215258e-03 0. 0. 0. 0. 4.48430516e-03 0. 0. 1.12107629e-03 0.
      4.48430516e-03 2.24215258e-03 0. 0. 2.24215258e-03 1.12107629e-03
      0. 5.60538145e-03 2.24215258e-03 0. 0. 1.12107629e-03 0. 0. 0. 0.
      1.12107629e-03 0. 0. 0. 0. 2.24215258e-03 0. 0. 0. 1.12107629e-03
      0. 1.12107629e-03 4.48430516e-03 0. 1.12107629e-03 1.12107629e-03
      0. 1.12107629e-03 2.24215258e-03 2.24215258e-03 1.12107629e-03 0.
      0. 1.12107629e-03 4.48430516e-03 0. 0. 0. 1.12107629e-03 0.
      3.36322887e-03 5.60538145e-03 0. 1.12107629e-03 0. 1.12107629e-03
      0. 1.12107629e-03 7.84753449e-03 0. 0. 0. 1.12107629e-03
      1.12107629e-03 0. 0. 0. 1.12107629e-03 1.12107629e-03 0. 0.
      3.36322887e-03 0. 0. 0. 0. 2.24215258e-03 1.12107629e-03 0.
      3.36322887e-03 0. 1.12107629e-03 1.12107629e-03 0. 0.
      1.12107629e-03 0. 0. 0. 0. 3.36322887e-03 0. 0. 0. 0. 0. 0.
      1.12107629e-03 1.12107629e-03 0. 0. 2.24215258e-03 0. 0. 0. 0. 0.
      0. 0. 0. 0. 6.72645774e-03 0. 1.12107629e-03 3.36322887e-03 0.
      1.12107629e-03 0. 1.12107629e-03 1.12107629e-03 0. 0.
      2.24215258e-03 0. 2.24215258e-03 0. 1.12107629e-03 0.
      1.12107629e-03 1.12107629e-03 0. 0. 2.24215258e-03 0. 0. 0. 0.
      3.36322887e-03 0. 1.12107629e-03 0. 1.12107629e-03 0. 0.
      1.12107629e-03 0. 1.12107629e-03 3.36322887e-03 0. 0.
      2.24215258e-03 1.12107629e-03 0. 1.12107629e-03 0. 0. 0. 0.
      1.12107629e-03 0. 0. 0. 0. 0. 1.12107629e-03 0. 0. 4.48430516e-03
      0. 1.12107629e-03 1.12107629e-03 3.36322887e-03 0. 0.
      1.12107629e-03 0. 0. 0. 2.24215258e-03 0. 1.12107629e-03 0.
      2.24215258e-03 0. 0. 0. 1.12107629e-03 2.24215258e-03</_>
    <_>
      0. 2.38095247e-03 0. 0. 0. 0. 0. 2.38095247e-03 0. 2.38095247e-03
      0. 0. 0. 0. 0. 0. 2.38095247e-03 0. 0. 0. 4.76190494e-03 0. 0. 0.
      0. 0. 0. 0. 2.38095247e-03 0. 0. 0. 0. 0. 0. 2.38095247e-03 0.
      1.19047621e-02 2.38095247e-03 0. 0. 2.38095247e-03 0. 0. 0. 0. 0.
      0. 2.38095247e-03 0. 0. 0. 0. 0. 0. 2.38095247e-03 0. 0. 0.
      2.38095247e-03 0. 7.14285765e-03 0. 0. 0. 0. 2.38095247e-03
      2.38095247e-03 1.42857153e-02 0. 0. 0. 0. 0. 0. 2.38095247e-03 0.
      2.38095247e-03 4.76190494e-03 0. 0. 2.38095247e-03 2.38095247e-03
      2.38095247e-03 2.38095247e-03 0. 0. 4.76190494e-03 0.
      4.76190494e-03 0. 0. 0. 4.76190494e-03 0. 0. 0. 0. 0. 0. 0. 0. 0.
      0. 2.38095247e-03 0. 0. 0. 2.38095247e-03 4.76190494e-03 0. 0.
      2.38095247e-03 0. 0. 0. 0. 2.38095247e-03 2.38095247e-03 0. 0.
      2.38095247e-03 0. 0. 0. 0. 0. 0. 2.38095247e-03 0. 0. 0.
      2.38095247e-03 0. 2.38095247e-03 0. 0. 0. 2.38095247e-03
      2.38095247e-03 0. 0. 0. 1.42857153e-02 0. 0. 2.38095247e-03
      2.38095247e-03 0. 0. 0. 0. 0. 2.38095247e-03 4.76190494e-03
      2.38095247e-03 4.76190494e-03 0. 0. 0. 0. 0. 0. 0. 0.
      2.38095247e-03 0. 0. 0. 2.38095247e-03 0. 0. 0. 0. 0. 0. 0. 0. 0.
      0. 0. 0. 0. 2.38095247e-03 0. 0. 0. 0. 0. 0. 0. 2.38095247e-03 0.
      0. 0. 0. 0. 0. 0. 0. 0. 2.38095247e-03 0. 0. 0. 0. 0. 0.
      2.38095247e-03 0. 4.76190494e-03 0. 0. 0. 2.38095247e-03 0.
      7.14285765e-03 0. 0. 0. 0. 4.76190494e-03 2.38095247e-03
      2.38095247e-03 0. 0. 0. 0. 4.76190494e-03 0. 0. 2.38095247e-03 0.
      2.38095247e-03 2.38095247e-03 0. 0. 2.38095247e-03 0. 0.
      2.38095247e-03 0. 0. 0. 0. 7.14285765e-03 0. 0. 0. 0. 0. 0. 0. 0.
      4.76190494e-03 4.76190494e-03 0. 0. 0. 7.14285765e-03 0. 0. 0. 0.
      0. 0. 0. 0. 2.38095247e-03 0. 0. 0. 0. 0. 0. 0. 0. 0.
      2.38095247e-03 0. 0. 0. 0. 4.76190494e-03 0. 0. 0. 2.38095247e-03
      0. 0. 0. 2.38095247e-03 2.38095247e-03 7.14285765e-03 0.
      4.76190494e-03 2.38095247e-03 2.38095247e-03 0. 0. 0.
      7.14285765e-03 0. 0. 1.19047621e-02 0. 0. 4.76190494e-03
      4.76190494e-03 4.76190494e-03 0. 4.76190494e-03 0. 2.38095247e-03
      0. 0. 0. 0. 0. 0. 0. 0. 0. 4.76190494e-03 0. 0. 7.14285765e-03 0.
      0. 0. 0. 0. 0. 0. 0. 0. 0. 2.38095247e-03 0. 0. 0. 0. 0. 0. 0. 0.
      0. 0. 0. 0. 0. 0. 0. 0. 0. 2.38095247e-03 0. 0. 2.38095247e-03 0.
      0. 0. 0. 2.38095247e-03 4.76190494e-03 0. 0. 0. 0. 0. 0. 0. 0. 0.
      0. 0. 0. 0. 2.38095247e-03 0. 2.38095247e-03 0. 0. 2.38095247e-03
      0. 2.38095247e-03 0. 0. 0. 2.38095247e-03 0. 2.38095247e-03 0. 0.
      0. 2.38095247e-03 0. 0. 0. 0. 0. 0. 0. 0. 2.38095247e-03 0. 0. 0.
      0. 2.38095247e-03 0. 0. 0. 0. 0. 2.38095247e-03 0. 0. 0. 0. 0. 0.
      2.38095247e-03 4.76190494e-03 0. 2.38095247e-03 2.38095247e-03 0.
      0. 0. 0. 2.38095247e-03 7.14285765e-03 2.38095247e-03 0. 0.
      2.38095247e-03 0. 0. 2.38095247e-03 0. 0. 0. 0. 0. 0.
      2.38095247e-03 2.38095247e-03 2.38095247e-03 0. 0. 2.38095247e-03
      2.38095247e-03 0. 4.76190494e-03 0. 0. 2.38095247e-03
      2.38095247e-03 0. 0. 0. 0. 0. 0. 2.38095247e-03 0. 0. 0. 0. 0.
      2.38095247e-03 0. 0. 2.38095247e-03 9.52380989e-03 2.38095247e-03
      0. 2.38095247e-03 2.38095247e-03 0. 2.38095247e-03 0. 0. 0. 0.
      2.38095247e-03 2.38095247e-03 0. 4.76190494e-03 0. 2.38095247e-03
      2.38095247e-03 0. 2.38095247e-03 0. 2.38095247e-03 0. 0. 0. 0.
      2.38095247e-03 0. 0. 4.76190494e-03 4.76190494e-03 9.52380989e-03
      0. 0. 0. 0. 0. 2.38095247e-03 2.38095247e-03 0. 0. 0. 0.
      2.38095247e-03 2.38095247e-03 0. 2.38095247e-03 0. 0.
      2.38095247e-03 0. 0. 0. 0. 2.38095247e-03 0. 2.38095247e-03 0.
      9.52380989e-03 0. 4.76190494e-03 0. 0. 0. 0. 0. 0. 0.
      2.38095247e-03 0. 0. 0. 2.38095247e-03 0. 0. 2.38095247e-03 0. 0.
      0. 0. 0. 0. 0. 0. 2.38095247e-03 0. 0. 0. 0. 0. 0. 0.
      2.38095247e-03 0. 0. 2.38095247e-03 0. 0. 0. 0. 0. 2.38095247e-03
      2.38095247e-03 2.38095247e-03 2.38095247e-03 0. 0. 0.
      2.38095247e-03 0. 0. 0. 0. 0. 0. 4.76190494e-03 0. 0. 0. 0. 0.
      2.38095247e-03 0. 0. 2.38095247e-03 0. 2.38095247e-03 0. 0.
      4.76190494e-03 0. 0. 0. 2.38095247e-03 2.38095247e-03 0.
      2.38095247e-03 0. 0. 9.52380989e-03 0. 0. 2.38095247e-03 0. 0. 0.
      0. 0. 0. 0. 0. 2.38095247e-03 0. 0. 0. 2.38095247e-03
      4.76190494e-03 0. 9.52380989e-03 2.38095247e-03 0. 4.76190494e-03
      2.38095247e-03 0. 0. 0. 0. 2.38095247e-03 0. 0. 2.38095247e-03 0.
      2.38095247e-03 2.38095247e-03 0. 2.38095247e-03 2.38095247e-03
      7.14285765e-03 0. 2.38095247e-03 0. 0. 0. 0. 0. 0. 0.
      2.38095247e-03 0. 0. 4.76190494e-03 0. 0. 0. 0. 0. 0. 0. 0.
      2.38095247e-03 0. 0. 0. 0. 4.76190494e-03 2.38095247e-03 0. 0. 0.
      4.76190494e-03 0. 0. 0. 0. 0. 0. 0. 2.38095247e-03 4.76190494e-03
      0. 0. 0. 4.76190494e-03 0. 0. 0. 7.14285765e-03 2.38095247e-03 0.
      0. 0. 0. 2.38095247e-03 0. 0. 0. 4.76190494e-03 0. 9.52380989e-03
      2.38095247e-03 0. 0. 0. 0. 4.76190494e-03 2.38095247e-03 0.
      4.76190494e-03 0. 4.76190494e-03 2.38095247e-03 2.38095247e-03 0.
      0. 0. 0. 0. 4.76190494e-03 0. 9.52380989e-03 0. 0. 2.38095247e-03
      0. 7.14285765e-03 0. 0. 0. 0. 1.90476198e-02 0. 0. 0. 0.
      4.76190494e-03 0. 0. 0. 2.38095247e-03 2.38095247e-03 0. 0. 0. 0.
      0. 0. 0. 0. 0. 0. 2.38095247e-03 0. 0. 2.38095247e-03
      2.38095247e-03 0. 2.38095247e-03 0. 0. 0. 0. 0. 0. 0. 0. 0.
      2.38095247e-03 0. 7.14285765e-03 0. 0. 0. 0. 0. 0. 0. 0.
      2.38095247e-03 0. 0. 2.38095247e-03 0. 2.38095247e-03
      2.38095247e-03 2.38095247e-03 0. 2.38095247e-03 0. 0.
      2.38095247e-03 0. 0. 0. 2.38095247e-03 2.38095247e-03 0.
      1.19047621e-02 4.76190494e-03 0. 0. 4.76190494e-03 0. 0. 0. 0. 0.
      0. 0. 2.38095247e-03 0. 0. 0. 0. 0. 0. 0. 2.38095247e-03 0. 0.
      2.38095247e-03 0. 0. 4.76190494e-03 0. 0. 4.76190494e-03 0. 0.
      2.38095247e-03 2.38095247e-03 0. 0. 0. 0. 9.52380989e-03 0. 0.
      4.76190494e-03 0. 2.38095247e-03 0. 2.38095247e-03 0. 0. 0.
      2.38095247e-03 0. 2.38095247e-03 2.38095247e-03 0. 4.76190494e-03
      2.38095247e-03 0. 0. 0. 0. 0. 2.38095247e-03 0. 0. 0. 0. 0. 0. 0.
      2.38095247e-03 0. 2.38095247e-03 4.76190494e-03 2.38095247e-03 0.
      2.38095247e-03 0. 2.38095247e-03 0. 0. 0. 0. 0. 0. 0.
      2.38095247e-03 2.38095247e-03 0. 0. 0. 0. 2.38095247e-03
      2.38095247e-03 2.38095247e-03 0. 0. 0. 2.38095247e-03 0.
      2.38095247e-03 4.76190494e-03 0. 0. 0. 0. 2.38095247e-03 0. 0. 0.
      0. 2.38095247e-03 0. 2.38095247e-03 0. 0. 0. 0. 0. 0.
      2.38095247e-03 2.38095247e-03 0. 7.14285765e-03 0. 0. 0.
      2.38095247e-03 0. 0. 2.38095247e-03 0. 0. 2.38095247e-03
      4.76190494e-03 0. 0. 0. 2.38095247e-03 0. 0. 0. 2.38095247e-03
      2.38095247e-03 0. 0. 2.38095247e-03 0. 0. 2.38095247e-03 0. 0. 0.
      2.38095247e-03 0. 2.38095247e-03 0. 0. 0. 0. 0. 2.38095247e-03 0.
      0. 0. 0. 2.38095247e-03 0. 0. 0. 0. 0. 0. 4.76190494e-03
      4.76190494e-03 0. 0. 0. 0. 0. 4.76190494e-03 2.38095247e-03 0. 0.
      0. 0. 0. 4.76190494e-03 0. 0.</_>
    <_>
      0. 8.84955749e-03 0. 4.42477874e-03 0. 4.42477874e-03 0. 0. 0. 0.
      4.42477874e-03 1.32743362e-02 4.42477874e-03 0. 0. 0. 0. 0. 0. 0.
      0. 0. 0. 4.42477874e-03 8.84955749e-03 0. 0. 0. 0. 0. 0. 0. 0. 0.
      0. 0. 0. 4.42477874e-03 4.42477874e-03 0. 0. 0. 0. 0. 0. 0. 0. 0.
      0. 0. 0. 0. 0. 0. 0. 0. 0. 0. 0. 0. 0. 0. 0. 0. 0. 0. 0.
      4.42477874e-03 0. 0. 0. 0. 0. 4.42477874e-03 0. 0. 0. 0. 0. 0. 0.
      4.42477874e-03 0. 0. 8.84955749e-03 0. 0. 4.42477874e-03 0. 0. 0.
      0. 0. 0. 0. 0. 0. 0. 0. 4.42477874e-03 0. 0. 0. 4.42477874e-03 0.
      0. 0. 0. 0. 8.84955749e-03 0. 0. 0. 0. 0. 0. 0. 0. 4.42477874e-03
      0. 0. 0. 4.42477874e-03 4.42477874e-03 0. 8.84955749e-03
      4.42477874e-03 0. 0. 0. 0. 0. 0. 0. 0. 0. 0. 0. 8.84955749e-03 0.
      0. 4.42477874e-03 0. 4.42477874e-03 0. 0. 4.42477874e-03 0. 0. 0.
      0. 0. 4.42477874e-03 0. 0. 0. 0. 0. 0. 0. 4.42477874e-03 0. 0.
      4.42477874e-03 0. 0. 0. 0. 4.42477874e-03 0. 0. 0. 0.
      4.42477874e-03 0. 8.84955749e-03 0. 0. 0. 0. 0. 0. 0. 0. 0. 0. 0.
      0. 0. 4.42477874e-03 0. 0. 0. 0. 0. 0. 0. 0. 8.84955749e-03 0. 0.
      0. 0. 8.84955749e-03 0. 0. 0. 0. 0. 0. 0. 0. 0. 0. 0. 0.
      8.84955749e-03 0. 0. 0. 4.42477874e-03 0. 0. 4.42477874e-03 0.
      4.42477874e-03 0. 0. 4.42477874e-03 0. 0. 0. 0. 4.42477874e-03 0.
      0. 0. 0. 0. 0. 0. 4.42477874e-03 0. 4.42477874e-03 0. 0. 0. 0. 0.
      0. 0. 0. 0. 0. 0. 0. 0. 0. 0. 0. 0. 0. 0. 0. 4.42477874e-03
      4.42477874e-03 0. 0. 0. 0. 0. 0. 0. 0. 0. 0. 4.42477874e-03 0.
      4.42477874e-03 8.84955749e-03 0. 0. 0. 0. 0. 4.42477874e-03 0.
      8.84955749e-03 0. 0. 4.42477874e-03 0. 0. 0. 0. 0. 0. 0.
      4.42477874e-03 0. 4.42477874e-03 8.84955749e-03 0. 0. 0. 0. 0. 0.
      0. 0. 0. 4.42477874e-03 0. 4.42477874e-03 0. 0. 0. 0. 0. 0. 0. 0.
      0. 0. 0. 0. 0. 0. 0. 0. 0. 0. 0. 0. 4.42477874e-03 0.
      4.42477874e-03 0. 4.42477874e-03 0. 0. 0. 0. 0. 0. 0. 0. 0. 0. 0.
      4.42477874e-03 0. 0. 8.84955749e-03 4.42477874e-03 0. 0. 0. 0. 0.
      0. 0. 0. 1.32743362e-02 4.42477874e-03 0. 0. 0. 0. 0. 0. 0. 0.
      4.42477874e-03 0. 0. 0. 0. 4.42477874e-03 0. 0. 0. 0. 0. 0. 0. 0.
      0. 0. 0. 0. 0. 0. 0. 4.42477874e-03 0. 4.42477874e-03 0. 0. 0. 0.
      4.42477874e-03 0. 0. 0. 0. 4.42477874e-03 0. 0. 0. 0. 0. 0.
      1.76991150e-02 0. 0. 4.42477874e-03 0. 0. 0. 0. 0. 0. 0. 0.
      4.42477874e-03 0. 0. 0. 0. 0. 0. 0. 0. 0. 0. 0. 4.42477874e-03 0.
      4.42477874e-03 0. 0. 0. 0. 0. 0. 0. 0. 0. 0. 0. 0. 0. 0. 0. 0. 0.
      2.21238937e-02 0. 0. 0. 0. 0. 4.42477874e-03 0. 0. 4.42477874e-03
      0. 0. 0. 0. 0. 0. 0. 0. 0. 0. 0. 4.42477874e-03 0. 0.
      4.42477874e-03 0. 0. 0. 0. 4.42477874e-03 0. 0. 0. 0. 0.
      4.42477874e-03 0. 0. 0. 0. 4.42477874e-03 0. 0. 0. 0. 0. 0. 0.
      4.42477874e-03 0. 0. 0. 0. 0. 0. 0. 4.42477874e-03 0.
      2.21238937e-02 4.42477874e-03 0. 0. 0. 0. 0. 0. 0. 0. 0. 0. 0. 0.
      0. 0. 0. 4.42477874e-03 8.84955749e-03 0. 0. 4.42477874e-03 0. 0.
      0. 0. 0. 4.42477874e-03 0. 0. 0. 0. 0. 0. 0. 4.42477874e-03 0.
      4.42477874e-03 0. 0. 0. 0. 4.42477874e-03 0. 0. 0. 0. 0. 0.
      4.42477874e-03 0. 0. 0. 4.42477874e-03 0. 0. 0. 0. 0. 0. 0.
      4.42477874e-03 4.42477874e-03 0. 0. 0. 0. 0. 0. 0. 0.
      4.42477874e-03 0. 0. 0. 4.42477874e-03 0. 0. 8.84955749e-03 0. 0.
      0. 0. 0. 0. 0. 0. 4.42477874e-03 0. 0. 0. 0. 0. 0. 0. 0. 0. 0. 0.
      2.65486725e-02 0. 0. 4.42477874e-03 0. 0. 0. 0. 0. 0. 0. 0. 0.
      8.84955749e-03 0. 0. 4.42477874e-03 4.42477874e-03 0. 0.
      4.42477874e-03 0. 0. 0. 0. 0. 0. 0. 0. 0. 0. 0. 0. 0.
      4.42477874e-03 4.42477874e-03 0. 4.42477874e-03 0. 0. 0. 0. 0. 0.
      4.42477874e-03 0. 0. 4.42477874e-03 0. 0. 0. 0. 0. 4.42477874e-03
      0. 4.42477874e-03 0. 0. 0. 0. 0. 0. 0. 0. 0. 0. 0. 0. 0. 0. 0. 0.
      0. 0. 0. 0. 0. 0. 0. 8.84955749e-03 4.42477874e-03 0. 0. 0. 0. 0.
      0. 0. 0. 4.42477874e-03 0. 0. 0. 0. 4.42477874e-03 4.42477874e-03
      0. 4.42477874e-03 0. 0. 0. 8.84955749e-03 0. 4.42477874e-03
      4.42477874e-03 0. 0. 0. 0. 0. 4.42477874e-03 4.42477874e-03 0. 0.
      0. 0. 0. 0. 0. 0. 0. 0. 0. 0. 0. 0. 0. 0. 0. 0. 1.32743362e-02 0.
      0. 0. 0. 4.42477874e-03 0. 4.42477874e-03 0. 0. 4.42477874e-03 0.
      0. 0. 4.42477874e-03 0. 0. 0. 8.84955749e-03 4.42477874e-03 0. 0.
      0. 0. 4.42477874e-03 0. 0. 0. 0. 4.42477874e-03 0. 4.42477874e-03
      0. 0. 4.42477874e-03 0. 0. 4.42477874e-03 0. 0. 0. 0. 0. 0. 0.
      4.42477874e-03 4.42477874e-03 0. 4.42477874e-03 0. 0. 0. 0.
      4.42477874e-03 4.42477874e-03 0. 0. 0. 0. 0. 0. 0. 0. 0. 0.
      4.42477874e-03 0. 0. 0. 0. 0. 0. 0. 4.42477874e-03 0. 0. 0. 0. 0.
      0. 0. 0. 0. 0. 0. 0. 0. 0. 0. 0. 0. 0. 0. 0. 0. 0. 0.
      4.42477874e-03 4.42477874e-03 0. 4.42477874e-03 8.84955749e-03 0.
      0. 0. 0. 0. 0. 0. 0. 0. 0. 0. 4.42477874e-03 0. 0. 0. 0. 0.
      8.84955749e-03 0. 0. 4.42477874e-03 0. 0. 0. 0. 0. 0. 0. 0.
      4.42477874e-03 0. 0. 0. 0. 0. 0. 0. 4.42477874e-03 0. 0. 0. 0. 0.
      0. 0. 0. 4.42477874e-03 0. 0. 0. 0. 4.42477874e-03 0. 0. 0.
      4.42477874e-03 0. 0. 4.42477874e-03 0. 0. 0. 4.42477874e-03 0. 0.
      0. 4.42477874e-03 0. 0. 0. 0. 4.42477874e-03 8.84955749e-03
      4.42477874e-03 0. 0. 0. 4.42477874e-03 0. 4.42477874e-03 0. 0. 0.
      0. 0. 0. 0. 0. 0. 0. 0. 0. 0. 0. 4.42477874e-03 0. 0.
      4.42477874e-03 4.42477874e-03 0. 0. 0. 0. 0. 0. 0. 0. 0. 0. 0. 0.
      0. 4.42477874e-03 8.84955749e-03 4.42477874e-03 0. 0. 0.
      4.42477874e-03 0. 0. 0. 0. 0. 0. 0. 0. 4.42477874e-03 0. 0. 0.
      8.84955749e-03 0. 0. 0. 8.84955749e-03 0. 0. 0. 0. 0.
      4.42477874e-03 0. 0. 0. 0. 4.42477874e-03 0. 0. 0. 0. 0. 0. 0.</_>
    <_>
      0. 7.28155347e-03 0. 0. 4.85436898e-03 0. 0. 2.42718449e-03 0.
      2.42718449e-03 0. 0. 2.42718449e-03 0. 0. 0. 9.70873795e-03 0. 0.
      4.85436898e-03 0. 0. 0. 1.69902910e-02 0. 2.42718449e-03
      2.42718449e-03 0. 9.70873795e-03 0. 0. 0. 0. 0. 0. 0.
      2.42718449e-03 0. 0. 2.42718449e-03 0. 2.42718449e-03
      2.42718449e-03 0. 0. 0. 0. 0. 0. 0. 0. 0. 2.42718449e-03 0. 0.
      2.42718449e-03 0. 0. 0. 0. 0. 0. 0. 2.42718449e-03 0. 0. 0. 0. 0.
      0. 0. 0. 0. 2.42718449e-03 0. 2.42718449e-03 0. 0. 0. 0. 0. 0. 0.
      0. 0. 0. 2.42718449e-03 0. 2.42718449e-03 0. 0. 0. 0. 0. 0. 0.
      4.85436898e-03 2.42718449e-03 0. 0. 0. 7.28155347e-03 0. 0.
      2.42718449e-03 0. 2.42718449e-03 2.42718449e-03 2.42718449e-03 0.
      2.42718449e-03 0. 0. 0. 2.42718449e-03 0. 0. 0. 2.42718449e-03
      4.85436898e-03 0. 2.42718449e-03 0. 0. 0. 0. 0. 0. 0. 0. 0. 0. 0.
      0. 4.85436898e-03 2.18446609e-02 2.42718449e-03 0. 0. 0. 0.
      4.85436898e-03 0. 2.42718449e-03 0. 0. 0. 0. 2.42718449e-03 0. 0.
      0. 7.28155347e-03 2.18446609e-02 4.85436898e-03 0. 2.42718449e-03
      0. 0. 0. 0. 2.42718449e-03 0. 1.94174759e-02 7.28155347e-03 0. 0.
      0. 0. 0. 0. 0. 0. 0. 0. 0. 0. 0. 0. 0. 0. 0. 0. 0. 0. 0. 0.
      7.28155347e-03 0. 0. 2.42718449e-03 0. 0. 0. 0. 3.15533988e-02 0.
      0. 2.42718449e-03 0. 0. 0. 0. 0. 0. 0. 0. 0. 0. 0. 0. 0. 0.
      2.42718449e-03 0. 2.42718449e-03 0. 0. 4.85436898e-03 0. 0.
      2.42718449e-03 0. 0. 0. 0. 0. 0. 0. 0. 0. 0. 0. 0. 0. 0. 0. 0. 0.
      0. 4.85436898e-03 0. 0. 0. 0. 2.42718449e-03 7.28155347e-03 0. 0.
      0. 0. 0. 0. 0. 2.42718449e-03 2.42718449e-03 0. 0. 0.
      2.42718449e-03 0. 0. 0. 0. 0. 0. 0. 0. 0. 2.42718449e-03 0. 0. 0.
      0. 7.28155347e-03 0. 0. 0. 0. 0. 0. 2.42718449e-03 0. 0. 0. 0.
      2.42718449e-03 2.42718449e-03 0. 0. 0. 0. 2.42718449e-03 0. 0.
      9.70873795e-03 0. 2.42718449e-03 2.42718449e-03 0. 0.
      2.42718449e-03 0. 0. 7.28155347e-03 0. 4.85436898e-03 0.
      2.42718449e-03 0. 0. 0. 0. 0. 2.42718449e-03 0. 2.42718449e-03 0.
      0. 0. 0. 0. 0. 0. 0. 0. 0. 0. 2.42718449e-03 0. 0. 2.42718449e-03
      2.18446609e-02 0. 0. 2.42718449e-03 0. 0. 4.85436898e-03 0.
      4.85436898e-03 0. 0. 0. 0. 0. 0. 2.42718449e-03 0. 0. 0. 0.
      2.42718449e-03 2.42718449e-03 0. 0. 0. 0. 0. 0. 0. 0. 0. 0.
      7.28155347e-03 2.42718449e-03 0. 0. 0. 0. 0. 0. 0. 0. 0. 0. 0.
      2.42718449e-03 0. 0. 0. 0. 0. 0. 0. 0. 2.42718449e-03 0. 0.
      4.85436898e-03 4.85436898e-03 0. 0. 0. 0. 0. 2.42718449e-03
      2.42718449e-03 2.42718449e-03 0. 0. 0. 0. 0. 2.42718449e-03 0. 0.
      0. 0. 0. 0. 0. 0. 0. 0. 2.42718449e-03 2.42718449e-03 0. 0.
      2.42718449e-03 0. 0. 0. 2.42718449e-03 0. 2.42718449e-03
      2.42718449e-03 0. 0. 2.42718449e-03 0. 0. 0. 0. 0. 0.
      2.42718449e-03 0. 0. 7.28155347e-03 0. 0. 0. 2.42718449e-03 0. 0.
      2.42718449e-03 2.42718449e-03 0. 0. 2.42718449e-03 0. 0. 0.
      2.42718449e-03 2.42718449e-03 0. 0. 0. 4.85436898e-03 0. 0. 0. 0.
      9.70873795e-03 0. 0. 2.42718449e-03 0. 0. 4.85436898e-03 0. 0. 0.
      0. 0. 0. 0. 0. 0. 0. 0. 0. 0. 4.85436898e-03 0. 0. 0. 0. 0. 0.
      2.42718449e-03 0. 0. 4.85436898e-03 0. 0. 0. 2.42718449e-03 0.
      2.42718449e-03 0. 0. 0. 0. 0. 0. 0. 0. 0. 0. 0. 2.42718449e-03 0.
      0. 0. 0. 2.42718449e-03 0. 0. 2.42718449e-03 0. 0. 0.
      2.42718449e-03 0. 0. 0. 0. 0. 2.42718449e-03 0. 0. 9.70873795e-03
      0. 0. 0. 0. 0. 0. 0. 0. 2.42718449e-03 0. 0. 2.42718449e-03 0.
      2.42718449e-03 0. 2.42718449e-03 4.85436898e-03 2.42718449e-03
      2.42718449e-03 0. 2.42718449e-03 2.42718449e-03 0. 0. 0. 0. 0. 0.
      0. 0. 4.85436898e-03 0. 0. 0. 2.42718449e-03 0. 0. 9.70873795e-03
      0. 0. 0. 0. 0. 0. 0. 0. 0. 0. 0. 4.85436898e-03 4.85436898e-03 0.
      9.70873795e-03 2.42718449e-03 2.42718449e-03 0. 4.85436898e-03 0.
      2.42718449e-03 2.42718449e-03 0. 0. 0. 0. 2.42718449e-03 0. 0. 0.
      2.42718449e-03 0. 7.28155347e-03 0. 0. 0. 0. 2.42718449e-03 0.
      4.85436898e-03 0. 2.42718449e-03 0. 0. 2.42718449e-03
      2.42718449e-03 0. 0. 0. 0. 2.42718449e-03 0. 2.42718449e-03 0.
      4.85436898e-03 2.42718449e-03 0. 2.42718449e-03 0. 0. 0. 0. 0. 0.
      0. 0. 0. 4.85436898e-03 2.42718449e-03 4.85436898e-03
      2.42718449e-03 2.42718449e-03 0. 0. 0. 0. 0. 0. 0. 2.42718449e-03
      0. 0. 0. 0. 0. 0. 2.42718449e-03 0. 0. 0. 0. 0. 0. 0. 0.
      2.42718449e-03 0. 0. 2.42718449e-03 0. 2.42718449e-03 0. 0. 0.
      4.85436898e-03 2.42718449e-03 2.42718449e-03 0. 2.42718449e-03 0.
      0. 2.42718449e-03 0. 0. 0. 0. 0. 0. 0. 2.42718449e-03 0. 0.
      2.42718449e-03 2.42718449e-03 0. 0. 0. 0. 0. 2.42718449e-03
      7.28155347e-03 7.28155347e-03 0. 0. 4.85436898e-03 0. 0. 0.
      2.42718449e-03 0. 0. 2.42718449e-03 4.85436898e-03 2.42718449e-03
      0. 0. 2.42718449e-03 0. 2.42718449e-03 0. 0. 2.42718449e-03 0. 0.
      0. 0. 0. 0. 0. 0. 7.28155347e-03 0. 2.42718449e-03 0. 0. 0. 0.
      2.42718449e-03 0. 0. 0. 2.42718449e-03 2.42718449e-03 0. 0.
      2.42718449e-03 0. 0. 0. 0. 0. 0. 0. 0. 0. 0. 0. 0. 0. 0. 0. 0. 0.
      0. 0. 2.42718449e-03 0. 2.42718449e-03 0. 4.85436898e-03 0. 0. 0.
      0. 4.85436898e-03 0. 0. 0. 2.42718449e-03 0. 0. 0. 2.42718449e-03
      2.42718449e-03 0. 0. 0. 7.28155347e-03 0. 0. 4.85436898e-03 0. 0.
      0. 0. 7.28155347e-03 2.42718449e-03 0. 0. 0. 0. 0. 0. 0.
      2.42718449e-03 0. 0. 0. 0. 7.28155347e-03 0. 2.42718449e-03 0. 0.
      0. 0. 2.42718449e-03 0. 0. 0. 0. 0. 0. 0. 0. 0. 0. 0.
      4.85436898e-03 2.42718449e-03 4.85436898e-03 0. 2.42718449e-03 0.
      0. 2.42718449e-03 0. 0. 2.42718449e-03 0. 0. 0. 0. 0. 0. 0. 0.
      4.85436898e-03 0. 2.42718449e-03 2.42718449e-03 0. 0.
      2.42718449e-03 0. 2.42718449e-03 0. 0. 0. 0. 0. 0. 0. 0. 0.
      7.28155347e-03 0. 0. 7.28155347e-03 0. 0. 2.42718449e-03 0. 0. 0.
      2.42718449e-03 0. 0. 0. 0. 0. 1.21359229e-02 0. 0. 0.
      2.42718449e-03 7.28155347e-03 0. 2.42718449e-03 0. 0. 0. 0. 0. 0.
      0. 0. 0. 0. 0. 2.42718449e-03 0. 4.85436898e-03 0. 2.42718449e-03
      4.85436898e-03 0. 0. 2.42718449e-03 4.85436898e-03 0. 0. 0. 0. 0.
      0. 2.42718449e-03 0. 0. 2.42718449e-03 0. 2.42718449e-03
      2.42718449e-03 0. 0. 0. 0. 0. 2.42718449e-03 0. 0. 2.42718449e-03
      4.85436898e-03 0. 0. 0. 2.42718449e-03 2.42718449e-03
      2.42718449e-03 0. 2.42718449e-03 0. 0. 0. 2.42718449e-03 0.
      2.42718449e-03 0. 0. 0. 0. 0. 0. 0. 2.42718449e-03 0. 0. 0.
      2.42718449e-03 0. 0. 0. 2.42718449e-03 0. 2.42718449e-03 0. 0. 0.
      0. 2.42718449e-03 0. 2.42718449e-03 4.85436898e-03 0. 0. 0. 0. 0.
      0. 0. 0. 2.42718449e-03 0. 0. 0. 0. 2.42718449e-03 0. 0. 0. 0. 0.
      0. 0. 0. 0. 0. 4.85436898e-03</_>
    <_>
      0. 0. 0. 0. 2.16919743e-03 0. 0. 0. 0. 0. 6.50759228e-03 0. 0. 0.
      0. 0. 0. 0. 0. 0. 2.16919743e-03 0. 0. 0. 2.16919743e-03 0.
      4.33839485e-03 0. 2.16919743e-03 0. 0. 0. 2.16919743e-03 0. 0.
      2.16919743e-03 0. 0. 4.33839485e-03 0. 0. 0. 4.33839485e-03 0. 0.
      0. 2.16919743e-03 0. 0. 0. 2.16919743e-03 2.16919743e-03
      2.16919743e-03 0. 0. 0. 0. 0. 0. 2.16919743e-03 0. 0.
      2.16919743e-03 0. 0. 0. 0. 0. 0. 0. 0. 2.16919743e-03 0. 0. 0. 0.
      0. 0. 0. 0. 0. 2.16919743e-03 2.16919743e-03 0. 4.33839485e-03 0.
      2.16919743e-03 0. 0. 6.50759228e-03 0. 0. 0. 0. 0. 0.
      2.16919743e-03 2.16919743e-03 0. 4.33839485e-03 0. 0. 0.
      2.16919743e-03 0. 0. 0. 0. 4.33839485e-03 0. 0. 0. 0.
      2.16919743e-03 0. 0. 4.33839485e-03 0. 0. 2.16919743e-03 0. 0. 0.
      0. 0. 0. 2.16919743e-03 0. 0. 2.16919743e-03 0. 0. 0. 0. 0. 0. 0.
      0. 2.16919743e-03 0. 0. 0. 0. 0. 4.33839485e-03 0. 4.33839485e-03
      0. 2.16919743e-03 4.33839485e-03 2.16919743e-03 2.16919743e-03
      2.16919743e-03 0. 0. 2.16919743e-03 1.51843820e-02 0. 0. 0. 0. 0.
      0. 2.16919743e-03 2.16919743e-03 2.16919743e-03 0. 0. 0. 0. 0. 0.
      0. 0. 0. 0. 0. 0. 8.67678970e-03 0. 0. 2.16919743e-03 0.
      2.16919743e-03 0. 0. 0. 0. 0. 0. 0. 0. 2.16919743e-03 0. 0.
      8.67678970e-03 2.16919743e-03 0. 4.33839485e-03 0. 0. 0. 0. 0. 0.
      0. 0. 0. 0. 0. 2.16919743e-03 0. 0. 2.16919743e-03 2.16919743e-03
      0. 2.16919743e-03 0. 4.33839485e-03 2.16919743e-03 0.
      2.16919743e-03 0. 0. 0. 0. 2.16919743e-03 0. 0. 2.16919743e-03
      2.16919743e-03 0. 0. 0. 2.16919743e-03 4.33839485e-03 0.
      2.16919743e-03 0. 0. 0. 0. 2.16919743e-03 2.16919743e-03 0. 0. 0.
      0. 2.16919743e-03 0. 0. 0. 0. 0. 0. 2.16919743e-03 0. 0.
      2.16919743e-03 1.30151846e-02 0. 0. 0. 0. 4.33839485e-03
      2.16919743e-03 0. 2.16919743e-03 0. 0. 2.16919743e-03
      2.16919743e-03 0. 0. 0. 2.16919743e-03 0. 0. 2.16919743e-03 0.
      2.16919743e-03 2.16919743e-03 0. 0. 0. 2.16919743e-03 0. 0. 0. 0.
      2.16919743e-03 0. 0. 0. 0. 0. 0. 2.16919743e-03 0. 0.
      2.16919743e-03 2.16919743e-03 0. 2.16919743e-03 0. 0. 0. 0. 0. 0.
      0. 2.16919743e-03 0. 0. 4.33839485e-03 0. 0. 0. 2.16919743e-03
      2.16919743e-03 0. 0. 0. 6.50759228e-03 0. 0. 0. 0. 0.
      2.16919743e-03 2.16919743e-03 0. 1.30151846e-02 0. 0.
      4.33839485e-03 0. 0. 2.16919743e-03 0. 2.16919743e-03
      4.33839485e-03 0. 0. 0. 0. 0. 0. 0. 0. 0. 0. 0. 2.16919743e-03 0.
      0. 0. 0. 0. 0. 0. 4.33839485e-03 0. 0. 0. 0. 0. 0. 0. 0. 0. 0.
      4.33839485e-03 2.16919743e-03 0. 2.16919743e-03 0. 0. 0. 0. 0.
      2.16919743e-03 0. 2.16919743e-03 0. 0. 0. 2.16919743e-03 0. 0. 0.
      2.16919743e-03 2.16919743e-03 0. 0. 0. 0. 2.16919743e-03 0. 0. 0.
      0. 0. 0. 0. 6.50759228e-03 0. 0. 0. 4.33839485e-03 0.
      2.16919743e-03 2.16919743e-03 2.16919743e-03 0. 4.33839485e-03 0.
      0. 0. 2.16919743e-03 0. 2.16919743e-03 0. 2.16919743e-03
      4.33839485e-03 0. 0. 0. 0. 4.33839485e-03 2.16919743e-03
      4.33839485e-03 4.33839485e-03 0. 0. 0. 2.16919743e-03
      2.16919743e-03 0. 2.16919743e-03 0. 0. 6.50759228e-03
      4.33839485e-03 0. 0. 0. 0. 0. 0. 0. 0. 0. 2.16919743e-03
      2.16919743e-03 0. 0. 2.16919743e-03 0. 0. 0. 2.16919743e-03 0.
      2.16919743e-03 2.16919743e-03 0. 6.50759228e-03 0. 4.33839485e-03
      0. 8.67678970e-03 2.16919743e-03 0. 2.16919743e-03 0. 0. 0. 0. 0.
      0. 2.16919743e-03 0. 0. 8.67678970e-03 0. 0. 0. 0. 0. 0. 0. 0.
      2.16919743e-03 0. 0. 0. 2.16919743e-03 0. 2.16919743e-03 0.
      2.16919743e-03 4.33839485e-03 0. 0. 0. 0. 0. 0. 4.33839485e-03 0.
      4.33839485e-03 0. 0. 2.16919743e-03 0. 2.16919743e-03 0. 0. 0. 0.
      0. 2.16919743e-03 0. 0. 0. 0. 4.33839485e-03 0. 4.33839485e-03 0.
      2.16919743e-03 0. 0. 4.33839485e-03 0. 8.67678970e-03 0. 0.
      2.16919743e-03 0. 0. 0. 0. 0. 0. 0. 0. 0. 2.16919743e-03 0.
      2.16919743e-03 0. 0. 2.16919743e-03 0. 2.16919743e-03
      2.16919743e-03 2.16919743e-03 0. 0. 0. 0. 0. 2.16919743e-03 0. 0.
      2.16919743e-03 4.33839485e-03 0. 0. 2.16919743e-03 2.16919743e-03
      0. 0. 2.16919743e-03 0. 2.16919743e-03 8.67678970e-03 0. 0. 0. 0.
      0. 0. 2.16919743e-03 0. 2.16919743e-03 2.16919743e-03
      2.16919743e-03 0. 2.16919743e-03 0. 0. 0. 0. 0. 0. 0. 0. 0. 0.
      2.16919743e-03 0. 0. 0. 0. 4.33839485e-03 0. 0. 1.08459871e-02 0.
      2.16919743e-03 0. 2.16919743e-03 4.33839485e-03 0. 0. 0. 0.
      2.16919743e-03 2.16919743e-03 0. 4.33839485e-03 2.16919743e-03
      2.16919743e-03 0. 2.16919743e-03 2.16919743e-03 0. 0. 0. 0. 0.
      2.16919743e-03 4.33839485e-03 0. 2.16919743e-03 0. 2.16919743e-03
      0. 0. 0. 2.16919743e-03 0. 2.16919743e-03 0. 2.16919743e-03 0.
      4.33839485e-03 2.16919743e-03 0. 4.33839485e-03 0. 0.
      4.33839485e-03 0. 0. 0. 0. 2.16919743e-03 0. 0. 0. 0. 0. 0.
      4.33839485e-03 0. 0. 0. 0. 0. 0. 0. 0. 2.16919743e-03 0. 0.
      2.16919743e-03 0. 0. 0. 0. 0. 6.50759228e-03 2.16919743e-03 0. 0.
      0. 2.16919743e-03 4.33839485e-03 0. 2.16919743e-03 2.16919743e-03
      4.33839485e-03 2.16919743e-03 0. 0. 0. 0. 0. 0. 0. 0. 0. 0.
      6.50759228e-03 0. 0. 0. 0. 0. 0. 0. 0. 0. 0. 0. 2.16919743e-03 0.
      0. 2.16919743e-03 0. 0. 0. 2.16919743e-03 0. 0. 0. 2.16919743e-03
      4.33839485e-03 0. 0. 2.16919743e-03 2.16919743e-03 0. 0.
      4.33839485e-03 0. 2.16919743e-03 0. 0. 2.16919743e-03
      2.16919743e-03 4.33839485e-03 0. 2.16919743e-03 2.16919743e-03 0.
      0. 0. 0. 0. 0. 2.16919743e-03 0. 2.16919743e-03 2.16919743e-03 0.
      4.33839485e-03 2.16919743e-03 0. 0. 2.16919743e-03 2.16919743e-03
      0. 0. 0. 0. 0. 0. 2.16919743e-03 2.16919743e-03 2.16919743e-03 0.
      0. 0. 0. 0. 0. 2.16919743e-03 0. 0. 0. 0. 2.16919743e-03 0. 0. 0.
      0. 0. 0. 2.16919743e-03 0. 2.16919743e-03 0. 0. 2.16919743e-03
      2.16919743e-03 0. 4.33839485e-03 1.73535794e-02 0. 2.16919743e-03
      2.16919743e-03 0. 0. 0. 0. 2.16919743e-03 0. 0. 2.16919743e-03
      2.16919743e-03 0. 2.16919743e-03 6.50759228e-03 0. 0. 0. 0.
      2.16919743e-03 2.16919743e-03 0. 0. 6.50759228e-03 0.
      2.16919743e-03 2.16919743e-03 6.50759228e-03 0. 0. 0. 0. 0. 0. 0.
      2.16919743e-03 0. 2.16919743e-03 0. 0. 0. 2.16919743e-03
      6.50759228e-03 0. 2.16919743e-03 0. 2.16919743e-03 0. 0. 0.
      2.16919743e-03 2.16919743e-03 0. 0. 2.16919743e-03 6.50759228e-03
      0. 4.33839485e-03 0. 0. 1.30151846e-02 6.50759228e-03
      2.16919743e-03 0. 2.16919743e-03 0. 0. 0. 0. 2.16919743e-03 0. 0.
      0. 0. 2.16919743e-03 2.16919743e-03 2.16919743e-03 0. 0. 0. 0.
      2.16919743e-03 0. 2.16919743e-03 2.16919743e-03 2.16919743e-03 0.
      0. 0. 4.33839485e-03 2.16919743e-03 0. 0. 0. 2.16919743e-03
      4.33839485e-03 0. 2.16919743e-03 0. 2.16919743e-03 0.
      2.16919743e-03 0. 0. 0. 0. 0. 0. 0. 2.16919743e-03 0.
      2.16919743e-03 0. 0. 0. 4.33839485e-03 0. 2.16919743e-03 0. 0.
      4.33839485e-03 0. 0. 0. 0. 0. 0. 4.33839485e-03 0. 2.16919743e-03
      2.16919743e-03 0. 0. 0. 0. 0. 0. 0. 0. 0. 2.16919743e-03 0.
      4.33839485e-03 4.33839485e-03 0. 0. 2.16919743e-03 0.
      2.16919743e-03 0. 2.16919743e-03 0. 0. 0. 0. 4.33839485e-03 0. 0.
      0. 0. 0. 6.50759228e-03 0. 0. 0. 0. 0. 0. 0. 2.16919743e-03 0. 0.
      0. 2.16919743e-03 0. 2.16919743e-03 0. 2.16919743e-03
      2.16919743e-03 2.16919743e-03 6.50759228e-03 4.33839485e-03 0.
      2.16919743e-03 0. 0. 0. 4.33839485e-03 0. 2.16919743e-03 0.
      4.33839485e-03 0. 0. 0. 2.16919743e-03 2.16919743e-03 0.</_>
    <_>
      0. 0. 0. 0. 3.01204808e-03 0. 0. 0. 0. 0. 3.01204808e-03
      3.01204808e-03 0. 0. 0. 0. 3.01204808e-03 0. 0. 0. 0. 0.
      3.01204808e-03 0. 3.01204808e-03 3.01204808e-03 3.01204808e-03 0.
      0. 0. 0. 0. 0. 0. 3.01204808e-03 0. 0. 0. 3.01204808e-03 0.
      3.01204808e-03 0. 3.01204808e-03 0. 0. 0. 3.01204808e-03 0. 0. 0.
      3.01204808e-03 0. 0. 0. 0. 0. 0. 0. 0. 0. 0. 0. 6.02409616e-03 0.
      0. 0. 3.01204808e-03 0. 0. 0. 0. 0. 0. 0. 0. 3.01204808e-03 0. 0.
      3.01204808e-03 0. 0. 0. 0. 0. 3.01204808e-03 0. 3.01204808e-03 0.
      0. 0. 3.01204808e-03 0. 0. 0. 3.01204808e-03 0. 3.01204808e-03 0.
      0. 0. 0. 0. 0. 0. 0. 0. 0. 0. 0. 3.01204808e-03 0. 0. 0.
      9.03614424e-03 0. 0. 0. 3.01204808e-03 0. 9.03614424e-03 0.
      3.01204808e-03 3.01204808e-03 0. 0. 3.01204808e-03 3.01204808e-03
      0. 0. 3.01204808e-03 0. 0. 0. 0. 0. 0. 3.01204808e-03 0.
      6.02409616e-03 3.01204808e-03 0. 0. 0. 0. 0. 3.01204808e-03
      3.01204808e-03 0. 3.01204808e-03 9.03614424e-03 0. 0. 0. 0. 0. 0.
      1.50602404e-02 0. 0. 0. 0. 0. 0. 1.20481923e-02 3.01204808e-03 0.
      0. 3.01204808e-03 0. 0. 0. 0. 0. 0. 0. 0. 0. 0. 3.01204808e-03 0.
      0. 0. 3.01204808e-03 3.01204808e-03 0. 0. 3.01204808e-03 0. 0. 0.
      0. 0. 0. 0. 0. 9.03614424e-03 0. 0. 0. 0. 0. 0. 0. 0. 0.
      9.03614424e-03 3.01204808e-03 0. 0. 0. 3.01204808e-03 0. 0.
      3.01204808e-03 0. 0. 0. 0. 3.01204808e-03 0. 0. 6.02409616e-03 0.
      6.02409616e-03 3.01204808e-03 0. 0. 0. 0. 0. 3.01204808e-03 0. 0.
      0. 3.01204808e-03 9.03614424e-03 0. 0. 0. 0. 0. 0. 0.
      1.20481923e-02 0. 0. 3.01204808e-03 0. 3.01204808e-03 0.
      3.01204808e-03 0. 0. 0. 6.02409616e-03 3.01204808e-03 0. 0. 0.
      1.20481923e-02 0. 3.01204808e-03 0. 0. 0. 0. 0. 0. 0. 0. 0.
      3.01204808e-03 0. 0. 0. 0. 0. 0. 0. 0. 0. 0. 0. 0. 3.01204808e-03
      0. 3.01204808e-03 0. 0. 0. 0. 0. 0. 0. 3.01204808e-03 0. 0. 0. 0.
      0. 0. 0. 0. 3.01204808e-03 6.02409616e-03 0. 0. 0. 0. 0. 0. 0. 0.
      0. 0. 0. 0. 3.01204808e-03 3.01204808e-03 0. 0. 0. 0. 0. 0. 0. 0.
      0. 0. 0. 3.01204808e-03 0. 9.03614424e-03 0. 0. 0. 0. 0. 0. 0.
      3.01204808e-03 0. 0. 0. 0. 0. 0. 0. 0. 0. 0. 0. 0. 0. 0.
      3.01204808e-03 0. 0. 3.01204808e-03 0. 3.01204808e-03 0. 0.
      3.01204808e-03 0. 0. 0. 0. 0. 0. 0. 0. 0. 0. 0. 0. 0. 0. 0. 0. 0.
      0. 0. 0. 0. 0. 3.01204808e-03 0. 3.01204808e-03 3.01204808e-03 0.
      3.01204808e-03 0. 3.01204808e-03 0. 0. 0. 0. 0. 0. 0. 0. 0. 0. 0.
      6.02409616e-03 0. 0. 0. 0. 0. 0. 3.01204808e-03 3.01204808e-03
      3.01204808e-03 0. 0. 0. 0. 0. 0. 0. 0. 0. 0. 0. 3.01204808e-03 0.
      0. 0. 0. 6.02409616e-03 1.20481923e-02 0. 0. 0. 0. 0.
      3.01204808e-03 0. 0. 0. 0. 0. 0. 0. 0. 0. 0. 0. 0. 0. 0. 0.
      6.02409616e-03 0. 0. 0. 0. 0. 6.02409616e-03 0. 0. 0. 0. 0.
      3.01204808e-03 0. 3.01204808e-03 3.01204808e-03 0. 0. 0.
      3.01204808e-03 0. 0. 0. 0. 1.20481923e-02 3.01204808e-03 0. 0. 0.
      0. 0. 0. 0. 3.01204808e-03 0. 0. 0. 0. 3.01204808e-03 0. 0. 0. 0.
      0. 0. 0. 0. 0. 0. 0. 0. 0. 0. 0. 9.03614424e-03 0. 3.01204808e-03
      3.01204808e-03 0. 3.01204808e-03 0. 6.02409616e-03 0. 0. 0.
      3.01204808e-03 0. 3.01204808e-03 0. 0. 0. 0. 3.01204808e-03 0. 0.
      0. 0. 0. 0. 3.01204808e-03 3.01204808e-03 6.02409616e-03 0. 0. 0.
      0. 0. 0. 0. 0. 0. 3.01204808e-03 0. 0. 0. 0. 3.01204808e-03 0.
      3.01204808e-03 0. 0. 0. 0. 0. 0. 0. 0. 0. 0. 0. 0. 3.01204808e-03
      3.01204808e-03 3.01204808e-03 3.01204808e-03 0. 0. 0. 0. 0.
      3.01204808e-03 0. 0. 3.01204808e-03 0. 0. 0. 3.01204808e-03 0.
      3.01204808e-03 0. 0. 6.02409616e-03 0. 0. 0. 0. 0. 0. 0. 0. 0. 0.
      0. 0. 0. 0. 6.02409616e-03 0. 0. 3.01204808e-03 0. 6.02409616e-03
      0. 0. 1.80722885e-02 0. 0. 0. 0. 0. 0. 0. 0. 0. 0. 0.
      3.01204808e-03 0. 0. 3.01204808e-03 3.01204808e-03 3.01204808e-03
      3.01204808e-03 0. 0. 0. 0. 0. 0. 3.01204808e-03 3.01204808e-03 0.
      0. 0. 3.01204808e-03 0. 0. 0. 0. 0. 0. 0. 0. 6.02409616e-03 0. 0.
      0. 0. 0. 0. 0. 3.01204808e-03 0. 0. 0. 0. 3.01204808e-03 0. 0. 0.
      0. 0. 0. 0. 6.02409616e-03 0. 0. 6.02409616e-03 0. 6.02409616e-03
      0. 0. 0. 3.01204808e-03 0. 0. 0. 0. 0. 0. 0. 0. 0. 1.50602404e-02
      0. 0. 0. 3.01204808e-03 3.01204808e-03 3.01204808e-03 0. 0. 0. 0.
      0. 3.01204808e-03 3.01204808e-03 3.01204808e-03 0. 0. 0.
      6.02409616e-03 0. 0. 0. 0. 3.01204808e-03 3.01204808e-03 0.
      3.01204808e-03 0. 0. 0. 9.03614424e-03 0. 0. 0. 0. 3.01204808e-03
      3.01204808e-03 0. 0. 0. 6.02409616e-03 0. 1.50602404e-02 0. 0. 0.
      0. 0. 0. 3.01204808e-03 0. 6.02409616e-03 0. 3.01204808e-03
      6.02409616e-03 3.01204808e-03 6.02409616e-03 0. 0. 3.01204808e-03
      3.01204808e-03 0. 0. 0. 0. 0. 0. 0. 0. 3.01204808e-03 0.
      9.03614424e-03 3.01204808e-03 0. 0. 0. 0. 0. 0. 0. 0. 0. 0.
      3.01204808e-03 0. 0. 0. 3.01204808e-03 3.01204808e-03 0. 0. 0. 0.
      0. 0. 0. 0. 3.01204808e-03 0. 0. 3.01204808e-03 0. 0. 0. 0.
      3.01204808e-03 0. 0. 0. 0. 0. 0. 6.02409616e-03 1.50602404e-02 0.
      0. 0. 0. 0. 0. 0. 0. 0. 3.01204808e-03 3.01204808e-03 0. 0. 0.
      6.02409616e-03 0. 0. 0. 0. 3.01204808e-03 3.01204808e-03 0. 0. 0.
      0. 0. 3.01204808e-03 0. 0. 3.01204808e-03 0. 0. 0. 0. 0. 0. 0.
      3.01204808e-03 3.01204808e-03 0. 3.01204808e-03 0. 0.
      1.20481923e-02 3.01204808e-03 3.01204808e-03 3.01204808e-03 0. 0.
      0. 0. 0. 0. 0. 0. 3.01204808e-03 3.01204808e-03 0. 0. 0.
      3.01204808e-03 9.03614424e-03 0. 3.01204808e-03 3.01204808e-03
      3.01204808e-03 0. 0. 0. 0. 0. 0. 0. 0. 0. 0. 0. 0. 0. 0. 0.
      3.01204808e-03 0. 0. 0. 6.02409616e-03 0. 0. 0. 6.02409616e-03 0.
      0. 0. 0. 0. 0. 0. 0. 0. 3.01204808e-03 0. 0. 0. 6.02409616e-03 0.
      0. 0. 0. 3.01204808e-03 6.02409616e-03 0. 9.03614424e-03 0. 0. 0.
      0. 0. 0. 0. 3.01204808e-03 3.01204808e-03 3.01204808e-03 0. 0. 0.
      0. 3.01204808e-03 1.20481923e-02 0. 3.01204808e-03 0. 0. 0. 0. 0.
      0. 0. 0. 3.01204808e-03 3.01204808e-03 0. 0. 3.01204808e-03
      6.02409616e-03 0. 0. 0. 0. 0. 3.01204808e-03 0. 0. 0. 0. 0. 0. 0.
      0. 0. 0. 0. 0. 0. 0. 0. 0. 0. 0. 3.01204808e-03 0. 0. 0.
      3.01204808e-03 3.01204808e-03 6.02409616e-03 0. 0. 0.
      6.02409616e-03 0. 6.02409616e-03 0. 0. 0. 0. 0. 0. 0.
      3.01204808e-03 0. 0. 3.01204808e-03 0. 0. 3.01204808e-03
      3.01204808e-03 0. 0.</_>
    <_>
      0. 0. 0. 0. 0. 0. 0. 0. 0. 0. 0. 6.28930796e-03 0. 0. 0. 0. 0. 0.
      0. 0. 6.28930796e-03 0. 0. 0. 0. 0. 0. 0. 0. 0. 0. 0.
      6.28930796e-03 0. 0. 0. 0. 0. 0. 0. 0. 0. 0. 0. 0. 0.
      6.28930796e-03 6.28930796e-03 0. 0. 0. 0. 0. 0. 0. 0. 0. 0. 0. 0.
      0. 6.28930796e-03 0. 6.28930796e-03 6.28930796e-03 0. 0. 0. 0. 0.
      0. 6.28930796e-03 0. 0. 0. 6.28930796e-03 0. 0. 0. 6.28930796e-03
      0. 0. 0. 0. 0. 0. 0. 0. 0. 0. 0. 0. 0. 0. 6.28930796e-03 0. 0. 0.
      6.28930796e-03 0. 6.28930796e-03 0. 0. 0. 0. 0. 6.28930796e-03 0.
      0. 0. 0. 0. 0. 0. 0. 0. 0. 0. 0. 1.25786159e-02 0. 0.
      4.40251566e-02 0. 0. 0. 0. 0. 0. 0. 0. 0. 0. 0. 0. 0. 0. 0. 0. 0.
      6.28930796e-03 0. 0. 0. 0. 0. 2.51572318e-02 0. 0. 0. 0. 0. 0. 0.
      0. 0. 0. 0. 0. 0. 0. 0. 0. 0. 6.28930796e-03 0. 0. 0. 0. 0. 0. 0.
      0. 0. 0. 0. 0. 0. 0. 0. 0. 0. 0. 0. 0. 0. 0. 0. 0. 0. 0. 0. 0. 0.
      0. 0. 0. 0. 0. 0. 0. 0. 0. 0. 0. 6.28930796e-03 0. 0. 0. 0. 0. 0.
      0. 0. 0. 0. 0. 0. 6.28930796e-03 0. 0. 0. 0. 0. 0. 0. 0. 0. 0. 0.
      6.28930796e-03 0. 0. 6.28930796e-03 0. 0. 0. 0. 0. 1.88679248e-02
      0. 0. 1.88679248e-02 0. 0. 0. 1.25786159e-02 0. 0. 0. 0.
      4.40251566e-02 0. 6.28930796e-03 0. 0. 0. 0. 0. 6.28930796e-03 0.
      6.28930796e-03 0. 0. 0. 6.28930796e-03 0. 0. 0. 0. 0. 0. 0. 0. 0.
      6.28930796e-03 0. 0. 0. 0. 0. 0. 0. 1.88679248e-02 0.
      6.28930796e-03 0. 0. 0. 0. 6.28930796e-03 6.28930796e-03 0. 0. 0.
      0. 0. 0. 0. 0. 0. 6.28930796e-03 0. 0. 0. 0. 0. 0. 0. 0. 0. 0. 0.
      0. 0. 0. 0. 0. 0. 0. 0. 0. 0. 0. 0. 0. 0. 0. 0. 0. 0. 0. 0.
      6.28930796e-03 0. 0. 0. 0. 0. 0. 6.28930796e-03 0. 0. 0. 0. 0. 0.
      0. 0. 0. 0. 0. 0. 0. 0. 0. 0. 0. 0. 0. 0. 1.25786159e-02 0.
      6.28930796e-03 0. 0. 0. 0. 0. 0. 0. 0. 0. 0. 0. 0. 0. 0. 0.
      6.28930796e-03 0. 0. 0. 0. 0. 0. 6.28930796e-03 0. 0. 0. 0. 0. 0.
      0. 0. 0. 0. 0. 0. 0. 0. 0. 0. 0. 0. 0. 6.28930796e-03 0. 0. 0. 0.
      0. 0. 0. 6.28930796e-03 0. 0. 0. 0. 0. 0. 0. 1.25786159e-02 0. 0.
      0. 0. 0. 0. 6.28930796e-03 0. 0. 0. 0. 0. 0. 0. 6.28930796e-03 0.
      0. 0. 0. 0. 0. 0. 0. 0. 0. 0. 0. 0. 0. 0. 0. 0. 0. 0. 0.
      6.28930796e-03 0. 0. 6.28930796e-03 0. 0. 0. 0. 6.28930796e-03 0.
      0. 0. 0. 0. 6.28930796e-03 0. 0. 0. 0. 0. 0. 0. 0. 0. 0. 0. 0. 0.
      0. 0. 0. 0. 0. 0. 6.28930796e-03 0. 0. 6.28930796e-03 0. 0. 0. 0.
      0. 0. 0. 6.28930796e-03 0. 0. 0. 0. 0. 0. 0. 0. 0. 0. 0.
      6.28930796e-03 0. 0. 0. 0. 6.28930796e-03 0. 1.25786159e-02 0. 0.
      0. 0. 0. 0. 0. 1.25786159e-02 0. 0. 0. 0. 0. 6.28930796e-03 0. 0.
      0. 6.28930796e-03 1.25786159e-02 0. 0. 0. 0. 0. 1.25786159e-02 0.
      0. 0. 0. 0. 6.28930796e-03 0. 0. 0. 0. 0. 0. 0. 0. 6.28930796e-03
      1.25786159e-02 0. 6.28930796e-03 0. 0. 0. 0. 6.28930796e-03 0. 0.
      0. 0. 0. 0. 0. 0. 0. 0. 6.28930796e-03 0. 0. 0. 0. 0. 0. 0. 0.
      6.28930796e-03 0. 0. 0. 0. 6.28930796e-03 0. 0. 0. 0. 0.
      2.51572318e-02 0. 0. 0. 0. 0. 0. 0. 0. 0. 0. 0. 0. 1.25786159e-02
      0. 6.28930796e-03 0. 0. 0. 0. 0. 0. 0. 0. 0. 0. 0. 0. 0. 0.
      6.28930796e-03 0. 0. 0. 0. 0. 0. 0. 0. 0. 0. 0. 0. 0. 0.
      6.28930796e-03 0. 6.28930796e-03 0. 0. 0. 6.28930796e-03 0. 0. 0.
      0. 0. 0. 0. 0. 0. 0. 0. 0. 6.28930796e-03 0. 0. 0. 0. 0. 0.
      6.28930796e-03 0. 6.28930796e-03 0. 0. 0. 6.28930796e-03 0. 0. 0.
      0. 0. 0. 0. 0. 0. 0. 6.28930796e-03 0. 0. 0. 0. 6.28930796e-03 0.
      0. 0. 0. 6.28930796e-03 6.28930796e-03 0. 6.28930796e-03 0. 0. 0.
      0. 0. 0. 0. 0. 0. 0. 6.28930796e-03 0. 0. 0. 0. 0. 0. 0. 0. 0. 0.
      0. 6.28930796e-03 0. 0. 0. 0. 6.28930796e-03 0. 0. 0. 0. 0. 0. 0.
      0. 0. 0. 0. 0. 0. 0. 0. 0. 1.25786159e-02 1.25786159e-02 0. 0.
      6.28930796e-03 0. 0. 0. 0. 0. 0. 0. 0. 0. 6.28930796e-03 0.
      6.28930796e-03 0. 0. 0. 0. 0. 6.28930796e-03 0. 0. 0. 0. 0.
      6.28930796e-03 0. 0. 0. 0. 0. 0. 0. 0. 0. 0. 0. 0. 0. 0.
      6.28930796e-03 0. 0. 0. 0. 0. 0. 0. 0. 0. 0. 0. 0. 0. 0. 0. 0. 0.
      0. 0. 0. 0. 0. 0. 0. 0. 6.28930796e-03 6.28930796e-03 0. 0. 0. 0.
      0. 0. 0. 0. 0. 0. 0. 0. 0. 0. 0. 0. 0. 0. 0. 0. 0. 0. 0.
      6.28930796e-03 0. 1.25786159e-02 0. 0. 6.28930796e-03 0. 0. 0. 0.
      0. 0. 0. 0. 0. 0. 0. 0. 0. 6.28930796e-03 0. 6.28930796e-03 0. 0.
      0. 0. 0. 6.28930796e-03 1.25786159e-02 0. 0. 6.28930796e-03 0. 0.
      0. 0. 0. 0. 0. 0. 0. 0. 0. 0. 0. 6.28930796e-03 0. 0. 0. 0. 0. 0.
      6.28930796e-03 0. 0. 0. 0. 6.28930796e-03 0. 0. 0. 0. 0. 0. 0. 0.
      0. 0. 0. 0. 0. 0. 0. 0. 0. 0. 0. 0. 0. 0. 0. 0. 0. 0. 0. 0. 0. 0.
      6.28930796e-03 0. 0. 0. 0. 6.28930796e-03 0. 0. 6.28930796e-03 0.
      0. 0. 0. 0. 0. 0. 0. 0. 0. 6.28930796e-03 0. 0. 0. 0. 0. 0. 0. 0.
      0. 0. 0. 0. 0. 0. 1.25786159e-02 0. 0. 0. 0. 0. 0. 0. 0. 0. 0. 0.
      0. 0. 0. 0. 0. 0. 0. 6.28930796e-03 0. 0. 0. 0. 6.28930796e-03 0.
      0. 0. 6.28930796e-03 0. 0. 0. 0. 0. 0. 0. 0.</_>
    <_>
      0. 3.66300368e-03 0. 0. 0. 0. 0. 0. 0. 0. 7.32600736e-03 0. 0.
      3.66300368e-03 1.46520147e-02 0. 3.66300368e-03 0. 0. 0. 0. 0. 0.
      0. 3.66300368e-03 0. 0. 0. 3.66300368e-03 0. 0. 0. 0.
      3.66300368e-03 0. 0. 0. 7.32600736e-03 0. 0. 0. 0. 0. 0. 0. 0.
      3.66300368e-03 0. 0. 0. 0. 0. 0. 0. 0. 0. 0. 0. 0. 0. 0. 0. 0. 0.
      0. 3.66300368e-03 0. 0. 1.09890113e-02 0. 0. 7.32600736e-03 0. 0.
      0. 3.66300368e-03 0. 0. 0. 0. 0. 0. 0. 0. 0. 0. 0. 0.
      1.09890113e-02 7.32600736e-03 0. 3.66300368e-03 0. 0.
      3.66300368e-03 0. 0. 0. 3.66300368e-03 0. 0. 0. 0. 7.32600736e-03
      0. 0. 0. 0. 0. 0. 0. 3.66300368e-03 0. 3.66300368e-03
      3.66300368e-03 0. 0. 0. 0. 0. 3.66300368e-03 0. 1.83150191e-02 0.
      0. 0. 0. 3.66300368e-03 0. 0. 0. 0. 0. 0. 0. 7.32600736e-03 0. 0.
      0. 0. 0. 0. 0. 0. 0. 0. 0. 3.66300368e-03 7.32600736e-03
      7.32600736e-03 0. 0. 3.66300368e-03 3.66300368e-03 0. 0.
      1.46520147e-02 0. 0. 0. 0. 0. 0. 0. 3.66300368e-03 3.66300368e-03
      0. 0. 0. 3.66300368e-03 0. 0. 0. 0. 0. 0. 0. 0. 3.66300368e-03
      3.66300368e-03 3.66300368e-03 0. 0. 0. 0. 0. 0. 0. 0. 0. 0. 0. 0.
      0. 0. 3.66300368e-03 3.66300368e-03 0. 3.66300368e-03 0. 0. 0. 0.
      0. 0. 0. 0. 0. 0. 0. 3.66300368e-03 0. 0. 0. 0. 0. 0. 0.
      3.66300368e-03 0. 0. 0. 0. 0. 0. 3.66300368e-03 0. 0. 0. 0. 0. 0.
      0. 7.32600736e-03 3.66300368e-03 0. 0. 0. 0. 0. 3.66300368e-03 0.
      0. 0. 0. 0. 5.86080588e-02 0. 3.66300368e-03 0. 0. 3.66300368e-03
      0. 3.66300368e-03 0. 3.66300368e-03 0. 0. 0. 1.46520147e-02 0. 0.
      0. 0. 0. 3.66300368e-03 0. 0. 0. 3.66300368e-03 0. 0. 0. 0. 0. 0.
      0. 0. 0. 0. 3.66300368e-03 0. 0. 0. 0. 0. 0. 0. 0. 0. 0. 0. 0.
      7.32600736e-03 0. 7.32600736e-03 0. 3.66300368e-03 0. 0. 0. 0.
      7.32600736e-03 0. 7.32600736e-03 0. 0. 0. 0. 0. 0. 3.66300368e-03
      0. 0. 0. 0. 0. 0. 3.66300368e-03 0. 0. 0. 0. 0. 0. 0. 0. 0. 0. 0.
      0. 0. 7.32600736e-03 0. 7.32600736e-03 0. 0. 0. 0. 0.
      1.09890113e-02 0. 0. 0. 0. 0. 0. 0. 0. 0. 0. 0. 0. 0. 0. 0. 0. 0.
      0. 0. 0. 0. 0. 0. 0. 0. 0. 0. 0. 0. 3.66300368e-03 0. 0. 0. 0. 0.
      3.66300368e-03 0. 0. 0. 0. 0. 0. 0. 0. 7.32600736e-03 0. 0.
      7.32600736e-03 0. 0. 3.66300368e-03 3.66300368e-03 0. 0. 0. 0. 0.
      0. 0. 0. 0. 0. 0. 0. 0. 0. 3.66300368e-03 3.66300368e-03 0. 0. 0.
      3.66300368e-03 0. 0. 0. 3.66300368e-03 0. 0. 0. 0. 3.66300368e-03
      0. 0. 0. 0. 3.66300368e-03 0. 0. 3.66300368e-03 0. 7.32600736e-03
      0. 0. 0. 0. 3.66300368e-03 0. 0. 1.46520147e-02 0. 0. 0. 0. 0. 0.
      0. 0. 0. 0. 0. 0. 0. 3.66300368e-03 0. 0. 0. 0. 0. 0. 0. 0. 0. 0.
      0. 3.66300368e-03 0. 3.66300368e-03 0. 0. 0. 0. 0. 0. 0. 0. 0. 0.
      0. 0. 0. 0. 3.66300368e-03 0. 3.66300368e-03 1.46520147e-02 0. 0.
      7.32600736e-03 0. 0. 0. 0. 0. 0. 0. 0. 0. 3.66300368e-03 0. 0. 0.
      3.66300368e-03 0. 0. 0. 0. 0. 1.09890113e-02 0. 0. 0.
      3.66300368e-03 0. 0. 0. 3.66300368e-03 0. 0. 0. 3.66300368e-03 0.
      0. 0. 0. 0. 0. 0. 0. 0. 0. 0. 0. 0. 3.66300368e-03 3.66300368e-03
      0. 0. 0. 0. 0. 3.66300368e-03 0. 0. 0. 0. 0. 7.32600736e-03 0. 0.
      3.66300368e-03 0. 0. 0. 0. 0. 0. 0. 0. 3.66300368e-03 0. 0. 0. 0.
      0. 0. 0. 3.66300368e-03 0. 0. 0. 3.66300368e-03 0. 0. 0. 0. 0.
      1.46520147e-02 0. 0. 7.32600736e-03 0. 0. 1.46520147e-02 0. 0. 0.
      0. 1.09890113e-02 0. 3.66300368e-03 0. 0. 0. 0. 0. 0. 0.
      3.66300368e-03 0. 0. 3.66300368e-03 0. 0. 0. 0. 3.66300368e-03 0.
      0. 7.32600736e-03 0. 0. 0. 0. 1.46520147e-02 0. 0. 3.66300368e-03
      0. 0. 0. 0. 7.32600736e-03 0. 0. 0. 7.32600736e-03 0. 0. 0. 0.
      3.66300368e-03 0. 0. 0. 0. 0. 0. 0. 0. 0. 0. 0. 0. 0. 0. 0. 0. 0.
      0. 0. 0. 0. 0. 0. 0. 0. 0. 0. 3.66300368e-03 0. 0. 0. 0. 0. 0. 0.
      0. 3.66300368e-03 0. 0. 0. 7.32600736e-03 0. 3.66300368e-03 0. 0.
      0. 0. 0. 0. 0. 0. 0. 0. 0. 0. 0. 1.09890113e-02 0. 0. 0. 0.
      3.66300368e-03 0. 0. 0. 0. 0. 0. 0. 0. 0. 0. 0. 0. 0. 0. 0.
      3.66300368e-03 0. 7.32600736e-03 0. 0. 0. 0. 0. 0. 0. 0. 0. 0. 0.
      0. 0. 3.66300368e-03 0. 0. 0. 0. 7.32600736e-03 0. 0. 0.
      3.66300368e-03 0. 3.66300368e-03 0. 3.66300368e-03 0. 0. 0. 0. 0.
      1.83150191e-02 0. 0. 1.46520147e-02 0. 0. 0. 0. 3.66300368e-03 0.
      0. 0. 0. 0. 0. 3.66300368e-03 0. 0. 0. 0. 0. 0. 0. 0. 0. 0. 0. 0.
      0. 0. 0. 0. 0. 0. 0. 0. 0. 3.66300368e-03 1.09890113e-02 0. 0. 0.
      0. 0. 0. 0. 3.66300368e-03 0. 0. 0. 0. 3.66300368e-03 0. 0.
      3.66300368e-03 0. 0. 7.32600736e-03 0. 0. 3.66300368e-03 0. 0. 0.
      0. 0. 0. 7.32600736e-03 0. 0. 0. 0. 0. 0. 0. 0. 0. 0. 0. 0. 0. 0.
      0. 3.66300368e-03 0. 0. 0. 0. 0. 0. 3.66300368e-03 0. 0. 0. 0. 0.
      0. 0. 0. 0. 7.32600736e-03 0. 0. 0. 0. 0. 0. 3.66300368e-03 0. 0.
      3.66300368e-03 0. 3.66300368e-03 0. 0. 0. 0. 0. 3.66300368e-03
      3.66300368e-03 0. 3.66300368e-03 0. 0. 0. 0. 0. 0. 0. 0. 0. 0. 0.
      3.66300368e-03 0. 0. 0. 0. 0. 3.66300368e-03 0. 0. 0. 0.
      3.66300368e-03 0. 0. 3.66300368e-03 0. 0. 0. 0. 0. 0. 0. 0. 0. 0.
      0. 0. 0. 3.66300368e-03 0. 0. 0. 0. 3.66300368e-03 0.
      3.66300368e-03 0. 0. 0. 3.66300368e-03 0. 3.66300368e-03 0. 0. 0.
      0. 0. 0. 0. 0. 3.66300368e-03 0. 0. 0. 0. 0. 0. 3.66300368e-03 0.
      0. 0. 0. 0. 0. 3.66300368e-03 0. 7.32600736e-03 0. 0. 0. 0. 0.
      3.66300368e-03 3.66300368e-03 0. 0. 0. 0. 0. 0. 0. 0. 0. 0. 0. 0.
      3.66300368e-03 0. 0. 0. 0. 0. 0. 0. 7.32600736e-03 0.
      3.66300368e-03 0. 0. 0. 3.66300368e-03 0. 3.66300368e-03 0. 0.
      3.66300368e-03 0. 0. 0. 0. 0. 3.66300368e-03 0. 3.66300368e-03 0.
      0. 7.32600736e-03 0. 0. 0. 0. 0. 0.</_>
    <_>
      0. 2.51256279e-03 0. 1.25628139e-03 0. 6.28140708e-03 0.
      2.51256279e-03 0. 2.51256279e-03 6.28140708e-03 0. 0. 0. 0. 0.
      5.02512557e-03 0. 0. 2.51256279e-03 0. 2.51256279e-03 0.
      2.51256279e-03 1.25628139e-03 0. 1.25628139e-03 0. 2.51256279e-03
      1.25628139e-03 0. 1.25628139e-03 0. 0. 0. 0. 0. 1.63316578e-02
      3.76884406e-03 2.51256279e-03 0. 0. 0. 0. 0. 0. 0. 2.51256279e-03
      1.25628139e-03 0. 0. 0. 0. 0. 0. 0. 0. 0. 0. 1.25628139e-03
      1.25628139e-03 7.53768813e-03 0. 1.25628139e-03 0. 0. 0. 0.
      2.51256283e-02 1.25628139e-03 0. 0. 0. 1.25628139e-03 0. 0. 0. 0.
      0. 0. 0. 1.25628139e-03 0. 1.25628139e-03 1.25628142e-02 0. 0. 0.
      1.25628139e-03 3.76884406e-03 0. 0. 0. 0. 0. 0. 5.02512557e-03 0.
      0. 0. 3.76884406e-03 2.51256279e-03 0. 3.76884406e-03 0.
      1.25628139e-03 0. 2.51256279e-03 7.53768813e-03 0. 0.
      1.25628139e-03 0. 0. 0. 0. 0. 0. 0. 3.76884406e-03 0. 0. 0.
      1.25628139e-03 0. 0. 0. 2.51256279e-03 0. 0. 0. 0. 3.76884406e-03
      0. 0. 6.28140708e-03 1.25628139e-03 0. 0. 3.76884406e-03 0. 0. 0.
      0. 0. 5.02512557e-03 0. 6.28140708e-03 0. 1.25628139e-03 0. 0. 0.
      1.25628139e-03 2.51256279e-03 1.38190957e-02 5.02512557e-03 0. 0.
      0. 0. 0. 0. 0. 1.25628139e-03 6.28140708e-03 0. 0. 0. 0. 0. 0. 0.
      0. 0. 0. 1.25628139e-03 1.25628139e-03 0. 0. 0. 0. 0. 0. 0. 0. 0.
      2.51256279e-03 0. 0. 5.02512557e-03 0. 0. 2.51256279e-03 0.
      1.13065327e-02 0. 6.28140708e-03 0. 0. 0. 0. 1.25628139e-03
      1.25628139e-03 0. 0. 0. 0. 0. 1.25628139e-03 3.76884406e-03 0.
      2.51256279e-03 0. 1.25628139e-03 0. 8.79396964e-03 0.
      2.51256279e-03 0. 0. 6.28140708e-03 1.25628139e-03 2.51256279e-03
      0. 1.25628139e-03 0. 0. 1.25628139e-03 1.25628139e-03 0. 0. 0. 0.
      1.25628139e-03 3.76884406e-03 0. 1.25628139e-03 0. 0.
      3.76884406e-03 0. 3.76884406e-03 0. 0. 3.76884406e-03
      2.51256279e-03 0. 0. 0. 0. 0. 0. 0. 0. 0. 0. 0. 0. 1.25628139e-03
      0. 1.25628139e-03 0. 1.25628139e-03 0. 0. 0. 1.25628139e-03 0.
      1.25628139e-03 0. 0. 0. 0. 0. 0. 0. 0. 0. 0. 0. 0. 0. 0. 0. 0. 0.
      1.50753763e-02 0. 1.25628139e-03 0. 0. 0. 3.76884406e-03 0.
      2.51256279e-03 0. 3.76884406e-03 0. 0. 0. 1.25628139e-03 0.
      1.25628139e-03 6.28140708e-03 0. 1.25628139e-03 1.25628139e-03 0.
      0. 0. 1.25628139e-03 0. 0. 1.25628139e-03 0. 0. 0. 0. 0. 0.
      1.25628139e-03 1.25628139e-03 8.79396964e-03 0. 2.51256279e-03 0.
      1.25628139e-03 0. 0. 1.25628139e-03 0. 3.76884406e-03 0. 0. 0.
      1.25628139e-03 0. 0. 0. 0. 0. 0. 0. 1.25628139e-03 0. 0. 0. 0.
      1.25628139e-03 2.51256279e-03 0. 0. 0. 1.25628139e-03 0. 0. 0. 0.
      0. 0. 0. 0. 0. 2.51256279e-03 1.25628139e-03 0. 0. 0. 0. 0. 0. 0.
      0. 0. 0. 0. 0. 0. 0. 0. 0. 2.51256279e-03 1.25628139e-03
      5.02512557e-03 5.02512557e-03 1.25628139e-03 0. 0. 2.51256279e-03
      1.25628139e-03 1.25628139e-03 2.51256279e-03 0. 0. 0. 0. 0. 0. 0.
      2.51256279e-03 0. 0. 0. 0. 0. 0. 0. 0. 0. 0. 0. 0. 3.76884406e-03
      0. 0. 1.25628139e-03 5.02512557e-03 0. 0. 0. 5.02512557e-03 0. 0.
      0. 1.25628139e-03 0. 0. 0. 0. 0. 0. 5.02512557e-03 0. 0. 0.
      8.79396964e-03 0. 0. 1.13065327e-02 0. 0. 0. 0. 0. 0.
      7.53768813e-03 1.25628139e-03 0. 0. 5.02512557e-03 0.
      1.25628139e-03 0. 1.25628139e-03 1.25628139e-03 0. 0. 0. 0. 0. 0.
      0. 1.25628139e-03 0. 0. 0. 0. 0. 0. 0. 3.76884406e-03 0. 0. 0.
      3.76884406e-03 0. 2.51256279e-03 3.76884406e-03 0. 0. 0. 0. 0. 0.
      0. 0. 0. 0. 0. 0. 0. 0. 0. 1.25628139e-03 0. 0. 0. 1.25628139e-03
      0. 0. 2.51256279e-03 0. 0. 0. 5.02512557e-03 1.25628139e-03 0.
      5.02512557e-03 0. 0. 0. 0. 0. 2.51256279e-03 0. 0. 0. 0. 0. 0. 0.
      0. 0. 0. 0. 3.76884406e-03 0. 1.25628139e-03 0. 0. 1.25628139e-03
      0. 7.53768813e-03 7.53768813e-03 1.25628139e-03 0. 0. 0. 0. 0. 0.
      0. 2.51256279e-03 0. 1.25628139e-03 0. 1.25628139e-03 0. 0. 0. 0.
      0. 1.25628139e-03 0. 1.25628139e-03 0. 0. 0. 1.25628139e-03 0. 0.
      0. 1.25628139e-03 2.51256279e-03 0. 3.76884406e-03 2.51256279e-03
      1.25628139e-03 2.51256279e-03 0. 0. 2.51256279e-03 0. 0. 0.
      2.51256279e-03 1.25628139e-03 0. 0. 0. 0. 0. 5.02512557e-03
      2.51256279e-03 0. 6.28140708e-03 2.51256279e-03 0. 0.
      5.02512557e-03 0. 2.51256279e-03 0. 0. 0. 0. 0. 0. 1.25628139e-03
      0. 0. 2.51256279e-03 0. 2.51256279e-03 0. 0. 1.25628139e-03 0.
      8.79396964e-03 0. 3.76884406e-03 1.25628139e-03 0. 1.25628139e-03
      1.00502511e-02 0. 2.51256279e-03 0. 0. 0. 0. 0. 2.51256279e-03
      1.25628139e-03 1.25628139e-03 0. 1.25628139e-03 1.25628139e-03
      1.25628139e-03 0. 0. 0. 5.02512557e-03 1.25628139e-03 0.
      2.51256279e-03 0. 1.25628139e-03 0. 0. 0. 0. 0. 1.25628139e-03 0.
      0. 0. 3.76884406e-03 0. 0. 3.76884406e-03 0. 0. 2.51256279e-03 0.
      0. 0. 2.51256279e-03 0. 0. 5.02512557e-03 0. 1.25628139e-03 0.
      1.25628139e-03 0. 0. 0. 2.51256279e-03 0. 0. 2.51256279e-03 0. 0.
      0. 0. 0. 0. 2.51256279e-03 0. 0. 0. 0. 2.51256279e-03
      2.51256279e-03 0. 1.25628139e-03 0. 0. 0. 0. 0. 2.51256279e-03
      2.51256279e-03 0. 0. 1.25628139e-03 0. 0. 0. 1.25628139e-03 0.
      2.51256279e-03 0. 0. 0. 1.25628139e-03 0. 0. 0. 3.76884406e-03
      1.25628139e-03 2.51256279e-03 0. 1.25628139e-03 0. 0. 0.
      1.25628139e-03 0. 0. 0. 0. 0. 1.25628139e-03 0. 0. 0. 0. 0. 0.
      1.25628139e-03 0. 0. 0. 0. 0. 0. 0. 0. 0. 0. 0. 8.79396964e-03 0.
      0. 2.51256279e-03 0. 0. 0. 0. 2.51256279e-03 0. 0. 1.25628139e-03
      0. 0. 0. 0. 0. 0. 0. 0. 8.79396964e-03 0. 0. 1.25628139e-03 0. 0.
      0. 2.51256279e-03 0. 0. 2.51256279e-03 0. 0. 0. 0. 0.
      2.51256279e-03 0. 0. 5.02512557e-03 0. 0. 2.51256279e-03 0. 0. 0.
      0. 0. 0. 0. 0. 0. 1.25628139e-03 1.00502511e-02 1.25628139e-03
      1.25628139e-03 0. 8.79396964e-03 0. 0. 1.25628139e-03
      1.25628139e-03 3.76884406e-03 0. 0. 0. 0. 1.25628142e-02 0. 0. 0.
      0. 0. 0. 1.25628139e-03 0. 1.25628139e-03 0. 0. 5.02512557e-03
      1.25628139e-03 1.25628139e-03 0. 0. 1.25628139e-03 0. 0.
      1.25628139e-03 0. 0. 2.51256279e-03 0. 0. 1.25628139e-03 0. 0.
      8.79396964e-03 0. 0. 0. 1.25628139e-03 0. 0. 0. 0. 0. 0. 0.
      2.51256279e-03 0. 0. 0. 0. 0. 0. 1.13065327e-02 0. 1.25628139e-03
      5.02512557e-03 0. 0. 1.25628139e-03 5.02512557e-03 0. 0. 0. 0. 0.
      0. 0. 0. 0. 0. 3.76884406e-03 0. 0. 0. 0. 1.25628139e-03 0.
      3.76884406e-03 0. 0. 0. 6.28140708e-03 1.25628139e-03 0.
      2.51256279e-03 0. 0. 0. 2.51256279e-03 0. 1.25628139e-03 0. 0. 0.
      5.02512557e-03 1.00502511e-02 1.50753763e-02 6.28140708e-03 0. 0.
      5.02512557e-03 3.76884406e-03 1.25628139e-03 1.25628139e-03 0.
      1.25628139e-03 0. 0. 0. 0. 1.25628139e-03 2.51256279e-03 0. 0.
      1.25628139e-03 1.25628139e-03 1.00502511e-02 0. 0. 5.02512557e-03
      0. 0. 0. 1.25628139e-03 1.25628139e-03 1.25628139e-03
      1.25628139e-03 0. 2.51256279e-03 0. 2.51256279e-03 0.
      1.25628139e-03 3.76884406e-03 0. 0. 0. 0. 0. 0. 1.25628139e-03 0.
      0. 0. 0. 0. 0. 0. 3.76884406e-03 1.25628139e-03 0. 0.
      7.53768813e-03 0. 1.25628139e-03 0. 1.25628139e-03 0. 0.
      3.76884406e-03 1.25628139e-03 1.25628139e-03 0. 1.25628139e-03
      1.25628139e-03 0. 0. 2.51256279e-03 2.51256279e-03 0. 0. 0.
      1.25628139e-03 0. 3.76884406e-03 0. 1.25628139e-03 0. 0.
      3.76884406e-03 0. 0. 0. 1.88442208e-02 0. 2.51256279e-03 0.
      1.25628139e-03 0. 0. 1.25628139e-03 2.51256279e-03 0.</_>
    <_>
      0. 3.19999992e-03 0. 0. 1.59999996e-03 6.39999984e-03 0.
      1.59999996e-03 0. 6.39999984e-03 3.19999992e-03 0. 0. 0.
      3.19999992e-03 1.59999996e-03 4.79999976e-03 0. 1.59999996e-03
      1.59999996e-03 3.19999992e-03 0. 0. 3.19999992e-03 0. 0.
      3.19999992e-03 0. 4.79999976e-03 0. 0. 0. 0. 0. 0. 4.79999976e-03
      0. 7.99999945e-03 3.19999992e-03 0. 1.59999996e-03 0. 0. 0.
      1.59999996e-03 1.59999996e-03 0. 0. 1.59999996e-03 1.59999996e-03
      0. 1.59999996e-03 0. 0. 1.59999996e-03 1.59999996e-03
      3.19999992e-03 3.19999992e-03 0. 0. 4.79999976e-03 0.
      1.59999996e-03 0. 0. 1.59999996e-03 0. 0. 1.75999999e-02 0. 0.
      6.39999984e-03 0. 1.59999996e-03 0. 0. 0. 0. 1.59999996e-03
      1.59999996e-03 0. 1.59999996e-03 1.59999996e-03 0. 1.59999996e-03
      0. 0. 1.59999996e-03 6.39999984e-03 0. 0. 0. 0. 0. 0. 0.
      1.59999996e-03 1.59999996e-03 0. 0. 1.59999996e-03 1.59999996e-03
      0. 3.19999992e-03 3.19999992e-03 1.59999996e-03 0. 0.
      3.19999992e-03 1.59999996e-03 0. 1.59999996e-03 3.19999992e-03 0.
      3.19999992e-03 0. 0. 0. 0. 0. 0. 1.59999996e-03 0. 0. 0. 0. 0.
      1.59999996e-03 0. 0. 0. 0. 1.59999996e-03 1.59999996e-03
      4.79999976e-03 1.59999996e-03 0. 0. 4.79999976e-03 0. 0. 0.
      1.59999996e-03 0. 0. 1.59999996e-03 0. 9.59999952e-03
      1.59999996e-03 7.99999945e-03 0. 0. 4.79999976e-03 1.59999996e-03
      0. 3.19999992e-03 1.59999996e-03 0. 0. 0. 0. 3.19999992e-03
      1.59999996e-03 0. 4.79999976e-03 1.59999996e-03 0. 0. 0.
      9.59999952e-03 0. 0. 0. 0. 0. 0. 0. 0. 3.19999992e-03 0. 0. 0.
      1.59999996e-03 1.59999996e-03 0. 0. 1.59999996e-03 3.19999992e-03
      0. 0. 0. 0. 0. 1.59999996e-03 0. 6.39999984e-03 1.59999996e-03 0.
      0. 0. 0. 0. 0. 0. 0. 3.19999992e-03 0. 1.59999996e-03 0.
      1.59999996e-03 4.79999976e-03 0. 0. 0. 1.59999996e-03 0.
      1.59999996e-03 0. 0. 0. 0. 1.59999996e-03 0. 4.79999976e-03 0. 0.
      0. 0. 1.59999996e-03 4.79999976e-03 3.19999992e-03 1.59999996e-03
      0. 0. 0. 0. 0. 3.19999992e-03 0. 0. 3.19999992e-03 0. 0. 0. 0. 0.
      4.79999976e-03 0. 1.59999996e-03 0. 0. 0. 0. 0. 0. 0. 0. 0. 0.
      6.39999984e-03 0. 3.19999992e-03 0. 0. 4.79999976e-03 0. 0. 0. 0.
      0. 1.59999996e-03 0. 0. 0. 0. 0. 1.59999996e-03 0. 0.
      1.59999996e-03 0. 0. 0. 9.59999952e-03 1.59999996e-03 0.
      1.59999996e-03 0. 0. 0. 0. 0. 0. 6.39999984e-03 0. 6.39999984e-03
      0. 1.59999996e-03 0. 1.59999996e-03 0. 1.59999996e-03 0. 0.
      1.59999996e-03 0. 3.19999992e-03 1.11999996e-02 0. 0. 0. 0. 0. 0.
      0. 0. 0. 0. 0. 0. 0. 1.59999996e-03 0. 4.79999976e-03 0.
      1.59999996e-03 3.19999992e-03 0. 1.59999996e-03 0. 0.
      1.59999996e-03 1.59999996e-03 0. 0. 1.59999996e-03 1.59999996e-03
      0. 0. 0. 4.79999976e-03 1.59999996e-03 1.59999996e-03 0. 0. 0. 0.
      0. 0. 0. 0. 0. 0. 0. 3.19999992e-03 0. 0. 0. 0. 0. 0. 0.
      1.59999996e-03 1.59999996e-03 0. 0. 1.59999996e-03 0. 0. 0. 0. 0.
      0. 0. 0. 0. 0. 0. 0. 0. 0. 1.59999996e-03 1.59999996e-03
      1.59999996e-03 1.59999996e-03 4.79999976e-03 0. 3.19999992e-03
      1.59999996e-03 0. 0. 0. 4.79999976e-03 0. 0. 0. 0. 0. 0.
      1.59999996e-03 0. 1.59999996e-03 0. 1.59999996e-03 0.
      1.59999996e-03 0. 0. 0. 0. 0. 0. 0. 1.59999996e-03 0. 0. 0. 0. 0.
      0. 0. 0. 0. 1.59999996e-03 0. 1.59999996e-03 1.59999996e-03 0. 0.
      3.19999992e-03 0. 1.59999996e-03 3.19999992e-03 0. 0. 0.
      4.79999976e-03 1.59999996e-03 3.19999992e-03 1.43999998e-02 0. 0.
      0. 0. 0. 0. 0. 0. 0. 0. 0. 1.59999996e-03 0. 0. 0. 0. 0. 0.
      3.19999992e-03 0. 0. 0. 0. 0. 1.59999996e-03 0. 0. 0.
      1.59999996e-03 3.19999992e-03 0. 1.59999996e-03 0. 0. 0.
      4.79999976e-03 0. 0. 1.59999996e-03 0. 0. 3.19999992e-03 0. 0.
      1.59999996e-03 0. 1.59999996e-03 0. 1.59999996e-03 3.19999992e-03
      0. 1.59999996e-03 0. 0. 0. 0. 1.59999996e-03 0. 0. 0. 0.
      1.59999996e-03 0. 0. 0. 0. 0. 1.59999996e-03 0. 6.39999984e-03 0.
      0. 4.79999976e-03 1.59999996e-03 0. 1.59999996e-03 0. 0. 0.
      1.59999996e-03 1.59999996e-03 0. 0. 0. 0. 0. 0. 0. 0. 0. 0. 0. 0.
      3.19999992e-03 3.19999992e-03 1.59999996e-03 0. 0. 3.19999992e-03
      0. 0. 0. 0. 0. 0. 1.59999996e-03 0. 1.59999989e-02 0. 0. 0. 0. 0.
      0. 1.59999996e-03 0. 0. 0. 0. 1.59999996e-03 0. 0. 0. 0.
      1.59999996e-03 0. 1.59999996e-03 0. 0. 0. 1.59999996e-03
      1.59999996e-03 9.59999952e-03 0. 0. 0. 1.59999996e-03 0.
      1.59999996e-03 1.59999996e-03 0. 0. 1.59999996e-03 0.
      3.19999992e-03 0. 4.79999976e-03 0. 0. 0. 1.59999996e-03 0. 0. 0.
      3.19999992e-03 0. 0. 0. 0. 0. 0. 0. 0. 1.59999996e-03 0. 0.
      1.59999996e-03 0. 3.19999992e-03 6.39999984e-03 0. 0. 0. 0.
      9.59999952e-03 1.59999996e-03 1.59999996e-03 0. 0. 0. 0.
      1.59999996e-03 0. 0. 1.59999996e-03 0. 3.19999992e-03
      1.59999996e-03 1.59999996e-03 0. 1.59999996e-03 3.19999992e-03 0.
      3.19999992e-03 1.59999996e-03 0. 6.39999984e-03 0. 0. 0. 0. 0. 0.
      0. 0. 0. 1.59999996e-03 1.59999996e-03 1.59999996e-03 0. 0.
      1.59999996e-03 0. 0. 1.59999996e-03 0. 0. 1.59999996e-03 0. 0. 0.
      0. 0. 1.59999996e-03 3.19999992e-03 0. 3.19999992e-03 0.
      3.19999992e-03 0. 0. 0. 1.59999989e-02 0. 0. 0. 0. 1.59999996e-03
      0. 4.79999976e-03 0. 0. 0. 0. 4.79999976e-03 0. 1.59999996e-03
      4.79999976e-03 0. 0. 0. 0. 0. 4.79999976e-03 4.79999976e-03 0. 0.
      0. 0. 0. 0. 4.79999976e-03 3.19999992e-03 0. 0. 0. 3.19999992e-03
      0. 1.59999996e-03 0. 0. 0. 1.59999996e-03 3.19999992e-03 0.
      4.79999976e-03 0. 0. 0. 0. 3.19999992e-03 1.59999996e-03 0. 0. 0.
      0. 0. 0. 1.59999996e-03 1.59999996e-03 0. 0. 1.59999996e-03 0. 0.
      0. 0. 0. 0. 1.59999996e-03 1.59999996e-03 1.59999996e-03 0.
      1.59999996e-03 4.79999976e-03 0. 0. 1.59999996e-03 0. 0. 0. 0. 0.
      1.59999996e-03 1.59999996e-03 4.79999976e-03 0. 1.59999996e-03
      1.59999996e-03 0. 0. 0. 0. 0. 1.59999996e-03 0. 1.59999996e-03
      1.59999996e-03 0. 0. 1.59999996e-03 0. 0. 0. 0. 0. 0. 0. 0. 0. 0.
      1.59999996e-03 0. 0. 0. 1.59999996e-03 0. 0. 1.59999996e-03
      3.19999992e-03 0. 0. 1.59999996e-03 0. 0. 1.59999996e-03 0.
      7.99999945e-03 1.59999996e-03 0. 1.59999996e-03 1.11999996e-02 0.
      0. 3.19999992e-03 0. 1.59999996e-03 0. 3.19999992e-03 0. 0.
      9.59999952e-03 0. 0. 0. 0. 3.19999992e-03 6.39999984e-03 0. 0. 0.
      0. 0. 0. 0. 3.19999992e-03 1.59999996e-03 1.59999996e-03
      1.59999996e-03 1.59999996e-03 0. 1.59999996e-03 0. 0. 0. 0. 0. 0.
      0. 0. 1.59999996e-03 0. 1.59999996e-03 0. 3.19999992e-03 0. 0. 0.
      0. 1.59999996e-03 1.59999996e-03 0. 0. 0. 0. 0. 0. 1.59999996e-03
      0. 3.19999992e-03 0. 0. 4.79999976e-03 9.59999952e-03 0.
      3.19999992e-03 0. 0. 1.59999996e-03 0. 0. 0. 1.59999996e-03
      1.59999996e-03 0. 0. 0. 0. 1.59999996e-03 0. 0. 0. 0.
      6.39999984e-03 1.59999996e-03 0. 1.59999996e-03 1.59999996e-03 0.
      0. 1.59999996e-03 6.39999984e-03 1.59999996e-03 0. 0. 0.
      1.59999996e-03 1.59999996e-03 0. 0. 0. 0. 1.59999996e-03
      4.79999976e-03 0. 0. 1.59999996e-03 0. 1.59999996e-03
      3.19999992e-03 1.59999996e-03 6.39999984e-03 0. 1.59999996e-03
      3.19999992e-03 1.59999996e-03 1.59999996e-03 1.59999996e-03 0. 0.
      0. 0. 0. 3.19999992e-03 0. 1.59999996e-03 1.59999996e-03 0.
      1.59999996e-03 0. 3.19999992e-03 1.59999996e-03 0. 0.
      1.59999996e-03 1.59999996e-03 0. 1.59999996e-03 0. 0.
      1.59999996e-03 0. 0. 1.59999996e-03 6.39999984e-03 0.
      1.59999996e-03 0. 4.79999976e-03 0. 0. 0. 0. 1.59999996e-03 0. 0.
      1.59999996e-03 1.59999996e-03 0. 0. 0. 0. 0. 0. 0. 0. 0. 0. 0.
      4.79999976e-03 0. 0. 0. 0. 0. 0. 0. 0. 0. 4.79999976e-03
      3.19999992e-03 3.19999992e-03 1.59999996e-03 0. 1.59999996e-03 0.
      3.19999992e-03 0. 0. 0. 4.79999976e-03 0. 0. 0. 0. 3.19999992e-03
      0. 1.59999996e-03 0. 0.</_>
    <_>
      0. 0. 0. 0. 0. 0. 0. 0. 0. 4.09836043e-03 0. 0. 0. 0. 0. 0. 0. 0.
      0. 0. 0. 0. 0. 1.63934417e-02 0. 0. 0. 0. 1.63934417e-02 0. 0. 0.
      0. 0. 0. 0. 0. 4.09836043e-03 0. 0. 0. 0. 0. 0. 0. 0. 0. 0.
      4.09836043e-03 0. 0. 0. 0. 0. 0. 0. 0. 8.19672085e-03 0. 0. 0. 0.
      0. 0. 0. 0. 0. 0. 0. 4.09836043e-03 0. 0. 0. 0. 0. 0. 0. 0. 0. 0.
      0. 0. 0. 0. 0. 0. 4.09836043e-03 0. 4.09836043e-03 0. 0. 0. 0. 0.
      0. 0. 0. 4.09836043e-03 4.09836043e-03 0. 0. 4.09836043e-03 0.
      4.09836043e-03 4.09836043e-03 0. 0. 0. 0. 4.09836043e-03 0. 0. 0.
      4.09836043e-03 0. 0. 0. 0. 0. 0. 0. 0. 0. 0. 0. 0. 8.19672085e-03
      0. 0. 0. 0. 0. 4.09836043e-03 0. 2.04918012e-02 0. 0. 0.
      4.09836043e-03 0. 0. 0. 0. 0. 4.09836043e-03 0. 0. 0.
      8.19672085e-03 0. 0. 0. 0. 0. 4.09836043e-03 0. 4.09836043e-03 0.
      0. 0. 0. 0. 0. 1.63934417e-02 8.19672085e-03 0. 0. 4.09836043e-03
      4.09836043e-03 0. 0. 0. 0. 0. 0. 0. 0. 4.09836043e-03 0. 0. 0. 0.
      0. 0. 4.09836043e-03 4.09836043e-03 0. 0. 0. 0. 0. 0. 0. 0. 0.
      4.09836043e-03 0. 0. 0. 4.09836043e-03 0. 0. 0. 0. 4.09836043e-03
      0. 0. 0. 0. 0. 0. 0. 4.09836043e-03 0. 1.22950813e-02 0. 0. 0. 0.
      0. 0. 4.09836043e-03 0. 4.09836043e-03 0. 0. 4.09836043e-03 0. 0.
      0. 0. 0. 0. 0. 0. 4.09836043e-03 0. 0. 0. 4.09836043e-03 0.
      4.09836043e-03 4.09836043e-03 0. 0. 1.22950813e-02 1.22950813e-02
      0. 0. 0. 4.09836043e-03 0. 0. 4.09836043e-03 0. 0. 0. 0. 0.
      1.63934417e-02 0. 0. 0. 0. 0. 0. 4.09836043e-03 0. 4.09836043e-03
      0. 0. 0. 0. 0. 0. 0. 0. 0. 0. 0. 8.19672085e-03 0. 4.09836043e-03
      0. 0. 0. 0. 0. 0. 8.19672085e-03 0. 0. 0. 0. 0. 4.09836043e-03 0.
      0. 8.19672085e-03 0. 0. 8.19672085e-03 4.09836043e-03 0.
      2.04918012e-02 0. 0. 0. 0. 0. 0. 0. 0. 8.19672085e-03
      4.09836043e-03 8.19672085e-03 0. 0. 0. 4.09836043e-03 0. 0. 0. 0.
      0. 0. 0. 4.09836043e-03 0. 0. 0. 0. 1.22950813e-02 0. 0. 0.
      4.09836043e-03 0. 4.09836043e-03 0. 4.09836043e-03 0. 0. 0. 0. 0.
      0. 0. 0. 0. 0. 0. 0. 0. 4.09836043e-03 0. 0. 0. 0. 4.09836043e-03
      0. 0. 0. 0. 0. 0. 0. 0. 0. 0. 0. 0. 0. 4.09836043e-03 0. 0.
      4.09836043e-03 0. 0. 0. 4.09836043e-03 0. 0. 0. 0. 0.
      4.09836043e-03 0. 0. 0. 0. 0. 0. 8.19672085e-03 0. 0.
      4.09836043e-03 0. 0. 0. 0. 0. 0. 0. 0. 0. 0. 0. 0. 0. 0. 0. 0. 0.
      0. 0. 0. 0. 4.09836043e-03 4.09836043e-03 0. 0. 0. 0. 0. 0.
      4.09836043e-03 0. 0. 0. 0. 0. 4.09836043e-03 0. 0. 0.
      4.09836043e-03 0. 0. 0. 0. 4.09836043e-03 0. 0. 0. 0. 0. 0.
      4.09836043e-03 0. 0. 0. 0. 0. 0. 0. 0. 0. 0. 0. 0. 0. 0. 0. 0. 0.
      0. 0. 0. 0. 0. 4.09836043e-03 4.09836043e-03 0. 0. 0. 0. 0. 0.
      8.19672085e-03 0. 4.09836043e-03 0. 0. 0. 0. 0. 0. 0. 0. 0. 0.
      4.09836043e-03 0. 0. 0. 4.09836043e-03 0. 0. 4.09836043e-03
      4.09836043e-03 0. 0. 0. 0. 0. 4.09836043e-03 0. 0. 0. 0.
      4.09836043e-03 1.22950813e-02 0. 0. 0. 0. 0. 0. 0. 0.
      4.09836043e-03 0. 0. 0. 0. 0. 4.09836043e-03 0. 0. 0. 0.
      4.09836043e-03 4.09836043e-03 0. 0. 0. 0. 4.09836043e-03 0. 0. 0.
      0. 0. 0. 0. 0. 4.09836043e-03 0. 0. 0. 4.09836043e-03 0. 0.
      4.09836043e-03 4.09836043e-03 0. 0. 0. 0. 0. 4.09836043e-03 0. 0.
      0. 0. 0. 0. 0. 0. 0. 0. 0. 0. 0. 0. 0. 0. 0. 0. 0. 0. 0.
      8.19672085e-03 0. 0. 0. 0. 0. 0. 0. 0. 0. 0. 0. 0. 0. 0. 0. 0. 0.
      0. 0. 4.09836043e-03 0. 0. 0. 0. 0. 4.09836043e-03 0. 0. 0. 0.
      8.19672085e-03 0. 0. 0. 0. 0. 0. 0. 0. 0. 0. 0. 0. 0.
      4.09836043e-03 0. 0. 4.09836043e-03 0. 4.09836043e-03 0. 0. 0. 0.
      0. 0. 8.19672085e-03 0. 0. 0. 0. 4.09836043e-03 0. 4.09836043e-03
      4.09836043e-03 0. 0. 4.09836043e-03 0. 0. 2.04918012e-02 0. 0. 0.
      0. 0. 0. 0. 0. 0. 0. 0. 0. 0. 0. 0. 0. 0. 0. 4.09836043e-03 0. 0.
      0. 0. 0. 0. 0. 0. 0. 0. 0. 0. 0. 0. 0. 0. 0. 0. 0. 4.09836043e-03
      0. 0. 4.09836043e-03 0. 0. 0. 0. 0. 4.09836043e-03 4.09836043e-03
      0. 4.09836043e-03 4.09836043e-03 0. 0. 0. 0. 1.22950813e-02 0. 0.
      0. 4.09836043e-03 0. 0. 0. 0. 0. 4.09836043e-03 0. 0. 0.
      1.22950813e-02 0. 0. 0. 0. 0. 0. 8.19672085e-03 0. 8.19672085e-03
      0. 0. 0. 0. 0. 0. 0. 0. 0. 1.63934417e-02 0. 0. 0. 0.
      4.09836043e-03 0. 0. 0. 0. 0. 0. 0. 0. 0. 0. 0. 0. 0.
      4.09836043e-03 4.09836043e-03 0. 8.19672085e-03 0. 0.
      4.09836043e-03 0. 0. 0. 0. 4.09836043e-03 4.09836043e-03 0. 0. 0.
      0. 0. 0. 4.09836043e-03 0. 0. 0. 0. 4.09836043e-03 0. 0.
      4.09836043e-03 0. 0. 4.09836043e-03 0. 4.09836043e-03
      4.09836043e-03 1.63934417e-02 0. 0. 8.19672085e-03 8.19672085e-03
      0. 0. 0. 0. 0. 0. 0. 0. 0. 0. 0. 0. 0. 0. 0. 0. 0. 0. 0. 0. 0. 0.
      0. 0. 0. 0. 8.19672085e-03 0. 0. 0. 0. 0. 0. 0. 0. 4.09836043e-03
      0. 0. 0. 4.09836043e-03 0. 0. 0. 0. 4.09836043e-03 0. 0. 0. 0. 0.
      0. 0. 0. 0. 0. 0. 0. 4.09836043e-03 0. 0. 0. 0. 0. 4.09836043e-03
      0. 0. 0. 0. 0. 0. 0. 0. 0. 0. 4.09836043e-03 4.09836043e-03 0. 0.
      0. 0. 0. 0. 0. 4.09836043e-03 0. 0. 0. 0. 0. 8.19672085e-03 0. 0.
      0. 4.09836043e-03 4.09836043e-03 0. 4.09836043e-03 0. 0.
      4.09836043e-03 0. 0. 0. 0. 0. 0. 0. 0. 4.09836043e-03 0. 0.
      4.09836043e-03 0. 4.09836043e-03 4.09836043e-03 0. 0.
      4.09836043e-03 4.09836043e-03 0. 0. 0. 0. 0. 0. 0. 0. 0. 0. 0. 0.
      0. 4.09836043e-03 0. 4.09836043e-03 0. 0. 0. 0. 0. 0. 0.
      8.19672085e-03 0. 0. 0. 4.09836043e-03 0. 0. 0. 0. 0. 0. 0. 0. 0.
      0. 0. 0. 0. 1.63934417e-02 0. 0. 0. 0. 0. 0. 0. 0. 0. 0. 0. 0. 0.
      4.09836043e-03 0. 0. 0. 0. 0. 4.09836043e-03 0. 0. 0. 0. 0. 0. 0.
      0. 0. 0. 0. 0. 4.09836043e-03 0. 0. 0. 0.</_>
    <_>
      0. 0. 0. 0. 0. 0. 0. 0. 0. 0. 0. 0. 0. 0. 0. 0. 0. 0. 0. 0. 0. 0.
      0. 0. 0. 0. 0. 0. 0. 0. 0. 0. 0. 0. 0. 0. 0. 0. 0. 0. 0. 0. 0. 0.
      0. 0. 0. 0. 1.04166670e-02 0. 0. 2.08333340e-02 0. 0. 0. 0. 0. 0.
      0. 0. 0. 1.04166670e-02 0. 0. 0. 0. 0. 0. 0. 0. 0. 0. 0. 0. 0. 0.
      0. 0. 0. 0. 1.04166670e-02 0. 0. 0. 0. 1.04166670e-02 0. 0. 0.
      1.04166670e-02 0. 0. 1.04166670e-02 0. 0. 0. 0. 1.04166670e-02 0.
      0. 0. 0. 0. 0. 0. 0. 0. 0. 0. 0. 0. 0. 1.04166670e-02 0. 0.
      1.04166670e-02 0. 0. 0. 2.08333340e-02 0. 0. 2.08333340e-02 0. 0.
      0. 1.04166670e-02 0. 1.04166670e-02 0. 0. 0. 0. 0. 0. 0. 0. 0. 0.
      0. 0. 0. 0. 2.08333340e-02 2.08333340e-02 0. 0. 0. 0. 0. 0. 0. 0.
      0. 0. 0. 0. 0. 0. 0. 0. 0. 0. 0. 0. 0. 0. 0. 0. 0. 0. 0. 0. 0. 0.
      0. 0. 0. 0. 0. 0. 0. 2.08333340e-02 0. 0. 0. 0. 0. 0. 0. 0. 0. 0.
      0. 0. 0. 0. 0. 0. 0. 0. 0. 0. 0. 2.08333340e-02 1.04166670e-02 0.
      0. 0. 0. 0. 0. 0. 0. 0. 0. 0. 0. 0. 0. 0. 0. 0. 0. 0. 0. 0. 0. 0.
      0. 0. 0. 0. 0. 0. 0. 0. 0. 0. 0. 0. 0. 0. 0. 0. 0. 0. 0. 0.
      1.04166670e-02 1.04166670e-02 0. 0. 2.08333340e-02 0. 0. 0. 0. 0.
      0. 0. 0. 0. 0. 1.04166670e-02 1.04166670e-02 0. 0. 0. 0. 0. 0. 0.
      0. 0. 0. 0. 0. 0. 0. 0. 0. 0. 0. 0. 0. 0. 0. 0. 0. 0. 0. 0. 0. 0.
      1.04166670e-02 0. 0. 0. 0. 0. 1.04166670e-02 0. 0. 0. 0. 0. 0. 0.
      1.04166670e-02 1.04166670e-02 0. 0. 0. 0. 0. 0. 0. 0. 0. 0. 0. 0.
      0. 0. 0. 1.04166670e-02 0. 0. 0. 0. 0. 0. 0. 0. 0. 0. 0. 0. 0. 0.
      0. 0. 1.04166670e-02 0. 1.04166670e-02 2.08333340e-02 0. 0. 0. 0.
      0. 0. 0. 0. 0. 1.04166670e-02 0. 0. 0. 0. 0. 0. 0. 0. 0. 0. 0. 0.
      0. 0. 0. 0. 0. 0. 0. 0. 0. 0. 0. 0. 0. 0. 0. 0. 0. 0. 0.
      1.04166670e-02 0. 0. 0. 0. 0. 0. 0. 0. 0. 0. 0. 0. 0. 0. 0.
      1.04166670e-02 0. 0. 0. 0. 0. 0. 0. 1.04166670e-02 0. 0. 0. 0. 0.
      0. 1.04166670e-02 0. 0. 0. 0. 1.04166670e-02 0. 0. 0. 0. 0. 0. 0.
      0. 0. 0. 0. 0. 0. 0. 0. 1.04166670e-02 0. 0. 0. 0. 0. 0. 0. 0. 0.
      0. 0. 0. 1.04166670e-02 1.04166670e-02 0. 1.04166670e-02 0. 0. 0.
      0. 0. 0. 0. 0. 0. 0. 0. 0. 0. 0. 1.04166670e-02 0. 1.04166670e-02
      0. 0. 0. 0. 0. 0. 0. 0. 0. 0. 0. 0. 0. 0. 0. 0. 0. 2.08333340e-02
      0. 0. 0. 0. 0. 1.04166670e-02 0. 0. 0. 0. 1.04166670e-02 0.
      1.04166670e-02 0. 0. 0. 0. 0. 0. 0. 0. 0. 0. 0. 0. 0. 0. 0. 0. 0.
      0. 0. 0. 0. 0. 0. 0. 0. 1.04166670e-02 0. 0. 1.04166670e-02 0. 0.
      0. 0. 0. 0. 0. 0. 0. 0. 0. 0. 0. 0. 0. 0. 0. 0. 0. 0. 0. 0. 0. 0.
      0. 0. 0. 0. 3.12500000e-02 0. 0. 0. 0. 0. 0. 0. 1.04166670e-02 0.
      0. 0. 0. 0. 0. 0. 0. 0. 0. 0. 0. 0. 0. 0. 0. 0. 0. 0. 0. 0. 0. 0.
      0. 0. 0. 0. 0. 0. 0. 0. 0. 0. 0. 0. 0. 0. 0. 0. 0. 0. 0. 0. 0. 0.
      0. 0. 0. 0. 0. 0. 0. 0. 0. 0. 0. 0. 0. 0. 0. 0. 0. 0. 0. 0. 0. 0.
      0. 0. 0. 0. 0. 0. 2.08333340e-02 1.04166670e-02 0. 1.04166670e-02
      1.04166670e-02 0. 0. 0. 0. 0. 0. 0. 0. 0. 0. 0. 0. 1.04166670e-02
      0. 0. 0. 0. 0. 0. 0. 0. 0. 0. 0. 0. 0. 0. 0. 0. 0. 0. 0. 0. 0. 0.
      0. 0. 0. 0. 1.04166670e-02 0. 0. 0. 0. 0. 0. 0. 0. 0. 0. 0. 0. 0.
      0. 0. 0. 0. 0. 0. 0. 0. 0. 0. 0. 0. 0. 0. 0. 0. 0. 0. 0.
      1.04166670e-02 0. 0. 0. 0. 0. 0. 0. 0. 0. 0. 0. 0. 0. 0. 0. 0. 0.
      0. 0. 0. 0. 1.04166670e-02 1.04166670e-02 0. 0. 0. 1.04166670e-02
      0. 0. 0. 0. 0. 0. 0. 0. 0. 0. 0. 0. 0. 0. 0. 0. 1.04166670e-02 0.
      0. 0. 0. 0. 0. 0. 0. 0. 0. 0. 0. 0. 0. 0. 0. 0. 0. 0. 0. 0. 0. 0.
      0. 0. 0. 0. 0. 0. 0. 0. 0. 0. 0. 1.04166670e-02 0. 0. 0. 0. 0. 0.
      0. 0. 0. 1.04166670e-02 0. 1.04166670e-02 0. 0. 0. 0. 0. 0. 0. 0.
      0. 0. 0. 0. 0. 0. 0. 0. 0. 0. 0. 0. 0. 0. 0. 0. 0. 0.
      1.04166670e-02 0. 0. 0. 0. 0. 0. 0. 0. 0. 0. 0. 0. 0. 0. 0. 0. 0.
      0. 0. 0. 0. 0. 0. 0. 0. 0. 0. 1.04166670e-02 0. 0. 0. 0. 0. 0.
      1.04166670e-02 0. 0. 0. 0. 0. 0. 0. 0. 0. 0. 1.04166670e-02 0. 0.
      0. 0. 0. 1.04166670e-02 0. 0. 0. 1.04166670e-02 0. 0. 0. 0. 0. 0.
      0. 0. 0. 0. 0. 0. 0. 1.04166670e-02 1.04166670e-02 0. 0. 0. 0.
      1.04166670e-02 0. 0. 0. 0. 0. 0. 0. 0. 0. 0. 0. 0. 0. 0. 0. 0. 0.
      0. 0. 0. 0. 0. 0. 1.04166670e-02 0. 0. 0. 0. 0. 0. 0. 0. 0. 0. 0.
      0. 0. 0. 0. 0. 0. 0. 0. 0. 0. 0. 0. 0. 0. 0. 0. 0. 0. 0. 0. 0. 0.
      0. 0. 0. 1.04166670e-02 1.04166670e-02 1.04166670e-02 0. 0. 0.
      3.12500000e-02 0. 0. 1.04166670e-02 0. 0. 0. 0. 0. 0. 0. 0. 0. 0.
      0. 0. 0. 0.</_>
    <_>
      0. 0. 3.47222225e-03 0. 0. 0. 0. 0. 0. 3.47222225e-03 0.
      6.94444450e-03 0. 0. 0. 0. 0. 0. 3.47222225e-03 3.47222225e-03 0.
      0. 0. 0. 0. 0. 0. 0. 0. 0. 3.47222225e-03 3.47222225e-03
      3.47222225e-03 0. 0. 3.47222225e-03 0. 0. 0. 0. 0. 3.47222225e-03
      0. 0. 0. 3.47222225e-03 0. 0. 0. 0. 0. 0. 0. 6.94444450e-03 0.
      3.47222225e-03 0. 0. 0. 0. 0. 0. 6.94444450e-03 0. 3.47222225e-03
      0. 3.47222225e-03 0. 6.94444450e-03 0. 0. 0. 0. 0. 0. 0. 0. 0. 0.
      0. 0. 0. 0. 3.47222225e-03 0. 0. 0. 0. 0. 0. 6.94444450e-03 0. 0.
      0. 3.47222225e-03 0. 3.47222225e-03 3.47222225e-03 0. 0. 0.
      3.47222225e-03 0. 0. 0. 0. 0. 0. 3.47222225e-03 0. 0. 0. 0. 0. 0.
      0. 0. 0. 0. 0. 0. 0. 0. 0. 0. 0. 0. 0. 3.47222225e-03 0. 0. 0. 0.
      6.94444450e-03 0. 0. 3.47222225e-03 0. 3.47222225e-03
      3.47222225e-03 0. 0. 0. 0. 0. 0. 0. 0. 0. 0. 0. 3.47222225e-03 0.
      0. 6.94444450e-03 0. 0. 0. 0. 0. 0. 0. 0. 3.47222225e-03 0.
      3.47222225e-03 0. 0. 0. 0. 0. 3.47222225e-03 0. 0. 6.94444450e-03
      0. 6.94444450e-03 0. 0. 0. 0. 3.47222225e-03 0. 0. 0. 0.
      3.47222225e-03 3.47222225e-03 3.47222225e-03 0. 0. 0. 0. 0.
      3.47222225e-03 0. 0. 0. 3.47222225e-03 0. 3.47222225e-03 0. 0. 0.
      0. 0. 0. 6.94444450e-03 3.47222225e-03 0. 0. 0. 0. 0. 0.
      3.47222225e-03 0. 0. 0. 0. 3.47222225e-03 0. 0. 0. 0.
      6.94444450e-03 0. 0. 0. 3.47222225e-03 3.47222225e-03 0. 0.
      3.47222225e-03 0. 0. 0. 3.47222225e-03 0. 0. 0. 0. 0. 0. 0. 0. 0.
      0. 0. 0. 0. 0. 0. 0. 0. 0. 0. 0. 0. 3.47222225e-03 0.
      3.47222225e-03 0. 0. 0. 0. 0. 0. 0. 0. 0. 3.47222225e-03 0. 0.
      3.47222225e-03 3.47222225e-03 0. 0. 0. 0. 0. 3.47222225e-03 0. 0.
      6.94444450e-03 0. 0. 3.47222225e-03 0. 0. 3.47222225e-03 0.
      3.47222225e-03 0. 0. 6.94444450e-03 0. 0. 0. 0. 0. 0. 0. 0. 0. 0.
      0. 0. 0. 0. 0. 0. 0. 6.94444450e-03 0. 0. 0. 0. 0. 0. 0. 0. 0. 0.
      0. 3.47222225e-03 0. 0. 0. 0. 0. 0. 0. 0. 3.47222225e-03 0. 0.
      3.47222225e-03 3.47222225e-03 0. 3.47222225e-03 6.94444450e-03 0.
      3.47222225e-03 0. 0. 0. 3.47222225e-03 0. 0. 0. 0. 0.
      3.47222225e-03 0. 0. 3.47222225e-03 0. 0. 0. 3.47222225e-03 0. 0.
      3.47222225e-03 0. 0. 0. 0. 0. 0. 0. 0. 0. 0. 0. 0. 0. 0.
      3.47222225e-03 0. 0. 0. 0. 0. 0. 3.47222225e-03 0. 0. 0.
      3.47222225e-03 3.47222225e-03 3.47222225e-03 3.47222225e-03 0.
      3.47222225e-03 0. 0. 6.94444450e-03 0. 0. 0. 3.47222225e-03 0. 0.
      0. 0. 3.47222225e-03 3.47222225e-03 0. 0. 3.47222225e-03 0. 0. 0.
      0. 0. 0. 0. 0. 0. 0. 0. 0. 0. 0. 0. 6.94444450e-03 0. 0. 0.
      3.47222225e-03 1.04166670e-02 6.94444450e-03 0. 0. 6.94444450e-03
      0. 3.47222225e-03 0. 0. 0. 6.94444450e-03 0. 0. 0. 0.
      1.04166670e-02 0. 6.94444450e-03 0. 0. 0. 0. 0. 0. 3.47222225e-03
      3.47222225e-03 0. 0. 0. 0. 0. 0. 0. 0. 3.47222225e-03
      3.47222225e-03 6.94444450e-03 0. 0. 0. 0. 0. 0. 0. 0. 0.
      3.47222225e-03 0. 0. 0. 0. 0. 0. 0. 3.47222225e-03 3.47222225e-03
      0. 0. 0. 3.47222225e-03 0. 0. 0. 0. 0. 3.47222225e-03 0. 0. 0.
      3.47222225e-03 0. 0. 0. 0. 0. 0. 0. 0. 0. 3.47222225e-03 0. 0. 0.
      3.47222225e-03 0. 0. 3.47222225e-03 0. 0. 6.94444450e-03 0.
      3.47222225e-03 0. 3.47222225e-03 0. 0. 0. 0. 0. 0. 3.47222225e-03
      3.47222225e-03 0. 0. 3.47222225e-03 3.47222225e-03 0. 0. 0. 0. 0.
      0. 0. 0. 0. 0. 0. 0. 0. 0. 0. 0. 0. 3.47222225e-03 0. 0.
      3.47222225e-03 6.94444450e-03 0. 0. 3.47222225e-03 0.
      3.47222225e-03 0. 0. 3.47222225e-03 0. 0. 0. 0. 0. 0. 0. 0. 0. 0.
      0. 0. 0. 0. 3.47222225e-03 3.47222225e-03 0. 0. 3.47222225e-03 0.
      0. 3.47222225e-03 0. 3.47222225e-03 0. 0. 0. 0. 0. 0. 0. 0. 0. 0.
      0. 0. 3.47222225e-03 3.47222225e-03 0. 3.47222225e-03 0. 0. 0. 0.
      0. 3.47222225e-03 0. 0. 0. 0. 6.94444450e-03 0. 0. 0. 0. 0. 0. 0.
      0. 0. 0. 6.94444450e-03 0. 0. 0. 0. 6.94444450e-03 3.47222225e-03
      0. 0. 0. 6.94444450e-03 0. 0. 0. 0. 0. 0. 0. 3.47222225e-03 0. 0.
      3.47222225e-03 0. 0. 0. 0. 0. 0. 3.47222225e-03 0. 0. 0.
      3.47222225e-03 0. 0. 0. 0. 0. 0. 0. 0. 3.47222225e-03 0. 0.
      3.47222225e-03 0. 0. 0. 0. 0. 0. 0. 0. 3.47222225e-03 0. 0. 0.
      3.47222225e-03 6.94444450e-03 0. 0. 0. 3.47222225e-03 0. 0. 0.
      6.94444450e-03 0. 3.47222225e-03 3.47222225e-03 0. 0.
      3.47222225e-03 0. 0. 6.94444450e-03 0. 0. 0. 3.47222225e-03
      3.47222225e-03 0. 0. 0. 6.94444450e-03 3.47222225e-03 0. 0. 0. 0.
      3.47222225e-03 0. 0. 0. 0. 0. 0. 0. 0. 0. 0. 0. 3.47222225e-03 0.
      0. 0. 0. 3.47222225e-03 0. 0. 0. 3.47222225e-03 0. 0. 0.
      3.47222225e-03 0. 3.47222225e-03 0. 3.47222225e-03 0. 0. 0. 0. 0.
      0. 0. 0. 6.94444450e-03 0. 3.47222225e-03 0. 0. 0. 0. 0. 0. 0.
      6.94444450e-03 0. 0. 0. 6.94444450e-03 6.94444450e-03 0.
      1.38888890e-02 0. 0. 0. 0. 0. 0. 0. 0. 0. 0. 0. 3.47222225e-03
      3.47222225e-03 3.47222225e-03 0. 0. 0. 3.47222225e-03 0. 0.
      3.47222225e-03 0. 0. 0. 0. 0. 0. 0. 3.47222225e-03 3.47222225e-03
      3.47222225e-03 0. 0. 0. 0. 0. 0. 3.47222225e-03 3.47222225e-03 0.
      3.47222225e-03 3.47222225e-03 0. 0. 0. 3.47222225e-03 0. 0. 0. 0.
      0. 0. 0. 0. 0. 0. 0. 3.47222225e-03 0. 0. 0. 0. 0. 0. 0. 0. 0. 0.
      0. 3.47222225e-03 3.47222225e-03 0. 0. 3.47222225e-03 0. 0.
      3.47222225e-03 6.94444450e-03 0. 3.47222225e-03 6.94444450e-03 0.
      3.47222225e-03 3.47222225e-03 3.47222225e-03 0. 0. 0. 0. 0. 0. 0.
      0. 0. 0. 3.47222225e-03 1.38888890e-02 3.47222225e-03 0. 0. 0. 0.
      0. 0. 0. 3.47222225e-03 3.47222225e-03 0. 0. 3.47222225e-03 0. 0.
      0. 0. 0. 0. 0. 0. 0. 0. 0. 0. 0. 0. 3.47222225e-03 0. 0.
      3.47222225e-03 0. 0. 3.47222225e-03 3.47222225e-03 0.
      3.47222225e-03 0. 3.47222225e-03 0. 0. 0. 0. 3.47222225e-03
      3.47222225e-03 0. 0. 0. 0. 0. 0. 0. 0. 3.47222225e-03 0.
      3.47222225e-03 0. 0. 0. 0. 0. 0. 0. 0. 0. 0. 0. 0. 0. 0. 0. 0. 0.
      0. 3.47222225e-03 0. 6.94444450e-03 0. 0. 0. 0. 3.47222225e-03 0.
      0. 0. 3.47222225e-03 3.47222225e-03 3.47222225e-03 6.94444450e-03
      0. 0. 0. 3.47222225e-03 0. 3.47222225e-03 0. 0. 0. 3.47222225e-03
      3.47222225e-03 0. 3.47222225e-03 0. 1.04166670e-02 0.
      3.47222225e-03 3.47222225e-03 0. 0. 0. 6.94444450e-03
      3.47222225e-03 0. 0. 0. 0. 1.38888890e-02 0. 0. 0. 3.47222225e-03
      0. 3.47222225e-03 0. 3.47222225e-03 0. 0. 3.47222225e-03 0.</_>
    <_>
      0. 0. 0. 0. 0. 3.23624606e-03 0. 0. 0. 0. 0. 0. 0. 0. 0. 0. 0.
      6.47249212e-03 0. 0. 3.23624606e-03 0. 0. 0. 3.23624606e-03 0. 0.
      0. 0. 0. 0. 0. 0. 0. 0. 3.23624606e-03 0. 3.23624606e-03 0. 0. 0.
      0. 0. 3.23624606e-03 3.23624606e-03 0. 3.23624606e-03 0.
      3.23624606e-03 0. 0. 0. 3.23624606e-03 0. 0. 6.47249212e-03 0. 0.
      0. 0. 0. 9.70873795e-03 0. 0. 0. 0. 0. 0. 6.47249212e-03
      3.23624606e-03 3.23624606e-03 0. 0. 0. 0. 6.47249212e-03 0.
      3.23624606e-03 0. 0. 3.23624606e-03 3.23624606e-03 0.
      3.23624606e-03 6.47249212e-03 0. 0. 0. 0. 9.70873795e-03 0. 0. 0.
      0. 0. 0. 0. 0. 0. 0. 0. 9.70873795e-03 0. 6.47249212e-03 0.
      3.23624606e-03 0. 0. 0. 0. 0. 0. 0. 0. 0. 0. 3.23624606e-03 0. 0.
      0. 3.23624606e-03 0. 0. 0. 0. 0. 0. 3.23624606e-03 0. 0. 0. 0.
      3.23624606e-03 0. 3.23624606e-03 9.70873795e-03 0. 0. 0. 0. 0.
      3.23624606e-03 0. 0. 0. 9.70873795e-03 0. 3.23624606e-03 0.
      3.23624606e-03 0. 0. 0. 0. 3.23624606e-03 1.29449842e-02 0.
      9.70873795e-03 0. 0. 0. 0. 0. 3.23624606e-03 0. 9.70873795e-03 0.
      0. 0. 6.47249212e-03 0. 0. 0. 0. 0. 0. 0. 0. 0. 0. 0. 0. 0. 0. 0.
      0. 0. 0. 0. 0. 0. 3.23624606e-03 0. 3.23624606e-03 0.
      6.47249212e-03 0. 0. 6.47249212e-03 0. 0. 0. 3.23624606e-03 0. 0.
      0. 0. 0. 0. 0. 3.23624606e-03 3.23624606e-03 3.23624606e-03 0. 0.
      0. 9.70873795e-03 0. 0. 0. 0. 0. 3.23624606e-03 6.47249212e-03
      3.23624606e-03 3.23624606e-03 0. 0. 0. 0. 3.23624606e-03 0. 0. 0.
      3.23624606e-03 0. 0. 0. 0. 0. 0. 0. 0. 3.23624606e-03 0. 0.
      1.29449842e-02 0. 0. 0. 0. 0. 0. 0. 0. 0. 0. 0. 3.23624606e-03
      3.23624606e-03 0. 0. 0. 0. 0. 0. 0. 0. 0. 0. 0. 0. 0. 0. 0. 0. 0.
      0. 0. 0. 0. 0. 0. 0. 0. 0. 3.23624606e-03 0. 3.23624606e-03 0. 0.
      0. 0. 0. 0. 0. 0. 0. 0. 0. 0. 0. 0. 0. 0. 0. 3.23624606e-03 0.
      3.23624606e-03 9.70873795e-03 0. 0. 0. 0. 0. 0. 3.23624606e-03 0.
      3.23624606e-03 0. 0. 0. 3.23624606e-03 3.23624606e-03 0. 0. 0. 0.
      0. 0. 3.23624606e-03 3.23624606e-03 3.23624606e-03 0. 0. 0. 0. 0.
      0. 0. 0. 0. 0. 0. 0. 0. 3.23624606e-03 0. 0. 0. 3.23624606e-03 0.
      0. 0. 0. 3.23624606e-03 0. 0. 0. 0. 0. 0. 0. 0. 0. 0. 0. 0. 0. 0.
      0. 0. 0. 0. 0. 0. 0. 3.23624606e-03 3.23624606e-03 3.23624606e-03
      0. 0. 0. 0. 0. 3.23624606e-03 0. 0. 0. 0. 0. 3.23624606e-03
      3.23624606e-03 0. 0. 0. 0. 0. 0. 0. 0. 0. 0. 0. 0. 0. 0. 0. 0. 0.
      0. 3.23624606e-03 0. 0. 0. 0. 0. 3.23624606e-03 0. 6.47249212e-03
      0. 0. 0. 0. 0. 0. 3.23624606e-03 6.47249212e-03 0. 0. 0.
      3.23624606e-03 6.47249212e-03 0. 0. 0. 6.47249212e-03 0. 0.
      1.94174759e-02 0. 0. 0. 0. 0. 0. 3.23624606e-03 0. 0. 0. 0.
      6.47249212e-03 0. 6.47249212e-03 0. 0. 0. 0. 3.23624606e-03 0. 0.
      6.47249212e-03 0. 0. 3.23624606e-03 0. 0. 0. 6.47249212e-03 0. 0.
      0. 0. 0. 0. 0. 0. 0. 3.23624606e-03 0. 0. 0. 0. 0. 0. 0. 0. 0. 0.
      0. 0. 0. 0. 0. 0. 0. 0. 0. 3.23624606e-03 0. 0. 3.23624606e-03 0.
      0. 0. 0. 0. 0. 0. 3.23624606e-03 0. 0. 0. 0. 0. 6.47249212e-03 0.
      0. 3.23624606e-03 0. 0. 0. 0. 0. 0. 0. 0. 0. 0. 0. 0.
      3.23624606e-03 0. 0. 0. 6.47249212e-03 0. 0. 0. 0. 3.23624606e-03
      0. 0. 0. 0. 0. 0. 0. 0. 0. 0. 6.47249212e-03 0. 0. 0. 0. 0. 0. 0.
      0. 0. 0. 0. 0. 0. 3.23624606e-03 3.23624606e-03 3.23624606e-03 0.
      3.23624606e-03 0. 0. 0. 0. 0. 0. 0. 6.47249212e-03 0. 0. 0. 0.
      3.23624606e-03 0. 0. 3.23624606e-03 0. 6.47249212e-03 0.
      3.23624606e-03 3.23624606e-03 0. 0. 0. 3.23624606e-03 0. 0. 0. 0.
      0. 0. 0. 0. 3.23624606e-03 0. 0. 0. 6.47249212e-03 0.
      1.29449842e-02 0. 0. 0. 0. 6.47249212e-03 9.70873795e-03
      3.23624606e-03 0. 0. 0. 0. 0. 0. 0. 0. 0. 0. 0. 3.23624606e-03
      6.47249212e-03 0. 0. 3.23624606e-03 0. 0. 0. 0. 0. 0. 0. 0. 0. 0.
      0. 0. 0. 0. 0. 0. 0. 0. 3.23624606e-03 0. 0. 0. 0. 0. 0.
      3.23624606e-03 0. 0. 3.23624606e-03 0. 0. 0. 3.23624606e-03 0. 0.
      0. 0. 0. 0. 3.23624606e-03 3.23624606e-03 0. 0. 0. 0. 0. 0. 0.
      3.23624606e-03 0. 0. 3.23624606e-03 0. 0. 0. 3.23624606e-03 0. 0.
      0. 0. 6.47249212e-03 0. 0. 3.23624606e-03 0. 0. 0. 3.23624606e-03
      0. 0. 0. 0. 0. 3.23624606e-03 0. 0. 0. 0. 3.23624606e-03
      6.47249212e-03 0. 0. 0. 3.23624606e-03 3.23624606e-03 0. 0.
      6.47249212e-03 3.23624606e-03 0. 0. 0. 3.23624606e-03 0. 0. 0. 0.
      6.47249212e-03 0. 0. 3.23624606e-03 3.23624606e-03 0. 0. 0.
      6.47249212e-03 0. 3.23624606e-03 3.23624606e-03 0. 3.23624606e-03
      9.70873795e-03 0. 3.23624606e-03 3.23624606e-03 0. 0. 0. 0. 0. 0.
      0. 0. 0. 0. 0. 0. 0. 0. 0. 0. 1.61812305e-02 0. 9.70873795e-03 0.
      0. 0. 0. 0. 0. 0. 0. 0. 3.23624606e-03 0. 0. 0. 6.47249212e-03
      3.23624606e-03 0. 0. 0. 0. 0. 6.47249212e-03 0. 0. 0. 0.
      3.23624606e-03 0. 0. 0. 0. 6.47249212e-03 0. 3.23624606e-03 0. 0.
      3.23624606e-03 3.23624606e-03 0. 0. 0. 0. 0. 0. 0. 3.23624606e-03
      0. 0. 0. 0. 0. 3.23624606e-03 0. 3.23624606e-03 0. 0. 0.
      3.23624606e-03 0. 3.23624606e-03 0. 0. 0. 0. 0. 0. 0. 0. 0. 0. 0.
      0. 0. 0. 0. 0. 3.23624606e-03 0. 3.23624606e-03 3.23624606e-03
      6.47249212e-03 0. 0. 6.47249212e-03 6.47249212e-03 0. 0. 0. 0. 0.
      0. 3.23624606e-03 0. 6.47249212e-03 3.23624606e-03 3.23624606e-03
      3.23624606e-03 0. 0. 0. 0. 0. 0. 0. 0. 0. 0. 0. 0. 0. 0. 0. 0. 0.
      0. 3.23624606e-03 0. 1.29449842e-02 0. 0. 3.23624606e-03 0. 0. 0.
      0. 3.23624606e-03 0. 0. 0. 3.23624606e-03 0. 6.47249212e-03 0. 0.
      0. 0. 0. 6.47249212e-03 0. 6.47249212e-03 0. 0. 3.23624606e-03 0.
      3.23624606e-03 0. 0. 0. 0. 1.29449842e-02 0. 0. 3.23624606e-03
      3.23624606e-03 0. 0. 0. 0. 0. 0. 0. 3.23624606e-03 3.23624606e-03
      0. 0. 0. 0. 0. 0. 0. 0. 3.23624606e-03 0. 0. 0. 3.23624606e-03 0.
      0. 1.61812305e-02 0. 0. 0. 0. 0. 0. 0. 0. 0. 0. 0. 0.
      3.23624606e-03 0. 0. 3.23624606e-03 0. 0. 0. 0. 0. 6.47249212e-03
      0. 0. 3.23624606e-03 0. 0. 0. 0. 0. 0. 0. 3.23624606e-03 0. 0. 0.
      3.23624606e-03 3.23624606e-03 3.23624606e-03 0. 3.23624606e-03
      3.23624606e-03 0. 0. 3.23624606e-03 0. 0. 0. 0. 0. 0. 0. 0.
      3.23624606e-03 0.</_>
    <_>
      0. 3.13479616e-03 0. 0. 0. 0. 0. 0. 0. 0. 9.40438826e-03 0. 0. 0.
      0. 0. 6.26959233e-03 0. 0. 0. 0. 0. 0. 0. 0. 0. 3.13479616e-03 0.
      6.26959233e-03 0. 0. 0. 0. 0. 0. 0. 0. 1.25391847e-02
      3.13479616e-03 0. 0. 0. 6.26959233e-03 0. 0. 0. 0. 0. 0. 0. 0. 0.
      0. 0. 0. 3.13479616e-03 0. 3.13479616e-03 6.26959233e-03 0. 0.
      6.26959233e-03 0. 0. 0. 0. 0. 0. 0. 3.13479616e-03 0. 0. 0. 0. 0.
      0. 0. 0. 0. 0. 3.13479616e-03 6.26959233e-03 0. 0. 6.26959233e-03
      3.13479616e-03 0. 0. 0. 1.88087765e-02 0. 0. 3.13479616e-03 0. 0.
      0. 0. 3.13479616e-03 0. 0. 0. 0. 0. 9.40438826e-03 3.13479616e-03
      0. 0. 0. 3.13479616e-03 0. 0. 0. 0. 0. 0. 0. 0. 0. 0.
      3.13479616e-03 0. 0. 0. 0. 0. 0. 3.13479616e-03 0. 0. 0. 0. 0. 0.
      0. 3.13479616e-03 3.13479616e-03 0. 0. 3.13479616e-03 0. 0. 0. 0.
      3.13479616e-03 0. 9.40438826e-03 0. 0. 3.13479616e-03
      6.26959233e-03 0. 0. 0. 3.13479616e-03 0. 9.40438826e-03
      6.26959233e-03 0. 0. 0. 0. 0. 0. 3.13479616e-03 6.26959233e-03
      6.26959233e-03 0. 0. 0. 3.13479616e-03 3.13479616e-03 0. 0. 0.
      3.13479616e-03 0. 3.13479616e-03 0. 0. 0. 0. 0. 0. 0. 0. 0. 0. 0.
      0. 3.13479616e-03 3.13479616e-03 0. 0. 0. 0. 9.40438826e-03 0. 0.
      0. 0. 0. 0. 0. 0. 0. 0. 0. 0. 0. 0. 1.56739801e-02 0. 0. 0. 0. 0.
      6.26959233e-03 0. 9.40438826e-03 0. 0. 0. 0. 3.13479616e-03 0. 0.
      0. 0. 0. 3.13479616e-03 3.13479616e-03 0. 0. 3.13479616e-03 0. 0.
      3.13479616e-03 0. 0. 6.26959233e-03 3.13479616e-03 0. 0. 0. 0.
      3.13479616e-03 6.26959233e-03 0. 0. 0. 0. 3.13479616e-03 0. 0. 0.
      0. 0. 0. 0. 3.13479616e-03 0. 0. 0. 0. 0. 0. 0. 0. 0.
      3.13479616e-03 0. 0. 0. 0. 3.13479616e-03 0. 0. 0. 0. 0. 0. 0.
      3.13479616e-03 3.13479616e-03 0. 0. 0. 6.26959233e-03 0. 0. 0. 0.
      0. 0. 0. 3.13479616e-03 0. 0. 0. 0. 0. 0. 0. 3.13479616e-03
      1.56739801e-02 0. 0. 0. 0. 0. 0. 3.13479616e-03 0. 0. 0. 0. 0.
      3.13479616e-03 3.13479616e-03 0. 0. 0. 3.13479616e-03 0. 0. 0. 0.
      0. 0. 0. 3.13479616e-03 0. 1.56739801e-02 0. 0. 0. 6.26959233e-03
      0. 0. 0. 3.13479616e-03 0. 0. 0. 0. 0. 0. 0. 0. 0. 0. 0. 0. 0. 0.
      0. 0. 0. 0. 0. 0. 0. 0. 0. 3.13479616e-03 0. 0. 0. 0. 0. 0. 0. 0.
      0. 0. 0. 0. 0. 6.26959233e-03 0. 0. 3.13479616e-03 3.13479616e-03
      0. 0. 0. 6.26959233e-03 0. 0. 0. 0. 0. 0. 0. 0. 0. 0. 0. 0. 0. 0.
      0. 0. 0. 0. 0. 0. 0. 0. 0. 0. 0. 0. 6.26959233e-03 0. 0. 0.
      3.13479616e-03 0. 0. 0. 3.13479616e-03 0. 0. 0. 0. 6.26959233e-03
      0. 0. 0. 0. 0. 0. 0. 0. 0. 9.40438826e-03 0. 0. 0. 0. 0. 0. 0. 0.
      0. 3.13479616e-03 0. 0. 0. 0. 0. 0. 0. 0. 6.26959233e-03 0. 0. 0.
      0. 0. 0. 0. 0. 0. 0. 0. 0. 0. 0. 0. 9.40438826e-03 0. 0. 0.
      6.26959233e-03 0. 0. 9.40438826e-03 0. 0. 3.13479616e-03 0. 0. 0.
      3.13479616e-03 0. 0. 0. 0. 0. 0. 0. 0. 3.13479616e-03 0. 0. 0. 0.
      0. 0. 0. 0. 0. 3.13479616e-03 3.13479616e-03 0. 0. 3.13479616e-03
      1.25391847e-02 0. 0. 3.13479616e-03 3.13479616e-03 0. 0. 0. 0. 0.
      0. 3.13479616e-03 0. 0. 0. 0. 0. 0. 0. 3.13479616e-03 0. 0. 0. 0.
      1.25391847e-02 1.25391847e-02 6.26959233e-03 0. 0. 0. 0. 0. 0. 0.
      0. 0. 0. 0. 0. 0. 0. 0. 0. 3.13479616e-03 0. 0. 0. 0. 0. 0.
      6.26959233e-03 0. 0. 0. 0. 6.26959233e-03 0. 0. 6.26959233e-03 0.
      0. 3.13479616e-03 0. 0. 0. 0. 0. 3.13479616e-03 0. 0. 0. 0. 0. 0.
      3.13479616e-03 3.13479616e-03 0. 6.26959233e-03 0. 0. 0. 0. 0. 0.
      0. 0. 0. 0. 0. 0. 0. 3.13479616e-03 0. 0. 0. 3.13479616e-03 0. 0.
      0. 0. 9.40438826e-03 0. 0. 0. 3.13479616e-03 0. 0. 0.
      6.26959233e-03 0. 0. 0. 0. 3.13479616e-03 0. 0. 0. 3.13479616e-03
      9.40438826e-03 0. 0. 0. 0. 0. 0. 0. 0. 0. 3.13479616e-03 0. 0.
      3.13479616e-03 0. 0. 0. 0. 3.13479616e-03 0. 0. 3.13479616e-03 0.
      0. 0. 0. 3.13479616e-03 0. 0. 0. 0. 0. 0. 0. 0. 0. 3.13479616e-03
      0. 3.13479616e-03 0. 3.13479616e-03 0. 0. 3.13479616e-03 0. 0. 0.
      6.26959233e-03 0. 0. 0. 0. 0. 0. 0. 0. 0. 0. 0. 0. 0.
      3.13479616e-03 0. 0. 6.26959233e-03 0. 9.40438826e-03 0. 0. 0. 0.
      0. 0. 0. 0. 3.13479616e-03 0. 0. 0. 9.40438826e-03 3.13479616e-03
      0. 0. 0. 0. 0. 3.13479616e-03 0. 0. 0. 0. 6.26959233e-03 0. 0. 0.
      0. 3.13479616e-03 0. 0. 6.26959233e-03 0. 0. 0. 0. 0.
      3.13479616e-03 0. 0. 0. 0. 0. 0. 0. 0. 0. 0. 0. 1.25391847e-02 0.
      0. 9.40438826e-03 0. 9.40438826e-03 0. 0. 0. 0. 0. 0. 0. 0. 0. 0.
      0. 0. 0. 0. 3.13479616e-03 0. 0. 0. 0. 3.13479616e-03 0. 0. 0. 0.
      3.13479616e-03 0. 0. 0. 0. 0. 0. 0. 0. 3.13479616e-03 0. 0.
      3.13479616e-03 0. 3.13479616e-03 0. 0. 0. 0. 0. 0. 0.
      3.13479616e-03 9.40438826e-03 0. 0. 0. 3.13479616e-03
      3.13479616e-03 0. 0. 0. 0. 0. 0. 0. 0. 6.26959233e-03 0. 0. 0. 0.
      0. 9.40438826e-03 3.13479616e-03 0. 0. 0. 0. 9.40438826e-03 0. 0.
      0. 0. 3.13479616e-03 0. 0. 0. 0. 0. 0. 0. 0. 0. 0. 0. 0. 0. 0. 0.
      9.40438826e-03 0. 0. 0. 0. 9.40438826e-03 0. 0. 0. 3.13479616e-03
      3.13479616e-03 0. 3.13479616e-03 3.13479616e-03 3.13479616e-03
      3.13479616e-03 0. 0. 1.56739801e-02 0. 0. 0. 0. 0. 0. 0. 0. 0. 0.
      0. 0. 0. 0. 0. 0. 0. 0. 0. 0. 3.13479616e-03 0. 0. 0. 0. 0. 0. 0.
      0. 0. 0. 0. 0. 0. 0. 0. 0. 0. 6.26959233e-03 0. 6.26959233e-03 0.
      0. 0. 0. 3.13479616e-03 3.13479616e-03 0. 3.13479616e-03 0. 0. 0.
      3.13479616e-03 0. 0. 0. 0. 0. 6.26959233e-03 0. 1.56739801e-02
      3.13479616e-03 0. 0. 0. 0. 0. 6.26959233e-03 3.13479616e-03 0. 0.
      0. 0. 0. 3.13479616e-03 0. 0. 3.13479616e-03 0. 0. 0. 0. 0. 0. 0.
      0. 0. 0. 0. 0. 0. 0. 3.13479616e-03 0. 0. 0. 9.40438826e-03 0. 0.
      0. 3.13479616e-03 0. 0. 3.13479616e-03 0. 0. 0. 3.13479616e-03 0.
      0. 0. 3.13479616e-03 0. 0. 6.26959233e-03 3.13479616e-03 0. 0.
      3.13479616e-03 0. 6.26959233e-03 0. 0. 0. 0. 0. 0. 1.25391847e-02
      0. 0. 0. 0. 0. 0. 0. 0. 3.13479616e-03</_>
    <_>
      0. 0. 0. 5.74712642e-03 0. 0. 0. 0. 0. 0. 5.74712642e-03 0. 0. 0.
      0. 0. 5.74712642e-03 0. 0. 0. 0. 0. 0. 5.74712642e-03 0. 0.
      5.74712642e-03 0. 0. 0. 0. 0. 0. 0. 0. 0. 0. 1.72413792e-02 0. 0.
      0. 0. 0. 0. 0. 0. 0. 0. 0. 0. 0. 0. 0. 0. 0. 5.74712642e-03 0. 0.
      0. 0. 5.74712642e-03 5.74712642e-03 0. 0. 0. 0. 0. 5.74712642e-03
      0. 0. 0. 5.74712642e-03 0. 0. 0. 0. 0. 0. 0. 0. 0. 0. 0.
      5.74712642e-03 0. 0. 0. 0. 0. 1.72413792e-02 0. 0. 0. 0. 0. 0. 0.
      5.74712642e-03 0. 0. 5.74712642e-03 0. 0. 0. 5.74712642e-03 0. 0.
      0. 0. 5.74712642e-03 0. 0. 0. 5.74712642e-03 0. 0. 0. 0. 0.
      1.72413792e-02 0. 0. 1.14942528e-02 0. 0. 0. 0. 0. 0.
      5.74712642e-03 0. 0. 5.74712642e-03 0. 0. 5.74712642e-03 0. 0. 0.
      0. 0. 0. 0. 5.74712642e-03 0. 0. 0. 5.74712642e-03 5.74712642e-03
      5.74712642e-03 0. 0. 5.74712642e-03 0. 0. 5.74712642e-03
      5.74712642e-03 0. 0. 0. 0. 0. 0. 5.74712642e-03 0. 1.14942528e-02
      0. 0. 0. 0. 0. 0. 0. 0. 0. 0. 0. 5.74712642e-03 0. 0. 0. 0. 0. 0.
      0. 0. 0. 0. 0. 0. 5.74712642e-03 0. 0. 1.14942528e-02 0.
      4.02298868e-02 0. 0. 0. 0. 0. 0. 0. 0. 0. 0. 0. 0. 0. 0. 0. 0. 0.
      0. 0. 0. 0. 0. 0. 0. 0. 0. 0. 1.72413792e-02 0. 0. 0. 0. 0.
      5.74712642e-03 0. 0. 0. 5.74712642e-03 0. 1.14942528e-02
      5.74712642e-03 1.14942528e-02 0. 0. 0. 0. 0. 0. 0. 0. 0. 0. 0. 0.
      0. 0. 0. 0. 0. 0. 0. 0. 0. 2.87356321e-02 0. 5.74712642e-03 0. 0.
      0. 0. 0. 0. 0. 0. 0. 0. 0. 0. 0. 0. 0. 0. 0. 0. 0. 0. 0. 0. 0. 0.
      0. 5.74712642e-03 5.74712642e-03 0. 0. 0. 0. 0. 0. 5.74712642e-03
      0. 5.74712642e-03 0. 0. 0. 5.74712642e-03 0. 0. 1.72413792e-02 0.
      0. 0. 5.74712642e-03 0. 0. 0. 0. 0. 0. 0. 0. 0. 0. 0. 0. 0. 0. 0.
      0. 0. 0. 0. 0. 0. 0. 0. 5.74712642e-03 0. 0. 0. 0. 0. 0. 0. 0. 0.
      0. 0. 0. 0. 0. 0. 0. 0. 0. 0. 0. 0. 0. 0. 0. 0. 0. 0. 0. 0. 0. 0.
      0. 5.74712642e-03 0. 0. 0. 0. 0. 0. 0. 0. 0. 0. 0. 0. 0. 0. 0. 0.
      0. 5.74712642e-03 5.74712642e-03 0. 0. 0. 0. 0. 0. 5.74712642e-03
      5.74712642e-03 0. 0. 0. 0. 0. 0. 0. 0. 0. 0. 0. 0. 0. 0. 0. 0. 0.
      0. 5.74712642e-03 0. 0. 0. 0. 0. 0. 0. 0. 0. 0. 0. 0. 0. 0.
      5.74712642e-03 0. 0. 0. 0. 0. 0. 0. 0. 0. 0. 0. 0. 0. 0. 0. 0. 0.
      0. 0. 0. 0. 0. 0. 0. 0. 0. 0. 0. 0. 0. 0. 0. 0. 0. 0. 0. 0.
      5.74712642e-03 0. 0. 0. 0. 0. 0. 0. 0. 0. 0. 1.72413792e-02 0. 0.
      0. 0. 0. 0. 0. 0. 0. 0. 0. 0. 0. 0. 0. 0. 0. 0. 0. 0. 0. 0.
      5.74712642e-03 0. 0. 5.74712642e-03 0. 0. 0. 0. 0. 0. 0. 0. 0. 0.
      1.14942528e-02 0. 0. 0. 0. 0. 0. 0. 0. 0. 0. 0. 0. 0. 0. 0.
      1.14942528e-02 0. 0. 0. 0. 5.74712642e-03 0. 5.74712642e-03 0. 0.
      0. 0. 0. 0. 0. 0. 0. 0. 0. 0. 0. 0. 0. 0. 0. 0. 0. 0. 0. 0. 0. 0.
      0. 0. 0. 0. 0. 0. 0. 5.74712642e-03 0. 0. 0. 0. 0. 0. 0. 0. 0. 0.
      0. 0. 0. 0. 0. 0. 5.74712642e-03 0. 0. 0. 0. 0. 5.74712642e-03 0.
      0. 0. 0. 0. 0. 0. 0. 0. 0. 0. 0. 0. 0. 0. 0. 0. 0. 1.14942528e-02
      0. 0. 0. 0. 0. 1.14942528e-02 0. 0. 0. 0. 0. 0. 0. 0.
      5.74712642e-03 0. 0. 0. 0. 0. 0. 5.74712642e-03 0. 0. 0. 0. 0. 0.
      0. 0. 0. 0. 1.72413792e-02 1.14942528e-02 0. 0. 0. 0.
      1.14942528e-02 0. 0. 5.74712642e-03 0. 0. 0. 0. 0. 0. 0. 0. 0. 0.
      0. 0. 0. 0. 0. 0. 0. 5.74712642e-03 0. 0. 0. 0. 5.74712642e-03 0.
      0. 0. 0. 0. 0. 0. 0. 0. 0. 0. 0. 0. 0. 0. 0. 0. 0. 5.74712642e-03
      1.14942528e-02 5.74712642e-03 0. 0. 0. 0. 0. 0. 0. 0. 0. 0.
      1.14942528e-02 0. 0. 0. 0. 0. 0. 0. 0. 0. 0. 0. 0. 0. 0. 0. 0. 0.
