<?xml version="1.0"?>
<opencv_storage>
<opencv_ml_svm>
  <format>3</format>
  <svmType>C_SVC</svmType>
  <kernel>
    <type>RBF</type>
    <gamma>5.0625000000000009e-01</gamma></kernel>
  <C>3.1250000000000000e+02</C>
  <term_criteria><iterations>1000</iterations></term_criteria>
  <var_count>1000</var_count>
  <class_count>2</class_count>
  <class_labels type_id="opencv-matrix">
    <rows>2</rows>
    <cols>1</cols>
    <dt>i</dt>
    <data>
      0 1</data></class_labels>
  <sv_total>184</sv_total>
  <support_vectors>
    <_>
      0. 0. 0. 0. 0. 0. 1.05263162e-02 0. 0. 0. 0. 0. 0. 1.05263162e-02
      1.05263162e-02 0. 0. 0. 0. 0. 0. 0. 0. 0. 0. 0. 0. 1.05263162e-02
      0. 0. 0. 0. 0. 0. 0. 0. 0. 0. 0. 0. 0. 0. 0. 0. 0. 0. 0. 0. 0. 0.
      0. 0. 0. 0. 0. 0. 0. 0. 0. 0. 0. 0. 0. 0. 0. 0. 0. 0. 0. 0. 0. 0.
      0. 0. 0. 0. 0. 0. 0. 0. 0. 0. 0. 0. 0. 0. 0. 0. 0. 1.05263162e-02
      0. 0. 0. 0. 0. 0. 0. 0. 0. 0. 0. 0. 0. 0. 0. 0. 0. 0. 0. 0. 0. 0.
      0. 0. 0. 0. 0. 0. 0. 0. 0. 0. 0. 0. 0. 0. 0. 1.05263162e-02 0. 0.
      0. 0. 0. 0. 0. 0. 0. 0. 0. 0. 0. 0. 0. 0. 0. 0. 0. 1.05263162e-02
      0. 0. 0. 0. 0. 0. 0. 0. 0. 0. 0. 0. 0. 1.05263162e-02 0. 0. 0. 0.
      0. 0. 0. 0. 0. 0. 1.05263162e-02 1.05263162e-02 0. 0. 0. 0. 0. 0.
      0. 0. 0. 0. 0. 1.05263162e-02 0. 0. 0. 0. 0. 0. 0. 0. 0.
      1.05263162e-02 0. 0. 0. 0. 0. 0. 0. 0. 0. 0. 0. 0. 0. 0. 0. 0. 0.
      0. 0. 0. 0. 0. 0. 0. 0. 0. 0. 0. 0. 0. 0. 0. 0. 0. 0. 0. 0. 0. 0.
      0. 0. 0. 0. 0. 0. 1.05263162e-02 0. 0. 0. 0. 0. 0. 0. 0. 0.
      1.05263162e-02 0. 0. 0. 0. 1.05263162e-02 0. 0. 0. 0. 0. 0. 0. 0.
      0. 0. 0. 0. 1.05263162e-02 0. 0. 0. 0. 0. 0. 0. 0. 0. 0. 0. 0. 0.
      0. 0. 0. 0. 0. 0. 0. 0. 0. 0. 0. 0. 0. 1.05263162e-02 0. 0.
      1.05263162e-02 0. 0. 0. 0. 0. 0. 0. 0. 1.05263162e-02 0. 0. 0.
      1.05263162e-02 0. 0. 1.05263162e-02 0. 0. 0. 0. 0. 0. 0. 0. 0. 0.
      0. 0. 0. 0. 0. 1.05263162e-02 0. 0. 0. 0. 0. 0. 0. 0. 0. 0. 0. 0.
      0. 0. 0. 0. 1.05263162e-02 1.05263162e-02 0. 0. 1.05263162e-02 0.
      0. 0. 0. 0. 1.05263162e-02 0. 1.05263162e-02 0. 0. 1.05263162e-02
      0. 0. 1.05263162e-02 0. 0. 0. 0. 0. 1.05263162e-02 0. 0. 0. 0. 0.
      0. 0. 0. 0. 0. 0. 0. 0. 0. 0. 0. 0. 0. 0. 0. 0. 0. 0. 0. 0. 0. 0.
      0. 0. 1.05263162e-02 0. 0. 0. 0. 0. 0. 0. 0. 0. 0. 0. 0. 0. 0. 0.
      0. 0. 0. 0. 0. 0. 0. 0. 0. 0. 0. 0. 1.05263162e-02 0. 0. 0. 0. 0.
      0. 0. 1.05263162e-02 0. 0. 0. 0. 0. 0. 2.10526325e-02 0. 0. 0. 0.
      0. 0. 0. 0. 0. 0. 0. 0. 0. 0. 0. 0. 0. 0. 0. 0. 0. 0. 0. 0. 0. 0.
      0. 0. 0. 0. 0. 0. 0. 0. 0. 0. 0. 0. 0. 0. 0. 0. 0. 2.10526325e-02
      0. 0. 0. 0. 0. 0. 0. 0. 0. 0. 0. 1.05263162e-02 0. 0. 0. 0. 0. 0.
      0. 0. 0. 0. 0. 0. 0. 0. 0. 0. 0. 0. 1.05263162e-02 0. 0. 0. 0. 0.
      0. 0. 0. 0. 1.05263162e-02 0. 0. 0. 0. 0. 0. 0. 0. 0. 0. 0. 0. 0.
      0. 0. 1.05263162e-02 0. 0. 0. 0. 0. 0. 0. 0. 0. 0. 0. 0.
      1.05263162e-02 0. 0. 0. 0. 0. 0. 0. 0. 0. 0. 1.05263162e-02 0. 0.
      1.05263162e-02 0. 0. 0. 0. 0. 0. 0. 0. 0. 0. 0. 0. 0. 0. 0. 0. 0.
      0. 0. 0. 0. 0. 0. 1.05263162e-02 0. 0. 0. 0. 0. 0. 2.10526325e-02
      0. 0. 0. 0. 0. 0. 1.05263162e-02 1.05263162e-02 0. 0. 0. 0.
      2.10526325e-02 0. 0. 1.05263162e-02 0. 0. 0. 0. 0. 0. 0.
      1.05263162e-02 0. 0. 0. 1.05263162e-02 0. 0. 0. 0. 0. 0. 0. 0. 0.
      0. 0. 0. 0. 0. 1.05263162e-02 0. 0. 0. 0. 0. 0. 1.05263162e-02 0.
      0. 0. 0. 0. 0. 0. 0. 0. 0. 0. 1.05263162e-02 0. 0. 0.
      1.05263162e-02 0. 0. 0. 1.05263162e-02 0. 0. 0. 0. 0. 0. 0. 0. 0.
      0. 0. 0. 0. 0. 0. 0. 0. 0. 0. 0. 0. 0. 0. 0. 0. 0. 0. 0. 0. 0.
      1.05263162e-02 0. 0. 0. 0. 0. 0. 0. 0. 1.05263162e-02
      1.05263162e-02 0. 0. 0. 0. 0. 0. 1.05263162e-02 0. 1.05263162e-02
      0. 0. 0. 0. 0. 0. 0. 0. 1.05263162e-02 0. 0. 0. 0. 0. 0. 0. 0.
      2.10526325e-02 0. 0. 0. 0. 0. 0. 0. 0. 0. 0. 0. 0. 0. 0. 0. 0. 0.
      0. 0. 0. 0. 0. 0. 0. 0. 0. 0. 0. 0. 0. 1.05263162e-02
      1.05263162e-02 1.05263162e-02 0. 0. 1.05263162e-02 0.
      1.05263162e-02 1.05263162e-02 0. 1.05263162e-02 0. 0. 0. 0. 0. 0.
      0. 0. 0. 0. 0. 0. 0. 0. 0. 0. 0. 0. 0. 0. 0. 0. 0. 0. 0. 0. 0. 0.
      0. 0. 0. 0. 0. 0. 0. 0. 0. 0. 0. 0. 0. 0. 0. 0. 1.05263162e-02 0.
      0. 0. 0. 1.05263162e-02 0. 0. 0. 0. 0. 0. 0. 0. 0. 0. 0. 0. 0.
      1.05263162e-02 0. 0. 0. 1.05263162e-02 0. 0. 0. 0. 0. 0. 0. 0. 0.
      0. 0. 0. 0. 0. 0. 0. 0. 0. 0. 0. 0. 0. 0. 0. 0. 1.05263162e-02 0.
      0. 0. 0. 0. 0. 0. 0. 0. 0. 0. 0. 0. 0. 0. 0. 0. 0. 0. 0. 0. 0.
      1.05263162e-02 0. 0. 0. 0. 0. 0. 0. 0. 0. 1.05263162e-02 0. 0. 0.
      0. 0. 1.05263162e-02 0. 0. 0. 0. 0. 0. 0. 0. 0. 3.15789506e-02 0.
      0. 0. 0. 0. 0. 1.05263162e-02 0. 0. 0. 0. 0. 0. 0. 0. 0. 0. 0. 0.
      0. 0. 0. 0. 1.05263162e-02 0. 0. 0. 0. 0. 0. 0. 0. 0. 0. 0.
      1.05263162e-02 0. 0. 0. 0. 0. 0. 1.05263162e-02 1.05263162e-02
      1.05263162e-02 0. 1.05263162e-02 0. 0. 0. 0. 0. 1.05263162e-02 0.
      0. 1.05263162e-02 0. 0. 0. 0. 0. 0. 0. 0. 0. 0. 0. 0. 0. 0. 0.
      1.05263162e-02 0.</_>
    <_>
      0. 0. 3.51246941e-04 1.75623468e-03 3.51246941e-04 3.51246941e-04
      7.02493882e-04 7.02493882e-04 1.05374085e-03 7.02493882e-04
      2.45872862e-03 1.05374085e-03 2.45872862e-03 0. 3.51246941e-04
      1.05374085e-03 1.75623468e-03 0. 0. 2.10748171e-03 1.40498776e-03
      0. 4.91745723e-03 7.02493882e-04 2.10748171e-03 1.05374085e-03 0.
      1.05374085e-03 3.51246941e-04 3.51246941e-04 3.51246941e-04 0.
      1.05374085e-03 1.40498776e-03 3.51246941e-04 7.02493882e-04
      3.51246941e-04 0. 0. 2.10748171e-03 0. 1.75623468e-03
      1.40498776e-03 0. 1.40498776e-03 3.51246941e-04 2.45872862e-03
      7.02493882e-04 1.40498776e-03 0. 1.40498776e-03 7.02493882e-04
      1.05374085e-03 3.51246941e-04 3.51246941e-04 0. 0. 7.02493882e-04
      0. 7.02493882e-04 7.02493882e-04 1.05374085e-03 3.51246941e-04 0.
      1.05374085e-03 0. 3.51246941e-04 7.02493882e-04 7.02493882e-04
      2.80997553e-03 0. 3.51246941e-04 0. 1.40498776e-03 1.40498776e-03
      1.05374085e-03 3.51246941e-04 1.08886547e-02 0. 0. 3.51246941e-04
      0. 3.51246941e-04 3.51246941e-04 3.51246941e-04 0. 2.80997553e-03
      3.51246941e-04 3.51246941e-04 1.05374085e-03 3.51246941e-04
      2.45872862e-03 1.05374085e-03 2.10748171e-03 1.40498776e-03
      2.80997553e-03 3.51246941e-04 0. 2.80997553e-03 0. 7.02493882e-04
      0. 7.02493882e-04 1.40498776e-03 1.40498776e-03 1.75623468e-03
      1.75623468e-03 7.02493882e-04 0. 2.10748171e-03 0. 0.
      3.51246941e-04 1.75623468e-03 3.51246941e-04 3.51246941e-04
      1.05374085e-03 3.51246941e-04 3.51246935e-03 0. 1.05374085e-03
      3.51246941e-04 0. 0. 2.45872862e-03 2.10748171e-03 0. 0.
      7.02493882e-04 0. 7.02493882e-04 2.10748171e-03 1.40498776e-03
      3.51246935e-03 3.51246941e-04 3.51246941e-04 3.51246941e-04
      3.51246941e-04 1.75623468e-03 0. 1.40498776e-03 1.40498776e-03
      7.02493882e-04 1.05374085e-03 7.02493882e-04 1.40498776e-03
      1.05374085e-03 0. 1.40498776e-03 3.51246935e-03 0. 3.51246941e-04
      3.51246941e-04 1.05374085e-03 0. 3.51246935e-03 0. 0.
      2.80997553e-03 1.05374085e-03 2.80997553e-03 0. 0. 1.75623468e-03
      7.02493882e-04 1.01861609e-02 3.51246941e-04 2.45872862e-03
      7.02493882e-04 1.05374085e-03 0. 2.10748171e-03 7.02493882e-04
      1.05374085e-03 3.51246941e-04 3.51246941e-04 7.02493882e-04
      1.05374085e-03 3.51246941e-04 1.05374085e-03 7.02493882e-04
      2.45872862e-03 3.51246941e-04 0. 0. 7.02493882e-04 7.02493882e-04
      3.51246941e-04 1.40498776e-03 0. 2.80997553e-03 1.40498776e-03
      7.02493882e-04 1.05374085e-03 0. 3.51246941e-04 0. 7.02493882e-04
      0. 2.10748171e-03 0. 6.67369179e-03 1.05374085e-03 2.80997553e-03
      7.02493882e-04 0. 0. 3.51246941e-04 7.02493882e-04 1.05374085e-03
      1.05374085e-03 3.51246941e-04 3.51246941e-04 2.45872862e-03
      7.02493882e-04 4.56621032e-03 7.02493882e-04 7.02493882e-04
      3.51246941e-04 2.80997553e-03 3.51246941e-04 1.75623468e-03
      1.75623468e-03 2.10748171e-03 0. 7.02493882e-04 7.02493882e-04
      1.40498776e-03 0. 0. 3.51246941e-04 3.51246941e-04 3.51246941e-04
      1.05374085e-03 1.40498776e-03 1.40498776e-03 7.02493882e-04
      1.05374085e-03 3.51246941e-04 0. 7.02493882e-04 7.02493882e-04
      7.02493882e-04 3.51246941e-04 3.51246941e-04 2.45872862e-03
      3.51246941e-04 2.80997553e-03 7.02493882e-04 7.02493882e-04 0.
      7.02493882e-04 3.51246941e-04 7.02493882e-04 7.02493882e-04 0.
      1.40498776e-03 3.51246941e-04 7.02493882e-04 1.75623468e-03 0. 0.
      2.10748171e-03 0. 0. 1.40498776e-03 6.32244488e-03 3.51246941e-04
      3.51246941e-04 7.02493882e-04 7.02493882e-04 1.05374085e-03 0.
      4.56621032e-03 7.02493882e-04 7.02493882e-04 1.40498776e-03
      1.05374085e-03 1.75623468e-03 0. 1.40498776e-03 2.10748171e-03
      2.10748171e-03 7.02493882e-04 3.51246935e-03 7.02493882e-04
      7.02493882e-04 1.05374085e-03 3.51246941e-04 0. 1.05374085e-03
      3.51246941e-04 1.05374085e-03 0. 0. 3.51246941e-04 3.51246935e-03
      1.05374085e-03 3.51246941e-04 1.40498776e-03 7.02493882e-04
      6.67369179e-03 0. 3.51246941e-04 1.05374085e-03 0. 1.40498776e-03
      3.51246941e-04 1.05374085e-03 4.56621032e-03 2.45872862e-03
      1.05374085e-03 7.02493882e-04 3.51246941e-04 2.10748171e-03 0.
      1.40498776e-03 7.02493882e-04 1.75623468e-03 3.86371627e-03
      9.83491447e-03 7.02493882e-04 1.40498776e-03 0. 0. 1.40498776e-03
      7.02493882e-04 5.26870415e-03 3.51246941e-04 2.80997553e-03
      1.40498776e-03 7.02493882e-04 3.51246941e-04 0. 1.75623468e-03
      2.45872862e-03 3.51246941e-04 1.40498776e-03 0. 2.45872862e-03 0.
      1.75623468e-03 2.10748171e-03 2.80997553e-03 2.10748171e-03
      3.51246941e-04 3.51246941e-04 0. 1.05374085e-03 1.75623468e-03
      3.86371627e-03 1.40498776e-03 3.51246941e-04 0. 3.51246941e-04
      1.40498776e-03 7.02493882e-04 0. 2.45872862e-03 0. 1.05374085e-03
      1.05374085e-03 3.51246941e-04 7.02493882e-04 3.51246941e-04 0.
      7.02493882e-04 0. 1.75623468e-03 3.51246941e-04 3.51246941e-04
      3.51246941e-04 0. 2.10748171e-03 0. 1.40498776e-03 3.51246941e-04
      3.51246941e-04 7.02493882e-04 1.05374085e-03 7.02493882e-04
      1.40498776e-03 3.51246941e-04 3.51246941e-04 3.51246941e-04
      3.51246941e-04 0. 0. 3.51246941e-04 0. 0. 3.51246941e-04
      2.80997553e-03 1.05374085e-03 0. 0. 2.10748171e-03 7.02493882e-04
      1.40498776e-03 1.05374085e-03 0. 0. 2.10748171e-03 1.75623468e-03
      1.05374085e-03 3.51246941e-04 1.40498776e-03 1.05374085e-03
      1.40498776e-03 2.10748171e-03 1.05374085e-03 7.02493882e-04
      3.51246941e-04 3.51246941e-04 3.51246935e-03 7.02493882e-04
      3.51246941e-04 1.75623468e-03 0. 2.45872862e-03 7.02493882e-04 0.
      1.40498776e-03 7.02493882e-04 0. 1.05374085e-03 0. 7.02493882e-04
      0. 2.80997553e-03 1.40498776e-03 4.21496341e-03 7.02493882e-04
      1.40498776e-03 7.02493882e-04 0. 1.75623468e-03 0. 2.10748171e-03
      3.51246941e-04 3.51246941e-04 0. 3.51246941e-04 1.05374085e-03 0.
      0. 1.75623468e-03 1.05374085e-03 2.80997553e-03 0. 0.
      7.02493882e-04 0. 0. 0. 2.80997553e-03 2.10748171e-03 0.
      3.51246941e-04 2.80997553e-03 3.51246941e-04 7.02493882e-04
      3.16122244e-03 1.05374085e-03 7.02493882e-04 1.75623468e-03
      7.02493882e-04 7.02493882e-04 0. 7.02493882e-04 1.05374085e-03 0.
      1.40498776e-03 7.02493882e-04 3.51246941e-04 3.51246941e-04
      1.05374085e-03 3.51246941e-04 1.05374085e-03 7.02493882e-04 0.
      7.02493882e-04 7.02493882e-04 3.51246941e-04 1.05374085e-03
      3.51246941e-04 3.51246941e-04 1.05374085e-03 1.40498776e-03
      1.05374085e-03 1.05374085e-03 0. 1.75623468e-03 3.51246941e-04
      3.51246941e-04 1.05374085e-03 0. 3.51246941e-04 1.40498776e-03
      7.02493882e-04 3.16122244e-03 1.40498776e-03 7.02493882e-04
      7.02493882e-04 0. 2.10748171e-03 1.05374085e-03 0. 7.02493882e-04
      0. 0. 1.05374085e-03 7.02493882e-04 1.05374085e-03 3.51246941e-04
      0. 0. 1.05374085e-03 3.16122244e-03 3.51246941e-04 7.02493882e-04
      0. 2.10748171e-03 7.02493882e-04 1.40498776e-03 3.51246941e-04
      1.05374085e-03 1.40498776e-03 3.51246941e-04 2.45872862e-03 0.
      1.75623468e-03 7.02493882e-04 1.05374085e-03 1.05374085e-03
      7.02493882e-04 1.05374085e-03 0. 7.02493882e-04 7.02493882e-04
      1.05374085e-03 7.02493882e-04 7.02493882e-04 3.51246941e-04
      3.51246941e-04 0. 1.05374085e-03 0. 0. 7.02493882e-04 0.
      1.40498776e-03 1.05374085e-03 3.51246941e-04 7.02493882e-04
      1.40498776e-03 1.05374085e-03 3.51246941e-04 1.05374085e-03
      1.05374085e-03 1.40498776e-03 7.02493882e-04 1.75623468e-03
      1.05374085e-03 7.02493882e-04 0. 3.51246941e-04 3.51246941e-04
      7.02493882e-04 1.40498776e-03 0. 1.40498776e-03 1.40498776e-03
      2.45872862e-03 1.40498776e-03 0. 1.40498776e-03 1.05374085e-03
      2.45872862e-03 7.02493882e-04 2.10748171e-03 3.51246941e-04
      2.80997553e-03 0. 7.02493882e-04 3.51246941e-04 1.05374085e-03 0.
      1.05374085e-03 7.02493871e-03 3.51246941e-04 7.02493882e-04
      3.51246941e-04 3.51246941e-04 1.05374085e-03 0. 3.51246941e-04
      1.40498776e-03 1.05374085e-03 7.02493882e-04 1.05374085e-03
      3.51246941e-04 0. 3.51246941e-04 1.05374085e-03 7.02493882e-04
      1.40498776e-03 2.45872862e-03 1.75623468e-03 2.45872862e-03
      3.51246941e-04 2.10748171e-03 7.02493882e-04 7.02493882e-04
      7.02493882e-04 1.40498776e-03 7.02493882e-04 0. 1.40498776e-03
      9.83491447e-03 2.45872862e-03 0. 0. 1.75623468e-03 3.51246941e-04
      7.02493882e-04 0. 1.40498776e-03 1.40498776e-03 3.51246941e-04
      3.51246941e-04 3.51246941e-04 3.51246941e-04 7.02493882e-04
      2.10748171e-03 1.75623468e-03 3.51246941e-04 0. 2.80997553e-03 0.
      1.05374085e-03 1.75623468e-03 0. 7.02493882e-04 2.45872862e-03
      1.05374085e-03 1.75623468e-03 1.40498776e-03 7.02493882e-04
      3.51246941e-04 1.75623468e-03 2.10748171e-03 1.05374085e-03
      1.05374085e-03 2.45872862e-03 3.51246941e-04 1.05374085e-03 0.
      7.02493882e-04 0. 1.05374085e-03 1.40498776e-03 4.56621032e-03
      7.02493882e-04 1.05374085e-03 1.40498776e-03 2.10748171e-03
      7.02493882e-04 0. 2.10748171e-03 1.75623468e-03 1.40498776e-03
      7.02493882e-04 7.02493882e-04 7.02493882e-04 1.05374085e-03
      1.40498776e-03 1.40498776e-03 1.40498776e-03 1.05374085e-03
      7.02493882e-04 0. 2.10748171e-03 7.02493882e-04 3.51246941e-04
      2.10748171e-03 3.51246941e-04 1.40498776e-03 7.02493882e-04 0.
      1.40498776e-03 3.51246941e-04 0. 0. 3.51246941e-04 0.
      1.05374085e-03 1.75623468e-03 0. 0. 3.51246941e-04 1.75623468e-03
      1.75623468e-03 0. 1.05374085e-03 0. 1.40498776e-03 1.05374085e-03
      1.05374085e-03 1.40498776e-03 3.51246941e-04 1.05374085e-03
      7.02493882e-04 1.75623468e-03 1.05374085e-03 3.51246941e-04
      2.10748171e-03 7.02493882e-04 0. 0. 1.05374085e-03 0.
      4.91745723e-03 0. 2.10748171e-03 0. 4.56621032e-03 3.51246941e-04
      1.05374085e-03 1.75623468e-03 7.02493882e-04 3.51246941e-04 0.
      1.75623468e-03 3.51246941e-04 1.05374085e-03 1.40498776e-03 0.
      1.05374085e-03 3.51246941e-04 1.05374085e-03 1.75623468e-03
      1.40498776e-03 3.51246941e-04 7.02493882e-04 0. 7.02493882e-04
      1.40498776e-03 7.02493882e-04 7.02493882e-04 1.75623468e-03
      3.51246941e-04 7.02493882e-04 1.05374085e-03 7.02493882e-04
      2.45872862e-03 3.51246941e-04 7.02493882e-04 2.10748171e-03
      7.02493882e-04 0. 3.51246941e-04 0. 3.51246941e-04 0.
      3.51246941e-04 2.10748171e-03 3.51246941e-04 7.02493882e-04
      3.51246941e-04 1.05374085e-03 3.16122244e-03 1.05374085e-03
      1.40498776e-03 7.02493882e-04 2.10748171e-03 0. 7.02493882e-04
      1.40498776e-03 1.40498776e-03 1.05374085e-03 3.51246941e-04
      1.05374085e-03 3.51246941e-04 1.75623468e-03 7.02493882e-04
      3.51246941e-04 1.75623468e-03 3.51246941e-04 7.02493882e-04
      1.05374085e-03 2.10748171e-03 3.86371627e-03 1.05374085e-03
      1.75623468e-03 1.40498776e-03 1.40498776e-03 0. 7.02493882e-04 0.
      7.02493882e-04 3.51246941e-04 2.10748171e-03 0. 2.45872862e-03
      7.02493882e-04 1.05374085e-03 3.51246941e-04 1.40498776e-03
      3.51246941e-04 1.05374085e-03 7.02493882e-04 3.51246941e-04
      7.02493882e-04 2.45872862e-03 1.05374085e-03 0. 1.75623468e-03
      3.51246941e-04 3.51246941e-04 1.05374085e-03 0. 0. 7.02493882e-04
      1.40498776e-03 3.51246941e-04 3.51246941e-04 1.05374085e-03
      2.45872862e-03 0. 3.51246941e-04 1.05374085e-03 3.51246941e-04
      1.05374085e-03 3.51246941e-04 1.05374085e-03 7.02493882e-04
      1.75623468e-03 3.51246941e-04 3.51246941e-04 1.40498776e-03 0.
      1.05374085e-03 1.05374085e-03 1.40498776e-03 1.75623468e-03
      3.51246941e-04 1.40498776e-03 3.51246941e-04 3.51246941e-04
      1.40498776e-03 0. 0. 1.40498776e-03 3.51246935e-03 2.10748171e-03
      1.40498776e-03 1.05374085e-03 2.10748171e-03 2.10748171e-03 0.
      3.51246941e-04 0. 3.51246935e-03 7.02493882e-04 1.05374085e-03
      2.45872862e-03 5.61995106e-03 3.51246941e-04 1.40498776e-03
      1.75623468e-03 0. 1.75623468e-03 0. 0. 1.05374085e-03
      7.02493882e-04 1.75623468e-03 7.02493882e-04 2.10748171e-03
      3.51246941e-04 3.51246941e-04 3.51246941e-04 1.75623468e-03
      2.45872862e-03 3.51246941e-04 1.40498776e-03 1.05374085e-03
      3.16122244e-03 1.75623468e-03 1.05374085e-03 0. 0. 3.51246941e-04
      3.16122244e-03 1.05374085e-03 1.05374085e-03 7.02493882e-04
      7.02493882e-04 3.51246941e-04 7.02493882e-04 7.02493882e-04
      7.02493882e-04 0. 3.51246941e-04 1.05374085e-03 1.05374085e-03
      2.10748171e-03 7.02493882e-04 1.05374085e-03 1.75623468e-03
      7.02493882e-04 3.51246941e-04 3.51246941e-04 7.02493882e-04
      2.45872862e-03 1.75623468e-03 7.02493882e-04 0. 1.75623468e-03 0.
      1.40498776e-03 3.51246941e-04 7.02493882e-04 7.02493882e-04
      1.75623468e-03 7.02493882e-04 1.05374085e-03 1.75623468e-03
      7.02493882e-04 0. 7.02493882e-04 7.02493882e-04 1.75623468e-03
      1.75623468e-03 0. 3.51246941e-04 1.05374085e-03 7.02493882e-04
      1.75623468e-03 3.51246941e-04 7.02493882e-04 7.02493882e-04
      3.16122244e-03 8.07867944e-03 7.02493882e-04 2.80997553e-03 0.
      1.05374085e-03 3.51246941e-04 1.05374085e-03 3.51246941e-04
      7.02493882e-04 1.05374085e-03 7.02493882e-04 0. 1.05374085e-03 0.
      0. 3.51246941e-04 0. 1.75623468e-03 3.51246941e-04 1.40498776e-03
      3.51246941e-04 2.45872862e-03 0. 1.05374085e-03 1.05374085e-03
      1.75623468e-03 0. 7.02493882e-04 3.51246941e-04 0. 7.02493882e-04
      0. 7.02493882e-04 2.10748171e-03 7.02493882e-04 1.40498776e-03
      1.05374085e-03 3.51246941e-04 7.02493882e-04 7.02493882e-04
      1.05374085e-03 7.02493882e-04 3.51246941e-04 3.16122244e-03
      7.02493882e-04 1.40498776e-03 0. 3.51246941e-04 7.02493882e-04
      1.05374085e-03 0. 7.02493882e-04 1.40498776e-03 1.40498776e-03
      1.75623468e-03 3.51246941e-04</_>
    <_>
      0. 0. 0. 7.14285718e-03 0. 0. 7.14285718e-03 0. 0. 0. 0. 0. 0. 0.
      0. 0. 0. 0. 0. 0. 0. 0. 0. 0. 7.14285718e-03 0. 0. 0. 0. 0. 0. 0.
      0. 0. 0. 0. 0. 0. 0. 0. 0. 0. 0. 0. 0. 0. 0. 0. 0. 0. 0. 0. 0. 0.
      0. 0. 0. 7.14285718e-03 0. 0. 0. 0. 0. 0. 0. 0. 0. 0. 0. 0. 0. 0.
      0. 0. 0. 0. 0. 0. 0. 0. 0. 0. 0. 0. 0. 0. 0. 0. 0. 0. 0. 0. 0. 0.
      0. 0. 0. 0. 7.14285718e-03 0. 0. 0. 0. 7.14285718e-03 0. 0. 0. 0.
      0. 0. 0. 0. 0. 0. 0. 0. 0. 0. 0. 0. 0. 0. 0. 0. 0. 0. 0. 0. 0. 0.
      0. 0. 0. 0. 0. 0. 0. 0. 0. 0. 0. 0. 0. 0. 0. 0. 0. 0. 0. 0. 0. 0.
      0. 0. 0. 0. 0. 0. 7.14285718e-03 0. 0. 0. 0. 0. 0. 0. 0. 0. 0. 0.
      0. 0. 0. 0. 0. 0. 0. 0. 0. 0. 0. 0. 0. 0. 0. 0. 0. 0. 0. 0. 0. 0.
      0. 0. 0. 0. 0. 0. 7.14285718e-03 0. 0. 7.14285718e-03 0. 0. 0. 0.
      0. 0. 7.14285718e-03 0. 0. 0. 0. 0. 0. 0. 0. 1.42857144e-02 0. 0.
      0. 0. 0. 0. 0. 0. 0. 0. 0. 0. 0. 0. 0. 0. 0. 0. 0. 0. 0. 0. 0. 0.
      0. 0. 0. 0. 7.14285718e-03 0. 0. 0. 0. 0. 0. 0. 0. 0.
      7.14285718e-03 0. 0. 0. 0. 0. 0. 0. 0. 0. 0. 0. 0. 1.42857144e-02
      0. 0. 0. 0. 0. 0. 0. 0. 0. 0. 0. 0. 2.14285720e-02 0. 0. 0. 0. 0.
      0. 0. 0. 0. 7.14285718e-03 7.14285718e-03 0. 7.14285718e-03 0. 0.
      0. 1.42857144e-02 0. 0. 0. 0. 0. 0. 0. 0. 0. 0. 0. 0. 0. 0. 0. 0.
      0. 0. 0. 0. 0. 0. 0. 0. 0. 0. 0. 0. 0. 0. 7.14285718e-03 0. 0. 0.
      0. 7.14285718e-03 0. 0. 0. 0. 0. 0. 0. 0. 0. 0. 0. 0. 0. 0. 0. 0.
      0. 0. 0. 0. 0. 0. 0. 0. 0. 0. 0. 0. 0. 0. 7.14285718e-03 0. 0. 0.
      7.14285718e-03 0. 0. 0. 0. 0. 0. 0. 1.42857144e-02 0. 0. 0. 0. 0.
      0. 0. 0. 0. 0. 0. 0. 0. 0. 7.14285718e-03 0. 0. 0. 0. 0. 0. 0. 0.
      7.14285718e-03 0. 7.14285718e-03 0. 0. 0. 0. 0. 0. 0. 0. 0. 0. 0.
      0. 0. 0. 0. 0. 0. 0. 0. 0. 0. 0. 0. 0. 0. 0. 0. 0. 0. 0. 0. 0. 0.
      0. 0. 0. 0. 0. 0. 0. 0. 2.14285720e-02 0. 0. 0. 0. 0. 0. 0. 0. 0.
      0. 0. 0. 0. 0. 0. 0. 0. 0. 0. 0. 0. 0. 0. 0. 0. 0. 0. 0. 0.
      1.42857144e-02 0. 0. 0. 0. 0. 0. 0. 7.14285718e-03 0. 0. 0. 0. 0.
      0. 0. 7.14285718e-03 0. 0. 0. 0. 0. 0. 0. 7.14285718e-03
      7.14285718e-03 7.14285718e-03 0. 0. 0. 0. 0. 7.14285718e-03 0. 0.
      0. 7.14285718e-03 0. 1.42857144e-02 0. 0. 0. 0. 0. 0. 0. 0. 0. 0.
      0. 0. 0. 0. 0. 0. 0. 0. 0. 0. 0. 0. 0. 7.14285718e-03 0. 0. 0. 0.
      0. 0. 0. 0. 0. 0. 0. 0. 0. 2.14285720e-02 0. 0. 0. 0. 0. 0. 0. 0.
      0. 0. 0. 0. 0. 0. 0. 1.42857144e-02 0. 0. 0. 0. 0. 0. 0. 0. 0. 0.
      0. 0. 0. 0. 0. 0. 0. 0. 0. 0. 0. 0. 0. 0. 0. 0. 0. 0.
      7.14285718e-03 0. 0. 0. 0. 7.14285718e-03 0. 0. 0. 0.
      7.14285718e-03 0. 0. 0. 0. 0. 0. 0. 0. 0. 0. 0. 0. 0. 0. 0. 0. 0.
      0. 0. 7.14285718e-03 0. 0. 0. 0. 0. 0. 1.42857144e-02
      2.14285720e-02 0. 0. 0. 0. 0. 0. 0. 0. 0. 0. 0. 0. 0. 0. 0.
      2.14285720e-02 0. 0. 0. 0. 0. 0. 0. 0. 0. 0. 0. 0. 0.
      7.14285718e-03 0. 7.14285718e-03 0. 7.14285718e-03 0. 0.
      7.14285718e-03 0. 0. 2.14285720e-02 7.14285718e-03 0. 0. 0. 0. 0.
      7.14285718e-03 0. 0. 0. 0. 0. 1.42857144e-02 0. 1.42857144e-02 0.
      0. 7.14285718e-03 0. 0. 0. 0. 0. 0. 0. 0. 2.14285720e-02 0. 0. 0.
      0. 0. 0. 0. 0. 7.14285718e-03 0. 0. 0. 7.14285718e-03 0. 0. 0.
      7.14285718e-03 0. 0. 0. 7.14285718e-03 0. 0. 0. 0. 0. 0. 0. 0. 0.
      0. 0. 0. 0. 0. 7.14285718e-03 0. 0. 0. 0. 0. 7.14285718e-03 0. 0.
      0. 2.14285720e-02 0. 0. 0. 0. 0. 0. 0. 0. 0. 0. 0. 7.14285718e-03
      0. 0. 0. 0. 7.14285718e-03 0. 0. 0. 0. 0. 0. 7.14285718e-03
      7.14285718e-03 0. 0. 0. 0. 0. 0. 0. 2.85714287e-02 0. 0. 0. 0. 0.
      7.14285718e-03 0. 0. 0. 0. 0. 0. 7.14285718e-03 0. 0. 0. 0. 0. 0.
      0. 1.42857144e-02 0. 0. 0. 0. 0. 0. 0. 7.14285718e-03 0. 0. 0. 0.
      0. 0. 0. 0. 7.14285718e-03 0. 0. 0. 0. 0. 0. 0. 0. 0. 0. 0. 0. 0.
      0. 0. 0. 0. 0. 0. 0. 0. 7.14285718e-03 0. 7.14285718e-03 0.
      7.14285718e-03 0. 0. 0. 0. 0. 0. 0. 0. 0. 0. 2.14285720e-02
      7.14285718e-03 1.42857144e-02 0. 0. 0. 0. 0. 0. 0. 0. 0. 0. 0. 0.
      0. 7.14285718e-03 0. 0. 0. 0. 0. 0. 0. 0. 0. 0. 2.14285720e-02 0.
      0. 0. 0. 0. 0. 0. 0. 0. 0. 0. 0. 0. 0. 0. 0. 0. 0. 0. 0. 0. 0. 0.
      0. 0. 0. 0. 1.42857144e-02 0. 0. 0. 0. 7.14285718e-03 0. 0. 0. 0.
      0. 7.14285718e-03 0. 0. 7.14285718e-03 0. 0. 0. 7.14285718e-03 0.
      0. 7.14285718e-03 0. 0. 7.14285718e-03 0. 0. 0. 0. 0. 0.
      1.42857144e-02 7.14285718e-03 1.42857144e-02 0. 0. 0. 0. 0.
      7.14285718e-03 0. 0. 0. 0. 0. 0. 0. 0. 0. 0. 7.14285718e-03 0. 0.
      7.14285718e-03 0. 0. 2.14285720e-02 0. 0. 0. 0. 0. 0. 0. 0. 0. 0.
      0. 0. 0. 0. 0. 0. 0. 0. 0. 0. 0. 1.42857144e-02 0. 0. 0. 0. 0. 0.
      0. 7.14285718e-03 0. 0.</_>
    <_>
      0. 0. 0. 0. 0. 0. 0. 0. 0. 0. 0. 0. 0. 0. 6.02409616e-03 0. 0. 0.
      0. 0. 0. 0. 0. 0. 0. 0. 0. 0. 0. 0. 0. 0. 0. 0. 0. 0. 0. 0. 0. 0.
      0. 0. 0. 0. 0. 0. 0. 0. 0. 0. 6.02409616e-03 0. 0. 0. 0. 0. 0. 0.
      0. 0. 0. 0. 0. 0. 0. 0. 6.02409616e-03 0. 1.20481923e-02 0. 0. 0.
      0. 6.02409616e-03 0. 0. 0. 0. 0. 0. 0. 0. 0. 6.02409616e-03 0. 0.
      0. 0. 0. 0. 0. 0. 0. 0. 0. 0. 0. 0. 0. 0. 0. 0. 0. 0. 0.
      6.02409616e-03 0. 0. 0. 0. 0. 0. 0. 0. 0. 0. 0. 0. 0. 0. 0. 0. 0.
      0. 0. 0. 0. 0. 0. 0. 0. 0. 0. 0. 0. 0. 0. 0. 0. 0. 0. 0. 0. 0. 0.
      0. 0. 0. 0. 0. 0. 0. 0. 0. 0. 0. 0. 0. 0. 0. 6.02409616e-03
      6.02409616e-03 0. 0. 0. 0. 0. 0. 0. 0. 0. 0. 0. 0. 0. 0. 0. 0. 0.
      6.02409616e-03 0. 0. 6.02409616e-03 0. 0. 0. 0. 0. 0. 0. 0. 0. 0.
      6.02409616e-03 0. 0. 0. 0. 6.02409616e-03 0. 0. 0. 0. 0. 0.
      6.02409616e-03 0. 0. 0. 0. 0. 0. 0. 0. 6.02409616e-03 0. 0. 0. 0.
      0. 6.02409616e-03 0. 0. 0. 0. 0. 0. 0. 0. 0. 0. 0. 0. 0. 0. 0. 0.
      0. 0. 0. 0. 0. 0. 0. 0. 0. 0. 0. 6.02409616e-03 0. 6.02409616e-03
      0. 6.02409616e-03 0. 0. 0. 1.20481923e-02 0. 0. 0. 0. 0. 0. 0. 0.
      0. 0. 0. 0. 6.02409616e-03 0. 0. 0. 0. 0. 0. 0. 0. 0.
      6.02409616e-03 0. 0. 6.02409616e-03 6.02409616e-03 0. 0. 0. 0. 0.
      0. 0. 0. 0. 0. 0. 0. 0. 0. 0. 0. 6.02409616e-03 0. 0. 0. 0. 0. 0.
      0. 0. 0. 0. 0. 0. 0. 0. 0. 0. 0. 6.02409616e-03 0. 0. 0.
      6.02409616e-03 0. 0. 0. 6.02409616e-03 0. 0. 0. 1.20481923e-02 0.
      0. 0. 0. 0. 0. 0. 0. 0. 0. 0. 0. 0. 0. 0. 0. 0. 0. 0. 0. 0.
      6.02409616e-03 0. 0. 0. 6.02409616e-03 0. 6.02409616e-03 0. 0. 0.
      0. 6.02409616e-03 0. 0. 6.02409616e-03 0. 0. 0. 6.02409616e-03 0.
      0. 0. 0. 0. 0. 0. 0. 1.20481923e-02 6.02409616e-03 0. 0. 0. 0. 0.
      0. 0. 0. 0. 6.02409616e-03 0. 0. 1.20481923e-02 0. 6.02409616e-03
      0. 0. 6.02409616e-03 1.20481923e-02 0. 0. 0. 0. 0. 0.
      6.02409616e-03 0. 0. 0. 0. 0. 6.02409616e-03 0. 0. 0. 0. 0. 0. 0.
      0. 0. 0. 0. 0. 0. 0. 0. 0. 0. 0. 6.02409616e-03 1.20481923e-02
      6.02409616e-03 0. 0. 6.02409616e-03 0. 0. 0. 0. 0. 0.
      6.02409616e-03 0. 6.02409616e-03 1.80722885e-02 0. 0. 0. 0. 0. 0.
      0. 0. 0. 0. 0. 0. 0. 0. 0. 0. 0. 0. 0. 0. 0. 0. 0. 6.02409616e-03
      0. 6.02409616e-03 0. 0. 0. 0. 0. 0. 0. 0. 0. 0. 0. 0. 0. 0.
      1.20481923e-02 1.20481923e-02 0. 6.02409616e-03 0. 0. 0. 0.
      6.02409616e-03 0. 0. 0. 0. 0. 0. 0. 0. 0. 6.02409616e-03 0. 0.
      6.02409616e-03 0. 0. 0. 0. 6.02409616e-03 0. 0. 0. 0. 0. 0.
      1.20481923e-02 0. 6.02409616e-03 0. 0. 0. 0. 0. 0. 0.
      6.02409616e-03 0. 0. 0. 0. 6.02409616e-03 0. 0. 6.02409616e-03 0.
      0. 0. 0. 6.02409616e-03 0. 0. 6.02409616e-03 0. 0. 0. 0. 0. 0. 0.
      0. 0. 0. 0. 0. 0. 0. 6.02409616e-03 0. 0. 0. 0. 0. 0. 0. 0.
      6.02409616e-03 0. 0. 0. 0. 0. 6.02409616e-03 0. 0. 0. 0.
      1.20481923e-02 0. 0. 0. 6.02409616e-03 0. 0. 0. 0. 0. 0. 0.
      6.02409616e-03 0. 0. 0. 0. 0. 6.02409616e-03 0. 0. 6.02409616e-03
      0. 2.40963846e-02 0. 0. 0. 0. 0. 6.02409616e-03 0. 0. 0. 0. 0. 0.
      0. 0. 0. 0. 0. 0. 0. 0. 0. 0. 0. 0. 0. 6.02409616e-03 0. 0. 0. 0.
      0. 0. 6.02409616e-03 0. 0. 0. 0. 0. 0. 0. 0. 0. 0. 6.02409616e-03
      0. 0. 0. 0. 0. 0. 0. 0. 0. 0. 0. 0. 6.02409616e-03 0. 0. 0.
      6.02409616e-03 0. 0. 0. 0. 0. 0. 0. 6.02409616e-03 0. 0.
      6.02409616e-03 0. 0. 0. 0. 6.02409616e-03 0. 0. 0. 6.02409616e-03
      0. 0. 6.02409616e-03 0. 0. 0. 0. 0. 0. 0. 6.02409616e-03
      6.02409616e-03 0. 0. 0. 0. 0. 0. 0. 0. 0. 0. 0. 0. 0. 0. 0. 0. 0.
      6.02409616e-03 0. 0. 0. 0. 0. 0. 0. 6.02409616e-03 0. 0. 0. 0.
      6.02409616e-03 6.02409616e-03 0. 0. 0. 6.02409616e-03 0. 0.
      1.20481923e-02 0. 0. 0. 0. 0. 0. 0. 0. 0. 0. 0. 0. 0. 0. 0. 0. 0.
      0. 0. 0. 0. 0. 0. 0. 0. 6.02409616e-03 0. 0. 0. 0. 0.
      1.20481923e-02 0. 0. 0. 0. 6.02409616e-03 0. 0. 0. 0.
      6.02409616e-03 0. 0. 6.02409616e-03 0. 0. 0. 0. 6.02409616e-03 0.
      0. 0. 0. 0. 0. 0. 0. 0. 0. 0. 0. 0. 6.02409616e-03 6.02409616e-03
      0. 0. 0. 0. 0. 0. 0. 0. 6.02409616e-03 0. 0. 0. 0. 1.80722885e-02
      0. 6.02409616e-03 0. 0. 0. 6.02409616e-03 0. 0. 0. 0.
      6.02409616e-03 0. 0. 0. 0. 0. 6.02409616e-03 0. 0. 0. 0. 0. 0. 0.
      0. 6.02409616e-03 0. 1.80722885e-02 0. 0. 0. 6.02409616e-03 0. 0.
      0. 0. 0. 0. 0. 0. 6.02409616e-03 0. 6.02409616e-03 0. 0. 0. 0. 0.
      0. 0. 0. 0. 0. 0. 0. 0. 6.02409616e-03 0. 0. 0. 0. 0.
      6.02409616e-03 0. 0. 0. 0. 0. 0. 0. 0. 0. 0. 0. 0. 0. 0. 0.
      1.20481923e-02 0. 0. 0. 6.02409616e-03 0. 0. 0. 0. 0. 0.
      1.80722885e-02 0. 6.02409616e-03 0. 0. 0. 0. 0. 0. 0. 0.
      1.20481923e-02 1.20481923e-02 0. 0. 0. 0. 0. 0. 0. 6.02409616e-03
      0. 0. 1.20481923e-02 0. 0. 0. 0. 0. 0. 0. 0. 0. 0. 0. 0. 0. 0. 0.
      0. 6.02409616e-03 0. 6.02409616e-03 0. 0. 0. 0. 1.20481923e-02
      6.02409616e-03 0. 0. 0. 0. 0. 0. 0. 0. 6.02409616e-03
      6.02409616e-03 0. 0. 0. 0. 0. 1.20481923e-02 0. 0. 0. 0. 0. 0.
      6.02409616e-03 0. 0. 6.02409616e-03 6.02409616e-03 0. 0.
      6.02409616e-03 0. 0. 0. 6.02409616e-03 0. 0. 0. 0. 0. 0. 0. 0. 0.
      0. 0. 0.</_>
    <_>
      0. 0. 0. 0. 0. 0. 1.55038759e-02 0. 0. 0. 0. 0. 0. 0.
      7.75193796e-03 0. 0. 0. 0. 0. 7.75193796e-03 7.75193796e-03 0. 0.
      0. 0. 0. 7.75193796e-03 0. 0. 0. 0. 0. 0. 0. 0. 0. 0. 0. 0. 0.
      7.75193796e-03 0. 7.75193796e-03 0. 0. 0. 0. 0. 0. 0. 0. 0. 0. 0.
      0. 0. 0. 0. 0. 0. 0. 0. 0. 0. 0. 0. 0. 0. 0. 0. 0. 0.
      7.75193796e-03 0. 0. 0. 0. 0. 0. 0. 0. 0. 0. 0. 0. 0. 0. 0. 0. 0.
      0. 0. 0. 0. 0. 0. 0. 0. 0. 0. 0. 0. 0. 0. 0. 0. 0. 0. 0. 0. 0. 0.
      0. 0. 0. 0. 0. 0. 0. 0. 0. 0. 0. 0. 0. 0. 0. 0. 0. 0. 0. 0. 0. 0.
      0. 0. 0. 0. 0. 0. 0. 0. 0. 0. 0. 7.75193796e-03 0. 7.75193796e-03
      0. 0. 0. 0. 0. 0. 0. 7.75193796e-03 0. 7.75193796e-03
      7.75193796e-03 0. 0. 0. 0. 0. 0. 0. 0. 0. 0. 0. 7.75193796e-03 0.
      0. 0. 0. 0. 0. 0. 0. 0. 0. 0. 0. 0. 0. 0. 0. 0. 0. 0. 0. 0. 0. 0.
      0. 0. 0. 0. 0. 0. 0. 0. 0. 1.55038759e-02 7.75193796e-03 0. 0. 0.
      0. 0. 0. 0. 0. 0. 0. 0. 0. 0. 0. 0. 0. 0. 0. 0. 0. 0. 0. 0. 0. 0.
      0. 0. 0. 0. 0. 0. 0. 0. 0. 0. 0. 0. 0. 0. 7.75193796e-03 0.
      1.55038759e-02 0. 0. 0. 0. 0. 0. 0. 0. 1.55038759e-02 0. 0. 0. 0.
      0. 0. 0. 0. 0. 0. 0. 0. 0. 0. 0. 0. 0. 0. 0. 0. 0. 0. 0.
      7.75193796e-03 0. 0. 1.55038759e-02 0. 7.75193796e-03 0. 0. 0. 0.
      0. 1.55038759e-02 0. 0. 0. 7.75193796e-03 0. 0. 0. 0. 0. 0. 0. 0.
      7.75193796e-03 0. 0. 0. 0. 0. 0. 0. 0. 0. 1.55038759e-02 0.
      7.75193796e-03 0. 0. 0. 0. 0. 0. 0. 0. 0. 0. 0. 0. 0. 0. 0. 0. 0.
      0. 0. 0. 0. 0. 0. 0. 0. 0. 0. 0. 0. 0. 0. 0. 0. 0. 0. 0. 0.
      7.75193796e-03 0. 0. 0. 0. 0. 0. 0. 0. 7.75193796e-03
      7.75193796e-03 0. 7.75193796e-03 0. 0. 0. 0. 0. 0. 7.75193796e-03
      0. 7.75193796e-03 0. 7.75193796e-03 0. 0. 0. 0. 0. 0. 0. 0. 0. 0.
      0. 0. 0. 0. 0. 7.75193796e-03 0. 0. 0. 0. 7.75193796e-03 0. 0. 0.
      7.75193796e-03 0. 0. 0. 0. 0. 0. 0. 0. 0. 0. 0. 0. 0. 0. 0. 0. 0.
      0. 0. 0. 7.75193796e-03 0. 0. 0. 0. 0. 0. 0. 0. 0. 7.75193796e-03
      0. 0. 0. 0. 0. 0. 0. 0. 0. 2.32558139e-02 0. 0. 0. 0. 0. 0. 0. 0.
      0. 0. 0. 0. 0. 0. 0. 0. 0. 0. 0. 7.75193796e-03 0. 0.
      7.75193796e-03 0. 0. 0. 0. 0. 7.75193796e-03 0. 0. 0. 0. 0. 0. 0.
      0. 0. 0. 0. 7.75193796e-03 0. 0. 0. 7.75193796e-03 0. 0. 0. 0. 0.
      7.75193796e-03 0. 0. 0. 0. 0. 0. 7.75193796e-03 0. 0. 0. 0. 0. 0.
      1.55038759e-02 0. 0. 0. 0. 0. 0. 7.75193796e-03 0. 0. 0. 0. 0. 0.
      0. 0. 0. 0. 0. 0. 0. 0. 0. 0. 0. 0. 0. 0. 0. 0. 0. 0. 0. 0. 0. 0.
      0. 7.75193796e-03 0. 0. 0. 1.55038759e-02 0. 0. 0. 0. 0. 0. 0. 0.
      0. 0. 0. 0. 0. 0. 0. 0. 0. 0. 0. 0. 0. 0. 0. 0. 0. 0. 0.
      7.75193796e-03 0. 7.75193796e-03 0. 0. 0. 0. 0. 0. 0. 0. 0. 0. 0.
      0. 0. 0. 0. 0. 0. 0. 0. 0. 0. 0. 0. 0. 7.75193796e-03 0. 0. 0. 0.
      0. 0. 0. 7.75193796e-03 0. 0. 0. 0. 0. 0. 0. 0. 0. 0. 0. 0. 0. 0.
      0. 7.75193796e-03 7.75193796e-03 7.75193796e-03 0. 0. 0.
      7.75193796e-03 1.55038759e-02 0. 7.75193796e-03 0. 0. 0. 0. 0. 0.
      0. 0. 7.75193796e-03 7.75193796e-03 0. 0. 0. 0. 0. 0. 0. 0. 0. 0.
      0. 0. 0. 7.75193796e-03 0. 0. 0. 0. 7.75193796e-03 0. 0. 0. 0. 0.
      0. 0. 0. 0. 0. 7.75193796e-03 0. 0. 0. 0. 7.75193796e-03 0. 0. 0.
      0. 0. 7.75193796e-03 0. 0. 0. 0. 7.75193796e-03 0. 0. 0. 0. 0. 0.
      0. 0. 7.75193796e-03 0. 0. 0. 7.75193796e-03 0. 0. 0. 0. 0. 0. 0.
      0. 0. 0. 0. 0. 7.75193796e-03 0. 0. 0. 0. 0. 0. 0. 0. 0. 0. 0. 0.
      0. 0. 0. 0. 0. 0. 7.75193796e-03 0. 0. 0. 0. 0. 0. 0. 0. 0. 0. 0.
      0. 0. 0. 0. 0. 0. 0. 0. 0. 2.32558139e-02 0. 0. 0. 0. 0. 0. 0. 0.
      7.75193796e-03 0. 0. 0. 0. 7.75193796e-03 7.75193796e-03 0. 0. 0.
      1.55038759e-02 0. 0. 0. 0. 0. 0. 0. 0. 0. 0. 0. 0. 1.55038759e-02
      7.75193796e-03 0. 0. 0. 0. 0. 0. 0. 0. 0. 7.75193796e-03 0. 0. 0.
      7.75193796e-03 0. 0. 0. 0. 0. 0. 0. 0. 0. 7.75193796e-03 0. 0.
      7.75193796e-03 0. 0. 0. 0. 0. 7.75193796e-03 0. 0. 7.75193796e-03
      0. 0. 0. 0. 7.75193796e-03 0. 0. 0. 0. 0. 0. 0. 0. 0. 0. 0. 0. 0.
      0. 0. 0. 0. 0. 0. 0. 7.75193796e-03 0. 0. 0. 0. 0. 0. 0. 0. 0. 0.
      0. 7.75193796e-03 0. 0. 0. 0. 0. 7.75193796e-03 0. 0. 0. 0. 0. 0.
      7.75193796e-03 0. 0. 0. 7.75193796e-03 7.75193796e-03 0. 0. 0. 0.
      0. 0. 0. 0. 0. 0. 0. 0. 0. 0. 0. 0. 0. 0. 0. 0. 0. 0.
      7.75193796e-03 0. 0. 7.75193796e-03 0. 0. 0. 0. 0. 0. 0. 0. 0. 0.
      0. 0. 0. 0. 0. 0. 7.75193796e-03 7.75193796e-03 0. 0. 0. 0. 0. 0.
      0. 0. 0. 0. 0. 0. 0. 0. 0. 0. 0. 0. 0. 0. 0. 0. 0. 0. 0. 0. 0. 0.
      0. 0. 0. 0. 0. 7.75193796e-03 1.55038759e-02 7.75193796e-03
      7.75193796e-03 0. 0. 0. 7.75193796e-03 0. 0. 0. 0. 0.
      7.75193796e-03 0. 0. 0. 0. 1.55038759e-02 0. 0. 3.10077518e-02 0.
      0. 0. 0. 0. 0. 0. 0. 7.75193796e-03 0. 0. 0. 0. 7.75193796e-03
      7.75193796e-03 0.</_>
    <_>
      0. 0. 0. 0. 0. 0. 0. 0. 0. 0. 0. 0. 0. 0. 6.13496918e-03 0. 0. 0.
      0. 0. 0. 0. 0. 0. 0. 6.13496918e-03 0. 0. 0. 0. 0. 0. 0. 0. 0. 0.
      0. 0. 0. 0. 0. 0. 0. 0. 6.13496918e-03 0. 0. 0. 0. 0.
      6.13496918e-03 0. 1.22699384e-02 0. 0. 0. 0. 6.13496918e-03 0. 0.
      0. 0. 0. 0. 0. 0. 0. 0. 0. 0. 0. 0. 0. 0. 0. 6.13496918e-03
      6.13496918e-03 0. 0. 0. 0. 0. 0. 0. 0. 0. 0. 0. 0. 6.13496918e-03
      0. 6.13496918e-03 0. 0. 0. 0. 0. 0. 0. 0. 0. 0. 0. 0. 0. 0. 0. 0.
      0. 0. 0. 0. 0. 0. 6.13496918e-03 0. 0. 0. 0. 0. 0. 0. 0. 0. 0. 0.
      0. 0. 0. 0. 0. 6.13496918e-03 0. 0. 0. 0. 0. 0. 0. 0. 0. 0. 0. 0.
      0. 0. 6.13496918e-03 6.13496918e-03 6.13496918e-03 0. 0. 0. 0.
      6.13496918e-03 0. 0. 0. 0. 0. 0. 0. 0. 0. 0. 0. 0. 0. 0. 0. 0. 0.
      0. 0. 0. 0. 0. 0. 0. 0. 0. 0. 0. 0. 0. 0. 6.13496918e-03 0.
      6.13496918e-03 0. 0. 0. 6.13496918e-03 0. 0. 0. 0. 6.13496918e-03
      0. 0. 0. 0. 0. 0. 0. 6.13496918e-03 0. 0. 0. 0. 0. 0. 0. 0. 0. 0.
      0. 6.13496918e-03 0. 0. 0. 0. 0. 0. 0. 0. 0. 0. 0. 0. 0. 0. 0. 0.
      0. 0. 0. 0. 0. 0. 0. 0. 0. 0. 0. 0. 0. 0. 6.13496918e-03 0. 0. 0.
      1.22699384e-02 0. 0. 0. 0. 6.13496918e-03 0. 0. 0. 0. 0.
      6.13496918e-03 0. 0. 0. 0. 0. 0. 6.13496918e-03 0. 0. 0. 0. 0. 0.
      0. 0. 0. 0. 0. 0. 0. 0. 0. 0. 0. 0. 6.13496918e-03 0. 0. 0. 0.
      6.13496918e-03 0. 6.13496918e-03 0. 0. 0. 1.84049085e-02 0. 0. 0.
      0. 0. 0. 0. 0. 6.13496918e-03 0. 0. 0. 0. 0. 0. 0. 0. 0. 0. 0. 0.
      0. 0. 0. 0. 0. 0. 0. 0. 0. 0. 0. 0. 6.13496918e-03 0. 0. 0. 0. 0.
      0. 0. 0. 0. 0. 0. 0. 0. 0. 0. 0. 0. 0. 0. 0. 6.13496918e-03 0. 0.
      6.13496918e-03 0. 0. 0. 0. 0. 0. 0. 0. 0. 0. 0. 0. 6.13496918e-03
      0. 0. 0. 0. 6.13496918e-03 0. 0. 0. 6.13496918e-03 0.
      6.13496918e-03 0. 0. 0. 0. 0. 0. 0. 0. 0. 0. 0. 6.13496918e-03 0.
      0. 0. 0. 6.13496918e-03 0. 0. 0. 0. 0. 1.22699384e-02 0. 0. 0. 0.
      0. 0. 0. 0. 0. 0. 0. 0. 0. 0. 0. 0. 0. 6.13496918e-03
      1.22699384e-02 0. 0. 0. 0. 0. 0. 0. 0. 6.13496918e-03 0. 0. 0.
      1.22699384e-02 0. 0. 0. 0. 0. 6.13496918e-03 0. 0. 0.
      1.22699384e-02 0. 0. 0. 0. 0. 0. 0. 0. 0. 0. 0. 0. 0. 0.
      1.22699384e-02 0. 6.13496918e-03 0. 0. 0. 0. 0. 0. 0. 0. 0. 0. 0.
      0. 1.84049085e-02 0. 0. 0. 0. 0. 0. 0. 1.22699384e-02 0. 0. 0.
      1.22699384e-02 1.22699384e-02 0. 0. 6.13496918e-03 0. 0. 0. 0. 0.
      0. 0. 0. 0. 0. 0. 0. 1.22699384e-02 0. 0. 6.13496918e-03 0. 0. 0.
      0. 0. 0. 6.13496918e-03 0. 0. 0. 0. 0. 0. 0. 0. 0. 6.13496918e-03
      0. 0. 0. 0. 0. 6.13496918e-03 6.13496918e-03 0. 0. 6.13496918e-03
      0. 0. 0. 0. 0. 0. 0. 0. 0. 0. 0. 0. 0. 0. 0. 0. 0. 0. 0. 0. 0. 0.
      0. 6.13496918e-03 0. 6.13496918e-03 0. 0. 0. 0. 0. 0. 0. 0.
      1.22699384e-02 0. 0. 0. 0. 0. 1.22699384e-02 0. 0. 0.
      6.13496918e-03 1.22699384e-02 0. 0. 0. 0. 0. 0. 0. 0. 0. 0. 0. 0.
      0. 6.13496918e-03 0. 6.13496918e-03 0. 0. 6.13496918e-03 0. 0. 0.
      0. 0. 0. 6.13496918e-03 6.13496918e-03 0. 0. 0. 6.13496918e-03 0.
      0. 0. 0. 0. 6.13496918e-03 0. 0. 0. 0. 0. 0. 0. 0. 0. 0. 0.
      6.13496918e-03 0. 0. 0. 6.13496918e-03 1.22699384e-02 0. 0. 0. 0.
      0. 0. 0. 0. 6.13496918e-03 0. 0. 1.22699384e-02 0. 0. 0. 0. 0.
      1.22699384e-02 0. 0. 0. 0. 0. 0. 0. 0. 0. 0. 0. 0. 6.13496918e-03
      0. 0. 0. 0. 0. 6.13496918e-03 0. 0. 0. 6.13496918e-03 0. 0. 0. 0.
      0. 6.13496918e-03 0. 0. 6.13496918e-03 0. 0. 0. 0. 0. 0. 0. 0.
      6.13496918e-03 0. 0. 1.22699384e-02 0. 0. 0. 0. 0. 0. 0. 0.
      6.13496918e-03 0. 0. 0. 0. 0. 0. 0. 0. 0. 0. 0. 0. 0. 0. 0. 0. 0.
      6.13496918e-03 0. 0. 0. 0. 0. 0. 0. 0. 0. 0. 0. 6.13496918e-03 0.
      0. 0. 0. 0. 6.13496918e-03 0. 6.13496918e-03 0. 0. 0.
      6.13496918e-03 0. 0. 0. 0. 0. 0. 0. 0. 0. 0. 0. 0. 0.
      6.13496918e-03 0. 0. 0. 0. 0. 0. 0. 0. 0. 0. 0. 0. 0. 0. 0. 0. 0.
      6.13496918e-03 0. 0. 0. 0. 0. 0. 0. 0. 0. 6.13496918e-03
      6.13496918e-03 0. 0. 0. 0. 0. 0. 0. 1.84049085e-02 0. 0.
      6.13496918e-03 0. 0. 0. 0. 0. 0. 0. 6.13496918e-03 0. 0. 0. 0.
      6.13496918e-03 0. 0. 0. 0. 0. 0. 0. 6.13496918e-03 0. 0. 0.
      6.13496918e-03 0. 0. 0. 0. 6.13496918e-03 0. 0. 0. 0. 0.
      6.13496918e-03 0. 0. 0. 0. 1.22699384e-02 0. 6.13496918e-03 0. 0.
      0. 0. 0. 0. 0. 0. 0. 0. 0. 0. 0. 6.13496918e-03 0. 0. 0.
      6.13496918e-03 0. 1.22699384e-02 0. 0. 0. 1.22699384e-02 0. 0. 0.
      0. 6.13496918e-03 0. 0. 0. 0. 1.22699384e-02 0. 0. 0.
      6.13496918e-03 0. 0. 6.13496918e-03 0. 0. 0. 1.84049085e-02 0. 0.
      0. 0. 0. 6.13496918e-03 0. 0. 0. 0. 0. 6.13496918e-03 0. 0. 0. 0.
      0. 0. 0. 0. 0. 0. 0. 0. 0. 0. 0. 0. 0. 0. 0. 6.13496918e-03 0. 0.
      0. 0. 0. 0. 1.22699384e-02 0. 0. 0. 1.22699384e-02 0.
      6.13496918e-03 0. 0. 6.13496918e-03 0. 0. 0. 0. 0. 0. 0. 0. 0.
      6.13496918e-03 0. 0. 0. 6.13496918e-03 0. 0. 0. 0. 0. 0. 0. 0. 0.
      0. 0. 0. 0. 0. 1.22699384e-02 0. 0. 0. 0. 0. 0. 0. 0. 0. 0. 0.
      6.13496918e-03 0. 0. 6.13496918e-03 0. 0. 0. 0. 0. 0. 0. 0. 0. 0.
      0. 0. 0. 0. 0. 0. 6.13496918e-03</_>
    <_>
      0. 0. 0. 0. 0. 0. 3.73134320e-03 0. 0. 0. 3.73134320e-03 0.
      7.46268639e-03 0. 0. 3.73134320e-03 3.73134320e-03 3.73134320e-03
      0. 0. 0. 0. 0. 0. 0. 3.73134320e-03 0. 0. 0. 0. 0. 0. 0. 0. 0. 0.
      0. 0. 0. 0. 0. 0. 0. 0. 0. 0. 0. 0. 0. 0. 0. 0. 0. 0. 0. 0. 0. 0.
      3.73134320e-03 0. 0. 0. 0. 0. 0. 0. 0. 0. 0. 0. 0. 0. 0. 0. 0. 0.
      0. 0. 0. 0. 0. 0. 0. 0. 3.73134320e-03 0. 0. 3.73134320e-03 0. 0.
      0. 0. 0. 0. 0. 0. 0. 0. 0. 0. 0. 0. 0. 0. 0. 0. 0. 0. 0. 0. 0. 0.
      0. 0. 3.73134320e-03 0. 0. 0. 0. 0. 0. 0. 0. 0. 0. 0. 0. 0. 0. 0.
      3.73134320e-03 0. 0. 3.73134320e-03 0. 0. 0. 0. 0. 0. 0. 0. 0. 0.
      0. 0. 0. 0. 0. 0. 0. 0. 0. 7.46268639e-03 0. 3.73134320e-03
      3.73134320e-03 0. 3.73134320e-03 0. 3.73134320e-03 0. 0. 0. 0. 0.
      3.73134320e-03 0. 0. 0. 0. 0. 0. 3.73134320e-03 0. 0. 0. 0. 0.
      3.73134320e-03 0. 0. 0. 0. 0. 0. 0. 0. 3.73134320e-03 0. 0. 0. 0.
      0. 0. 0. 3.73134320e-03 0. 0. 0. 0. 0. 0. 0. 7.46268639e-03 0. 0.
      0. 0. 3.73134320e-03 0. 0. 0. 0. 0. 0. 3.73134320e-03 0. 0. 0. 0.
      0. 0. 0. 0. 0. 0. 0. 0. 0. 3.73134320e-03 0. 0. 0. 0. 0. 0. 0. 0.
      0. 0. 0. 0. 0. 0. 0. 0. 0. 0. 3.73134320e-03 0. 0. 0. 0. 0. 0.
      3.73134320e-03 3.73134320e-03 0. 0. 0. 0. 3.73134320e-03 0. 0. 0.
      0. 0. 0. 0. 0. 0. 0. 0. 0. 3.73134320e-03 0. 0. 0. 0. 0. 0. 0. 0.
      0. 0. 0. 0. 3.73134320e-03 0. 3.73134320e-03 0. 3.73134320e-03 0.
      0. 3.73134320e-03 0. 0. 0. 1.11940298e-02 3.73134320e-03 0. 0. 0.
      3.73134320e-03 0. 0. 0. 0. 0. 0. 3.73134320e-03 0. 0. 0. 0.
      3.73134320e-03 0. 3.73134320e-03 0. 0. 0. 3.73134320e-03 0. 0. 0.
      0. 0. 7.46268639e-03 0. 1.49253728e-02 3.73134320e-03 0.
      3.73134320e-03 0. 3.73134320e-03 0. 0. 0. 3.73134320e-03 0. 0. 0.
      0. 0. 0. 3.73134320e-03 0. 0. 0. 0. 0. 0. 0. 3.73134320e-03
      3.73134320e-03 0. 0. 3.73134320e-03 0. 3.73134320e-03
      3.73134320e-03 0. 3.73134320e-03 3.73134320e-03 0. 0. 0. 0. 0. 0.
      0. 3.73134320e-03 0. 0. 0. 0. 0. 0. 0. 3.73134320e-03 0.
      3.73134320e-03 0. 0. 0. 0. 0. 0. 0. 0. 0. 0. 3.73134320e-03 0. 0.
      3.73134320e-03 0. 0. 3.73134320e-03 0. 0. 3.73134320e-03 0. 0.
      3.73134320e-03 0. 7.46268639e-03 0. 0. 0. 0. 3.73134320e-03 0. 0.
      0. 0. 7.46268639e-03 0. 0. 0. 0. 3.73134320e-03 3.73134320e-03 0.
      0. 0. 0. 0. 0. 0. 3.73134320e-03 0. 0. 3.73134320e-03 0.
      3.73134320e-03 3.73134320e-03 0. 0. 3.73134320e-03 0. 0. 0. 0. 0.
      0. 0. 3.73134320e-03 3.73134320e-03 0. 0. 0. 0. 0. 3.73134320e-03
      0. 0. 0. 0. 0. 3.73134320e-03 0. 7.46268639e-03 0. 3.73134320e-03
      0. 0. 0. 3.73134320e-03 0. 0. 3.73134320e-03 0. 0. 0. 0. 0. 0. 0.
      0. 0. 0. 0. 7.46268639e-03 0. 0. 3.73134320e-03 3.73134320e-03 0.
      0. 0. 0. 0. 0. 0. 0. 0. 0. 0. 3.73134320e-03 0. 0. 0. 0. 0. 0. 0.
      0. 0. 3.73134320e-03 0. 0. 0. 0. 0. 0. 0. 0. 0. 0. 0. 0. 0. 0. 0.
      0. 0. 0. 3.73134320e-03 0. 0. 0. 0. 0. 0. 0. 0. 7.46268639e-03 0.
      0. 0. 0. 3.73134320e-03 0. 3.73134320e-03 0. 0. 0. 0. 0. 0. 0. 0.
      0. 7.46268639e-03 0. 0. 0. 0. 0. 0. 0. 3.73134320e-03 0. 0. 0. 0.
      3.73134320e-03 0. 3.73134320e-03 7.46268639e-03 0. 0.
      7.46268639e-03 3.73134320e-03 0. 0. 3.73134320e-03 3.73134320e-03
      1.49253728e-02 0. 3.73134320e-03 0. 0. 0. 3.73134320e-03 0. 0.
      7.46268639e-03 0. 0. 0. 0. 0. 3.73134320e-03 0. 0. 7.46268639e-03
      0. 0. 0. 3.73134320e-03 0. 0. 0. 7.46268639e-03 0. 3.73134320e-03
      0. 0. 0. 0. 0. 0. 0. 0. 3.73134320e-03 0. 0. 0. 0. 0. 0. 0.
      3.73134320e-03 0. 0. 0. 0. 7.46268639e-03 0. 0. 0. 0. 0. 0. 0. 0.
      0. 0. 0. 0. 0. 0. 7.46268639e-03 0. 7.46268639e-03 0. 0.
      3.73134320e-03 0. 0. 3.73134320e-03 0. 0. 0. 0. 0. 0. 0. 0. 0.
      3.73134320e-03 0. 3.73134320e-03 0. 3.73134320e-03 0. 0. 0. 0. 0.
      0. 3.73134320e-03 0. 3.73134320e-03 0. 0. 0. 0. 7.46268639e-03 0.
      0. 0. 0. 0. 0. 7.46268639e-03 0. 0. 0. 0. 3.73134320e-03
      7.46268639e-03 0. 3.73134320e-03 0. 0. 0. 0. 7.46268639e-03
      3.73134320e-03 0. 0. 0. 7.46268639e-03 0. 0. 0. 0. 0.
      3.73134320e-03 0. 3.73134320e-03 0. 0. 0. 0. 3.73134320e-03
      3.73134320e-03 0. 0. 3.73134320e-03 0. 3.73134320e-03 0. 0. 0. 0.
      0. 0. 3.73134320e-03 3.73134320e-03 0. 0. 3.73134320e-03 0. 0. 0.
      0. 0. 0. 0. 1.49253728e-02 0. 0. 0. 0. 0. 0. 0. 0. 7.46268639e-03
      0. 0. 7.46268639e-03 7.46268639e-03 0. 3.73134320e-03 0. 0. 0. 0.
      0. 3.73134320e-03 0. 0. 3.73134320e-03 0. 0. 0. 0. 3.73134320e-03
      3.73134320e-03 0. 0. 0. 0. 0. 0. 0. 3.73134320e-03 0. 0. 0.
      3.73134320e-03 3.73134320e-03 0. 3.73134320e-03 0. 3.73134320e-03
      0. 3.73134320e-03 0. 3.73134320e-03 0. 0. 3.73134320e-03 0. 0. 0.
      7.46268639e-03 0. 0. 0. 0. 0. 0. 0. 0. 7.46268639e-03 0. 0.
      3.73134320e-03 3.73134320e-03 7.46268639e-03 0. 0. 0. 0. 0. 0.
      3.73134320e-03 0. 0. 3.73134320e-03 0. 0. 0. 0. 0. 0. 0. 0.
      3.73134320e-03 7.46268639e-03 0. 0. 0. 0. 0. 7.46268639e-03
      3.73134320e-03 0. 1.86567158e-02 0. 0. 0. 0. 0. 0. 0. 0. 0. 0.
      3.73134320e-03 0. 0. 0. 0. 0. 0. 1.86567158e-02 0. 0. 0. 0.
      3.73134320e-03 0. 3.73134320e-03 0. 0. 0. 0. 0. 0. 0. 0. 0. 0.
      3.73134320e-03 3.73134320e-03 1.11940298e-02 1.49253728e-02 0.
      1.86567158e-02 0. 0. 0. 0. 0. 0. 3.73134320e-03 0. 0.
      3.73134320e-03 3.73134320e-03 3.73134320e-03 0. 0. 0. 0. 0. 0. 0.
      3.73134320e-03 0. 3.73134320e-03 0. 3.73134320e-03 0. 0. 0. 0.
      7.46268639e-03 0. 0. 0. 0. 0. 7.46268639e-03 0. 0. 1.11940298e-02
      3.73134320e-03 0. 0. 3.73134320e-03 0. 0. 0. 0. 0. 0.
      3.73134320e-03 0. 0. 0. 0. 0. 0. 0. 0. 0. 0. 0. 0. 3.73134320e-03
      0. 0. 3.73134320e-03 3.73134320e-03 3.73134320e-03 0. 0.
      3.73134320e-03 0. 0. 0. 0. 3.73134320e-03 7.46268639e-03 0. 0. 0.
      0. 0. 0. 0. 3.73134320e-03 0. 0. 0. 0. 0. 0. 3.73134320e-03 0. 0.
      0. 0. 3.73134320e-03 0. 0. 0. 0. 3.73134320e-03 0. 0. 0. 0. 0. 0.
      0. 0. 0. 3.73134320e-03 0. 7.46268639e-03</_>
    <_>
      0. 0. 0. 0. 0. 0. 3.43642617e-03 0. 0. 0. 0. 0. 0. 0. 0. 0. 0. 0.
      0. 0. 3.43642617e-03 0. 0. 0. 0. 3.43642617e-03 0. 0.
      6.87285233e-03 0. 0. 3.43642617e-03 0. 0. 0. 0. 0. 0. 0. 0. 0. 0.
      3.43642617e-03 0. 0. 0. 0. 0. 0. 0. 0. 0. 1.03092790e-02 0. 0. 0.
      0. 0. 0. 0. 0. 0. 0. 0. 6.87285233e-03 0. 0. 0. 6.87285233e-03 0.
      0. 0. 0. 6.87285233e-03 0. 6.87285233e-03 0. 0. 0. 0. 0. 0. 0. 0.
      0. 0. 0. 0. 3.43642617e-03 0. 0. 0. 0. 0. 0. 0. 0. 0. 0. 0.
      3.43642617e-03 0. 0. 0. 3.43642617e-03 6.87285233e-03 0. 0. 0. 0.
      0. 0. 0. 0. 0. 0. 0. 0. 0. 0. 0. 0. 0. 0. 0. 0. 0. 0. 0. 0. 0. 0.
      6.87285233e-03 0. 0. 0. 0. 0. 0. 0. 0. 0. 0. 0. 0. 0. 0. 0.
      1.03092790e-02 0. 0. 0. 3.43642617e-03 0. 0. 3.43642617e-03 0. 0.
      3.43642617e-03 0. 0. 0. 0. 0. 0. 0. 0. 0. 0. 0. 0. 3.43642617e-03
      0. 0. 0. 0. 0. 3.43642617e-03 0. 0. 0. 0. 0. 0. 0. 0. 0. 0.
      6.87285233e-03 0. 0. 1.03092790e-02 0. 0. 0. 0. 0. 0. 0. 0.
      3.43642617e-03 0. 6.87285233e-03 0. 0. 0. 0. 0. 0. 0. 0. 0. 0. 0.
      0. 0. 3.43642617e-03 3.43642617e-03 0. 0. 3.43642617e-03 0. 0.
      3.43642617e-03 0. 0. 0. 0. 0. 0. 0. 3.43642617e-03 0. 0. 0. 0. 0.
      0. 0. 0. 0. 0. 3.43642617e-03 0. 0. 0. 0. 0. 0. 0. 3.43642617e-03
      3.43642617e-03 0. 0. 3.43642617e-03 0. 3.43642617e-03 0. 0. 0. 0.
      0. 0. 0. 0. 0. 0. 0. 0. 0. 0. 0. 0. 0. 0. 0. 0. 0. 0. 0. 0. 0. 0.
      0. 0. 0. 6.87285233e-03 0. 0. 0. 0. 0. 6.87285233e-03 0. 0. 0. 0.
      0. 0. 6.87285233e-03 0. 0. 0. 0. 0. 0. 0. 0. 0. 0. 0. 0. 0. 0.
      3.43642617e-03 3.43642617e-03 0. 0. 0. 0. 0. 0. 0. 0. 0. 0. 0. 0.
      0. 0. 0. 0. 0. 0. 0. 0. 0. 0. 0. 0. 0. 0. 0. 0. 0. 0.
      3.43642617e-03 3.43642617e-03 0. 0. 3.43642617e-03 3.43642617e-03
      0. 0. 3.43642617e-03 3.43642617e-03 0. 0. 0. 0. 3.43642617e-03
      3.43642617e-03 0. 3.43642617e-03 0. 0. 0. 0. 0. 0. 0. 0.
      3.43642617e-03 0. 0. 3.43642617e-03 0. 0. 0. 0. 3.43642617e-03
      1.03092790e-02 0. 0. 3.43642617e-03 0. 0. 0. 0. 0. 0. 0. 0. 0. 0.
      0. 0. 6.87285233e-03 0. 3.43642617e-03 0. 0. 3.43642617e-03 0.
      3.43642617e-03 3.43642617e-03 0. 6.87285233e-03 0. 0.
      3.43642617e-03 3.43642617e-03 0. 0. 0. 3.43642617e-03 0. 0. 0. 0.
      0. 0. 0. 0. 0. 0. 0. 3.43642617e-03 0. 0. 0. 6.87285233e-03 0. 0.
      0. 0. 0. 0. 0. 0. 6.87285233e-03 0. 0. 3.43642617e-03 0. 0. 0. 0.
      0. 0. 0. 3.43642617e-03 0. 0. 0. 0. 3.43642617e-03 0. 0.
      6.87285233e-03 0. 3.43642617e-03 0. 3.43642617e-03 3.43642617e-03
      0. 0. 0. 3.43642617e-03 0. 3.43642617e-03 0. 3.43642617e-03 0. 0.
      0. 3.43642617e-03 0. 0. 0. 0. 0. 0. 0. 3.43642617e-03 0. 0.
      3.43642617e-03 3.43642617e-03 0. 0. 0. 0. 0. 0. 3.43642617e-03 0.
      0. 0. 0. 3.43642617e-03 0. 0. 0. 0. 0. 0. 0. 3.43642617e-03 0. 0.
      0. 0. 3.43642617e-03 0. 3.43642617e-03 0. 0. 0. 0. 3.43642617e-03
      0. 3.43642617e-03 0. 0. 0. 0. 0. 3.43642617e-03 3.43642617e-03 0.
      0. 3.43642617e-03 0. 0. 0. 3.43642617e-03 0. 3.43642617e-03
      3.43642617e-03 0. 0. 0. 0. 0. 0. 0. 0. 0. 0. 0. 0. 0. 0. 0.
      1.71821304e-02 0. 0. 0. 3.43642617e-03 0. 0. 0. 3.43642617e-03 0.
      0. 0. 0. 3.43642617e-03 0. 0. 0. 0. 0. 0. 0. 0. 0. 3.43642617e-03
      0. 0. 3.43642617e-03 3.43642617e-03 0. 0. 0. 6.87285233e-03 0. 0.
      3.43642617e-03 0. 0. 3.43642617e-03 0. 0. 3.43642617e-03 0.
      3.43642617e-03 6.87285233e-03 0. 0. 0. 0. 0. 0. 0. 6.87285233e-03
      3.43642617e-03 0. 0. 0. 0. 3.43642617e-03 0. 0. 3.43642617e-03 0.
      0. 0. 0. 3.43642617e-03 6.87285233e-03 0. 0. 3.43642617e-03 0. 0.
      0. 0. 0. 0. 0. 6.87285233e-03 0. 6.87285233e-03 6.87285233e-03 0.
      3.43642617e-03 0. 0. 0. 0. 3.43642617e-03 0. 0. 3.43642617e-03
      3.43642617e-03 6.87285233e-03 3.43642617e-03 0. 0. 0. 0. 0. 0. 0.
      0. 0. 0. 0. 0. 0. 0. 0. 0. 0. 0. 0. 0. 0. 0. 0. 0. 0.
      3.43642617e-03 0. 0. 3.43642617e-03 0. 0. 0. 3.43642617e-03 0. 0.
      0. 6.87285233e-03 0. 0. 3.43642617e-03 0. 0. 0. 0. 0.
      3.43642617e-03 0. 3.43642617e-03 0. 0. 0. 0. 3.43642617e-03
      6.87285233e-03 0. 0. 0. 3.43642617e-03 6.87285233e-03 0. 0. 0. 0.
      3.43642617e-03 0. 3.43642617e-03 0. 0. 0. 0. 3.43642617e-03
      6.87285233e-03 0. 0. 0. 0. 0. 0. 0. 3.43642617e-03 0. 0. 0. 0. 0.
      0. 0. 0. 0. 3.43642617e-03 0. 3.43642617e-03 1.03092790e-02 0. 0.
      3.43642617e-03 0. 0. 0. 0. 0. 0. 0. 0. 0. 0. 0. 0. 0. 0.
      3.43642617e-03 0. 3.43642617e-03 0. 0. 0. 0. 0. 0. 0.
      6.87285233e-03 0. 0. 0. 3.43642617e-03 3.43642617e-03 0. 0. 0. 0.
      0. 0. 0. 0. 0. 3.43642617e-03 6.87285233e-03 6.87285233e-03 0. 0.
      3.43642617e-03 0. 6.87285233e-03 0. 0. 0. 3.43642617e-03 0. 0. 0.
      3.43642617e-03 6.87285233e-03 0. 0. 0. 0. 0. 0. 0. 0. 0.
      3.43642617e-03 6.87285233e-03 6.87285233e-03 0. 6.87285233e-03 0.
      0. 0. 3.43642617e-03 6.87285233e-03 0. 0. 0. 0. 0. 3.43642617e-03
      3.43642617e-03 3.43642617e-03 0. 0. 0. 0. 0. 3.43642617e-03 0. 0.
      3.43642617e-03 0. 0. 0. 0. 3.43642617e-03 6.87285233e-03
      6.87285233e-03 0. 0. 0. 0. 0. 3.43642617e-03 0. 0. 0. 0.
      3.43642617e-03 0. 0. 0. 3.43642617e-03 0. 0. 0. 0. 3.43642617e-03
      0. 0. 0. 3.43642617e-03 3.43642617e-03 0. 1.03092790e-02 0. 0. 0.
      0. 0. 0. 0. 3.43642617e-03 0. 1.03092790e-02 0. 0. 0.
      6.87285233e-03 0. 0. 0. 0. 3.43642617e-03 0. 0. 0. 0. 0. 0.
      6.87285233e-03 3.43642617e-03 0. 0. 0. 0. 3.43642617e-03
      6.87285233e-03 0. 3.43642617e-03 3.43642617e-03 3.43642617e-03 0.
      0. 3.43642617e-03 0. 3.43642617e-03 0. 6.87285233e-03
      6.87285233e-03 0. 0. 0. 0. 0. 0. 0. 0. 0. 3.43642617e-03 0. 0.
      3.43642617e-03 3.43642617e-03 0. 3.43642617e-03 0. 0.
      6.87285233e-03 0. 0. 0. 6.87285233e-03 0. 0. 3.43642617e-03 0.
      6.87285233e-03 0. 0. 0. 3.43642617e-03 6.87285233e-03 0.
      3.43642617e-03 0. 3.43642617e-03 3.43642617e-03 6.87285233e-03 0.
      3.43642617e-03 0. 0. 0. 0. 3.43642617e-03 3.43642617e-03 0. 0.
      3.43642617e-03 0. 0. 0. 0. 1.03092790e-02 0. 0. 6.87285233e-03 0.
      0. 0. 0. 0. 0. 0. 0. 3.43642617e-03 3.43642617e-03 0. 0. 0. 0. 0.
      0. 6.87285233e-03 3.43642617e-03 3.43642617e-03 0. 0. 0. 0. 0. 0.
      6.87285233e-03</_>
    <_>
      0. 0. 0. 1.09170307e-03 0. 0. 1.09170307e-03 0. 0. 1.09170307e-03
      0. 0. 1.09170307e-03 0. 3.27510922e-03 0. 1.09170307e-03
      1.09170307e-03 0. 1.09170307e-03 0. 1.09170307e-03 1.09170307e-03
      0. 2.18340615e-03 1.09170307e-03 0. 2.18340615e-03 0.
      1.09170307e-03 0. 1.09170307e-03 1.09170307e-03 0. 0. 0. 0. 0. 0.
      0. 0. 3.27510922e-03 3.27510922e-03 1.09170307e-03 0. 0. 0.
      1.09170307e-03 1.09170307e-03 0. 2.18340615e-03 1.09170307e-03 0.
      0. 2.18340615e-03 0. 0. 0. 2.18340615e-03 1.09170307e-03
      1.09170307e-03 0. 0. 0. 0. 0. 0. 0. 1.09170307e-03 0. 0.
      1.09170307e-03 0. 1.09170307e-03 0. 2.18340615e-03 2.18340615e-03
      0. 1.09170307e-03 2.18340615e-03 0. 0. 0. 0. 0. 0. 1.09170307e-03
      1.09170307e-03 0. 0. 0. 1.09170307e-03 0. 0. 0. 0. 0. 0.
      1.09170307e-03 1.09170307e-03 0. 0. 1.09170307e-03 1.09170307e-03
      1.09170307e-03 2.18340615e-03 0. 1.09170307e-03 0. 0. 0. 0.
      1.09170307e-03 0. 2.18340615e-03 0. 6.55021844e-03 0. 0.
      1.09170307e-03 1.09170307e-03 0. 0. 1.09170307e-03 0. 0. 0.
      1.09170307e-03 0. 0. 1.09170307e-03 4.36681230e-03 0.
      3.27510922e-03 0. 0. 0. 0. 0. 0. 0. 0. 0. 0. 0. 1.09170307e-03 0.
      1.09170307e-03 1.09170307e-03 0. 1.09170307e-03 0. 1.09170307e-03
      5.45851514e-03 0. 0. 0. 0. 1.09170307e-03 2.18340615e-03
      1.09170307e-03 2.18340615e-03 0. 0. 2.18340615e-03 0.
      1.09170307e-03 0. 0. 0. 0. 1.09170307e-03 0. 1.09170307e-03
      2.18340615e-03 0. 0. 0. 0. 2.18340615e-03 0. 0. 7.64192175e-03 0.
      0. 1.09170307e-03 1.09170307e-03 0. 0. 1.09170307e-03 0.
      2.18340615e-03 0. 0. 0. 1.09170307e-03 3.27510922e-03
      1.09170307e-03 3.27510922e-03 0. 2.18340615e-03 0. 1.09170307e-03
      0. 0. 0. 0. 2.18340615e-03 0. 1.09170307e-03 0. 0. 0. 0. 0.
      2.18340615e-03 0. 0. 1.09170307e-03 0. 1.09170307e-03 0. 0. 0.
      1.09170307e-03 0. 1.09170307e-03 0. 1.09170307e-03 0.
      3.27510922e-03 0. 0. 0. 0. 1.09170307e-03 1.09170307e-03 0. 0. 0.
      0. 1.09170307e-03 0. 0. 0. 1.09170307e-03 0. 2.18340615e-03
      1.09170307e-03 0. 4.36681230e-03 2.18340615e-03 0. 1.09170307e-03
      1.09170307e-03 0. 3.27510922e-03 2.18340615e-03 0. 0. 0. 0.
      2.18340615e-03 0. 0. 0. 0. 0. 0. 1.09170307e-03 0. 0. 0.
      2.18340615e-03 0. 0. 0. 1.09170307e-03 0. 0. 0. 0. 0.
      2.18340615e-03 0. 2.18340615e-03 5.45851514e-03 1.09170307e-03 0.
      0. 0. 1.09170307e-03 4.36681230e-03 0. 0. 1.09170307e-03 0. 0. 0.
      3.27510922e-03 3.27510922e-03 0. 0. 1.09170307e-03 3.27510922e-03
      0. 0. 1.09170307e-03 1.09170307e-03 0. 0. 1.09170307e-03
      1.09170307e-03 1.09170307e-03 0. 0. 1.09170307e-03 3.27510922e-03
      2.18340615e-03 0. 0. 0. 2.18340615e-03 0. 0. 0. 0. 0.
      4.36681230e-03 0. 2.18340615e-03 2.18340615e-03 0. 1.09170307e-03
      2.18340615e-03 1.09170307e-03 2.18340615e-03 0. 0. 2.18340615e-03
      1.09170307e-03 0. 0. 2.18340615e-03 3.27510922e-03 1.09170307e-03
      5.45851514e-03 2.18340615e-03 0. 0. 0. 2.18340615e-03
      4.36681230e-03 0. 1.09170307e-03 2.18340615e-03 4.36681230e-03
      1.09170307e-03 1.09170307e-03 0. 6.55021844e-03 0. 1.09170307e-03
      3.27510922e-03 0. 0. 4.36681230e-03 0. 0. 2.18340615e-03
      4.36681230e-03 0. 0. 1.09170307e-03 0. 1.09170307e-03
      1.09170307e-03 1.09170307e-03 1.09170307e-03 1.09170307e-03
      2.18340615e-03 0. 1.09170307e-03 0. 1.09170307e-03 2.18340615e-03
      0. 1.09170307e-03 1.09170307e-03 0. 3.27510922e-03 0. 0.
      2.18340615e-03 0. 0. 2.18340615e-03 0. 0. 1.09170307e-03
      1.09170307e-03 0. 1.09170307e-03 0. 2.18340615e-03 0.
      2.18340615e-03 0. 2.18340615e-03 0. 2.18340615e-03 2.18340615e-03
      3.27510922e-03 1.09170307e-03 0. 1.09170307e-03 0. 1.09170307e-03
      0. 1.09170307e-03 0. 0. 0. 4.36681230e-03 0. 1.09170307e-03 0. 0.
      1.09170307e-03 0. 0. 0. 0. 0. 2.18340615e-03 0. 6.55021844e-03 0.
      0. 1.09170307e-03 1.09170307e-03 0. 2.18340615e-03 2.18340615e-03
      0. 0. 0. 0. 0. 0. 1.09170307e-03 3.27510922e-03 0. 0. 0. 0. 0. 0.
      1.09170307e-03 0. 3.27510922e-03 4.36681230e-03 3.27510922e-03
      2.18340615e-03 3.27510922e-03 0. 1.09170307e-03 0. 0. 0.
      2.18340615e-03 0. 0. 0. 0. 0. 2.18340615e-03 0. 1.09170307e-03 0.
      1.09170307e-03 0. 1.09170307e-03 0. 2.18340615e-03 0. 0.
      2.18340615e-03 0. 1.09170307e-03 1.09170307e-03 0. 1.09170307e-03
      4.36681230e-03 0. 0. 0. 0. 1.09170307e-03 1.09170307e-03
      1.09170307e-03 3.27510922e-03 0. 0. 1.09170307e-03 1.09170307e-03
      0. 0. 1.09170307e-03 2.18340615e-03 2.18340615e-03 1.09170307e-03
      0. 4.36681230e-03 0. 2.18340615e-03 0. 0. 0. 1.09170307e-03
      2.18340615e-03 0. 2.18340615e-03 0. 0. 2.18340615e-03
      1.09170307e-03 3.27510922e-03 2.18340615e-03 4.36681230e-03
      5.45851514e-03 2.18340615e-03 3.27510922e-03 1.09170307e-03 0.
      1.09170307e-03 0. 0. 1.09170307e-03 1.09170307e-03 2.18340615e-03
      0. 0. 0. 0. 2.18340615e-03 0. 2.18340615e-03 0. 1.09170307e-03
      1.09170307e-03 1.09170307e-03 1.09170307e-03 0. 0. 0.
      2.18340615e-03 0. 0. 1.09170307e-03 0. 0. 0. 1.09170307e-03
      1.09170307e-03 3.27510922e-03 0. 2.18340615e-03 2.18340615e-03 0.
      2.18340615e-03 1.09170307e-03 0. 1.09170307e-03 4.36681230e-03
      2.18340615e-03 5.45851514e-03 0. 0. 3.27510922e-03 0.
      1.09170307e-03 4.36681230e-03 0. 0. 2.18340615e-03 4.36681230e-03
      0. 0. 0. 0. 0. 0. 1.09170307e-03 0. 0. 1.09170307e-03 0.
      3.27510922e-03 1.09170307e-03 0. 0. 2.18340615e-03 0.
      1.09170307e-03 0. 2.18340615e-03 1.09170307e-03 2.18340615e-03
      1.09170307e-03 1.09170307e-03 1.09170307e-03 3.27510922e-03 0. 0.
      1.09170307e-03 0. 1.09170307e-03 2.18340615e-03 0. 4.36681230e-03
      2.18340615e-03 0. 1.09170307e-03 1.09170307e-03 0. 0. 0.
      4.36681230e-03 0. 0. 1.09170307e-03 2.18340615e-03 3.27510922e-03
      2.18340615e-03 0. 0. 3.27510922e-03 0. 0. 0. 1.09170307e-03 0.
      1.09170307e-03 1.09170307e-03 0. 2.18340615e-03 5.45851514e-03 0.
      0. 0. 2.18340615e-03 2.18340615e-03 6.55021844e-03 0. 0. 0. 0. 0.
      0. 0. 0. 3.27510922e-03 1.09170307e-03 0. 1.09170307e-03
      4.36681230e-03 0. 0. 4.36681230e-03 0. 0. 0. 1.09170307e-03
      2.18340615e-03 1.09170307e-03 1.09170307e-03 0. 0. 0. 0.
      1.09170307e-03 1.09170307e-03 0. 1.09170307e-03 4.36681230e-03 0.
      2.18340615e-03 2.18340615e-03 0. 0. 0. 1.09170307e-03 0.
      4.36681230e-03 0. 2.18340615e-03 1.09170307e-03 0. 0. 0. 0.
      2.18340615e-03 0. 0. 1.09170307e-03 0. 0. 0. 0. 0. 0.
      1.09170307e-03 0. 1.09170307e-03 5.45851514e-03 2.18340615e-03 0.
      0. 2.18340615e-03 0. 0. 0. 0. 1.09170307e-03 0. 0. 1.09170307e-03
      1.09170307e-03 3.27510922e-03 4.36681230e-03 1.09170307e-03 0.
      1.09170307e-03 0. 0. 8.73362459e-03 0. 3.27510922e-03
      2.18340615e-03 0. 0. 2.18340615e-03 1.09170307e-03 0. 0.
      1.09170307e-03 1.09170307e-03 2.18340615e-03 1.09170307e-03
      3.27510922e-03 0. 1.09170307e-03 0. 0. 0. 0. 0. 0. 1.09170307e-03
      1.09170307e-03 0. 1.09170307e-03 0. 0. 3.27510922e-03 0. 0.
      4.36681230e-03 0. 0. 0. 0. 3.27510922e-03 0. 2.18340615e-03
      1.09170307e-03 1.09170307e-03 1.09170307e-03 0. 1.09170307e-03
      2.18340615e-03 0. 0. 1.09170307e-03 1.09170307e-03 3.27510922e-03
      1.09170307e-03 0. 4.36681230e-03 0. 4.36681230e-03 0.
      3.27510922e-03 1.09170307e-03 1.09170307e-03 1.09170307e-03
      1.09170307e-03 1.09170307e-03 3.27510922e-03 3.27510922e-03 0. 0.
      1.09170307e-03 0. 0. 1.09170307e-03 0. 0. 0. 1.09170307e-03 0.
      1.09170307e-03 1.09170307e-03 3.27510922e-03 4.36681230e-03
      2.18340615e-03 3.27510922e-03 0. 4.36681230e-03 0. 3.27510922e-03
      0. 0. 1.09170307e-03 0. 0. 0. 2.18340615e-03 0. 0. 0. 0.
      2.18340615e-03 0. 0. 0. 1.09170307e-03 5.45851514e-03
      2.18340615e-03 1.09170307e-03 1.09170307e-03 2.18340615e-03
      1.09170307e-03 0. 0. 0. 0. 0. 2.18340615e-03 1.09170307e-03 0. 0.
      2.18340615e-03 0. 0. 1.09170307e-03 0. 2.18340615e-03
      3.27510922e-03 0. 2.18340615e-03 0. 2.18340615e-03 0.
      1.09170307e-03 0. 2.18340615e-03 0. 3.27510922e-03 1.09170307e-03
      3.27510922e-03 3.27510922e-03 0. 1.09170307e-03 2.18340615e-03
      1.09170307e-03 2.18340615e-03 1.09170307e-03 1.09170307e-03
      5.45851514e-03 3.27510922e-03 1.09170307e-03 0. 3.27510922e-03 0.
      0. 0. 1.09170307e-03 1.09170307e-03 4.36681230e-03 1.09170307e-03
      1.09170307e-03 1.09170307e-03 1.09170307e-03 2.18340615e-03 0.
      2.18340615e-03 3.27510922e-03 0. 1.09170307e-03 0. 3.27510922e-03
      0. 0. 5.45851514e-03 3.27510922e-03 0. 1.09170307e-03 0. 0.
      1.09170307e-03 1.09170307e-03 0. 3.27510922e-03 1.09170307e-03
      3.27510922e-03 1.09170307e-03 0. 0. 0. 3.27510922e-03
      3.27510922e-03 1.09170307e-03 0. 5.45851514e-03 0. 0. 0.
      5.45851514e-03 0. 2.18340615e-03 1.09170307e-03 3.27510922e-03
      2.18340615e-03 1.09170307e-03 0. 0. 0. 0. 0. 4.36681230e-03
      1.09170307e-03 1.09170307e-03 0. 2.18340615e-03 0. 5.45851514e-03
      4.36681230e-03 3.27510922e-03 0. 2.18340615e-03 7.64192175e-03
      1.09170307e-03 0. 0. 0. 0. 1.09170307e-03 4.36681230e-03 0.
      2.18340615e-03 1.09170307e-03 3.27510922e-03 2.18340615e-03 0. 0.
      2.18340615e-03 1.09170307e-03 1.09170307e-03 2.18340615e-03
      2.18340615e-03 0. 3.27510922e-03 0. 0. 0. 2.18340615e-03
      1.09170307e-03 3.27510922e-03 3.27510922e-03 2.18340615e-03
      2.18340615e-03 2.18340615e-03 0. 4.36681230e-03 0. 2.18340615e-03
      1.09170307e-03 1.09170307e-03 1.09170307e-03 1.09170307e-03 0. 0.
      0. 0. 0. 1.09170307e-03 0. 3.27510922e-03</_>
    <_>
      0. 0. 0. 0. 0. 0. 0. 0. 4.90196096e-03 0. 0. 0. 0. 0. 0. 0. 0. 0.
      0. 0. 0. 0. 0. 0. 0. 0. 0. 0. 0. 0. 0. 0. 0. 0. 0. 0. 0. 0. 0. 0.
      0. 0. 0. 0. 0. 0. 0. 0. 0. 0. 0. 0. 0. 0. 0. 0. 4.90196096e-03 0.
      0. 0. 4.90196096e-03 0. 0. 0. 4.90196096e-03 0. 4.90196096e-03 0.
      0. 0. 0. 0. 0. 0. 9.80392192e-03 0. 0. 0. 0. 0. 0. 0.
      4.90196096e-03 4.90196096e-03 0. 0. 0. 4.90196096e-03 0. 0. 0. 0.
      0. 4.90196096e-03 0. 0. 0. 0. 0. 0. 0. 0. 0. 0. 4.90196096e-03 0.
      0. 4.90196096e-03 0. 0. 0. 0. 0. 0. 4.90196096e-03 0.
      1.47058833e-02 0. 0. 4.90196096e-03 0. 0. 0. 0. 0. 0. 0.
      4.90196096e-03 0. 0. 0. 4.90196096e-03 0. 4.90196096e-03 0. 0. 0.
      0. 0. 0. 0. 0. 0. 0. 0. 0. 0. 0. 0. 0. 0. 0. 0. 0. 0. 0. 0. 0. 0.
      4.90196096e-03 0. 4.90196096e-03 0. 0. 0. 0. 0. 0. 0. 0. 0. 0.
      4.90196096e-03 0. 4.90196096e-03 0. 0. 0. 0. 4.90196096e-03 0. 0.
      0. 0. 0. 0. 0. 0. 0. 0. 0. 0. 0. 0. 0. 0. 0. 0. 4.90196096e-03 0.
      4.90196096e-03 0. 0. 0. 0. 0. 0. 4.90196096e-03 0. 0. 0. 0. 0. 0.
      0. 0. 4.90196096e-03 0. 0. 0. 0. 0. 0. 0. 0. 0. 0. 0. 0. 0. 0. 0.
      0. 0. 0. 0. 4.90196096e-03 0. 0. 0. 0. 0. 0. 0. 0. 0. 0. 0. 0.
      4.90196096e-03 0. 9.80392192e-03 4.90196096e-03 0. 0. 0. 0. 0. 0.
      0. 0. 0. 0. 0. 0. 0. 0. 0. 0. 0. 0. 0. 0. 0. 0. 0. 0.
      4.90196096e-03 4.90196096e-03 0. 0. 4.90196096e-03 4.90196096e-03
      0. 0. 0. 0. 0. 0. 0. 0. 0. 4.90196096e-03 0. 0. 0. 0. 0. 0.
      9.80392192e-03 0. 0. 0. 0. 0. 0. 0. 0. 0. 0. 0. 0. 0. 0. 0. 0. 0.
      0. 0. 0. 0. 0. 0. 0. 0. 0. 0. 0. 0. 0. 0. 4.90196096e-03 0. 0. 0.
      0. 0. 0. 0. 0. 4.90196096e-03 0. 4.90196096e-03 0. 4.90196096e-03
      0. 0. 0. 0. 0. 0. 0. 4.90196096e-03 0. 0. 0. 0. 0. 0. 0. 0. 0.
      4.90196096e-03 4.90196096e-03 0. 0. 0. 0. 4.90196096e-03 0. 0. 0.
      0. 0. 4.90196096e-03 0. 0. 0. 0. 4.90196096e-03 0. 0. 0. 0.
      4.90196096e-03 0. 0. 0. 0. 0. 4.90196096e-03 0. 0. 0. 0. 0. 0. 0.
      4.90196096e-03 4.90196096e-03 0. 0. 0. 0. 0. 0. 0. 0. 0. 0. 0.
      4.90196096e-03 0. 0. 0. 4.90196096e-03 0. 0. 0. 0. 0. 0. 0. 0. 0.
      0. 0. 0. 0. 0. 0. 0. 4.90196096e-03 0. 0. 0. 9.80392192e-03 0. 0.
      0. 0. 4.90196096e-03 0. 0. 0. 4.90196096e-03 0. 0. 4.90196096e-03
      4.90196096e-03 4.90196096e-03 0. 9.80392192e-03 9.80392192e-03 0.
      0. 0. 0. 0. 0. 4.90196096e-03 0. 9.80392192e-03 0. 0. 0. 0. 0.
      4.90196096e-03 1.47058833e-02 0. 0. 4.90196096e-03 4.90196096e-03
      0. 0. 0. 0. 0. 0. 4.90196096e-03 0. 0. 0. 9.80392192e-03 0. 0.
      9.80392192e-03 0. 0. 0. 0. 0. 4.90196096e-03 0. 0. 0. 0. 0. 0. 0.
      0. 0. 0. 0. 0. 0. 0. 0. 0. 0. 0. 0. 0. 0. 0. 0. 0. 0. 0. 0. 0. 0.
      0. 0. 0. 0. 0. 0. 0. 0. 0. 0. 0. 0. 0. 0. 0. 4.90196096e-03
      4.90196096e-03 0. 0. 0. 0. 4.90196096e-03 0. 4.90196096e-03 0. 0.
      4.90196096e-03 0. 0. 0. 0. 0. 0. 0. 0. 0. 4.90196096e-03 0. 0. 0.
      0. 0. 0. 0. 0. 4.90196096e-03 0. 4.90196096e-03 0. 0. 0. 0.
      4.90196096e-03 9.80392192e-03 0. 0. 0. 0. 0. 4.90196096e-03
      4.90196096e-03 0. 4.90196096e-03 0. 0. 0. 0. 0. 0. 0. 0. 0. 0.
      4.90196096e-03 0. 4.90196096e-03 0. 4.90196096e-03 0.
      4.90196096e-03 0. 4.90196096e-03 0. 4.90196096e-03 0. 0.
      4.90196096e-03 4.90196096e-03 0. 0. 0. 0. 0. 0. 4.90196096e-03
      9.80392192e-03 0. 0. 0. 0. 0. 0. 0. 0. 0. 0. 4.90196096e-03 0. 0.
      9.80392192e-03 0. 0. 0. 0. 0. 4.90196096e-03 0. 0. 4.90196096e-03
      0. 4.90196096e-03 0. 0. 0. 0. 4.90196096e-03 0. 0. 0. 0. 0.
      4.90196096e-03 4.90196096e-03 0. 0. 0. 0. 0. 0. 0. 0.
      4.90196096e-03 0. 4.90196096e-03 0. 9.80392192e-03 4.90196096e-03
      0. 0. 0. 0. 0. 0. 0. 0. 0. 0. 4.90196096e-03 4.90196096e-03 0. 0.
      0. 0. 0. 0. 4.90196096e-03 0. 0. 0. 0. 0. 0. 0. 9.80392192e-03 0.
      0. 0. 4.90196096e-03 4.90196096e-03 0. 0. 0. 0. 0. 0.
      4.90196096e-03 0. 0. 0. 0. 4.90196096e-03 0. 0. 9.80392192e-03 0.
      0. 0. 0. 0. 0. 0. 4.90196096e-03 0. 9.80392192e-03 0.
      9.80392192e-03 0. 0. 0. 0. 9.80392192e-03 0. 4.90196096e-03
      9.80392192e-03 9.80392192e-03 0. 0. 0. 0. 4.90196096e-03 0. 0. 0.
      0. 0. 9.80392192e-03 0. 0. 0. 0. 0. 0. 0. 0. 0. 0. 0. 0.
      4.90196096e-03 4.90196096e-03 0. 0. 0. 0. 0. 0. 4.90196096e-03 0.
      0. 0. 0. 0. 0. 0. 0. 0. 0. 4.90196096e-03 0. 4.90196096e-03 0. 0.
      0. 0. 0. 0. 0. 9.80392192e-03 0. 0. 0. 0. 4.90196096e-03 0. 0. 0.
      0. 4.90196096e-03 0. 0. 0. 0. 0. 0. 0. 0. 0. 0. 4.90196096e-03 0.
      0. 0. 4.90196096e-03 0. 1.96078438e-02 4.90196096e-03 0. 0.
      4.90196096e-03 0. 0. 0. 0. 0. 0. 0. 0. 0. 0. 0. 0. 0. 0. 0. 0.
      4.90196096e-03 9.80392192e-03 0. 4.90196096e-03 0. 0. 0.
      9.80392192e-03 0. 0. 0. 0. 0. 0. 0. 0. 4.90196096e-03
      4.90196096e-03 0. 0. 0. 0. 0. 0. 0. 0. 0. 0. 0. 0. 0. 0. 0. 0. 0.
      0. 0. 4.90196096e-03 0. 0. 0. 1.47058833e-02 0. 0. 0.
      4.90196096e-03 4.90196096e-03 0. 4.90196096e-03 0. 0. 0. 0. 0. 0.
      0. 0. 0. 0. 0. 0. 0. 0. 0. 4.90196096e-03 0. 0. 4.90196096e-03 0.
      0. 0. 0. 0. 0. 4.90196096e-03 0. 0. 0. 4.90196096e-03 0. 0. 0.
      4.90196096e-03 0. 0. 0. 0. 0. 0. 0. 0. 4.90196096e-03 0. 0. 0. 0.
      4.90196096e-03 4.90196096e-03 0. 0. 0. 0. 0. 0. 4.90196096e-03 0.
      0. 0. 0. 0. 9.80392192e-03 0. 0. 0. 0. 0. 0. 0. 0. 0. 0. 0. 0. 0.
      0. 0. 0. 0. 0. 4.90196096e-03 0. 0. 0. 0. 0. 0. 0. 0.
      4.90196096e-03 0. 0. 4.90196096e-03 0. 0. 0. 4.90196096e-03 0. 0.
      0. 0. 4.90196096e-03 4.90196096e-03 4.90196096e-03 4.90196096e-03
      0. 0. 0. 4.90196096e-03 0. 4.90196096e-03 4.90196096e-03 0.</_>
    <_>
      0. 0. 0. 0. 0. 0. 0. 0. 0. 0. 0. 0. 0. 0. 0. 0. 0. 0. 0. 0. 0. 0.
      0. 0. 0. 0. 0. 0. 0. 0. 0. 0. 0. 0. 0. 0. 0. 0. 0. 0. 0. 0. 0. 0.
      0. 0. 0. 1.06382975e-02 0. 0. 0. 0. 1.06382975e-02 0.
      1.06382975e-02 0. 0. 0. 0. 0. 0. 0. 0. 0. 0. 0. 0. 0.
      1.06382975e-02 0. 0. 0. 0. 0. 0. 0. 0. 0. 0. 0. 0. 0. 0. 0. 0. 0.
      0. 0. 0. 0. 0. 0. 0. 0. 0. 0. 0. 0. 0. 0. 0. 0. 0. 0. 0. 0. 0. 0.
      0. 0. 0. 0. 0. 0. 0. 0. 0. 0. 0. 0. 0. 0. 0. 0. 0. 0. 0. 0. 0. 0.
      0. 0. 0. 0. 0. 0. 0. 0. 0. 0. 0. 0. 0. 0. 0. 0. 0. 0.
      1.06382975e-02 0. 0. 0. 1.06382975e-02 0. 0. 0. 0. 0. 0. 0. 0. 0.
      0. 0. 0. 0. 0. 0. 0. 0. 0. 0. 0. 0. 0. 0. 0. 0. 0. 0.
      1.06382975e-02 0. 0. 0. 0. 0. 0. 0. 0. 0. 0. 0. 0. 0. 0. 0.
      1.06382975e-02 1.06382975e-02 0. 0. 0. 0. 0. 0. 0. 0.
      1.06382975e-02 0. 0. 0. 0. 0. 0. 0. 0. 0. 0. 0. 0. 0. 0. 0. 0. 0.
      0. 0. 0. 0. 0. 0. 0. 0. 0. 0. 0. 0. 0. 0. 0. 0. 0. 0. 0. 0. 0. 0.
      0. 0. 0. 0. 0. 2.12765951e-02 0. 0. 0. 0. 0. 0. 0. 1.06382975e-02
      0. 0. 0. 0. 0. 0. 0. 0. 0. 0. 0. 0. 0. 0. 0. 0. 0. 0. 0. 0. 0. 0.
      0. 0. 0. 0. 0. 0. 0. 0. 0. 0. 0. 0. 0. 0. 0. 0. 0. 1.06382975e-02
      0. 0. 0. 0. 0. 0. 0. 0. 0. 0. 0. 0. 0. 0. 0. 0. 0. 0.
      1.06382975e-02 0. 0. 0. 0. 0. 0. 0. 0. 0. 0. 0. 0. 0. 0. 0. 0. 0.
      0. 0. 0. 0. 0. 0. 0. 0. 0. 0. 2.12765951e-02 0. 0. 0. 0. 0. 0. 0.
      0. 0. 0. 0. 0. 0. 0. 0. 0. 0. 0. 0. 0. 0. 0. 1.06382975e-02 0. 0.
      0. 0. 0. 0. 0. 0. 0. 0. 1.06382975e-02 0. 0. 0. 0. 0. 0. 0. 0. 0.
      0. 0. 0. 0. 0. 0. 0. 1.06382975e-02 0. 0. 0. 0. 0. 0. 0. 0. 0.
      1.06382975e-02 0. 0. 0. 0. 0. 0. 0. 0. 0. 0. 0. 0. 1.06382975e-02
      0. 0. 0. 0. 0. 0. 0. 0. 0. 0. 0. 1.06382975e-02 0. 0. 0. 0. 0. 0.
      0. 0. 0. 0. 0. 0. 0. 0. 0. 0. 0. 0. 0. 0. 0. 0. 0. 0. 0. 0. 0. 0.
      1.06382975e-02 0. 1.06382975e-02 0. 0. 0. 0. 0. 0. 0. 0.
      1.06382975e-02 0. 0. 0. 0. 0. 0. 0. 0. 0. 0. 0. 0. 0. 0. 0. 0. 0.
      1.06382975e-02 0. 0. 0. 0. 0. 0. 0. 0. 0. 0. 1.06382975e-02 0. 0.
      0. 0. 0. 0. 0. 0. 0. 0. 0. 0. 0. 0. 0. 0. 0. 0. 0. 0. 0. 0. 0. 0.
      0. 0. 0. 0. 2.12765951e-02 0. 0. 0. 0. 0. 0. 0. 0. 0. 0. 0. 0. 0.
      0. 0. 0. 0. 0. 3.19148935e-02 0. 0. 0. 0. 0. 0. 0. 0. 0. 0. 0. 0.
      0. 0. 0. 0. 0. 0. 0. 0. 0. 0. 0. 0. 0. 2.12765951e-02 0.
      1.06382975e-02 0. 0. 2.12765951e-02 0. 0. 0. 0. 0. 0. 0. 0. 0. 0.
      0. 0. 0. 0. 0. 0. 0. 0. 0. 0. 0. 0. 0. 1.06382975e-02 0. 0. 0. 0.
      0. 0. 0. 0. 0. 1.06382975e-02 0. 0. 0. 0. 0. 0. 0. 0. 0. 0. 0. 0.
      0. 0. 0. 0. 0. 1.06382975e-02 0. 2.12765951e-02 0. 0.
      3.19148935e-02 0. 0. 0. 0. 0. 0. 0. 1.06382975e-02 0. 0. 0. 0. 0.
      0. 0. 0. 0. 0. 0. 0. 0. 0. 0. 1.06382975e-02 1.06382975e-02 0. 0.
      0. 0. 0. 0. 1.06382975e-02 0. 0. 0. 0. 0. 0. 0. 0. 0. 0. 0. 0. 0.
      0. 0. 2.12765951e-02 0. 0. 1.06382975e-02 0. 1.06382975e-02 0. 0.
      0. 1.06382975e-02 0. 1.06382975e-02 0. 0. 0. 0. 0. 0. 0. 0. 0. 0.
      0. 0. 0. 0. 0. 0. 0. 0. 0. 0. 0. 0. 1.06382975e-02 0. 0. 0.
      1.06382975e-02 0. 0. 0. 1.06382975e-02 0. 0. 0. 0. 0. 0. 0.
      1.06382975e-02 0. 0. 0. 0. 0. 0. 1.06382975e-02 0. 0. 0. 0. 0. 0.
      0. 0. 0. 0. 1.06382975e-02 0. 0. 0. 0. 0. 0. 0. 0. 0. 0. 0.
      2.12765951e-02 0. 0. 0. 0. 0. 1.06382975e-02 0. 0. 0. 0. 0.
      1.06382975e-02 0. 0. 1.06382975e-02 0. 0. 0. 0. 0. 1.06382975e-02
      1.06382975e-02 1.06382975e-02 0. 0. 0. 0. 0. 0. 0. 0. 0. 0. 0. 0.
      1.06382975e-02 0. 0. 0. 0. 0. 0. 0. 0. 0. 0. 0. 1.06382975e-02
      1.06382975e-02 0. 1.06382975e-02 0. 0. 0. 0. 0. 0. 0. 0. 0. 0. 0.
      0. 0. 0. 0. 0. 0. 0. 0. 1.06382975e-02 0. 0. 0. 0. 0. 0. 0. 0.
      1.06382975e-02 0. 0. 0. 1.06382975e-02 0. 0. 0. 0. 0. 0. 0. 0. 0.
      0. 0. 0. 0. 0. 0. 0. 0. 0. 0. 0. 1.06382975e-02 0. 0. 0. 0. 0. 0.
      0. 0. 0. 2.12765951e-02 0. 1.06382975e-02 0. 0. 0. 1.06382975e-02
      0. 0. 0. 0. 0. 0. 0. 0. 0. 1.06382975e-02 0. 0. 0. 0. 0. 0. 0. 0.
      0. 1.06382975e-02 0. 0. 0. 0. 0. 0. 0. 0. 0. 1.06382975e-02 0. 0.
      1.06382975e-02 0. 0. 0. 0. 0. 1.06382975e-02 0. 0. 0. 0. 0. 0. 0.
      0. 0. 0. 0. 0. 0. 0. 0. 0. 0. 0. 0. 0. 0. 0. 1.06382975e-02 0. 0.
      0. 0. 0. 0. 0. 0. 0. 0. 0. 0. 0. 0. 0. 0. 0. 1.06382975e-02
      2.12765951e-02 0. 0. 0. 0. 0. 1.06382975e-02 0. 0. 0. 0. 0. 0. 0.
      0. 0. 0. 1.06382975e-02 1.06382975e-02 0. 0. 0. 0. 0. 0. 0. 0. 0.
      0. 0. 0. 0. 0.</_>
    <_>
      0. 0. 0. 4.67289705e-03 0. 0. 0. 0. 4.67289705e-03 0. 0. 0. 0. 0.
      0. 0. 0. 0. 0. 4.67289705e-03 0. 0. 0. 0. 0. 0. 0. 0. 0.
      4.67289705e-03 0. 0. 0. 4.67289705e-03 0. 0. 0. 4.67289705e-03 0.
      0. 0. 0. 0. 0. 0. 0. 0. 0. 0. 0. 4.67289705e-03 0. 0.
      4.67289705e-03 0. 4.67289705e-03 0. 0. 0. 0. 0. 0. 0. 0. 0. 0. 0.
      0. 1.40186911e-02 0. 4.67289705e-03 0. 0. 0. 9.34579410e-03 0.
      4.67289705e-03 0. 0. 0. 0. 0. 0. 0. 0. 0. 0. 4.67289705e-03 0. 0.
      0. 0. 0. 0. 0. 0. 0. 0. 0. 0. 4.67289705e-03 0. 0. 0. 0.
      4.67289705e-03 0. 2.33644843e-02 0. 0. 0. 0. 0. 0. 0. 0. 0. 0. 0.
      0. 0. 0. 0. 0. 0. 0. 0. 0. 0. 0. 0. 0. 0. 0. 0. 0. 0. 0. 0. 0. 0.
      0. 0. 0. 0. 0. 0. 0. 0. 0. 0. 0. 0. 4.67289705e-03 0. 0. 0. 0. 0.
      0. 0. 1.40186911e-02 0. 0. 0. 0. 4.67289705e-03 0. 0. 0. 0.
      9.34579410e-03 0. 0. 0. 0. 0. 0. 0. 4.67289705e-03 0.
      4.67289705e-03 0. 0. 0. 0. 4.67289705e-03 4.67289705e-03
      4.67289705e-03 0. 0. 4.67289705e-03 0. 0. 0. 0. 0. 0.
      9.34579410e-03 4.67289705e-03 0. 0. 0. 0. 0. 4.67289705e-03 0. 0.
      0. 4.67289705e-03 0. 0. 0. 0. 0. 4.67289705e-03 0. 0. 0. 0. 0. 0.
      0. 0. 0. 0. 0. 0. 4.67289705e-03 0. 0. 4.67289705e-03
      4.67289705e-03 0. 0. 0. 0. 0. 0. 0. 0. 0. 4.67289705e-03 0. 0. 0.
      0. 0. 0. 0. 4.67289705e-03 4.67289705e-03 4.67289705e-03
      4.67289705e-03 9.34579410e-03 0. 0. 0. 0. 0. 0. 0. 0.
      4.67289705e-03 0. 9.34579410e-03 0. 0. 0. 0. 0. 0. 0.
      4.67289705e-03 0. 0. 0. 0. 0. 0. 0. 0. 0. 0. 0. 0. 0. 0.
      4.67289705e-03 0. 0. 0. 0. 0. 0. 0. 0. 0. 0. 4.67289705e-03 0. 0.
      0. 0. 0. 0. 0. 4.67289705e-03 0. 0. 0. 0. 4.67289705e-03 0.
      4.67289705e-03 0. 0. 0. 9.34579410e-03 4.67289705e-03 0. 0. 0. 0.
      0. 0. 0. 0. 0. 0. 4.67289705e-03 0. 4.67289705e-03 9.34579410e-03
      0. 4.67289705e-03 0. 0. 4.67289705e-03 0. 0. 0. 0. 0. 0. 0. 0. 0.
      0. 4.67289705e-03 0. 9.34579410e-03 0. 0. 0. 0. 4.67289705e-03 0.
      4.67289705e-03 0. 0. 0. 0. 4.67289705e-03 0. 0. 0. 4.67289705e-03
      0. 4.67289705e-03 0. 0. 0. 0. 0. 4.67289705e-03 0. 0. 0.
      4.67289705e-03 4.67289705e-03 0. 4.67289705e-03 0. 0.
      4.67289705e-03 0. 0. 0. 0. 4.67289705e-03 0. 0. 0. 0. 0. 0. 0. 0.
      0. 0. 0. 0. 0. 0. 0. 0. 0. 0. 0. 0. 0. 0. 0. 0. 0. 0.
      9.34579410e-03 0. 0. 0. 0. 0. 0. 0. 0. 0. 0. 0. 0. 0. 0. 0. 0. 0.
      0. 4.67289705e-03 0. 0. 0. 0. 0. 0. 0. 0. 0. 0. 0. 0.
      4.67289705e-03 0. 0. 0. 0. 0. 0. 0. 0. 0. 0. 0. 0. 0. 0. 0. 0. 0.
      0. 0. 0. 0. 0. 0. 0. 0. 4.67289705e-03 0. 0. 0. 0. 0. 0. 0. 0. 0.
      9.34579410e-03 0. 1.40186911e-02 0. 0. 0. 0. 0. 0. 0. 0. 0. 0. 0.
      0. 4.67289705e-03 0. 0. 0. 0. 0. 0. 0. 0. 0. 0. 0. 0. 0.
      4.67289705e-03 4.67289705e-03 0. 0. 0. 0. 0. 0. 0. 4.67289705e-03
      0. 0. 0. 0. 0. 0. 0. 0. 0. 0. 0. 0. 0. 0. 0. 4.67289705e-03 0. 0.
      0. 0. 0. 0. 9.34579410e-03 0. 0. 4.67289705e-03 0. 0. 0. 0. 0. 0.
      0. 0. 4.67289705e-03 0. 0. 0. 0. 0. 0. 0. 0. 0. 0. 0.
      4.67289705e-03 0. 0. 0. 0. 4.67289705e-03 0. 4.67289705e-03
      9.34579410e-03 4.67289705e-03 0. 0. 0. 0. 0. 0. 1.40186911e-02 0.
      0. 0. 0. 4.67289705e-03 0. 0. 0. 0. 0. 0. 0. 0. 0. 0. 0. 0.
      4.67289705e-03 0. 0. 0. 4.67289705e-03 0. 0. 0. 0. 0. 0. 0. 0. 0.
      0. 0. 4.67289705e-03 4.67289705e-03 0. 0. 0. 0. 4.67289705e-03 0.
      0. 0. 0. 4.67289705e-03 4.67289705e-03 4.67289705e-03 0.
      4.67289705e-03 0. 0. 4.67289705e-03 0. 0. 0. 0. 0. 4.67289705e-03
      0. 4.67289705e-03 0. 4.67289705e-03 0. 0. 4.67289705e-03 0.
      4.67289705e-03 0. 0. 0. 0. 0. 0. 0. 0. 0. 0. 0. 0. 0. 0.
      9.34579410e-03 9.34579410e-03 0. 0. 0. 0. 0. 0. 0. 0. 0. 0.
      4.67289705e-03 0. 0. 0. 4.67289705e-03 0. 0. 0. 0. 0. 0. 0. 0. 0.
      4.67289705e-03 0. 9.34579410e-03 0. 0. 0. 0. 0. 4.67289705e-03 0.
      0. 4.67289705e-03 0. 0. 0. 0. 0. 0. 0. 0. 0. 0. 9.34579410e-03 0.
      4.67289705e-03 0. 0. 0. 0. 0. 4.67289705e-03 0. 0. 4.67289705e-03
      9.34579410e-03 0. 0. 0. 0. 0. 0. 0. 4.67289705e-03 0. 0. 0. 0. 0.
      0. 0. 0. 0. 0. 0. 4.67289705e-03 0. 9.34579410e-03 0. 0.
      9.34579410e-03 0. 4.67289705e-03 0. 0. 0. 4.67289705e-03 0.
      4.67289705e-03 4.67289705e-03 0. 0. 0. 0. 0. 0. 4.67289705e-03 0.
      0. 0. 0. 0. 9.34579410e-03 0. 4.67289705e-03 0. 0. 0. 0. 0. 0. 0.
      0. 0. 0. 4.67289705e-03 0. 0. 0. 4.67289705e-03 0. 0. 0. 0. 0. 0.
      4.67289705e-03 0. 0. 0. 0. 0. 0. 0. 0. 0. 0. 4.67289705e-03 0. 0.
      0. 0. 0. 0. 0. 0. 0. 0. 0. 0. 9.34579410e-03 4.67289705e-03 0. 0.
      0. 9.34579410e-03 0. 0. 0. 4.67289705e-03 0. 0. 0. 0. 0. 0. 0.
      4.67289705e-03 4.67289705e-03 0. 0. 0. 4.67289705e-03 0. 0. 0. 0.
      0. 0. 0. 0. 0. 0. 0. 0. 0. 4.67289705e-03 0. 0. 0. 9.34579410e-03
      0. 0. 0. 0. 0. 0. 0. 0. 0. 0. 0. 4.67289705e-03 0. 0. 0.
      4.67289705e-03 4.67289705e-03 0. 9.34579410e-03 0. 9.34579410e-03
      0. 0. 0. 0. 0. 0. 0. 0. 0. 0. 0. 0. 0. 4.67289705e-03 0.
      4.67289705e-03 0. 0. 0. 0. 4.67289705e-03 0. 0. 0. 0. 0. 0.
      9.34579410e-03 0. 0. 0. 0. 0. 0. 4.67289705e-03 0. 0.
      4.67289705e-03 4.67289705e-03 0. 0. 0. 0. 0. 4.67289705e-03
      4.67289705e-03 0. 4.67289705e-03 0. 4.67289705e-03 0.
      4.67289705e-03 0. 0. 0. 0. 0. 0. 0. 9.34579410e-03 0. 0.
      4.67289705e-03 9.34579410e-03 0. 0. 0. 0. 0. 0. 0. 1.40186911e-02
      4.67289705e-03 0. 0. 0. 0. 0. 4.67289705e-03 0. 4.67289705e-03 0.
      0. 0. 9.34579410e-03 0. 0. 0. 4.67289705e-03 0. 0. 4.67289705e-03
      0. 0. 0. 4.67289705e-03 0. 0. 0. 0. 0. 0. 0. 0. 0. 0. 0. 0. 0. 0.
      0. 0. 0. 0. 4.67289705e-03</_>
    <_>
      0. 0. 0. 0. 0. 0. 0. 0. 0. 0. 0. 0. 1.88679248e-02 0. 0. 0.
      3.77358496e-02 0. 0. 0. 0. 0. 0. 0. 0. 0. 0. 0. 0. 0. 0. 0. 0. 0.
      0. 0. 0. 0. 0. 0. 0. 0. 0. 0. 0. 0. 0. 0. 0. 0. 0. 0. 0. 0. 0. 0.
      0. 0. 0. 0. 0. 0. 0. 0. 0. 0. 0. 0. 0. 0. 0. 0. 0. 0. 0. 0. 0. 0.
      0. 0. 0. 0. 0. 0. 0. 0. 0. 0. 0. 0. 0. 0. 0. 0. 0. 0. 0. 0. 0. 0.
      0. 0. 0. 0. 0. 0. 0. 0. 0. 1.88679248e-02 0. 0. 0. 0. 0. 0. 0. 0.
      0. 0. 0. 0. 0. 0. 0. 0. 0. 0. 0. 0. 0. 0. 0. 0. 0. 0. 0. 0. 0. 0.
      0. 0. 0. 0. 0. 0. 0. 0. 0. 0. 0. 0. 0. 0. 0. 0. 0. 0. 0. 0. 0. 0.
      0. 0. 0. 0. 0. 0. 0. 0. 0. 1.88679248e-02 0. 0. 0. 0. 0. 0. 0. 0.
      0. 0. 0. 0. 0. 0. 0. 0. 0. 0. 0. 0. 0. 0. 0. 0. 0. 0. 0. 0. 0. 0.
      0. 0. 0. 0. 0. 0. 0. 1.88679248e-02 0. 0. 0. 0. 0. 0. 0. 0. 0. 0.
      0. 0. 0. 0. 0. 0. 0. 0. 0. 0. 0. 1.88679248e-02 0. 0. 0. 0. 0. 0.
      0. 0. 0. 0. 0. 0. 0. 1.88679248e-02 0. 0. 0. 0. 0. 0.
      1.88679248e-02 0. 0. 0. 0. 0. 0. 0. 0. 0. 0. 0. 0. 0. 0. 0. 0. 0.
      0. 0. 0. 0. 0. 0. 0. 0. 0. 0. 0. 0. 0. 0. 0. 0. 0. 0. 0. 0. 0. 0.
      0. 0. 0. 1.88679248e-02 0. 1.88679248e-02 0. 0. 0. 0. 0. 0. 0. 0.
      0. 0. 0. 0. 0. 0. 0. 0. 0. 0. 0. 0. 0. 0. 0. 0. 0. 0. 0. 0. 0. 0.
      0. 0. 0. 0. 0. 0. 0. 0. 0. 0. 0. 0. 0. 0. 0. 0. 0. 0. 0. 0. 0. 0.
      0. 0. 0. 0. 0. 0. 0. 0. 0. 0. 0. 0. 0. 0. 0. 0. 0. 0. 0. 0.
      1.88679248e-02 1.88679248e-02 0. 0. 0. 0. 0. 0. 0. 0. 0. 0. 0. 0.
      0. 0. 0. 0. 0. 0. 1.88679248e-02 0. 0. 0. 0. 0. 0. 0. 0. 0. 0. 0.
      0. 0. 1.88679248e-02 0. 0. 0. 0. 0. 0. 0. 0. 0. 0. 0. 0. 0. 0. 0.
      1.88679248e-02 0. 0. 0. 0. 0. 0. 0. 0. 0. 0. 0. 0. 0. 0. 0. 0.
      1.88679248e-02 0. 0. 0. 0. 0. 0. 0. 0. 1.88679248e-02 0. 0. 0. 0.
      0. 0. 0. 0. 0. 0. 0. 0. 0. 0. 0. 0. 0. 0. 0. 0. 0. 0. 0. 0. 0. 0.
      0. 0. 0. 0. 0. 0. 0. 0. 0. 0. 0. 0. 0. 0. 0. 0. 1.88679248e-02 0.
      0. 0. 0. 0. 0. 0. 0. 0. 0. 0. 0. 0. 0. 0. 1.88679248e-02 0. 0. 0.
      0. 0. 3.77358496e-02 0. 0. 0. 0. 0. 0. 0. 0. 0. 0. 0. 0. 0. 0. 0.
      0. 1.88679248e-02 0. 0. 0. 0. 0. 0. 0. 0. 0. 0. 0. 0. 0. 0. 0. 0.
      0. 0. 0. 0. 0. 0. 0. 0. 0. 0. 0. 0. 0. 0. 0. 0. 0. 0. 0. 0. 0. 0.
      1.88679248e-02 0. 0. 0. 0. 0. 0. 1.88679248e-02 0. 0. 0. 0. 0. 0.
      0. 0. 0. 0. 0. 0. 0. 0. 0. 0. 0. 0. 0. 0. 0. 0. 0. 0. 0. 0. 0. 0.
      0. 0. 0. 0. 0. 0. 0. 0. 0. 0. 0. 0. 0. 0. 0. 0. 0. 0. 0. 0. 0. 0.
      0. 0. 0. 0. 0. 0. 0. 0. 0. 0. 1.88679248e-02 0. 0. 0. 0. 0. 0. 0.
      0. 0. 0. 0. 0. 0. 0. 0. 0. 0. 3.77358496e-02 0. 0. 0. 0. 0. 0. 0.
      0. 0. 0. 0. 0. 0. 0. 0. 1.88679248e-02 0. 0. 0. 0. 0. 0. 0. 0. 0.
      0. 0. 0. 0. 0. 0. 0. 0. 0. 0. 0. 0. 0. 0. 0. 0. 0. 0. 0.
      1.88679248e-02 0. 0. 0. 0. 0. 0. 0. 0. 0. 0. 0. 0. 0. 0. 0. 0. 0.
      0. 0. 0. 0. 3.77358496e-02 0. 0. 0. 0. 0. 0. 0. 0. 0. 0. 0. 0. 0.
      0. 0. 0. 0. 0. 0. 1.88679248e-02 0. 0. 0. 1.88679248e-02 0. 0. 0.
      0. 0. 0. 0. 0. 0. 0. 0. 0. 0. 0. 1.88679248e-02 0. 0. 0. 0. 0. 0.
      0. 0. 0. 0. 0. 0. 0. 0. 0. 1.88679248e-02 0. 0. 0. 0. 0. 0.
      1.88679248e-02 0. 0. 0. 0. 0. 0. 3.77358496e-02 1.88679248e-02 0.
      0. 0. 0. 0. 0. 0. 0. 0. 0. 0. 0. 0. 0. 0. 0. 0. 0. 0. 0. 0. 0. 0.
      0. 0. 0. 0. 0. 0. 0. 1.88679248e-02 0. 0. 0. 0. 0. 1.88679248e-02
      0. 0. 0. 0. 0. 1.88679248e-02 0. 0. 0. 0. 0. 0. 0. 0. 0. 0. 0. 0.
      0. 0. 0. 0. 0. 0. 0. 0. 0. 0. 0. 0. 0. 0. 0. 0. 0. 0. 0. 0. 0. 0.
      1.88679248e-02 0. 0. 0. 0. 0. 0. 0. 0. 0. 0. 0. 0. 0. 0. 0. 0. 0.
      0. 0. 0. 0. 0. 0. 0. 0. 0. 0. 0. 0. 0. 0. 0. 0. 0. 0. 0.
      1.88679248e-02 0. 0. 0. 0. 0. 0. 0. 0. 1.88679248e-02 0. 0. 0. 0.
      0. 0. 0. 0. 0. 0. 0. 0. 0. 0. 0. 0. 0. 0. 0. 0. 1.88679248e-02 0.
      0. 0. 0. 0. 0. 0. 1.88679248e-02 0. 0. 0. 0. 0. 0. 0.
      1.88679248e-02 0. 0. 0. 0. 0. 0. 0. 0. 0. 0. 0. 1.88679248e-02 0.
      0. 0. 0. 0. 0. 3.77358496e-02 0. 0. 0. 0. 0. 0. 0. 0. 0. 0. 0. 0.
      0. 0. 0. 0. 0. 0. 0. 0. 0. 0. 0. 0. 0. 0. 1.88679248e-02 0. 0.</_>
    <_>
      0. 0. 0. 3.80952377e-03 0. 0. 0. 0. 0. 0. 0. 0. 3.80952377e-03 0.
      1.90476188e-03 0. 0. 0. 0. 0. 1.90476188e-03 0. 0. 0. 0.
      1.90476188e-03 0. 0. 1.90476188e-03 1.90476188e-03 0. 0.
      1.90476188e-03 0. 0. 0. 0. 0. 0. 0. 0. 1.90476188e-03
      5.71428565e-03 1.90476188e-03 0. 3.80952377e-03 0. 0. 0. 0. 0.
      1.90476188e-03 0. 0. 0. 0. 0. 0. 1.90476188e-03 0. 0.
      1.90476188e-03 3.80952377e-03 0. 0. 0. 0. 0. 3.80952377e-03
      5.71428565e-03 0. 0. 0. 1.90476188e-03 0. 0. 0. 0. 0. 0. 0. 0. 0.
      0. 0. 1.90476188e-03 1.90476188e-03 3.80952377e-03 0. 0. 0. 0.
      1.90476188e-03 3.80952377e-03 0. 3.80952377e-03 0. 0.
      1.90476188e-03 0. 1.90476188e-03 0. 0. 0. 1.90476188e-03
      3.80952377e-03 1.90476188e-03 3.80952377e-03 0. 0. 0. 0. 0.
      7.61904754e-03 0. 0. 0. 0. 1.90476188e-03 0. 1.90476188e-03
      1.90476188e-03 0. 0. 0. 0. 0. 0. 1.90476188e-03 0. 0.
      1.90476188e-03 0. 0. 0. 7.61904754e-03 1.90476188e-03 0. 0. 0.
      3.80952377e-03 1.90476188e-03 0. 3.80952377e-03 0. 1.90476188e-03
      0. 1.90476188e-03 1.90476188e-03 1.90476188e-03 0. 0. 0.
      1.90476188e-03 0. 0. 0. 0. 0. 1.90476188e-03 1.90476188e-03 0. 0.
      5.71428565e-03 1.90476188e-03 9.52380896e-03 1.90476188e-03 0. 0.
      0. 0. 1.90476188e-03 0. 0. 1.90476188e-03 0. 0. 0. 0.
      1.90476188e-03 0. 1.90476188e-03 0. 0. 0. 0. 3.80952377e-03 0.
      1.90476188e-03 0. 0. 3.80952377e-03 0. 0. 0. 0. 5.71428565e-03
      1.90476188e-03 0. 0. 1.90476188e-03 0. 5.71428565e-03 0.
      1.90476188e-03 1.90476188e-03 0. 0. 0. 0. 0. 0. 0. 1.90476188e-03
      1.90476188e-03 0. 0. 0. 3.80952377e-03 0. 0. 0. 0. 0. 0. 0. 0. 0.
      1.90476188e-03 0. 1.90476188e-03 0. 0. 3.80952377e-03 0. 0. 0.
      1.90476188e-03 0. 0. 0. 0. 5.71428565e-03 0. 0. 1.90476188e-03
      1.90476188e-03 7.61904754e-03 3.80952377e-03 3.80952377e-03
      3.80952377e-03 0. 0. 1.90476188e-03 3.80952377e-03 0.
      1.90476188e-03 7.61904754e-03 1.90476188e-03 0. 0. 0. 0. 0.
      1.90476188e-03 0. 0. 0. 3.80952377e-03 1.90476188e-03 0. 0. 0. 0.
      0. 0. 0. 0. 1.90476188e-03 1.90476188e-03 0. 0. 3.80952377e-03 0.
      3.80952377e-03 0. 0. 0. 0. 0. 0. 0. 3.80952377e-03 0. 0.
      3.80952377e-03 0. 1.90476188e-03 0. 0. 1.90476188e-03 0. 0. 0. 0.
      0. 0. 0. 1.90476188e-03 0. 5.71428565e-03 0. 0. 0. 0. 0. 0. 0.
      1.90476188e-03 1.90476188e-03 0. 0. 0. 0. 0. 0. 0. 0. 0. 0. 0. 0.
      0. 0. 0. 1.90476188e-03 0. 0. 0. 7.61904754e-03 0. 0.
      3.80952377e-03 3.80952377e-03 0. 0. 1.90476188e-03 0. 0. 0. 0.
      1.90476188e-03 0. 0. 0. 0. 1.90476188e-03 0. 0. 1.90476188e-03 0.
      1.90476188e-03 0. 0. 1.90476188e-03 0. 1.90476188e-03 0. 0. 0. 0.
      0. 0. 0. 0. 1.90476188e-03 1.90476188e-03 1.90476188e-03 0. 0. 0.
      0. 0. 0. 5.71428565e-03 0. 0. 7.61904754e-03 1.90476188e-03 0. 0.
      0. 0. 3.80952377e-03 0. 0. 5.71428565e-03 3.80952377e-03 0.
      1.90476188e-03 0. 0. 1.90476188e-03 0. 0. 0. 1.90476188e-03 0.
      1.90476188e-03 0. 3.80952377e-03 0. 0. 0. 0. 1.90476188e-03 0.
      1.90476188e-03 3.80952377e-03 0. 0. 5.71428565e-03 0.
      3.80952377e-03 0. 1.90476188e-03 0. 0. 0. 0. 0. 1.90476188e-03 0.
      0. 1.90476188e-03 0. 3.80952377e-03 0. 0. 0. 0. 1.90476188e-03 0.
      0. 0. 0. 0. 0. 0. 0. 0. 0. 0. 0. 0. 1.90476188e-03 5.71428565e-03
      0. 0. 0. 0. 0. 0. 1.90476188e-03 0. 0. 0. 0. 1.90476188e-03
      1.90476188e-03 1.90476188e-03 0. 0. 0. 0. 0. 0. 0. 3.80952377e-03
      0. 0. 1.90476188e-03 1.90476188e-03 1.90476188e-03 1.90476188e-03
      0. 5.71428565e-03 1.90476188e-03 0. 1.90476188e-03 0. 0. 0. 0. 0.
      3.80952377e-03 0. 1.90476188e-03 1.90476188e-03 1.90476188e-03
      1.90476188e-03 1.90476188e-03 1.90476188e-03 0. 0. 1.90476188e-03
      0. 0. 1.90476188e-03 0. 0. 1.90476188e-03 0. 0. 0. 0. 0. 0. 0. 0.
      0. 0. 1.90476188e-03 0. 1.90476188e-03 1.90476188e-03
      1.90476188e-03 0. 1.90476188e-03 3.80952377e-03 0. 1.90476188e-03
      1.90476188e-03 0. 0. 0. 1.90476188e-03 0. 3.80952377e-03
      1.90476188e-03 3.80952377e-03 0. 0. 0. 0. 0. 0. 0. 0. 0. 0. 0. 0.
      0. 0. 0. 0. 0. 0. 1.90476188e-03 1.90476188e-03 0. 3.80952377e-03
      0. 0. 0. 0. 0. 0. 7.61904754e-03 0. 1.90476188e-03 0. 0.
      3.80952377e-03 3.80952377e-03 0. 3.80952377e-03 0. 0.
      1.90476188e-03 0. 1.90476188e-03 0. 0. 1.90476188e-03 0. 0. 0. 0.
      0. 0. 0. 1.90476188e-03 0. 0. 0. 0. 0. 1.90476188e-03 0. 0. 0. 0.
      5.71428565e-03 0. 0. 0. 0. 0. 3.80952377e-03 0. 0. 0. 0. 0. 0.
      3.80952377e-03 0. 0. 3.80952377e-03 0. 0. 1.90476188e-03
      1.90476188e-03 1.90476188e-03 0. 0. 0. 0. 0. 3.80952377e-03 0. 0.
      5.71428565e-03 3.80952377e-03 0. 0. 1.90476188e-03 1.90476188e-03
      0. 0. 1.90476188e-03 0. 7.61904754e-03 0. 3.80952377e-03 0.
      5.71428565e-03 0. 0. 1.90476188e-03 0. 1.90476188e-03 0.
      1.90476188e-03 0. 0. 0. 0. 1.90476188e-03 0. 5.71428565e-03 0.
      3.80952377e-03 1.90476188e-03 1.90476188e-03 0. 0. 0.
      1.90476188e-03 0. 0. 3.80952377e-03 1.90476188e-03 0. 0.
      1.90476188e-03 0. 0. 0. 0. 0. 3.80952377e-03 1.90476188e-03
      3.80952377e-03 0. 1.90476188e-03 5.71428565e-03 1.90476188e-03 0.
      0. 0. 0. 0. 0. 0. 1.90476188e-03 1.90476188e-03 0. 0.
      7.61904754e-03 3.80952377e-03 0. 0. 0. 0. 3.80952377e-03 0. 0. 0.
      0. 0. 1.90476188e-03 0. 1.90476188e-03 1.90476188e-03 0. 0.
      1.90476188e-03 0. 0. 0. 0. 1.90476188e-03 0. 3.80952377e-03 0. 0.
      0. 0. 0. 1.90476188e-03 0. 1.90476188e-03 3.80952377e-03 0. 0.
      5.71428565e-03 0. 0. 3.80952377e-03 0. 0. 1.90476188e-03 0. 0.
      1.90476188e-03 1.90476188e-03 0. 3.80952377e-03 0. 3.80952377e-03
      1.90476188e-03 0. 0. 0. 0. 1.90476188e-03 1.90476188e-03 0.
      3.80952377e-03 1.90476188e-03 0. 0. 3.80952377e-03 0. 0.
      3.80952377e-03 3.80952377e-03 0. 3.80952377e-03 0. 1.90476188e-03
      0. 1.90476188e-03 0. 0. 0. 5.71428565e-03 0. 0. 0. 0.
      3.80952377e-03 0. 0. 0. 0. 0. 5.71428565e-03 0. 3.80952377e-03
      3.80952377e-03 1.90476188e-03 3.80952377e-03 1.90476188e-03 0. 0.
      0. 0. 1.90476188e-03 0. 0. 0. 0. 0. 0. 9.52380896e-03 0. 0. 0. 0.
      1.90476188e-03 0. 1.90476188e-03 0. 3.80952377e-03 0.
      1.90476188e-03 0. 1.90476188e-03 0. 0. 0. 0. 0. 0. 3.80952377e-03
      0. 0. 0. 1.90476188e-03 1.90476188e-03 0. 0. 0. 0. 1.90476188e-03
      3.80952377e-03 0. 3.80952377e-03 1.90476188e-03 1.90476188e-03
      9.52380896e-03 0. 0. 0. 0. 1.90476188e-03 0. 0. 0. 0. 0.
      3.80952377e-03 3.80952377e-03 0. 0. 1.90476188e-03 0. 0.
      1.90476188e-03 1.90476188e-03 0. 0. 0. 1.90476188e-03 0. 0.
      1.90476188e-03 0. 0. 0. 0. 0. 1.52380951e-02 1.90476188e-03 0.
      5.71428565e-03 0. 0. 5.71428565e-03 7.61904754e-03 0. 0.
      1.90476188e-03 0. 1.90476188e-03 0. 1.90476188e-03 0. 0. 0. 0. 0.
      0. 0. 0. 0. 3.80952377e-03 5.71428565e-03 0. 0. 0. 0. 0. 0.
      1.90476188e-03 1.90476188e-03 0. 1.90476188e-03 0. 0. 0. 0.
      1.90476188e-03 0. 0. 1.90476188e-03 0. 0. 0. 0. 3.80952377e-03
      1.90476188e-03 0. 3.80952377e-03 0. 0. 0. 0. 0. 1.90476188e-03 0.
      1.90476188e-03 0. 1.90476188e-03 1.90476188e-03 0. 0. 0. 0.
      7.61904754e-03 0. 0. 0. 1.90476188e-03 0. 0. 3.80952377e-03
      1.90476188e-03 3.80952377e-03 5.71428565e-03 3.80952377e-03 0.
      1.90476188e-03 3.80952377e-03 0. 7.61904754e-03 0. 1.90476188e-03
      3.80952377e-03 0. 0. 0. 0. 0. 1.33333337e-02 0. 1.90476188e-03 0.
      5.71428565e-03 0. 0. 0. 0. 0. 1.90476188e-03 5.71428565e-03 0. 0.
      0. 1.90476188e-03 0. 1.90476188e-03 0. 3.80952377e-03
      1.90476188e-03 0. 0. 0. 1.90476188e-03 0. 0. 0. 1.90476188e-03 0.
      0. 3.80952377e-03</_>
    <_>
      0. 0. 0. 0. 0. 0. 0. 0. 0. 0. 0. 0. 2.89017335e-03 0.
      2.89017335e-03 0. 2.89017335e-03 0. 0. 0. 0. 0. 2.89017335e-03 0.
      2.89017335e-03 0. 2.89017335e-03 0. 0. 0. 0. 2.02312134e-02 0. 0.
      0. 0. 0. 0. 0. 0. 0. 0. 0. 2.89017335e-03 0. 0. 0. 0. 0. 0. 0. 0.
      2.89017335e-03 0. 0. 0. 0. 0. 0. 0. 0. 0. 0. 0. 0. 0. 0. 0.
      2.89017335e-03 0. 0. 0. 0. 5.78034669e-03 0. 1.15606934e-02 0. 0.
      0. 0. 0. 0. 0. 0. 0. 0. 0. 0. 0. 0. 0. 0. 0. 0. 0. 0.
      2.89017335e-03 0. 0. 0. 0. 0. 0. 0. 0. 2.89017335e-03 0. 0. 0. 0.
      0. 0. 0. 2.89017335e-03 2.89017335e-03 0. 5.78034669e-03 0. 0.
      2.89017335e-03 0. 0. 0. 0. 0. 2.89017335e-03 0. 0. 0. 0. 0. 0. 0.
      0. 0. 0. 0. 0. 0. 0. 0. 0. 2.89017335e-03 0. 0. 0. 0. 0.
      2.89017335e-03 0. 0. 0. 0. 2.89017335e-03 0. 0. 0. 0. 0. 0. 0. 0.
      0. 2.89017335e-03 0. 0. 0. 0. 0. 0. 0. 2.89017335e-03 0. 0. 0. 0.
      0. 0. 0. 0. 0. 0. 0. 0. 0. 0. 0. 8.67052004e-03 2.89017335e-03 0.
      0. 2.89017335e-03 0. 0. 0. 0. 2.89017335e-03 2.89017335e-03 0.
      5.78034669e-03 0. 0. 0. 0. 2.89017335e-03 0. 2.89017335e-03 0.
      5.78034669e-03 0. 0. 0. 0. 0. 2.89017335e-03 0. 0. 2.89017335e-02
      0. 2.89017335e-03 2.89017335e-03 0. 0. 0. 0. 0. 0. 0. 0. 0.
      2.89017335e-03 0. 0. 0. 2.89017335e-03 2.89017335e-03
      2.89017335e-03 0. 0. 0. 0. 0. 0. 0. 0. 0. 8.67052004e-03
      2.89017335e-03 2.89017335e-03 0. 2.89017335e-03 0. 0.
      2.89017335e-03 0. 0. 0. 2.89017335e-03 0. 0. 0. 0. 0. 0. 0. 0. 0.
      0. 0. 2.89017335e-03 0. 0. 0. 0. 0. 2.89017335e-03 0.
      2.89017335e-03 0. 0. 0. 0. 0. 0. 0. 0. 0. 0. 0. 0. 0. 0.
      2.89017335e-03 0. 0. 5.78034669e-03 0. 0. 2.89017335e-03 0. 0. 0.
      0. 0. 0. 0. 0. 0. 0. 0. 0. 1.15606934e-02 0. 2.89017335e-03 0. 0.
      0. 0. 0. 2.89017335e-03 0. 0. 0. 0. 0. 0. 0. 0. 2.89017335e-03 0.
      0. 0. 0. 0. 0. 0. 2.89017335e-03 0. 0. 0. 0. 2.89017335e-03
      5.78034669e-03 5.78034669e-03 0. 0. 0. 0. 0. 0. 0. 0. 0. 0. 0. 0.
      0. 2.89017335e-03 2.89017335e-03 0. 0. 8.67052004e-03
      2.89017335e-03 0. 2.89017335e-03 0. 0. 0. 0. 0. 0. 1.15606934e-02
      0. 0. 0. 0. 0. 0. 2.89017335e-03 0. 0. 5.78034669e-03 0. 0. 0. 0.
      0. 2.89017335e-03 0. 0. 2.89017335e-03 0. 0. 0. 0. 2.89017335e-03
      2.89017335e-03 5.78034669e-03 0. 0. 0. 0. 0. 2.89017335e-03 0. 0.
      0. 2.89017335e-03 2.89017335e-03 0. 0. 0. 2.89017335e-03 0. 0. 0.
      2.89017335e-03 0. 0. 0. 0. 0. 0. 0. 0. 2.89017335e-03 0. 0. 0. 0.
      0. 0. 0. 0. 5.78034669e-03 0. 0. 0. 0. 0. 0. 5.78034669e-03
      2.89017335e-03 0. 0. 0. 0. 0. 2.89017335e-03 0. 0. 0. 0. 0. 0. 0.
      0. 0. 0. 0. 0. 2.89017335e-03 0. 2.89017335e-03 2.89017335e-03 0.
      0. 0. 0. 0. 0. 0. 0. 0. 0. 0. 0. 0. 0. 0. 0. 2.89017335e-03 0.
      2.89017335e-03 0. 0. 0. 0. 5.78034669e-03 2.89017335e-03
      5.78034669e-03 0. 0. 0. 0. 0. 0. 0. 0. 0. 5.78034669e-03
      2.89017335e-03 5.78034669e-03 0. 0. 0. 0. 0. 0. 0. 0. 0.
      1.44508667e-02 0. 0. 0. 0. 0. 0. 0. 0. 0. 0. 2.89017335e-03
      2.89017335e-03 0. 0. 0. 0. 2.89017335e-03 0. 2.89017335e-03 0. 0.
      5.78034669e-03 0. 0. 0. 0. 0. 0. 0. 0. 2.89017335e-03 0. 0. 0. 0.
      0. 0. 2.89017335e-03 0. 5.78034669e-03 2.89017335e-03
      2.89017335e-03 0. 0. 0. 0. 0. 0. 2.89017335e-03 0. 0. 0. 0. 0.
      2.89017335e-03 0. 0. 0. 0. 0. 0. 5.78034669e-03 0. 0.
      5.78034669e-03 0. 0. 0. 5.78034669e-03 0. 0. 0. 0. 0. 0. 0. 0. 0.
      0. 0. 2.89017335e-03 0. 0. 0. 0. 0. 0. 0. 0. 2.89017335e-03 0. 0.
      0. 0. 0. 0. 0. 0. 0. 2.89017335e-03 0. 0. 0. 0. 0. 0. 0.
      2.89017335e-03 0. 0. 0. 2.89017335e-03 0. 0. 2.89017335e-03 0. 0.
      0. 0. 2.89017335e-03 0. 0. 0. 0. 5.78034669e-03 0. 2.60115601e-02
      0. 2.89017335e-03 0. 2.89017335e-03 0. 0. 0. 0. 0. 0. 0.
      2.89017335e-03 0. 0. 2.89017335e-03 2.89017335e-02 0. 0. 0. 0. 0.
      0. 0. 0. 2.89017335e-03 0. 2.89017335e-03 2.89017335e-03
      2.89017335e-03 2.89017335e-03 2.89017335e-03 0. 0. 0. 0. 0.
      2.89017335e-03 2.89017335e-03 0. 0. 0. 0. 0. 0. 0. 2.89017335e-03
      0. 0. 0. 0. 2.31213868e-02 0. 0. 0. 0. 0. 0. 8.67052004e-03
      5.78034669e-03 0. 0. 0. 2.89017335e-03 0. 0. 0. 2.89017335e-03
      2.89017335e-03 0. 0. 0. 0. 0. 0. 2.89017335e-03 0. 2.89017335e-03
      0. 8.67052004e-03 0. 0. 0. 5.78034669e-03 0. 0. 0. 0.
      2.89017335e-03 0. 0. 0. 0. 0. 0. 0. 0. 0. 0. 0. 2.89017335e-03 0.
      2.89017335e-03 2.89017335e-03 0. 0. 0. 2.89017335e-03 0.
      2.31213868e-02 0. 2.89017335e-03 0. 0. 0. 0. 0. 0. 0. 0.
      5.78034669e-03 0. 0. 0. 0. 0. 2.89017335e-03 0. 2.89017335e-03 0.
      2.89017335e-03 0. 0. 0. 2.89017335e-03 0. 0. 0. 2.89017335e-03 0.
      0. 0. 0. 0. 0. 5.78034669e-03 0. 0. 2.89017335e-03 0. 0. 0. 0.
      2.89017335e-03 0. 0. 0. 0. 0. 0. 2.89017335e-03 0. 5.78034669e-03
      0. 0. 2.89017335e-03 0. 0. 0. 2.89017335e-03 1.15606934e-02 0. 0.
      2.89017335e-03 0. 5.78034669e-03 0. 0. 0. 0. 0. 0. 0. 0. 0.
      2.89017335e-03 2.89017335e-03 0. 0. 2.89017335e-03 0. 0.
      2.89017335e-03 0. 0. 0. 5.78034669e-03 0. 0. 0. 0. 2.89017335e-03
      0. 0. 0. 5.78034669e-03 2.89017335e-03 5.78034669e-03 0. 0. 0. 0.
      2.89017335e-03 0. 0. 0. 0. 0. 0. 2.89017335e-03 2.89017335e-03 0.
      0. 0. 8.67052004e-03 0. 0. 0. 0. 0. 0. 0. 0. 0. 0. 0.
      2.89017335e-03 0. 8.67052004e-03 0. 0. 0. 0. 0. 0. 2.89017335e-03
      2.89017335e-03 2.89017335e-03 0. 0. 2.89017335e-03 2.89017335e-03
      0. 0. 0. 0. 0. 2.89017335e-03 0. 2.89017335e-03 0. 0.
      2.89017335e-03 0. 0. 0. 0. 0. 0. 0. 0. 0. 0. 0. 0. 0. 0.
      2.89017335e-03 0. 0. 0. 0. 0. 1.15606934e-02 0. 0. 2.89017335e-03
      0. 0. 0. 0. 5.78034669e-03 2.89017335e-03 0. 0. 2.89017335e-03
      2.89017335e-03 0. 0. 0. 0. 0. 0. 0. 0. 0. 0. 5.78034669e-03 0. 0.
      0. 2.89017335e-03 0. 0. 2.89017335e-03 0. 0. 6.64739907e-02 0. 0.
      2.89017335e-03 0. 0. 2.89017335e-03 0. 0. 0. 0. 0. 0. 0.
      5.78034669e-03 0. 0. 2.89017335e-03 0. 0. 2.89017335e-03 0. 0. 0.
      0. 0. 0. 0. 0. 0. 0. 0. 5.78034669e-03 0. 2.89017335e-03 0.
      2.89017335e-03 2.89017335e-03 0. 0. 0. 2.89017335e-03 0. 0.</_>
    <_>
      0. 0. 0. 0. 0. 0. 0. 0. 0. 0. 0. 0. 0. 0. 0. 0. 0. 0. 0. 0. 0. 0.
      0. 0. 0. 0. 0. 0. 0. 0. 0. 0. 0. 0. 0. 0. 0. 0. 0. 0. 0. 0. 0. 0.
      0. 0. 0. 0. 0. 0. 0. 0. 0. 0. 8.06451589e-03 0. 0. 0. 0. 0. 0. 0.
      0. 0. 0. 0. 8.06451589e-03 0. 0. 0. 8.06451589e-03 0. 0. 0. 0. 0.
      0. 1.61290318e-02 0. 0. 0. 0. 0. 0. 0. 0. 0. 0. 0. 0. 0. 0. 0.
      8.06451589e-03 0. 0. 0. 0. 0. 0. 8.06451589e-03 0. 0. 0. 0. 0. 0.
      0. 0. 0. 0. 0. 0. 0. 0. 0. 0. 0. 0. 0. 0. 0. 0. 0. 0. 0. 0. 0. 0.
      0. 0. 0. 0. 0. 0. 0. 0. 0. 0. 0. 0. 0. 0. 0. 0. 0. 8.06451589e-03
      8.06451589e-03 0. 0. 0. 0. 0. 0. 0. 0. 0. 0. 8.06451589e-03
      8.06451589e-03 0. 0. 0. 0. 0. 0. 0. 0. 0. 0. 0. 0. 0. 0. 0. 0. 0.
      0. 0. 0. 0. 0. 0. 0. 0. 0. 0. 0. 0. 0. 0. 0. 0. 0. 0. 0. 0. 0. 0.
      0. 0. 0. 0. 0. 0. 8.06451589e-03 8.06451589e-03 0. 0.
      8.06451589e-03 0. 0. 0. 0. 0. 8.06451589e-03 0. 8.06451589e-03 0.
      8.06451589e-03 0. 0. 0. 0. 0. 0. 8.06451589e-03 0. 0. 0. 0. 0. 0.
      0. 0. 8.06451589e-03 8.06451589e-03 0. 0. 0. 0. 0. 0. 0. 0. 0. 0.
      8.06451589e-03 0. 0. 0. 0. 0. 0. 0. 0. 8.06451589e-03 0. 0. 0. 0.
      8.06451589e-03 0. 0. 1.61290318e-02 0. 0. 0. 0. 0. 0. 0. 0. 0. 0.
      8.06451589e-03 0. 0. 0. 0. 0. 0. 0. 0. 0. 0. 0. 8.06451589e-03 0.
      0. 0. 0. 0. 0. 0. 0. 8.06451589e-03 0. 0. 0. 0. 0. 0. 0. 0. 0. 0.
      0. 0. 0. 0. 0. 0. 0. 0. 0. 0. 0. 0. 0. 0. 0. 1.61290318e-02 0. 0.
      0. 0. 0. 0. 0. 0. 0. 0. 0. 0. 0. 0. 0. 0. 0. 0. 0. 8.06451589e-03
      0. 8.06451589e-03 0. 0. 0. 0. 0. 0. 0. 0. 0. 0. 0. 0. 0. 0. 0. 0.
      0. 0. 0. 0. 0. 0. 0. 0. 0. 0. 0. 0. 8.06451589e-03 0. 0. 0.
      8.06451589e-03 0. 0. 0. 0. 0. 0. 0. 0. 0. 0. 0. 0. 0. 0. 0. 0. 0.
      0. 0. 0. 0. 0. 0. 0. 0. 0. 0. 0. 0. 0. 0. 0. 0. 0. 0.
      8.06451589e-03 0. 0. 0. 1.61290318e-02 0. 0. 0. 0. 0. 0. 0. 0. 0.
      0. 0. 0. 0. 0. 0. 0. 0. 0. 0. 0. 0. 0. 0. 0. 0. 0. 8.06451589e-03
      0. 8.06451589e-03 0. 8.06451589e-03 0. 0. 0. 0. 0. 0. 0. 0. 0. 0.
      0. 0. 0. 0. 0. 0. 0. 8.06451589e-03 0. 0. 0. 8.06451589e-03 0. 0.
      0. 0. 0. 0. 0. 0. 0. 0. 0. 0. 0. 8.06451589e-03 0. 0.
      8.06451589e-03 0. 0. 0. 0. 0. 0. 1.61290318e-02 0. 0. 0. 0. 0. 0.
      0. 0. 0. 0. 0. 0. 0. 0. 0. 0. 0. 0. 0. 0. 0. 0. 0. 0. 0. 0. 0. 0.
      8.06451589e-03 0. 8.06451589e-03 0. 8.06451589e-03 0. 0.
      8.06451589e-03 0. 0. 0. 0. 0. 0. 0. 0. 8.06451589e-03 0. 0. 0. 0.
      0. 0. 8.06451589e-03 0. 0. 8.06451589e-03 0. 0. 0. 0. 0. 0. 0. 0.
      0. 0. 0. 0. 0. 0. 0. 0. 0. 0. 0. 0. 0. 0. 0. 0. 0. 0.
      8.06451589e-03 0. 0. 0. 0. 0. 8.06451589e-03 0. 0. 0. 0. 0. 0. 0.
      0. 0. 0. 0. 0. 0. 0. 0. 8.06451589e-03 0. 0. 0. 0. 0. 0. 0. 0. 0.
      0. 0. 0. 0. 0. 0. 0. 0. 0. 0. 0. 0. 0. 0. 0. 0. 0. 0. 0. 0.
      8.06451589e-03 0. 0. 0. 0. 0. 0. 0. 0. 0. 0. 0. 0. 0. 0. 0. 0.
      8.06451589e-03 0. 0. 8.06451589e-03 0. 0. 0. 0. 1.61290318e-02 0.
      0. 8.06451589e-03 0. 0. 0. 0. 0. 2.41935477e-02 0. 0.
      8.06451589e-03 0. 0. 0. 0. 0. 0. 8.06451589e-03 0. 0. 0. 0. 0. 0.
      0. 0. 0. 8.06451589e-03 0. 0. 0. 0. 0. 0. 0. 0. 0. 0. 0. 0. 0.
      8.06451589e-03 0. 0. 0. 0. 0. 0. 0. 0. 0. 0. 0. 0. 0. 0. 0.
      1.61290318e-02 0. 0. 8.06451589e-03 8.06451589e-03 0. 0. 0. 0. 0.
      0. 0. 0. 0. 0. 1.61290318e-02 8.06451589e-03 8.06451589e-03 0. 0.
      0. 0. 0. 0. 8.06451589e-03 0. 8.06451589e-03 0. 0. 0. 0. 0. 0. 0.
      0. 0. 0. 0. 0. 0. 0. 0. 0. 0. 0. 0. 0. 0. 1.61290318e-02 0. 0. 0.
      0. 0. 0. 0. 0. 0. 0. 0. 0. 0. 0. 0. 0. 0. 0. 0. 0. 0. 0. 0. 0. 0.
      8.06451589e-03 0. 0. 1.61290318e-02 0. 8.06451589e-03 0. 0. 0. 0.
      0. 0. 0. 8.06451589e-03 8.06451589e-03 0. 8.06451589e-03 0. 0. 0.
      0. 0. 0. 0. 0. 8.06451589e-03 0. 0. 0. 0. 8.06451589e-03 0. 0. 0.
      0. 0. 0. 0. 0. 0. 0. 0. 0. 0. 0. 0. 8.06451589e-03 0. 0. 0. 0. 0.
      0. 8.06451589e-03 0. 0. 2.41935477e-02 0. 0. 8.06451589e-03 0. 0.
      0. 0. 0. 0. 0. 0. 8.06451589e-03 0. 0. 8.06451589e-03
      8.06451589e-03 1.61290318e-02 0. 0. 0. 0. 0. 0. 0. 0. 0. 0. 0. 0.
      0. 0. 0. 0. 8.06451589e-03 0. 0. 0. 0. 0. 0. 8.06451589e-03 0. 0.
      0. 0. 0. 0. 0. 0. 0. 0. 0. 0. 0. 0. 0. 0. 0. 0. 0. 8.06451589e-03
      0. 0. 8.06451589e-03 0. 0. 0. 0. 0. 1.61290318e-02 0. 0. 0.
      8.06451589e-03 8.06451589e-03 0. 8.06451589e-03 0. 0. 0. 0. 0. 0.
      0. 0. 0. 0. 0. 0. 0. 0. 0. 8.06451589e-03 0. 0. 0. 0. 0. 0.
      8.06451589e-03 0. 0. 0. 0. 0. 0. 8.06451589e-03 0. 0. 0. 0.
      8.06451589e-03 0. 0. 0. 0. 0. 0. 0. 0. 0. 0. 0. 0. 0. 0. 0.
      8.06451589e-03 0. 0. 0. 0. 0. 0. 8.06451589e-03 0. 8.06451589e-03
      1.61290318e-02 0. 0. 0. 8.06451589e-03 0. 8.06451589e-03
      8.06451589e-03 0. 0. 0. 0. 0. 0. 8.06451589e-03 0. 0. 0. 0.
      8.06451589e-03</_>
    <_>
      0. 0. 0. 0. 0. 0. 6.21118024e-03 0. 0. 0. 0. 0. 0. 0. 0.
      6.21118024e-03 0. 0. 0. 0. 6.21118024e-03 0. 0. 0. 0. 0. 0. 0. 0.
      0. 0. 1.24223605e-02 0. 0. 0. 0. 0. 0. 0. 0. 0. 0. 0. 0. 0. 0. 0.
      0. 0. 0. 0. 0. 0. 0. 0. 0. 0. 0. 0. 0. 0. 0. 0. 0. 0. 0. 0. 0. 0.
      0. 1.24223605e-02 0. 0. 0. 0. 1.24223605e-02 0. 0. 0. 0. 0. 0. 0.
      6.21118024e-03 0. 0. 0. 0. 0. 6.21118024e-03 0. 6.21118024e-03 0.
      0. 0. 0. 0. 0. 0. 0. 0. 0. 0. 6.21118024e-03 0. 0. 0. 0. 0. 0. 0.
      0. 0. 0. 0. 0. 0. 0. 6.21118024e-03 0. 0. 0. 0. 0. 0. 0. 0. 0. 0.
      0. 6.21118024e-03 1.86335407e-02 0. 0. 0. 0. 0. 0. 0. 0. 0. 0. 0.
      0. 0. 0. 0. 0. 0. 0. 0. 0. 0. 0. 0. 0. 0. 0. 0. 0. 6.21118024e-03
      0. 0. 0. 6.21118024e-03 0. 0. 0. 0. 0. 0. 6.21118024e-03 0. 0. 0.
      0. 0. 0. 0. 0. 0. 0. 6.21118024e-03 0. 0. 6.21118024e-03 0. 0. 0.
      0. 0. 0. 0. 0. 0. 0. 0. 0. 0. 6.21118024e-03 0. 0. 0. 0. 0. 0. 0.
      0. 0. 6.21118024e-03 0. 6.21118024e-03 0. 0. 0. 6.21118024e-03 0.
      0. 0. 0. 6.21118024e-03 0. 0. 0. 0. 0. 0. 0. 0. 0. 0. 0. 0. 0. 0.
      0. 0. 0. 0. 0. 0. 0. 0. 0. 0. 0. 0. 0. 0. 0. 0. 0. 0. 0. 0. 0.
      6.21118024e-03 6.21118024e-03 0. 0. 0. 0. 0. 0. 0. 0. 0. 0. 0.
      1.24223605e-02 0. 0. 0. 6.21118024e-03 0. 6.21118024e-03 0. 0. 0.
      0. 1.24223605e-02 0. 0. 0. 0. 0. 0. 0. 0. 0. 0. 0. 0. 0. 0.
      6.21118024e-03 0. 0. 0. 0. 0. 0. 0. 0. 6.21118024e-03 0. 0.
      6.21118024e-03 0. 0. 0. 0. 0. 0. 0. 0. 0. 0. 0. 0. 0. 0. 0. 0. 0.
      0. 0. 0. 6.21118024e-03 0. 0. 0. 6.21118024e-03 0. 0.
      1.86335407e-02 0. 0. 0. 0. 0. 0. 0. 0. 6.21118024e-03 0. 0. 0. 0.
      6.21118024e-03 0. 0. 0. 0. 0. 0. 0. 0. 0. 0. 6.21118024e-03 0. 0.
      0. 0. 0. 0. 0. 0. 0. 0. 6.21118024e-03 0. 0. 0. 0. 0.
      1.24223605e-02 0. 6.21118024e-03 0. 0. 0. 0. 1.24223605e-02 0. 0.
      0. 0. 0. 0. 0. 0. 0. 0. 0. 0. 0. 0. 0. 0. 0. 6.21118024e-03 0. 0.
      0. 0. 0. 0. 0. 0. 0. 0. 0. 0. 0. 0. 0. 0. 0. 0. 0. 0. 0. 0. 0. 0.
      0. 0. 0. 0. 1.24223605e-02 0. 0. 0. 0. 1.24223605e-02
      6.21118024e-03 0. 0. 0. 0. 0. 6.21118024e-03 0. 0. 0. 0. 0. 0. 0.
      6.21118024e-03 0. 0. 0. 6.21118024e-03 0. 0. 0. 6.21118024e-03 0.
