<?xml version="1.0"?>
<opencv_storage>
<opencv_ml_svm>
  <format>3</format>
  <svmType>C_SVC</svmType>
  <kernel>
    <type>RBF</type>
    <gamma>5.0625000000000009e-01</gamma></kernel>
  <C>3.1250000000000000e+02</C>
  <term_criteria><iterations>1000</iterations></term_criteria>
  <var_count>1000</var_count>
  <class_count>2</class_count>
  <class_labels type_id="opencv-matrix">
    <rows>2</rows>
    <cols>1</cols>
    <dt>i</dt>
    <data>
      0 1</data></class_labels>
  <sv_total>215</sv_total>
  <support_vectors>
    <_>
      0. 0. 0. 0. 0. 0. 0. 0. 0. 0. 1.48809527e-03 0. 1.48809527e-03 0.
      0. 0. 4.46428591e-03 1.48809527e-03 0. 0. 4.46428591e-03 0. 0. 0.
      0. 0. 2.97619053e-03 1.48809527e-03 1.48809527e-03 0. 0.
      2.97619053e-03 0. 0. 0. 0. 0. 0. 0. 0. 1.48809527e-03 0. 0. 0. 0.
      0. 0. 0. 1.48809527e-03 0. 0. 1.48809527e-03 0. 1.48809527e-03 0.
      0. 0. 0. 0. 1.48809527e-03 0. 0. 1.19047621e-02 0. 5.95238106e-03
      0. 1.48809527e-03 0. 2.97619053e-03 0. 7.44047621e-03 0. 0.
      2.97619053e-03 0. 0. 0. 0. 0. 0. 0. 0. 0. 0. 0. 0. 0. 0. 0. 0. 0.
      0. 0. 0. 0. 0. 0. 0. 4.46428591e-03 1.48809527e-03 2.97619053e-03
      0. 0. 0. 0. 2.97619053e-03 0. 0. 0. 4.46428591e-03 0. 0. 0. 0. 0.
      0. 0. 0. 5.95238106e-03 0. 1.48809527e-03 0. 0. 0. 8.92857183e-03
      2.97619053e-03 0. 0. 0. 0. 0. 1.48809527e-03 0. 1.48809527e-03 0.
      0. 0. 2.97619053e-03 0. 0. 1.48809527e-03 1.48809527e-03 0.
      1.48809527e-03 0. 1.48809527e-03 0. 4.46428591e-03 0. 0. 0. 0. 0.
      2.97619053e-03 0. 0. 0. 0. 2.97619053e-03 1.48809527e-03
      1.48809527e-03 0. 0. 7.44047621e-03 2.97619053e-03 1.48809527e-03
      0. 0. 0. 0. 0. 0. 0. 1.48809527e-03 0. 0. 0. 0. 1.48809527e-03 0.
      0. 0. 1.48809527e-03 0. 0. 0. 0. 1.48809527e-03 1.04166670e-02 0.
      0. 0. 0. 1.48809527e-03 0. 0. 2.97619053e-03 0. 0. 1.48809527e-03
      1.48809527e-03 1.48809527e-03 2.97619053e-03 0. 1.48809527e-03 0.
      1.48809527e-03 0. 2.97619053e-03 1.48809527e-03 0. 0. 0. 0. 0. 0.
      1.48809527e-03 0. 5.95238106e-03 7.44047621e-03 5.95238106e-03 0.
      0. 1.48809527e-03 0. 0. 1.48809527e-03 0. 1.48809527e-03 0. 0. 0.
      0. 0. 0. 1.48809527e-03 0. 1.48809527e-03 0. 0. 0. 0.
      1.19047621e-02 0. 0. 0. 0. 1.48809527e-03 1.48809527e-03
      2.97619053e-03 1.48809527e-03 0. 1.48809527e-03 2.97619053e-03 0.
      0. 0. 0. 0. 1.48809527e-03 0. 0. 0. 2.97619053e-03 0. 0. 0. 0.
      2.97619053e-03 0. 0. 0. 0. 0. 0. 1.48809527e-03 0. 2.97619053e-03
      1.48809527e-03 0. 0. 0. 1.48809527e-03 1.48809527e-03
      2.97619053e-03 0. 0. 0. 0. 2.97619053e-03 0. 1.48809527e-03 0.
      2.97619053e-03 0. 0. 0. 4.46428591e-03 0. 0. 0. 0. 0. 0. 0. 0. 0.
      0. 1.48809527e-03 0. 1.48809527e-03 1.48809527e-03 0.
      1.48809527e-03 1.48809527e-03 1.48809527e-03 0. 0. 0.
      2.97619053e-03 0. 0. 2.97619053e-03 0. 0. 0. 0. 0. 2.97619053e-03
      0. 4.46428591e-03 0. 0. 1.48809527e-03 1.48809527e-03
      4.46428591e-03 0. 0. 0. 1.48809527e-03 1.48809527e-03 0.
      2.97619053e-03 5.95238106e-03 2.97619053e-03 0. 1.48809527e-03
      1.48809527e-03 0. 0. 1.48809527e-03 1.48809527e-03 1.48809527e-03
      0. 0. 0. 0. 1.48809527e-03 1.48809527e-03 0. 0. 1.48809527e-03 0.
      0. 0. 0. 1.48809527e-03 0. 0. 0. 1.48809527e-03 1.04166670e-02
      1.48809527e-03 0. 0. 4.46428591e-03 1.48809527e-03 0. 0. 0.
      4.46428591e-03 0. 0. 0. 1.48809527e-03 0. 0. 2.97619053e-03
      4.46428591e-03 0. 2.97619053e-03 0. 0. 0. 0. 0. 0. 0.
      4.46428591e-03 4.46428591e-03 0. 0. 1.48809527e-03 0. 0.
      2.97619053e-03 1.48809527e-03 2.97619053e-03 4.46428591e-03 0.
      1.48809527e-03 1.48809527e-03 0. 0. 1.48809527e-03 0. 0. 0. 0.
      2.97619053e-03 0. 0. 1.48809527e-03 1.48809527e-03 0. 0. 0. 0. 0.
      0. 0. 1.48809527e-03 0. 0. 1.48809527e-03 1.48809527e-03 0. 0. 0.
      0. 1.48809527e-03 0. 0. 0. 0. 0. 0. 0. 1.48809527e-03 0. 0. 0. 0.
      0. 0. 2.97619053e-03 0. 0. 0. 2.97619053e-03 1.48809527e-03
      1.48809527e-03 1.48809527e-03 2.97619053e-03 1.48809527e-03
      1.48809527e-03 1.48809527e-03 0. 0. 0. 1.48809527e-03 0.
      2.97619053e-03 0. 0. 1.48809527e-03 0. 0. 0. 0. 0. 2.97619053e-03
      0. 0. 1.48809527e-03 0. 2.97619053e-03 1.48809527e-03
      1.48809527e-03 0. 0. 0. 0. 0. 1.48809527e-03 1.48809527e-03 0. 0.
      0. 1.48809527e-03 1.48809527e-03 0. 1.48809527e-03 2.97619053e-03
      0. 1.48809527e-03 0. 0. 0. 0. 0. 2.97619053e-03 0. 2.97619053e-03
      0. 1.48809527e-03 0. 2.97619053e-03 2.97619053e-03 0. 0. 0.
      1.48809527e-03 0. 0. 0. 1.48809527e-03 0. 1.48809527e-03
      2.97619053e-03 1.48809527e-03 0. 1.48809527e-03 0. 0. 0. 0. 0.
      1.48809527e-03 2.97619053e-03 0. 0. 0. 1.48809527e-03 0.
      5.95238106e-03 0. 1.48809527e-03 0. 0. 0. 4.46428591e-03 0.
      8.92857183e-03 0. 4.46428591e-03 0. 0. 0. 0. 0. 2.97619053e-03
      2.97619053e-03 1.48809527e-03 4.46428591e-03 1.48809527e-03 0.
      1.48809527e-03 0. 0. 0. 1.48809527e-03 0. 1.48809527e-03 0. 0.
      2.97619053e-03 0. 0. 0. 1.48809527e-03 1.48809527e-03
      5.95238106e-03 0. 1.48809527e-03 1.48809527e-03 0. 0. 0. 0. 0. 0.
      1.48809527e-03 0. 0. 0. 0. 0. 4.46428591e-03 0. 2.97619053e-03 0.
      2.97619053e-03 0. 0. 0. 0. 0. 2.97619053e-03 0. 1.48809527e-03
      1.48809527e-03 0. 0. 0. 0. 1.48809527e-03 1.48809527e-03 0.
      1.48809527e-03 0. 1.48809527e-03 0. 0. 0. 0. 0. 0. 4.46428591e-03
      0. 0. 1.48809527e-03 1.48809527e-03 1.48809527e-03 0.
      2.97619053e-03 0. 0. 1.48809527e-03 5.95238106e-03 0. 0. 0.
      2.97619053e-03 1.48809527e-03 0. 1.48809527e-03 0. 1.48809527e-03
      2.97619053e-03 0. 1.48809527e-03 0. 2.97619053e-03 1.48809527e-03
      0. 0. 0. 1.48809527e-03 0. 2.97619053e-03 2.97619053e-03
      1.04166670e-02 2.97619053e-03 2.97619053e-03 1.48809527e-03 0.
      1.48809527e-03 0. 1.48809527e-03 1.48809527e-03 0. 1.48809527e-03
      0. 0. 1.48809527e-03 0. 0. 1.48809527e-03 0. 0. 0. 0. 0.
      1.48809527e-03 1.48809527e-03 0. 0. 0. 0. 1.48809527e-03 0.
      1.48809527e-03 0. 0. 0. 5.95238106e-03 0. 0. 1.48809527e-03
      2.97619053e-03 0. 2.97619053e-03 0. 0. 0. 0. 2.97619053e-03 0. 0.
      0. 0. 1.48809527e-03 1.48809527e-03 0. 1.48809527e-03 0. 0. 0.
      2.97619053e-03 1.48809527e-03 0. 0. 0. 0. 1.48809527e-03
      2.97619053e-03 2.97619053e-03 0. 0. 1.48809527e-03 0.
      2.97619053e-03 0. 0. 0. 0. 1.48809527e-03 2.97619053e-03 0.
      1.48809527e-03 1.48809527e-03 0. 0. 0. 0. 0. 0. 0. 0.
      2.97619053e-03 0. 1.48809527e-03 0. 5.95238106e-03 0. 0. 0.
      5.95238106e-03 7.44047621e-03 1.48809527e-03 2.97619053e-03 0. 0.
      0. 1.48809527e-03 0. 0. 1.48809527e-03 1.48809527e-03
      5.95238106e-03 2.97619053e-03 1.48809527e-03 1.48809527e-03
      1.48809527e-03 0. 1.48809527e-03 1.48809527e-03 0. 4.46428591e-03
      0. 0. 0. 0. 1.48809524e-02 0. 2.97619053e-03 0. 1.48809527e-03 0.
      5.95238106e-03 0. 1.48809527e-03 0. 0. 1.48809527e-03
      2.97619053e-03 0. 1.48809527e-03 0. 5.95238106e-03 1.48809527e-03
      2.97619053e-03 0. 1.48809527e-03 2.97619053e-03 2.97619053e-03 0.
      5.95238106e-03 0. 0. 1.48809527e-03 0. 2.97619053e-03 0.
      1.48809527e-03 0. 0. 1.48809527e-03 0. 0. 0. 0. 0. 0. 0. 0.
      1.48809527e-03 0. 0. 0. 1.04166670e-02 0. 0. 0. 0. 2.97619053e-03
      5.95238106e-03 0. 0. 1.48809527e-03 0. 2.97619053e-03
      1.48809527e-03 4.46428591e-03 1.48809527e-03 2.97619053e-03 0. 0.
      2.97619053e-03 0. 0. 4.46428591e-03 2.97619053e-03 7.44047621e-03
      2.97619053e-03 2.97619053e-03 1.19047621e-02 0. 4.46428591e-03 0.
      0. 0. 0. 0. 0. 2.97619053e-03 2.97619053e-03 1.48809527e-03
      1.48809527e-03 0. 0. 1.48809527e-03 0. 1.48809527e-03
      4.46428591e-03 1.48809527e-03 0. 2.97619053e-03 0. 0. 0. 0. 0.
      2.97619053e-03 2.97619053e-03 0. 1.48809527e-03 1.48809527e-03 0.
      0. 0. 0. 0. 0. 0. 1.48809527e-03 0. 0. 0. 0. 1.48809527e-03
      1.48809527e-03 1.48809527e-03 0. 2.97619053e-03 0. 2.97619053e-03
      1.48809527e-03 2.97619053e-03 4.46428591e-03 0. 0. 1.48809527e-03
      0. 1.48809527e-03 1.48809527e-03 0. 1.48809527e-03 2.97619053e-03
      0. 0. 0. 1.48809527e-03 0. 2.97619053e-03 0. 1.48809527e-03 0. 0.
      1.48809527e-03 0. 0. 1.48809527e-03 1.48809527e-03 0.
      1.48809527e-03 0. 1.48809527e-03 2.97619053e-03 0. 1.48809527e-03
      1.48809527e-03 1.48809527e-03 0. 1.48809527e-03 2.97619053e-03 0.
      0. 0. 0. 0. 0. 5.95238106e-03 2.97619053e-03 4.46428591e-03
      1.48809527e-03 0. 0. 1.48809527e-03 0. 0. 4.46428591e-03 0.
      2.97619053e-03 0. 0. 0. 5.95238106e-03 0. 0. 0. 0. 2.97619053e-03
      0. 0. 1.48809527e-03 1.48809527e-03 0. 4.46428591e-03
      2.97619053e-03 2.97619053e-03 0. 1.48809527e-03 0. 1.48809527e-03
      0. 0. 1.48809527e-03 0. 0. 0. 1.48809527e-03 1.48809527e-03 0. 0.
      1.48809527e-03 0. 0. 0.</_>
    <_>
      0. 0. 0. 0. 0. 0. 1.99203193e-03 0. 0. 0. 0. 0. 0. 0. 0.
      1.99203193e-03 0. 0. 0. 1.99203193e-03 0. 0. 1.99203193e-03
      3.98406386e-03 0. 0. 3.98406386e-03 1.99203193e-03 0. 0. 0. 0. 0.
      0. 0. 0. 0. 0. 1.99203193e-03 0. 0. 3.98406386e-03 3.98406386e-03
      0. 0. 0. 0. 0. 0. 0. 0. 0. 0. 0. 5.97609580e-03 0. 0. 0. 0.
      1.99203193e-03 0. 0. 0. 0. 0. 0. 0. 0. 3.98406386e-03
      5.97609580e-03 0. 0. 0. 5.97609580e-03 0. 0. 1.99203193e-03
      3.98406386e-03 0. 0. 0. 0. 0. 1.99203193e-03 0. 1.99203193e-03 0.
      0. 1.99203193e-03 1.99203193e-03 0. 0. 1.99203193e-03 0. 0. 0. 0.
      0. 0. 0. 1.99203193e-03 0. 0. 0. 0. 0. 1.99203193e-03 0. 0. 0. 0.
      0. 0. 0. 5.97609580e-03 0. 1.99203193e-03 0. 0. 0. 0. 0. 0. 0. 0.
      1.99203193e-03 0. 0. 1.99203193e-03 0. 0. 1.99203193e-03 0.
      1.99203193e-03 0. 0. 0. 1.99203193e-03 1.99203193e-03 0.
      5.97609580e-03 1.99203193e-03 0. 0. 0. 0. 0. 0. 0. 0.
      1.99203193e-03 0. 0. 0. 0. 0. 0. 0. 1.99203193e-03 0. 0.
      1.99203193e-03 1.99203193e-03 0. 1.99203193e-03 0. 0.
      3.98406386e-03 0. 0. 0. 0. 1.99203193e-03 0. 1.99203193e-03 0. 0.
      0. 0. 0. 0. 0. 3.98406386e-03 0. 0. 0. 0. 0. 0. 1.99203193e-03 0.
      3.98406386e-03 0. 1.99203193e-03 0. 0. 3.98406386e-03 0.
      1.99203193e-03 1.99203193e-03 0. 3.98406386e-03 0. 0.
      3.98406386e-03 3.98406386e-03 5.97609580e-03 0. 0. 0. 0. 0. 0. 0.
      0. 1.19521916e-02 0. 0. 0. 0. 1.99203193e-03 0. 0. 0. 0. 0. 0. 0.
      3.98406386e-03 0. 0. 0. 0. 1.99203193e-03 0. 0. 1.99203193e-03
      1.99203193e-03 0. 0. 0. 1.99203193e-03 3.98406386e-03 0. 0.
      1.99203193e-03 1.99203193e-03 3.98406386e-03 0. 7.96812773e-03
      1.99203193e-03 3.98406386e-03 0. 1.99203193e-03 1.99203193e-03 0.
      5.97609580e-03 3.98406386e-03 0. 0. 0. 0. 0. 0. 0. 0.
      1.99203193e-03 0. 1.99203193e-03 0. 1.99203193e-03 0. 0.
      3.98406386e-03 0. 1.99203193e-03 0. 1.99203193e-03 3.98406386e-03
      3.98406386e-03 0. 1.99203193e-03 0. 1.99203193e-03 0. 0. 0. 0. 0.
      1.99203193e-03 0. 0. 3.98406386e-03 0. 0. 0. 1.99203193e-03
      3.98406386e-03 0. 0. 0. 0. 0. 0. 0. 0. 0. 1.99203193e-03
      1.99203193e-03 0. 0. 0. 0. 0. 3.98406386e-03 1.99203193e-03 0.
      1.99203193e-03 3.98406386e-03 0. 1.19521916e-02 1.99203193e-03
      1.99203193e-03 0. 0. 0. 0. 0. 1.99203193e-03 1.99203193e-03 0. 0.
      3.98406386e-03 1.99203193e-03 0. 1.99203193e-03 0. 0.
      3.98406386e-03 0. 0. 0. 0. 5.97609580e-03 1.99203193e-03 0.
      3.98406386e-03 0. 7.96812773e-03 1.99203193e-03 0. 1.99203193e-03
      0. 0. 0. 0. 3.98406386e-03 0. 0. 0. 0. 3.98406386e-03 0. 0. 0. 0.
      0. 0. 0. 1.99203193e-03 3.98406386e-03 0. 0. 0. 0. 1.99203193e-03
      0. 1.99203193e-03 0. 3.98406386e-03 0. 3.98406386e-03 0. 0.
      1.99203193e-03 1.99203193e-03 0. 0. 0. 0. 1.99203193e-03 0. 0.
      3.98406386e-03 0. 0. 0. 5.97609580e-03 0. 1.99203193e-03
      1.99203193e-03 0. 0. 0. 0. 0. 1.99203193e-03 0. 0. 0. 0.
      1.99203193e-03 0. 1.99203193e-03 0. 0. 0. 0. 0. 0. 3.98406386e-03
      0. 1.99203193e-03 0. 0. 0. 0. 1.99203193e-03 0. 1.99203193e-03 0.
      3.98406386e-03 0. 0. 0. 0. 1.99203193e-03 0. 1.99203193e-03 0. 0.
      0. 0. 1.99203193e-03 0. 0. 1.99203193e-03 0. 0. 0. 0. 0. 0. 0. 0.
      3.98406386e-03 1.99203193e-03 0. 3.98406386e-03 0. 0. 0. 0.
      3.98406386e-03 0. 0. 0. 0. 3.98406386e-03 1.99203193e-03
      3.98406386e-03 0. 0. 0. 0. 0. 0. 0. 0. 3.98406386e-03 0. 0. 0. 0.
      0. 0. 1.99203193e-03 1.99203193e-03 1.99203193e-03 1.99203193e-03
      0. 0. 1.99203193e-03 0. 3.98406386e-03 1.99203193e-03 0. 0. 0. 0.
      0. 0. 0. 0. 0. 0. 0. 0. 0. 1.99203193e-03 0. 0. 0. 0. 0. 0. 0. 0.
      0. 0. 0. 0. 0. 1.99203193e-03 0. 0. 1.99203193e-03 1.99203193e-03
      0. 1.99203193e-03 0. 1.99203193e-03 1.99203193e-03 0.
      1.99203193e-03 1.99203193e-03 0. 0. 0. 1.99203193e-03 0. 0. 0. 0.
      0. 0. 0. 0. 0. 0. 0. 1.99203193e-03 1.99203193e-03 5.97609580e-03
      3.98406386e-03 0. 0. 0. 3.98406386e-03 1.99203193e-03 0. 0.
      3.98406386e-03 3.98406386e-03 1.99203193e-03 0. 0. 0. 0.
      3.98406386e-03 1.99203193e-03 0. 0. 3.98406386e-03 0. 0.
      1.99203193e-03 1.99203193e-03 0. 0. 0. 0. 3.98406386e-03 0. 0. 0.
      5.97609580e-03 0. 0. 1.99203193e-03 0. 0. 0. 0. 0. 0.
      1.99203193e-03 0. 3.98406386e-03 0. 1.99203193e-03 0.
      1.99203193e-03 0. 1.99203193e-03 0. 0. 0. 5.97609580e-03
      1.99203193e-03 3.98406386e-03 1.99203193e-03 1.99203193e-03 0. 0.
      5.97609580e-03 0. 1.99203193e-03 3.98406386e-03 0. 5.97609580e-03
      0. 0. 1.99203193e-03 0. 0. 0. 0. 0. 0. 0. 1.99203193e-03 0. 0.
      1.99203193e-03 0. 0. 0. 0. 1.99203193e-03 0. 1.99203193e-03 0. 0.
      0. 0. 5.97609580e-03 1.99203193e-03 1.99203193e-03 1.19521916e-02
      0. 1.99203193e-03 0. 0. 1.99203193e-03 1.99203193e-03
      3.98406386e-03 0. 0. 0. 1.99203193e-03 0. 5.97609580e-03 0. 0.
      1.99203193e-03 0. 0. 0. 1.99203193e-03 3.98406386e-03 0.
      1.99203193e-03 0. 0. 1.99203193e-03 0. 3.98406386e-03
      1.99203193e-03 0. 0. 0. 1.99203193e-03 1.99203193e-03 0.
      3.98406386e-03 0. 3.98406386e-03 0. 1.99203193e-03 0. 0. 0. 0. 0.
      0. 1.99203193e-03 1.99203193e-03 0. 0. 0. 0. 0. 0. 0. 0. 0. 0. 0.
      0. 0. 0. 1.99203193e-03 3.98406386e-03 0. 0. 0. 0. 0. 0. 0. 0.
      3.98406386e-03 1.99203193e-03 0. 0. 0. 0. 0. 3.98406386e-03
      1.99203193e-03 0. 0. 0. 0. 5.97609580e-03 1.99203193e-03 0. 0. 0.
      1.99203193e-03 0. 0. 0. 3.98406386e-03 1.99203193e-03 0. 0.
      3.98406386e-03 0. 1.99203193e-03 0. 1.99203193e-03 1.99203193e-03
      0. 0. 3.98406386e-03 0. 1.99203193e-03 0. 0. 1.99203193e-03 0. 0.
      0. 0. 0. 0. 0. 3.98406386e-03 0. 3.98406386e-03 0. 1.99203193e-03
      0. 3.98406386e-03 0. 1.99203193e-03 1.99203193e-03 1.39442235e-02
      1.99203193e-03 0. 3.98406386e-03 0. 1.99203193e-03 1.99203193e-03
      0. 3.98406386e-03 0. 3.98406386e-03 0. 3.98406386e-03 0. 0.
      1.99203193e-03 1.99203193e-03 0. 0. 0. 0. 1.99203193e-03 0. 0. 0.
      1.99203193e-03 3.98406386e-03 1.99203193e-03 0. 2.78884470e-02
      1.99203193e-03 1.99203193e-03 0. 0. 0. 7.96812773e-03
      1.99203193e-03 1.99203193e-03 1.99203193e-03 0. 0. 1.99203193e-03
      0. 0. 1.99203193e-03 0. 0. 0. 0. 3.98406386e-03 0. 0. 0.
      1.99203193e-03 0. 0. 0. 0. 7.96812773e-03 1.99203193e-03
      1.99203193e-03 1.99203193e-03 0. 0. 0. 0. 1.99203193e-03
      1.99203193e-03 0. 0. 5.97609580e-03 0. 0. 1.99203193e-03 0.
      5.97609580e-03 0. 1.99203193e-03 0. 0. 0. 0. 0. 0. 0. 0.
      3.98406386e-03 0. 1.99203193e-03 0. 0. 0. 0. 1.99203193e-03 0. 0.
      0. 0. 0. 3.98406386e-03 1.99203193e-03 0. 0. 0. 1.99203193e-03 0.
      3.98406386e-03 0. 0. 1.99203193e-03 1.99203193e-03 0. 0. 0. 0. 0.
      1.99203193e-03 0. 0. 0. 0. 0. 0. 1.99203193e-03 0. 0.
      3.98406386e-03 0. 1.99203193e-03 0. 5.97609580e-03 5.97609580e-03
      0. 0. 0. 0. 0. 3.98406386e-03 0. 0. 0. 3.98406386e-03 0. 0.
      1.99203193e-03 1.99203193e-03 1.99203193e-03 0. 0. 0.
      5.97609580e-03 0. 1.99203193e-03 1.99203193e-03 0. 0. 0. 0. 0.
      3.98406386e-03 1.99203193e-03 0. 0. 0. 1.99203193e-03
      9.96015966e-03 0. 0. 0. 0. 0. 1.99203193e-03 1.99203193e-03
      1.99203193e-03 0. 3.98406386e-03 1.99203193e-03 0. 0.
      1.99203193e-03 1.99203193e-03 0. 0. 1.99203193e-03 0. 0. 0. 0. 0.
      0. 1.99203193e-03 0. 0. 0. 0. 0. 0. 3.98406386e-03 1.99203193e-03
      0. 1.99203193e-03 0. 0. 3.98406386e-03 0. 0. 1.99203193e-03 0. 0.
      3.98406386e-03 0. 5.97609580e-03 0. 0. 1.99203193e-03 0. 0. 0. 0.
      1.99203193e-03 0.</_>
    <_>
      0. 1.47347746e-03 0. 4.91159153e-04 0. 2.45579565e-03 0.
      9.82318306e-04 0. 0. 1.47347746e-03 0. 0. 9.82318306e-04 0. 0.
      4.91159153e-04 4.91159153e-04 9.82318306e-04 4.91159153e-04
      1.96463661e-03 0. 4.91159153e-04 4.91159153e-04 0. 9.82318306e-04
      3.43811419e-03 9.82318306e-04 0. 0. 2.94695492e-03 3.92927323e-03
      2.45579565e-03 0. 0. 4.91159153e-04 0. 0. 0. 9.82318306e-04 0.
      2.94695492e-03 9.82318306e-04 4.91159153e-04 0. 0. 0.
      4.91159153e-04 1.47347746e-03 0. 0. 1.96463661e-03 4.91159153e-04
      0. 0. 0. 0. 1.47347746e-03 0. 0. 1.47347746e-03 0. 1.47347746e-03
      0. 1.96463661e-03 0. 4.91159153e-04 0. 9.82318306e-04
      3.43811419e-03 1.47347746e-03 0. 0. 9.82318306e-04 0.
      1.47347746e-03 1.47347746e-03 4.42043226e-03 4.91159153e-04 0. 0.
      0. 0. 9.82318306e-04 0. 9.82318306e-04 0. 4.91159153e-04 0.
      1.47347746e-03 0. 4.91159153e-04 4.91159153e-04 1.47347746e-03 0.
      9.82318306e-04 0. 0. 1.47347746e-03 0. 4.91159130e-03 0. 0. 0. 0.
      2.94695492e-03 0. 4.91159153e-04 0. 3.92927323e-03 4.91159153e-04
      0. 0. 3.43811419e-03 4.91159153e-04 0. 4.91159153e-04 0.
      4.91159130e-03 0. 2.45579565e-03 2.94695492e-03 4.91159153e-04 0.
      2.94695492e-03 4.91159130e-03 4.91159130e-03 0. 4.91159153e-04 0.
      9.82318306e-04 4.91159153e-04 0. 4.91159153e-04 0. 1.47347746e-03
      0. 0. 2.94695492e-03 0. 1.47347746e-03 3.92927323e-03 0.
      1.47347748e-02 0. 9.82318306e-04 2.94695492e-03 9.82318306e-04 0.
      7.85854645e-03 0. 0. 0. 1.96463661e-03 0. 9.82318306e-04 0. 0.
      1.47347746e-03 1.47347746e-03 4.91159153e-04 0. 0. 9.82318306e-04
      9.82318306e-04 2.94695492e-03 4.91159153e-04 0. 4.91159153e-04
      4.91159153e-04 0. 1.47347746e-03 0. 1.47347746e-03 4.91159153e-04
      0. 9.82318306e-04 0. 0. 1.96463661e-03 4.91159153e-04
      9.82318306e-04 0. 9.82318306e-04 4.91159153e-04 9.82318306e-04 0.
      3.92927323e-03 3.43811419e-03 0. 4.91159153e-04 4.91159153e-04 0.
      1.47347746e-03 4.91159153e-04 0. 4.91159153e-04 0. 0.
      9.82318306e-04 1.47347746e-03 1.47347746e-03 0. 1.47347746e-03
      9.82318306e-04 1.47347746e-03 1.96463661e-03 0. 1.47347746e-03
      4.91159153e-04 0. 0. 4.91159153e-04 1.47347746e-03 0.
      3.43811419e-03 4.91159153e-04 2.45579565e-03 0. 1.47347746e-03
      9.82318306e-04 0. 4.91159153e-04 4.91159153e-04 0. 0.
      9.82318306e-04 1.47347746e-03 4.91159153e-04 0. 1.47347746e-03
      4.91159153e-04 9.82318306e-04 0. 0. 3.92927323e-03 1.47347746e-03
      9.33202356e-03 0. 0. 1.22789787e-02 9.82318306e-04 9.82318306e-04
      0. 0. 1.96463661e-03 0. 1.47347746e-03 0. 0. 1.47347746e-03
      4.91159153e-04 0. 0. 0. 0. 2.94695492e-03 2.45579565e-03 0.
      9.82318306e-04 0. 1.47347746e-03 1.47347746e-03 9.82318306e-04 0.
      0. 8.84086452e-03 4.91159153e-04 0. 0. 2.45579565e-03
      4.91159153e-04 0. 9.82318306e-04 0. 4.91159153e-04 4.91159153e-04
      0. 0. 4.91159153e-04 0. 1.47347746e-03 9.82318306e-04
      9.82318306e-04 9.82318306e-04 0. 0. 1.47347746e-03 4.91159153e-04
      4.91159153e-04 1.96463661e-03 0. 3.92927323e-03 9.82318306e-04
      4.91159153e-04 4.91159153e-04 2.94695492e-03 1.96463661e-03
      1.47347746e-03 6.87622838e-03 9.82318306e-04 1.47347746e-03 0. 0.
      4.91159153e-04 0. 1.96463661e-03 0. 0. 0. 6.38506887e-03
      2.45579565e-03 0. 9.82318306e-04 4.91159153e-04 4.91159153e-04 0.
      9.82318306e-04 9.82318306e-04 1.96463661e-03 0. 0. 4.91159153e-04
      0. 0. 9.82318306e-04 0. 4.91159153e-04 4.91159153e-04 0. 0.
      4.91159153e-04 4.91159153e-04 0. 4.91159153e-04 4.91159153e-04
      4.91159153e-04 4.91159153e-04 0. 4.91159153e-04 0. 1.96463661e-03
      3.92927323e-03 4.42043226e-03 4.91159153e-04 4.91159153e-04
      1.47347746e-03 0. 0. 0. 3.92927323e-03 1.47347746e-03 0. 0.
      4.91159153e-04 4.91159153e-04 1.47347746e-03 0. 0. 0. 0.
      4.91159153e-04 0. 4.91159153e-04 4.91159153e-04 0. 1.96463661e-03
      0. 9.82318306e-04 0. 9.82318306e-04 2.45579565e-03 0.
      1.47347746e-03 0. 3.43811419e-03 9.82318306e-04 0. 0.
      1.47347746e-03 9.82318306e-04 1.96463661e-03 4.91159153e-04 0.
      1.96463661e-03 0. 0. 4.91159153e-04 4.91159153e-04 0.
      1.47347746e-03 0. 2.45579565e-03 2.45579565e-03 0. 4.91159153e-04
      1.47347746e-03 1.47347746e-03 4.91159153e-04 1.47347746e-03 0. 0.
      9.82318306e-04 0. 4.91159153e-04 0. 1.47347746e-03 9.82318306e-04
      4.91159130e-03 9.82318306e-04 0. 1.96463661e-03 0. 0.
      5.89390984e-03 0. 1.47347746e-03 9.82318306e-04 4.91159153e-04
      7.36738741e-03 0. 0. 9.82318306e-04 1.47347746e-03 0.
      4.91159153e-04 0. 1.47347746e-03 0. 0. 3.43811419e-03
      3.92927323e-03 0. 9.82318306e-04 4.91159153e-04 0. 1.96463661e-03
      0. 0. 0. 0. 9.82318306e-04 0. 9.82318306e-04 0. 4.91159153e-04
      1.96463661e-03 2.94695492e-03 3.43811419e-03 9.82318306e-04 0.
      4.91159153e-04 0. 4.91159153e-04 0. 0. 4.91159153e-04 0.
      4.91159153e-04 1.47347746e-03 0. 9.82318306e-04 0. 2.45579565e-03
      0. 3.43811419e-03 4.91159153e-04 0. 0. 4.91159153e-04
      4.91159153e-04 0. 1.96463661e-03 9.82318306e-04 0. 0.
      3.92927323e-03 0. 0. 7.85854645e-03 4.91159153e-04 0.
      9.82318306e-04 4.91159153e-04 1.47347746e-03 0. 2.45579565e-03
      1.96463661e-03 1.96463661e-03 3.43811419e-03 4.91159153e-04
      4.91159153e-04 4.91159153e-04 0. 9.82318306e-04 4.91159153e-04 0.
      0. 9.82318306e-04 0. 9.82318306e-04 2.45579565e-03 1.47347746e-03
      1.47347746e-03 0. 1.47347746e-03 9.82318306e-04 0. 3.43811419e-03
      0. 9.82318306e-04 1.96463661e-03 1.96463661e-03 1.96463661e-03
      9.82318306e-04 9.82318306e-04 0. 1.96463661e-03 9.82318306e-04
      4.91159153e-04 0. 0. 4.91159153e-04 4.91159153e-04 0.
      2.45579565e-03 4.91159153e-04 4.91159153e-04 4.91159153e-04
      9.82318306e-04 4.91159153e-04 9.82318306e-04 4.91159153e-04
      4.91159153e-04 0. 4.91159153e-04 1.47347746e-03 0. 1.96463661e-03
      1.96463661e-03 4.91159153e-04 0. 1.96463661e-03 0. 0.
      2.45579565e-03 0. 9.82318306e-04 1.47347746e-03 0. 0.
      1.47347746e-03 9.82318306e-04 3.92927323e-03 4.91159153e-04
      2.45579565e-03 0. 0. 4.91159153e-04 4.91159153e-04 0.
      9.82318306e-04 0. 0. 0. 0. 3.43811419e-03 0. 1.47347746e-03
      9.82318306e-04 1.47347746e-03 4.91159153e-04 0. 4.91159153e-04
      1.47347746e-03 0. 3.43811419e-03 4.91159153e-04 9.82318306e-04 0.
      2.94695492e-03 2.45579565e-03 1.96463661e-03 0. 4.91159153e-04 0.
      0. 0. 9.82318306e-04 4.42043226e-03 9.82318306e-04 4.91159153e-04
      1.96463661e-03 4.91159153e-04 0. 0. 4.91159153e-04 1.47347746e-03
      0. 4.91159153e-04 0. 0. 1.96463661e-03 0. 4.91159153e-04
      9.82318306e-04 4.91159153e-04 0. 9.82318306e-04 0. 9.82318306e-04
      4.91159153e-04 1.47347746e-03 2.45579565e-03 4.91159153e-04
      4.91159153e-04 0. 9.82318306e-04 9.82318306e-04 2.40667984e-02
      4.91159153e-04 0. 0. 1.96463661e-03 1.47347746e-03 9.82318306e-04
      0. 5.89390984e-03 9.82318306e-04 9.82318306e-04 1.47347746e-03
      9.82318306e-04 0. 4.91159153e-04 4.91159130e-03 2.45579565e-03 0.
      9.82318306e-04 0. 4.91159153e-04 0. 0. 9.82318306e-04
      9.82318306e-04 1.47347746e-03 4.91159153e-04 1.47347746e-03
      4.91159153e-04 4.91159153e-04 1.47347746e-03 0. 1.96463661e-03
      4.91159153e-04 1.96463661e-03 0. 9.82318306e-04 4.91159153e-04 0.
      9.82318306e-04 0. 4.91159130e-03 4.91159153e-04 3.43811419e-03 0.
      4.91159153e-04 1.47347746e-03 1.47347746e-03 4.91159153e-04
      9.82318306e-04 1.47347746e-03 1.47347746e-03 0. 9.82318306e-04
      9.82318306e-04 4.91159153e-04 9.82318306e-04 2.45579565e-03 0.
      1.96463661e-03 4.91159153e-04 0. 4.91159153e-04 2.45579565e-03
      9.82318306e-04 0. 2.45579565e-03 0. 0. 4.91159153e-04 0.
      3.92927323e-03 9.82318306e-04 0. 9.82318306e-04 9.82318306e-04 0.
      0. 1.96463661e-03 0. 9.82318306e-04 0. 2.45579565e-03
      4.91159153e-04 4.42043226e-03 4.91159153e-04 0. 1.47347746e-03
      1.47347746e-03 0. 1.96463661e-03 4.91159153e-04 4.91159153e-04
      4.91159153e-04 1.96463661e-03 4.91159153e-04 1.47347746e-03
      1.47347746e-03 4.91159153e-04 4.91159153e-04 4.91159153e-04
      3.92927323e-03 0. 0. 0. 0. 4.91159153e-04 9.82318306e-04
      9.82318306e-04 0. 4.91159153e-04 1.47347746e-03 4.91159153e-04
      9.82318306e-04 1.47347746e-03 0. 9.82318306e-04 0. 0.
      1.47347746e-03 0. 4.91159153e-04 3.92927323e-03 0. 0. 0. 0. 0. 0.
      3.43811419e-03 0. 4.91159153e-04 9.82318306e-04 4.91159153e-04 0.
      1.47347746e-03 1.47347746e-03 9.82318306e-04 0. 1.08055016e-02
      4.91159153e-04 2.45579565e-03 2.45579565e-03 4.91159153e-04 0.
      4.91159153e-04 0. 1.47347746e-03 0. 4.91159153e-04 1.96463661e-03
      9.82318306e-04 2.45579565e-03 9.82318306e-04 0. 4.91159153e-04
      1.47347746e-03 0. 1.47347746e-03 9.82318306e-04 4.42043226e-03 0.
      1.47347746e-03 0. 0. 9.82318306e-04 0. 9.82318306e-04 0. 0. 0.
      4.91159153e-04 9.82318306e-04 1.47347746e-03 0. 2.94695492e-03
      2.45579565e-03 4.91159153e-04 4.91159153e-04 4.91159153e-04 0. 0.
      9.82318306e-04 4.91159153e-04 0. 1.37524568e-02 4.91159153e-04
      4.91159153e-04 0. 9.82318306e-04 0. 9.82318306e-04 4.91159153e-04
      0. 1.47347746e-03 9.82318306e-04 1.47347746e-03 4.91159153e-04
      1.47347746e-03 0. 1.96463661e-03 1.47347746e-03 9.82318306e-04 0.
      0. 0. 4.91159153e-04 9.82318306e-04 4.91159153e-04 4.91159153e-04
      4.91159153e-04 3.92927323e-03 3.43811419e-03 4.91159153e-04
      1.96463661e-03 0. 1.96463661e-03 0. 3.43811419e-03 4.91159153e-04
      0. 0. 9.82318306e-04 4.91159153e-04 1.96463661e-03 1.47347746e-03
      1.96463661e-03 4.91159153e-04 4.91159153e-04 9.82318306e-04
      1.47347746e-03 4.91159153e-04 0. 9.82318306e-04 1.47347746e-03
      4.91159153e-04 0. 9.82318306e-04 1.96463661e-03 4.91159153e-04
      2.45579565e-03 0. 0. 0. 3.43811419e-03 4.91159153e-04
      4.91159153e-04 5.40275080e-03 5.89390984e-03 0. 2.45579565e-03
      2.45579565e-03 0. 0. 0. 0. 1.47347746e-03 0. 1.47347746e-03
      9.82318306e-04 4.91159130e-03 1.47347746e-03 0. 9.82318306e-04
      2.94695492e-03 9.82318306e-04 1.96463661e-03 4.91159153e-04
      8.84086452e-03 0. 9.82318306e-04 0. 0. 0. 4.91159153e-04
      9.82318306e-04 4.91159153e-04 9.82318306e-04 0. 0. 0.
      2.45579565e-03 9.82318306e-04 4.91159153e-04 9.82318306e-04
      4.91159153e-04 2.45579565e-03 0. 9.82318306e-04 4.91159153e-04
      2.94695492e-03 9.82318306e-04 2.94695492e-03 1.47347746e-03 0.
      9.82318306e-04 1.96463661e-03 1.96463661e-03 0. 0. 4.91159153e-04
      0. 0. 4.91159153e-04 9.82318306e-04 4.91159153e-04 1.47347746e-03
      9.82318306e-04 9.82318306e-04 4.91159153e-04 2.45579565e-03
      4.91159153e-04 4.91159153e-04 4.91159153e-04 9.82318306e-04
      9.82318306e-04 0. 9.82318306e-04 0. 1.96463661e-03 1.96463661e-03
      0. 0. 2.94695492e-03 9.82318306e-04 1.96463661e-03 4.91159153e-04
      4.42043226e-03 4.91159153e-04 4.91159153e-04 4.91159153e-04
      1.47347746e-03 4.91159153e-04 9.82318306e-04 3.43811419e-03
      4.91159153e-04 8.34970549e-03 4.91159153e-04 0. 4.91159153e-04
      4.91159153e-04 1.47347746e-03 9.82318306e-04 0. 0. 0.
      9.82318306e-04 0. 2.45579565e-03 0. 4.91159153e-04 0. 0.
      1.96463661e-03 4.91159153e-04 2.45579565e-03 4.91159153e-04 0.
      3.92927323e-03 0. 9.82318306e-04 4.91159153e-04 0. 4.91159153e-04
      4.91159153e-04 1.47347746e-03 4.91159153e-04 0. 4.91159153e-04 0.
      0. 4.91159153e-04 2.45579565e-03 0. 0. 0. 0. 1.47347746e-03
      1.47347746e-03 1.47347746e-03 0.</_>
    <_>
      0. 0. 0. 1.07123726e-03 0. 0. 1.07123726e-03 0. 0. 0.
      1.07123726e-03 0. 1.60685589e-03 0. 2.14247452e-03 0.
      1.60685589e-03 0. 0. 1.07123726e-03 1.07123726e-03 0.
      5.35618630e-04 0. 5.35618630e-04 5.35618630e-04 1.07123726e-03 0.
      1.07123726e-03 1.07123726e-03 1.60685589e-03 1.07123726e-03
      1.60685589e-03 0. 5.35618630e-04 1.07123726e-03 0. 0.
      5.35618630e-04 0. 0. 1.60685589e-03 5.35618630e-04 5.35618630e-04
      0. 0. 0. 0. 0. 0. 1.07123726e-03 5.35618630e-04 0. 0. 0. 0. 0.
      1.60685589e-03 5.35618630e-04 0. 5.35618630e-04 0. 2.14247452e-03
      0. 1.07123726e-03 0. 0. 0. 2.67809303e-03 5.35618607e-03
      1.07123726e-03 5.35618630e-04 0. 1.07123726e-03 5.35618630e-04
      5.35618630e-04 5.35618630e-04 8.03427957e-03 0. 0. 0. 0. 0.
      2.14247452e-03 5.35618630e-04 0. 0. 0. 0. 1.60685589e-03 0.
      5.35618630e-04 0. 3.21371178e-03 0. 1.60685589e-03 0. 0.
      5.35618630e-04 5.35618630e-04 1.07123726e-03 0. 0. 5.35618630e-04
      5.35618630e-04 5.35618630e-04 5.35618630e-04 5.35618630e-04 0.
      6.96304208e-03 0. 0. 0. 0. 0. 0. 5.35618630e-04 0. 5.35618607e-03
      0. 2.67809303e-03 0. 0. 5.35618630e-04 5.89180505e-03
      1.60685589e-03 1.07123726e-03 0. 0. 0. 1.60685589e-03
      5.35618630e-04 0. 5.35618630e-04 0. 1.60685589e-03 0. 0. 0. 0.
      1.07123726e-03 4.82056756e-03 0. 3.21371178e-03 5.35618630e-04
      1.07123726e-03 2.67809303e-03 1.07123726e-03 2.14247452e-03
      6.96304208e-03 0. 5.35618630e-04 5.35618630e-04 2.14247452e-03 0.
      5.35618630e-04 0. 0. 2.14247452e-03 1.07123726e-03 5.35618630e-04
      5.35618630e-04 0. 1.07123726e-03 1.60685589e-03 7.49866106e-03
      2.67809303e-03 0. 0. 0. 0. 0. 1.60685589e-03 1.07123726e-03
      5.35618630e-04 0. 5.35618630e-04 0. 0. 0. 5.35618630e-04
      1.07123726e-03 1.07123726e-03 0. 0. 1.60685589e-03 0.
      2.14247452e-03 2.67809303e-03 5.35618630e-04 5.35618630e-04
      1.07123726e-03 0. 5.35618630e-04 0. 0. 5.35618630e-04
      5.35618630e-04 5.35618630e-04 1.07123726e-03 0. 1.07123726e-03 0.
      5.35618630e-04 1.07123726e-03 5.35618630e-04 5.35618630e-04
      5.35618630e-04 1.07123726e-03 5.35618630e-04 0. 1.07123726e-03
      1.60685589e-03 0. 0. 0. 0. 1.07123726e-03 5.35618630e-04
      5.35618630e-04 1.60685589e-03 0. 0. 5.35618630e-04 0.
      5.35618630e-04 0. 0. 5.35618630e-04 0. 5.35618630e-04
      5.35618630e-04 0. 0. 5.35618630e-04 5.35618607e-03 5.35618630e-04
      9.64113511e-03 0. 0. 2.14247452e-03 5.35618630e-04 1.07123726e-03
      0. 5.35618630e-04 1.07123726e-03 5.35618630e-04 1.07123726e-03
      1.07123726e-03 1.07123726e-03 0. 5.35618630e-04 1.60685589e-03
      1.60685589e-03 1.60685589e-03 0. 1.60685589e-03 2.14247452e-03 0.
      5.35618630e-04 5.35618630e-04 5.35618630e-04 1.60685589e-03
      1.07123726e-03 0. 5.35618630e-04 7.49866106e-03 0. 1.07123726e-03
      3.21371178e-03 0. 0. 0. 5.35618630e-04 0. 1.07123726e-03
      1.07123726e-03 0. 1.60685589e-03 1.07123726e-03 0. 0.
      3.21371178e-03 0. 1.60685589e-03 0. 2.14247452e-03 1.60685589e-03
      0. 0. 5.35618630e-04 5.35618630e-04 2.14247452e-03 0. 0.
      1.60685589e-03 5.35618607e-03 3.21371178e-03 0. 3.74933053e-03
      5.35618630e-04 5.35618630e-04 0. 0. 0. 0. 5.35618630e-04 0.
      2.14247452e-03 0. 4.82056756e-03 4.82056756e-03 5.35618630e-04
      5.35618630e-04 1.07123726e-03 3.21371178e-03 0. 1.07123726e-03
      1.60685589e-03 2.14247452e-03 0. 2.14247452e-03 3.21371178e-03 0.
      1.60685589e-03 1.60685589e-03 0. 5.35618630e-04 5.35618630e-04 0.
      1.60685589e-03 1.07123726e-03 0. 0. 1.60685589e-03 4.82056756e-03
      5.35618630e-04 0. 0. 5.35618630e-04 0. 3.21371178e-03
      4.82056756e-03 5.35618630e-04 3.21371178e-03 5.35618630e-04
      1.60685589e-03 0. 1.07123726e-03 1.07123726e-03 2.14247452e-03
      1.07123726e-03 0. 0. 5.35618630e-04 0. 2.14247452e-03 0.
      2.14247452e-03 0. 1.07123726e-03 2.14247452e-03 0. 3.21371178e-03
      2.67809303e-03 0. 1.60685589e-03 0. 1.07123726e-03 1.60685589e-03
      1.60685589e-03 2.14247452e-03 5.35618630e-04 1.07123726e-03 0. 0.
      5.35618630e-04 0. 5.35618630e-04 5.35618630e-04 0. 5.35618630e-04
      5.35618630e-04 0. 5.35618630e-04 0. 0. 1.07123726e-03
      1.07123726e-03 0. 0. 0. 1.07123726e-03 2.14247452e-03 0. 0. 0.
      5.35618630e-04 2.67809303e-03 0. 5.35618630e-04 5.35618630e-04
      2.14247452e-03 3.74933053e-03 5.35618630e-04 0. 1.60685589e-03
      1.07123726e-03 0. 5.35618630e-04 1.60685589e-03 0. 0.
      1.07123726e-03 4.28494904e-03 1.07123726e-03 5.35618630e-04
      2.67809303e-03 5.35618630e-04 4.82056756e-03 1.60685589e-03 0.
      5.35618630e-04 1.07123726e-03 5.35618630e-04 5.35618630e-04 0.
      2.67809303e-03 0. 1.60685589e-03 0. 3.74933053e-03 5.35618630e-04
      1.07123726e-03 5.35618630e-04 5.35618630e-04 1.07123726e-03
      5.35618630e-04 2.14247452e-03 0. 5.35618630e-04 0. 0.
      1.60685589e-03 0. 0. 1.60685589e-03 1.60685589e-03 4.28494904e-03
      0. 0. 2.67809303e-03 0. 0. 0. 1.07123726e-03 5.35618630e-04 0.
      5.35618630e-04 1.07123726e-03 0. 1.60685589e-03 5.35618630e-04
      1.07123726e-03 0. 1.07123726e-03 1.07123726e-03 0. 5.35618630e-04
      2.14247452e-03 5.35618630e-04 0. 5.35618630e-04 0. 0. 0.
      2.14247452e-03 0. 1.07123726e-03 2.67809303e-03 0. 2.67809303e-03
      1.07123726e-03 5.35618630e-04 5.35618630e-04 5.35618630e-04
      3.21371178e-03 0. 2.67809303e-03 2.67809303e-03 2.14247452e-03 0.
      5.35618630e-04 5.35618630e-04 5.35618630e-04 1.07123726e-03 0.
      1.07123726e-03 0. 1.07123726e-03 5.35618630e-04 1.07123726e-03
      1.07123726e-03 1.60685589e-03 5.35618630e-04 1.07123726e-03 0. 0.
      2.14247452e-03 5.35618630e-04 0. 2.14247452e-03 0. 2.14247452e-03
      1.60685589e-03 0. 0. 5.35618630e-04 1.60685589e-03 0.
      1.07123726e-03 0. 2.14247452e-03 0. 0. 2.14247452e-03
      1.60685589e-03 1.60685589e-03 1.60685589e-03 5.35618630e-04
      5.35618630e-04 5.35618630e-04 5.35618630e-04 5.35618630e-04
      1.07123726e-03 5.35618630e-04 5.35618630e-04 0. 1.07123726e-03
      2.14247452e-03 5.35618630e-04 0. 0. 1.60685589e-03 0.
      1.60685589e-03 0. 5.35618630e-04 0. 0. 5.35618630e-04
      5.35618630e-04 1.07123726e-03 4.28494904e-03 0. 1.07123726e-03 0.
      1.07123726e-03 5.35618630e-04 5.35618630e-04 0. 1.60685589e-03
      3.21371178e-03 0. 3.21371178e-03 5.35618630e-04 5.35618630e-04
      1.60685589e-03 5.35618630e-04 3.74933053e-03 5.35618630e-04 0. 0.
      5.35618630e-04 0. 0. 1.07123726e-03 1.07123726e-03 1.60685589e-03
      0. 5.35618630e-04 1.07123726e-03 5.35618630e-04 0. 5.35618630e-04
      2.67809303e-03 2.14247452e-03 5.35618630e-04 5.35618630e-04
      1.60685589e-03 0. 5.35618630e-04 0. 5.35618630e-04 0.
      5.35618630e-04 5.35618630e-04 1.07123726e-03 5.35618630e-04
      1.60685589e-03 2.14247452e-03 0. 5.35618630e-04 0. 2.14247452e-03
      0. 5.35618630e-04 1.07123726e-03 2.67809303e-03 1.07123726e-03
      1.60685589e-03 1.07123726e-03 5.35618630e-04 0. 4.82056756e-03
      1.60685589e-03 0. 2.14247452e-03 0. 5.89180505e-03 2.14247452e-03
      1.60685589e-03 5.35618630e-04 1.07123726e-03 2.67809303e-03
      2.67809303e-03 0. 3.74933053e-03 5.35618630e-04 1.60685589e-03
      1.07123726e-03 1.07123726e-03 0. 1.07123726e-03 1.07123726e-03
      1.07123726e-03 0. 1.07123726e-03 0. 1.60685589e-03 1.07123726e-03
      1.07123726e-03 1.07123726e-03 2.14247452e-03 0. 0. 2.67809303e-03
      3.21371178e-03 5.35618630e-04 1.60685589e-03 5.35618630e-04
      1.07123726e-03 5.35618630e-04 0. 0. 0. 1.60685589e-03 0. 0. 0.
      2.14247452e-03 1.07123726e-03 2.67809303e-03 1.07123726e-03
      5.35618630e-04 3.21371178e-03 1.07123726e-03 5.35618630e-04 0.
      1.07123726e-03 3.74933053e-03 5.35618630e-04 1.07123726e-03 0.
      2.14247452e-03 5.35618630e-04 1.60685589e-03 1.07123726e-03
      2.14247452e-03 0. 0. 1.07123726e-03 1.07123726e-03 5.35618630e-04
      1.07123726e-03 1.60685589e-03 0. 1.07123726e-03 2.67809303e-03 0.
      5.35618630e-04 0. 5.35618630e-04 2.14247452e-03 5.35618630e-04 0.
      2.14247452e-03 1.60685589e-03 0. 1.07123726e-03 2.67809303e-03 0.
      5.35618630e-04 1.07123726e-03 0. 1.07123726e-03 0. 2.14247452e-03
      0. 5.35618630e-04 0. 1.07123726e-03 5.35618630e-04 1.60685589e-03
      1.60685589e-03 1.07123726e-03 1.60685589e-03 5.35618630e-04
      1.60685589e-03 1.07123726e-03 2.67809303e-03 0. 1.60685589e-03
      5.35618630e-04 1.07123726e-03 0. 2.67809303e-03 0. 0. 0.
      5.35618630e-04 5.35618630e-04 2.14247452e-03 0. 5.35618630e-04
      2.14247452e-03 0. 0. 5.35618630e-04 0. 1.07123726e-03
      5.35618630e-04 0. 0. 2.14247452e-03 0. 1.07123726e-03 0.
      2.14247452e-03 0. 2.14247452e-03 0. 3.21371178e-03 2.14247452e-03
      1.07123726e-03 0. 1.60685589e-03 5.35618630e-04 1.07123721e-02
      5.35618630e-04 1.60685589e-03 1.07123726e-03 5.35618630e-04
      5.35618630e-04 0. 4.28494904e-03 1.60685589e-03 0. 1.60685589e-03
      2.14247452e-03 1.60685589e-03 5.35618607e-03 2.14247452e-03
      2.14247452e-03 1.60685589e-03 5.35618630e-04 0. 1.07123726e-03
      1.07123726e-03 1.07123726e-03 2.67809303e-03 1.07123726e-03 0. 0.
      1.60685589e-03 1.60685589e-03 5.35618630e-04 2.14247452e-03
      5.35618630e-04 1.60685589e-03 1.07123726e-03 5.35618630e-04
      2.67809303e-03 5.35618630e-04 2.67809303e-03 2.14247452e-03
      1.07123726e-03 5.35618630e-04 0. 5.35618630e-04 0. 5.35618630e-04
      5.35618630e-04 5.35618630e-04 5.89180505e-03 0. 5.35618630e-04 0.
      0. 0. 3.21371178e-03 1.60685589e-03 5.35618630e-04 1.07123726e-03
      1.60685589e-03 2.67809303e-03 3.74933053e-03 4.28494904e-03
      1.07123726e-03 5.35618630e-04 5.35618630e-04 2.14247452e-03 0.
      5.35618630e-04 0. 5.35618630e-04 5.35618630e-04 0. 1.60685589e-03
      0. 5.35618630e-04 1.39260842e-02 5.35618630e-04 1.60685589e-03 0.
      2.14247452e-03 1.60685589e-03 1.60685589e-03 0. 1.07123726e-03
      5.35618630e-04 1.07123726e-03 3.21371178e-03 2.67809303e-03 0.
      2.67809303e-03 0. 0. 0. 2.67809303e-03 1.07123726e-03
      1.60685589e-03 1.07123726e-03 2.14247452e-03 2.14247452e-03 0.
      3.21371178e-03 0. 4.28494904e-03 1.07123726e-03 0. 0. 0.
      1.07123726e-03 1.07123726e-03 1.07123726e-03 1.60685589e-03
      2.14247452e-03 1.60685589e-03 0. 0. 0. 1.07123726e-03 0. 0.
      1.07123726e-03 5.35618630e-04 1.60685589e-03 0. 2.14247452e-03
      1.07123726e-03 1.07123726e-03 1.07123726e-03 1.60685589e-03
      2.67809303e-03 0. 5.35618630e-04 6.42742356e-03 0. 5.35618630e-04
      2.14247452e-03 5.35618630e-04 0. 1.07123726e-03 1.60685589e-03
      1.07123726e-03 1.60685589e-03 2.14247452e-03 0. 0. 0.
      5.35618630e-04 0. 5.35618630e-04 5.35618630e-04 5.35618630e-04
      5.35618630e-04 1.60685589e-03 5.35618630e-04 5.35618607e-03
      2.14247452e-03 1.07123726e-03 1.07123726e-03 0. 5.35618630e-04
      6.42742356e-03 2.67809303e-03 0. 0. 2.14247452e-03 0.
      1.60685589e-03 1.07123726e-03 0. 5.35618630e-04 5.35618630e-04
      2.14247452e-03 1.60685589e-03 1.07123726e-03 2.14247452e-03
      1.07123726e-03 1.60685589e-03 0. 1.07123726e-03 1.60685589e-03 0.
      0. 0. 1.60685589e-03 5.35618630e-04 1.07123726e-03 5.35618630e-04
      1.60685589e-03 3.21371178e-03 5.35618630e-04 5.35618630e-04
      1.07123726e-03 0. 1.07123726e-03 2.14247452e-03 2.14247452e-03
      1.07123726e-03 2.14247452e-03 1.60685589e-03 1.60685589e-03
      3.21371178e-03 5.35618630e-04 1.07123726e-03 1.07123726e-03
      1.07123726e-03 5.35618630e-04 2.14247452e-03 1.60685589e-03
      1.60685589e-03 0. 1.60685589e-03 0. 0. 5.35618630e-04
      1.60685589e-03 3.21371178e-03 0. 0. 1.07123726e-03 1.07123726e-03
      0. 5.35618630e-04 2.67809303e-03 0. 1.60685589e-03 3.21371178e-03
      1.07123726e-03 5.35618630e-04 0. 1.07123726e-03 0. 5.35618630e-04
      2.14247452e-03 5.35618630e-04 5.35618630e-04 1.07123726e-03
      1.07123726e-03 5.35618630e-04 5.35618630e-04 0. 5.35618630e-04 0.
      1.60685589e-03 1.07123726e-03 5.35618630e-04</_>
    <_>
      0. 0. 0. 0. 0. 0. 0. 0. 0. 0. 0. 0. 1.25628139e-03 1.25628139e-03
      2.51256279e-03 1.25628139e-03 1.25628139e-03 0. 0. 1.25628139e-03
      2.51256279e-03 0. 0. 0. 1.25628139e-03 3.76884406e-03 0. 0. 0. 0.
      0. 0. 0. 0. 0. 1.25628139e-03 0. 0. 0. 0. 2.51256279e-03
      1.25628139e-03 0. 1.25628139e-03 0. 0. 1.25628139e-03
      1.25628139e-03 0. 0. 1.25628139e-03 1.25628139e-03 0.
      1.25628139e-03 0. 0. 0. 0. 2.51256279e-03 0. 2.51256279e-03 0. 0.
      0. 1.25628139e-03 0. 0. 0. 3.76884406e-03 6.28140708e-03
      2.51256279e-03 0. 0. 0. 1.25628139e-03 0. 1.25628139e-03 0. 0. 0.
      0. 0. 0. 1.25628139e-03 0. 0. 0. 2.51256279e-03 1.25628139e-03
      3.76884406e-03 0. 2.51256279e-03 0. 1.25628139e-03 0. 0.
      7.53768813e-03 0. 8.79396964e-03 0. 6.28140708e-03 0. 0.
      1.25628139e-03 2.51256279e-03 0. 0. 1.25628139e-03 0.
      1.25628139e-03 0. 0. 0. 0. 0. 0. 1.25628139e-03 0. 1.25628139e-03
      0. 1.25628139e-03 1.25628139e-03 0. 1.25628139e-03 1.25628139e-03
      0. 0. 0. 0. 1.25628139e-03 2.51256279e-03 2.51256279e-03 0.
      6.28140708e-03 1.25628139e-03 2.51256279e-03 0. 0. 0. 0. 0. 0.
      1.25628139e-03 0. 0. 0. 1.25628139e-03 0. 1.25628139e-03
      1.25628139e-03 0. 0. 0. 1.25628139e-03 0. 0. 0. 0. 2.51256279e-03
      0. 2.51256279e-03 1.25628139e-03 0. 2.51256279e-03 1.25628139e-03
      0. 1.25628139e-03 0. 0. 0. 0. 2.51256279e-03 1.25628139e-03
      1.25628139e-03 0. 0. 0. 0. 0. 2.51256279e-03 0. 0. 2.51256279e-03
      0. 0. 0. 1.25628139e-03 5.02512557e-03 1.25628139e-03 0. 0. 0. 0.
      0. 0. 0. 7.53768813e-03 1.25628139e-03 0. 0. 0. 6.28140708e-03
      1.25628139e-03 0. 1.25628139e-03 2.51256279e-03 0. 1.25628139e-03
      0. 0. 0. 1.25628139e-03 0. 0. 1.25628139e-03 2.51256279e-03 0.
      1.25628139e-03 0. 0. 0. 0. 1.25628139e-03 2.51256279e-03 0. 0.
      2.51256279e-03 0. 0. 0. 0. 1.25628139e-03 0. 0. 0. 1.25628139e-03
      0. 1.25628139e-03 0. 0. 2.51256279e-03 0. 1.25628139e-03 0. 0.
      1.25628139e-03 0. 1.25628139e-03 1.25628139e-03 0. 2.51256279e-03
      1.25628139e-03 0. 0. 2.51256279e-03 1.25628139e-03 0.
      2.51256279e-03 0. 0. 1.25628139e-03 0. 0. 0. 0. 0. 1.25628139e-03
      0. 0. 2.51256279e-03 1.25628139e-03 0. 0. 2.51256279e-03 0.
      1.25628139e-03 0. 1.25628139e-03 0. 1.25628139e-03 1.25628139e-03
      1.25628139e-03 1.25628139e-03 3.76884406e-03 0. 3.76884406e-03
      3.76884406e-03 0. 0. 0. 0. 0. 1.25628139e-03 0. 0. 3.76884406e-03
      1.25628139e-03 0. 1.25628139e-03 5.02512557e-03 1.25628139e-03 0.
      0. 0. 1.25628139e-03 0. 1.25628139e-03 0. 0. 0. 0. 0. 0.
      1.25628139e-03 5.02512557e-03 1.25628139e-03 0. 0. 2.51256279e-03
      2.51256279e-03 0. 0. 2.51256279e-03 0. 0. 0. 0. 1.25628139e-03 0.
      0. 0. 1.25628139e-03 0. 0. 0. 3.76884406e-03 0. 0. 0.
      1.25628139e-03 0. 0. 1.25628139e-03 1.25628139e-03 1.25628139e-03
      0. 0. 0. 1.25628139e-03 0. 0. 1.25628139e-03 1.25628139e-03 0.
      1.25628139e-03 0. 8.79396964e-03 0. 0. 0. 0. 1.25628139e-03
      1.25628139e-03 3.76884406e-03 0. 0. 3.76884406e-03 0. 0. 0.
      2.51256279e-03 2.51256279e-03 1.25628139e-03 3.76884406e-03 0.
      1.25628139e-03 0. 0. 2.51256279e-03 6.28140708e-03 1.25628139e-03
      3.76884406e-03 1.25628139e-03 0. 0. 1.25628139e-03 0.
      1.25628139e-03 0. 0. 0. 0. 3.76884406e-03 1.25628139e-03 0.
      1.25628139e-03 0. 2.51256279e-03 3.76884406e-03 3.76884406e-03 0.
      0. 2.51256279e-03 2.51256279e-03 2.51256279e-03 0. 3.76884406e-03
      2.51256279e-03 1.25628139e-03 1.25628139e-03 0. 1.25628139e-03 0.
      2.51256279e-03 6.28140708e-03 1.25628139e-03 0. 1.25628139e-03 0.
      2.51256279e-03 0. 0. 1.25628139e-03 3.76884406e-03 0. 0. 0.
      1.25628139e-03 0. 0. 3.76884406e-03 3.76884406e-03 1.25628139e-03
      0. 1.25628139e-03 0. 5.02512557e-03 0. 1.25628139e-03 0. 0. 0.
      1.25628139e-03 3.76884406e-03 0. 0. 0. 0. 3.76884406e-03
      2.51256279e-03 0. 1.25628139e-03 1.25628139e-03 0. 0.
      5.02512557e-03 2.51256279e-03 0. 0. 2.51256279e-03 2.51256279e-03
      3.76884406e-03 1.25628139e-03 0. 0. 1.25628139e-03 0. 0. 0.
      2.51256279e-03 0. 0. 0. 0. 1.25628139e-03 0. 1.25628139e-03 0.
      1.25628139e-03 0. 1.25628139e-03 3.76884406e-03 1.25628139e-03 0.
      3.76884406e-03 0. 1.25628139e-03 2.51256279e-03 1.25628139e-03
      1.25628139e-03 0. 0. 0. 0. 0. 2.51256279e-03 0. 0. 1.25628139e-03
      1.25628139e-03 1.25628139e-03 1.25628139e-03 1.25628139e-03
      1.25628139e-03 0. 2.51256279e-03 0. 0. 0. 0. 0. 0. 1.25628139e-03
      0. 0. 2.51256279e-03 0. 0. 1.25628139e-03 2.51256279e-03 0. 0. 0.
      0. 0. 0. 1.25628139e-03 0. 1.25628139e-03 0. 0. 0. 0.
      3.76884406e-03 0. 0. 2.51256279e-03 0. 1.25628139e-03 0. 0. 0. 0.
      0. 0. 0. 0. 0. 0. 2.51256279e-03 0. 1.25628139e-03 1.38190957e-02
      7.53768813e-03 1.25628139e-03 0. 0. 2.51256279e-03 2.51256279e-03
      1.25628139e-03 0. 1.25628139e-03 0. 1.25628139e-03 1.25628139e-03
      0. 0. 0. 0. 1.25628139e-03 0. 0. 0. 1.25628139e-03 0. 0. 0.
      1.25628139e-03 0. 1.25628139e-03 0. 1.25628139e-03 6.28140708e-03
      0. 1.25628139e-03 5.02512557e-03 1.25628139e-03 0. 0.
      5.02512557e-03 0. 0. 0. 1.25628139e-03 2.51256279e-03 0. 0.
      3.76884406e-03 0. 1.25628139e-03 0. 0. 1.25628139e-03 0.
      8.79396964e-03 0. 2.51256279e-03 1.25628139e-03 0. 1.25628139e-03
      2.51256279e-03 2.51256279e-03 0. 0. 0. 2.51256279e-03 0. 0. 0.
      8.79396964e-03 2.51256279e-03 1.25628139e-03 1.25628139e-03
      2.51256279e-03 2.51256279e-03 0. 0. 6.28140708e-03 3.76884406e-03
      1.25628139e-03 1.25628139e-03 2.51256279e-03 0. 1.25628139e-03 0.
      1.25628139e-03 0. 1.25628139e-03 0. 1.25628139e-03 0.
      5.02512557e-03 0. 1.25628139e-03 6.28140708e-03 0. 1.25628139e-03
      1.25628139e-03 0. 0. 0. 6.28140708e-03 0. 0. 0. 1.25628139e-03
      1.25628139e-03 0. 0. 0. 0. 3.76884406e-03 2.51256279e-03 0.
      1.25628139e-03 0. 1.25628139e-03 0. 2.51256279e-03 2.51256279e-03
      2.51256279e-03 0. 2.51256279e-03 1.25628139e-03 0. 5.02512557e-03
      2.51256279e-03 0. 3.76884406e-03 0. 0. 0. 1.25628139e-03 0.
      1.25628139e-03 1.25628139e-03 0. 0. 2.51256279e-03 1.25628139e-03
      0. 0. 0. 0. 0. 0. 0. 2.51256279e-03 0. 0. 1.25628139e-03 0.
      1.25628139e-03 0. 0. 1.25628139e-03 0. 5.02512557e-03 0. 0. 0. 0.
      0. 1.25628139e-03 2.51256279e-03 0. 1.25628139e-03 0.
      1.25628139e-03 0. 2.51256279e-03 0. 2.51256279e-03 1.25628139e-03
      2.51256279e-03 0. 0. 2.51256279e-03 0. 0. 1.25628139e-03
      2.51256279e-03 0. 0. 1.25628139e-03 1.25628139e-03 0. 0. 0. 0.
      1.25628139e-03 5.02512557e-03 0. 0. 5.02512557e-03 0. 0. 0.
      2.51256279e-03 0. 3.76884406e-03 0. 0. 1.25628139e-03 0. 0.
      1.25628139e-03 0. 0. 0. 0. 0. 0. 0. 0. 1.25628139e-03
      3.76884406e-03 0. 3.76884406e-03 0. 0. 2.51256279e-03
      5.02512557e-03 3.76884406e-03 0. 2.51256279e-03 0. 2.51256279e-03
      1.25628139e-03 0. 1.25628139e-03 2.51256279e-03 0. 0. 0. 0.
      2.51256279e-03 7.53768813e-03 0. 3.76884406e-03 1.25628139e-03
      1.25628139e-03 0. 0. 1.25628139e-03 3.76884406e-03 0. 0. 0. 0. 0.
      0. 0. 0. 1.25628139e-03 0. 0. 1.25628139e-03 0. 0. 1.25628139e-03
      0. 1.25628139e-03 0. 1.25628139e-03 5.02512557e-03 2.51256279e-03
      0. 0. 1.25628139e-03 0. 1.25628139e-03 0. 0. 0. 2.51256279e-03
      3.76884406e-03 0. 5.02512557e-03 0. 0. 1.25628139e-03
      1.25628139e-03 5.02512557e-03 0. 2.51256279e-03 1.25628139e-03 0.
      5.02512557e-03 1.25628139e-03 0. 0. 2.51256279e-03 0. 0. 0.
      2.51256279e-03 0. 0. 0. 0. 0. 0. 1.25628139e-03 2.51256279e-03
      1.25628139e-03 1.25628139e-03 2.51256279e-03 0. 1.25628139e-03 0.
      0. 0. 0. 0. 2.51256279e-03 0. 6.28140708e-03 0. 1.25628139e-03 0.
      0. 0. 0. 0. 0. 2.51256279e-03 0. 0. 0. 3.76884406e-03 0. 0.
      2.51256279e-03 0. 0. 1.25628139e-03 1.25628139e-03 0. 0.
      2.51256279e-03 0. 0. 0. 2.51256279e-03 0. 0. 0. 0. 0. 0. 0.
      1.25628139e-03 0. 0. 0. 0. 2.51256279e-03 1.25628139e-03
      3.76884406e-03 2.51256279e-03 1.25628139e-03 2.51256279e-03 0. 0.
      3.76884406e-03 2.51256279e-03 2.51256279e-03 0. 0. 0.
      2.51256279e-03 0. 0. 2.51256279e-03 2.51256279e-03 1.25628139e-03
      1.25628139e-03 2.51256279e-03 1.25628139e-03 0. 0. 1.25628139e-03
      1.25628139e-03 0. 1.25628139e-03 1.25628139e-03 5.02512557e-03
      1.25628139e-03 0. 0. 0. 2.51256279e-03 1.25628139e-03 0.
      1.25628139e-03 2.51256279e-03 0. 1.25628139e-03 0. 5.02512557e-03
      0. 2.51256279e-03 0. 2.51256279e-03 0. 2.51256279e-03 0.
      2.51256279e-03 0. 0. 5.02512557e-03 1.25628139e-03 0. 0.
      2.51256279e-03 0. 1.25628139e-03 2.51256279e-03 1.25628139e-03
      3.76884406e-03 0. 0. 0. 0. 0. 2.51256279e-03 7.53768813e-03 0.
      3.76884406e-03 1.25628139e-03 1.25628139e-03 0. 0. 0. 0. 0. 0. 0.
      0. 7.53768813e-03 0. 2.51256279e-03 0. 0. 0. 0. 0. 3.76884406e-03
      6.28140708e-03</_>
    <_>
      0. 0. 0. 0. 0. 0. 2.68817204e-03 0. 0. 0. 0. 0. 8.06451589e-03
      2.68817204e-03 0. 0. 0. 0. 0. 0. 0. 0. 0. 0. 1.07526882e-02
      2.68817204e-03 0. 0. 0. 0. 0. 2.68817204e-03 0. 0. 0. 0. 0. 0. 0.
      0. 0. 0. 0. 0. 0. 0. 0. 0. 0. 0. 0. 0. 2.68817204e-03 0. 0. 0. 0.
      2.68817204e-03 2.68817204e-03 2.68817204e-03 2.68817204e-03 0. 0.
      0. 0. 0. 0. 0. 5.37634408e-03 2.68817204e-03 0. 0. 0. 0. 0.
      2.68817204e-03 0. 8.06451589e-03 0. 0. 0. 0. 0. 0. 2.68817204e-03
      0. 0. 2.68817204e-03 0. 2.68817204e-03 0. 2.68817204e-03
      2.68817204e-03 0. 2.68817204e-03 0. 0. 0. 0. 0. 5.37634408e-03 0.
      0. 0. 0. 0. 0. 0. 0. 0. 0. 0. 0. 8.06451589e-03 0. 0. 0. 0.
      5.37634408e-03 0. 5.37634408e-03 0. 0. 0. 0. 0. 0. 0. 0. 0. 0.
      5.37634408e-03 0. 0. 0. 0. 0. 5.37634408e-03 0. 0. 2.68817204e-03
      1.07526882e-02 0. 0. 0. 0. 0. 0. 2.68817204e-03 2.68817204e-03 0.
      0. 0. 0. 0. 2.68817204e-03 0. 0. 0. 0. 0. 2.68817204e-03 0.
      1.07526882e-02 2.68817204e-03 2.68817204e-03 0. 0. 0. 0. 0.
      2.68817204e-03 0. 0. 2.68817204e-03 0. 0. 0. 0. 0. 0.
      5.37634408e-03 5.37634408e-03 0. 2.68817204e-03 0. 0.
      5.37634408e-03 5.37634408e-03 0. 0. 0. 0. 0. 0. 0. 2.68817204e-03
      0. 0. 0. 0. 0. 0. 0. 0. 2.68817204e-03 0. 0. 0. 0. 0.
      2.68817204e-03 5.37634408e-03 2.68817204e-03 0. 0. 0.
      2.68817204e-03 2.68817204e-03 0. 8.06451589e-03 0. 0. 0. 0. 0. 0.
      0. 0. 0. 0. 0. 0. 0. 0. 0. 0. 0. 0. 0. 0. 5.37634408e-03
      2.68817204e-03 0. 0. 0. 5.37634408e-03 0. 0. 2.68817204e-03
      5.37634408e-03 5.37634408e-03 2.68817204e-03 2.68817204e-03
      2.68817204e-03 0. 8.06451589e-03 0. 0. 0. 0. 0. 0. 0. 0. 0. 0. 0.
      2.68817204e-03 5.37634408e-03 0. 0. 0. 0. 0. 0. 0. 0.
      2.68817204e-03 0. 0. 0. 0. 0. 0. 0. 0. 2.68817204e-03 0. 0.
      2.68817204e-03 5.37634408e-03 2.68817204e-03 0. 0. 0. 0. 0. 0. 0.
      0. 0. 0. 0. 0. 0. 0. 0. 0. 0. 5.37634408e-03 2.68817204e-03 0. 0.
      0. 0. 0. 0. 2.68817204e-03 2.68817204e-03 0. 2.68817204e-03
      2.68817204e-03 0. 0. 0. 0. 0. 0. 0. 2.68817204e-03 0. 0. 0. 0. 0.
      0. 0. 0. 0. 0. 0. 0. 1.34408604e-02 0. 0. 0. 0. 8.06451589e-03 0.
      0. 2.68817204e-03 0. 0. 2.68817204e-03 0. 0. 0. 5.37634408e-03 0.
      0. 0. 0. 0. 0. 0. 0. 0. 0. 0. 1.07526882e-02 0. 0. 0. 0.
      2.68817204e-03 0. 0. 0. 0. 0. 2.68817204e-03 0. 0. 0.
      2.68817204e-03 0. 0. 0. 0. 0. 0. 0. 5.37634408e-03 0. 0. 0. 0.
      2.68817204e-03 0. 0. 0. 5.37634408e-03 0. 0. 0. 2.68817204e-03 0.
      2.68817204e-03 0. 0. 0. 0. 5.37634408e-03 0. 0. 0. 0.
      2.68817204e-03 8.06451589e-03 0. 0. 0. 2.68817204e-03 0. 0. 0. 0.
      0. 0. 0. 2.68817204e-03 5.37634408e-03 2.68817204e-03 0. 0.
      2.68817204e-03 0. 0. 0. 0. 0. 0. 0. 0. 2.68817204e-03
      5.37634408e-03 2.68817204e-03 0. 0. 0. 0. 0. 0. 0. 0. 0. 0. 0.
      2.68817204e-03 5.37634408e-03 2.68817204e-03 0. 2.68817204e-03 0.
      2.68817204e-03 0. 0. 0. 0. 0. 0. 0. 0. 5.37634408e-03 0. 0.
      2.68817204e-03 0. 0. 0. 5.37634408e-03 0. 0. 0. 0. 0. 0.
      5.37634408e-03 2.68817204e-03 1.07526882e-02 0. 0. 0.
      2.68817204e-03 2.68817204e-03 0. 0. 0. 2.68817204e-03 0. 0. 0.
      2.68817204e-03 0. 0. 0. 0. 2.68817204e-03 0. 0. 2.68817204e-03 0.
      0. 0. 0. 0. 0. 0. 0. 0. 0. 2.68817204e-03 2.68817204e-03 0.
      2.68817204e-03 0. 2.68817204e-03 0. 2.68817204e-03 2.68817204e-03
      0. 0. 0. 2.68817204e-03 0. 0. 0. 2.68817204e-03 0. 0. 0. 0. 0. 0.
      5.37634408e-03 2.68817204e-03 0. 0. 0. 0. 0. 0. 0. 0. 0.
      2.68817204e-03 0. 0. 0. 0. 2.68817204e-03 0. 2.68817204e-03 0. 0.
      0. 0. 5.37634408e-03 0. 0. 0. 0. 8.06451589e-03 0. 0.
      2.68817204e-03 0. 2.68817204e-03 0. 2.68817204e-03 0.
      2.68817204e-03 0. 0. 2.68817204e-03 2.68817204e-03 2.68817204e-03
      0. 8.06451589e-03 0. 0. 0. 0. 0. 2.68817204e-03 0. 2.68817204e-03
      0. 2.68817204e-03 5.37634408e-03 0. 2.68817204e-03 0.
      5.37634408e-03 0. 0. 5.37634408e-03 2.68817204e-03 0. 0. 0. 0. 0.
      0. 0. 0. 5.37634408e-03 0. 2.15053763e-02 2.68817204e-03 0. 0. 0.
      0. 0. 0. 0. 2.68817204e-03 0. 0. 0. 5.37634408e-03 0.
      5.37634408e-03 5.37634408e-03 0. 2.68817204e-03 0. 0. 0. 0.
      2.68817204e-03 0. 2.68817204e-03 0. 0. 2.68817204e-03 0. 0. 0.
      5.37634408e-03 0. 0. 0. 0. 2.68817204e-03 0. 0. 0. 0. 0.
      5.37634408e-03 2.68817204e-03 2.68817204e-03 0. 0. 0. 0.
      5.37634408e-03 0. 0. 0. 2.68817204e-03 0. 2.68817204e-03
      2.68817204e-03 2.68817204e-03 0. 0. 0. 2.68817204e-03
      2.68817204e-03 0. 0. 8.06451589e-03 0. 0. 0. 0. 2.68817204e-03 0.
      0. 2.68817204e-03 2.68817204e-03 2.68817204e-03 5.37634408e-03
      8.06451589e-03 0. 0. 0. 5.37634408e-03 0. 0. 0. 0. 2.68817204e-03
      0. 0. 0. 0. 2.68817204e-03 0. 0. 5.37634408e-03 0. 0. 0. 0. 0. 0.
      0. 2.68817204e-03 0. 2.68817204e-03 0. 0. 0. 0. 0. 2.68817204e-03
      0. 2.68817204e-03 0. 0. 2.68817204e-03 0. 0. 2.68817204e-03 0. 0.
      5.37634408e-03 0. 0. 2.68817204e-03 0. 0. 0. 2.68817204e-03 0. 0.
      0. 0. 2.68817204e-03 0. 0. 0. 2.68817204e-03 0. 0. 2.68817204e-03
      2.68817204e-03 0. 0. 0. 0. 0. 0. 0. 0. 0. 0. 2.68817204e-03
      2.68817204e-03 2.68817204e-03 0. 0. 0. 0. 0. 2.68817204e-03 0. 0.
      0. 5.37634408e-03 0. 0. 0. 2.68817204e-03 0. 0. 0. 0. 0.
      2.68817204e-03 0. 2.68817204e-03 0. 0. 0. 0. 0. 5.37634408e-03 0.
      0. 2.68817204e-03 0. 0. 2.68817204e-03 0. 0. 2.68817204e-03 0. 0.
      0. 0. 0. 0. 0. 0. 2.68817204e-03 2.68817204e-03 0. 0.
      5.37634408e-03 0. 0. 2.68817204e-03 0. 0. 0. 0. 2.68817204e-03 0.
      0. 0. 0. 1.07526882e-02 2.68817204e-03 0. 2.68817204e-03 0.
      5.37634408e-03 8.06451589e-03 0. 0. 0. 0. 0. 0. 0. 0. 0. 0.
      2.68817204e-03 0. 2.68817204e-03 0. 0. 0. 0. 0. 0. 2.68817204e-03
      0. 0. 0. 0. 2.68817204e-03 0. 0. 0. 0. 0. 0. 0. 0. 2.68817204e-03
      0. 0. 2.68817204e-03 0. 0. 0. 2.68817204e-03 0. 0. 0. 0. 0. 0. 0.
      0. 0. 0. 0. 2.68817204e-03 2.68817204e-03 0. 0. 0. 0. 0.
      2.68817204e-03 0. 0. 0. 0. 0. 0. 2.68817204e-03 2.68817204e-03 0.
      0. 0. 0. 5.37634408e-03 0. 0. 2.68817204e-03 0. 2.68817204e-03
      2.68817204e-03 0. 0. 0. 0. 5.37634408e-03 0. 0. 0. 0. 0.
      5.37634408e-03 8.06451589e-03 0. 0. 0. 0. 0. 0. 0. 0. 0. 0. 0. 0.
      2.68817204e-03 0. 2.68817204e-03 0. 0. 2.68817204e-03
      2.68817204e-03 0. 5.37634408e-03 2.68817204e-03 0. 0.
      5.37634408e-03 0. 5.37634408e-03 0. 0. 2.68817204e-03 0. 0. 0.
      2.68817204e-03 0. 2.68817204e-03 0. 0. 2.68817204e-03 0. 0. 0.
      8.06451589e-03 0. 2.68817204e-03 5.37634408e-03 0. 2.68817204e-03
      0. 0. 2.68817204e-03 0. 2.68817204e-03 0. 0. 0. 0. 0. 0. 0.
      1.07526882e-02 5.37634408e-03 0. 0. 0.</_>
    <_>
      0. 0. 0. 0. 2.02429155e-03 0. 0. 0. 0. 0. 0. 0. 0. 0. 0. 0.
      2.02429155e-03 0. 0. 2.02429155e-03 0. 0. 0. 0. 0. 2.02429155e-03
      0. 0. 0. 0. 0. 2.02429155e-03 0. 0. 0. 0. 0. 0. 0. 0. 0.
      2.02429155e-03 2.02429155e-03 0. 0. 0. 0. 0. 0. 0. 0. 0.
      4.04858310e-03 0. 0. 0. 0. 2.02429155e-03 0. 2.02429155e-03 0. 0.
      0. 0. 0. 0. 2.02429155e-03 0. 2.02429155e-03 2.02429155e-03 0. 0.
      0. 0. 0. 6.07287465e-03 0. 0. 0. 0. 0. 0. 0. 0. 0. 0. 0. 0. 0.
      2.02429155e-03 0. 0. 0. 0. 0. 0. 0. 0. 0. 0. 0. 0. 0. 0. 0. 0. 0.
      0. 0. 0. 0. 0. 0. 0. 0. 0. 0. 0. 0. 0. 0. 2.02429155e-03 0. 0. 0.
      0. 0. 0. 0. 0. 0. 4.04858310e-03 0. 8.09716620e-03 4.04858310e-03
      0. 0. 0. 0. 0. 0. 0. 0. 2.02429155e-03 0. 0. 0. 0. 2.02429155e-03
      0. 0. 0. 2.02429155e-03 0. 0. 0. 2.02429155e-03 0. 0. 0.
      4.04858310e-03 0. 0. 0. 8.09716620e-03 0. 0. 0. 0. 0. 0.
      2.02429155e-03 0. 0. 2.02429155e-03 0. 0. 0. 0. 2.02429155e-03
      2.02429155e-03 2.02429155e-03 2.02429155e-03 0. 0. 0. 0.
      2.02429155e-03 2.02429155e-03 0. 0. 0. 0. 0. 0. 0. 2.02429155e-03
      0. 0. 0. 2.02429155e-03 0. 0. 0. 4.04858310e-03 2.02429155e-03
      6.07287465e-03 0. 0. 2.02429155e-03 0. 4.04858310e-03 0. 0.
      2.02429155e-03 2.02429155e-03 0. 4.04858310e-03 0. 0.
      6.07287465e-03 0. 0. 0. 0. 0. 0. 0. 0. 0. 4.04858310e-03 0. 0. 0.
      0. 2.02429155e-03 0. 0. 0. 0. 0. 0. 0. 0. 0. 6.07287465e-03 0. 0.
      2.02429155e-03 0. 2.02429155e-03 0. 0. 0. 0. 0. 2.02429155e-03
      6.07287465e-03 0. 0. 0. 0. 0. 0. 0. 0. 0. 0. 0. 0. 2.02429155e-03
      0. 0. 2.02429155e-03 0. 2.02429155e-03 0. 2.02429155e-03 0.
      2.02429155e-03 4.04858310e-03 0. 0. 0. 0. 0. 4.04858310e-03 0. 0.
      0. 0. 0. 4.04858310e-03 0. 0. 2.02429155e-03 0. 0. 2.02429155e-03
      8.09716620e-03 0. 2.02429155e-03 0. 0. 2.02429155e-03 0. 0. 0.
      2.02429155e-03 0. 0. 0. 0. 0. 0. 2.02429155e-03 0. 0. 0. 0. 0. 0.
      2.02429155e-03 0. 0. 0. 0. 0. 2.02429155e-03 0. 0. 0. 0. 0. 0. 0.
      2.02429155e-03 0. 0. 0. 0. 0. 0. 0. 0. 0. 0. 0. 0. 0.
      2.02429155e-03 0. 0. 0. 0. 2.02429155e-03 2.02429155e-03 0. 0. 0.
      2.02429155e-03 0. 0. 2.02429155e-03 4.04858310e-03 0.
      2.02429155e-03 0. 0. 0. 2.02429155e-03 0. 0. 4.04858310e-03 0. 0.
      0. 2.02429155e-03 2.02429155e-03 0. 6.07287465e-03 0. 0. 0.
      2.02429155e-03 2.02429155e-03 0. 0. 0. 0. 0. 0. 0. 8.09716620e-03
      0. 0. 0. 0. 4.04858310e-03 6.07287465e-03 0. 0. 4.04858310e-03 0.
      2.02429155e-03 0. 8.09716620e-03 0. 0. 0. 0. 0. 2.02429155e-03 0.
      0. 0. 2.02429155e-03 0. 0. 0. 0. 0. 2.02429155e-03 4.04858310e-03
      0. 0. 0. 0. 0. 0. 0. 2.02429155e-03 0. 2.02429155e-03 0. 0.
      2.02429155e-03 0. 0. 0. 0. 0. 0. 2.02429155e-03 0. 2.02429155e-03
      4.04858310e-03 0. 0. 0. 0. 2.02429155e-03 0. 2.02429155e-03 0. 0.
      6.07287465e-03 0. 0. 4.04858310e-03 0. 2.02429155e-03 0. 0. 0. 0.
      2.02429155e-03 0. 2.02429155e-03 0. 0. 0. 2.02429155e-03 0. 0. 0.
      6.07287465e-03 6.07287465e-03 4.04858310e-03 0. 0. 6.07287465e-03
      6.07287465e-03 2.02429155e-03 6.07287465e-03 2.02429155e-03
      2.02429155e-03 0. 2.02429155e-03 0. 2.02429155e-03 0.
      6.07287465e-03 2.02429155e-03 0. 2.02429155e-03 0. 0.
      2.02429155e-03 0. 0. 4.04858310e-03 0. 0. 0. 2.02429155e-03 0. 0.
      0. 2.02429155e-03 0. 6.07287465e-03 2.02429155e-03 6.07287465e-03
      0. 2.02429155e-03 0. 0. 0. 0. 0. 0. 1.21457493e-02 0. 0.
      2.02429155e-03 0. 0. 0. 2.02429155e-03 0. 6.07287465e-03 0. 0. 0.
      0. 0. 0. 2.02429155e-03 4.04858310e-03 0. 0. 0. 0. 0. 0.
      2.02429155e-03 0. 0. 0. 0. 0. 0. 0. 0. 2.02429155e-03 0. 0. 0.
      2.02429155e-03 0. 2.02429155e-03 0. 0. 0. 0. 0. 0. 2.02429155e-03
      0. 0. 2.02429155e-03 0. 0. 0. 0. 0. 0. 2.02429155e-03 0.
      6.07287465e-03 0. 0. 0. 0. 0. 0. 0. 0. 2.02429155e-03 0. 0.
      2.02429155e-03 4.04858310e-03 2.02429155e-03 0. 0. 4.04858310e-03
      0. 4.04858310e-03 4.04858310e-03 0. 6.07287465e-03 0.
      2.02429155e-03 0. 0. 0. 2.02429155e-03 0. 0. 4.04858310e-03
      2.02429155e-03 0. 0. 0. 0. 8.09716620e-03 0. 0. 0. 2.02429155e-03
      0. 2.02429155e-03 4.04858310e-03 0. 0. 0. 0. 0. 2.02429155e-03
      2.02429155e-03 2.02429155e-03 0. 2.02429155e-03 4.04858310e-03 0.
      6.07287465e-03 0. 2.02429155e-03 0. 4.04858310e-03 0.
      4.04858310e-03 4.04858310e-03 2.02429155e-03 0. 0. 0. 0. 0.
      8.09716620e-03 2.02429155e-03 2.02429155e-03 2.02429155e-03
      6.07287465e-03 2.02429155e-03 0. 0. 0. 0. 0. 0. 2.02429155e-03
      4.04858310e-03 4.04858310e-03 2.02429155e-03 6.07287465e-03 0.
      4.04858310e-03 0. 0. 0. 0. 0. 0. 0. 2.02429155e-03 2.02429155e-03
      0. 0. 2.02429155e-03 8.09716620e-03 0. 0. 6.07287465e-03 0.
      2.02429155e-03 4.04858310e-03 0. 1.01214573e-02 0. 0. 0.
      2.02429155e-03 0. 0. 8.09716620e-03 0. 0. 4.04858310e-03 0.
      2.02429155e-03 0. 0. 0. 2.02429155e-03 2.02429155e-03 0. 0. 0. 0.
      0. 0. 0. 0. 0. 0. 0. 1.01214573e-02 8.09716620e-03 0. 0. 0.
      2.02429155e-03 0. 0. 6.07287465e-03 0. 2.02429155e-03
      4.04858310e-03 0. 2.02429155e-03 0. 0. 2.02429155e-03
      2.02429155e-03 0. 2.02429155e-03 0. 0. 0. 2.02429155e-03 0.
      8.09716620e-03 0. 2.02429155e-03 0. 2.02429155e-03 0.
      6.07287465e-03 0. 0. 0. 0. 0. 0. 0. 0. 2.02429155e-03 0. 0. 0. 0.
      0. 0. 0. 0. 0. 2.02429155e-03 2.02429155e-03 0. 0. 2.02429155e-03
      0. 0. 0. 2.02429155e-03 2.02429155e-03 2.02429155e-03 0. 0. 0.
      4.04858310e-03 0. 4.04858310e-03 0. 0. 0. 4.04858310e-03 0.
      1.61943324e-02 0. 0. 2.02429155e-03 4.04858310e-03 0.
      2.02429155e-03 0. 0. 2.02429155e-03 2.02429155e-03 2.02429155e-03
      0. 2.02429155e-03 0. 0. 0. 0. 0. 4.04858310e-03 0. 4.04858310e-03
      4.04858310e-03 0. 4.04858310e-03 8.09716620e-03 0. 0.
      2.02429155e-03 2.02429155e-03 2.02429155e-03 0. 0. 4.04858310e-03
      4.04858310e-03 0. 2.02429155e-03 2.02429155e-03 0. 0. 0. 0. 0. 0.
      0. 2.02429155e-03 0. 0. 0. 2.02429155e-03 4.04858310e-03 0.
      4.04858310e-03 0. 0. 4.04858310e-03 0. 0. 2.02429155e-03 0. 0. 0.
      0. 0. 0. 0. 0. 4.04858310e-03 0. 0. 2.02429155e-03 0. 0. 0. 0. 0.
      0. 4.04858310e-03 0. 0. 0. 2.02429155e-03 2.02429155e-03 0. 0. 0.
      0. 2.02429155e-03 2.02429155e-03 2.02429155e-03 6.07287465e-03 0.
      2.02429155e-03 0. 2.02429155e-03 2.02429155e-03 0. 0. 0.
      4.04858310e-03 0. 0. 2.02429155e-03 2.02429155e-03 0.
      2.02429155e-03 4.04858310e-03 0. 0. 0. 0. 0. 0. 0. 0.
      2.02429155e-03 1.01214573e-02 0. 0. 0. 6.07287465e-03
      6.07287465e-03 0. 2.02429155e-03 0. 4.04858310e-03 0. 0.
      8.09716620e-03 2.02429155e-03 2.02429155e-03 0. 0. 0.
      6.07287465e-03 0. 0. 0. 2.02429155e-03 0. 4.04858310e-03 0. 0.
      2.02429155e-03 2.02429155e-03 0. 0. 2.02429155e-03 0. 0. 0.
      2.02429155e-03 2.02429155e-03 0. 0. 0. 2.02429155e-03
      2.02429155e-03 2.02429155e-03 2.02429155e-03 4.04858310e-03
      2.02429155e-03 2.02429155e-03 0. 0. 6.07287465e-03 2.02429155e-03
      0. 2.02429155e-03 0. 0. 0. 4.04858310e-03 2.02429155e-03
      2.02429155e-03 0. 0. 0. 0. 2.02429155e-03 0. 0. 0. 0. 0.
      2.02429155e-03 4.04858310e-03 0. 0. 0. 2.02429155e-03 0. 0. 0.
      4.04858310e-03 0. 0. 0. 0. 2.02429155e-03 6.07287465e-03
      2.02429155e-03 0. 2.02429155e-03 0. 0. 6.07287465e-03
      2.02429155e-03 4.04858310e-03</_>
    <_>
      0. 0. 0. 0. 0. 0. 0. 0. 0. 0. 0. 0. 0. 0. 4.38596494e-03
      2.92397663e-03 0. 0. 0. 0. 0. 0. 0. 1.46198831e-03 2.92397663e-03
      1.46198831e-03 0. 1.46198831e-03 0. 0. 0. 0. 0. 0. 0. 0. 0. 0. 0.
      0. 0. 2.92397663e-03 1.46198831e-03 1.46198831e-03 0. 0. 0. 0. 0.
      0. 2.92397663e-03 0. 4.38596494e-03 0. 0. 0. 0. 4.38596494e-03 0.
      0. 0. 1.46198831e-03 0. 0. 0. 5.84795326e-03 1.46198831e-03 0. 0.
      0. 0. 0. 0. 1.46198831e-03 0. 7.30994157e-03 1.46198831e-03 0. 0.
      0. 0. 0. 0. 2.92397663e-03 0. 0. 0. 0. 0. 4.38596494e-03 0.
      4.38596494e-03 0. 0. 0. 0. 0. 0. 0. 0. 0. 0. 0. 0. 0.
      1.46198831e-03 2.92397663e-03 0. 0. 1.46198831e-03 0. 0. 0. 0. 0.
      0. 0. 0. 0. 0. 0. 0. 0. 0. 0. 0. 0. 0. 0. 0. 0. 1.46198831e-03 0.
      1.46198831e-03 0. 0. 0. 0. 0. 0. 0. 0. 2.92397663e-03 0.
      1.46198831e-03 0. 1.46198831e-03 1.46198831e-03 1.46198831e-03 0.
      0. 1.46198831e-03 1.46198831e-03 2.92397663e-03 0. 0. 0. 0.
      1.46198831e-03 0. 1.46198831e-03 0. 0. 0. 5.84795326e-03 0.
      1.46198831e-03 0. 0. 0. 0. 1.46198831e-03 0. 0. 0. 0. 0. 0. 0.
      2.92397663e-03 1.46198831e-03 0. 0. 0. 0. 0. 1.46198831e-03
      2.92397663e-03 1.46198831e-03 0. 0. 0. 0. 1.46198831e-03 0. 0. 0.
      0. 1.46198831e-03 0. 0. 0. 1.46198831e-03 0. 4.38596494e-03 0.
      2.92397663e-03 0. 1.46198831e-03 4.38596494e-03 0. 1.46198831e-03
      0. 0. 0. 1.46198831e-03 0. 1.46198831e-03 0. 0. 2.92397663e-03 0.
      5.84795326e-03 0. 0. 0. 1.46198831e-03 0. 0. 0. 1.46198831e-03 0.
      0. 0. 0. 0. 0. 0. 0. 0. 0. 0. 0. 1.46198831e-03 0. 0.
      1.46198831e-03 0. 1.46198831e-03 1.46198831e-03 1.46198831e-03
      1.46198831e-03 0. 0. 0. 0. 7.30994157e-03 1.46198831e-03 0. 0. 0.
      0. 1.46198831e-03 0. 0. 0. 0. 2.92397663e-03 0. 1.46198831e-03 0.
      0. 0. 4.38596494e-03 0. 1.46198831e-03 0. 0. 0. 0. 1.46198831e-03
      0. 2.92397663e-03 2.92397663e-03 0. 0. 1.46198831e-03 0. 0. 0. 0.
      0. 8.77192989e-03 1.46198831e-03 0. 5.84795326e-03 0.
      2.92397663e-03 1.46198831e-03 4.38596494e-03 0. 0. 0. 0.
      2.92397663e-03 0. 0. 0. 0. 0. 0. 1.46198831e-03 0. 0.
      1.46198831e-03 0. 1.46198831e-03 0. 1.46198831e-03 0. 0.
      1.46198831e-03 4.38596494e-03 0. 1.46198831e-03 0. 0. 0. 0. 0.
      1.46198831e-03 0. 1.46198831e-03 0. 1.46198831e-03 0.
      1.46198831e-03 0. 1.46198831e-03 0. 0. 0. 0. 0. 0. 0.
      1.46198831e-03 0. 0. 4.38596494e-03 0. 0. 0. 0. 0. 1.46198831e-03
      2.92397663e-03 0. 2.92397663e-03 1.46198831e-03 1.46198831e-03
      1.46198831e-03 0. 2.92397663e-03 1.46198831e-03 0. 4.38596494e-03
      0. 0. 0. 1.46198831e-03 1.46198831e-03 1.46198831e-03
      2.92397663e-03 0. 2.92397663e-03 1.46198831e-03 0. 0.
      2.92397663e-03 7.30994157e-03 0. 0. 0. 2.92397663e-03
      1.46198831e-03 1.46198831e-03 1.46198831e-03 0. 1.46198831e-03
      1.46198831e-03 0. 0. 2.92397663e-03 0. 0. 0. 2.92397663e-03
      2.92397663e-03 2.92397663e-03 0. 0. 1.46198831e-03 0.
      1.46198831e-03 0. 0. 0. 0. 0. 1.46198831e-03 1.46198831e-03 0.
      1.46198831e-03 0. 1.46198831e-03 1.46198831e-03 0. 0. 0. 0. 0.
      2.92397663e-03 2.92397663e-03 0. 0. 0. 0. 1.46198831e-03 0. 0. 0.
      0. 1.46198831e-03 2.92397663e-03 0. 1.46198831e-03 0. 0.
      1.46198831e-03 0. 1.46198831e-03 0. 5.84795326e-03 0.
      2.92397663e-03 4.38596494e-03 1.46198831e-03 0. 1.46198831e-03 0.
      0. 0. 0. 0. 8.77192989e-03 4.38596494e-03 1.46198831e-03
      1.46198831e-03 0. 0. 0. 2.92397663e-03 1.46198831e-03 0.
      2.92397663e-03 0. 0. 0. 0. 4.38596494e-03 1.46198831e-03
      5.84795326e-03 0. 0. 1.46198831e-03 7.30994157e-03 1.46198831e-03
      7.30994157e-03 0. 0. 1.46198831e-03 1.46198831e-03 2.92397663e-03
      4.38596494e-03 0. 0. 1.46198831e-03 0. 2.92397663e-03 0. 0. 0. 0.
      2.92397663e-03 0. 0. 0. 7.30994157e-03 0. 0. 4.38596494e-03 0. 0.
      1.46198831e-03 0. 0. 0. 1.46198831e-03 0. 1.46198831e-03
      1.46198831e-03 1.46198831e-03 1.46198831e-03 2.92397663e-03 0. 0.
      0. 0. 0. 0. 0. 4.38596494e-03 2.92397663e-03 0. 1.46198831e-03 0.
      0. 5.84795326e-03 0. 1.46198831e-03 0. 0. 0. 0. 0. 0. 0.
      7.30994157e-03 2.92397663e-03 0. 0. 0. 0. 0. 0. 0. 0. 0. 0. 0. 0.
      0. 0. 0. 2.92397663e-03 0. 1.46198831e-03 2.92397663e-03
      2.92397663e-03 0. 1.46198831e-03 1.46198831e-03 1.46198831e-03
      1.46198831e-03 0. 0. 1.46198831e-03 1.46198831e-03 0. 0. 0. 0.
      2.92397663e-03 0. 0. 0. 0. 7.30994157e-03 1.46198831e-03 0. 0. 0.
      0. 0. 0. 0. 0. 0. 0. 0. 0. 1.46198831e-03 5.84795326e-03 0. 0. 0.
      0. 0. 1.46198831e-03 2.92397663e-03 0. 8.77192989e-03 0.
      2.92397663e-03 0. 0. 2.92397663e-03 0. 0. 0. 1.46198831e-03 0. 0.
      0. 2.92397663e-03 0. 2.92397663e-03 0. 0. 1.46198831e-03
      4.38596494e-03 0. 2.92397663e-03 0. 1.46198831e-03 1.46198831e-03
      1.46198831e-03 0. 1.46198831e-03 0. 0. 0. 1.46198831e-03
      5.84795326e-03 0. 0. 5.84795326e-03 0. 1.46198831e-03 0. 0. 0. 0.
      0. 1.46198831e-03 1.46198831e-03 0. 0. 0. 0. 4.38596494e-03 0. 0.
      1.46198831e-03 1.46198831e-03 0. 0. 0. 1.46198831e-03 0.
      5.84795326e-03 2.92397663e-03 1.46198831e-03 0. 2.92397663e-03
      1.46198831e-03 1.46198831e-03 0. 0. 0. 0. 2.92397663e-03
      1.46198831e-03 2.92397663e-03 2.92397663e-03 2.92397663e-03
      1.46198831e-03 0. 0. 1.46198831e-03 1.46198831e-03 1.46198831e-03
      0. 0. 2.92397663e-03 0. 0. 5.84795326e-03 0. 1.46198831e-03 0. 0.
      1.46198831e-03 1.46198831e-03 0. 0. 1.46198831e-03 0. 0. 0. 0.
      2.92397663e-03 0. 0. 1.46198831e-03 0. 0. 0. 0. 0. 1.46198831e-03
      2.92397663e-03 1.46198831e-03 1.46198831e-03 1.46198831e-03
      1.46198831e-03 0. 0. 0. 2.92397663e-03 0. 1.46198831e-03 0.
      2.92397663e-03 0. 1.46198831e-03 1.46198831e-03 0. 1.46198831e-03
      1.46198831e-03 0. 0. 0. 0. 0. 2.92397663e-03 0. 1.46198831e-03 0.
      1.46198831e-03 0. 4.38596494e-03 0. 2.92397663e-03 0. 0. 0.
      2.92397663e-03 0. 4.38596494e-03 0. 0. 1.46198831e-03
      1.46198831e-03 1.46198831e-03 0. 0. 0. 2.92397663e-03
      7.30994157e-03 0. 1.46198831e-03 0. 0. 0. 0. 0. 0. 0.
      1.46198831e-03 0. 0. 1.46198831e-03 1.46198831e-03 1.46198831e-03
      0. 0. 0. 0. 1.46198831e-03 4.38596494e-03 1.46198831e-03
      2.92397663e-03 0. 1.46198831e-03 0. 7.30994157e-03 0.
      1.46198831e-03 1.46198831e-03 1.46198831e-03 4.38596494e-03
      1.46198831e-03 2.92397663e-03 2.92397663e-03 0. 0. 4.38596494e-03
      0. 1.46198831e-03 0. 4.38596494e-03 0. 0. 0. 5.84795326e-03 0. 0.
      1.46198831e-03 1.46198831e-03 1.46198831e-03 2.92397663e-03
      1.46198831e-03 1.46198831e-03 5.84795326e-03 1.46198831e-03
      5.84795326e-03 0. 1.46198831e-03 1.46198831e-03 4.38596494e-03 0.
      2.92397663e-03 2.92397663e-03 0. 1.46198831e-03 0. 2.92397663e-03
      0. 0. 0. 7.30994157e-03 1.46198831e-03 0. 0. 0. 0. 0.
      1.46198831e-03 0. 2.92397663e-03 1.46198831e-03 7.30994157e-03
      1.46198831e-03 2.92397663e-03 0. 0. 1.46198831e-03 2.92397663e-03
      0. 1.46198831e-03 0. 0. 1.46198831e-03 0. 0. 0. 1.46198831e-03 0.
      0. 0. 0. 4.38596494e-03 0. 0. 0. 2.92397663e-03 1.46198831e-03 0.
      1.46198831e-03 0. 0. 0. 0. 4.38596494e-03 1.46198831e-03 0. 0.
      7.30994157e-03 2.92397663e-03 2.92397663e-03 4.38596494e-03
      2.92397663e-03 0. 1.46198831e-03 0. 0. 0. 0. 0. 0. 0. 0.
      2.92397663e-03 1.46198831e-03 1.46198831e-03 0. 0. 1.46198831e-03
      0. 0. 0. 1.46198831e-03 0. 0. 1.46198831e-03 1.46198831e-03
      1.46198831e-03 0. 0. 1.46198831e-03 2.92397663e-03 0. 0.
      1.46198831e-03 1.46198831e-03 1.46198831e-03 0. 1.46198831e-03 0.
      0. 2.92397663e-03 4.38596494e-03 1.46198831e-03 1.46198831e-03
      1.46198831e-03 2.92397663e-03 1.31578948e-02 2.92397663e-03 0. 0.
      1.46198831e-03 2.92397663e-03 4.38596494e-03 0. 0. 0.
      2.92397663e-03 0. 2.92397663e-03 1.46198831e-03 0. 1.46198831e-03
      0. 1.46198831e-03 0. 7.30994157e-03 2.92397663e-03 0.
      1.02339182e-02 2.92397663e-03 4.38596494e-03 4.38596494e-03
      1.46198831e-03 0. 0. 1.46198831e-03 0. 0. 0. 0. 1.46198831e-03 0.
      0. 1.46198831e-03 0. 0. 1.46198831e-03 2.92397663e-03
      1.46198831e-03 2.92397663e-03 0. 0. 0. 0. 1.46198831e-03 0. 0. 0.
      0. 0. 4.38596494e-03 2.92397663e-03 1.46198831e-03 2.92397663e-03
      0. 4.38596494e-03 0. 0. 2.92397663e-03 0. 1.46198831e-03 0. 0. 0.
      0. 2.92397663e-03 0. 4.38596494e-03</_>
    <_>
      0. 0. 0. 0. 0. 0. 0. 0. 0. 0. 0. 0. 0. 0. 3.95256933e-03 0.
      3.95256933e-03 0. 0. 0. 0. 0. 0. 0. 3.95256933e-03 0. 0. 0. 0. 0.
      0. 0. 3.95256933e-03 0. 0. 0. 0. 0. 0. 0. 0. 3.95256933e-03 0. 0.
      0. 0. 0. 0. 0. 0. 0. 0. 0. 0. 3.95256933e-03 0. 0. 0.
      3.95256933e-03 0. 0. 0. 0. 0. 0. 0. 0. 0. 3.95256933e-03 0. 0. 0.
      0. 3.95256933e-03 0. 1.18577080e-02 0. 0. 0. 0. 0. 0. 0. 0. 0. 0.
      0. 0. 0. 0. 0. 3.95256933e-03 0. 0. 0. 0. 0. 0. 0. 0. 0. 0. 0. 0.
      3.95256933e-03 3.95256933e-03 0. 0. 0. 0. 0. 0. 0. 0. 0. 0.
      3.95256933e-03 0. 0. 0. 0. 0. 0. 0. 0. 0. 0. 0. 0. 0. 0.
      3.95256933e-03 0. 0. 0. 0. 0. 0. 0. 0. 0. 0. 0. 0. 0. 0. 0. 0.
      3.95256933e-03 0. 0. 0. 0. 0. 0. 0. 0. 0. 0. 3.95256933e-03 0. 0.
      0. 0. 3.95256933e-03 0. 0. 0. 0. 0. 0. 3.95256933e-03 0. 0. 0. 0.
      0. 0. 0. 7.90513866e-03 0. 0. 0. 0. 0. 0. 0. 0. 0. 0. 0.
      7.90513866e-03 0. 0. 0. 0. 0. 0. 3.95256933e-03 0. 1.18577080e-02
      0. 0. 0. 0. 0. 3.95256933e-03 0. 0. 0. 0. 0. 0. 0. 0. 0. 0. 0. 0.
      0. 0. 0. 0. 0. 0. 0. 0. 0. 3.95256933e-03 0. 0. 0. 0. 0. 0. 0. 0.
      0. 0. 0. 0. 0. 0. 3.95256933e-03 0. 0. 0. 0. 0. 0. 3.95256933e-03
      0. 0. 0. 3.95256933e-03 0. 3.95256933e-03 0. 0. 0. 0. 0.
      3.95256933e-03 0. 0. 0. 0. 0. 0. 0. 0. 0. 0. 3.95256933e-03 0. 0.
      0. 0. 0. 0. 0. 0. 7.90513866e-03 3.95256933e-03 0. 0.
      7.90513866e-03 0. 0. 3.95256933e-03 0. 0. 1.18577080e-02 0. 0.
      3.95256933e-03 0. 0. 0. 3.95256933e-03 3.95256933e-03 0. 0. 0.
      1.58102773e-02 0. 0. 0. 0. 0. 0. 0. 0. 0. 0. 0. 0. 3.95256933e-03
      7.90513866e-03 0. 0. 0. 0. 0. 0. 0. 0. 0. 0. 0. 3.95256933e-03 0.
      0. 0. 0. 0. 0. 0. 0. 0. 0. 0. 0. 0. 0. 0. 3.95256933e-03 0. 0. 0.
      0. 0. 0. 0. 3.95256933e-03 0. 0. 0. 0. 0. 0. 3.95256933e-03 0. 0.
      0. 0. 0. 0. 0. 0. 3.95256933e-03 0. 0. 0. 0. 0. 0. 0. 0.
      3.95256933e-03 3.95256933e-03 7.90513866e-03 0. 0. 0. 0. 0. 0. 0.
      0. 3.95256933e-03 0. 0. 3.95256933e-03 0. 0. 0. 0. 3.95256933e-03
      3.95256933e-03 0. 0. 0. 0. 0. 0. 3.95256933e-03 0. 0. 0. 0. 0. 0.
      0. 0. 0. 0. 3.95256933e-03 0. 0. 0. 0. 0. 1.18577080e-02 0. 0. 0.
      0. 0. 0. 0. 0. 7.90513866e-03 0. 0. 0. 3.95256933e-03 0. 0. 0. 0.
      0. 0. 3.95256933e-03 0. 0. 3.95256933e-03 0. 0. 0. 3.95256933e-03
      0. 0. 0. 0. 3.95256933e-03 7.90513866e-03 0. 0. 3.95256933e-03 0.
      0. 0. 0. 0. 7.90513866e-03 0. 0. 3.95256933e-03 0. 0. 0. 0. 0. 0.
      0. 0. 0. 0. 0. 0. 0. 0. 0. 3.95256933e-03 0. 0. 7.90513866e-03 0.
      3.95256933e-03 0. 0. 0. 0. 0. 0. 0. 0. 0. 0. 0. 3.95256933e-03
      3.95256933e-03 7.90513866e-03 0. 0. 0. 0. 3.95256933e-03
      7.90513866e-03 0. 3.95256933e-03 0. 1.18577080e-02 3.95256933e-03
      0. 0. 0. 0. 0. 0. 0. 7.90513866e-03 0. 0. 0. 0. 0. 0. 0. 0.
      3.95256933e-03 0. 0. 0. 0. 3.95256933e-03 0. 7.90513866e-03 0. 0.
      0. 0. 3.95256933e-03 0. 3.95256933e-03 0. 3.95256933e-03 0. 0. 0.
      0. 0. 0. 0. 0. 0. 0. 0. 3.95256933e-03 0. 0. 0. 0. 3.95256933e-03
      0. 0. 0. 3.95256933e-03 0. 0. 3.95256933e-03 0. 3.95256933e-03 0.
      0. 0. 0. 3.95256933e-03 0. 3.95256933e-03 7.90513866e-03 0. 0. 0.
      0. 0. 0. 0. 0. 0. 0. 0. 0. 0. 0. 0. 3.95256933e-03 0.
      3.95256933e-03 3.95256933e-03 0. 7.90513866e-03 0. 3.95256933e-03
      0. 0. 0. 0. 0. 0. 3.95256933e-03 0. 0. 0. 0. 0. 0. 0. 0. 0.
      3.95256933e-03 0. 7.90513866e-03 0. 0. 0. 0. 0. 0. 0. 0. 0.
      3.95256933e-03 0. 3.95256933e-03 0. 1.18577080e-02 0. 0. 0.
      3.95256933e-03 0. 3.95256933e-03 0. 0. 0. 0. 0. 0. 0. 0. 0. 0. 0.
      0. 0. 0. 0. 0. 0. 0. 0. 0. 3.95256933e-03 7.90513866e-03 0. 0. 0.
      3.95256933e-03 0. 0. 3.95256933e-03 3.95256933e-03 0.
      3.95256933e-03 0. 0. 0. 0. 0. 0. 0. 0. 0. 3.95256933e-03 0.
      3.95256933e-03 1.18577080e-02 0. 1.58102773e-02 0. 0. 0.
      3.95256933e-03 0. 3.95256933e-03 3.95256933e-03 7.90513866e-03 0.
      0. 0. 3.95256933e-03 0. 0. 0. 0. 0. 0. 0. 0. 0. 3.95256933e-03
      7.90513866e-03 3.95256933e-03 3.95256933e-03 0. 0. 3.95256933e-03
      0. 3.95256933e-03 0. 0. 3.95256933e-03 0. 0. 0. 0. 0. 0.
      7.90513866e-03 0. 3.95256933e-03 0. 0. 3.95256933e-03 0. 0. 0. 0.
      0. 0. 0. 0. 3.95256933e-03 0. 0. 0. 3.95256933e-03 0.
      3.95256933e-03 0. 0. 3.95256933e-03 0. 0. 0. 0. 0. 0. 0. 0. 0. 0.
      0. 3.95256933e-03 0. 0. 3.95256933e-03 0. 0. 0. 0. 0. 0.
      3.95256933e-03 0. 0. 0. 0. 0. 0. 0. 0. 0. 0. 0. 0. 0. 0. 0. 0.
      3.95256933e-03 0. 0. 0. 0. 0. 0. 3.95256933e-03 0. 0. 0. 0. 0. 0.
      0. 0. 0. 0. 7.90513866e-03 7.90513866e-03 0. 3.95256933e-03 0.
      1.18577080e-02 0. 7.90513866e-03 0. 3.95256933e-03 0. 0. 0. 0. 0.
      0. 3.95256933e-03 3.95256933e-03 3.95256933e-03 0. 0. 0.
      3.95256933e-03 3.95256933e-03 0. 0. 0. 0. 3.95256933e-03 0. 0.
      3.95256933e-03 3.95256933e-03 7.90513866e-03 0. 0. 0. 0. 0.
      1.18577080e-02 0. 0. 0. 0. 0. 0. 0. 3.95256933e-03 0.
      3.95256933e-03 0. 0. 0. 0. 0. 0. 0. 3.95256933e-03 0. 0. 0. 0.
      3.95256933e-03 0. 0. 0. 0. 0. 0. 3.95256933e-03 3.95256933e-03 0.
      0. 1.18577080e-02 0. 0. 3.95256933e-03 0. 0. 0. 0. 0. 0. 0. 0. 0.
      3.95256933e-03 0. 3.95256933e-03 0. 7.90513866e-03 0.
      7.90513866e-03 3.95256933e-03 0. 0. 0. 3.95256933e-03 0. 0. 0. 0.
      0. 0. 0. 0. 3.95256933e-03 3.95256933e-03 0. 0. 0. 0. 0. 0. 0.
      7.90513866e-03 0. 3.95256933e-03 0. 0. 0. 0. 0. 3.95256933e-03 0.
      0. 0. 0. 3.95256933e-03 0. 0. 0. 1.58102773e-02 0. 0. 0. 0. 0. 0.
      0. 0. 0. 3.95256933e-03 0. 0. 0. 0. 0. 3.95256933e-03 0.
      3.95256933e-03 3.95256933e-03 0. 0. 0. 0. 0. 0. 7.90513866e-03 0.
      0. 0. 0. 0. 0. 0. 0. 0. 0. 7.90513866e-03 3.95256933e-03 0.
      3.95256933e-03 0. 1.18577080e-02 0. 0. 0. 0. 0. 0. 0. 0.
      7.90513866e-03 0. 0. 0. 3.95256933e-03 3.95256933e-03
      7.90513866e-03</_>
    <_>
      0. 0. 0. 0. 0. 0. 0. 0. 0. 0. 0. 0. 0. 0. 0. 0. 0. 0. 0. 0. 0. 0.
      0. 0. 0. 0. 0. 0. 0. 0. 0. 1.29870130e-02 0. 0. 0. 0. 0. 0. 0. 0.
      0. 0. 0. 0. 0. 0. 0. 0. 0. 0. 0. 0. 0. 0. 0. 0. 0. 0. 0. 0. 0. 0.
      0. 0. 0. 0. 0. 0. 0. 0. 0. 0. 0. 0. 0. 0. 0. 0. 0. 0. 0. 0. 0. 0.
      0. 0. 0. 0. 0. 6.49350649e-03 0. 0. 0. 0. 0. 0. 0. 0. 0. 0. 0. 0.
      6.49350649e-03 6.49350649e-03 0. 0. 0. 0. 0. 6.49350649e-03 0. 0.
      0. 0. 0. 0. 0. 0. 1.94805190e-02 0. 0. 6.49350649e-03 0. 0.
      6.49350649e-03 6.49350649e-03 0. 0. 0. 0. 0. 0. 0. 0. 0. 0. 0. 0.
      0. 0. 0. 0. 0. 0. 0. 0. 0. 0. 1.29870130e-02 0. 0. 0. 0. 0. 0. 0.
      0. 0. 0. 0. 0. 6.49350649e-03 0. 0. 0. 0. 6.49350649e-03
      6.49350649e-03 0. 0. 0. 0. 6.49350649e-03 0. 0. 0. 0. 0. 0. 0. 0.
      6.49350649e-03 0. 0. 0. 0. 0. 0. 6.49350649e-03 0. 0. 0. 0. 0. 0.
      0. 0. 0. 0. 0. 0. 0. 0. 0. 6.49350649e-03 0. 0. 0. 0. 0. 0. 0. 0.
      0. 0. 0. 1.29870130e-02 6.49350649e-03 0. 0. 0. 0. 0. 0. 0. 0. 0.
      0. 0. 0. 6.49350649e-03 0. 0. 0. 0. 6.49350649e-03 0.
      6.49350649e-03 0. 0. 0. 0. 0. 0. 0. 0. 6.49350649e-03 0. 0. 0. 0.
      0. 0. 0. 6.49350649e-03 0. 1.94805190e-02 0. 0. 6.49350649e-03 0.
      6.49350649e-03 0. 6.49350649e-03 0. 0. 0. 0. 0. 0. 0. 0. 0. 0. 0.
      6.49350649e-03 0. 0. 0. 0. 0. 0. 1.29870130e-02 0. 0. 0.
      6.49350649e-03 0. 0. 0. 0. 0. 0. 0. 0. 0. 0. 6.49350649e-03 0.
      6.49350649e-03 0. 0. 0. 0. 0. 0. 0. 0. 0. 0. 0. 6.49350649e-03 0.
      6.49350649e-03 0. 0. 0. 0. 0. 0. 0. 0. 0. 0. 0. 0. 0. 0. 0. 0.
      6.49350649e-03 0. 0. 0. 0. 0. 0. 0. 0. 0. 0. 0. 0. 0. 0.
      6.49350649e-03 6.49350649e-03 0. 6.49350649e-03 0. 0. 0. 0. 0. 0.
      0. 0. 0. 0. 0. 0. 0. 0. 6.49350649e-03 0. 0. 6.49350649e-03 0. 0.
      0. 6.49350649e-03 6.49350649e-03 6.49350649e-03 0. 0. 0. 0.
      6.49350649e-03 0. 0. 0. 0. 6.49350649e-03 0. 0. 0. 0. 0. 0. 0. 0.
      0. 0. 0. 0. 0. 0. 0. 0. 0. 0. 0. 0. 1.29870130e-02 0. 0.
      6.49350649e-03 0. 0. 0. 0. 0. 0. 0. 0. 0. 0. 0. 0. 0. 0. 0. 0. 0.
      0. 0. 0. 0. 0. 0. 0. 0. 0. 0. 0. 0. 0. 0. 0. 0. 0. 0. 0. 0. 0. 0.
      6.49350649e-03 0. 0. 0. 0. 0. 0. 0. 0. 0. 0. 0. 0. 6.49350649e-03
      0. 0. 0. 0. 0. 0. 0. 0. 0. 0. 0. 0. 0. 0. 0. 0. 6.49350649e-03 0.
      0. 0. 0. 0. 0. 0. 0. 0. 0. 0. 0. 0. 0. 0. 6.49350649e-03 0.
      6.49350649e-03 6.49350649e-03 0. 0. 0. 0. 0. 0. 0. 0. 0. 0. 0. 0.
      0. 0. 0. 0. 0. 0. 0. 0. 0. 0. 0. 0. 0. 0. 6.49350649e-03 0. 0. 0.
      0. 0. 0. 0. 0. 0. 6.49350649e-03 6.49350649e-03 0. 0.
      6.49350649e-03 0. 0. 6.49350649e-03 0. 0. 0. 0. 0. 6.49350649e-03
      0. 0. 0. 6.49350649e-03 0. 0. 0. 6.49350649e-03 0. 0. 0. 0. 0. 0.
      0. 0. 0. 0. 0. 0. 0. 6.49350649e-03 0. 6.49350649e-03 0. 0. 0. 0.
      6.49350649e-03 0. 0. 0. 0. 0. 0. 0. 0. 0. 0. 0. 0. 0. 0.
      6.49350649e-03 0. 0. 0. 0. 0. 0. 0. 0. 0. 0. 6.49350649e-03 0. 0.
      0. 6.49350649e-03 0. 0. 0. 0. 0. 0. 6.49350649e-03 0. 0. 0. 0. 0.
      0. 0. 0. 6.49350649e-03 0. 0. 0. 0. 0. 0. 6.49350649e-03
      6.49350649e-03 0. 6.49350649e-03 6.49350649e-03 0. 0. 0. 0. 0. 0.
      0. 2.59740259e-02 0. 0. 0. 6.49350649e-03 0. 0. 6.49350649e-03 0.
      0. 0. 0. 0. 0. 0. 6.49350649e-03 0. 0. 0. 0. 0. 0. 0. 0. 0. 0. 0.
      0. 0. 0. 6.49350649e-03 0. 0. 0. 0. 0. 0. 6.49350649e-03 0. 0. 0.
      0. 0. 0. 0. 0. 0. 0. 0. 0. 0. 0. 0. 0. 0. 0. 0. 6.49350649e-03 0.
      0. 0. 0. 0. 0. 0. 0. 0. 0. 0. 0. 0. 0. 0. 6.49350649e-03 0. 0. 0.
      0. 0. 0. 6.49350649e-03 0. 0. 0. 0. 0. 0. 0. 0. 0. 6.49350649e-03
      0. 0. 0. 0. 0. 0. 0. 0. 0. 0. 0. 0. 0. 0. 0. 0. 0. 0. 0. 0. 0. 0.
      0. 0. 0. 0. 0. 0. 6.49350649e-03 0. 0. 0. 0. 0. 0. 0. 0. 0. 0. 0.
      0. 0. 0. 6.49350649e-03 0. 0. 0. 6.49350649e-03 0. 0. 0.
      6.49350649e-03 0. 0. 0. 1.29870130e-02 0. 0. 0. 0. 0. 0. 0. 0. 0.
      6.49350649e-03 0. 6.49350649e-03 0. 6.49350649e-03 0. 0. 0. 0.
      6.49350649e-03 0. 0. 0. 0. 0. 0. 6.49350649e-03 0. 0. 0. 0.
      6.49350649e-03 0. 0. 6.49350649e-03 0. 0. 0. 0. 0. 0. 0.
      6.49350649e-03 6.49350649e-03 0. 0. 0. 0. 0. 0. 0. 6.49350649e-03
      0. 0. 1.29870130e-02 0. 0. 0. 0. 0. 0. 0. 0. 0. 6.49350649e-03 0.
      0. 6.49350649e-03 0. 0. 0. 0. 6.49350649e-03 0. 0. 0. 0. 0.
      6.49350649e-03 0. 6.49350649e-03 0. 0. 6.49350649e-03 0. 0. 0. 0.
      0. 0. 0. 6.49350649e-03 0. 0. 0. 6.49350649e-03 0. 6.49350649e-03
      0. 0. 6.49350649e-03 0. 6.49350649e-03 0. 0. 0. 0. 0. 0. 0. 0. 0.
      0. 6.49350649e-03 0. 0. 0. 0. 0. 0. 0. 6.49350649e-03 0. 0. 0. 0.
      0. 0. 0. 0. 0. 6.49350649e-03 6.49350649e-03 0. 0. 0. 0. 0. 0. 0.
      6.49350649e-03 0. 0. 0. 0. 0. 6.49350649e-03 6.49350649e-03
      6.49350649e-03 0. 0. 0. 1.29870130e-02 0. 0. 0. 0. 0. 0. 0.
      6.49350649e-03 6.49350649e-03 0. 0. 0. 0. 0. 0. 0. 0. 0. 0. 0. 0.
      0. 6.49350649e-03 0. 6.49350649e-03 6.49350649e-03 0.
      6.49350649e-03 0. 0. 0. 0. 0. 0. 0. 0. 0. 6.49350649e-03
      6.49350649e-03 1.94805190e-02 0. 0. 0. 0. 0. 0. 0. 6.49350649e-03
      0. 6.49350649e-03 0. 0. 6.49350649e-03 6.49350649e-03 0. 0. 0. 0.
      0. 1.29870130e-02 0. 1.29870130e-02</_>
    <_>
      0. 0. 0. 0. 0. 0. 0. 0. 0. 0. 0. 0. 0. 0. 0. 0. 0. 0. 0. 0. 0. 0.
      0. 0. 0. 0. 8.92857183e-03 0. 0. 0. 0. 0. 0. 0. 0. 0. 0. 0. 0. 0.
      0. 0. 0. 0. 0. 0. 0. 0. 0. 0. 0. 0. 8.92857183e-03 0. 0. 0. 0. 0.
      0. 0. 0. 0. 0. 0. 0. 0. 0. 0. 0. 0. 0. 0. 0. 0. 0. 0. 0. 0. 0. 0.
      0. 0. 0. 0. 0. 0. 0. 0. 0. 0. 0. 0. 0. 0. 0. 7.14285746e-02 0. 0.
      0. 0. 0. 0. 0. 0. 8.92857183e-03 0. 0. 0. 0. 0. 0. 0. 0. 0.
      8.92857183e-03 0. 0. 0. 0. 0. 0. 0. 0. 0. 0. 0. 0. 0. 0. 0. 0. 0.
      0. 0. 0. 8.92857183e-03 0. 0. 8.92857183e-03 0. 0. 0. 0.
      8.92857183e-03 0. 0. 0. 0. 0. 5.35714328e-02 0. 0. 0. 0. 0. 0. 0.
      0. 0. 0. 0. 0. 0. 0. 0. 0. 0. 8.92857183e-03 0. 0. 0. 0. 0. 0. 0.
      0. 0. 0. 0. 0. 8.92857183e-03 0. 0. 0. 0. 0. 0. 0. 0. 0. 0. 0. 0.
      0. 0. 0. 8.92857183e-03 0. 0. 0. 0. 0. 0. 0. 0. 0. 0. 0. 0. 0. 0.
      0. 8.92857183e-03 0. 0. 0. 0. 0. 8.92857183e-03 0. 0. 0. 0.
      8.92857183e-03 0. 0. 8.92857183e-03 0. 0. 0. 0. 0. 0. 0. 0. 0. 0.
      8.92857183e-03 0. 0. 0. 8.92857183e-03 8.92857183e-03 0. 0. 0. 0.
      8.92857183e-03 0. 0. 0. 0. 0. 0. 0. 0. 8.92857183e-03 0. 0. 0. 0.
      0. 0. 0. 0. 0. 0. 0. 0. 0. 0. 0. 0. 0. 0. 0. 0. 0. 0. 0. 0. 0.
      8.92857183e-03 0. 8.92857183e-03 0. 0. 0. 0. 0. 0. 0. 0. 0.
      1.78571437e-02 8.92857183e-03 0. 0. 0. 0. 0. 0. 0. 0. 0. 0. 0. 0.
      0. 0. 8.92857183e-03 0. 0. 0. 0. 0. 0. 0. 0. 0. 0. 0. 0. 0. 0. 0.
      0. 0. 0. 0. 0. 0. 0. 0. 0. 0. 0. 0. 0. 0. 0. 0. 0. 5.35714328e-02
      0. 0. 0. 0. 0. 0. 0. 0. 0. 8.92857183e-03 0. 0. 0. 0. 0. 0. 0. 0.
      0. 0. 0. 0. 0. 0. 0. 0. 0. 0. 0. 0. 8.92857183e-03 0. 0. 0. 0. 0.
      0. 0. 0. 0. 0. 0. 0. 0. 0. 0. 0. 0. 0. 0. 0. 0. 0. 0. 0. 0. 0. 0.
      0. 0. 0. 0. 0. 0. 0. 0. 0. 0. 0. 0. 0. 0. 0. 0. 0. 0. 0. 0. 0. 0.
      0. 0. 0. 0. 0. 0. 0. 0. 0. 0. 0. 0. 0. 0. 0. 0. 0. 0. 0. 0. 0.
      1.78571437e-02 0. 8.92857183e-03 0. 0. 0. 0. 0. 0. 0. 0.
      8.92857183e-03 0. 8.92857183e-03 0. 0. 0. 0. 0. 1.78571437e-02 0.
      0. 0. 0. 0. 0. 0. 0. 0. 0. 0. 0. 8.92857183e-03 0. 0. 0. 0. 0. 0.
      0. 0. 0. 0. 0. 0. 0. 0. 0. 0. 0. 0. 0. 0. 0. 0. 0. 0. 0. 0. 0. 0.
      0. 0. 0. 0. 0. 0. 0. 0. 0. 0. 0. 0. 8.92857183e-03 0. 0. 0. 0. 0.
      0. 0. 0. 0. 0. 0. 0. 0. 0. 0. 0. 0. 0. 0. 0. 0. 0. 0.
      8.92857183e-03 0. 0. 0. 0. 0. 0. 0. 0. 0. 0. 0. 0. 0. 0.
      8.92857183e-03 0. 0. 0. 0. 0. 0. 0. 0. 0. 0. 0. 8.92857183e-03 0.
      0. 0. 8.92857183e-03 0. 0. 0. 0. 8.92857183e-03 0. 0. 0.
      8.92857183e-03 0. 0. 0. 8.92857183e-03 0. 8.92857183e-03 0. 0. 0.
      0. 0. 0. 0. 0. 0. 0. 0. 0. 0. 0. 0. 0. 0. 1.78571437e-02 0. 0. 0.
      0. 0. 0. 0. 0. 8.92857183e-03 0. 8.92857183e-03 0. 2.67857164e-02
      0. 0. 0. 0. 0. 0. 0. 0. 8.92857183e-03 0. 0. 0. 0. 0. 0. 0. 0. 0.
      0. 0. 0. 0. 0. 0. 0. 8.92857183e-03 0. 0. 0. 0. 0. 0. 0. 0. 0. 0.
      0. 0. 0. 0. 0. 0. 0. 0. 0. 0. 0. 0. 8.92857183e-03 0. 0. 0. 0. 0.
      8.92857183e-03 0. 0. 0. 0. 0. 0. 0. 0. 0. 0. 0. 0. 0. 0. 0. 0. 0.
      0. 0. 0. 0. 0. 0. 0. 0. 0. 0. 0. 0. 0. 0. 0. 8.92857183e-03 0. 0.
      0. 0. 0. 0. 0. 0. 0. 0. 0. 0. 0. 0. 8.92857183e-03 0.
      8.92857183e-03 0. 0. 0. 0. 0. 0. 0. 0. 0. 0. 0. 8.92857183e-03 0.
      0. 0. 0. 0. 0. 0. 0. 0. 0. 0. 0. 0. 0. 0. 1.78571437e-02 0. 0. 0.
      0. 0. 2.67857164e-02 0. 0. 0. 0. 8.92857183e-03 0. 0. 0. 0. 0.
      8.92857183e-03 0. 0. 0. 0. 0. 0. 0. 0. 0. 8.92857183e-03 0. 0. 0.
      0. 0. 0. 0. 0. 0. 0. 0. 0. 8.92857183e-03 0. 8.92857183e-03 0.
      8.92857183e-03 0. 0. 0. 0. 0. 0. 0. 0. 0. 0. 0. 0. 0. 0. 0. 0. 0.
      0. 8.92857183e-03 1.78571437e-02 0. 0. 0. 0. 0. 0. 0. 0. 0. 0. 0.
      0. 0. 0. 0. 0. 8.92857183e-03 0. 0. 0. 1.78571437e-02 0. 0.
      8.92857183e-03 0. 0. 0. 0. 8.92857183e-03 0. 0. 0. 0. 0. 0. 0. 0.
      0. 0. 0. 0. 0. 0. 0. 0. 0. 0. 0. 8.92857183e-03 0. 0.
      8.92857183e-03 0. 0. 0. 0. 0. 0. 0. 0. 0. 0. 0. 0. 0. 0.
      8.92857183e-03 0. 8.92857183e-03 0. 0. 0. 0. 0. 0. 0. 0. 0. 0. 0.
      0. 0. 0. 0. 0. 0. 0. 0. 0. 0. 0. 0. 0. 0. 0. 0. 0. 0. 0.
      8.92857183e-03 0. 0. 0. 0. 0. 0. 0. 0. 0. 8.92857183e-03
      8.92857183e-03 0. 0. 0. 0. 0. 0. 0. 0. 0. 0. 0. 0. 0. 0. 0. 0. 0.
      8.92857183e-03 0. 0. 8.92857183e-03 0. 0. 8.92857183e-03 0. 0. 0.
      0. 0. 0. 0. 0. 0. 0. 0. 0. 0. 0. 0. 0. 0. 0. 0. 0. 0.
      2.67857164e-02 0. 0. 0. 0. 0. 0. 0. 0. 0. 0. 0. 0. 0. 0. 0. 0. 0.
      0. 0. 0. 0. 0. 0. 8.92857183e-03 0. 0.</_>
    <_>
      0. 0. 0. 0. 0. 0. 0. 0. 0. 0. 0. 0. 0. 2.43902439e-03
      4.87804879e-03 0. 0. 0. 0. 0. 0. 0. 0. 0. 4.87804879e-03 0.
      2.43902439e-03 0. 2.43902439e-03 0. 0. 2.43902439e-03 0. 0. 0. 0.
      0. 0. 0. 0. 0. 0. 0. 2.43902439e-03 0. 0. 0. 0. 0. 0.
      2.43902439e-03 2.43902439e-03 0. 0. 0. 0. 0. 0. 0. 0.
      2.43902439e-03 0. 0. 0. 0. 0. 0. 0. 0. 0. 0. 0. 0. 0.
      7.31707318e-03 4.87804879e-03 2.43902439e-03 0. 0. 2.43902439e-03
      0. 0. 0. 0. 0. 0. 0. 0. 0. 0. 0. 0. 0. 0. 0. 0. 0. 0. 0. 0. 0. 0.
      0. 0. 2.43902439e-03 0. 0. 0. 0. 0. 0. 0. 0. 0. 7.31707318e-03 0.
      0. 0. 0. 0. 0. 2.43902439e-03 0. 2.43902439e-03 0. 0. 0. 0.
      2.43902439e-03 0. 2.43902439e-03 0. 0. 4.87804879e-03 0.
      2.43902439e-03 0. 0. 0. 0. 0. 0. 0. 0. 0. 0. 0. 2.43902439e-03
      2.43902439e-03 0. 0. 0. 0. 4.87804879e-03 0. 0. 0. 0. 0. 0.
      4.87804879e-03 0. 0. 0. 0. 0. 2.43902439e-03 0. 0. 0. 0.
      7.31707318e-03 0. 0. 0. 0. 0. 0. 0. 4.87804879e-03 2.43902439e-03
      0. 0. 0. 0. 0. 0. 0. 2.43902439e-03 0. 0. 0. 0. 0. 0. 0.
      2.43902439e-03 2.43902439e-03 0. 0. 0. 0. 0. 0. 2.43902439e-03 0.
      2.43902439e-03 0. 0. 0. 0. 0. 0. 0. 0. 0. 0. 2.43902439e-03 0. 0.
      0. 0. 2.43902439e-03 0. 0. 0. 2.43902439e-03 0. 0. 0.
      2.43902439e-03 0. 0. 0. 0. 0. 0. 0. 0. 0. 0. 2.43902439e-03 0. 0.
      0. 0. 2.43902439e-03 2.43902439e-03 2.43902439e-03 0.
      4.87804879e-03 4.87804879e-03 0. 0. 0. 0. 1.46341464e-02 0. 0. 0.
      0. 0. 2.43902439e-03 0. 0. 2.43902439e-03 0. 0. 0. 4.87804879e-03
      0. 0. 0. 0. 0. 2.43902439e-03 0. 0. 0. 2.43902439e-03 0. 0. 0.
      4.87804879e-03 0. 0. 4.87804879e-03 0. 2.43902439e-03 0. 0.
      2.43902439e-03 2.43902439e-03 4.87804879e-03 0. 0. 0. 0. 0.
      4.87804879e-03 0. 0. 0. 0. 7.31707318e-03 0. 0. 0. 0. 0. 0. 0. 0.
      4.87804879e-03 0. 2.43902439e-03 2.43902439e-03 2.43902439e-03
      2.43902439e-03 0. 0. 0. 0. 0. 2.43902439e-03 0. 0. 0.
      2.43902439e-03 0. 0. 0. 0. 0. 0. 0. 2.43902439e-03 0. 0. 0. 0. 0.
      0. 0. 0. 0. 2.43902439e-03 0. 2.43902439e-03 0. 0. 2.43902439e-03
      0. 0. 2.43902439e-03 2.43902439e-03 9.75609757e-03 0. 0. 0. 0. 0.
      0. 2.43902439e-03 4.87804879e-03 0. 2.43902439e-03 0. 0.
      4.87804879e-03 0. 0. 0. 0. 0. 2.43902439e-03 0. 0. 0.
      2.43902439e-03 2.43902439e-03 0. 0. 0. 2.43902439e-03
      2.43902439e-03 0. 0. 0. 0. 0. 0. 0. 0. 0. 0. 0. 9.75609757e-03 0.
      2.43902439e-03 2.43902439e-03 2.43902439e-03 2.43902439e-03 0. 0.
      4.87804879e-03 2.43902439e-03 0. 0. 0. 0. 2.43902439e-03 0. 0. 0.
      0. 0. 0. 0. 0. 0. 0. 0. 9.75609757e-03 0. 0. 0. 0. 0. 0.
      2.43902439e-03 0. 0. 0. 9.75609757e-03 0. 7.31707318e-03 0.
      4.87804879e-03 0. 0. 4.87804879e-03 4.87804879e-03 0. 0. 0. 0. 0.
      2.43902439e-03 0. 4.87804879e-03 2.43902439e-03 0. 0. 0.
      2.43902439e-03 0. 0. 0. 0. 2.43902439e-03 4.87804879e-03 0. 0. 0.
      2.43902439e-03 0. 0. 4.87804879e-03 0. 0. 0. 0. 0. 0. 0. 0. 0. 0.
      0. 0. 0. 4.87804879e-03 0. 0. 0. 0. 2.43902439e-03 2.43902439e-03
      4.87804879e-03 0. 0. 0. 0. 2.43902439e-03 2.43902439e-03 0. 0. 0.
      0. 2.43902439e-03 0. 0. 0. 0. 0. 0. 0. 2.43902439e-03
      2.43902439e-03 0. 4.87804879e-03 0. 2.43902439e-03 0. 0. 0. 0. 0.
      0. 0. 0. 0. 0. 2.43902439e-03 0. 0. 0. 2.43902439e-03 0. 0.
      2.43902439e-03 0. 0. 0. 0. 7.31707318e-03 0. 2.43902439e-03 0. 0.
      0. 0. 2.43902439e-03 0. 0. 0. 0. 0. 0. 0. 0. 0. 0. 2.43902439e-03
      2.43902439e-03 2.43902439e-03 0. 0. 2.43902439e-03 0. 0. 0.
      2.43902439e-03 0. 0. 0. 2.43902439e-03 2.43902439e-03 0. 0. 0. 0.
      0. 0. 0. 2.43902439e-03 0. 2.43902439e-03 2.43902439e-03
      9.75609757e-03 0. 0. 0. 0. 2.43902439e-03 4.87804879e-03 0. 0. 0.
      0. 0. 0. 2.43902439e-03 2.43902439e-03 0. 0. 0. 2.43902439e-03 0.
      4.87804879e-03 0. 2.43902439e-03 0. 4.87804879e-03 0.
      2.43902439e-03 0. 0. 2.43902439e-03 2.43902439e-03 2.43902439e-03
      2.43902439e-03 0. 0. 0. 0. 0. 2.43902439e-03 0. 0. 0. 0. 0.
      2.43902439e-03 0. 0. 0. 0. 0. 0. 0. 0. 4.87804879e-03
      2.43902439e-03 2.43902439e-03 0. 4.87804879e-03 0. 0. 0.
      2.43902439e-03 4.87804879e-03 0. 0. 0. 2.43902439e-03
      2.43902439e-03 2.43902439e-03 0. 0. 2.43902439e-03 0.
      4.87804879e-03 2.43902439e-03 7.31707318e-03 0. 0. 0. 0. 0.
      2.43902439e-03 0. 2.43902439e-03 0. 2.43902439e-03 4.87804879e-03
      0. 0. 0. 4.87804879e-03 0. 0. 7.31707318e-03 0. 0. 0. 0. 0. 0. 0.
      2.43902439e-03 0. 0. 0. 2.43902439e-03 0. 2.43902439e-03
      4.87804879e-03 0. 0. 0. 0. 2.43902439e-03 2.43902439e-03 0.
      2.43902439e-03 2.43902439e-03 0. 0. 2.43902439e-03 0. 0. 0. 0.
      2.43902439e-03 0. 0. 0. 0. 0. 0. 0. 0. 0. 2.43902439e-03
      4.87804879e-03 0. 0. 2.43902439e-03 4.87804879e-03 0. 0.
      2.43902439e-03 0. 0. 0. 7.31707318e-03 2.43902439e-03
      4.87804879e-03 0. 0. 0. 0. 0. 4.87804879e-03 2.43902439e-03 0. 0.
      0. 0. 0. 0. 0. 0. 0. 2.43902439e-03 0. 0. 0. 2.43902439e-03 0. 0.
      2.43902439e-03 0. 0. 0. 0. 0. 7.31707318e-03 2.43902439e-03 0.
      2.43902439e-03 0. 0. 2.43902439e-03 0. 0. 0. 0. 0. 0. 0.
      2.43902439e-03 0. 0. 0. 0. 0. 0. 0. 0. 2.43902439e-03
      2.43902439e-03 0. 2.43902439e-03 7.31707318e-03 0. 0. 0.
      2.43902439e-03 2.43902439e-03 0. 0. 0. 2.43902439e-03 0. 0. 0.
      2.43902439e-03 0. 0. 1.21951215e-02 0. 0. 0. 2.43902439e-03 0. 0.
      0. 2.43902439e-03 4.87804879e-03 0. 2.43902439e-03 2.43902439e-03
      9.75609757e-03 0. 4.87804879e-03 0. 2.43902439e-03 0. 0. 0. 0.
      4.87804879e-03 2.43902439e-03 7.31707318e-03 2.43902439e-03 0. 0.
      0. 0. 2.43902439e-03 2.43902439e-03 0. 0. 0. 0. 0. 2.43902439e-03
      2.43902439e-03 9.75609757e-03 2.43902439e-03 2.43902439e-03 0.
      2.43902439e-03 2.43902439e-03 0. 0. 4.87804879e-03 2.43902439e-03
      0. 0. 2.43902439e-03 0. 0. 4.87804879e-03 0. 0. 0. 0. 0. 0.
      2.43902439e-03 0. 0. 0. 0. 0. 2.43902439e-03 4.87804879e-03 0.
      2.43902439e-03 0. 0. 2.43902439e-03 0. 0. 0. 0. 4.87804879e-03 0.
      2.43902439e-03 4.87804879e-03 0. 0. 4.87804879e-03 4.87804879e-03
      0. 0. 2.43902439e-03 2.43902439e-03 0. 0. 2.43902439e-03
      7.31707318e-03 2.43902439e-03 2.43902439e-03 2.43902439e-03 0.
      2.43902439e-03 0. 0. 0. 0. 7.31707318e-03 2.43902439e-03 0. 0. 0.
      0. 0. 2.43902439e-03 0. 0. 2.43902439e-03 2.43902439e-03
      2.43902439e-03 0. 2.43902439e-03 0. 0. 2.43902439e-03 0.
      2.43902439e-03 0. 0. 4.87804879e-03 0. 9.75609757e-03 0. 0. 0.
      4.87804879e-03 4.87804879e-03 0. 0. 0. 0. 2.43902439e-03 0.
      2.43902439e-03 0. 4.87804879e-03 0. 0. 0. 0. 2.43902439e-03 0.
      4.87804879e-03 2.43902439e-03 4.87804879e-03 9.75609757e-03 0. 0.
      0. 4.87804879e-03 0. 0. 0. 0. 2.43902439e-03 2.43902439e-03 0.
      2.43902439e-03 0. 0. 0. 2.43902439e-03 7.31707318e-03 0. 0.
      2.43902439e-03 0. 0. 0. 0. 2.43902439e-03 0. 0. 4.87804879e-03
      2.43902439e-03 0. 4.87804879e-03 0. 0. 4.87804879e-03
      2.43902439e-03 0. 0. 0. 0. 0. 0. 0. 0. 4.87804879e-03 0. 0.</_>
    <_>
      0. 4.60526347e-03 0. 0. 0. 0. 1.31578953e-03 0. 0. 0.
      1.31578953e-03 6.57894765e-04 2.63157906e-03 0. 6.57894765e-04
      1.97368441e-03 0. 0. 1.31578953e-03 6.57894765e-04 0. 0. 0. 0.
      2.63157906e-03 6.57894765e-04 0. 1.97368441e-03 0. 0.
      6.57894765e-04 1.31578953e-03 1.97368441e-03 0. 0. 0. 0. 0. 0. 0.
      6.57894765e-04 1.31578953e-03 1.97368441e-03 1.31578953e-03 0. 0.
      6.57894765e-04 6.57894765e-04 0. 0. 1.31578953e-03 0.
      1.97368441e-03 0. 6.57894765e-04 0. 0. 1.97368441e-03
      6.57894765e-04 0. 6.57894765e-04 0. 6.57894765e-04 0.
      1.31578953e-03 0. 0. 0. 1.31578953e-03 2.63157906e-03
      6.57894765e-04 0. 0. 1.97368441e-03 0. 5.26315812e-03 0.
      4.60526347e-03 0. 0. 0. 0. 6.57894765e-04 6.57894765e-04
      6.57894765e-04 0. 0. 0. 0. 6.57894765e-04 0. 1.31578953e-03 0.
      1.31578953e-03 0. 0. 0. 0. 2.63157906e-03 0. 3.28947371e-03 0. 0.
      6.57894765e-04 1.31578953e-03 2.63157906e-03 0. 0. 0.
      1.31578953e-03 0. 0. 0. 6.57894765e-04 0. 0. 0. 0. 5.92105277e-03
      6.57894765e-04 0. 1.31578953e-03 0. 0. 1.31578953e-03
      4.60526347e-03 6.57894742e-03 0. 6.57894765e-04 0. 6.57894765e-04
      1.97368441e-03 0. 6.57894765e-04 0. 1.97368441e-03 0. 0.
      1.31578953e-03 0. 0. 3.94736882e-03 0. 1.44736851e-02 0.
      1.31578953e-03 6.57894765e-04 1.31578953e-03 0. 1.97368441e-03 0.
      0. 6.57894765e-04 4.60526347e-03 0. 6.57894765e-04 0.
      6.57894765e-04 1.31578953e-03 1.31578953e-03 6.57894765e-04 0. 0.
      0. 1.31578953e-03 1.31578953e-03 6.57894765e-04 0. 0. 0. 0.
      1.31578953e-03 0. 6.57894765e-04 0. 6.57894765e-04 0. 0. 0. 0.
      6.57894765e-04 6.57894765e-04 1.31578953e-03 0. 0. 0. 0.
      1.31578953e-03 1.97368441e-03 0. 0. 3.28947371e-03 0. 0. 0.
      6.57894765e-04 1.97368441e-03 6.57894765e-04 6.57894765e-04
      6.57894765e-04 2.63157906e-03 0. 6.57894765e-04 2.63157906e-03
      6.57894765e-04 3.28947371e-03 6.57894765e-04 0. 1.97368441e-03
      1.97368441e-03 0. 6.57894765e-04 0. 6.57894765e-04 0. 0.
      6.57894765e-04 1.31578953e-03 1.97368441e-03 0. 1.31578953e-03 0.
      6.57894765e-04 0. 0. 0. 6.57894765e-04 0. 0. 0. 0. 6.57894765e-04
      0. 0. 0. 1.31578953e-03 1.97368441e-03 4.60526347e-03 0. 0.
      4.60526347e-03 1.31578953e-03 0. 0. 0. 0. 0. 1.31578953e-03
      3.94736882e-03 0. 0. 0. 0. 6.57894765e-04 6.57894765e-04 0. 0.
      6.57894765e-04 0. 3.94736882e-03 0. 0. 1.31578953e-03 0. 0.
      6.57894765e-04 1.97368441e-03 0. 6.57894765e-04 6.57894765e-04
      6.57894765e-04 6.57894765e-04 0. 0. 0. 1.31578953e-03 0. 0. 0.
      6.57894765e-04 6.57894765e-04 1.31578953e-03 1.31578953e-03
      1.97368441e-03 0. 6.57894765e-04 0. 0. 6.57894765e-04
      1.31578953e-03 0. 6.57894765e-04 6.57894765e-04 6.57894765e-04
      6.57894765e-04 1.31578953e-03 6.57894765e-04 1.31578953e-03
      1.31578953e-03 3.94736882e-03 3.94736882e-03 0. 0. 0.
      1.31578953e-03 0. 6.57894765e-04 6.57894765e-04 1.31578953e-03 0.
      3.28947371e-03 1.97368441e-03 0. 0. 1.31578953e-03 1.31578953e-03
      0. 6.57894765e-04 0. 0. 0. 0. 6.57894765e-04 0. 0. 2.63157906e-03
      0. 0. 6.57894765e-04 0. 1.97368441e-03 6.57894765e-04 0. 0.
      1.31578953e-03 2.63157906e-03 1.97368441e-03 0. 6.57894765e-04 0.
      0. 5.26315812e-03 3.94736882e-03 4.60526347e-03 6.57894765e-04
      6.57894765e-04 3.94736882e-03 0. 0. 0. 1.31578953e-03 0.
      6.57894765e-04 0. 0. 6.57894765e-04 1.31578953e-03 6.57894765e-04
      0. 1.31578953e-03 0. 1.31578953e-03 0. 6.57894765e-04
      3.94736882e-03 0. 1.31578953e-03 0. 0. 0. 3.28947371e-03
      1.31578953e-03 6.57894765e-04 0. 0. 2.63157906e-03 1.97368441e-03
      1.31578953e-03 0. 0. 1.31578953e-03 6.57894765e-04 0. 0.
      1.31578953e-03 6.57894765e-04 0. 1.31578953e-03 0. 0.
      6.57894765e-04 0. 0. 3.94736882e-03 0. 0. 1.31578953e-03
      1.31578953e-03 6.57894765e-04 2.63157906e-03 6.57894765e-04 0.
      1.31578953e-03 1.31578953e-03 2.63157906e-03 6.57894765e-04
      1.97368441e-03 2.63157906e-03 6.57894765e-04 0. 0. 1.97368441e-03
      6.57894765e-04 1.31578953e-03 6.57894765e-04 0. 2.63157906e-03
      1.97368441e-03 6.57894765e-04 1.97368441e-03 6.57894765e-04 0. 0.
      1.97368441e-03 0. 6.57894765e-04 6.57894765e-04 0. 0. 0.
      3.28947371e-03 0. 1.31578953e-03 2.63157906e-03 3.28947371e-03 0.
      1.97368441e-03 0. 6.57894765e-04 6.57894765e-04 0. 0. 0.
      1.31578953e-03 6.57894765e-04 0. 3.94736882e-03 1.31578953e-03
      6.57894765e-04 0. 0. 3.28947371e-03 0. 0. 0. 1.97368441e-03
      1.97368441e-03 0. 1.31578953e-03 2.63157906e-03 0. 6.57894765e-04
      0. 1.31578953e-03 1.31578953e-03 1.97368441e-03 6.57894765e-04 0.
      6.57894765e-04 1.31578953e-03 1.97368441e-03 0. 1.31578953e-03 0.
      0. 0. 3.94736882e-03 0. 0. 1.97368441e-03 0. 2.63157906e-03
      6.57894765e-04 0. 1.31578953e-03 0. 3.28947371e-03 3.28947371e-03
      0. 1.31578953e-03 2.63157906e-03 0. 0. 6.57894765e-04
      1.31578953e-03 3.94736882e-03 0. 0. 6.57894765e-04 1.31578953e-03
      3.28947371e-03 3.28947371e-03 0. 0. 0. 1.31578953e-03
      6.57894765e-04 0. 3.28947371e-03 0. 0. 1.97368441e-03
      3.28947371e-03 5.92105277e-03 6.57894765e-04 0. 0. 0. 0. 0. 0. 0.
      1.97368441e-03 6.57894765e-04 0. 3.94736882e-03 0. 0. 0.
      1.31578953e-03 1.31578953e-03 0. 0. 0. 6.57894765e-04
      1.31578953e-03 1.31578953e-03 0. 3.94736882e-03 6.57894765e-04 0.
      0. 3.94736882e-03 0. 0. 0. 6.57894765e-04 6.57894765e-04
      5.26315812e-03 0. 0. 0. 1.31578953e-03 3.94736882e-03
      6.57894765e-04 1.31578953e-03 6.57894765e-04 6.57894765e-04 0.
      6.57894765e-04 0. 1.97368441e-03 1.31578953e-03 6.57894765e-04 0.
      0. 7.23684253e-03 3.28947371e-03 2.63157906e-03 1.97368441e-03
      5.26315812e-03 0. 1.31578953e-03 0. 3.94736882e-03 1.31578953e-03
      1.31578953e-03 1.97368441e-03 1.31578953e-03 0. 2.63157906e-03 0.
      6.57894765e-04 0. 0. 6.57894765e-04 0. 0. 3.94736882e-03
      2.63157906e-03 0. 0. 0. 2.63157906e-03 0. 0. 0. 2.63157906e-03
      6.57894765e-04 1.97368441e-03 1.31578953e-03 0. 2.63157906e-03 0.
      4.60526347e-03 6.57894765e-04 0. 6.57894765e-04 1.97368441e-03
      1.31578953e-03 6.57894765e-04 2.63157906e-03 1.31578953e-03
      2.63157906e-03 6.57894765e-04 0. 0. 1.31578953e-03 0.
      8.55263229e-03 0. 1.31578953e-03 0. 6.57894765e-04 1.97368441e-03
      0. 0. 3.28947371e-03 6.57894765e-04 3.28947371e-03 2.63157906e-03
      0. 6.57894765e-04 6.57894765e-04 2.63157906e-03 4.60526347e-03 0.
      6.57894765e-04 0. 1.97368441e-03 0. 6.57894765e-04 0.
