<?xml version="1.0"?>
<opencv_storage>
<opencv_ml_svm>
  <format>3</format>
  <svmType>C_SVC</svmType>
  <kernel>
    <type>RBF</type>
    <gamma>1.0000000000000001e-05</gamma></kernel>
  <C>1.0000000000000001e-01</C>
  <term_criteria><iterations>1000</iterations></term_criteria>
  <var_count>1000</var_count>
  <class_count>2</class_count>
  <class_labels type_id="opencv-matrix">
    <rows>2</rows>
    <cols>1</cols>
    <dt>i</dt>
    <data>
      0 1</data></class_labels>
  <sv_total>142</sv_total>
  <support_vectors>
    <_>
      0. 0. 0. 0. 0. 0. 0. 0. 0. 0. 0. 0. 0. 0. 0. 0. 0. 0. 0. 0. 0. 0.
      0. 0. 1.75438598e-02 0. 0. 0. 0. 0. 0. 0. 0. 0. 0. 0. 0. 0. 0. 0.
      0. 0. 0. 0. 0. 0. 0. 0. 0. 0. 0. 0. 0. 0. 0. 0. 0. 0. 0. 0. 0. 0.
      0. 0. 0. 0. 0. 0. 0. 0. 0. 0. 0. 0. 0. 0. 0. 0. 0. 0. 0. 0. 0. 0.
      0. 0. 0. 0. 0. 0. 0. 0. 0. 0. 0. 0. 0. 0. 0. 0. 0. 0. 0. 0. 0. 0.
      0. 0. 0. 0. 0. 0. 0. 0. 0. 0. 0. 0. 0. 0. 0. 0. 0. 0. 0. 0. 0. 0.
      0. 0. 0. 0. 0. 0. 0. 0. 0. 0. 0. 0. 0. 0. 0. 0. 0. 0. 0. 0.
      1.75438598e-02 0. 0. 0. 0. 0. 0. 0. 0. 0. 0. 0. 0. 0. 0. 0. 0. 0.
      0. 0. 0. 0. 0. 0. 0. 0. 0. 0. 0. 0. 0. 0. 0. 0. 0. 0. 0.
      1.75438598e-02 0. 0. 0. 0. 0. 0. 0. 0. 0. 0. 0. 0. 0. 0. 0. 0. 0.
      0. 0. 0. 0. 0. 0. 0. 0. 0. 0. 0. 0. 0. 0. 0. 0. 0. 0. 0. 0. 0. 0.
      0. 0. 0. 0. 0. 0. 0. 0. 0. 0. 0. 0. 0. 0. 0. 0. 0. 0. 0. 0. 0.
      1.75438598e-02 0. 0. 0. 0. 0. 0. 0. 3.50877196e-02 0.
      1.75438598e-02 0. 1.75438598e-02 0. 0. 0. 0. 0. 0. 0.
      1.75438598e-02 0. 0. 0. 0. 0. 0. 0. 0. 0. 0. 0. 1.75438598e-02 0.
      0. 0. 0. 0. 0. 0. 0. 0. 0. 0. 0. 0. 0. 0. 0. 0. 1.75438598e-02 0.
      0. 0. 0. 0. 0. 0. 0. 0. 0. 0. 0. 0. 0. 0. 0. 3.50877196e-02 0. 0.
      0. 0. 0. 0. 0. 0. 0. 0. 0. 0. 0. 0. 0. 0. 0. 0. 0. 0. 0. 0.
      1.75438598e-02 0. 0. 0. 0. 0. 0. 0. 0. 0. 0. 0. 1.75438598e-02 0.
      0. 0. 0. 0. 0. 0. 1.75438598e-02 0. 1.75438598e-02 0. 0. 0. 0. 0.
      0. 0. 0. 0. 0. 0. 1.75438598e-02 0. 0. 0. 0. 0. 0. 1.75438598e-02
      0. 0. 0. 0. 0. 0. 0. 0. 0. 0. 0. 0. 0. 0. 0. 0. 0. 0. 0. 0. 0. 0.
      0. 0. 0. 1.75438598e-02 0. 0. 0. 0. 0. 0. 0. 0. 0. 0. 0. 0. 0. 0.
      0. 0. 0. 0. 0. 0. 0. 0. 0. 0. 0. 0. 0. 0. 0. 0. 1.75438598e-02 0.
      0. 0. 0. 0. 0. 0. 0. 0. 0. 0. 0. 0. 0. 0. 0. 0. 0. 0. 0.
      1.75438598e-02 1.75438598e-02 0. 0. 0. 0. 0. 0. 0. 0. 0.
      1.75438598e-02 0. 0. 0. 0. 0. 1.75438598e-02 0. 0. 0. 0. 0. 0. 0.
      0. 1.75438598e-02 0. 0. 0. 0. 0. 1.75438598e-02 0. 0. 0. 0. 0. 0.
      0. 0. 0. 0. 0. 0. 0. 0. 0. 0. 0. 0. 0. 0. 0. 0. 0. 0. 0. 0. 0. 0.
      0. 0. 0. 0. 0. 0. 0. 0. 0. 0. 0. 0. 0. 0. 1.75438598e-02 0. 0. 0.
      0. 0. 0. 0. 0. 0. 0. 0. 0. 1.75438598e-02 0. 0. 1.75438598e-02 0.
      0. 0. 0. 0. 0. 0. 0. 0. 0. 0. 0. 0. 0. 0. 0. 0. 0. 0. 0. 0. 0. 0.
      0. 0. 0. 0. 0. 0. 0. 0. 1.75438598e-02 0. 0. 0. 0. 0. 0. 0. 0. 0.
      0. 0. 0. 0. 0. 0. 0. 0. 0. 0. 0. 0. 0. 0. 0. 0. 0. 0. 0. 0. 0. 0.
      0. 0. 0. 0. 0. 0. 0. 0. 0. 0. 0. 0. 0. 1.75438598e-02 0. 0. 0. 0.
      1.75438598e-02 0. 0. 0. 0. 0. 0. 0. 0. 0. 1.75438598e-02 0. 0. 0.
      0. 0. 0. 0. 0. 0. 0. 0. 0. 0. 0. 0. 0. 0. 0. 0. 0. 0. 0.
      1.75438598e-02 0. 0. 1.75438598e-02 0. 0. 3.50877196e-02 0.
      1.75438598e-02 0. 0. 0. 0. 0. 0. 0. 0. 0. 0. 0. 0. 0. 0. 0. 0. 0.
      0. 0. 0. 0. 0. 0. 0. 0. 0. 0. 0. 0. 0. 0. 0. 0. 0. 0. 0. 0. 0. 0.
      0. 0. 0. 0. 0. 0. 0. 0. 0. 0. 0. 0. 0. 0. 0. 0. 0. 0. 0. 0. 0. 0.
      0. 0. 0. 0. 0. 0. 0. 1.75438598e-02 0. 0. 0. 0. 0. 0. 0. 0. 0. 0.
      0. 1.75438598e-02 0. 0. 0. 0. 0. 0. 1.75438598e-02 0. 0. 0. 0. 0.
      0. 0. 0. 0. 0. 0. 0. 0. 0. 0. 0. 1.75438598e-02 0. 0. 0. 0. 0. 0.
      0. 0. 0. 0. 0. 0. 0. 0. 0. 0. 0. 0. 0. 0. 1.75438598e-02 0. 0. 0.
      0. 0. 0. 0. 0. 0. 0. 0. 0. 0. 0. 0. 1.75438598e-02 0. 0. 0. 0. 0.
      0. 0. 0. 0. 0. 0. 0. 0. 0. 0. 0. 0. 0. 0. 0. 0. 0. 0. 0. 0. 0. 0.
      1.75438598e-02 0. 1.75438598e-02 0. 0. 0. 0. 0. 0. 0. 0. 0. 0. 0.
      0. 0. 0. 0. 0. 0. 0. 0. 0. 0. 0. 0. 0. 0. 1.75438598e-02 0. 0. 0.
      0. 0. 0. 0. 0. 0. 0. 0. 0. 0. 1.75438598e-02 0. 0. 0. 0. 0. 0. 0.
      0. 0. 0. 0. 0. 1.75438598e-02 0. 0. 0. 0. 0. 0. 0. 0. 0. 0. 0. 0.
      0. 0. 0. 0. 0. 0. 0. 0. 0. 1.75438598e-02 0. 0. 0. 0. 0. 0. 0. 0.
      0. 0. 0. 0. 0. 0. 0. 0. 0. 0. 0. 0. 0. 0. 0. 0. 0. 0. 0. 0. 0. 0.
      0. 0. 0. 0. 0. 0. 0. 0. 1.75438598e-02 0. 0. 0. 0. 1.75438598e-02
      0. 0. 0. 0. 0. 0. 0. 0. 0. 0. 0. 0. 0. 0. 0. 0. 1.75438598e-02 0.
      0. 0. 0. 0. 0. 0. 0. 0. 0. 0. 3.50877196e-02 0. 1.75438598e-02 0.
      0. 0. 0. 0. 0. 0. 0.</_>
    <_>
      0. 0. 0. 7.27272732e-03 0. 0. 0. 3.63636366e-03 0. 0. 0. 0. 0. 0.
      0. 0. 0. 0. 0. 0. 0. 0. 0. 0. 0. 0. 0. 0. 0. 0. 1.09090907e-02 0.
      0. 0. 0. 0. 0. 0. 0. 0. 0. 0. 0. 0. 0. 0. 0. 0. 0. 0.
      7.27272732e-03 0. 3.63636366e-03 0. 0. 0. 0. 0. 0. 7.27272732e-03
      0. 0. 0. 0. 0. 0. 0. 0. 3.63636366e-03 0. 0. 0. 0. 0. 0. 0.
      3.63636366e-03 2.18181815e-02 0. 0. 0. 0. 0. 0. 0. 0. 0. 0. 0. 0.
      0. 3.63636366e-03 0. 0. 0. 0. 0. 0. 7.27272732e-03 0. 0. 0. 0. 0.
      0. 0. 0. 3.63636366e-03 0. 3.63636366e-03 3.63636366e-03 0. 0. 0.
      3.63636366e-03 0. 7.27272732e-03 0. 0. 0. 0. 0. 0. 0. 0. 0. 0.
      3.63636366e-03 0. 0. 0. 3.63636366e-03 0. 7.27272732e-03 0. 0.
      3.63636366e-03 3.63636366e-03 0. 0. 0. 0. 0. 0. 3.63636366e-03
      3.63636366e-03 0. 0. 0. 0. 0. 0. 0. 1.09090907e-02 0. 0. 0. 0.
      3.63636366e-03 0. 0. 3.63636366e-03 0. 0. 0. 0. 3.63636366e-03 0.
      0. 0. 0. 3.63636366e-03 0. 3.63636366e-03 0. 0. 0. 0. 0. 0.
      3.63636366e-03 0. 3.63636366e-03 0. 3.63636366e-03 0.
      1.09090907e-02 0. 0. 0. 0. 0. 0. 0. 0. 0. 3.63636366e-03 0. 0. 0.
      0. 0. 0. 0. 0. 0. 3.63636366e-03 0. 0. 0. 0. 0. 0. 0. 0.
      7.27272732e-03 0. 0. 0. 0. 0. 0. 7.27272732e-03 0. 0. 0. 0. 0. 0.
      0. 3.63636366e-03 0. 0. 0. 0. 0. 0. 0. 0. 0. 0. 3.63636366e-03 0.
      0. 0. 0. 0. 3.63636366e-03 0. 0. 0. 7.27272732e-03 3.63636366e-03
      0. 3.63636366e-03 0. 7.27272732e-03 0. 0. 0. 0. 0. 0. 0.
      3.63636366e-03 0. 7.27272732e-03 0. 0. 0. 0. 0. 0. 0. 0. 0. 0. 0.
      0. 0. 0. 0. 3.63636366e-03 0. 0. 0. 3.63636366e-03 0.
      3.63636366e-03 0. 0. 0. 3.63636366e-03 0. 0. 3.63636366e-03
      3.63636366e-03 0. 3.63636366e-03 3.63636366e-03 3.63636366e-03 0.
      0. 0. 0. 3.63636366e-03 0. 0. 3.63636366e-03 0. 0. 3.63636366e-03
      0. 0. 0. 0. 0. 0. 3.63636366e-03 0. 0. 3.63636366e-03 0. 0. 0.
      3.63636366e-03 0. 3.63636366e-03 7.27272732e-03 0. 0.
      3.63636366e-03 0. 0. 0. 0. 0. 0. 0. 0. 0. 0. 3.63636366e-03 0. 0.
      0. 0. 3.63636366e-03 7.27272732e-03 0. 0. 1.09090907e-02 0. 0.
      3.63636366e-03 0. 0. 3.63636366e-03 0. 0. 0. 0. 0. 0. 0. 0.
      3.63636366e-03 0. 3.63636366e-03 0. 0. 0. 0. 3.63636366e-03 0. 0.
      3.63636366e-03 3.63636366e-03 0. 0. 0. 0. 0. 0. 0. 0. 0.
      3.63636366e-03 0. 0. 0. 0. 0. 0. 0. 0. 0. 0. 3.63636366e-03 0. 0.
      0. 0. 0. 0. 0. 7.27272732e-03 0. 0. 0. 0. 0. 0. 0. 0.
      3.63636366e-03 0. 3.63636366e-03 0. 0. 0. 0. 0. 3.63636366e-03 0.
      3.63636366e-03 0. 0. 0. 3.63636366e-03 0. 0. 7.27272732e-03 0. 0.
      0. 7.27272732e-03 0. 0. 0. 0. 0. 0. 7.27272732e-03 0.
      7.27272732e-03 0. 0. 0. 0. 0. 0. 0. 0. 0. 3.63636366e-03 0. 0. 0.
      0. 0. 0. 3.63636366e-03 0. 0. 3.63636366e-03 0. 0. 7.27272732e-03
      0. 3.63636366e-03 0. 0. 0. 0. 0. 0. 0. 0. 0. 0. 3.63636366e-03
      3.63636366e-03 0. 0. 0. 0. 3.63636366e-03 0. 0. 0. 0. 0.
      3.63636366e-03 7.27272732e-03 0. 0. 3.63636366e-03 0.
      3.63636366e-03 0. 0. 0. 0. 0. 0. 0. 0. 0. 0. 0. 3.63636366e-03 0.
      0. 0. 0. 0. 0. 1.81818176e-02 0. 0. 0. 3.63636366e-03 0. 0. 0. 0.
      0. 0. 0. 3.63636366e-03 7.27272732e-03 0. 0. 0. 0. 7.27272732e-03
      0. 0. 0. 0. 0. 0. 0. 0. 0. 0. 0. 0. 0. 0. 0. 0. 0. 0. 0. 0. 0. 0.
      7.27272732e-03 0. 0. 0. 0. 0. 3.63636366e-03 0. 0. 0. 0.
      3.63636366e-03 3.63636366e-03 0. 0. 3.63636366e-03 0.
      3.63636366e-03 0. 0. 0. 0. 3.63636366e-03 0. 0. 0. 3.63636366e-03
      0. 0. 0. 0. 0. 0. 0. 0. 0. 3.63636366e-03 3.63636366e-03
      3.63636366e-03 0. 3.63636366e-03 3.63636366e-03 0. 0. 0.
      3.63636366e-03 0. 3.63636366e-03 0. 0. 0. 0. 0. 3.63636366e-03
      3.63636366e-03 0. 0. 0. 0. 0. 0. 1.09090907e-02 7.27272732e-03 0.
      0. 0. 0. 0. 0. 7.27272732e-03 0. 0. 0. 0. 0. 0. 0. 0.
      3.63636366e-03 7.27272732e-03 0. 0. 0. 0. 0. 7.27272732e-03 0. 0.
      1.45454546e-02 0. 0. 0. 0. 0. 0. 0. 0. 0. 0. 0. 0. 0.
      3.63636366e-03 7.27272732e-03 0. 0. 0. 1.09090907e-02 0. 0. 0. 0.
      0. 0. 0. 0. 0. 0. 0. 0. 0. 0. 0. 3.63636366e-03 0. 0. 0. 0.
      3.63636366e-03 0. 0. 0. 3.63636366e-03 0. 0. 0. 0. 3.63636366e-03
      0. 0. 3.63636366e-03 0. 0. 0. 3.63636366e-03 0. 3.63636366e-03 0.
      0. 0. 3.63636366e-03 0. 0. 0. 0. 0. 0. 0. 0. 0. 0. 0. 0. 0. 0. 0.
      0. 0. 0. 0. 0. 0. 0. 7.27272732e-03 0. 0. 0. 3.63636366e-03 0.
      3.63636366e-03 0. 0. 3.63636366e-03 3.63636366e-03 0. 0. 0. 0. 0.
      0. 0. 0. 0. 0. 3.63636366e-03 0. 0. 0. 0. 0. 0. 0. 3.63636366e-03
      0. 0. 0. 0. 0. 0. 0. 3.63636366e-03 0. 0. 0. 1.45454546e-02
      7.27272732e-03 3.63636366e-03 0. 3.63636366e-03 0. 0. 0. 0.
      3.63636366e-03 0. 3.63636366e-03 3.63636366e-03 0. 0. 0. 0. 0. 0.
      0. 0. 0. 3.63636366e-03 0. 0. 0. 7.27272732e-03 0. 0.
      3.63636366e-03 0. 0. 0. 3.63636366e-03 0. 0. 0. 0. 0. 0. 0. 0.
      7.27272732e-03 0. 0. 0. 0. 0. 0. 0. 0. 0. 0. 0. 3.63636366e-03
      3.63636366e-03 0. 0. 0. 0. 3.63636366e-03 0. 0. 0. 0. 0. 0. 0. 0.
      7.27272732e-03 3.63636366e-03 0. 0. 0. 0. 0. 0. 0. 0. 0. 0. 0. 0.
      3.63636366e-03 0. 0. 3.63636366e-03 0. 0. 0. 0. 0. 3.63636366e-03
      0. 0. 0. 0. 1.09090907e-02 0. 0. 0. 0. 0. 0. 0. 0. 3.63636366e-03
      0. 0. 0. 0. 0. 0. 0. 0. 0. 0. 3.63636366e-03 0. 0. 0.
      3.63636366e-03 3.63636366e-03 3.63636366e-03 0. 3.63636366e-03 0.
      0. 3.63636366e-03 0. 0. 0. 3.63636366e-03 3.63636366e-03 0. 0. 0.
      3.63636366e-03 3.63636366e-03 0. 3.63636366e-03 0. 0.
      7.27272732e-03 3.63636366e-03 0. 0. 0. 0. 0. 0. 0. 0.
      3.63636366e-03 0. 0. 1.81818176e-02 3.63636366e-03 0. 0.
      3.63636366e-03 7.27272732e-03 0. 0. 0. 0. 0. 0. 3.63636366e-03 0.
      0. 0. 0. 0. 0. 0. 0. 0. 0. 3.63636366e-03 0. 0. 0. 0.
      3.63636366e-03 0. 0. 0. 0. 3.63636366e-03 7.27272732e-03 0. 0. 0.
      0. 7.27272732e-03 0. 0. 0. 0. 3.63636366e-03 0. 3.63636366e-03
      3.63636366e-03 0. 0. 1.09090907e-02 0. 0. 3.63636366e-03 0.
      3.63636366e-03 0. 0. 0. 3.63636366e-03 0. 0. 0. 0. 3.63636366e-03
      0. 0. 0. 3.63636366e-03 0. 0.</_>
    <_>
      0. 0. 0. 0. 0. 0. 2.63157906e-03 0. 0. 0. 0. 0. 1.31578953e-03 0.
      2.63157906e-03 1.31578953e-03 2.63157906e-03 0. 0. 2.63157906e-03
      1.31578953e-03 0. 0. 0. 0. 1.31578953e-03 1.31578953e-03
      1.31578953e-03 0. 0. 0. 0. 1.31578953e-03 0. 1.31578953e-03
      1.31578953e-03 0. 0. 0. 0. 0. 0. 1.31578953e-03 1.31578953e-03 0.
      0. 0. 0. 0. 0. 0. 0. 2.63157906e-03 0. 0. 0. 0. 3.94736882e-03 0.
      0. 0. 0. 1.31578953e-03 0. 0. 0. 1.31578953e-03 0. 0. 0. 0. 0. 0.
      1.31578953e-03 0. 6.57894742e-03 0. 6.57894742e-03 0. 0. 0. 0. 0.
      0. 0. 0. 0. 0. 0. 5.26315812e-03 0. 3.94736882e-03 0.
      1.31578953e-03 0. 0. 2.63157906e-03 0. 1.05263162e-02 0.
      3.94736882e-03 0. 0. 1.31578953e-03 0. 2.63157906e-03 0. 0. 0.
      1.31578953e-03 0. 0. 0. 0. 0. 0. 0. 0. 1.31578953e-03 0.
      1.31578953e-03 0. 0. 0. 1.31578953e-03 2.63157906e-03 0. 0. 0. 0.
      3.94736882e-03 1.31578953e-03 0. 2.63157906e-03 1.31578953e-03 0.
      0. 0. 1.31578953e-03 0. 0. 0. 0. 5.26315812e-03 0. 1.31578953e-03
      0. 0. 0. 1.31578953e-03 0. 0. 0. 1.31578953e-03 0. 1.31578953e-03
      0. 0. 3.94736882e-03 0. 2.63157906e-03 0. 0. 0. 0. 1.31578953e-03
      0. 0. 0. 0. 0. 3.94736882e-03 0. 0. 0. 0. 0. 0. 0. 1.31578953e-03
      0. 0. 0. 0. 0. 0. 0. 6.57894742e-03 0. 0. 0. 2.63157906e-03 0.
      1.31578953e-03 0. 0. 0. 0. 0. 2.63157906e-03 0. 3.94736882e-03
      3.94736882e-03 0. 0. 1.31578953e-03 0. 0. 6.57894742e-03
      1.31578953e-03 0. 0. 0. 0. 1.31578953e-03 0. 1.31578953e-03
      1.31578953e-03 0. 0. 1.31578953e-03 0. 0. 0. 0. 0. 0. 0. 0. 0. 0.
      0. 0. 0. 1.31578953e-03 0. 1.31578953e-03 1.31578953e-03 0. 0.
      1.31578953e-03 0. 0. 0. 0. 2.63157906e-03 5.26315812e-03 0. 0. 0.
      0. 0. 0. 0. 2.63157906e-03 0. 1.31578953e-03 0. 0. 1.31578953e-03
      0. 0. 2.63157906e-03 0. 0. 0. 0. 0. 0. 5.26315812e-03 0. 0. 0.
      2.63157906e-03 0. 0. 2.63157906e-03 0. 0. 0. 1.31578953e-03 0. 0.
      0. 0. 0. 1.31578953e-03 0. 0. 0. 1.31578953e-03 0. 6.57894742e-03
      0. 0. 3.94736882e-03 1.31578953e-03 0. 0. 1.44736851e-02
      1.31578953e-03 0. 0. 0. 0. 0. 5.26315812e-03 0. 1.31578953e-03 0.
      0. 0. 2.63157906e-03 1.31578953e-03 3.94736882e-03 0. 0.
      1.31578953e-03 1.31578953e-03 2.63157906e-03 0. 0. 1.31578953e-03
      0. 0. 0. 0. 0. 0. 0. 1.31578953e-03 0. 0. 0. 0. 1.31578953e-03 0.
      1.31578953e-03 0. 2.63157906e-03 0. 0. 1.31578953e-03
      1.31578953e-03 2.63157906e-03 0. 0. 0. 0. 0. 0. 0. 0. 0. 0. 0. 0.
      1.31578953e-03 2.63157906e-03 0. 0. 0. 0. 0. 0. 0. 0. 0. 0. 0.
      2.63157906e-03 0. 0. 3.94736882e-03 0. 1.31578953e-03 0. 0.
      5.26315812e-03 0. 3.94736882e-03 0. 0. 0. 0. 1.31578953e-03 0. 0.
      1.31578953e-03 0. 1.31578953e-03 0. 6.57894742e-03 7.89473765e-03
      0. 0. 0. 1.31578953e-03 0. 0. 0. 0. 0. 0. 2.63157906e-03 0.
      2.63157906e-03 0. 1.31578953e-03 0. 0. 0. 0. 0. 6.57894742e-03 0.
      0. 0. 0. 2.63157906e-03 0. 0. 0. 2.63157906e-03 0. 0. 0. 0. 0.
      1.31578953e-03 2.63157906e-03 3.94736882e-03 0. 3.94736882e-03
      1.31578953e-03 0. 1.31578953e-03 0. 0. 0. 0. 0. 0. 0. 0. 0.
      6.57894742e-03 0. 1.31578953e-03 0. 0. 1.31578953e-03 0. 0. 0.
      1.31578953e-03 3.94736882e-03 0. 1.31578953e-03 0. 0.
      1.31578953e-03 0. 1.31578953e-03 0. 2.63157906e-03 1.31578953e-03
      0. 0. 0. 0. 0. 0. 0. 0. 0. 1.31578948e-02 0. 0. 0. 0.
      2.63157906e-03 0. 0. 3.94736882e-03 0. 1.31578953e-03 0.
      1.31578953e-03 1.31578953e-03 0. 0. 5.26315812e-03 0. 0. 0. 0. 0.
      1.31578953e-03 1.31578953e-03 3.94736882e-03 3.94736882e-03
      2.63157906e-03 0. 0. 3.94736882e-03 0. 0. 3.94736882e-03 0. 0. 0.
      0. 7.89473765e-03 6.57894742e-03 0. 0. 0. 0. 0. 0. 0.
      1.31578953e-03 1.31578953e-03 1.31578953e-03 0. 0. 0. 0.
      2.63157906e-03 0. 2.63157906e-03 0. 1.31578953e-03 3.94736882e-03
      0. 1.31578953e-03 0. 0. 1.31578953e-03 0. 0. 0. 0. 0. 0.
      1.31578953e-03 0. 0. 0. 0. 0. 2.63157906e-03 3.94736882e-03 0.
      3.94736882e-03 0. 1.31578953e-03 0. 2.63157906e-03 0. 0. 0. 0. 0.
      0. 0. 2.63157906e-03 2.63157906e-03 0. 0. 0. 0. 0. 1.31578953e-03
      1.31578953e-03 2.63157906e-03 1.31578953e-03 9.21052694e-03 0.
      7.89473765e-03 0. 1.31578953e-03 0. 0. 0. 0. 0. 0. 0. 0. 0. 0.
      5.26315812e-03 0. 0. 0. 5.26315812e-03 0. 0. 0. 0. 3.94736882e-03
      1.31578953e-03 2.63157906e-03 0. 0. 0. 1.31578953e-03 0. 0. 0. 0.
      0. 0. 0. 0. 1.31578953e-03 3.94736882e-03 1.05263162e-02 0. 0. 0.
      3.94736882e-03 6.57894742e-03 0. 0. 7.89473765e-03 0.
      1.31578953e-03 3.94736882e-03 0. 0. 1.31578953e-03 2.63157906e-03
      5.26315812e-03 0. 1.31578953e-03 0. 1.31578953e-03 0. 0. 0. 0. 0.
      1.31578953e-03 0. 0. 0. 0. 0. 1.18421055e-02 0. 0. 0. 0.
      1.31578953e-03 0. 0. 0. 0. 0. 1.31578953e-03 0. 1.31578953e-03
      9.21052694e-03 2.63157906e-03 3.94736882e-03 0. 5.26315812e-03
      1.31578953e-03 0. 1.31578953e-03 0. 2.63157906e-03 1.31578953e-03
      2.63157906e-03 1.31578953e-03 1.31578953e-03 0. 0. 0.
      6.57894742e-03 0. 0. 6.57894742e-03 0. 1.31578953e-03
      1.05263162e-02 0. 1.18421055e-02 0. 0. 0. 0. 0. 0. 3.94736882e-03
      0. 0. 0. 1.31578953e-03 5.26315812e-03 0. 0. 0. 1.31578953e-03
      3.94736882e-03 0. 0. 0. 2.63157906e-03 0. 0. 2.63157906e-03
      1.31578953e-03 0. 0. 0. 1.31578953e-03 5.26315812e-03 0. 0. 0. 0.
      0. 1.31578953e-03 0. 0. 0. 1.31578953e-03 0. 0. 0. 0.
      2.63157906e-03 0. 0. 2.63157906e-03 0. 2.63157906e-03
      1.31578953e-03 0. 0. 0. 0. 0. 0. 9.21052694e-03 0. 2.63157906e-03
      0. 0. 0. 0. 1.31578953e-03 0. 0. 0. 2.63157906e-03 0. 0. 0. 0. 0.
      2.63157906e-03 0. 0. 9.21052694e-03 0. 1.31578953e-03
      1.31578953e-03 5.26315812e-03 0. 1.31578953e-03 5.26315812e-03 0.
      0. 0. 9.21052694e-03 1.31578953e-03 1.97368432e-02 1.31578953e-03
      0. 0. 0. 0. 0. 0. 0. 0. 1.31578953e-03 3.94736882e-03 0.
      1.44736851e-02 1.31578948e-02 0. 2.63157906e-03 1.31578953e-03 0.
      1.31578953e-03 0. 3.94736882e-03 0. 1.31578953e-03 0. 0. 0. 0.
      2.63157906e-03 2.63157906e-03 1.31578953e-03 0. 2.63157906e-03 0.
      0. 2.63157906e-03 5.26315812e-03 0. 1.31578953e-03 0.
      6.57894742e-03 0. 0. 0. 0. 0. 2.63157906e-03 2.63157906e-03 0. 0.
      0. 1.31578953e-03 3.94736882e-03 0. 0. 2.63157906e-03 0. 0. 0. 0.
      0. 0. 2.63157906e-03 0. 3.94736882e-03 0. 0. 0. 1.31578953e-03 0.
      0. 1.31578953e-03 0. 0. 0. 1.05263162e-02 0. 2.63157906e-03
      1.31578953e-03 0. 0. 0. 2.63157906e-03 0. 1.31578953e-03
      1.31578953e-03 1.31578953e-03 1.31578953e-03 1.31578953e-03
      2.63157906e-03 0. 0. 0. 0. 1.31578953e-03 0. 0. 0. 3.94736882e-03
      1.31578953e-03 0. 0. 2.63157906e-03 1.31578953e-03 0. 0.
      3.94736882e-03 0. 0. 0. 0. 0. 0. 7.89473765e-03 0. 1.31578953e-03
      0. 0. 0. 0. 0. 1.31578953e-03 0. 0. 0. 0. 1.31578953e-03
      1.31578953e-03 2.63157906e-03 0. 7.89473765e-03 3.94736882e-03 0.
      1.31578953e-03 0. 0. 0. 0. 5.26315812e-03 0. 0. 0. 0. 0.
      2.63157906e-03 0. 6.57894742e-03 0. 0. 0. 5.26315812e-03
      1.31578953e-03 2.63157906e-03 0. 0. 0. 0. 9.21052694e-03 0. 0.
      1.31578953e-03 1.31578953e-03 1.31578953e-03 0. 0. 0.
      3.94736882e-03 0. 0. 5.26315812e-03 2.63157906e-03 1.31578953e-03
      2.63157906e-03 0. 0. 7.89473765e-03 0. 0. 0. 0. 3.94736882e-03 0.
      0. 0. 0. 0. 0. 1.31578953e-03 0. 2.63157906e-03 0. 0. 0. 0. 0. 0.
      3.94736882e-03 0. 0. 3.94736882e-03 0. 0. 0. 1.31578953e-03 0. 0.
      0. 0. 1.31578953e-03 0. 1.31578953e-03 0. 0. 0. 0. 0.
      6.57894742e-03 1.31578953e-03 1.31578953e-03</_>
    <_>
      0. 0. 0. 0. 0. 0. 0. 0. 0. 0. 0. 1.22549022e-02 0. 0. 0. 0. 0. 0.
      0. 7.35294167e-03 0. 0. 4.90196096e-03 2.45098048e-03 0. 0.
      2.45098048e-03 0. 0. 2.45098048e-03 2.45098048e-03 0. 0. 0. 0. 0.
      0. 0. 2.45098048e-03 0. 0. 0. 0. 0. 0. 2.45098048e-03 0. 0. 0. 0.
      2.45098048e-03 0. 4.90196096e-03 0. 0. 0. 2.45098048e-03 0.
      2.45098048e-03 0. 0. 0. 0. 0. 0. 2.45098048e-03 0. 2.45098048e-03
      2.45098048e-03 0. 0. 0. 0. 0. 4.90196096e-03 0. 2.45098048e-03 0.
      0. 0. 0. 4.90196096e-03 0. 0. 0. 0. 2.45098048e-03 2.45098048e-03
      0. 0. 0. 0. 0. 0. 0. 2.45098048e-03 0. 0. 0. 0. 2.45098048e-03 0.
      4.90196096e-03 0. 7.35294167e-03 0. 0. 0. 0. 0. 2.45098048e-03 0.
      0. 0. 4.90196096e-03 0. 0. 0. 0. 2.45098048e-03 0. 4.90196096e-03
      0. 2.45098048e-03 0. 0. 0. 4.90196096e-03 0. 0. 0. 4.90196096e-03
      0. 2.45098048e-03 0. 0. 2.45098048e-03 0. 0. 0. 0. 0. 0. 0. 0. 0.
      2.45098048e-03 0. 0. 0. 7.35294167e-03 0. 2.45098048e-03 0. 0. 0.
      0. 2.45098048e-03 0. 7.35294167e-03 0. 0. 2.45098048e-03 0. 0. 0.
      0. 7.35294167e-03 0. 0. 0. 0. 2.45098048e-03 0. 2.45098048e-03
      2.45098048e-03 0. 0. 0. 4.90196096e-03 2.45098048e-03
      2.45098048e-03 0. 0. 0. 2.45098048e-03 2.45098048e-03
      2.45098048e-03 0. 0. 0. 0. 0. 0. 2.45098048e-03 0. 0. 0. 0. 0. 0.
      2.45098048e-03 2.45098048e-03 0. 4.90196096e-03 0. 0. 0. 0.
      2.45098048e-03 0. 0. 0. 4.90196096e-03 2.45098048e-03
      7.35294167e-03 0. 0. 0. 0. 0. 2.45098048e-03 4.90196096e-03 0. 0.
      0. 0. 0. 4.90196096e-03 0. 0. 2.45098048e-03 2.45098048e-03
      4.90196096e-03 2.45098048e-03 0. 0. 0. 0. 0. 0. 0. 0. 0. 0. 0. 0.
      0. 0. 0. 0. 0. 0. 2.45098048e-03 0. 0. 0. 0. 0. 0. 2.45098048e-03
      0. 2.45098048e-03 0. 0. 0. 0. 0. 0. 0. 0. 0. 0. 2.45098048e-03 0.
      0. 0. 0. 0. 2.45098048e-03 0. 2.45098048e-03 0. 2.45098048e-03 0.
      0. 0. 0. 2.45098048e-03 0. 0. 0. 2.45098048e-03 2.45098048e-03 0.
      2.45098048e-03 0. 0. 0. 4.90196096e-03 0. 0. 0. 4.90196096e-03 0.
      0. 0. 4.90196096e-03 2.45098048e-03 0. 0. 0. 0. 0. 2.45098048e-03
      0. 0. 7.35294167e-03 0. 0. 0. 0. 0. 0. 0. 0. 7.35294167e-03 0. 0.
      2.45098048e-03 2.45098048e-03 0. 0. 0. 0. 0. 0. 0. 2.45098048e-03
      0. 2.45098048e-03 0. 0. 0. 0. 0. 0. 0. 0. 2.45098048e-03 0.
      2.45098048e-03 2.45098048e-03 0. 0. 0. 0. 4.90196096e-03 0. 0.
      2.45098048e-03 0. 7.35294167e-03 0. 2.45098048e-03 0.
      7.35294167e-03 0. 2.45098048e-03 2.45098048e-03 2.45098048e-03 0.
      4.90196096e-03 2.45098048e-03 0. 4.90196096e-03 2.45098048e-03
      2.45098048e-03 2.45098048e-03 0. 2.45098048e-03 2.45098048e-03
      7.35294167e-03 0. 4.90196096e-03 0. 0. 2.45098048e-03 0. 0. 0. 0.
      2.45098048e-03 0. 0. 4.90196096e-03 0. 0. 0. 2.45098048e-03 0. 0.
      4.90196096e-03 0. 0. 7.35294167e-03 0. 0. 0. 0. 0. 0.
      2.45098048e-03 0. 0. 2.45098048e-03 0. 4.90196096e-03 0. 0. 0.
      2.45098048e-03 0. 0. 2.45098048e-03 0. 2.45098048e-03
      4.90196096e-03 0. 0. 0. 0. 0. 0. 4.90196096e-03 0. 2.45098048e-03
      0. 2.45098048e-03 0. 4.90196096e-03 0. 2.45098048e-03
      4.90196096e-03 0. 0. 0. 2.45098048e-03 0. 2.45098048e-03 0.
      2.45098048e-03 0. 2.45098048e-03 0. 0. 0. 0. 0. 0. 0. 0. 0.
      2.45098048e-03 4.90196096e-03 0. 0. 0. 2.45098048e-03
      4.90196096e-03 0. 0. 0. 0. 0. 0. 0. 0. 2.45098048e-03 0.
      2.45098048e-03 0. 0. 0. 0. 0. 0. 0. 2.45098048e-03 0. 0. 0. 0.
      2.45098048e-03 2.45098048e-03 0. 0. 0. 0. 4.90196096e-03 0. 0. 0.
      4.90196096e-03 2.45098048e-03 2.45098048e-03 0. 2.45098048e-03
      2.45098048e-03 0. 2.45098048e-03 2.45098048e-03 0. 0. 0. 0. 0. 0.
      0. 2.45098048e-03 0. 0. 4.90196096e-03 0. 0. 0. 0. 0.
      2.45098048e-03 0. 2.45098048e-03 0. 0. 2.45098048e-03 0. 0.
      2.45098048e-03 0. 2.45098048e-03 0. 4.90196096e-03 0. 0. 0. 0. 0.
      0. 0. 0. 2.45098048e-03 2.45098048e-03 0. 2.45098048e-03 0. 0. 0.
      2.45098048e-03 0. 7.35294167e-03 0. 2.45098048e-03 0. 0. 0.
      2.45098048e-03 0. 0. 0. 0. 0. 2.45098048e-03 0. 0. 2.45098048e-03
      0. 2.45098048e-03 0. 2.45098048e-03 0. 4.90196096e-03
      2.45098048e-03 2.45098048e-03 0. 0. 7.35294167e-03 0.
      4.90196096e-03 0. 0. 2.45098048e-03 0. 0. 0. 0. 2.45098048e-03
      2.45098048e-03 0. 0. 0. 0. 2.45098048e-03 0. 0. 0. 2.45098048e-03
      0. 2.45098048e-03 0. 0. 0. 0. 0. 0. 0. 0. 2.45098048e-03 0. 0. 0.
      0. 2.45098048e-03 2.45098048e-03 0. 0. 0. 0. 1.47058833e-02 0.
      4.90196096e-03 0. 0. 0. 0. 7.35294167e-03 2.45098048e-03 0. 0. 0.
      0. 0. 0. 0. 0. 0. 4.90196096e-03 0. 0. 2.45098048e-03
      2.45098048e-03 0. 2.45098048e-03 0. 0. 0. 2.45098048e-03 0. 0. 0.
      0. 0. 0. 0. 2.45098048e-03 0. 0. 0. 0. 0. 9.80392192e-03
      2.45098048e-03 4.90196096e-03 0. 0. 2.45098048e-03 0. 0. 0. 0. 0.
      0. 0. 0. 0. 0. 2.45098048e-03 0. 2.45098048e-03 2.45098048e-03 0.
      2.45098048e-03 0. 0. 0. 2.45098048e-03 0. 2.45098048e-03 0.
      2.45098048e-03 0. 0. 0. 0. 0. 0. 0. 0. 2.45098048e-03
      2.45098048e-03 0. 0. 0. 0. 2.45098048e-03 0. 2.45098048e-03 0. 0.
      0. 0. 0. 0. 0. 0. 0. 0. 0. 2.45098048e-03 0. 2.45098048e-03 0.
      2.45098048e-03 0. 0. 2.45098048e-03 0. 0. 2.45098048e-03
      2.45098048e-03 0. 0. 0. 2.45098048e-03 0. 0. 0. 0. 7.35294167e-03
      0. 0. 2.45098048e-03 0. 2.45098048e-03 4.90196096e-03
      2.45098048e-03 2.45098048e-03 0. 0. 4.90196096e-03 0. 0. 0. 0. 0.
      0. 0. 0. 0. 0. 0. 2.45098048e-03 0. 0. 0. 0. 0. 2.45098048e-03
      2.45098048e-03 0. 0. 9.80392192e-03 2.45098048e-03 0. 0. 0. 0.
      7.35294167e-03 4.90196096e-03 0. 0. 0. 2.45098048e-03 0. 0. 0. 0.
      0. 0. 0. 0. 4.90196096e-03 0. 0. 0. 0. 0. 0. 0. 0. 2.45098048e-03
      0. 0. 0. 0. 0. 0. 7.35294167e-03 0. 2.45098048e-03 0.
      2.45098048e-03 7.35294167e-03 0. 0. 2.45098048e-03 0. 0. 0. 0. 0.
      9.80392192e-03 0. 0. 2.45098048e-03 2.45098048e-03 0. 0.
      2.45098048e-03 0. 2.45098048e-03 0. 2.45098048e-03 0. 0.
      2.45098048e-03 7.35294167e-03 2.45098048e-03 0. 4.90196096e-03
      2.45098048e-03 0. 0. 2.45098048e-03 0. 0. 0. 0. 0. 0. 0.
      2.45098048e-03 0. 0. 0. 0. 0. 0. 0. 2.45098048e-03 0. 0.
      2.45098048e-03 2.45098048e-03 2.45098048e-03 2.45098048e-03
      4.90196096e-03 0. 2.45098048e-03 0. 0. 0. 0. 0. 2.45098048e-03 0.
      2.45098048e-03 0. 2.45098048e-03 0. 2.45098048e-03 0. 0. 0. 0. 0.
      2.45098048e-03 7.35294167e-03 0. 0. 0. 0. 0. 0. 0. 4.90196096e-03
      7.35294167e-03 0. 0. 0. 0. 0. 2.45098048e-03 0. 0. 0.
      7.35294167e-03 2.45098048e-03 2.45098048e-03 0. 0. 0. 0. 0. 0. 0.
      0. 0. 0. 0. 0. 0. 0. 0. 0. 0. 0. 0. 2.45098048e-03 2.45098048e-03
      0. 0. 0. 0. 0. 0. 0. 2.45098048e-03 2.45098048e-03 0.
      2.45098048e-03 1.22549022e-02 0. 2.45098048e-03 2.45098048e-03 0.
      0. 0. 0. 0. 0. 2.45098048e-03 2.45098048e-03 0. 2.45098048e-03
      2.45098048e-03 0. 2.45098048e-03 0. 0. 0. 0. 0. 2.45098048e-03 0.
      2.45098048e-03 0. 0. 2.45098048e-03 0. 0. 0. 0. 0. 2.45098048e-03
      0. 0. 0. 2.45098048e-03 2.45098048e-03 4.90196096e-03 0.
      2.45098048e-03 2.45098048e-03 0. 0. 0. 7.35294167e-03 0. 0. 0. 0.</_>
    <_>
      0. 7.26744183e-04 0. 0. 0. 7.26744183e-04 1.45348837e-03
      2.90697673e-03 0. 0. 3.63372080e-03 0. 1.45348837e-03 0. 0.
      7.26744183e-04 1.45348837e-03 7.26744183e-04 0. 2.18023267e-03
      1.45348837e-03 0. 1.45348837e-03 0. 1.45348837e-03 0. 0.
      2.90697673e-03 7.26744183e-04 0. 0. 0. 1.45348837e-03 0.
      1.45348837e-03 7.26744183e-04 0. 0. 0. 2.90697673e-03 0. 0.
      2.18023267e-03 7.26744183e-04 0. 0. 7.26744183e-04 0. 0. 0. 0.
      7.26744183e-04 7.26744183e-04 0. 0. 0. 0. 1.45348837e-03 0.
      1.45348837e-03 7.26744183e-04 7.26744183e-04 0. 0. 7.26744183e-04
      0. 2.18023267e-03 1.45348837e-03 2.18023267e-03 3.63372080e-03 0.
      0. 0. 7.26744183e-04 0. 1.45348837e-03 7.26744183e-04
      7.26744160e-03 0. 0. 0. 0. 0. 0. 0. 2.90697673e-03 7.26744183e-04
      0. 1.45348837e-03 7.26744183e-04 0. 1.45348837e-03 0.
      7.26744183e-04 0. 7.26744183e-04 7.26744183e-04 0. 6.54069753e-03
      0. 7.26744183e-04 1.45348837e-03 7.26744183e-04 3.63372080e-03
      7.26744183e-04 0. 1.45348837e-03 7.26744183e-04 0. 2.18023267e-03
      0. 0. 7.26744183e-04 3.63372080e-03 1.45348837e-03 0.
      7.26744183e-04 0. 7.26744183e-04 0. 2.90697673e-03 2.18023267e-03
      0. 0. 1.45348837e-03 1.45348837e-03 4.36046533e-03 0.
      7.26744183e-04 0. 7.26744183e-04 0. 0. 7.26744183e-04
      7.26744183e-04 0. 0. 0. 5.08720940e-03 0. 5.81395347e-03
      3.63372080e-03 0. 5.81395347e-03 0. 0. 1.45348837e-03 0.
      2.18023267e-03 9.44767427e-03 0. 7.26744183e-04 1.45348837e-03
      2.18023267e-03 7.26744183e-04 0. 7.26744183e-04 0. 4.36046533e-03
      0. 2.18023267e-03 0. 0. 7.26744183e-04 1.45348837e-03
      3.63372080e-03 0. 2.90697673e-03 0. 0. 0. 1.45348837e-03 0.
      1.45348837e-03 1.45348837e-03 0. 0. 0. 7.26744183e-04
      1.45348837e-03 7.26744183e-04 2.90697673e-03 7.26744183e-04
      2.18023267e-03 0. 0. 0. 7.26744183e-04 2.90697673e-03 0.
      2.18023267e-03 7.26744183e-04 0. 7.26744183e-04 0. 1.45348837e-03
      0. 0. 7.26744183e-04 0. 7.26744183e-04 1.45348837e-03 0.
      1.09011624e-02 2.18023267e-03 7.26744183e-04 7.26744183e-04
      7.26744183e-04 3.63372080e-03 7.26744183e-04 0. 7.26744183e-04 0.
      1.45348837e-03 1.45348837e-03 1.45348837e-03 0. 2.90697673e-03
      2.18023267e-03 0. 7.26744183e-04 0. 7.26744183e-04 7.26744183e-04
      0. 0. 1.45348837e-03 0. 0. 7.26744183e-04 2.18023267e-03
      1.45348837e-03 0. 0. 2.90697673e-03 0. 0. 7.26744160e-03 0. 0.
      2.90697673e-03 0. 0. 0. 0. 2.90697673e-03 2.18023267e-03
      1.45348837e-03 1.45348837e-03 7.26744183e-04 1.45348837e-03
      7.26744183e-04 7.26744183e-04 0. 1.45348837e-03 0. 1.45348837e-03
      7.26744183e-04 0. 0. 0. 2.18023267e-03 1.45348837e-03 0. 0.
      7.26744183e-04 2.90697673e-03 0. 1.45348837e-03 3.63372080e-03 0.
      5.08720940e-03 1.45348837e-03 2.18023267e-03 7.26744183e-04 0.
      7.26744183e-04 0. 1.45348837e-03 0. 7.26744183e-04 7.26744183e-04
      1.45348837e-03 2.18023267e-03 7.99418613e-03 0. 7.26744183e-04
      1.45348837e-03 0. 7.26744183e-04 0. 0. 7.26744183e-04 0. 0.
      1.45348837e-03 7.26744160e-03 7.26744183e-04 0. 2.18023267e-03
      2.18023267e-03 2.90697673e-03 7.26744183e-04 0. 1.45348837e-03 0.
      7.26744183e-04 0. 0. 1.45348837e-03 2.18023267e-03 7.26744183e-04
      7.26744183e-04 7.99418613e-03 2.18023267e-03 7.26744183e-04
      7.26744183e-04 7.26744183e-04 2.90697673e-03 0. 0. 0.
      2.90697673e-03 0. 0. 2.18023267e-03 0. 7.99418613e-03
      7.26744183e-04 7.26744160e-03 0. 0. 1.45348837e-03 7.26744183e-04
      0. 3.63372080e-03 0. 1.45348837e-03 7.26744183e-04 1.45348837e-03
      7.26744183e-04 0. 5.81395347e-03 5.81395347e-03 7.26744183e-04 0.
      2.90697673e-03 7.26744183e-04 1.45348837e-03 2.18023267e-03
      3.63372080e-03 7.26744183e-04 0. 0. 2.18023267e-03 7.26744183e-04
      7.26744183e-04 7.26744183e-04 2.18023267e-03 7.26744183e-04 0.
      2.18023267e-03 0. 1.45348837e-03 0. 1.45348837e-03 2.18023267e-03
      0. 0. 0. 1.45348837e-03 7.26744183e-04 7.26744183e-04
      7.26744183e-04 7.26744183e-04 7.26744183e-04 7.26744183e-04 0.
      1.45348837e-03 1.45348837e-03 1.45348837e-03 0. 0. 0. 0.
      7.26744183e-04 0. 0. 0. 7.26744183e-04 0. 7.26744183e-04
      1.45348837e-03 2.18023267e-03 0. 0. 2.18023267e-03 2.90697673e-03
      7.26744183e-04 7.26744183e-04 0. 0. 1.45348837e-03 7.26744183e-04
      0. 0. 7.26744183e-04 0. 2.18023267e-03 2.18023267e-03
      1.45348837e-03 0. 0. 0. 7.26744183e-04 0. 7.26744183e-04 0.
      2.18023267e-03 8.72093067e-03 7.26744183e-04 0. 7.26744183e-04
      7.26744183e-04 0. 1.45348837e-03 0. 0. 0. 7.26744183e-04 0.
      2.18023267e-03 0. 0. 0. 0. 0. 0. 7.26744183e-04 0. 7.26744183e-04
      7.26744183e-04 0. 7.26744183e-04 7.26744183e-04 0. 7.26744183e-04
      2.18023267e-03 1.45348837e-03 7.26744183e-04 7.26744183e-04
      1.45348837e-03 7.26744183e-04 0. 0. 2.90697673e-03 0. 0.
      1.45348837e-03 7.26744183e-04 0. 1.45348837e-03 7.26744183e-04
      1.45348837e-03 0. 7.26744183e-04 7.26744183e-04 0. 0.
      7.26744183e-04 0. 0. 7.26744183e-04 0. 7.26744183e-04
      7.26744183e-04 7.26744183e-04 0. 7.26744183e-04 4.36046533e-03
      7.26744183e-04 1.45348837e-03 1.45348837e-03 1.45348837e-03
      2.18023267e-03 7.26744183e-04 3.63372080e-03 7.26744183e-04
      2.90697673e-03 3.63372080e-03 0. 0. 2.18023267e-03 7.26744183e-04
      2.18023267e-03 0. 0. 4.36046533e-03 2.18023267e-03 1.45348837e-03
      2.18023267e-03 7.26744183e-04 7.26744183e-04 7.26744183e-04 0.
      7.26744183e-04 0. 0. 0. 0. 7.26744183e-04 1.45348837e-03 0. 0.
      7.26744183e-04 2.18023267e-03 0. 7.26744183e-04 1.45348837e-03
      7.26744183e-04 0. 0. 7.26744183e-04 2.18023267e-03 7.26744183e-04
      7.26744183e-04 7.26744183e-04 0. 7.26744183e-04 2.18023267e-03 0.
      0. 0. 7.26744183e-04 1.45348837e-03 1.45348837e-03 0. 0.
      7.26744183e-04 0. 0. 0. 6.54069753e-03 0. 0. 7.26744183e-04
      2.18023267e-03 0. 7.26744160e-03 1.45348837e-03 0. 0.
      7.26744183e-04 0. 7.26744183e-04 0. 7.26744183e-04 0. 0.
      2.18023267e-03 1.45348837e-03 0. 4.36046533e-03 7.26744183e-04
      1.45348837e-03 7.26744183e-04 1.45348837e-03 2.90697673e-03 0. 0.
      7.26744183e-04 0. 0. 2.18023267e-03 0. 0. 7.26744183e-04
      1.45348837e-03 0. 0. 7.26744183e-04 1.45348837e-03 7.26744183e-04
      7.26744183e-04 0. 7.26744183e-04 0. 0. 5.08720940e-03
      1.09011624e-02 1.45348837e-03 0. 7.26744183e-04 7.26744183e-04 0.
      0. 0. 1.45348837e-03 0. 0. 2.90697673e-03 0. 1.45348837e-03
      7.26744183e-04 4.36046533e-03 0. 0. 1.45348837e-03 2.18023267e-03
      0. 0. 7.26744183e-04 0. 6.54069753e-03 1.45348837e-03
      1.45348837e-03 0. 7.26744183e-04 0. 7.99418613e-03 5.81395347e-03
      7.26744183e-04 7.26744183e-04 7.26744183e-04 7.26744183e-04
      2.18023267e-03 7.26744183e-04 7.26744183e-04 7.26744183e-04 0. 0.
      0. 1.45348837e-03 7.26744183e-04 5.81395347e-03 7.26744183e-04 0.
      1.45348837e-03 2.18023267e-03 7.26744183e-04 0. 7.26744183e-04
      1.45348837e-03 7.26744183e-04 1.45348837e-03 7.26744183e-04
      7.26744183e-04 2.90697673e-03 0. 0. 1.45348837e-03 1.45348837e-03
      0. 7.26744183e-04 4.36046533e-03 1.45348837e-03 3.63372080e-03
      7.26744183e-04 7.26744183e-04 0. 7.26744183e-04 7.26744183e-04
      1.45348837e-03 7.26744183e-04 7.26744183e-04 7.26744183e-04
      1.45348837e-03 0. 1.45348837e-03 1.45348837e-03 1.45348837e-03 0.
      7.26744183e-04 7.26744183e-04 0. 0. 2.90697673e-03 2.18023267e-03
      2.18023267e-03 0. 0. 0. 0. 7.26744183e-04 0. 0. 7.26744183e-04
      1.45348837e-03 2.18023267e-03 0. 0. 0. 0. 0. 7.26744183e-04 0.
      1.45348837e-03 7.26744183e-04 0. 1.45348837e-03 1.45348837e-03 0.
      1.45348837e-03 1.45348837e-03 7.26744183e-04 0. 7.99418613e-03 0.
      0. 2.18023267e-03 2.18023267e-03 2.90697673e-03 7.26744183e-04 0.
      0. 7.26744183e-04 2.18023267e-03 0. 0. 1.45348837e-03
      7.26744183e-04 0. 1.45348837e-03 0. 2.18023267e-03 0. 0.
      7.26744183e-04 0. 0. 0. 0. 7.26744183e-04 7.26744183e-04 0.
      2.18023267e-03 7.26744183e-04 0. 1.45348837e-03 0. 7.26744183e-04
      1.45348837e-03 7.26744183e-04 0. 1.45348837e-03 0. 0. 0.
      3.63372080e-03 7.26744183e-04 0. 0. 0. 3.63372080e-03 0.
      7.26744183e-04 7.26744183e-04 0. 7.26744183e-04 7.26744183e-04
      7.26744183e-04 0. 7.26744183e-04 0. 1.45348837e-03 4.36046533e-03
      1.45348837e-03 0. 7.26744183e-04 7.26744183e-04 7.26744183e-04
      2.18023267e-03 2.18023267e-03 5.08720940e-03 1.45348837e-03
      1.45348837e-03 0. 7.26744183e-04 2.18023267e-03 5.81395347e-03
      2.18023267e-03 7.26744183e-04 1.45348837e-03 0. 2.18023267e-03
      7.26744183e-04 1.45348837e-03 2.18023267e-03 0. 0. 2.18023267e-03
      1.45348837e-03 1.45348837e-03 7.26744183e-04 7.26744183e-04 0.
      1.45348837e-03 7.26744183e-04 7.26744183e-04 1.45348837e-03 0.
      7.26744183e-04 1.45348837e-03 0. 7.26744160e-03 0. 7.26744183e-04
      0. 0. 2.90697673e-03 0. 0. 7.26744183e-04 7.26744183e-04 0.
      2.18023267e-03 0. 0. 7.26744183e-04 7.26744183e-04 1.45348837e-03
      7.26744183e-04 0. 0. 0. 1.45348837e-03 7.26744183e-04 0. 0.
      2.18023267e-03 1.01744188e-02 1.45348837e-03 1.45348837e-03
      1.45348837e-03 0. 0. 1.45348837e-03 7.26744183e-04 2.18023267e-03
      0. 7.26744183e-04 7.26744183e-04 2.90697673e-03 1.45348837e-03
      2.90697673e-03 7.26744183e-04 7.26744183e-04 0. 0. 7.26744183e-04
      7.26744183e-04 0. 7.26744183e-04 2.18023267e-03 7.26744183e-04
      1.45348837e-03 1.45348837e-03 2.90697673e-03 1.45348837e-03
      7.26744183e-04 0. 0. 0. 0. 0. 7.26744183e-04 7.99418613e-03
      3.63372080e-03 7.26744183e-04 0. 7.26744183e-04 0. 7.26744183e-04
      0. 7.26744183e-04 1.45348837e-03 0. 7.26744183e-04 2.18023267e-03
      1.45348837e-03 7.26744183e-04 7.26744183e-04 0. 2.90697673e-03
      1.45348837e-03 7.26744183e-04 0. 1.45348837e-03 0. 0.
      7.26744183e-04 7.26744183e-04 0. 0. 7.26744183e-04 7.26744183e-04
      1.45348837e-03 0. 7.26744183e-04 7.26744183e-04 0. 0.
      2.90697673e-03 0. 0. 2.18023267e-03 7.26744183e-04 2.18023267e-03
      7.26744183e-04 7.26744183e-04 2.18023267e-03 7.26744183e-04
      1.45348837e-03 0. 7.26744183e-04 2.18023267e-03 1.45348837e-03
      1.45348837e-03 0. 7.26744183e-04 0. 0. 0. 7.26744183e-04 0. 0. 0.
      7.26744183e-04 2.90697673e-03 1.45348837e-03 0. 7.26744183e-04
      2.18023267e-03 7.26744183e-04 0. 0. 0. 7.26744183e-04
      7.26744183e-04 7.26744183e-04 7.26744183e-04 0. 1.45348837e-03
      7.26744183e-04 2.90697673e-03 7.26744183e-04 7.26744183e-04
      7.26744183e-04 7.26744183e-04 7.26744183e-04 1.45348837e-03 0. 0.
      1.45348837e-03 2.18023267e-03 0. 0. 0. 7.26744183e-04 0. 0.
      7.26744183e-04 1.45348837e-03 0. 0. 7.26744183e-04 0.
      2.18023267e-03 7.26744183e-04 0. 1.45348837e-03 0. 0.
      7.26744183e-04 7.26744183e-04 0. 1.45348837e-03 0. 7.26744183e-04
      2.18023267e-03 0. 2.18023267e-03 0. 1.45348837e-03 7.26744183e-04
      0. 0. 1.45348837e-03 0. 7.26744183e-04 7.26744183e-04 0.
      2.90697673e-03 0. 0. 0. 7.26744183e-04 7.26744183e-04 0.
      7.26744183e-04</_>
    <_>
      0. 7.38007366e-04 0. 0. 7.38007366e-04 5.90405893e-03 0.
      5.16605144e-03 0. 7.38007366e-04 7.38007366e-04 2.21402198e-03
      2.21402198e-03 0. 0. 0. 7.38007366e-04 0. 0. 0. 7.38007366e-04 0.
      0. 7.38007366e-04 7.38007366e-04 0. 0. 0. 7.38007366e-04 0.
      3.69003695e-03 0. 0. 7.38007366e-04 2.21402198e-03 5.16605144e-03
      7.38007366e-04 0. 2.21402198e-03 1.47601473e-03 0. 7.38007366e-04
      0. 0. 0. 0. 7.38007366e-04 0. 3.69003695e-03 2.21402198e-03
      7.38007366e-04 7.38007366e-04 7.38007366e-04 7.38007366e-04 0. 0.
      0. 0. 0. 2.21402198e-03 0. 0. 0. 3.69003695e-03 7.38007366e-04
      7.38007366e-04 0. 3.69003695e-03 7.38007366e-04 2.95202946e-03 0.
      7.38007366e-04 0. 0. 0. 0. 7.38007366e-04 8.11808091e-03 0. 0.
      7.38007366e-04 0. 0. 0. 7.38007366e-04 2.21402198e-03 0.
      7.38007366e-04 7.38007366e-04 7.38007366e-04 2.21402198e-03
      3.69003695e-03 0. 0. 7.38007366e-04 8.85608792e-03 0. 0.
      2.21402198e-03 7.38007366e-04 1.47601473e-03 0. 0. 0.
      7.38007366e-04 0. 0. 1.47601473e-03 0. 7.38007366e-04 0. 0.
      1.47601473e-03 7.38007366e-04 7.38007366e-04 2.95202946e-03 0.
      1.47601473e-03 7.38007366e-04 0. 5.90405893e-03 0. 3.69003695e-03
      0. 7.38007366e-04 0. 2.21402198e-03 7.38007366e-04 7.38007366e-04
      0. 0. 0. 7.38007366e-04 7.38007366e-04 0. 0. 0. 7.38007366e-04
      2.73062717e-02 0. 5.16605144e-03 3.69003695e-03 0. 5.16605144e-03
      7.38007366e-04 7.38007366e-04 7.38007366e-04 0. 0. 1.91881917e-02
      0. 2.95202946e-03 0. 1.47601473e-03 7.38007366e-04 0. 0. 0.
      2.21402198e-03 1.47601473e-03 0. 1.47601473e-03 7.38007366e-04
      5.90405893e-03 0. 7.38007366e-04 1.47601473e-03 7.38007366e-04
      4.42804396e-03 0. 0. 0. 0. 0. 0. 7.38007366e-04 2.21402198e-03 0.
      7.38007366e-04 7.38007366e-04 7.38007366e-04 7.38007366e-04
      7.38007366e-04 1.47601473e-03 0. 7.38007366e-04 0. 0. 0. 0.
      3.69003695e-03 0. 1.47601473e-03 7.38007366e-04 0. 0.
      7.38007366e-04 0. 0. 0. 7.38007366e-04 2.21402198e-03
      7.38007366e-04 8.85608792e-03 7.38007366e-04 0. 0. 0.
      7.38007366e-04 0. 2.21402198e-03 0. 0. 1.32841328e-02 0.
      7.38007366e-04 0. 0. 1.47601473e-03 2.21402198e-03 0.
      2.95202946e-03 0. 2.95202946e-03 0. 2.21402198e-03 1.47601473e-03
      2.95202946e-03 0. 7.38007366e-04 1.47601473e-03 0. 0.
      7.38007366e-04 7.38007366e-04 0. 0. 2.21402198e-03 7.38007366e-04
      0. 7.38007366e-04 0. 2.95202946e-03 0. 7.38007366e-04
      2.95202946e-03 7.38007366e-04 3.69003695e-03 1.47601473e-03
      2.95202946e-03 1.47601473e-03 7.38007366e-04 2.95202946e-03 0. 0.
      0. 2.21402198e-03 0. 0. 0. 0. 7.38007366e-04 0. 0. 0.
      7.38007366e-04 1.18081179e-02 2.95202946e-03 2.95202946e-03
      7.38007366e-04 3.69003695e-03 7.38007366e-04 0. 0. 1.47601473e-03
      0. 7.38007389e-03 7.38007366e-04 2.21402198e-03 0. 0.
      2.95202946e-03 0. 7.38007366e-04 5.90405893e-03 0. 7.38007366e-04
      0. 0. 0. 0. 0. 1.47601473e-03 0. 6.64206641e-03 0. 2.21402198e-03
      0. 7.38007366e-04 7.38007366e-04 7.38007366e-04 2.95202946e-03 0.
      0. 7.38007366e-04 0. 0. 0. 1.47601473e-03 0. 1.47601473e-03
      2.95202946e-03 0. 0. 1.47601473e-03 0. 0. 7.38007366e-04 0.
      2.21402198e-03 0. 0. 0. 0. 7.38007366e-04 2.06642058e-02 0.
      7.38007366e-04 7.38007366e-04 1.47601473e-03 1.47601473e-03
      7.38007366e-04 7.38007366e-04 7.38007366e-04 0. 0. 0. 0. 0.
      2.95202946e-03 0. 2.95202946e-03 5.16605144e-03 1.03321029e-02
      1.47601473e-03 0. 7.38007366e-04 0. 0. 7.38007366e-04
      1.47601473e-03 0. 7.38007366e-04 0. 7.38007366e-04 1.47601473e-03
      7.38007366e-04 1.47601473e-03 0. 7.38007366e-04 7.38007366e-04
      7.38007366e-04 0. 0. 7.38007366e-04 7.38007366e-04 1.47601473e-03
      0. 0. 0. 7.38007366e-04 7.38007366e-04 0. 0. 0. 7.38007366e-04 0.
      0. 0. 7.38007366e-04 1.47601473e-03 1.47601473e-03 1.47601473e-03
      0. 0. 0. 7.38007366e-04 7.38007366e-04 2.21402198e-03 0.
      7.38007366e-04 7.38007366e-04 7.38007366e-04 1.47601473e-03
      7.38007366e-04 0. 2.95202946e-03 1.47601473e-03 0. 0. 0.
      7.38007366e-04 7.38007366e-04 0. 1.47601473e-03 7.38007366e-04
      2.95202946e-03 0. 3.69003695e-03 0. 1.47601473e-03 0. 0.
      7.38007366e-04 0. 0. 7.38007366e-04 7.38007366e-04 7.38007366e-04
      8.11808091e-03 0. 2.21402198e-03 7.38007366e-04 7.38007366e-04
      7.38007366e-04 0. 0. 7.38007366e-04 0. 5.16605144e-03 0.
      1.47601473e-03 0. 0. 0. 7.38007366e-04 7.38007366e-04 0. 0.
      7.38007366e-04 0. 7.38007366e-04 7.38007366e-04 1.47601473e-03
      7.38007366e-04 0. 0. 1.47601473e-03 0. 0. 0. 0. 0. 0. 0. 0. 0.
      7.38007366e-04 7.38007366e-04 0. 0. 0. 0. 7.38007366e-04 0. 0. 0.
      7.38007366e-04 0. 7.38007366e-04 0. 0. 7.38007366e-04
      1.47601473e-03 0. 0. 7.38007366e-04 7.38007366e-04 0. 0. 0.
      7.38007366e-04 7.38007366e-04 0. 0. 7.38007366e-04 2.21402198e-03
      7.38007366e-04 0. 0. 0. 0. 0. 7.38007366e-04 0. 1.47601473e-03 0.
      9.59409587e-03 4.42804396e-03 0. 2.95202946e-03 0. 0. 0. 0.
      7.38007366e-04 3.69003695e-03 0. 7.38007366e-04 1.47601473e-03 0.
      7.38007366e-04 7.38007366e-04 0. 1.47601473e-03 0. 2.95202946e-03
      7.38007366e-04 2.95202946e-03 0. 7.38007366e-04 0. 0.
      7.38007366e-04 0. 1.47601473e-03 2.95202946e-03 0. 0. 0. 0.
      2.21402198e-03 0. 0. 0. 7.38007366e-04 0. 1.47601473e-03 0. 0.
      2.95202946e-03 7.38007366e-04 0. 0. 0. 0. 0. 7.38007366e-04
      6.64206641e-03 0. 0. 0. 0. 7.38007366e-04 0. 1.47601473e-03 0. 0.
      7.38007366e-04 1.47601473e-03 1.47601473e-03 0. 1.47601473e-03
      7.38007366e-04 7.38007366e-04 0. 1.47601473e-03 0. 0.
      5.16605144e-03 7.38007366e-04 0. 1.10701108e-02 1.47601473e-03 0.
      0. 1.47601473e-03 7.38007366e-04 7.38007366e-04 0. 2.95202946e-03
      0. 3.69003695e-03 0. 0. 7.38007366e-04 0. 1.47601473e-03
      5.90405893e-03 7.38007366e-04 0. 7.38007366e-04 1.47601473e-03
      1.47601473e-03 1.47601473e-03 1.47601473e-03 0. 7.38007366e-04 0.
      7.38007366e-04 0. 0. 7.38007366e-04 0. 2.21402198e-03
      1.47601473e-03 0. 2.21402198e-03 2.21402198e-03 7.38007366e-04
      1.47601473e-03 7.38007366e-04 0. 3.69003695e-03 0. 1.47601473e-03
      1.47601473e-03 0. 0. 1.25461249e-02 7.38007366e-04 0.
      7.38007366e-04 7.38007366e-04 7.38007366e-04 7.38007366e-04 0.
      5.90405893e-03 0. 0. 7.38007366e-04 0. 0. 0. 7.38007366e-04
      1.47601473e-03 0. 7.38007366e-04 1.47601473e-03 7.38007366e-04
      2.21402198e-03 2.21402198e-03 7.38007366e-04 3.69003695e-03 0.
      7.38007366e-04 7.38007366e-04 2.21402198e-03 7.38007366e-04 0.
      1.47601473e-03 1.47601473e-03 7.38007366e-04 0. 7.38007366e-04
      7.38007366e-04 7.38007366e-04 0. 0. 0. 1.47601473e-03
      2.95202946e-03 2.95202946e-03 0. 0. 7.38007366e-04 7.38007366e-04
      0. 7.38007366e-04 7.38007366e-04 7.38007366e-04 2.95202946e-03
      7.38007366e-04 0. 0. 0. 0. 0. 7.38007366e-04 0. 0. 0.
      7.38007366e-04 7.38007366e-04 1.47601473e-03 7.38007366e-04 0.
      7.38007366e-04 0. 4.42804396e-03 0. 0. 0. 0. 0. 2.21402198e-03
      1.47601473e-03 7.38007366e-04 0. 0. 0. 1.47601473e-03 0.
      8.11808091e-03 3.69003695e-03 0. 0. 1.47601473e-03 0.
      1.10701108e-02 4.42804396e-03 7.38007366e-04 7.38007366e-04
      7.38007366e-04 2.21402198e-03 0. 0. 0. 0. 0. 0. 0. 0. 0.
      7.38007366e-04 2.21402198e-03 0. 7.38007366e-04 0. 0. 0.
      7.38007366e-04 0. 1.47601473e-03 7.38007366e-04 1.47601473e-03 0.
      0. 0. 0. 7.38007366e-04 0. 7.38007366e-04 0. 7.38007366e-04 0. 0.
      0. 0. 0. 0. 7.38007366e-04 1.47601473e-03 7.38007366e-04 0. 0.
      1.47601473e-03 7.38007366e-04 7.38007389e-03 0. 0. 1.47601473e-03
      7.38007366e-04 2.95202946e-03 5.90405893e-03 7.38007366e-04
      1.47601473e-03 0. 0. 0. 0. 1.47601473e-03 7.38007366e-04
      2.95202946e-03 7.38007366e-04 7.38007366e-04 0. 0. 7.38007366e-04
      2.95202946e-03 0. 0. 0. 0. 7.38007366e-04 7.38007366e-04
      1.47601473e-03 7.38007366e-04 7.38007366e-04 0. 1.47601473e-03 0.
      3.69003695e-03 7.38007366e-04 0. 0. 5.16605144e-03 7.38007366e-04
      0. 7.38007366e-04 7.38007366e-04 0. 7.38007366e-04 0.
      1.54981548e-02 1.47601473e-03 2.95202946e-03 7.38007366e-04 0. 0.
      7.38007366e-04 7.38007366e-04 7.38007366e-04 0. 7.38007366e-04
      3.69003695e-03 7.38007366e-04 1.47601473e-03 2.21402198e-03 0.
      1.47601473e-03 1.47601473e-03 0. 0. 1.47601473e-03 0.
      1.47601473e-03 7.38007366e-04 0. 7.38007366e-04 1.40221398e-02 0.
      7.38007366e-04 7.38007366e-04 0. 0. 7.38007366e-04 5.16605144e-03
      0. 2.21402198e-03 0. 0. 7.38007366e-04 0. 7.38007366e-04 0. 0. 0.
      1.47601473e-03 0. 7.38007366e-04 0. 0. 1.47601473e-03
      3.69003695e-03 7.38007366e-04 0. 2.21402198e-03 1.47601473e-03
      7.38007366e-04 1.47601473e-03 0. 1.47601473e-03 0. 0.
      1.47601473e-03 4.42804396e-03 5.16605144e-03 0. 0. 0. 0.
      7.38007366e-04 0. 0. 0. 1.47601473e-03 0. 1.47601473e-03 0. 0. 0.
      1.47601473e-03 7.38007366e-04 0. 0. 0. 0. 0. 1.47601473e-03 0. 0.
      2.21402198e-03 0. 0. 2.21402198e-03 0. 7.38007366e-04
      1.47601473e-03 0. 0. 1.47601473e-03 1.47601473e-03 1.47601473e-03
      2.21402198e-03 2.21402198e-03 2.21402198e-03 0. 1.47601473e-03
      1.47601473e-03 1.47601473e-03 0. 0. 0. 0. 2.21402198e-03 0.
      7.38007366e-04 0. 7.38007366e-04 0. 1.47601473e-03 0. 0.
      7.38007366e-04 0. 7.38007366e-04 0. 0. 2.21402198e-03 0. 0. 0.
      2.95202946e-03 0. 1.47601473e-03 0. 0. 7.38007366e-04
      7.38007366e-04 0. 7.38007366e-04 0. 1.47601473e-03 0. 0.
      2.21402198e-03 0. 0. 0. 7.38007366e-04 7.38007366e-04
      1.47601473e-03 0. 0. 0. 0. 0. 0. 1.47601473e-03 0. 0.
      2.21402198e-03 0. 0. 7.38007366e-04 0. 2.21402198e-03
      7.38007366e-04 0. 0. 0. 7.38007366e-04 1.47601473e-03
      5.16605144e-03 0. 7.38007366e-04 0. 1.47601473e-03 1.47601473e-03
      0. 1.47601473e-03 7.38007366e-04 7.38007366e-04 1.47601473e-03
      7.38007366e-04 0. 0. 2.21402198e-03 7.38007366e-04 0.
      7.38007366e-04 0. 1.47601473e-03 7.38007366e-04 1.47601473e-03
      7.38007366e-04 2.21402198e-03 0. 0.</_>
    <_>
      0. 0. 0. 2.54452927e-03 0. 0. 0. 0. 0. 0. 0. 2.54452927e-03 0.
      2.54452927e-03 0. 0. 2.54452927e-03 0. 0. 2.54452927e-03 0.
      2.54452927e-03 0. 0. 2.54452927e-03 0. 0. 0. 0. 0. 0.
      2.54452927e-03 5.08905854e-03 0. 0. 0. 0. 0. 0. 0. 0. 0. 0. 0. 0.
      0. 0. 0. 0. 0. 0. 7.63358781e-03 0. 0. 0. 0. 0. 1.52671756e-02 0.
      2.54452927e-03 0. 0. 0. 0. 0. 0. 2.54452927e-03 0. 0. 0. 0. 0. 0.
      0. 5.08905854e-03 2.54452927e-03 2.54452927e-03 5.08905854e-03 0.
      0. 0. 0. 0. 0. 0. 0. 0. 2.54452927e-03 0. 7.63358781e-03 0.
      2.54452927e-03 0. 7.63358781e-03 0. 0. 2.54452927e-03 0.
      2.54452927e-03 0. 0. 0. 0. 0. 0. 2.54452927e-03 0. 0. 0.
      2.54452927e-03 0. 0. 0. 0. 0. 0. 0. 0. 0. 0. 0. 0. 0. 0.
      5.08905854e-03 2.54452927e-03 0. 0. 0. 0. 0. 5.08905854e-03 0.
      2.54452927e-03 0. 0. 0. 0. 0. 0. 0. 5.08905854e-03 7.63358781e-03
      0. 0. 0. 0. 0. 2.54452927e-03 0. 0. 0. 2.54452927e-03 0. 0. 0. 0.
      0. 0. 0. 0. 0. 0. 0. 2.54452927e-03 0. 2.54452927e-03 0. 0. 0. 0.
      2.54452927e-03 2.54452927e-03 0. 0. 0. 0. 0. 0. 5.08905854e-03 0.
      0. 5.08905854e-03 0. 5.08905854e-03 0. 0. 2.29007639e-02 0. 0. 0.
      2.54452927e-03 0. 0. 0. 0. 0. 0. 0. 0. 0. 0. 5.08905854e-03
      2.54452927e-03 0. 0. 0. 0. 2.54452927e-03 0. 0. 5.08905854e-03 0.
      2.54452927e-03 0. 0. 0. 0. 2.54452927e-03 0. 0. 0. 0. 0. 0. 0. 0.
      5.08905854e-03 0. 0. 0. 0. 0. 0. 2.54452927e-03 0. 2.54452927e-03
      0. 0. 0. 0. 0. 0. 0. 0. 0. 5.08905854e-03 0. 2.54452927e-03
      5.08905854e-03 0. 0. 0. 0. 2.54452927e-03 0. 1.27226468e-02 0. 0.
      0. 0. 0. 0. 5.08905854e-03 0. 0. 1.01781171e-02 0. 2.54452927e-03
      5.08905854e-03 0. 0. 0. 0. 0. 0. 0. 0. 0. 0. 0. 0. 0.
      2.54452927e-03 0. 0. 0. 0. 0. 0. 5.08905854e-03 0. 5.08905854e-03
      2.54452927e-03 0. 0. 2.54452927e-03 0. 0. 5.08905854e-03
      5.08905854e-03 0. 0. 0. 0. 0. 0. 0. 0. 0. 0. 0. 0. 0. 0. 0. 0. 0.
      0. 0. 0. 0. 0. 0. 0. 2.54452927e-03 0. 0. 0. 0. 0. 0. 0. 0. 0. 0.
      0. 2.54452927e-03 0. 0. 0. 2.54452927e-03 0. 0. 5.08905854e-03 0.
      0. 0. 0. 0. 2.54452927e-03 0. 0. 0. 5.08905854e-03 0. 0.
      2.54452927e-03 0. 2.54452927e-03 0. 0. 0. 0. 0. 0. 0. 0. 0. 0.
      2.54452927e-03 0. 0. 5.08905854e-03 0. 5.08905854e-03
      2.54452927e-03 0. 5.08905854e-03 0. 7.63358781e-03 2.54452927e-03
      0. 0. 2.54452927e-03 0. 0. 0. 0. 0. 5.08905854e-03 0. 0.
      2.54452927e-03 0. 2.54452927e-03 0. 2.54452927e-03 2.54452927e-03
      2.54452927e-03 0. 0. 2.54452927e-03 0. 0. 0. 7.63358781e-03
      2.54452927e-03 0. 0. 0. 2.54452927e-03 0. 0. 0. 0. 0. 0. 0.
      7.63358781e-03 2.54452927e-03 0. 0. 0. 0. 0. 0. 0. 0. 0. 0.
      5.08905854e-03 0. 2.54452927e-03 0. 0. 2.54452927e-03 0. 0. 0.
      2.54452927e-03 0. 0. 2.54452927e-03 0. 0. 1.27226468e-02 0. 0. 0.
      0. 0. 0. 0. 0. 0. 2.54452927e-03 0. 0. 0. 0. 2.54452927e-03 0. 0.
      0. 2.54452927e-03 0. 0. 0. 0. 0. 0. 0. 0. 5.08905854e-03 0. 0. 0.
      5.08905854e-03 0. 0. 2.54452927e-03 0. 2.54452927e-03 0. 0.
      2.54452927e-03 0. 0. 5.08905854e-03 7.63358781e-03 0.
      5.08905854e-03 0. 0. 2.54452927e-03 0. 0. 0. 0. 0. 5.08905854e-03
      5.08905854e-03 0. 0. 0. 0. 0. 0. 0. 0. 2.54452927e-03 0. 0.
      2.54452927e-03 0. 0. 0. 0. 0. 0. 0. 2.54452927e-03 0.
      2.54452927e-03 0. 0. 0. 0. 0. 0. 5.08905854e-03 0. 7.63358781e-03
      0. 0. 0. 0. 7.63358781e-03 0. 0. 0. 0. 2.54452927e-03 0. 0.
      5.08905854e-03 0. 0. 0. 0. 0. 1.78117044e-02 0. 0. 0. 0.
      1.01781171e-02 0. 0. 0. 0. 0. 0. 0. 0. 0. 2.54452927e-03 0. 0.
      2.54452927e-03 0. 0. 2.54452927e-03 0. 0. 0. 2.54452927e-03 0. 0.
      0. 0. 2.54452927e-03 2.54452927e-03 0. 0. 0. 0. 0. 0. 0. 0. 0.
      5.08905854e-03 0. 0. 0. 2.54452927e-03 2.54452927e-03
      2.54452927e-03 0. 0. 2.54452927e-03 0. 7.63358781e-03 0. 0. 0. 0.
      0. 0. 0. 0. 0. 0. 0. 0. 0. 7.63358781e-03 0. 2.54452927e-03 0. 0.
      2.54452927e-03 2.54452927e-03 0. 0. 7.63358781e-03 2.54452927e-03
      0. 0. 0. 0. 0. 7.63358781e-03 0. 0. 2.54452927e-03 0. 0. 0. 0. 0.
      2.54452927e-03 2.54452927e-03 0. 0. 0. 0. 0. 0. 1.01781171e-02 0.
      0. 0. 2.54452927e-03 2.54452927e-03 0. 0. 0. 7.63358781e-03 0. 0.
      0. 0. 5.08905854e-03 2.54452927e-03 0. 0. 2.54452927e-03 0. 0. 0.
      0. 0. 5.08905854e-03 2.54452927e-03 2.54452927e-03 7.63358781e-03
      0. 0. 0. 0. 2.54452927e-03 0. 5.08905854e-03 0. 2.54452927e-03 0.
      0. 2.54452927e-03 0. 0. 0. 0. 0. 0. 0. 0. 0. 0. 0. 0. 0. 0. 0. 0.
      0. 0. 0. 0. 0. 0. 2.54452927e-03 0. 2.54452927e-03 0. 0. 0. 0.
      2.54452927e-03 0. 0. 0. 0. 0. 0. 0. 0. 2.54452927e-03 0. 0. 0. 0.
      0. 7.63358781e-03 0. 0. 5.08905854e-03 0. 0. 0. 0. 0. 0. 0. 0. 0.
      0. 0. 2.54452927e-03 0. 0. 0. 0. 0. 0. 0. 0. 2.54452927e-03 0. 0.
      2.54452927e-03 0. 0. 0. 0. 0. 2.54452927e-03 0. 0. 0. 0.
      7.63358781e-03 0. 2.54452927e-03 0. 0. 0. 2.54452927e-03 0.
      1.78117044e-02 0. 0. 0. 0. 0. 2.54452927e-03 0. 0. 0. 0.
      2.29007639e-02 0. 1.27226468e-02 7.63358781e-03 0. 2.54452927e-03
      0. 0. 0. 0. 2.54452927e-03 0. 0. 0. 0. 0. 0. 0. 7.63358781e-03 0.
      0. 0. 0. 5.08905854e-03 7.63358781e-03 2.54452927e-03 0.
      2.54452927e-03 0. 0. 0. 0. 0. 0. 0. 0. 0. 0. 0. 0. 5.08905854e-03
      0. 0. 0. 0. 2.54452927e-03 0. 0. 0. 2.54452927e-03 0.
      2.54452927e-03 0. 2.54452927e-03 2.54452927e-03 0. 0. 0. 0. 0.
      2.54452927e-03 0. 0. 0. 1.27226468e-02 0. 0. 2.54452927e-03 0. 0.
      0. 5.08905854e-03 0. 2.54452927e-03 0. 0. 0. 0. 2.54452927e-03 0.
      0. 0. 0. 5.08905854e-03 0. 5.08905854e-03 0. 0. 5.08905854e-03 0.
      0. 5.08905854e-03 2.54452927e-03 2.54452927e-03 0. 0. 0. 0. 0. 0.
      0. 0. 2.54452927e-03 2.54452927e-03 0. 0. 0. 0. 0. 0. 0. 0. 0. 0.
      0. 0. 0. 0. 0. 1.01781171e-02 0. 0. 0. 2.54452927e-03
      2.54452927e-03 5.08905854e-03 0. 5.08905854e-03 0. 0. 0. 0. 0. 0.
      0. 0. 7.63358781e-03 0. 0. 2.54452927e-03 1.27226468e-02 0. 0. 0.
      0. 0. 0. 0. 0. 0. 0. 5.08905854e-03 2.54452927e-03 0. 0. 0. 0.
      2.54452927e-03 2.54452927e-03 0. 0. 2.54452927e-03 0. 0. 0. 0. 0.
      0. 0. 5.08905854e-03 2.54452927e-03 2.54452927e-03 0. 0. 0. 0. 0.
      0. 0. 0. 0. 0. 0. 0. 0. 0. 2.54452927e-03 2.54452927e-03
      1.01781171e-02 0. 0. 0. 0. 0. 0. 0. 0. 0. 0. 0. 0. 0. 0. 0.
      2.54452927e-03 5.08905854e-03 0. 0.</_>
    <_>
      0. 6.78426062e-04 6.78426062e-04 0. 0. 0. 6.78426062e-04
      1.35685212e-03 0. 1.35685212e-03 4.07055626e-03 0. 2.71370425e-03
      0. 0. 6.78426062e-04 6.78426062e-04 0. 0. 1.35685212e-03
      1.35685212e-03 6.78426062e-04 6.78426062e-04 6.78426062e-04
      1.35685212e-03 6.78426062e-04 1.35685212e-03 6.78426062e-04 0. 0.
      4.07055626e-03 0. 6.78426062e-04 0. 0. 0. 6.78426062e-04 0. 0.
      1.35685212e-03 0. 6.78426062e-04 6.78426062e-04 0. 0. 0.
      6.78426062e-04 6.78426062e-04 2.03527813e-03 0. 1.35685212e-03
      6.78426062e-04 0. 6.78426062e-04 0. 6.78426062e-04 0.
      1.35685212e-03 0. 6.78426062e-04 6.78426062e-04 2.03527813e-03
      1.35685212e-03 0. 0. 0. 6.78426062e-04 2.03527813e-03
      1.35685212e-03 4.07055626e-03 0. 6.78426062e-04 0. 6.78426062e-04
      2.71370425e-03 3.39213037e-03 0. 8.14111251e-03 0. 0. 0. 0. 0.
      1.35685212e-03 0. 0. 4.07055626e-03 0. 0. 4.07055626e-03 0.
      6.78426062e-04 1.35685212e-03 6.78426062e-04 6.78426062e-04
      3.39213037e-03 6.78426062e-04 0. 1.35685212e-03 0. 6.78426062e-04
      0. 0. 2.03527813e-03 0. 0. 0. 0. 0. 1.35685212e-03 0.
      6.78426062e-04 0. 2.03527813e-03 0. 0. 1.35685212e-03 0.
      1.35685212e-03 0. 2.03527813e-03 0. 0. 0. 4.07055626e-03 0. 0.
      6.78426062e-04 6.78426062e-04 0. 6.78426062e-04 0. 0.
      6.78426062e-04 0. 0. 0. 1.35685212e-03 0. 0. 6.78426062e-04
      4.74898238e-03 6.78426062e-04 6.10583462e-03 0. 6.78426062e-04
      1.35685212e-03 6.78426062e-04 1.35685212e-03 3.39213037e-03 0. 0.
      1.35685212e-03 0. 0. 5.42740850e-03 0. 0. 6.10583462e-03 0.
      2.71370425e-03 6.78426062e-04 0. 6.78426074e-03 3.39213037e-03
      1.35685212e-03 0. 1.01763913e-02 6.78426062e-04 0. 0.
      1.35685212e-03 0. 1.35685212e-03 0. 0. 0. 6.78426062e-04 0.
      6.78426062e-04 0. 0. 6.78426062e-04 0. 0. 2.71370425e-03 0.
      1.35685212e-03 2.71370425e-03 0. 1.35685212e-03 0. 1.35685212e-03
      6.78426062e-04 0. 0. 0. 0. 6.78426062e-04 1.35685212e-03
      2.03527813e-03 2.03527813e-03 6.78426062e-04 1.35685212e-03
      6.78426062e-04 6.78426062e-04 6.78426062e-04 0. 1.35685212e-03
      3.39213037e-03 1.35685212e-03 2.71370425e-03 0. 6.78426062e-04
      1.35685212e-03 1.01763913e-02 6.78426062e-04 2.03527813e-03
      1.35685212e-03 6.78426062e-04 2.03527813e-03 0. 1.35685212e-03
      2.03527813e-03 0. 0. 3.39213037e-03 0. 1.35685212e-03 0.
      1.35685212e-03 0. 0. 6.78426062e-04 1.35685212e-03 0. 0. 0. 0.
      6.78426062e-04 1.35685212e-03 0. 1.35685212e-03 0. 0.
      6.78426062e-04 0. 2.03527813e-03 2.03527813e-03 6.78426062e-04
      2.03527813e-03 1.35685212e-03 6.78426062e-04 6.78426062e-04 0. 0.
      0. 0. 1.35685212e-03 1.35685212e-03 6.78426062e-04 0.
      2.03527813e-03 0. 0. 0. 6.78426074e-03 0. 0. 1.35685212e-03 0. 0.
      1.35685212e-03 2.71370425e-03 0. 1.35685212e-03 3.39213037e-03
      6.78426062e-04 0. 0. 6.78426062e-04 6.78426062e-04 0. 0.
      6.78426062e-04 2.03527813e-03 6.78426062e-04 6.78426062e-04 0.
      2.03527813e-03 1.35685212e-03 1.35685212e-03 4.07055626e-03
      2.03527813e-03 0. 0. 3.39213037e-03 1.35685212e-03 0.
      4.07055626e-03 6.78426062e-04 6.78426074e-03 0. 0. 1.35685212e-03
      0. 1.35685212e-03 0. 2.03527813e-03 0. 2.03527813e-03
      1.35685212e-03 0. 6.78426062e-04 2.03527813e-03 2.03527813e-03 0.
      2.03527813e-03 1.35685212e-03 2.71370425e-03 1.35685212e-03 0.
      1.35685212e-03 0. 0. 2.03527813e-03 0. 3.39213037e-03 0.
      3.39213037e-03 1.35685212e-03 6.78426062e-04 2.03527813e-03 0.
      1.35685212e-03 0. 0. 2.03527813e-03 0. 2.03527813e-03
      6.78426062e-04 1.35685212e-03 4.07055626e-03 4.07055626e-03 0.
      6.78426062e-04 0. 0. 2.03527813e-03 1.35685212e-03 2.71370425e-03
      0. 1.35685212e-03 0. 0. 0. 0. 0. 4.74898238e-03 1.35685212e-03 0.
      6.78426062e-04 0. 0. 0. 0. 0. 0. 4.07055626e-03 0. 1.35685212e-03
      6.78426062e-04 1.35685212e-03 6.78426062e-04 0. 0. 1.35685212e-03
      2.03527813e-03 6.78426062e-04 6.78426062e-04 1.35685212e-03
      6.78426062e-04 0. 6.78426062e-04 0. 6.78426062e-04 0.
      1.35685212e-03 2.03527813e-03 0. 0. 0. 4.74898238e-03
      2.71370425e-03 0. 0. 2.71370425e-03 3.39213037e-03 0.
      1.35685212e-03 6.78426062e-04 0. 6.78426062e-04 6.78426062e-04
      1.35685212e-03 0. 2.03527813e-03 2.71370425e-03 2.71370425e-03 0.
      0. 1.35685212e-03 6.78426062e-04 0. 1.35685212e-03 0. 0.
      6.78426062e-04 0. 0. 0. 0. 2.03527813e-03 6.78426062e-04 0.
      6.78426062e-04 0. 6.78426062e-04 0. 5.42740850e-03 2.03527813e-03
      2.03527813e-03 2.03527813e-03 0. 4.07055626e-03 0. 6.78426062e-04
      1.35685212e-03 2.03527813e-03 0. 0. 2.03527813e-03 0.
      2.71370425e-03 0. 0. 2.71370425e-03 2.03527813e-03 4.07055626e-03
      0. 0. 0. 0. 0. 6.78426062e-04 2.71370425e-03 6.78426062e-04 0.
      1.35685212e-03 1.35685212e-03 0. 1.35685212e-03 0. 6.78426062e-04
      6.78426062e-04 1.35685212e-03 0. 0. 0. 2.03527813e-03 0. 0.
      2.03527813e-03 2.03527813e-03 0. 0. 0. 0. 1.35685212e-03 0. 0.
      1.35685212e-03 1.35685212e-03 6.78426062e-04 0. 0. 2.03527813e-03
      1.35685212e-03 6.78426062e-04 0. 1.35685212e-03 0. 6.78426062e-04
      0. 1.35685212e-03 6.78426062e-04 0. 1.35685212e-03 1.35685212e-03
      6.78426062e-04 4.07055626e-03 2.03527813e-03 0. 6.78426062e-04 0.
      1.35685212e-03 0. 0. 4.07055626e-03 0. 0. 2.03527813e-03
      2.03527813e-03 2.71370425e-03 1.35685212e-03 2.03527813e-03 0.
      1.35685212e-03 1.35685212e-03 6.10583462e-03 6.78426062e-04 0.
      6.78426062e-04 2.03527813e-03 1.35685212e-03 2.03527813e-03 0. 0.
      0. 2.71370425e-03 0. 6.78426062e-04 0. 1.35685212e-03
      2.03527813e-03 2.03527813e-03 0. 0. 0. 2.03527813e-03 0. 0. 0.
      2.71370425e-03 0. 6.78426062e-04 6.78426062e-04 0. 1.35685212e-03
      0. 0. 6.78426062e-04 6.78426062e-04 2.71370425e-03 0.
      3.39213037e-03 0. 1.35685212e-03 2.03527813e-03 0. 6.78426062e-04
      0. 2.03527813e-03 2.03527813e-03 1.35685212e-03 0. 1.35685212e-03
      6.78426062e-04 1.35685212e-03 7.46268686e-03 1.35685212e-03 0. 0.
      6.78426062e-04 0. 2.71370425e-03 0. 6.78426062e-04 2.03527813e-03
      0. 6.78426062e-04 0. 2.71370425e-03 0. 4.07055626e-03
      1.35685212e-03 0. 0. 0. 8.81953910e-03 0. 0. 0. 1.35685212e-03
      6.78426062e-04 0. 0. 6.78426062e-04 1.35685212e-03 0.
      1.35685212e-03 0. 1.35685212e-03 0. 2.03527813e-03 6.78426062e-04
      6.78426062e-04 6.78426062e-04 2.71370425e-03 0. 0. 1.35685212e-03
      1.35685212e-03 6.78426062e-04 2.71370425e-03 2.03527813e-03 0.
      2.03527813e-03 6.78426062e-04 4.07055626e-03 1.35685212e-03 0. 0.
      1.35685212e-03 0. 1.35685212e-03 6.78426062e-04 2.71370425e-03 0.
      1.35685212e-03 6.78426062e-04 6.78426062e-04 1.35685212e-03
      6.78426062e-04 1.35685212e-03 3.39213037e-03 0. 1.35685212e-03
      6.78426062e-04 1.35685212e-03 1.35685212e-03 6.78426062e-04 0.
      1.35685212e-03 3.39213037e-03 0. 3.39213037e-03 1.35685212e-03
      6.78426062e-04 0. 1.35685212e-03 6.78426062e-04 0. 6.78426062e-04
      6.78426062e-04 6.78426062e-04 0. 0. 0. 0. 0. 0. 1.35685212e-03
      1.35685212e-03 2.03527813e-03 0. 6.78426062e-04 1.35685212e-03
      6.78426062e-04 2.03527813e-03 2.03527813e-03 1.35685212e-03 0. 0.
      0. 6.78426062e-04 1.35685212e-03 6.78426062e-04 0. 6.78426062e-04
      0. 6.78426062e-04 2.03527813e-03 2.71370425e-03 0. 1.35685212e-03
      0. 1.35685212e-03 1.35685212e-03 1.35685212e-03 2.03527813e-03 0.
      0. 6.78426062e-04 6.78426062e-04 0. 6.78426062e-04 2.03527813e-03
      0. 0. 6.78426062e-04 4.07055626e-03 2.71370425e-03 0.
      1.35685212e-03 0. 6.78426062e-04 1.35685212e-03 0. 2.71370425e-03
      6.78426062e-04 0. 0. 6.78426062e-04 6.78426062e-04 6.78426062e-04
      6.78426062e-04 1.35685212e-03 0. 6.78426062e-04 1.35685212e-03 0.
      6.78426062e-04 0. 6.78426062e-04 6.78426062e-04 5.42740850e-03 0.
      6.78426062e-04 0. 1.35685212e-03 0. 0. 6.78426062e-04 0.
      1.35685212e-03 1.35685212e-03 0. 6.78426062e-04 0. 6.78426062e-04
      3.39213037e-03 6.78426062e-04 0. 1.35685212e-03 0. 0. 0.
      4.07055626e-03 6.78426062e-04 0. 0. 6.78426062e-04 6.78426062e-04
      0. 3.39213037e-03 2.71370425e-03 0. 1.08548170e-02 0.
      1.35685212e-03 1.35685212e-03 0. 2.03527813e-03 0. 1.35685212e-03
      0. 0. 2.03527813e-03 1.35685212e-03 2.03527813e-03 2.03527813e-03
      0. 6.78426062e-04 6.78426062e-04 2.03527813e-03 0. 0.
      1.35685212e-03 1.35685212e-03 2.71370425e-03 2.03527813e-03 0.
      2.71370425e-03 0. 0. 0. 2.03527813e-03 0. 1.35685212e-03
      6.78426062e-04 2.71370425e-03 1.35685212e-03 0. 4.07055626e-03
      2.71370425e-03 6.78426062e-04 0. 1.35685212e-03 0. 0.
      6.78426062e-04 6.78426062e-04 0. 0. 1.35685212e-03 0. 0.
      6.78426062e-04 0. 1.35685212e-03 0. 6.78426062e-04 6.78426062e-04
      0. 6.78426062e-04 1.35685212e-03 0. 1.35685212e-03 1.35685212e-03
      3.39213037e-03 0. 0. 1.35685212e-03 2.03527813e-03 0.
      6.78426062e-04 0. 2.03527813e-03 0. 2.71370425e-03 6.78426062e-04
      2.03527813e-03 1.35685212e-03 0. 0. 6.78426062e-04 2.71370425e-03
      2.03527813e-03 0. 6.78426062e-04 2.71370425e-03 2.03527813e-03 0.
      2.71370425e-03 1.35685212e-03 1.35685212e-03 6.78426062e-04
      6.78426062e-04 6.78426062e-04 0. 0. 6.10583462e-03 2.03527813e-03
      3.39213037e-03 0. 1.35685212e-03 2.03527813e-03 4.07055626e-03
      5.42740850e-03 6.78426062e-04 0. 0. 2.03527813e-03 0. 0.
      3.39213037e-03 2.03527813e-03 6.78426062e-04 6.78426062e-04
      3.39213037e-03 1.35685212e-03 0. 0. 0. 6.78426062e-04 0. 0.
      6.78426062e-04 2.71370425e-03 1.35685212e-03 6.78426062e-04
      6.78426062e-04 1.35685212e-03 1.35685212e-03 1.35685212e-03
      1.35685212e-03 0. 6.78426062e-04 4.74898238e-03 1.35685212e-03 0.
      6.78426062e-04 0. 1.35685212e-03 0. 6.78426062e-04 0.
      6.78426062e-04 0. 1.35685212e-03 0. 6.78426062e-04 6.78426062e-04
      0. 1.35685212e-03 0. 4.74898238e-03 0. 0. 6.78426062e-04
      2.03527813e-03 1.35685212e-03 0. 1.35685212e-03 6.78426062e-04
      6.78426062e-04 0. 0. 6.78426062e-04 6.78426062e-04 6.78426062e-04
      6.78426062e-04 0. 1.35685212e-03 1.35685212e-03 2.71370425e-03
      6.78426062e-04 1.35685212e-03 6.78426062e-04 2.03527813e-03
      6.78426062e-04 6.78426062e-04 6.78426062e-04 0. 6.78426062e-04
      6.78426062e-04 1.35685212e-03 2.03527813e-03 6.78426062e-04 0.
      6.78426062e-04 6.78426062e-04 6.78426062e-04 1.35685212e-03 0. 0.
      0. 6.78426062e-04 0. 0. 1.35685212e-03 2.03527813e-03
      2.03527813e-03 1.35685212e-03 6.78426062e-04 0. 0. 6.78426062e-04
      6.78426062e-04 0. 1.35685212e-03 2.71370425e-03 1.35685212e-03 0.
      2.03527813e-03 0. 6.78426062e-04 4.07055626e-03 0. 0. 0. 0. 0.
      6.78426062e-04 2.03527813e-03 1.35685212e-03 3.39213037e-03
      1.35685212e-03 6.78426062e-04 4.07055626e-03 6.78426062e-04
      2.03527813e-03 1.35685212e-03 1.35685212e-03 1.35685212e-03
      1.35685212e-03 0. 0. 2.03527813e-03 1.35685212e-03 1.35685212e-03
      2.03527813e-03 1.35685212e-03 0. 0. 1.35685212e-03 4.07055626e-03
      1.35685212e-03 1.35685212e-03</_>
    <_>
      0. 0. 0. 0. 0. 0. 0. 0. 0. 0. 0. 0. 0. 0. 0. 0. 0. 0. 0. 0. 0. 0.
      3.49650346e-02 0. 0. 0. 0. 0. 0. 6.99300691e-03 6.99300691e-03 0.
      0. 0. 0. 0. 0. 0. 0. 0. 0. 0. 0. 0. 0. 0. 0. 0. 0. 0. 0. 0. 0. 0.
      0. 0. 0. 0. 0. 0. 0. 1.39860138e-02 0. 0. 0. 0. 0. 6.99300691e-03
      0. 0. 0. 0. 0. 0. 0. 0. 0. 0. 0. 0. 0. 0. 0. 0. 0. 0.
      1.39860138e-02 0. 0. 0. 0. 6.99300691e-03 0. 0. 0. 0. 0. 0. 0. 0.
      0. 0. 1.39860138e-02 0. 0. 0. 0. 0. 0. 0. 0. 0. 0. 0. 0. 0. 0. 0.
      0. 0. 0. 0. 0. 6.99300691e-03 0. 0. 0. 0. 0. 0. 0. 0. 0. 0.
      6.99300691e-03 6.99300691e-03 0. 0. 0. 0. 0. 0. 0. 0. 0.
      6.99300691e-03 0. 0. 6.99300691e-03 0. 0. 0. 0. 0. 0. 0. 0. 0. 0.
      0. 0. 0. 0. 0. 0. 0. 0. 2.09790207e-02 0. 0. 0. 0. 0. 0. 0. 0. 0.
      0. 0. 0. 0. 0. 0. 0. 0. 0. 0. 0. 0. 0. 0. 0. 0. 0. 0. 0. 0. 0. 0.
      0. 0. 4.89510484e-02 0. 0. 0. 0. 0. 0. 0. 0. 0. 0. 0. 0. 0. 0. 0.
      0. 0. 0. 0. 0. 6.99300691e-03 0. 0. 0. 0. 0. 0. 6.99300691e-03 0.
      0. 0. 0. 2.09790207e-02 0. 0. 0. 0. 0. 6.99300691e-03 0. 0. 0. 0.
      0. 0. 0. 0. 0. 0. 0. 0. 0. 0. 0. 0. 0. 6.99300691e-03 0. 0. 0. 0.
      0. 0. 0. 0. 0. 0. 0. 0. 0. 0. 0. 0. 2.79720277e-02 0. 0. 0. 0.
      6.99300691e-03 0. 0. 6.99300691e-03 0. 0. 0. 0. 0. 0.
      1.39860138e-02 0. 0. 0. 0. 0. 6.99300691e-03 0. 0. 0. 0. 0. 0. 0.
      0. 0. 0. 0. 0. 1.39860138e-02 0. 0. 0. 0. 1.39860138e-02 0. 0.
      2.09790207e-02 6.99300691e-03 0. 2.79720277e-02 0. 0. 0. 0. 0.
      2.79720277e-02 1.39860138e-02 0. 6.99300691e-03 0. 0. 0. 0. 0. 0.
      0. 6.99300691e-03 0. 0. 6.99300691e-03 0. 0. 0. 0. 0. 0. 0. 0. 0.
      0. 0. 0. 0. 6.99300691e-03 0. 0. 0. 0. 0. 0. 0. 0. 0. 0. 0. 0. 0.
      1.39860138e-02 0. 0. 0. 0. 0. 0. 0. 0. 0. 6.99300691e-03 0. 0. 0.
      0. 0. 0. 0. 0. 0. 0. 0. 0. 0. 0. 0. 0. 0. 0. 0. 0. 0. 0. 0. 0. 0.
      0. 0. 0. 0. 0. 0. 0. 0. 0. 0. 2.09790207e-02 0. 0. 0. 0. 0. 0. 0.
      0. 0. 0. 0. 0. 0. 0. 0. 0. 0. 0. 0. 0. 0. 0. 6.99300691e-03 0. 0.
      0. 0. 0. 0. 0. 0. 0. 6.99300691e-03 6.99300691e-03 0. 0. 0. 0. 0.
      0. 0. 0. 0. 6.99300691e-03 0. 0. 0. 0. 0. 0. 0. 0. 0. 0.
      6.99300691e-03 0. 0. 0. 0. 6.99300691e-03 0. 0. 0. 0. 0. 0.
      2.09790207e-02 0. 0. 0. 0. 0. 0. 0. 0. 0. 0. 0. 0. 0. 0. 0. 0. 0.
      0. 0. 0. 0. 0. 0. 0. 0. 0. 0. 0. 0. 0. 0. 0. 0. 0. 0. 0. 0.
      1.39860138e-02 0. 0. 0. 0. 0. 0. 0. 0. 0. 0. 0. 0. 0.
      1.39860138e-02 0. 0. 0. 0. 0. 0. 0. 0. 0. 0. 0. 0. 0. 0. 0. 0. 0.
      2.09790207e-02 6.99300691e-03 0. 0. 0. 0. 0. 6.99300691e-03 0. 0.
      0. 0. 1.39860138e-02 0. 0. 0. 0. 0. 0. 0. 0. 0. 0. 0. 0. 0.
      6.99300691e-03 0. 0. 0. 0. 0. 0. 6.99300691e-03 0. 0. 0. 0. 0.
      6.99300691e-03 0. 0. 0. 0. 0. 0. 0. 0. 0. 0. 0. 0. 0. 0. 0. 0. 0.
      0. 0. 0. 0. 0. 0. 0. 0. 0. 0. 0. 0. 0. 0. 1.39860138e-02 0. 0. 0.
      6.99300691e-03 0. 6.99300691e-03 0. 0. 0. 0. 0. 0. 0. 0. 0. 0. 0.
      0. 6.99300691e-03 0. 0. 0. 0. 0. 0. 0. 0. 0. 0. 0. 0. 0. 0. 0. 0.
      0. 0. 0. 0. 0. 0. 0. 0. 0. 0. 0. 0. 0. 0. 0. 0. 0. 0. 0. 0. 0. 0.
      0. 0. 0. 0. 0. 0. 0. 0. 0. 0. 0. 0. 0. 0. 0. 0. 0. 0. 0. 0.
      6.99300691e-03 0. 0. 0. 0. 0. 0. 0. 0. 0. 0. 1.39860138e-02 0. 0.
      0. 0. 0. 0. 0. 0. 0. 0. 6.99300691e-03 0. 0. 0. 6.99300691e-03 0.
      0. 0. 0. 0. 0. 0. 0. 0. 0. 0. 0. 0. 0. 0. 0. 0. 0. 0. 0. 0. 0. 0.
      0. 0. 0. 0. 0. 2.09790207e-02 0. 0. 0. 0. 0. 0. 0. 0. 0. 0. 0. 0.
      0. 0. 0. 0. 0. 0. 0. 0. 0. 0. 0. 0. 6.99300691e-03 0. 0. 0. 0. 0.
      0. 6.99300691e-03 0. 0. 0. 0. 0. 0. 6.99300691e-03 0. 0. 0. 0. 0.
      0. 0. 0. 0. 0. 0. 6.99300691e-03 0. 0. 0. 0. 0. 0. 0. 0. 0. 0. 0.
      0. 0. 0. 0. 0. 0. 0. 0. 0. 0. 0. 0. 0. 0. 0. 0. 0. 0.
      6.99300691e-03 0. 6.99300691e-03 0. 0. 0. 0. 0. 0. 0.
      6.99300691e-03 2.09790207e-02 0. 0. 0. 0. 0. 0. 0. 0. 0. 0. 0. 0.
      0. 0. 0. 0. 0. 0. 0. 0. 0. 0. 0. 0. 0. 0. 0. 0. 0. 0. 0. 0. 0. 0.
      0. 0. 0. 6.99300691e-03 0. 1.39860138e-02 0. 0. 0. 0. 0. 0. 0. 0.
      0. 6.99300691e-03 0. 0. 0. 0. 0. 0. 0. 0. 0. 0. 0. 6.99300691e-03
      0. 0. 0. 0. 0. 0. 0. 0. 0. 0. 0. 0. 0. 0. 0. 0. 2.09790207e-02 0.
      0. 0. 0. 0. 0. 0. 0. 0. 0. 6.99300691e-03 0. 0. 0. 0. 0. 0.
      4.89510484e-02 0. 0. 0. 0. 0. 0. 0. 0. 0. 0. 0. 0. 0. 0. 0. 0. 0.
      0. 0. 0. 0. 0. 0. 0. 0. 0. 0. 0. 0. 0. 4.19580415e-02
      6.99300691e-03 0. 0. 0. 0. 0. 0. 0. 0. 0. 0. 0. 0. 0. 0. 0. 0. 0.
      0. 0. 0. 0. 0. 0.</_>
    <_>
      0. 0. 0. 0. 0. 0. 2.99401209e-03 0. 0. 0. 2.99401209e-03 0. 0.
      5.98802418e-03 0. 2.99401209e-03 0. 0. 0. 0. 0. 0. 5.98802418e-03
      0. 0. 0. 0. 0. 0. 0. 0. 0. 0. 0. 0. 0. 0. 0. 0. 0. 0. 0. 0. 0. 0.
      0. 0. 0. 0. 0. 0. 0. 0. 0. 0. 0. 0. 0. 0. 0. 0. 2.99401209e-03 0.
      0. 0. 0. 2.99401209e-03 0. 0. 2.99401209e-03 0. 0. 0. 0. 0. 0. 0.
      2.99401209e-03 0. 0. 0. 0. 0. 0. 0. 0. 0. 0. 0. 0. 0. 0. 0. 0. 0.
      0. 1.79640725e-02 0. 0. 0. 0. 0. 0. 0. 0. 0. 0. 0. 0. 0. 0. 0. 0.
      0. 0. 0. 0. 0. 5.98802418e-03 0. 0. 1.19760484e-02 0. 0.
      5.98802418e-03 8.98203626e-03 5.98802418e-03 0. 0. 0. 0. 0. 0.
      2.99401209e-03 2.99401209e-03 0. 0. 0. 2.99401209e-03 0. 0. 0.
      1.79640725e-02 0. 0. 0. 0. 0. 0. 2.99401209e-03 0. 0. 0. 0. 0. 0.
      0. 0. 1.19760484e-02 0. 0. 0. 0. 0. 0. 5.98802418e-03
      2.99401209e-03 2.99401209e-03 0. 0. 0. 0. 0. 0. 0. 0. 0. 0. 0. 0.
      0. 8.98203626e-03 0. 0. 0. 0. 0. 2.99401209e-03 0. 0.
      5.98802418e-03 0. 0. 0. 0. 0. 0. 0. 0. 0. 0. 5.68862297e-02 0. 0.
      0. 0. 0. 0. 0. 0. 0. 8.98203626e-03 2.99401209e-03 0. 0.
      5.98802418e-03 0. 0. 0. 0. 0. 0. 0. 0. 0. 0. 0. 0. 0. 0. 0. 0. 0.
      0. 2.99401209e-03 0. 2.99401209e-03 0. 0. 0. 2.99401209e-03 0. 0.
      0. 0. 0. 0. 0. 0. 0. 0. 0. 0. 0. 0. 0. 0. 2.99401209e-03 0. 0. 0.
      0. 0. 0. 0. 0. 1.19760484e-02 0. 0. 0. 2.99401209e-03
      1.49700604e-02 0. 0. 0. 2.99401209e-03 0. 0. 0. 5.98802418e-03 0.
      0. 0. 0. 0. 0. 0. 0. 0. 2.99401209e-03 1.49700604e-02
      5.98802418e-03 2.99401209e-03 0. 0. 0. 5.98802418e-03 0. 0. 0. 0.
      1.79640725e-02 0. 0. 0. 0. 2.99401209e-03 0. 0. 8.98203626e-03
      2.99401209e-03 2.99401209e-03 0. 0. 8.98203626e-03 0.
      2.99401209e-03 0. 2.99401209e-03 0. 9.88024026e-02 0. 0. 0. 0. 0.
      0. 2.39520967e-02 0. 2.99401209e-03 0. 0. 0. 0. 0. 0. 0. 0. 0. 0.
      0. 2.99401209e-03 0. 0. 0. 0. 0. 0. 0. 0. 0. 0. 0. 0. 0. 0. 0. 0.
      0. 2.99401209e-03 0. 0. 0. 2.99401209e-03 0. 0. 0. 0. 0. 0. 0. 0.
      0. 2.99401209e-03 0. 0. 0. 0. 8.98203626e-03 0. 0. 0. 0. 0. 0. 0.
      0. 0. 0. 0. 0. 0. 1.19760484e-02 0. 0. 0. 0. 0. 0. 0. 0. 0. 0. 0.
      0. 0. 0. 0. 0. 0. 0. 2.99401209e-03 0. 0. 8.98203626e-03 0. 0. 0.
      0. 0. 0. 0. 0. 2.99401209e-03 0. 0. 0. 0. 2.99401209e-03 0. 0. 0.
      0. 0. 0. 0. 0. 0. 0. 0. 0. 0. 0. 0. 0. 0. 2.99401209e-03 0.
      2.99401209e-03 0. 0. 0. 0. 0. 0. 0. 0. 0. 0. 5.98802418e-03 0. 0.
      0. 0. 0. 0. 0. 0. 0. 0. 0. 0. 0. 0. 2.99401209e-03 0. 0. 0. 0. 0.
      0. 2.99401209e-03 0. 0. 0. 0. 0. 0. 0. 0. 5.98802418e-03 0.
      2.99401209e-03 0. 0. 0. 0. 0. 0. 0. 5.98802418e-03 2.99401209e-03
      2.99401209e-03 0. 0. 0. 0. 0. 0. 0. 0. 0. 0. 0. 0. 0. 0. 0. 0. 0.
      0. 0. 0. 0. 0. 0. 0. 0. 0. 2.99401209e-03 0. 0. 0. 0.
      2.99401209e-03 0. 0. 0. 0. 0. 0. 0. 0. 0. 0. 0. 0. 0.
      8.98203626e-03 0. 0. 0. 8.98203626e-03 0. 0. 0. 0. 2.99401209e-03
      0. 0. 0. 0. 0. 0. 0. 0. 2.99401209e-03 0. 2.99401209e-03 0. 0. 0.
      0. 2.99401209e-03 0. 0. 0. 0. 0. 0. 0. 0. 0. 0. 2.99401209e-03 0.
      0. 0. 0. 1.79640725e-02 0. 0. 0. 0. 0. 0. 0. 0. 0. 0. 0. 0. 0. 0.
      0. 0. 0. 0. 0. 0. 2.99401209e-03 0. 2.99401209e-03 8.98203626e-03
      0. 0. 0. 0. 8.98203626e-03 2.09580846e-02 0. 0. 0. 2.99401209e-03
      0. 0. 0. 2.09580846e-02 0. 0. 2.99401209e-03 0. 2.99401209e-03 0.
      2.99401209e-03 0. 0. 0. 0. 0. 0. 0. 0. 5.98802418e-03
      2.99401209e-03 0. 2.99401209e-03 0. 0. 0. 2.99401209e-03
      5.98802418e-03 0. 0. 0. 0. 0. 0. 0. 0. 0. 0. 2.99401209e-03 0. 0.
      0. 0. 0. 0. 0. 0. 0. 0. 0. 0. 2.99401209e-03 5.98802418e-03 0.
      1.79640725e-02 0. 0. 0. 2.99401209e-03 0. 0. 2.99401209e-03 0. 0.
      0. 0. 8.98203626e-03 0. 0. 0. 0. 0. 0. 0. 0. 0. 0. 0. 0. 0.
      5.98802418e-03 0. 0. 2.99401209e-03 0. 0. 0. 0. 0. 0. 0. 0. 0. 0.
      0. 0. 0. 0. 0. 0. 0. 0. 5.98802418e-03 5.98802418e-03 0. 0. 0. 0.
      0. 0. 0. 0. 0. 0. 2.99401209e-03 0. 0. 0. 0. 0. 0. 0. 0.
      2.99401209e-03 0. 0. 2.99401209e-03 0. 0. 0. 0. 0. 2.99401209e-03
      0. 2.99401209e-03 0. 0. 0. 0. 0. 0. 0. 0. 0. 0. 0. 0. 0. 0.
      8.98203626e-03 0. 2.99401209e-03 0. 0. 0. 0. 0. 8.98203626e-03 0.
      0. 0. 0. 0. 0. 0. 0. 2.99401209e-03 0. 2.99401209e-03 0. 0.
      2.99401209e-03 0. 0. 0. 0. 2.99401209e-03 0. 0. 0. 0. 0. 0. 0. 0.
      8.98203626e-03 2.99401209e-03 2.99401209e-03 0. 0. 0. 0. 0. 0. 0.
      0. 0. 2.99401209e-03 0. 0. 0. 0. 0. 0. 0. 0. 2.99401209e-03 0. 0.
      0. 0. 0. 2.99401209e-03 0. 0. 0. 0. 2.99401209e-03 0. 0. 0. 0. 0.
      0. 0. 0. 0. 0. 0. 0. 0. 0. 2.99401209e-03 0. 0. 0. 0. 0. 0. 0. 0.
      2.99401209e-03 0. 0. 2.99401209e-03 0. 0. 0. 0. 0. 0. 0. 0. 0. 0.
      0. 0. 2.99401209e-03 0. 0. 0. 0. 0. 2.99401209e-03 0. 0. 0. 0. 0.
      0. 0. 0. 0. 0. 0. 0. 0. 0. 0. 0. 0. 0. 0. 2.99401209e-03 0. 0.
      2.99401209e-03 2.99401209e-03 0. 0. 0. 2.99401209e-03 0.
      2.99401209e-03 0. 0. 0. 0. 0. 0. 0. 0. 0. 0. 0. 0. 0.
      2.99401209e-03 5.98802418e-03 0. 0. 0. 0. 2.99401209e-03 0. 0. 0.
      0. 0. 0. 5.38922176e-02 0. 0. 0. 0. 0. 0. 0. 0. 2.99401209e-03 0.
      0. 0. 0. 0. 0. 1.19760484e-02 0. 0. 0. 0. 0. 0. 0. 0. 0. 0. 0. 0.
      0. 0. 2.99401209e-03 0. 0. 0. 0. 0. 0. 0. 0. 0. 0. 0. 0. 0. 0. 0.
      0. 0. 0. 0. 0. 0. 2.99401209e-03 0. 0.</_>
    <_>
      0. 0. 0. 0. 0. 0. 0. 0. 0. 0. 1.84842886e-03 0. 0. 0.
      2.77264323e-03 1.84842886e-03 0. 0. 0. 0. 0. 9.24214430e-04
      9.24214430e-04 0. 1.84842886e-03 1.84842886e-03 0. 9.24214430e-04
      1.84842886e-03 0. 1.84842886e-03 3.69685772e-03 9.24214430e-04 0.
      0. 0. 0. 0. 0. 0. 0. 1.84842886e-03 9.24214430e-04 1.84842886e-03
      9.24214430e-04 0. 0. 0. 0. 0. 9.24214430e-04 9.24214430e-04
      9.24214430e-04 0. 0. 0. 0. 1.84842886e-03 0. 0. 0. 9.24214430e-04
      0. 0. 0. 0. 1.84842886e-03 0. 2.77264323e-03 0. 0. 0. 0.
      1.84842886e-03 9.24214430e-04 0. 0. 3.69685772e-03 0. 0. 0. 0. 0.
      9.24214430e-04 0. 0. 9.24214430e-04 0. 0. 1.84842886e-03 0.
      9.24214430e-04 0. 1.84842886e-03 0. 9.24214430e-04 1.84842886e-03
      9.24214430e-04 2.77264323e-03 0. 9.24214430e-04 0. 0. 0.
      9.24214430e-04 9.24214430e-04 0. 0. 0. 4.62107221e-03 0. 0. 0. 0.
      9.24214430e-04 0. 9.24214430e-04 0. 0. 9.24214430e-04
      9.24214430e-04 9.24214430e-04 0. 0. 9.24214430e-04 3.69685772e-03
      0. 9.24214430e-04 0. 0. 0. 0. 0. 6.46950118e-03 0. 9.24214430e-04
      9.24214430e-04 0. 0. 0. 9.24214430e-04 0. 2.77264323e-03
      1.10905729e-02 0. 9.24214430e-04 9.24214430e-04 9.24214430e-04 0.
      4.62107221e-03 0. 0. 1.84842886e-03 0. 0. 3.69685772e-03 0. 0. 0.
      0. 1.84842886e-03 0. 0. 0. 1.84842886e-03 9.24214430e-04
      1.84842886e-03 5.54528646e-03 0. 9.24214430e-04 0. 0.
      9.24214430e-04 0. 0. 0. 0. 0. 9.24214430e-04 9.24214430e-04
      9.24214430e-04 0. 9.24214430e-04 0. 0. 0. 9.24214430e-04 0.
      9.24214430e-04 0. 0. 9.24214430e-04 0. 0. 0. 0. 9.24214430e-04 0.
      1.84842886e-03 0. 1.84842886e-03 1.84842886e-03 9.24214430e-04 0.
      0. 1.84842886e-03 0. 0. 0. 0. 0. 3.69685772e-03 0. 0.
      1.84842886e-03 9.24214430e-04 9.24214430e-04 2.77264323e-03 0. 0.
      9.24214430e-04 0. 9.24214430e-04 9.24214430e-04 0. 9.24214430e-04
      0. 0. 0. 9.24214430e-04 0. 0. 9.24214430e-04 0. 1.84842886e-03 0.
      0. 0. 0. 0. 9.24214430e-04 0. 9.24214430e-04 0. 0. 1.84842886e-03
      2.77264323e-03 1.84842886e-03 9.24214430e-04 0. 9.24214430e-04 0.
      0. 9.24214430e-04 9.24214430e-04 0. 1.01663591e-02 9.24214430e-04
      0. 0. 0. 0. 1.84842886e-03 9.24214430e-04 0. 0. 0. 0. 0.
      7.39371544e-03 0. 0. 0. 0. 0. 9.24214430e-04 0. 0. 0.
      9.24214430e-04 9.24214430e-04 0. 9.24214430e-04 1.84842886e-03 0.
      0. 1.84842886e-03 9.24214430e-04 0. 0. 1.84842886e-03
      5.54528646e-03 0. 2.77264323e-03 0. 3.69685772e-03 3.69685772e-03
      1.84842886e-03 0. 0. 5.54528646e-03 9.24214430e-04 0. 0. 0. 0.
      2.77264323e-03 0. 0. 0. 9.24214430e-04 9.24214430e-04 0. 0.
      1.84842886e-03 0. 0. 0. 1.84842886e-03 0. 9.24214430e-04 0.
      9.24214430e-04 0. 0. 9.24214430e-04 0. 1.84842886e-03 0. 0. 0. 0.
      0. 0. 0. 9.24214430e-04 0. 9.24214430e-04 0. 0. 0. 0. 0. 0.
      9.24214430e-04 0. 9.24214430e-04 0. 1.84842886e-03 0. 0.
      9.24214430e-04 0. 0. 2.77264323e-03 0. 1.84842886e-03 0.
      2.77264323e-03 0. 0. 9.24214430e-04 0. 7.39371544e-03
      1.84842886e-03 0. 1.84842886e-03 0. 9.24214430e-04 0.
      1.84842886e-03 0. 0. 2.77264323e-03 0. 9.24214430e-04 0. 0.
      1.84842886e-03 9.24214430e-04 2.77264323e-03 2.77264323e-03 0. 0.
      0. 0. 0. 0. 0. 0. 0. 0. 0. 9.24214430e-04 0. 0. 0. 3.69685772e-03
      2.77264323e-03 9.24214430e-04 0. 0. 1.84842886e-03 9.24214430e-04
      0. 0. 2.77264323e-03 0. 9.24214430e-04 0. 0. 1.84842886e-03
      9.24214430e-04 0. 7.39371544e-03 0. 0. 0. 0. 2.77264323e-03
      1.84842886e-03 0. 0. 0. 0. 9.24214430e-04 0. 2.77264323e-03 0. 0.
      1.84842886e-03 5.54528646e-03 9.24214430e-04 0. 1.84842886e-03 0.
      1.84842886e-03 9.24214430e-04 1.84842886e-03 0. 9.24214430e-04
      1.84842886e-03 0. 1.84842886e-03 0. 0. 3.69685772e-03 0.
      3.69685772e-03 0. 9.24214430e-04 0. 0. 0. 9.24214430e-04
      4.62107221e-03 1.84842886e-03 0. 9.24214430e-04 9.24214430e-04 0.
      1.84842886e-03 1.84842886e-03 2.77264323e-03 0. 2.77264323e-03
      9.24214430e-04 0. 9.24214430e-04 0. 9.24214430e-04 0. 0. 0. 0.
      9.24214430e-04 1.84842886e-03 0. 1.84842886e-03 0. 0.
      7.39371544e-03 3.69685772e-03 9.24214430e-04 0. 0. 1.84842886e-03
      1.84842886e-03 1.84842886e-03 2.77264323e-03 2.77264323e-03 0.
      9.24214430e-04 9.24214430e-04 9.24214430e-04 0. 0. 0.
      3.69685772e-03 0. 9.24214430e-04 2.77264323e-03 1.84842886e-03
      9.24214430e-04 0. 3.69685772e-03 0. 0. 1.84842886e-03 0. 0.
      2.77264323e-03 1.84842886e-03 1.84842886e-03 4.62107221e-03 0. 0.
      0. 0. 0. 9.24214430e-04 0. 3.69685772e-03 0. 2.77264323e-03 0. 0.
      9.24214430e-04 9.24214430e-04 2.77264323e-03 1.84842886e-03
      2.77264323e-03 0. 0. 1.84842886e-03 9.24214430e-04 9.24214430e-04
      0. 3.69685772e-03 0. 0. 0. 0. 9.24214430e-04 0. 0. 0. 0. 0.
      1.84842886e-03 0. 0. 2.77264323e-03 9.24214430e-04 0.
      2.77264323e-03 0. 2.77264323e-03 0. 1.84842886e-03 0. 0.
      1.84842886e-03 0. 9.24214430e-04 0. 0. 0. 2.77264323e-03 0.
      1.84842886e-03 0. 0. 4.62107221e-03 9.24214430e-04 0.
      3.69685772e-03 0. 0. 0. 1.84842886e-03 1.84842886e-03
      9.24214430e-04 0. 0. 1.84842886e-03 9.24214430e-04 0. 0.
      4.62107221e-03 0. 0. 0. 3.69685772e-03 0. 0. 0. 2.77264323e-03
      9.24214430e-04 1.84842886e-03 0. 0. 1.84842886e-03 0.
      8.31792969e-03 0. 0. 9.24214430e-04 0. 0. 0. 1.84842886e-03 0. 0.
      0. 9.24214430e-04 0. 2.77264323e-03 4.62107221e-03 5.54528646e-03
      3.69685772e-03 9.24214430e-04 0. 0. 9.24214430e-04 9.24214430e-04
      0. 3.69685772e-03 4.62107221e-03 3.69685772e-03 9.24214430e-04
      1.84842886e-03 9.24214430e-04 9.24214430e-04 3.69685772e-03 0. 0.
      2.77264323e-03 0. 0. 0. 5.54528646e-03 0. 0. 3.69685772e-03 0.
      9.24214430e-04 1.84842886e-03 3.69685772e-03 1.84842886e-03 0.
      1.84842886e-03 0. 9.24214430e-04 4.62107221e-03 2.77264323e-03 0.
      0. 0. 0. 0. 9.24214430e-04 1.84842886e-03 0. 0. 2.77264323e-03 0.
      2.77264323e-03 9.24214430e-04 4.62107221e-03 5.54528646e-03 0.
      2.77264323e-03 1.84842886e-03 0. 0. 1.84842886e-03 9.24214430e-04
      3.69685772e-03 0. 9.24214430e-04 0. 2.77264323e-03 1.84842886e-03
      0. 3.69685772e-03 0. 3.69685772e-03 6.46950118e-03 0.
      1.84842886e-03 0. 0. 0. 0. 0. 0. 9.24214430e-04 0. 0.
      9.24214430e-04 1.84842886e-03 0. 0. 0. 0. 1.84842886e-03 0. 0. 0.
      0. 1.84842886e-03 1.84842886e-03 9.24214430e-04 0. 9.24214430e-04
      9.24214430e-04 0. 0. 4.62107221e-03 0. 0. 3.69685772e-03
      1.84842886e-03 2.77264323e-03 0. 1.84842886e-03 0. 0.
      9.24214430e-04 1.84842886e-03 0. 0. 9.24214430e-04 0.
      1.84842886e-03 0. 0. 3.69685772e-03 0. 2.77264323e-03
      1.84842886e-03 9.24214430e-04 0. 2.77264323e-03 0. 9.24214430e-04
      0. 0. 0. 2.77264323e-03 0. 0. 2.77264323e-03 9.24214430e-04 0. 0.
      0. 6.46950118e-03 1.84842886e-03 0. 9.24214430e-04 0. 0. 0.
      2.77264323e-03 0. 0. 1.84842886e-03 1.84842886e-03 9.24214430e-04
      9.24214430e-04 0. 2.77264323e-03 9.24214430e-04 9.24214430e-04 0.
      2.77264323e-03 0. 0. 1.84842886e-03 6.46950118e-03 1.84842886e-03
      0. 0. 0. 6.46950118e-03 4.62107221e-03 0. 9.24214430e-04 0.
      1.84842886e-03 9.24214430e-04 0. 1.84842886e-03 6.46950118e-03
      9.24214430e-04 9.24214430e-04 9.24214430e-04 1.84842886e-03
      1.84842886e-03 9.24214430e-04 2.77264323e-03 0. 9.24214430e-04 0.
      9.24214430e-04 0. 1.84842886e-03 1.84842886e-03 3.69685772e-03 0.
      0. 1.84842886e-03 9.24214430e-04 2.77264323e-03 2.77264323e-03
      7.39371544e-03 0. 2.77264323e-03 2.77264323e-03 2.77264323e-03 0.
      0. 1.84842886e-03 1.84842886e-03 0. 0. 1.84842886e-03 0. 0.
      1.84842886e-03 1.84842886e-03 9.24214430e-04 0. 0. 0. 0. 0.
      1.84842886e-03 0. 0. 0. 5.54528646e-03 9.24214430e-04
      4.62107221e-03 2.77264323e-03 0. 0. 4.62107221e-03 9.24214430e-04
      9.24214430e-04 0. 9.24214430e-04 9.24214430e-04 1.84842886e-03
      3.69685772e-03 4.62107221e-03 2.77264323e-03 1.84842886e-03 0. 0.
      0. 9.24214430e-04 0. 3.69685772e-03 5.54528646e-03 0.
      9.24214430e-04 0. 2.77264323e-03 0. 1.84842886e-03 0. 0.
      1.84842886e-03 9.24214430e-04 0. 1.84842886e-03 3.69685772e-03
      9.24214430e-04 1.84842886e-03 1.84842886e-03 1.84842886e-03
      9.24214430e-04 9.24214430e-04 2.77264323e-03 1.20147876e-02 0.
      9.24214430e-04 9.24214430e-04 1.84842886e-03 0. 0. 3.69685772e-03
      9.24214430e-04 9.24214430e-04 1.84842886e-03 9.24214430e-04 0.
      2.77264323e-03 0. 0. 0. 0. 0. 0. 0. 0. 2.77264323e-03
      9.24214430e-04 3.69685772e-03 1.84842886e-03 0. 0. 2.77264323e-03
      3.69685772e-03 0. 0. 1.84842886e-03 0. 9.24214430e-04
      1.84842886e-03 9.24214430e-04 0. 2.77264323e-03 0. 1.84842886e-03
      1.84842886e-03 1.84842886e-03 0. 1.84842886e-03 1.84842886e-03 0.
      9.24214430e-04 1.84842886e-03 1.84842886e-03 2.77264323e-03
      9.24214430e-04 0. 0. 0. 9.24214430e-04 2.77264323e-03
      7.39371544e-03 0. 0. 4.62107221e-03 2.77264323e-03 1.84842886e-03
      9.24214430e-04 9.24214430e-04 2.77264323e-03 9.24214430e-04 0.
      1.84842886e-03 9.24214430e-04 9.24214430e-04 0. 0. 0.
      9.24214430e-04 1.84842886e-03 0. 0. 1.84842886e-03 0.
      1.84842886e-03 0. 1.84842886e-03 9.24214430e-04 0. 0. 0. 0. 0.
      1.84842886e-03 1.84842886e-03 0. 2.77264323e-03 4.62107221e-03
      9.24214430e-04 9.24214430e-04 2.77264323e-03 3.69685772e-03 0. 0.
      1.84842886e-03 0. 9.24214430e-04 9.24214430e-04 9.24214430e-04 0.
      0. 0. 0. 0. 0. 0. 1.84842886e-03</_>
    <_>
      0. 9.32090543e-03 0. 0. 0. 0. 0. 0. 0. 0. 2.66311574e-03 0.
      1.33155787e-03 0. 2.66311574e-03 0. 2.66311574e-03 0. 0. 0.
      3.99467349e-03 0. 0. 0. 0. 0. 1.33155787e-03 1.33155787e-03
      1.33155787e-03 0. 0. 0. 0. 0. 1.33155787e-03 0. 0. 0. 0.
      2.66311574e-03 0. 1.33155787e-03 0. 1.33155787e-03 0.
      1.33155787e-03 2.66311574e-03 1.33155787e-03 0. 1.33155787e-03 0.
      0. 2.66311574e-03 0. 1.33155787e-03 0. 0. 1.33155787e-03 0. 0. 0.
      0. 1.33155787e-03 0. 0. 0. 0. 0. 0. 7.98934698e-03 0. 0. 0.
      2.66311574e-03 0. 1.33155787e-03 0. 0. 0. 0. 0. 0. 0.
      1.33155787e-03 0. 5.32623148e-03 0. 0. 0. 0. 0. 0. 1.33155787e-03
      1.33155787e-03 0. 0. 0. 0. 3.99467349e-03 0. 2.66311574e-03 0. 0.
      1.33155787e-03 3.99467349e-03 0. 0. 0. 0. 5.32623148e-03 0. 0.
      2.66311574e-03 1.33155787e-03 0. 0. 0. 0. 1.33155787e-03 0.
      5.32623148e-03 1.33155787e-03 0. 0. 3.99467349e-03 6.65778946e-03
      0. 0. 0. 0. 0. 0. 0. 0. 0. 2.66311574e-03 0. 0. 0. 0.
      3.99467349e-03 2.66311574e-03 0. 2.66311574e-03 0. 1.33155787e-03
      1.33155787e-03 0. 1.33155787e-03 0. 0. 0. 0. 1.33155787e-03 0. 0.
      0. 0. 2.66311574e-03 0. 0. 0. 0. 1.33155787e-03 1.33155787e-03
      2.66311574e-03 0. 0. 0. 0. 0. 0. 0. 0. 0. 0. 0. 0. 0.
      1.33155787e-03 0. 0. 0. 0. 0. 1.33155787e-03 0. 3.99467349e-03
      2.66311574e-03 0. 6.65778946e-03 1.33155787e-03 2.66311574e-03 0.
      0. 0. 0. 1.33155787e-03 0. 0. 2.66311574e-03 0. 1.33155787e-03
      1.33155787e-03 1.33155787e-03 0. 0. 0. 2.66311574e-03
      1.33155787e-03 1.33155787e-03 0. 0. 3.99467349e-03 0.
      2.66311574e-03 0. 0. 2.66311574e-03 0. 1.33155787e-03 0. 0. 0.
      1.33155787e-03 0. 1.33155787e-03 0. 1.33155787e-03 0.
      1.33155787e-03 0. 1.33155787e-03 3.99467349e-03 0. 0. 0.
      2.66311574e-03 0. 0. 0. 2.66311574e-03 3.99467349e-03 0. 0.
      2.66311574e-03 0. 2.66311574e-03 0. 0. 2.66311574e-03 0. 0. 0. 0.
      0. 0. 1.33155787e-03 0. 3.99467349e-03 0. 0. 2.66311574e-03 0. 0.
      0. 0. 1.33155787e-03 5.32623148e-03 1.33155787e-03 2.66311574e-03
      0. 0. 3.99467349e-03 0. 0. 0. 0. 7.98934698e-03 0. 1.33155787e-03
      3.99467349e-03 0. 3.99467349e-03 0. 0. 1.33155787e-03
      1.33155787e-03 0. 0. 0. 0. 0. 0. 0. 0. 2.66311574e-03 0. 0. 0. 0.
      1.33155787e-03 0. 0. 3.99467349e-03 0. 0. 0. 1.33155787e-03 0.
      1.33155787e-03 6.65778946e-03 0. 2.66311574e-03 0. 3.99467349e-03
      0. 1.33155787e-03 0. 3.99467349e-03 0. 0. 0. 0. 0. 1.33155787e-03
      0. 0. 0. 1.33155787e-03 2.66311574e-03 3.99467349e-03
      2.66311574e-03 0. 0. 3.99467349e-03 0. 1.33155787e-03 0.
      2.66311574e-03 0. 0. 5.32623148e-03 2.66311574e-03 0. 0. 0. 0.
      1.33155787e-03 1.33155787e-03 2.66311574e-03 0. 0. 1.33155787e-03
      0. 0. 1.33155787e-03 1.33155787e-03 0. 0. 1.33155787e-03
      1.33155787e-03 0. 2.66311574e-03 0. 0. 0. 0. 0. 1.33155787e-03
      1.33155787e-03 0. 2.66311574e-03 0. 0. 2.66311574e-03
      1.33155787e-03 0. 0. 2.66311574e-03 2.66311574e-03 1.33155787e-03
      1.33155787e-03 1.33155787e-03 3.99467349e-03 0. 0. 2.66311574e-03
      0. 0. 0. 0. 0. 0. 0. 0. 2.66311574e-03 2.66311574e-03 0.
      6.65778946e-03 1.33155787e-03 0. 0. 5.32623148e-03 0. 0.
      1.33155787e-03 0. 1.33155787e-03 0. 0. 1.33155787e-03 0. 0.
      1.33155787e-03 2.66311574e-03 0. 0. 1.33155787e-03 1.33155787e-03
      0. 0. 0. 1.33155787e-03 0. 0. 0. 2.66311574e-03 0. 1.33155787e-03
      0. 9.32090543e-03 1.33155787e-03 0. 1.33155787e-03 0.
      3.99467349e-03 0. 1.33155787e-03 1.33155787e-03 0. 2.66311574e-03
      0. 1.33155787e-03 0. 0. 0. 0. 0. 0. 0. 0. 0. 0. 0. 0. 0.
      1.33155787e-03 0. 3.99467349e-03 0. 5.32623148e-03 2.66311574e-03
      3.99467349e-03 0. 0. 0. 0. 0. 0. 1.33155787e-03 0. 2.66311574e-03
      0. 0. 0. 5.32623148e-03 1.33155787e-03 1.33155787e-03 0. 0. 0. 0.
      0. 1.33155787e-03 0. 3.99467349e-03 0. 2.66311574e-03
      1.33155787e-03 0. 0. 0. 0. 0. 0. 0. 3.99467349e-03 2.66311574e-03
      1.33155787e-03 1.33155787e-03 0. 2.66311574e-03 0. 0.
      1.33155787e-03 0. 0. 2.66311574e-03 0. 0. 0. 1.33155787e-03 0. 0.
      0. 1.33155787e-03 0. 0. 0. 0. 0. 1.33155787e-03 0. 0.
      1.33155787e-03 0. 1.33155787e-03 0. 2.66311574e-03 0.
      2.66311574e-03 1.33155787e-03 0. 0. 3.99467349e-03 2.66311574e-03
      0. 5.32623148e-03 1.33155787e-03 1.33155787e-03 0. 0. 0. 0. 0. 0.
      1.33155787e-03 5.32623148e-03 1.33155787e-03 0. 0. 1.33155787e-03
      0. 0. 0. 1.33155787e-03 0. 0. 0. 0. 1.33155787e-03 0. 0.
      3.99467349e-03 5.32623148e-03 0. 0. 0. 6.65778946e-03
      2.66311574e-03 0. 0. 3.99467349e-03 1.33155787e-03 0.
      2.66311574e-03 3.99467349e-03 1.33155787e-03 1.33155787e-03 0.
      1.33155787e-03 3.99467349e-03 0. 0. 1.33155787e-03 0. 0. 0. 0. 0.
      0. 0. 1.33155787e-03 0. 0. 1.33155787e-03 1.33155787e-03
      1.33155787e-03 0. 1.33155787e-03 0. 2.66311574e-03 0.
      2.66311574e-03 0. 1.33155787e-03 1.33155787e-03 2.66311574e-03 0.
      3.99467349e-03 0. 0. 1.33155787e-03 0. 2.66311574e-03 0.
      1.33155787e-03 1.33155787e-03 0. 1.33155787e-03 0. 1.33155787e-03
      1.33155787e-03 1.33155787e-03 1.33155787e-03 0. 2.66311574e-03
      1.33155787e-03 2.66311574e-03 0. 0. 0. 1.33155787e-03
      1.33155787e-03 5.32623148e-03 0. 0. 1.33155787e-03 2.66311574e-03
      2.66311574e-03 3.99467349e-03 0. 5.32623148e-03 2.66311574e-03
      1.33155787e-03 0. 5.32623148e-03 1.33155787e-03 1.33155787e-03 0.
      1.33155787e-03 0. 1.33155787e-03 2.66311574e-03 2.66311574e-03 0.
      0. 0. 0. 2.66311574e-03 0. 1.19840205e-02 0. 0. 2.66311574e-03 0.
      1.33155787e-03 0. 1.33155787e-03 0. 0. 1.33155787e-03
      1.33155787e-03 3.99467349e-03 1.33155787e-03 1.33155787e-03 0. 0.
      0. 0. 0. 1.33155787e-03 2.66311574e-03 0. 2.66311574e-03 0. 0.
      2.66311574e-03 0. 0. 2.66311574e-03 0. 1.33155787e-03 0. 0.
      1.33155787e-03 1.33155787e-03 0. 1.33155787e-03 0. 0. 0.
      2.66311574e-03 0. 0. 0. 1.33155787e-03 0. 0. 2.66311574e-03
      3.99467349e-03 1.33155787e-03 1.33155787e-03 0. 2.66311574e-03 0.
      0. 0. 0. 2.66311574e-03 0. 1.33155787e-03 0. 1.33155787e-03
      1.33155787e-03 0. 1.33155787e-03 0. 0. 0. 1.33155787e-03 0. 0.
      1.33155787e-03 1.33155787e-03 2.66311574e-03 1.33155787e-03
      1.33155787e-03 0. 0. 2.66311574e-03 1.33155787e-03 2.66311574e-03
      3.99467349e-03 1.33155787e-03 0. 0. 0. 0. 1.33155787e-03
      1.33155787e-03 0. 7.98934698e-03 0. 1.33155787e-03 1.33155787e-03
      0. 0. 1.33155787e-03 1.33155787e-03 1.33155787e-03 2.66311574e-03
      0. 1.33155787e-03 1.33155787e-03 1.33155787e-03 0. 1.33155787e-03
      1.33155787e-03 0. 1.33155787e-03 0. 0. 1.33155787e-03 0. 0.
      1.33155787e-03 0. 7.98934698e-03 1.33155787e-03 0. 0. 0.
      2.66311574e-03 2.66311574e-03 1.33155787e-03 1.33155787e-03 0.
      2.66311574e-03 1.33155787e-03 0. 0. 0. 0. 1.33155787e-03
      2.66311574e-03 0. 1.33155787e-03 0. 1.33155787e-03 0. 0. 0.
      9.32090543e-03 1.33155787e-03 2.66311574e-03 0. 2.66311574e-03 0.
      2.66311574e-03 0. 1.33155787e-03 1.33155787e-03 0. 0.
      1.33155787e-03 2.66311574e-03 1.33155787e-03 0. 0. 1.33155787e-03
      0. 0. 2.66311574e-03 3.99467349e-03 0. 2.66311574e-03
      2.66311574e-03 1.33155787e-03 1.33155787e-03 6.65778946e-03
      1.33155787e-03 5.32623148e-03 2.66311574e-03 1.33155787e-03 0.
      1.33155787e-03 1.33155787e-03 1.33155787e-03 1.33155787e-03
      1.33155787e-03 0. 1.33155787e-03 2.66311574e-03 1.33155787e-03 0.
      0. 0. 0. 0. 1.33155787e-03 0. 3.99467349e-03 3.99467349e-03 0. 0.
      3.99467349e-03 1.33155787e-03 2.66311574e-03 0. 0. 0. 0. 0.
      2.66311574e-03 0. 3.99467349e-03 1.33155787e-03 1.33155787e-03 0.
      0. 0. 0. 0. 2.66311574e-03 0. 0. 0. 2.66311574e-03 3.99467349e-03
      0. 2.66311574e-03 0. 0. 0. 0. 0. 0. 0. 1.33155787e-03 0. 0. 0. 0.
      2.66311574e-03 2.66311574e-03 0. 0. 0. 2.66311574e-03
      2.66311574e-03 1.33155787e-03 1.33155787e-03 0. 2.66311574e-03 0.
      1.33155787e-03 0. 1.33155787e-03 2.66311574e-03 0. 3.99467349e-03
      0. 2.66311574e-03 0. 0. 1.33155787e-03 0. 0. 0. 0. 2.66311574e-03
      1.33155787e-03 0. 0. 1.33155787e-03 1.33155787e-03 1.33155787e-03
      1.33155787e-03 1.33155787e-03 0. 0. 0. 0. 0. 0. 0. 0. 0. 0. 0.
      1.33155787e-03 0. 0. 0. 0. 0. 1.33155787e-03 0. 1.33155787e-03
      1.33155787e-03 1.33155787e-03 1.33155787e-03 1.33155787e-03
      1.33155787e-03 0. 2.66311574e-03 0. 3.99467349e-03 0.
      2.66311574e-03 5.32623148e-03 0. 0. 0. 1.33155787e-03 0.
      2.66311574e-03 1.33155787e-03 2.66311574e-03 2.66311574e-03 0. 0.
      0. 0. 2.66311574e-03 6.65778946e-03 0. 0. 2.66311574e-03 0.
      2.66311574e-03 2.66311574e-03 1.33155787e-03 1.33155787e-03 0.
      1.33155787e-03 1.33155787e-03 0. 1.33155787e-03 2.66311574e-03 0.
      2.66311574e-03 0. 1.33155787e-03 5.32623148e-03 3.99467349e-03 0.
      0.</_>
    <_>
      0. 0. 0. 0. 1.57977885e-03 1.57977885e-03 0. 3.15955770e-03 0. 0.
      1.57977885e-03 0. 3.15955770e-03 0. 1.57977885e-03 0. 0. 0. 0.
      1.57977885e-03 0. 0. 6.31911540e-03 0. 0. 1.57977885e-03 0.
      3.15955770e-03 0. 0. 0. 1.57977885e-03 0. 0. 0. 4.73933667e-03 0.
      0. 0. 0. 1.57977885e-03 1.57977885e-03 1.57977885e-03
      1.57977885e-03 0. 1.57977885e-03 0. 0. 1.57977885e-03 0. 0.
      1.57977885e-03 0. 0. 0. 0. 0. 1.57977885e-03 0. 0. 1.57977885e-03
      3.15955770e-03 1.57977885e-03 0. 3.15955770e-03 0. 0.
      3.15955770e-03 0. 1.10584516e-02 0. 0. 0. 0. 0. 0. 0.
      9.47867334e-03 0. 0. 1.57977885e-03 0. 0. 1.57977885e-03
      3.15955770e-03 3.15955770e-03 7.89889414e-03 1.57977885e-03 0. 0.
      0. 0. 0. 1.57977885e-03 0. 0. 0. 0. 3.15955770e-03 1.57977885e-03
      3.15955770e-03 0. 0. 1.57977885e-03 1.57977885e-03 0.
      1.57977885e-03 1.57977885e-03 0. 0. 0. 0. 3.15955770e-03
      1.57977885e-03 0. 0. 0. 0. 3.15955770e-03 0. 3.15955770e-03
      1.57977885e-03 0. 0. 0. 0. 0. 0. 0. 0. 0. 0. 0. 3.15955770e-03
      3.15955770e-03 0. 0. 1.57977885e-03 1.57977885e-03 0.
      3.15955770e-03 0. 0. 7.89889414e-03 0. 3.15955770e-03
      7.89889414e-03 0. 0. 4.73933667e-03 0. 1.57977885e-03 0. 0. 0.
      4.73933667e-03 0. 0. 9.47867334e-03 0. 0. 0. 0. 3.15955770e-03 0.
      7.89889414e-03 0. 4.73933667e-03 0. 0. 0. 0. 6.31911540e-03
      3.15955770e-03 0. 0. 0. 0. 0. 0. 0. 1.57977885e-03 0. 0. 0.
      3.15955770e-03 0. 0. 1.57977885e-03 0. 3.15955770e-03 0. 0.
      1.57977885e-03 0. 0. 1.57977885e-03 0. 0. 0. 0. 7.89889414e-03 0.
      1.57977885e-03 0. 0. 0. 0. 0. 0. 1.57977885e-03 1.57977885e-03 0.
      3.15955770e-03 1.57977885e-03 3.15955770e-03 1.57977885e-03 0. 0.
      0. 0. 0. 0. 0. 0. 0. 0. 0. 0. 0. 0. 0. 0. 0. 1.57977885e-03
      1.57977885e-03 1.57977885e-03 0. 1.57977885e-03 0. 1.57977885e-03
      0. 0. 0. 0. 6.31911540e-03 0. 3.15955770e-03 0. 0. 0. 0.
      3.15955770e-03 0. 1.57977885e-03 0. 1.57977885e-03 0. 0.
      1.57977885e-03 0. 0. 0. 0. 3.15955770e-03 1.57977885e-03
      4.73933667e-03 0. 0. 1.57977885e-03 3.15955770e-03 1.57977885e-03
      0. 3.15955770e-03 3.15955770e-03 4.73933667e-03 0. 0.
      3.15955770e-03 3.15955770e-03 0. 0. 0. 1.57977885e-03
      3.15955770e-03 0. 0. 0. 0. 0. 6.31911540e-03 3.15955770e-03 0. 0.
      0. 0. 4.73933667e-03 0. 1.57977885e-03 0. 0. 1.42180100e-02 0.
      1.57977885e-03 1.57977885e-03 0. 4.73933667e-03 3.15955770e-03 0.
      4.73933667e-03 0. 0. 1.57977885e-03 0. 7.89889414e-03
      3.15955770e-03 0. 1.57977885e-03 0. 4.73933667e-03 7.89889414e-03
      0. 1.57977885e-03 0. 0. 3.15955770e-03 3.15955770e-03
      1.57977885e-03 1.57977885e-03 1.57977885e-03 0. 0. 6.31911540e-03
      3.15955770e-03 0. 0. 0. 4.73933667e-03 0. 0. 0. 3.15955770e-03 0.
      0. 0. 0. 0. 0. 0. 0. 1.57977885e-03 0. 0. 0. 0. 0. 0. 0.
      3.15955770e-03 0. 1.57977885e-03 0. 0. 0. 0. 3.15955770e-03
      1.57977885e-03 0. 1.57977885e-03 0. 0. 0. 1.57977885e-03 0. 0. 0.
      0. 0. 0. 1.57977885e-03 0. 0. 0. 0. 0. 0. 0. 0. 0. 0. 0. 0.
      2.05371249e-02 0. 0. 0. 0. 0. 0. 1.57977885e-03 0. 1.57977885e-03
      0. 0. 0. 1.57977885e-03 0. 0. 0. 1.57977885e-03 1.57977885e-03
      1.57977885e-03 0. 1.57977885e-03 1.57977885e-03 0. 1.57977885e-03
      1.57977885e-03 0. 6.31911540e-03 3.15955770e-03 1.10584516e-02 0.
      0. 0. 0. 0. 0. 0. 4.73933667e-03 0. 6.31911540e-03 0.
      1.57977885e-03 0. 0. 0. 0. 0. 0. 0. 0. 0. 4.73933667e-03 0. 0.
      1.57977885e-03 6.31911540e-03 1.26382308e-02 0. 0. 0. 0. 0. 0. 0.
      0. 1.57977885e-03 0. 1.57977885e-03 0. 0. 0. 0. 0. 0. 0. 0. 0. 0.
      0. 0. 1.57977885e-03 0. 0. 0. 0. 1.57977885e-03 0. 0.
      1.57977885e-03 1.57977885e-03 0. 1.57977885e-03 0. 0. 0. 0.
      3.15955770e-03 1.57977885e-03 0. 0. 0. 0. 3.15955770e-03 0. 0.
      1.57977885e-03 4.73933667e-03 0. 0. 1.57977885e-03 0. 0. 0. 0. 0.
      0. 0. 1.57977885e-03 1.57977885e-03 0. 1.57977885e-03 0.
      3.15955770e-03 0. 0. 3.15955770e-03 1.57977885e-03 4.73933667e-03
      0. 0. 1.57977885e-03 1.57977885e-03 0. 0. 0. 0. 0. 0. 0.
      1.57977885e-03 0. 1.57977885e-03 0. 0. 0. 0. 0. 0. 7.89889414e-03
      0. 0. 0. 0. 0. 0. 0. 3.15955770e-03 3.15955770e-03 0.
      1.57977885e-03 4.73933667e-03 1.57977885e-03 0. 1.57977885e-03 0.
      0. 0. 0. 1.57977885e-03 1.57977885e-03 1.57977885e-03
      1.57977885e-03 1.57977885e-03 0. 0. 0. 6.31911540e-03
      1.57977885e-03 0. 0. 0. 0. 0. 1.57977885e-03 1.57977885e-03 0. 0.
      0. 1.57977885e-03 3.15955770e-03 4.73933667e-03 0. 1.57977885e-03
      0. 0. 0. 0. 0. 0. 0. 3.15955770e-03 0. 1.57977885e-03 0. 0. 0.
      1.57977885e-03 1.57977885e-03 0. 0. 0. 0. 1.57977885e-03 0. 0. 0.
      7.89889414e-03 0. 4.73933667e-03 0. 1.57977885e-03 0. 0. 0.
      3.15955770e-03 3.15955770e-03 1.57977885e-03 1.57977885e-03 0. 0.
      0. 0. 0. 0. 0. 1.57977885e-03 0. 0. 0. 0. 4.73933667e-03 0.
      4.73933667e-03 1.57977885e-03 0. 0. 1.57977885e-03 3.15955770e-03
      1.57977885e-03 0. 0. 0. 1.26382308e-02 3.15955770e-03 0. 0. 0. 0.
      0. 0. 0. 0. 0. 0. 1.57977885e-03 0. 0. 0. 0. 0. 1.26382308e-02 0.
      0. 0. 4.73933667e-03 0. 1.57977885e-03 0. 3.15955770e-03 0. 0. 0.
      0. 0. 1.57977885e-03 1.57977885e-03 3.15955770e-03 1.57977885e-03
      0. 0. 1.57977885e-03 1.57977885e-03 1.57977885e-03 0. 0.
      4.73933667e-03 0. 0. 3.15955770e-03 0. 0. 0. 0. 1.57977885e-03 0.
      1.57977885e-03 0. 0. 0. 1.57977885e-03 0. 0. 0. 0. 3.15955770e-03
      1.57977885e-03 0. 1.57977885e-03 0. 0. 0. 0. 0. 0. 3.15955770e-03
      0. 0. 1.57977885e-03 0. 0. 4.73933667e-03 0. 0. 0. 0. 0. 0. 0.
      1.57977885e-03 0. 0. 0. 0. 1.57977885e-03 1.57977885e-03 0.
      1.57977885e-03 0. 0. 0. 4.73933667e-03 0. 0. 0. 0. 1.57977885e-03
      0. 0. 0. 0. 0. 0. 0. 0. 3.15955770e-03 0. 1.57977885e-03 0. 0. 0.
      0. 0. 0. 4.73933667e-03 1.57977885e-03 0. 0. 0. 0. 0. 0.
      3.15955770e-03 1.57977885e-03 0. 1.57977885e-03 0. 0.
      1.57977885e-03 6.31911540e-03 1.57977885e-03 0. 6.31911540e-03 0.
      0. 4.73933667e-03 0. 0. 1.57977885e-03 0. 0. 0. 0. 0. 0. 0. 0.
      1.57977885e-03 0. 0. 0. 0. 0. 0. 1.57977885e-03 1.57977885e-03 0.
      3.15955770e-03 0. 1.57977885e-03 0. 0. 0. 1.57977885e-03
      1.57977885e-03 0. 1.57977885e-03 0. 1.57977885e-03 1.57977885e-03
      0. 0. 0. 0. 0. 0. 0. 0. 0. 0. 1.57977885e-03 1.57977885e-03 0. 0.
      0. 0. 1.57977885e-03 0. 0. 0. 0. 0. 0. 0. 0. 1.57977885e-03
      1.57977885e-03 0. 1.57977885e-03 1.57977885e-03 0. 0.
      1.57977885e-03 4.73933667e-03 1.57977885e-03 0. 0. 0. 0. 0. 0. 0.
      0. 0. 0. 4.73933667e-03 3.15955770e-03 0. 0. 0. 0. 1.57977885e-03
      0. 0. 0. 6.31911540e-03 7.89889414e-03 0. 1.57977885e-03
      1.57977885e-03 3.15955770e-03 0. 0. 0. 4.73933667e-03
      1.57977885e-03 1.10584516e-02 3.15955770e-03 4.73933667e-03
      1.57977885e-03 1.57977885e-03 0. 0. 1.57977885e-03 0.
      3.15955770e-03 1.57977885e-03 0. 0. 0. 0. 9.47867334e-03 0. 0.
      1.57977885e-03 1.57977885e-03 0. 0. 1.57977885e-03 0. 0. 0. 0. 0.
      0. 1.57977885e-03 0. 1.57977885e-03 1.57977885e-03 1.57977885e-03
      0. 0. 0. 0. 0. 3.15955770e-03 0. 0. 1.57977885e-03 0. 0. 0. 0. 0.
      0. 0. 9.47867334e-03 0. 1.57977885e-03 1.57977885e-03 0. 0.
      3.15955770e-03 1.26382308e-02 1.57977885e-03 0. 1.57977885e-03
      1.57977885e-03 0. 3.15955770e-03 3.15955770e-03 0. 0. 0. 0. 0. 0.
      0. 0. 0. 0. 1.57977885e-03 1.57977885e-03 0. 0. 0. 0. 0.
      1.57977885e-03 3.15955770e-03 0. 1.57977885e-03 1.57977885e-03 0.
      1.57977885e-03 0. 3.15955770e-03 0. 1.57977885e-03 0. 0. 0. 0.
      1.57977885e-03 0. 0. 0. 0. 1.57977885e-03 0. 4.73933667e-03 0. 0.
      0. 0. 3.15955770e-03 0. 1.57977885e-03 1.57977885e-03</_>
    <_>
      0. 5.91016549e-04 5.91016549e-04 0. 1.18203310e-03 0. 0.
      1.77304959e-03 0. 1.18203310e-03 2.36406620e-03 0. 1.18203310e-03
      0. 5.91016549e-04 1.77304959e-03 2.95508280e-03 2.36406620e-03 0.
      3.54609918e-03 1.18203310e-03 0. 4.72813239e-03 5.91016549e-04
      5.91016549e-04 5.91016549e-04 0. 1.18203310e-03 1.77304959e-03 0.
      1.18203310e-03 3.54609918e-03 0. 1.18203310e-03 1.77304959e-03 0.
