<?xml version="1.0"?>
<opencv_storage>
<opencv_ml_svm>
  <format>3</format>
  <svmType>C_SVC</svmType>
  <kernel>
    <type>RBF</type>
    <gamma>5.0625000000000009e-01</gamma></kernel>
  <C>3.1250000000000000e+02</C>
  <term_criteria><iterations>1000</iterations></term_criteria>
  <var_count>1000</var_count>
  <class_count>2</class_count>
  <class_labels type_id="opencv-matrix">
    <rows>2</rows>
    <cols>1</cols>
    <dt>i</dt>
    <data>
      0 1</data></class_labels>
  <sv_total>199</sv_total>
  <support_vectors>
    <_>
      0. 0. 0. 1.83150184e-03 1.83150184e-03 0. 1.83150184e-03 0. 0. 0.
      0. 0. 1.83150184e-03 0. 0. 0. 1.83150184e-03 1.83150184e-03 0.
      5.49450563e-03 0. 1.83150184e-03 7.32600736e-03 0. 0.
      3.66300368e-03 0. 3.66300368e-03 0. 0. 1.83150184e-03
      3.66300368e-03 3.66300368e-03 0. 0. 1.83150184e-03 0. 0. 0. 0. 0.
      0. 0. 1.83150184e-03 0. 0. 0. 0. 0. 0. 1.83150184e-03
      1.83150184e-03 0. 0. 1.83150184e-03 0. 0. 1.83150184e-03 0.
      1.83150184e-03 0. 0. 3.66300368e-03 0. 0. 0. 1.83150184e-03
      1.83150184e-03 0. 1.83150184e-03 1.83150184e-03 0. 0. 0. 0.
      1.83150184e-03 0. 3.66300368e-03 0. 1.83150184e-03 0. 0. 0.
      1.83150184e-03 0. 0. 3.66300368e-03 0. 0. 1.83150184e-03 0.
      1.83150184e-03 0. 1.28205130e-02 0. 0. 0. 1.83150184e-03
      5.49450563e-03 1.83150184e-03 1.83150184e-03 0. 0. 3.66300368e-03
      3.66300368e-03 1.83150184e-03 0. 0. 0. 3.66300368e-03
      1.83150184e-03 0. 0. 5.49450563e-03 0. 0. 0. 0. 0. 0.
      1.83150184e-03 3.66300368e-03 0. 0. 0. 7.32600736e-03 0. 0. 0. 0.
      0. 0. 0. 0. 0. 0. 0. 5.49450563e-03 0. 0. 1.83150184e-03 0.
      1.83150184e-03 1.83150184e-03 0. 5.49450563e-03 0. 0.
      1.83150184e-03 1.83150184e-03 0. 0. 0. 0. 0. 7.32600736e-03 0. 0.
      5.49450563e-03 1.83150184e-03 1.83150184e-03 0. 0. 1.83150184e-03
      0. 0. 0. 0. 0. 0. 0. 0. 3.66300368e-03 7.32600736e-03 0. 0. 0.
      3.66300368e-03 0. 0. 0. 0. 0. 0. 1.83150184e-03 0. 0. 0.
      1.83150184e-03 0. 0. 0. 0. 0. 0. 1.83150184e-03 0. 0. 0.
      1.83150184e-03 0. 0. 5.49450563e-03 1.83150184e-03 0. 0. 0. 0. 0.
      0. 0. 0. 0. 0. 5.49450563e-03 0. 1.83150184e-03 0. 0.
      1.83150184e-03 1.83150184e-03 0. 5.49450563e-03 0. 0. 0.
      1.83150184e-03 0. 1.83150184e-03 0. 0. 0. 0. 1.83150184e-03
      5.49450563e-03 0. 0. 0. 0. 0. 3.66300368e-03 0. 5.49450563e-03 0.
      0. 0. 0. 0. 0. 0. 0. 1.83150184e-03 1.83150184e-03 1.83150184e-03
      1.83150184e-03 0. 1.83150184e-03 5.49450563e-03 3.66300368e-03 0.
      0. 0. 1.83150184e-03 7.32600736e-03 0. 0. 0. 0. 0. 1.83150184e-03
      1.83150184e-03 1.83150184e-03 3.66300368e-03 7.32600736e-03
      1.83150184e-03 5.49450563e-03 0. 0. 0. 0. 1.83150184e-03 0. 0.
      1.83150184e-03 1.09890113e-02 1.83150184e-03 0. 0. 0. 0.
      3.66300368e-03 1.83150184e-03 0. 0. 0. 0. 3.66300368e-03
      1.83150184e-03 0. 0. 1.83150184e-03 1.83150184e-03 3.66300368e-03
      0. 0. 0. 1.83150184e-03 3.66300368e-03 0. 0. 3.66300368e-03 0.
      3.66300368e-03 1.83150184e-03 5.49450563e-03 1.83150184e-03
      3.66300368e-03 1.83150184e-03 3.66300368e-03 1.83150184e-03 0. 0.
      0. 0. 0. 0. 1.83150184e-03 0. 0. 1.83150184e-03 3.66300368e-03 0.
      0. 0. 0. 1.83150184e-03 1.83150184e-03 7.32600736e-03 0. 0. 0. 0.
      0. 0. 3.66300368e-03 0. 0. 0. 3.66300368e-03 0. 1.83150184e-03 0.
      0. 0. 1.83150184e-03 0. 0. 0. 5.49450563e-03 3.66300368e-03 0.
      3.66300368e-03 0. 0. 0. 0. 0. 0. 1.83150184e-03 0. 0.
      3.66300368e-03 0. 0. 0. 1.83150184e-03 0. 0. 0. 0. 1.83150184e-03
      0. 0. 0. 0. 0. 0. 1.83150184e-03 0. 0. 0. 1.83150184e-03
      3.66300368e-03 0. 0. 0. 0. 0. 1.83150184e-03 3.66300368e-03 0. 0.
      3.66300368e-03 0. 1.83150184e-03 0. 1.83150184e-03 0.
      1.83150184e-03 0. 0. 1.83150184e-03 0. 0. 3.66300368e-03 0. 0. 0.
      9.15750954e-03 5.49450563e-03 0. 0. 0. 0. 0. 3.66300368e-03 0.
      3.66300368e-03 1.83150184e-03 1.83150184e-03 1.83150184e-03
      1.83150184e-03 0. 0. 0. 0. 1.83150184e-03 0. 1.83150184e-03 0. 0.
      1.83150184e-03 0. 1.83150184e-03 0. 1.83150184e-03 1.83150184e-03
      1.83150184e-03 0. 0. 0. 3.66300368e-03 0. 0. 0. 0. 1.83150184e-03
      0. 1.83150184e-03 3.66300368e-03 0. 1.83150184e-03 0. 0. 0.
      1.83150184e-03 0. 0. 0. 0. 0. 0. 0. 0. 1.83150184e-03 0. 0.
      1.83150184e-03 0. 0. 0. 3.66300368e-03 0. 5.49450563e-03
      1.83150184e-03 0. 0. 0. 3.66300368e-03 0. 3.66300368e-03 0.
      3.66300368e-03 0. 0. 5.49450563e-03 1.83150184e-03 0.
      3.66300368e-03 3.66300368e-03 3.66300368e-03 0. 3.66300368e-03 0.
      0. 0. 0. 0. 0. 0. 3.66300368e-03 0. 0. 0. 0. 0. 0. 0. 0. 0. 0. 0.
      0. 0. 1.83150184e-03 0. 0. 0. 0. 0. 0. 0. 0. 1.83150184e-03
      9.15750954e-03 5.49450563e-03 0. 0. 0. 0. 0. 0. 0. 0. 0.
      1.83150184e-03 1.83150184e-03 0. 0. 1.83150184e-03 0. 0.
      7.32600736e-03 0. 0. 1.83150184e-03 0. 0. 0. 0. 0. 0.
      1.83150184e-03 1.83150184e-03 1.83150184e-03 0. 0. 0. 0. 0.
      1.83150184e-03 0. 0. 0. 0. 0. 0. 0. 0. 0. 0. 0. 3.66300368e-03 0.
      1.83150184e-03 0. 0. 0. 0. 0. 0. 0. 0. 0. 1.83150184e-03 0. 0. 0.
      0. 1.83150184e-03 3.66300368e-03 0. 0. 0. 1.83150184e-03 0. 0.
      1.83150184e-03 0. 0. 0. 5.49450563e-03 0. 0. 5.49450563e-03
      1.83150184e-03 0. 0. 0. 5.49450563e-03 1.83150184e-03 0. 0. 0. 0.
      1.83150184e-03 0. 5.49450563e-03 0. 1.83150184e-03 0. 0.
      1.83150184e-03 1.83150184e-03 0. 0. 0. 0. 1.83150184e-03 0. 0. 0.
      0. 0. 0. 0. 0. 1.83150184e-03 0. 0. 0. 3.66300368e-03 0. 0.
      3.66300368e-03 0. 0. 1.83150184e-03 0. 0. 0. 0. 0. 0.
      3.66300368e-03 1.83150184e-03 0. 0. 0. 3.66300368e-03
      7.32600736e-03 0. 1.83150184e-03 0. 1.83150184e-03 5.49450563e-03
      5.49450563e-03 0. 3.66300368e-03 0. 0. 0. 0. 1.83150184e-03 0.
      3.66300368e-03 0. 3.66300368e-03 0. 0. 0. 0. 0. 1.83150184e-03
      1.83150184e-03 0. 3.66300368e-03 0. 0. 0. 0. 0. 1.83150184e-03 0.
      0. 0. 1.83150184e-03 3.66300368e-03 0. 0. 0. 7.32600736e-03
      1.83150184e-03 1.83150184e-03 0. 0. 1.83150184e-03 0. 0. 0. 0. 0.
      0. 1.83150184e-03 0. 0. 1.83150184e-03 1.83150184e-03 0. 0. 0.
      1.83150184e-03 0. 1.83150184e-03 0. 3.66300368e-03 0. 0.
      1.83150184e-03 0. 0. 3.66300368e-03 3.66300368e-03 0.
      1.83150184e-03 0. 0. 0. 0. 0. 0. 0. 0. 0. 1.83150184e-03 0. 0. 0.
      0. 1.83150184e-03 0. 1.83150184e-03 0. 0. 0. 5.49450563e-03
      1.83150184e-03 0. 3.66300368e-03 0. 0. 1.83150184e-03 0. 0. 0. 0.
      0. 1.83150184e-03 0. 2.01465208e-02 3.66300368e-03 3.66300368e-03
      1.83150184e-03 0. 1.83150184e-03 0. 3.66300368e-03 0.
      1.83150184e-03 1.83150184e-03 3.66300368e-03 0. 0. 0. 0.
      1.83150184e-03 0. 1.83150184e-03 1.83150184e-03 0. 0. 0. 0.
      3.66300368e-03 3.66300368e-03 0. 0. 0. 9.15750954e-03 0.
      1.83150184e-03 0. 0. 0. 0. 0. 0. 0. 0. 0. 0. 1.83150184e-03 0. 0.
      1.83150184e-03 0. 1.83150184e-03 0. 0. 0. 0. 1.83150184e-03 0. 0.
      0. 0. 0. 3.66300368e-03 1.83150184e-03 1.83150184e-03
      3.66300368e-03 1.83150184e-03 3.66300368e-03 0. 3.66300368e-03
      1.83150184e-03 1.83150184e-03 1.83150184e-03 0. 1.83150184e-03 0.
      0. 0. 1.83150184e-03 0. 1.83150184e-03 0. 1.83150184e-03
      3.66300368e-03 0. 0. 0. 0. 3.66300368e-03 0. 3.66300368e-03
      1.83150184e-03 3.66300368e-03 0. 0. 0. 0. 0. 1.83150184e-03 0. 0.
      0. 0. 1.83150184e-03 0. 0. 0. 1.83150184e-03 0. 0. 0. 0.
      3.66300368e-03 1.83150184e-03 0. 0. 0. 0. 0. 0. 0. 0.
      1.83150184e-03 0. 0. 0. 0. 0. 0. 0. 0. 1.83150184e-03 0. 0.
      1.83150184e-03 0. 3.66300368e-03 3.66300368e-03 0. 1.83150184e-03
      1.83150184e-03 1.83150184e-03 1.83150184e-03 0. 0. 0. 0. 0. 0. 0.
      0. 3.66300368e-03 0. 5.49450563e-03 1.83150184e-03 0.
      1.83150184e-03 1.83150184e-03 0. 0. 0. 0. 9.15750954e-03 0. 0. 0.
      0. 1.83150184e-03 0. 5.49450563e-03 0. 0. 0. 1.83150184e-03 0.
      1.83150184e-03 0. 1.83150184e-03 0. 1.83150184e-03 0.
      1.83150184e-03 0. 1.83150184e-03 0. 1.83150184e-03 0.
      1.83150184e-03 0. 0. 0. 0. 0. 1.83150184e-03 3.66300368e-03 0. 0.
      0. 0. 0. 0. 0. 1.83150184e-03 0. 0. 5.49450563e-03 0. 0. 0. 0. 0.
      1.83150184e-03 0. 0. 0. 0. 0. 1.83150184e-03 1.83150184e-03 0.
      1.83150184e-03 3.66300368e-03 3.66300368e-03 1.83150184e-03
      3.66300368e-03</_>
    <_>
      0. 0. 0. 2.20750552e-03 0. 0. 0. 0. 0. 0. 4.41501103e-03 0.
      4.41501103e-03 0. 0. 0. 2.20750552e-03 2.20750552e-03 0.
      8.83002207e-03 0. 0. 2.20750552e-03 0. 0. 4.41501103e-03
      4.41501103e-03 2.20750552e-03 0. 0. 0. 0. 8.83002207e-03 0. 0. 0.
      0. 0. 0. 0. 0. 0. 0. 2.20750552e-03 0. 0. 0. 0. 0. 0. 0.
      2.20750552e-03 0. 0. 0. 0. 0. 2.20750552e-03 0. 2.20750552e-03 0.
      0. 4.41501103e-03 0. 0. 0. 2.20750552e-03 2.20750552e-03 0. 0. 0.
      0. 0. 0. 0. 0. 0. 2.20750552e-03 0. 2.20750552e-03 0. 0. 0.
      2.20750552e-03 0. 0. 6.62251655e-03 0. 0. 0. 0. 4.41501103e-03 0.
      8.83002207e-03 0. 0. 0. 0. 1.10375276e-02 0. 4.41501103e-03 0. 0.
      2.20750552e-03 0. 2.20750552e-03 0. 0. 0. 4.41501103e-03
      2.20750552e-03 0. 2.20750552e-03 6.62251655e-03 0. 0. 0. 0. 0. 0.
      2.20750552e-03 4.41501103e-03 0. 0. 0. 1.32450331e-02 0. 0. 0. 0.
      0. 0. 0. 0. 2.20750552e-03 4.41501103e-03 0. 2.20750552e-03 0. 0.
      4.41501103e-03 0. 2.20750552e-03 2.20750552e-03 0. 2.20750552e-03
      0. 0. 0. 0. 0. 0. 0. 0. 0. 6.62251655e-03 0. 0. 6.62251655e-03
      2.20750552e-03 2.20750552e-03 0. 0. 0. 2.20750552e-03
      4.41501103e-03 2.20750552e-03 0. 0. 0. 0. 0. 4.41501103e-03
      4.41501103e-03 0. 0. 0. 0. 0. 0. 0. 0. 0. 0. 0. 2.20750552e-03 0.
      0. 0. 0. 0. 2.20750552e-03 0. 0. 0. 0. 0. 0. 0. 0. 2.20750552e-03
      2.20750552e-03 6.62251655e-03 2.20750552e-03 0. 0. 0. 0. 0. 0. 0.
      0. 0. 0. 4.41501103e-03 0. 0. 0. 0. 0. 2.20750552e-03 0.
      4.41501103e-03 0. 0. 0. 4.41501103e-03 2.20750552e-03 0. 0. 0. 0.
      0. 0. 6.62251655e-03 0. 0. 2.20750552e-03 0. 0. 2.20750552e-03 0.
      8.83002207e-03 0. 0. 0. 0. 0. 0. 2.20750552e-03 2.20750552e-03 0.
      0. 0. 2.20750552e-03 0. 2.20750552e-03 2.20750552e-03 0. 0. 0. 0.
      2.20750552e-03 8.83002207e-03 0. 0. 0. 0. 2.20750552e-03 0. 0. 0.
      0. 4.41501103e-03 0. 2.20750552e-03 0. 0. 0. 0. 0. 0.
      2.20750552e-03 0. 4.41501103e-03 4.41501103e-03 0. 0. 0. 0.
      2.20750552e-03 2.20750552e-03 2.20750552e-03 0. 0. 0. 0.
      2.20750552e-03 0. 0. 0. 0. 0. 0. 0. 0. 2.20750552e-03 0.
      2.20750552e-03 0. 4.41501103e-03 2.20750552e-03 2.20750552e-03 0.
      2.20750552e-03 0. 2.20750552e-03 0. 2.20750552e-03 0. 0.
      2.20750552e-03 0. 0. 0. 0. 0. 0. 0. 0. 0. 0. 0. 0. 0.
      4.41501103e-03 2.20750552e-03 1.32450331e-02 0. 0. 2.20750552e-03
      0. 0. 0. 0. 0. 0. 0. 6.62251655e-03 0. 0. 0. 0. 0. 2.20750552e-03
      0. 0. 0. 6.62251655e-03 2.20750552e-03 0. 2.20750552e-03 0.
      2.20750552e-03 0. 0. 0. 0. 2.20750552e-03 0. 0. 0. 0. 0. 0. 0.
      2.20750552e-03 0. 0. 0. 0. 2.20750552e-03 0. 0. 0. 2.20750552e-03
      0. 0. 0. 0. 0. 0. 0. 0. 0. 0. 0. 2.20750552e-03 0. 2.20750552e-03
      0. 0. 2.20750552e-03 2.20750552e-03 0. 0. 2.20750552e-03
      2.20750552e-03 0. 0. 0. 2.20750552e-03 0. 2.20750552e-03
      6.62251655e-03 0. 4.41501103e-03 0. 6.62251655e-03 4.41501103e-03
      0. 0. 2.20750552e-03 0. 0. 2.20750552e-03 0. 2.20750552e-03
      2.20750552e-03 2.20750552e-03 0. 0. 0. 2.20750552e-03 0. 0.
      2.20750552e-03 0. 4.41501103e-03 0. 0. 0. 0. 2.20750552e-03 0. 0.
      4.41501103e-03 0. 0. 0. 0. 0. 0. 0. 0. 0. 0. 0. 0. 8.83002207e-03
      0. 2.20750552e-03 0. 0. 0. 2.20750552e-03 2.20750552e-03 0. 0. 0.
      0. 0. 0. 0. 2.20750552e-03 0. 0. 0. 0. 0. 0. 2.20750552e-03 0.
      6.62251655e-03 0. 0. 2.20750552e-03 0. 4.41501103e-03
      2.20750552e-03 2.20750552e-03 0. 2.20750552e-03 2.20750552e-03 0.
      4.41501103e-03 2.20750552e-03 0. 2.20750552e-03 2.20750552e-03 0.
      2.20750552e-03 0. 2.20750552e-03 0. 0. 0. 0. 0. 0. 0. 0. 0. 0.
      2.20750552e-03 4.41501103e-03 0. 0. 0. 0. 0. 0. 0. 0.
      4.41501103e-03 0. 0. 0. 0. 0. 0. 0. 0. 0. 8.83002207e-03 0. 0. 0.
      0. 4.41501103e-03 0. 0. 0. 0. 0. 2.20750552e-03 2.20750552e-03 0.
      0. 4.41501103e-03 0. 0. 8.83002207e-03 0. 0. 0. 0. 0.
      2.20750552e-03 0. 0. 0. 2.20750552e-03 0. 2.20750552e-03 0. 0. 0.
      0. 0. 2.20750552e-03 0. 0. 0. 2.20750552e-03 4.41501103e-03 0. 0.
      2.20750552e-03 0. 0. 0. 4.41501103e-03 0. 0. 0. 2.20750552e-03 0.
      0. 0. 0. 0. 0. 0. 2.20750552e-03 0. 0. 0. 0. 0. 2.20750552e-03 0.
      0. 0. 4.41501103e-03 0. 0. 2.20750552e-03 0. 2.20750552e-03 0.
      4.41501103e-03 0. 0. 4.41501103e-03 2.20750552e-03 0.
      4.41501103e-03 2.20750552e-03 0. 4.41501103e-03 0. 0.
      4.41501103e-03 0. 2.20750552e-03 0. 6.62251655e-03 0. 0. 0. 0.
      2.20750552e-03 2.20750552e-03 0. 4.41501103e-03 0. 0. 0.
      2.20750552e-03 0. 0. 0. 2.20750552e-03 2.20750552e-03 0. 0.
      4.41501103e-03 0. 0. 0. 0. 0. 0. 2.20750552e-03 0. 0. 0. 0. 0. 0.
      2.20750552e-03 0. 0. 4.41501103e-03 2.20750552e-03 2.20750552e-03
      0. 0. 2.20750552e-03 6.62251655e-03 0. 2.20750552e-03 0.
      2.20750552e-03 6.62251655e-03 6.62251655e-03 0. 4.41501103e-03 0.
      0. 0. 0. 0. 0. 0. 0. 6.62251655e-03 4.41501103e-03 0. 0. 0. 0. 0.
      2.20750552e-03 0. 4.41501103e-03 2.20750552e-03 0. 0. 0. 0. 0. 0.
      0. 0. 0. 4.41501103e-03 0. 0. 0. 4.41501103e-03 0. 0. 0. 0. 0. 0.
      0. 0. 0. 0. 0. 2.20750552e-03 2.20750552e-03 0. 2.20750552e-03 0.
      0. 4.41501103e-03 0. 0. 0. 2.20750552e-03 0. 4.41501103e-03 0. 0.
      4.41501103e-03 0. 2.20750552e-03 0. 2.20750552e-03 0.
      2.20750552e-03 0. 0. 0. 0. 0. 2.20750552e-03 0. 0. 2.20750552e-03
      4.41501103e-03 0. 0. 0. 0. 4.41501103e-03 0. 2.20750552e-03 0. 0.
      0. 6.62251655e-03 0. 0. 2.20750552e-03 0. 2.20750552e-03 0. 0. 0.
      0. 0. 0. 4.41501103e-03 0. 1.32450331e-02 4.41501103e-03 0. 0. 0.
      2.20750552e-03 0. 0. 6.62251655e-03 2.20750552e-03 4.41501103e-03
      2.20750552e-03 0. 0. 0. 0. 4.41501103e-03 0. 2.20750552e-03 0. 0.
      0. 0. 0. 0. 2.20750552e-03 2.20750552e-03 0. 0. 4.41501103e-03 0.
      2.20750552e-03 0. 0. 0. 0. 0. 0. 0. 0. 0. 0. 2.20750552e-03 0. 0.
      0. 0. 0. 0. 2.20750552e-03 0. 0. 6.62251655e-03 2.20750552e-03 0.
      0. 0. 0. 4.41501103e-03 0. 2.20750552e-03 4.41501103e-03 0.
      2.20750552e-03 2.20750552e-03 6.62251655e-03 0. 2.20750552e-03 0.
      0. 0. 0. 0. 2.20750552e-03 0. 2.20750552e-03 2.20750552e-03 0.
      4.41501103e-03 4.41501103e-03 0. 0. 0. 0. 4.41501103e-03 0.
      4.41501103e-03 2.20750552e-03 0. 0. 0. 0. 0. 0. 0. 0. 0.
      2.20750552e-03 0. 0. 0. 0. 2.20750552e-03 0. 2.20750552e-03 0. 0.
      2.20750552e-03 4.41501103e-03 0. 0. 0. 0. 0. 0. 4.41501103e-03 0.
      0. 0. 0. 0. 0. 0. 0. 0. 0. 0. 2.20750552e-03 0. 0. 0. 0. 0.
      2.20750552e-03 0. 0. 6.62251655e-03 0. 0. 0. 0. 0. 0. 0. 0. 0.
      4.41501103e-03 2.20750552e-03 0. 6.62251655e-03 0. 0. 0. 0. 0.
      2.20750552e-03 0. 0. 1.10375276e-02 0. 0. 0. 0. 2.20750552e-03 0.
      8.83002207e-03 0. 2.20750552e-03 0. 0. 0. 0. 0. 0. 0.
      2.20750552e-03 0. 4.41501103e-03 0. 0. 0. 6.62251655e-03 0.
      2.20750552e-03 0. 0. 0. 0. 0. 6.62251655e-03 2.20750552e-03 0. 0.
      0. 0. 0. 0. 0. 2.20750552e-03 0. 0. 4.41501103e-03 0. 0.
      2.20750552e-03 0. 0. 0. 0. 0. 0. 0. 0. 4.41501103e-03 0. 0. 0.
      2.20750552e-03 2.20750552e-03 0. 0.</_>
    <_>
      0. 0. 0. 0. 0. 0. 0. 0. 0. 0. 0. 0. 0. 0. 0. 3.69003695e-03 0. 0.
      0. 1.84501857e-02 0. 0. 3.69003695e-03 0. 0. 3.69003695e-03 0. 0.
      0. 0. 3.69003695e-03 7.38007389e-03 0. 0. 0. 0. 0. 0. 0. 0. 0.
      3.69003695e-03 0. 0. 0. 0. 0. 0. 3.69003695e-03 0. 0. 0. 0. 0. 0.
      0. 0. 0. 0. 0. 0. 3.69003695e-03 0. 0. 0. 0. 0. 0. 3.69003695e-03
      0. 0. 0. 0. 0. 0. 0. 0. 0. 0. 0. 0. 0. 0. 0. 0. 0. 0. 0. 0. 0. 0.
      0. 0. 0. 0. 0. 0. 0. 3.69003695e-03 0. 0. 0. 7.38007389e-03 0.
      3.69003695e-03 0. 3.69003695e-03 0. 0. 0. 0. 0. 0. 3.69003695e-03
      0. 0. 0. 0. 0. 0. 0. 0. 0. 0. 3.69003695e-03 0. 0. 0. 0. 0. 0. 0.
      0. 0. 0. 0. 0. 0. 0. 0. 3.69003695e-03 0. 1.84501857e-02 0. 0. 0.
      0. 0. 0. 0. 0. 0. 0. 0. 0. 3.69003695e-03 0. 0. 3.69003695e-03 0.
      0. 0. 0. 0. 0. 0. 0. 1.10701108e-02 0. 0. 0. 0. 0. 3.69003695e-03
      0. 0. 0. 0. 0. 0. 0. 0. 0. 0. 0. 3.69003695e-03 0. 3.69003695e-03
      3.69003695e-03 0. 0. 0. 0. 0. 0. 0. 0. 0. 0. 0. 0. 1.84501857e-02
      0. 0. 3.69003695e-03 0. 0. 0. 0. 0. 0. 0. 0. 3.69003695e-03
      3.69003695e-03 2.21402217e-02 0. 0. 0. 0. 0. 0. 0. 3.69003695e-03
      0. 0. 0. 0. 0. 0. 0. 0. 0. 3.69003695e-03 7.38007389e-03 0. 0. 0.
      0. 0. 0. 3.69003695e-03 0. 0. 0. 0. 0. 0. 0. 0. 0. 0. 0. 0. 0. 0.
      7.38007389e-03 0. 0. 0. 0. 0. 0. 0. 3.69003695e-03 0. 0. 0. 0. 0.
      0. 0. 0. 0. 0. 7.38007389e-03 0. 3.69003695e-03 0. 3.69003695e-03
      0. 0. 0. 3.69003695e-03 0. 7.38007389e-03 0. 3.69003695e-03 0. 0.
      2.21402217e-02 3.69003695e-03 0. 0. 0. 0. 0. 0. 0. 3.69003695e-03
      0. 0. 0. 0. 0. 0. 3.69003695e-03 0. 3.69003695e-03 0. 0. 0. 0. 0.
      1.47601478e-02 0. 3.69003695e-03 0. 0. 0. 4.79704812e-02 0.
      3.69003695e-03 0. 0. 0. 0. 0. 3.69003695e-03 0. 0. 3.69003695e-03
      0. 0. 0. 0. 0. 1.84501857e-02 0. 3.69003695e-03 3.69003695e-03 0.
      0. 0. 0. 0. 0. 0. 0. 0. 3.69003695e-03 0. 0. 0. 0. 0. 0. 0.
      3.69003695e-03 3.69003695e-03 0. 0. 0. 0. 0. 0. 0. 0.
      3.69003695e-03 0. 0. 0. 0. 0. 0. 0. 0. 3.69003695e-03
      3.69003695e-03 0. 0. 0. 0. 0. 0. 0. 0. 0. 0. 0. 7.38007389e-03 0.
      0. 0. 0. 0. 0. 0. 0. 0. 7.38007389e-03 0. 0. 0. 0. 0. 0.
      3.69003695e-03 0. 0. 0. 3.69003695e-03 0. 3.69003695e-03 0. 0. 0.
      0. 0. 0. 0. 0. 0. 0. 0. 0. 0. 0. 0. 0. 0. 0. 0. 0. 0. 0.
      3.69003695e-03 0. 0. 0. 0. 0. 0. 1.10701108e-02 0. 0. 0. 0. 0. 0.
      0. 0. 0. 0. 0. 0. 0. 0. 0. 0. 0. 0. 0. 0. 0. 0. 0. 0. 0.
      3.69003695e-03 3.69003695e-03 0. 0. 0. 2.95202956e-02 0.
      3.69003695e-03 0. 0. 0. 0. 3.69003695e-03 0. 3.69003695e-03 0. 0.
      0. 0. 0. 0. 3.69003695e-03 0. 0. 0. 0. 0. 0. 0. 0. 3.69003695e-03
      3.69003695e-03 0. 0. 0. 0. 0. 0. 0. 3.69003695e-03 0. 0. 0. 0. 0.
      0. 0. 0. 0. 0. 1.10701108e-02 0. 0. 3.69003695e-03 0.
      7.38007389e-03 0. 0. 0. 0. 0. 0. 0. 0. 7.38007389e-03
      3.32103334e-02 7.38007389e-03 0. 0. 0. 0. 0. 0. 0. 0. 0. 0.
      3.69003695e-03 0. 0. 0. 3.69003695e-03 0. 1.10701108e-02 0. 0. 0.
      0. 0. 0. 0. 0. 0. 0. 3.69003695e-03 0. 0. 0. 0. 0. 3.69003695e-03
      0. 0. 0. 0. 0. 0. 3.69003695e-03 0. 0. 0. 0. 0. 0. 0.
      3.69003695e-03 0. 0. 3.69003695e-03 0. 7.38007389e-03 0. 0. 0. 0.
      0. 0. 0. 0. 0. 0. 0. 0. 0. 0. 0. 3.69003695e-03 0. 0. 0. 0. 0. 0.
      0. 0. 0. 0. 0. 0. 0. 0. 0. 0. 0. 0. 0. 0. 0. 7.38007389e-03 0. 0.
      0. 0. 0. 0. 1.10701108e-02 3.69003695e-03 0. 0. 0. 0. 0. 0. 0. 0.
      0. 0. 3.69003695e-03 0. 0. 0. 0. 3.69003695e-03 0. 0. 0. 0. 0. 0.
      0. 0. 0. 0. 3.69003695e-03 0. 0. 0. 0. 0. 0. 0. 7.38007389e-03 0.
      0. 0. 0. 0. 0. 0. 3.69003695e-03 3.69003695e-03 0. 0. 0.
      3.69003695e-03 0. 0. 3.69003695e-03 7.38007389e-03 0. 0. 0. 0. 0.
      0. 0. 0. 0. 0. 0. 0. 3.69003695e-03 0. 0. 0. 0. 0. 3.69003695e-03
      3.69003695e-03 0. 3.69003695e-03 0. 0. 3.69003695e-03
      3.69003695e-03 0. 0. 3.69003695e-03 0. 0. 0. 0. 0. 0. 0. 0. 0. 0.
      0. 0. 0. 0. 0. 0. 0. 0. 0. 3.69003695e-03 3.69003695e-03 0. 0.
      3.69003695e-03 0. 0. 0. 0. 0. 0. 0. 3.69003695e-03 0. 0. 0. 0. 0.
      0. 3.69003695e-03 0. 0. 0. 0. 0. 0. 0. 0. 3.69003695e-03 0. 0. 0.
      3.69003695e-03 0. 0. 0. 0. 0. 0. 0. 0. 0. 0. 0. 3.69003695e-03
      3.69003695e-03 0. 3.69003695e-03 0. 0. 0. 0. 0. 0. 7.38007389e-03
      0. 0. 0. 0. 0. 0. 0. 0. 0. 0. 0. 0. 0. 0. 3.69003695e-03 0. 0. 0.
      0. 3.69003695e-03 0. 0. 0. 0. 0. 0. 0. 0. 3.69003695e-03 0. 0. 0.
      3.69003695e-03 0. 0. 3.69003695e-03 3.69003695e-03 3.69003695e-03
      0. 0. 0. 3.69003695e-03 0. 0. 0. 0. 0. 7.38007389e-03 0. 0. 0.
      1.10701108e-02 0. 0. 0. 0. 3.69003695e-03 0. 7.38007389e-03 0. 0.
      0. 0. 0. 0. 3.69003695e-03 0. 0. 0. 0. 0. 0. 0. 0. 0.
      3.69003695e-03 3.69003695e-03 0. 3.69003695e-03 0. 3.69003695e-03
      0. 0. 0. 0. 3.69003695e-03 0. 0. 3.69003695e-03 0. 0. 0. 0. 0.
      1.10701108e-02 0. 0. 0. 0. 0. 0. 0. 0. 1.10701108e-02 0. 0.
      7.38007389e-03 3.69003695e-03 0. 3.69003695e-03 0. 0. 0. 0. 0. 0.
      3.69003695e-03 0. 0. 0. 0. 0. 0. 0. 0. 3.69003695e-03 0. 0. 0. 0.
      0. 0. 0. 0. 0. 0. 0. 0. 0. 0. 0. 3.69003695e-03 0. 0. 0. 0.
      2.95202956e-02 0. 0. 0. 0. 0. 7.38007389e-03 1.10701108e-02 0.
      3.69003695e-03 3.69003695e-03 0. 0. 0. 0. 0. 0. 0. 0. 0.
      3.69003695e-03 0. 0. 3.69003695e-03 0. 0. 0. 0. 3.69003695e-03 0.
      3.69003695e-03 0. 3.69003695e-03 0. 0. 0. 0. 0. 3.69003695e-03 0.
      0. 0. 0. 3.69003695e-03 0. 0. 0. 3.69003695e-03 0. 0. 0. 0.
      1.10701108e-02 0. 0. 0. 3.69003695e-03 0. 0. 3.69003695e-03 0. 0.
      0.</_>
    <_>
      0. 0. 0. 0. 3.95256933e-03 0. 0. 0. 0. 0. 0. 0. 0. 3.95256933e-03
      0. 0. 0. 0. 0. 1.58102773e-02 0. 0. 7.90513866e-03 0. 0. 0. 0. 0.
      0. 0. 0. 0. 0. 0. 3.95256933e-03 0. 0. 0. 0. 0. 0. 0. 0. 0. 0. 0.
      0. 0. 0. 0. 3.95256933e-03 0. 0. 3.95256933e-03 0. 0. 0. 0. 0. 0.
      0. 0. 0. 0. 0. 0. 3.95256933e-03 0. 0. 0. 0. 0. 0. 0. 0. 0. 0. 0.
      0. 0. 0. 0. 0. 0. 0. 0. 0. 3.95256933e-03 3.95256933e-03 0. 0. 0.
      0. 0. 0. 0. 0. 0. 0. 0. 0. 0. 0. 0. 0. 3.95256933e-03
      3.95256933e-03 7.90513866e-03 0. 0. 0. 0. 0. 0. 0. 0. 0. 0. 0. 0.
      0. 0. 0. 0. 3.95256933e-03 0. 0. 0. 0. 3.95256933e-03 0. 0. 0. 0.
      0. 0. 0. 0. 0. 0. 0. 0. 0. 0. 0. 3.95256933e-03 3.95256933e-03
      3.95256933e-03 3.95256933e-03 0. 7.90513866e-03 0. 0. 0. 0. 0. 0.
      0. 0. 0. 0. 0. 0. 3.95256933e-03 0. 0. 0. 3.95256933e-03 0. 0. 0.
      0. 0. 0. 3.95256933e-03 0. 0. 0. 0. 0. 0. 0. 0. 0. 0. 0. 0. 0.
      3.95256933e-03 0. 0. 0. 0. 0. 0. 0. 3.95256933e-03 0. 0. 0. 0. 0.
      3.95256933e-03 0. 0. 0. 0. 0. 3.95256933e-03 0. 0. 3.95256933e-03
      0. 0. 7.90513866e-03 3.95256933e-03 3.95256933e-03 0. 0. 0. 0. 0.
      3.95256933e-03 0. 0. 0. 1.58102773e-02 0. 0. 0. 0. 0.
      3.95256933e-03 0. 0. 0. 0. 0. 0. 0. 3.95256933e-03 3.95256933e-03
      0. 0. 0. 0. 0. 0. 0. 7.90513866e-03 0. 0. 0. 0. 0. 0.
      3.95256933e-03 0. 3.95256933e-03 0. 0. 0. 3.95256933e-03 0. 0. 0.
      0. 0. 3.95256933e-03 0. 0. 0. 0. 0. 0. 7.90513866e-03 0. 0. 0. 0.
      0. 0. 0. 1.18577080e-02 0. 3.95256933e-03 3.95256933e-03 0. 0. 0.
      0. 3.95256933e-03 0. 0. 0. 0. 0. 0. 0. 3.95256933e-03 0. 0. 0. 0.
      7.90513866e-03 0. 0. 0. 7.90513866e-03 0. 0. 0. 0. 0.
      3.95256933e-03 0. 3.95256933e-03 1.18577080e-02 0. 0. 0. 0. 0. 0.
      0. 0. 0. 0. 0. 0. 0. 0. 3.95256933e-03 0. 0. 0. 0. 0. 0. 0. 0. 0.
      0. 0. 0. 0. 0. 0. 0. 0. 0. 0. 0. 0. 0. 0. 0. 0. 0. 0.
      3.95256933e-03 3.95256933e-03 0. 0. 0. 0. 0. 0. 0. 0. 0. 0. 0. 0.
      0. 0. 0. 3.95256933e-03 0. 0. 0. 7.90513866e-03 0. 0.
      3.95256933e-03 3.95256933e-03 3.95256933e-03 3.95256933e-03 0. 0.
      0. 0. 0. 0. 0. 0. 0. 3.95256933e-03 0. 3.95256933e-03 0. 0. 0. 0.
      0. 0. 3.95256933e-03 0. 0. 0. 0. 0. 0. 0. 0. 0. 0. 3.95256933e-03
      0. 0. 0. 0. 0. 3.95256933e-03 0. 0. 0. 0. 0. 0. 0. 0. 0. 0. 0. 0.
      0. 0. 3.95256933e-03 0. 0. 3.95256933e-03 0. 3.95256933e-03 0. 0.
      0. 0. 0. 0. 3.95256933e-03 0. 0. 7.90513866e-03 0. 0. 0. 0.
      1.18577080e-02 0. 0. 3.95256933e-03 7.90513866e-03 3.95256933e-03
      3.95256933e-03 0. 0. 0. 0. 0. 0. 0. 3.95256933e-03 0. 0. 0. 0. 0.
      7.90513866e-03 0. 3.95256933e-03 3.95256933e-03 0. 0. 0. 0. 0. 0.
      0. 0. 0. 0. 0. 0. 0. 7.90513866e-03 0. 0. 0. 0. 0. 7.90513866e-03
      0. 0. 0. 0. 0. 0. 0. 3.95256933e-03 0. 0. 0. 0. 0. 3.95256933e-03
      0. 0. 0. 3.95256933e-03 0. 0. 3.95256933e-03 0. 3.95256933e-03 0.
      0. 0. 0. 3.95256933e-03 0. 1.18577080e-02 0. 0. 7.90513866e-03
      1.58102773e-02 0. 0. 0. 0. 0. 0. 0. 0. 0. 0. 0. 0. 0.
      3.95256933e-03 0. 0. 3.95256933e-03 0. 0. 0. 3.95256933e-03 0. 0.
      0. 0. 7.90513866e-03 0. 0. 0. 3.95256933e-03 0. 0. 0. 0.
      3.95256933e-03 0. 0. 0. 0. 0. 0. 0. 0. 0. 3.95256933e-03
      3.95256933e-03 0. 0. 3.95256933e-03 3.95256933e-03 3.95256933e-03
      0. 0. 0. 0. 0. 0. 3.95256933e-03 0. 3.95256933e-03 0. 0. 0. 0. 0.
      0. 3.95256933e-03 0. 0. 0. 0. 0. 0. 0. 0. 1.58102773e-02 0. 0. 0.
      0. 0. 0. 0. 0. 0. 0. 0. 0. 0. 0. 0. 0. 0. 0. 3.95256933e-03 0.
      7.90513866e-03 0. 3.95256933e-03 3.95256933e-03 0. 0. 0. 0. 0. 0.
      0. 0. 0. 0. 3.95256933e-03 3.95256933e-03 3.95256933e-03 0. 0. 0.
      0. 3.95256933e-03 0. 0. 0. 0. 0. 0. 0. 0. 3.95256933e-03 0. 0. 0.
      0. 0. 0. 0. 0. 0. 3.95256933e-03 0. 0. 3.95256933e-03 0. 0. 0. 0.
      0. 0. 0. 0. 7.90513866e-03 3.95256933e-03 0. 7.90513866e-03 0. 0.
      0. 0. 0. 0. 0. 0. 0. 0. 0. 0. 0. 0. 0. 0. 0. 0. 0. 0. 0. 0. 0. 0.
      3.95256933e-03 3.95256933e-03 3.95256933e-03 0. 0. 0. 0. 0. 0. 0.
      0. 0. 3.95256933e-03 0. 0. 0. 0. 0. 0. 0. 0. 3.95256933e-03 0. 0.
      0. 0. 0. 0. 0. 0. 0. 0. 3.95256933e-03 0. 0. 0. 0. 0.
      3.95256933e-03 0. 0. 0. 0. 0. 0. 0. 0. 0. 0. 0. 3.95256933e-03
      3.95256933e-03 0. 0. 0. 0. 0. 3.95256933e-03 0. 0. 0.
      3.95256933e-03 3.95256933e-03 0. 0. 0. 0. 0. 0. 3.95256933e-03 0.
      0. 0. 0. 1.18577080e-02 7.90513866e-03 0. 0. 0. 3.95256933e-03 0.
      0. 0. 3.95256933e-03 0. 0. 0. 3.95256933e-03 0. 0. 3.95256933e-03
      0. 0. 0. 0. 0. 3.95256933e-03 0. 0. 3.95256933e-03 0. 0.
      3.95256933e-03 7.90513866e-03 0. 7.90513866e-03 0. 0. 0. 0. 0. 0.
      0. 3.95256933e-03 0. 0. 0. 0. 0. 0. 0. 0. 0. 0. 3.95256933e-03 0.
      0. 1.18577080e-02 3.95256933e-03 0. 0. 2.37154160e-02
      1.58102773e-02 0. 3.95256933e-03 0. 0. 3.95256933e-03 0. 0. 0. 0.
      0. 0. 3.95256933e-03 0. 3.95256933e-03 7.90513866e-03 0. 0. 0.
      3.95256933e-03 3.95256933e-03 0. 0. 0. 3.95256933e-03 0. 0.
      7.90513866e-03 0. 0. 0. 0. 0. 0. 0. 0. 0. 0. 3.95256933e-03 0.
      3.95256933e-03 3.95256933e-03 0. 0. 0. 0. 3.95256933e-03 0. 0. 0.
      3.95256933e-03 0. 0. 0. 3.95256933e-03 0. 0. 0. 0. 0. 0.
      3.95256933e-03 7.90513866e-03 0. 0. 0. 0. 0. 0. 0. 3.95256933e-03
      0. 0. 3.95256933e-03 0. 3.95256933e-03 0. 0. 0. 3.95256933e-03
      3.95256933e-03 0. 3.95256933e-03 0. 0. 7.90513866e-03 0. 0. 0. 0.
      1.18577080e-02 0. 0. 7.90513866e-03 0. 0. 3.95256933e-03 0. 0. 0.
      0. 0. 0. 0. 0. 0. 0. 0. 3.95256933e-03 0. 3.95256933e-03 0.
      3.95256933e-03 0. 0. 3.95256933e-03 0. 0. 0. 3.95256933e-03 0. 0.
      0. 0. 0. 0. 0. 0. 3.95256933e-03 0. 0. 0. 0. 0. 0. 3.95256933e-03
      3.95256933e-03 0. 0. 3.95256933e-03 3.95256933e-03 0. 0.
      3.95256933e-03 0. 3.95256933e-03 0. 3.95256933e-03 0. 0. 0. 0.
      7.90513866e-03 0. 0. 0.</_>
    <_>
      0. 0. 0. 0. 0. 0. 0. 0. 0. 0. 0. 0. 0. 0. 0. 0. 0. 0. 0.
      2.12765951e-02 0. 0. 7.09219836e-03 0. 0. 7.09219836e-03 0. 0. 0.
      0. 0. 0. 0. 0. 0. 0. 0. 0. 0. 0. 0. 1.41843967e-02 7.09219836e-03
      0. 0. 0. 0. 0. 0. 0. 0. 0. 0. 0. 0. 0. 0. 0. 0. 0. 0. 0. 0. 0. 0.
      0. 0. 0. 1.41843967e-02 0. 0. 0. 0. 0. 0. 0. 0. 0. 0. 0. 0. 0. 0.
      0. 0. 0. 0. 0. 0. 0. 0. 0. 0. 0. 0. 0. 7.09219836e-03 0. 0. 0. 0.
      0. 0. 7.09219836e-03 0. 0. 7.09219836e-03 0. 0. 0. 0. 0. 0. 0. 0.
      0. 0. 0. 0. 0. 0. 0. 0. 0. 0. 0. 0. 0. 0. 0. 0. 0. 0. 0.
      3.54609936e-02 0. 0. 0. 0. 0. 0. 0. 7.09219836e-03 0. 0.
      7.09219836e-03 0. 0. 0. 0. 0. 0. 0. 0. 0. 0. 0. 0. 0. 0. 0. 0. 0.
      0. 0. 0. 0. 7.09219836e-03 0. 0. 0. 7.09219836e-03 0. 0. 0. 0. 0.
      0. 0. 7.09219836e-03 0. 7.09219836e-03 0. 0. 0. 0. 0. 0.
      7.09219836e-03 0. 0. 0. 0. 0. 0. 0. 0. 0. 0. 0. 0. 7.09219836e-03
      0. 0. 0. 0. 0. 0. 0. 0. 0. 0. 0. 0. 7.09219836e-03 0. 0. 0. 0. 0.
      0. 0. 0. 0. 0. 0. 0. 0. 0. 0. 7.09219836e-03 0. 0. 0.
      7.09219836e-03 0. 0. 0. 0. 0. 0. 7.09219836e-03 0. 0. 0. 0.
      7.09219836e-03 0. 0. 7.09219836e-03 7.09219836e-03 0. 0.
      7.09219836e-03 0. 0. 0. 0. 0. 0. 0. 0. 0. 0. 0. 0. 0. 0. 0. 0. 0.
      0. 0. 0. 0. 0. 0. 0. 0. 0. 0. 0. 0. 0. 0. 0. 0. 0. 0. 0. 0. 0. 0.
      0. 0. 0. 1.41843967e-02 7.09219836e-03 0. 0. 0. 0. 0. 0.
      7.09219836e-03 0. 0. 0. 0. 0. 0. 0. 0. 0. 0. 0. 0. 0. 0. 0. 0. 0.
      0. 0. 0. 0. 0. 0. 0. 0. 0. 7.09219836e-03 0. 0. 0. 7.09219836e-03
      0. 0. 0. 0. 0. 0. 0. 7.09219836e-03 7.09219836e-03 0.
      7.09219836e-03 0. 0. 0. 0. 0. 0. 0. 0. 0. 0. 0. 0. 0. 0. 0. 0. 0.
      1.41843967e-02 0. 0. 0. 7.09219836e-03 0. 0. 7.09219836e-03 0.
      3.54609936e-02 0. 0. 2.12765951e-02 0. 7.09219836e-03 0. 0. 0. 0.
      0. 0. 0. 0. 0. 0. 0. 0. 0. 0. 0. 0. 0. 0. 0. 0. 0. 0. 0. 0. 0. 0.
      0. 7.09219836e-03 0. 0. 0. 0. 0. 0. 0. 0. 0. 0. 0. 0. 0. 0. 0. 0.
      0. 0. 0. 0. 0. 0. 0. 0. 0. 0. 0. 0. 0. 7.09219836e-03 0. 0. 0. 0.
      0. 0. 0. 0. 0. 0. 0. 0. 0. 0. 7.09219836e-03 0. 0. 0. 0. 0. 0. 0.
      7.09219836e-03 0. 0. 0. 0. 0. 7.09219836e-03 0. 0. 0. 0. 0. 0. 0.
      0. 0. 0. 7.09219836e-03 0. 0. 0. 0. 0. 0. 0. 7.09219836e-03 0. 0.
      0. 0. 0. 0. 0. 0. 0. 0. 0. 0. 0. 0. 0. 0. 0. 0. 0. 0. 0. 0. 0. 0.
      0. 0. 0. 0. 0. 0. 0. 0. 0. 0. 0. 0. 0. 7.09219836e-03 0. 0. 0. 0.
      0. 0. 0. 0. 0. 0. 0. 0. 0. 0. 0. 0. 0. 0. 0. 0. 0. 0. 0. 0. 0. 0.
      0. 0. 0. 2.12765951e-02 0. 0. 0. 0. 0. 0. 0. 0. 0. 7.09219836e-03
      0. 0. 0. 0. 0. 1.41843967e-02 0. 0. 1.41843967e-02 0. 0. 0. 0. 0.
      0. 0. 0. 0. 0. 0. 0. 0. 0. 0. 0. 0. 0. 0. 0. 0. 0. 0. 0. 0. 0. 0.
      0. 0. 0. 1.41843967e-02 0. 0. 0. 0. 7.09219836e-03 0. 0. 0. 0. 0.
      0. 0. 0. 0. 0. 0. 7.09219836e-03 0. 0. 0. 0. 0. 0. 0. 0.
      7.09219836e-03 0. 0. 0. 0. 0. 0. 1.41843967e-02 0. 0. 0. 0. 0.
      7.09219836e-03 0. 1.41843967e-02 0. 0. 7.09219836e-03 0. 0. 0. 0.
      7.09219836e-03 7.09219836e-03 0. 0. 0. 1.41843967e-02 0. 0. 0. 0.
      0. 0. 0. 0. 0. 0. 0. 0. 0. 7.09219836e-03 0. 0. 0. 0. 0. 0. 0.
      7.09219836e-03 0. 0. 0. 1.41843967e-02 0. 0. 1.41843967e-02 0. 0.
      0. 0. 0. 0. 0. 0. 0. 0. 0. 0. 0. 0. 0. 0. 0. 0. 0. 0.
      7.09219836e-03 0. 0. 0. 0. 0. 0. 0. 0. 0. 0. 7.09219836e-03 0.
      7.09219836e-03 0. 0. 0. 0. 1.41843967e-02 0. 0. 0. 0.
      7.09219836e-03 0. 0. 0. 0. 0. 0. 0. 0. 7.09219836e-03 0.
      7.09219836e-03 0. 0. 0. 0. 0. 0. 0. 7.09219836e-03 0. 0. 0. 0.
      7.09219836e-03 0. 0. 7.09219836e-03 0. 0. 7.09219836e-03 0. 0. 0.
      0. 0. 0. 0. 0. 0. 0. 7.09219836e-03 0. 7.09219836e-03
      7.09219836e-03 0. 1.41843967e-02 0. 0. 0. 0. 0. 0. 0. 0. 0. 0. 0.
      0. 0. 0. 0. 0. 0. 0. 0. 0. 0. 0. 0. 0. 0. 0. 0. 0. 0. 0. 0. 0. 0.
      0. 7.09219836e-03 0. 0. 0. 0. 7.09219836e-03 7.09219836e-03
      7.09219836e-03 0. 0. 7.09219836e-03 0. 0. 0. 0. 7.09219836e-03 0.
      0. 0. 0. 0. 0. 0. 0. 0. 0. 0. 0. 7.09219836e-03 0. 0. 0. 0. 0. 0.
      0. 0. 0. 0. 7.09219836e-03 0. 0. 0. 0. 0. 0. 0. 0. 0. 0. 0. 0. 0.
      0. 0. 0. 1.41843967e-02 0. 0. 0. 0. 0. 7.09219836e-03 0. 0. 0. 0.
      0. 0. 0. 0. 0. 7.09219836e-03 0. 0. 0. 0. 0. 0. 0. 0. 0. 0. 0. 0.
      0. 0. 0. 0. 0. 0. 0. 0. 0. 0. 0. 0. 0. 0. 7.09219836e-03 0.
      7.09219836e-03 1.41843967e-02 0. 0. 0. 7.09219836e-03
      7.09219836e-03 0. 0. 0. 0. 0. 0. 0. 0. 0. 0. 0. 0. 0.
      7.09219836e-03 0. 0. 0. 7.09219836e-03 0. 0. 7.09219836e-03 0. 0.
      7.09219836e-03 7.09219836e-03 0. 7.09219836e-03 7.09219836e-03 0.
      0. 0. 0. 0. 0. 7.09219836e-03 0. 0. 0. 0. 0. 0. 7.09219836e-03
      7.09219836e-03 7.09219836e-03 0. 0. 0. 0. 0. 0. 0. 0. 0. 0. 0. 0.
      0. 0. 0. 0. 0. 7.09219836e-03 0. 0. 0. 0. 0. 0. 0. 0. 0.
      7.09219836e-03 0. 0. 0. 0. 0. 0. 0. 0. 0. 0.</_>
    <_>
      0. 0. 0. 0. 0. 0. 0. 6.45161280e-03 0. 0. 0. 0. 0. 0. 0. 0. 0. 0.
      0. 0. 0. 0. 6.45161280e-03 0. 0. 0. 0. 0. 0. 0. 0. 0. 0. 0. 0. 0.
      0. 0. 0. 0. 0. 0. 0. 6.45161280e-03 6.45161280e-03 0. 0. 0.
      6.45161280e-03 0. 0. 0. 0. 0. 0. 0. 0. 0. 0. 0. 0. 0. 0. 0. 0. 0.
      0. 0. 0. 0. 0. 0. 0. 0. 0. 0. 0. 6.45161280e-03 0. 0. 0. 0. 0.
      6.45161280e-03 6.45161280e-03 0. 0. 0. 0. 0. 0. 0. 0. 0. 0.
      1.29032256e-02 0. 0. 6.45161280e-03 0. 0. 0. 6.45161280e-03 0. 0.
      0. 0. 0. 0. 0. 0. 0. 0. 0. 0. 0. 6.45161280e-03 0. 0. 0. 0. 0. 0.
      0. 0. 6.45161280e-03 0. 6.45161280e-03 0. 0. 0. 0. 0. 0. 0. 0. 0.
      0. 6.45161280e-03 0. 0. 0. 0. 0. 0. 6.45161280e-03 0. 0. 0. 0. 0.
      0. 0. 0. 0. 0. 0. 0. 6.45161280e-03 0. 0. 0. 0. 0. 0. 0. 0. 0. 0.
      0. 0. 0. 0. 0. 0. 0. 0. 0. 0. 1.29032256e-02 0. 6.45161280e-03 0.
      0. 0. 0. 0. 0. 0. 0. 6.45161280e-03 0. 0. 0. 0. 0. 0. 0. 0. 0. 0.
      0. 0. 6.45161280e-03 0. 6.45161280e-03 0. 0. 0. 0. 0. 0. 0.
      6.45161280e-03 0. 6.45161280e-03 6.45161280e-03 0. 0. 0. 0. 0. 0.
      0. 0. 0. 0. 2.58064512e-02 0. 0. 0. 0. 0. 0. 1.29032256e-02 0. 0.
      0. 0. 0. 0. 0. 0. 0. 0. 0. 0. 0. 0. 0. 1.29032256e-02 0. 0. 0. 0.
      0. 6.45161280e-03 0. 0. 0. 0. 0. 0. 0. 0. 0. 0. 0. 0. 0. 0. 0. 0.
      1.29032256e-02 0. 0. 0. 0. 0. 0. 0. 0. 0. 0. 6.45161280e-03 0. 0.
      0. 0. 0. 6.45161280e-03 6.45161280e-03 0. 0. 0. 0. 0. 0. 0.
      6.45161280e-03 6.45161280e-03 0. 0. 0. 6.45161280e-03 0. 0. 0. 0.
      0. 0. 0. 0. 0. 0. 0. 6.45161280e-03 0. 6.45161280e-03 0. 0.
      6.45161280e-03 0. 0. 0. 0. 0. 0. 0. 0. 0. 0. 0. 0. 0. 0. 0. 0. 0.
      0. 0. 0. 0. 0. 0. 0. 0. 0. 0. 0. 0. 0. 0. 0. 0. 0. 0. 0. 0. 0.
      6.45161280e-03 0. 0. 0. 0. 0. 0. 0. 6.45161280e-03 0. 0. 0. 0. 0.
      0. 0. 0. 0. 6.45161280e-03 0. 0. 0. 0. 0. 0. 6.45161280e-03 0. 0.
      0. 0. 0. 0. 0. 0. 0. 0. 0. 0. 0. 0. 0. 0. 0. 0. 0. 0.
      6.45161280e-03 0. 0. 0. 0. 0. 0. 0. 6.45161280e-03 0. 0. 0. 0. 0.
      0. 0. 0. 0. 0. 6.45161280e-03 0. 6.45161280e-03 0. 6.45161280e-03
      0. 0. 6.45161280e-03 6.45161280e-03 0. 0. 0. 0. 0. 0. 0. 0. 0. 0.
      0. 0. 0. 6.45161280e-03 0. 0. 0. 0. 6.45161280e-03 0.
      6.45161280e-03 0. 0. 0. 0. 0. 0. 0. 0. 0. 0. 6.45161280e-03 0. 0.
      0. 0. 0. 0. 0. 0. 6.45161280e-03 0. 0. 0. 0. 0. 0. 0. 0. 0. 0. 0.
      0. 0. 0. 6.45161280e-03 1.29032256e-02 0. 0. 0. 0. 0. 0. 0. 0. 0.
      0. 6.45161280e-03 0. 0. 0. 0. 0. 0. 0. 0. 0. 0. 0. 0. 0. 0. 0. 0.
      0. 0. 0. 0. 6.45161280e-03 0. 6.45161280e-03 0. 0. 0. 0. 0. 0. 0.
      0. 0. 0. 0. 0. 0. 6.45161280e-03 0. 0. 0. 0. 0. 0. 6.45161280e-03
      0. 0. 0. 0. 0. 0. 6.45161280e-03 0. 0. 0. 0. 0. 0. 0. 0. 0. 0.
      6.45161280e-03 0. 0. 0. 0. 0. 0. 0. 6.45161280e-03 0. 0. 0. 0. 0.
      0. 0. 0. 0. 0. 0. 0. 0. 0. 0. 0. 0. 0. 0. 0. 0. 0. 0. 0. 0.
      6.45161280e-03 0. 6.45161280e-03 0. 0. 6.45161280e-03 0.
      6.45161280e-03 0. 6.45161280e-03 0. 6.45161280e-03 0. 0.
      1.29032256e-02 6.45161280e-03 0. 0. 0. 0. 0. 0. 0. 0.
      1.29032256e-02 0. 0. 0. 0. 6.45161280e-03 6.45161280e-03
      1.29032256e-02 6.45161280e-03 0. 0. 0. 0. 6.45161280e-03 0. 0. 0.
      0. 0. 0. 0. 0. 0. 0. 0. 0. 0. 6.45161280e-03 0. 6.45161280e-03 0.
      0. 0. 0. 0. 0. 0. 0. 0. 0. 0. 0. 0. 0. 0. 0. 0. 6.45161280e-03
      1.29032256e-02 0. 0. 0. 0. 0. 6.45161280e-03 6.45161280e-03
      6.45161280e-03 0. 0. 0. 0. 0. 6.45161280e-03 0. 0. 0. 0. 0. 0. 0.
      0. 0. 0. 0. 0. 0. 0. 0. 0. 6.45161280e-03 0. 6.45161280e-03 0. 0.
      0. 0. 0. 0. 0. 0. 6.45161280e-03 0. 1.29032256e-02 0. 0. 0. 0. 0.
      6.45161280e-03 0. 0. 0. 0. 0. 0. 0. 0. 0. 0. 0. 0. 0. 0. 0. 0. 0.
      0. 0. 0. 0. 0. 0. 0. 0. 0. 0. 0. 0. 0. 0. 0. 0. 0. 0. 0. 0. 0. 0.
      0. 0. 0. 0. 0. 0. 0. 0. 0. 6.45161280e-03 0. 0. 0. 0.
      6.45161280e-03 0. 6.45161280e-03 0. 0. 0. 0. 6.45161280e-03 0. 0.
      0. 0. 0. 6.45161280e-03 1.29032256e-02 0. 0. 0. 6.45161280e-03 0.
      0. 0. 0. 0. 0. 0. 0. 0. 0. 0. 0. 0. 0. 6.45161280e-03 0. 0. 0. 0.
      0. 0. 0. 0. 1.93548389e-02 6.45161280e-03 0. 0. 0. 0.
      6.45161280e-03 0. 0. 0. 1.29032256e-02 0. 0. 2.58064512e-02 0. 0.
      0. 6.45161280e-03 6.45161280e-03 0. 0. 0. 6.45161280e-03 0. 0. 0.
      0. 0. 0. 0. 6.45161280e-03 0. 0. 0. 0. 0. 0. 0. 0. 0. 0.
      6.45161280e-03 0. 0. 0. 0. 0. 0. 0. 0. 0. 0. 0. 0. 0. 0. 0. 0. 0.
      0. 0. 0. 0. 0. 0. 0. 0. 0. 0. 0. 0. 0. 0. 0. 0. 0. 0.
      6.45161280e-03 0. 6.45161280e-03 0. 0. 0. 0. 0. 0. 0. 0. 0. 0. 0.
      0. 0. 0. 0. 0. 6.45161280e-03 0. 0. 0. 0. 0. 0. 0. 0. 0.
      6.45161280e-03 0. 6.45161280e-03 0. 0. 0. 0. 0. 6.45161280e-03 0.
      0. 0. 0. 1.93548389e-02 0. 0. 6.45161280e-03 0. 0. 0. 0.
      6.45161280e-03 0. 0. 6.45161280e-03 0. 0. 6.45161280e-03
      6.45161280e-03 0. 0. 0. 0. 0. 0. 0. 0. 0. 0. 0. 0. 0.
      6.45161280e-03 0. 0. 0. 0. 0. 6.45161280e-03 0. 0. 0.
      1.29032256e-02 0. 0. 0. 0. 0. 0. 0. 0. 0. 0. 6.45161280e-03 0. 0.
      6.45161280e-03 0. 6.45161280e-03 0. 0. 0. 0. 0. 1.93548389e-02 0.
      0. 0. 0.</_>
    <_>
      0. 0. 0. 0. 0. 0. 0. 0. 0. 0. 0. 0. 0. 0. 0. 0. 0. 0. 0. 0. 0. 0.
      0. 0. 0. 0. 0. 0. 2.77777780e-02 0. 0. 0. 0. 0. 0. 0. 0. 0. 0. 0.
      0. 0. 0. 0. 0. 0. 0. 0. 0. 0. 5.55555560e-02 0. 0. 0. 0. 0. 0. 0.
      0. 0. 0. 0. 0. 0. 0. 0. 0. 0. 0. 0. 0. 0. 0. 0. 0. 0. 0. 0. 0. 0.
      0. 0. 0. 0. 0. 0. 0. 0. 0. 0. 0. 0. 0. 0. 0. 0. 0. 0. 0. 0. 0. 0.
      0. 0. 0. 0. 0. 0. 0. 0. 0. 0. 0. 0. 0. 0. 0. 0. 0. 0. 0. 0. 0. 0.
      0. 0. 0. 0. 0. 0. 0. 0. 0. 0. 0. 0. 0. 0. 0. 0. 0. 0. 0. 0. 0. 0.
      0. 0. 0. 0. 0. 0. 0. 0. 0. 0. 0. 0. 0. 0. 0. 0. 0. 0. 0. 0. 0. 0.
      0. 0. 0. 0. 0. 0. 0. 0. 0. 0. 0. 0. 0. 0. 0. 0. 0. 0. 0. 0. 0. 0.
      0. 0. 0. 0. 0. 0. 0. 0. 0. 0. 0. 0. 2.77777780e-02 0. 0. 0. 0. 0.
      0. 0. 0. 0. 0. 0. 0. 0. 0. 0. 0. 0. 0. 0. 0. 0. 0. 0. 0. 0. 0. 0.
      0. 2.77777780e-02 0. 0. 0. 0. 0. 0. 0. 0. 0. 0. 5.55555560e-02 0.
      0. 0. 0. 0. 0. 0. 0. 0. 0. 0. 0. 0. 0. 0. 0. 0. 0. 0. 0. 0. 0. 0.
      0. 0. 0. 0. 0. 0. 0. 0. 0. 0. 0. 0. 0. 0. 0. 0. 0. 0. 0. 0. 0. 0.
      0. 0. 0. 0. 0. 0. 0. 0. 0. 0. 0. 0. 0. 0. 0. 2.77777780e-02
      2.77777780e-02 0. 0. 0. 0. 0. 0. 0. 0. 0. 0. 0. 0. 0. 0. 0. 0. 0.
      0. 0. 0. 0. 0. 0. 0. 0. 0. 0. 0. 0. 0. 0. 0. 0. 0. 0. 0. 0. 0. 0.
      2.77777780e-02 0. 0. 0. 0. 0. 0. 0. 0. 0. 0. 0. 0. 2.77777780e-02
      0. 0. 0. 0. 0. 0. 0. 0. 0. 0. 0. 0. 0. 0. 0. 0. 0. 0. 0.
      2.77777780e-02 0. 0. 0. 0. 0. 0. 0. 0. 0. 0. 0. 0. 0. 0. 0. 0. 0.
      2.77777780e-02 0. 2.77777780e-02 0. 0. 0. 0. 0. 0. 0. 0. 0. 0. 0.
      0. 0. 0. 0. 0. 0. 0. 0. 0. 0. 0. 0. 0. 0. 0. 0. 0. 0. 0. 0. 0. 0.
      0. 0. 0. 0. 0. 0. 0. 0. 0. 0. 0. 0. 0. 0. 0. 0. 0. 0. 0. 0. 0. 0.
      0. 0. 0. 0. 0. 0. 0. 0. 0. 0. 0. 0. 2.77777780e-02 0. 0. 0. 0. 0.
      0. 0. 0. 0. 0. 0. 0. 0. 0. 0. 0. 0. 0. 0. 0. 0. 0. 0. 0. 0. 0. 0.
      0. 0. 0. 0. 0. 0. 0. 0. 0. 0. 0. 0. 0. 0. 0. 0. 0. 0. 0. 0. 0. 0.
      0. 0. 0. 0. 0. 0. 0. 0. 0. 0. 0. 0. 0. 0. 0. 2.77777780e-02 0. 0.
      0. 0. 0. 0. 0. 0. 0. 0. 0. 0. 0. 0. 0. 0. 0. 0. 0. 0. 0. 0. 0. 0.
      0. 0. 0. 0. 0. 0. 0. 0. 0. 0. 0. 0. 0. 0. 0. 0. 0. 0. 0. 0. 0.
      2.77777780e-02 0. 0. 0. 0. 0. 0. 0. 0. 0. 0. 0. 0. 0. 0. 0. 0. 0.
      0. 0. 0. 2.77777780e-02 0. 0. 0. 0. 0. 0. 0. 0. 0. 0. 0. 0. 0. 0.
      0. 0. 0. 0. 0. 0. 0. 0. 0. 0. 0. 0. 0. 0. 0. 0. 0. 0. 0. 0. 0. 0.
      0. 2.77777780e-02 0. 0. 0. 0. 0. 0. 0. 0. 0. 0. 0. 0. 0. 0. 0. 0.
      0. 0. 0. 0. 0. 0. 0. 0. 0. 0. 0. 0. 0. 2.77777780e-02 0. 0. 0.
      2.77777780e-02 0. 0. 0. 0. 0. 0. 0. 0. 0. 0. 0. 0. 0.
      2.77777780e-02 0. 2.77777780e-02 0. 0. 2.77777780e-02 0. 0. 0. 0.
      0. 0. 0. 2.77777780e-02 0. 0. 0. 0. 0. 0. 0. 0. 0. 0. 0. 0. 0. 0.
      0. 0. 0. 0. 0. 0. 0. 0. 0. 0. 0. 0. 0. 0. 0. 0. 0. 0. 0. 0. 0. 0.
      0. 0. 0. 0. 0. 0. 0. 0. 0. 0. 0. 0. 0. 0. 0. 0. 0. 0. 0. 0. 0. 0.
      0. 0. 0. 0. 0. 0. 0. 0. 0. 0. 0. 0. 0. 0. 2.77777780e-02 0. 0. 0.
      0. 0. 0. 0. 0. 0. 0. 0. 0. 0. 0. 0. 2.77777780e-02 0. 0. 0. 0. 0.
      0. 0. 0. 0. 0. 0. 0. 0. 0. 0. 0. 0. 0. 0. 0. 0. 0. 0. 0. 0. 0. 0.
      0. 0. 0. 0. 0. 0. 0. 0. 2.77777780e-02 0. 0. 0. 2.77777780e-02 0.
      0. 0. 0. 0. 0. 0. 0. 0. 0. 0. 0. 0. 0. 0. 0. 0. 0. 0. 0. 0. 0. 0.
      0. 0. 0. 0. 0. 0. 0. 0. 0. 0. 0. 0. 0. 0. 0. 0. 0. 0. 0. 0. 0. 0.
      0. 0. 0. 0. 0. 0. 0. 0. 0. 0. 0. 0. 0. 0. 0. 0. 0. 0. 0. 0. 0. 0.
      0. 0. 0. 0. 0. 0. 0. 0. 0. 0. 0. 0. 0. 0. 0. 0. 0. 0. 0. 0. 0. 0.
      0. 0. 0. 0. 0. 0. 0. 0. 0. 2.77777780e-02 0. 0. 2.77777780e-02 0.
      0. 0. 0. 0. 0. 0. 0. 0. 0. 0. 0. 0. 0. 0. 0. 0. 2.77777780e-02 0.
      0. 0. 0. 0. 0. 0. 5.55555560e-02 0. 0. 0. 0. 0. 0. 0. 0. 0. 0. 0.
      0. 0. 0. 2.77777780e-02 0. 0. 0. 2.77777780e-02 0. 0. 0. 0. 0. 0.
      0. 0. 0. 0. 0. 0. 0. 0. 0. 0. 0. 0. 0. 0. 0. 0. 0. 0. 0. 0. 0.</_>
    <_>
      0. 0. 0. 0. 0. 0. 0. 0. 0. 1.81159424e-03 0. 0. 0. 1.81159424e-03
      0. 0. 0. 1.81159424e-03 0. 1.81159424e-03 0. 0. 3.62318847e-03 0.
      0. 0. 0. 0. 0. 0. 1.81159424e-03 1.81159424e-03 0. 0.
      1.81159424e-03 0. 0. 0. 0. 0. 1.81159424e-03 0. 0. 0. 0. 0. 0. 0.
      0. 0. 0. 0. 1.81159424e-03 0. 0. 1.81159424e-03 0. 3.62318847e-03
      0. 1.81159424e-03 0. 0. 0. 0. 0. 0. 0. 0. 0. 1.81159424e-03 0. 0.
      0. 0. 0. 1.81159424e-03 0. 0. 0. 1.81159424e-03 0. 0. 0.
      1.81159424e-03 0. 0. 0. 0. 0. 3.62318847e-03 0. 0. 0. 0. 0. 0.
      3.62318847e-03 0. 5.43478271e-03 0. 0. 0. 1.81159424e-03 0.
      1.81159424e-03 0. 0. 1.81159424e-03 1.81159424e-03 1.81159424e-03
      0. 0. 1.81159424e-03 0. 0. 0. 1.81159424e-03 0. 0. 0. 0. 0. 0. 0.
      1.81159424e-03 0. 0. 0. 0. 0. 1.81159424e-03 0. 0. 1.81159424e-03
      3.62318847e-03 3.62318847e-03 0. 0. 0. 0. 0. 1.81159424e-03
      1.81159424e-03 3.62318847e-03 1.81159424e-03 0. 1.81159424e-03 0.
      3.62318847e-03 0. 0. 0. 1.81159424e-03 0. 0. 1.81159424e-03 0. 0.
      3.62318847e-03 1.81159424e-03 0. 3.62318847e-03 1.81159424e-03 0.
      1.81159424e-03 0. 0. 5.43478271e-03 0. 0. 0. 5.43478271e-03 0. 0.
      0. 0. 0. 0. 3.62318847e-03 0. 0. 0. 3.62318847e-03 0. 0. 0. 0.
      7.24637695e-03 0. 1.81159424e-03 0. 3.62318847e-03 0.
      1.81159424e-03 0. 0. 0. 0. 0. 1.81159424e-03 0. 5.43478271e-03
      1.81159424e-03 0. 0. 0. 1.81159424e-03 0. 1.81159424e-03
      1.81159424e-03 0. 0. 0. 0. 0. 1.81159424e-03 0. 0. 0. 0. 0. 0.
      1.81159424e-03 0. 0. 0. 3.62318847e-03 0. 0. 0. 1.81159424e-03 0.
      0. 0. 1.81159424e-03 0. 9.05797072e-03 0. 0. 0. 1.81159424e-03 0.
      1.81159424e-03 0. 1.81159424e-03 0. 3.62318847e-03 7.24637695e-03
      0. 5.43478271e-03 1.81159424e-03 1.81159424e-03 1.81159424e-03 0.
      1.81159424e-03 0. 0. 0. 0. 3.62318847e-03 0. 0. 1.81159424e-03
      7.24637695e-03 0. 0. 1.81159424e-03 0. 0. 1.81159424e-03 0. 0. 0.
      5.43478271e-03 0. 0. 0. 1.81159424e-03 0. 0. 0. 0. 1.81159424e-03
      0. 0. 1.81159424e-03 0. 0. 0. 1.81159424e-03 1.81159424e-03 0.
      7.24637695e-03 1.81159424e-03 0. 7.24637695e-03 1.81159424e-03
      3.62318847e-03 0. 0. 0. 3.62318847e-03 0. 0. 3.62318847e-03
      1.81159424e-03 0. 1.81159424e-03 3.62318847e-03 0. 0. 0. 0. 0.
      1.81159424e-03 1.81159424e-03 0. 1.81159424e-03 1.81159424e-03
      1.81159424e-03 0. 3.62318847e-03 1.81159424e-03 0. 0. 0.
      1.81159424e-03 0. 0. 0. 0. 5.43478271e-03 0. 0. 1.81159424e-03
      1.81159424e-03 0. 0. 0. 0. 0. 0. 1.81159424e-03 0. 0. 0.
      1.81159424e-03 0. 0. 0. 0. 3.62318847e-03 0. 0. 0. 1.81159424e-03
      3.62318847e-03 0. 1.81159424e-03 0. 0. 0. 0. 5.43478271e-03
      1.81159424e-03 0. 0. 0. 1.81159424e-03 1.81159424e-03
      1.81159424e-03 3.62318847e-03 0. 7.24637695e-03 0. 1.81159424e-03
      1.81159424e-03 0. 9.05797072e-03 5.43478271e-03 3.62318847e-03
      1.81159424e-03 1.81159424e-03 0. 0. 0. 0. 0. 0. 0. 1.81159424e-03
      0. 0. 0. 0. 0. 1.81159424e-03 0. 1.81159424e-03 3.62318847e-03 0.
      0. 7.24637695e-03 0. 0. 0. 1.81159424e-03 1.81159424e-03 0. 0. 0.
      0. 0. 5.43478271e-03 3.62318847e-03 1.81159424e-03 0.
      3.62318847e-03 0. 0. 0. 0. 1.81159424e-03 1.81159424e-03 0.
      1.81159424e-03 0. 1.81159424e-03 1.81159424e-03 0. 1.81159424e-03
      1.81159424e-03 0. 1.81159424e-03 0. 0. 3.62318847e-03 0. 0. 0. 0.
      0. 0. 3.62318847e-03 0. 0. 7.24637695e-03 0. 1.81159424e-03 0.
      3.62318847e-03 0. 0. 0. 0. 0. 1.81159424e-03 0. 0. 0. 0. 0.
      1.81159424e-03 0. 0. 3.62318847e-03 0. 0. 0. 3.62318847e-03 0. 0.
      5.43478271e-03 0. 0. 0. 3.62318847e-03 0. 0. 1.81159424e-03 0.
      3.62318847e-03 0. 1.81159424e-03 1.81159424e-03 0. 1.81159424e-03
      0. 1.81159424e-03 3.62318847e-03 5.43478271e-03 0. 0. 0.
      3.62318847e-03 3.62318847e-03 0. 0. 0. 1.81159424e-03
      3.62318847e-03 5.43478271e-03 0. 0. 0. 3.62318847e-03 0. 0.
      1.81159424e-03 0. 1.81159424e-03 0. 0. 0. 1.81159424e-03
      1.81159424e-03 0. 0. 0. 0. 1.81159424e-03 0. 5.43478271e-03 0.
      1.81159424e-03 0. 0. 0. 1.81159424e-03 0. 0. 9.05797072e-03 0.
      1.81159424e-03 0. 1.81159424e-03 0. 0. 0. 1.81159424e-03
      1.81159424e-03 0. 0. 0. 0. 1.81159424e-03 0. 0. 0. 0. 0.
      1.81159424e-03 3.62318847e-03 0. 0. 5.43478271e-03 0.
      3.62318847e-03 0. 1.81159424e-03 0. 0. 0. 0. 0. 0. 0.
      1.81159424e-03 1.81159424e-03 3.62318847e-03 0. 0. 0. 0. 0. 0. 0.
      0. 1.81159424e-03 0. 1.81159424e-03 0. 0. 0. 1.81159424e-03
      1.81159424e-03 1.81159424e-03 0. 0. 1.81159424e-03 0. 0. 0. 0. 0.
      1.81159424e-03 0. 0. 1.81159424e-03 1.81159424e-03 0. 0. 0. 0.
      1.81159424e-03 0. 3.62318847e-03 0. 3.62318847e-03 0. 0. 0.
      3.62318847e-03 0. 0. 5.43478271e-03 0. 0. 1.08695654e-02 0.
      3.62318847e-03 0. 0. 0. 0. 1.81159424e-03 0. 3.62318847e-03
      1.81159424e-03 1.81159424e-03 1.81159424e-03 0. 1.81159424e-03 0.
      1.81159424e-03 1.81159424e-03 0. 0. 0. 1.81159424e-03 0.
      1.81159424e-03 0. 0. 0. 1.81159424e-03 0. 1.81159424e-03 0. 0. 0.
      1.81159424e-03 1.81159424e-03 0. 1.81159424e-03 0. 0.
      1.81159424e-03 1.81159424e-03 1.81159424e-03 0. 0. 1.81159424e-03
      1.81159424e-03 0. 7.24637695e-03 0. 0. 0. 3.62318847e-03
      3.62318847e-03 0. 1.81159424e-03 1.81159424e-03 0. 3.62318847e-03
      3.62318847e-03 1.81159424e-03 5.43478271e-03 0. 0. 0.
      7.24637695e-03 3.62318847e-03 0. 0. 0. 1.81159424e-03
      1.81159424e-03 0. 1.81159424e-03 1.81159424e-03 0. 0. 0. 0.
      1.81159424e-03 1.81159424e-03 0. 0. 0. 0. 0. 0. 0. 0. 0.
      3.62318847e-03 0. 0. 0. 1.81159424e-03 0. 0. 0. 0. 7.24637695e-03
      0. 1.81159424e-03 0. 3.62318847e-03 1.81159424e-03 1.81159424e-03
      1.81159424e-03 0. 0. 0. 5.43478271e-03 0. 0. 0. 0. 0.
      1.81159424e-03 0. 1.81159424e-03 3.62318847e-03 0. 3.62318847e-03
      0. 5.43478271e-03 0. 0. 0. 3.62318847e-03 1.81159424e-03 0. 0.
      1.81159424e-03 0. 1.81159424e-03 0. 0. 0. 0. 3.62318847e-03 0. 0.
      0. 0. 0. 0. 0. 0. 0. 1.81159424e-03 0. 0. 3.62318847e-03 0. 0. 0.
      3.62318847e-03 0. 1.81159424e-03 1.81159424e-03 0. 0. 0. 0.
      3.62318847e-03 7.24637695e-03 0. 1.81159424e-03 0. 0. 0. 0. 0. 0.
      3.62318847e-03 5.43478271e-03 1.81159424e-03 1.81159424e-03 0. 0.
      0. 7.24637695e-03 5.43478271e-03 5.43478271e-03 0. 0.
      1.81159424e-03 0. 0. 0. 1.81159424e-03 0. 0. 0. 3.62318847e-03 0.
      1.81159424e-03 0. 1.81159424e-03 0. 0. 3.62318847e-03 0. 0. 0.
      3.62318847e-03 0. 0. 1.81159424e-03 0. 3.62318847e-03
      5.43478271e-03 9.05797072e-03 0. 0. 0. 0. 0. 0. 0. 0.
      1.81159424e-03 0. 3.62318847e-03 0. 0. 0. 0. 0. 1.81159424e-03
      1.81159424e-03 0. 1.81159424e-03 0. 0. 0. 0. 0. 0. 0.
      1.81159424e-03 0. 1.81159424e-03 3.62318847e-03 0. 0. 0.
      1.81159424e-03 0. 1.81159424e-03 0. 0. 3.62318847e-03
      3.62318847e-03 1.81159424e-03 0. 3.62318847e-03 0. 0.
      5.43478271e-03 1.81159424e-03 0. 0. 1.81159424e-03 1.81159424e-03
      0. 0. 3.62318847e-03 3.62318847e-03 0. 0. 0. 3.62318847e-03 0.
      3.62318847e-03 0. 1.81159424e-03 0. 1.81159424e-03 1.81159424e-03
      3.62318847e-03 0. 0. 0. 0. 0. 0. 1.81159424e-03 0. 1.81159424e-03
      1.81159424e-03 1.81159424e-03 1.81159424e-03 0. 0. 1.81159424e-03
      0. 0. 0. 1.81159424e-03 1.81159424e-03 1.81159424e-03 0.
      1.81159424e-03 0. 3.62318847e-03 0. 1.81159424e-03 0. 0. 0. 0.
      1.81159424e-03 1.81159424e-03 0. 1.81159424e-03 1.81159424e-03
      1.81159424e-03 1.81159424e-03 0. 0. 1.81159424e-03 1.81159424e-03
      0. 1.81159424e-03 0. 0. 1.81159424e-03 0. 0. 0. 0. 0. 0.
      3.62318847e-03 0. 0. 0. 0. 0. 1.81159424e-03 0. 3.62318847e-03
      3.62318847e-03 1.81159424e-03 0. 1.81159424e-03 1.81159424e-03
      1.81159424e-03 0. 0. 1.81159424e-03 0. 1.81159424e-03 0. 0. 0. 0.
      0. 0. 0. 1.81159424e-03 0. 1.81159424e-03 1.81159424e-03 0. 0.
      1.81159424e-03 0. 0. 0. 1.81159424e-03 1.81159424e-03 0.
      3.62318847e-03 0. 0. 0. 0. 0. 1.81159424e-03 5.43478271e-03 0.
      3.62318847e-03</_>
    <_>
      0. 0. 0. 0. 0. 0. 0. 0. 0. 0. 0. 0. 0. 0. 0. 0. 1.77304959e-03 0.
      0. 0. 0. 0. 0. 0. 1.77304959e-03 5.31914877e-03 1.77304959e-03
      1.77304959e-03 0. 0. 0. 1.77304959e-03 0. 0. 0. 0. 0. 0. 0. 0.
      1.77304959e-03 0. 3.54609918e-03 1.77304959e-03 0. 0. 0. 0. 0. 0.
      0. 0. 1.77304959e-03 0. 1.77304959e-03 0. 0. 1.77304959e-03 0.
      1.77304959e-03 0. 0. 1.77304959e-03 0. 1.77304959e-03 0. 0. 0.
      3.54609918e-03 0. 0. 0. 0. 1.77304959e-03 0. 0. 0. 0. 0.
      1.77304959e-03 0. 0. 0. 3.54609918e-03 0. 0. 0. 0. 1.77304959e-03
      1.77304959e-03 0. 1.77304959e-03 1.77304959e-03 0. 0. 0.
      1.77304959e-03 0. 8.86524841e-03 0. 0. 0. 1.77304959e-03 0.
      1.77304959e-03 0. 0. 0. 0. 3.54609918e-03 0. 0. 0. 0. 0. 0. 0. 0.
      5.31914877e-03 0. 1.77304959e-03 0. 0. 0. 0. 0. 0. 0.
      1.77304959e-03 0. 0. 1.77304959e-03 0. 8.86524841e-03
      1.77304959e-03 0. 0. 3.54609918e-03 0. 0. 1.77304959e-03 0.
      1.77304959e-03 0. 0. 1.77304959e-03 3.54609918e-03 0.
      1.77304959e-03 0. 0. 0. 1.77304959e-03 0. 0. 1.77304959e-03 0. 0.
      0. 1.77304959e-03 3.54609918e-03 1.77304959e-03 0. 1.77304959e-03
      0. 0. 3.54609918e-03 0. 0. 0. 0. 0. 0. 3.54609918e-03 0. 0. 0. 0.
      0. 0. 1.77304959e-03 1.77304959e-03 0. 0. 0. 0. 0. 1.06382975e-02
      1.77304959e-03 1.77304959e-03 0. 0. 0. 0. 0. 0. 1.77304959e-03 0.
      0. 1.77304959e-03 0. 1.77304959e-03 1.77304959e-03 0.
      1.77304959e-03 0. 1.77304959e-03 0. 0. 1.77304959e-03
      1.77304959e-03 3.54609918e-03 0. 0. 3.54609918e-03 0. 0. 0. 0. 0.
      0. 0. 1.77304959e-03 1.77304959e-03 0. 0. 0. 0. 0. 0. 0. 0. 0. 0.
      0. 0. 5.31914877e-03 0. 0. 0. 0. 0. 1.77304959e-03 1.77304959e-03
      0. 3.54609918e-03 0. 0. 0. 1.77304959e-03 0. 3.54609918e-03 0. 0.
      3.54609918e-03 0. 1.77304959e-03 3.54609918e-03 0. 0. 0.
      1.77304959e-03 0. 3.54609918e-03 0. 0. 0. 0. 1.77304959e-03
      5.31914877e-03 0. 0. 0. 3.54609918e-03 0. 0. 0. 0. 0.
      3.54609918e-03 0. 0. 0. 1.77304959e-03 0. 0. 0. 0. 0.
      3.54609918e-03 0. 5.31914877e-03 3.54609918e-03 0. 0. 0.
      1.77304959e-03 7.09219836e-03 0. 3.54609918e-03 0. 0.
      1.77304959e-03 0. 0. 0. 0. 0. 1.77304959e-03 0. 0. 7.09219836e-03
      1.77304959e-03 0. 1.77304959e-03 0. 1.77304959e-03 0.
      3.54609918e-03 0. 0. 0. 0. 0. 1.77304959e-03 0. 0. 0. 0. 0. 0. 0.
      0. 1.77304959e-03 1.77304959e-03 3.54609918e-03 0. 3.54609918e-03
      0. 0. 0. 0. 3.54609918e-03 1.77304959e-03 1.77304959e-03 0.
      3.54609918e-03 0. 1.77304959e-03 0. 0. 0. 3.54609918e-03 0. 0.
      1.77304959e-03 0. 3.54609918e-03 3.54609918e-03 1.77304959e-03
      1.77304959e-03 0. 0. 1.77304959e-03 0. 0. 1.77304959e-03 0.
      3.54609918e-03 0. 5.31914877e-03 1.77304959e-03 0. 7.09219836e-03
      0. 1.77304959e-03 1.77304959e-03 0. 0. 5.31914877e-03
      1.77304959e-03 0. 0. 0. 0. 0. 0. 0. 3.54609918e-03 0.
      3.54609918e-03 0. 0. 0. 0. 0. 1.77304959e-03 3.54609918e-03
      3.54609918e-03 0. 0. 1.77304959e-03 1.77304959e-03 0.
      1.77304959e-03 0. 3.54609918e-03 0. 0. 0. 1.77304959e-03
      5.31914877e-03 0. 0. 0. 0. 1.77304959e-03 1.77304959e-03 0.
      1.77304959e-03 0. 0. 0. 0. 0. 0. 0. 3.54609918e-03 0. 0.
      1.77304959e-03 0. 1.77304959e-03 0. 0. 0. 0. 0. 7.09219836e-03 0.
      0. 0. 0. 1.77304959e-03 0. 0. 1.77304959e-03 0. 0. 0. 0. 0. 0. 0.
      0. 3.54609918e-03 1.77304959e-03 1.77304959e-03 0. 1.77304959e-03
      1.77304959e-03 0. 0. 5.31914877e-03 0. 1.77304959e-03 0. 0. 0. 0.
      3.54609918e-03 0. 0. 0. 3.54609918e-03 0. 1.77304959e-03 0. 0. 0.
      0. 1.77304959e-03 0. 1.77304959e-03 0. 0. 0. 0. 1.77304959e-03
      3.54609918e-03 5.31914877e-03 0. 1.77304959e-03 1.77304959e-03 0.
      0. 0. 0. 1.77304959e-03 1.77304959e-03 3.54609918e-03
      3.54609918e-03 0. 0. 0. 7.09219836e-03 0. 0. 1.77304959e-03
      1.77304959e-03 0. 0. 0. 0. 3.54609918e-03 0. 0. 0. 1.77304959e-03
      3.54609918e-03 0. 0. 3.54609918e-03 0. 1.77304959e-03 0. 0.
      1.77304959e-03 1.77304959e-03 1.77304959e-03 3.54609918e-03
      1.77304959e-03 0. 5.31914877e-03 1.77304959e-03 1.77304959e-03 0.
      0. 3.54609918e-03 1.77304959e-03 0. 0. 0. 0. 0. 0. 1.77304959e-03
      0. 0. 0. 0. 5.31914877e-03 3.54609918e-03 0. 0. 1.77304959e-03 0.
      8.86524841e-03 3.54609918e-03 0. 1.77304959e-03 0. 0. 0.
      1.77304959e-03 1.77304959e-03 0. 1.77304959e-03 0. 0. 0.
      1.77304959e-03 0. 0. 3.54609918e-03 3.54609918e-03 5.31914877e-03
      3.54609918e-03 1.77304959e-03 1.77304959e-03 1.77304959e-03
      1.77304959e-03 1.77304959e-03 0. 3.54609918e-03 0. 1.77304959e-03
      1.77304959e-03 0. 0. 0. 0. 0. 0. 0. 0. 0. 0. 1.77304959e-03 0. 0.
      0. 0. 0. 0. 0. 0. 0. 1.77304959e-03 0. 0. 0. 1.77304959e-03 0. 0.
      3.54609918e-03 1.77304959e-03 0. 1.77304959e-03 0. 3.54609918e-03
      1.77304959e-03 0. 1.77304959e-03 0. 1.77304959e-03 0.
      7.09219836e-03 3.54609918e-03 0. 0. 0. 0. 1.77304959e-03 0. 0. 0.
      1.77304959e-03 3.54609918e-03 0. 0. 1.77304959e-03 0.
      5.31914877e-03 7.09219836e-03 0. 0. 0. 0. 0. 0. 1.77304959e-03 0.
      0. 0. 0. 0. 0. 0. 0. 0. 0. 0. 1.77304959e-03 0. 0. 0.
      1.77304959e-03 1.77304959e-03 0. 1.77304959e-03 0. 1.77304959e-03
      1.77304959e-03 3.54609918e-03 3.54609918e-03 0. 0. 3.54609918e-03
      0. 1.77304959e-03 1.77304959e-03 0. 1.77304959e-03 1.77304959e-03
      0. 0. 5.31914877e-03 0. 0. 3.54609918e-03 0. 0. 0. 1.77304959e-03
      0. 0. 0. 1.77304959e-03 0. 0. 1.77304959e-03 0. 0. 0. 0.
      1.77304959e-03 0. 0. 0. 0. 0. 1.77304959e-03 3.54609918e-03 0. 0.
      1.77304959e-03 1.77304959e-03 0. 1.77304959e-03 3.54609918e-03 0.
      1.77304959e-03 0. 3.54609918e-03 0. 0. 1.77304959e-03 0.
      3.54609918e-03 5.31914877e-03 0. 0. 3.54609918e-03 0.
      1.77304959e-03 3.54609918e-03 0. 0. 0. 1.77304959e-03 0. 0. 0.
      1.77304959e-03 0. 0. 0. 0. 0. 5.31914877e-03 0. 0. 0.
      1.77304959e-03 0. 0. 0. 1.77304959e-03 3.54609918e-03
      1.77304959e-03 1.77304959e-03 0. 0. 0. 1.77304959e-03 0. 0. 0. 0.
      0. 1.77304959e-03 3.54609918e-03 3.54609918e-03 0. 0. 0.
      1.77304959e-03 0. 0. 1.77304959e-03 7.09219836e-03 1.77304959e-03
      0. 0. 0. 1.77304959e-03 0. 1.77304959e-03 1.77304959e-03
      1.77304959e-03 0. 1.77304959e-03 0. 1.77304959e-03 1.77304959e-03
      3.54609918e-03 5.31914877e-03 1.77304959e-03 0. 0. 1.77304959e-03
      0. 0. 0. 0. 0. 1.77304959e-03 1.77304959e-03 1.77304959e-03 0. 0.
      0. 0. 0. 1.77304959e-03 0. 1.77304959e-03 0. 1.77304959e-03
      1.77304959e-03 1.77304959e-03 0. 0. 1.77304959e-03 0.
      3.54609918e-03 1.77304959e-03 8.86524841e-03 0. 0. 0.
      3.54609918e-03 3.54609918e-03 0. 0. 3.54609918e-03 3.54609918e-03
      5.31914877e-03 0. 0. 7.09219836e-03 0. 5.31914877e-03 0.
      8.86524841e-03 1.77304959e-03 0. 0. 1.77304959e-03 0. 0. 0.
      3.54609918e-03 5.31914877e-03 0. 1.77304959e-03 0. 1.77304959e-03
      0. 0. 0. 0. 0. 0. 1.77304959e-03 0. 1.77304959e-03 0.
      8.86524841e-03 0. 0. 0. 0. 0. 1.77304959e-03 0. 1.77304959e-03 0.
      0. 0. 1.77304959e-03 0. 3.54609918e-03 0. 0. 0. 0. 0. 0.
      5.31914877e-03 0. 0. 0. 8.86524841e-03 1.77304959e-03 0.
      1.77304959e-03 0. 0. 3.54609918e-03 0. 0. 0. 0. 1.77304959e-03
      1.77304959e-03 0. 1.77304959e-03 0. 1.77304959e-03 7.09219836e-03
      0. 0. 3.54609918e-03 1.77304959e-03 0. 0. 0. 1.77304959e-03 0.
      1.77304959e-03 0. 0. 0. 1.77304959e-03 1.77304959e-03
      1.77304959e-03 1.77304959e-03 0. 1.77304959e-03 3.54609918e-03
      3.54609918e-03 0. 1.77304959e-03 1.77304959e-03 0. 0. 0.
      3.54609918e-03 0. 0. 0. 0. 1.77304959e-03 0. 0. 1.77304959e-03 0.
      0. 3.54609918e-03 1.77304959e-03 1.77304959e-03 1.77304959e-03
      1.77304959e-03 1.77304959e-03 0. 0. 0. 0. 3.54609918e-03
      1.77304959e-03 0. 3.54609918e-03 1.77304959e-03 1.77304959e-03 0.
      1.77304959e-03 0. 0. 3.54609918e-03 0. 0. 0. 0. 0. 3.54609918e-03
      3.54609918e-03 1.77304959e-03 0. 5.31914877e-03 1.77304959e-03 0.
      0. 1.77304959e-03 0. 0. 1.77304959e-03 0. 0. 1.77304959e-03
      3.54609918e-03 0. 0. 0. 0. 1.77304959e-03 3.54609918e-03 0. 0.</_>
    <_>
      0. 0. 0. 0. 0. 0. 0. 0. 0. 0. 3.37837846e-03 0. 0. 0.
      6.75675692e-03 3.37837846e-03 0. 0. 0. 0. 0. 0. 3.37837846e-03 0.
      6.75675692e-03 1.01351356e-02 0. 0. 0. 0. 0. 0. 0. 0. 0. 0. 0. 0.
      0. 0. 0. 6.75675692e-03 0. 0. 0. 0. 0. 0. 0. 0. 0. 3.37837846e-03
      0. 0. 3.37837846e-03 0. 0. 0. 0. 3.37837846e-03 0. 0. 0. 0. 0. 0.
      0. 0. 0. 0. 0. 0. 0. 0. 0. 0. 6.75675692e-03 0. 0. 0.
      3.37837846e-03 0. 0. 3.37837846e-03 0. 0. 0. 0. 0. 3.37837846e-03
      0. 0. 0. 0. 0. 0. 3.37837846e-03 0. 3.37837846e-03 0. 0. 0. 0. 0.
      3.37837846e-03 0. 0. 0. 0. 0. 0. 0. 0. 0. 1.01351356e-02 0.
      3.37837846e-03 0. 0. 0. 0. 0. 0. 0. 0. 0. 0. 0. 0. 0. 0.
      3.37837846e-03 0. 3.37837846e-03 0. 0. 0. 0. 0. 0. 0. 0.
      3.37837846e-03 0. 0. 3.37837846e-03 6.75675692e-03 6.75675692e-03
      3.37837846e-03 0. 0. 0. 0. 0. 0. 3.37837846e-03 0. 0.
      3.37837846e-03 0. 0. 3.37837846e-03 0. 0. 0. 0. 0. 0. 0. 0. 0. 0.
      0. 3.37837846e-03 0. 0. 0. 0. 0. 0. 3.37837846e-03 0. 0. 0. 0.
      3.37837846e-03 0. 0. 0. 0. 0. 0. 0. 0. 0. 6.75675692e-03 0. 0.
      3.37837846e-03 0. 0. 6.75675692e-03 0. 0. 3.37837846e-03 0. 0. 0.
      0. 0. 0. 3.37837846e-03 0. 0. 3.37837846e-03 3.37837846e-03 0. 0.
      0. 0. 0. 0. 0. 0. 0. 0. 0. 0. 0. 0. 0. 0. 0. 0. 1.35135138e-02 0.
      0. 0. 0. 0. 0. 3.37837846e-03 0. 0. 0. 0. 0. 0. 0. 0. 0. 0. 0. 0.
      0. 0. 0. 6.75675692e-03 0. 0. 0. 0. 3.37837846e-03 0. 0. 0. 0. 0.
      0. 0. 0. 0. 0. 0. 0. 1.01351356e-02 0. 0. 0. 0. 3.37837846e-03 0.
      0. 0. 0. 0. 3.37837846e-03 0. 0. 0. 0. 6.75675692e-03
      6.75675692e-03 0. 0. 3.37837846e-03 0. 0. 0. 0. 3.37837846e-03
      3.37837846e-03 0. 0. 0. 0. 0. 0. 3.37837846e-03 0. 0. 0. 0. 0.
      3.37837846e-03 0. 0. 3.37837846e-03 6.75675692e-03 0.
      3.37837846e-03 3.37837846e-03 0. 0. 0. 0. 0. 0. 0. 0. 0. 0. 0.
      3.37837846e-03 0. 0. 0. 0. 0. 0. 0. 0. 0. 0. 0. 3.37837846e-03 0.
      0. 0. 0. 3.37837846e-03 0. 0. 0. 0. 3.37837846e-03 6.75675692e-03
      0. 0. 6.75675692e-03 0. 0. 0. 3.37837846e-03 0. 0. 3.37837846e-03
      0. 0. 0. 3.37837846e-03 0. 0. 6.75675692e-03 0. 0. 0.
      3.37837846e-03 0. 0. 3.37837846e-03 6.75675692e-03 0. 0. 0.
      3.37837846e-03 0. 0. 0. 0. 0. 0. 0. 0. 0. 0. 6.75675692e-03 0. 0.
      0. 0. 0. 1.01351356e-02 0. 0. 0. 3.37837846e-03 0. 0. 0. 0. 0. 0.
      6.75675692e-03 0. 6.75675692e-03 0. 0. 0. 3.37837846e-03 0. 0. 0.
      3.37837846e-03 0. 3.37837846e-03 0. 0. 0. 1.01351356e-02 0. 0. 0.
      0. 0. 0. 0. 0. 0. 0. 0. 0. 0. 1.01351356e-02 0. 0. 0. 0. 0. 0. 0.
      0. 0. 0. 1.01351356e-02 3.37837846e-03 0. 0. 1.01351356e-02 0. 0.
      3.37837846e-03 0. 0. 0. 0. 0. 0. 0. 0. 0. 0. 0. 0. 3.37837846e-03
      0. 0. 0. 3.37837846e-03 0. 0. 0. 0. 2.36486495e-02 0.
      3.37837846e-03 0. 0. 3.37837846e-03 3.37837846e-03 3.37837846e-03
      0. 3.37837846e-03 0. 0. 0. 0. 0. 0. 0. 0. 0. 0. 0. 0. 0. 0. 0. 0.
      0. 0. 0. 0. 0. 0. 0. 0. 0. 0. 3.37837846e-03 0. 0. 6.75675692e-03
      0. 0. 0. 0. 0. 0. 0. 3.37837846e-03 0. 0. 0. 0. 0. 0. 0. 0. 0. 0.
      0. 0. 0. 0. 0. 3.37837846e-03 3.37837846e-03 0. 0. 0. 0.
      1.01351356e-02 0. 0. 0. 0. 3.37837846e-03 6.75675692e-03 0. 0. 0.
      0. 3.37837846e-03 0. 0. 0. 0. 3.37837846e-03 3.37837846e-03 0. 0.
      0. 0. 0. 0. 3.37837846e-03 3.37837846e-03 3.37837846e-03 0. 0. 0.
      0. 0. 0. 6.75675692e-03 0. 0. 0. 0. 0. 0. 0. 3.37837846e-03 0. 0.
      0. 0. 3.37837846e-03 3.37837846e-03 0. 0. 6.75675692e-03 0.
      3.37837846e-03 0. 0. 0. 3.37837846e-03 0. 0. 3.37837846e-03
      3.37837846e-03 0. 0. 0. 0. 0. 3.37837846e-03 0. 0. 0. 0. 0. 0. 0.
      0. 3.37837846e-03 0. 0. 6.75675692e-03 0. 0. 0. 0. 0. 0.
      3.37837846e-03 0. 0. 0. 3.37837846e-03 0. 0. 3.37837846e-03 0.
      6.75675692e-03 3.37837846e-03 0. 0. 0. 3.37837846e-03
      6.75675692e-03 3.37837846e-03 0. 0. 3.37837846e-03 0. 0. 0. 0. 0.
      0. 3.37837846e-03 0. 0. 0. 0. 3.37837846e-03 3.37837846e-03
      3.37837846e-03 0. 3.37837846e-03 3.37837846e-03 0. 0. 0. 0.
      3.37837846e-03 0. 0. 0. 0. 0. 0. 3.37837846e-03 3.37837846e-03
      3.37837846e-03 3.37837846e-03 0. 0. 0. 0. 0. 3.37837846e-03 0. 0.
      0. 0. 0. 3.37837846e-03 0. 0. 0. 0. 0. 3.37837846e-03 0. 0. 0. 0.
      0. 0. 0. 0. 0. 6.75675692e-03 0. 0. 3.37837846e-03 0. 0. 0.
      3.37837846e-03 0. 0. 0. 0. 0. 0. 0. 0. 3.37837846e-03
      6.75675692e-03 0. 6.75675692e-03 0. 0. 0. 0. 0. 0. 0. 0.
      3.37837846e-03 0. 0. 0. 0. 0. 0. 0. 0. 3.37837846e-03 0.
      3.37837846e-03 0. 0. 0. 0. 0. 0. 0. 0. 0. 3.37837846e-03 0. 0.
      6.75675692e-03 3.37837846e-03 3.37837846e-03 0. 3.37837846e-03 0.
      0. 6.75675692e-03 0. 0. 0. 0. 1.01351356e-02 6.75675692e-03 0. 0.
      0. 3.37837846e-03 0. 3.37837846e-03 0. 3.37837846e-03 0.
      3.37837846e-03 0. 3.37837846e-03 0. 0. 0. 0. 0. 0. 0. 0.
      3.37837846e-03 0. 0. 0. 0. 0. 0. 0. 6.75675692e-03 0. 0. 0. 0.
      1.01351356e-02 6.75675692e-03 1.01351356e-02 0. 0. 3.37837846e-03
      6.75675692e-03 0. 0. 0. 6.75675692e-03 3.37837846e-03
      3.37837846e-03 0. 0. 0. 0. 0. 0. 3.37837846e-03 0. 0. 0. 0. 0. 0.
      3.37837846e-03 0. 3.37837846e-03 0. 0. 3.37837846e-03
      6.75675692e-03 0. 3.37837846e-03 0. 0. 0. 0. 0. 0. 3.37837846e-03
      0. 0. 0. 0. 0. 0. 0. 0. 3.37837846e-03 0. 0. 0. 3.37837846e-03 0.
      0. 0. 0. 0. 3.37837846e-03 0. 0. 0. 3.37837846e-03 0.
      3.37837846e-03 0. 0. 0. 0. 3.37837846e-03 3.37837846e-03
      3.37837846e-03 3.37837846e-03 3.37837846e-03 0. 0. 0. 0. 0. 0. 0.
      0. 0. 0. 0. 0. 0. 0. 0. 0. 0. 0. 0. 0. 0. 3.37837846e-03 0. 0. 0.
      3.37837846e-03 3.37837846e-03 6.75675692e-03 0. 0. 0. 0.
      3.37837846e-03 0. 0. 3.37837846e-03 0. 0. 0. 0. 0. 0. 0. 0. 0.
      3.37837846e-03 1.01351356e-02 0. 0. 0. 0. 0. 0. 1.01351356e-02 0.
      0. 0. 1.01351356e-02 0. 3.37837846e-03 0. 6.75675692e-03 0. 0. 0.
      0. 0. 0. 0. 0. 0. 0. 0. 0. 0. 0. 3.37837846e-03 0. 0. 0. 0. 0. 0.
      0. 1.35135138e-02 0. 6.75675692e-03 0. 6.75675692e-03 0. 0. 0.
      3.37837846e-03 0. 0. 0. 0. 0. 0. 0. 1.01351356e-02 0. 0. 0. 0.
      3.37837846e-03 3.37837846e-03 0. 0.</_>
    <_>
      0. 0. 0. 6.71140943e-03 0. 0. 0. 0. 0. 0. 1.34228189e-02 0. 0. 0.
      0. 0. 0. 0. 0. 3.35570471e-03 0. 0. 3.35570471e-03 0. 0.
      1.34228189e-02 3.35570471e-03 0. 0. 0. 0. 3.35570471e-03 0. 0.
      3.35570471e-03 0. 0. 0. 0. 0. 0. 0. 0. 3.35570471e-03 0. 0. 0. 0.
      0. 0. 0. 0. 3.35570471e-03 0. 0. 0. 0. 0. 3.35570471e-03 0. 0. 0.
      3.35570471e-03 0. 0. 0. 0. 0. 6.71140943e-03 0. 0. 0. 0.
      3.35570471e-03 0. 0. 3.35570471e-03 0. 3.35570471e-03 0. 0. 0. 0.
      3.35570471e-03 0. 0. 6.71140943e-03 0. 0. 3.35570471e-03 0.
      3.35570471e-03 0. 0. 0. 0. 3.35570471e-03 0. 0. 0. 0. 0. 0.
      1.00671146e-02 0. 0. 0. 0. 0. 0. 0. 0. 0. 0. 0. 0. 0. 0. 0. 0. 0.
      1.00671146e-02 0. 0. 0. 3.35570471e-03 0. 0. 0. 0. 0.
      3.35570471e-03 0. 0. 1.00671146e-02 1.00671146e-02 0. 0. 0. 0. 0.
      0. 0. 0. 0. 3.35570471e-03 0. 3.35570471e-03 0. 0. 0. 0. 0. 0. 0.
      0. 0. 0. 3.35570471e-03 0. 0. 0. 0. 0. 3.35570471e-03 0. 0.
      3.35570471e-03 0. 0. 0. 0. 0. 0. 3.35570471e-03 0. 0. 0. 0. 0. 0.
      0. 0. 0. 0. 0. 3.35570471e-03 3.35570471e-03 3.35570471e-03 0. 0.
      0. 0. 0. 0. 0. 0. 0. 0. 0. 0. 3.35570471e-03 0. 0. 6.71140943e-03
      0. 3.35570471e-03 0. 0. 0. 0. 0. 0. 0. 1.00671146e-02 0. 0. 0. 0.
      0. 3.35570471e-03 0. 0. 0. 0. 3.35570471e-03 0. 0. 0. 0. 0. 0. 0.
      0. 3.35570471e-03 6.71140943e-03 0. 3.35570471e-03 0.
      3.35570471e-03 0. 0. 3.35570471e-03 0. 0. 1.00671146e-02 0. 0. 0.
      2.01342292e-02 0. 0. 0. 0. 0. 3.35570471e-03 6.71140943e-03 0. 0.
      3.35570471e-03 0. 0. 0. 1.00671146e-02 0. 0. 0. 0. 0.
      6.71140943e-03 0. 0. 3.35570471e-03 3.35570471e-03 0.
      3.35570471e-03 0. 3.35570471e-03 0. 0. 0. 0. 3.35570471e-03 0. 0.
      0. 0. 0. 0. 0. 1.34228189e-02 0. 0. 0. 0. 0. 0. 0. 0.
      3.35570471e-03 0. 0. 3.35570471e-03 0. 0. 1.00671146e-02
      3.35570471e-03 0. 0. 0. 3.35570471e-03 6.71140943e-03 0.
      6.71140943e-03 0. 0. 0. 0. 3.35570471e-03 0. 3.35570471e-03 0. 0.
      0. 0. 0. 0. 0. 0. 0. 0. 0. 0. 0. 3.35570471e-03 3.35570471e-03 0.
      0. 0. 0. 0. 0. 0. 0. 0. 0. 0. 0. 0. 3.35570471e-03 0. 0. 0. 0. 0.
      0. 1.00671146e-02 0. 0. 0. 3.35570471e-03 0. 0. 3.35570471e-03 0.
      0. 0. 0. 0. 0. 0. 6.71140943e-03 0. 0. 0. 0. 0. 1.67785231e-02
      1.67785231e-02 6.71140943e-03 0. 3.35570471e-03 0. 0. 0. 0. 0. 0.
      0. 0. 0. 0. 3.35570471e-03 0. 0. 0. 0. 6.71140943e-03 0. 0. 0.
      3.35570471e-03 0. 0. 0. 0. 0. 0. 0. 0. 0. 3.35570471e-03 0. 0.
      3.35570471e-03 0. 0. 0. 0. 0. 0. 0. 0. 0. 0. 0. 0. 3.35570471e-03
      0. 0. 3.35570471e-03 3.35570471e-03 0. 0. 0. 0. 0. 0.
      3.35570471e-03 0. 0. 0. 0. 6.71140943e-03 0. 0. 0. 0. 0. 0. 0. 0.
      0. 0. 0. 0. 0. 0. 1.00671146e-02 0. 0. 0. 0. 0. 0. 0. 0. 0. 0.
      3.35570471e-03 0. 0. 0. 0. 3.35570471e-03 0. 0. 0. 0. 0. 0.
      6.71140943e-03 0. 1.67785231e-02 0. 0. 0. 0. 0. 0. 0. 0. 0. 0. 0.
      0. 0. 0. 0. 0. 3.35570471e-03 0. 0. 1.34228189e-02 0. 0. 0. 0. 0.
      0. 0. 0. 0. 0. 0. 0. 0. 0. 0. 0. 0. 0. 0. 0. 0. 0. 0. 0. 0.
      3.35570471e-03 0. 0. 0. 3.35570471e-03 1.00671146e-02 0. 0. 0.
      3.35570471e-03 3.35570471e-03 0. 0. 0. 0. 0. 0. 3.35570471e-03 0.
      0. 0. 0. 0. 1.34228189e-02 0. 0. 0. 0. 3.35570471e-03
      3.35570471e-03 3.35570471e-03 0. 0. 0. 0. 0. 0. 0. 6.71140943e-03
      0. 0. 0. 0. 0. 0. 0. 0. 0. 0. 0. 0. 0. 0. 0. 0. 0. 0. 0. 0. 0.
      3.35570471e-03 0. 0. 0. 0. 0. 0. 0. 0. 0. 0. 0. 0. 3.35570471e-03
      0. 0. 0. 6.71140943e-03 0. 0. 0. 3.35570471e-03 3.35570471e-03
      6.71140943e-03 0. 3.35570471e-03 0. 0. 0. 0. 0. 0. 0.
      3.35570471e-03 3.35570471e-03 0. 0. 0. 0. 0. 3.35570471e-03 0. 0.
      0. 0. 3.35570471e-03 3.35570471e-03 0. 0. 0. 3.35570471e-03 0. 0.
      3.35570471e-03 0. 0. 0. 0. 6.71140943e-03 0. 0. 0. 0. 0. 0.
      3.02013420e-02 0. 3.35570471e-03 0. 0. 0. 0. 6.71140943e-03
      6.71140943e-03 0. 0. 0. 0. 0. 0. 0. 6.71140943e-03 0. 0. 0. 0. 0.
      3.35570471e-03 0. 0. 0. 0. 3.35570471e-03 0. 0. 0. 0.
      3.35570471e-03 0. 6.71140943e-03 0. 0. 0. 0. 0. 0. 0. 0. 0. 0. 0.
      0. 0. 0. 0. 0. 0. 0. 0. 0. 0. 0. 3.35570471e-03 3.35570471e-03 0.
      0. 3.35570471e-03 0. 3.35570471e-03 0. 0. 6.71140943e-03 0. 0. 0.
      0. 0. 0. 0. 0. 0. 3.35570471e-03 0. 0. 0. 3.35570471e-03 0. 0. 0.
      0. 0. 3.35570471e-03 0. 6.71140943e-03 0. 6.71140943e-03 0. 0. 0.
      6.71140943e-03 0. 3.35570471e-03 0. 0. 0. 0. 6.71140943e-03 0. 0.
      0. 3.35570471e-03 0. 3.35570471e-03 0. 0. 0. 0. 0. 0. 0. 0. 0. 0.
      1.00671146e-02 0. 0. 6.71140943e-03 0. 0. 0. 0. 0. 0. 0. 0. 0. 0.
      0. 3.35570471e-03 0. 6.71140943e-03 3.35570471e-03 0. 0. 0.
      2.68456377e-02 0. 3.35570471e-03 0. 0. 0. 0. 0. 0. 0. 0. 0. 0. 0.
      0. 0. 6.71140943e-03 0. 0. 0. 0. 0. 0. 0. 0. 0. 0. 0. 0. 0. 0. 0.
      0. 0. 3.35570471e-03 0. 0. 3.35570471e-03 3.35570471e-03 0. 0. 0.
      0. 0. 0. 3.35570471e-03 0. 0. 0. 0. 0. 3.35570471e-03 0.
      3.35570471e-03 3.35570471e-03 0. 0. 0. 0. 0. 0. 0. 0. 0. 0. 0. 0.
      0. 0. 0. 0. 0. 0. 0. 0. 0. 0. 3.35570471e-03 0. 0. 0. 0. 0. 0.
      3.35570471e-03 0. 3.35570471e-03 0. 3.35570471e-03 0. 0. 0. 0. 0.
      0. 0. 0. 0. 0. 0. 0. 0. 0. 0. 0. 3.35570471e-03 0. 0. 0. 0. 0.
      3.35570471e-03 0. 0. 0. 3.35570471e-03 0. 0. 3.35570471e-03 0. 0.
      0. 0. 0. 0. 0. 0. 0. 0. 3.35570471e-03 0. 0. 0. 6.71140943e-03 0.
      0. 0. 0. 0. 0. 0. 0. 0. 3.35570471e-03 0. 0. 0. 0. 0. 0. 0. 0. 0.
      0. 3.35570471e-03 0. 0. 0. 0. 3.35570471e-03 0. 0. 1.67785231e-02
      0. 0. 0. 3.35570471e-03 0. 0. 0. 0. 0. 0. 0. 0. 0. 0. 0. 0. 0. 0.
      0. 0. 3.35570471e-03 0. 3.35570471e-03 1.00671146e-02 0. 0.
      6.71140943e-03 0. 0. 0. 1.34228189e-02 0. 3.35570471e-03 0.
      3.35570471e-03 0. 0. 3.35570471e-03 0. 0. 3.35570471e-03 0. 0.</_>
    <_>
      0. 0. 0. 0. 0. 0. 0. 0. 0. 0. 0. 0. 0. 0. 5.05050505e-03 0. 0. 0.
      0. 5.05050505e-03 0. 0. 0. 1.01010101e-02 0. 0. 0. 5.05050505e-03
      5.05050505e-03 5.05050505e-03 0. 0. 0. 0. 0. 0. 0. 0. 0. 0. 0. 0.
      0. 0. 0. 0. 0. 0. 1.51515156e-02 0. 0. 0. 0. 0. 0. 0. 0. 0. 0. 0.
      0. 0. 5.05050505e-03 0. 0. 0. 0. 0. 0. 0. 0. 0. 0. 0.
      5.05050505e-03 5.05050505e-03 5.05050505e-03 1.01010101e-02 0. 0.
      0. 0. 0. 0. 0. 0. 0. 0. 0. 5.05050505e-03 0. 0. 0. 0. 0. 0. 0. 0.
      1.01010101e-02 1.01010101e-02 0. 0. 0. 0. 0. 0. 0. 0. 0. 0. 0. 0.
      0. 0. 0. 0. 1.01010101e-02 0. 0. 0. 0. 0. 0. 0. 5.05050505e-03 0.
      0. 0. 5.05050505e-03 0. 0. 0. 0. 5.05050505e-03 0. 0. 0. 0. 0. 0.
      0. 0. 0. 0. 0. 0. 5.05050505e-03 0. 0. 0. 0. 0. 0. 0. 0. 0. 0. 0.
      0. 0. 0. 0. 0. 5.05050505e-03 0. 0. 0. 0. 0. 0. 0. 0. 0. 0. 0. 0.
      0. 0. 0. 0. 0. 0. 0. 0. 0. 0. 0. 0. 0. 0. 0. 0. 0. 0. 0. 0. 0. 0.
      0. 0. 0. 1.01010101e-02 0. 0. 0. 0. 0. 0. 0. 0. 0. 0. 0. 0.
      5.05050505e-03 0. 5.05050505e-03 0. 0. 0. 0. 0. 0. 0. 0. 0. 0. 0.
      0. 0. 0. 0. 0. 0. 1.01010101e-02 0. 5.05050505e-03 0. 0. 0. 0. 0.
      1.51515156e-02 0. 0. 0. 0. 5.05050505e-03 0. 5.05050505e-03 0.
      5.05050505e-03 0. 0. 0. 0. 0. 0. 5.05050505e-03 0. 0. 0. 0. 0. 0.
      5.05050505e-03 0. 0. 0. 0. 0. 0. 0. 0. 0. 5.05050505e-03
      5.05050505e-03 0. 0. 1.01010101e-02 0. 0. 0. 0. 0. 0. 0.
      5.05050505e-03 0. 5.05050505e-03 5.05050505e-03 0. 0. 0. 0. 0.
      1.01010101e-02 0. 5.05050505e-03 0. 0. 0. 0. 0. 5.05050505e-03 0.
      0. 0. 0. 0. 0. 0. 0. 0. 2.52525248e-02 0. 0. 0. 5.05050505e-03 0.
      0. 0. 5.05050505e-03 0. 0. 0. 0. 0. 0. 0. 5.05050505e-03 0. 0. 0.
      0. 5.05050505e-03 0. 0. 0. 5.05050505e-03 0. 0. 0. 0. 0. 0. 0. 0.
      1.01010101e-02 0. 0. 0. 5.05050505e-03 0. 0. 0. 0. 0. 0. 0. 0. 0.
      0. 0. 0. 0. 0. 0. 0. 0. 0. 5.05050505e-03 5.05050505e-03
      5.05050505e-03 5.05050505e-03 5.05050505e-03 0. 0. 5.05050505e-03
      0. 0. 0. 0. 0. 0. 0. 0. 5.05050505e-03 0. 0. 0. 0. 5.05050505e-03
      5.05050505e-03 0. 0. 0. 0. 0. 0. 0. 0. 1.01010101e-02 0.
      5.05050505e-03 0. 0. 0. 5.05050505e-03 0. 1.01010101e-02 0. 0. 0.
      0. 5.05050505e-03 5.05050505e-03 0. 0. 0. 1.01010101e-02 0. 0. 0.
      0. 0. 0. 0. 0. 5.05050505e-03 0. 5.05050505e-03 0. 0. 0. 0. 0. 0.
      0. 0. 0. 0. 0. 0. 5.05050505e-03 0. 0. 0. 0. 0. 0. 0. 0. 0. 0. 0.
      0. 0. 0. 0. 0. 5.05050505e-03 0. 0. 0. 0. 0. 0. 0. 5.05050505e-03
      0. 0. 0. 0. 0. 5.05050505e-03 0. 0. 5.05050505e-03 5.05050505e-03
      0. 5.05050505e-03 0. 5.05050505e-03 0. 0. 0. 5.05050505e-03 0. 0.
      0. 0. 0. 0. 0. 1.01010101e-02 0. 0. 0. 5.05050505e-03 0.
      5.05050505e-03 0. 0. 0. 0. 0. 0. 0. 0. 0. 0. 0. 0. 0. 0. 0. 0. 0.
      0. 0. 0. 0. 0. 0. 0. 0. 0. 0. 0. 0. 0. 5.05050505e-03 0. 0.
      5.05050505e-03 0. 0. 5.05050505e-03 0. 0. 0. 0. 0. 0.
      1.01010101e-02 1.51515156e-02 0. 0. 0. 0. 5.05050505e-03
      1.01010101e-02 5.05050505e-03 0. 5.05050505e-03 0. 0.
      5.05050505e-03 0. 0. 0. 0. 0. 0. 0. 0. 0. 0. 0. 0. 0. 0. 0. 0. 0.
      0. 0. 0. 0. 0. 0. 5.05050505e-03 0. 0. 0. 0. 0. 0. 5.05050505e-03
      0. 0. 0. 5.05050505e-03 2.02020202e-02 0. 0. 0. 0. 0. 0. 0. 0. 0.
      0. 0. 0. 0. 5.05050505e-03 0. 0. 1.51515156e-02 0. 0. 0. 0. 0. 0.
      0. 0. 0. 0. 0. 0. 0. 0. 0. 5.05050505e-03 0. 0. 0. 0. 0. 0. 0. 0.
      0. 5.05050505e-03 0. 0. 0. 0. 5.05050505e-03 5.05050505e-03
      5.05050505e-03 0. 0. 0. 0. 0. 0. 1.01010101e-02 0. 5.05050505e-03
      0. 0. 1.01010101e-02 0. 0. 0. 0. 0. 0. 0. 0. 0. 5.05050505e-03 0.
      5.05050505e-03 0. 0. 0. 0. 0. 0. 0. 0. 0. 0. 0. 0. 0. 0.
      5.05050505e-03 0. 0. 0. 0. 0. 0. 0. 0. 0. 0. 0. 0. 1.01010101e-02
      0. 0. 0. 1.01010101e-02 0. 5.05050505e-03 0. 0. 0. 0. 0. 0. 0. 0.
      0. 0. 0. 0. 5.05050505e-03 5.05050505e-03 0. 5.05050505e-03
      5.05050505e-03 0. 0. 0. 0. 0. 0. 0. 0. 0. 0. 0. 5.05050505e-03 0.
      0. 0. 5.05050505e-03 0. 0. 0. 0. 0. 5.05050505e-03 0. 0.
      5.05050505e-03 0. 0. 0. 0. 0. 0. 0. 0. 0. 0. 1.01010101e-02 0. 0.
      0. 0. 0. 0. 0. 0. 0. 5.05050505e-03 0. 0. 0. 0. 0. 0. 0. 0. 0. 0.
      0. 0. 0. 0. 5.05050505e-03 5.05050505e-03 0. 0. 0. 0. 0.
      5.05050505e-03 0. 0. 0. 0. 0. 5.05050505e-03 0. 1.51515156e-02 0.
      0. 0. 0. 0. 0. 0. 0. 0. 0. 0. 0. 0. 1.01010101e-02 0. 0. 0.
      5.05050505e-03 0. 0. 0. 0. 5.05050505e-03 0. 0. 0. 0. 0. 0. 0. 0.
      0. 0. 0. 0. 0. 0. 5.05050505e-03 0. 5.05050505e-03 0. 0.
      5.05050505e-03 0. 0. 5.05050505e-03 0. 0. 1.01010101e-02
      5.05050505e-03 0. 5.05050505e-03 0. 0. 0. 0. 0. 0. 0. 0.
      5.05050505e-03 0. 0. 5.05050505e-03 0. 5.05050505e-03 0. 0. 0. 0.
      0. 0. 0. 5.05050505e-03 0. 0. 5.05050505e-03 0. 0. 0. 0. 0. 0. 0.
      0. 0. 5.05050505e-03 0. 0. 5.05050505e-03 5.05050505e-03 0. 0. 0.
      0. 0. 0. 0. 0. 5.05050505e-03 0. 0. 0. 0. 0. 0. 0. 0. 0. 0. 0. 0.
      0. 0. 0. 0. 0. 0. 0. 5.05050505e-03 0. 5.05050505e-03 0. 0. 0. 0.
      0. 0. 0. 0. 0. 0. 0. 0. 0. 0. 5.05050505e-03 0. 0. 5.05050505e-03
      0. 0. 0. 5.05050505e-03 0. 0. 0. 0. 0. 0. 0. 0. 0. 0. 0. 0. 0. 0.
      5.05050505e-03 0. 0. 5.05050505e-03 0. 0. 5.05050505e-03 0. 0. 0.
      0. 0. 0. 0. 0. 0. 5.05050505e-03 0. 0. 5.05050505e-03 0. 0. 0. 0.
      0. 0. 0. 0. 5.05050505e-03 0. 0. 0. 0. 5.05050505e-03
      5.05050505e-03 5.05050505e-03 0. 5.05050505e-03 0. 0. 0. 0. 0. 0.
      0. 0.</_>
    <_>
      0. 0. 0. 0. 0. 0. 0. 0. 0. 0. 3.93700786e-03 0. 0. 0.
      3.93700786e-03 3.93700786e-03 0. 0. 0. 1.96850393e-02 0. 0.
      7.87401572e-03 0. 0. 3.93700786e-03 0. 0. 0. 3.93700786e-03
      3.93700786e-03 0. 0. 0. 0. 0. 0. 0. 0. 0. 3.93700786e-03 0. 0. 0.
      0. 0. 0. 3.93700786e-03 0. 0. 3.93700786e-03 0. 0. 0. 0. 0. 0. 0.
      0. 0. 0. 0. 0. 0. 0. 0. 0. 2.75590550e-02 0. 0. 0. 0. 0. 0. 0. 0.
      0. 0. 0. 0. 0. 0. 0. 0. 0. 0. 0. 0. 0. 0. 0. 0. 0. 0. 0. 0. 0. 0.
      0. 0. 7.87401572e-03 0. 0. 0. 3.93700786e-03 0. 0. 3.93700786e-03
      0. 0. 0. 0. 0. 0. 0. 0. 0. 0. 0. 0. 0. 0. 0. 0. 3.93700786e-03 0.
      0. 0. 0. 0. 0. 0. 0. 0. 3.93700786e-03 0. 0. 0. 7.87401572e-03 0.
      0. 3.93700786e-03 3.93700786e-03 0. 7.87401572e-03 0. 0. 0. 0.
      3.93700786e-03 0. 0. 0. 0. 0. 3.93700786e-03 3.93700786e-03 0.
      3.93700786e-03 0. 0. 0. 0. 0. 0. 1.18110236e-02 3.93700786e-03
      7.87401572e-03 0. 0. 0. 0. 0. 0. 3.93700786e-03 0. 0.
      3.93700786e-03 0. 0. 0. 0. 0. 0. 0. 3.93700786e-03 0. 0.
      3.93700786e-03 3.93700786e-03 0. 0. 0. 0. 0. 0. 0. 0.
      3.93700786e-03 0. 0. 1.18110236e-02 3.93700786e-03 0. 0. 0. 0. 0.
      0. 0. 0. 0. 0. 0. 3.93700786e-03 3.93700786e-03 0. 0. 0. 0. 0. 0.
      0. 0. 3.93700786e-03 0. 0. 0. 0. 0. 0. 0. 0. 0. 0. 0. 0. 0. 0. 0.
      1.57480314e-02 0. 0. 0. 0. 0. 0. 3.93700786e-03 0. 0. 0. 0. 0. 0.
      0. 0. 7.87401572e-03 0. 0. 0. 0. 0. 0. 3.93700786e-03 0. 0. 0. 0.
      0. 0. 0. 0. 3.93700786e-03 7.87401572e-03 3.93700786e-03
      1.18110236e-02 0. 0. 0. 1.57480314e-02 0. 0. 0. 0. 0. 0. 0. 0. 0.
      0. 2.75590550e-02 0. 0. 0. 0. 0. 0. 0. 0. 0. 0. 0. 3.93700786e-03
      0. 0. 0. 0. 3.93700786e-03 0. 7.87401572e-03 0. 0. 0. 0.
      3.93700786e-03 0. 7.87401572e-03 0. 0. 0. 1.96850393e-02
      3.93700786e-03 0. 0. 0. 3.93700786e-03 7.87401572e-03
      2.36220472e-02 3.93700786e-03 3.93700786e-03 3.93700786e-03
      3.93700786e-03 0. 3.93700786e-03 0. 0. 0. 0. 0. 0. 0. 0. 0. 0. 0.
      0. 0. 0. 0. 0. 0. 3.93700786e-03 0. 3.93700786e-03 0. 0. 0. 0. 0.
      0. 0. 0. 0. 7.87401572e-03 0. 0. 0. 0. 3.93700786e-03 0. 0. 0. 0.
      0. 0. 0. 0. 0. 0. 0. 3.93700786e-03 0. 0. 0. 0. 0. 0. 0.
      3.93700786e-03 0. 0. 0. 0. 0. 0. 0. 0. 3.93700786e-03 0. 0. 0. 0.
      0. 0. 0. 0. 0. 0. 0. 0. 0. 3.93700786e-03 0. 0. 0. 0. 0. 0. 0. 0.
      0. 0. 0. 0. 0. 0. 0. 0. 0. 0. 0. 3.93700786e-03 0. 3.93700786e-03
      0. 0. 0. 0. 0. 0. 0. 0. 3.93700786e-03 0. 0. 0. 0. 3.93700786e-03
      0. 0. 3.93700786e-03 3.93700786e-03 0. 0. 0. 0. 0. 0. 0. 0. 0. 0.
      0. 0. 0. 0. 0. 0. 0. 0. 0. 0. 0. 0. 0. 0. 0. 0. 0. 0. 0. 0.
      3.93700786e-03 3.93700786e-03 0. 0. 0. 0. 0. 0. 0. 0. 0. 0. 0. 0.
      0. 0. 0. 0. 0. 0. 0. 3.93700786e-03 0. 0. 0. 0. 0. 0. 0. 0. 0. 0.
      0. 3.93700786e-03 0. 0. 3.93700786e-03 0. 0. 0. 0. 0. 0. 0. 0. 0.
      0. 0. 0. 0. 0. 3.93700786e-03 1.96850393e-02 0. 0. 0. 0. 0. 0. 0.
      0. 0. 0. 0. 0. 0. 0. 3.93700786e-03 0. 0. 0. 0. 0. 0.
      3.93700786e-03 0. 0. 3.93700786e-03 0. 0. 0. 3.93700786e-03 0. 0.
      0. 0. 0. 0. 0. 0. 0. 0. 0. 0. 0. 0. 0. 0. 3.93700786e-03 0. 0. 0.
      3.93700786e-03 3.93700786e-03 3.93700786e-03 0. 0. 3.93700786e-03
      0. 0. 0. 0. 0. 0. 0. 0. 0. 0. 0. 0. 0. 0. 0. 0. 0. 0. 0. 0. 0. 0.
      0. 1.18110236e-02 3.93700786e-03 3.93700786e-03 0. 0. 0.
      1.18110236e-02 7.87401572e-03 0. 0. 0. 0. 3.93700786e-03
      3.93700786e-03 0. 0. 0. 0. 0. 7.87401572e-03 0. 0. 0. 0.
      3.93700786e-03 0. 0. 0. 0. 0. 0. 0. 0. 0. 7.87401572e-03 0. 0. 0.
      3.93700786e-03 0. 3.93700786e-03 0. 0. 3.93700786e-03 0. 0. 0. 0.
      0. 0. 0. 0. 0. 0. 0. 1.18110236e-02 0. 0. 0. 0. 0. 0. 0. 0. 0. 0.
      0. 0. 1.57480314e-02 0. 0. 3.93700786e-03 0. 1.18110236e-02 0. 0.
      0. 0. 0. 0. 0. 0. 0. 3.93700786e-03 0. 0. 0. 3.93700786e-03 0. 0.
      0. 3.93700786e-03 0. 0. 0. 0. 0. 0. 0. 3.93700786e-03 0. 0. 0. 0.
      0. 0. 0. 0. 0. 0. 0. 0. 0. 0. 0. 0. 0. 7.87401572e-03 0. 0. 0. 0.
      0. 7.87401572e-03 0. 0. 0. 0. 0. 0. 0. 0. 0. 3.93700786e-03 0. 0.
      0. 3.93700786e-03 0. 0. 0. 0. 3.93700786e-03 0. 0. 0. 0. 0. 0.
      3.93700786e-03 0. 0. 0. 0. 0. 7.87401572e-03 0. 0. 0.
      3.93700786e-03 0. 0. 0. 0. 0. 0. 0. 0. 0. 3.93700786e-03
      3.93700786e-03 0. 3.93700786e-03 0. 3.93700786e-03 0. 0. 0.
      1.18110236e-02 0. 0. 0. 0. 0. 7.87401572e-03 0. 0. 3.93700786e-03
      3.93700786e-03 0. 0. 0. 0. 3.93700786e-03 0. 0. 0. 0. 0.
      3.93700786e-03 0. 0. 0. 0. 0. 0. 0. 3.93700786e-03 0. 0.
      3.93700786e-03 3.93700786e-03 0. 3.93700786e-03 0. 7.87401572e-03
      0. 0. 0. 0. 3.93700786e-03 0. 0. 0. 0. 0. 3.93700786e-03 0. 0. 0.
      3.93700786e-03 0. 7.87401572e-03 0. 3.93700786e-03 1.18110236e-02
      0. 0. 0. 0. 0. 0. 0. 3.93700786e-03 0. 0. 0. 0. 0. 0. 0. 0. 0. 0.
      0. 0. 0. 0. 0. 0. 0. 0. 3.93700786e-03 0. 0. 3.93700786e-03 0. 0.
      0. 0. 0. 0. 0. 0. 3.93700786e-03 0. 0. 0. 0. 0. 0. 0.
      7.87401572e-03 0. 0. 0. 0. 0. 3.93700786e-03 0. 0. 0.
      3.93700786e-03 0. 3.93700786e-03 0. 0. 0. 0. 0. 3.93700786e-03 0.
      0. 0. 0. 0. 3.93700786e-03 0. 7.87401572e-03 0. 0. 0. 0.
      3.93700786e-03 0. 0. 0. 0. 0. 0. 0. 3.93700786e-03 0. 0. 0. 0. 0.
      0. 0. 0. 0. 1.96850393e-02 3.93700786e-03 0. 0. 7.87401572e-03 0.
      0. 0. 0. 0. 0. 0. 0. 0. 0. 0. 7.87401572e-03 0. 3.93700786e-03
      3.93700786e-03 3.93700786e-03 0. 0. 0. 0. 0. 0. 3.93700786e-03 0.
      0. 0. 1.18110236e-02 0. 0. 0. 0. 0. 0. 0. 0. 0. 0. 0.
      7.87401572e-03 0. 0. 0. 0. 0. 0. 0. 0. 0. 0. 0. 0.</_>
    <_>
      0. 0. 0. 0. 0. 0. 0. 0. 0. 9.80392192e-03 4.90196096e-03 0. 0. 0.
      0. 0. 0. 0. 0. 0. 0. 0. 0. 0. 0. 0. 0. 0. 4.90196096e-03
      9.80392192e-03 0. 0. 0. 0. 0. 0. 0. 0. 0. 0. 0. 4.90196096e-03 0.
      0. 0. 0. 0. 9.80392192e-03 4.90196096e-03 0. 0. 0. 4.90196096e-03
      0. 0. 0. 0. 0. 0. 4.90196096e-03 0. 0. 0. 0. 0. 0. 0.
      4.90196096e-03 0. 0. 0. 0. 0. 4.90196096e-03 0. 0. 4.90196096e-03
      4.90196096e-03 0. 0. 0. 0. 0. 4.90196096e-03 0. 0. 0. 0. 0.
      4.90196096e-03 0. 0. 0. 0. 0. 0. 0. 0. 1.47058833e-02 0. 0. 0. 0.
      0. 4.90196096e-03 0. 0. 0. 0. 0. 0. 0. 0. 0. 0. 0. 0. 0. 0. 0. 0.
      0. 0. 0. 0. 0. 0. 0. 0. 0. 0. 0. 0. 0. 0. 0. 0. 0. 0. 0. 0. 0. 0.
      0. 0. 0. 9.80392192e-03 0. 0. 0. 0. 0. 0. 4.90196096e-03 0. 0. 0.
      0. 0. 9.80392192e-03 0. 4.90196096e-03 0. 0. 0. 0. 0. 0. 0. 0. 0.
      0. 0. 0. 0. 0. 0. 0. 0. 0. 0. 0. 4.90196096e-03 0. 0. 0. 0. 0. 0.
      0. 0. 0. 0. 0. 0. 0. 9.80392192e-03 0. 4.90196096e-03 0. 0.
      9.80392192e-03 0. 0. 9.80392192e-03 0. 0. 0. 0. 0. 0.
      4.90196096e-03 4.90196096e-03 0. 0. 4.90196096e-03 9.80392192e-03
      0. 0. 0. 0. 0. 4.90196096e-03 0. 0. 0. 0. 0. 0. 0. 0.
      4.90196096e-03 4.90196096e-03 0. 0. 0. 0. 0. 0. 0. 0. 0. 0. 0. 0.
      0. 0. 0. 0. 0. 0. 0. 0. 0. 0. 0. 0. 4.90196096e-03 0. 0. 0. 0. 0.
      4.90196096e-03 4.90196096e-03 0. 0. 0. 4.90196096e-03
      4.90196096e-03 0. 0. 0. 9.80392192e-03 0. 4.90196096e-03 0. 0. 0.
      4.90196096e-03 0. 0. 0. 0. 0. 0. 4.90196096e-03 0. 0. 0. 0. 0. 0.
      0. 0. 4.90196096e-03 9.80392192e-03 0. 0. 0. 9.80392192e-03 0. 0.
      0. 9.80392192e-03 0. 0. 9.80392192e-03 4.90196096e-03 0. 0. 0.
      4.90196096e-03 0. 0. 0. 0. 0. 0. 4.90196096e-03 0. 0. 0. 0.
      4.90196096e-03 4.90196096e-03 0. 0. 9.80392192e-03 0. 0. 0. 0. 0.
      0. 0. 0. 0. 0. 0. 0. 0. 0. 0. 0. 0. 0. 0. 0. 0. 0. 0. 0. 0. 0.
      4.90196096e-03 9.80392192e-03 0. 0. 0. 0. 0. 0. 4.90196096e-03 0.
      0. 0. 0. 0. 0. 0. 0. 0. 1.47058833e-02 0. 0. 0. 4.90196096e-03
      1.47058833e-02 4.90196096e-03 4.90196096e-03 0. 0. 0.
      4.90196096e-03 0. 0. 0. 0. 0. 0. 0. 4.90196096e-03 0. 0. 0. 0. 0.
      0. 0. 0. 0. 4.90196096e-03 0. 0. 0. 0. 0. 4.90196096e-03 0. 0.
      4.90196096e-03 0. 0. 0. 9.80392192e-03 0. 0. 0. 0. 0. 0.
      4.90196096e-03 0. 0. 0. 0. 0. 0. 0. 0. 0. 0. 4.90196096e-03 0. 0.
      0. 0. 0. 0. 0. 0. 0. 0. 0. 0. 4.90196096e-03 0. 0. 0. 0.
      4.90196096e-03 0. 0. 0. 0. 0. 0. 0. 0. 0. 0. 4.90196096e-03
      4.90196096e-03 0. 0. 0. 0. 0. 0. 0. 0. 0. 0. 0. 0. 0. 0. 0. 0. 0.
      0. 0. 1.47058833e-02 0. 0. 0. 9.80392192e-03 0. 0. 4.90196096e-03
      0. 0. 0. 4.90196096e-03 0. 0. 0. 0. 0. 0. 0. 0. 0. 0. 0. 0. 0. 0.
      0. 0. 0. 0. 0. 0. 0. 0. 0. 0. 0. 0. 0. 0. 0. 0. 0. 0.
      4.90196096e-03 0. 4.90196096e-03 0. 0. 0. 0. 0. 0. 0. 0.
      4.90196096e-03 0. 4.90196096e-03 0. 0. 0. 0. 0. 0. 4.90196096e-03
      0. 4.90196096e-03 0. 0. 4.90196096e-03 0. 0. 0. 0. 0.
      4.90196096e-03 0. 0. 0. 0. 0. 0. 0. 0. 0. 0. 0. 4.90196096e-03 0.
      0. 0. 0. 0. 0. 0. 0. 0. 0. 9.80392192e-03 0. 0. 9.80392192e-03 0.
      0. 0. 0. 0. 0. 0. 0. 0. 0. 0. 0. 0. 9.80392192e-03 0. 0. 0.
      4.90196096e-03 0. 4.90196096e-03 0. 0. 0. 0. 0. 0. 4.90196096e-03
      0. 0. 0. 4.90196096e-03 0. 0. 0. 0. 4.90196096e-03 0. 0. 0. 0.
      4.90196096e-03 9.80392192e-03 0. 4.90196096e-03 0. 0. 0. 0. 0. 0.
      0. 0. 0. 0. 0. 0. 0. 0. 0. 0. 0. 0. 0. 0. 0. 0. 0. 4.90196096e-03
      0. 0. 0. 0. 0. 0. 0. 0. 0. 0. 0. 0. 0. 4.90196096e-03 0. 0. 0. 0.
      0. 0. 4.90196096e-03 0. 0. 0. 0. 0. 0. 0. 4.90196096e-03 0. 0. 0.
      0. 0. 4.90196096e-03 4.90196096e-03 0. 0. 0. 0. 0. 4.90196096e-03
      0. 0. 0. 0. 0. 0. 0. 0. 0. 0. 0. 0. 0. 0. 0. 0. 0. 0. 0.
      4.90196096e-03 4.90196096e-03 9.80392192e-03 0. 0. 9.80392192e-03
      0. 0. 0. 0. 1.47058833e-02 0. 2.45098043e-02 0. 0. 0. 0. 0.
      4.90196096e-03 4.90196096e-03 0. 4.90196096e-03 0. 4.90196096e-03
      0. 0. 0. 0. 0. 0. 0. 0. 0. 0. 0. 4.90196096e-03 0. 0. 0. 0. 0. 0.
      0. 0. 0. 0. 0. 0. 0. 0. 0. 0. 0. 0. 4.90196096e-03 0. 0. 0. 0.
      4.90196096e-03 0. 0. 4.90196096e-03 0. 0. 0. 4.90196096e-03 0. 0.
      0. 0. 4.90196096e-03 4.90196096e-03 4.90196096e-03 4.90196096e-03
      4.90196096e-03 0. 4.90196096e-03 0. 4.90196096e-03 0. 0. 0. 0. 0.
      4.90196096e-03 0. 0. 0. 0. 0. 0. 0. 0. 0. 0. 0. 0. 0. 0. 0.
      4.90196096e-03 4.90196096e-03 0. 0. 4.90196096e-03 0. 0.
      4.90196096e-03 4.90196096e-03 0. 0. 0. 0. 0. 0. 0. 0.
      4.90196096e-03 0. 0. 0. 0. 0. 0. 0. 0. 4.90196096e-03 0.
      4.90196096e-03 0. 0. 0. 0. 0. 9.80392192e-03 0. 0. 0. 0. 0. 0.
      4.90196096e-03 0. 9.80392192e-03 4.90196096e-03 0. 4.90196096e-03
      0. 0. 0. 0. 0. 4.90196096e-03 0. 4.90196096e-03 0. 0. 0. 0. 0. 0.
      0. 0. 0. 0. 4.90196096e-03 4.90196096e-03 0. 0. 4.90196096e-03 0.
      4.90196096e-03 0. 0. 0. 0. 0. 0. 0. 0. 9.80392192e-03 0. 0.
      4.90196096e-03 0. 0. 0. 0. 0. 0. 0. 9.80392192e-03 0. 0. 0. 0. 0.
      0. 0. 0. 0. 0. 0. 4.90196096e-03 4.90196096e-03 4.90196096e-03 0.
      0. 0. 0. 0. 0. 0. 0. 0. 0. 0. 0. 4.90196096e-03 4.90196096e-03 0.
      0. 4.90196096e-03 0. 0. 0. 0. 0. 4.90196096e-03 0. 0. 0. 0.
      4.90196096e-03 0. 0. 0. 0. 0. 0. 0. 0. 0. 0. 0. 0. 0. 0. 0. 0. 0.
      0. 0. 0. 0. 0. 0. 0. 0. 0. 0. 0. 4.90196096e-03 0. 0. 0. 0. 0. 0.
      0. 0. 0. 0. 0. 4.90196096e-03 0. 4.90196096e-03 0. 4.90196096e-03
      0. 0. 0. 0. 4.90196096e-03 0.</_>
    <_>
      0. 0. 0. 0. 0. 0. 4.76190494e-03 0. 0. 0. 0. 0. 4.76190494e-03
      4.76190494e-03 0. 0. 0. 0. 0. 4.76190494e-03 0. 0. 4.76190494e-03
      0. 0. 4.76190494e-03 0. 0. 0. 0. 0. 0. 0. 0. 0. 0. 0. 0. 0. 0. 0.
      9.52380989e-03 9.52380989e-03 0. 0. 0. 0. 0. 0. 0. 0. 0. 0. 0. 0.
      0. 0. 0. 0. 0. 0. 0. 0. 0. 4.76190494e-03 0. 0. 0. 0. 0. 0. 0. 0.
      0. 0. 0. 0. 0. 0. 0. 0. 0. 0. 9.52380989e-03 0. 0. 0. 0. 0.
      4.76190494e-03 0. 0. 0. 4.76190494e-03 0. 0. 0. 0. 4.76190494e-03
      0. 4.76190494e-03 0. 4.76190494e-03 0. 0. 0. 0. 0. 0.
      4.76190494e-03 0. 0. 0. 0. 0. 0. 0. 0. 4.76190494e-03 0. 0. 0. 0.
      0. 0. 9.52380989e-03 0. 4.76190494e-03 0. 4.76190494e-03 0. 0. 0.
      0. 4.76190494e-03 0. 0. 4.76190494e-03 0. 0. 0. 0. 0. 0. 0. 0. 0.
      0. 0. 0. 0. 0. 0. 0. 0. 0. 0. 0. 0. 0. 0. 0. 0. 0. 4.76190494e-03
      0. 0. 0. 0. 0. 0. 0. 0. 0. 4.76190494e-03 0. 0. 0. 0. 0.
      4.76190494e-03 0. 0. 0. 0. 0. 0. 0. 0. 0. 0. 0. 0. 0. 0. 0. 0. 0.
      0. 0. 4.76190494e-03 9.52380989e-03 9.52380989e-03 0. 0. 0. 0.
      4.76190494e-03 4.76190494e-03 4.76190494e-03 0. 0. 0. 0. 0. 0. 0.
      0. 0. 0. 4.76190494e-03 0. 0. 0. 0. 0. 0. 0. 0. 0. 0. 0. 0. 0.
      4.76190494e-03 0. 0. 0. 0. 0. 1.42857153e-02 0. 0. 0. 0.
      9.52380989e-03 0. 0. 9.52380989e-03 0. 0. 0. 0. 0. 0. 0.
      4.76190494e-03 0. 0. 0. 0. 0. 0. 4.76190494e-03 0. 0.
      9.52380989e-03 0. 4.76190494e-03 0. 0. 0. 0. 0. 0. 4.76190494e-03
      0. 0. 0. 0. 0. 0. 0. 0. 0. 0. 0. 0. 0. 0. 4.76190494e-03 0. 0. 0.
      0. 0. 9.52380989e-03 4.76190494e-03 0. 0. 0. 4.76190494e-03 0. 0.
      0. 0. 9.52380989e-03 0. 0. 0. 0. 0. 0. 4.76190494e-03
      1.42857153e-02 0. 0. 0. 4.76190494e-03 0. 4.76190494e-03 0. 0. 0.
      0. 0. 0. 0. 0. 0. 0. 0. 0. 0. 4.76190494e-03 4.76190494e-03 0. 0.
      0. 0. 9.52380989e-03 0. 0. 0. 0. 4.76190494e-03 0. 0. 0. 0. 0. 0.
      0. 0. 0. 0. 0. 0. 0. 0. 4.76190494e-03 0. 0. 0. 0. 0. 0. 0. 0.
      4.76190494e-03 0. 9.52380989e-03 4.76190494e-03 4.76190494e-03 0.
      0. 0. 0. 4.76190494e-03 0. 0. 0. 4.76190494e-03 0. 0. 0. 0. 0. 0.
      0. 0. 0. 0. 0. 0. 9.52380989e-03 0. 0. 4.76190494e-03 0. 0. 0. 0.
      0. 4.76190494e-03 0. 0. 9.52380989e-03 0. 0. 0. 4.76190494e-03 0.
      0. 1.42857153e-02 0. 0. 4.76190494e-03 0. 0. 0. 0. 0. 0. 0.
      4.76190494e-03 0. 0. 0. 4.76190494e-03 0. 4.76190494e-03 0. 0. 0.
      0. 0. 0. 9.52380989e-03 0. 0. 0. 0. 0. 0. 0. 0. 0. 4.76190494e-03
      0. 0. 4.76190494e-03 0. 0. 0. 0. 0. 0. 9.52380989e-03 0. 0. 0. 0.
      0. 0. 0. 0. 0. 0. 0. 0. 0. 9.52380989e-03 0. 9.52380989e-03 0.
      4.76190494e-03 0. 0. 0. 0. 0. 0. 0. 0. 0. 0. 0. 0. 0. 0. 0. 0. 0.
      0. 0. 0. 0. 0. 0. 0. 0. 0. 0. 0. 0. 0. 0. 4.76190494e-03 0. 0. 0.
      4.76190494e-03 0. 0. 0. 0. 0. 0. 0. 0. 0. 0. 0. 4.76190494e-03 0.
      0. 0. 0. 0. 0. 0. 0. 9.52380989e-03 0. 0. 0. 0. 0. 0. 0. 0. 0. 0.
      0. 0. 0. 0. 0. 0. 0. 0. 4.76190494e-03 0. 0. 0. 0. 4.76190494e-03
      0. 0. 0. 0. 0. 0. 0. 0. 0. 4.76190494e-03 0. 0. 0. 0. 0.
      4.76190494e-03 0. 4.76190494e-03 0. 1.42857153e-02 0.
      9.52380989e-03 4.76190494e-03 4.76190494e-03 4.76190494e-03 0. 0.
      0. 0. 0. 0. 0. 0. 0. 0. 4.76190494e-03 0. 0. 0. 0. 0. 0.
      4.76190494e-03 0. 0. 0. 0. 0. 0. 4.76190494e-03 0. 0. 0.
      4.76190494e-03 4.76190494e-03 0. 0. 0. 0. 0. 0. 0. 0.
      4.76190494e-03 4.76190494e-03 0. 0. 0. 0. 9.52380989e-03
      4.76190494e-03 0. 9.52380989e-03 0. 0. 0. 0. 0. 0. 0. 0. 0. 0.
      1.42857153e-02 0. 4.76190494e-03 4.76190494e-03 0. 0. 0.
      4.76190494e-03 0. 0. 4.76190494e-03 0. 0. 0. 0. 0. 0. 0. 0. 0. 0.
      0. 0. 4.76190494e-03 0. 0. 0. 0. 0. 0. 0. 4.76190494e-03 0. 0. 0.
      0. 0. 0. 0. 0. 0. 0. 0. 0. 0. 0. 0. 0. 0. 0. 0. 0. 0. 0. 0. 0. 0.
      0. 0. 0. 0. 0. 0. 0. 0. 0. 0. 0. 0. 0. 0. 0. 9.52380989e-03 0.
      4.76190494e-03 0. 0. 0. 0. 0. 0. 0. 0. 0. 0. 0. 0. 0. 0.
      4.76190494e-03 0. 0. 0. 0. 4.76190494e-03 0. 0. 0. 0.
      1.42857153e-02 0. 0. 0. 4.76190494e-03 0. 4.76190494e-03 0. 0. 0.
      0. 0. 0. 0. 4.76190494e-03 0. 0. 0. 0. 9.52380989e-03
      4.76190494e-03 0. 0. 0. 0. 4.76190494e-03 0. 0. 0. 0. 0. 0. 0. 0.
      0. 0. 0. 0. 0. 0. 4.76190494e-03 0. 0. 4.76190494e-03 0. 0.
      4.76190494e-03 0. 0. 0. 9.52380989e-03 0. 0. 4.76190494e-03 0. 0.
      0. 0. 0. 4.76190494e-03 0. 0. 0. 0. 0. 0. 0. 0. 0. 4.76190494e-03
      0. 0. 0. 0. 0. 0. 0. 4.76190494e-03 0. 0. 0. 4.76190494e-03 0. 0.
      0. 0. 0. 0. 0. 0. 0. 0. 0. 0. 0. 0. 0. 0. 0. 0. 0. 0. 0. 0. 0.
      4.76190494e-03 0. 0. 0. 4.76190494e-03 0. 0. 0. 0. 0. 0.
      9.52380989e-03 4.76190494e-03 4.76190494e-03 0. 0. 0. 0.
      4.76190494e-03 0. 0. 0. 0. 0. 0. 0. 4.76190494e-03 0. 0. 0. 0. 0.
      0. 0. 0. 0. 0. 0. 0. 4.76190494e-03 0. 9.52380989e-03
      4.76190494e-03 0. 0. 0. 0. 0. 0. 0. 0. 0. 4.76190494e-03 0. 0. 0.
      4.76190494e-03 0. 0. 0. 0. 0. 9.52380989e-03 9.52380989e-03 0.
      4.76190494e-03 4.76190494e-03 0. 0. 0. 0. 0. 9.52380989e-03 0. 0.
      0. 0. 0. 0. 0. 0. 4.76190494e-03 4.76190494e-03 0. 0. 0. 0. 0. 0.
      4.76190494e-03 0. 0. 0. 4.76190494e-03 4.76190494e-03 0. 0. 0. 0.
      9.52380989e-03 0. 0. 4.76190494e-03 0. 4.76190494e-03 0. 0. 0. 0.
      4.76190494e-03 0. 0. 0. 0. 0. 0. 0. 0. 0. 0. 0. 0. 0.
      9.52380989e-03 4.76190494e-03 0. 0. 0. 0. 0. 0. 0. 4.76190494e-03
      0. 0. 4.76190494e-03 0. 0. 4.76190494e-03 0. 0. 4.76190494e-03
      4.76190494e-03 4.76190494e-03 4.76190494e-03 4.76190494e-03 0. 0.
      0. 0. 0. 0. 0. 0. 0.</_>
    <_>
      0. 0. 0. 0. 0. 0. 0. 0. 0. 0. 0. 0. 0. 0. 0. 2.36966833e-03 0. 0.
      0. 7.10900500e-03 0. 0. 1.18483417e-02 0. 2.36966833e-03 0. 0. 0.
      2.36966833e-03 0. 2.36966833e-03 0. 0. 0. 0. 0. 0. 0. 0. 0. 0. 0.
      0. 0. 0. 0. 0. 0. 0. 0. 0. 4.73933667e-03 0. 0. 0. 0. 0. 0. 0. 0.
      0. 0. 0. 0. 0. 0. 4.73933667e-03 0. 2.36966833e-03 0. 0. 0. 0. 0.
      2.36966833e-03 0. 2.36966833e-03 0. 0. 0. 2.36966833e-03 0. 0.
      2.36966833e-03 0. 0. 0. 0. 2.36966833e-03 2.36966833e-03 0. 0. 0.
      2.36966833e-03 0. 0. 2.36966833e-03 0. 0. 0. 0. 0. 0.
      1.18483417e-02 2.36966833e-03 0. 0. 2.36966833e-03 0. 0. 0. 0.
      2.36966833e-03 0. 0. 0. 0. 0. 0. 0. 0. 0. 0. 0. 0. 0. 0. 0. 0. 0.
      0. 2.36966833e-03 0. 2.36966833e-03 0. 2.36966833e-03
      2.36966833e-03 0. 0. 0. 0. 0. 0. 2.36966833e-03 0. 4.73933667e-03
      2.36966833e-03 0. 1.18483417e-02 0. 0. 0. 0. 0. 0. 2.36966833e-03
      0. 0. 0. 2.36966833e-03 9.47867334e-03 2.36966833e-03 0. 0. 0. 0.
      0. 1.18483417e-02 0. 0. 0. 2.36966833e-03 2.36966833e-03 0. 0. 0.
      0. 0. 0. 2.36966833e-03 0. 0. 0. 0. 0. 0. 4.73933667e-03 0. 0. 0.
      0. 0. 0. 0. 0. 0. 4.73933667e-03 0. 0. 0. 0. 2.36966833e-03 0.
      2.36966833e-03 0. 0. 0. 0. 2.36966833e-03 0. 0. 0. 0. 0.
      2.36966833e-03 2.36966833e-03 0. 0. 0. 0. 0. 0. 1.18483417e-02
      2.36966833e-03 2.36966833e-03 0. 7.10900500e-03 0. 2.36966833e-03
      0. 0. 2.36966833e-03 0. 0. 4.73933667e-03 0. 0. 0. 0. 0. 0.
      2.36966833e-03 0. 0. 0. 0. 2.36966833e-03 4.73933667e-03 0. 0. 0.
      2.36966833e-03 0. 0. 4.73933667e-03 0. 0. 2.36966833e-03 0. 0. 0.
      0. 0. 0. 0. 0. 0. 0. 0. 2.36966833e-03 0. 0. 0. 2.36966833e-03 0.
      0. 0. 2.36966833e-03 0. 2.36966833e-03 2.36966833e-03 0. 0.
      2.36966833e-03 0. 2.36966833e-03 0. 0. 0. 0. 2.36966833e-03 0.
      2.36966833e-03 0. 0. 2.36966833e-03 2.36966833e-03 0. 0.
      2.36966833e-03 0. 0. 0. 0. 2.36966833e-03 0. 0. 0. 7.10900500e-03
      0. 0. 0. 7.10900500e-03 0. 2.36966833e-03 0. 2.36966833e-03
      2.36966833e-03 0. 0. 0. 4.73933667e-03 0. 0. 0. 0. 0. 0.
      2.36966833e-03 0. 0. 0. 0. 7.10900500e-03 0. 0. 0. 1.42180100e-02
      0. 0. 0. 0. 0. 0. 0. 2.36966833e-03 0. 0. 2.36966833e-03 0.
      2.36966833e-03 0. 0. 0. 0. 0. 0. 0. 2.36966833e-03 0.
      2.36966833e-03 0. 2.36966833e-03 0. 2.36966833e-03 0.
      4.73933667e-03 0. 2.36966833e-03 2.36966833e-03 2.36966833e-03 0.
      2.36966833e-03 2.36966833e-03 0. 2.36966833e-03 0. 0.
      2.36966833e-03 4.73933667e-03 2.36966833e-03 4.73933667e-03
      9.47867334e-03 0. 0. 0. 0. 0. 0. 0. 0. 0. 2.36966833e-03 0. 0. 0.
      0. 0. 0. 2.36966833e-03 0. 0. 2.36966833e-03 0. 0. 0.
      2.36966833e-03 0. 2.36966833e-03 0. 0. 4.73933667e-03 0. 0. 0. 0.
      0. 0. 0. 0. 0. 2.36966833e-03 0. 0. 0. 0. 0. 0. 0. 0. 0. 0. 0. 0.
      0. 0. 0. 2.36966833e-03 0. 0. 0. 0. 0. 0. 0. 2.36966833e-03 0. 0.
      0. 0. 0. 7.10900500e-03 0. 2.36966833e-03 0. 2.36966833e-03 0. 0.
      0. 2.36966833e-03 0. 0. 0. 0. 0. 0. 0. 0. 7.10900500e-03 0. 0. 0.
      0. 0. 4.73933667e-03 0. 0. 0. 0. 0. 0. 0. 4.73933667e-03
      2.36966833e-03 4.73933667e-03 0. 0. 0. 4.73933667e-03 0. 0. 0. 0.
      0. 2.36966833e-03 0. 0. 0. 0. 0. 2.36966833e-03 0. 2.36966833e-03
      0. 0. 2.36966833e-03 0. 0. 2.36966833e-03 7.10900500e-03
      2.36966833e-03 0. 2.36966833e-03 0. 0. 2.36966833e-03 0. 0. 0.
      2.36966833e-03 0. 0. 2.36966833e-03 0. 2.36966833e-03 0. 0.
      2.36966833e-03 2.36966833e-03 0. 0. 0. 2.36966833e-03
      7.10900500e-03 7.10900500e-03 1.65876783e-02 0. 0. 2.36966833e-03
      0. 0. 0. 0. 0. 0. 2.36966833e-03 4.73933667e-03 0. 0. 0. 0.
      4.73933667e-03 7.10900500e-03 0. 0. 0. 0. 4.73933667e-03
      2.36966833e-03 0. 0. 0. 0. 1.65876783e-02 0. 0. 0. 0. 0. 0. 0. 0.
      0. 4.73933667e-03 0. 4.73933667e-03 0. 0. 2.36966833e-03 0. 0.
      7.10900500e-03 0. 0. 2.36966833e-03 2.36966833e-03 2.36966833e-03
      0. 0. 0. 0. 0. 0. 0. 0. 4.73933667e-03 0. 2.36966833e-03 0. 0. 0.
      0. 2.36966833e-03 0. 2.36966833e-03 0. 2.36966833e-03 0. 0.
      2.36966833e-03 0. 2.36966833e-03 0. 0. 0. 0. 0. 0. 2.36966833e-03
      0. 7.10900500e-03 4.73933667e-03 0. 0. 0. 0. 0. 0. 2.36966833e-03
      2.36966833e-03 0. 0. 0. 0. 0. 0. 0. 0. 0. 0. 0. 2.36966833e-03 0.
      0. 1.18483417e-02 2.36966833e-03 2.36966833e-03 4.73933667e-03 0.
      0. 0. 0. 0. 0. 2.36966833e-03 0. 9.47867334e-03 0. 0. 0. 0.
      2.36966833e-03 2.36966833e-03 0. 0. 0. 0. 0. 0. 2.36966833e-03
      2.36966833e-03 0. 2.36966833e-03 0. 0. 2.36966833e-03 0. 0. 0. 0.
      0. 0. 0. 0. 0. 0. 0. 7.10900500e-03 0. 0. 2.36966833e-03 0. 0. 0.
      2.36966833e-03 0. 0. 0. 0. 0. 0. 0. 0. 0. 0. 0. 0. 2.36966833e-03
      0. 0. 0. 2.36966833e-03 0. 2.36966833e-03 2.36966833e-03
      4.73933667e-03 2.36966833e-03 0. 0. 0. 2.36966833e-03 0. 0. 0.
      2.36966833e-03 0. 0. 0. 2.36966833e-03 0. 0. 0. 0. 2.36966833e-03
      0. 0. 0. 0. 2.36966833e-03 0. 0. 2.36966833e-03 0. 0. 0. 0.
      2.36966833e-03 0. 0. 0. 0. 2.36966833e-03 0. 0. 0. 1.89573467e-02
      2.36966833e-03 0. 0. 2.36966833e-03 0. 0. 0. 0. 0. 7.10900500e-03
      0. 0. 9.47867334e-03 0. 0. 2.36966833e-03 2.36966833e-03
      4.73933667e-03 0. 4.73933667e-03 2.36966833e-03 0. 0. 0.
      7.10900500e-03 0. 0. 0. 0. 0. 4.73933667e-03 4.73933667e-03 0.
      4.73933667e-03 0. 0. 0. 0. 0. 2.36966833e-03 0. 0. 0.
      2.36966833e-03 2.36966833e-03 1.18483417e-02 0. 0. 0. 0. 0. 0. 0.
      0. 4.73933667e-03 0. 0. 0. 0. 4.73933667e-03 0. 2.36966833e-03 0.
      0. 2.36966833e-03 2.36966833e-03 0. 2.36966833e-03 0. 0. 0. 0. 0.
      0. 0. 0. 2.36966833e-03 0. 0. 0. 2.36966833e-03 0. 2.36966833e-03
      0. 0. 0. 0. 0. 2.36966833e-03 2.36966833e-03 1.18483417e-02
      9.47867334e-03 0. 2.36966833e-03 0. 0. 0. 0. 0. 0. 0. 0.
      7.10900500e-03 2.36966833e-03 0. 0. 0. 0. 0. 0. 0. 4.73933667e-03
      0. 0. 2.36966833e-03 0. 2.36966833e-03 0. 0. 2.36966833e-03 0. 0.
      0. 0. 0. 0. 0. 0. 0. 0. 2.36966833e-03 0. 2.36966833e-03
      2.36966833e-03 0. 4.73933667e-03 0. 0. 2.36966833e-03 0. 0. 0. 0.
      0. 0. 0. 0. 0. 0. 7.10900500e-03 0. 0. 0. 0. 0. 0. 0. 0. 0. 0.
      4.73933667e-03 2.36966833e-03 0. 0. 0. 0. 4.73933667e-03 0. 0.
      2.36966833e-03 2.36966833e-03 0. 4.73933667e-03 2.36966833e-03 0.
      2.36966833e-03 0. 4.73933667e-03 2.36966833e-03 0. 2.36966833e-03
      4.73933667e-03 0. 0. 0. 2.36966833e-03 0. 2.36966833e-03
      2.36966833e-03 0. 0. 0. 2.36966833e-03 0. 4.73933667e-03 0.
      2.36966833e-03 0. 2.36966833e-03 0. 2.36966833e-03 2.36966833e-03
      0. 0. 0. 0. 0. 0. 0. 2.36966833e-03 0. 0. 0. 0. 2.36966833e-03 0.
      0. 0. 0. 2.36966833e-03 0. 0. 0. 2.36966833e-03 2.13270150e-02 0.
      0. 0. 2.36966833e-03 0. 0. 7.10900500e-03 0. 0. 0. 0. 0. 0. 0. 0.
      0. 0. 0. 0.</_>
    <_>
      0. 0. 0. 0. 0. 0. 7.37100746e-03 0. 0. 0. 0. 0. 0. 0.
      1.22850118e-02 0. 0. 0. 0. 0. 0. 0. 0. 0. 0. 4.91400482e-03 0. 0.
      2.45700241e-03 0. 0. 0. 0. 0. 0. 2.45700241e-03 0. 2.45700241e-03
      0. 0. 2.45700241e-03 0. 2.45700241e-03 0. 2.45700241e-03 0. 0. 0.
      0. 0. 0. 4.91400482e-03 0. 0. 0. 0. 0. 0. 0. 4.91400482e-03 0. 0.
      0. 0. 2.45700241e-03 0. 0. 0. 2.45700241e-03 0. 0. 0. 0.
      4.91400482e-03 0. 4.91400482e-03 0. 0. 0. 0. 0. 2.45700241e-03 0.
      2.45700241e-03 0. 0. 0. 2.45700241e-03 0. 2.45700241e-03 0.
      2.45700241e-03 0. 2.45700241e-03 0. 0. 0. 4.91400482e-03 0. 0. 0.
      0. 0. 0. 0. 2.45700241e-03 2.45700241e-03 2.45700241e-03 0. 0.
      2.45700241e-03 0. 4.91400482e-03 0. 7.37100746e-03 0.
      4.91400482e-03 0. 0. 0. 0. 0. 0. 0. 0. 0. 0. 0. 0. 2.45700241e-03
      0. 0. 0. 0. 0. 0. 0. 0. 0. 0. 2.45700241e-03 0. 2.45700241e-03 0.
      0. 0. 4.91400482e-03 2.45700241e-03 2.45700241e-03 0. 0. 0. 0. 0.
      0. 0. 0. 0. 0. 4.91400482e-03 4.91400482e-03 0. 4.91400482e-03 0.
      0. 0. 0. 0. 0. 0. 0. 2.45700241e-03 0. 0. 2.45700241e-03 0. 0. 0.
      2.45700241e-03 2.45700241e-03 4.91400482e-03 0. 0. 0. 0. 0. 0.
      2.45700241e-03 0. 0. 0. 2.45700241e-03 0. 4.91400482e-03 0. 0. 0.
      2.45700241e-03 0. 0. 2.45700241e-03 0. 0. 0. 2.45700241e-03 0.
      2.45700241e-03 0. 0. 0. 0. 2.45700241e-03 0. 0. 0. 0. 0. 0. 0. 0.
      0. 0. 0. 4.91400482e-03 0. 0. 0. 0. 0. 0. 0. 4.91400482e-03 0. 0.
      0. 2.45700241e-03 0. 0. 0. 0. 0. 2.45700241e-03 0. 0. 0. 0. 0.
      2.45700241e-03 2.45700241e-03 0. 0. 2.45700241e-03 9.82800964e-03
      0. 0. 0. 2.45700241e-03 2.45700241e-03 0. 0. 0. 0. 0. 0. 0. 0.
      2.45700241e-03 2.45700241e-03 0. 0. 0. 2.45700241e-03 0. 0. 0.
      2.45700241e-03 0. 0. 0. 0. 2.45700241e-03 0. 2.45700241e-03 0. 0.
      0. 2.45700241e-03 0. 0. 0. 0. 0. 4.91400482e-03 7.37100746e-03 0.
      2.45700241e-03 0. 2.45700241e-03 0. 0. 2.45700241e-03 0. 0. 0.
      4.91400482e-03 0. 4.91400482e-03 4.91400482e-03 0. 0. 0.
      2.45700241e-03 0. 0. 2.45700241e-03 0. 0. 2.45700241e-03 0.
      2.45700241e-03 0. 2.45700241e-03 4.91400482e-03 0. 0. 0. 0. 0. 0.
      0. 2.45700241e-03 0. 0. 4.91400482e-03 0. 7.37100746e-03
      4.91400482e-03 0. 0. 0. 2.45700241e-03 0. 0. 0. 0. 2.45700241e-03
      2.45700241e-03 0. 0. 0. 0. 0. 0. 0. 0. 2.45700241e-03 0.
      4.91400482e-03 0. 2.45700241e-03 0. 0. 2.45700241e-03
      2.45700241e-03 0. 0. 0. 0. 0. 0. 7.37100746e-03 0. 2.45700241e-03
      2.45700241e-03 0. 2.45700241e-03 2.45700241e-03 0. 0. 0. 0. 0. 0.
      0. 0. 4.91400482e-03 2.45700241e-03 2.45700241e-03 0. 0. 0. 0.
      2.45700241e-03 0. 0. 2.45700241e-03 0. 4.91400482e-03 0.
      2.45700241e-03 0. 2.45700241e-03 0. 0. 2.45700241e-03 0.
      2.45700241e-03 0. 0. 2.45700241e-03 2.45700241e-03 4.91400482e-03
      2.45700241e-03 4.91400482e-03 2.45700241e-03 0. 0. 0.
      2.45700241e-03 0. 2.45700241e-03 2.45700241e-03 0. 7.37100746e-03
      0. 0. 0. 0. 0. 2.45700241e-03 0. 0. 4.91400482e-03 0.
      2.45700241e-03 4.91400482e-03 4.91400482e-03 0. 4.91400482e-03 0.
      2.45700241e-03 0. 0. 4.91400482e-03 0. 0. 0. 0. 0. 0.
      2.45700241e-03 0. 0. 0. 0. 0. 0. 0. 0. 2.45700241e-03
      2.45700241e-03 2.45700241e-03 2.45700241e-03 0. 0. 0.
      4.91400482e-03 0. 2.45700241e-03 0. 0. 0. 0. 0. 0. 0. 0. 0.
