<?xml version="1.0"?>
<opencv_storage>
<opencv_ml_svm>
  <format>3</format>
  <svmType>C_SVC</svmType>
  <kernel>
    <type>RBF</type>
    <gamma>5.0625000000000009e-01</gamma></kernel>
  <C>3.1250000000000000e+02</C>
  <term_criteria><iterations>1000</iterations></term_criteria>
  <var_count>1000</var_count>
  <class_count>2</class_count>
  <class_labels type_id="opencv-matrix">
    <rows>2</rows>
    <cols>1</cols>
    <dt>i</dt>
    <data>
      0 1</data></class_labels>
  <sv_total>211</sv_total>
  <support_vectors>
    <_>
      0. 0. 0. 3.41296918e-03 0. 0. 0. 0. 0. 0. 0. 3.41296918e-03 0. 0.
      1.36518767e-02 0. 0. 0. 0. 0. 0. 0. 0. 0. 1.02389073e-02 0. 0. 0.
      0. 3.41296918e-03 0. 0. 0. 0. 0. 0. 0. 3.41296918e-03 0.
      3.41296918e-03 0. 3.41296918e-03 0. 0. 0. 0. 0. 0. 1.70648452e-02
      0. 0. 0. 3.41296918e-03 0. 0. 0. 0. 0. 0. 0. 0. 3.41296918e-03 0.
      3.41296918e-03 0. 0. 0. 0. 2.04778146e-02 0. 0. 0. 0. 0. 0. 0. 0.
      0. 0. 3.41296918e-03 0. 0. 0. 0. 0. 0. 0. 0. 3.41296918e-03
      6.82593836e-03 6.82593836e-03 0. 0. 0. 0. 0. 0. 0. 0. 0.
      6.82593836e-03 0. 0. 0. 3.41296918e-03 0. 0. 0. 3.41296918e-03 0.
      0. 0. 0. 0. 0. 0. 0. 0. 0. 0. 3.41296918e-03 0. 0. 3.41296918e-03
      0. 0. 0. 1.36518767e-02 0. 0. 3.41296918e-03 6.82593836e-03 0. 0.
      6.82593836e-03 3.41296918e-03 0. 0. 0. 0. 0. 0. 0. 0. 0. 0. 0. 0.
      0. 0. 0. 0. 0. 3.41296918e-03 0. 0. 0. 0. 0. 0. 0. 0. 0. 0. 0.
      3.41296918e-03 0. 0. 0. 0. 0. 6.82593836e-03 0. 0. 3.41296918e-03
      3.41296918e-03 3.41296918e-03 0. 3.41296918e-03 0. 0. 0. 0. 0. 0.
      0. 3.41296918e-03 0. 0. 0. 0. 0. 0. 0. 0. 0. 0. 0. 3.41296918e-03
      0. 0. 0. 0. 0. 0. 0. 0. 0. 0. 0. 0. 0. 3.41296918e-03 0. 0.
      6.82593836e-03 0. 0. 0. 0. 0. 3.41296918e-03 0. 0. 0. 0. 0. 0. 0.
      3.41296918e-03 0. 0. 0. 0. 3.41296918e-03 0. 0. 0. 3.41296918e-03
      0. 0. 0. 0. 0. 3.41296918e-03 0. 3.41296918e-03 0. 0.
      6.82593836e-03 0. 0. 3.41296918e-03 0. 0. 0. 0. 0. 0. 0. 0.
      3.41296918e-03 0. 0. 0. 0. 0. 0. 0. 0. 3.41296918e-03 0. 0. 0. 0.
      0. 0. 0. 0. 0. 0. 0. 3.41296918e-03 0. 0. 0. 0. 3.41296918e-03 0.
      0. 0. 0. 0. 6.82593836e-03 0. 3.41296918e-03 0. 0. 0. 0. 0. 0. 0.
      0. 0. 0. 0. 0. 0. 0. 0. 0. 0. 0. 0. 3.41296918e-03 0. 0. 0. 0.
      3.41296918e-03 0. 0. 0. 0. 0. 0. 0. 0. 3.41296918e-03 0. 0. 0.
      3.41296918e-03 0. 0. 0. 0. 0. 0. 0. 0. 0. 0. 0. 0. 0. 0. 0. 0. 0.
      3.41296918e-03 0. 0. 0. 0. 0. 0. 0. 0. 3.41296918e-03 0. 0. 0.
      3.41296918e-03 0. 6.82593836e-03 0. 0. 0. 0. 0. 0. 0. 0. 0. 0. 0.
      3.41296918e-03 0. 0. 0. 0. 0. 3.41296918e-03 0. 3.41296918e-03 0.
      3.41296918e-03 3.41296918e-03 0. 0. 0. 0. 0. 0. 0. 0. 0. 0. 0. 0.
      0. 0. 3.41296918e-03 0. 0. 3.41296918e-03 0. 0. 0. 0. 0.
      3.41296918e-03 0. 0. 3.41296918e-03 0. 0. 0. 0. 0. 0. 0. 0. 0.
      3.41296918e-03 0. 3.41296918e-03 3.41296918e-03 0. 0.
      3.41296918e-03 0. 0. 0. 0. 0. 0. 6.82593836e-03 0. 0. 0. 0. 0.
      6.82593836e-03 0. 0. 0. 0. 0. 0. 0. 0. 0. 0. 0. 0. 0. 0. 0. 0.
      2.38907840e-02 0. 0. 0. 0. 0. 0. 0. 0. 0. 0. 0. 1.02389073e-02 0.
      0. 3.41296918e-03 0. 0. 0. 0. 0. 0. 0. 6.82593836e-03 0. 0. 0.
      1.02389073e-02 6.82593836e-03 3.41296918e-03 0. 0. 3.41296918e-03
      0. 0. 0. 0. 0. 0. 6.82593836e-03 0. 0. 0. 0. 6.82593836e-03 0. 0.
      0. 3.41296918e-03 3.41296918e-03 3.41296918e-03 0. 0. 0. 0. 0.
      6.82593836e-03 0. 0. 3.41296918e-03 0. 0. 0. 0. 3.41296918e-03 0.
      3.41296918e-03 0. 0. 0. 0. 0. 6.82593836e-03 0. 0. 0. 0. 0. 0.
      3.41296918e-03 0. 0. 0. 0. 0. 0. 0. 0. 0. 3.41296918e-03 0.
      3.41296918e-03 3.41296918e-03 3.41296918e-03 0. 0. 0. 0. 0. 0. 0.
      0. 3.41296918e-03 0. 0. 0. 3.41296918e-03 3.41296918e-03
      3.41296918e-03 0. 0. 0. 0. 0. 0. 0. 0. 0. 0. 0. 3.41296918e-03 0.
      0. 0. 3.41296918e-03 0. 0. 0. 6.82593836e-03 0. 0. 0. 0.
      3.41296918e-03 0. 0. 0. 0. 0. 0. 3.41296918e-03 0. 0. 0. 0. 0. 0.
      0. 3.41296918e-03 0. 3.41296918e-03 0. 0. 0. 0. 0. 0. 0. 0. 0. 0.
      0. 0. 0. 3.41296918e-03 0. 6.82593836e-03 0. 3.41296918e-03 0. 0.
      1.02389073e-02 0. 0. 2.04778146e-02 3.41296918e-03 0. 0. 0. 0. 0.
      3.41296918e-03 6.82593836e-03 3.41296918e-03 0. 0. 3.41296918e-03
      0. 0. 1.36518767e-02 0. 0. 0. 0. 0. 3.41296918e-03 0. 0. 0.
      3.41296918e-03 0. 0. 0. 3.41296918e-03 0. 0. 0. 0. 0. 0. 0. 0.
      3.41296918e-03 0. 0. 0. 0. 0. 3.41296918e-03 0. 0. 0.
      6.82593836e-03 0. 1.70648452e-02 0. 0. 0. 0. 0. 0. 0.
      6.82593836e-03 0. 0. 0. 3.41296918e-03 0. 0. 0. 0. 0. 0. 0. 0. 0.
      0. 0. 0. 3.41296918e-03 0. 0. 6.82593836e-03 0. 0. 0. 0.
      6.82593836e-03 0. 0. 0. 6.82593836e-03 3.41296918e-03 0. 0. 0. 0.
      0. 0. 3.41296918e-03 3.41296918e-03 3.41296918e-03 3.41296918e-03
      0. 0. 0. 6.82593836e-03 0. 0. 0. 0. 0. 0. 0. 0. 3.41296918e-03 0.
      0. 0. 0. 0. 0. 0. 0. 0. 0. 0. 3.41296918e-03 0. 3.41296918e-03
      3.41296918e-03 0. 0. 0. 0. 0. 0. 0. 0. 0. 3.41296918e-03
      3.41296918e-03 3.41296918e-03 0. 0. 0. 3.41296918e-03 0. 0.
      3.41296918e-03 0. 0. 0. 6.82593836e-03 0. 3.41296918e-03 0. 0. 0.
      3.41296918e-03 1.36518767e-02 0. 0. 0. 6.82593836e-03
      1.36518767e-02 0. 0. 0. 3.41296918e-03 0. 0. 3.41296918e-03
      1.02389073e-02 3.41296918e-03 0. 0. 0. 1.02389073e-02 0. 0. 0. 0.
      0. 3.41296918e-03 0. 3.41296918e-03 0. 0. 0. 0. 0. 0. 0. 0. 0. 0.
      0. 0. 0. 0. 0. 0. 0. 0. 0. 3.41296918e-03 0. 3.41296918e-03 0. 0.
      0. 0. 0. 0. 0. 0. 0. 0. 0. 0. 0. 3.41296918e-03 0. 3.41296918e-03
      0. 0. 0. 0. 3.41296918e-03 0. 0. 0. 0. 0. 0. 0. 0. 0. 0. 0.
      3.41296918e-03 0. 0. 0. 0. 0. 0. 0. 0. 0. 3.41296918e-03 0.
      3.41296918e-03 6.82593836e-03 0. 0. 0. 0. 3.41296918e-03
      3.41296918e-03 3.41296918e-03 0. 0. 0. 0. 0. 0. 0. 0.
      1.36518767e-02 6.82593836e-03 6.82593836e-03 0. 0. 0. 0.
      3.41296918e-03 3.41296918e-03 3.41296918e-03 3.41296918e-03 0. 0.
      0. 0. 0. 0. 0. 0. 0. 0. 0. 0. 0. 0. 0. 3.41296918e-03 0. 0. 0. 0.
      6.82593836e-03 0. 3.41296918e-03 0. 0. 3.41296918e-03 0.
      6.82593836e-03 6.82593836e-03 0. 3.41296918e-03 0. 3.41296918e-03
      0. 0. 0. 0. 0. 0. 0. 0. 0. 0. 0. 0. 0. 3.41296918e-03 0. 0.
      6.82593836e-03 0. 0. 0. 0. 6.82593836e-03 6.82593836e-03 0.
      3.41296918e-03 0. 0. 0. 6.82593836e-03 3.41296918e-03 0. 0. 0.
      3.41296918e-03 3.41296918e-03 0. 0. 0. 0. 0. 0. 0. 0. 0. 0. 0.
      3.41296918e-03 0. 0. 6.82593836e-03 0. 0. 0. 0.</_>
    <_>
      0. 0. 1.12994353e-03 1.12994353e-03 1.12994353e-03 1.12994353e-03
      0. 0. 0. 0. 4.51977411e-03 0. 1.12994353e-03 2.25988706e-03 0. 0.
      3.38983070e-03 1.12994353e-03 0. 0. 0. 1.12994353e-03 0. 0.
      2.25988706e-03 0. 2.25988706e-03 3.38983070e-03 0. 1.24293789e-02
      1.12994353e-03 0. 0. 2.25988706e-03 0. 0. 1.12994353e-03
      1.12994353e-03 0. 1.12994353e-03 1.12994353e-03 0. 1.12994353e-03
      2.25988706e-03 0. 4.51977411e-03 0. 0. 0. 0. 2.25988706e-03 0. 0.
      0. 0. 0. 0. 1.12994353e-03 0. 3.38983070e-03 2.25988706e-03 0. 0.
      4.51977411e-03 0. 1.12994353e-03 0. 1.12994353e-03 0.
      3.38983070e-03 0. 0. 1.12994353e-03 0. 5.64971752e-03
      2.25988706e-03 1.12994353e-03 0. 2.25988706e-03 2.25988706e-03 0.
      0. 0. 1.12994353e-03 0. 0. 0. 0. 0. 1.12994353e-03 1.12994353e-03
      1.12994353e-03 0. 1.12994353e-03 0. 0. 1.12994353e-03
      5.64971752e-03 1.12994353e-03 0. 2.25988706e-03 5.64971752e-03
      3.38983070e-03 2.25988706e-03 0. 5.64971752e-03 0. 0.
      1.12994353e-03 3.38983070e-03 0. 0. 0. 3.38983070e-03 0.
      2.25988706e-03 0. 0. 3.38983070e-03 1.12994350e-02 0.
      1.12994353e-03 3.38983070e-03 1.12994353e-03 0. 1.12994353e-03 0.
      0. 0. 0. 0. 0. 0. 1.12994353e-03 0. 0. 1.12994353e-03 0. 0. 0. 0.
      0. 1.12994353e-03 1.12994353e-03 6.77966140e-03 0. 1.12994353e-03
      1.12994353e-03 1.12994353e-03 3.38983070e-03 2.25988706e-03 0. 0.
      3.38983070e-03 0. 0. 3.38983070e-03 1.12994353e-03 3.38983070e-03
      0. 1.12994353e-03 6.77966140e-03 0. 2.03389842e-02 1.12994353e-03
      0. 0. 4.51977411e-03 0. 1.12994353e-03 0. 5.64971752e-03 0.
      2.25988706e-03 0. 1.12994353e-03 1.12994353e-03 1.12994353e-03
      3.38983070e-03 0. 1.12994353e-03 1.12994353e-03 2.25988706e-03 0.
      3.38983070e-03 1.12994353e-03 0. 0. 2.25988706e-03 3.38983070e-03
      0. 3.38983070e-03 0. 0. 0. 2.03389842e-02 1.12994353e-03
      2.25988706e-03 2.25988706e-03 0. 2.25988706e-03 0. 0. 0.
      1.12994353e-03 0. 0. 0. 0. 0. 0. 0. 0. 0. 2.25988706e-03 0.
      4.51977411e-03 0. 1.12994353e-03 1.12994353e-03 0. 0. 0. 0. 0. 0.
      0. 0. 1.12994353e-03 1.12994353e-03 1.12994353e-03 5.64971752e-03
      0. 1.12994353e-03 3.38983070e-03 1.12994353e-03 0. 1.12994353e-03
      1.12994353e-03 0. 1.12994353e-03 1.12994353e-03 0. 0. 0. 0.
      4.51977411e-03 0. 0. 1.12994353e-03 1.12994353e-03 2.25988706e-03
      0. 2.25988706e-03 1.12994353e-03 0. 0. 0. 0. 1.12994350e-02
      6.77966140e-03 0. 0. 1.12994353e-03 1.12994353e-03 4.51977411e-03
      0. 0. 2.25988706e-03 2.25988706e-03 0. 0. 0. 4.51977411e-03 0. 0.
      2.25988706e-03 1.12994353e-03 1.12994353e-03 1.12994353e-03 0.
      1.12994353e-03 1.12994353e-03 1.12994353e-03 0. 1.12994353e-03 0.
      0. 0. 1.12994353e-03 1.12994353e-03 1.12994353e-03 1.12994353e-03
      0. 0. 7.90960435e-03 0. 4.51977411e-03 0. 1.12994353e-03
      1.12994353e-03 0. 1.12994353e-03 0. 6.77966140e-03 0. 0.
      1.12994353e-03 0. 0. 0. 0. 0. 0. 0. 0. 0. 0. 0. 0. 0. 0.
      1.12994353e-03 0. 0. 0. 3.38983070e-03 5.64971752e-03 0. 0.
      1.12994353e-03 0. 9.03954823e-03 0. 4.51977411e-03 3.38983070e-03
      0. 1.12994353e-03 0. 0. 0. 1.12994353e-03 1.12994353e-03 0. 0.
      3.38983070e-03 2.25988706e-03 0. 0. 1.12994353e-03 0.
      1.12994353e-03 0. 0. 0. 0. 0. 0. 1.12994353e-03 1.12994353e-03 0.
      0. 0. 1.12994353e-03 0. 0. 0. 1.12994353e-03 0. 2.25988706e-03
      2.25988706e-03 0. 1.12994353e-03 0. 0. 0. 2.25988706e-03 0.
      4.51977411e-03 1.12994353e-03 0. 1.12994353e-03 0. 0. 0.
      2.25988706e-03 0. 1.12994353e-03 0. 0. 0. 0. 0. 2.25988706e-03 0.
      1.12994353e-03 1.12994353e-03 2.25988706e-03 0. 1.12994353e-03 0.
      0. 0. 0. 0. 1.12994353e-03 0. 1.12994353e-03 0. 0. 0. 0. 0. 0. 0.
      9.03954823e-03 1.12994353e-03 0. 0. 1.12994353e-03 0.
      2.25988706e-03 0. 0. 0. 0. 1.12994353e-03 3.38983070e-03
      1.12994353e-03 2.25988706e-03 0. 4.51977411e-03 2.25988706e-03 0.
      0. 1.12994353e-03 0. 0. 0. 0. 0. 2.25988706e-03 0. 0. 0. 0. 0. 0.
      1.12994353e-03 0. 1.12994353e-03 0. 0. 0. 0. 0. 0. 0. 0. 0.
      1.12994353e-03 0. 3.38983070e-03 2.25988706e-03 0. 0. 0. 0.
      3.38983070e-03 0. 1.12994353e-03 1.12994353e-03 0. 0. 0. 0.
      2.25988706e-03 0. 2.25988706e-03 0. 0. 0. 0. 0. 2.25988706e-03
      1.12994353e-03 1.12994353e-03 0. 3.38983070e-03 0. 0.
      1.12994353e-03 1.12994353e-03 2.25988706e-03 0. 0. 1.12994353e-03
      0. 0. 0. 2.25988706e-03 0. 0. 1.12994353e-03 1.12994353e-03 0.
      1.12994353e-03 0. 0. 0. 0. 1.12994353e-03 5.64971752e-03
      1.12994353e-03 1.12994353e-03 4.51977411e-03 0. 0. 0. 0.
      4.51977411e-03 0. 1.12994353e-03 2.25988706e-03 0. 0. 0.
      4.51977411e-03 0. 1.12994353e-03 0. 0. 0. 1.12994353e-03
      1.12994353e-03 5.64971752e-03 1.12994353e-03 1.12994353e-03 0.
      3.38983070e-03 0. 1.12994353e-03 0. 1.12994353e-03 0.
      2.25988706e-03 0. 7.90960435e-03 0. 0. 0. 0. 0. 1.12994353e-03 0.
      1.12994353e-03 0. 0. 0. 0. 0. 1.12994353e-03 5.64971752e-03
      1.12994353e-03 0. 2.25988706e-03 1.12994353e-03 1.12994353e-03
      1.12994353e-03 0. 3.38983070e-03 5.64971752e-03 0. 9.03954823e-03
      0. 0. 1.12994353e-03 0. 0. 1.12994353e-03 1.12994353e-03
      1.12994353e-03 0. 1.12994353e-03 1.12994353e-03 1.12994353e-03 0.
      1.12994353e-03 2.25988706e-03 0. 3.38983070e-03 0. 0.
      3.38983070e-03 0. 1.12994353e-03 2.25988706e-03 0. 0. 0. 0.
      3.38983070e-03 1.12994353e-03 0. 1.12994353e-03 0. 1.12994353e-03
      3.38983070e-03 1.12994353e-03 6.77966140e-03 1.12994353e-03 0. 0.
      1.12994353e-03 0. 3.38983070e-03 2.25988706e-03 0. 0.
      2.25988706e-03 2.25988706e-03 1.12994353e-03 1.12994353e-03 0.
      9.03954823e-03 0. 1.12994353e-03 0. 0. 0. 0. 1.12994353e-03 0. 0.
      0. 1.12994353e-03 0. 1.12994353e-03 0. 0. 0. 0. 3.38983070e-03 0.
      1.12994353e-03 1.12994353e-03 0. 0. 3.38983070e-03 1.12994353e-03
      1.12994353e-03 0. 3.38983070e-03 1.12994353e-03 1.12994353e-03
      1.12994353e-03 0. 2.25988706e-03 0. 1.12994353e-03 1.12994353e-03
      1.12994353e-03 0. 0. 0. 1.12994353e-03 1.12994353e-03 0. 0.
      2.25988706e-03 0. 2.25988706e-03 3.38983070e-03 0. 3.38983070e-03
      0. 2.25988706e-03 0. 0. 0. 0. 0. 0. 0. 0. 0. 1.12994353e-03
      1.12994353e-03 2.25988706e-03 2.25988706e-03 1.12994353e-03 0. 0.
      0. 0. 1.12994353e-03 1.12994353e-03 1.12994353e-03 0. 0.
      1.12994353e-03 1.12994353e-03 0. 0. 2.25988706e-03 0.
      1.12994353e-03 2.25988706e-03 0. 0. 0. 0. 0. 2.25988706e-03
      1.12994353e-03 1.12994353e-03 1.12994353e-03 0. 0. 0. 0. 0. 0. 0.
      0. 1.12994353e-03 0. 0. 0. 2.25988706e-03 0. 0. 2.25988706e-03
      1.12994353e-03 0. 1.12994353e-03 1.12994353e-03 0. 0.
      1.12994353e-03 0. 0. 0. 0. 7.90960435e-03 0. 0. 0. 2.25988706e-03
      0. 3.38983070e-03 1.12994353e-03 0. 1.12994353e-03 0.
      3.38983070e-03 0. 0. 0. 1.12994353e-03 1.12994353e-03 0. 0.
      2.25988706e-03 0. 0. 1.12994353e-03 1.12994353e-03 3.38983070e-03
      0. 0. 0. 0. 0. 0. 0. 1.12994353e-03 2.25988706e-03 1.12994353e-03
      1.12994353e-03 3.38983070e-03 0. 1.12994353e-03 1.12994353e-03
      1.12994353e-03 0. 0. 0. 0. 1.12994353e-03 0. 0. 0. 1.12994353e-03
      2.25988706e-03 0. 2.25988706e-03 0. 0. 1.12994353e-03 0.
      5.64971752e-03 1.12994353e-03 1.12994353e-03 0. 0. 0. 0.
      2.25988706e-03 0. 1.12994353e-03 4.51977411e-03 1.12994353e-03
      2.25988706e-03 0. 3.38983070e-03 2.25988706e-03 2.25988706e-03 0.
      0. 1.12994353e-03 2.25988706e-03 0. 1.12994353e-03 0.
      1.12994353e-03 3.38983070e-03 0. 0. 0. 2.25988706e-03 0. 0.
      1.12994353e-03 0. 0. 0. 1.12994353e-03 0. 3.38983070e-03
      2.25988706e-03 0. 0. 0. 1.12994353e-03 2.25988706e-03 0.
      1.12994353e-03 0. 0. 0. 1.12994353e-03 0. 1.12994353e-03 0. 0.
      2.25988706e-03 1.12994353e-03 2.25988706e-03 0. 1.12994353e-03 0.
      4.51977411e-03 5.64971752e-03 2.25988706e-03 1.12994353e-03
      1.12994353e-03 0. 0. 0. 3.38983070e-03 0. 0. 0. 1.12994353e-03 0.
      0. 0. 2.25988706e-03 0. 2.25988706e-03 0. 1.12994353e-03
      2.25988706e-03 0. 0. 0. 0. 0. 2.25988706e-03 0. 2.25988706e-03
      1.12994353e-03 0. 0. 0. 0. 0. 0. 0. 0. 1.12994353e-03
      1.12994353e-03 0. 1.12994353e-03 2.25988706e-03 0. 0.
      1.12994353e-03 2.25988706e-03 0. 1.12994353e-03 1.12994353e-03 0.
      6.77966140e-03 0. 1.12994353e-03 0. 0. 0. 2.25988706e-03
      1.12994353e-03 2.25988706e-03 1.12994353e-03 1.12994353e-03 0.
      1.12994353e-03 0. 1.12994353e-03 0. 0. 1.12994353e-03
      1.12994353e-03 2.25988706e-03 1.12994353e-03 0. 0. 3.38983070e-03
      1.12994353e-03 0. 1.12994353e-03 1.12994353e-03 1.12994353e-03
      3.38983070e-03 1.12994353e-03 0. 2.25988706e-03 1.12994353e-03 0.
      2.25988706e-03 0. 1.12994353e-03 0. 0. 0. 0. 1.12994353e-03
      1.12994353e-03 0. 0. 1.12994353e-03 1.12994353e-03 1.12994353e-03
      0. 1.12994353e-03 2.25988706e-03 0. 0. 0. 0. 0. 0. 1.12994353e-03
      1.12994353e-03 0. 0. 1.12994353e-03 0. 0. 4.51977411e-03
      1.12994353e-03 0. 1.12994353e-03 1.12994353e-03 2.25988706e-03
      1.12994353e-03 0. 0. 0. 0. 2.25988706e-03 1.12994353e-03
      3.38983070e-03 0. 2.25988706e-03 0. 1.12994353e-03 3.38983070e-03
      0. 0.</_>
    <_>
      0. 1.84501847e-03 0. 1.84501847e-03 1.84501847e-03 1.84501847e-03
      0. 0. 0. 1.84501847e-03 1.84501847e-03 1.84501847e-03 0. 0.
      1.84501847e-03 0. 1.84501847e-03 0. 0. 1.84501847e-03 0. 0. 0.
      3.69003695e-03 0. 1.84501847e-03 3.69003695e-03 5.53505542e-03 0.
      0. 0. 0. 0. 0. 0. 0. 0. 0. 0. 0. 0. 0. 0. 0. 0. 1.84501847e-03 0.
      0. 0. 1.84501847e-03 0. 0. 0. 0. 0. 1.84501847e-03 0. 0. 0. 0. 0.
      1.84501847e-03 0. 0. 0. 0. 0. 0. 9.22509283e-03 0. 0. 0. 0. 0. 0.
      0. 0. 0. 0. 0. 0. 0. 0. 1.84501847e-03 1.84501847e-03 0. 0. 0.
      1.84501847e-03 5.53505542e-03 0. 0. 1.84501847e-03 0. 0. 0. 0. 0.
      0. 0. 7.38007389e-03 0. 0. 1.84501847e-03 0. 5.53505542e-03 0. 0.
      0. 0. 0. 0. 0. 3.69003695e-03 0. 0. 0. 0. 0. 1.29151288e-02 0. 0.
      1.84501847e-03 1.84501847e-03 0. 0. 0. 0. 0. 0. 0. 0. 0. 0.
      3.69003695e-03 1.84501847e-03 1.84501847e-03 1.84501847e-03 0. 0.
      0. 1.84501847e-03 0. 0. 5.53505542e-03 0. 0. 5.53505542e-03 0.
      3.69003695e-03 1.84501847e-03 0. 0. 3.69003695e-03 1.84501847e-03
      0. 1.84501847e-03 0. 1.84501847e-03 0. 0. 7.38007389e-03 0.
      1.10701108e-02 7.38007389e-03 0. 0. 1.84501847e-03 0. 0. 0.
      1.84501847e-03 0. 0. 0. 0. 1.84501847e-03 0. 0. 0. 0. 0.
      1.84501847e-03 0. 0. 0. 1.84501847e-03 0. 0. 0. 1.84501847e-03
      1.84501847e-03 0. 3.69003695e-03 0. 3.87453884e-02 0.
      1.84501847e-03 0. 0. 0. 0. 1.84501847e-03 0. 0. 0. 0. 0. 0. 0. 0.
      0. 0. 0. 0. 0. 3.69003695e-03 3.69003695e-03 0. 0. 0.
      1.84501847e-03 0. 0. 0. 0. 0. 0. 0. 3.69003695e-03 5.53505542e-03
      1.84501847e-03 1.84501847e-03 0. 0. 0. 0. 0. 0. 0. 1.84501847e-03
      0. 0. 0. 0. 1.84501847e-03 1.10701108e-02 0. 0. 0. 0. 0. 0. 0. 0.
      0. 0. 0. 1.84501847e-03 5.53505542e-03 0. 0. 2.21402217e-02
      1.84501847e-03 0. 0. 0. 0. 0. 0. 0. 0. 0. 0. 0. 0. 0. 0.
      1.84501847e-03 0. 0. 1.84501847e-03 0. 0. 0. 0. 1.84501847e-03 0.
      0. 1.84501847e-03 0. 0. 0. 0. 0. 1.47601478e-02 0. 1.84501847e-03
      0. 1.84501847e-03 0. 1.84501847e-03 0. 0. 1.29151288e-02 0. 0. 0.
      1.84501847e-03 0. 0. 1.84501847e-03 0. 0. 0. 0. 0. 0. 0. 0. 0. 0.
      0. 0. 0. 1.84501847e-03 0. 0. 0. 0. 0. 1.84501847e-03
      8.30258280e-02 0. 1.84501847e-03 0. 1.84501847e-03 0. 0. 0.
      3.69003695e-03 1.84501847e-03 0. 0. 0. 5.53505542e-03 0. 0. 0. 0.
      1.84501847e-03 5.53505542e-03 0. 0. 0. 1.84501847e-03 0. 0. 0. 0.
      0. 3.69003695e-03 0. 5.53505542e-03 0. 0. 0. 0. 0. 0. 0. 0. 0. 0.
      0. 0. 1.84501847e-03 0. 1.29151288e-02 0. 0. 0. 0. 0. 0.
      3.69003695e-03 0. 0. 0. 0. 0. 0. 0. 0. 0. 0. 0. 0. 0. 0. 0. 0. 0.
      0. 0. 0. 0. 0. 1.84501847e-03 0. 1.84501847e-03 0. 0. 0. 0. 0.
      1.84501847e-03 0. 0. 1.84501847e-03 1.84501847e-03 0. 0. 0. 0. 0.
      0. 1.84501847e-03 0. 0. 0. 3.69003695e-03 0. 0. 1.84501847e-03 0.
      0. 0. 0. 3.69003695e-03 0. 1.84501847e-03 0. 0. 0. 0. 0. 0. 0. 0.
      0. 0. 0. 0. 0. 0. 0. 0. 0. 0. 5.53505542e-03 0. 0. 5.53505542e-03
      0. 0. 0. 0. 1.84501847e-03 0. 1.84501847e-03 5.53505542e-03 0. 0.
      0. 3.69003695e-03 0. 0. 0. 0. 0. 0. 0. 0. 5.53505542e-03 0.
      1.84501847e-03 0. 0. 1.84501847e-03 0. 0. 0. 0. 0. 0.
      5.53505542e-03 0. 1.84501847e-03 0. 1.84501847e-03 5.53505542e-03
      9.22509283e-03 1.84501847e-03 0. 1.84501847e-03 0. 0.
      7.38007389e-03 0. 0. 0. 0. 1.84501847e-03 0. 1.29151288e-02 0. 0.
      0. 0. 3.69003695e-03 0. 0. 1.84501847e-03 0. 0. 0. 5.53505542e-03
      0. 0. 0. 0. 0. 0. 0. 5.53505542e-03 0. 0. 0. 0. 0. 0. 0. 0. 0.
      1.84501847e-03 0. 2.39852406e-02 0. 0. 0. 0. 0. 0. 0. 0. 0. 0. 0.
      0. 0. 3.69003695e-03 0. 1.84501847e-03 0. 0. 1.84501847e-03 0. 0.
      5.53505542e-03 1.84501847e-03 2.21402217e-02 0. 0. 0. 0. 0. 0. 0.
      0. 0. 0. 0. 1.84501847e-03 0. 0. 0. 0. 0. 0. 0. 0. 1.84501847e-03
      5.53505542e-03 1.84501847e-03 1.84501847e-03 0. 0. 0. 0. 0. 0. 0.
      0. 0. 0. 0. 0. 0. 5.53505542e-03 0. 1.84501847e-03 0. 0.
      9.22509283e-03 5.53505542e-03 0. 0. 0. 0. 0. 0. 2.95202956e-02 0.
      0. 5.53505542e-03 0. 0. 1.84501847e-03 0. 0. 1.84501847e-03 0.
      1.84501847e-03 0. 0. 0. 0. 0. 0. 0. 0. 0. 0. 0. 5.53505542e-03 0.
      1.84501847e-03 1.84501847e-03 0. 0. 0. 0. 0. 0. 1.84501847e-03 0.
      0. 3.69003695e-03 0. 0. 3.69003695e-03 3.69003695e-03 0.
      1.84501847e-03 0. 1.84501847e-03 0. 0. 0. 0. 0. 0. 0.
      5.53505542e-03 0. 1.84501847e-03 0. 1.84501847e-03 0.
      1.84501847e-03 0. 3.69003695e-03 0. 0. 0. 3.69003695e-03 0. 0. 0.
      0. 3.69003695e-03 0. 1.84501847e-03 1.84501847e-03 0. 0. 0. 0.
      1.84501847e-03 0. 0. 1.84501847e-03 0. 1.84501847e-03
      5.53505542e-03 5.53505542e-03 0. 0. 0. 0. 0. 0. 0. 1.84501847e-03
      0. 1.84501847e-03 0. 0. 1.84501847e-03 3.69003695e-03 0. 0.
      1.84501847e-03 0. 0. 0. 0. 0. 1.84501847e-03 0. 0. 1.84501847e-03
      0. 0. 0. 1.84501847e-03 0. 0. 0. 1.84501847e-03 0. 0. 0.
      9.22509283e-03 0. 0. 0. 3.69003695e-03 0. 0. 1.84501847e-03 0.
      1.84501847e-03 0. 0. 0. 0. 0. 1.84501847e-03 0. 0. 0. 0. 0. 0. 0.
      0. 0. 0. 1.84501847e-03 0. 0. 0. 0. 0. 0. 1.84501847e-03 0. 0.
      1.84501847e-03 0. 1.84501847e-03 1.84501847e-03 0. 0. 0. 0.
      1.84501847e-03 1.84501847e-03 0. 0. 0. 0. 3.69003695e-03 0.
      5.53505542e-03 1.84501847e-03 0. 0. 0. 1.29151288e-02 0. 0. 0. 0.
      1.84501847e-03 0. 0. 0. 0. 1.84501847e-03 0. 0. 0. 0.
      3.69003695e-03 1.84501847e-03 3.69003695e-03 0. 1.84501847e-03 0.
      0. 0. 0. 0. 0. 0. 0. 1.84501847e-03 5.53505542e-03 0. 0. 0. 0. 0.
      0. 0. 0. 1.84501847e-03 3.69003695e-03 0. 0. 3.69003695e-03
      1.84501847e-03 0. 0. 1.84501847e-03 0. 0. 0. 3.69003695e-03
      1.84501847e-03 0. 0. 0. 7.38007389e-03 0. 1.84501847e-03 0. 0. 0.
      3.69003695e-03 5.53505542e-03 0. 0. 3.69003695e-03 0. 0. 0. 0. 0.
      0. 1.84501847e-03 0. 0. 1.84501847e-03 3.69003695e-03 0. 0. 0. 0.
      0. 3.69003695e-03 0. 0. 0. 0. 0. 0. 0. 0. 0. 1.84501847e-03 0. 0.
      0. 0. 3.69003695e-03 0. 0. 3.69003695e-03 0. 0. 1.84501847e-03 0.
      0. 3.69003695e-03 0. 0. 0. 1.84501847e-03 0. 0. 0. 0. 0. 0. 0. 0.
      0. 0. 0. 0. 0. 0. 0. 1.84501847e-03 0. 0. 0. 0. 1.84501847e-03 0.
      0. 0. 0. 1.84501847e-03 0. 0. 1.84501847e-03 0. 0. 0.
      1.84501847e-03 0. 0. 0. 0. 3.69003695e-03 0. 0. 0. 0.
      1.84501847e-03 0. 0. 3.69003695e-03 0. 1.84501847e-03 0. 0. 0. 0.
      0. 0. 0. 0. 0. 0. 0. 0. 0. 0. 0. 0. 0. 0. 0. 9.22509283e-03 0. 0.
      0. 0. 0. 0. 1.84501847e-03 0. 0. 0. 1.84501847e-03 0. 0. 0. 0. 0.
      0. 3.69003695e-03 0. 0.</_>
    <_>
      0. 9.07441019e-04 0. 0. 0. 9.07441019e-04 0. 9.07441019e-04 0. 0.
      4.53720521e-03 1.81488204e-03 0. 3.62976408e-03 9.07441019e-04
      9.07441019e-04 1.08892918e-02 9.07441019e-04 9.07441019e-04
      9.07441019e-04 0. 0. 9.07441019e-04 0. 0. 9.07441019e-04 0. 0.
      9.07441019e-04 9.07441019e-04 0. 9.07441019e-04 0. 9.07441019e-04
      9.07441019e-04 0. 9.07441019e-04 2.72232294e-03 9.07441019e-04
      1.81488204e-03 1.81488204e-03 0. 0. 0. 0. 2.72232294e-03
      1.81488204e-03 9.07441019e-04 7.25952815e-03 0. 3.62976408e-03 0.
      0. 0. 0. 2.72232294e-03 9.07441019e-04 0. 9.07441019e-04 0. 0.
      9.07441019e-04 1.81488204e-03 9.07441019e-04 0. 0. 0.
      9.07441019e-04 9.07441019e-04 9.07441019e-04 0. 9.07441019e-04 0.
      9.07441019e-04 0. 0. 0. 9.07441019e-04 0. 0. 1.81488204e-03 0. 0.
      9.07441019e-04 1.81488204e-03 0. 0. 0. 0. 1.81488204e-03 0. 0.
      1.81488204e-03 0. 0. 0. 0. 0. 0. 9.07441019e-04 9.07441019e-04
      9.07441042e-03 0. 1.81488204e-03 2.72232294e-03 7.25952815e-03 0.
      0. 9.07441019e-04 0. 0. 0. 0. 1.81488204e-03 9.07441019e-04
      9.07441019e-04 0. 0. 9.07441019e-04 5.44464588e-03 0. 0.
      1.08892918e-02 0. 0. 1.81488204e-03 2.72232294e-03 9.07441019e-04
      0. 2.72232294e-03 0. 0. 1.81488204e-03 0. 9.07441019e-04
      5.44464588e-03 0. 2.72232294e-03 0. 0. 9.07441019e-04 0.
      9.07441019e-04 5.44464588e-03 4.53720521e-03 0. 5.44464588e-03 0.
      3.62976408e-03 4.53720521e-03 1.81488204e-03 9.07441019e-04
      9.07441019e-04 2.72232294e-03 0. 9.07441019e-04 8.16696882e-03 0.
      0. 0. 0. 3.62976408e-03 9.07441019e-04 9.07441042e-03
      5.44464588e-03 9.07441019e-04 9.07441019e-04 9.07441019e-04
      1.81488204e-03 9.07441019e-04 0. 0. 9.07441019e-04 0. 0. 0. 0. 0.
      4.53720521e-03 9.07441019e-04 0. 1.81488204e-03 9.07441019e-04 0.
      9.07441019e-04 0. 0. 0. 0. 0. 0. 0. 0. 0. 0. 1.90562606e-02 0.
      9.07441019e-04 0. 0. 0. 0. 0. 0. 2.72232294e-03 9.07441019e-04 0.
      0. 1.81488204e-03 0. 0. 9.07441019e-04 9.07441019e-04 0.
      1.81488204e-03 0. 9.07441019e-04 0. 0. 0. 2.72232294e-03 0.
      4.53720521e-03 9.07441019e-04 0. 0. 0. 0. 1.81488204e-03
      9.07441019e-04 7.25952815e-03 9.07441019e-04 9.07441019e-04 0. 0.
      0. 9.07441019e-04 0. 0. 6.35208702e-03 4.53720521e-03
      1.81488204e-03 0. 0. 0. 9.07441019e-04 5.44464588e-03 0. 0. 0. 0.
      3.62976408e-03 1.81488204e-03 0. 1.81488204e-03 0. 0. 0.
      9.07441019e-04 8.16696882e-03 0. 9.07441019e-04 0. 2.72232294e-03
      9.07441019e-04 9.07441019e-04 5.44464588e-03 0. 9.07441019e-04
      9.07441019e-04 0. 0. 0. 0. 1.81488204e-03 0. 9.07441019e-04
      2.72232294e-03 1.81488204e-03 0. 0. 0. 0. 0. 1.81488204e-03
      9.07441019e-04 0. 9.07441019e-04 9.07441019e-04 9.07441019e-04 0.
      0. 1.81488204e-03 0. 0. 7.25952815e-03 0. 1.81488204e-03
      9.07441019e-04 4.53720521e-03 0. 0. 9.07441019e-04 0.
      1.63339376e-02 0. 0. 0. 2.72232294e-03 0. 1.81488204e-03 0.
      1.81488204e-03 0. 9.07441019e-04 0. 0. 9.07441019e-04
      1.81488204e-03 9.07441019e-04 9.07441019e-04 0. 0. 9.07441019e-04
      0. 9.07441019e-04 9.07441019e-04 0. 0. 1.81488204e-03
      9.07441019e-04 9.07441019e-04 1.17967334e-02 2.72232294e-03 0.
      1.81488204e-03 2.72232294e-03 9.07441019e-04 0. 0. 9.07441019e-04
      0. 0. 1.81488204e-03 9.07441019e-04 1.81488204e-03 1.81488204e-03
      0. 0. 0. 0. 1.81488204e-03 9.07441019e-04 0. 0. 0. 0. 0. 0. 0. 0.
      1.81488204e-03 0. 1.81488204e-03 9.07441019e-04 0. 0. 0. 0.
      9.07441019e-04 0. 9.07441019e-04 0. 9.07441019e-04 0. 0. 0.
      9.07441019e-04 0. 1.81488204e-03 0. 3.62976408e-03 0. 0. 0.
      1.81488204e-03 3.62976408e-03 0. 1.81488204e-03 9.07441019e-04
      1.81488204e-03 0. 0. 9.07441019e-04 0. 0. 9.07441019e-04 0. 0. 0.
      9.07441019e-04 0. 9.07441019e-04 0. 0. 9.07441019e-04 0. 0. 0. 0.
      2.72232294e-03 1.81488204e-03 2.72232294e-03 0. 1.81488204e-03 0.
      0. 9.07441019e-04 0. 1.81488204e-03 0. 0. 0. 0. 9.07441019e-04 0.
      1.17967334e-02 0. 0. 0. 0. 0. 2.72232294e-03 9.07441019e-04 0.
      9.07441019e-04 0. 9.07441019e-04 0. 0. 9.07441019e-04
      9.07441019e-04 0. 2.72232294e-03 0. 0. 1.81488204e-03 0.
      1.81488204e-03 0. 9.07441019e-04 0. 9.07441019e-04 1.81488204e-03
      0. 0. 0. 0. 1.81488204e-03 0. 9.07441019e-04 9.07441019e-04 0. 0.
      0. 0. 3.62976408e-03 0. 0. 2.72232294e-03 1.81488204e-03
      4.53720521e-03 0. 0. 0. 9.07441019e-04 0. 0. 0. 0. 0. 0. 0.
      9.07441019e-04 4.53720521e-03 0. 0. 9.07441019e-04 9.98185109e-03
      0. 0. 9.07441019e-04 1.81488204e-03 0. 0. 0. 9.07441019e-04 0.
      9.07441019e-04 0. 9.07441019e-04 1.81488204e-03 3.62976408e-03 0.
      0. 1.81488204e-03 0. 3.62976408e-03 9.07441019e-04 2.72232294e-03
      9.07441019e-04 1.81488204e-03 1.81488204e-03 9.07441019e-04
      9.07441019e-04 6.35208702e-03 0. 9.07441019e-04 1.81488204e-03 0.
      2.72232294e-03 0. 0. 9.07441019e-04 0. 0. 0. 9.07441019e-04 0.
      9.07441019e-04 0. 0. 0. 9.07441019e-04 0. 1.81488204e-03 0. 0.
      9.07441019e-04 1.81488204e-03 9.07441019e-04 9.07441019e-04
      9.07441019e-04 9.07441019e-04 0. 1.81488204e-03 2.72232294e-03
      8.16696882e-03 0. 0. 0. 0. 3.62976408e-03 0. 0. 1.81488204e-03 0.
      0. 0. 0. 0. 1.81488204e-03 0. 1.81488204e-03 0. 0. 1.81488204e-03
      9.07441019e-04 0. 0. 9.07441019e-04 9.07441042e-03 0.
      1.81488204e-03 9.07441019e-04 0. 9.07441019e-04 0. 9.07441019e-04
      9.07441019e-04 1.81488204e-03 9.07441019e-04 9.07441019e-04 0.
      7.25952815e-03 0. 0. 2.72232294e-03 1.81488204e-03 0.
      1.81488204e-03 4.53720521e-03 9.07441019e-04 1.81488204e-03
      9.07441019e-04 9.07441019e-04 0. 0. 9.07441019e-04 0.
      9.07441019e-04 2.72232294e-03 2.72232294e-03 0. 0. 0.
      6.35208702e-03 9.07441019e-04 0. 3.62976408e-03 0. 0.
      9.07441019e-04 9.07441019e-04 0. 2.72232294e-03 0. 0.
      9.07441019e-04 9.07441019e-04 1.81488204e-03 0. 5.44464588e-03
      9.07441019e-04 0. 1.81488204e-03 3.62976408e-03 0. 0. 0.
      9.07441019e-04 1.81488204e-03 0. 0. 0. 9.07441019e-04 0.
      9.07441019e-04 0. 9.07441019e-04 0. 0. 1.45190563e-02 0. 0.
      9.07441019e-04 9.07441019e-04 1.81488204e-03 1.81488204e-03
      9.07441019e-04 9.07441019e-04 9.07441019e-04 9.07441019e-04 0. 0.
      9.07441019e-04 9.07441019e-04 1.81488204e-03 0. 0. 9.07441019e-04
      1.81488204e-03 9.07441019e-04 9.07441019e-04 0. 0. 9.07441019e-04
      9.07441019e-04 0. 9.07441019e-04 0. 9.07441019e-04 0. 0.
      2.72232294e-03 0. 0. 0. 0. 9.07441019e-04 0. 9.07441019e-04 0. 0.
      9.07441019e-04 9.07441019e-04 1.81488204e-03 3.62976408e-03 0. 0.
      0. 0. 9.07441019e-04 9.07441019e-04 3.62976408e-03 9.07441019e-04
      0. 0. 0. 0. 0. 0. 0. 9.07441019e-04 9.07441019e-04 0.
      4.53720521e-03 9.07441019e-04 0. 0. 0. 0. 0. 0. 0. 0.
      9.07441019e-04 0. 0. 0. 0. 9.07441019e-04 0. 0. 0. 0. 0. 0.
      9.07441019e-04 0. 9.07441019e-04 0. 9.07441019e-04 0. 0. 0.
      9.07441019e-04 0. 0. 0. 5.44464588e-03 0. 0. 0. 9.07441042e-03 0.
      0. 9.07441019e-04 0. 0. 0. 0. 3.62976408e-03 9.07441019e-04 0.
      9.07441019e-04 9.07441019e-04 0. 0. 1.81488204e-03 9.07441019e-04
      0. 1.81488204e-03 0. 4.53720521e-03 9.07441019e-04 0.
      2.72232294e-03 9.07441019e-04 2.72232294e-03 9.07441019e-04
      9.07441019e-04 9.07441019e-04 1.81488204e-03 0. 9.07441019e-04 0.
      0. 3.62976408e-03 0. 0. 0. 2.72232294e-03 1.81488204e-03
      9.07441019e-04 0. 0. 0. 0. 1.81488204e-03 0. 0. 1.81488204e-03 0.
      9.07441019e-04 0. 1.81488204e-03 2.72232294e-03 0. 0.
      9.07441019e-04 9.07441019e-04 9.07441019e-04 0. 0. 0. 0.
      9.07441019e-04 1.81488204e-03 0. 9.07441019e-04 1.81488204e-03
      1.81488204e-03 1.81488204e-03 0. 1.81488204e-03 3.62976408e-03
      1.81488204e-03 0. 0. 1.81488204e-03 0. 0. 0. 3.62976408e-03 0.
      9.07441019e-04 9.07441019e-04 9.07441019e-04 0. 1.36116156e-02 0.
      0. 1.81488204e-03 0. 0. 0. 9.07441019e-04 0. 4.53720521e-03
      9.07441019e-04 1.81488204e-03 0. 0. 9.07441019e-04 0.
      1.81488204e-03 2.72232294e-03 0. 0. 3.62976408e-03 2.72232294e-03
      0. 9.07441019e-04 0. 0. 6.35208702e-03 9.07441019e-04
      9.07441019e-04 0. 0. 0. 4.53720521e-03 6.35208702e-03 0.
      9.07441019e-04 0. 2.72232294e-03 0. 1.81488204e-03 3.62976408e-03
      0. 0. 0. 9.07441019e-04 0. 9.07441019e-04 0. 9.07441019e-04 0.
      4.53720521e-03 0. 3.62976408e-03 1.81488204e-03 1.81488204e-03 0.
      1.81488204e-03 1.81488204e-03 0. 0. 0. 1.81488204e-03
      9.07441019e-04 0. 9.07441019e-04 0. 0. 9.07441019e-04 0. 0. 0. 0.
      0. 0. 3.62976408e-03 0. 0. 9.07441019e-04 1.81488204e-03 0.
      9.07441019e-04 2.72232294e-03 0. 0. 2.72232294e-03 0. 0.
      1.81488204e-03 0. 0. 9.07441019e-04 9.07441019e-04 1.81488204e-03
      1.81488204e-03 0. 0. 0. 0. 9.07441019e-04 9.07441019e-04 0.
      9.07441019e-04 2.72232294e-03 9.07441019e-04 0. 9.07441019e-04 0.
      9.07441019e-04 1.81488204e-03 3.62976408e-03 9.07441019e-04
      1.81488204e-03 0. 9.07441019e-04 1.81488204e-03 9.07441019e-04
      9.07441019e-04 0. 9.07441019e-04 7.25952815e-03 0. 0. 0. 0. 0. 0.
      1.81488204e-03 0. 0. 0. 0. 0. 0. 9.07441019e-04 0. 2.72232294e-03
      0. 0. 0. 0. 0. 9.07441019e-04 1.81488204e-03 0. 0. 0. 0. 0. 0.
      3.62976408e-03 1.81488204e-03 1.81488204e-03 9.07441019e-04
      4.53720521e-03 9.07441019e-04 0. 9.07441019e-04 0. 1.81488204e-03
      0. 0. 0. 0. 0. 0. 0. 9.07441019e-04 6.35208702e-03 0.
      9.07441019e-04</_>
    <_>
      0. 0. 8.90471973e-04 1.78094395e-03 8.90471973e-04 8.90471973e-04
      0. 8.90471973e-04 8.90471973e-04 0. 5.34283184e-03 0. 0. 0.
      8.01424775e-03 8.90471973e-04 1.33570796e-02 0. 8.90471973e-04 0.
      0. 0. 8.90471973e-04 1.78094395e-03 0. 0. 8.90471973e-04 0. 0.
      4.45235986e-03 8.90471973e-04 1.78094395e-03 0. 0. 0. 0.
      2.67141592e-03 8.90471973e-04 0. 8.90471973e-04 8.90471973e-04 0.
      0. 0. 0. 1.78094395e-03 1.78094395e-03 8.90471973e-04 0. 0.
      1.78094395e-03 0. 8.90471973e-04 0. 0. 1.78094395e-03 0.
      8.90471973e-04 0. 1.78094395e-03 8.90471973e-04 0. 1.78094395e-03
      0. 1.78094395e-03 8.90471973e-04 0. 0. 0. 2.67141592e-03 0. 0. 0.
      0. 8.90471973e-04 8.90471973e-04 8.90471973e-04 0. 8.90471973e-04
      0. 0. 1.78094395e-03 0. 0. 1.78094395e-03 0. 8.90471973e-04 0.
      2.67141592e-03 5.34283184e-03 8.90471973e-04 2.67141592e-03
      8.90471973e-04 0. 8.90471973e-04 2.67141592e-03 0. 1.78094395e-03
      8.90471973e-04 0. 1.78094395e-03 1.78094395e-03 0. 0.
      1.78094395e-03 0. 8.90471973e-04 8.90471973e-04 8.90471973e-04
      8.90471973e-04 0. 8.90471973e-04 0. 0. 8.90471973e-04 0. 0. 0.
      8.90471973e-04 1.15761356e-02 0. 1.78094395e-03 1.60284955e-02 0.
      8.90471973e-04 0. 0. 0. 0. 8.90471973e-04 0. 8.90471973e-04 0. 0.
      8.90471973e-04 1.78094395e-03 0. 2.67141592e-03 8.90471973e-04 0.
      8.90471973e-04 0. 3.56188789e-03 1.78094395e-03 3.56188789e-03 0.
      5.34283184e-03 1.78094395e-03 8.90471973e-04 8.90471973e-04
      1.78094395e-03 0. 8.90471973e-04 1.78094395e-03 8.90471973e-04 0.
      0. 1.78094395e-03 1.78094395e-03 0. 0. 0. 8.90471973e-04
      8.01424775e-03 8.90471973e-04 0. 8.90471973e-04 8.90471973e-04
      2.67141592e-03 8.90471973e-04 0. 8.90471973e-04 8.90471973e-04
      1.78094395e-03 0. 8.90471973e-04 8.90471973e-04 8.90471973e-04
      2.67141592e-03 2.67141592e-03 0. 8.90471973e-04 0. 0.
      8.90471973e-04 3.56188789e-03 8.90471973e-04 8.90471973e-04 0.
      8.90471973e-04 0. 8.90471973e-04 8.90471973e-04 0. 0.
      2.40427442e-02 0. 8.90471973e-04 8.90471973e-04 0. 8.90471973e-04
      0. 8.90471973e-04 2.67141592e-03 8.90471973e-04 0. 8.90471973e-04
      0. 0. 8.90471973e-04 0. 0. 0. 8.90471973e-04 1.78094395e-03
      8.90471973e-04 1.78094395e-03 2.67141592e-03 8.90471973e-04
      1.78094395e-03 1.78094395e-03 0. 8.90471973e-04 0. 0. 0. 0.
      8.90471973e-04 8.90471973e-04 1.78094395e-03 2.67141592e-03 0. 0.
      8.90471973e-04 8.90471973e-04 0. 0. 3.56188789e-03 0.
      3.56188789e-03 2.67141592e-03 1.78094395e-03 0. 2.67141592e-03 0.
      0. 1.78094395e-03 1.78094395e-03 3.56188789e-03 0. 0.
      1.78094395e-02 0. 1.78094395e-03 0. 0. 0. 8.90471973e-04
      8.90471973e-04 1.78094395e-03 8.90471973e-04 0. 0. 8.90471973e-04
      0. 0. 8.90471973e-04 0. 0. 8.90471973e-04 0. 0. 8.90471973e-04
      8.90471973e-04 0. 8.90471973e-04 8.90471973e-04 8.90471973e-04 0.
      0. 0. 0. 8.90471973e-04 1.78094395e-03 0. 2.67141592e-03
      8.90471973e-04 8.90471973e-04 1.78094395e-03 0. 0. 0.
      8.90471973e-04 0. 1.78094395e-03 3.56188789e-03 1.78094395e-03
      8.90471973e-04 0. 8.90471973e-04 0. 1.78094395e-03 4.45235986e-03
      0. 2.40427442e-02 2.67141592e-03 0. 0. 0. 8.90471973e-04
      8.90471973e-04 2.67141592e-03 8.90471973e-04 0. 1.78094395e-03 0.
      0. 2.67141592e-03 8.90471973e-04 0. 0. 0. 3.56188789e-03 0. 0. 0.
      1.78094395e-03 1.78094395e-03 8.90471973e-04 1.78094395e-03 0.
      8.90471973e-04 4.45235986e-03 3.56188789e-03 4.45235986e-03 0.
      8.90471973e-04 1.78094395e-03 0. 8.90471973e-04 4.45235986e-03
      3.56188789e-03 1.78094395e-03 8.90471973e-04 8.90471973e-04
      3.56188789e-03 8.90471973e-04 0. 0. 0. 0. 1.78094395e-03
      8.90471973e-04 0. 8.90471973e-04 8.90471973e-04 0. 0.
      1.78094395e-03 8.90471973e-04 2.67141592e-03 8.90471973e-04 0.
      4.45235986e-03 0. 8.90471973e-04 0. 8.90471973e-04 0. 0.
      8.90471973e-04 0. 8.90471973e-04 0. 8.90471973e-04 0. 0. 0.
      3.56188789e-03 8.90471973e-04 8.90471973e-04 3.56188789e-03 0.
      8.90471973e-04 8.90471973e-04 8.90471973e-04 0. 8.90471973e-04
      4.45235986e-03 8.90471973e-04 0. 1.78094395e-03 0. 0.
      8.90471973e-04 8.90471973e-04 0. 8.90471973e-04 0. 2.67141592e-03
      8.90471973e-04 8.90471973e-04 8.90471973e-04 0. 0. 0.
      2.67141592e-03 0. 0. 0. 1.78094395e-03 8.90471973e-04
      8.90471973e-04 0. 8.90471973e-04 0. 8.90471973e-04 0.
      2.67141592e-03 1.78094395e-03 0. 0. 0. 0. 1.78094395e-03 0.
      1.78094395e-03 8.90471973e-04 2.67141592e-03 8.90471973e-04 0.
      1.78094395e-03 1.78094395e-03 8.90471973e-04 0. 0. 8.90471973e-04
      3.56188789e-03 1.78094395e-03 0. 0. 8.90471973e-04 0. 0. 0.
      2.67141592e-03 0. 0. 8.90471973e-04 0. 0. 0. 0. 8.90471973e-04 0.
      8.90471973e-04 0. 8.90471973e-04 1.78094395e-03 0. 8.90471973e-04
      8.90471973e-04 0. 3.56188789e-03 0. 0. 0. 0. 0. 8.90471973e-04
      1.78094395e-03 8.90471973e-04 1.78094395e-03 8.90471973e-04 0.
      1.78094395e-03 0. 0. 0. 8.90471973e-04 1.78094395e-03
      2.67141592e-03 0. 0. 0. 3.56188789e-03 0. 0. 2.67141592e-03
      1.78094395e-03 8.90471973e-04 8.90471973e-04 4.45235986e-03
      8.90471973e-04 8.90471973e-04 0. 5.34283184e-03 2.67141592e-03
      8.90471973e-04 1.78094395e-03 8.90471973e-04 8.90471973e-04 0. 0.
      0. 8.90471973e-04 1.78094395e-03 1.78094395e-03 0. 1.78094395e-03
      0. 8.90471973e-04 0. 0. 8.90471973e-04 6.23330381e-03 0. 0. 0. 0.
      4.45235986e-03 0. 8.90471973e-04 8.90471973e-04 0. 0.
      3.56188789e-03 3.56188789e-03 2.67141592e-03 2.67141592e-03 0. 0.
      0. 8.90471973e-04 8.90471973e-04 0. 1.78094395e-03 0.
      1.78094395e-03 8.90471973e-04 0. 0. 0. 8.90471973e-04
      8.90471973e-04 3.56188789e-03 0. 1.15761356e-02 8.90471973e-04 0.
      0. 0. 8.90471973e-04 0. 0. 0. 0. 0. 8.90471973e-04 0. 0. 0. 0.
      1.78094395e-03 8.90471973e-04 1.78094395e-03 8.90471973e-04
      1.78094395e-03 0. 0. 0. 2.67141592e-03 8.90471973e-04 0. 0.
      1.78094395e-03 0. 3.56188789e-03 8.90471973e-04 0. 0.
      8.90471973e-04 1.78094395e-03 8.90471973e-04 1.78094395e-03 0.
      8.90471973e-04 0. 8.90471973e-04 0. 1.78094395e-03 0.
      8.90471973e-04 0. 0. 1.78094395e-03 8.90471973e-04 8.90471973e-04
      8.90471973e-04 8.90471973e-04 0. 3.56188789e-03 0. 0.
      8.90471973e-04 0. 8.90471973e-04 0. 0. 6.23330381e-03
      8.90471973e-04 8.90471973e-04 8.90471973e-04 0. 2.67141592e-03
      1.78094395e-03 0. 2.67141592e-03 8.90471973e-04 8.90471973e-04
      2.67141592e-03 0. 1.78094395e-03 0. 8.90471973e-04 0.
      1.78094395e-03 0. 8.90471973e-04 0. 0. 0. 0. 1.78094395e-03
      8.90471973e-04 0. 8.90471973e-04 0. 0. 8.90471973e-04 0.
      8.90471973e-04 8.90471973e-04 0. 8.90471973e-04 3.56188789e-03
      4.45235986e-03 0. 3.56188789e-03 0. 0. 8.90471973e-04
      8.90471973e-04 0. 1.78094395e-03 0. 8.90471973e-04 0.
      2.67141592e-03 8.90471973e-04 0. 0. 8.90471973e-04 0.
      8.90471973e-04 0. 3.56188789e-03 0. 8.90471973e-04 0. 0. 0.
      1.78094395e-03 4.45235986e-03 1.78094395e-03 0. 0. 0. 0. 0.
      1.78094395e-03 0. 0. 0. 0. 0. 8.90471973e-03 2.67141592e-03
      8.90471973e-04 8.90471973e-04 8.90471973e-04 0. 2.67141592e-03 0.
      0. 0. 0. 0. 0. 0. 4.45235986e-03 8.90471973e-04 8.90471973e-04 0.
      0. 0. 6.23330381e-03 0. 0. 0. 8.90471973e-04 0. 0. 0. 0.
      2.67141592e-03 0. 8.90471973e-04 0. 0. 8.90471973e-04 0. 0.
      8.90471973e-04 0. 0. 8.90471973e-04 8.90471973e-04 8.90471973e-04
      8.90471973e-04 1.78094395e-03 0. 1.78094395e-03 0. 0.
      3.56188789e-03 0. 8.90471973e-04 2.67141592e-03 0. 4.45235986e-03
      0. 0. 1.78094395e-03 6.23330381e-03 8.90471973e-04 0. 0.
      2.67141592e-03 8.90471973e-04 0. 0. 0. 8.90471973e-04 0. 0. 0.
      8.90471973e-04 0. 2.67141592e-03 0. 1.78094395e-03 0. 0.
      1.78094395e-03 1.78094395e-03 1.78094395e-03 0. 2.67141592e-03
      1.78094395e-03 8.90471973e-04 0. 0. 1.78094395e-03 0.
      2.67141592e-03 0. 0. 0. 0. 0. 0. 1.78094395e-03 0. 1.78094395e-03
      0. 0. 8.90471973e-04 0. 1.78094395e-03 4.45235986e-03 0. 0. 0. 0.
      0. 0. 1.78094395e-03 0. 0. 4.45235986e-03 8.90471973e-04 0. 0. 0.
      8.90471973e-04 0. 8.90471973e-04 0. 1.78094395e-03 8.90471973e-04
      1.78094395e-03 8.90471973e-04 0. 8.90471973e-04 8.90471973e-04
      6.23330381e-03 8.90471973e-04 8.90471973e-04 8.90471973e-04 0. 0.
      0. 0. 0. 0. 3.56188789e-03 3.56188789e-03 0. 0. 8.90471973e-04 0.
      0. 1.78094395e-03 0. 0. 0. 0. 8.90471973e-04 0. 8.90471973e-04
      8.90471973e-04 0. 0. 4.45235986e-03 0. 8.90471973e-04
      8.90471973e-04 8.90471973e-04 0. 2.67141592e-03 0. 8.90471973e-04
      8.90471973e-04 8.90471973e-04 0. 5.34283184e-03 0. 1.78094395e-03
      0. 8.90471973e-04 8.90471973e-04 4.45235986e-03 4.45235986e-03 0.
      1.78094395e-03 0. 0. 0. 0. 0. 0. 8.90471973e-04 8.90471973e-04
      8.90471973e-04 0. 8.90471973e-04 8.90471973e-04 0. 0.
      8.90471973e-04 0. 3.56188789e-03 2.67141592e-03 0. 0.
      8.90471973e-04 0. 8.90471973e-04 0. 2.67141592e-03 0.
      1.78094395e-03 8.90471973e-04 0. 8.90471973e-04 8.90471973e-04 0.
      0. 0. 8.90471973e-04 8.90471973e-04 0. 8.90471973e-04
      1.78094395e-03 0. 0. 0. 0. 0. 1.78094395e-03 0. 0. 0. 0.
      1.78094395e-03 0. 0. 0. 1.78094395e-03 0. 0. 0. 0. 8.90471973e-04
      0. 0. 0. 1.78094395e-03 1.78094395e-03 0. 1.78094395e-03
      8.90471973e-04 1.78094395e-03 0. 8.90471973e-04 0. 0.
      1.78094395e-03 8.90471973e-04 2.67141592e-03 0. 0. 0.
      8.90471973e-04 8.90471973e-04 8.90471973e-04 5.34283184e-03
      8.90471973e-04 7.12377578e-03 1.78094395e-03 1.78094395e-03
      8.90471973e-04 0. 0. 0. 0. 4.45235986e-03 8.90471973e-04
      1.78094395e-03 8.90471973e-04 0. 1.78094395e-03 8.90471973e-04
      8.90471973e-04 0. 0. 0. 8.90471973e-04 8.90471973e-04 0.
      8.90471973e-04 8.90471973e-04 0. 0. 1.78094395e-03 1.78094395e-03
      8.90471973e-04 0. 7.12377578e-03 8.90471973e-04 0. 0.
      4.45235986e-03 8.90471973e-04 8.90471973e-04 0. 8.90471973e-04 0.
      2.67141592e-03 2.67141592e-03 0. 8.90471973e-04 0. 8.90471973e-04
      0. 0. 8.90471973e-04 0. 8.90471973e-04</_>
    <_>
      0. 1.54798757e-03 0. 0. 0. 0. 0. 1.54798757e-03 0. 1.54798757e-03
      1.08359130e-02 0. 1.54798757e-03 0. 0. 1.54798757e-03
      3.09597515e-03 0. 1.54798757e-03 0. 1.54798757e-03 0. 0. 0. 0.
      1.54798757e-03 4.64396272e-03 1.54798757e-03 0. 0. 3.09597515e-03
      0. 0. 1.54798757e-03 1.54798757e-03 1.54798757e-03 1.54798757e-03
      0. 1.54798757e-03 1.54798757e-03 0. 1.54798757e-03 0. 0. 0.
      1.54798757e-03 1.54798757e-03 1.54798757e-03 4.64396272e-03 0. 0.
      0. 1.54798757e-03 1.54798757e-03 1.54798757e-03 1.54798757e-03 0.
      1.54798757e-03 0. 0. 0. 0. 0. 0. 0. 4.64396272e-03 0.
      1.54798757e-03 0. 0. 0. 0. 0. 0. 0. 0. 0. 0. 0. 0. 0. 0.
      1.54798757e-03 1.54798757e-03 0. 3.09597515e-03 1.54798757e-03 0.
      0. 1.23839006e-02 3.09597515e-03 0. 1.54798757e-03 0. 0. 0. 0. 0.
      1.54798757e-03 0. 0. 0. 3.09597515e-03 1.54798757e-03 0. 0. 0.
      1.54798757e-03 0. 0. 0. 0. 0. 1.54798757e-03 3.09597515e-03 0.
      1.54798757e-03 0. 0. 7.73993786e-03 0. 1.54798757e-03
      3.09597515e-03 0. 0. 1.54798757e-03 0. 3.09597515e-03
      1.54798757e-03 0. 0. 0. 0. 3.09597515e-03 0. 1.54798757e-03 0. 0.
      0. 1.54798757e-03 0. 3.09597515e-03 1.54798757e-03 6.19195029e-03
      6.19195029e-03 0. 0. 0. 1.70278624e-02 9.28792544e-03 0. 0. 0.
      1.54798757e-03 0. 0. 1.54798757e-03 0. 1.54798757e-03 0. 0.
      1.54798757e-03 0. 1.23839006e-02 3.09597515e-03 6.19195029e-03 0.
      0. 1.54798757e-03 1.54798757e-03 0. 0. 0. 0. 0. 1.54798757e-03 0.
      6.19195029e-03 0. 0. 1.54798757e-03 3.09597515e-03 0. 0. 0. 0. 0.
      1.54798757e-03 0. 1.54798757e-03 0. 0. 1.54798757e-03 0. 0.
      9.28792544e-03 0. 0. 0. 0. 0. 0. 0. 0. 0. 1.54798757e-03
      1.54798757e-03 0. 0. 0. 0. 0. 0. 0. 3.09597515e-03 0. 0.
      1.54798757e-03 1.54798757e-03 0. 0. 1.54798757e-03 4.64396272e-03
      0. 0. 0. 3.09597515e-03 0. 0. 3.09597515e-03 0. 0. 1.54798757e-03
      1.54798757e-03 1.54798757e-03 0. 0. 1.54798757e-03 1.54798757e-03
      0. 1.54798757e-03 0. 1.54798757e-03 0. 0. 0. 4.64396272e-03 0. 0.
      0. 0. 4.64396272e-03 0. 0. 3.09597515e-03 0. 0. 0. 0.
      1.70278624e-02 1.54798757e-03 1.54798757e-03 4.64396272e-03
      1.54798757e-03 0. 0. 0. 1.54798757e-03 0. 0. 0. 0. 0. 0. 0. 0. 0.
      0. 0. 3.09597515e-03 0. 0. 0. 0. 0. 0. 0. 0. 0. 0. 0.
      3.09597515e-03 1.54798757e-03 0. 1.54798757e-03 4.64396272e-03 0.
      4.64396272e-03 0. 9.28792544e-03 1.54798757e-03 1.54798757e-03 0.
      0. 6.19195029e-03 0. 0. 0. 0. 1.54798757e-03 0. 1.54798757e-03
      4.64396272e-03 0. 0. 0. 0. 0. 0. 0. 1.54798757e-03 0.
      1.54798757e-03 0. 0. 0. 0. 0. 0. 0. 0. 1.54798757e-03
      4.64396272e-03 0. 0. 0. 0. 0. 0. 0. 1.54798757e-03 1.54798757e-03
      0. 0. 0. 7.73993786e-03 1.54798757e-03 0. 1.54798757e-03 0.
      1.54798757e-03 0. 0. 0. 1.54798757e-03 0. 0. 0. 0. 3.09597515e-03
      0. 3.09597515e-03 0. 0. 1.54798757e-03 0. 0. 0. 0. 0.
      1.54798757e-03 0. 0. 0. 0. 0. 4.64396272e-03 0. 0. 0.
      1.54798757e-03 1.54798757e-03 0. 1.54798757e-03 0. 0. 0.
      1.54798757e-03 1.54798757e-03 0. 0. 0. 0. 1.54798757e-03 0. 0. 0.
      0. 0. 0. 0. 0. 0. 0. 0. 0. 0. 0. 0. 3.09597515e-03 0. 0. 0.
      1.54798757e-03 1.54798757e-03 0. 0. 0. 0. 0. 0. 0. 0. 0. 0. 0.
      3.09597515e-03 1.54798757e-03 1.54798757e-03 0. 1.54798757e-03
      1.54798757e-03 1.54798757e-03 0. 6.19195029e-03 1.54798757e-03
      1.54798757e-03 0. 0. 0. 0. 1.54798757e-03 0. 0. 0. 0.
      3.09597515e-03 0. 0. 0. 1.54798757e-03 0. 0. 0. 1.54798757e-03 0.
      0. 0. 4.64396272e-03 0. 1.54798757e-03 0. 0. 3.09597515e-03 0. 0.
      0. 0. 0. 0. 4.64396272e-03 0. 3.09597515e-03 1.54798757e-03 0. 0.
      1.54798757e-03 0. 1.54798757e-03 0. 1.54798757e-03 1.54798757e-03
      1.54798757e-03 0. 0. 1.54798757e-03 0. 1.54798757e-03 0. 0. 0. 0.
      0. 0. 3.09597515e-03 0. 0. 0. 1.54798757e-03 0. 0. 0.
      1.54798757e-03 0. 1.54798757e-03 1.54798757e-03 0. 0. 0. 0.
      3.09597515e-03 1.54798757e-03 0. 0. 0. 4.64396272e-03 0. 0. 0. 0.
      4.64396272e-03 0. 0. 0. 1.54798757e-03 0. 0. 9.28792544e-03 0. 0.
      1.54798757e-03 0. 3.09597515e-03 0. 0. 7.73993786e-03 0. 0.
      1.54798757e-03 0. 0. 0. 0. 0. 0. 7.73993786e-03 1.54798757e-03
      1.39318882e-02 1.54798757e-03 0. 0. 0. 0. 0. 3.09597515e-03
      1.54798757e-03 0. 0. 0. 0. 0. 1.54798757e-03 1.54798757e-03 0. 0.
      0. 0. 1.54798757e-03 0. 1.54798757e-03 3.09597515e-03
      1.23839006e-02 0. 1.54798757e-03 0. 0. 0. 0. 0. 0. 1.54798757e-03
      0. 1.54798757e-03 0. 3.09597515e-03 0. 0. 1.54798757e-03
      3.09597515e-03 0. 3.09597515e-03 0. 1.54798757e-03 1.54798757e-03
      3.09597515e-03 1.54798757e-03 0. 0. 0. 0. 1.54798757e-03
      3.09597515e-03 3.09597515e-03 0. 1.54798757e-03 0. 0. 0.
      1.54798757e-03 7.73993786e-03 0. 0. 0. 3.09597515e-03
      1.54798757e-03 1.54798757e-03 1.54798757e-03 3.09597515e-03 0.
      1.54798757e-03 1.54798757e-03 0. 1.23839006e-02 0. 0. 0. 0. 0. 0.
      0. 3.09597515e-03 0. 1.54798757e-03 0. 0. 0. 0. 1.54798757e-03 0.
      0. 0. 0. 3.09597515e-03 0. 0. 0. 1.54798757e-03 0. 1.54798757e-03
      0. 1.54798757e-03 0. 3.09597515e-03 1.54798757e-03 1.54798757e-03
      0. 1.54798757e-03 1.54798757e-03 1.54798757e-03 0. 1.54798757e-03
      0. 3.09597515e-03 0. 1.54798757e-03 0. 1.54798757e-03
      3.09597515e-03 0. 1.54798757e-03 4.64396272e-03 0. 1.54798757e-03
      0. 3.09597515e-03 0. 3.09597515e-03 0. 0. 0. 0. 1.54798757e-03
      3.09597515e-03 0. 0. 0. 0. 0. 3.09597515e-03 0. 0. 0. 0. 0. 0.
      1.54798757e-03 0. 0. 1.54798757e-03 0. 0. 0. 4.64396272e-03
      3.09597515e-03 1.54798757e-03 4.64396272e-03 1.23839006e-02
      1.54798757e-03 0. 1.54798757e-03 0. 1.54798757e-03 0.
      1.54798757e-03 1.54798757e-03 3.09597515e-03 0. 1.54798757e-03
      1.54798757e-03 1.54798757e-03 0. 0. 0. 3.09597515e-03 0. 0. 0. 0.
      0. 0. 0. 0. 0. 1.54798757e-03 0. 0. 0. 0. 3.09597515e-03 0.
      3.09597515e-03 0. 0. 0. 4.64396272e-03 0. 0. 1.54798757e-03 0. 0.
      3.09597515e-03 1.54798757e-03 0. 0. 0. 0. 0. 0. 0. 1.54798757e-03
      1.54798757e-03 1.54798757e-03 0. 1.54798757e-03 0. 0. 0. 0. 0.
      1.54798757e-03 0. 1.54798757e-03 0. 0. 0. 0. 0. 0. 0.
      1.54798757e-03 1.54798757e-03 0. 1.54798757e-03 0. 3.09597515e-03
      0. 0. 3.09597515e-03 0. 0. 1.54798757e-03 0. 1.54798757e-03
      1.54798757e-03 0. 0. 0. 0. 1.54798757e-03 0. 3.09597515e-03
      3.09597515e-03 0. 0. 0. 0. 0. 0. 0. 0. 0. 1.54798757e-03 0. 0.
      1.54798757e-03 0. 0. 4.64396272e-03 0. 0. 0. 0. 1.54798757e-03 0.
      0. 0. 1.54798757e-03 0. 1.54798757e-03 1.54798757e-03
      6.19195029e-03 0. 0. 0. 1.54798757e-03 0. 0. 0. 0. 1.54798757e-03
      0. 1.54798757e-03 0. 0. 1.54798757e-03 0. 0. 1.54798757e-03 0.
      1.54798757e-03 1.54798757e-03 1.54798757e-03 1.54798757e-03 0. 0.
      1.54798757e-03 9.28792544e-03 0. 0. 0. 1.54798757e-03
      3.09597515e-03 9.28792544e-03 7.73993786e-03 0. 0. 1.54798757e-03
      1.54798757e-03 0. 1.54798757e-03 6.19195029e-03 0. 0.
      1.54798757e-03 1.54798757e-03 0. 1.54798757e-03 1.54798757e-03
      1.54798757e-03 0. 0. 1.54798757e-03 1.54798757e-03 0. 0. 0. 0.
      1.54798757e-03 1.54798757e-03 1.54798757e-03 0. 1.54798757e-03 0.
      4.64396272e-03 0. 0. 0. 1.54798757e-03 0. 1.54798757e-03 0. 0.
      1.54798757e-03 0. 0. 0. 0. 3.09597515e-03 0. 0. 1.54798757e-03
      1.54798757e-03 0. 0. 0. 0. 0. 0. 0. 0. 0. 0. 1.54798757e-03 0. 0.
      6.19195029e-03 3.09597515e-03 0. 3.09597515e-03 0. 0. 0. 0. 0. 0.
      0. 3.09597515e-03 0. 3.09597515e-03 0. 0. 1.54798757e-03
      1.54798757e-03 4.64396272e-03 1.54798757e-03 0. 0. 1.54798757e-03
      4.64396272e-03 7.73993786e-03 0. 0. 0. 0. 0. 0. 0. 3.09597515e-03
      0. 0. 3.09597515e-03 0. 1.54798757e-03 1.54798757e-03 0.
      1.54798757e-03 1.54798757e-03 0. 1.54798757e-03 3.09597515e-03 0.
      1.54798757e-03 1.54798757e-03 3.09597515e-03 0. 0. 1.54798757e-03
      1.54798757e-03 0. 9.28792544e-03 7.73993786e-03 0. 1.54798757e-03
      0. 0. 0. 0. 0. 0. 0. 0. 1.54798757e-03 0. 0. 1.54798757e-03
      3.09597515e-03 3.09597515e-03 1.54798757e-03 3.09597515e-03 0.</_>
    <_>
      0. 7.78210117e-04 0. 0. 0. 0. 1.55642023e-03 1.55642023e-03 0.
      1.55642023e-03 2.33463035e-03 0. 7.78210117e-04 7.78210117e-04 0.
      3.89105058e-03 0. 0. 7.78210117e-04 0. 0. 7.78210117e-04 0.
      2.33463035e-03 0. 7.78210117e-04 7.78210117e-04 2.33463035e-03 0.
      3.11284047e-03 7.78210117e-04 0. 0. 1.55642023e-03 0.
      7.78210117e-04 7.78210117e-04 0. 0. 7.78210117e-04 0. 0.
      7.78210117e-04 7.78210117e-04 0. 1.55642023e-03 0. 1.55642023e-03
      3.11284047e-03 1.55642023e-03 0. 7.78210117e-04 0. 1.55642023e-03
      0. 4.66926070e-03 0. 7.78210117e-04 2.33463035e-03 0.
      7.78210117e-04 0. 7.78210117e-04 7.78210117e-04 1.55642023e-03 0.
      0. 3.11284047e-03 7.78210117e-04 7.78210117e-04 0. 0.
      6.22568093e-03 7.78210117e-04 2.33463035e-03 2.33463035e-03 0. 0.
      7.78210117e-04 7.78210117e-04 0. 0. 0. 3.89105058e-03 0. 0.
      2.33463035e-03 7.78210117e-04 2.33463035e-03 5.44747058e-03
      1.55642023e-03 2.33463035e-03 7.78210117e-04 0. 0. 0. 0.
      7.78210117e-04 1.55642023e-03 7.78210117e-04 0. 7.78210117e-04
      3.11284047e-03 1.55642023e-03 7.78210117e-04 4.66926070e-03
      1.55642023e-03 2.33463035e-03 1.55642023e-03 3.89105058e-03
      7.78210117e-04 0. 7.78210117e-04 3.89105058e-03 7.78210117e-04
      4.66926070e-03 7.78210117e-04 0. 0. 7.00389128e-03 0. 0.
      3.11284047e-03 0. 1.55642023e-03 0. 1.55642023e-03 1.55642023e-03
      0. 0. 0. 1.55642023e-03 2.33463035e-03 3.89105058e-03 0.
      1.55642023e-03 0. 2.33463035e-03 0. 7.78210117e-04 0.
      7.78210117e-04 2.33463035e-03 7.78210117e-04 3.11284047e-03 0.
      1.55642023e-03 7.78210117e-04 5.44747058e-03 7.78210117e-04 0. 0.
      7.78210117e-04 2.33463035e-03 1.55642023e-03 0. 7.78210117e-04 0.
      8.56031105e-03 0. 0. 2.33463035e-03 1.55642023e-03 9.33852140e-03
      3.89105058e-03 3.11284047e-03 7.78210117e-04 6.22568093e-03
      7.78210117e-04 1.55642023e-03 0. 7.78210117e-04 3.89105058e-03 0.
      0. 7.78210117e-04 7.78210117e-04 0. 7.78210117e-04 0.
      7.78210117e-04 7.78210117e-04 3.11284047e-03 0. 1.55642023e-03 0.
      7.78210117e-04 0. 3.11284047e-03 7.78210117e-04 0. 7.78210117e-04
      7.78210117e-04 7.78210117e-04 7.78210117e-04 5.44747058e-03 0.
      7.78210117e-04 7.78210117e-04 0. 0. 7.78210117e-04 7.78210117e-04
      7.78210117e-04 7.78210117e-04 7.78210117e-04 0. 2.33463035e-03
      4.66926070e-03 7.78210117e-04 1.55642023e-03 1.55642023e-03 0.
      7.78210117e-04 7.78210117e-04 0. 0. 1.55642023e-03 2.33463035e-03
      7.78210117e-04 2.33463035e-03 7.78210117e-04 0. 7.78210117e-04
      7.78210117e-04 1.55642023e-03 0. 2.33463035e-03 2.33463035e-03
      3.89105058e-03 7.78210117e-04 2.33463035e-03 3.11284047e-03
      7.78210117e-04 1.55642023e-03 3.11284047e-03 0. 0. 7.78210117e-04
      7.78210117e-04 1.55642023e-03 0. 7.78210117e-04 0. 7.78210117e-04
      7.78210117e-04 1.08949412e-02 0. 0. 7.78210117e-04 0.
      7.78210117e-04 0. 0. 1.55642023e-03 0. 7.78210117e-04 0. 0.
      3.11284047e-03 1.55642023e-03 1.55642023e-03 3.11284047e-03
      7.78210117e-04 7.78210117e-04 0. 2.33463035e-03 7.78210117e-04
      7.78210117e-04 7.78210117e-04 0. 0. 0. 1.55642023e-03 0. 0. 0.
      7.78210117e-04 0. 0. 0. 7.78210117e-04 7.78210117e-04 0. 0.
      7.78210117e-04 7.78210117e-04 0. 7.78210117e-04 0. 7.78210117e-04
      1.55642023e-03 0. 0. 2.33463035e-03 2.33463035e-03 7.78210117e-04
      3.11284047e-03 3.11284047e-03 3.89105058e-03 0. 7.78210117e-04
      1.55642023e-03 0. 7.78210117e-03 0. 0. 7.78210117e-04 0. 0. 0. 0.
      0. 0. 0. 0. 0. 7.78210117e-04 7.78210117e-04 3.11284047e-03
      7.78210117e-04 7.78210117e-04 0. 2.33463035e-03 7.78210117e-04
      7.78210117e-04 0. 7.78210117e-04 7.78210117e-04 7.78210117e-04 0.
      0. 9.33852140e-03 2.33463035e-03 7.78210117e-04 7.78210117e-04 0.
      7.78210117e-04 7.78210117e-04 1.55642023e-03 7.78210117e-04 0.
      7.78210117e-04 0. 0. 2.33463035e-03 1.55642023e-03 5.44747058e-03
      0. 0. 0. 1.55642023e-03 0. 7.78210117e-04 2.33463035e-03 0.
      1.55642023e-03 0. 0. 1.55642023e-03 0. 7.00389128e-03
      1.55642023e-03 0. 7.78210117e-04 0. 0. 7.78210117e-04
      1.55642023e-03 0. 0. 0. 0. 7.78210117e-04 7.78210117e-04 0.
      1.55642023e-03 7.78210117e-04 1.55642023e-03 0. 0. 1.55642023e-03
      0. 0. 0. 0. 7.78210117e-04 0. 1.55642023e-03 0. 7.78210117e-04 0.
      0. 0. 0. 3.11284047e-03 0. 2.33463035e-03 0. 0. 0. 7.78210117e-04
      0. 0. 0. 0. 0. 0. 1.55642023e-03 0. 0. 0. 0. 2.33463035e-03
      7.78210117e-04 0. 7.78210117e-04 7.78210117e-04 3.89105058e-03
      7.78210117e-04 1.55642023e-03 0. 3.89105058e-03 7.78210117e-04
      7.78210117e-04 1.55642023e-03 1.55642023e-03 7.78210117e-04 0. 0.
      0. 1.55642023e-03 7.78210117e-04 1.55642023e-03 3.11284047e-03 0.
      0. 0. 0. 3.11284047e-03 0. 3.11284047e-03 1.55642023e-03 0. 0. 0.
      1.55642023e-03 7.78210117e-04 1.55642023e-03 0. 0. 0. 0. 0.
      1.55642023e-03 0. 0. 0. 0. 7.78210117e-04 7.78210117e-04 0. 0. 0.
      0. 0. 4.66926070e-03 0. 0. 0. 2.33463035e-03 1.55642023e-03
      1.55642023e-03 0. 7.78210117e-04 7.78210117e-04 0. 7.78210117e-04
      7.78210117e-04 0. 7.78210117e-04 0. 7.78210117e-04 0.
      7.78210117e-04 7.78210117e-04 0. 7.78210117e-04 7.78210117e-04 0.
      0. 7.78210117e-04 7.78210117e-04 0. 0. 1.55642023e-03
      7.78210117e-04 0. 7.78210117e-04 0. 0. 2.33463035e-03 0.
      1.55642023e-03 3.11284047e-03 3.11284047e-03 7.78210117e-04
      2.33463035e-03 7.78210117e-04 7.78210117e-04 0. 3.11284047e-03
      2.33463035e-03 0. 0. 3.89105058e-03 7.78210117e-04 0. 0.
      7.78210117e-04 6.22568093e-03 7.78210117e-04 7.78210117e-04
      7.78210117e-04 1.55642023e-03 0. 0. 3.89105058e-03 0.
      7.78210117e-04 1.55642023e-03 7.78210117e-04 7.78210117e-04 0.
      3.89105058e-03 7.78210117e-04 1.55642023e-03 0. 1.55642023e-03 0.
      0. 0. 2.33463035e-03 0. 0. 7.78210117e-03 7.78210117e-04
      1.01167317e-02 1.55642023e-03 0. 0. 0. 1.55642023e-03
      7.78210117e-04 0. 0. 0. 0. 0. 0. 0. 7.78210117e-04 7.78210117e-04
      7.78210117e-04 0. 7.78210117e-04 7.78210117e-04 0. 7.78210117e-04
      0. 3.11284047e-03 5.44747058e-03 7.78210117e-04 3.89105058e-03
      7.78210117e-04 7.78210117e-04 0. 0. 0. 1.55642023e-03
      7.78210117e-04 2.33463035e-03 7.78210117e-04 1.55642023e-03
      3.89105058e-03 1.55642023e-03 0. 0. 3.11284047e-03 1.55642023e-03
      0. 0. 0. 1.55642023e-03 7.78210117e-04 7.78210117e-04
      7.78210117e-04 0. 7.78210117e-04 7.78210117e-04 7.78210117e-04
      7.78210117e-04 0. 0. 7.78210117e-04 7.78210117e-04 1.55642023e-03
      0. 7.78210117e-04 1.55642023e-03 7.78210117e-04 0. 7.78210117e-04
      2.33463035e-03 3.11284047e-03 2.33463035e-03 0. 0. 1.55642023e-03
      7.78210117e-04 7.78210117e-04 7.78210117e-04 3.11284047e-03
      7.78210117e-04 0. 0. 3.11284047e-03 7.78210117e-04 0.
      2.33463035e-03 0. 0. 0. 0. 0. 0. 0. 0. 0. 7.78210117e-04
      1.55642023e-03 3.11284047e-03 5.44747058e-03 0. 7.78210117e-04
      3.11284047e-03 3.89105058e-03 7.78210117e-04 7.78210117e-04 0.
      7.78210117e-04 0. 2.33463035e-03 7.78210117e-04 0. 7.78210117e-04
      3.89105058e-03 0. 1.55642023e-03 2.33463035e-03 0. 7.78210117e-04
      7.78210117e-04 0. 1.55642023e-03 7.78210117e-04 3.11284047e-03 0.
      7.78210117e-04 0. 7.78210117e-04 7.78210117e-04 0. 0.
      3.11284047e-03 2.33463035e-03 3.11284047e-03 0. 7.78210117e-04
      7.78210117e-04 0. 7.78210117e-04 0. 7.78210117e-04 0.
      7.78210117e-04 1.55642023e-03 0. 3.11284047e-03 0. 1.55642023e-03
      7.78210117e-04 0. 7.78210117e-04 1.55642023e-03 7.78210117e-04 0.
      0. 0. 0. 0. 0. 5.44747058e-03 2.33463035e-03 1.55642023e-03
      1.55642023e-03 3.11284047e-03 1.55642023e-03 1.55642023e-03
      7.78210117e-04 0. 7.78210117e-04 4.66926070e-03 3.11284047e-03 0.
      2.33463035e-03 7.78210117e-04 0. 0. 0. 0. 7.78210117e-04 0. 0. 0.
      0. 7.78210117e-04 0. 0. 0. 0. 0. 0. 7.78210117e-04 0.
      1.55642023e-03 7.78210117e-04 0. 3.11284047e-03 1.55642023e-03
      3.89105058e-03 7.78210117e-04 0. 7.78210117e-04 3.89105058e-03
      1.55642023e-03 0. 7.78210117e-04 3.11284047e-03 7.78210117e-04
      1.55642023e-03 2.33463035e-03 7.78210117e-04 1.55642023e-03 0. 0.
      0. 7.78210117e-04 7.78210117e-04 7.78210117e-04 7.78210117e-04
      3.11284047e-03 7.78210117e-04 3.11284047e-03 0. 0. 0. 0.
      1.55642023e-03 0. 7.78210117e-04 0. 7.78210117e-04 7.78210117e-04
      2.33463035e-03 0. 0. 1.55642023e-03 1.55642023e-03 1.55642023e-03
      7.78210117e-04 0. 7.78210117e-04 0. 2.33463035e-03 0.
      7.78210117e-04 7.78210117e-04 0. 7.78210117e-04 0. 0.
      1.55642023e-03 1.55642023e-03 0. 7.78210117e-04 7.78210117e-04
      7.78210117e-04 0. 1.55642023e-03 2.33463035e-03 1.55642023e-03 0.
      1.55642023e-03 1.55642023e-03 0. 7.78210117e-04 0. 2.33463035e-03
      3.89105058e-03 0. 0. 0. 1.55642023e-03 0. 7.78210117e-04
      2.33463035e-03 2.33463035e-03 0. 0. 7.78210117e-04 0.
      1.55642023e-03 1.55642023e-03 0. 1.55642023e-03 0. 0.
      7.78210117e-04 0. 7.78210117e-04 7.78210117e-04 7.78210117e-04
      3.11284047e-03 0. 0. 7.78210117e-04 0. 7.78210117e-04
      2.33463035e-03 1.55642023e-03 1.55642023e-03 0. 0. 7.78210117e-04
      1.55642023e-03 1.55642023e-03 2.33463035e-03 0. 0. 3.11284047e-03
      7.78210117e-04 3.11284047e-03 7.78210117e-04 7.78210117e-04
      7.78210117e-04 1.55642023e-03 7.78210117e-04 0. 7.78210117e-04 0.
      0. 5.44747058e-03 3.11284047e-03 0. 0. 1.55642023e-03 0.
      7.78210117e-04 3.11284047e-03 2.33463035e-03 7.78210117e-04
      1.55642023e-03 0. 0. 0. 1.55642023e-03 7.78210117e-04 0.
      7.78210117e-04 1.55642023e-03 1.55642023e-03 1.55642023e-03
      7.78210117e-04 0. 0. 7.78210117e-04 1.55642023e-03 7.78210117e-04
      0. 0. 0. 0. 0. 0. 7.78210117e-04 0. 0. 1.55642023e-03
      2.33463035e-03 0. 0. 1.55642023e-03 0. 0. 0. 1.55642023e-03
      1.55642023e-03 7.78210117e-04 7.78210117e-04 1.55642023e-03
      1.55642023e-03 0. 7.78210117e-04 0. 1.55642023e-03 0. 0.
      2.33463035e-03 0. 1.55642023e-03 1.55642023e-03 7.78210117e-04
      3.89105058e-03 7.78210117e-04 1.55642023e-03 0. 0. 0. 0. 0. 0.
      1.55642023e-03 3.11284047e-03 7.78210117e-04 7.78210117e-04
      7.78210117e-04 0. 0. 7.78210117e-04 7.78210117e-04 3.11284047e-03
      0. 1.55642023e-03 0. 1.55642023e-03 0. 0. 2.33463035e-03
      1.55642023e-03 0. 7.78210117e-04 1.55642023e-03 0. 1.55642023e-03
      7.78210117e-04 0. 1.55642023e-03 7.78210117e-04 1.55642023e-03
      3.11284047e-03 0. 1.55642023e-03 1.55642023e-03 1.55642023e-03 0.
      0. 0. 7.78210117e-04 0. 0. 7.78210117e-04 1.55642023e-03 0.
      7.78210117e-04 0. 0. 2.33463035e-03 0. 5.44747058e-03
      9.33852140e-03 7.78210117e-04 1.55642023e-03 7.78210117e-04
      7.78210117e-04 2.33463035e-03 0. 7.78210117e-04 1.55642023e-03
      7.78210117e-04 3.11284047e-03 1.55642023e-03 0. 1.55642023e-03
      7.78210117e-04 7.78210117e-04 7.78210117e-04 7.78210117e-04
      7.78210117e-04 0.</_>
    <_>
      0. 0. 0. 0. 1.11482723e-03 1.11482723e-03 0. 1.11482723e-03 0.
      1.11482723e-03 6.68896362e-03 1.11482723e-03 0. 0. 0.
      1.11482723e-03 5.57413604e-03 2.22965446e-03 0. 0. 0.
      1.11482723e-03 1.11482723e-03 0. 0. 1.11482723e-03 2.22965446e-03
      1.11482723e-03 0. 0. 1.11482723e-03 3.34448181e-03 0. 0.
      1.11482723e-03 0. 5.57413604e-03 0. 0. 0. 1.11482723e-03 0. 0.
      1.11482723e-03 1.11482723e-03 5.57413604e-03 0. 1.11482723e-03
      6.68896362e-03 1.11482723e-03 0. 2.22965446e-03 1.11482723e-03 0.
      0. 0. 0. 2.22965446e-03 3.34448181e-03 3.34448181e-03
      1.11482723e-03 3.34448181e-03 0. 0. 0. 1.11482723e-03
      1.11482723e-03 3.34448181e-03 1.11482723e-03 1.11482723e-03 0.
      1.11482723e-03 1.11482723e-03 0. 1.11482723e-03 2.22965446e-03 0.
      0. 0. 0. 4.45930893e-03 0. 0. 0. 0. 1.11482723e-03 1.11482723e-03
      1.11482723e-03 0. 2.22965446e-03 0. 0. 2.22965446e-03
      1.11482723e-03 0. 0. 0. 0. 1.11482723e-03 0. 1.11482723e-03
      4.45930893e-03 0. 0. 0. 1.11482723e-03 0. 1.11482723e-03 0.
      2.22965446e-03 0. 0. 0. 0. 2.22965446e-03 1.11482723e-03 0. 0. 0.
      8.91861785e-03 1.11482723e-03 0. 4.45930893e-03 0. 0. 0. 0. 0. 0.
      1.11482723e-03 0. 3.34448181e-03 0. 0. 1.11482723e-03
      2.22965446e-03 3.34448181e-03 0. 2.22965446e-03 1.11482723e-03 0.
      0. 0. 0. 5.57413604e-03 0. 2.22965446e-03 1.11482723e-03 0.
      1.33779272e-02 2.22965446e-03 1.11482723e-03 0. 1.11482723e-03 0.
      1.11482723e-03 4.45930893e-03 2.22965446e-03 1.11482723e-03 0. 0.
      5.57413604e-03 0. 6.68896362e-03 6.68896362e-03 0. 0.
      1.11482723e-03 1.11482723e-03 2.22965446e-03 0. 0. 0. 0. 0. 0.
      1.11482723e-03 4.45930893e-03 1.11482723e-03 0. 2.22965446e-03
      3.34448181e-03 1.11482723e-03 1.11482723e-03 0. 5.57413604e-03 0.
      1.11482723e-03 1.11482723e-03 0. 0. 2.22965446e-03 0.
      1.11482723e-03 2.22965446e-03 8.91861785e-03 3.34448181e-03 0.
      1.11482723e-03 0. 3.34448181e-03 0. 1.11482723e-03 2.22965446e-03
      4.45930893e-03 0. 1.11482723e-03 0. 0. 0. 0. 0. 1.11482723e-03
      2.22965446e-03 1.11482723e-03 2.22965446e-03 1.11482723e-03
      1.11482723e-03 1.11482723e-03 0. 0. 0. 0. 1.11482723e-03 0.
      1.11482723e-03 0. 1.11482723e-03 0. 1.11482723e-03 3.34448181e-03
      0. 0. 0. 0. 2.22965446e-03 0. 1.11482723e-03 0. 0. 1.11482723e-03
      3.34448181e-03 0. 1.11482723e-03 0. 3.34448181e-03 3.34448181e-03
      3.34448181e-03 4.45930893e-03 0. 1.11482723e-03 1.11482723e-03 0.
      1.11482723e-03 0. 0. 0. 0. 0. 1.00334454e-02 0. 0. 0. 0. 0. 0.
      2.22965446e-03 1.11482723e-03 2.22965446e-03 1.11482723e-03
      1.11482723e-03 1.11482723e-03 0. 2.22965446e-03 0. 0.
      4.45930893e-03 1.11482723e-03 0. 0. 1.11482723e-03 0.
      1.11482723e-03 0. 0. 0. 5.57413604e-03 0. 2.22965446e-03 0. 0. 0.
      0. 0. 0. 5.57413604e-03 0. 3.34448181e-03 3.34448181e-03 0. 0.
      1.11482723e-03 3.34448181e-03 0. 1.44927539e-02 0. 1.11482723e-03
      1.11482723e-03 0. 1.11482723e-03 1.11482723e-03 0. 1.11482723e-03
      0. 2.22965446e-03 0. 1.11482723e-03 1.11482723e-03 1.11482723e-03
      2.22965446e-03 0. 0. 0. 1.11482723e-03 0. 0. 0. 0. 0.
      2.22965446e-03 0. 0. 1.33779272e-02 2.22965446e-03 0. 0.
      1.11482723e-03 2.22965446e-03 0. 0. 2.22965446e-03 0.
      1.11482723e-03 0. 0. 3.34448181e-03 2.22965446e-03 0. 0.
      1.11482723e-03 0. 3.34448181e-03 0. 0. 0. 2.22965446e-03 0. 0. 0.
      0. 0. 2.22965446e-03 0. 1.11482723e-03 0. 0. 1.11482723e-03 0. 0.
      0. 0. 0. 0. 0. 0. 0. 0. 0. 1.11482723e-03 0. 0. 0. 1.11482723e-03
      1.11482723e-03 1.11482723e-03 0. 0. 3.34448181e-03 1.11482723e-03
      0. 0. 1.11482723e-03 1.11482723e-03 1.11482723e-03 0. 0.
      1.11482723e-03 0. 0. 0. 0. 0. 0. 0. 1.11482723e-03 1.11482723e-03
      1.11482723e-03 0. 3.34448181e-03 1.11482723e-03 0. 0. 0.
      1.11482723e-03 0. 0. 0. 0. 0. 3.34448181e-03 0. 0. 0. 0. 0.
      1.11482723e-03 0. 1.11482723e-03 0. 1.11482723e-03 2.22965446e-03
      2.22965446e-03 3.34448181e-03 0. 1.11482723e-03 0. 3.34448181e-03
      2.22965446e-03 1.11482723e-03 1.11482723e-03 1.11482723e-03 0. 0.
      1.11482723e-03 1.11482723e-03 0. 1.11482723e-03 0. 0. 0. 0.
      1.11482723e-03 0. 1.11482723e-03 2.22965446e-03 1.11482723e-03 0.
      0. 0. 0. 1.11482723e-03 0. 0. 1.11482723e-03 0. 0. 1.11482723e-03
      0. 0. 0. 0. 1.11482723e-03 1.11482723e-03 0. 0. 4.45930893e-03 0.
      0. 1.11482723e-03 0. 0. 1.11482723e-03 0. 0. 1.11482723e-03 0.
      2.22965446e-03 0. 0. 0. 0. 0. 2.22965446e-03 0. 1.11482723e-03
      1.11482723e-03 0. 1.11482723e-03 0. 0. 2.22965446e-03
      2.22965446e-03 2.22965446e-03 1.11482723e-03 2.22965446e-03 0.
      4.45930893e-03 0. 1.11482723e-03 3.34448181e-03 2.22965446e-03
      1.11482723e-03 1.11482723e-03 1.11482723e-03 0. 2.22965446e-03
      2.22965446e-03 0. 0. 1.11482723e-03 4.45930893e-03 0. 0. 0. 0. 0.
      0. 3.34448181e-03 2.22965446e-03 1.11482723e-03 1.11482723e-03 0.
      1.11482723e-03 0. 0. 3.34448181e-03 1.11482723e-03 1.11482723e-03
      1.11482723e-03 0. 4.45930893e-03 0. 1.11482723e-03 0. 0. 0.
      1.11482723e-03 8.91861785e-03 2.22965446e-03 0. 1.11482723e-03
      2.22965446e-03 0. 0. 1.11482723e-03 0. 0. 1.11482723e-03 0. 0. 0.
      1.11482723e-03 0. 4.45930893e-03 0. 1.11482723e-03 1.11482723e-03
      1.11482723e-03 1.11482723e-03 2.22965446e-03 2.22965446e-03
      2.22965446e-03 3.34448181e-03 0. 0. 0. 1.11482723e-03
      1.11482723e-03 0. 0. 1.11482723e-03 0. 0. 3.34448181e-03
      1.11482723e-03 0. 0. 1.11482723e-03 0. 0. 3.34448181e-03
      2.22965446e-03 0. 0. 5.57413604e-03 0. 1.11482723e-03 0.
      2.22965446e-03 0. 0. 0. 0. 4.45930893e-03 0. 0. 0. 0.
      1.11482723e-03 8.91861785e-03 0. 1.11482723e-03 0. 0.
      7.80379074e-03 3.34448181e-03 0. 4.45930893e-03 0. 1.11482723e-03
      2.22965446e-03 0. 1.11482723e-03 1.11482723e-03 2.22965446e-03 0.
      2.22965446e-03 2.22965446e-03 0. 0. 2.22965446e-03 1.11482723e-03
      0. 4.45930893e-03 0. 1.11482723e-03 1.11482723e-03 0. 0. 0. 0. 0.
      0. 0. 0. 4.45930893e-03 1.11482723e-03 1.11482723e-03
      8.91861785e-03 0. 0. 0. 2.22965446e-03 1.11482723e-03
      1.11482723e-03 0. 3.34448181e-03 0. 0. 2.22965446e-03 0. 0.
      1.11482723e-03 0. 2.22965446e-03 2.22965446e-03 0. 1.11482723e-03
      0. 1.11482723e-03 0. 0. 2.22965446e-03 2.22965446e-03 0. 0.
      1.11482723e-03 1.11482723e-03 1.11482723e-03 0. 0. 0. 0. 0.
      6.68896362e-03 1.11482723e-03 0. 0. 1.11482723e-03 0. 0. 0.
      1.11482723e-03 7.80379074e-03 4.45930893e-03 3.34448181e-03 0.
      2.22965446e-03 0. 2.22965446e-03 0. 4.45930893e-03 2.22965446e-03
      2.22965446e-03 0. 0. 4.45930893e-03 2.22965446e-03 1.11482723e-03
      2.22965446e-03 0. 0. 1.11482723e-03 0. 0. 0. 0. 0. 0.
      1.11482723e-03 0. 0. 0. 2.22965446e-03 0. 0. 0. 0. 0. 0. 0. 0. 0.
      0. 1.11482723e-03 0. 4.45930893e-03 0. 1.11482723e-03
      3.34448181e-03 4.45930893e-03 0. 0. 0. 1.11482721e-02 0.
      1.11482723e-03 1.11482723e-03 0. 2.22965446e-03 0. 0. 0.
      1.11482723e-03 1.11482723e-03 0. 1.11482723e-03 0. 0.
      1.11482723e-03 0. 4.45930893e-03 0. 0. 3.34448181e-03 0. 0. 0.
      2.22965446e-03 1.11482723e-03 0. 0. 1.11482723e-03 0. 0.
      1.11482723e-03 0. 0. 3.34448181e-03 0. 1.11482723e-03
      1.11482723e-03 1.11482723e-03 0. 1.11482723e-03 0. 1.11482723e-03
      1.11482723e-03 2.22965446e-03 3.34448181e-03 1.11482723e-03 0. 0.
      0. 0. 1.11482723e-03 0. 4.45930893e-03 2.22965446e-03
      1.11482723e-03 2.22965446e-03 1.00334454e-02 0. 0. 0.
      3.34448181e-03 0. 0. 4.45930893e-03 0. 0. 1.11482723e-03 0. 0. 0.
      2.22965446e-03 6.68896362e-03 5.57413604e-03 0. 0. 1.11482723e-03
      0. 1.11482723e-03 0. 1.11482723e-03 1.11482723e-03 0. 0. 0. 0. 0.
      2.22965446e-03 0. 0. 0. 1.11482723e-03 0. 0. 0. 1.11482723e-03 0.
      0. 0. 2.22965446e-03 8.91861785e-03 1.11482723e-03 1.11482723e-03
      1.11482723e-03 0. 1.11482723e-03 0. 0. 1.11482723e-03
      1.11482723e-03 1.11482723e-03 1.11482723e-03 2.22965446e-03
      1.11482723e-03 0. 1.11482723e-03 1.11482723e-03 0. 4.45930893e-03
      6.68896362e-03 1.11482723e-03 2.22965446e-03 1.11482723e-03 0. 0.
      0. 0. 0. 0. 0. 1.11482723e-03 0. 0. 1.11482723e-03 1.11482723e-03
      0. 0. 0. 0. 1.11482723e-03 0. 2.22965446e-03 0. 0. 0. 0. 0.
      3.34448181e-03 0. 0. 1.11482723e-03 0. 0. 1.11482723e-03
      2.22965446e-03 0. 0. 1.11482723e-03 2.22965446e-03 1.11482723e-03
      2.22965446e-03 0. 0. 0. 0. 0. 0. 0. 0. 0. 0. 0. 1.11482723e-03 0.
      0. 0. 0. 1.11482723e-03 2.22965446e-03 1.11482723e-03 0. 0. 0. 0.
      1.11482723e-03 0. 0. 0. 1.11482723e-03 0. 1.11482723e-03 0. 0.
      1.11482723e-03 0. 0. 0. 0. 1.11482723e-03 0. 0. 0. 0. 0.
      2.22965446e-03 4.45930893e-03 0. 1.11482723e-03 0. 0. 0. 0. 0.
      1.11482723e-03 0. 0. 0. 0. 0. 4.45930893e-03 3.34448181e-03 0.
      1.11482723e-03 0. 1.11482723e-03 0. 1.11482723e-03 0.
      1.11482723e-03 0. 0. 1.11482723e-03 0. 2.22965446e-03 0.
      5.57413604e-03 0. 0. 1.11482723e-03 1.11482723e-03 0.
      1.11482723e-03 0. 0. 2.22965446e-03 0. 0. 1.11482723e-03 0.
      1.11482723e-03 0. 0. 0. 0. 3.34448181e-03 0.</_>
    <_>
      0. 0. 1.33067195e-03 1.33067195e-03 3.99201596e-03 0. 0. 0.
      6.65335974e-04 1.33067195e-03 4.65735188e-03 0. 0. 1.33067195e-03
      1.99600798e-03 2.66134390e-03 6.65335974e-04 0. 1.99600798e-03 0.
      0. 6.65335974e-04 0. 0. 1.33067195e-03 6.65335974e-04
      1.33067195e-03 0. 0. 1.06453756e-02 6.65335974e-04 2.66134390e-03
      0. 3.99201596e-03 6.65335974e-04 0. 0. 0. 1.33067195e-03 0.
      1.06453756e-02 6.65335974e-04 0. 0. 6.65335974e-04 1.33067195e-03
      2.66134390e-03 0. 6.65335974e-04 0. 0. 1.33067195e-03
      1.33067195e-03 0. 0. 1.99600798e-03 0. 1.33067195e-03
      1.33067195e-03 6.65335974e-04 0. 6.65335974e-04 0. 0. 0.
      6.65335974e-04 6.65335974e-04 0. 7.31869554e-03 0. 6.65335974e-04
      6.65335974e-04 0. 0. 6.65335974e-04 6.65335974e-04 0.
      6.65335974e-04 2.66134390e-03 1.99600798e-03 1.99600798e-03 0.
      6.65335974e-04 1.99600798e-03 0. 1.33067195e-03 6.65335974e-04 0.
      6.65335974e-04 4.65735188e-03 1.33067195e-03 6.65335974e-04
      6.65335974e-04 6.65335974e-04 0. 6.65335974e-04 0. 1.99600798e-03
      6.65335974e-04 6.65335974e-04 7.98403192e-03 6.65335974e-04 0.
      1.33067195e-03 1.33067195e-03 0. 0. 0. 1.99600798e-03
      2.66134390e-03 0. 6.65335974e-04 0. 0. 0. 0. 0. 0. 0.
      1.19760474e-02 0. 0. 1.59680638e-02 0. 1.99600798e-03
      6.65335974e-04 2.66134390e-03 1.33067195e-03 0. 0. 0.
      5.98802371e-03 0. 1.99600798e-03 2.66134390e-03 3.32667981e-03
      1.33067195e-03 0. 6.65335974e-04 6.65335974e-04 0. 0.
      1.33067195e-03 6.65335974e-04 6.65335974e-04 0. 0. 6.65335974e-04
      1.13107115e-02 5.32268779e-03 1.33067195e-03 0. 1.33067195e-03
      3.99201596e-03 0. 6.65335974e-04 1.33067195e-03 6.65335974e-04 0.
      0. 6.65335974e-04 4.65735188e-03 1.33067195e-03 5.32268779e-03
      4.65735188e-03 2.66134390e-03 6.65335974e-04 0. 0. 2.66134390e-03
      0. 1.33067195e-03 0. 1.99600798e-03 1.33067195e-03 2.66134390e-03
      0. 1.33067195e-03 2.66134390e-03 6.65335974e-04 1.33067195e-03
      5.98802371e-03 5.98802371e-03 1.99600798e-03 0. 2.66134390e-03
      1.33067195e-03 6.65335974e-04 0. 1.33067195e-03 0. 0. 0. 0. 0.
      6.65335963e-03 0. 1.99600798e-03 1.99600798e-03 6.65335974e-04
      6.65335974e-04 0. 1.33067195e-03 3.32667981e-03 6.65335974e-04 0.
      0. 6.65335974e-04 6.65335974e-04 0. 0. 0. 0. 6.65335974e-04
      6.65335974e-04 1.99600798e-03 0. 6.65335974e-04 6.65335974e-04 0.
      6.65335974e-04 2.66134390e-03 0. 1.33067195e-03 6.65335974e-04
      6.65335974e-04 0. 6.65335974e-04 0. 3.32667981e-03 6.65335974e-04
      0. 1.33067195e-03 0. 6.65335974e-04 1.99600798e-03 0.
      2.66134390e-03 0. 1.26413833e-02 0. 1.99600798e-03 3.32667981e-03
      6.65335974e-04 0. 2.66134390e-03 1.99600798e-03 1.99600798e-03
      6.65335974e-04 6.65335974e-04 1.33067195e-03 9.31470376e-03
      3.99201596e-03 6.65335974e-04 1.33067195e-03 0. 6.65335974e-04
      1.33067195e-03 5.32268779e-03 1.99600798e-03 2.66134390e-03 0.
      1.86294075e-02 6.65335974e-04 0. 6.65335974e-04 1.33067195e-03 0.
      1.99600798e-03 2.66134390e-03 0. 0. 0. 0. 0. 0. 6.65335974e-04 0.
      0. 0. 0. 6.65335974e-04 6.65335974e-04 0. 0. 6.65335974e-04
      1.33067195e-03 0. 1.99600798e-03 6.65335974e-04 0. 0.
      6.65335974e-04 5.98802371e-03 6.65335974e-04 1.99600798e-03 0. 0.
      0. 0. 0. 1.99600798e-03 0. 6.65335974e-04 7.31869554e-03
      1.33067195e-03 0. 6.65335974e-04 6.65335974e-04 0. 0.
      1.99600798e-03 2.66134390e-03 0. 0. 1.33067195e-03 0.
      2.66134390e-03 2.66134390e-03 0. 0. 6.65335974e-04 0. 0.
      6.65335974e-04 0. 0. 0. 6.65335974e-04 0. 0. 6.65335974e-04
      2.66134390e-03 1.99600798e-03 1.99600798e-03 0. 1.99600798e-03 0.
      0. 6.65335974e-04 1.99600798e-03 1.33067195e-03 1.33067195e-03 0.
      0. 6.65335974e-04 0. 0. 6.65335974e-04 0. 0. 3.32667981e-03 0. 0.
      0. 1.99600798e-03 2.66134390e-03 0. 0. 6.65335974e-04 0. 0.
      6.65335974e-04 3.32667981e-03 1.33067195e-03 1.33067195e-03 0. 0.
      6.65335974e-04 0. 1.33067195e-03 4.65735188e-03 6.65335974e-04 0.
      0. 6.65335974e-04 3.32667981e-03 1.33067195e-03 4.65735188e-03
      6.65335974e-04 0. 0. 1.33067195e-03 1.33067195e-03 6.65335974e-04
      1.99600798e-03 0. 0. 0. 6.65335974e-04 0. 0. 0. 0. 6.65335974e-04
      6.65335974e-04 1.33067195e-03 0. 6.65335974e-04 6.65335974e-04 0.
      0. 1.99600798e-03 6.65335974e-04 0. 6.65335974e-04 1.99600798e-03
      0. 6.65335974e-04 0. 6.65335974e-04 0. 0. 6.65335974e-04 0.
      1.99600798e-03 6.65335974e-04 6.65335974e-04 0. 0. 3.99201596e-03
      0. 0. 1.33067195e-03 0. 1.33067195e-03 1.33067195e-03 0. 0.
      1.33067195e-03 1.33067195e-03 0. 1.99600798e-03 0. 3.99201596e-03
      0. 6.65335974e-04 0. 6.65335974e-04 2.66134390e-03 0.
      6.65335974e-04 0. 0. 0. 1.99600798e-03 1.33067195e-03
      1.33067195e-03 6.65335974e-04 6.65335974e-04 0. 0. 0.
      1.33067195e-03 0. 6.65335974e-04 0. 6.65335974e-04 0.
      6.65335974e-04 1.99600798e-03 6.65335974e-04 3.32667981e-03 0. 0.
      6.65335974e-04 1.99600798e-03 2.66134390e-03 0. 1.99600798e-03
      1.33067195e-03 6.65335974e-04 3.32667981e-03 0. 0. 0. 0.
      6.65335974e-04 0. 1.33067195e-03 6.65335974e-04 6.65335974e-04 0.
      1.33067195e-03 0. 0. 1.33067195e-03 6.65335974e-04 2.66134390e-03
      2.66134390e-03 1.33067195e-03 6.65335974e-04 5.32268779e-03 0.
      1.99600798e-03 0. 6.65335974e-04 0. 0. 0. 6.65335974e-04
      3.99201596e-03 8.64936784e-03 6.65335974e-04 0. 0. 3.32667981e-03
      0. 0. 0. 0. 6.65335974e-04 0. 1.99600798e-03 0. 7.98403192e-03 0.
      1.33067195e-03 0. 6.65335974e-04 6.65335963e-03 6.65335974e-04
      3.32667981e-03 0. 6.65335974e-04 6.65335974e-04 6.65335974e-04
      6.65335974e-04 0. 1.99600798e-03 0. 0. 0. 6.65335974e-04
      1.33067195e-03 3.99201596e-03 0. 0. 2.66134390e-03 0.
      1.33067195e-03 0. 0. 0. 1.33067195e-03 6.65335974e-04 0.
      5.32268779e-03 6.65335974e-04 6.65335974e-04 0. 1.33067195e-03 0.
      1.33067195e-03 6.65335974e-04 0. 0. 6.65335974e-04 0. 0.
      6.65335974e-04 4.65735188e-03 1.99600798e-03 0. 0. 0. 0.
      1.33067195e-03 1.33067195e-03 0. 6.65335974e-04 6.65335963e-03
      6.65335974e-04 0. 0. 0. 0. 1.99600798e-03 0. 1.33067195e-03
      2.66134390e-03 0. 0. 6.65335974e-04 6.65335974e-04 3.32667981e-03
      0. 6.65335974e-04 0. 0. 0. 0. 1.33067195e-03 1.33067195e-03
      1.99600798e-03 1.33067195e-03 2.66134390e-03 5.32268779e-03 0. 0.
      0. 0. 0. 0. 1.99600798e-03 0. 1.99600798e-03 6.65335974e-04 0.
      4.65735188e-03 1.33067195e-03 0. 1.33067195e-03 0. 5.32268779e-03
      6.65335974e-04 0. 1.99600798e-03 0. 0. 0. 1.33067195e-03
      9.31470376e-03 6.65335974e-04 5.32268779e-03 0. 4.65735188e-03 0.
      6.65335974e-04 0. 1.33067195e-03 7.98403192e-03 0. 4.65735188e-03
      6.65335974e-04 0. 6.65335974e-04 1.33067195e-03 0. 0.
      6.65335974e-04 0. 6.65335974e-04 0. 6.65335974e-04 8.64936784e-03
      2.66134390e-03 6.65335974e-04 6.65335974e-04 0. 6.65335974e-04
      6.65335974e-04 1.33067195e-03 0. 6.65335974e-04 1.33067195e-03
      6.65335974e-04 0. 6.65335974e-04 6.65335974e-04 1.33067195e-03 0.
      6.65335974e-04 6.65335974e-04 6.65335974e-04 0. 6.65335974e-04
      6.65335974e-04 0. 0. 0. 0. 0. 0. 6.65335974e-04 1.33067195e-03 0.
      0. 6.65335974e-04 6.65335974e-04 6.65335974e-04 6.65335974e-04
      5.32268779e-03 0. 0. 0. 6.65335974e-04 3.99201596e-03
      6.65335974e-04 0. 1.99600798e-03 0. 0. 2.66134390e-03
      1.99600798e-03 0. 0. 0. 0. 1.99600798e-03 0. 1.33067195e-03 0. 0.
      0. 2.66134390e-03 3.32667981e-03 0. 6.65335974e-04 0.
      1.33067195e-03 6.65335974e-04 0. 1.33067195e-03 6.65335974e-04
      3.32667981e-03 6.65335974e-04 0. 0. 4.65735188e-03 6.65335974e-04
      0. 0. 6.65335974e-04 0. 6.65335974e-04 0. 6.65335974e-04
      1.33067195e-03 1.33067195e-03 0. 1.99600798e-03 1.33067195e-03 0.
      0. 1.33067195e-03 3.32667981e-03 0. 5.32268779e-03 1.33067195e-03
      0. 0. 0. 1.33067195e-03 3.99201596e-03 0. 6.65335974e-04 0.
      6.65335963e-03 1.99600798e-03 1.33067195e-03 0. 0. 0. 0. 0. 0.
      6.65335974e-04 0. 0. 0. 2.66134390e-03 1.33067195e-03 0.
      2.66134390e-03 0. 0. 6.65335974e-04 3.32667981e-03 0.
      1.99600798e-03 0. 1.33067195e-03 6.65335974e-04 0. 0. 0.
      6.65335974e-04 0. 0. 6.65335974e-04 1.33067195e-03 6.65335974e-04
      0. 6.65335974e-04 1.33067195e-03 1.33067195e-03 0. 6.65335974e-04
      1.99600798e-03 2.66134390e-03 6.65335974e-04 0. 6.65335974e-04
      6.65335974e-04 0. 7.98403192e-03 0. 6.65335974e-04 6.65335974e-04
      6.65335974e-04 6.65335974e-04 0. 0. 0. 1.99600798e-03
      1.33067195e-03 6.65335974e-04 0. 1.33067195e-03 6.65335974e-04
      1.99600798e-03 0. 0. 0. 1.33067195e-03 3.99201596e-03
      6.65335974e-04 6.65335974e-04 6.65335974e-04 0. 0. 0.
      6.65335974e-04 0. 6.65335974e-04 0. 0. 0. 0. 0. 0. 0. 0. 0.
      1.33067195e-03 1.33067195e-03 0. 1.33067195e-03 2.66134390e-03 0.
      0. 0. 0. 1.33067195e-03 0. 0. 0. 0. 6.65335974e-04 0. 0.
      6.65335974e-04 6.65335974e-04 6.65335974e-04 0. 6.65335974e-04 0.
      0. 0. 6.65335974e-04 6.65335974e-04 6.65335974e-04 3.32667981e-03
      6.65335974e-04 0. 0. 1.33067195e-03 1.33067195e-03 0.
      1.33067195e-03 6.65335974e-04 1.99600798e-03 0. 6.65335974e-04
      1.99600798e-03 0. 0. 0. 0. 0. 6.65335974e-04 1.99600798e-03
      6.65335974e-04 0. 6.65335974e-04 6.65335974e-04 0. 1.33067195e-03
      0. 0. 1.33067195e-03 0. 0. 0. 6.65335974e-04 0. 1.33067195e-03
      6.65335974e-04 0. 6.65335974e-04 6.65335974e-04 6.65335974e-04 0.
      0. 0. 0. 1.33067195e-03 6.65335974e-04 6.65335974e-04 0. 0.
      6.65335974e-04 0. 0. 0. 0. 1.33067195e-03 0. 0. 6.65335974e-04 0.
      3.99201596e-03 0. 0. 0. 6.65335974e-04 0. 1.99600798e-03
      6.65335974e-04 0. 3.32667981e-03 1.33067195e-03 6.65335974e-04 0.
      6.65335974e-04 1.33067195e-03 0. 0. 0. 0. 0. 1.99600798e-03
      6.65335974e-04 0. 1.99600798e-03 0. 1.99600798e-03 1.33067195e-03
      3.99201596e-03 0. 0. 0. 1.33067195e-03 3.32667981e-03 0. 0.
      2.66134390e-03 6.65335974e-04 0. 0. 6.65335974e-04 0.
      1.33067195e-03 1.33067195e-03 6.65335974e-04 0. 0. 6.65335974e-04
      6.65335974e-04 0. 0. 1.33067195e-03 0. 6.65335974e-04
      6.65335974e-04 0. 0. 0. 6.65335974e-04 0. 1.99600798e-03 0.
      6.65335974e-04 0. 1.33067195e-03 0. 0. 0. 6.65335974e-04 0.
      1.99600798e-03 6.65335974e-04 0. 0. 6.65335974e-04 3.99201596e-03
      2.66134390e-03 6.65335974e-04 0.</_>
    <_>
      0. 1.30718958e-03 3.92156886e-03 3.26797389e-03 1.30718958e-03
      1.30718958e-03 0. 0. 1.30718958e-03 0. 3.92156886e-03
      1.30718958e-03 6.53594790e-04 0. 5.88235306e-03 2.61437916e-03 0.
      0. 6.53594790e-04 0. 0. 6.53594790e-04 2.61437916e-03
      1.30718958e-03 3.26797389e-03 0. 1.30718958e-03 0. 6.53594790e-04
      1.96078443e-03 0. 3.26797389e-03 0. 0. 4.57516359e-03
      6.53594790e-04 1.30718958e-03 2.61437916e-03 6.53594790e-04 0.
      7.84313772e-03 0. 6.53594790e-04 0. 6.53594790e-04 1.96078443e-03
      6.53594790e-04 6.53594790e-04 2.61437916e-03 0. 0. 0.
      1.30718958e-03 6.53594790e-04 2.61437916e-03 0. 6.53594790e-04
      1.30718958e-03 0. 1.96078443e-03 1.96078443e-03 0. 6.53594790e-04
      0. 0. 0. 6.53594790e-04 6.53594790e-04 1.11111114e-02
      2.61437916e-03 1.30718958e-03 0. 3.26797389e-03 6.53594790e-04 0.
      6.53594790e-04 6.53594790e-04 6.53594790e-04 1.96078443e-03
      1.96078443e-03 6.53594790e-04 1.30718958e-03 1.30718958e-03 0. 0.
      6.53594790e-04 0. 6.53594790e-04 1.96078443e-03 3.92156886e-03
      1.30718958e-03 4.57516359e-03 6.53594790e-04 1.96078443e-03
      1.30718958e-03 0. 0. 1.30718958e-03 1.96078443e-03 0.
      6.53594790e-04 6.53594790e-04 1.30718958e-03 1.30718958e-03
      1.30718958e-03 0. 0. 0. 0. 5.88235306e-03 0. 0. 0. 0. 0. 0.
      6.53594790e-04 0. 0. 1.30718958e-03 1.96078443e-03 0.
      9.15032718e-03 0. 1.96078443e-03 6.53594790e-04 0. 6.53594790e-04
      0. 6.53594790e-04 0. 6.53594790e-04 6.53594790e-04 6.53594790e-04
      3.92156886e-03 1.96078443e-03 0. 0. 0. 6.53594790e-04
      6.53594790e-04 0. 4.57516359e-03 1.96078443e-03 1.30718958e-03 0.
      1.96078443e-03 0. 2.61437916e-03 1.96078443e-03 6.53594790e-04 0.
      6.53594790e-04 1.30718958e-03 1.30718958e-03 3.92156886e-03 0. 0.
      6.53594790e-04 6.53594790e-04 0. 8.49673245e-03 6.53594790e-04
      1.30718958e-03 4.57516359e-03 2.61437916e-03 0. 1.30718958e-03
      1.30718958e-03 1.96078443e-03 0. 0. 6.53594790e-04 1.96078443e-03
      1.30718958e-03 6.53594790e-04 6.53594790e-04 6.53594790e-04
      1.96078443e-03 0. 1.30718958e-03 3.92156886e-03 6.53594790e-04
      6.53594790e-04 0. 1.96078443e-03 2.61437916e-03 6.53594790e-04
      6.53594790e-04 0. 0. 6.53594790e-04 0. 0. 6.53594790e-04
      8.49673245e-03 0. 6.53594790e-04 2.61437916e-03 0. 0.
      6.53594790e-04 0. 0. 2.61437916e-03 6.53594790e-04 0.
      6.53594790e-04 1.96078443e-03 6.53594790e-04 0. 0. 0. 0. 0. 0. 0.
      1.96078443e-03 0. 1.30718958e-03 0. 4.57516359e-03 6.53594790e-04
      0. 0. 6.53594790e-04 1.30718958e-03 0. 6.53594790e-04
      1.96078443e-03 1.30718958e-03 2.61437916e-03 3.26797389e-03
      6.53594790e-04 6.53594790e-04 1.30718958e-03 6.53594790e-04
      1.30718958e-03 1.30718958e-03 2.61437916e-03 6.53594790e-04 0.
      6.53594790e-04 0. 1.96078443e-03 6.53594790e-04 7.18954252e-03
      3.92156886e-03 1.30718958e-03 3.26797389e-03 6.53594790e-04
      1.30718956e-02 1.30718958e-03 0. 1.30718958e-03 6.53594790e-04 0.
      0. 0. 4.57516359e-03 0. 1.96078443e-03 0. 1.30718958e-03 0.
      6.53594790e-04 0. 0. 6.53594790e-04 1.96078443e-03 0. 0.
      6.53594790e-04 1.30718958e-03 6.53594790e-04 0. 0. 1.30718958e-03
      0. 0. 0. 0. 0. 0. 1.96078443e-03 1.96078443e-03 0. 0. 0. 0.
      6.53594790e-04 1.96078443e-03 3.92156886e-03 1.96078443e-03 0.
      3.26797389e-03 0. 6.53594790e-04 6.53594790e-04 6.53594790e-04
      6.53594790e-04 0. 6.53594790e-04 6.53594790e-04 2.61437916e-03 0.
      6.53594790e-04 1.96078443e-03 6.53594790e-04 1.96078443e-03
      1.96078443e-03 0. 1.30718958e-03 6.53594790e-04 0. 0.
      6.53594790e-04 3.26797389e-03 1.30718958e-03 6.53594790e-04 0. 0.
      1.96078443e-03 6.53594790e-04 0. 0. 2.61437916e-03 0.
      6.53594790e-04 6.53594790e-04 1.30718958e-03 1.30718958e-03
      2.61437916e-03 6.53594790e-04 1.30718958e-03 6.53594790e-04 0. 0.
      6.53594790e-04 0. 0. 5.22875832e-03 1.96078443e-03 1.30718958e-03
      6.53594790e-04 1.30718958e-03 0. 6.53594790e-04 3.26797389e-03 0.
      0. 1.30718958e-03 1.30718958e-03 2.61437916e-03 1.96078443e-03 0.
      0. 6.53594790e-04 0. 0. 0. 0. 6.53594790e-04 4.57516359e-03
      6.53594790e-04 0. 0. 6.53594790e-04 0. 0. 6.53594790e-04
      1.96078443e-03 6.53594790e-04 1.30718958e-03 0. 6.53594790e-04
      6.53594790e-04 0. 0. 1.96078443e-03 6.53594790e-04 4.57516359e-03
      6.53594790e-04 0. 1.30718958e-03 3.26797389e-03 0. 0. 0.
      1.30718958e-03 0. 6.53594790e-04 6.53594790e-04 6.53594790e-04
      6.53594790e-04 1.96078443e-03 6.53594790e-04 6.53594790e-04
      6.53594790e-04 0. 1.30718958e-03 1.30718958e-03 7.84313772e-03 0.
      0. 0. 1.30718958e-03 3.26797389e-03 0. 0. 0. 6.53594790e-04 0.
      1.30718958e-03 0. 6.53594790e-04 0. 6.53594790e-04 0. 0.
      1.30718958e-03 6.53594790e-04 6.53594790e-04 2.61437916e-03 0.
      1.30718958e-03 6.53594790e-04 6.53594790e-04 6.53594790e-04
      1.96078443e-03 1.30718958e-03 6.53594790e-04 6.53594790e-04 0.
      3.26797389e-03 0. 6.53594790e-04 0. 0. 7.18954252e-03 0.
      6.53594790e-04 0. 6.53594790e-04 0. 1.96078443e-03 6.53594790e-04
      1.30718958e-03 6.53594790e-04 1.96078443e-03 6.53594790e-04
      6.53594790e-04 1.30718958e-03 6.53594790e-04 0. 0. 0. 0. 0.
      1.30718958e-03 6.53594790e-04 6.53594790e-04 1.30718958e-03 0. 0.
      0. 1.96078443e-03 1.30718958e-03 6.53594790e-04 0. 6.53594790e-04
      1.30718958e-03 2.61437916e-03 6.53594790e-04 0. 0. 0.
      1.30718958e-03 2.61437916e-03 2.61437916e-03 0. 6.53594790e-04
      6.53594790e-04 1.96078443e-03 6.53594790e-04 3.92156886e-03
      1.30718958e-03 0. 1.30718958e-03 6.53594790e-04 1.30718958e-03 0.
      5.88235306e-03 0. 1.30718958e-03 1.30718958e-03 1.96078443e-03
      6.53594790e-04 0. 6.53594790e-04 1.30718958e-03 1.30718958e-03 0.
      1.30718958e-03 6.53594790e-04 1.30718958e-03 2.61437916e-03
      1.30718958e-03 1.96078443e-03 6.53594790e-04 0. 6.53594790e-04 0.
      0. 1.30718958e-03 3.92156886e-03 6.53594790e-04 6.53594790e-04
      6.53594790e-04 3.26797389e-03 2.61437916e-03 1.30718958e-03
      6.53594790e-04 0. 6.53594790e-04 0. 6.53594790e-04 0. 0. 0. 0. 0.
      6.53594790e-04 6.53594790e-04 1.30718958e-03 2.61437916e-03
      6.53594790e-04 6.53594790e-04 0. 6.53594790e-04 0. 1.30718958e-03
      6.53594790e-04 1.30718958e-03 6.53594790e-04 2.61437916e-03
      6.53594790e-04 7.18954252e-03 6.53594790e-04 1.30718958e-03
      6.53594790e-04 1.30718958e-03 0. 0. 2.61437916e-03 6.53594790e-04
      0. 6.53594790e-04 0. 0. 1.30718958e-03 1.30718958e-03 0.
      1.30718958e-03 6.53594790e-04 1.30718958e-03 0. 6.53594790e-04 0.
      6.53594790e-04 6.53594790e-04 6.53594790e-04 1.30718958e-03
      6.53594790e-04 2.61437916e-03 1.30718958e-03 0. 0. 1.30718958e-03
      6.53594790e-04 6.53594790e-04 6.53594790e-04 1.96078443e-03
      6.53594790e-04 1.30718958e-03 6.53594790e-04 6.53594790e-04 0.
      1.96078443e-03 6.53594790e-04 6.53594790e-04 0. 0. 6.53594790e-04
      0. 1.96078443e-03 3.26797389e-03 1.96078443e-03 6.53594790e-04 0.
      0. 6.53594790e-04 6.53594790e-04 0. 1.30718958e-03 2.61437916e-03
      2.61437916e-03 0. 6.53594790e-04 6.53594779e-03 6.53594790e-04 0.
      1.30718958e-03 0. 0. 0. 6.53594790e-04 6.53594790e-04 0.
      1.96078443e-03 0. 0. 6.53594790e-04 6.53594790e-04 3.92156886e-03
      0. 1.30718958e-03 0. 6.53594790e-04 6.53594790e-04 6.53594790e-04
      4.57516359e-03 0. 1.96078443e-03 0. 0. 3.92156886e-03
      6.53594790e-04 0. 1.96078443e-03 0. 6.53594790e-04 6.53594790e-04
      1.30718958e-03 0. 1.96078443e-03 6.53594790e-04 0. 1.96078443e-03
      1.30718958e-03 0. 4.57516359e-03 1.96078443e-03 1.30718958e-03
      6.53594790e-04 6.53594790e-04 0. 6.53594790e-04 0. 6.53594790e-04
      0. 0. 6.53594790e-04 0. 3.26797389e-03 0. 7.84313772e-03 0.
      6.53594790e-04 0. 0. 0. 0. 1.30718958e-03 1.96078443e-03 0.
      6.53594790e-04 1.30718958e-03 6.53594790e-04 1.96078443e-03
      1.30718958e-03 0. 6.53594790e-04 0. 0. 0. 5.22875832e-03
      1.30718958e-03 1.96078443e-03 0. 1.30718958e-03 6.53594790e-04 0.
      0. 0. 6.53594790e-04 0. 0. 1.30718958e-03 4.57516359e-03 0.
      1.30718958e-03 6.53594790e-04 2.61437916e-03 6.53594790e-04
      1.96078443e-03 6.53594790e-04 0. 1.30718958e-03 1.30718958e-03
      2.61437916e-03 0. 6.53594790e-04 6.53594790e-04 1.96078443e-03
      1.96078443e-03 0. 0. 1.96078443e-03 2.61437916e-03 1.96078443e-03
      1.30718958e-03 6.53594790e-04 6.53594790e-04 6.53594790e-04 0. 0.
      1.30718958e-03 0. 6.53594790e-04 6.53594790e-04 3.26797389e-03 0.
      1.30718958e-03 1.30718958e-03 1.30718958e-03 0. 0. 3.26797389e-03
      1.96078443e-03 6.53594790e-04 0. 0. 0. 6.53594790e-04 0. 0.
      1.96078443e-03 5.22875832e-03 0. 6.53594790e-04 1.30718958e-03
      6.53594790e-04 0. 0. 1.30718958e-03 0. 1.30718958e-03
      6.53594790e-04 1.96078443e-03 0. 4.57516359e-03 6.53594790e-04
      6.53594790e-04 6.53594790e-04 6.53594790e-04 0. 1.30718958e-03
      1.96078443e-03 6.53594790e-04 0. 6.53594790e-04 0. 0. 0. 0. 0.
      1.30718958e-03 6.53594790e-04 2.61437916e-03 0. 0. 0. 0. 0. 0.
      6.53594790e-04 6.53594790e-04 1.30718958e-03 6.53594790e-04
      3.26797389e-03 0. 1.30718958e-03 6.53594790e-04 0. 0.
      6.53594790e-04 6.53594790e-04 1.30718958e-03 6.53594790e-04
      1.30718958e-03 1.96078443e-03 6.53594790e-04 0. 6.53594790e-04
      6.53594790e-04 1.30718958e-03 0. 6.53594790e-04 0. 6.53594790e-04
      0. 0. 6.53594790e-04 0. 6.53594790e-04 3.26797389e-03
      7.18954252e-03 0. 6.53594790e-04 6.53594790e-04 2.61437916e-03
      1.30718958e-03 0. 6.53594790e-04 0. 6.53594790e-04 0.
      6.53594790e-04 0. 1.30718958e-03 1.30718958e-03 6.53594790e-04
      6.53594790e-04 6.53594790e-04 0. 1.96078443e-03 6.53594790e-04 0.
      0. 0. 0. 6.53594790e-04 1.96078443e-03 6.53594790e-04 0. 0. 0. 0.
      1.30718958e-03 0. 0. 0. 0. 0. 0. 0. 0. 6.53594790e-04 0. 0.
      1.30718958e-03 6.53594790e-04 4.57516359e-03 0. 6.53594790e-04
      1.30718958e-03 6.53594790e-04 1.30718958e-03 6.53594790e-04 0.
      1.30718958e-03 1.96078443e-03 0. 1.30718958e-03 6.53594790e-04 0.
      0. 1.30718958e-03 5.88235306e-03 0. 0. 6.53594790e-04
      6.53594790e-04 1.96078443e-03 1.30718958e-03 0. 0. 1.30718958e-03
      6.53594790e-04 6.53594790e-04 0. 0. 1.30718958e-03 0.
      1.30718958e-03 1.30718958e-03 0. 1.30718958e-03 0. 3.26797389e-03
      2.61437916e-03 1.96078443e-03 6.53594790e-04 6.53594790e-04 0. 0.
      3.92156886e-03 0. 0. 3.26797389e-03 4.57516359e-03 6.53594790e-04
      0. 3.92156886e-03 6.53594790e-04 6.53594790e-04 0. 0.
      6.53594790e-04 0. 1.30718958e-03 6.53594790e-04 6.53594790e-04
      1.96078443e-03 6.53594790e-04 1.96078443e-03 0. 1.30718958e-03
      1.30718958e-03 6.53594790e-04 1.96078443e-03 2.61437916e-03
      1.30718958e-03 6.53594790e-04 6.53594790e-04 1.30718958e-03 0.
      6.53594790e-04 1.96078443e-03 2.61437916e-03 0. 0. 1.30718958e-03
      0. 0. 6.53594790e-04 0. 1.96078443e-03 6.53594790e-04
      1.30718958e-03 1.30718958e-03 6.53594790e-04 6.53594790e-04
      5.88235306e-03 0. 6.53594790e-04 3.92156886e-03 1.30718958e-03
      6.53594790e-04 1.30718958e-03 6.53594790e-04 0. 3.92156886e-03
      1.96078443e-03 6.53594790e-04 6.53594790e-04 0. 1.30718958e-03 0.
      0. 1.96078443e-03 0. 1.30718958e-03 1.30718958e-03 6.53594790e-04
      6.53594790e-04 0. 0. 4.57516359e-03 6.53594790e-04 3.92156886e-03
      0. 0. 0. 6.53594790e-04 6.53594790e-04 6.53594790e-04
      1.30718958e-03 6.53594790e-04 0. 6.53594790e-04 0. 1.30718958e-03
      6.53594790e-04 0. 0. 1.96078443e-03 6.53594790e-04 0.</_>
    <_>
      0. 0. 1.85701018e-03 0. 1.85701018e-03 1.85701018e-03 0.
      9.28505091e-04 0. 9.28505091e-04 7.42804073e-03 0. 0.
      9.28505091e-04 2.78551527e-03 9.28505091e-04 1.85701018e-03 0. 0.
      9.28505091e-04 9.28505091e-04 2.78551527e-03 0. 2.78551527e-03 0.
      9.28505091e-04 2.78551527e-03 0. 1.85701018e-03 0. 0. 0. 0.
      1.85701018e-03 9.28505091e-04 0. 0. 4.64252569e-03 1.85701018e-03
      9.28505091e-04 1.85701018e-03 0. 0. 0. 2.78551527e-03
      2.78551527e-03 9.28505091e-04 9.28505091e-04 9.28505091e-04
      2.78551527e-03 0. 9.28505091e-04 0. 3.71402036e-03 0. 0. 0.
      2.78551527e-03 1.85701018e-03 0. 0. 9.28505091e-04 0. 0. 0.
      9.28505091e-04 9.28505091e-04 0. 1.02135558e-02 1.85701018e-03
      9.28505091e-04 0. 0. 1.85701018e-03 0. 0. 0. 9.28505091e-04 0. 0.
      0. 0. 0. 0. 9.28505091e-04 0. 0. 0. 0. 2.78551527e-03
      1.85701018e-03 0. 9.28505091e-04 0. 0. 0. 0. 1.85701018e-03 0.
      2.78551527e-03 2.78551527e-03 5.57103055e-03 0. 1.85701018e-03 0.
      0. 9.28505091e-04 0. 1.85701018e-03 8.35654605e-03 0. 0. 0. 0.
      9.28505091e-04 0. 0. 0. 0. 2.50696372e-02 9.28505091e-04 0.
      6.49953540e-03 0. 2.78551527e-03 9.28505091e-04 9.28505091e-04
      9.28505091e-04 0. 0. 0. 1.85701018e-03 9.28505091e-04 0.
      8.35654605e-03 1.02135558e-02 9.28505091e-04 0. 0. 0. 0. 0.
      1.85701018e-03 0. 1.85701018e-03 2.78551527e-03 9.28505091e-04
      3.71402036e-03 4.64252569e-03 9.28505138e-03 9.28505091e-04 0.
      1.85701018e-03 9.28505091e-04 1.85701018e-03 2.78551527e-03
      1.85701018e-03 9.28505091e-04 0. 0. 0. 4.64252569e-03 0.
      2.78551527e-03 3.71402036e-03 2.78551527e-03 0. 0. 2.78551527e-03
      1.85701018e-03 0. 9.28505091e-04 0. 9.28505091e-04 9.28505091e-04
      1.85701018e-03 0. 2.78551527e-03 9.28505091e-04 1.85701018e-03 0.
      1.85701018e-03 0. 9.28505091e-04 0. 9.28505091e-04 0.
      9.28505091e-04 0. 0. 0. 0. 0. 1.85701018e-03 9.28505091e-04
      1.02135558e-02 1.85701018e-03 1.85701018e-03 0. 9.28505091e-04
      9.28505091e-04 0. 0. 9.28505091e-04 9.28505091e-04 1.85701018e-03
      0. 0. 0. 9.28505091e-04 2.78551527e-03 9.28505091e-04
      9.28505091e-04 0. 3.71402036e-03 0. 4.64252569e-03 9.28505091e-04
      1.85701018e-03 9.28505091e-04 0. 9.28505091e-04 0. 9.28505091e-04
      0. 0. 0. 0. 0. 0. 9.28505091e-04 0. 0. 9.28505091e-04 0.
      1.85701018e-03 9.28505091e-04 1.85701018e-03 9.28505091e-04
      1.29990708e-02 9.28505091e-04 2.78551527e-03 9.28505091e-04 0.
      1.85701018e-03 2.78551527e-03 3.71402036e-03 0. 9.28505091e-04 0.
      0. 8.35654605e-03 0. 9.28505091e-04 0. 0. 0. 0. 1.85701018e-03
      7.42804073e-03 0. 3.71402036e-03 0. 9.28505091e-04 9.28505091e-04
      0. 0. 0. 9.28505091e-04 0. 0. 0. 0. 3.71402036e-03 0.
      9.28505091e-04 0. 0. 0. 0. 9.28505091e-04 0. 1.85701018e-03 0.
      3.71402036e-03 1.85701018e-03 0. 1.85701018e-03 9.28505091e-04
      2.78551527e-03 0. 9.28505091e-04 9.28505091e-04 9.28505091e-04
      9.28505091e-04 3.71402036e-03 0. 3.71402036e-03 0. 9.28505138e-03
      0. 9.28505091e-04 9.28505091e-04 0. 2.78551527e-03 0.
      9.28505091e-04 2.78551527e-03 9.28505091e-04 0. 1.85701018e-03 0.
      1.85701018e-03 9.28505091e-04 0. 0. 0. 0. 9.28505091e-04 0. 0. 0.
      0. 0. 0. 9.28505091e-04 9.28505091e-04 9.28505091e-04 0. 0. 0. 0.
      1.11420611e-02 0. 1.85701018e-03 0. 0. 4.64252569e-03
      9.28505091e-04 9.28505091e-04 0. 1.85701018e-03 0. 0. 0. 0. 0. 0.
      0. 9.28505091e-04 0. 0. 0. 9.28505091e-04 0. 9.28505091e-04 0.
      9.28505091e-04 9.28505091e-04 9.28505091e-04 0. 0. 0.
      4.64252569e-03 0. 0. 0. 1.85701018e-03 9.28505091e-04
      9.28505091e-04 9.28505091e-04 1.85701018e-03 0. 9.28505091e-04 0.
      0. 9.28505091e-04 9.28505091e-04 1.85701018e-03 0. 0.
      4.64252569e-03 2.78551527e-03 0. 1.85701018e-03 9.28505091e-04
      9.28505091e-04 0. 0. 9.28505091e-04 0. 0. 0. 0. 0. 0. 0. 0. 0. 0.
      9.28505091e-04 0. 0. 0. 0. 0. 1.85701018e-03 0. 0. 0. 0. 0. 0. 0.
      0. 9.28505091e-04 0. 0. 0. 1.85701018e-03 4.64252569e-03 0. 0.
      9.28505091e-04 9.28505091e-04 0. 2.78551527e-03 1.85701018e-03
      1.85701018e-03 0. 2.78551527e-03 1.85701018e-03 1.85701018e-03 0.
      3.71402036e-03 0. 0. 1.85701018e-03 0. 1.39275761e-02 0. 0. 0. 0.
      0. 0. 9.28505091e-04 9.28505091e-04 0. 0. 0. 0. 0. 9.28505091e-04
      9.28505091e-04 9.28505091e-04 0. 9.28505091e-04 9.28505091e-04 0.
      9.28505091e-04 9.28505091e-04 0. 2.78551527e-03 9.28505091e-04 0.
      9.28505091e-04 1.85701018e-03 9.28505091e-04 0. 1.85701018e-03
      9.28505091e-04 0. 0. 0. 0. 0. 0. 1.85701018e-03 0. 1.85701018e-03
      0. 0. 0. 1.85701018e-03 0. 0. 9.28505091e-04 9.28505091e-04
      9.28505091e-04 0. 0. 3.71402036e-03 0. 1.85701018e-03 0.
      9.28505091e-04 0. 1.85701018e-03 0. 0. 9.28505091e-04
      2.78551527e-03 0. 9.28505091e-04 9.28505091e-04 0. 0.
      3.71402036e-03 1.85701018e-03 0. 9.28505091e-04 9.28505091e-04
      1.85701018e-03 9.28505091e-04 9.28505091e-04 0. 1.85701018e-03
      9.28505091e-04 9.28505091e-04 1.85701018e-03 0. 0. 0. 0.
      9.28505091e-04 0. 0. 1.85701018e-03 0. 1.85701018e-03 0. 0.
      1.85701018e-03 1.85701018e-03 9.28505091e-04 0. 9.28505091e-04
      4.64252569e-03 0. 9.28505091e-04 0. 0. 0. 0. 9.28505091e-04
      9.28505091e-04 3.71402036e-03 0. 1.85701018e-03 1.85701018e-03
      2.78551527e-03 0. 9.28505091e-04 1.85701018e-03 0. 9.28505091e-04
      0. 0. 0. 0. 3.71402036e-03 0. 9.28505091e-04 0. 2.78551527e-03
      9.28505091e-04 9.28505091e-04 0. 0. 6.49953540e-03 1.85701018e-03
      9.28505091e-04 9.28505091e-04 0. 9.28505091e-04 9.28505091e-04
      9.28505091e-04 0. 0. 9.28505091e-04 0. 0. 1.85701018e-03 0.
      9.28505091e-04 0. 0. 0. 0. 2.78551527e-03 0. 0. 0. 8.35654605e-03
      0. 9.28505091e-04 9.28505091e-04 9.28505091e-04 0. 0. 0. 0.
      1.85701018e-03 0. 9.28505091e-04 0. 9.28505091e-04 9.28505091e-04
      3.71402036e-03 9.28505091e-04 0. 2.78551527e-03 0. 0. 0. 0.
      1.85701018e-03 0. 0. 1.85701018e-03 9.28505091e-04 3.71402036e-03
      0. 2.78551527e-03 1.85701018e-03 2.78551527e-03 0. 9.28505091e-04
      0. 1.85701018e-03 9.28505091e-04 0. 0. 0. 0. 9.28505091e-04 0. 0.
      9.28505091e-04 0. 0. 3.71402036e-03 9.28505091e-04 1.85701018e-03
      1.85701018e-03 0. 0. 4.64252569e-03 0. 0. 0. 0. 3.71402036e-03
      1.85701018e-03 0. 0. 9.28505091e-04 6.49953540e-03 0. 0.
      1.85701018e-03 9.28505091e-04 0. 0. 0. 0. 0. 0. 0. 9.28505091e-04
      0. 9.28505091e-04 9.28505091e-04 2.78551527e-03 0. 1.85701018e-03
      0. 0. 9.28505091e-04 0. 0. 0. 2.78551527e-03 9.28505091e-04 0.
      9.28505091e-04 9.28505091e-04 1.85701018e-03 0. 2.78551527e-03
      9.28505091e-04 0. 1.85701018e-03 9.28505091e-04 9.28505091e-04 0.
      0. 9.28505091e-04 0. 9.28505091e-04 9.28505091e-04 0. 0.
      9.28505091e-04 2.78551527e-03 8.35654605e-03 0. 0. 0. 0. 0.
      9.28505091e-04 0. 9.28505091e-04 9.28505091e-04 0. 0.
      9.28505091e-04 9.28505091e-04 9.28505091e-04 9.28505091e-04 0.
      5.57103055e-03 1.85701018e-03 0. 0. 0. 1.85701018e-03 0. 0. 0. 0.
      1.85701018e-03 0. 9.28505091e-04 2.78551527e-03 0. 9.28505091e-04
      9.28505091e-04 2.78551527e-03 0. 0. 9.28505091e-04 3.71402036e-03
      0. 0. 9.28505091e-04 4.64252569e-03 0. 0. 0. 0. 3.71402036e-03 0.
      0. 0. 1.85701018e-03 0. 9.28505091e-04 0. 2.78551527e-03
      9.28505091e-04 0. 1.85701018e-03 0. 9.28505091e-04 0. 0. 0.
      9.28505091e-04 0. 9.28505091e-04 0. 9.28505091e-04 0. 0. 0.
      9.28505091e-04 9.28505091e-04 0. 9.28505091e-04 9.28505091e-04
      9.28505091e-04 0. 0. 9.28505091e-04 9.28505091e-04 9.28505091e-04
      0. 9.28505091e-04 0. 9.28505091e-04 1.85701018e-03 0. 0.
      9.28505091e-04 9.28505091e-04 0. 0. 1.85701018e-03 0. 0.
      9.28505091e-04 9.28505091e-04 9.28505091e-04 0. 0. 0. 0.
