<?xml version="1.0"?>
<opencv_storage>
<opencv_ml_svm>
  <format>3</format>
  <svmType>C_SVC</svmType>
  <kernel>
    <type>RBF</type>
    <gamma>5.0625000000000009e-01</gamma></kernel>
  <C>3.1250000000000000e+02</C>
  <term_criteria><iterations>1000</iterations></term_criteria>
  <var_count>1000</var_count>
  <class_count>2</class_count>
  <class_labels type_id="opencv-matrix">
    <rows>2</rows>
    <cols>1</cols>
    <dt>i</dt>
    <data>
      0 1</data></class_labels>
  <sv_total>240</sv_total>
  <support_vectors>
    <_>
      0. 0. 0. 7.63358781e-03 0. 0. 0. 0. 0. 0. 7.63358781e-03 0. 0. 0.
      0. 0. 0. 0. 0. 0. 0. 0. 0. 0. 0. 0. 0. 0. 0. 0. 0. 0. 0. 0. 0. 0.
      0. 0. 0. 0. 0. 0. 0. 0. 0. 0. 0. 0. 0. 0. 0. 0. 0. 0. 0. 0. 0. 0.
      0. 0. 0. 0. 7.63358781e-03 0. 0. 0. 0. 0. 0. 1.52671756e-02
      1.52671756e-02 0. 0. 7.63358781e-03 0. 0. 0. 0. 0. 0. 0. 0. 0. 0.
      0. 0. 0. 0. 0. 0. 0. 0. 0. 0. 7.63358781e-03 0. 0. 0. 0. 0.
      2.29007639e-02 0. 0. 0. 0. 0. 0. 0. 0. 7.63358781e-03 0. 0. 0. 0.
      0. 0. 0. 0. 0. 0. 0. 0. 7.63358781e-03 0. 0. 0. 0. 0. 0. 0. 0. 0.
      0. 0. 0. 1.52671756e-02 0. 7.63358781e-03 0. 0. 0. 0. 0. 0. 0. 0.
      0. 0. 0. 0. 0. 0. 0. 7.63358781e-03 0. 0. 1.52671756e-02 0. 0. 0.
      0. 0. 0. 0. 0. 1.52671756e-02 0. 0. 0. 7.63358781e-03 0. 0. 0. 0.
      0. 0. 0. 0. 0. 0. 0. 0. 0. 0. 0. 0. 0. 0. 0. 0. 0. 0. 0. 0. 0. 0.
      7.63358781e-03 0. 0. 0. 0. 0. 0. 0. 0. 7.63358781e-03 0. 0. 0. 0.
      0. 0. 0. 0. 7.63358781e-03 0. 0. 0. 7.63358781e-03 0. 0. 0. 0. 0.
      0. 0. 0. 0. 1.52671756e-02 0. 0. 0. 0. 0. 0. 0. 0. 0. 0. 0. 0. 0.
      0. 7.63358781e-03 0. 0. 0. 0. 0. 0. 0. 0. 0. 0. 0. 0. 0. 0. 0. 0.
      0. 0. 0. 0. 0. 0. 0. 7.63358781e-03 1.52671756e-02 0. 0. 0. 0. 0.
      0. 0. 7.63358781e-03 0. 0. 0. 0. 0. 0. 7.63358781e-03 0. 0.
      7.63358781e-03 0. 7.63358781e-03 0. 0. 0. 0. 0. 0. 0. 0.
      2.29007639e-02 0. 0. 0. 7.63358781e-03 0. 0. 0. 0. 0. 0.
      7.63358781e-03 0. 7.63358781e-03 0. 0. 0. 0. 0. 0. 0. 0. 0. 0. 0.
      0. 0. 0. 0. 0. 0. 0. 7.63358781e-03 7.63358781e-03 0. 0. 0. 0. 0.
      1.52671756e-02 0. 0. 0. 0. 0. 0. 0. 0. 0. 0. 0. 0. 0. 0. 0. 0.
      7.63358781e-03 0. 0. 0. 0. 0. 0. 0. 0. 0. 0. 7.63358781e-03 0.
      7.63358781e-03 0. 7.63358781e-03 7.63358781e-03 0. 0. 0. 0. 0. 0.
      0. 7.63358781e-03 0. 0. 0. 0. 1.52671756e-02 0. 7.63358781e-03 0.
      0. 0. 0. 0. 0. 0. 0. 0. 0. 0. 0. 0. 0. 0. 0. 0. 0. 0. 0. 0. 0. 0.
      2.29007639e-02 0. 0. 0. 0. 0. 0. 0. 1.52671756e-02 1.52671756e-02
      0. 0. 0. 0. 0. 7.63358781e-03 0. 0. 0. 0. 0. 0. 0. 7.63358781e-03
      0. 0. 0. 0. 0. 0. 0. 0. 0. 0. 0. 0. 0. 0. 0. 0. 0. 0. 0. 0. 0.
      1.52671756e-02 7.63358781e-03 0. 0. 0. 0. 0. 0. 7.63358781e-03 0.
      0. 0. 0. 0. 0. 0. 0. 0. 0. 0. 0. 0. 0. 0. 0. 0. 0. 0. 0. 0. 0. 0.
      0. 0. 0. 0. 0. 0. 7.63358781e-03 0. 0. 0. 0. 0. 0. 0. 0. 0.
      2.29007639e-02 0. 0. 0. 0. 0. 0. 7.63358781e-03 0. 0. 0. 0. 0. 0.
      0. 0. 0. 0. 0. 0. 0. 0. 0. 0. 0. 0. 0. 7.63358781e-03 0. 0. 0. 0.
      7.63358781e-03 7.63358781e-03 1.52671756e-02 0. 0. 0. 0. 0. 0. 0.
      0. 0. 0. 0. 0. 7.63358781e-03 0. 0. 0. 0. 0. 0. 0. 0. 0.
      7.63358781e-03 0. 0. 0. 0. 0. 0. 0. 0. 0. 0. 0. 0. 0.
      1.52671756e-02 0. 0. 0. 0. 0. 0. 0. 0. 0. 0. 1.52671756e-02
      7.63358781e-03 0. 0. 0. 0. 0. 0. 0. 0. 0. 7.63358781e-03 0. 0. 0.
      0. 0. 0. 0. 0. 0. 0. 0. 0. 0. 0. 0. 0. 0. 0. 0. 0. 0. 0.
      7.63358781e-03 0. 0. 0. 0. 0. 0. 0. 0. 7.63358781e-03
      7.63358781e-03 0. 0. 0. 0. 0. 0. 0. 0. 0. 0. 0. 0. 0. 0. 0. 0. 0.
      0. 0. 0. 7.63358781e-03 0. 0. 0. 0. 0. 0. 0. 0. 0. 0. 0. 0. 0. 0.
      0. 0. 0. 0. 0. 0. 0. 0. 0. 0. 0. 0. 0. 0. 0. 0. 7.63358781e-03 0.
      0. 0. 0. 7.63358781e-03 0. 0. 0. 0. 0. 0. 0. 0. 2.29007639e-02 0.
      0. 0. 0. 0. 0. 0. 0. 7.63358781e-03 0. 0. 0. 0. 0. 0. 0. 0. 0. 0.
      0. 0. 0. 0. 0. 0. 0. 0. 0. 0. 0. 0. 0. 7.63358781e-03 0. 0. 0. 0.
      0. 7.63358781e-03 0. 0. 0. 0. 0. 0. 1.52671756e-02 0. 0. 0. 0.
      7.63358781e-03 0. 7.63358781e-03 0. 0. 0. 0. 0. 0. 0. 0.
      7.63358781e-03 0. 0. 0. 0. 0. 0. 7.63358781e-03 0. 0. 0. 0. 0. 0.
      0. 0. 7.63358781e-03 0. 0. 0. 0. 0. 0. 0. 0. 0. 0. 0. 0. 0. 0. 0.
      0. 0. 0. 0. 0. 0. 0. 0. 0. 7.63358781e-03 0. 0. 0. 7.63358781e-03
      1.52671756e-02 0. 0. 0. 0. 0. 7.63358781e-03 0. 0. 0. 0.
      7.63358781e-03 0. 0. 0. 7.63358781e-03 7.63358781e-03 0. 0. 0. 0.
      0. 0. 0. 0. 0. 7.63358781e-03 0. 0. 0. 0. 0. 0. 0. 0. 0. 0. 0. 0.
      0. 0. 0. 0. 0. 0. 0. 0. 0. 0. 0. 0. 0. 0. 0. 0. 0. 0. 0. 0. 0. 0.
      0. 0. 0. 0. 0. 0. 0. 0. 0. 0. 0. 0. 0. 0. 0. 0. 0. 0. 0. 0. 0.
      7.63358781e-03 0. 0. 1.52671756e-02 0. 0. 0. 0. 0. 0. 0. 0. 0. 0.
      0. 0. 0. 0. 0. 0. 0. 0. 0. 0. 0. 0. 1.52671756e-02 0. 0. 0. 0. 0.
      0. 0. 0. 0. 0. 0. 0. 0. 7.63358781e-03 0. 0. 0. 0. 0.
      7.63358781e-03 0. 0. 0. 0. 0. 0. 0. 0. 7.63358781e-03 0. 0. 0. 0.
      0. 0. 7.63358781e-03 0. 0. 0. 0. 0. 0. 0. 0. 0. 0. 0. 0. 0. 0. 0.
      0. 0. 1.52671756e-02 0. 0. 0. 0. 0. 0. 0. 0. 0. 0. 0. 0. 0.
      7.63358781e-03 0. 0. 0. 1.52671756e-02 0. 0. 0. 7.63358781e-03 0.
      0. 0. 0. 7.63358781e-03 0. 0. 0. 0. 0. 0. 0. 0. 0.</_>
    <_>
      0. 0. 0. 0. 0. 4.16666688e-03 0. 0. 0. 0. 0. 0. 0. 4.16666688e-03
      0. 0. 0. 0. 0. 0. 0. 0. 0. 0. 0. 0. 0. 0. 0. 0. 0. 0.
      4.16666688e-03 0. 0. 0. 0. 4.16666688e-03 8.33333377e-03 0. 0. 0.
      0. 0. 0. 4.16666688e-03 4.16666688e-03 0. 4.16666688e-03 0. 0. 0.
      0. 0. 0. 0. 0. 0. 0. 0. 0. 4.16666688e-03 1.25000011e-02
      4.16666688e-03 0. 4.16666688e-03 4.16666688e-03 0. 8.33333377e-03
      0. 0. 4.16666688e-03 0. 0. 0. 0. 0. 0. 0. 0. 0. 0. 0. 0. 0. 0. 0.
      0. 0. 4.16666688e-03 0. 0. 0. 0. 0. 0. 0. 0. 4.16666688e-03 0. 0.
      4.16666688e-03 0. 0. 0. 0. 0. 0. 0. 0. 0. 0. 0. 0. 0. 0.
      4.16666688e-03 0. 0. 0. 0. 0. 0. 0. 0. 0. 0. 0. 0. 0. 0.
      4.16666688e-03 0. 0. 0. 0. 0. 0. 0. 0. 0. 0. 0. 4.16666688e-03 0.
      0. 4.16666688e-03 0. 0. 0. 0. 0. 1.25000011e-02 0. 0.
      8.33333377e-03 8.33333377e-03 0. 0. 0. 0. 0. 0. 4.16666688e-03 0.
      4.16666688e-03 0. 0. 0. 8.33333377e-03 0. 0. 0. 0. 0. 0.
      4.16666688e-03 0. 0. 0. 0. 0. 0. 0. 4.16666688e-03 0. 0.
      4.16666688e-03 0. 0. 0. 0. 0. 4.16666688e-03 0. 0. 0. 0. 0.
      4.16666688e-03 0. 0. 0. 0. 0. 4.16666688e-03 0. 4.16666688e-03 0.
      0. 8.33333377e-03 0. 0. 0. 4.16666688e-03 0. 0. 0. 8.33333377e-03
      0. 0. 4.16666688e-03 0. 0. 0. 4.16666688e-03 0. 0. 8.33333377e-03
      2.08333340e-02 0. 0. 0. 4.16666688e-03 0. 0. 0. 0. 0. 0. 0. 0. 0.
      0. 0. 0. 0. 0. 0. 4.16666688e-03 4.16666688e-03 0. 0. 0.
      8.33333377e-03 0. 0. 0. 0. 0. 0. 0. 0. 0. 8.33333377e-03 0. 0. 0.
      8.33333377e-03 0. 0. 0. 0. 0. 8.33333377e-03 0. 0. 0. 0. 0. 0. 0.
      0. 4.16666688e-03 0. 0. 0. 0. 0. 0. 0. 4.16666688e-03 0. 0. 0.
      1.25000011e-02 0. 4.16666688e-03 0. 0. 0. 1.66666675e-02 0. 0. 0.
      0. 4.16666688e-03 0. 0. 0. 0. 0. 0. 0. 4.16666688e-03 0. 0. 0. 0.
      0. 0. 0. 0. 4.16666688e-03 0. 0. 0. 0. 0. 0. 4.16666688e-03 0. 0.
      0. 0. 4.16666688e-03 4.16666688e-03 0. 0. 8.33333377e-03 0. 0. 0.
      0. 0. 4.16666688e-03 0. 4.16666688e-03 0. 0. 0. 0. 0. 0.
      4.16666688e-03 0. 4.16666688e-03 0. 0. 0. 0. 0. 0. 0. 0. 0.
      8.33333377e-03 0. 0. 0. 4.16666688e-03 0. 0. 0. 0. 4.16666688e-03
      0. 0. 0. 0. 0. 0. 8.33333377e-03 0. 8.33333377e-03 0. 0. 0. 0. 0.
      4.16666688e-03 4.16666688e-03 0. 0. 0. 0. 0. 0. 0. 0. 0. 0. 0. 0.
      0. 0. 0. 0. 4.16666688e-03 0. 0. 0. 0. 0. 0. 0. 0. 0. 0.
      4.16666688e-03 0. 0. 0. 0. 8.33333377e-03 0. 0. 0. 4.16666688e-03
      0. 0. 0. 8.33333377e-03 0. 0. 0. 0. 4.16666688e-03 0.
      4.16666688e-03 0. 0. 0. 0. 0. 0. 0. 4.16666688e-03 0. 0. 0. 0. 0.
      0. 8.33333377e-03 0. 0. 4.16666688e-03 0. 0. 0. 0. 0. 0. 0. 0. 0.
      0. 0. 0. 0. 0. 0. 4.16666688e-03 0. 0. 0. 0. 0. 0. 0. 0. 0. 0. 0.
      0. 0. 0. 0. 0. 0. 4.16666688e-03 0. 0. 0. 0. 0. 0. 0.
      4.16666688e-03 0. 4.16666688e-03 0. 0. 0. 0. 0. 0. 0. 0. 0. 0.
      4.16666688e-03 4.16666688e-03 4.16666688e-03 4.16666688e-03 0. 0.
      0. 0. 0. 0. 0. 0. 0. 0. 0. 0. 0. 0. 4.16666688e-03 4.16666688e-03
      0. 8.33333377e-03 0. 8.33333377e-03 0. 0. 0. 0. 0. 0. 0. 0. 0. 0.
      0. 0. 4.16666688e-03 4.16666688e-03 4.16666688e-03 0. 0. 0. 0.
      4.16666688e-03 0. 0. 0. 0. 0. 0. 0. 4.16666688e-03 0. 0. 0. 0. 0.
      0. 0. 0. 0. 0. 0. 0. 4.16666688e-03 0. 0. 0. 0. 0. 0. 0. 0. 0. 0.
      0. 0. 0. 0. 0. 4.16666688e-03 0. 4.16666688e-03 0. 0. 0.
      4.16666688e-03 0. 8.33333377e-03 4.16666688e-03 0. 0. 0. 0. 0. 0.
      0. 0. 0. 4.16666688e-03 0. 0. 0. 4.16666688e-03 0. 0. 0.
      4.16666688e-03 0. 4.16666688e-03 0. 0. 0. 0. 0. 4.16666688e-03 0.
      0. 0. 0. 0. 0. 0. 0. 0. 0. 0. 0. 0. 4.16666688e-03 0. 0. 0. 0. 0.
      0. 0. 8.33333377e-03 0. 0. 0. 0. 4.16666688e-03 0. 0. 0. 0. 0. 0.
      0. 0. 0. 0. 0. 0. 0. 0. 0. 0. 0. 0. 0. 0. 0. 0. 0. 0. 0. 0. 0. 0.
      0. 4.16666688e-03 4.16666688e-03 0. 0. 4.16666688e-03 0. 0. 0. 0.
      4.16666688e-03 0. 0. 0. 0. 0. 0. 0. 0. 0. 4.16666688e-03 0. 0.
      4.16666688e-03 0. 0. 0. 0. 4.16666688e-03 0. 0. 4.16666688e-03 0.
      0. 0. 0. 0. 0. 4.16666688e-03 0. 4.16666688e-03 0. 0. 0. 0.
      4.16666688e-03 0. 4.16666688e-03 4.16666688e-03 0. 0. 0. 0. 0.
      4.16666688e-03 0. 8.33333377e-03 0. 0. 0. 0. 4.16666688e-03 0. 0.
      0. 0. 0. 0. 0. 0. 0. 0. 4.16666688e-03 4.16666688e-03 0. 0. 0. 0.
      0. 0. 0. 4.16666688e-03 0. 4.16666688e-03 4.16666688e-03 0. 0. 0.
      0. 0. 0. 0. 8.33333377e-03 0. 0. 0. 0. 0. 4.16666688e-03 0. 0. 0.
      0. 0. 0. 0. 4.16666688e-03 0. 0. 0. 0. 0. 0. 0. 4.16666688e-03 0.
      0. 4.16666688e-03 0. 0. 0. 4.16666688e-03 0. 0. 0. 0. 0. 0. 0. 0.
      0. 0. 0. 8.33333377e-03 4.16666688e-03 0. 0. 0. 0. 0. 0. 0. 0. 0.
      4.16666688e-03 0. 4.16666688e-03 0. 0. 0. 0. 0. 0. 0. 0. 0. 0.
      8.33333377e-03 0. 0. 0. 0. 0. 0. 0. 8.33333377e-03 0.
      4.16666688e-03 0. 0. 0. 0. 8.33333377e-03 0. 0. 0. 0. 0. 0. 0. 0.
      0. 8.33333377e-03 0. 0. 0. 4.16666688e-03 0. 0. 4.16666688e-03 0.
      0. 0. 0. 0. 0. 0. 0. 0. 0. 1.25000011e-02 0. 0. 4.16666688e-03
      4.16666688e-03 4.16666688e-03 0. 0. 4.16666688e-03 0. 0. 0. 0. 0.
      8.33333377e-03 8.33333377e-03 0. 0. 0. 8.33333377e-03 0.
      4.16666688e-03 4.16666688e-03 0. 0. 4.16666688e-03 4.16666688e-03
      0. 4.16666688e-03 4.16666688e-03 0. 0. 0. 0. 0. 0. 0. 0. 0. 0. 0.
      0. 0. 0. 8.33333377e-03 0. 0. 4.16666688e-03 4.16666688e-03 0. 0.
      0. 0. 0. 0. 0. 0. 4.16666688e-03 0. 0. 0. 0. 8.33333377e-03 0. 0.
      0. 0. 0. 0. 4.16666688e-03 0. 0. 0. 4.16666688e-03 4.16666688e-03
      8.33333377e-03 4.16666688e-03 0. 0. 0. 0. 0. 0. 0. 0. 0. 0. 0. 0.
      0. 0. 8.33333377e-03 0. 0. 0. 0. 0. 0. 1.25000011e-02
      8.33333377e-03 0. 0. 0. 1.25000011e-02 0. 4.16666688e-03
      4.16666688e-03 0. 0. 0. 0. 0. 8.33333377e-03 0. 0. 0. 0.</_>
    <_>
      0. 0. 0. 0. 0. 0. 0. 0. 0. 0. 0. 7.14285718e-03 0. 0. 0. 0. 0. 0.
      0. 0. 0. 0. 0. 0. 7.14285718e-03 0. 0. 0. 0. 0. 0. 0. 0. 0. 0. 0.
      0. 0. 0. 0. 0. 0. 0. 0. 0. 1.42857144e-02 0. 0. 7.14285718e-03 0.
      0. 0. 0. 0. 0. 0. 0. 0. 0. 7.14285718e-03 7.14285718e-03
      1.42857144e-02 7.14285718e-03 0. 7.14285718e-03 0. 0. 0. 0. 0. 0.
      0. 0. 0. 0. 0. 0. 0. 0. 0. 0. 0. 0. 0. 0. 0. 0. 0. 7.14285718e-03
      0. 0. 0. 0. 7.14285718e-03 0. 0. 0. 0. 0. 0. 0. 0. 0. 0. 0. 0. 0.
      0. 0. 0. 0. 0. 0. 0. 7.14285718e-03 0. 0. 0. 0. 0. 0. 0. 0. 0. 0.
      0. 0. 0. 0. 7.14285718e-03 0. 7.14285718e-03 0. 0. 0. 0. 0. 0. 0.
      0. 0. 0. 0. 0. 0. 0. 1.42857144e-02 0. 0. 0. 0. 0. 0.
      7.14285718e-03 0. 1.42857144e-02 0. 0. 0. 0. 0. 0. 0. 0. 0. 0. 0.
      0. 0. 0. 0. 0. 0. 0. 0. 7.14285718e-03 7.14285718e-03 0. 0. 0. 0.
      0. 0. 0. 0. 7.14285718e-03 0. 0. 0. 0. 0. 7.14285718e-03 0. 0. 0.
      0. 0. 7.14285718e-03 0. 0. 0. 0. 0. 0. 0. 1.42857144e-02 0. 0. 0.
      0. 0. 0. 0. 0. 0. 0. 0. 0. 7.14285718e-03 0. 0. 7.14285718e-03 0.
      7.14285718e-03 0. 0. 0. 0. 0. 7.14285718e-03 0. 7.14285718e-03 0.
      0. 7.14285718e-03 0. 0. 0. 0. 0. 0. 0. 0. 7.14285718e-03 0. 0. 0.
      0. 0. 7.14285718e-03 0. 0. 0. 0. 0. 0. 0. 0. 0. 7.14285718e-03 0.
      0. 0. 0. 7.14285718e-03 0. 0. 0. 7.14285718e-03 1.42857144e-02 0.
      0. 0. 7.14285718e-03 7.14285718e-03 7.14285718e-03 0. 0. 0. 0. 0.
      0. 0. 0. 0. 0. 0. 0. 0. 7.14285718e-03 0. 0. 0. 0. 0.
      7.14285718e-03 0. 0. 0. 0. 0. 0. 0. 0. 2.14285720e-02 0. 0. 0. 0.
      0. 0. 7.14285718e-03 0. 0. 0. 0. 0. 0. 7.14285718e-03 0. 0. 0. 0.
      1.42857144e-02 0. 0. 0. 0. 0. 0. 0. 0. 0. 0. 0. 0. 0.
      7.14285718e-03 0. 0. 0. 0. 0. 0. 0. 0. 0. 0. 0. 0. 7.14285718e-03
      0. 0. 0. 0. 0. 0. 0. 0. 0. 0. 0. 0. 0. 0. 0. 0. 0. 0. 0. 0. 0. 0.
      0. 0. 0. 0. 0. 0. 0. 0. 1.42857144e-02 0. 0. 0. 0. 0. 0.
      7.14285718e-03 0. 0. 0. 0. 0. 0. 0. 0. 0. 0. 0. 0. 0. 0. 0. 0. 0.
      0. 0. 0. 0. 0. 0. 0. 0. 0. 0. 0. 0. 0. 0. 0. 0. 0. 0. 0. 0. 0. 0.
      0. 0. 0. 0. 7.14285718e-03 0. 0. 0. 7.14285718e-03 0. 0. 0. 0. 0.
      0. 0. 0. 0. 0. 0. 0. 0. 0. 0. 0. 0. 0. 0. 0. 0. 0. 0. 0. 0. 0. 0.
      0. 0. 7.14285718e-03 0. 0. 0. 0. 0. 0. 0. 0. 0. 0. 0. 0. 0. 0. 0.
      0. 0. 0. 0. 0. 0. 0. 0. 0. 0. 0. 0. 0. 0. 7.14285718e-03 0. 0. 0.
      0. 0. 0. 0. 0. 7.14285718e-03 0. 0. 7.14285718e-03 0. 0. 0. 0. 0.
      0. 1.42857144e-02 0. 0. 7.14285718e-03 0. 7.14285718e-03 0. 0. 0.
      0. 0. 0. 0. 0. 0. 0. 0. 0. 0. 0. 0. 0. 0. 0. 0. 0. 0. 0. 0. 0. 0.
      0. 0. 0. 0. 0. 0. 0. 0. 0. 0. 0. 0. 7.14285718e-03 0. 0. 0. 0. 0.
      0. 0. 0. 7.14285718e-03 0. 0. 0. 0. 0. 0. 7.14285718e-03 0. 0.
      1.42857144e-02 0. 0. 0. 0. 0. 7.14285718e-03 0. 0. 7.14285718e-03
      7.14285718e-03 0. 0. 7.14285718e-03 0. 0. 0. 0. 0. 0. 0. 0. 0. 0.
      0. 0. 7.14285718e-03 0. 0. 0. 0. 0. 7.14285718e-03 0. 0. 0. 0. 0.
      0. 0. 0. 7.14285718e-03 0. 0. 0. 7.14285718e-03 0. 0. 0. 0. 0. 0.
      0. 0. 7.14285718e-03 0. 0. 0. 0. 0. 0. 0. 0. 0. 0. 0. 0. 0. 0. 0.
      0. 0. 0. 0. 0. 0. 0. 0. 0. 0. 0. 0. 0. 0. 0. 0. 7.14285718e-03 0.
      0. 0. 0. 0. 0. 0. 0. 7.14285718e-03 0. 0. 0. 0. 0. 0. 0. 0. 0. 0.
      0. 0. 0. 0. 0. 0. 0. 0. 0. 0. 0. 0. 0. 0. 0. 0. 0. 0. 0. 0. 0. 0.
      0. 0. 0. 0. 0. 0. 0. 0. 0. 0. 0. 0. 0. 1.42857144e-02 0. 0. 0. 0.
      7.14285718e-03 0. 0. 7.14285718e-03 0. 0. 7.14285718e-03 0. 0. 0.
      0. 0. 0. 0. 7.14285718e-03 0. 2.14285720e-02 0. 0. 0.
      7.14285718e-03 7.14285718e-03 7.14285718e-03 0. 7.14285718e-03 0.
      7.14285718e-03 0. 0. 0. 0. 0. 0. 0. 0. 7.14285718e-03 0. 0. 0. 0.
      0. 0. 0. 0. 0. 0. 0. 0. 2.14285720e-02 0. 0. 0. 0. 7.14285718e-03
      0. 0. 0. 0. 0. 0. 0. 0. 0. 0. 0. 0. 0. 0. 0. 0. 0. 0.
      2.14285720e-02 0. 7.14285718e-03 2.14285720e-02 0. 0.
      7.14285718e-03 0. 0. 0. 0. 7.14285718e-03 0. 0. 0. 0. 0. 0.
      7.14285718e-03 0. 0. 7.14285718e-03 7.14285718e-03 0. 0. 0. 0. 0.
      0. 0. 0. 7.14285718e-03 0. 0. 0. 0. 0. 0. 0. 0. 0. 0. 0. 0. 0. 0.
      0. 0. 0. 7.14285718e-03 7.14285718e-03 0. 0. 0. 0. 0. 0. 0. 0.
      7.14285718e-03 0. 7.14285718e-03 0. 0. 0. 0. 0. 0. 0. 0. 0. 0. 0.
      0. 0. 0. 0. 0. 0. 0. 0. 0. 0. 0. 0. 0. 0. 0. 0. 0. 0. 0. 0. 0. 0.
      0. 0. 0. 0. 0. 0. 0. 7.14285718e-03 0. 0. 0. 7.14285718e-03 0. 0.
      0. 0. 0. 0. 0. 0. 7.14285718e-03 0. 0. 0. 0. 0. 0. 0. 0. 0. 0. 0.
      0. 0. 0. 0. 0. 0. 0. 0. 0. 2.14285720e-02 0. 0. 0. 0. 0. 0. 0. 0.
      0. 0. 7.14285718e-03 0. 0. 7.14285718e-03 7.14285718e-03 0. 0. 0.
      0. 0. 0. 0. 0. 0. 0. 0. 1.42857144e-02 0. 0. 0. 7.14285718e-03
      7.14285718e-03 0. 0. 0. 0. 1.42857144e-02 0. 0. 0. 0. 0. 0.
      7.14285718e-03 0. 7.14285718e-03 0. 7.14285718e-03 0. 0.
      7.14285718e-03 0. 7.14285718e-03 0. 0. 0. 0. 0. 0. 0. 0. 0. 0. 0.
      0. 0. 0. 0.</_>
    <_>
      0. 0. 0. 0. 0. 0. 0. 0. 0. 0. 2.87769791e-02 0. 0. 0. 0. 0.
      7.19424477e-03 0. 0. 0. 0. 0. 7.19424477e-03 0. 0. 0.
      7.19424477e-03 0. 0. 0. 0. 0. 0. 0. 0. 0. 0. 0. 0. 0. 0. 0. 0. 0.
      0. 0. 7.19424477e-03 0. 0. 0. 1.43884895e-02 0. 0. 0. 0. 0. 0. 0.
      0. 0. 0. 0. 7.19424477e-03 0. 0. 0. 0. 0. 0. 0. 0. 0. 0. 0. 0. 0.
      0. 0. 1.43884895e-02 0. 0. 0. 0. 0. 0. 0. 0. 0. 0. 0. 0. 0. 0. 0.
      0. 0. 0. 0. 0. 0. 0. 0. 0. 0. 0. 0. 0. 0. 0. 0. 0. 0. 0. 0. 0.
      7.19424477e-03 0. 0. 0. 0. 0. 7.19424477e-03 7.19424477e-03 0. 0.
      0. 0. 0. 0. 0. 0. 0. 0. 0. 0. 0. 0. 0. 7.19424477e-03 0. 0. 0. 0.
      0. 0. 0. 1.43884895e-02 0. 0. 0. 0. 0. 0. 0. 0. 0. 0. 0. 0. 0. 0.
      1.43884895e-02 0. 0. 0. 1.43884895e-02 0. 0. 0. 0. 0. 0. 0. 0. 0.
      0. 7.19424477e-03 0. 0. 0. 0. 0. 0. 0. 0. 0. 0. 0. 0. 0. 0. 0. 0.
      0. 0. 1.43884895e-02 7.19424477e-03 0. 0. 7.19424477e-03 0. 0. 0.
      0. 0. 7.19424477e-03 0. 0. 0. 0. 0. 0. 0. 0. 7.19424477e-03 0. 0.
      0. 0. 0. 0. 0. 0. 0. 0. 7.19424477e-03 0. 0. 7.19424477e-03 0. 0.
      0. 0. 0. 0. 0. 0. 0. 0. 0. 0. 0. 7.19424477e-03 0. 0. 0. 0. 0. 0.
      0. 0. 0. 0. 0. 0. 0. 0. 0. 0. 4.31654677e-02 0. 0. 0. 0. 0. 0. 0.
      0. 0. 0. 0. 0. 0. 0. 0. 0. 0. 0. 0. 0. 0. 0. 0. 0. 7.19424477e-03
      0. 0. 0. 0. 0. 0. 0. 0. 0. 0. 0. 0. 0. 0. 7.19424477e-03 0.
      7.19424477e-03 0. 0. 0. 0. 7.19424477e-03 0. 0. 0. 0. 0. 0.
      7.19424477e-03 0. 0. 0. 0. 0. 0. 0. 7.19424477e-03 0. 0. 0. 0. 0.
      0. 0. 0. 0. 0. 2.15827338e-02 0. 0. 0. 0. 0. 0. 0. 0. 0. 0. 0. 0.
      0. 0. 0. 0. 0. 0. 0. 0. 0. 0. 0. 0. 0. 0. 0. 0. 7.19424477e-03 0.
      0. 0. 0. 7.19424477e-03 0. 0. 0. 0. 0. 0. 0. 0. 0. 0. 0. 0. 0.
      1.43884895e-02 0. 0. 7.19424477e-03 0. 0. 0. 0. 0. 7.19424477e-03
      0. 0. 0. 0. 0. 0. 7.19424477e-03 0. 0. 0. 0. 0. 0. 0. 0. 0. 0. 0.
      0. 0. 0. 0. 0. 0. 0. 0. 0. 7.19424477e-03 0. 0. 0. 0. 0. 0.
      7.19424477e-03 0. 0. 0. 0. 7.19424477e-03 0. 0. 0. 0. 0. 0. 0. 0.
      7.19424477e-03 0. 0. 0. 0. 0. 0. 0. 0. 7.19424477e-03 0. 0. 0. 0.
      0. 0. 0. 0. 0. 0. 0. 7.19424477e-03 1.43884895e-02 0. 0. 0. 0. 0.
      7.19424477e-03 0. 1.43884895e-02 0. 0. 0. 0. 0. 0. 0. 0. 0. 0. 0.
      0. 0. 0. 0. 0. 0. 0. 0. 0. 0. 0. 0. 0. 0. 0. 0. 7.19424477e-03 0.
      0. 0. 0. 0. 0. 7.19424477e-03 0. 0. 0. 0. 0. 0. 0. 0.
      7.19424477e-03 7.19424477e-03 0. 7.19424477e-03 0. 0. 0. 0. 0. 0.
      0. 0. 0. 7.19424477e-03 0. 0. 0. 0. 0. 0. 0. 0. 0. 0. 0. 0. 0. 0.
      0. 0. 0. 0. 1.43884895e-02 0. 0. 0. 0. 0. 0. 0. 0. 0. 0. 0. 0. 0.
      0. 0. 0. 0. 0. 0. 0. 0. 0. 0. 0. 0. 1.43884895e-02 7.19424477e-03
      0. 0. 0. 0. 0. 0. 0. 0. 7.19424477e-03 0. 0. 0. 0. 0. 0. 0. 0. 0.
      0. 0. 0. 0. 0. 0. 0. 0. 0. 0. 0. 1.43884895e-02 0. 0. 0. 0. 0. 0.
      0. 0. 0. 0. 0. 7.19424477e-03 7.19424477e-03 0. 0. 0. 0. 0. 0. 0.
      0. 0. 0. 0. 0. 7.19424477e-03 0. 0. 0. 0. 0. 0. 0. 0. 0. 0. 0. 0.
      0. 7.19424477e-03 0. 0. 0. 0. 0. 0. 7.19424477e-03 0. 0. 0. 0. 0.
      0. 0. 7.19424477e-03 0. 0. 0. 0. 0. 0. 0. 0. 0. 0. 7.19424477e-03
      1.43884895e-02 0. 0. 0. 0. 7.19424477e-03 0. 0. 0. 0. 0.
      7.19424477e-03 7.19424477e-03 0. 0. 0. 0. 0. 0. 0. 0. 0.
      7.19424477e-03 0. 0. 0. 0. 0. 0. 0. 0. 0. 0. 0. 0. 0. 0. 0. 0. 0.
      0. 0. 0. 0. 0. 0. 0. 0. 0. 0. 7.19424477e-03 0. 0. 7.19424477e-03
      0. 0. 0. 0. 0. 0. 0. 0. 0. 7.19424477e-03 0. 0. 0. 0. 0. 0. 0. 0.
      0. 0. 0. 0. 7.19424477e-03 0. 0. 0. 0. 7.19424477e-03 0. 0. 0. 0.
      0. 0. 0. 1.43884895e-02 0. 0. 0. 0. 0. 0. 0. 0. 0. 0. 0. 0. 0. 0.
      0. 0. 0. 0. 0. 0. 0. 0. 0. 0. 0. 0. 0. 0. 0. 0. 0. 0. 0. 0. 0.
      7.19424477e-03 0. 0. 0. 0. 0. 0. 0. 0. 0. 0. 0. 0. 2.15827338e-02
      0. 7.19424477e-03 0. 7.19424477e-03 0. 0. 0. 0. 0. 7.19424477e-03
      2.87769791e-02 0. 0. 0. 0. 0. 0. 0. 0. 0. 0. 0. 0. 0. 0. 0. 0.
      7.19424477e-03 0. 0. 0. 0. 0. 1.43884895e-02 0. 0. 0. 0. 0. 0. 0.
      0. 0. 0. 0. 0. 0. 0. 0. 0. 0. 0. 0. 0. 0. 4.31654677e-02
      1.43884895e-02 0. 0. 0. 0. 0. 7.19424477e-03 0. 0. 0. 0. 0. 0.
      7.19424477e-03 0. 0. 0. 0. 0. 0. 0. 0. 0. 0. 0. 0. 0. 0. 0. 0. 0.
      0. 0. 0. 7.19424477e-03 0. 0. 0. 0. 0. 0. 0. 0. 0. 0. 0. 0. 0. 0.
      0. 0. 0. 0. 0. 0. 0. 0. 0. 0. 0. 0. 0. 0. 0. 0. 7.19424477e-03
      7.19424477e-03 0. 0. 0. 0. 0. 0. 7.19424477e-03 0. 0. 0. 0. 0.
      7.19424477e-03 0. 0. 7.19424477e-03 0. 0. 0. 0. 0. 0. 0. 0. 0. 0.
      0. 0. 7.19424477e-03 0. 1.43884895e-02 0. 0. 7.19424477e-03 0. 0.
      7.19424477e-03 0. 0. 0. 0. 0. 7.19424477e-03 0. 0. 0. 0. 0. 0. 0.
      0. 2.15827338e-02 0. 0. 0. 0. 0. 0. 0. 0. 0. 0. 0. 0. 0. 0. 0. 0.
      0. 0.</_>
    <_>
      0. 0. 0. 0. 0. 0. 0. 0. 0. 0. 0. 0. 0. 0. 0. 0. 0. 0. 0. 0. 0. 0.
      0. 0. 0. 9.99999978e-03 0. 0. 0. 0. 0. 0. 0. 0. 0. 0. 0. 0.
      9.99999978e-03 0. 0. 0. 0. 0. 0. 0. 0. 0. 0. 0. 0. 0.
      1.99999996e-02 9.99999978e-03 0. 0. 0. 0. 0. 0. 0. 0.
      9.99999978e-03 0. 1.99999996e-02 0. 0. 9.99999978e-03 0. 0. 0. 0.
      0. 0. 0. 9.99999978e-03 0. 9.99999978e-03 0. 0. 0. 0. 0. 0. 0. 0.
      0. 0. 0. 0. 0. 0. 0. 0. 0. 0. 0. 0. 0. 0. 0. 9.99999978e-03 0. 0.
      0. 0. 0. 0. 0. 0. 0. 0. 0. 0. 0. 0. 0. 0. 0. 0. 0. 0. 0. 0. 0. 0.
      0. 0. 1.99999996e-02 0. 0. 0. 0. 0. 0. 0. 0. 0. 0. 0. 0. 0. 0. 0.
      0. 0. 9.99999978e-03 0. 0. 0. 0. 0. 0. 0. 0. 0. 9.99999978e-03 0.
      0. 0. 0. 0. 0. 0. 9.99999978e-03 0. 9.99999978e-03 9.99999978e-03
      0. 0. 0. 0. 0. 0. 0. 0. 0. 0. 0. 0. 0. 0. 0. 0. 9.99999978e-03 0.
      9.99999978e-03 0. 9.99999978e-03 0. 0. 0. 0. 0. 0. 0. 0. 0. 0. 0.
      9.99999978e-03 0. 9.99999978e-03 0. 0. 0. 0. 0. 0. 0. 0. 0. 0. 0.
      0. 0. 0. 0. 0. 0. 0. 0. 0. 0. 0. 9.99999978e-03 9.99999978e-03 0.
      0. 9.99999978e-03 0. 0. 0. 0. 0. 0. 0. 0. 0. 0. 0. 9.99999978e-03
      0. 9.99999978e-03 0. 0. 0. 0. 0. 0. 9.99999978e-03 0. 0. 0. 0. 0.
      0. 0. 0. 0. 0. 0. 0. 0. 0. 0. 0. 0. 0. 0. 0. 0. 0. 0. 0. 0. 0. 0.
      0. 0. 0. 0. 0. 0. 0. 9.99999978e-03 0. 0. 9.99999978e-03 0. 0. 0.
      0. 0. 0. 0. 0. 0. 0. 0. 0. 0. 0. 0. 0. 0. 0. 0. 0. 0. 0. 0. 0. 0.
      0. 0. 9.99999978e-03 0. 0. 0. 9.99999978e-03 0. 0. 0. 0. 0. 0. 0.
      0. 0. 0. 0. 0. 0. 0. 0. 9.99999978e-03 0. 0. 9.99999978e-03 0. 0.
      9.99999978e-03 0. 0. 0. 0. 0. 0. 0. 0. 0. 0. 0. 0. 9.99999978e-03
      0. 0. 0. 0. 0. 0. 0. 0. 0. 0. 0. 0. 0. 0. 0. 0. 0. 0. 0. 0. 0. 0.
      0. 0. 0. 9.99999978e-03 0. 0. 0. 0. 0. 9.99999978e-03 0. 0. 0. 0.
      0. 0. 0. 0. 0. 0. 0. 0. 0. 0. 0. 0. 0. 0. 0. 0. 1.99999996e-02 0.
      0. 0. 0. 0. 0. 9.99999978e-03 0. 0. 0. 0. 0. 0. 0. 0. 0. 0. 0. 0.
      0. 0. 0. 0. 0. 0. 0. 0. 0. 0. 0. 0. 0. 0. 0. 0. 0. 0. 0. 0. 0. 0.
      0. 9.99999978e-03 0. 0. 0. 0. 0. 9.99999978e-03 0. 0.
      1.99999996e-02 0. 0. 0. 0. 0. 0. 9.99999978e-03 9.99999978e-03 0.
      0. 0. 0. 0. 0. 0. 0. 0. 0. 0. 0. 0. 0. 0. 0. 0. 0. 9.99999978e-03
      0. 0. 0. 0. 0. 0. 0. 0. 0. 0. 0. 0. 0. 0. 0. 9.99999978e-03 0. 0.
      0. 0. 0. 0. 0. 0. 0. 1.99999996e-02 0. 0. 0. 0. 9.99999978e-03 0.
      0. 0. 0. 0. 0. 0. 0. 0. 0. 0. 0. 0. 0. 0. 0. 0. 0. 9.99999978e-03
      0. 9.99999978e-03 0. 0. 0. 0. 0. 0. 0. 0. 0. 0. 0. 9.99999978e-03
      0. 0. 0. 0. 0. 0. 0. 0. 0. 0. 0. 0. 0. 0. 0. 0. 0. 0. 0. 0.
      9.99999978e-03 0. 0. 9.99999978e-03 0. 0. 0. 0. 0. 0. 0. 0. 0. 0.
      0. 0. 0. 0. 0. 0. 0. 0. 0. 0. 0. 0. 0. 0. 0. 1.99999996e-02 0. 0.
      0. 0. 0. 0. 0. 0. 0. 0. 0. 0. 0. 0. 0. 0. 0. 0. 0. 0. 0. 0. 0. 0.
      0. 0. 0. 0. 0. 0. 9.99999978e-03 0. 0. 0. 0. 0. 0. 0. 0. 0. 0. 0.
      0. 0. 9.99999978e-03 0. 0. 0. 9.99999978e-03 0. 9.99999978e-03 0.
      0. 0. 0. 0. 0. 0. 0. 0. 2.99999993e-02 0. 0. 0. 0. 0. 0. 0. 0. 0.
      0. 0. 0. 0. 0. 9.99999978e-03 0. 0. 0. 0. 0. 0. 9.99999978e-03 0.
      0. 0. 9.99999978e-03 0. 0. 0. 0. 0. 0. 0. 0. 0. 0. 0. 0. 0. 0. 0.
      9.99999978e-03 0. 0. 0. 9.99999978e-03 0. 0. 0. 0. 0. 0. 0. 0. 0.
      0. 9.99999978e-03 0. 0. 0. 1.99999996e-02 0. 0. 0. 0. 0. 0. 0. 0.
      0. 0. 0. 0. 0. 9.99999978e-03 0. 0. 1.99999996e-02 0. 0. 0. 0. 0.
      0. 0. 0. 0. 0. 0. 0. 0. 0. 0. 9.99999978e-03 0. 0. 0. 0. 0. 0.
      9.99999978e-03 0. 0. 0. 0. 1.99999996e-02 0. 0. 0. 0. 0. 0. 0. 0.
      0. 0. 0. 0. 0. 9.99999978e-03 0. 0. 0. 0. 0. 0. 0. 0. 0. 0. 0. 0.
      0. 0. 0. 0. 0. 0. 0. 0. 0. 0. 0. 0. 0. 0. 0. 0. 0. 0. 0. 0. 0. 0.
      9.99999978e-03 0. 0. 0. 0. 0. 0. 0. 0. 0. 1.99999996e-02 0. 0. 0.
      0. 0. 0. 0. 0. 0. 9.99999978e-03 0. 0. 0. 0. 0. 0. 0. 0. 0. 0. 0.
      0. 0. 0. 0. 0. 0. 0. 0. 0. 0. 0. 0. 0. 0. 0. 0. 0. 0. 0. 0. 0. 0.
      0. 0. 0. 0. 0. 1.99999996e-02 0. 0. 0. 0. 0. 0. 0. 0. 0. 0. 0. 0.
      0. 0. 9.99999978e-03 0. 0. 0. 9.99999978e-03 0. 0. 0. 0. 0.
      9.99999978e-03 0. 0. 0. 0. 0. 0. 0. 0. 0. 0. 0. 0. 0. 0. 0. 0. 0.
      0. 0. 0. 0. 0. 0. 0. 0. 0. 0. 0. 0. 0. 0. 0. 0. 0. 0. 0. 0. 0.
      9.99999978e-03 0. 0. 0. 0. 9.99999978e-03 0. 0. 0. 0. 0. 0. 0. 0.
      0. 9.99999978e-03 0. 0. 0. 0. 0. 0. 0. 9.99999978e-03 0. 0. 0. 0.
      0. 0. 0. 0. 0. 0. 0. 0. 0. 0. 0. 0. 0. 0. 1.99999996e-02 0. 0. 0.
      9.99999978e-03 0. 0. 0. 0. 0. 0. 0. 0. 0. 0. 0. 0. 0.</_>
    <_>
      0. 0. 0. 1.99600798e-03 0. 0. 5.98802418e-03 0. 0. 0.
      1.99600798e-03 5.98802418e-03 0. 0. 1.99600798e-03 0.
      1.99600798e-03 0. 0. 0. 0. 0. 1.99600798e-03 0. 0. 0. 0. 0. 0.
      1.99600798e-03 5.98802418e-03 0. 0. 1.99600798e-03 1.99600798e-03
      1.99600798e-03 0. 1.99600798e-03 1.99600798e-03 0. 1.99600798e-03
      0. 0. 1.99600798e-03 0. 0. 0. 0. 0. 0. 1.99600798e-03 0.
      1.99600798e-03 0. 0. 0. 0. 0. 0. 1.99600798e-03 0. 0. 0. 0.
      1.99600798e-03 0. 0. 0. 0. 0. 0. 0. 0. 3.99201596e-03 0. 0. 0.
      1.99600798e-03 0. 0. 0. 0. 0. 1.99600798e-03 0. 1.99600798e-03 0.
      3.99201596e-03 1.99600798e-03 3.99201596e-03 0. 0. 0. 0. 0. 0. 0.
      3.99201596e-03 0. 1.99600798e-03 0. 3.99201596e-03 1.99600798e-03
      0. 0. 0. 1.99600798e-03 0. 3.99201596e-03 0. 0. 0. 0. 0.
      9.98003967e-03 0. 0. 1.99600798e-03 1.99600798e-03 0. 0.
      3.99201596e-03 1.99600798e-03 0. 0. 0. 0. 0. 0. 0. 3.99201596e-03
      0. 0. 0. 0. 0. 0. 0. 1.99600798e-03 0. 0. 0. 0. 1.99600798e-03 0.
      1.99600798e-03 0. 0. 0. 3.99201596e-03 0. 0. 1.99600798e-03 0. 0.
      0. 3.99201596e-03 3.99201596e-03 0. 0. 1.99600798e-03 0. 0.
      3.99201596e-03 7.98403192e-03 1.99600798e-03 3.99201596e-03 0. 0.
      0. 0. 0. 0. 0. 0. 1.99600798e-03 1.99600798e-03 0. 0. 0. 0. 0. 0.
      1.99600798e-03 3.99201596e-03 0. 0. 0. 0. 0. 0. 1.99600798e-03 0.
      0. 0. 0. 0. 0. 3.99201596e-03 0. 0. 0. 1.99600798e-03 0. 0. 0. 0.
      0. 0. 1.99600798e-03 1.99600798e-03 0. 0. 1.99600798e-03 0. 0. 0.
      0. 1.99600798e-03 3.99201596e-03 0. 0. 0. 0. 0. 0. 0.
      3.99201596e-03 5.98802418e-03 0. 0. 0. 0. 1.99600798e-03 0. 0. 0.
      0. 0. 1.99600798e-03 0. 0. 3.99201596e-03 0. 1.99600798e-03 0. 0.
      0. 1.99600798e-03 1.99600798e-03 3.99201596e-03 0. 0. 0. 0.
      1.99600798e-03 0. 0. 0. 3.99201596e-03 0. 0. 0. 0. 1.99600798e-03
      0. 0. 0. 0. 0. 0. 1.99600798e-03 0. 1.99600798e-03 0. 0. 0. 0. 0.
      0. 0. 0. 0. 1.99600798e-03 0. 0. 0. 1.99600798e-03 1.99600798e-03
      0. 0. 1.99600798e-03 1.99600798e-03 0. 0. 3.99201596e-03
      1.99600798e-03 0. 3.99201596e-03 0. 0. 0. 1.99600798e-03 0.
      3.99201596e-03 0. 0. 0. 0. 0. 1.99600798e-03 1.99600798e-03 0. 0.
      0. 0. 0. 9.98003967e-03 0. 1.99600798e-03 0. 0. 0. 0.
      7.98403192e-03 0. 0. 3.99201596e-03 0. 3.99201596e-03 0. 0. 0. 0.
      0. 0. 3.99201596e-03 3.99201596e-03 3.99201596e-03 0. 0. 0.
      1.99600798e-03 0. 1.99600798e-03 0. 3.99201596e-03 1.99600798e-03
      3.99201596e-03 0. 1.99600798e-03 0. 1.99600798e-03 0.
      1.99600798e-03 0. 1.99600798e-03 0. 0. 0. 1.99600798e-03 0. 0.
      1.99600798e-03 0. 0. 0. 0. 0. 3.99201596e-03 0. 1.99600798e-03 0.
      1.99600798e-03 0. 1.99600798e-03 1.99600798e-03 0. 0.
      3.99201596e-03 0. 1.99600798e-03 0. 0. 1.99600798e-03 0. 0. 0. 0.
      0. 0. 0. 0. 0. 0. 0. 0. 1.99600798e-03 0. 0. 1.99600798e-03 0. 0.
      0. 0. 0. 0. 0. 0. 0. 0. 0. 0. 1.99600798e-03 0. 5.98802418e-03
      1.99600798e-03 5.98802418e-03 0. 0. 0. 0. 1.99600798e-03 0. 0. 0.
      0. 0. 0. 3.99201596e-03 1.99600798e-03 0. 1.99600798e-03 0. 0. 0.
      3.99201596e-03 0. 0. 0. 1.99600798e-03 1.99600798e-03
      3.99201596e-03 5.98802418e-03 0. 0. 0. 0. 0. 0. 1.99600798e-03 0.
      1.99600798e-03 0. 3.99201596e-03 0. 1.99600798e-03 0.
      1.99600798e-03 0. 0. 1.99600798e-03 0. 1.99600798e-03
      1.99600798e-03 0. 1.99600798e-03 0. 3.99201596e-03 1.99600798e-03
      0. 3.99201596e-03 0. 0. 1.99600798e-03 0. 0. 0. 0. 0. 0.
      1.99600798e-03 0. 0. 0. 0. 0. 3.99201596e-03 0. 0. 0. 0. 0. 0. 0.
      1.99600798e-03 1.99600798e-03 1.99600798e-03 0. 1.99600798e-03 0.
      0. 0. 0. 0. 3.99201596e-03 0. 1.99600798e-03 3.99201596e-03 0. 0.
      0. 3.99201596e-03 1.99600798e-03 0. 0. 3.99201596e-03 0. 0. 0. 0.
      3.99201596e-03 1.99600798e-03 0. 1.99600798e-03 0. 0. 0. 0. 0.
      1.99600798e-03 1.99600798e-03 3.99201596e-03 0. 0. 0.
      1.99600798e-03 1.99600798e-03 0. 0. 0. 0. 1.99600798e-03 0.
      3.99201596e-03 0. 0. 3.99201596e-03 0. 3.99201596e-03
      3.99201596e-03 0. 0. 1.99600798e-03 1.99600798e-03 0. 0. 0. 0. 0.
      3.99201596e-03 0. 1.99600798e-03 0. 0. 0. 0. 0. 0. 0.
      3.99201596e-03 0. 1.99600798e-03 5.98802418e-03 1.99600798e-03 0.
      1.99600798e-03 1.99600798e-03 0. 0. 1.99600798e-03 1.99600798e-03
      0. 1.99600798e-03 0. 0. 1.99600798e-03 0. 0. 0. 5.98802418e-03 0.
      0. 1.99600798e-03 0. 0. 0. 0. 1.99600798e-03 0. 1.99600798e-03
      1.99600798e-03 3.99201596e-03 0. 1.99600798e-03 1.99600798e-03 0.
      0. 1.99600798e-03 0. 1.99600798e-03 1.99600798e-03 0. 0. 0. 0. 0.
      3.99201596e-03 0. 1.99600798e-03 5.98802418e-03 0. 0. 0. 0. 0. 0.
      0. 0. 5.98802418e-03 0. 0. 0. 0. 1.99600798e-03 0. 0. 0.
      1.99600798e-03 3.99201596e-03 0. 0. 0. 0. 1.99600798e-03
      1.99600798e-03 1.99600798e-03 0. 0. 1.99600798e-03 0.
      1.99600798e-03 0. 0. 3.99201596e-03 0. 0. 0. 0. 1.99600798e-03
      1.99600798e-03 0. 0. 0. 3.99201596e-03 0. 0. 0. 0. 0. 0. 0.
      1.99600798e-03 0. 0. 0. 0. 0. 0. 0. 1.99600798e-03 0. 0. 0.
      5.98802418e-03 0. 1.99600798e-03 5.98802418e-03 0. 0. 0. 0. 0.
      1.99600798e-03 0. 0. 0. 0. 0. 1.99600798e-03 0. 1.99600798e-03
      5.98802418e-03 1.99600798e-03 0. 0. 5.98802418e-03 1.99600798e-03
      3.99201596e-03 0. 0. 0. 0. 1.99600798e-03 0. 0. 0. 1.99600798e-03
      0. 0. 3.99201596e-03 0. 0. 1.99600798e-03 3.99201596e-03
      1.99600798e-03 0. 0. 0. 1.99600798e-03 0. 0. 3.99201596e-03 0.
      3.99201596e-03 3.99201596e-03 0. 0. 1.99600798e-03 0. 0.
      3.99201596e-03 1.99600798e-03 1.99600798e-03 1.39720561e-02
      3.99201596e-03 0. 0. 0. 3.99201596e-03 0. 0. 9.98003967e-03 0.
      1.99600798e-03 1.99600798e-03 0. 0. 0. 0. 0. 0. 0. 0. 0.
      1.99600798e-03 0. 0. 1.99600798e-03 0. 0. 0. 1.99600798e-03 0. 0.
      0. 3.99201596e-03 0. 5.98802418e-03 0. 0. 1.99600798e-03 0. 0. 0.
      0. 0. 1.99600798e-03 1.99600798e-03 0. 1.99600798e-03 0.
      1.99600798e-03 0. 1.99600798e-03 0. 3.99201596e-03 0. 0.
      3.99201596e-03 1.99600798e-03 1.99600798e-03 0. 1.99600798e-03 0.
      0. 0. 1.99600798e-03 0. 3.99201596e-03 0. 3.99201596e-03
      1.99600798e-03 1.99600798e-03 1.99600798e-03 1.99600798e-03
      3.99201596e-03 0. 0. 0. 0. 1.99600798e-03 0. 0. 1.99600798e-03
      3.99201596e-03 1.99600798e-03 0. 0. 1.99600798e-03 0.
      3.99201596e-03 3.99201596e-03 0. 0. 0. 0. 0. 0. 0. 0. 0.
      1.99600798e-03 0. 0. 0. 1.99600798e-03 0. 0. 0. 0. 0.
      1.99600798e-03 1.99600798e-03 0. 1.99600798e-03 1.99600798e-03
      1.99600798e-03 0. 0. 0. 0. 1.99600798e-03 1.99600798e-03
      1.99600798e-03 0. 0. 5.98802418e-03 0. 0. 0. 1.99600798e-03 0. 0.
      1.99600798e-03 0. 1.99600798e-03 0. 0. 0. 0. 1.99600798e-03 0.
      1.99600798e-03 0. 1.99600798e-03 0. 1.99600798e-03 1.99600798e-03
      0. 0. 0. 1.99600798e-03 0. 1.99600798e-03 0. 1.99600798e-03
      3.99201596e-03 0. 1.99600798e-03 1.99600798e-03 1.99600798e-03
      3.99201596e-03 1.99600798e-03 1.99600798e-03 0. 1.99600798e-03
      1.99600798e-03 7.98403192e-03 0. 0. 0. 1.99600798e-03 0.
      3.99201596e-03 1.99600798e-03 1.99600798e-03 0. 3.99201596e-03 0.
      1.99600798e-03 1.99600798e-03 0. 3.99201596e-03 1.99600798e-03 0.
      0. 0. 0. 0. 0. 1.99600798e-03 0. 0. 0. 0. 0. 0. 0. 1.99600798e-03
      1.99600798e-03 0. 0. 1.99600798e-03 0. 0. 0. 0. 0. 1.99600798e-03
      0. 0. 1.99600798e-03 5.98802418e-03 0. 0. 1.99600798e-03 0.
      3.99201596e-03 7.98403192e-03 1.99600798e-03 3.99201596e-03 0.
      1.99600798e-03 1.99600798e-03 1.99600798e-03 0. 1.99600798e-03 0.
      0. 0. 0. 1.99600798e-03 1.99600798e-03 0. 0. 1.99600798e-03
      1.99600798e-03 0. 0. 1.99600798e-03 1.99600798e-03 3.99201596e-03
      0. 0. 5.98802418e-03 0. 0. 0. 1.99600798e-03 7.98403192e-03 0. 0.
      3.99201596e-03 3.99201596e-03 0. 0. 3.99201596e-03 0.
      1.99600798e-03</_>
    <_>
      0. 0. 0. 0. 0. 0. 0. 0. 0. 0. 0. 1.47058824e-02 0. 0. 0. 0. 0.
      1.47058824e-02 0. 0. 0. 0. 0. 0. 0. 0. 0. 0. 0. 0. 0. 0. 0. 0.
      1.47058824e-02 0. 0. 0. 0. 0. 0. 0. 0. 0. 0. 0. 0. 0. 0. 0.
      1.47058824e-02 0. 0. 0. 0. 0. 0. 0. 0. 0. 0. 0. 0. 0.
      1.47058824e-02 0. 0. 0. 0. 0. 0. 0. 0. 0. 0. 0. 0. 0. 0. 0. 0. 0.
      0. 0. 0. 1.47058824e-02 0. 0. 0. 0. 0. 0. 0. 0. 0. 0. 0. 0. 0. 0.
      0. 0. 0. 0. 0. 0. 0. 0. 0. 0. 0. 0. 0. 0. 0. 0. 1.47058824e-02 0.
      0. 0. 0. 0. 0. 0. 0. 0. 0. 0. 0. 0. 0. 0. 0. 0. 0. 0. 0. 0. 0. 0.
      1.47058824e-02 0. 0. 0. 0. 0. 0. 0. 0. 0. 0. 0. 0. 0. 0. 0. 0. 0.
      0. 0. 0. 0. 0. 0. 0. 0. 0. 0. 0. 0. 0. 0. 0. 0. 0. 0. 0. 0. 0. 0.
      0. 0. 1.47058824e-02 0. 0. 0. 1.47058824e-02 0. 0. 0. 0. 0. 0. 0.
      0. 0. 0. 0. 0. 0. 1.47058824e-02 0. 0. 0. 0. 0. 0. 0. 0. 0. 0. 0.
      0. 0. 0. 0. 0. 0. 0. 0. 0. 0. 0. 0. 0. 0. 0. 0. 0. 0. 0. 0. 0. 0.
      0. 0. 0. 0. 0. 0. 0. 0. 0. 0. 0. 0. 0. 0. 0. 0. 0. 0. 0. 0. 0. 0.
      0. 0. 0. 0. 0. 0. 0. 0. 0. 0. 0. 0. 0. 0. 0. 0. 0. 1.47058824e-02
      0. 1.47058824e-02 0. 0. 0. 0. 0. 0. 0. 0. 0. 0. 0. 1.47058824e-02
      0. 0. 0. 0. 0. 0. 0. 0. 0. 0. 1.47058824e-02 0. 0. 0. 0. 0. 0. 0.
      1.47058824e-02 0. 0. 0. 1.47058824e-02 0. 0. 0. 0. 0. 0. 0. 0. 0.
      0. 0. 0. 1.47058824e-02 0. 0. 0. 1.47058824e-02 0. 1.47058824e-02
      0. 0. 0. 0. 0. 0. 0. 0. 0. 0. 0. 0. 0. 0. 1.47058824e-02 0. 0. 0.
      0. 0. 0. 0. 0. 0. 0. 0. 0. 0. 0. 0. 0. 0. 0. 0. 0. 0. 0. 0. 0. 0.
      0. 0. 0. 0. 0. 0. 0. 0. 0. 0. 0. 0. 0. 0. 1.47058824e-02 0. 0. 0.
      0. 0. 0. 1.47058824e-02 0. 0. 0. 0. 0. 0. 0. 0. 0. 0. 0. 0. 0. 0.
      1.47058824e-02 0. 0. 0. 0. 0. 0. 0. 0. 0. 0. 1.47058824e-02 0. 0.
      0. 0. 0. 0. 0. 0. 0. 0. 1.47058824e-02 1.47058824e-02 0. 0. 0. 0.
      0. 0. 0. 0. 0. 0. 0. 0. 0. 0. 0. 0. 0. 0. 0. 0. 0. 0. 0. 0. 0. 0.
      1.47058824e-02 0. 0. 0. 1.47058824e-02 0. 0. 0. 0. 0. 0. 0. 0. 0.
      0. 0. 0. 0. 0. 0. 0. 0. 0. 0. 1.47058824e-02 0. 0. 0. 0. 0. 0. 0.
      0. 0. 0. 0. 0. 0. 0. 0. 0. 0. 0. 0. 0. 0. 0. 0. 0. 0. 0. 0. 0. 0.
      0. 0. 0. 0. 1.47058824e-02 0. 1.47058824e-02 1.47058824e-02 0. 0.
      0. 0. 0. 0. 0. 0. 0. 1.47058824e-02 0. 0. 0. 0. 0. 0. 0. 0. 0. 0.
      0. 0. 0. 0. 0. 0. 0. 0. 0. 0. 0. 0. 1.47058824e-02 0. 0.
      1.47058824e-02 0. 0. 0. 0. 0. 0. 0. 0. 0. 0. 0. 0. 0. 0. 0. 0. 0.
      0. 0. 0. 2.94117648e-02 0. 0. 0. 0. 0. 0. 0. 1.47058824e-02 0. 0.
      0. 0. 0. 0. 0. 0. 0. 0. 0. 0. 0. 0. 0. 0. 0. 0. 0. 0. 0. 0. 0. 0.
      0. 0. 0. 0. 0. 0. 0. 0. 0. 0. 0. 0. 0. 0. 0. 0. 0. 0. 0. 0. 0. 0.
      0. 0. 0. 0. 0. 0. 0. 0. 0. 0. 0. 0. 0. 0. 0. 0. 0. 0. 0. 0. 0. 0.
      0. 0. 0. 1.47058824e-02 0. 1.47058824e-02 0. 0. 0. 0. 0.
      1.47058824e-02 0. 1.47058824e-02 0. 0. 0. 0. 0. 0. 0. 0. 0. 0. 0.
      0. 0. 0. 0. 0. 0. 0. 0. 0. 0. 1.47058824e-02 0. 0. 0. 0. 0. 0. 0.
      0. 0. 2.94117648e-02 0. 0. 0. 0. 0. 0. 0. 0. 0. 0. 1.47058824e-02
      0. 0. 0. 0. 0. 0. 0. 0. 0. 0. 0. 0. 0. 0. 0. 0. 1.47058824e-02 0.
      0. 0. 0. 0. 0. 0. 0. 0. 0. 0. 0. 0. 0. 1.47058824e-02 0. 0. 0. 0.
      0. 0. 0. 0. 0. 0. 0. 0. 0. 0. 0. 0. 0. 0. 0. 0. 0. 0. 0. 0. 0. 0.
      0. 0. 0. 0. 0. 0. 0. 0. 0. 0. 0. 0. 0. 0. 0. 0. 0. 0. 0. 0. 0. 0.
      0. 0. 0. 0. 0. 0. 0. 1.47058824e-02 0. 0. 0. 4.41176482e-02 0. 0.
      1.47058824e-02 2.94117648e-02 0. 0. 0. 0. 0. 0. 0. 0. 0. 0. 0. 0.
      0. 0. 0. 0. 0. 0. 0. 0. 0. 0. 0. 0. 0. 0. 0. 0. 0. 0. 0. 0. 0. 0.
      0. 0. 1.47058824e-02 0. 0. 0. 0. 0. 1.47058824e-02 0. 0. 0. 0. 0.
      0. 0. 0. 0. 0. 0. 0. 0. 0. 0. 0. 0. 0. 0. 0. 0. 0. 0. 0. 0. 0. 0.
      1.47058824e-02 0. 1.47058824e-02 0. 1.47058824e-02 0. 0. 0. 0. 0.
      0. 0. 1.47058824e-02 0. 0. 0. 0. 0. 0. 1.47058824e-02 0. 0. 0. 0.
      0. 0. 0. 0. 0. 0. 0. 0. 0. 0. 0. 0. 0. 0. 0. 0. 0. 0.
      1.47058824e-02 0. 0. 0. 0. 0. 0. 0. 0. 0. 0. 0. 1.47058824e-02 0.
      0. 0. 0. 0. 1.47058824e-02 0. 0. 0. 0. 0. 0. 0. 0. 0. 0. 0. 0. 0.
      0. 0. 0. 0. 0. 0. 0. 0. 0. 0. 0. 0. 0. 0. 0. 0. 0. 0. 0. 0. 0. 0.
      0. 0. 0. 0. 0. 0. 0. 0. 0. 0. 0. 0. 0. 0. 0. 0. 0. 1.47058824e-02
      0. 0. 0. 0. 0. 0. 0. 0. 1.47058824e-02 0. 0. 0.</_>
    <_>
      0. 0. 0. 0. 0. 0. 0. 0. 0. 0. 0. 0. 1.11111114e-02 1.11111114e-02
      0. 0. 0. 0. 0. 0. 0. 0. 0. 0. 0. 0. 0. 0. 0. 0. 0. 0. 0. 0. 0. 0.
      0. 0. 0. 2.22222228e-02 0. 0. 0. 0. 0. 0. 0. 0. 0. 0. 0. 0. 0. 0.
      0. 0. 0. 0. 0. 0. 0. 0. 0. 0. 0. 0. 0. 0. 0. 0. 0. 0. 0. 0. 0. 0.
      0. 0. 0. 0. 0. 0. 0. 0. 0. 0. 0. 0. 0. 0. 0. 0. 0. 0. 0. 0. 0. 0.
      0. 0. 0. 0. 0. 0. 0. 0. 0. 0. 0. 0. 0. 0. 0. 0. 0. 0. 0. 0. 0. 0.
      0. 0. 0. 0. 0. 0. 0. 0. 1.11111114e-02 0. 0. 0. 0. 1.11111114e-02
      0. 0. 0. 1.11111114e-02 1.11111114e-02 0. 0. 0. 0. 0. 0. 0. 0. 0.
      0. 0. 0. 0. 0. 0. 0. 0. 0. 0. 0. 0. 0. 0. 0. 1.11111114e-02 0. 0.
      0. 0. 0. 0. 1.11111114e-02 0. 0. 0. 1.11111114e-02 0. 0. 0. 0. 0.
      0. 0. 0. 1.11111114e-02 0. 0. 1.11111114e-02 0. 0. 0. 0. 0. 0. 0.
      0. 0. 0. 0. 0. 0. 0. 0. 0. 0. 0. 0. 0. 0. 0. 0. 1.11111114e-02 0.
      0. 0. 0. 0. 0. 0. 0. 0. 0. 0. 0. 0. 0. 0. 0. 0. 0. 0. 0. 0. 0. 0.
      0. 0. 0. 0. 0. 0. 0. 0. 0. 0. 0. 1.11111114e-02 0. 0. 0. 0. 0. 0.
      0. 0. 0. 0. 0. 0. 0. 0. 0. 0. 0. 0. 0. 1.11111114e-02 0. 0. 0. 0.
      0. 0. 0. 0. 0. 0. 0. 0. 0. 0. 1.11111114e-02 0. 0. 0. 0. 0. 0. 0.
      0. 0. 0. 0. 0. 0. 0. 0. 0. 0. 0. 0. 0. 0. 0. 0. 0. 0. 0. 0. 0.
      1.11111114e-02 0. 0. 0. 0. 0. 0. 0. 0. 0. 0. 0. 0. 0.
      1.11111114e-02 0. 0. 0. 0. 0. 0. 0. 0. 0. 0. 0. 0. 0.
      1.11111114e-02 0. 0. 0. 0. 0. 0. 0. 0. 0. 0. 0. 0. 0. 0. 0. 0. 0.
      0. 0. 0. 0. 0. 0. 0. 0. 0. 0. 0. 0. 0. 0. 0. 0. 0. 0. 0. 0. 0. 0.
      0. 0. 0. 0. 0. 0. 0. 0. 0. 0. 0. 0. 0. 0. 0. 1.11111114e-02 0. 0.
      0. 0. 0. 0. 0. 0. 0. 0. 0. 0. 0. 0. 0. 0. 0. 0. 0. 0. 0. 0. 0. 0.
      0. 0. 0. 0. 0. 0. 0. 0. 0. 0. 0. 0. 0. 0. 0. 0. 0. 0. 0. 0. 0. 0.
      0. 0. 0. 0. 0. 0. 0. 0. 0. 0. 0. 0. 0. 0. 0. 0. 0. 0. 0. 0. 0. 0.
      0. 0. 0. 0. 0. 0. 0. 0. 0. 0. 0. 0. 0. 0. 0. 0. 0. 0. 0. 0. 0. 0.
      0. 1.11111114e-02 0. 2.22222228e-02 0. 0. 0. 0. 1.11111114e-02 0.
      0. 0. 0. 0. 0. 0. 0. 0. 0. 0. 0. 0. 0. 0. 0. 0. 0. 0. 0. 0. 0. 0.
      0. 1.11111114e-02 0. 0. 0. 0. 0. 0. 0. 0. 0. 0. 0. 0. 0. 0. 0.
      2.22222228e-02 0. 0. 0. 0. 0. 0. 0. 0. 0. 0. 0. 0. 0. 0. 0. 0.
      1.11111114e-02 0. 0. 0. 0. 0. 1.11111114e-02 0. 0. 0. 0. 0. 0. 0.
      0. 1.11111114e-02 0. 0. 0. 0. 0. 0. 0. 0. 0. 0. 0. 3.33333351e-02
      0. 0. 0. 0. 0. 0. 0. 0. 0. 0. 1.11111114e-02 2.22222228e-02 0. 0.
      0. 0. 0. 0. 0. 0. 0. 0. 0. 0. 0. 0. 0. 0. 0. 0. 0. 0. 0. 0. 0. 0.
      0. 0. 0. 0. 0. 0. 0. 0. 0. 0. 0. 0. 0. 0. 1.11111114e-02 0.
      1.11111114e-02 0. 0. 0. 0. 0. 0. 1.11111114e-02 1.11111114e-02
      1.11111114e-02 0. 0. 1.11111114e-02 0. 0. 0. 0. 0. 0. 0. 0. 0. 0.
      0. 0. 0. 0. 0. 0. 0. 0. 0. 0. 1.11111114e-02 0. 1.11111114e-02 0.
      2.22222228e-02 0. 0. 0. 0. 0. 0. 0. 0. 0. 0. 0. 0. 0. 0. 0. 0. 0.
      0. 0. 0. 0. 0. 0. 1.11111114e-02 0. 0. 0. 0. 0. 0. 0. 0. 0. 0. 0.
      1.11111114e-02 0. 0. 0. 0. 0. 0. 0. 1.11111114e-02 0. 0. 0. 0. 0.
      0. 0. 0. 1.11111114e-02 0. 0. 0. 0. 0. 0. 0. 0. 0. 0. 0. 0. 0. 0.
      0. 0. 0. 0. 0. 0. 0. 0. 0. 0. 0. 0. 0. 0. 0. 0. 0. 0. 0. 0. 0. 0.
      0. 0. 0. 0. 0. 0. 0. 0. 2.22222228e-02 0. 0. 0. 0. 1.11111114e-02
      0. 0. 0. 0. 0. 0. 1.11111114e-02 0. 0. 0. 0. 0. 0. 0. 0. 0. 0. 0.
      0. 0. 0. 0. 2.22222228e-02 1.11111114e-02 0. 0. 0. 0. 0. 0. 0. 0.
      0. 0. 0. 0. 0. 0. 0. 0. 0. 0. 0. 1.11111114e-02 0. 0. 0. 0. 0. 0.
      1.11111114e-02 0. 0. 0. 0. 0. 1.11111114e-02 2.22222228e-02 0.
      1.11111114e-02 0. 1.11111114e-02 1.11111114e-02 0. 0. 0. 0. 0. 0.
      1.11111114e-02 0. 0. 0. 0. 0. 0. 0. 0. 0. 1.11111114e-02 0.
      1.11111114e-02 1.11111114e-02 0. 0. 0. 0. 0. 0. 0. 0. 0. 0. 0.
      1.11111114e-02 0. 0. 0. 1.11111114e-02 0. 0. 0. 0. 0. 0. 0. 0. 0.
      0. 1.11111114e-02 0. 0. 0. 2.22222228e-02 0. 0. 0. 0. 0. 0. 0. 0.
      0. 0. 0. 0. 0. 0. 0. 0. 0. 1.11111114e-02 0. 0. 0. 0. 0. 0. 0. 0.
      0. 0. 0. 0. 0. 0. 0. 0. 0. 0. 0. 0. 0. 0. 0. 0. 0. 0. 0. 0. 0. 0.
      1.11111114e-02 0. 0. 0. 0. 0. 0. 0. 0. 0. 0. 0. 0. 0. 0.
      2.22222228e-02 0. 0. 0. 0. 0. 0. 0. 0. 0. 0. 0. 0. 0. 0. 0. 0. 0.
      0. 0. 0. 0. 0. 0. 1.11111114e-02 0. 0. 1.11111114e-02 0. 0. 0. 0.
      0. 0. 2.22222228e-02 0. 2.22222228e-02 0. 0. 0. 0. 0. 0.
      3.33333351e-02 0. 1.11111114e-02 0. 0. 0. 0. 0. 1.11111114e-02 0.</_>
    <_>
      0. 0. 0. 0. 0. 0. 0. 0. 0. 0. 8.06451589e-03 0. 0. 0. 0. 0.
      2.41935477e-02 0. 0. 0. 0. 0. 8.06451589e-03 0. 0. 0. 0. 0. 0. 0.
      0. 8.06451589e-03 0. 0. 0. 0. 0. 0. 0. 0. 0. 0. 0. 0. 0. 0. 0.
      8.06451589e-03 0. 0. 0. 0. 0. 0. 0. 0. 0. 0. 0. 0. 0. 0.
      8.06451589e-03 0. 0. 1.61290318e-02 0. 0. 0. 0. 0. 8.06451589e-03
      0. 0. 0. 0. 0. 0. 0. 0. 0. 0. 0. 0. 0. 0. 0. 0. 0. 0. 0. 0. 0. 0.
      0. 0. 0. 0. 0. 0. 0. 8.06451589e-03 0. 0. 0. 0. 0. 0. 0. 0. 0.
      8.06451589e-03 0. 0. 0. 0. 8.06451589e-03 0. 0. 8.06451589e-03 0.
      0. 0. 0. 0. 0. 0. 0. 0. 1.61290318e-02 0. 0. 0. 0. 0. 0. 0. 0. 0.
      8.06451589e-03 0. 0. 0. 0. 2.41935477e-02 0. 8.06451589e-03 0. 0.
      8.06451589e-03 0. 0. 0. 0. 0. 0. 0. 0. 0. 0. 0. 0. 0. 0. 0. 0.
      8.06451589e-03 0. 0. 8.06451589e-03 0. 0. 0. 0. 0. 0.
      8.06451589e-03 0. 0. 0. 0. 0. 8.06451589e-03 0. 1.61290318e-02 0.
      0. 0. 0. 0. 0. 0. 0. 0. 8.06451589e-03 8.06451589e-03 0. 0. 0. 0.
      0. 0. 0. 0. 0. 0. 0. 0. 0. 0. 0. 0. 0. 0. 8.06451589e-03 0. 0. 0.
      8.06451589e-03 0. 0. 0. 0. 0. 0. 1.61290318e-02 0. 0.
      8.06451589e-03 0. 0. 0. 0. 0. 0. 8.06451589e-03 0. 0. 0.
      8.06451589e-03 0. 0. 0. 0. 0. 0. 0. 0. 0. 0. 0. 0. 0. 0.
      8.06451589e-03 0. 0. 0. 0. 1.61290318e-02 0. 0. 0. 0. 0. 0. 0. 0.
      0. 0. 0. 0. 0. 0. 0. 0. 0. 0. 0. 0. 0. 0. 0. 0. 0. 0. 0. 0. 0. 0.
      0. 0. 0. 0. 0. 0. 0. 0. 0. 0. 0. 0. 0. 0. 8.06451589e-03 0. 0. 0.
      0. 0. 0. 0. 0. 8.06451589e-03 8.06451589e-03 0. 0. 0. 0.
      8.06451589e-03 0. 0. 0. 0. 0. 0. 0. 0. 0. 0. 0. 0. 0. 0. 0. 0. 0.
      8.06451589e-03 0. 0. 0. 0. 0. 0. 0. 8.06451589e-03 0. 0. 0. 0. 0.
      0. 0. 0. 0. 0. 0. 0. 0. 0. 0. 0. 0. 0. 0. 0. 0. 0. 0. 0.
      1.61290318e-02 0. 0. 0. 0. 0. 0. 0. 0. 0. 0. 0. 0. 0. 0. 0. 0. 0.
      0. 1.61290318e-02 0. 0. 0. 0. 0. 0. 0. 0. 0. 0. 0. 0. 0. 0. 0.
      1.61290318e-02 0. 0. 0. 0. 0. 0. 0. 8.06451589e-03 0. 0.
      8.06451589e-03 1.61290318e-02 0. 0. 0. 0. 0. 0. 1.61290318e-02 0.
      0. 0. 0. 0. 0. 0. 0. 8.06451589e-03 0. 0. 8.06451589e-03 0. 0. 0.
      8.06451589e-03 0. 2.41935477e-02 0. 0. 0. 0. 0. 0. 0. 0. 0. 0. 0.
      0. 0. 0. 0. 0. 0. 0. 0. 0. 8.06451589e-03 0. 0. 8.06451589e-03 0.
      0. 0. 0. 0. 0. 8.06451589e-03 0. 0. 0. 0. 0. 0. 0. 0. 0. 0. 0. 0.
      8.06451589e-03 0. 0. 0. 0. 0. 0. 0. 0. 0. 0. 0. 0. 0. 0.
      8.06451589e-03 0. 0. 0. 0. 0. 0. 0. 0. 8.06451589e-03 0. 0. 0. 0.
      0. 0. 0. 0. 0. 0. 8.06451589e-03 0. 0. 0. 0. 0. 0. 0. 0. 0. 0. 0.
      0. 0. 0. 0. 0. 0. 0. 0. 0. 0. 0. 0. 0. 0. 0. 0. 0. 0. 0. 0. 0. 0.
      0. 0. 0. 0. 0. 0. 0. 0. 0. 0. 0. 0. 1.61290318e-02 0. 0.
      8.06451589e-03 0. 0. 0. 0. 0. 0. 0. 0. 0. 8.06451589e-03 0. 0. 0.
      0. 0. 0. 8.06451589e-03 0. 0. 0. 0. 0. 0. 0. 0. 0. 0. 0. 0. 0.
      2.41935477e-02 0. 8.06451589e-03 0. 0. 0. 0. 0. 8.06451589e-03 0.
      0. 0. 0. 0. 8.06451589e-03 0. 8.06451589e-03 0. 0. 0. 0. 0. 0. 0.
      0. 0. 8.06451589e-03 0. 0. 0. 0. 0. 0. 0. 0. 0. 0. 0. 0. 0. 0. 0.
      8.06451589e-03 0. 0. 8.06451589e-03 0. 8.06451589e-03 0. 0. 0. 0.
      0. 8.06451589e-03 0. 0. 0. 0. 0. 0. 0. 0. 0. 0. 0. 0. 0. 0. 0. 0.
      0. 1.61290318e-02 0. 0. 0. 0. 0. 0. 0. 0. 0. 0. 0. 0.
      8.06451589e-03 0. 0. 0. 0. 0. 0. 0. 0. 0. 0. 0. 0. 0.
      1.61290318e-02 0. 0. 0. 0. 0. 0. 8.06451589e-03 0. 0. 0. 0. 0. 0.
      0. 0. 0. 0. 0. 0. 0. 0. 0. 0. 0. 0. 8.06451589e-03 0. 0. 0. 0. 0.
      0. 0. 0. 0. 0. 0. 0. 0. 1.61290318e-02 0. 0. 0. 0. 1.61290318e-02
      0. 0. 0. 0. 0. 0. 0. 0. 0. 0. 0. 0. 0. 0. 0. 0. 0. 0. 0. 0. 0. 0.
      0. 0. 0. 0. 0. 0. 0. 0. 0. 0. 0. 0. 0. 0. 0. 0. 0. 0. 0. 0. 0. 0.
      0. 0. 0. 0. 0. 0. 0. 0. 0. 0. 0. 8.06451589e-03 0. 0. 0. 0. 0. 0.
      0. 0. 0. 0. 0. 0. 0. 0. 0. 0. 8.06451589e-03 0. 0. 0. 0. 0. 0.
      8.06451589e-03 0. 0. 0. 0. 0. 0. 0. 0. 0. 0. 0. 0. 0. 0. 0. 0. 0.
      0. 0. 0. 0. 0. 0. 0. 0. 0. 0. 0. 0. 0. 0. 8.06451589e-03 0. 0. 0.
      0. 0. 1.61290318e-02 1.61290318e-02 0. 0. 8.06451589e-03 0. 0. 0.
      0. 0. 0. 0. 0. 0. 0. 8.06451589e-03 0. 0. 0. 0. 0. 0. 0. 0. 0.
      2.41935477e-02 0. 0. 0. 0. 0. 0. 0. 0. 0. 0. 0. 0. 0. 0. 0. 0. 0.
      0. 0. 0. 0. 0. 0. 0. 0. 0. 0. 0. 0. 0. 0. 0. 0. 0. 0. 0. 0. 0. 0.
      8.06451589e-03 0. 1.61290318e-02 0. 0. 0. 0. 8.06451589e-03 0. 0.
      0. 0. 0. 8.06451589e-03 8.06451589e-03 0. 0. 0. 0. 0. 0. 0. 0. 0.
      0. 0. 0. 0. 0. 0. 0. 8.06451589e-03 0. 0. 0. 0. 0. 0. 0.
      1.61290318e-02 0. 0. 0. 0. 0. 0. 0. 8.06451589e-03 0. 0. 0. 0. 0.
      0. 0. 0. 0. 0. 0. 0. 0. 0. 0. 0. 0. 0. 0. 8.06451589e-03 0. 0. 0.
      0. 0.</_>
    <_>
      0. 0. 0. 0. 0. 0. 0. 0. 0. 0. 0. 0. 0. 0. 0. 0. 0. 0. 0. 0. 0.
      1.49253728e-02 0. 0. 0. 0. 0. 0. 0. 0. 0. 0. 0. 0. 0. 0. 0. 0. 0.
      0. 0. 0. 1.49253728e-02 0. 0. 0. 0. 0. 0. 0. 0. 0. 0. 0. 0. 0. 0.
      0. 0. 0. 1.49253728e-02 0. 0. 0. 0. 0. 0. 0. 0. 0. 0. 0. 0. 0. 0.
      0. 0. 0. 0. 0. 0. 0. 0. 0. 0. 0. 0. 0. 0. 1.49253728e-02 0. 0. 0.
      1.49253728e-02 0. 0. 0. 0. 0. 0. 0. 0. 0. 0. 0. 0. 0. 0. 0. 0. 0.
      0. 0. 0. 0. 0. 0. 0. 0. 0. 0. 0. 0. 0. 0. 0. 0. 1.49253728e-02 0.
      0. 0. 0. 0. 0. 0. 0. 0. 0. 0. 0. 0. 0. 0. 0. 0. 0. 0. 0. 0. 0. 0.
      0. 0. 0. 0. 0. 1.49253728e-02 0. 0. 0. 0. 0. 0. 0. 0. 0. 0. 0. 0.
      0. 0. 0. 0. 0. 1.49253728e-02 0. 1.49253728e-02 0. 0. 0. 0. 0. 0.
      1.49253728e-02 0. 0. 0. 0. 0. 0. 0. 0. 0. 0. 0. 0. 0. 0. 0. 0. 0.
      0. 0. 0. 0. 0. 0. 0. 0. 0. 0. 0. 1.49253728e-02 0. 0. 0. 0. 0. 0.
      0. 0. 0. 0. 0. 0. 1.49253728e-02 0. 0. 0. 0. 0. 0. 0. 0. 0. 0. 0.
      0. 0. 0. 0. 0. 0. 0. 0. 0. 0. 0. 0. 0. 0. 0. 0. 0. 0. 0. 0. 0. 0.
      0. 0. 0. 0. 0. 0. 0. 0. 0. 5.97014911e-02 0. 0. 0. 0. 0. 0. 0. 0.
      0. 0. 0. 0. 0. 0. 0. 0. 1.49253728e-02 0. 0. 0. 0. 0. 0. 0. 0. 0.
      0. 0. 0. 0. 0. 0. 0. 0. 0. 0. 0. 0. 0. 0. 0. 0. 0. 0. 0. 0. 0. 0.
      0. 0. 0. 0. 0. 0. 0. 0. 0. 0. 0. 0. 0. 0. 0. 0. 0. 0. 0. 0. 0. 0.
      0. 0. 0. 0. 0. 0. 0. 0. 0. 0. 0. 0. 0. 0. 0. 0. 0. 0. 0. 0. 0. 0.
      0. 0. 0. 0. 0. 0. 1.49253728e-02 0. 0. 0. 0. 0. 0. 0. 0. 0. 0. 0.
      0. 0. 0. 0. 0. 0. 0. 0. 0. 0. 0. 0. 1.49253728e-02 0. 0. 0. 0. 0.
      0. 0. 0. 0. 1.49253728e-02 0. 0. 0. 0. 0. 0. 0. 0. 0. 0. 0. 0. 0.
      0. 0. 0. 0. 0. 0. 0. 0. 0. 0. 0. 0. 0. 1.49253728e-02 0. 0. 0. 0.
      0. 0. 0. 0. 0. 0. 0. 0. 0. 0. 0. 0. 0. 0. 0. 0. 0. 0. 0. 0. 0. 0.
      0. 0. 0. 0. 0. 0. 0. 0. 0. 0. 0. 0. 0. 0. 0. 0. 0. 0. 0. 0. 0. 0.
      0. 0. 0. 0. 0. 0. 0. 0. 0. 0. 0. 0. 0. 0. 1.49253728e-02 0. 0. 0.
      0. 0. 0. 0. 0. 0. 1.49253728e-02 0. 0. 0. 0. 0. 0. 0. 0. 0.
      1.49253728e-02 1.49253728e-02 1.49253728e-02 0. 0. 0. 0.
      1.49253728e-02 0. 0. 0. 0. 0. 0. 0. 0. 0. 0. 0. 0. 0. 0. 0.
      1.49253728e-02 0. 0. 0. 0. 0. 0. 0. 0. 0. 0. 0. 0. 1.49253728e-02
      0. 0. 0. 0. 0. 0. 0. 0. 0. 0. 1.49253728e-02 0. 0. 0. 0. 0.
      2.98507456e-02 0. 0. 0. 0. 0. 0. 0. 0. 0. 0. 0. 0. 0. 0. 0. 0. 0.
      0. 0. 1.49253728e-02 0. 0. 0. 0. 0. 4.47761193e-02 0. 0. 0. 0. 0.
      0. 0. 0. 0. 0. 0. 0. 0. 0. 0. 0. 0. 0. 0. 0. 1.49253728e-02 0. 0.
      0. 0. 0. 0. 0. 0. 0. 0. 0. 0. 0. 0. 0. 0. 0. 0. 0. 0. 0. 0. 0. 0.
      0. 0. 0. 0. 0. 0. 0. 0. 0. 0. 0. 0. 0. 0. 2.98507456e-02 0. 0. 0.
      0. 0. 0. 0. 0. 0. 0. 0. 0. 0. 0. 0. 1.49253728e-02 0. 0. 0. 0. 0.
      1.49253728e-02 0. 0. 0. 0. 0. 0. 0. 0. 0. 0. 0. 2.98507456e-02 0.
      0. 0. 0. 0. 0. 0. 0. 0. 0. 0. 0. 0. 0. 0. 0. 0. 2.98507456e-02 0.
      0. 0. 0. 0. 0. 0. 0. 0. 2.98507456e-02 0. 0. 0. 0. 0. 0. 0. 0. 0.
      0. 0. 0. 0. 0. 0. 0. 0. 0. 0. 1.49253728e-02 0. 0. 0. 0. 0. 0.
      1.49253728e-02 0. 0. 0. 0. 0. 0. 0. 0. 0. 0. 0. 0. 1.49253728e-02
      0. 0. 0. 0. 0. 0. 0. 0. 1.49253728e-02 0. 0. 0. 0. 0. 0. 0. 0. 0.
      0. 0. 0. 0. 0. 0. 0. 0. 0. 0. 0. 0. 0. 0. 1.49253728e-02 0.
      2.98507456e-02 0. 0. 0. 0. 0. 0. 0. 0. 0. 0. 0. 0. 0. 0. 0. 0. 0.
      0. 0. 0. 0. 0. 0. 0. 0. 0. 0. 0. 0. 1.49253728e-02 0. 0. 0. 0. 0.
      0. 0. 1.49253728e-02 0. 1.49253728e-02 0. 0. 0. 0. 0. 0. 0. 0. 0.
      0. 0. 0. 0. 0. 0. 0. 2.98507456e-02 0. 0. 0. 0. 0. 0. 0. 0. 0. 0.
      0. 0. 0. 0. 0. 0. 0. 0. 0. 0. 0. 0. 0. 0. 0. 0. 0. 1.49253728e-02
      0. 0. 0. 0. 0. 0. 0. 0. 0. 0. 0. 0. 0. 0. 0. 0. 0. 0. 0. 0. 0. 0.
      0. 1.49253728e-02 1.49253728e-02 0. 0. 0. 0. 0. 0. 0. 0. 0. 0. 0.
      0. 0. 0. 0. 0. 0. 0. 0. 0. 0. 0. 0. 0. 0. 0. 0. 0. 0. 0. 0. 0. 0.
      0. 0. 0. 0. 0. 0. 0. 0. 0. 0. 0. 0. 0. 0. 0. 0. 0. 0. 0. 0. 0. 0.
      1.49253728e-02 0. 0. 1.49253728e-02 0. 0. 0. 0. 0. 0. 0. 0. 0. 0.
      0. 0. 0. 0. 0. 1.49253728e-02 0. 0. 0. 0. 0. 0. 0. 0. 0. 0. 0. 0.
      0. 0. 1.49253728e-02 0. 0. 1.49253728e-02 0. 0. 0. 0. 0. 0. 0. 0.
      0.</_>
    <_>
      0. 0. 0. 0. 0. 0. 0. 0. 0. 0. 0. 0. 0. 0. 0. 0. 1.53846154e-02 0.
      0. 0. 0. 1.53846154e-02 0. 0. 1.53846154e-02 0. 0. 0. 0. 0. 0. 0.
      0. 0. 0. 0. 0. 0. 0. 0. 0. 0. 0. 0. 0. 0. 0. 1.53846154e-02 0. 0.
      0. 0. 0. 0. 0. 0. 0. 0. 0. 0. 0. 0. 0. 0. 0. 0. 0. 0. 0. 0. 0. 0.
      0. 0. 0. 0. 0. 0. 1.53846154e-02 0. 0. 0. 0. 0. 0. 0. 0. 0. 0. 0.
      0. 0. 0. 0. 0. 0. 0. 0. 0. 0. 0. 1.53846154e-02 0. 0. 0. 0. 0. 0.
      0. 0. 0. 0. 0. 0. 0. 0. 0. 0. 0. 0. 0. 0. 0. 0. 0. 1.53846154e-02
      0. 0. 0. 0. 0. 0. 0. 0. 0. 0. 0. 0. 0. 0. 0. 0. 0. 0. 0.
      1.53846154e-02 0. 0. 0. 0. 0. 0. 0. 0. 0. 0. 0. 0. 0. 0. 0. 0. 0.
      0. 0. 0. 0. 0. 0. 0. 0. 0. 0. 0. 1.53846154e-02 0. 0. 0. 0. 0. 0.
      0. 0. 0. 0. 0. 0. 0. 0. 0. 0. 0. 0. 0. 0. 0. 0. 0. 0. 0. 0. 0. 0.
      0. 0. 1.53846154e-02 0. 0. 0. 0. 1.53846154e-02 0. 0. 0. 0. 0. 0.
      0. 0. 0. 0. 0. 0. 0. 0. 0. 0. 0. 0. 0. 0. 0. 0. 0. 0.
      1.53846154e-02 0. 0. 0. 0. 0. 0. 0. 0. 0. 1.53846154e-02 0. 0. 0.
      0. 1.53846154e-02 0. 0. 0. 0. 0. 0. 0. 0. 4.61538471e-02 0. 0. 0.
      0. 0. 0. 0. 0. 0. 0. 0. 0. 0. 0. 1.53846154e-02 0. 0. 0. 0. 0. 0.
      0. 0. 6.15384616e-02 0. 0. 0. 0. 0. 0. 0. 0. 0. 0. 0. 0. 0. 0. 0.
      0. 0. 0. 0. 0. 0. 0. 0. 1.53846154e-02 0. 0. 0. 0. 0. 0. 0. 0. 0.
      0. 0. 0. 0. 0. 0. 0. 0. 0. 0. 0. 0. 0. 0. 0. 0. 0. 0. 0. 0. 0. 0.
      0. 0. 0. 0. 0. 0. 0. 0. 0. 0. 0. 0. 0. 0. 0. 0. 0. 1.53846154e-02
      0. 0. 1.53846154e-02 0. 0. 0. 0. 0. 0. 0. 0. 0. 0. 0. 0. 0. 0. 0.
      0. 0. 0. 0. 0. 0. 0. 0. 0. 0. 0. 0. 0. 0. 0. 0. 0. 0. 0. 0. 0. 0.
      0. 0. 0. 0. 0. 0. 0. 0. 0. 0. 0. 0. 0. 0. 0. 0. 0. 0. 0. 0. 0. 0.
      0. 0. 0. 0. 0. 0. 0. 0. 0. 0. 0. 0. 0. 0. 0. 0. 0. 0. 0. 0. 0. 0.
      0. 0. 0. 0. 0. 0. 0. 0. 0. 0. 0. 0. 0. 0. 0. 0. 0. 0. 0. 0. 0. 0.
      0. 0. 0. 0. 0. 0. 0. 0. 0. 0. 1.53846154e-02 0. 0. 0.
      1.53846154e-02 0. 4.61538471e-02 0. 0. 0. 0. 0. 0. 0. 0. 0. 0. 0.
      0. 0. 0. 0. 1.53846154e-02 0. 0. 0. 0. 0. 0. 0. 0. 1.53846154e-02
      0. 0. 0. 0. 0. 0. 0. 0. 0. 0. 1.53846154e-02 0. 0. 0. 0. 0. 0. 0.
      0. 0. 0. 0. 0. 0. 0. 0. 0. 0. 0. 0. 1.53846154e-02 0. 0. 0. 0. 0.
      0. 0. 0. 0. 0. 0. 1.53846154e-02 0. 0. 0. 0. 0. 0. 0. 0. 0. 0. 0.
      0. 0. 0. 0. 0. 0. 0. 0. 0. 0. 0. 0. 0. 0. 0. 0. 0. 0.
      4.61538471e-02 0. 0. 0. 0. 0. 0. 0. 0. 0. 0. 7.69230798e-02 0. 0.
      0. 0. 0. 0. 0. 0. 0. 0. 0. 0. 0. 0. 0. 0. 0. 0. 0. 0. 0. 0. 0. 0.
      0. 1.53846154e-02 0. 0. 0. 0. 0. 0. 0. 0. 0. 0. 0. 0. 0. 0. 0. 0.
      0. 0. 0. 0. 0. 0. 0. 0. 0. 0. 0. 0. 0. 0. 0. 0. 0. 0. 0. 0. 0. 0.
      0. 0. 0. 0. 0. 0. 1.53846154e-02 0. 0. 0. 0. 0. 0. 1.53846154e-02
      0. 0. 1.53846154e-02 0. 0. 0. 0. 0. 0. 0. 0. 0. 1.53846154e-02 0.
      0. 0. 0. 0. 0. 0. 0. 0. 0. 0. 0. 0. 1.53846154e-02 0. 0. 0. 0. 0.
      0. 0. 0. 0. 0. 0. 0. 0. 0. 0. 0. 0. 3.07692308e-02 0. 0. 0. 0. 0.
      0. 0. 0. 0. 1.53846154e-02 0. 0. 0. 0. 0. 0. 0. 0. 0. 0. 0. 0. 0.
      0. 0. 0. 0. 0. 0. 0. 0. 0. 0. 0. 0. 0. 0. 0. 0. 0. 0. 0. 0. 0. 0.
      0. 0. 0. 0. 1.53846154e-02 0. 0. 1.53846154e-02 0. 0. 0. 0. 0.
      1.53846154e-02 0. 0. 0. 0. 0. 0. 0. 0. 0. 0. 0. 0. 0. 0. 0. 0. 0.
      0. 0. 0. 0. 0. 0. 0. 0. 0. 1.53846154e-02 0. 0. 0. 0. 0. 0. 0. 0.
      0. 1.53846154e-02 0. 0. 0. 0. 0. 0. 0. 0. 0. 1.53846154e-02 0. 0.
      0. 0. 0. 0. 0. 0. 0. 1.53846154e-02 0. 0. 0. 0. 0. 0.
      1.53846154e-02 0. 0. 0. 0. 0. 0. 0. 0. 0. 0. 0. 0. 0.
      1.53846154e-02 0. 0. 0. 3.07692308e-02 0. 0. 0. 0. 0. 0. 0. 0. 0.
      0. 0. 0. 0. 0. 0. 0. 0. 0. 0. 0. 0. 0. 0. 0. 0. 0. 0. 0. 0. 0.
      1.53846154e-02 0. 0. 0. 0. 0. 0. 0. 0. 0. 0. 0. 0. 0. 0. 0. 0. 0.
      0. 0. 0. 0. 0. 0. 0. 0. 0. 0. 0. 0. 0. 0. 0. 0. 0. 0. 0. 0. 0. 0.
      0. 0. 0. 0. 0. 0. 0. 0. 0. 0. 0. 0. 0. 0. 0. 0. 0. 0. 0. 0. 0.
      1.53846154e-02 0. 0. 0. 0. 0. 0. 0. 0. 0. 0. 0. 0. 0. 0. 0. 0. 0.
      0. 0. 0. 0. 0. 0. 0. 0. 0. 0. 0. 0. 0. 0. 0. 0. 0. 0. 0. 0. 0. 0.
      0. 0. 0. 0. 0. 0. 0. 0. 0. 0. 0. 0. 0. 0. 0. 0.</_>
    <_>
      0. 0. 0. 0. 1.36986300e-02 0. 0. 0. 0. 1.36986300e-02 0. 0. 0. 0.
      0. 0. 1.36986300e-02 0. 0. 0. 0. 0. 0. 0. 0. 0. 0. 0. 0. 0. 0. 0.
      0. 0. 0. 0. 0. 0. 0. 0. 0. 0. 0. 0. 0. 0. 0. 0. 0. 0. 0. 0. 0. 0.
      0. 1.36986300e-02 0. 0. 0. 0. 0. 0. 0. 0. 0. 0. 0. 0. 0. 0. 0. 0.
      0. 0. 0. 0. 0. 0. 0. 0. 0. 0. 0. 0. 0. 0. 0. 0. 0. 0. 0. 0. 0. 0.
      0. 0. 0. 1.36986300e-02 0. 0. 0. 0. 0. 0. 0. 0. 0. 0. 0. 0. 0. 0.
      0. 0. 0. 0. 0. 0. 0. 0. 0. 0. 0. 0. 0. 0. 0. 0. 0. 0. 0. 0. 0. 0.
      0. 0. 0. 0. 0. 0. 0. 0. 0. 0. 1.36986300e-02 0. 0. 0. 0. 0. 0. 0.
      0. 0. 0. 0. 0. 0. 0. 0. 0. 0. 0. 0. 0. 0. 1.36986300e-02 0. 0.
      1.36986300e-02 0. 0. 0. 0. 0. 0. 0. 0. 0. 0. 0. 0. 0. 0. 0. 0. 0.
      0. 0. 0. 0. 0. 0. 0. 0. 0. 0. 0. 0. 0. 1.36986300e-02 0. 0. 0. 0.
      0. 0. 0. 0. 0. 0. 0. 0. 0. 0. 0. 0. 0. 0. 0. 0. 0. 0. 0. 0.
      1.36986300e-02 0. 0. 0. 0. 1.36986300e-02 0. 0. 0. 1.36986300e-02
      0. 0. 0. 0. 0. 0. 0. 0. 0. 0. 0. 0. 0. 0. 0. 0. 0. 0. 0. 0. 0. 0.
      0. 0. 4.10958901e-02 0. 1.36986300e-02 0. 0. 0. 0. 0. 0.
      1.36986300e-02 0. 0. 0. 0. 0. 0. 0. 0. 0. 0. 0. 0. 0. 0. 0. 0. 0.
      0. 0. 0. 1.36986300e-02 0. 0. 1.36986300e-02 0. 0. 0. 0. 0. 0. 0.
      0. 0. 0. 0. 0. 0. 0. 0. 0. 0. 0. 0. 0. 0. 0. 0. 0. 0. 0. 0. 0. 0.
      0. 0. 0. 0. 0. 0. 0. 0. 0. 0. 0. 0. 0. 1.36986300e-02 0.
      1.36986300e-02 0. 0. 0. 0. 0. 0. 0. 0. 0. 0. 0. 0. 0. 0. 0. 0. 0.
      1.36986300e-02 0. 0. 0. 0. 0. 0. 0. 0. 0. 2.73972601e-02 0. 0. 0.
      0. 0. 0. 0. 0. 0. 0. 0. 0. 0. 0. 0. 0. 0. 0. 0. 0. 0. 0. 0. 0. 0.
      0. 0. 0. 0. 0. 0. 0. 0. 0. 1.36986300e-02 0. 0. 0. 0. 0. 0. 0. 0.
      0. 0. 0. 0. 0. 0. 0. 0. 1.36986300e-02 0. 0. 0. 0. 0. 0. 0. 0. 0.
      0. 0. 0. 0. 0. 1.36986300e-02 0. 0. 0. 1.36986300e-02 0. 0. 0. 0.
      0. 0. 0. 0. 0. 1.36986300e-02 0. 1.36986300e-02 0. 0. 0. 0. 0. 0.
      0. 0. 0. 0. 0. 0. 0. 0. 0. 0. 0. 0. 0. 0. 0. 0. 0. 0. 0. 0. 0. 0.
      0. 0. 0. 0. 0. 0. 0. 0. 0. 1.36986300e-02 0. 0. 0. 0. 0. 0. 0. 0.
      0. 0. 0. 0. 0. 0. 0. 0. 0. 2.73972601e-02 0. 0. 0. 0. 0. 0. 0. 0.
      0. 0. 1.36986300e-02 0. 0. 0. 0. 0. 0. 0. 0. 0. 1.36986300e-02 0.
      0. 0. 0. 0. 0. 0. 0. 0. 1.36986300e-02 0. 0. 0. 0. 0. 0. 0. 0.
      1.36986300e-02 0. 0. 0. 0. 1.36986300e-02 0. 0. 0. 1.36986300e-02
      0. 0. 0. 0. 1.36986300e-02 0. 0. 0. 0. 0. 0. 0. 1.36986300e-02 0.
      0. 0. 0. 0. 0. 0. 0. 0. 0. 1.36986300e-02 0. 0. 0. 0. 0. 0. 0. 0.
      0. 0. 0. 0. 0. 0. 0. 0. 0. 0. 0. 0. 0. 1.36986300e-02 0. 0. 0. 0.
      0. 0. 0. 0. 0. 0. 1.36986300e-02 0. 0. 0. 1.36986300e-02 0. 0. 0.
      0. 0. 0. 0. 0. 0. 0. 0. 0. 1.36986300e-02 0. 0. 0. 0. 0. 0. 0. 0.
      0. 0. 0. 0. 0. 1.36986300e-02 0. 0. 0. 0. 0. 0. 1.36986300e-02 0.
      1.36986300e-02 0. 0. 1.36986300e-02 0. 0. 0. 0. 0. 0. 0. 0. 0. 0.
      0. 0. 0. 0. 0. 0. 0. 0. 0. 0. 0. 0. 0. 0. 0. 0. 0. 0. 0. 0.
      1.36986300e-02 0. 0. 0. 4.10958901e-02 0. 0. 0. 0. 0. 0. 0. 0. 0.
      0. 0. 0. 0. 0. 0. 0. 0. 0. 0. 0. 0. 0. 0. 0. 0. 0. 0. 0. 0. 0. 0.
      0. 0. 0. 0. 0. 0. 0. 0. 0. 0. 0. 0. 0. 1.36986300e-02 0. 0.
      2.73972601e-02 0. 0. 0. 0. 0. 0. 0. 0. 0. 0. 0. 0. 0.
      4.10958901e-02 0. 0. 0. 0. 0. 0. 0. 0. 0. 0. 0. 0. 0. 0. 0. 0. 0.
      0. 0. 0. 0. 0. 0. 0. 2.73972601e-02 0. 0. 0. 0. 0. 0. 0. 0.
      1.36986300e-02 0. 0. 0. 0. 0. 0. 0. 0. 0. 0. 0. 0. 0. 0. 0. 0. 0.
      0. 0. 0. 0. 0. 1.36986300e-02 0. 0. 0. 0. 0. 0. 0. 0. 0. 0. 0. 0.
      0. 0. 0. 0. 0. 0. 0. 0. 0. 0. 0. 0. 0. 1.36986300e-02 0. 0. 0.
      1.36986300e-02 0. 0. 0. 0. 0. 0. 0. 0. 0. 0. 0. 0. 0. 0. 0. 0. 0.
      0. 0. 0. 0. 0. 0. 0. 0. 0. 0. 0. 0. 0. 0. 0. 0. 0. 0. 0. 0. 0.
      1.36986300e-02 0. 0. 0. 0. 0. 0. 1.36986300e-02 0. 0. 0. 0. 0. 0.
      0. 0. 0. 0. 0. 0. 0. 0. 0. 0. 0. 0. 0. 0. 0. 0. 0. 0. 0. 0. 0. 0.
      0. 0. 0. 0. 0. 0. 0. 0. 0. 0. 0. 0. 0. 0. 0. 0. 0. 0. 0. 0. 0. 0.
      0. 0. 0. 0. 0. 0. 0. 0. 0. 0. 0. 0. 0. 0. 0. 0. 0. 0. 0. 0. 0. 0.
      0. 0. 1.36986300e-02 0. 0. 0. 0. 0. 0. 0. 0. 0. 0. 0. 0. 0. 0. 0.
      0. 0. 1.36986300e-02 0. 0. 0. 0. 0. 0. 0. 0. 0. 1.36986300e-02 0.
      0. 0. 0. 0. 1.36986300e-02 0. 0. 0. 0. 1.36986300e-02 0. 0.</_>
    <_>
      0. 0. 0. 4.65116277e-03 0. 0. 0. 0. 0. 0. 0. 0. 0. 0. 0. 0. 0. 0.
      0. 0. 4.65116277e-03 0. 0. 0. 0. 4.65116277e-03 0. 0. 0. 0. 0. 0.
      0. 0. 0. 0. 0. 0. 0. 0. 0. 4.65116277e-03 0. 0. 0. 0. 0. 0. 0. 0.
      0. 0. 4.65116277e-03 0. 4.65116277e-03 0. 0. 0. 0. 0. 0. 0. 0. 0.
      0. 0. 0. 0. 0. 0. 0. 0. 0. 0. 0. 0. 0. 0. 0. 0. 0. 4.65116277e-03
      0. 0. 0. 0. 0. 4.65116277e-03 0. 1.39534883e-02 0. 0. 0. 0. 0.
      4.65116277e-03 0. 0. 0. 0. 0. 9.30232555e-03 0. 0. 0. 0. 0. 0.
      4.65116277e-03 0. 0. 0. 0. 0. 0. 0. 4.65116277e-03 0. 0. 0. 0. 0.
      0. 0. 0. 4.65116277e-03 0. 0. 0. 0. 0. 0. 0. 0. 0. 0. 0. 0. 0.
      4.65116277e-03 0. 0. 0. 0. 0. 0. 0. 0. 4.65116277e-03 0. 0. 0. 0.
      0. 0. 0. 0. 4.65116277e-03 0. 0. 0. 4.65116277e-03 0. 0. 0. 0.
      4.65116277e-03 0. 0. 0. 0. 0. 0. 0. 0. 0. 4.65116277e-03 0. 0. 0.
      0. 0. 0. 0. 4.65116277e-03 0. 0. 0. 0. 0. 0. 0. 0. 0.
      4.65116277e-03 0. 0. 0. 0. 0. 0. 4.65116277e-03 0. 0. 0. 0. 0. 0.
      0. 0. 0. 0. 0. 0. 0. 0. 0. 0. 0. 0. 0. 0. 0. 1.39534883e-02 0. 0.
      4.65116277e-03 0. 0. 0. 0. 4.65116277e-03 0. 0. 0. 0. 0. 0. 0. 0.
      0. 0. 0. 0. 0. 4.65116277e-03 0. 0. 0. 0. 0. 4.65116277e-03 0. 0.
      0. 0. 0. 0. 0. 0. 0. 0. 0. 0. 0. 0. 0. 0. 4.65116277e-03 0. 0. 0.
      0. 4.65116277e-03 0. 0. 0. 0. 0. 0. 0. 4.65116277e-03 0.
      4.65116277e-03 0. 0. 4.65116277e-03 0. 4.65116277e-03 0. 0. 0. 0.
      0. 0. 4.65116277e-03 0. 0. 0. 0. 0. 4.65116277e-03 0. 0. 0. 0. 0.
      0. 0. 0. 0. 0. 0. 0. 0. 0. 0. 0. 0. 4.65116277e-03 0. 0. 0. 0. 0.
      0. 4.65116277e-03 0. 0. 0. 9.30232555e-03 0. 0. 0. 0. 0. 0. 0. 0.
      0. 0. 4.65116277e-03 0. 0. 0. 0. 4.65116277e-03 0. 0. 0. 0. 0. 0.
      0. 0. 0. 4.65116277e-03 4.65116277e-03 4.65116277e-03 0.
      4.65116277e-03 4.65116277e-03 0. 0. 4.65116277e-03 0. 0. 0. 0. 0.
      0. 0. 0. 4.65116277e-03 0. 0. 0. 4.65116277e-03 0. 4.65116277e-03
      0. 4.65116277e-03 0. 0. 4.65116277e-03 0. 0. 0. 0. 0.
      9.30232555e-03 0. 0. 0. 0. 0. 0. 0. 0. 0. 0. 0. 0. 0. 0. 0. 0.
      4.65116277e-03 0. 0. 0. 0. 4.65116277e-03 0. 0. 0. 4.65116277e-03
      0. 0. 0. 0. 0. 0. 0. 0. 0. 0. 0. 4.65116277e-03 0. 4.65116277e-03
      9.30232555e-03 0. 0. 0. 0. 4.65116277e-03 0. 0. 0. 0.
      4.65116277e-03 0. 0. 0. 0. 0. 0. 0. 0. 9.30232555e-03 0.
      4.65116277e-03 0. 0. 4.65116277e-03 0. 0. 0. 0. 0. 0. 0. 0. 0. 0.
      0. 0. 0. 0. 4.65116277e-03 9.30232555e-03 0. 0. 0. 4.65116277e-03
      0. 0. 0. 0. 4.65116277e-03 0. 0. 0. 0. 0. 4.65116277e-03 0. 0. 0.
      0. 0. 0. 0. 0. 0. 0. 0. 0. 4.65116277e-03 0. 0. 0. 4.65116277e-03
      0. 0. 0. 0. 0. 0. 0. 0. 0. 1.86046511e-02 0. 0. 0. 4.65116277e-03
      4.65116277e-03 0. 0. 0. 0. 0. 0. 0. 0. 4.65116277e-03 0. 0. 0.
      4.65116277e-03 0. 0. 0. 0. 0. 0. 0. 0. 0. 0. 9.30232555e-03
      4.65116277e-03 4.65116277e-03 4.65116277e-03 0. 0. 0.
      4.65116277e-03 0. 0. 4.65116277e-03 0. 0. 9.30232555e-03 0.
      4.65116277e-03 0. 0. 0. 4.65116277e-03 0. 0. 0. 0. 0.
      4.65116277e-03 0. 0. 0. 0. 0. 0. 0. 0. 0. 0. 0. 0. 0.
      4.65116277e-03 0. 0. 9.30232555e-03 0. 4.65116277e-03 0. 0. 0.
      4.65116277e-03 0. 0. 0. 4.65116277e-03 0. 4.65116277e-03 0. 0. 0.
      0. 0. 9.30232555e-03 0. 0. 0. 0. 0. 0. 0. 4.65116277e-03
      4.65116277e-03 0. 0. 0. 0. 0. 0. 0. 0. 0. 4.65116277e-03 0. 0. 0.
      4.65116277e-03 0. 0. 0. 4.65116277e-03 0. 0. 0. 0. 0. 0. 0. 0. 0.
      0. 0. 4.65116277e-03 0. 0. 4.65116277e-03 0. 0. 0. 0. 0. 0. 0. 0.
      0. 0. 0. 0. 0. 0. 0. 0. 0. 0. 9.30232555e-03 0. 0. 0. 0. 0.
      4.65116277e-03 0. 0. 0. 9.30232555e-03 0. 4.65116277e-03 0. 0. 0.
      0. 4.65116277e-03 0. 0. 0. 0. 0. 0. 0. 4.65116277e-03 0. 0. 0. 0.
      0. 0. 0. 0. 0. 0. 0. 0. 4.65116277e-03 0. 1.39534883e-02 0. 0.
      9.30232555e-03 0. 0. 0. 0. 0. 0. 0. 0. 4.65116277e-03 0.
      4.65116277e-03 0. 0. 0. 0. 9.30232555e-03 0. 4.65116277e-03 0. 0.
      0. 0. 0. 0. 0. 0. 0. 0. 0. 4.65116277e-03 0. 0. 0. 0.
      4.65116277e-03 0. 4.65116277e-03 4.65116277e-03 0. 0. 0. 0.
      4.65116277e-03 0. 0. 0. 0. 0. 0. 0. 4.65116277e-03 9.30232555e-03
      0. 0. 4.65116277e-03 0. 0. 0. 9.30232555e-03 0. 1.39534883e-02 0.
      0. 0. 0. 0. 0. 0. 0. 1.39534883e-02 0. 0. 4.65116277e-03 0. 0. 0.
      0. 0. 4.65116277e-03 0. 0. 0. 0. 0. 4.65116277e-03 0. 0. 0. 0. 0.
      0. 0. 0. 4.65116277e-03 0. 4.65116277e-03 0. 0. 0. 0.
      9.30232555e-03 9.30232555e-03 0. 0. 0. 0. 4.65116277e-03 0. 0. 0.
      0. 0. 0. 0. 9.30232555e-03 9.30232555e-03 0. 4.65116277e-03 0. 0.
      0. 0. 0. 0. 0. 0. 4.65116277e-03 0. 4.65116277e-03 0. 0. 0. 0. 0.
      0. 0. 0. 0. 0. 4.65116277e-03 0. 0. 0. 0. 0. 4.65116277e-03
      9.30232555e-03 0. 0. 0. 4.65116277e-03 0. 4.65116277e-03 0. 0. 0.
      0. 4.65116277e-03 0. 4.65116277e-03 0. 0. 4.65116277e-03
      4.65116277e-03 0. 0. 0. 0. 0. 0. 0. 0. 0. 0. 4.65116277e-03
      4.65116277e-03 4.65116277e-03 0. 0. 0. 0. 0. 0. 0. 0. 0. 0. 0. 0.
      0. 0. 0. 0. 0. 0. 4.65116277e-03 0. 0. 4.65116277e-03 0. 0. 0. 0.
      9.30232555e-03 0. 0. 0. 0. 0. 2.32558139e-02 0. 0. 4.65116277e-03
      0. 0. 0. 4.65116277e-03 0. 0. 4.65116277e-03 0. 0. 1.39534883e-02
      0. 0. 0. 0. 0. 0. 0. 0. 0. 4.65116277e-03 0. 4.65116277e-03 0.
      4.65116277e-03 4.65116277e-03 0. 0. 9.30232555e-03 0. 0. 0.
      1.39534883e-02 0. 4.65116277e-03 0. 4.65116277e-03 0. 0. 0. 0. 0.
      4.65116277e-03 0. 0. 0. 0. 0. 0. 0. 0. 0. 0. 0. 0. 0. 0. 0. 0. 0.
      0. 0. 0. 0. 4.65116277e-03 0. 9.30232555e-03 0. 0. 0. 0.
      4.65116277e-03 0. 0. 0. 0. 0. 0. 4.65116277e-03 0. 0.</_>
    <_>
      0. 8.84955749e-03 0. 4.42477874e-03 0. 0. 0. 0. 0. 0. 0.
      4.42477874e-03 4.42477874e-03 0. 0. 0. 0. 0. 0. 0. 4.42477874e-03
      0. 0. 0. 0. 4.42477874e-03 0. 0. 0. 0. 0. 0. 0. 0. 0. 0. 0. 0. 0.
      4.42477874e-03 0. 0. 0. 0. 0. 0. 0. 0. 0. 0. 0. 4.42477874e-03
      4.42477874e-03 0. 0. 0. 0. 0. 0. 0. 0. 0. 0. 0. 0. 0. 0. 0. 0. 0.
      4.42477874e-03 0. 0. 0. 0. 0. 0. 4.42477874e-03 0. 0. 0.
      4.42477874e-03 0. 0. 0. 0. 0. 4.42477874e-03 0. 8.84955749e-03 0.
      0. 0. 0. 0. 4.42477874e-03 0. 0. 0. 0. 0. 8.84955749e-03 0. 0. 0.
      0. 0. 0. 0. 0. 0. 0. 0. 0. 0. 0. 0. 0. 0. 0. 0. 0. 0. 0. 0. 0. 0.
      0. 0. 0. 0. 0. 0. 0. 0. 0. 0. 0. 0. 4.42477874e-03 0. 0. 0. 0. 0.
      0. 0. 0. 1.32743362e-02 0. 0. 0. 0. 0. 0. 0. 4.42477874e-03 0. 0.
      0. 0. 4.42477874e-03 0. 0. 0. 0. 4.42477874e-03 0. 4.42477874e-03
      0. 0. 0. 0. 0. 0. 0. 0. 0. 0. 0. 0. 0. 0. 0. 4.42477874e-03 0.
      4.42477874e-03 0. 0. 0. 0. 0. 0. 0. 4.42477874e-03 0. 0. 0. 0. 0.
      0. 4.42477874e-03 0. 0. 0. 0. 0. 0. 4.42477874e-03 0. 0. 0. 0. 0.
      4.42477874e-03 0. 0. 0. 0. 0. 0. 0. 0. 0. 0. 4.42477874e-03
      4.42477874e-03 4.42477874e-03 0. 0. 0. 4.42477874e-03 0. 0. 0. 0.
      0. 0. 0. 0. 0. 0. 0. 4.42477874e-03 0. 4.42477874e-03 0. 0. 0. 0.
      0. 0. 0. 0. 0. 0. 0. 0. 0. 4.42477874e-03 0. 0. 0. 0. 0. 0. 0. 0.
      0. 0. 0. 0. 0. 8.84955749e-03 0. 0. 0. 0. 0. 0. 0. 0. 0. 0. 0. 0.
      8.84955749e-03 0. 4.42477874e-03 0. 4.42477874e-03 0. 0. 0. 0. 0.
      0. 0. 4.42477874e-03 0. 0. 4.42477874e-03 0. 0. 0. 0.
      8.84955749e-03 0. 0. 4.42477874e-03 0. 0. 0. 0. 0. 0. 0.
      4.42477874e-03 4.42477874e-03 4.42477874e-03 0. 4.42477874e-03 0.
      0. 0. 0. 0. 0. 0. 0. 4.42477874e-03 0. 0. 0. 0. 4.42477874e-03 0.
      0. 0. 0. 0. 4.42477874e-03 0. 0. 0. 0. 0. 0. 0. 0. 0. 0. 0. 0. 0.
      0. 0. 0. 4.42477874e-03 0. 4.42477874e-03 4.42477874e-03
      4.42477874e-03 0. 4.42477874e-03 0. 0. 0. 0. 0. 0. 0. 0.
      4.42477874e-03 0. 0. 0. 4.42477874e-03 0. 4.42477874e-03 0.
      4.42477874e-03 0. 0. 8.84955749e-03 0. 0. 0. 4.42477874e-03 0. 0.
      0. 0. 0. 8.84955749e-03 0. 0. 0. 0. 0. 0. 0. 0. 0. 0. 0. 0. 0. 0.
      0. 0. 0. 4.42477874e-03 0. 0. 0. 0. 0. 0. 0. 0. 0. 4.42477874e-03
      0. 0. 0. 0. 0. 0. 0. 0. 4.42477874e-03 0. 0. 0. 0. 4.42477874e-03
      8.84955749e-03 0. 0. 0. 0. 0. 0. 0. 0. 0. 0. 0. 0. 4.42477874e-03
      0. 8.84955749e-03 0. 0. 0. 0. 0. 0. 0. 0. 0. 0. 0. 0. 0. 0. 0. 0.
      0. 0. 8.84955749e-03 0. 4.42477874e-03 0. 4.42477874e-03 0. 0. 0.
      0. 0. 0. 4.42477874e-03 0. 0. 0. 4.42477874e-03 0. 0. 0. 0. 0. 0.
      0. 0. 0. 0. 0. 0. 4.42477874e-03 0. 0. 0. 0. 0. 0. 0. 0. 0. 0. 0.
      0. 0. 8.84955749e-03 0. 0. 4.42477874e-03 4.42477874e-03
      8.84955749e-03 0. 0. 0. 0. 0. 0. 0. 0. 4.42477874e-03 0. 0. 0.
      4.42477874e-03 0. 0. 0. 4.42477874e-03 4.42477874e-03 0. 0. 0. 0.
      0. 0. 4.42477874e-03 4.42477874e-03 0. 0. 0. 0. 1.32743362e-02 0.
      0. 0. 4.42477874e-03 0. 0. 0. 8.84955749e-03 0. 0. 0. 0. 0. 0. 0.
      0. 0. 8.84955749e-03 0. 4.42477874e-03 0. 0. 0. 0. 0. 0. 0.
      4.42477874e-03 0. 0. 0. 4.42477874e-03 0. 0. 1.32743362e-02 0.
      8.84955749e-03 0. 4.42477874e-03 0. 4.42477874e-03 0. 0. 0.
      4.42477874e-03 0. 4.42477874e-03 0. 0. 0. 0. 0. 0. 4.42477874e-03
      0. 0. 0. 0. 0. 0. 4.42477874e-03 8.84955749e-03 0. 4.42477874e-03
      0. 0. 0. 4.42477874e-03 0. 0. 0. 0. 0. 0. 0. 0. 0. 0. 0.
      1.32743362e-02 0. 0. 0. 0. 4.42477874e-03 0. 4.42477874e-03 0.
      4.42477874e-03 0. 0. 0. 0. 0. 4.42477874e-03 0. 0. 0. 0.
      4.42477874e-03 4.42477874e-03 0. 4.42477874e-03 0. 0. 0. 0. 0. 0.
      0. 0. 0. 4.42477874e-03 8.84955749e-03 0. 4.42477874e-03 0. 0. 0.
      4.42477874e-03 0. 0. 0. 4.42477874e-03 0. 4.42477874e-03 0.
      4.42477874e-03 0. 0. 0. 0. 0. 0. 0. 0. 0. 0. 0. 0. 4.42477874e-03
      0. 0. 0. 0. 0. 0. 0. 0. 0. 0. 0. 0. 8.84955749e-03 0. 0.
      8.84955749e-03 0. 0. 4.42477874e-03 0. 0. 0. 0. 0. 4.42477874e-03
      0. 8.84955749e-03 0. 0. 0. 4.42477874e-03 4.42477874e-03 0.
      4.42477874e-03 0. 0. 0. 8.84955749e-03 0. 0. 0. 4.42477874e-03 0.
      0. 0. 0. 0. 0. 0. 4.42477874e-03 4.42477874e-03 0. 0. 0. 0. 0. 0.
      0. 4.42477874e-03 0. 0. 0. 8.84955749e-03 0. 0. 0. 0.
      4.42477874e-03 0. 0. 0. 0. 0. 0. 4.42477874e-03 0. 1.32743362e-02
      0. 0. 0. 0. 4.42477874e-03 0. 4.42477874e-03 0. 4.42477874e-03 0.
      0. 0. 0. 0. 0. 0. 0. 4.42477874e-03 0. 0. 0. 0. 0. 0. 0. 0.
      4.42477874e-03 0. 0. 8.84955749e-03 0. 0. 4.42477874e-03 0.
      4.42477874e-03 0. 0. 0. 0. 8.84955749e-03 1.32743362e-02 0. 0. 0.
      4.42477874e-03 4.42477874e-03 0. 0. 0. 0. 0. 0. 0. 0.
      8.84955749e-03 0. 4.42477874e-03 0. 0. 4.42477874e-03 0. 0. 0. 0.
      0. 0. 0. 4.42477874e-03 0. 0. 0. 0. 0. 0. 0. 0. 0. 0. 0. 0. 0. 0.
      0. 0. 4.42477874e-03 4.42477874e-03 0. 0. 0. 0. 0. 0. 0. 0. 0. 0.
      4.42477874e-03 0. 0. 0. 0. 8.84955749e-03 0. 0. 0. 0. 0. 0. 0. 0.
      0. 0. 0. 0. 4.42477874e-03 0. 0. 0. 0. 0. 0. 0. 0. 4.42477874e-03
      0. 0. 0. 0. 0. 0. 0. 0. 0. 0. 0. 0. 0. 4.42477874e-03 0. 0. 0. 0.
      0. 0. 0. 0. 0. 0. 1.32743362e-02 4.42477874e-03 0. 4.42477874e-03
      0. 0. 0. 4.42477874e-03 8.84955749e-03 0. 8.84955749e-03 0. 0.
      1.32743362e-02 0. 0. 0. 0. 8.84955749e-03 0. 0. 0. 0. 0. 0. 0. 0.
      4.42477874e-03 0. 0. 0. 1.32743362e-02 0. 0. 0. 1.76991150e-02 0.
      4.42477874e-03 0. 0. 0. 0. 0. 0. 0. 4.42477874e-03 0. 0. 0. 0. 0.
      0. 0. 0. 0. 0. 0. 0. 0. 0. 0. 0. 0. 0. 0. 0. 0. 0. 0. 0. 0. 0. 0.
      0. 0. 4.42477874e-03 0. 0. 4.42477874e-03 0. 0. 4.42477874e-03 0.
      0.</_>
    <_>
      0. 0. 0. 0. 0. 0. 0. 0. 0. 4.99999989e-03 0. 0. 0. 0. 0. 0. 0. 0.
      0. 0. 0. 0. 0. 0. 0. 0. 0. 0. 0. 0. 0. 0. 4.99999989e-03 0. 0. 0.
      0. 4.99999989e-03 4.99999989e-03 0. 0. 0. 0. 4.99999989e-03 0. 0.
      0. 0. 4.99999989e-03 0. 0. 4.99999989e-03 0. 0. 0. 0. 0. 0. 0. 0.
      0. 4.99999989e-03 0. 0. 0. 0. 0. 0. 4.99999989e-03 0. 0.
      4.99999989e-03 4.99999989e-03 0. 0. 0. 0. 0. 9.99999978e-03 0.
      4.99999989e-03 0. 0. 0. 0. 0. 0. 0. 0. 0. 4.99999989e-03 0. 0. 0.
      0. 0. 0. 0. 9.99999978e-03 4.99999989e-03 0. 0. 0. 0. 0. 0. 0. 0.
      0. 0. 0. 4.99999989e-03 0. 0. 0. 0. 0. 0. 0. 0. 0. 0. 0. 0. 0. 0.
      0. 0. 0. 0. 4.99999989e-03 0. 0. 0. 0. 0. 0. 0. 0. 4.99999989e-03
      0. 0. 0. 0. 0. 9.99999978e-03 0. 0. 0. 0. 0. 0. 4.99999989e-03 0.
      0. 4.99999989e-03 0. 4.99999989e-03 0. 0. 0. 0. 0. 0. 0. 0. 0.
      4.99999989e-03 4.99999989e-03 0. 0. 0. 4.99999989e-03 0. 0. 0. 0.
      0. 4.99999989e-03 0. 0. 0. 9.99999978e-03 0. 0. 0. 0.
      4.99999989e-03 0. 0. 0. 0. 0. 0. 0. 0. 0. 0. 0. 0. 0.
      9.99999978e-03 0. 4.99999989e-03 4.99999989e-03 0. 4.99999989e-03
      0. 0. 0. 4.99999989e-03 4.99999989e-03 0. 0. 0. 0. 0. 0.
      4.99999989e-03 0. 0. 0. 4.99999989e-03 0. 0. 4.99999989e-03 0. 0.
      9.99999978e-03 0. 0. 0. 0. 0. 4.99999989e-03 0. 0. 0.
      4.99999989e-03 0. 4.99999989e-03 0. 0. 0. 0. 0. 4.99999989e-03 0.
      0. 0. 0. 0. 0. 0. 0. 0. 0. 0. 0. 0. 0. 0. 0. 0. 0. 0.
      9.99999978e-03 0. 0. 0. 0. 9.99999978e-03 0. 0. 0. 0. 0. 0. 0. 0.
      0. 0. 0. 4.99999989e-03 0. 0. 0. 0. 0. 0. 4.99999989e-03 0.
      4.99999989e-03 0. 0. 4.99999989e-03 0. 0. 0. 4.99999989e-03 0.
      4.99999989e-03 0. 0. 0. 0. 0. 0. 0. 0. 0. 0. 4.99999989e-03 0. 0.
      0. 0. 0. 0. 0. 0. 0. 0. 0. 0. 0. 0. 4.99999989e-03 4.99999989e-03
      0. 0. 0. 0. 0. 0. 4.99999989e-03 0. 0. 0. 0. 0. 0. 0. 0. 0. 0. 0.
      0. 0. 4.99999989e-03 4.99999989e-03 0. 0. 0. 0. 0. 0. 0. 0. 0. 0.
      0. 0. 0. 0. 0. 0. 4.99999989e-03 0. 0. 0. 0. 0. 0. 0. 0. 0.
      4.99999989e-03 4.99999989e-03 0. 0. 0. 0. 0. 0. 4.99999989e-03 0.
      0. 0. 0. 0. 0. 0. 0. 0. 0. 0. 0. 0. 0. 0. 0. 0. 0. 0. 0. 0. 0.
      4.99999989e-03 0. 0. 0. 0. 0. 0. 4.99999989e-03 0. 0.
      4.99999989e-03 0. 0. 4.99999989e-03 0. 4.99999989e-03 0. 0. 0. 0.
      4.99999989e-03 0. 0. 0. 4.99999989e-03 0. 0. 0. 4.99999989e-03 0.
      0. 4.99999989e-03 0. 0. 0. 0. 0. 0. 0. 0. 0. 0. 0. 9.99999978e-03
      0. 0. 0. 0. 0. 0. 4.99999989e-03 0. 4.99999989e-03 0. 0. 0. 0.
      9.99999978e-03 4.99999989e-03 0. 0. 0. 0. 0. 0. 0. 0. 0. 0. 0. 0.
      0. 0. 0. 0. 0. 0. 0. 0. 4.99999989e-03 0. 0. 0. 0. 0. 0. 0. 0. 0.
      0. 0. 0. 0. 0. 0. 0. 0. 4.99999989e-03 0. 0. 0. 1.49999997e-02 0.
      0. 4.99999989e-03 1.49999997e-02 0. 4.99999989e-03 0.
      4.99999989e-03 0. 0. 0. 0. 0. 4.99999989e-03 0. 0. 0. 0.
      4.99999989e-03 4.99999989e-03 0. 4.99999989e-03 0. 0. 0.
      4.99999989e-03 0. 0. 0. 0. 0. 0. 0. 0. 0. 0. 0. 0. 0.
      9.99999978e-03 0. 4.99999989e-03 0. 4.99999989e-03 4.99999989e-03
      0. 0. 0. 0. 0. 0. 0. 4.99999989e-03 0. 0. 0. 0. 0. 4.99999989e-03
      0. 4.99999989e-03 0. 0. 0. 0. 0. 0. 0. 0. 4.99999989e-03
      9.99999978e-03 0. 0. 0. 0. 0. 0. 4.99999989e-03 4.99999989e-03 0.
      9.99999978e-03 0. 0. 0. 4.99999989e-03 0. 0. 0. 0. 0. 0.
      4.99999989e-03 0. 0. 0. 0. 0. 0. 0. 0. 0. 0. 0. 0. 0. 0.
      4.99999989e-03 0. 0. 0. 0. 0. 0. 0. 0. 0. 0. 4.99999989e-03 0. 0.
      0. 0. 0. 4.99999989e-03 0. 0. 0. 0. 0. 0. 0. 0. 0. 0. 0. 0. 0. 0.
      0. 0. 0. 0. 0. 9.99999978e-03 0. 0. 0. 0. 0. 0. 0. 0. 0.
      4.99999989e-03 0. 4.99999989e-03 0. 0. 0. 0. 0. 0. 0.
      9.99999978e-03 0. 0. 0. 0. 0. 4.99999989e-03 0. 0. 0. 0. 0. 0. 0.
      0. 0. 0. 0. 0. 0. 0. 0. 0. 0. 0. 0. 0. 0. 0. 0. 4.99999989e-03 0.
      0. 0. 0. 0. 4.99999989e-03 0. 0. 0. 0. 0. 0. 0. 0. 0. 0. 0. 0. 0.
      0. 4.99999989e-03 0. 0. 0. 0. 0. 0. 0. 0. 4.99999989e-03 0.
      4.99999989e-03 0. 0. 0. 0. 0. 4.99999989e-03 0. 0. 0. 0. 0. 0. 0.
      0. 0. 0. 0. 0. 0. 0. 4.99999989e-03 0. 4.99999989e-03 0. 0. 0. 0.
      0. 0. 4.99999989e-03 4.99999989e-03 4.99999989e-03 4.99999989e-03
      0. 4.99999989e-03 1.49999997e-02 0. 4.99999989e-03 0.
      4.99999989e-03 4.99999989e-03 0. 0. 0. 0. 4.99999989e-03 0. 0. 0.
      0. 0. 0. 0. 4.99999989e-03 0. 0. 0. 4.99999989e-03 9.99999978e-03
      0. 0. 4.99999989e-03 0. 0. 4.99999989e-03 0. 0. 0. 0. 0. 0. 0.
      4.99999989e-03 0. 0. 0. 4.99999989e-03 4.99999989e-03
      4.99999989e-03 0. 0. 0. 4.99999989e-03 0. 0. 4.99999989e-03 0. 0.
      0. 0. 0. 0. 4.99999989e-03 0. 0. 0. 0. 0. 0. 0. 0. 0. 0. 0. 0. 0.
      0. 0. 0. 0. 0. 0. 0. 0. 0. 0. 0. 0. 0. 4.99999989e-03 0.
      4.99999989e-03 0. 0. 0. 4.99999989e-03 0. 0. 0. 0. 4.99999989e-03
      0. 0. 0. 0. 0. 4.99999989e-03 9.99999978e-03 0. 0. 0. 0. 0. 0. 0.
      4.99999989e-03 0. 0. 0. 0. 0. 0. 4.99999989e-03 0. 0.
      4.99999989e-03 0. 0. 0. 0. 0. 0. 0. 0. 0. 0. 9.99999978e-03 0. 0.
      0. 0. 0. 0. 4.99999989e-03 4.99999989e-03 0. 0. 0. 0. 0.
      4.99999989e-03 0. 4.99999989e-03 0. 0. 0. 4.99999989e-03 0.
      4.99999989e-03 0. 9.99999978e-03 0. 0. 0. 0. 0. 0. 0.
      4.99999989e-03 0. 4.99999989e-03 0. 0. 0. 0. 9.99999978e-03 0.
      4.99999989e-03 0. 0. 0. 0. 0. 0. 0. 0. 0. 0. 0. 0. 0.
      4.99999989e-03 4.99999989e-03 4.99999989e-03 0. 0. 4.99999989e-03
      0. 0. 0. 0. 4.99999989e-03 0. 0. 0. 4.99999989e-03 4.99999989e-03
      0. 0. 0. 0. 9.99999978e-03 0. 0. 0. 4.99999989e-03 0. 0.
      4.99999989e-03 4.99999989e-03 0. 0. 0. 0. 0. 0. 0. 0.
      4.99999989e-03 0. 0. 4.99999989e-03 0. 0.</_>
    <_>
      0. 0. 0. 2.98507465e-03 0. 0. 0. 0. 0. 2.98507465e-03
      2.98507465e-03 0. 0. 0. 0. 0. 0. 0. 2.98507465e-03 0.
      2.98507465e-03 0. 2.98507465e-03 0. 0. 0. 2.98507465e-03
      2.98507465e-03 0. 0. 0. 0. 0. 0. 2.98507465e-03 0. 0. 0.
      5.97014930e-03 0. 0. 0. 0. 0. 2.98507465e-03 0. 0. 0.
      2.98507465e-03 0. 0. 0. 2.98507465e-03 0. 0. 0. 0. 2.98507465e-03
      0. 2.98507465e-03 0. 0. 0. 0. 2.98507465e-03 0. 0. 0.
      1.19402986e-02 2.98507465e-03 0. 2.98507465e-03 0. 0. 0.
      2.98507465e-03 0. 0. 0. 0. 0. 0. 0. 0. 0. 2.98507465e-03 0. 0. 0.
      0. 0. 0. 0. 0. 8.95522349e-03 0. 0. 0. 2.98507465e-03 0. 0. 0. 0.
      0. 0. 0. 2.98507465e-03 2.98507465e-03 5.97014930e-03
      5.97014930e-03 0. 0. 2.98507465e-03 0. 0. 0. 0. 0. 0. 0. 0. 0. 0.
      0. 0. 0. 0. 2.98507465e-03 0. 0. 0. 0. 0. 2.98507465e-03 0. 0. 0.
      2.98507465e-03 0. 0. 2.98507465e-03 0. 2.98507465e-03 0. 0.
      2.98507465e-03 0. 2.98507465e-03 2.98507465e-03 0. 0. 0. 0. 0. 0.
      0. 2.98507465e-03 5.97014930e-03 0. 0. 0. 0. 0. 0. 0. 0. 0. 0. 0.
      0. 0. 0. 0. 0. 5.97014930e-03 0. 0. 0. 5.97014930e-03 0. 0. 0. 0.
      0. 2.98507465e-03 0. 5.97014930e-03 1.49253737e-02 2.98507465e-03
      0. 5.97014930e-03 0. 0. 0. 0. 0. 2.98507465e-03 0. 2.98507465e-03
      0. 0. 0. 0. 0. 2.98507465e-03 0. 0. 2.98507465e-03 0. 0.
      2.98507465e-03 0. 0. 0. 0. 0. 0. 0. 8.95522349e-03 0.
      2.98507465e-03 2.98507465e-03 2.98507465e-03 0. 0. 0. 0. 0.
      2.98507465e-03 8.95522349e-03 0. 2.98507465e-03 0. 0. 0. 0. 0. 0.
      2.98507465e-03 0. 0. 0. 0. 0. 0. 0. 0. 0. 0. 0. 0. 0. 0. 0.
      2.98507465e-03 0. 0. 0. 0. 2.98507465e-03 0. 0. 0. 0. 0.
      2.98507465e-03 0. 0. 2.98507465e-03 0. 0. 0. 0. 0. 0. 0. 0. 0. 0.
      0. 2.98507465e-03 0. 0. 0. 0. 2.98507465e-03 0. 0. 2.98507465e-03
      0. 0. 0. 2.98507465e-03 0. 0. 0. 2.98507465e-03 0. 0. 0.
      2.98507465e-03 0. 0. 0. 0. 0. 0. 0. 2.98507465e-03 0. 0. 0. 0. 0.
      0. 0. 2.98507465e-03 0. 0. 2.98507465e-03 2.98507465e-03 0.
      2.98507465e-03 0. 0. 2.98507465e-03 0. 0. 0. 0. 2.98507465e-03
      8.95522349e-03 0. 0. 0. 2.98507465e-03 2.98507465e-03
      2.98507465e-03 2.98507465e-03 0. 0. 0. 0. 2.98507465e-03 0. 0. 0.
      0. 0. 0. 2.98507465e-03 0. 0. 2.98507465e-03 0. 0. 2.98507465e-03
      2.98507465e-03 2.98507465e-03 0. 2.98507465e-03 0. 0. 0. 0. 0. 0.
      2.98507465e-03 2.98507465e-03 0. 2.98507465e-03 0. 0. 0. 0. 0. 0.
      0. 2.98507465e-03 0. 0. 0. 0. 0. 0. 5.97014930e-03 0.
      5.97014930e-03 2.98507465e-03 0. 2.98507465e-03 0. 0.
      2.98507465e-03 0. 2.98507465e-03 2.98507465e-03 2.98507465e-03 0.
      0. 0. 5.97014930e-03 0. 0. 0. 0. 0. 2.98507465e-03 0. 0. 0. 0. 0.
      0. 2.98507465e-03 0. 0. 0. 0. 0. 0. 5.97014930e-03 0.
      5.97014930e-03 0. 8.95522349e-03 0. 2.98507465e-03 0. 0. 0. 0. 0.
      0. 0. 0. 0. 0. 0. 0. 0. 0. 0. 0. 0. 0. 0. 2.98507465e-03
      2.98507465e-03 0. 0. 2.98507465e-03 2.98507465e-03 0. 0. 0.
      2.98507465e-03 0. 0. 2.98507465e-03 0. 8.95522349e-03 0.
      2.98507465e-03 2.98507465e-03 2.98507465e-03 2.98507465e-03 0. 0.
      0. 0. 0. 0. 0. 2.98507465e-03 0. 0. 2.98507465e-03 0. 0.
      2.98507465e-03 2.98507465e-03 0. 0. 0. 0. 0. 0. 0. 0. 0. 0. 0. 0.
      0. 0. 0. 0. 0. 0. 0. 0. 0. 2.98507465e-03 0. 5.97014930e-03 0.
      2.98507465e-03 0. 0. 0. 0. 5.97014930e-03 2.98507465e-03
      2.98507465e-03 2.98507465e-03 0. 0. 0. 0. 0. 0. 0. 0.
      2.98507465e-03 0. 0. 0. 0. 0. 0. 0. 5.97014930e-03 2.98507465e-03
      2.98507465e-03 0. 0. 2.98507465e-03 0. 0. 0. 0. 2.98507465e-03
      5.97014930e-03 0. 0. 0. 2.98507465e-03 0. 5.97014930e-03
      2.98507465e-03 2.98507465e-03 2.98507465e-03 0. 0. 0. 0.
      2.98507465e-03 0. 0. 0. 0. 2.98507465e-03 2.98507465e-03
      2.98507465e-03 0. 0. 0. 0. 0. 2.98507465e-03 0. 2.98507465e-03 0.
      0. 2.98507465e-03 0. 2.98507465e-03 0. 0. 0. 0. 0. 0. 0. 0. 0.
      2.98507465e-03 0. 0. 0. 0. 0. 0. 0. 0. 0. 2.98507465e-03 0. 0. 0.
      0. 0. 0. 2.98507465e-03 0. 0. 0. 2.98507465e-03 0. 0. 0. 0. 0.
      2.98507465e-03 0. 0. 0. 0. 0. 0. 0. 0. 0. 0. 0. 0. 0.
      2.98507465e-03 2.98507465e-03 0. 2.98507465e-03 5.97014930e-03 0.
      0. 0. 1.49253737e-02 0. 0. 2.98507465e-03 0. 0. 1.49253737e-02 0.
      0. 0. 0. 2.98507465e-03 0. 2.98507465e-03 2.98507465e-03 0. 0.
      2.98507465e-03 0. 0. 0. 2.98507465e-03 2.98507465e-03 0. 0. 0.
      2.98507465e-03 0. 0. 0. 0. 0. 0. 0. 0. 0. 0. 0. 0. 0. 0. 0. 0.
      2.98507465e-03 0. 0. 0. 0. 0. 2.98507465e-03 0. 0. 0. 0.
      2.98507465e-03 0. 0. 0. 0. 2.98507465e-03 0. 0. 0. 0. 0. 0. 0.
      2.98507465e-03 0. 0. 0. 2.98507465e-03 1.19402986e-02 0. 0. 0. 0.
      0. 0. 0. 0. 0. 0. 0. 0. 0. 0. 2.98507465e-03 2.98507465e-03
      2.98507465e-03 0. 0. 0. 0. 0. 0. 2.98507465e-03 0. 0.
      2.98507465e-03 0. 0. 0. 2.98507465e-03 0. 0. 0. 0. 2.98507465e-03
      0. 0. 2.98507465e-03 0. 2.98507465e-03 0. 0. 0. 0. 0. 0. 0.
      2.98507465e-03 2.98507465e-03 0. 0. 0. 0. 0. 0. 2.98507465e-03
      8.95522349e-03 0. 0. 0. 0. 2.98507465e-03 0. 0. 0. 0.
      2.98507465e-03 0. 0. 2.98507465e-03 0. 5.97014930e-03
      2.98507465e-03 2.98507465e-03 0. 5.97014930e-03 0. 0.
      2.98507465e-03 2.98507465e-03 0. 0. 0. 2.98507465e-03
      5.97014930e-03 2.98507465e-03 0. 2.98507465e-03 0. 0. 0.
      2.98507465e-03 5.97014930e-03 5.97014930e-03 0. 2.98507465e-03 0.
      2.98507465e-03 0. 0. 0. 0. 0. 0. 0. 0. 2.98507465e-03
      2.98507465e-03 5.97014930e-03 0. 2.98507465e-03 0. 0. 0.
      2.98507465e-03 0. 2.98507465e-03 0. 0. 2.98507465e-03
      5.97014930e-03 0. 0. 0. 2.98507465e-03 0. 0. 0. 0. 0. 0. 0.
      5.97014930e-03 2.98507465e-03 0. 0. 0. 0. 0. 2.98507465e-03 0. 0.
      0. 0. 0. 0. 0. 2.98507465e-03 0. 0. 0. 0. 2.98507465e-03 0. 0. 0.
      0. 0. 0. 0. 0. 0. 0. 2.98507465e-03 0. 0. 0. 0. 0. 0.
      2.98507465e-03 0. 0. 2.98507465e-03 0. 0. 2.98507465e-03 0.
      2.98507465e-03 0. 0. 2.98507465e-03 0. 0. 2.98507465e-03 0. 0.
      5.97014930e-03 0. 0. 0. 2.98507465e-03 1.19402986e-02
      5.97014930e-03 5.97014930e-03 0. 0. 0. 2.98507465e-03
      5.97014930e-03 5.97014930e-03 0. 0. 0. 0. 2.98507465e-03
      2.98507465e-03 2.98507465e-03 0. 0. 0. 0. 0. 0. 0. 0. 0. 0. 0. 0.
      2.98507465e-03 5.97014930e-03 0. 2.98507465e-03 0. 0. 0. 0.
      5.97014930e-03 2.98507465e-03 2.98507465e-03 0. 0. 0. 0. 0. 0. 0.
      0. 0. 0. 0. 2.98507465e-03 2.98507465e-03 0. 0. 0. 0.
      2.98507465e-03 2.98507465e-03 2.98507465e-03 2.98507465e-03 0.
      2.98507465e-03 2.98507465e-03 0. 0. 0. 0. 2.98507465e-03 0.
      8.95522349e-03 0. 0. 0. 5.97014930e-03 0. 0. 2.98507465e-03 0. 0.
      0. 0. 0. 5.97014930e-03 0. 2.98507465e-03 0. 0. 0. 2.98507465e-03
      0. 2.98507465e-03 0. 0. 0. 0. 8.95522349e-03 0. 0.</_>
    <_>
      0. 0. 0. 0. 0. 0. 0. 0. 0. 0. 3.62318847e-03 7.24637695e-03
      3.62318847e-03 3.62318847e-03 3.62318847e-03 0. 0. 0. 0. 0. 0. 0.
      3.62318847e-03 0. 0. 0. 0. 0. 0. 0. 0. 0. 0. 0. 0. 0.
      7.24637695e-03 0. 0. 3.62318847e-03 0. 0. 0. 0. 3.62318847e-03
      1.44927539e-02 0. 0. 0. 0. 0. 0. 3.62318847e-03 0. 0. 0. 0. 0. 0.
      0. 0. 0. 0. 7.24637695e-03 3.62318847e-03 0. 0. 0. 3.62318847e-03
      0. 0. 3.62318847e-03 0. 0. 0. 0. 0. 0. 0. 0. 0. 0. 0. 0. 0. 0. 0.
      0. 0. 0. 0. 0. 0. 0. 0. 0. 3.62318847e-03 0. 0. 0. 0. 0. 0. 0. 0.
      7.24637695e-03 0. 0. 0. 0. 0. 0. 0. 0. 0. 0. 0. 0. 0. 0. 0. 0.
      3.62318847e-03 0. 0. 0. 0. 0. 0. 0. 0. 0. 0. 0. 0. 0. 0. 0. 0. 0.
      0. 3.62318847e-03 3.62318847e-03 0. 0. 0. 3.62318847e-03 0. 0.
      3.62318847e-03 0. 7.24637695e-03 0. 0. 0. 0. 0. 0. 0. 0. 0. 0.
      1.08695654e-02 0. 0. 0. 0. 0. 0. 0. 0. 0. 0. 3.62318847e-03 0. 0.
      0. 0. 0. 0. 0. 0. 3.62318847e-03 0. 0. 0. 0. 3.62318847e-03 0. 0.
      0. 0. 0. 0. 0. 0. 0. 0. 0. 0. 3.62318847e-03 0. 0. 0.
      3.62318847e-03 3.62318847e-03 0. 0. 3.62318847e-03 0. 0. 0. 0.
      7.24637695e-03 0. 0. 0. 0. 0. 0. 0. 3.62318847e-03 0. 0. 0. 0.
      3.62318847e-03 0. 0. 0. 0. 0. 7.24637695e-03 0. 3.62318847e-03 0.
      3.62318847e-03 0. 0. 0. 0. 0. 0. 0. 0. 0. 0. 0. 0. 0. 0. 0. 0. 0.
      0. 0. 0. 0. 0. 0. 0. 3.62318847e-03 0. 0. 0. 0. 0. 3.62318847e-03
      3.62318847e-03 0. 3.62318847e-03 3.62318847e-03 3.62318847e-03 0.
      0. 0. 0. 0. 0. 3.62318847e-03 0. 0. 0. 0. 0. 3.62318847e-03 0. 0.
      0. 0. 0. 7.24637695e-03 0. 0. 0. 0. 0. 0. 0. 0. 0. 0. 0. 0. 0. 0.
      0. 0. 0. 3.62318847e-03 0. 0. 0. 0. 0. 0. 0. 0. 0. 0. 0. 0. 0. 0.
      0. 1.08695654e-02 3.62318847e-03 0. 0. 0. 7.24637695e-03 0. 0. 0.
      0. 3.62318847e-03 0. 0. 0. 0. 0. 0. 0. 0. 0. 0. 0. 3.62318847e-03
      0. 3.62318847e-03 0. 0. 0. 3.62318847e-03 0. 0. 0. 0. 0. 0. 0. 0.
      0. 0. 0. 0. 1.08695654e-02 0. 3.62318847e-03 0. 0. 0.
      3.62318847e-03 3.62318847e-03 0. 0. 0. 0. 0. 0. 0. 0.
      3.62318847e-03 0. 0. 0. 0. 0. 0. 1.08695654e-02 0. 0. 0. 0.
      3.62318847e-03 0. 0. 0. 0. 0. 1.08695654e-02 0. 0. 0. 0. 0.
      3.62318847e-03 0. 3.62318847e-03 0. 0. 0. 0. 0. 0. 3.62318847e-03
      0. 0. 0. 3.62318847e-03 0. 0. 0. 0. 0. 0. 3.62318847e-03 0. 0.
      3.62318847e-03 3.62318847e-03 0. 0. 0. 0. 0. 0. 0. 0. 0. 0. 0.
      3.62318847e-03 0. 0. 0. 3.62318847e-03 3.62318847e-03
      3.62318847e-03 0. 0. 0. 0. 3.62318847e-03 3.62318847e-03 0. 0. 0.
      3.62318847e-03 0. 0. 0. 0. 3.62318847e-03 0. 0. 3.62318847e-03 0.
      0. 0. 0. 0. 0. 0. 0. 0. 0. 0. 3.62318847e-03 0. 0. 0. 0. 0. 0. 0.
      0. 0. 0. 0. 0. 0. 0. 0. 0. 0. 0. 0. 0. 3.62318847e-03 0.
      7.24637695e-03 0. 7.24637695e-03 0. 0. 0. 3.62318847e-03 0. 0. 0.
      0. 0. 7.24637695e-03 0. 3.62318847e-03 7.24637695e-03 0. 0.
      3.62318847e-03 7.24637695e-03 0. 0. 0. 3.62318847e-03 0. 0. 0. 0.
      0. 0. 0. 0. 0. 0. 0. 0. 0. 0. 0. 0. 0. 0. 3.62318847e-03 0. 0. 0.
      0. 0. 3.62318847e-03 0. 0. 3.62318847e-03 0. 0. 0. 3.62318847e-03
      3.62318847e-03 3.62318847e-03 0. 3.62318847e-03 0. 0. 0.
      3.62318847e-03 0. 0. 0. 0. 0. 0. 0. 3.62318847e-03 0. 0. 0.
      3.62318847e-03 1.08695654e-02 0. 0. 0. 0. 0. 0. 7.24637695e-03 0.
      0. 0. 0. 0. 0. 0. 0. 0. 0. 0. 3.62318847e-03 0. 3.62318847e-03
      3.62318847e-03 0. 7.24637695e-03 0. 3.62318847e-03 0.
      3.62318847e-03 0. 0. 0. 0. 7.24637695e-03 3.62318847e-03 0. 0. 0.
      0. 0. 0. 0. 0. 3.62318847e-03 0. 0. 0. 0. 3.62318847e-03 0. 0. 0.
      0. 7.24637695e-03 0. 0. 0. 3.62318847e-03 0. 0. 0. 3.62318847e-03
      3.62318847e-03 0. 3.62318847e-03 0. 3.62318847e-03 0.
      3.62318847e-03 0. 0. 0. 0. 0. 0. 0. 0. 3.62318847e-03 0. 0. 0. 0.
      3.62318847e-03 0. 0. 0. 0. 0. 0. 3.62318847e-03 0. 0. 0. 0. 0.
      1.08695654e-02 0. 0. 3.62318847e-03 0. 0. 7.24637695e-03
      3.62318847e-03 0. 0. 0. 0. 0. 0. 0. 0. 0. 0. 7.24637695e-03 0. 0.
      0. 7.24637695e-03 3.62318847e-03 3.62318847e-03 0. 0. 0. 0. 0.
      3.62318847e-03 3.62318847e-03 3.62318847e-03 0. 0. 0. 0. 0. 0. 0.
      3.62318847e-03 0. 7.24637695e-03 0. 0. 0. 0. 0. 0. 1.08695654e-02
      0. 0. 7.24637695e-03 3.62318847e-03 0. 0. 3.62318847e-03 0. 0. 0.
      0. 0. 3.62318847e-03 3.62318847e-03 3.62318847e-03 0. 0. 0. 0. 0.
      0. 0. 0. 0. 3.62318847e-03 3.62318847e-03 3.62318847e-03
      3.62318847e-03 0. 0. 0. 0. 3.62318847e-03 0. 0. 3.62318847e-03 0.
      0. 0. 0. 0. 0. 0. 3.62318847e-03 3.62318847e-03 0. 0. 0. 0.
      3.62318847e-03 3.62318847e-03 0. 7.24637695e-03 3.62318847e-03 0.
      3.62318847e-03 3.62318847e-03 3.62318847e-03 0. 3.62318847e-03 0.
      0. 3.62318847e-03 0. 0. 7.24637695e-03 0. 0. 0. 0. 0.
      7.24637695e-03 0. 0. 0. 3.62318847e-03 0. 3.62318847e-03 0. 0. 0.
      0. 0. 0. 0. 0. 3.62318847e-03 0. 0. 0. 0. 0. 0. 0. 3.62318847e-03
      3.62318847e-03 0. 0. 0. 0. 0. 0. 0. 0. 0. 0. 0. 0. 0. 0. 0. 0. 0.
      0. 0. 0. 0. 0. 0. 0. 0. 0. 0. 0. 0. 0. 3.62318847e-03 0. 0. 0. 0.
      0. 0. 3.62318847e-03 0. 0. 0. 0. 3.62318847e-03 0. 0.
      1.44927539e-02 0. 3.62318847e-03 0. 0. 0. 0. 3.62318847e-03 0. 0.
      0. 0. 0. 0. 0. 0. 0. 0. 0. 0. 3.62318847e-03 3.62318847e-03 0. 0.
      3.62318847e-03 3.62318847e-03 0. 0. 0. 7.24637695e-03 0.
      3.62318847e-03 0. 0. 7.24637695e-03 1.08695654e-02 3.62318847e-03
      0. 0. 0. 0. 0. 0. 3.62318847e-03 0. 7.24637695e-03 0. 0. 0. 0. 0.
      0. 3.62318847e-03 3.62318847e-03 7.24637695e-03 0. 0. 0.
      7.24637695e-03 0. 0. 0. 0. 0. 0. 0. 0. 1.08695654e-02 0. 0. 0. 0.
      3.62318847e-03 0. 0. 3.62318847e-03 0. 0. 0. 7.24637695e-03
      3.62318847e-03 0. 0. 0. 7.24637695e-03 0. 7.24637695e-03 0.
      3.62318847e-03 0. 0. 0. 0. 0. 3.62318847e-03 0. 0. 3.62318847e-03
      0. 3.62318847e-03 3.62318847e-03 3.62318847e-03 0. 7.24637695e-03
      0. 0. 3.62318847e-03 0. 0. 0. 1.08695654e-02 0. 0. 0. 0. 0. 0.
      7.24637695e-03 0. 7.24637695e-03 7.24637695e-03 0. 0. 0. 0. 0.
      3.62318847e-03 0. 0. 3.62318847e-03 0. 0. 3.62318847e-03 0.
      7.24637695e-03 0. 0.</_>
    <_>
      0. 0. 0. 0. 0. 9.80392192e-03 0. 0. 0. 0. 0. 0. 0. 0. 0. 0. 0. 0.
      0. 0. 0. 0. 0. 0. 0. 0. 3.92156877e-02 0. 9.80392192e-03 0. 0. 0.
      0. 0. 0. 0. 9.80392192e-03 4.90196086e-02 9.80392192e-03 0. 0. 0.
      0. 0. 0. 0. 0. 0. 0. 0. 0. 0. 0. 0. 0. 0. 0. 0. 0. 0. 0. 0. 0. 0.
      0. 0. 0. 0. 0. 0. 9.80392192e-03 0. 0. 0. 0. 0. 0. 0. 0. 0. 0. 0.
      0. 0. 1.96078438e-02 0. 0. 0. 0. 0. 0. 0. 0. 0. 0. 0. 0. 0. 0. 0.
      0. 1.96078438e-02 0. 9.80392192e-03 0. 0. 0. 0. 0. 0. 0. 0. 0. 0.
      0. 0. 0. 0. 0. 0. 0. 0. 0. 0. 0. 0. 0. 0. 0. 0. 0. 0. 0. 0. 0. 0.
      0. 0. 0. 0. 0. 0. 0. 0. 0. 0. 0. 0. 0. 9.80392192e-03 0. 0.
      2.94117667e-02 0. 0. 0. 0. 0. 0. 0. 0. 9.80392192e-03 0. 0. 0. 0.
      0. 0. 9.80392192e-03 0. 0. 0. 0. 0. 0. 0. 0. 0. 0. 0. 0. 0. 0. 0.
      0. 0. 0. 0. 0. 0. 0. 0. 0. 0. 0. 0. 0. 0. 0. 0. 0. 0. 0. 0. 0. 0.
      9.80392192e-03 0. 0. 0. 0. 0. 0. 9.80392192e-03 0. 0.
      9.80392192e-03 0. 0. 0. 0. 0. 0. 0. 0. 0. 0. 0. 0. 0. 0. 0. 0. 0.
      0. 9.80392192e-03 0. 0. 0. 0. 9.80392192e-03 0. 0. 0. 0. 0. 0. 0.
      0. 0. 0. 0. 0. 0. 0. 9.80392192e-03 0. 0. 0. 1.96078438e-02 0.
      1.96078438e-02 0. 9.80392192e-03 0. 0. 0. 0. 0. 0. 0. 0. 0. 0. 0.
      0. 0. 0. 0. 0. 0. 0. 0. 9.80392192e-03 0. 0. 0. 0. 9.80392192e-03
      0. 0. 0. 0. 0. 0. 0. 0. 3.92156877e-02 0. 0. 0. 0. 0. 0. 0. 0. 0.
      0. 0. 0. 0. 0. 0. 0. 0. 0. 0. 0. 0. 0. 0. 0. 0. 9.80392192e-03 0.
      0. 0. 0. 0. 0. 0. 0. 0. 0. 0. 0. 0. 0. 0. 0. 0. 0. 0. 0. 0. 0. 0.
      9.80392192e-03 0. 0. 0. 0. 0. 0. 0. 0. 0. 0. 0. 0. 0. 0. 0. 0. 0.
      0. 9.80392192e-03 0. 0. 0. 0. 0. 0. 0. 0. 0. 0. 0. 0. 0. 0. 0. 0.
      0. 0. 0. 0. 0. 0. 0. 0. 0. 0. 0. 0. 0. 9.80392192e-03 0. 0. 0. 0.
      0. 0. 0. 0. 0. 0. 0. 0. 0. 0. 0. 0. 0. 0. 0. 0. 0. 0. 0. 0. 0. 0.
      0. 0. 0. 0. 0. 0. 0. 0. 0. 0. 0. 0. 0. 0. 0. 0. 0. 0. 0. 0. 0. 0.
      0. 0. 0. 0. 0. 0. 0. 0. 0. 0. 0. 0. 0. 0. 0. 9.80392192e-03 0. 0.
      0. 0. 0. 9.80392192e-03 0. 0. 0. 1.96078438e-02 0. 0. 0. 0.
      2.94117667e-02 0. 0. 0. 0. 0. 0. 0. 0. 0. 0. 0. 0. 0. 0. 0. 0. 0.
      0. 0. 0. 0. 9.80392192e-03 0. 0. 0. 9.80392192e-03 0. 0. 0. 0. 0.
      0. 0. 0. 0. 0. 0. 0. 0. 0. 0. 0. 0. 0. 0. 0. 0. 0. 0. 0. 0. 0. 0.
      0. 0. 0. 0. 0. 0. 0. 0. 0. 0. 0. 0. 0. 0. 0. 0. 0. 9.80392192e-03
      0. 0. 0. 0. 0. 0. 0. 0. 0. 0. 0. 0. 0. 0. 0. 0. 0. 0. 0. 0.
      9.80392192e-03 0. 0. 0. 0. 0. 0. 0. 0. 0. 0. 0. 0. 0. 0. 0. 0. 0.
      0. 1.96078438e-02 9.80392192e-03 0. 0. 9.80392192e-03 0.
      9.80392192e-03 0. 0. 9.80392192e-03 0. 0. 0. 0. 0. 0. 0. 0. 0. 0.
      0. 0. 0. 1.96078438e-02 0. 0. 0. 0. 0. 0. 9.80392192e-03 0. 0. 0.
      0. 0. 9.80392192e-03 0. 0. 0. 0. 0. 0. 9.80392192e-03 0. 0. 0.
      9.80392192e-03 0. 0. 9.80392192e-03 0. 0. 0. 0. 0. 0. 0. 0. 0. 0.
      0. 0. 0. 0. 0. 0. 0. 9.80392192e-03 0. 0. 0. 0. 0. 0. 0. 0. 0. 0.
      0. 9.80392192e-03 0. 0. 0. 0. 0. 9.80392192e-03 0. 0. 0. 0. 0. 0.
      0. 0. 0. 0. 0. 0. 0. 0. 0. 9.80392192e-03 0. 0. 0. 0.
      9.80392192e-03 0. 0. 0. 0. 0. 0. 0. 0. 0. 0. 0. 0. 1.96078438e-02
      0. 0. 0. 0. 0. 0. 0. 0. 0. 0. 0. 0. 0. 0. 0. 9.80392192e-03 0. 0.
      0. 0. 0. 9.80392192e-03 0. 0. 0. 0. 0. 0. 0. 0. 0. 0. 0. 0. 0. 0.
      0. 0. 0. 0. 0. 0. 0. 0. 0. 0. 0. 0. 0. 0. 0. 0. 0. 0. 0. 0. 0. 0.
      0. 0. 9.80392192e-03 0. 0. 0. 0. 0. 0. 0. 0. 0. 0. 0. 0. 0. 0. 0.
      0. 0. 0. 0. 0. 0. 9.80392192e-03 0. 0. 0. 0. 0. 0. 0.
      9.80392192e-03 0. 9.80392192e-03 0. 0. 0. 9.80392192e-03 0. 0. 0.
      0. 0. 0. 0. 9.80392192e-03 0. 0. 0. 0. 0. 0. 0. 0. 0. 0. 0. 0. 0.
      9.80392192e-03 0. 0. 0. 0. 0. 0. 0. 0. 0. 0. 0. 0. 0.
      9.80392192e-03 0. 0. 0. 0. 0. 0. 0. 0. 0. 0. 0. 0. 0. 0. 0. 0. 0.
      9.80392192e-03 0. 0. 0. 0. 9.80392192e-03 0. 0. 0. 0. 0. 0. 0. 0.
      0. 0. 0. 0. 0. 0. 0. 0. 0. 0. 0. 0. 0. 0. 0. 0. 0. 0. 0. 0. 0. 0.
      0. 0. 0. 0. 0. 0. 0. 0. 0. 9.80392192e-03 0. 0. 0. 0. 0. 0. 0. 0.
      1.96078438e-02 0. 9.80392192e-03 0. 0. 1.96078438e-02 0. 0. 0. 0.
      0. 0. 0. 0. 0. 0. 0. 0. 1.96078438e-02 0. 0. 0. 0. 0. 0. 0. 0. 0.
      0. 9.80392192e-03 0. 0. 0. 0. 9.80392192e-03 0. 0. 1.96078438e-02
      9.80392192e-03 0. 0. 0. 0. 0. 0. 0. 0. 0. 0. 0. 0. 0. 0. 0. 0. 0.
      0. 0. 0. 0. 0. 0. 0. 0. 0. 0. 0. 0. 0. 0. 0. 0. 0. 0. 0. 0. 0. 0.
      0. 0. 0. 0. 0. 0. 0. 0. 0. 0. 0.</_>
    <_>
      0. 0. 0. 0. 0. 0. 0. 0. 0. 2.10970454e-03 2.10970454e-03 0.
      2.10970454e-03 2.10970454e-03 0. 0. 0. 2.10970454e-03 0. 0. 0. 0.
      0. 0. 0. 0. 8.43881816e-03 0. 0. 0. 0. 0. 2.10970454e-03
      2.10970454e-03 0. 0. 4.21940908e-03 0. 2.10970454e-03
      2.10970454e-03 0. 0. 0. 0. 0. 2.10970454e-03 0. 0. 2.10970454e-03
      2.10970454e-03 0. 0. 0. 0. 2.10970454e-03 0. 0. 2.10970454e-03
      2.10970454e-03 4.21940908e-03 0. 2.10970454e-03 2.10970454e-03 0.
      4.21940908e-03 0. 2.10970454e-03 0. 0. 0. 2.10970454e-03
      2.10970454e-03 2.10970454e-03 2.10970454e-03 0. 2.10970454e-03 0.
      0. 0. 0. 0. 0. 0. 0. 0. 0. 0. 0. 0. 2.10970454e-03 0. 0. 0. 0. 0.
      0. 0. 0. 6.32911362e-03 2.10970454e-03 2.10970454e-03 0. 0. 0. 0.
      2.10970454e-03 0. 0. 0. 2.10970454e-03 0. 0. 0. 0. 0.
      2.10970454e-03 0. 0. 0. 0. 0. 0. 0. 0. 0. 2.10970454e-03 0. 0. 0.
      0. 2.10970454e-03 0. 0. 0. 0. 0. 0. 0. 0. 0. 0. 0. 0.
      6.32911362e-03 4.21940908e-03 4.21940908e-03 0. 2.10970454e-03 0.
      1.26582272e-02 0. 0. 4.21940908e-03 0. 0. 0. 8.43881816e-03
      2.10970454e-03 0. 0. 0. 0. 0. 6.32911362e-03 1.05485227e-02
      4.21940908e-03 0. 0. 0. 0. 0. 0. 0. 0. 0. 2.10970454e-03 0. 0.
      4.21940908e-03 0. 2.10970454e-03 0. 0. 0. 0. 0. 0. 0. 0. 0.
      2.10970454e-03 0. 0. 2.10970454e-03 0. 2.32067499e-02 0. 0. 0.
      2.10970454e-03 0. 0. 4.21940908e-03 0. 6.32911362e-03
      4.21940908e-03 0. 0. 0. 6.32911362e-03 2.10970454e-03
      4.21940908e-03 4.21940908e-03 0. 4.21940908e-03 0. 2.10970454e-03
      0. 0. 0. 0. 4.21940908e-03 0. 2.10970454e-03 0. 4.21940908e-03 0.
      0. 6.32911362e-03 0. 2.10970454e-03 0. 0. 0. 2.10970454e-03
      2.10970454e-03 0. 0. 0. 0. 0. 0. 0. 0. 0. 0. 0. 0. 0. 0.
      2.10970454e-03 0. 0. 0. 2.10970454e-03 0. 0. 0. 0. 1.68776363e-02
      0. 0. 0. 0. 0. 4.21940908e-03 0. 0. 0. 0. 0. 0. 0. 0. 0.
      2.10970454e-03 2.10970454e-03 0. 0. 4.21940908e-03 0. 0. 0. 0. 0.
      2.10970454e-03 0. 4.21940908e-03 0. 0. 0. 2.10970454e-03 0. 0. 0.
      2.10970454e-03 0. 6.32911362e-03 0. 2.10970454e-03 0. 0. 0. 0.
      4.21940908e-03 0. 0. 0. 0. 0. 2.10970454e-03 0. 0. 0. 0. 0.
      2.10970454e-03 0. 2.10970454e-03 0. 0. 0. 0. 0. 4.21940908e-03
      2.10970454e-03 0. 0. 0. 0. 0. 0. 0. 0. 0. 2.10970454e-03
      4.21940908e-03 4.21940908e-03 0. 2.10970454e-03 0. 0. 0. 0. 0. 0.
      0. 0. 0. 4.21940908e-03 2.10970454e-03 0. 0. 2.10970454e-03 0. 0.
      0. 0. 0. 0. 0. 0. 0. 0. 0. 0. 0. 0. 0. 0. 4.21940908e-03 0. 0.
      2.10970454e-03 0. 0. 0. 2.10970454e-03 2.10970454e-03 0.
      4.21940908e-03 0. 2.10970454e-03 0. 0. 0. 0. 0. 0. 2.10970454e-03
      0. 6.32911362e-03 2.10970454e-03 0. 6.32911362e-03 0.
      4.21940908e-03 2.10970454e-03 0. 0. 2.10970454e-03 0. 0. 0. 0. 0.
      0. 2.10970454e-03 6.32911362e-03 0. 0. 0. 0. 0. 0. 0.
      4.21940908e-03 6.32911362e-03 0. 0. 0. 0. 2.10970454e-03 0. 0.
      2.10970454e-03 2.10970454e-03 0. 0. 0. 2.10970454e-03
      2.10970454e-03 1.26582272e-02 0. 0. 0. 2.10970454e-03 0. 0.
      4.21940908e-03 0. 0. 0. 0. 0. 0. 2.10970454e-03 2.10970454e-03 0.
      0. 2.10970454e-03 0. 0. 4.21940908e-03 2.10970454e-03 0. 0.
      6.32911362e-03 0. 2.10970454e-03 0. 0. 0. 2.10970454e-03 0. 0. 0.
      0. 4.21940908e-03 0. 2.10970454e-03 0. 0. 2.10970454e-03
      4.21940908e-03 4.21940908e-03 0. 0. 2.10970454e-03 0. 0. 0. 0. 0.
      4.21940908e-03 0. 0. 2.10970454e-03 0. 0. 0. 0. 0. 2.10970454e-03
      0. 0. 0. 0. 0. 0. 0. 8.43881816e-03 0. 0. 0. 0. 0. 0. 0. 0.
      2.10970454e-03 0. 2.10970454e-03 0. 0. 6.32911362e-03
      2.10970454e-03 0. 2.10970454e-03 0. 4.21940908e-03 0. 0. 0. 0. 0.
      0. 0. 2.10970454e-03 0. 2.10970454e-03 0. 0. 0. 2.10970454e-03
      8.43881816e-03 0. 2.10970454e-03 0. 0. 0. 0. 0. 0. 2.10970454e-03
      0. 0. 0. 0. 2.10970454e-03 4.21940908e-03 0. 0. 0. 2.10970454e-03
      2.10970454e-03 0. 0. 0. 0. 0. 2.10970454e-03 2.10970454e-03 0. 0.
      0. 2.10970454e-03 0. 2.10970454e-03 0. 0. 6.32911362e-03 0. 0. 0.
      0. 2.10970454e-03 0. 0. 0. 0. 0. 0. 2.10970454e-03 2.10970454e-03
      0. 6.32911362e-03 0. 8.43881816e-03 0. 2.10970454e-03 0.
      2.10970454e-03 4.21940908e-03 0. 0. 0. 0. 0. 2.10970454e-03 0.
      2.10970454e-03 2.10970454e-03 0. 2.10970454e-03 0. 0.
      2.10970454e-03 0. 1.05485227e-02 0. 0. 0. 0. 0. 2.10970454e-03 0.
      0. 0. 0. 0. 0. 0. 0. 2.10970454e-03 0. 2.10970454e-03 0. 0.
      2.10970454e-03 0. 0. 0. 4.21940908e-03 2.10970454e-03
      2.10970454e-03 2.10970454e-03 0. 2.10970454e-03 0. 0. 0.
      4.21940908e-03 0. 2.10970454e-03 0. 0. 0. 4.21940908e-03 0.
      2.10970454e-03 0. 0. 0. 0. 0. 0. 0. 2.10970454e-03 0. 0. 0. 0. 0.
      0. 0. 0. 2.10970454e-03 0. 2.10970454e-03 0. 0. 4.21940908e-03 0.
      2.10970454e-03 0. 0. 0. 0. 2.10970454e-03 0. 0. 0. 0.
      2.10970454e-03 2.10970454e-03 0. 0. 0. 0. 0. 2.10970454e-03 0.
      4.21940908e-03 0. 0. 0. 0. 0. 0. 0. 0. 4.21940908e-03 0. 0. 0.
      6.32911362e-03 0. 2.10970454e-03 0. 0. 4.21940908e-03
      2.10970454e-03 2.10970454e-03 0. 0. 0. 0. 2.10970454e-03 0. 0. 0.
      0. 2.10970454e-03 2.10970454e-03 2.10970454e-03 4.21940908e-03 0.
      0. 0. 2.10970454e-03 0. 0. 0. 4.21940908e-03 0. 6.32911362e-03 0.
      0. 2.10970454e-03 2.10970454e-03 0. 0. 2.10970454e-03
      6.32911362e-03 0. 0. 0. 0. 0. 0. 0. 0. 2.10970454e-03
      2.10970454e-03 0. 0. 2.10970454e-03 0. 0. 4.21940908e-03 0. 0.
      2.10970454e-03 2.10970454e-03 0. 0. 0. 0. 0. 0. 0. 0. 0. 0.
      2.10970454e-03 0. 2.10970454e-03 0. 0. 2.10970454e-03 0. 0. 0. 0.
      0. 2.10970454e-03 0. 0. 2.10970454e-03 0. 0. 0. 0. 4.21940908e-03
      0. 0. 0. 0. 2.10970454e-03 2.10970454e-03 1.05485227e-02 0. 0. 0.
      0. 0. 0. 0. 0. 0. 2.10970454e-03 2.10970454e-03 0. 0. 0. 0.
      8.43881816e-03 2.10970454e-03 0. 0. 0. 0. 0. 0. 2.10970454e-03 0.
      4.21940908e-03 0. 0. 0. 0. 0. 0. 0. 0. 0. 2.10970454e-03 0.
      4.21940908e-03 2.10970454e-03 0. 2.10970454e-03 0. 1.05485227e-02
      0. 4.21940908e-03 0. 2.10970454e-03 4.21940908e-03 0. 0. 0. 0. 0.
      4.21940908e-03 0. 0. 0. 2.10970454e-03 0. 0. 2.10970454e-03 0. 0.
      2.10970454e-03 4.21940908e-03 2.10970454e-03 0. 2.10970454e-03 0.
      0. 4.21940908e-03 0. 0. 0. 2.10970454e-03 1.05485227e-02 0. 0. 0.
      0. 0. 2.10970454e-03 0. 0. 4.21940908e-03 0. 0. 0. 0.
      6.32911362e-03 0. 0. 0. 0. 2.10970454e-03 2.10970454e-03 0. 0. 0.
      0. 2.10970454e-03 0. 2.10970454e-03 0. 0. 0. 0. 8.43881816e-03
      6.32911362e-03 4.21940908e-03 0. 0. 0. 2.10970454e-03 0. 0. 0. 0.
      2.10970454e-03 0. 0. 6.32911362e-03 0. 0. 0. 0. 2.10970454e-03 0.
      0. 0. 0. 0. 0. 0. 6.32911362e-03 8.43881816e-03 0. 0.
      6.32911362e-03 0. 0. 0. 2.10970454e-03 0. 0. 0. 4.21940908e-03
      4.21940908e-03 0. 0. 0. 0. 0. 4.21940908e-03 2.10970454e-03
      2.10970454e-03 0. 4.21940908e-03 0. 0. 0. 0. 4.21940908e-03 0. 0.
      0. 0. 0. 2.10970454e-03 0. 4.21940908e-03 0. 0. 0. 2.10970454e-03
      0. 2.10970454e-03 4.21940908e-03 2.10970454e-03 0. 2.10970454e-03
      0. 0. 0. 0. 0. 0. 0. 4.21940908e-03 0. 0. 2.10970454e-03 0. 0. 0.
      8.43881816e-03 0. 2.10970454e-03</_>
    <_>
      0. 0. 0. 0. 0. 0. 0. 0. 0. 1.02040814e-02 1.02040814e-02 0. 0. 0.
      0. 0. 0. 0. 0. 0. 0. 0. 0. 0. 0. 0. 5.10204071e-03 0. 0. 0. 0. 0.
      0. 0. 0. 0. 0. 0. 5.10204071e-03 0. 0. 0. 0. 0. 0. 0. 0. 0.
      5.10204071e-03 0. 0. 0. 0. 0. 0. 0. 0. 0. 1.02040814e-02
      5.10204071e-03 0. 0. 5.10204071e-03 0. 0. 0. 0. 0. 0. 0. 0. 0. 0.
      0. 5.10204071e-03 0. 0. 0. 0. 0. 0. 0. 0. 0. 0. 5.10204071e-03 0.
      0. 0. 0. 0. 0. 0. 0. 0. 0. 0. 0. 0. 0. 0. 1.53061226e-02 0. 0. 0.
      0. 0. 0. 1.02040814e-02 0. 0. 0. 0. 0. 0. 0. 0. 0. 1.02040814e-02
      0. 0. 0. 0. 0. 0. 0. 0. 0. 0. 0. 0. 0. 0. 0. 0. 0. 0.
      5.10204071e-03 0. 0. 0. 0. 0. 0. 0. 5.10204071e-03 0.
      1.53061226e-02 1.53061226e-02 2.04081628e-02 0. 0. 0. 0. 0.
      5.10204071e-03 3.57142836e-02 0. 0. 0. 5.10204071e-03
      5.10204071e-03 5.10204071e-03 1.02040814e-02 1.02040814e-02
      5.10204071e-03 0. 0. 0. 0. 0. 1.02040814e-02 0. 0. 0. 0. 0.
      5.10204071e-03 0. 0. 0. 0. 0. 0. 0. 0. 0. 0. 0. 0. 5.10204071e-03
      0. 0. 0. 0. 3.06122452e-02 5.10204071e-03 0. 0. 0. 0. 0. 0. 0. 0.
      1.53061226e-02 0. 0. 0. 5.10204071e-03 0. 0. 0. 0. 0. 0. 0. 0. 0.
      0. 0. 0. 0. 0. 0. 5.10204071e-03 0. 0. 0. 0. 0. 0. 0. 0. 0. 0. 0.
      0. 0. 0. 0. 0. 0. 0. 0. 0. 0. 0. 0. 5.10204071e-03 0. 0. 0. 0. 0.
      0. 0. 0. 0. 1.02040814e-02 0. 0. 0. 0. 0. 5.10204071e-03 0. 0. 0.
      0. 0. 0. 0. 0. 0. 0. 0. 0. 0. 0. 0. 0. 0. 0. 0. 0. 0. 0. 0. 0. 0.
      0. 0. 0. 0. 0. 0. 5.10204071e-03 0. 0. 0. 0. 0. 0. 0. 0. 0. 0. 0.
      0. 0. 0. 0. 0. 0. 0. 0. 0. 0. 0. 0. 0. 0. 0. 0. 0. 0. 0. 0. 0. 0.
