<?xml version="1.0"?>
<opencv_storage>
<opencv_ml_svm>
  <format>3</format>
  <svmType>C_SVC</svmType>
  <kernel>
    <type>RBF</type>
    <gamma>5.0625000000000009e-01</gamma></kernel>
  <C>3.1250000000000000e+02</C>
  <term_criteria><iterations>1000</iterations></term_criteria>
  <var_count>1000</var_count>
  <class_count>2</class_count>
  <class_labels type_id="opencv-matrix">
    <rows>2</rows>
    <cols>1</cols>
    <dt>i</dt>
    <data>
      0 1</data></class_labels>
  <sv_total>179</sv_total>
  <support_vectors>
    <_>
      0. 0. 2.80112051e-03 0. 0. 0. 5.60224103e-03 0. 2.80112051e-03 0.
      0. 0. 0. 2.80112051e-03 0. 2.80112051e-03 1.12044821e-02 0. 0. 0.
      0. 0. 0. 0. 2.80112051e-03 0. 0. 0. 0. 0. 0. 0. 0. 0. 0. 0. 0. 0.
      2.80112051e-03 0. 0. 2.80112051e-03 0. 0. 2.80112051e-03 0. 0. 0.
      0. 2.80112051e-03 0. 0. 2.80112051e-03 0. 0. 0. 5.60224103e-03 0.
      0. 5.60224103e-03 0. 2.80112051e-03 0. 0. 0. 0. 5.60224103e-03 0.
      0. 0. 0. 0. 0. 2.80112051e-03 0. 0. 2.80112051e-03 0. 0. 0. 0. 0.
      2.80112051e-03 0. 0. 0. 0. 0. 0. 2.80112051e-03 0. 5.60224103e-03
      2.80112051e-03 0. 2.80112051e-03 0. 0. 5.60224103e-03 0. 0.
      2.80112051e-03 0. 0. 2.80112051e-03 0. 0. 2.80112051e-03 0. 0.
      2.80112051e-03 0. 0. 0. 0. 0. 0. 2.80112051e-03 0. 0.
      2.80112051e-03 0. 0. 5.60224103e-03 0. 0. 0. 0. 2.80112051e-03 0.
      0. 0. 0. 0. 0. 8.40336177e-03 0. 0. 0. 0. 0. 0. 0. 2.80112051e-03
      0. 2.80112051e-03 0. 2.80112051e-03 2.80112051e-03 1.40056023e-02
      2.80112051e-03 5.60224103e-03 0. 0. 0. 0. 0. 0. 0. 0. 0. 0.
      5.60224103e-03 0. 1.12044821e-02 2.80112051e-03 0. 2.80112051e-03
      0. 0. 2.80112051e-03 0. 0. 0. 0. 0. 0. 0. 5.60224103e-03
      2.80112051e-03 2.80112051e-03 0. 0. 2.80112051e-03 0. 0.
      2.80112051e-03 2.80112051e-03 0. 0. 0. 0. 0. 0. 0. 0. 0. 0.
      2.80112051e-03 0. 0. 2.80112051e-03 0. 0. 2.80112051e-03 0. 0. 0.
      0. 2.80112051e-03 0. 0. 0. 0. 0. 2.80112051e-03 0. 5.60224103e-03
      2.80112051e-03 0. 0. 0. 0. 2.80112051e-03 0. 0. 0. 0. 0.
      2.80112051e-03 0. 2.80112051e-03 0. 5.60224103e-03 0. 0.
      2.80112051e-03 0. 0. 0. 2.80112051e-03 0. 0. 2.80112051e-03 0. 0.
      0. 0. 0. 0. 0. 0. 0. 0. 0. 0. 0. 0. 0. 0. 0. 2.80112051e-03
      5.60224103e-03 5.60224103e-03 0. 0. 0. 0. 0. 0. 0. 0. 0. 0. 0. 0.
      0. 2.80112051e-03 0. 0. 8.40336177e-03 0. 0. 0. 0. 0. 0.
      2.80112051e-03 0. 8.40336177e-03 0. 0. 0. 0. 0. 0. 2.80112051e-03
      0. 0. 0. 2.80112051e-03 0. 0. 2.80112051e-03 0. 1.40056023e-02 0.
      2.80112051e-03 0. 0. 5.60224103e-03 0. 0. 2.80112051e-03
      2.80112051e-03 0. 0. 0. 0. 0. 0. 2.80112051e-03 0. 0. 0. 0. 0. 0.
      0. 0. 0. 0. 0. 2.80112051e-03 0. 2.80112051e-03 0. 0. 0.
      2.80112051e-03 0. 0. 0. 0. 5.60224103e-03 0. 2.80112051e-03 0. 0.
      5.60224103e-03 0. 0. 0. 0. 0. 0. 0. 0. 0. 0. 0. 0. 0. 0. 0. 0. 0.
      2.80112051e-03 0. 2.80112051e-03 0. 2.80112051e-03 0. 0. 0.
      5.60224103e-03 2.80112051e-03 0. 0. 0. 2.80112051e-03 0. 0. 0. 0.
      0. 0. 0. 0. 0. 0. 0. 0. 0. 0. 0. 0. 0. 0. 0. 5.60224103e-03 0. 0.
      0. 0. 0. 0. 2.80112051e-03 5.60224103e-03 0. 0. 0. 2.80112051e-03
      0. 0. 2.80112051e-03 0. 0. 0. 0. 0. 2.80112051e-03 0. 0.
      2.80112051e-03 0. 0. 0. 0. 0. 0. 5.60224103e-03 0. 0. 0.
      2.80112051e-03 0. 0. 0. 0. 0. 0. 2.80112051e-03 0. 2.80112051e-03
      0. 2.80112051e-03 2.80112051e-03 0. 0. 2.80112051e-03 0.
      2.80112051e-03 0. 0. 2.80112051e-03 2.80112051e-03 0. 0. 0. 0. 0.
      0. 0. 0. 0. 0. 5.60224103e-03 0. 0. 5.60224103e-03 0. 0.
      5.60224103e-03 0. 0. 2.80112051e-03 0. 0. 0. 0. 0. 0. 0. 0.
      2.80112051e-03 5.60224103e-03 0. 0. 3.08123250e-02 0. 0. 0.
      1.12044821e-02 0. 5.60224103e-03 0. 0. 0. 0. 0. 0. 0. 0. 0. 0. 0.
      0. 2.80112051e-03 0. 0. 0. 0. 2.80112051e-03 0. 0. 0. 0. 0. 0.
      2.80112051e-03 0. 0. 2.80112051e-03 0. 0. 0. 0. 0. 0. 0. 0. 0. 0.
      0. 0. 5.60224103e-03 0. 5.60224103e-03 0. 2.80112051e-03 0.
      8.40336177e-03 0. 2.80112051e-03 0. 0. 0. 2.80112051e-03 0. 0. 0.
      0. 0. 0. 0. 0. 0. 0. 0. 2.80112051e-03 0. 5.60224103e-03
      2.80112051e-03 0. 2.80112051e-03 0. 0. 0. 0. 0. 2.80112051e-03
      8.40336177e-03 0. 1.68067235e-02 0. 2.80112051e-03 2.80112051e-03
      2.80112051e-03 0. 2.80112051e-03 0. 0. 2.80112051e-03 0. 0.
      2.80112051e-03 5.60224103e-03 0. 0. 5.60224103e-03 0. 0. 0. 0.
      2.80112051e-03 0. 0. 2.80112051e-03 0. 0. 0. 2.80112051e-03 0. 0.
      0. 0. 5.60224103e-03 2.80112051e-03 0. 5.60224103e-03 0. 0.
      5.60224103e-03 0. 8.40336177e-03 2.80112051e-03 0. 0. 0. 0. 0. 0.
      2.80112051e-03 0. 0. 0. 0. 2.80112051e-03 0. 0. 0. 0. 0.
      2.80112051e-03 0. 0. 2.80112051e-03 2.80112051e-03 0. 0. 0. 0.
      2.80112051e-03 0. 0. 0. 0. 0. 2.80112051e-03 0. 0. 0. 0. 0. 0. 0.
      0. 0. 2.80112051e-03 2.80112051e-03 0. 0. 0. 0. 2.80112051e-03
      2.80112051e-03 0. 2.80112051e-03 2.80112051e-03 0. 0. 0.
      2.80112051e-03 0. 0. 0. 0. 0. 0. 0. 0. 0. 0. 0. 2.80112051e-03 0.
      8.40336177e-03 2.80112051e-03 2.80112051e-03 0. 8.40336177e-03 0.
      2.80112051e-03 2.80112051e-03 0. 0. 2.80112051e-03 0. 0.
      2.80112051e-03 0. 0. 0. 0. 0. 0. 0. 2.80112051e-03 2.80112051e-03
      0. 2.80112051e-03 0. 2.80112051e-03 2.80112051e-03 0.
      2.80112051e-03 0. 0. 2.80112051e-03 0. 0. 0. 0. 0. 0. 0. 0. 0.
      8.40336177e-03 0. 0. 0. 0. 0. 0. 0. 0. 0. 2.80112051e-03
      5.60224103e-03 0. 0. 0. 0. 2.80112051e-03 0. 0. 2.80112051e-03 0.
      0. 0. 1.12044821e-02 0. 0. 0. 0. 0. 0. 0. 5.60224103e-03 0.
      2.80112051e-03 0. 0. 0. 0. 0. 0. 2.80112051e-03 0. 0. 0. 0.
      8.40336177e-03 0. 2.80112051e-03 0. 2.80112051e-03 0.
      2.80112051e-03 2.80112051e-03 0. 2.80112051e-03 2.80112051e-03 0.
      0. 0. 0. 0. 0. 2.80112051e-03 0. 0. 0. 0. 2.80112051e-03
      2.80112051e-03 0. 0. 2.80112051e-03 0. 5.60224103e-03
      2.80112051e-03 0. 0. 0. 0. 0. 0. 0. 0. 0. 0. 0. 2.80112051e-03 0.
      0. 0. 2.80112051e-03 0. 0. 0. 0. 0. 0. 0. 0. 0. 0. 0. 0. 0. 0. 0.
      0. 0. 0. 0. 0. 5.60224103e-03 2.80112051e-03 8.40336177e-03 0. 0.
      2.80112051e-03 0. 0. 0. 0. 0. 0. 0. 2.80112051e-03 2.80112051e-03
      0. 0. 0. 0. 2.80112051e-03 2.80112051e-03 0. 2.80112051e-03 0.
      2.80112051e-03 0. 0. 0. 0. 2.80112051e-03 0. 0. 0. 0. 0.
      2.80112051e-03 1.40056023e-02 0. 0. 0. 0. 0. 0. 2.80112051e-03
      2.80112051e-03 0. 0. 0. 0. 2.80112051e-03 0. 5.60224103e-03
      2.80112051e-03 0. 0. 0. 0. 0. 0. 2.80112051e-03 2.80112051e-03
      2.80112051e-03 0. 0. 0. 0. 0. 0. 2.80112051e-03 0. 0. 0.
      2.80112051e-03 2.80112051e-03 2.80112051e-03 5.60224103e-03 0. 0.
      0. 0. 0. 0. 0. 2.80112051e-03 2.80112051e-03 0. 0. 0. 0. 0.
      5.60224103e-03 2.80112051e-03 0. 0. 0. 0. 0. 0. 0. 2.80112051e-03
      0. 0. 0. 2.80112051e-03 0. 0. 0. 0. 0. 2.80112051e-03 0. 0. 0. 0.
      0. 0. 0. 0. 2.80112051e-03 0. 0. 2.80112051e-03 0. 2.80112051e-03
      0. 2.80112051e-03 0. 0. 2.80112051e-03 5.60224103e-03 0. 0. 0. 0.
      0. 0. 0. 2.80112051e-03 0. 0. 0. 0. 0. 0. 0. 0. 0. 0. 0.
      2.80112051e-03 0. 2.80112051e-03 0. 0. 0. 0. 0. 2.80112051e-03
      8.40336177e-03 2.80112051e-03 0.</_>
    <_>
      0. 0. 0. 0. 1.33333337e-02 0. 0. 0. 0. 0. 0. 0. 0. 0. 0. 0. 0. 0.
      1.33333337e-02 0. 0. 0. 1.33333337e-02 0. 0. 0. 0. 0. 0. 0. 0. 0.
      0. 0. 0. 0. 1.33333337e-02 0. 0. 0. 0. 0. 0. 0. 0. 0. 0. 0. 0.
      1.33333337e-02 0. 0. 0. 0. 0. 0. 0. 0. 0. 0. 0. 0. 0. 0. 0.
      1.33333337e-02 0. 0. 0. 0. 0. 0. 0. 0. 0. 2.66666673e-02 0. 0. 0.
      1.33333337e-02 0. 0. 0. 0. 0. 0. 0. 0. 0. 0. 0. 0. 0. 0. 0. 0. 0.
      0. 1.33333337e-02 0. 0. 0. 0. 0. 0. 0. 0. 0. 0. 0. 0. 0. 0. 0. 0.
      0. 0. 0. 1.33333337e-02 0. 0. 0. 0. 0. 0. 3.99999991e-02 0. 0. 0.
      0. 0. 0. 0. 0. 0. 0. 0. 0. 0. 0. 0. 0. 0. 0. 0. 0. 0. 0. 0. 0. 0.
      0. 0. 0. 0. 0. 0. 0. 0. 0. 0. 0. 0. 0. 0. 0. 0. 0. 0. 0. 0. 0. 0.
      0. 0. 0. 0. 0. 0. 0. 0. 0. 0. 0. 0. 0. 0. 0. 0. 0. 0. 0. 0. 0.
      2.66666673e-02 0. 0. 0. 0. 0. 1.33333337e-02 0. 0. 1.33333337e-02
      0. 0. 0. 0. 0. 0. 0. 0. 0. 0. 1.33333337e-02 0. 0. 0. 0. 0. 0. 0.
      0. 0. 0. 0. 0. 0. 0. 0. 1.33333337e-02 0. 0. 0. 0. 0. 0. 0. 0. 0.
      0. 0. 0. 0. 0. 0. 0. 0. 0. 1.33333337e-02 0. 3.99999991e-02 0. 0.
      0. 0. 0. 0. 0. 0. 0. 0. 0. 0. 1.33333337e-02 0. 0. 0. 0. 0. 0. 0.
      1.33333337e-02 0. 0. 0. 1.33333337e-02 0. 0. 0. 0. 0. 0. 0.
      1.33333337e-02 0. 0. 0. 0. 0. 0. 0. 0. 0. 0. 0. 0. 0. 0. 0. 0. 0.
      0. 0. 0. 0. 0. 0. 0. 0. 0. 0. 0. 0. 0. 0. 0. 0. 0. 0. 0. 0. 0. 0.
      0. 0. 0. 0. 0. 0. 0. 0. 0. 0. 0. 0. 0. 0. 0. 0. 0. 0. 0. 0. 0. 0.
      0. 0. 0. 0. 0. 0. 0. 0. 0. 0. 0. 0. 0. 0. 0. 0. 0. 1.33333337e-02
      0. 0. 0. 0. 0. 0. 1.33333337e-02 0. 0. 0. 0. 1.33333337e-02 0. 0.
      0. 0. 0. 1.33333337e-02 0. 0. 0. 0. 0. 0. 0. 0. 0. 0. 0. 0. 0. 0.
      0. 0. 0. 0. 0. 0. 0. 0. 0. 1.33333337e-02 0. 0. 0. 0. 0.
      1.33333337e-02 0. 0. 0. 0. 0. 0. 1.33333337e-02 0. 0. 0. 0. 0. 0.
      0. 0. 0. 0. 0. 0. 0. 0. 0. 0. 0. 0. 0. 0. 0. 0. 0. 0. 0. 0. 0. 0.
      0. 0. 0. 0. 0. 0. 0. 0. 0. 0. 0. 0. 0. 0. 0. 0. 0. 0. 0. 0. 0. 0.
      0. 0. 0. 0. 0. 0. 0. 0. 0. 0. 0. 0. 0. 0. 0. 0. 0. 0. 0. 0. 0. 0.
      0. 0. 0. 0. 0. 0. 0. 0. 0. 0. 0. 0. 0. 0. 0. 0. 0. 0. 0. 0. 0. 0.
      0. 0. 1.33333337e-02 0. 0. 0. 0. 0. 0. 1.33333337e-02 0. 0. 0. 0.
      0. 0. 0. 0. 0. 0. 0. 0. 0. 0. 0. 0. 0. 0. 0. 0. 0. 0. 0. 0. 0. 0.
      0. 0. 0. 0. 0. 0. 0. 0. 0. 0. 0. 0. 0. 0. 0. 0. 1.33333337e-02
      1.33333337e-02 0. 0. 0. 0. 0. 0. 0. 1.33333337e-02 0. 0. 0. 0. 0.
      0. 0. 0. 0. 0. 0. 0. 0. 0. 0. 0. 0. 0. 0. 1.33333337e-02 0. 0.
      1.33333337e-02 1.33333337e-02 0. 0. 0. 0. 0. 0. 1.33333337e-02 0.
      0. 0. 0. 0. 0. 0. 0. 0. 0. 0. 0. 0. 0. 0. 1.33333337e-02 0. 0. 0.
      0. 0. 0. 0. 0. 0. 0. 0. 0. 0. 0. 0. 0. 0. 1.33333337e-02 0. 0. 0.
      0. 1.33333337e-02 0. 0. 0. 0. 0. 0. 0. 0. 0. 0. 1.33333337e-02 0.
      0. 0. 2.66666673e-02 0. 0. 0. 0. 0. 0. 0. 0. 0. 0. 0. 0. 0. 0. 0.
      0. 0. 0. 0. 0. 0. 0. 0. 0. 0. 0. 0. 0. 0. 0. 3.99999991e-02 0. 0.
      0. 0. 0. 0. 0. 0. 0. 0. 0. 0. 0. 0. 0. 0. 0. 0. 0. 0. 0. 0. 0. 0.
      0. 0. 0. 0. 0. 0. 0. 0. 0. 0. 0. 0. 0. 0. 0. 0. 0. 0. 0. 0. 0. 0.
      0. 0. 0. 0. 0. 0. 0. 0. 0. 0. 0. 0. 0. 0. 0. 0. 0. 0. 0. 0. 0. 0.
      1.33333337e-02 0. 0. 0. 0. 0. 0. 0. 0. 1.33333337e-02 0. 0. 0. 0.
      0. 0. 1.33333337e-02 0. 0. 0. 0. 0. 0. 0. 0. 0. 0. 0. 0. 0. 0. 0.
      0. 0. 0. 0. 0. 0. 0. 0. 0. 1.33333337e-02 0. 0. 0. 0. 0. 0. 0.
      1.33333337e-02 0. 0. 0. 0. 0. 0. 0. 0. 0. 0. 0. 0. 0. 0. 0. 0. 0.
      0. 1.33333337e-02 1.33333337e-02 0. 0. 0. 0. 0. 0. 0. 0. 0. 0.
      1.33333337e-02 0. 0. 0. 0. 1.33333337e-02 0. 1.33333337e-02 0. 0.
      0. 0. 0. 0. 0. 0. 0. 0. 1.33333337e-02 0. 0. 0. 0. 0. 0. 0.
      1.33333337e-02 0. 0. 0. 0. 0. 0. 1.33333337e-02 0. 0. 0. 0. 0. 0.
      0. 0. 0. 0. 1.33333337e-02 0. 0. 0. 0. 0. 0. 0. 0. 0. 0. 0.
      1.33333337e-02 0. 0. 0. 0. 0. 1.33333337e-02 0. 0. 0. 0. 0. 0. 0.
      0. 0. 0. 0. 0. 0. 0. 0. 0. 0. 0. 2.66666673e-02 0. 0. 0. 0. 0. 0.
      0. 0. 0. 0. 0. 0. 0. 0. 0. 0. 0. 0. 0. 0. 0. 0. 1.33333337e-02 0.
      0. 0. 0. 0. 0. 0. 0. 0. 0. 0. 0. 0. 0. 0. 0. 0. 1.33333337e-02 0.
      0. 0. 0. 0. 0. 0. 0. 0. 0. 0. 0. 0. 0. 0. 0. 0. 0. 0. 0. 0. 0. 0.
      1.33333337e-02 0. 0. 0. 0. 0. 0. 0. 0. 0. 0. 0. 1.33333337e-02 0.
      0.</_>
    <_>
      0. 0. 6.45161280e-03 0. 0. 0. 0. 0. 0. 0. 0. 0. 0. 0. 0. 0. 0. 0.
      6.45161280e-03 0. 0. 0. 0. 0. 0. 0. 0. 0. 0. 0. 0. 0. 0. 0. 0.
      6.45161280e-03 6.45161280e-03 0. 0. 0. 0. 0. 0. 0. 0. 0. 0. 0. 0.
      0. 0. 0. 0. 0. 0. 0. 0. 0. 0. 0. 0. 0. 0. 0. 0. 0. 0. 0. 0.
      6.45161280e-03 0. 0. 0. 0. 0. 0. 0. 0. 0. 0. 0. 0. 0.
      6.45161280e-03 0. 0. 0. 6.45161280e-03 3.87096778e-02 0. 0. 0.
      6.45161280e-03 6.45161280e-03 0. 0. 0. 0. 0. 6.45161280e-03 0. 0.
      0. 0. 0. 0. 0. 0. 0. 0. 0. 0. 0. 0. 0. 0. 0. 0. 0. 0. 0. 0.
      2.58064512e-02 0. 0. 1.93548389e-02 0. 0. 0. 0. 0. 0. 0. 0. 0. 0.
      0. 0. 0. 0. 0. 0. 0. 0. 1.29032256e-02 0. 1.93548389e-02 0.
      6.45161280e-03 0. 0. 0. 6.45161280e-03 0. 0. 0. 0. 0. 0. 0. 0. 0.
      0. 0. 0. 0. 0. 0. 0. 0. 0. 6.45161280e-03 0. 0. 0. 0. 0.
      6.45161280e-03 0. 0. 0. 0. 0. 0. 0. 0. 0. 6.45161280e-03 0. 0. 0.
      0. 0. 0. 1.93548389e-02 0. 0. 0. 0. 0. 0. 0. 0. 0. 0. 0. 0. 0. 0.
      0. 0. 6.45161280e-03 0. 0. 0. 6.45161280e-03 0. 0. 0.
      6.45161280e-03 0. 0. 0. 0. 0. 6.45161280e-03 0. 0. 0. 0. 0. 0.
      6.45161280e-03 0. 0. 0. 0. 3.87096778e-02 0. 0. 0. 0. 0. 0.
      6.45161280e-03 0. 0. 6.45161280e-03 0. 0. 0. 4.51612882e-02 0. 0.
      0. 0. 0. 0. 0. 6.45161280e-03 0. 0. 0. 0. 6.45161280e-03 0. 0. 0.
      0. 0. 0. 0. 0. 0. 0. 0. 6.45161280e-03 0. 0. 0. 0. 0. 0.
      6.45161280e-03 0. 0. 0. 0. 0. 0. 0. 0. 0. 6.45161280e-03 0. 0. 0.
      0. 0. 0. 0. 0. 0. 0. 0. 6.45161280e-03 0. 0. 0. 0. 0. 0.
      6.45161280e-03 0. 0. 0. 0. 0. 0. 0. 0. 0. 0. 0. 0. 0. 0. 0. 0. 0.
      0. 0. 0. 0. 0. 0. 0. 0. 0. 0. 6.45161280e-03 0. 6.45161280e-03 0.
      0. 0. 0. 0. 6.45161280e-03 0. 0. 0. 0. 0. 0. 0. 0. 0. 0. 0. 0.
      6.45161280e-03 0. 6.45161280e-03 0. 0. 0. 0. 0. 0. 6.45161280e-03
      0. 0. 0. 1.29032256e-02 0. 0. 0. 6.45161280e-03 0. 0. 0. 0. 0. 0.
      0. 6.45161280e-03 0. 0. 0. 0. 0. 0. 0. 0. 0. 0. 0. 0.
      6.45161280e-03 0. 0. 0. 6.45161280e-03 0. 0. 0. 0. 0. 0. 0.
      1.29032256e-02 0. 0. 0. 0. 0. 0. 6.45161280e-03 6.45161280e-03 0.
      0. 0. 0. 0. 0. 0. 0. 0. 0. 1.29032256e-02 0. 0. 0. 0. 0. 0. 0. 0.
      0. 0. 0. 0. 0. 0. 0. 0. 0. 0. 0. 0. 0. 0. 0. 0. 0. 0.
      6.45161280e-03 0. 0. 0. 6.45161280e-03 0. 6.45161280e-03 0. 0. 0.
      0. 0. 0. 0. 0. 0. 6.45161280e-03 0. 0. 0. 0. 0. 0. 0. 0. 0. 0. 0.
      1.29032256e-02 0. 0. 1.29032256e-02 0. 0. 0. 6.45161280e-03 0. 0.
      0. 6.45161280e-03 0. 0. 0. 0. 6.45161280e-03 0. 0. 0. 0. 0. 0. 0.
      0. 0. 6.45161280e-03 0. 0. 0. 0. 0. 0. 0. 0. 6.45161280e-03 0.
      1.29032256e-02 0. 0. 0. 0. 0. 6.45161280e-03 0. 0. 0. 0. 0. 0.
      6.45161280e-03 0. 0. 0. 0. 6.45161280e-03 0. 0. 0. 0. 0. 0. 0. 0.
      0. 0. 0. 0. 0. 0. 0. 0. 0. 0. 0. 0. 0. 0. 0. 0. 0. 6.45161280e-03
      0. 0. 0. 0. 0. 0. 0. 6.45161280e-03 0. 0. 0. 0. 6.45161280e-03 0.
      0. 0. 0. 0. 0. 6.45161280e-03 0. 0. 0. 0. 0. 0. 0. 6.45161280e-03
      0. 0. 6.45161280e-03 0. 0. 0. 6.45161280e-03 0. 0. 0. 0.
      1.93548389e-02 0. 6.45161280e-03 0. 0. 0. 0. 0. 0. 0. 0. 0. 0. 0.
      0. 0. 6.45161280e-03 0. 0. 0. 0. 0. 0. 0. 0. 0. 0. 0. 0. 0. 0. 0.
      0. 1.29032256e-02 0. 0. 0. 0. 6.45161280e-03 0. 0. 0. 0. 0. 0. 0.
      0. 0. 0. 6.45161280e-03 0. 0. 0. 0. 0. 0. 0. 0. 1.29032256e-02
      6.45161280e-03 0. 0. 0. 0. 0. 0. 0. 0. 0. 0. 0. 0. 0. 0. 0. 0. 0.
      0. 0. 0. 0. 0. 0. 0. 1.29032256e-02 0. 1.93548389e-02 0. 0. 0. 0.
      0. 0. 0. 6.45161280e-03 6.45161280e-03 0. 0. 0. 0. 0. 0. 0. 0. 0.
      6.45161280e-03 0. 0. 0. 0. 0. 0. 0. 0. 0. 0. 0. 0. 0. 0. 0. 0. 0.
      0. 0. 0. 0. 1.29032256e-02 6.45161280e-03 0. 6.45161280e-03 0. 0.
      0. 0. 0. 6.45161280e-03 0. 0. 0. 0. 0. 0. 0. 0. 0. 0. 0. 0. 0. 0.
      0. 0. 6.45161280e-03 0. 0. 0. 0. 0. 0. 0. 0. 6.45161280e-03 0. 0.
      0. 0. 0. 0. 6.45161280e-03 0. 0. 0. 0. 0. 0. 0. 0. 0. 0. 0. 0. 0.
      0. 0. 0. 0. 0. 0. 0. 0. 0. 0. 0. 0. 0. 0. 0. 0. 0. 0. 0. 0. 0. 0.
      0. 0. 0. 0. 0. 6.45161280e-03 0. 0. 0. 0. 0. 0. 0. 0. 0. 0. 0. 0.
      0. 0. 0. 0. 0. 0. 0. 0. 0. 0. 6.45161280e-03 0. 0. 0.
      6.45161280e-03 0. 0. 1.29032256e-02 0. 0. 0. 0. 0. 0. 0. 0. 0. 0.
      0. 0. 0. 0. 0. 0. 0. 0. 0. 0. 0. 0. 0. 0. 0. 0. 0. 6.45161280e-03
      6.45161280e-03 6.45161280e-03 0. 0. 0. 0. 0. 0. 0. 0. 0. 0. 0. 0.
      0. 0. 0. 0. 0. 0. 0. 0. 0. 6.45161280e-03 0. 6.45161280e-03
      6.45161280e-03 0. 0. 0. 0. 1.29032256e-02 0. 0. 0. 0. 0. 0. 0. 0.
      0. 0. 0. 0. 0. 1.29032256e-02 0. 0. 0. 0. 0. 0. 0. 0. 0. 0. 0.
      6.45161280e-03 0. 0. 0. 0. 0. 0. 0. 0. 0. 0. 0. 6.45161280e-03 0.
      0. 0. 0. 0. 0. 0. 0. 0. 0. 0. 0. 6.45161280e-03 0. 0. 0.
      6.45161280e-03 0. 0. 0. 0. 0. 0. 0. 0. 0. 0. 0. 0. 0. 0. 0. 0. 0.
      0. 0. 0. 0. 0. 0. 0. 0. 0. 6.45161280e-03 0. 0. 0. 0. 0. 0. 0. 0.
      6.45161280e-03 0. 0.</_>
    <_>
      0. 3.26797389e-03 0. 4.90196096e-03 0. 0. 0. 0. 0. 0. 0.
      1.63398695e-03 1.63398695e-03 1.63398695e-03 0. 0. 0.
      3.26797389e-03 0. 0. 1.63398695e-03 0. 0. 0. 0. 4.90196096e-03 0.
      0. 0. 0. 0. 0. 0. 0. 3.26797389e-03 0. 1.63398695e-03 0. 0.
      1.63398695e-03 0. 0. 1.63398695e-03 0. 0. 1.63398695e-03 0.
      1.63398695e-03 0. 0. 0. 0. 0. 0. 0. 0. 0. 0. 0. 1.63398695e-03
      1.63398695e-03 1.63398695e-03 0. 3.26797389e-03 1.63398695e-03 0.
      0. 0. 0. 3.26797389e-03 1.63398695e-03 1.63398695e-03
      3.26797389e-03 0. 0. 0. 0. 1.63398695e-03 4.90196096e-03 0. 0. 0.
      0. 1.63398695e-03 3.26797389e-03 0. 1.63398695e-03 1.63398695e-03
      0. 0. 1.63398695e-03 0. 0. 0. 0. 1.63398695e-03 1.63398695e-03 0.
      1.63398695e-03 0. 1.63398695e-03 0. 0. 0. 0. 0. 0. 0.
      1.63398695e-03 1.63398695e-03 0. 0. 1.63398695e-03 0. 0. 0. 0.
      1.63398695e-03 0. 0. 0. 0. 1.63398695e-03 0. 0. 0. 0. 0.
      1.63398695e-03 0. 1.63398695e-03 0. 0. 1.63398695e-03 0. 0. 0. 0.
      0. 0. 0. 0. 1.63398695e-03 0. 3.26797389e-03 1.63398695e-03 0. 0.
      0. 1.63398695e-03 0. 0. 1.63398695e-03 0. 0. 0. 0. 0. 0. 0. 0. 0.
      1.63398695e-03 0. 0. 0. 0. 0. 1.63398695e-03 0. 0. 0. 0.
      1.63398695e-03 0. 8.16993508e-03 3.26797389e-03 0. 0. 0.
      3.26797389e-03 0. 0. 0. 0. 0. 0. 1.63398695e-03 8.16993508e-03 0.
      1.63398695e-03 0. 1.63398695e-03 0. 0. 0. 0. 0. 0. 0. 0. 0.
      1.63398695e-03 0. 0. 0. 1.63398695e-03 1.63398695e-03
      1.63398695e-03 0. 0. 3.26797389e-03 0. 0. 1.63398695e-03 0. 0.
      1.63398695e-03 0. 1.63398695e-03 0. 3.26797389e-03 0. 0. 0.
      1.63398695e-03 1.63398695e-03 0. 0. 1.63398695e-03 0. 0. 0. 0. 0.
      0. 0. 0. 1.63398695e-03 0. 0. 0. 1.63398695e-03 4.90196096e-03
      3.26797389e-03 0. 0. 0. 0. 6.53594779e-03 1.63398695e-03 0. 0. 0.
      1.63398695e-03 0. 0. 0. 0. 0. 3.26797389e-03 0. 0. 0. 0.
      1.63398695e-03 0. 0. 1.63398695e-03 0. 0. 0. 0. 1.63398695e-03 0.
      1.63398695e-03 0. 1.63398695e-03 0. 0. 1.63398695e-03 0.
      4.90196096e-03 0. 0. 1.63398695e-03 0. 0. 1.63398695e-03 0. 0. 0.
      0. 0. 3.26797389e-03 1.63398695e-03 0. 0. 0. 0. 1.63398695e-03
      1.63398695e-03 0. 0. 0. 0. 0. 0. 0. 1.63398695e-03 0.
      1.63398695e-03 3.26797389e-03 3.26797389e-03 0. 0. 1.63398695e-03
      0. 0. 1.63398695e-03 8.16993508e-03 1.63398695e-03 0.
      4.90196096e-03 0. 0. 1.63398695e-03 0. 0. 1.63398695e-03 0.
      3.26797389e-03 3.26797389e-03 0. 0. 1.63398695e-03 0. 0. 0. 0.
      1.63398695e-03 1.63398695e-03 0. 0. 1.63398695e-03 1.63398695e-03
      1.63398695e-03 0. 0. 0. 0. 0. 0. 0. 1.63398695e-03 0.
      1.63398695e-03 0. 0. 0. 0. 0. 1.63398695e-03 0. 3.26797389e-03 0.
      1.63398695e-03 4.90196096e-03 0. 0. 1.63398695e-03 0. 0. 0. 0.
      3.26797389e-03 0. 0. 1.63398695e-03 0. 1.63398695e-03
      3.26797389e-03 1.63398695e-03 0. 3.26797389e-03 0. 3.26797389e-03
      0. 0. 0. 1.63398695e-03 0. 1.63398695e-03 0. 0. 1.63398695e-03 0.
      1.63398695e-03 0. 0. 0. 3.26797389e-03 0. 0. 0. 0. 0.
      1.63398695e-03 0. 0. 0. 0. 0. 3.26797389e-03 1.63398695e-03 0.
      3.26797389e-03 0. 0. 0. 0. 0. 3.26797389e-03 0. 1.63398695e-03
      3.26797389e-03 0. 1.63398695e-03 0. 3.26797389e-03 3.26797389e-03
      0. 3.26797389e-03 0. 0. 0. 4.90196096e-03 0. 0. 0. 0. 0. 0. 0. 0.
      0. 1.63398695e-03 1.63398695e-03 3.26797389e-03 0. 1.63398695e-03
      0. 4.90196096e-03 1.63398695e-03 0. 3.26797389e-03 0. 0. 0. 0. 0.
      1.63398695e-03 0. 0. 0. 0. 0. 0. 0. 0. 1.63398695e-03 0. 0. 0. 0.
      0. 1.63398695e-03 1.63398695e-03 1.63398695e-03 0. 0.
      4.90196096e-03 1.63398695e-03 0. 0. 0. 3.26797389e-03
      1.63398695e-03 0. 0. 0. 3.26797389e-03 1.63398695e-03
      1.63398695e-03 0. 1.63398695e-03 3.26797389e-03 0. 0. 0. 0. 0. 0.
      1.63398695e-03 0. 1.63398695e-03 0. 1.63398695e-03 0.
      1.63398695e-03 0. 0. 6.53594779e-03 1.63398695e-03 0.
      3.26797389e-03 0. 0. 0. 0. 0. 0. 0. 0. 3.26797389e-03 0. 0. 0. 0.
      1.63398695e-03 0. 1.63398695e-03 0. 0. 0. 1.63398695e-03
      3.26797389e-03 0. 0. 0. 1.63398695e-03 0. 4.90196096e-03
      4.90196096e-03 1.63398695e-03 0. 0. 0. 1.63398695e-03
      1.63398695e-03 0. 4.90196096e-03 1.63398695e-03 1.63398695e-03 0.
      0. 8.16993508e-03 3.26797389e-03 0. 0. 0. 0. 0. 1.63398695e-03
      1.63398695e-03 1.63398695e-03 0. 0. 1.63398695e-03 0.
      3.26797389e-03 0. 0. 0. 1.63398695e-03 3.26797389e-03
      1.63398695e-03 0. 0. 0. 0. 0. 0. 0. 3.26797389e-03 0. 0. 0.
      1.63398695e-03 1.63398695e-03 0. 0. 1.63398695e-03 0. 0. 0.
      1.63398695e-03 1.63398695e-03 3.26797389e-03 0. 6.53594779e-03 0.
      0. 1.63398695e-03 0. 0. 0. 4.90196096e-03 0. 0. 1.63398695e-03 0.
      1.63398695e-03 1.63398695e-03 4.90196096e-03 0. 0. 0.
      3.26797389e-03 3.26797389e-03 0. 0. 0. 0. 1.63398695e-03 0. 0.
      1.63398695e-03 0. 1.63398695e-03 0. 1.63398695e-03 0. 0. 0. 0. 0.
      1.63398695e-03 3.26797389e-03 1.63398695e-03 0. 1.63398695e-03 0.
      4.90196096e-03 0. 6.53594779e-03 0. 0. 0. 3.26797389e-03
      1.63398695e-03 1.63398695e-03 0. 0. 1.63398695e-03 3.26797389e-03
      1.63398695e-03 0. 0. 0. 1.63398695e-03 0. 0. 4.90196096e-03
      1.63398695e-03 0. 0. 0. 1.63398695e-03 1.63398695e-03 0. 0.
      3.26797389e-03 1.63398695e-03 0. 0. 0. 8.16993508e-03 0.
      1.63398695e-03 0. 0. 0. 0. 1.63398695e-03 1.63398695e-03 0. 0.
      1.63398695e-03 0. 0. 1.63398695e-03 0. 0. 0. 1.63398695e-03 0.
      4.90196096e-03 1.63398695e-03 0. 0. 3.26797389e-03 0. 0. 0. 0. 0.
      1.63398695e-03 0. 3.26797389e-03 0. 0. 1.63398695e-03
      3.26797389e-03 3.26797389e-03 0. 0. 1.63398695e-03 4.90196096e-03
      1.63398695e-03 6.53594779e-03 1.63398695e-03 1.63398695e-03
      1.63398695e-03 6.53594779e-03 1.63398695e-03 0. 0. 0. 0.
      1.63398695e-03 1.63398695e-03 0. 1.63398695e-03 0. 1.63398695e-03
      0. 1.63398695e-03 0. 3.26797389e-03 1.63398695e-03 0. 0. 0.
      1.63398695e-03 4.90196096e-03 1.63398695e-03 0. 0. 0.
      1.63398695e-03 0. 1.63398695e-03 4.90196096e-03 0. 1.63398695e-03
      1.63398695e-03 0. 1.63398695e-03 0. 1.63398695e-03 1.63398695e-03
      0. 1.63398695e-03 0. 0. 3.26797389e-03 0. 0. 1.63398695e-03 0. 0.
      3.26797389e-03 0. 1.63398695e-03 0. 0. 0. 1.63398695e-03
      4.90196096e-03 3.26797389e-03 3.26797389e-03 0. 1.63398695e-03 0.
      1.63398695e-03 0. 3.26797389e-03 0. 1.63398695e-03 6.53594779e-03
      1.63398695e-03 0. 3.26797389e-03 0. 3.26797389e-03 1.63398695e-03
      6.53594779e-03 0. 0. 1.63398695e-03 1.63398695e-03 4.90196096e-03
      1.63398695e-03 0. 0. 3.26797389e-03 6.53594779e-03 0. 0. 0. 0.
      3.26797389e-03 1.63398695e-03 0. 0. 0. 0. 0. 0. 1.63398695e-03
      4.90196096e-03 1.63398695e-03 0. 0. 4.90196096e-03 0.
      1.63398695e-03 1.63398695e-03 3.26797389e-03 0. 1.63398695e-03
      3.26797389e-03 0. 0. 1.63398695e-03 0. 0. 0. 0. 0. 0.
      1.63398695e-03 3.26797389e-03 0. 1.63398695e-03 0. 0.
      3.26797389e-03 0. 1.63398695e-03 1.63398695e-03 0. 3.26797389e-03
      1.63398695e-03 0. 3.26797389e-03 0. 1.63398695e-03 1.63398695e-03
      0. 0. 1.63398695e-03 0. 1.14379087e-02 0. 3.26797389e-03 0. 0.
      1.63398695e-03 1.63398695e-03 0. 1.63398695e-03 0. 0. 0. 0. 0.
      1.63398695e-03 1.63398695e-03 1.63398695e-03 3.26797389e-03 0. 0.
      1.63398695e-03 0. 1.63398695e-03 0. 0. 4.90196096e-03
      1.63398695e-03 0. 0. 1.63398695e-03 0. 0. 0. 0. 0. 0. 0. 0.
      1.63398695e-03 0. 3.26797389e-03 1.63398695e-03 0. 0. 0. 0. 0. 0.
      3.26797389e-03 0. 0. 0. 0. 1.63398695e-03 3.26797389e-03 0. 0. 0.
      0. 0. 4.90196096e-03 3.26797389e-03 0. 3.26797389e-03 0.
      3.26797389e-03 0. 3.26797389e-03 1.63398695e-03 0. 4.90196096e-03
      3.26797389e-03 4.90196096e-03 0. 0. 1.63398695e-03 1.63398695e-03
      0. 0. 9.80392192e-03 4.90196096e-03 3.26797389e-03 0.
      1.63398695e-03 0. 1.63398695e-03 0. 0. 6.53594779e-03 0.
      1.63398695e-03 0. 3.26797389e-03 0. 3.26797389e-03 4.90196096e-03
      1.63398695e-03 0. 0. 3.26797389e-03 9.80392192e-03 1.63398695e-03
      0. 0. 0. 3.26797389e-03 6.53594779e-03 0. 1.63398695e-03 0.
      9.80392192e-03 0. 3.26797389e-03 1.63398695e-03 0. 1.63398695e-03
      0. 3.26797389e-03 0. 1.63398695e-03 3.26797389e-03 0. 0.
      1.63398695e-03 0. 1.63398695e-03 4.90196096e-03 0. 0.
      1.63398695e-03 3.26797389e-03 0. 0. 0. 1.63398695e-03
      1.63398695e-03</_>
    <_>
      0. 0. 0. 3.69003695e-03 3.69003695e-03 0. 0. 0. 0. 0. 0. 0. 0.
      7.38007389e-03 0. 0. 0. 0. 0. 0. 0. 0. 0. 0. 0. 0. 0. 0. 0.
      1.10701108e-02 0. 3.69003695e-03 0. 0. 0. 0. 0. 0. 0. 0.
      1.10701108e-02 0. 0. 0. 3.69003695e-03 0. 0. 3.69003695e-03 0. 0.
      0. 0. 3.69003695e-03 3.69003695e-03 0. 3.69003695e-03
      3.69003695e-03 3.69003695e-03 0. 3.69003695e-03 0. 0. 0. 0. 0. 0.
      0. 0. 3.69003695e-03 0. 0. 0. 0. 0. 0. 0. 3.69003695e-03
      3.69003695e-03 0. 0. 0. 0. 0. 0. 0. 0. 0. 0. 0. 0. 0. 0. 0. 0. 0.
      3.69003695e-03 0. 0. 0. 0. 0. 0. 0. 0. 0. 0. 3.69003695e-03 0. 0.
      0. 0. 0. 0. 3.69003695e-03 0. 0. 0. 0. 0. 0. 7.38007389e-03 0. 0.
      0. 3.69003695e-03 0. 0. 0. 0. 0. 0. 0. 0. 0. 0. 0. 0. 0. 0.
      3.69003695e-03 0. 0. 0. 0. 3.69003695e-03 0. 0. 0. 0. 0. 0. 0. 0.
      0. 0. 0. 0. 0. 0. 0. 0. 0. 0. 0. 0. 0. 0. 0. 0. 3.69003695e-03 0.
      0. 7.38007389e-03 3.69003695e-03 0. 3.69003695e-03 0. 0.
      3.69003695e-03 0. 0. 0. 3.69003695e-03 0. 0. 0. 3.69003695e-03 0.
      3.69003695e-03 0. 0. 0. 0. 3.69003695e-03 7.38007389e-03 0.
      3.69003695e-03 0. 0. 0. 7.38007389e-03 0. 0. 3.69003695e-03 0. 0.
      0. 3.69003695e-03 0. 0. 0. 0. 0. 0. 3.69003695e-03 0. 0. 0. 0. 0.
      0. 0. 0. 0. 0. 0. 3.69003695e-03 3.69003695e-03 0. 0. 0. 0. 0.
      3.69003695e-03 0. 0. 0. 0. 3.69003695e-03 0. 0. 0. 3.69003695e-03
      0. 3.69003695e-03 3.69003695e-03 0. 0. 0. 3.69003695e-03 0.
      1.84501857e-02 7.38007389e-03 0. 3.69003695e-03 0. 0. 0. 0. 0. 0.
      0. 0. 0. 0. 0. 3.69003695e-03 0. 0. 0. 0. 0. 0. 3.69003695e-03 0.
      0. 0. 3.69003695e-03 0. 0. 0. 0. 3.69003695e-03 0. 0. 0. 0. 0. 0.
      0. 3.69003695e-03 0. 0. 0. 0. 0. 0. 0. 0. 0. 0. 0. 0. 0. 0. 0.
      3.69003695e-03 0. 0. 0. 0. 0. 0. 0. 3.69003695e-03 0. 0.
      3.69003695e-03 0. 0. 3.69003695e-03 0. 0. 0. 0. 7.38007389e-03
      3.69003695e-03 0. 0. 0. 3.69003695e-03 0. 0. 0. 0. 0. 0. 0. 0. 0.
      0. 0. 0. 0. 0. 0. 0. 0. 0. 0. 0. 3.69003695e-03 0. 7.38007389e-03
      3.69003695e-03 0. 3.69003695e-03 0. 0. 0. 0. 0. 0. 0.
      3.69003695e-03 0. 0. 0. 0. 7.38007389e-03 0. 0. 0. 0. 0. 0. 0. 0.
      7.38007389e-03 0. 0. 3.69003695e-03 0. 3.69003695e-03 0. 0. 0. 0.
      0. 0. 0. 0. 0. 0. 0. 2.21402217e-02 0. 3.69003695e-03 0. 0.
      1.10701108e-02 0. 0. 0. 0. 0. 0. 0. 3.69003695e-03 0. 0. 0. 0.
      3.69003695e-03 0. 3.69003695e-03 7.38007389e-03 0. 0. 0. 0. 0. 0.
      0. 0. 0. 0. 1.10701108e-02 0. 3.69003695e-03 3.69003695e-03 0. 0.
      0. 3.69003695e-03 3.69003695e-03 0. 7.38007389e-03 0. 0. 0. 0. 0.
      0. 0. 0. 0. 0. 0. 0. 0. 1.10701108e-02 0. 0. 0. 0. 0. 0. 0. 0. 0.
      0. 3.69003695e-03 0. 0. 0. 0. 7.38007389e-03 0. 1.10701108e-02 0.
      3.69003695e-03 3.69003695e-03 0. 0. 0. 0. 0. 0. 0. 0. 0. 0. 0. 0.
      7.38007389e-03 0. 0. 2.95202956e-02 0. 3.69003695e-03 0.
      7.38007389e-03 0. 0. 0. 0. 0. 0. 0. 0. 0. 0. 0. 0. 0. 0.
      7.38007389e-03 7.38007389e-03 0. 0. 3.69003695e-03 0. 0. 0. 0. 0.
      1.10701108e-02 0. 7.38007389e-03 0. 0. 0. 0. 0. 0. 0.
      3.69003695e-03 0. 0. 0. 0. 0. 0. 0. 3.69003695e-03 0. 0. 0.
      7.38007389e-03 0. 7.38007389e-03 0. 3.69003695e-03 0.
      3.69003695e-03 0. 0. 0. 3.69003695e-03 0. 0. 0. 0. 0. 0. 0. 0. 0.
      0. 0. 0. 0. 1.10701108e-02 0. 0. 0. 3.69003695e-03 0. 0. 0. 0. 0.
      3.32103334e-02 0. 0. 0. 1.10701108e-02 0. 3.69003695e-03 0. 0.
      3.69003695e-03 0. 0. 3.69003695e-03 0. 0. 0. 0. 0. 1.10701108e-02
      0. 0. 0. 3.69003695e-03 0. 0. 0. 0. 0. 0. 0. 0. 3.69003695e-03 0.
      1.84501857e-02 0. 0. 0. 0. 0. 0. 0. 0. 0. 0. 0. 0. 0. 0. 0. 0.
      3.69003695e-03 0. 0. 0. 0. 3.69003695e-03 0. 0. 0. 0. 0. 0. 0. 0.
      3.69003695e-03 3.69003695e-03 0. 0. 0. 0. 0. 0. 7.38007389e-03 0.
      0. 0. 0. 0. 0. 0. 0. 0. 0. 0. 0. 0. 0. 0. 0. 0. 0. 0. 0. 0. 0. 0.
      0. 0. 0. 0. 0. 0. 0. 0. 0. 0. 0. 0. 0. 0. 3.69003695e-03
      3.69003695e-03 0. 0. 1.84501857e-02 0. 3.69003695e-03
      7.38007389e-03 0. 0. 0. 0. 0. 0. 0. 0. 7.38007389e-03 0. 0. 0. 0.
      0. 0. 0. 0. 0. 0. 0. 0. 0. 3.69003695e-03 0. 3.69003695e-03 0. 0.
      0. 3.69003695e-03 0. 0. 0. 0. 0. 0. 0. 0. 0. 0. 0. 7.38007389e-03
      0. 0. 0. 0. 0. 0. 7.38007389e-03 3.69003695e-03 0. 0. 0. 0. 0.
      3.69003695e-03 3.69003695e-03 0. 0. 0. 0. 0. 3.69003695e-03 0. 0.
      0. 0. 0. 0. 0. 0. 3.69003695e-03 0. 0. 0. 0. 0. 3.69003695e-03
      1.47601478e-02 0. 0. 0. 3.69003695e-03 0. 0. 0. 0. 0. 0.
      3.69003695e-03 0. 0. 0. 0. 0. 3.69003695e-03 0. 0. 0. 0.
      3.69003695e-03 0. 0. 0. 0. 0. 0. 0. 3.69003695e-03 0. 0. 0. 0. 0.
      0. 0. 0. 0. 0. 3.69003695e-03 0. 0. 0. 0. 0. 0. 0. 0. 0. 0. 0. 0.
      0. 0. 0. 0. 0. 0. 0. 0. 0. 0. 0. 0. 3.69003695e-03 0. 0. 0. 0. 0.
      0. 0. 0. 0. 0. 0. 0. 3.69003695e-03 0. 0. 0. 0. 3.69003695e-03 0.
      0. 0. 0. 0. 0. 0. 0. 0. 0. 0. 0. 0. 0. 0. 0. 0. 0. 3.69003695e-03
      0. 0. 0. 0. 0. 0. 0. 0. 0. 0. 0. 0. 3.69003695e-03 0. 0. 0. 0. 0.
      3.69003695e-03 0. 3.69003695e-03 0. 0. 0. 3.69003695e-03 0. 0. 0.
      0. 0. 0. 0. 0. 0. 0. 0. 0. 0. 7.38007389e-03 0. 0. 0.
      7.38007389e-03 0. 7.38007389e-03 0. 0. 0. 0. 0. 3.69003695e-03 0.
      0. 0. 3.69003695e-03 0. 3.69003695e-03 0. 0. 0. 3.69003695e-03 0.
      0. 0. 3.69003695e-03 0. 0. 0. 0. 0. 0. 0. 0. 0. 0. 3.69003695e-03
      0. 3.69003695e-03 0. 0. 0. 0. 0. 3.69003695e-03 0. 1.47601478e-02
      7.38007389e-03 0. 0. 0. 0. 0. 3.69003695e-03 0. 0. 0.
      1.10701108e-02 0. 0. 0. 0. 0. 0. 0. 3.69003695e-03 0. 0. 0. 0. 0.
      0. 0. 7.38007389e-03 0. 3.69003695e-03 0. 0. 0. 0. 1.10701108e-02
      0. 7.38007389e-03 3.69003695e-03 0. 3.69003695e-03 7.38007389e-03
      0. 0.</_>
    <_>
      0. 0. 0. 0. 0. 0. 0. 4.80769249e-03 0. 0. 2.40384620e-02 0. 0. 0.
      0. 0. 4.80769249e-03 0. 0. 0. 0. 0. 0. 0. 0. 0. 4.80769249e-03 0.
      4.80769249e-03 0. 0. 0. 0. 0. 0. 0. 0. 0. 4.80769249e-03 0. 0. 0.
      0. 0. 0. 0. 0. 0. 0. 0. 0. 0. 0. 0. 0. 0. 0. 0. 0. 0. 0. 0. 0. 0.
      0. 0. 0. 0. 4.80769249e-03 0. 0. 0. 0. 0. 0. 0. 0. 0. 0. 0. 0. 0.
      0. 0. 0. 0. 0. 0. 0. 9.61538497e-03 0. 0. 0. 0. 4.80769249e-03 0.
      0. 0. 0. 0. 0. 4.80769249e-03 0. 0. 1.44230779e-02 0. 0. 0. 0. 0.
      4.80769249e-03 0. 0. 4.80769249e-03 0. 4.80769249e-03 0. 0. 0.
      4.80769249e-03 0. 0. 4.80769249e-03 0. 4.80769249e-03 0. 0. 0. 0.
      0. 0. 0. 0. 0. 0. 0. 0. 0. 0. 0. 0. 0. 0. 0. 0. 0. 0. 0.
      1.92307699e-02 4.80769249e-03 4.80769249e-03 0. 0. 0. 0.
      1.92307699e-02 0. 0. 0. 2.40384620e-02 0. 0. 0. 0. 0. 0. 0. 0. 0.
      0. 0. 4.80769249e-03 0. 0. 4.80769249e-03 0. 0. 0. 4.80769249e-03
      0. 0. 0. 0. 0. 4.80769249e-03 0. 0. 0. 0. 0. 0. 0. 0. 0. 0.
      1.92307699e-02 0. 0. 0. 0. 0. 0. 0. 1.92307699e-02 0. 0. 0. 0. 0.
      0. 0. 0. 4.80769249e-03 0. 0. 0. 0. 0. 0. 0. 0. 0. 0. 0. 0. 0. 0.
      0. 0. 0. 4.80769249e-03 0. 0. 0. 0. 4.80769249e-03 0.
      4.80769249e-03 0. 0. 0. 0. 0. 0. 0. 0. 3.36538479e-02 0.
      9.61538497e-03 0. 0. 0. 0. 0. 0. 0. 0. 0. 0. 0. 4.80769249e-03
      9.61538497e-03 4.80769249e-03 4.80769249e-03 0. 0. 0. 0.
      4.80769249e-03 0. 0. 0. 0. 0. 0. 0. 0. 0. 4.80769249e-03 0. 0. 0.
      0. 0. 0. 0. 0. 0. 0. 0. 0. 0. 0. 0. 0. 4.80769249e-03 0. 0. 0. 0.
      0. 0. 0. 0. 0. 0. 0. 0. 0. 0. 0. 0. 0. 0. 0. 4.80769249e-03 0. 0.
      0. 0. 0. 0. 0. 1.44230779e-02 0. 0. 4.80769249e-03 0. 0. 0. 0. 0.
      2.40384620e-02 0. 0. 0. 0. 0. 0. 0. 0. 0. 0. 0. 0. 0. 0. 0. 0. 0.
      0. 4.80769249e-03 0. 0. 0. 0. 0. 0. 0. 0. 0. 0. 0. 0. 0. 0. 0. 0.
      0. 0. 4.80769249e-03 0. 0. 0. 0. 0. 0. 0. 4.80769249e-03 0. 0. 0.
      0. 0. 0. 1.92307699e-02 0. 0. 0. 4.80769249e-03 0. 0.
      4.80769249e-03 0. 0. 0. 0. 0. 0. 0. 0. 0. 0. 0. 0. 0. 0. 0. 0. 0.
      0. 0. 0. 0. 0. 0. 0. 0. 0. 0. 4.80769249e-03 0. 0. 0. 0. 0. 0.
      4.80769249e-03 0. 0. 4.80769249e-03 0. 0. 0. 9.61538497e-03 0. 0.
      0. 0. 4.80769249e-03 0. 0. 0. 0. 0. 0. 0. 0. 0. 0. 0. 0. 0. 0. 0.
      0. 0. 0. 0. 0. 0. 0. 0. 0. 0. 0. 4.80769249e-03 0. 0. 0. 0. 0. 0.
      0. 0. 0. 0. 0. 0. 0. 0. 0. 0. 9.61538497e-03 0. 0. 0. 0.
      1.92307699e-02 4.80769249e-03 0. 0. 4.80769249e-03 0. 0. 0. 0. 0.
      4.80769249e-03 0. 0. 0. 0. 0. 0. 0. 0. 0. 0. 4.80769249e-03 0. 0.
      0. 0. 0. 4.80769249e-03 4.80769249e-03 0. 4.80769249e-03 0.
      4.80769249e-03 0. 4.80769249e-03 0. 0. 0. 0. 0. 4.80769249e-03 0.
      0. 0. 0. 0. 0. 1.44230779e-02 0. 1.44230779e-02 0. 0. 0. 0. 0. 0.
      0. 0. 0. 0. 0. 0. 0. 0. 0. 0. 0. 0. 0. 0. 0. 4.80769249e-03 0. 0.
      0. 0. 0. 0. 0. 4.80769249e-03 0. 0. 4.80769249e-03 9.61538497e-03
      0. 0. 0. 0. 0. 0. 0. 0. 4.80769249e-03 0. 0. 0. 4.80769249e-03
      9.61538497e-03 4.80769249e-03 0. 0. 0. 0. 0. 0. 4.80769249e-03 0.
      0. 0. 0. 0. 0. 0. 0. 0. 0. 0. 0. 4.80769249e-03 0. 0.
      4.80769249e-03 0. 0. 0. 0. 0. 4.80769249e-03 0. 0. 0. 0. 0.
      4.80769249e-03 1.44230779e-02 4.80769249e-03 0. 0. 0. 0. 0. 0.
      4.80769249e-03 0. 0. 4.80769249e-03 4.80769249e-03 0. 0. 0. 0. 0.
      0. 0. 0. 0. 0. 4.80769249e-03 0. 0. 0. 4.80769249e-03 0. 0. 0. 0.
      0. 0. 0. 0. 9.61538497e-03 0. 0. 0. 0. 0. 0. 0. 0. 0. 0. 0. 0. 0.
      1.44230779e-02 0. 0. 0. 0. 0. 0. 0. 0. 0. 0. 0. 0. 0. 0.
      4.80769249e-03 0. 0. 0. 0. 0. 0. 0. 0. 0. 0. 4.80769249e-03 0. 0.
      9.61538497e-03 0. 0. 0. 0. 0. 0. 0. 0. 0. 0. 0. 0. 0.
      4.80769249e-03 0. 0. 0. 0. 0. 0. 0. 0. 0. 1.92307699e-02
      4.80769249e-03 0. 0. 0. 0. 0. 0. 0. 0. 0. 4.80769249e-03 0.
      4.80769249e-03 0. 0. 0. 0. 4.80769249e-03 1.44230779e-02 0. 0.
      4.80769249e-03 0. 4.80769249e-03 0. 0. 0. 0. 0. 0. 0. 0. 0. 0. 0.
      0. 0. 0. 4.80769249e-03 0. 0. 0. 4.80769249e-03 0. 0. 0.
      4.80769249e-03 0. 0. 0. 0. 0. 0. 0. 0. 0. 0. 0. 0. 0.
      4.80769249e-03 0. 0. 0. 0. 0. 0. 0. 4.80769249e-03 0. 0.
      4.80769249e-03 0. 0. 0. 1.92307699e-02 0. 0. 0. 0. 0. 0. 0. 0. 0.
      0. 0. 0. 0. 0. 0. 9.61538497e-03 0. 0. 0. 0. 0. 0. 0. 0. 0. 0. 0.
      0. 0. 0. 0. 0. 0. 0. 0. 0. 0. 0. 0. 0. 0. 0. 0. 9.61538497e-03 0.
      0. 0. 0. 0. 0. 0. 0. 0. 0. 0. 0. 0. 1.92307699e-02 0. 0.
      4.80769249e-03 1.44230779e-02 0. 0. 0. 0. 0. 0. 0. 0. 0. 0. 0. 0.
      0. 0. 0. 0. 0. 0. 0. 0. 0. 0. 0. 0. 0. 0. 0. 4.80769249e-03 0. 0.
      0. 0. 0. 0. 0. 0. 0. 4.80769249e-03 0. 0. 0. 9.61538497e-03
      4.80769249e-03 0. 0. 0. 0. 0. 0. 0. 0. 0. 0. 0. 0. 0. 0. 0. 0.
      4.80769249e-03 4.80769249e-03 0. 0. 0. 0. 0. 0. 0. 0.
      9.61538497e-03 0. 0. 0. 0. 0. 0. 9.61538497e-03 0. 0. 0. 0. 0.
      1.44230779e-02 0. 0. 0. 0. 0. 4.80769249e-03 0. 0. 0. 0.
      4.80769249e-03 0. 4.80769249e-03 0. 0. 0. 0. 0. 0. 0. 0. 0. 0. 0.
      0. 0. 0. 0. 0. 0. 0. 0. 0. 0. 0. 0. 0. 0. 0. 0. 0. 0. 0. 0. 0. 0.
      0. 0. 0. 0. 9.61538497e-03 0. 0.</_>
    <_>
      0. 0. 0. 0. 0. 1.97628466e-03 0. 1.97628466e-03 0. 1.97628466e-03
      2.96442695e-02 0. 0. 1.97628466e-03 0. 0. 5.92885399e-03 0. 0. 0.
      0. 0. 1.97628466e-03 3.95256933e-03 0. 1.97628466e-03
      3.95256933e-03 0. 1.97628466e-03 0. 0. 0. 0. 1.97628466e-03 0. 0.
      0. 3.95256933e-03 0. 0. 0. 0. 0. 0. 0. 0. 3.95256933e-03 0. 0. 0.
      0. 1.97628466e-03 0. 7.90513866e-03 0. 0. 3.95256933e-03 0.
      1.97628466e-03 0. 0. 3.95256933e-03 0. 0. 0. 0. 0. 0.
      1.58102773e-02 1.97628466e-03 1.97628466e-03 0. 0. 0. 0. 0. 0. 0.
      1.97628466e-03 3.95256933e-03 1.97628466e-03 0. 0. 0. 0. 0. 0. 0.
      0. 9.88142379e-03 1.97628466e-03 1.97628466e-03 0. 1.97628466e-03
      0. 0. 0. 1.97628466e-03 0. 0. 0. 1.97628466e-03 0. 3.95256933e-03
      3.95256933e-03 0. 0. 0. 1.97628466e-03 0. 1.97628466e-03 0. 0. 0.
      0. 1.97628466e-03 0. 0. 0. 5.92885399e-03 0. 1.97628466e-03 0. 0.
      0. 1.97628466e-03 1.97628466e-03 0. 0. 0. 0. 1.97628466e-03 0. 0.
      0. 1.97628466e-03 0. 0. 1.97628466e-03 0. 0. 0. 1.97628466e-03 0.
      0. 1.97628466e-03 1.97628466e-03 0. 1.97628466e-03 5.92885399e-03
      0. 0. 0. 1.97628466e-03 0. 9.88142379e-03 0. 0. 0. 7.90513866e-03
      0. 3.95256933e-03 0. 0. 0. 1.97628466e-03 0. 0. 0. 1.97628466e-03
      0. 3.95256933e-03 3.95256933e-03 0. 0. 0. 0. 0. 0. 0. 0.
      1.97628466e-03 0. 0. 1.97628466e-03 1.97628466e-03 0.
      1.97628466e-03 0. 0. 0. 0. 0. 1.97628466e-03 0. 1.18577080e-02
      1.97628466e-03 1.97628466e-03 0. 0. 0. 1.97628466e-03 0.
      1.18577080e-02 1.97628466e-03 0. 0. 0. 0. 0. 5.92885399e-03 0. 0.
      0. 0. 1.97628466e-03 9.88142379e-03 0. 0. 1.97628466e-03 0.
      3.95256933e-03 0. 0. 1.97628466e-03 0. 0. 0. 0. 0. 0.
      1.97628466e-03 0. 0. 0. 0. 0. 0. 0. 0. 3.95256933e-03 0.
      3.95256933e-03 0. 0. 0. 1.38339922e-02 1.97628466e-03
      5.92885399e-03 0. 0. 0. 0. 0. 0. 0. 0. 0. 0. 1.97628466e-03
      1.97628466e-03 5.92885399e-03 0. 0. 1.97628466e-03 0. 0. 0. 0. 0.
      0. 1.97628466e-03 0. 0. 0. 1.97628466e-03 5.92885399e-03 0.
      1.97628466e-03 0. 0. 0. 3.95256933e-03 0. 0. 0. 1.97628466e-03 0.
      0. 0. 0. 0. 0. 0. 1.97628466e-03 5.92885399e-03 0. 0. 0. 0. 0.
      1.97628466e-03 1.97628466e-03 3.95256933e-03 3.95256933e-03 0. 0.
      0. 0. 0. 0. 0. 0. 0. 0. 0. 0. 0. 0. 0. 0. 3.95256933e-03 0.
      5.92885399e-03 0. 0. 3.95256933e-03 0. 0. 1.97628466e-03
      1.97628466e-03 0. 2.17391308e-02 0. 0. 0. 0. 0. 0. 3.95256933e-03
      0. 0. 0. 0. 0. 0. 0. 0. 0. 0. 0. 5.92885399e-03 0. 0. 0.
      1.97628466e-03 0. 0. 0. 0. 0. 3.95256933e-03 0. 0. 0. 0. 0. 0. 0.
      0. 3.95256933e-03 0. 0. 1.97628466e-03 0. 0. 1.97628466e-03 0. 0.
      0. 0. 0. 0. 0. 0. 7.90513866e-03 0. 0. 1.97628466e-03
      1.97628466e-03 0. 1.97628466e-03 0. 0. 0. 3.95256933e-03 0. 0. 0.
      0. 1.97628466e-03 0. 0. 0. 0. 1.97628466e-03 1.97628466e-03 0. 0.
      0. 0. 1.97628466e-03 0. 0. 1.97628466e-03 0. 0. 0. 1.97628466e-03
      0. 0. 0. 0. 0. 0. 0. 0. 0. 0. 0. 0. 7.90513866e-03 0. 0.
      3.95256933e-03 0. 3.95256933e-03 0. 0. 2.17391308e-02 0. 0. 0. 0.
      0. 1.97628466e-03 0. 0. 0. 0. 0. 1.97628466e-03 1.97628466e-03
      1.97628466e-03 0. 0. 0. 0. 0. 0. 1.97628466e-03 1.97628466e-03 0.
      0. 0. 0. 1.97628466e-03 0. 0. 0. 0. 0. 0. 0. 0. 0. 0. 0. 0.
      1.97628466e-03 1.97628466e-03 0. 0. 9.88142379e-03 0. 0. 0.
      1.97628466e-03 7.90513866e-03 0. 0. 0. 0. 0. 0. 0. 0. 0.
      1.97628466e-03 0. 0. 0. 1.97628466e-03 0. 0. 3.95256933e-03 0. 0.
      5.92885399e-03 0. 0. 1.97628466e-03 0. 0. 0. 5.92885399e-03 0. 0.
      3.95256933e-03 0. 1.97628466e-03 0. 0. 0. 1.97628466e-03 0. 0. 0.
      5.92885399e-03 1.97628466e-03 0. 1.97628466e-03 0. 0.
      1.97628466e-03 1.18577080e-02 0. 0. 0. 0. 0. 0. 0. 0.
      1.97628466e-03 0. 1.97628466e-03 0. 0. 0. 0. 0. 3.95256933e-03 0.
      0. 0. 0. 0. 0. 0. 0. 0. 0. 0. 0. 0. 0. 1.97628466e-03 0. 0.
      3.95256933e-03 3.95256933e-03 0. 0. 1.97628466e-03 0. 0. 0. 0. 0.
      0. 0. 0. 0. 1.97628466e-03 1.97628466e-03 0. 0. 0. 0. 0. 0. 0. 0.
      5.92885399e-03 0. 1.97628466e-03 0. 0. 0. 0. 1.97628466e-03 0. 0.
      1.97628466e-03 0. 3.95256933e-03 0. 0. 1.58102773e-02
      1.97628466e-03 0. 1.97628466e-03 0. 5.92885399e-03 3.95256933e-03
      1.97628466e-03 1.97628466e-03 0. 0. 0. 1.97628466e-03
      3.95256933e-03 1.97628466e-03 0. 0. 0. 0. 0. 0. 1.97628466e-03 0.
      0. 5.92885399e-03 1.97628466e-03 0. 0. 0. 1.97628466e-03 0. 0. 0.
      0. 0. 0. 0. 0. 0. 0. 0. 0. 0. 0. 0. 0. 0. 0. 0. 3.95256933e-03 0.
      1.97628466e-03 3.95256933e-03 1.97628466e-03 0. 0. 0. 0. 0. 0. 0.
      0. 0. 0. 0. 0. 0. 0. 1.97628466e-03 0. 5.92885399e-03 0. 0.
      1.97628466e-03 1.97628466e-03 0. 0. 0. 5.92885399e-03
      1.97628466e-03 1.97628466e-03 3.95256933e-03 0. 0. 0.
      5.92885399e-03 0. 0. 0. 0. 0. 0. 5.92885399e-03 0. 0.
      3.95256933e-03 3.95256933e-03 1.97628466e-03 0. 3.95256933e-03 0.
      0. 0. 0. 0. 0. 3.95256933e-03 0. 1.97628466e-03 0. 3.95256933e-03
      0. 0. 0. 1.97628466e-03 0. 3.95256933e-03 0. 0. 0. 0.
      3.95256933e-03 1.97628466e-03 0. 3.95256933e-03 0. 0. 0. 0.
      1.97628466e-03 0. 5.92885399e-03 0. 1.97628466e-03 0.
      9.88142379e-03 0. 1.97628466e-03 0. 0. 3.95256933e-03 0. 0. 0. 0.
      5.92885399e-03 1.97628466e-03 0. 0. 1.97628466e-03 0. 0. 0. 0. 0.
      5.92885399e-03 0. 0. 0. 0. 1.97628466e-03 1.97628466e-03 0. 0. 0.
      0. 0. 0. 1.97628466e-03 0. 0. 0. 0. 0. 0. 0. 0. 1.97628466e-03 0.
      0. 5.92885399e-03 1.97628466e-03 0. 0. 3.95256933e-03 0. 0. 0.
      1.97628466e-03 0. 0. 0. 9.88142379e-03 0. 0. 0. 0. 0.
      1.97628466e-03 0. 0. 1.97628466e-03 3.95256933e-03 0. 0. 0. 0.
      3.95256933e-03 1.97628466e-03 0. 0. 1.97628466e-03 0. 0.
      1.97628466e-03 0. 0. 0. 0. 1.97628466e-03 0. 0. 0. 1.97628466e-03
      0. 0. 0. 0. 0. 1.97628466e-03 0. 0. 3.95256933e-03 0. 0.
      7.90513866e-03 0. 0. 1.97628466e-03 0. 0. 0. 0. 0. 0. 0. 0.
      1.97628466e-03 0. 0. 1.97628466e-03 0. 0. 1.18577080e-02
      5.92885399e-03 0. 0. 0. 0. 1.97628466e-03 0. 0. 0. 0. 0. 0. 0. 0.
      0. 0. 0. 0. 0. 0. 1.97628466e-03 0. 1.97628466e-03 0. 0. 0. 0. 0.
      3.95256933e-03 0. 0. 0. 0. 0. 0. 0. 3.95256933e-03 0.
      5.92885399e-03 1.97628466e-03 0. 0. 5.92885399e-03 0. 0.
      1.97628466e-03 0. 0. 1.97628466e-03 1.97628466e-03 0. 0. 0.
      7.90513866e-03 0. 0. 1.97628466e-03 0. 0. 1.97628466e-03 0.
      3.95256933e-03 0. 0. 0. 3.95256933e-03 0. 0. 0. 0. 0. 0.
      3.95256933e-03 0. 3.95256933e-03 0. 0. 0. 0. 0. 0. 0.
      1.97628466e-03 1.97628466e-03 3.95256933e-03 5.92885399e-03 0. 0.
      0. 0. 0. 0. 0. 1.97628466e-03 1.97628466e-03 0. 0. 0. 0.
      1.97628466e-03 1.97628466e-03 0. 0. 0. 0. 0. 0. 0. 0. 0. 0. 0. 0.
      0. 3.95256933e-03 0. 0. 0. 0. 0. 0. 1.97628466e-03 3.95256933e-03
      0. 0. 0. 0. 0. 0. 0. 0. 0. 0. 3.95256933e-03 1.97628466e-03 0.
      1.97628466e-03</_>
    <_>
      0. 1.46198831e-03 1.46198831e-03 0. 0. 0. 0. 0. 0. 1.46198831e-03
      0. 0. 0. 4.38596494e-03 0. 0. 0. 1.46198831e-03 0. 0.
      2.92397663e-03 0. 1.46198831e-03 0. 0. 2.92397663e-03 0. 0.
      1.46198831e-03 0. 0. 0. 0. 0. 2.92397663e-03 0. 0. 0. 0.
      4.38596494e-03 0. 2.92397663e-03 1.46198831e-03 0. 0. 0. 0. 0. 0.
      0. 0. 0. 0. 0. 0. 0. 0. 1.46198831e-03 0. 2.92397663e-03 0.
      1.46198831e-03 2.92397663e-03 1.46198831e-03 4.38596494e-03 0. 0.
      0. 1.46198831e-03 1.46198831e-03 5.84795326e-03 0. 0. 0.
      1.46198831e-03 0. 0. 1.46198831e-03 2.92397663e-03 0. 0. 0. 0. 0.
      0. 0. 0. 0. 1.46198831e-03 0. 0. 0. 0. 0. 0. 0. 5.84795326e-03 0.
      2.92397663e-03 0. 0. 0. 0. 0. 0. 0. 0. 0. 0. 2.92397663e-03 0. 0.
      0. 0. 1.46198831e-03 0. 4.38596494e-03 1.46198831e-03 0. 0. 0.
      1.46198831e-03 2.92397663e-03 4.38596494e-03 0. 2.92397663e-03 0.
      5.84795326e-03 0. 0. 0. 0. 0. 0. 0. 0. 0. 0. 0. 8.77192989e-03 0.
      0. 0. 0. 0. 0. 2.92397663e-03 0. 0. 0. 0. 0. 4.38596494e-03
      1.46198831e-03 0. 1.46198831e-03 0. 1.46198831e-03 0. 0. 0. 0. 0.
      2.92397663e-03 0. 0. 1.46198831e-03 0. 0. 0. 0. 0. 0. 0. 0. 0.
      4.38596494e-03 0. 0. 0. 0. 0. 0. 2.92397663e-03 0. 0. 0.
      1.46198831e-03 1.46198831e-03 0. 0. 0. 0. 0. 0. 0. 0. 0.
      2.92397663e-03 0. 1.46198831e-03 0. 0. 0. 0. 0. 0. 0.
      4.38596494e-03 0. 0. 0. 0. 0. 7.30994157e-03 2.92397663e-03 0. 0.
      1.46198831e-03 1.46198831e-03 0. 1.46198831e-03 0. 0. 0. 0.
      1.46198831e-03 0. 1.46198831e-03 4.38596494e-03 4.38596494e-03 0.
      0. 0. 4.38596494e-03 1.46198831e-03 1.46198831e-03 0. 0. 0. 0.
      1.46198831e-03 1.46198831e-03 1.46198831e-03 0. 0. 0. 0. 0. 0. 0.
      0. 0. 0. 0. 0. 0. 0. 0. 1.46198831e-03 0. 0. 0. 0. 0. 0. 0.
      1.46198831e-03 2.92397663e-03 0. 1.46198831e-03 1.46198831e-03 0.
      1.46198831e-03 0. 0. 0. 0. 0. 0. 0. 1.46198831e-03 0.
      1.46198831e-03 0. 1.46198831e-03 0. 0. 1.46198831e-03 0. 0. 0. 0.
      1.46198831e-03 2.92397663e-03 1.46198831e-03 0. 1.46198831e-03 0.
      0. 2.92397663e-03 0. 0. 0. 0. 0. 1.46198831e-03 0. 0. 0.
      5.84795326e-03 0. 0. 1.46198831e-03 0. 0. 4.38596494e-03
      1.46198831e-03 0. 1.46198831e-03 0. 0. 0. 1.46198831e-03
      1.46198831e-03 0. 0. 0. 0. 1.46198831e-03 0. 0. 0. 0. 0.
      2.92397663e-03 0. 2.92397663e-03 0. 0. 0. 1.46198831e-03 0.
      1.46198831e-03 0. 0. 0. 0. 0. 4.38596494e-03 0. 1.46198831e-03
      4.38596494e-03 0. 0. 0. 2.92397663e-03 0. 0. 0. 0. 0.
      1.46198831e-03 0. 4.38596494e-03 4.38596494e-03 0. 1.46198831e-03
      0. 1.46198831e-03 1.46198831e-03 0. 0. 0. 0. 0. 0. 0. 0. 0.
      1.46198831e-03 0. 1.02339182e-02 1.46198831e-03 0. 0.
      1.46198831e-03 0. 0. 5.84795326e-03 0. 0. 0. 0. 0. 2.92397663e-03
      0. 4.38596494e-03 5.84795326e-03 0. 0. 1.46198831e-03 0. 0. 0. 0.
      0. 4.38596494e-03 2.92397663e-03 0. 0. 0. 0. 0. 1.46198831e-03 0.
      1.46198831e-03 5.84795326e-03 0. 1.46198831e-03 0. 0.
      1.46198831e-03 0. 0. 1.46198831e-03 0. 0. 1.46198831e-03 0. 0. 0.
      0. 1.46198831e-03 0. 0. 0. 2.92397663e-03 0. 0. 0. 0. 0. 0. 0.
      1.46198831e-03 0. 0. 0. 0. 0. 0. 2.92397663e-03 0. 1.46198831e-03
      1.46198831e-03 0. 1.46198831e-03 0. 1.46198831e-03 0. 0. 0. 0. 0.
      0. 0. 0. 0. 0. 0. 0. 0. 1.46198831e-03 4.38596494e-03 0. 0.
      1.46198831e-03 0. 0. 4.38596494e-03 1.46198831e-03 0. 0. 0. 0.
      1.46198831e-03 1.46198831e-03 0. 0. 0. 0. 0. 0. 0. 1.46198831e-03
      0. 0. 0. 1.46198831e-03 0. 1.46198831e-03 0. 0. 1.46198831e-03
      1.46198831e-03 0. 0. 0. 0. 1.46198831e-03 0. 1.46198831e-03
      1.46198831e-03 0. 4.38596494e-03 0. 0. 1.46198831e-03
      1.46198831e-03 0. 2.92397663e-03 1.46198831e-03 0. 0. 0. 0. 0. 0.
      0. 0. 1.02339182e-02 1.46198831e-03 2.92397663e-03 0. 0. 0. 0. 0.
      0. 0. 0. 0. 1.46198831e-03 1.46198831e-03 0. 0. 4.38596494e-03
      2.92397663e-03 2.92397663e-03 0. 0. 0. 1.46198831e-03 0.
      4.38596494e-03 1.46198831e-03 1.46198831e-03 2.92397663e-03 0.
      1.46198831e-03 0. 0. 0. 5.84795326e-03 0. 1.46198831e-03 0.
      1.46198831e-03 1.46198831e-03 5.84795326e-03 0. 1.46198831e-03 0.
      2.92397663e-03 0. 1.46198831e-03 0. 0. 0. 0. 0. 0. 1.46198831e-03
      1.46198831e-03 0. 0. 4.38596494e-03 5.84795326e-03 0. 0.
      1.46198831e-03 0. 0. 0. 0. 0. 0. 1.46198831e-03 0. 5.84795326e-03
      0. 2.92397663e-03 2.92397663e-03 2.92397663e-03 0. 0.
      1.46198831e-03 0. 1.46198831e-03 1.46198831e-03 0. 2.92397663e-03
      2.92397663e-03 1.46198831e-03 0. 0. 0. 1.46198831e-03
      2.92397663e-03 0. 0. 0. 0. 1.46198831e-03 1.46198831e-03
      1.46198831e-03 4.38596494e-03 0. 0. 4.38596494e-03 0. 0. 0.
      1.46198831e-03 4.38596494e-03 4.38596494e-03 0. 5.84795326e-03
      2.92397663e-03 0. 1.46198831e-03 0. 2.92397663e-03 4.38596494e-03
      0. 1.46198831e-03 0. 2.92397663e-03 4.38596494e-03 2.92397663e-03
      0. 0. 0. 7.30994157e-03 0. 0. 1.46198831e-03 0. 0. 0. 0. 0.
      4.38596494e-03 0. 1.46198831e-03 0. 1.46198831e-03 1.46198831e-03
      1.46198831e-03 0. 0. 1.46198831e-03 1.46198831e-03 0. 0. 0. 0.
      2.92397663e-03 1.46198831e-03 1.46198831e-03 1.46198831e-03 0.
      1.46198831e-03 1.46198831e-03 1.46198831e-03 0. 0. 1.46198831e-03
      0. 0. 0. 1.46198831e-03 0. 0. 0. 4.38596494e-03 1.46198831e-03
      1.46198831e-03 0. 1.46198831e-03 4.38596494e-03 1.46198831e-03
      1.46198831e-03 0. 0. 0. 0. 0. 7.30994157e-03 0. 0. 0. 0. 0.
      1.46198831e-03 0. 2.92397663e-03 4.38596494e-03 0. 0. 0. 0.
      5.84795326e-03 2.92397663e-03 1.46198831e-03 2.92397663e-03 0. 0.
      0. 0. 0. 0. 2.92397663e-03 2.92397663e-03 0. 0. 0. 0.
      8.77192989e-03 1.46198831e-03 4.38596494e-03 0. 0. 1.46198831e-03
      2.92397663e-03 0. 2.92397663e-03 0. 0. 0. 0. 7.30994157e-03
      1.46198831e-03 1.46198831e-03 5.84795326e-03 2.92397663e-03
      1.46198831e-03 7.30994157e-03 0. 0. 0. 0. 1.46198831e-03 0.
      1.46198831e-03 0. 4.38596494e-03 0. 0. 0. 1.46198831e-03 0. 0.
      1.46198831e-03 2.92397663e-03 5.84795326e-03 0. 1.46198831e-03
      2.92397663e-03 1.46198831e-03 1.46198831e-03 0. 0. 2.92397663e-03
      0. 0. 0. 0. 1.46198831e-03 0. 2.92397663e-03 4.38596494e-03
      1.46198831e-03 0. 0. 1.46198831e-03 1.46198831e-03 4.38596494e-03
      0. 0. 0. 1.46198831e-03 0. 0. 1.46198831e-03 4.38596494e-03
      1.46198831e-03 0. 0. 0. 2.92397663e-03 1.46198831e-03 0. 0.
      1.46198831e-03 1.46198831e-03 1.46198831e-03 1.46198831e-03
      2.92397663e-03 5.84795326e-03 7.30994157e-03 0. 0. 0. 0. 0.
      2.92397663e-03 1.46198831e-03 4.38596494e-03 0. 1.46198831e-03
      1.46198831e-03 0. 4.38596494e-03 0. 0. 1.46198831e-03 0. 0. 0.
      4.38596494e-03 4.38596494e-03 2.92397663e-03 0. 0. 1.46198831e-03
      1.46198831e-03 0. 0. 4.38596494e-03 0. 0. 2.92397663e-03
      1.46198831e-03 1.46198831e-03 0. 4.38596494e-03 1.46198831e-03 0.
      1.46198831e-03 1.46198831e-03 0. 0. 4.38596494e-03 0.
      8.77192989e-03 2.92397663e-03 0. 0. 4.38596494e-03 1.46198831e-03
      0. 0. 0. 0. 0. 0. 7.30994157e-03 0. 0. 0. 0. 0. 1.46198831e-03 0.
      0. 2.92397663e-03 0. 0. 0. 0. 1.46198831e-03 0. 1.46198831e-03
      1.46198831e-03 1.46198831e-03 1.46198831e-03 0. 0. 0. 0. 0. 0. 0.
      4.38596494e-03 1.46198831e-03 1.46198831e-03 0. 2.92397663e-03
      2.92397663e-03 1.46198831e-03 0. 0. 0. 0. 0. 0. 2.92397663e-03 0.
      0. 0. 0. 1.46198831e-03 0. 1.46198831e-03 4.38596494e-03
      1.46198831e-03 4.38596494e-03 0. 1.46198831e-03 2.92397663e-03
      5.84795326e-03 0. 1.46198831e-03 1.46198831e-03 2.92397663e-03 0.
      0. 0. 7.30994157e-03 5.84795326e-03 0. 0. 0. 2.92397663e-03 0.
      1.46198831e-03 0. 0. 0. 0. 0. 0. 0. 0. 0. 0. 4.38596494e-03
      2.92397663e-03 2.92397663e-03 0. 2.92397663e-03 1.46198831e-03
      4.38596494e-03 2.92397663e-03 4.38596494e-03 0. 0. 1.46198831e-03
      1.46198831e-03 2.92397663e-03 0. 0. 5.84795326e-03 1.46198831e-03
      1.46198831e-03 1.46198831e-03 1.46198831e-03 4.38596494e-03 0.
      1.46198831e-03 7.30994157e-03 0. 4.38596494e-03 5.84795326e-03
      1.46198831e-03 0. 5.84795326e-03 0. 1.46198831e-03 0.
      2.92397663e-03 1.46198831e-03 2.92397663e-03 2.92397663e-03 0. 0.
      1.46198831e-03 0.</_>
    <_>
      0. 4.41501103e-03 0. 2.20750552e-03 0. 0. 0. 0. 0. 0. 0. 0.
      6.62251655e-03 2.20750552e-03 0. 0. 0. 0. 2.20750552e-03 0.
      2.20750552e-03 0. 0. 0. 0. 2.20750552e-03 0. 0. 0. 0. 0. 0. 0. 0.
      0. 4.41501103e-03 0. 0. 0. 2.20750552e-03 0. 0. 0. 0. 0. 0.
      2.20750552e-03 0. 0. 0. 0. 0. 2.20750552e-03 0. 0. 0. 0. 0. 0. 0.
      0. 0. 2.20750552e-03 0. 0. 0. 0. 2.20750552e-03 2.20750552e-03
      2.20750552e-03 2.20750552e-03 2.20750552e-03 0. 0. 0. 0. 0. 0.
      8.83002207e-03 0. 0. 0. 0. 0. 2.20750552e-03 0. 2.20750552e-03
      4.41501103e-03 0. 0. 0. 0. 2.20750552e-03 0. 2.20750552e-03 0. 0.
      2.20750552e-03 0. 0. 0. 0. 0. 0. 0. 0. 0. 0. 0. 0. 0. 0.
      4.41501103e-03 0. 0. 0. 4.41501103e-03 0. 2.20750552e-03 0. 0. 0.
      6.62251655e-03 2.20750552e-03 0. 0. 2.20750552e-03 4.41501103e-03
      0. 0. 2.20750552e-03 0. 4.41501103e-03 0. 0. 0. 0. 2.20750552e-03
      0. 0. 0. 0. 0. 0. 0. 2.20750552e-03 0. 2.20750552e-03 0. 0. 0. 0.
      4.41501103e-03 0. 0. 2.20750552e-03 0. 0. 0. 0. 0. 4.41501103e-03
      6.62251655e-03 0. 0. 2.20750552e-03 0. 0. 0. 0. 0. 0. 0. 0. 0.
      2.20750552e-03 2.20750552e-03 0. 0. 0. 2.20750552e-03
      2.20750552e-03 4.41501103e-03 4.41501103e-03 2.20750552e-03 0. 0.
      0. 0. 0. 0. 0. 0. 0. 0. 0. 0. 2.20750552e-03 0. 0. 2.20750552e-03
      0. 2.20750552e-03 0. 0. 0. 2.20750552e-03 0. 4.41501103e-03
      2.20750552e-03 0. 0. 0. 2.20750552e-03 4.41501103e-03 0. 0. 0. 0.
      0. 0. 0. 0. 0. 0. 0. 0. 2.20750552e-03 2.20750552e-03
      2.20750552e-03 4.41501103e-03 0. 0. 0. 0. 0. 0. 0. 0. 0. 0. 0. 0.
      0. 0. 0. 2.20750552e-03 0. 0. 0. 0. 2.20750552e-03 0. 0. 0.
      2.20750552e-03 2.20750552e-03 0. 0. 0. 0. 0. 0. 0. 2.20750552e-03
      4.41501103e-03 2.20750552e-03 0. 4.41501103e-03 0. 0.
      6.62251655e-03 0. 0. 0. 0. 2.20750552e-03 0. 0. 0. 0.
      2.20750552e-03 0. 2.20750552e-03 0. 0. 0. 2.20750552e-03 0.
      2.20750552e-03 0. 0. 0. 0. 0. 2.20750552e-03 4.41501103e-03 0.
      2.20750552e-03 0. 2.20750552e-03 2.20750552e-03 0. 0. 0. 0.
      2.20750552e-03 0. 2.20750552e-03 0. 4.41501103e-03 0. 0.
      4.41501103e-03 0. 0. 0. 0. 0. 0. 4.41501103e-03 0. 0.
      4.41501103e-03 4.41501103e-03 0. 0. 0. 0. 0. 4.41501103e-03
      4.41501103e-03 0. 0. 0. 0. 0. 2.20750552e-03 0. 0. 2.20750552e-03
      0. 0. 2.20750552e-03 0. 0. 2.20750552e-03 0. 0. 0. 2.20750552e-03
      0. 0. 0. 0. 0. 0. 0. 0. 0. 2.20750552e-03 0. 2.20750552e-03 0. 0.
      0. 0. 2.20750552e-03 2.20750552e-03 2.20750552e-03 0. 0. 0.
      2.20750552e-03 0. 0. 0. 0. 0. 0. 2.20750552e-03 2.20750552e-03
      4.41501103e-03 2.20750552e-03 4.41501103e-03 0. 0. 2.20750552e-03
      0. 2.20750552e-03 2.20750552e-03 0. 0. 0. 0. 0. 2.20750552e-03
      4.41501103e-03 4.41501103e-03 0. 2.20750552e-03 2.20750552e-03 0.
      0. 0. 2.20750552e-03 0. 0. 0. 4.41501103e-03 0. 0. 0. 0. 0. 0. 0.
      4.41501103e-03 0. 0. 0. 2.20750552e-03 0. 0. 0. 4.41501103e-03 0.
      0. 2.20750552e-03 0. 0. 0. 2.20750552e-03 0. 0. 0. 2.20750552e-03
      2.20750552e-03 0. 0. 0. 0. 0. 4.41501103e-03 2.20750552e-03 0.
      2.20750552e-03 2.20750552e-03 4.41501103e-03 0. 0. 0. 0.
      8.83002207e-03 0. 0. 0. 4.41501103e-03 0. 0. 0. 0. 0. 0. 0. 0. 0.
      0. 0. 0. 0. 0. 0. 2.20750552e-03 0. 0. 0. 0. 0. 0. 0.
      2.20750552e-03 0. 0. 0. 0. 2.20750552e-03 2.20750552e-03
      4.41501103e-03 0. 0. 2.20750552e-03 0. 0. 0. 2.20750552e-03 0. 0.
      0. 2.20750552e-03 0. 4.41501103e-03 0. 0. 0. 2.20750552e-03 0. 0.
      0. 2.20750552e-03 2.20750552e-03 0. 4.41501103e-03 2.20750552e-03
      0. 4.41501103e-03 0. 0. 0. 0. 2.20750552e-03 6.62251655e-03 0. 0.
      2.20750552e-03 0. 2.20750552e-03 0. 0. 0. 0. 0. 0. 0. 0. 0. 0. 0.
      0. 0. 0. 2.20750552e-03 0. 8.83002207e-03 6.62251655e-03
      2.20750552e-03 0. 0. 0. 4.41501103e-03 0. 2.20750552e-03 0. 0. 0.
      0. 0. 2.20750552e-03 0. 0. 2.20750552e-03 0. 0. 0. 6.62251655e-03
      2.20750552e-03 0. 0. 0. 2.20750552e-03 6.62251655e-03 0.
      6.62251655e-03 0. 6.62251655e-03 2.20750552e-03 0. 2.20750552e-03
      0. 0. 0. 2.20750552e-03 2.20750552e-03 4.41501103e-03 0.
      2.20750552e-03 0. 0. 4.41501103e-03 2.20750552e-03 4.41501103e-03
      0. 0. 0. 0. 0. 0. 0. 6.62251655e-03 0. 4.41501103e-03 0.
      6.62251655e-03 0. 0. 0. 0. 0. 0. 0. 0. 4.41501103e-03 0. 0.
      2.20750552e-03 0. 0. 0. 2.20750552e-03 0. 2.20750552e-03 0. 0. 0.
      0. 0. 0. 4.41501103e-03 0. 0. 0. 4.41501103e-03 0. 0. 0.
      2.20750552e-03 0. 0. 2.20750552e-03 0. 0. 0. 4.41501103e-03
      2.20750552e-03 2.20750552e-03 0. 0. 0. 0. 2.20750552e-03 0. 0. 0.
      0. 0. 0. 0. 0. 2.20750552e-03 0. 0. 0. 0. 0. 0. 2.20750552e-03 0.
      0. 4.41501103e-03 6.62251655e-03 2.20750552e-03 2.20750552e-03 0.
      4.41501103e-03 0. 2.20750552e-03 4.41501103e-03 0. 0. 0. 0. 0. 0.
      0. 0. 2.20750552e-03 0. 0. 0. 2.20750552e-03 0. 0. 0.
      2.20750552e-03 0. 0. 2.20750552e-03 0. 0. 0. 0. 2.20750552e-03 0.
      4.41501103e-03 0. 0. 2.20750552e-03 0. 0. 0. 0. 0. 0. 0. 0.
      2.20750552e-03 0. 2.20750552e-03 2.20750552e-03 0. 0. 0. 0.
      2.20750552e-03 0. 2.20750552e-03 4.41501103e-03 0. 0.
      2.20750552e-03 0. 0. 0. 0. 2.20750552e-03 0. 0. 0. 0.
      6.62251655e-03 4.41501103e-03 0. 0. 2.20750552e-03 4.41501103e-03
      2.20750552e-03 0. 2.20750552e-03 0. 0. 0. 0. 0. 2.20750552e-03 0.
      4.41501103e-03 0. 2.20750552e-03 4.41501103e-03 2.20750552e-03 0.
      0. 2.20750552e-03 0. 0. 0. 4.41501103e-03 6.62251655e-03 0. 0.
      2.20750552e-03 0. 0. 0. 0. 0. 0. 0. 6.62251655e-03 0. 0.
      4.41501103e-03 0. 6.62251655e-03 4.41501103e-03 2.20750552e-03 0.
      0. 0. 0. 0. 4.41501103e-03 2.20750552e-03 0. 0. 4.41501103e-03 0.
      2.20750552e-03 0. 2.20750552e-03 2.20750552e-03 2.20750552e-03
      2.20750552e-03 0. 0. 0. 0. 0. 0. 0. 0. 0. 0. 6.62251655e-03
      6.62251655e-03 2.20750552e-03 4.41501103e-03 0. 4.41501103e-03 0.
      2.20750552e-03 0. 2.20750552e-03 0. 0. 0. 0. 2.20750552e-03 0.
      4.41501103e-03 0. 2.20750552e-03 2.20750552e-03 0. 0. 0. 0.
      2.20750552e-03 4.41501103e-03 0. 0. 0. 0. 4.41501103e-03
      4.41501103e-03 2.20750552e-03 2.20750552e-03 2.20750552e-03
      2.20750552e-03 0. 2.20750552e-03 2.20750552e-03 0. 4.41501103e-03
      2.20750552e-03 4.41501103e-03 6.62251655e-03 4.41501103e-03 0.
      2.20750552e-03 0. 0. 0. 0. 0. 0. 2.20750552e-03 2.20750552e-03 0.
      0. 2.20750552e-03 0. 4.41501103e-03 2.20750552e-03 2.20750552e-03
      0. 0. 0. 2.20750552e-03 0. 2.20750552e-03 0. 6.62251655e-03 0. 0.
      2.20750552e-03 2.20750552e-03 0. 4.41501103e-03 0. 0.
      2.20750552e-03 2.20750552e-03 0. 0. 0. 0. 0. 0. 2.20750552e-03 0.
      0. 0. 0. 4.41501103e-03 0. 0. 2.20750552e-03 2.20750552e-03
      4.41501103e-03 0. 2.20750552e-03 0. 0. 0. 2.20750552e-03 0. 0.
      2.20750552e-03 2.20750552e-03 0. 2.20750552e-03 0. 4.41501103e-03
      0. 0. 2.20750552e-03 2.20750552e-03 0. 0. 0. 2.20750552e-03 0. 0.
      0. 2.20750552e-03 0. 2.20750552e-03 0. 4.41501103e-03
      4.41501103e-03 0. 2.20750552e-03 2.20750552e-03 0. 2.20750552e-03
      0. 0. 0. 0. 0. 0. 0. 0. 0. 2.20750552e-03 2.20750552e-03 0.
      2.20750552e-03 2.20750552e-03 0. 0. 4.41501103e-03 0. 0.
      2.20750552e-03 8.83002207e-03 0. 0. 0. 0. 2.20750552e-03 0.
      2.20750552e-03 0. 2.20750552e-03 2.20750552e-03 0. 0.
      2.20750552e-03 2.20750552e-03 2.20750552e-03 2.20750552e-03 0.
      2.20750552e-03 0. 6.62251655e-03 2.20750552e-03 0. 0. 0. 0.
      2.20750552e-03 2.20750552e-03 0. 0. 0. 0. 0. 0.</_>
    <_>
      0. 0. 0. 0. 0. 0. 0. 0. 0. 0. 0. 3.49650346e-03 0. 0.
      3.49650346e-03 3.49650346e-03 1.39860138e-02 0. 0. 0.
      3.49650346e-03 0. 0. 0. 0. 0. 0. 0. 0. 6.99300691e-03
      3.49650346e-03 1.39860138e-02 0. 0. 0. 0. 0. 0. 0. 0.
      1.39860138e-02 0. 0. 0. 0. 0. 0. 3.49650346e-03 0. 0. 0. 0.
      3.49650346e-03 0. 0. 0. 0. 0. 0. 0. 0. 0. 0. 0. 0. 0. 0. 0. 0. 0.
      0. 3.49650346e-03 0. 0. 0. 3.49650346e-03 0. 0. 0. 0. 0. 0. 0. 0.
      0. 0. 6.99300691e-03 0. 0. 0. 0. 1.39860138e-02 0. 0.
      3.49650346e-03 0. 0. 0. 0. 0. 6.99300691e-03 0. 0. 0. 0. 0. 0. 0.
      0. 0. 0. 0. 0. 0. 6.99300691e-03 0. 0. 0. 0. 3.49650346e-03 0. 0.
      6.99300691e-03 0. 3.49650346e-03 0. 0. 0. 0. 0. 3.49650346e-03
      6.99300691e-03 3.49650346e-03 0. 0. 0. 0. 0. 0. 0. 0. 0. 0. 0.
      3.49650346e-03 0. 0. 0. 3.49650346e-03 0. 0. 0. 0. 1.39860138e-02
      0. 6.99300691e-03 0. 0. 0. 0. 0. 0. 0. 6.99300691e-03 0. 0.
      3.49650346e-03 0. 0. 0. 0. 0. 0. 3.49650346e-03 0. 0. 0. 0. 0. 0.
      3.49650346e-03 0. 0. 0. 3.49650346e-03 3.49650346e-03 0. 0. 0. 0.
      0. 0. 0. 0. 0. 3.49650346e-03 3.49650346e-03 0. 0. 0. 0. 0. 0. 0.
      0. 0. 3.49650346e-03 0. 0. 0. 0. 0. 0. 0. 0. 0. 0. 0. 0. 0. 0. 0.
      0. 0. 0. 0. 0. 0. 0. 0. 6.99300691e-03 0. 0. 3.49650346e-03 0. 0.
      0. 0. 0. 3.49650346e-03 0. 0. 0. 0. 0. 0. 0. 3.49650346e-03 0. 0.
      0. 1.04895104e-02 0. 0. 0. 0. 0. 6.99300691e-03 0. 1.04895104e-02
      0. 0. 1.04895104e-02 0. 0. 0. 3.49650346e-03 0. 0. 3.49650346e-03
      0. 0. 0. 0. 0. 0. 0. 3.49650346e-03 0. 0. 0. 0. 0. 0. 0. 0. 0. 0.
      0. 3.49650346e-03 0. 0. 0. 0. 3.49650346e-03 0. 0. 0. 0. 0. 0.
      3.49650346e-03 0. 3.49650346e-03 2.09790207e-02 3.49650346e-03 0.
      0. 0. 0. 0. 0. 0. 3.49650346e-03 0. 0. 0. 0. 3.49650346e-03 0. 0.
      0. 0. 0. 0. 0. 0. 3.49650346e-03 3.49650346e-03 3.49650346e-03 0.
      0. 0. 0. 0. 0. 0. 0. 0. 0. 0. 0. 3.49650346e-03 0. 0. 0. 0. 0. 0.
      0. 0. 0. 3.49650346e-03 3.49650346e-03 0. 3.49650346e-03 0. 0. 0.
      6.99300691e-03 0. 0. 0. 6.99300691e-03 0. 0. 3.49650346e-03 0. 0.
      3.49650346e-03 0. 1.04895104e-02 0. 0. 0. 0. 0. 0. 0.
      3.49650346e-03 0. 0. 0. 0. 0. 0. 0. 0. 3.49650346e-03
      3.49650346e-03 3.49650346e-03 0. 3.49650346e-03 0. 0. 0. 0. 0. 0.
      0. 0. 0. 0. 0. 0. 0. 0. 0. 0. 0. 0. 0. 0. 0. 0. 0. 0. 0. 0.
      1.04895104e-02 0. 0. 0. 0. 0. 0. 0. 0. 3.49650346e-03 0. 0.
      6.99300691e-03 0. 0. 0. 0. 0. 0. 3.49650346e-03 0. 0. 0. 0. 0.
      3.49650346e-03 1.39860138e-02 0. 0. 0. 0. 0. 0. 0. 3.49650346e-03
      0. 0. 0. 0. 0. 0. 0. 0. 3.49650346e-03 3.49650346e-03 0. 0.
      3.49650346e-03 0. 0. 3.49650346e-03 3.49650346e-03 0. 0. 0. 0. 0.
      0. 3.49650346e-03 0. 6.99300691e-03 3.49650346e-03 3.49650346e-03
      0. 0. 0. 1.04895104e-02 0. 3.49650346e-03 0. 0. 0. 0.
      3.49650346e-03 0. 3.49650346e-03 0. 0. 0. 0. 0. 0. 0. 0. 0.
      1.04895104e-02 0. 0. 0. 0. 0. 0. 0. 3.49650346e-03 3.49650346e-03
      0. 1.39860138e-02 0. 0. 3.49650346e-03 0. 1.04895104e-02
      6.99300691e-03 0. 0. 0. 0. 0. 0. 0. 0. 3.49650346e-03 0. 0. 0.
      3.49650346e-03 1.39860138e-02 3.49650346e-03 0. 0. 0. 0. 0. 0. 0.
      0. 3.49650346e-03 0. 0. 0. 0. 0. 0. 0. 0. 0. 0. 0. 0. 0. 0.
      3.49650346e-03 0. 3.49650346e-03 0. 0. 0. 0. 0. 0. 0.
      3.49650346e-03 3.49650346e-03 0. 0. 0. 0. 0. 0. 0. 3.49650346e-03
      3.49650346e-03 6.99300691e-03 0. 3.49650346e-03 0. 0. 0. 0.
      3.49650346e-03 0. 0. 0. 0. 0. 3.49650346e-03 0. 3.49650346e-03
      1.04895104e-02 0. 0. 0. 6.99300691e-03 0. 0. 3.49650346e-03 0.
      3.49650346e-03 0. 0. 6.99300691e-03 0. 0. 0. 0. 6.99300691e-03 0.
      0. 3.49650346e-03 0. 0. 0. 0. 2.09790207e-02 0. 0. 0.
      3.49650346e-03 0. 0. 0. 0. 0. 0. 0. 0. 0. 0. 0. 0. 0. 0. 0. 0. 0.
      0. 3.49650346e-03 3.49650346e-03 0. 0. 6.99300691e-03 0. 0. 0. 0.
      0. 0. 0. 0. 0. 0. 0. 3.49650346e-03 6.99300691e-03 0. 0. 0.
      3.49650346e-03 0. 0. 0. 0. 0. 0. 0. 0. 0. 0. 0. 3.49650346e-03 0.
      0. 3.49650346e-03 0. 0. 0. 0. 0. 3.49650346e-03 3.49650346e-03 0.
      3.49650346e-03 0. 0. 3.49650346e-03 0. 0. 0. 0. 3.49650346e-03
      3.49650346e-03 0. 3.49650346e-03 0. 0. 0. 0. 6.99300691e-03 0. 0.
      0. 0. 3.49650346e-03 0. 0. 0. 0. 3.49650346e-03 0. 0. 0. 0. 0. 0.
      0. 0. 3.49650346e-03 0. 0. 0. 0. 3.49650346e-03 0. 0. 0. 0. 0. 0.
      0. 0. 6.99300691e-03 0. 0. 0. 0. 1.04895104e-02 3.49650346e-03 0.
      0. 0. 0. 0. 0. 0. 0. 3.49650346e-03 0. 0. 0. 3.49650346e-03 0.
      3.49650346e-03 6.99300691e-03 0. 0. 0. 0. 0. 0. 0. 0. 0. 0.
      1.04895104e-02 0. 0. 0. 0. 0. 3.49650346e-03 3.49650346e-03 0. 0.
      6.99300691e-03 0. 0. 0. 0. 3.49650346e-03 0. 0. 3.49650346e-03 0.
      0. 0. 0. 0. 0. 0. 0. 0. 3.49650346e-03 0. 0. 0. 0. 3.49650346e-03
      0. 0. 0. 0. 3.49650346e-03 0. 0. 3.49650346e-03 0. 0. 0.
      6.99300691e-03 0. 0. 3.49650346e-03 0. 2.09790207e-02 0. 0. 0. 0.
      0. 0. 3.49650346e-03 0. 3.49650346e-03 0. 0. 0. 0. 0.
      3.49650346e-03 0. 0. 0. 0. 0. 0. 0. 0. 0. 0. 0. 0. 0. 0. 0. 0. 0.
      0. 0. 0. 0. 0. 0. 0. 1.04895104e-02 0. 0. 0. 3.49650346e-03 0. 0.
      0. 3.49650346e-03 0. 0. 0. 0. 0. 0. 0. 0. 0. 0. 0. 3.49650346e-03
      3.49650346e-03 0. 0. 6.99300691e-03 0. 3.49650346e-03 0. 0. 0. 0.
      1.04895104e-02 0. 0. 0. 0. 0. 0. 0. 0. 0. 0. 0. 3.49650346e-03 0.
      0. 0. 0. 0. 0. 0. 0. 0. 0. 3.49650346e-03 0. 0. 0. 0. 0. 0. 0.
      6.99300691e-03 0. 0. 0. 3.49650346e-03 0. 0. 0. 0. 0. 0.
      3.49650346e-03 0. 3.49650346e-03 0. 3.49650346e-03 0. 0. 0. 0. 0.
      0. 0. 6.99300691e-03 0. 3.49650346e-03 0. 0. 0. 0. 0. 0. 0.
      3.49650346e-03 0. 0. 3.49650346e-03 0. 0. 0. 0. 0. 3.49650346e-03
      0. 3.49650346e-03 3.49650346e-03 0. 0. 0. 0. 0. 0. 0. 0. 0. 0. 0.
      6.99300691e-03 0. 0. 0. 0. 0. 0. 0. 0. 0. 0. 0. 0. 0. 0. 0. 0. 0.
      0.</_>
    <_>
      0. 0. 7.18132872e-03 0. 0. 0. 0. 0. 0. 0. 1.07719935e-02 0. 0. 0.
      0. 3.59066436e-03 5.38599677e-03 0. 0. 1.79533218e-03 0. 0. 0.
      1.79533218e-03 8.97666067e-03 0. 3.59066436e-03 1.79533218e-03 0.
      1.79533213e-02 0. 0. 0. 0. 0. 0. 0. 0. 0. 0. 1.43626574e-02 0. 0.
      0. 1.79533218e-03 0. 0. 1.79533218e-03 0. 0. 0. 1.79533218e-03 0.
      3.59066436e-03 1.79533218e-03 0. 0. 1.79533218e-03 0. 0. 0.
      1.79533218e-03 1.79533218e-03 0. 1.79533218e-03 1.79533218e-03 0.
      0. 1.07719935e-02 0. 0. 3.59066436e-03 0. 0. 0. 0. 1.79533218e-03
      0. 0. 7.18132872e-03 0. 0. 0. 0. 0. 0. 0. 0. 0. 1.79533218e-03
      3.59066436e-03 7.18132872e-03 0. 0. 1.79533218e-03 0. 0.
      3.59066436e-03 0. 0. 1.79533218e-03 3.59066436e-03 0.
      3.59066436e-03 8.97666067e-03 0. 1.79533218e-03 0. 0.
      1.79533218e-03 0. 0. 1.79533218e-03 0. 0. 0. 0. 0. 0.
      4.12926413e-02 0. 0. 3.59066436e-03 0. 3.59066436e-03 0.
      1.79533218e-03 0. 0. 0. 0. 0. 1.79533218e-03 1.79533218e-03
      3.59066436e-03 1.79533218e-03 0. 1.79533218e-03 1.79533218e-03 0.
      0. 0. 1.79533218e-03 0. 1.79533218e-03 0. 1.79533218e-03 0.
      5.38599677e-03 7.18132872e-03 0. 0. 1.79533218e-03 3.59066436e-03
      0. 0. 1.79533218e-03 0. 0. 1.79533218e-03 0. 0. 0. 5.38599677e-03
      1.79533218e-03 3.59066436e-03 0. 0. 0. 8.97666067e-03 0. 0.
      1.79533218e-03 1.79533218e-03 0. 1.79533218e-03 0. 1.79533218e-03
      0. 3.59066436e-03 0. 0. 0. 0. 0. 1.79533218e-03 0. 0. 0. 0. 0. 0.
      0. 1.79533218e-03 0. 3.23159806e-02 0. 1.79533218e-03 0. 0. 0. 0.
      0. 0. 0. 0. 1.79533218e-03 0. 0. 0. 3.59066436e-03 0. 0.
      1.79533218e-03 0. 0. 0. 0. 1.79533218e-03 0. 0. 1.79533218e-03 0.
      0. 0. 0. 0. 1.79533218e-03 0. 0. 7.18132872e-03 0. 0. 0. 0. 0. 0.
      0. 0. 0. 1.79533218e-03 0. 1.79533218e-03 0. 0. 1.79533218e-03
      7.18132872e-03 0. 5.38599677e-03 3.59066436e-03 0. 0.
      1.79533218e-03 1.79533218e-03 0. 0. 0. 8.97666067e-03 0.
      8.97666067e-03 1.79533218e-03 0. 3.59066436e-03 0. 0. 0.
      5.38599677e-03 0. 0. 0. 1.79533218e-03 0. 0. 0. 0. 0. 0.
      3.59066436e-03 0. 0. 1.79533218e-03 0. 0. 0. 0. 0. 0.
      1.79533218e-03 5.38599677e-03 0. 0. 0. 0. 1.79533218e-03 0. 0. 0.
      0. 1.79533218e-03 0. 1.79533218e-03 3.59066436e-03 0.
      1.79533218e-03 5.38599677e-03 1.79533218e-03 0. 0. 0. 0. 0. 0. 0.
      0. 0. 1.79533218e-03 0. 0. 0. 0. 0. 0. 0. 1.79533218e-03
      1.79533218e-03 0. 0. 0. 1.79533218e-03 0. 0. 0. 4.12926413e-02 0.
      0. 1.79533218e-03 0. 0. 0. 0. 0. 1.79533218e-03 1.61579903e-02 0.
      0. 1.79533218e-03 0. 0. 0. 0. 0. 3.59066436e-03 0. 0. 0. 0. 0. 0.
      0. 1.79533218e-03 0. 0. 0. 5.38599677e-03 0. 0. 0. 0. 0.
      1.79533218e-03 0. 0. 1.79533218e-03 0. 0. 0. 0. 0. 0. 0. 0. 0. 0.
      0. 0. 0. 3.59066436e-03 0. 0. 5.38599677e-03 0. 0. 0. 0. 0. 0. 0.
      1.79533218e-03 0. 0. 0. 0. 0. 0. 0. 1.79533218e-03 0. 0.
      3.59066436e-03 0. 1.79533218e-03 1.79533218e-03 0. 0. 0.
      7.18132872e-03 0. 1.79533218e-03 0. 0. 0. 0. 3.59066436e-03 0. 0.
      1.79533218e-03 0. 0. 3.59066436e-03 0. 3.59066436e-03
      1.79533218e-03 1.79533218e-03 0. 5.38599677e-03 1.79533218e-03 0.
      0. 0. 1.79533218e-03 0. 0. 0. 0. 0. 1.79533218e-03 1.79533218e-03
      0. 0. 0. 0. 1.79533218e-03 0. 1.79533218e-03 0. 0. 0. 0. 0. 0. 0.
      0. 1.79533218e-03 1.07719935e-02 0. 3.59066436e-03 1.79533218e-03
      1.79533218e-03 0. 1.79533218e-03 3.59066436e-03 1.79533218e-03 0.
      0. 0. 0. 0. 0. 0. 1.79533218e-03 0. 1.79533218e-03 0.
      1.79533218e-03 0. 0. 0. 1.79533218e-03 0. 1.79533218e-03 0. 0.
      1.79533218e-03 3.59066436e-03 0. 0. 3.59066436e-03 0. 0.
      1.79533218e-03 0. 0. 3.59066436e-03 0. 0. 0. 1.79533218e-03
      3.59066436e-03 0. 0. 0. 0. 0. 1.79533218e-03 0. 3.59066436e-03 0.
      0. 0. 1.79533218e-03 1.79533218e-03 0. 0. 0. 0. 0. 0. 0.
      1.79533218e-03 1.79533218e-03 0. 1.79533218e-03 0. 0. 0. 0.
      1.79533218e-03 1.79533218e-03 0. 0. 0. 0. 0. 3.59066436e-03 0. 0.
      0. 7.18132872e-03 0. 0. 0. 0. 0. 0. 1.79533218e-03 0. 0.
      1.79533218e-03 0. 0. 3.59066436e-03 0. 0. 0. 0. 0. 5.38599677e-03
      0. 0. 0. 0. 1.07719935e-02 0. 0. 0. 0. 0. 0. 0. 0. 5.38599677e-03
      0. 0. 1.79533218e-03 0. 0. 0. 0. 0. 1.79533218e-03 0. 0.
      1.79533218e-03 1.79533218e-03 0. 1.79533218e-03 1.79533218e-03 0.
      0. 0. 0. 3.59066436e-03 0. 0. 1.79533218e-03 0. 5.38599677e-03 0.
      1.79533218e-03 8.97666067e-03 0. 0. 1.79533218e-03 0.
      1.25673255e-02 0. 0. 0. 0. 0. 0. 1.79533218e-03 1.07719935e-02 0.
      1.79533218e-03 0. 1.79533218e-03 0. 0. 0. 0. 1.79533218e-03
      1.79533218e-03 3.59066436e-03 1.79533218e-03 0. 0. 0. 0. 0. 0. 0.
      0. 1.79533218e-03 0. 1.79533218e-03 0. 0. 5.38599677e-03 0. 0. 0.
      0. 1.79533218e-03 0. 0. 0. 0. 1.79533218e-03 0. 0. 1.79533218e-03
      0. 0. 0. 0. 0. 0. 0. 0. 0. 0. 0. 0. 0. 0. 0. 0. 0. 1.79533218e-03
      0. 0. 0. 0. 3.59066436e-03 0. 0. 5.38599677e-03 1.79533218e-03
      1.79533218e-03 3.59066436e-03 0. 0. 0. 1.79533218e-03 0. 0. 0. 0.
      0. 0. 0. 0. 0. 1.79533218e-03 5.38599677e-03 5.38599677e-03 0. 0.
      0. 0. 0. 0. 0. 0. 1.79533218e-03 0. 0. 0. 1.79533218e-03
      1.79533218e-03 3.59066436e-03 3.59066436e-03 0. 0. 3.59066436e-03
      0. 0. 1.79533218e-03 0. 0. 0. 0. 0. 3.59066436e-03 0. 0.
      1.79533218e-03 0. 3.59066436e-03 1.79533218e-03 0. 0.
      1.79533218e-03 0. 1.79533218e-03 3.59066436e-03 0. 1.79533218e-03
      0. 0. 0. 1.79533218e-03 0. 1.79533218e-03 0. 0. 1.79533218e-03 0.
      0. 0. 0. 1.79533218e-03 1.79533218e-03 3.59066436e-03 0. 0.
      1.79533218e-03 3.59066436e-03 0. 0. 0. 1.79533218e-03 0. 0. 0.
      1.79533218e-03 0. 0. 1.79533218e-03 0. 0. 0. 0. 0. 0. 0.
      1.79533218e-03 0. 0. 0. 0. 0. 0. 0. 0. 1.79533218e-03
      3.59066436e-03 0. 3.59066436e-03 1.79533218e-03 8.97666067e-03 0.
      0. 0. 0. 0. 0. 0. 0. 0. 0. 0. 0. 0. 1.79533218e-03 0.
      1.79533218e-03 0. 0. 0. 0. 0. 0. 0. 1.79533218e-03 0.
      1.79533218e-03 1.79533218e-03 0. 0. 0. 0. 0. 0. 0. 0. 0. 0. 0. 0.
      0. 0. 1.79533218e-03 0. 0. 0. 0. 1.79533218e-03 1.79533218e-03
      1.79533218e-03 0. 0. 0. 1.79533218e-03 0. 1.79533218e-03 0. 0.
      3.59066436e-03 0. 1.79533218e-03 5.38599677e-03 3.59066436e-03 0.
      0. 0. 0. 1.79533218e-03 0. 0. 0. 0. 0. 0. 0. 0. 0. 0.
      1.79533218e-03 0. 0. 0. 0. 0. 0. 0. 0. 0. 0. 0. 3.59066436e-03 0.
      0. 0. 0. 0. 0. 1.79533218e-03 0. 1.25673255e-02 0. 3.59066436e-03
      0. 0. 3.59066436e-03 0. 1.79533218e-03 3.59066436e-03 0. 0.
      1.79533218e-03 0. 0. 0. 0. 0. 0. 1.79533218e-03 0. 0. 0. 0.
      3.59066436e-03 0. 1.79533218e-03 0. 0. 0. 1.79533218e-03 0. 0. 0.
      0. 1.79533218e-03 1.79533218e-03 0. 1.79533218e-03 0. 0. 0. 0. 0.
      0. 5.38599677e-03 0. 0. 1.79533218e-03 0. 0. 0. 0. 1.79533218e-03
      0. 0. 0. 1.79533218e-03 1.79533218e-03 1.79533218e-03 0. 0. 0.
      1.79533218e-03 0. 0. 0. 0. 0. 0. 0. 0. 0. 0. 0. 0. 0. 0. 0. 0.
      1.79533218e-03 0. 0. 0. 0. 0. 1.79533218e-03 1.79533218e-03 0. 0.
      0. 5.38599677e-03 0. 3.59066436e-03 0. 0. 0. 0. 0. 0. 0.</_>
    <_>
      0. 0. 8.60215072e-03 0. 0. 0. 2.15053768e-03 0. 0. 0.
      4.30107536e-03 2.15053768e-03 0. 0. 0. 2.15053768e-03
      6.45161327e-03 0. 0. 0. 0. 0. 0. 2.15053768e-03 8.60215072e-03 0.
      4.30107536e-03 2.15053768e-03 0. 1.93548389e-02 0. 0. 0. 0. 0. 0.
      0. 0. 2.15053768e-03 0. 1.50537640e-02 0. 0. 0. 2.15053768e-03 0.
      0. 0. 0. 0. 2.15053768e-03 2.15053768e-03 0. 2.15053768e-03
      2.15053768e-03 2.15053768e-03 0. 2.15053768e-03 0. 0. 0.
      2.15053768e-03 2.15053768e-03 0. 2.15053768e-03 2.15053768e-03 0.
      0. 6.45161327e-03 0. 0. 2.15053768e-03 0. 0. 0. 0. 2.15053768e-03
      0. 0. 2.15053768e-03 0. 0. 0. 2.15053768e-03 0. 0. 0. 0. 0.
      2.15053768e-03 4.30107536e-03 4.30107536e-03 0. 0. 0. 0. 0.
      2.15053768e-03 0. 0. 2.15053768e-03 0. 0. 4.30107536e-03
      4.30107536e-03 0. 2.15053768e-03 0. 0. 0. 0. 0. 2.15053768e-03 0.
      0. 0. 0. 0. 0. 3.87096778e-02 0. 0. 4.30107536e-03 0.
      2.15053768e-03 0. 2.15053768e-03 0. 0. 0. 0. 0. 2.15053768e-03 0.
      2.15053768e-03 0. 0. 0. 2.15053768e-03 0. 0. 0. 2.15053768e-03 0.
      0. 0. 2.15053768e-03 0. 8.60215072e-03 1.07526882e-02 0. 0.
      2.15053768e-03 2.15053768e-03 0. 0. 0. 0. 0. 0. 0. 0. 0.
      4.30107536e-03 0. 4.30107536e-03 0. 0. 0. 1.07526882e-02 0. 0. 0.
      0. 2.15053768e-03 2.15053768e-03 0. 0. 0. 6.45161327e-03 0. 0. 0.
      0. 0. 2.15053768e-03 2.15053768e-03 0. 0. 0. 0. 0. 0. 0. 0.
      3.44086029e-02 0. 2.15053768e-03 0. 0. 0. 0. 0. 0. 0. 0.
      2.15053768e-03 0. 0. 0. 2.15053768e-03 0. 0. 0. 0. 0. 0. 0.
      2.15053768e-03 0. 0. 0. 0. 0. 0. 0. 0. 2.15053768e-03 0. 0.
      8.60215072e-03 0. 0. 0. 0. 0. 0. 0. 0. 0. 0. 0. 2.15053768e-03
      2.15053768e-03 0. 2.15053768e-03 6.45161327e-03 0. 6.45161327e-03
      4.30107536e-03 0. 0. 2.15053768e-03 2.15053768e-03 0. 0. 0.
      1.29032265e-02 0. 8.60215072e-03 0. 0. 4.30107536e-03 0. 0. 0.
      2.15053768e-03 0. 0. 0. 2.15053768e-03 0. 0. 0. 0. 0. 0.
      4.30107536e-03 0. 0. 2.15053768e-03 0. 0. 0. 0. 0. 0.
      2.15053768e-03 4.30107536e-03 2.15053768e-03 0. 0. 0. 0. 0. 0. 0.
      0. 0. 0. 0. 0. 0. 2.15053768e-03 6.45161327e-03 0. 0. 0. 0. 0. 0.
      0. 0. 0. 0. 0. 0. 0. 0. 0. 0. 0. 0. 2.15053768e-03 2.15053768e-03
      0. 0. 0. 0. 0. 0. 0. 4.94623668e-02 0. 0. 2.15053768e-03 0. 0. 0.
      0. 0. 2.15053768e-03 2.15053763e-02 0. 0. 2.15053768e-03 0. 0. 0.
      0. 0. 4.30107536e-03 0. 0. 0. 0. 0. 0. 0. 2.15053768e-03 0. 0. 0.
      6.45161327e-03 0. 0. 0. 0. 0. 4.30107536e-03 0. 0. 2.15053768e-03
      0. 0. 0. 0. 0. 0. 0. 0. 0. 0. 0. 0. 2.15053768e-03 4.30107536e-03
      0. 0. 2.15053768e-03 0. 0. 0. 0. 0. 0. 0. 2.15053768e-03 0. 0. 0.
      0. 0. 0. 0. 0. 0. 0. 4.30107536e-03 0. 2.15053768e-03
      2.15053768e-03 0. 0. 0. 8.60215072e-03 0. 0. 0. 0. 0. 0.
      4.30107536e-03 0. 0. 0. 0. 0. 2.15053768e-03 0. 4.30107536e-03
      2.15053768e-03 2.15053768e-03 0. 6.45161327e-03 2.15053768e-03
      2.15053768e-03 0. 0. 0. 0. 0. 0. 0. 0. 0. 0. 0. 0. 0. 0.
      2.15053768e-03 0. 4.30107536e-03 0. 0. 0. 0. 0. 0. 0. 0. 0.
      1.93548389e-02 0. 2.15053768e-03 0. 0. 0. 4.30107536e-03
      4.30107536e-03 2.15053768e-03 0. 0. 0. 0. 0. 0. 0. 0. 0.
      2.15053768e-03 0. 0. 0. 0. 0. 2.15053768e-03 0. 2.15053768e-03 0.
      0. 4.30107536e-03 2.15053768e-03 0. 0. 2.15053768e-03 0. 0. 0. 0.
      0. 2.15053768e-03 0. 0. 0. 0. 4.30107536e-03 0. 0. 0. 0. 0.
      2.15053768e-03 0. 4.30107536e-03 0. 0. 0. 0. 2.15053768e-03
      2.15053768e-03 0. 0. 0. 0. 0. 0. 2.15053768e-03 2.15053768e-03
      2.15053768e-03 2.15053768e-03 0. 0. 0. 0. 4.30107536e-03
      2.15053768e-03 0. 0. 0. 0. 0. 4.30107536e-03 0. 0. 0.
      8.60215072e-03 0. 0. 0. 0. 0. 0. 0. 0. 0. 0. 0. 0. 4.30107536e-03
      0. 0. 0. 0. 0. 6.45161327e-03 0. 0. 0. 0. 1.29032265e-02 0. 0. 0.
      0. 0. 0. 0. 0. 4.30107536e-03 0. 0. 2.15053768e-03 0. 0. 0. 0.
      2.15053768e-03 2.15053768e-03 0. 0. 0. 4.30107536e-03 0.
      2.15053768e-03 2.15053768e-03 0. 0. 0. 0. 4.30107536e-03 0. 0.
      2.15053768e-03 0. 2.15053768e-03 0. 0. 8.60215072e-03
      2.15053768e-03 0. 4.30107536e-03 0. 6.45161327e-03 0. 0. 0. 0. 0.
      0. 0. 1.29032265e-02 0. 2.15053768e-03 0. 2.15053768e-03 0. 0. 0.
      0. 2.15053768e-03 2.15053768e-03 2.15053768e-03 2.15053768e-03 0.
      0. 0. 0. 0. 0. 0. 0. 2.15053768e-03 0. 0. 0. 0. 1.07526882e-02 0.
      0. 0. 0. 2.15053768e-03 0. 0. 0. 0. 2.15053768e-03 0. 0. 0. 0. 0.
      0. 0. 0. 0. 0. 0. 0. 0. 0. 0. 0. 0. 0. 0. 0. 0. 0. 0. 0. 0.
      2.15053768e-03 0. 0. 4.30107536e-03 0. 2.15053768e-03
      4.30107536e-03 0. 0. 0. 2.15053768e-03 0. 0. 0. 0. 0. 0. 0. 0. 0.
      2.15053768e-03 4.30107536e-03 2.15053768e-03 0. 0. 2.15053768e-03
      0. 0. 0. 0. 0. 2.15053768e-03 0. 0. 0. 2.15053768e-03
      2.15053768e-03 4.30107536e-03 0. 0. 0. 4.30107536e-03 0. 0.
      2.15053768e-03 0. 0. 0. 0. 0. 4.30107536e-03 0. 0. 0. 0.
      2.15053768e-03 0. 0. 0. 2.15053768e-03 0. 2.15053768e-03
      4.30107536e-03 0. 2.15053768e-03 0. 0. 0. 0. 0. 2.15053768e-03 0.
      0. 2.15053768e-03 0. 2.15053768e-03 0. 0. 0. 2.15053768e-03
      4.30107536e-03 0. 0. 2.15053768e-03 4.30107536e-03 0. 0. 0. 0. 0.
      0. 0. 2.15053768e-03 0. 0. 0. 0. 0. 0. 2.15053768e-03
      4.30107536e-03 0. 0. 2.15053768e-03 0. 2.15053768e-03 0. 0. 0. 0.
      0. 0. 2.15053768e-03 4.30107536e-03 0. 4.30107536e-03
      2.15053768e-03 8.60215072e-03 0. 0. 0. 0. 0. 0. 0. 0. 0. 0. 0. 0.
      2.15053768e-03 2.15053768e-03 0. 4.30107536e-03 0. 0. 0. 0. 0. 0.
      0. 2.15053768e-03 0. 0. 2.15053768e-03 0. 0. 0. 2.15053768e-03 0.
      0. 0. 0. 0. 0. 0. 0. 0. 0. 2.15053768e-03 0. 0. 0. 0. 0.
      2.15053768e-03 0. 0. 0. 0. 4.30107536e-03 0. 2.15053768e-03
      2.15053768e-03 0. 4.30107536e-03 0. 2.15053768e-03 6.45161327e-03
      4.30107536e-03 0. 0. 0. 2.15053768e-03 2.15053768e-03 0. 0. 0. 0.
      0. 0. 0. 0. 0. 0. 2.15053768e-03 0. 0. 0. 0. 0. 0. 0.
      2.15053768e-03 0. 0. 0. 4.30107536e-03 0. 0. 0. 2.15053768e-03 0.
      0. 4.30107536e-03 0. 6.45161327e-03 0. 4.30107536e-03 0. 0.
      2.15053768e-03 0. 2.15053768e-03 2.15053768e-03 0. 0.
      2.15053768e-03 0. 0. 0. 0. 0. 0. 0. 0. 0. 0. 0. 2.15053768e-03 0.
      0. 0. 0. 0. 2.15053768e-03 0. 0. 0. 0. 0. 2.15053768e-03 0.
      2.15053768e-03 0. 0. 0. 0. 0. 0. 4.30107536e-03 0. 0. 0. 0. 0. 0.
      0. 0. 0. 0. 0. 2.15053768e-03 0. 2.15053768e-03 0. 0. 0.
      2.15053768e-03 2.15053768e-03 0. 0. 0. 0. 0. 0. 0. 2.15053768e-03
      0. 0. 0. 0. 0. 0. 0. 0. 0. 0. 0. 0. 0. 2.15053768e-03 0. 0. 0. 0.
      6.45161327e-03 0. 2.15053768e-03 0. 0. 0. 0. 0. 0. 0.</_>
    <_>
      0. 3.68324132e-03 0. 0. 0. 0. 0. 1.84162066e-03 0. 1.84162066e-03
      0. 0. 0. 9.20810364e-03 0. 3.68324132e-03 0. 0. 0. 0.
      5.52486209e-03 0. 0. 0. 0. 1.84162066e-03 0. 0. 0. 5.52486209e-03
      0. 0. 0. 1.84162066e-03 0. 0. 0. 0. 1.84162066e-03 0.
      1.84162066e-03 0. 3.68324132e-03 0. 0. 0. 0. 3.68324132e-03
      3.68324132e-03 1.84162066e-03 0. 1.84162066e-03 3.68324132e-03 0.
      0. 0. 0. 0. 0. 0. 0. 0. 1.84162066e-03 0. 3.68324132e-03 0. 0. 0.
      0. 0. 1.84162066e-03 0. 0. 0. 0. 0. 1.84162066e-03 1.84162066e-03
      0. 3.68324132e-03 0. 0. 0. 0. 0. 0. 0. 1.84162066e-03 0.
      5.52486209e-03 0. 9.20810364e-03 0. 0. 0. 0. 1.84162066e-03
      1.84162066e-03 1.84162066e-03 0. 0. 0. 0. 0. 3.68324132e-03 0.
      1.84162066e-03 0. 1.84162066e-03 1.84162066e-03 0. 0.
      3.68324132e-03 0. 1.84162066e-03 0. 1.84162066e-03 0. 0.
      1.84162066e-03 0. 1.84162066e-03 9.20810364e-03 0. 1.65745858e-02
      0. 1.84162066e-03 0. 0. 0. 3.68324132e-03 3.68324132e-03 0. 0.
      1.84162066e-03 0. 0. 0. 1.84162066e-03 1.84162066e-03 0. 0. 0. 0.
      0. 0. 1.84162066e-03 0. 0. 0. 0. 0. 0. 0. 0. 1.84162066e-03 0. 0.
      0. 0. 1.84162066e-03 0. 1.84162066e-03 0. 0. 0. 1.84162066e-03 0.
      0. 0. 1.84162066e-03 0. 1.84162066e-03 0. 0. 1.84162066e-03
      3.68324132e-03 0. 3.68324132e-03 0. 0. 7.36648263e-03 0.
      1.84162066e-03 0. 0. 0. 1.84162066e-03 0. 0. 0. 0. 0. 0.
      1.84162066e-03 0. 0. 0. 0. 0. 0. 0. 0. 0. 0. 1.84162066e-03 0. 0.
      0. 0. 3.68324132e-03 0. 1.84162066e-03 0. 0. 0. 0. 1.84162066e-03
      1.84162066e-03 0. 0. 1.84162066e-03 3.68324132e-03 0. 0. 0. 0. 0.
      3.68324132e-03 3.68324132e-03 0. 0. 0. 0. 1.84162066e-03 0. 0. 0.
      1.84162066e-03 1.84162066e-03 0. 1.84162066e-03 0. 0. 0. 0. 0. 0.
      0. 0. 0. 3.68324132e-03 3.68324132e-03 0. 1.84162066e-03 0. 0.
      3.68324132e-03 0. 0. 0. 0. 3.68324132e-03 0. 0. 0. 0. 0. 0. 0. 0.
      0. 0. 1.84162066e-03 0. 0. 0. 1.84162066e-03 0. 0. 0.
      1.84162066e-03 0. 1.84162066e-03 1.84162066e-03 0. 0.
      1.84162066e-03 0. 0. 0. 1.84162066e-03 0. 1.84162066e-03 0. 0. 0.
      1.84162066e-03 0. 1.84162066e-03 0. 0. 0. 0. 0. 0. 1.84162066e-03
      0. 1.84162066e-03 1.84162066e-03 1.84162066e-03 0. 0.
      3.68324132e-03 0. 0. 3.68324132e-03 0. 0. 0. 0. 0. 0. 0. 0. 0. 0.
      1.84162066e-03 0. 0. 0. 1.84162066e-03 0. 0. 0. 0. 0. 0.
      1.84162066e-03 0. 0. 1.84162066e-03 7.36648263e-03 0. 0.
      1.84162066e-03 0. 0. 3.68324132e-03 0. 0. 3.68324132e-03 0. 0. 0.
      0. 0. 1.84162066e-03 0. 0. 0. 0. 0. 1.84162066e-03 5.52486209e-03
      0. 0. 0. 0. 0. 0. 5.52486209e-03 0. 0. 0. 0. 0. 0. 0. 0. 0.
      1.84162066e-03 5.52486209e-03 0. 0. 0. 0. 0. 1.84162066e-03
      5.52486209e-03 0. 1.84162066e-03 0. 0. 0. 0. 0. 0. 3.68324132e-03
      0. 0. 0. 1.84162066e-03 1.84162066e-03 0. 0. 1.84162066e-03 0. 0.
      0. 1.84162066e-03 0. 0. 0. 0. 0. 1.84162066e-03 0. 0.
      1.84162066e-03 5.52486209e-03 0. 0. 0. 0. 3.68324132e-03 0. 0. 0.
      1.84162066e-03 1.84162066e-03 1.84162066e-03 1.84162066e-03 0.
      1.28913447e-02 0. 0. 0. 0. 3.68324132e-03 0. 0. 0. 1.84162066e-03
      0. 1.84162066e-03 0. 1.84162066e-03 3.68324132e-03 0. 0.
      9.20810364e-03 0. 0. 1.84162066e-03 0. 0. 0. 0. 0. 0.
      3.68324132e-03 3.68324132e-03 0. 1.84162066e-03 0. 3.68324132e-03
      3.68324132e-03 0. 0. 0. 0. 0. 0. 0. 0. 0. 0. 1.84162066e-03 0. 0.
      0. 0. 1.84162066e-03 0. 1.84162066e-03 7.36648263e-03 0. 0. 0.
      3.68324132e-03 0. 1.10497242e-02 0. 3.68324132e-03 1.84162066e-03
      0. 0. 0. 3.68324132e-03 0. 1.84162066e-03 5.52486209e-03 0. 0.
      1.84162066e-03 0. 0. 0. 1.84162066e-03 0. 0. 7.36648263e-03
      1.84162066e-03 0. 5.52486209e-03 3.68324132e-03 1.84162066e-03 0.
      0. 2.02578269e-02 1.84162066e-03 0. 0. 0. 1.84162066e-03
      1.84162066e-03 0. 0. 1.84162066e-03 0. 3.68324132e-03 0. 0.
      1.84162066e-03 0. 0. 0. 0. 0. 0. 0. 0. 0. 0. 1.84162066e-03
      1.84162066e-03 0. 3.68324132e-03 3.68324132e-03 0. 1.84162066e-03
      1.84162066e-03 0. 0. 0. 0. 0. 0. 3.68324132e-03 0. 3.68324132e-03
      0. 0. 5.52486209e-03 1.84162066e-03 1.84162066e-03 0. 0. 0. 0.
      5.52486209e-03 0. 1.84162066e-03 0. 0. 1.84162066e-03 0. 0.
      1.84162066e-03 1.84162066e-03 0. 0. 0. 1.84162066e-03
      1.84162066e-03 0. 1.84162066e-03 0. 1.84162066e-03 0. 0. 0.
      1.84162066e-03 3.68324132e-03 5.52486209e-03 1.84162066e-03 0. 0.
      0. 1.84162066e-03 0. 0. 0. 0. 0. 1.84162066e-03 1.84162066e-03
      1.84162066e-03 0. 0. 0. 0. 0. 1.47329653e-02 0. 0. 0. 0.
      1.84162066e-03 0. 0. 0. 0. 3.68324132e-03 0. 0. 5.52486209e-03 0.
      0. 0. 0. 0. 0. 0. 5.52486209e-03 3.68324132e-03 3.68324132e-03
      1.84162066e-03 0. 1.84162066e-03 0. 0. 3.68324132e-03 0.
      9.20810364e-03 0. 3.68324132e-03 0. 3.68324132e-03 3.68324132e-03
      0. 0. 0. 0. 0. 1.84162066e-03 0. 0. 0. 0. 0. 0. 3.68324132e-03
      1.84162066e-03 0. 1.84162066e-03 1.84162066e-03 1.84162066e-03 0.
      1.84162066e-03 0. 0. 1.84162066e-03 1.84162066e-03 0.
      3.68324132e-03 0. 0. 1.84162066e-03 0. 0. 3.68324132e-03 0.
      3.68324132e-03 0. 0. 1.84162066e-03 1.84162066e-03 0.
      7.36648263e-03 1.84162066e-03 0. 1.84162066e-03 0. 0. 0. 0. 0.
      1.84162066e-03 1.84162066e-03 1.84162066e-03 0. 1.84162066e-03
      1.84162066e-03 1.28913447e-02 0. 0. 1.84162066e-03 0.
      1.65745858e-02 0. 0. 1.84162066e-03 0. 1.84162066e-03
      1.84162066e-03 0. 1.84162066e-03 0. 0. 0. 1.84162066e-03 0. 0. 0.
      1.84162066e-03 3.68324132e-03 0. 0. 0. 1.84162066e-03
      1.84162066e-03 0. 3.68324132e-03 0. 0. 1.84162066e-03
      3.68324132e-03 0. 0. 0. 0. 0. 3.68324132e-03 0. 0. 1.84162066e-03
      3.68324132e-03 0. 0. 1.84162066e-03 0. 0. 0. 0. 0. 0. 0.
      1.84162066e-03 0. 1.84162066e-03 0. 0. 0. 5.52486209e-03 0.
      1.84162066e-03 0. 0. 0. 7.36648263e-03 3.68324132e-03
      1.84162066e-03 1.84162066e-03 0. 1.84162066e-03 0. 0. 0. 0. 0. 0.
      1.84162066e-03 1.84162066e-03 0. 0. 3.68324132e-03 0. 0. 0. 0. 0.
      0. 0. 0. 0. 0. 0. 0. 0. 1.84162066e-03 0. 0. 1.84162066e-03
      3.68324132e-03 3.68324132e-03 1.84162066e-03 0. 0. 3.68324132e-03
      1.84162066e-03 0. 0. 0. 0. 0. 0. 0. 1.84162066e-03 0. 0. 0. 0. 0.
      0. 0. 5.52486209e-03 0. 0. 0. 0. 3.68324132e-03 0. 0. 0. 0. 0. 0.
      0. 3.68324132e-03 0. 1.84162066e-03 1.84162066e-03 1.84162066e-03
      3.68324132e-03 0. 3.68324132e-03 3.68324132e-03 0. 0. 0. 0.
      7.36648263e-03 1.84162066e-03 3.68324132e-03 1.84162066e-03
      3.68324132e-03 0. 0. 1.84162066e-03 1.84162066e-03 0. 0. 0. 0.
      7.36648263e-03 0. 1.84162066e-03 0. 0. 0. 0. 1.84162066e-03 0.
      5.52486209e-03 1.84162066e-03 0. 0. 5.52486209e-03 0.
      1.84162066e-03 0. 1.84162066e-03 0. 0. 0. 1.84162066e-03 0.
      1.84162066e-03 0. 0. 1.84162066e-03 0. 0. 0. 0. 1.84162066e-03 0.
      1.84162066e-03 3.68324132e-03 0. 5.52486209e-03 1.84162066e-03 0.
      0. 0. 0. 0. 0. 0. 0. 0. 0. 0. 0. 0. 0. 0. 0. 0. 0. 0.
      1.84162066e-03 0. 0. 3.68324132e-03 1.84162066e-03 0. 0. 0.
      3.68324132e-03 0. 0. 1.84162066e-03 5.52486209e-03 0. 0.
      1.84162066e-03 0. 1.84162066e-03 1.84162066e-03 0. 0. 0. 0. 0. 0.
      0. 3.68324132e-03 0. 0. 0. 3.68324132e-03 0. 0. 1.84162066e-03 0.
      1.84162066e-03 0. 1.84162066e-03 0. 0. 1.84162066e-03
      3.68324132e-03 3.68324132e-03 5.52486209e-03 0. 0. 0. 0.
      1.84162066e-03 0. 0. 1.84162066e-03 1.84162066e-03 0.
      1.84162066e-03 0. 0. 0. 1.84162066e-03 0. 0. 0. 0. 0. 0. 0. 0.
      3.68324132e-03 0. 0. 1.84162066e-03 0. 1.84162066e-03 0. 0.
      1.84162066e-03 0.</_>
    <_>
      0. 2.44698208e-03 8.15660693e-04 8.15660693e-04 3.26264277e-03 0.
      2.44698208e-03 4.07830346e-03 8.15660693e-04 0. 0. 1.63132139e-03
      8.15660693e-04 2.44698208e-03 8.15660693e-04 1.63132139e-03 0.
      1.63132139e-03 0. 0. 2.44698208e-03 1.63132139e-03 2.44698208e-03
      0. 0. 1.63132139e-03 0. 0. 8.15660693e-04 0. 0. 8.15660693e-04 0.
      1.63132139e-03 1.63132139e-03 2.44698208e-03 8.15660693e-04 0. 0.
      8.15660693e-04 0. 1.63132139e-03 0. 1.63132139e-03 0. 0.
      8.15660693e-04 0. 0. 3.26264277e-03 8.15660693e-04 8.15660693e-04
      8.15660693e-04 2.44698208e-03 1.63132139e-03 8.15660693e-04
      8.15660693e-04 8.15660693e-04 0. 0. 0. 0. 0. 1.63132139e-03
      8.15660693e-04 0. 0. 1.63132139e-03 8.15660693e-04 0. 0.
      8.15660693e-04 8.15660693e-04 8.15660693e-04 3.26264277e-03
      8.15660693e-04 0. 2.44698208e-03 1.63132139e-03 8.15660693e-04
      1.63132139e-03 0. 8.15660693e-04 0. 0. 8.15660693e-04 0.
      8.15660693e-04 8.15660693e-04 0. 2.44698208e-03 8.15660693e-04 0.
      0. 0. 8.15660693e-04 1.63132139e-03 3.26264277e-03 0.
      8.15660693e-04 8.15660693e-04 0. 8.15660693e-04 0. 4.89396416e-03
      0. 8.15660693e-04 0. 2.44698208e-03 6.52528554e-03 8.15660693e-04
      1.63132139e-03 8.15660693e-04 0. 0. 0. 1.63132139e-03
      8.15660693e-04 1.63132139e-03 0. 0. 0. 1.63132139e-02
      1.63132139e-03 8.15660693e-04 0. 8.15660693e-04 2.44698208e-03 0.
      8.15660693e-04 0. 2.44698208e-03 0. 4.89396416e-03 3.26264277e-03
      8.15660693e-04 1.63132139e-03 8.15660693e-04 8.15660693e-04
      1.63132139e-03 0. 8.15660693e-04 4.07830346e-03 8.15660693e-04 0.
      8.15660693e-04 8.15660693e-04 8.15660693e-04 0. 0. 2.44698208e-03
      1.63132139e-03 8.15660693e-04 0. 0. 0. 0. 0. 2.44698208e-03 0. 0.
      0. 1.63132139e-03 0. 0. 8.15660693e-04 8.15660693e-04 0. 0. 0. 0.
      2.44698208e-03 8.15660693e-04 0. 0. 0. 0. 0. 8.15660693e-04 0.
      1.63132139e-03 8.15660693e-04 8.15660693e-04 8.15660693e-04 0.
      8.15660693e-04 1.63132139e-03 0. 0. 4.07830346e-03 1.63132139e-03
      0. 8.15660693e-04 0. 0. 0. 0. 0. 1.63132139e-03 0. 1.63132139e-03
      1.63132139e-03 8.15660693e-04 0. 1.63132139e-03 0. 0. 0.
      1.63132139e-03 8.15660693e-04 0. 0. 0. 0. 0. 8.15660693e-04 0.
      3.26264277e-03 8.15660693e-04 8.15660693e-04 2.44698208e-03
      2.44698208e-03 4.07830346e-03 0. 0. 8.15660693e-04 0. 0.
      2.44698208e-03 8.15660693e-04 8.15660693e-04 0. 8.15660693e-04 0.
      2.44698208e-03 0. 0. 8.15660693e-04 8.15660693e-04 0.
      3.26264277e-03 0. 1.63132139e-03 0. 0. 0. 8.15660693e-04
      6.52528554e-03 0. 0. 8.15660693e-04 4.07830346e-03 8.15660693e-04
      8.15660693e-04 1.63132139e-03 0. 0. 0. 8.15660693e-04 0. 0.
      1.63132139e-03 4.07830346e-03 0. 0. 0. 1.63132139e-03
      8.15660693e-04 8.15660693e-04 0. 0. 8.15660693e-04 3.26264277e-03
      3.26264277e-03 1.63132139e-03 8.15660693e-04 2.44698208e-03
      1.63132139e-03 8.15660693e-04 0. 8.15660693e-04 1.63132139e-03 0.
      0. 0. 2.44698208e-03 0. 3.26264277e-03 0. 0. 0. 0. 0.
      8.15660693e-04 0. 0. 0. 0. 8.15660693e-04 8.15660693e-04 0. 0. 0.
      8.15660693e-04 0. 1.63132139e-03 0. 2.44698208e-03 0.
      8.15660693e-04 0. 8.15660693e-04 0. 1.63132139e-03 0. 0. 0.
      2.44698208e-03 0. 4.07830346e-03 3.26264277e-03 0. 8.15660693e-04
      0. 8.15660693e-04 0. 8.15660693e-04 8.15660693e-04 0.
      2.44698208e-03 2.44698208e-03 0. 0. 8.15660693e-04 2.44698208e-03
      4.07830346e-03 0. 0. 2.44698208e-03 0. 0. 2.44698208e-03
      1.63132139e-03 8.15660693e-04 8.15660693e-04 0. 0. 0.
      2.44698208e-03 1.63132139e-03 1.63132139e-03 5.70962485e-03 0. 0.
      1.63132139e-03 0. 8.15660693e-04 0. 0. 0. 8.15660693e-04 0.
      8.15660693e-04 2.44698208e-03 8.15660693e-04 0. 8.15660693e-04 0.
      8.15660693e-04 0. 8.15660693e-04 8.15660693e-04 0. 2.44698208e-03
      0. 1.63132139e-03 0. 8.15660693e-04 8.15660693e-04 1.63132139e-03
      1.63132139e-03 0. 8.15660693e-04 0. 3.26264277e-03 8.15660693e-04
      1.63132139e-03 8.15660693e-04 0. 0. 3.26264277e-03 0. 0.
      1.63132139e-03 1.63132139e-03 1.63132139e-03 0. 8.15660693e-04 0.
      8.15660693e-04 3.26264277e-03 1.63132139e-03 8.15660693e-04
      8.15660693e-04 8.15660693e-04 8.15660693e-04 0. 1.63132139e-03
      2.44698208e-03 8.15660693e-04 8.15660693e-04 8.15660693e-04 0.
      1.63132139e-03 1.63132139e-03 8.15660693e-04 2.44698208e-03
      2.44698208e-03 8.15660693e-04 0. 5.70962485e-03 0. 0.
      2.44698208e-03 0. 2.44698208e-03 0. 0. 1.63132139e-03 0.
      8.15660693e-04 0. 0. 8.15660693e-04 1.63132139e-03 0. 0. 0.
      8.15660693e-04 6.52528554e-03 0. 4.07830346e-03 0. 1.63132139e-03
      8.15660693e-04 8.15660693e-04 1.63132139e-03 1.63132139e-03
      1.63132139e-03 1.63132139e-03 1.63132139e-03 0. 1.63132139e-03 0.
      0. 8.15660693e-04 8.15660693e-04 0. 0. 1.63132139e-03
      8.15660693e-04 0. 0. 0. 0. 0. 0. 3.26264277e-03 0. 8.15660693e-04
      0. 1.63132139e-03 8.15660693e-04 8.15660693e-04 0. 0. 0.
      8.15660693e-04 8.15660693e-04 0. 8.15660693e-04 1.63132139e-03 0.
      8.15660693e-04 0. 1.63132139e-03 1.63132139e-03 8.15660693e-04 0.
      4.07830346e-03 0. 8.15660693e-04 1.06035890e-02 0. 0. 0. 0.
      8.15660693e-04 0. 8.15660693e-04 0. 0. 0. 8.15660693e-04 0.
      3.26264277e-03 0. 1.63132139e-03 8.15660693e-04 1.63132139e-03 0.
      0. 0. 0. 1.63132139e-03 8.15660693e-04 1.63132139e-03
      4.07830346e-03 0. 0. 4.07830346e-03 8.15660693e-04 0. 0.
      1.63132139e-03 0. 8.15660693e-04 2.44698208e-03 0. 1.63132139e-03
      0. 2.44698208e-03 1.63132139e-03 2.44698208e-03 8.15660693e-04 0.
      0. 2.44698208e-03 0. 0. 1.63132139e-03 0. 8.15660693e-04 0.
      8.15660693e-04 0. 0. 2.44698208e-03 0. 1.63132139e-03
      8.15660693e-04 8.15660693e-04 3.26264277e-03 1.63132139e-03 0.
      8.15660693e-04 8.15660693e-04 2.44698208e-03 8.15660693e-04
      2.44698208e-03 8.15660693e-04 8.15660693e-04 1.63132139e-03
      8.15660693e-04 8.15660693e-04 8.15660693e-04 0. 0. 0. 0. 0.
      8.15660693e-04 8.15660693e-04 0. 8.15660693e-04 0. 8.15660693e-04
      8.15660693e-04 1.63132139e-03 8.15660693e-04 0. 8.15660693e-04
      8.15660693e-04 0. 0. 0. 8.15660693e-04 3.26264277e-03
      8.15660693e-04 8.15660693e-04 0. 0. 6.52528554e-03 8.15660693e-04
      0. 5.70962485e-03 2.44698208e-03 2.44698208e-03 1.63132139e-03
      1.63132139e-03 1.63132139e-03 0. 3.26264277e-03 1.63132139e-03
      8.15660693e-04 0. 0. 4.07830346e-03 3.26264277e-03 0. 0.
      2.44698208e-03 0. 9.78792831e-03 1.63132139e-03 0. 8.15660693e-04
      0. 8.15660693e-04 8.15660693e-04 8.15660693e-04 8.15660693e-04 0.
      0. 8.15660693e-04 0. 1.63132139e-03 8.15660693e-04 0. 0. 0.
      1.63132139e-03 8.15660693e-04 4.07830346e-03 0. 0. 1.63132139e-03
      0. 8.15660693e-04 3.26264277e-03 0. 0. 0. 3.26264277e-03
      2.44698208e-03 3.26264277e-03 1.63132139e-03 0. 0. 4.07830346e-03
      8.15660693e-04 3.26264277e-03 8.15660693e-04 8.15660693e-04 0.
      2.44698208e-03 0. 1.63132139e-03 0. 2.44698208e-03 0.
      4.89396416e-03 2.44698208e-03 0. 7.34094623e-03 8.15660693e-04
      8.15660693e-04 0. 8.15660693e-04 3.26264277e-03 8.15660693e-04
      1.63132139e-03 0. 0. 4.07830346e-03 0. 2.44698208e-03 0. 0. 0. 0.
      0. 1.63132139e-03 8.15660693e-04 3.26264277e-03 1.63132139e-03
      2.44698208e-03 3.26264277e-03 8.15660693e-04 0. 0. 0. 0. 0. 0.
      8.15660693e-04 0. 8.15660693e-04 0. 1.63132139e-03 0.
      8.15660693e-04 8.15660693e-04 3.26264277e-03 0. 4.89396416e-03 0.
      4.07830346e-03 3.26264277e-03 3.26264277e-03 0. 8.15660693e-04
      2.44698208e-03 4.89396416e-03 8.15660693e-04 1.63132139e-03 0. 0.
      2.44698208e-03 0. 1.63132139e-03 8.15660693e-04 1.63132139e-03
      8.15660693e-04 1.63132139e-03 0. 8.15660693e-04 8.15660693e-04
      8.15660693e-04 8.15660693e-04 0. 1.63132139e-03 0. 1.63132139e-03
      0. 1.63132139e-03 0. 0. 0. 0. 0. 0. 0. 0. 0. 0. 1.63132139e-03 0.
      5.70962485e-03 0. 0. 8.15660693e-04 0. 8.15660693e-04 0.
      8.15660693e-04 1.63132139e-03 8.15660693e-04 2.44698208e-03
      2.44698208e-03 0. 8.15660693e-04 1.63132139e-03 0. 0.
      2.44698208e-03 1.63132139e-03 0. 2.44698208e-03 8.15660693e-04
      8.15660693e-04 0. 8.15660693e-04 0. 0. 0. 0. 0. 0. 4.89396416e-03
      8.15660693e-04 0. 0. 1.63132139e-03 8.15660693e-04 3.26264277e-03
      0. 0. 8.15660693e-04 1.63132139e-03 8.15660693e-04 0.
      8.15660693e-04 2.44698208e-03 0. 3.26264277e-03 2.44698208e-03 0.
      2.44698208e-03 8.15660693e-04 0. 0. 8.15660693e-04 8.15660693e-04
      0. 0. 2.44698208e-03 8.15660693e-04 0. 0. 8.15660693e-04
      8.15660693e-04 2.44698208e-03 8.15660693e-04 0. 0. 0. 0.
      1.63132139e-03 2.44698208e-03 1.63132139e-03 8.15660693e-04
      8.15660693e-04 0. 8.15660693e-04 8.15660693e-04 8.15660693e-04 0.
      0. 0. 8.15660693e-04 0. 0. 4.07830346e-03 8.15660693e-04
      1.63132139e-03 0. 0. 1.63132139e-03 1.63132139e-03 0.
      8.15660693e-04 2.44698208e-03 1.63132139e-03 0. 8.15660693e-04 0.
      8.15660693e-04 2.44698208e-03 0. 8.15660693e-04 8.15660693e-04 0.
      8.15660693e-04 8.15660693e-04 1.63132139e-03 8.15660693e-04
      8.15660693e-04 0. 0. 0. 8.15660693e-04 0. 0. 0. 0. 3.26264277e-03
      1.63132139e-03 8.15660693e-04 0. 9.78792831e-03 1.63132139e-03
      8.15660693e-04 1.63132139e-03 0. 0. 0. 8.15660693e-04
      8.15660693e-04 3.26264277e-03 8.15660693e-04 0. 8.15660693e-04
      8.15660693e-04 8.15660693e-04 2.44698208e-03 0. 0. 0.
      8.15660693e-04 1.63132139e-03 8.15660693e-04 0. 1.63132139e-03
      8.15660693e-04 0. 1.63132139e-03 8.15660693e-04 0. 4.07830346e-03
      3.26264277e-03 2.44698208e-03 8.15660693e-04 8.15660693e-04
      4.07830346e-03 8.15660693e-04 0. 0. 0. 0. 0. 8.15660693e-04 0. 0.
      0. 0. 0. 1.63132139e-03 0. 0. 2.44698208e-03 8.15660693e-04
      8.15660693e-04 0. 8.15660693e-04 2.44698208e-03 2.44698208e-03
      8.15660693e-04 0. 2.44698208e-03 2.44698208e-03 3.26264277e-03
      8.15660693e-04 0. 1.63132139e-03 1.63132139e-03 8.15660693e-04 0.
      0. 3.26264277e-03 1.63132139e-03 0. 0. 2.44698208e-03 0.
      1.63132139e-03 8.15660693e-04 0. 0. 1.63132139e-03 5.70962485e-03
      0. 8.15660693e-04 1.63132139e-03 2.44698208e-03 8.15660693e-04
      8.15660693e-04 2.44698208e-03 0. 0. 0. 0. 3.26264277e-03
      1.63132139e-03 1.63132139e-03 6.52528554e-03 8.15660693e-04
      1.63132139e-03 2.44698208e-03 0. 8.15660693e-04 8.15660693e-04 0.
      8.15660693e-04 4.89396416e-03 8.15660693e-04 0. 0. 8.15660693e-04
      8.15660693e-04 8.15660693e-04 2.44698208e-03 1.63132139e-03 0.
      1.63132139e-03 4.07830346e-03 8.15660693e-04 2.44698208e-03 0.
      8.15660693e-04 0. 8.15660693e-04 1.63132139e-03 0. 8.15660693e-04
      8.15660693e-04 2.44698208e-03 1.63132139e-03 1.63132139e-03
      1.63132139e-03</_>
    <_>
      0. 1.44927541e-03 1.44927541e-03 0. 0. 1.44927541e-03 0. 0. 0. 0.
      1.44927541e-03 0. 0. 0. 7.24637695e-03 2.89855083e-03 0.
      1.44927541e-03 2.89855083e-03 0. 0. 0. 4.34782635e-03
      4.34782635e-03 2.89855083e-03 0. 0. 0. 0. 1.44927541e-03 0.
      5.79710165e-03 0. 0. 0. 0. 0. 4.34782635e-03 1.44927541e-03
      1.44927541e-03 0. 0. 0. 0. 0. 5.79710165e-03 4.34782635e-03
      4.34782635e-03 0. 0. 0. 0. 1.44927541e-03 1.44927541e-03 0. 0.
      2.89855083e-03 0. 0. 0. 0. 0. 0. 1.44927541e-03 1.44927541e-03 0.
      1.44927541e-03 0. 2.75362320e-02 1.44927541e-03 0. 0.
      1.44927541e-03 0. 0. 0. 0. 2.89855083e-03 0. 5.79710165e-03 0. 0.
      0. 0. 2.89855083e-03 0. 0. 0. 1.44927541e-03 0. 0. 0. 0. 0.
      5.79710165e-03 0. 0. 0. 1.44927541e-03 0. 1.44927541e-03
      1.44927541e-03 0. 4.34782635e-03 5.79710165e-03 0. 1.44927541e-03
      0. 0. 1.44927541e-03 0. 0. 0. 1.44927541e-03 0. 0. 0. 0. 0.
      4.34782635e-03 0. 0. 5.79710165e-03 0. 4.34782635e-03
      2.89855083e-03 1.44927541e-03 0. 0. 0. 1.44927541e-03
      2.89855083e-03 0. 0. 1.44927539e-02 1.88405812e-02 2.89855083e-03
      0. 1.44927541e-03 0. 0. 0. 4.34782635e-03 0. 1.44927541e-03 0.
      1.44927541e-03 0. 1.44927541e-03 4.34782635e-03 0. 1.44927541e-03
      0. 8.69565271e-03 0. 0. 1.44927541e-03 0. 0. 0. 0. 4.34782635e-03
      0. 1.30434791e-02 7.24637695e-03 4.34782635e-03 0. 0. 0.
      2.89855083e-03 0. 1.44927541e-03 0. 2.89855083e-03 0. 0.
      1.44927541e-03 0. 1.44927541e-03 2.89855083e-03 2.89855083e-03
      1.44927541e-03 0. 0. 0. 1.44927541e-03 4.34782635e-03 0.
      1.44927541e-03 0. 0. 2.89855083e-03 1.44927541e-03 0.
      4.34782635e-03 2.02898551e-02 1.44927541e-03 1.44927541e-03
      4.34782635e-03 0. 0. 0. 0. 0. 0. 0. 0. 0. 0. 0. 1.44927541e-03 0.
      0. 1.44927541e-03 0. 2.89855083e-03 0. 0. 1.44927541e-03
      1.44927541e-03 0. 0. 0. 0. 0. 2.89855083e-03 1.44927541e-03 0.
      1.44927541e-03 2.89855083e-03 1.44927541e-03 1.44927541e-03
      2.89855083e-03 0. 0. 1.44927541e-03 0. 0. 2.89855083e-03
      2.89855083e-03 0. 1.44927541e-03 1.44927541e-03 0. 0.
      5.79710165e-03 3.18840593e-02 0. 0. 0. 1.44927541e-03
      8.69565271e-03 0. 0. 0. 0. 0. 1.44927541e-03 2.89855083e-03
      1.44927541e-03 0. 1.44927541e-03 0. 0. 0. 0. 2.89855083e-03 0. 0.
      2.89855083e-03 0. 0. 0. 0. 0. 0. 1.44927541e-03 4.34782635e-03 0.
      0. 1.44927541e-03 0. 0. 0. 0. 0. 0. 0. 1.44927541e-03 0. 0. 0.
      1.44927541e-03 2.89855083e-03 0. 2.89855083e-03 0. 1.44927541e-03
      0. 0. 1.44927541e-03 0. 0. 7.24637695e-03 7.24637695e-03
      1.44927541e-03 0. 2.89855083e-03 0. 1.44927541e-03 0. 0. 0. 0. 0.
      0. 0. 1.44927541e-03 0. 0. 0. 1.44927541e-03 2.89855083e-03
      1.44927541e-03 0. 0. 1.44927541e-03 0. 0. 1.44927541e-03
      1.44927541e-03 0. 1.15942033e-02 0. 4.34782635e-03 0.
      1.44927541e-03 0. 0. 0. 1.44927541e-03 0. 2.89855083e-03 0.
      7.24637695e-03 0. 0. 1.44927541e-03 1.44927541e-03 0. 0.
      1.44927541e-03 0. 1.44927541e-03 0. 1.44927541e-03 0. 0.
      2.89855083e-03 0. 0. 0. 2.89855083e-03 2.89855083e-03 0. 0. 0. 0.
      0. 0. 0. 2.89855083e-03 0. 2.89855083e-03 0. 1.44927541e-03
      2.89855083e-03 0. 0. 2.89855083e-03 0. 0. 0. 0. 0. 0. 0. 0.
      1.44927541e-03 1.44927541e-03 0. 0. 0. 2.89855083e-03 0. 0. 0. 0.
      1.44927541e-03 0. 0. 1.44927541e-03 0. 0. 0. 0. 0. 0. 0.
      2.89855083e-03 1.44927541e-03 0. 0. 0. 0. 0. 0. 1.44927541e-03
      1.44927541e-03 0. 1.44927541e-03 0. 0. 0. 0. 0. 2.89855083e-03 0.
      0. 1.44927541e-03 0. 2.89855083e-03 1.44927541e-03 1.44927541e-03
      2.89855083e-03 0. 0. 0. 2.89855083e-03 1.01449275e-02 0. 0.
      1.44927541e-03 0. 0. 2.89855083e-03 2.89855083e-03 1.44927541e-03
      0. 0. 0. 0. 1.44927541e-03 2.89855083e-03 0. 0. 0. 0. 0. 0.
      1.44927541e-03 0. 2.89855083e-03 0. 0. 0. 2.89855083e-03
      5.79710165e-03 1.44927541e-03 1.44927541e-03 0. 0. 2.89855083e-03
      1.44927541e-03 0. 0. 0. 0. 0. 0. 0. 0. 0. 1.44927541e-03 0.
      1.44927541e-03 0. 0. 1.44927541e-03 1.44927541e-03 0. 0.
      1.44927541e-03 0. 0. 0. 0. 0. 0. 0. 1.44927541e-03 1.44927541e-03
      2.89855083e-03 0. 0. 0. 0. 1.44927541e-03 0. 0. 0. 1.44927541e-03
      0. 0. 0. 2.89855083e-03 2.89855083e-03 1.44927541e-03 0. 0.
      8.69565271e-03 4.34782635e-03 0. 0. 0. 0. 1.44927541e-03 0.
      1.44927541e-03 0. 0. 1.44927541e-03 0. 1.44927541e-03
      1.44927541e-03 0. 1.44927541e-03 0. 0. 1.44927541e-03
