<?xml version="1.0"?>
<opencv_storage>
<opencv_ml_svm>
  <format>3</format>
  <svmType>C_SVC</svmType>
  <kernel>
    <type>RBF</type>
    <gamma>1.0000000000000001e-05</gamma></kernel>
  <C>1.0000000000000001e-01</C>
  <term_criteria><iterations>1000</iterations></term_criteria>
  <var_count>1000</var_count>
  <class_count>2</class_count>
  <class_labels type_id="opencv-matrix">
    <rows>2</rows>
    <cols>1</cols>
    <dt>i</dt>
    <data>
      0 1</data></class_labels>
  <sv_total>19</sv_total>
  <support_vectors>
    <_>
      0. 0. 0. 0. 0. 0. 0. 0. 0. 0. 0. 0. 0. 2.56410260e-02 0. 0. 0. 0.
      0. 0. 0. 0. 0. 0. 0. 0. 0. 0. 0. 0. 0. 0. 0. 0. 0. 0. 0. 0. 0. 0.
      0. 1.28205130e-02 1.28205130e-02 0. 0. 0. 0. 0. 0. 0. 0.
      1.28205130e-02 0. 0. 0. 0. 0. 3.84615399e-02 0. 0. 0. 0. 0. 0. 0.
      0. 0. 0. 0. 1.28205130e-02 0. 0. 0. 2.56410260e-02 0. 0. 0. 0. 0.
      0. 0. 0. 0. 2.56410260e-02 0. 0. 0. 0. 0. 2.56410260e-02 0.
      1.28205130e-02 0. 0. 0. 0. 1.28205130e-02 0. 1.28205130e-02 0. 0.
      0. 0. 0. 0. 0. 0. 0. 0. 0. 0. 0. 0. 0. 0. 0. 0. 0. 0. 0. 0. 0. 0.
      0. 0. 0. 0. 0. 0. 0. 0. 0. 0. 0. 0. 0. 0. 0. 0. 0. 0. 0.
      1.28205130e-02 0. 0. 0. 0. 0. 0. 0. 0. 0. 0. 0. 0. 0. 0. 0. 0. 0.
      1.28205130e-02 0. 0. 0. 0. 0. 0. 0. 0. 0. 0. 0. 0. 0. 0. 0. 0. 0.
      0. 0. 0. 0. 0. 0. 0. 0. 0. 1.28205130e-02 0. 0. 0. 0. 0. 0. 0. 0.
      0. 0. 0. 0. 0. 0. 0. 0. 0. 0. 0. 0. 0. 0. 0. 0. 0. 0. 0. 0. 0. 0.
      0. 0. 0. 0. 0. 0. 0. 0. 0. 0. 0. 0. 0. 0. 0. 0. 0. 0. 0. 0. 0. 0.
      0. 0. 0. 0. 0. 0. 1.28205130e-02 0. 0. 0. 0. 0. 0. 0. 0. 0. 0. 0.
      0. 0. 0. 0. 0. 0. 0. 0. 0. 0. 0. 1.28205130e-02 0. 0. 0. 0. 0. 0.
      0. 0. 0. 0. 0. 0. 0. 0. 0. 0. 0. 0. 0. 0. 0. 0. 0. 0. 0. 0.
      1.28205130e-02 0. 0. 0. 0. 0. 0. 0. 0. 0. 0. 0. 0. 0. 0. 0. 0. 0.
      0. 0. 1.28205130e-02 0. 0. 0. 0. 0. 1.28205130e-02 0. 0. 0. 0. 0.
      0. 0. 0. 0. 0. 0. 0. 0. 0. 0. 0. 0. 0. 0. 0. 0. 0. 0. 0. 0. 0. 0.
      0. 0. 0. 0. 0. 0. 0. 0. 0. 0. 0. 0. 0. 0. 0. 0. 0. 0. 0. 0.
      1.28205130e-02 0. 0. 0. 0. 0. 0. 0. 2.56410260e-02 0. 0. 0. 0. 0.
      0. 0. 0. 0. 0. 0. 0. 0. 0. 0. 0. 0. 0. 0. 0. 0. 0. 0.
      1.28205130e-02 0. 0. 0. 1.28205130e-02 0. 0. 0. 0. 0. 0. 0. 0. 0.
      0. 0. 0. 0. 0. 0. 0. 1.28205130e-02 0. 1.28205130e-02 0. 0. 0. 0.
      1.28205130e-02 0. 0. 0. 0. 0. 2.56410260e-02 0. 0. 0. 0. 0. 0.
      1.28205130e-02 0. 0. 2.56410260e-02 0. 0. 0. 0. 0. 0. 0. 0. 0. 0.
      0. 0. 0. 0. 0. 0. 0. 0. 0. 0. 0. 0. 0. 0. 0. 0. 0. 1.28205130e-02
      0. 1.28205130e-02 0. 0. 0. 0. 0. 0. 0. 0. 0. 0. 0. 0.
      1.28205130e-02 1.28205130e-02 0. 0. 0. 1.28205130e-02 0. 0. 0. 0.
      0. 0. 0. 0. 0. 0. 0. 0. 0. 0. 0. 0. 0. 0. 0. 0. 0. 0. 0. 0. 0. 0.
      0. 1.28205130e-02 0. 0. 0. 0. 0. 0. 0. 0. 1.28205130e-02 0.
      1.28205130e-02 0. 0. 0. 0. 0. 0. 0. 0. 0. 0. 0. 0. 0. 0. 0. 0. 0.
      0. 0. 0. 0. 0. 0. 1.28205130e-02 0. 0. 0. 0. 0. 0. 0. 0. 0. 0. 0.
      0. 0. 0. 0. 0. 0. 0. 0. 0. 0. 0. 0. 0. 0. 0. 0. 0. 0. 0. 0. 0. 0.
      0. 0. 0. 0. 0. 0. 0. 0. 0. 0. 0. 0. 0. 0. 0. 0. 0. 0. 0. 0. 0. 0.
      0. 0. 0. 0. 0. 0. 0. 0. 0. 0. 0. 0. 0. 0. 0. 1.28205130e-02
      1.28205130e-02 0. 0. 0. 0. 0. 0. 0. 0. 0. 0. 0. 0. 0. 0. 0. 0.
      1.28205130e-02 0. 0. 0. 0. 0. 0. 0. 0. 0. 0. 0. 0. 0. 0. 0. 0. 0.
      0. 0. 0. 0. 0. 1.28205130e-02 0. 0. 0. 0. 0. 0. 1.28205130e-02
      1.28205130e-02 0. 0. 0. 0. 0. 0. 0. 0. 0. 0. 1.28205130e-02 0. 0.
      0. 0. 0. 0. 0. 0. 0. 0. 0. 0. 0. 0. 0. 0. 0. 0. 0. 0. 0. 0. 0. 0.
      0. 0. 0. 0. 0. 0. 0. 0. 0. 0. 0. 0. 0. 0. 0. 0. 0. 0. 0. 0. 0. 0.
      0. 0. 0. 0. 0. 0. 0. 0. 0. 0. 0. 0. 0. 0. 0. 0. 0. 0. 0. 0. 0. 0.
      0. 0. 0. 0. 0. 0. 0. 0. 0. 0. 0. 0. 0. 0. 0. 1.28205130e-02 0. 0.
      0. 0. 0. 0. 0. 1.28205130e-02 2.56410260e-02 0. 0. 1.28205130e-02
      0. 0. 0. 0. 0. 0. 0. 0. 0. 0. 1.28205130e-02 0. 0. 0. 0. 0. 0. 0.
      0. 0. 0. 0. 0. 0. 0. 1.28205130e-02 0. 0. 0. 0. 0. 1.28205130e-02
      1.28205130e-02 0. 0. 1.28205130e-02 1.28205130e-02 0. 0. 0. 0. 0.
      0. 0. 0. 0. 0. 0. 0. 0. 0. 0. 0. 0. 0. 0. 0. 0. 0. 0.
      1.28205130e-02 1.28205130e-02 0. 0. 0. 0. 0. 0. 0. 0. 0. 0. 0. 0.
      0. 0. 0. 0. 0. 0. 0. 0. 0. 0. 0. 0. 0. 0. 0. 0. 0. 0. 0. 0. 0. 0.
      0. 0. 0. 0. 1.28205130e-02 0. 0. 0. 0. 0. 0. 0. 0. 0. 0. 0. 0. 0.
      0. 0. 0. 0. 0. 0. 0. 0. 0. 0. 0. 0. 0. 0. 0. 0. 0. 0. 0. 0. 0. 0.
      0. 0. 0. 0. 0. 0. 0. 0. 0. 0. 0. 1.28205130e-02 0. 0. 0. 0.
      1.28205130e-02 0. 0. 0. 0. 0. 0. 0. 0. 0. 0. 0. 0. 1.28205130e-02
      0. 0. 1.28205130e-02 0. 0. 0. 0. 0. 0. 0. 1.28205130e-02
      1.28205130e-02 0. 0. 0. 0. 0. 0. 0. 0. 0. 0. 0. 0. 0. 0.
      2.56410260e-02 0. 0. 0. 0. 0. 0. 0. 0. 0. 0. 0. 0. 0. 0. 0. 0. 0.
      0. 0. 1.28205130e-02 0. 0.</_>
    <_>
      0. 0. 0. 0. 0. 0. 0. 0. 0. 0. 0. 0. 1.56006240e-03 0. 0. 0.
      1.56006240e-03 0. 0. 0. 3.12012481e-03 0. 1.56006240e-03 0.
      1.56006240e-03 0. 0. 0. 0. 0. 7.80031178e-03 0. 0. 0.
      1.56006240e-03 3.12012481e-03 0. 0. 1.56006240e-03 6.24024961e-03
      0. 0. 0. 0. 0. 0. 0. 0. 1.56006240e-03 0. 0. 0. 3.12012481e-03 0.
      0. 0. 0. 0. 3.12012481e-03 3.12012481e-03 3.12012481e-03 0. 0. 0.
      1.56006240e-03 0. 1.56006240e-03 1.56006240e-03 0. 0. 0. 0. 0. 0.
      1.56006240e-03 6.24024961e-03 4.68018744e-03 6.24024961e-03 0. 0.
      0. 0. 0. 0. 1.56006240e-03 1.56006240e-03 3.12012481e-03 0. 0. 0.
      0. 0. 0. 0. 0. 7.80031178e-03 0. 0. 4.68018744e-03 3.12012481e-03
      1.56006240e-03 0. 0. 1.56006240e-03 0. 3.12012481e-03 0. 0. 0.
      1.56006240e-03 0. 0. 3.12012481e-03 1.56006240e-03 1.56006240e-03
      1.56006240e-03 0. 0. 0. 0. 4.68018744e-03 1.56006240e-03 0. 0.
      1.56006240e-03 1.56006240e-03 0. 0. 0. 0. 4.68018744e-03 0. 0.
      3.12012481e-03 0. 0. 1.56006240e-03 0. 3.12012481e-03 0.
      3.12012481e-03 3.12012481e-03 0. 7.80031178e-03 0. 1.56006240e-03
      0. 0. 0. 3.12012481e-03 0. 0. 1.56006240e-03 3.12012481e-03 0. 0.
      0. 0. 0. 0. 4.68018744e-03 4.68018744e-03 0. 3.12012481e-03 0. 0.
      1.56006240e-03 0. 0. 0. 0. 3.12012481e-03 1.56006240e-03 0.
      1.56006240e-03 0. 0. 0. 0. 0. 0. 0. 1.56006240e-03 0. 0.
      1.56006240e-03 0. 0. 1.56006240e-03 0. 6.24024961e-03
      3.12012481e-03 0. 3.12012481e-03 0. 0. 1.56006240e-03 0.
      1.56006240e-03 4.68018744e-03 0. 7.80031178e-03 3.12012481e-03
      1.56006240e-03 0. 0. 0. 0. 1.56006240e-03 3.12012481e-03 0.
      3.12012481e-03 1.56006240e-03 1.40405614e-02 0. 0. 0. 0. 0.
      7.80031178e-03 1.56006240e-03 0. 0. 3.12012481e-03 0. 0.
      1.56006240e-03 3.12012481e-03 0. 0. 0. 0. 0. 0. 0. 0.
      1.56006240e-03 0. 0. 0. 0. 0. 0. 0. 0. 0. 1.56006240e-03
      9.36037488e-03 3.12012481e-03 1.56006240e-03 0. 0. 0.
      1.56006240e-03 0. 0. 1.56006240e-03 0. 0. 3.12012481e-03 0.
      1.56006240e-03 1.56006240e-03 6.24024961e-03 4.68018744e-03 0.
      1.56006240e-03 0. 1.56006240e-03 3.12012481e-03 1.56006240e-03 0.
      0. 1.56006240e-03 0. 1.56006240e-03 1.56006240e-03 0.
      1.56006240e-03 0. 0. 0. 0. 0. 1.56006240e-03 1.56006240e-03 0.
      1.56006240e-03 0. 0. 0. 3.12012481e-03 1.56006240e-03 0. 0.
      1.56006240e-03 0. 0. 0. 6.24024961e-03 0. 6.24024961e-03 0. 0. 0.
      0. 0. 0. 4.68018744e-03 0. 0. 3.12012481e-03 0. 0. 4.68018744e-03
      1.56006240e-03 0. 0. 1.56006240e-03 1.56006240e-03 0. 0. 0. 0. 0.
      6.24024961e-03 0. 6.24024961e-03 1.56006240e-03 3.12012481e-03 0.
      0. 1.56006240e-03 0. 0. 1.56006240e-03 0. 0. 0. 1.56006240e-03 0.
      4.68018744e-03 0. 1.56006240e-03 0. 3.12012481e-03 0. 0. 0. 0.
      6.24024961e-03 1.56006240e-03 0. 0. 0. 0. 0. 0. 0. 0. 0. 0. 0. 0.
      0. 0. 0. 0. 1.56006240e-03 0. 3.12012481e-03 0. 1.56006240e-03 0.
      0. 1.56006240e-03 1.56006240e-03 3.12012481e-03 1.56006240e-03 0.
      1.56006240e-03 3.12012481e-03 0. 0. 0. 1.56006240e-03 0. 0. 0. 0.
      0. 0. 0. 4.68018744e-03 0. 0. 0. 1.56006240e-03 4.68018744e-03
      3.12012481e-03 0. 0. 0. 4.68018744e-03 0. 3.12012481e-03 0. 0.
      1.56006240e-03 1.56006240e-03 3.12012481e-03 3.12012481e-03 0.
      1.56006240e-03 0. 0. 0. 3.12012481e-03 0. 0. 0. 4.68018744e-03
      1.56006240e-03 1.56006240e-03 0. 0. 0. 0. 0. 0. 0. 0. 0. 0.
      1.56006240e-03 0. 1.56006240e-03 0. 0. 0. 0. 0. 1.56006240e-03
      1.56006240e-03 0. 0. 3.12012481e-03 0. 0. 0. 4.68018744e-03 0. 0.
      0. 1.56006240e-03 0. 1.56006240e-03 0. 3.12012481e-03 0. 0. 0. 0.
      3.12012481e-03 0. 1.56006240e-03 0. 0. 1.56006240e-03
      1.56006240e-03 0. 0. 1.56006240e-03 0. 0. 0. 4.68018744e-03 0. 0.
      0. 0. 1.56006240e-03 0. 1.56006240e-03 0. 0. 1.56006240e-03
      3.12012481e-03 1.56006240e-03 0. 3.12012481e-03 0. 1.56006240e-03
      1.56006240e-03 1.56006240e-03 0. 0. 0. 0. 3.12012481e-03
      1.56006240e-03 3.12012481e-03 1.56006240e-03 1.56006240e-03 0. 0.
      0. 0. 6.24024961e-03 0. 1.56006240e-03 6.24024961e-03 0.
      3.12012481e-03 0. 0. 0. 1.56006240e-03 3.12012481e-03 0. 0. 0.
      1.56006240e-03 0. 0. 3.12012481e-03 0. 4.68018744e-03 0.
      1.56006240e-03 0. 0. 0. 1.56006240e-03 3.12012481e-03 0. 0. 0.
      1.56006240e-03 1.56006240e-03 6.24024961e-03 0. 3.12012481e-03 0.
      1.56006240e-03 0. 0. 1.56006240e-03 1.09204371e-02 0. 0. 0.
      1.56006240e-03 0. 0. 1.56006240e-03 1.56006240e-03 1.56006240e-03
      0. 0. 4.68018744e-03 0. 0. 4.68018744e-03 1.56006240e-03 0.
      1.56006240e-03 3.12012481e-03 3.12012481e-03 0. 0. 0. 0. 0. 0.
      1.56006240e-03 1.56006240e-03 0. 1.56006240e-03 3.12012481e-03 0.
      4.68018744e-03 4.68018744e-03 0. 3.12012481e-03 0. 0. 0. 0.
      4.68018744e-03 0. 0. 0. 0. 1.56006240e-03 0. 0. 0. 1.56006240e-03
      1.56006240e-03 1.56006240e-03 0. 4.68018744e-03 0. 3.12012481e-03
      0. 0. 0. 0. 0. 0. 0. 0. 1.56006240e-03 0. 0. 0. 1.56006240e-03 0.
      1.71606857e-02 0. 1.56006240e-03 0. 1.56006240e-03 1.56006240e-03
      0. 0. 1.56006240e-03 0. 1.56006240e-03 0. 0. 0. 0. 0.
      3.12012481e-03 0. 0. 1.56006240e-03 0. 1.56006240e-03 0. 0. 0.
      3.12012481e-03 0. 0. 3.12012481e-03 1.56006240e-03 0. 0.
      1.56006240e-03 0. 0. 3.12012481e-03 1.56006240e-03 0. 0. 0. 0.
      3.12012481e-03 0. 7.80031178e-03 0. 0. 6.24024961e-03
      3.12012481e-03 3.12012481e-03 0. 1.56006240e-03 0. 0. 0. 0. 0. 0.
      1.56006240e-03 0. 0. 0. 0. 0. 0. 0. 1.56006240e-03 6.24024961e-03
      0. 1.56006240e-03 0. 0. 1.56006240e-03 3.12012481e-03 0. 0.
      1.56006240e-03 0. 4.68018744e-03 1.56006240e-03 0. 0.
      1.56006240e-03 1.56006240e-03 0. 0. 0. 1.56006240e-03 0.
      7.80031178e-03 0. 0. 0. 1.56006240e-03 1.56006240e-03
      1.56006240e-03 3.12012481e-03 0. 1.56006240e-03 0. 0. 0.
      3.12012481e-03 0. 1.56006240e-03 0. 0. 0. 4.68018744e-03 0. 0. 0.
      0. 0. 0. 0. 4.68018744e-03 0. 1.56006240e-03 0. 1.56006240e-03 0.
      1.56006240e-03 1.56006240e-03 1.56006240e-03 0. 0. 0. 0. 0. 0. 0.
      1.56006240e-03 0. 0. 0. 3.12012481e-03 1.56006240e-03 0.
      1.56006240e-03 6.24024961e-03 1.56006240e-03 1.56006240e-03 0. 0.
      1.56006240e-03 0. 0. 1.56006240e-03 0. 0. 1.56006240e-03
      3.12012481e-03 3.12012481e-03 1.56006240e-03 0. 0. 0. 0. 0.
      1.56006240e-03 1.56006240e-03 1.56006240e-03 1.56006240e-03 0.
      1.56006240e-03 4.68018744e-03 0. 0. 1.56006240e-03 0. 0. 0.
      3.12012481e-03 3.12012481e-03 1.56006240e-03 1.56006240e-03 0. 0.
      1.56006240e-03 0. 0. 3.12012481e-03 0. 1.56006240e-03 0. 0.
      1.56006240e-03 3.12012481e-03 0. 3.12012481e-03 3.12012481e-03 0.
      0. 1.56006240e-03 0. 1.56006240e-03 1.56006240e-03 0.
      1.56006240e-03 0. 0. 0. 3.12012481e-03 0. 1.56006240e-03 0. 0. 0.
      0. 0. 0. 0. 0. 1.56006240e-03 1.56006240e-03 1.56006240e-03 0. 0.
      1.56006240e-03 0. 0. 0. 1.56006240e-03 4.68018744e-03 0.
      3.12012481e-03 0. 0. 0. 0. 1.56006240e-03 1.56006240e-03 0. 0.
      3.12012481e-03 0. 0. 0. 0. 1.56006240e-03 1.56006240e-03 0. 0. 0.
      9.36037488e-03 0. 0. 6.24024961e-03 0. 0. 0. 0. 1.56006240e-03 0.
      0. 0. 3.12012481e-03 0. 0. 0. 1.56006240e-03 1.56006240e-03
      1.56006240e-03 1.56006240e-03 0. 0. 0. 0. 0. 0. 0. 0. 0. 0. 0. 0.
      0. 0. 1.56006240e-03 0. 0. 1.56006240e-03 0. 0. 1.56006240e-03 0.
      0. 0. 0. 0. 0. 0. 1.56006240e-03 0. 0. 0. 0. 0. 0. 0. 0. 0.
      1.56006240e-03 0. 0. 0. 4.68018744e-03 0. 1.56006240e-03 0.
      4.68018744e-03 0. 1.56006240e-03 0. 3.12012481e-03 3.12012481e-03
      0. 0. 1.56006240e-03 4.68018744e-03 1.56006240e-03 1.56006240e-03
      1.56006240e-03 6.24024961e-03 0. 0. 1.56006240e-03 1.56006240e-03
      0. 0. 0. 0. 0. 0. 1.56006240e-03 1.56006240e-03 0. 0.
      1.56006240e-03 0. 0. 0. 0. 1.56006240e-03 0. 0. 0. 0. 0. 0.
      1.56006240e-03 7.80031178e-03 1.56006240e-03 0. 0. 0. 0. 0.
      9.36037488e-03 1.56006240e-03 1.56006240e-03 1.56006240e-03
      1.56006240e-03 0. 1.56006240e-03 0. 1.56006240e-03 0. 0. 0. 0. 0.
      1.56006240e-03 3.12012481e-03 0. 0. 0. 1.56006240e-03 0.
      4.68018744e-03 0.</_>
    <_>
      0. 0. 0. 0. 0. 0. 0. 0. 0. 0. 2.28310493e-03 0. 0. 2.28310493e-03
      0. 2.28310493e-03 0. 0. 0. 2.28310493e-03 6.84931502e-03 0. 0. 0.
      0. 0. 0. 2.28310493e-03 0. 0. 0. 9.13241971e-03 2.28310493e-03 0.
      0. 0. 0. 0. 0. 0. 0. 0. 4.56620986e-03 0. 0. 0. 0. 0. 0. 0. 0. 0.
      0. 0. 0. 0. 0. 0. 0. 0. 0. 0. 0. 0. 9.13241971e-03 0. 0. 0. 0. 0.
      0. 0. 0. 2.28310493e-03 0. 0. 0. 4.56620986e-03 0. 0. 0. 0. 0.
      4.56620986e-03 0. 0. 0. 0. 0. 2.28310493e-03 0. 0. 0.
      4.56620986e-03 0. 0. 0. 0. 6.84931502e-03 0. 2.28310493e-03 0. 0.
      2.28310493e-03 0. 2.28310493e-03 2.28310493e-03 0. 0.
      4.56620986e-03 0. 0. 0. 0. 0. 0. 0. 0. 2.28310488e-02 0.
      4.56620986e-03 1.36986300e-02 0. 0. 0. 0. 0. 0. 0. 0. 0. 0. 0. 0.
      0. 0. 0. 6.84931502e-03 0. 0. 2.28310493e-03 2.28310493e-03 0.
      1.36986300e-02 0. 0. 0. 4.56620986e-03 2.28310493e-03
      2.28310493e-03 0. 0. 0. 0. 0. 0. 0. 2.28310493e-03 0. 0. 0. 0.
      2.28310493e-03 4.56620986e-03 2.28310493e-03 0. 2.28310493e-03
      2.28310493e-03 0. 0. 0. 0. 0. 0. 0. 0. 0. 2.28310493e-03 0. 0. 0.
      0. 0. 0. 2.28310493e-03 0. 2.28310493e-03 2.28310493e-03 0.
      4.56620986e-03 0. 0. 0. 0. 0. 0. 0. 0. 0. 0. 0. 9.13241971e-03
      2.28310493e-03 4.56620986e-03 0. 0. 2.28310493e-03 0. 0.
      2.28310493e-03 0. 2.28310493e-03 0. 0. 0. 4.56620986e-03 0. 0. 0.
      0. 2.28310493e-03 0. 0. 2.28310493e-03 0. 0. 0. 0. 0. 0. 0. 0. 0.
      0. 0. 2.05479451e-02 0. 1.36986300e-02 0. 0. 2.28310493e-03 0. 0.
      0. 0. 0. 0. 0. 0. 0. 2.28310493e-03 0. 0. 0. 2.28310493e-03 0. 0.
      0. 0. 2.28310493e-03 0. 0. 2.28310493e-03 0. 0. 0. 0. 0. 0.
      2.28310493e-03 0. 0. 0. 2.28310493e-03 0. 0. 0. 0. 0. 0. 0. 0. 0.
      0. 0. 0. 0. 0. 0. 0. 0. 0. 2.28310493e-03 0. 0. 0. 0.
      2.28310493e-03 0. 0. 0. 0. 0. 0. 2.28310493e-03 0. 2.28310493e-03
      0. 0. 0. 6.84931502e-03 4.56620986e-03 0. 0. 0. 0. 0. 0.
      2.28310493e-03 0. 0. 0. 0. 0. 2.28310493e-03 2.28310493e-03 0. 0.
      0. 0. 2.28310493e-03 0. 0. 4.56620986e-03 4.56620986e-03
      6.84931502e-03 0. 0. 0. 2.28310493e-03 0. 0. 6.84931502e-03 0. 0.
      0. 0. 0. 0. 0. 0. 0. 0. 0. 4.56620986e-03 0. 0. 0. 0. 0. 0.
      4.56620986e-03 0. 0. 0. 0. 0. 0. 2.28310493e-03 0. 0.
      2.28310493e-03 0. 0. 0. 0. 2.28310493e-03 0. 4.56620986e-03 0. 0.
      0. 0. 2.28310493e-03 0. 2.28310493e-03 0. 0. 0. 0. 0. 0.
      2.28310493e-03 0. 0. 0. 6.84931502e-03 0. 2.28310493e-03 0. 0. 0.
      2.28310493e-03 0. 2.28310493e-03 0. 0. 0. 6.84931502e-03 0. 0. 0.
      0. 0. 1.14155244e-02 0. 0. 4.56620986e-03 0. 6.84931502e-03
      2.28310493e-03 0. 2.28310493e-03 0. 0. 0. 0. 0. 0. 2.28310493e-03
      0. 9.13241971e-03 0. 0. 0. 0. 2.28310493e-03 0. 2.28310493e-03 0.
      0. 0. 0. 2.28310493e-03 0. 0. 0. 0. 2.05479451e-02 0. 0. 0. 0. 0.
      0. 0. 2.28310493e-03 0. 0. 0. 0. 2.28310493e-03 4.56620986e-03
      2.28310493e-03 0. 0. 2.28310493e-03 0. 0. 0. 0. 0. 0. 0. 0. 0. 0.
      0. 0. 2.28310493e-03 0. 2.28310493e-03 2.28310493e-03 0. 0.
      2.28310493e-03 1.14155244e-02 0. 0. 0. 4.56620986e-03 0. 0. 0. 0.
      0. 0. 0. 0. 0. 2.28310493e-03 0. 0. 2.28310493e-03 0. 0. 0. 0. 0.
      0. 0. 0. 0. 0. 4.56620986e-03 0. 0. 0. 0. 0. 0. 0. 0. 0. 0. 0.
      2.28310493e-03 0. 0. 2.28310493e-03 0. 0. 0. 2.28310493e-03
      2.28310493e-03 0. 0. 0. 0. 6.84931502e-03 0. 0. 0. 0. 0. 0.
      2.28310493e-03 2.28310493e-03 0. 0. 0. 0. 4.56620986e-03
      2.28310493e-03 4.56620986e-03 0. 0. 0. 0. 0. 0. 6.84931502e-03
      2.28310493e-03 2.28310493e-03 0. 0. 2.28310493e-03 0. 0. 0. 0.
      2.28310493e-03 0. 0. 0. 0. 2.28310493e-03 0. 2.28310493e-03 0.
      2.28310493e-03 0. 0. 0. 0. 0. 0. 0. 0. 0. 0. 0. 2.28310493e-03 0.
      0. 0. 0. 2.28310493e-03 0. 0. 2.28310493e-03 0. 0. 0.
      2.28310493e-03 0. 0. 0. 0. 0. 2.28310493e-03 0. 0. 0. 0.
      2.28310493e-03 0. 0. 0. 9.13241971e-03 0. 0. 0. 2.28310493e-03
      2.28310493e-03 0. 0. 2.28310493e-03 0. 0. 0. 0. 2.28310493e-03
      2.28310493e-03 2.28310493e-03 0. 0. 0. 2.28310493e-03
      2.28310493e-03 0. 2.28310493e-03 0. 2.28310493e-03 0. 0.
      2.28310493e-03 0. 0. 4.56620986e-03 0. 2.28310493e-03 0. 0.
      2.28310493e-03 2.28310493e-03 2.28310493e-03 0. 0. 0. 0.
      2.28310493e-03 0. 0. 4.56620986e-03 0. 0. 6.84931502e-03 0. 0.
      2.28310493e-03 0. 0. 0. 2.28310493e-03 0. 0. 0. 0. 0. 0. 0.
      2.28310493e-03 0. 0. 6.84931502e-03 0. 2.28310493e-03
      2.28310493e-03 0. 0. 0. 0. 4.56620986e-03 0. 0. 0. 4.56620986e-03
      0. 0. 4.56620986e-03 0. 4.56620986e-03 0. 0. 0. 0. 0. 0. 0. 0.
      6.84931502e-03 0. 0. 0. 0. 0. 4.56620986e-03 0. 0. 2.28310493e-03
      0. 0. 0. 2.28310493e-03 0. 0. 0. 0. 2.28310493e-03 2.28310493e-03
      0. 2.28310493e-03 0. 0. 2.28310493e-03 0. 0. 2.28310493e-03 0.
      2.28310493e-03 0. 2.28310493e-03 0. 0. 0. 2.28310493e-03 0.
      2.28310493e-03 0. 1.14155244e-02 0. 0. 0. 2.28310493e-03 0. 0. 0.
      6.84931502e-03 2.28310493e-03 0. 2.28310493e-03 2.28310493e-03 0.
      0. 6.84931502e-03 4.56620986e-03 0. 0. 0. 0. 6.84931502e-03
      4.56620986e-03 4.56620986e-03 0. 0. 0. 0. 0. 0. 2.28310493e-03 0.
      0. 0. 0. 0. 0. 0. 0. 0. 4.56620986e-03 0. 2.28310493e-03 0.
      4.56620986e-03 0. 2.28310493e-03 0. 0. 0. 2.28310493e-03 0. 0. 0.
      4.56620986e-03 0. 0. 0. 0. 0. 0. 0. 0. 0. 0. 0. 0. 6.84931502e-03
      0. 0. 0. 0. 0. 0. 0. 4.56620986e-03 0. 0. 0. 0. 0. 9.13241971e-03
      2.28310493e-03 0. 0. 9.13241971e-03 0. 0. 0. 0. 0. 2.28310493e-03
      4.56620986e-03 6.84931502e-03 0. 2.28310493e-03 0. 0. 0. 0. 0. 0.
      0. 2.28310493e-03 2.28310493e-03 0. 0. 2.28310493e-03 0. 0. 0. 0.
      0. 0. 0. 0. 0. 4.56620986e-03 4.56620986e-03 2.28310493e-03 0. 0.
      0. 0. 0. 0. 4.56620986e-03 2.28310493e-03 4.56620986e-03
      2.28310493e-03 4.56620986e-03 0. 0. 0. 0. 0. 0. 9.13241971e-03 0.
      0. 0. 0. 0. 0. 0. 0. 0. 2.28310493e-03 0. 0. 0. 0. 0. 0. 0. 0. 0.
      9.13241971e-03 0. 1.36986300e-02 2.28310493e-03 6.84931502e-03 0.
      0. 0. 6.84931502e-03 0. 0. 0. 2.28310493e-03 0. 2.28310493e-03 0.
      0. 0. 0. 0. 0. 4.56620986e-03 0. 0. 0. 2.28310493e-03 0. 0. 0. 0.
      0. 0. 0. 0. 0. 6.84931502e-03 0. 2.28310493e-03 0. 2.28310493e-03
      0. 0. 0. 2.28310493e-03 0. 0. 0. 1.59817338e-02 1.36986300e-02
      6.84931502e-03 2.28310493e-03 0. 0. 2.28310493e-03 0. 0. 0. 0.
      2.28310493e-03 0. 0. 2.28310493e-03 0. 2.28310493e-03 0. 0. 0. 0.
      0. 2.28310493e-03 9.13241971e-03 0. 0. 2.28310493e-03 0. 0. 0. 0.
      0. 0. 0. 0. 2.28310493e-03 0. 0. 2.28310493e-03 2.28310493e-03 0.
      0. 0. 2.28310493e-03 0. 2.28310493e-03</_>
    <_>
      0. 0. 0. 0. 0. 0. 0. 0. 0. 0. 0. 0. 0. 0. 7.54716992e-03 0. 0. 0.
      0. 1.13207549e-02 3.77358496e-03 0. 3.77358496e-03 0. 0. 0. 0. 0.
      0. 0. 0. 7.54716992e-03 0. 0. 3.77358496e-03 0. 0. 0.
      3.77358496e-03 0. 0. 0. 0. 0. 0. 0. 0. 0. 0. 0. 3.77358496e-03 0.
      0. 0. 0. 0. 0. 0. 0. 0. 0. 0. 3.77358496e-03 0. 0. 0. 0.
      3.77358496e-03 0. 3.77358496e-03 0. 0. 0. 3.77358496e-03 0. 0. 0.
      0. 0. 0. 0. 0. 0. 1.13207549e-02 0. 0. 3.77358496e-03 0. 0.
      3.77358496e-03 0. 0. 0. 0. 0. 0. 0. 0. 0. 0. 7.54716992e-03 0. 0.
      3.77358496e-03 0. 0. 0. 0. 0. 3.77358496e-03 0. 0. 0. 0.
      3.77358496e-03 0. 0. 0. 0. 0. 3.77358496e-03 7.54716992e-03 0. 0.
      3.77358496e-03 0. 0. 0. 0. 0. 0. 3.77358496e-03 0. 7.54716992e-03
      0. 0. 0. 0. 3.77358496e-03 0. 7.54716992e-03 1.50943398e-02 0. 0.
      0. 3.77358496e-03 0. 0. 0. 3.77358496e-03 0. 0. 0. 0. 0. 0. 0. 0.
      1.13207549e-02 7.54716992e-03 0. 0. 0. 0. 0. 0. 0. 3.77358496e-03
      0. 0. 0. 0. 0. 0. 0. 0. 0. 0. 0. 0. 3.77358496e-03 0. 0. 0. 0. 0.
      0. 7.54716992e-03 0. 0. 0. 0. 0. 0. 0. 0. 0. 0. 0. 0. 0. 0. 0. 0.
      0. 0. 3.77358496e-03 0. 0. 0. 0. 0. 0. 0. 0. 3.77358496e-03 0. 0.
      0. 0. 0. 0. 0. 0. 0. 0. 0. 0. 0. 0. 0. 0. 0. 0. 3.77358496e-03 0.
      0. 0. 0. 0. 0. 0. 0. 0. 0. 0. 0. 0. 0. 0. 0. 0. 0. 0. 0. 0. 0. 0.
      0. 0. 0. 0. 3.77358496e-03 0. 3.77358496e-03 0. 1.13207549e-02 0.
      3.77358496e-03 7.54716992e-03 0. 0. 0. 1.13207549e-02 0. 0.
      3.77358496e-03 0. 0. 0. 0. 0. 0. 0. 0. 0. 0. 0. 0. 0.
      3.77358496e-03 0. 0. 0. 0. 0. 3.77358496e-03 0. 0. 3.77358496e-03
      0. 3.77358496e-03 0. 0. 0. 0. 3.77358496e-03 0. 3.77358496e-03 0.
      0. 0. 0. 0. 7.54716992e-03 0. 0. 0. 7.54716992e-03 0. 0. 0. 0. 0.
      0. 0. 0. 0. 3.77358496e-03 0. 0. 0. 0. 0. 0. 0. 0. 0. 0. 0. 0. 0.
      0. 0. 0. 0. 0. 0. 0. 0. 0. 0. 3.77358496e-03 0. 3.77358496e-03
      3.77358496e-03 3.77358496e-03 0. 0. 3.77358496e-03 0. 0. 0. 0. 0.
      0. 3.77358496e-03 0. 0. 0. 0. 0. 0. 0. 0. 0. 3.77358496e-03 0.
      3.77358496e-03 0. 0. 0. 0. 0. 0. 0. 0. 0. 0. 0. 0. 0.
      3.77358496e-03 0. 0. 0. 3.77358496e-03 0. 0. 0. 0. 0.
      1.13207549e-02 0. 0. 0. 0. 0. 3.77358496e-03 0. 0. 0. 0. 0.
      3.77358496e-03 0. 0. 0. 0. 7.54716992e-03 0. 0. 0. 0. 0. 0. 0. 0.
      0. 0. 0. 0. 0. 0. 3.77358496e-03 0. 0. 0. 3.77358496e-03 0. 0.
      3.77358496e-03 0. 3.77358496e-03 0. 3.77358496e-03 0.
      3.77358496e-03 0. 0. 0. 0. 0. 0. 0. 0. 0. 0. 0. 0. 0. 0. 0. 0. 0.
      3.77358496e-03 0. 0. 3.77358496e-03 0. 0. 0. 0. 0. 0. 0. 0. 0. 0.
      0. 0. 3.77358496e-03 0. 0. 0. 0. 7.54716992e-03 0. 0. 0. 0. 0. 0.
      0. 0. 0. 0. 0. 0. 1.13207549e-02 0. 0. 0. 0. 0. 7.54716992e-03 0.
      0. 0. 0. 0. 0. 0. 3.77358496e-03 0. 0. 0. 0. 0. 7.54716992e-03 0.
      0. 3.77358496e-03 0. 0. 0. 0. 3.77358496e-03 0. 0. 0. 0. 0.
      3.77358496e-03 3.77358496e-03 7.54716992e-03 0. 0. 7.54716992e-03
      0. 0. 0. 0. 0. 0. 0. 0. 0. 0. 0. 0. 0. 0. 0. 0. 0. 0.
      3.77358496e-03 0. 3.77358496e-03 0. 0. 7.54716992e-03
      3.77358496e-03 3.77358496e-03 0. 0. 0. 3.77358496e-03
      3.77358496e-03 0. 0. 0. 0. 3.77358496e-03 0. 0. 0. 7.54716992e-03
      0. 0. 3.77358496e-03 0. 0. 0. 0. 0. 0. 0. 0. 0. 0. 0.
      3.77358496e-03 0. 0. 0. 0. 0. 0. 3.77358496e-03 0. 0. 0.
      7.54716992e-03 0. 0. 0. 0. 0. 0. 0. 0. 0. 0. 0. 0. 3.77358496e-03
      7.54716992e-03 2.26415098e-02 7.54716992e-03 0. 0. 3.77358496e-03
      0. 1.13207549e-02 0. 3.77358496e-03 0. 0. 0. 0. 3.77358496e-03
      3.77358496e-03 0. 3.77358496e-03 0. 3.77358496e-03 0. 0. 0.
      7.54716992e-03 0. 3.77358496e-03 0. 0. 0. 0. 0. 3.77358496e-03 0.
      3.77358496e-03 0. 0. 0. 0. 0. 0. 0. 0. 0. 3.77358496e-03 0. 0. 0.
      7.54716992e-03 3.77358496e-03 0. 0. 0. 1.13207549e-02 0.
      3.77358496e-03 0. 3.77358496e-03 0. 0. 0. 0. 0. 0. 0. 0. 0. 0. 0.
      0. 7.54716992e-03 0. 0. 0. 0. 0. 0. 0. 3.77358496e-03 0. 0. 0. 0.
      0. 0. 7.54716992e-03 0. 0. 0. 0. 0. 0. 0. 0. 3.77358496e-03 0. 0.
      0. 0. 7.54716992e-03 0. 0. 3.77358496e-03 0. 0. 0. 0.
      3.77358496e-03 0. 0. 0. 0. 3.77358496e-03 0. 0. 0. 0. 0. 0. 0. 0.
      7.54716992e-03 0. 0. 0. 0. 0. 3.77358496e-03 0. 7.54716992e-03
      3.77358496e-03 0. 0. 0. 0. 0. 0. 0. 1.13207549e-02 0. 0.
      1.13207549e-02 0. 0. 0. 0. 0. 3.77358496e-03 0. 0. 0. 0. 0. 0. 0.
      0. 0. 0. 0. 0. 3.77358496e-03 0. 1.13207549e-02 0. 3.77358496e-03
      0. 3.77358496e-03 3.77358496e-03 3.77358496e-03 0. 0. 0. 0.
      3.77358496e-03 0. 3.77358496e-03 0. 3.77358496e-03 0. 0. 0.
      3.77358496e-03 3.77358496e-03 0. 0. 0. 0. 0. 0. 0. 0. 0. 0. 0. 0.
      0. 0. 3.77358496e-03 0. 0. 0. 0. 0. 0. 0. 0. 3.77358496e-03 0. 0.
      0. 0. 0. 0. 0. 0. 0. 0. 0. 7.54716992e-03 0. 0. 0. 0. 0. 0.
      3.77358496e-03 0. 0. 0. 0. 0. 0. 3.77358496e-03 3.77358496e-03 0.
      0. 0. 0. 3.77358496e-03 7.54716992e-03 7.54716992e-03 0. 0. 0. 0.
      0. 3.77358496e-03 3.77358496e-03 0. 0. 0. 0. 3.77358496e-03 0. 0.
      0. 0. 0. 0. 0. 0. 0. 7.54716992e-03 0. 0. 0. 0. 0. 0.
      3.77358496e-03 1.50943398e-02 3.77358496e-03 0. 0. 0. 0. 0. 0. 0.
      0. 0. 0. 0. 0. 0. 0. 0. 0. 3.77358496e-03 0. 0. 0. 0. 0.
      3.77358496e-03 0. 0. 3.77358496e-03 0. 1.13207549e-02 0. 0. 0. 0.
      1.13207549e-02 0. 0. 3.77358496e-03 0. 1.50943398e-02 0. 0.
      3.77358496e-03 3.77358496e-03 0. 0. 0. 0. 0. 0. 3.77358496e-03 0.
      0. 0. 0. 0. 0. 7.54716992e-03 0. 0. 0. 3.77358496e-03 0. 0. 0. 0.
      0. 0. 0. 0. 0. 0. 0. 0. 0. 0. 0. 0. 3.77358496e-03 0.
      7.54716992e-03 0. 0. 1.50943398e-02 0. 0. 0. 0. 0. 3.77358496e-03
      0. 0. 0. 0. 0. 0. 0. 0. 0. 0. 0. 0. 7.54716992e-03 0. 0. 0. 0. 0.
      0. 0. 1.13207549e-02 0. 3.77358496e-03</_>
    <_>
      0. 6.42673520e-04 0. 0. 6.42673520e-04 0. 0. 0. 1.28534704e-03 0.
      1.28534704e-03 3.85604100e-03 0. 2.57069408e-03 6.42673520e-04
      1.28534704e-03 6.42673520e-04 0. 0. 3.21336766e-03 6.42673520e-04
      0. 1.09254494e-02 0. 0. 1.92802050e-03 6.42673520e-04
      6.42673520e-04 0. 0. 0. 0. 0. 0. 3.21336766e-03 0. 0. 0. 0.
      7.71208201e-03 1.28534704e-03 6.42673520e-04 0. 0. 0. 0.
      6.42673520e-04 0. 0. 0. 1.28534704e-03 0. 0. 0. 0. 0. 0.
      6.42673520e-04 6.42673520e-04 1.28534704e-03 0. 4.49871458e-03
      6.42673520e-04 6.42673520e-04 1.92802050e-03 6.42673520e-04
      1.28534704e-03 7.71208201e-03 0. 6.42673532e-03 1.92802050e-03 0.
      3.85604100e-03 6.42673520e-04 0. 0. 0. 1.28534704e-03 0. 0. 0. 0.
      0. 1.92802050e-03 2.57069408e-03 0. 1.41388178e-02 0. 0. 0. 0. 0.
      0. 1.28534704e-03 1.28534704e-03 0. 1.09254494e-02 0.
      5.14138816e-03 0. 1.92802050e-03 2.57069408e-03 0. 1.28534704e-03
      6.42673520e-04 1.28534704e-03 2.57069408e-03 0. 0. 1.92802050e-03
      0. 1.28534704e-03 0. 1.28534704e-03 0. 0. 0. 0. 3.21336766e-03 0.
      1.28534704e-03 1.28534704e-03 6.42673520e-04 0. 1.28534704e-03
      5.14138816e-03 0. 0. 0. 0. 6.42673520e-04 6.42673520e-04 0. 0.
      6.42673520e-04 1.28534704e-03 6.42673520e-04 0. 3.85604100e-03
      3.21336766e-03 6.42673520e-04 1.28534704e-03 6.42673532e-03
      2.57069408e-03 6.42673520e-04 6.42673520e-04 0. 0. 0.
      5.14138816e-03 0. 6.42673520e-04 6.42673520e-04 0. 0. 0. 0. 0.
      3.85604100e-03 0. 1.28534704e-03 0. 0. 0. 1.28534704e-03
      3.85604100e-03 0. 3.21336766e-03 6.42673520e-04 1.92802050e-03 0.
      0. 2.57069408e-03 1.92802050e-03 0. 2.57069408e-03 1.28534704e-03
      0. 0. 0. 0. 1.28534704e-03 0. 0. 0. 6.42673520e-04 0.
      5.14138816e-03 1.28534704e-03 3.21336766e-03 7.71208201e-03
      6.42673520e-04 0. 0. 0. 6.42673520e-04 0. 6.42673520e-04
      1.28534704e-03 1.28534704e-03 0. 2.31362469e-02 0. 0. 0. 0.
      6.42673520e-04 0. 1.92802050e-03 6.42673520e-04 0. 0.
      6.42673520e-04 1.28534704e-03 5.14138816e-03 6.42673520e-04
      1.92802050e-03 1.28534704e-03 0. 0. 1.92802050e-03 1.92802050e-03
      0. 1.28534704e-03 0. 6.42673520e-04 6.42673520e-04 0. 0. 0.
      6.42673520e-04 0. 6.42673520e-04 0. 2.57069408e-03 6.42673520e-04
      6.42673520e-04 1.28534704e-03 0. 0. 6.42673520e-04 0.
      1.28534704e-03 0. 0. 2.57069408e-03 1.28534704e-03 3.21336766e-03
      0. 6.42673520e-04 6.42673520e-04 0. 6.42673520e-04 0.
      6.42673520e-04 0. 0. 0. 6.42673520e-04 0. 0. 0. 0. 3.21336766e-03
      0. 0. 2.57069408e-03 6.42673520e-04 6.42673520e-04 1.28534704e-03
      1.92802050e-03 2.57069408e-03 1.28534704e-03 1.92802050e-03
      3.85604100e-03 0. 0. 0. 0. 2.57069408e-03 0. 1.92802050e-03 0.
      6.42673520e-04 6.42673520e-04 6.42673520e-04 6.42673520e-04
      6.42673520e-04 0. 1.28534704e-03 2.57069408e-03 1.28534704e-03
      6.42673520e-04 1.28534704e-03 0. 0. 5.14138816e-03 1.92802050e-03
      6.42673520e-04 6.42673520e-04 6.42673520e-04 2.57069408e-03 0. 0.
      0. 1.28534704e-03 3.21336766e-03 1.28534704e-03 1.28534704e-03
      4.17737775e-02 1.92802050e-03 6.42673520e-04 1.28534704e-03
      6.42673520e-04 3.85604100e-03 1.92802050e-03 1.92802050e-03 0.
      6.42673520e-04 0. 4.24164534e-02 0. 0. 0. 6.42673520e-04
      1.92802050e-03 5.14138816e-03 1.22107966e-02 6.42673520e-04
      1.92802050e-03 6.42673520e-04 0. 2.57069408e-03 6.42673520e-04 0.
      1.28534704e-03 6.42673520e-04 6.42673520e-04 0. 0. 0.
      3.21336766e-03 1.28534704e-03 6.42673520e-04 1.28534704e-03 0.
      1.28534704e-03 0. 0. 6.42673520e-04 1.28534704e-03 0. 0. 0. 0. 0.
      6.42673520e-04 6.42673520e-04 6.42673520e-04 0. 6.42673520e-04
      6.42673520e-04 1.28534704e-03 0. 0. 0. 6.42673520e-04 0.
      6.42673520e-04 0. 3.21336766e-03 2.57069408e-03 0. 2.57069408e-03
      0. 6.42673520e-04 0. 6.42673520e-04 1.09254494e-02 6.42673520e-04
      0. 1.28534704e-03 6.42673520e-04 0. 1.28534704e-03 6.42673520e-04
      0. 6.42673520e-04 0. 0. 0. 0. 5.78406174e-03 0. 6.42673520e-04 0.
      1.92802050e-03 1.92802050e-03 1.28534704e-03 6.42673520e-04 0. 0.
      1.28534704e-03 0. 0. 0. 0. 0. 1.92802050e-03 1.28534704e-03 0. 0.
      1.92802050e-03 6.42673520e-04 1.02827763e-02 0. 6.42673520e-04 0.
      0. 3.85604100e-03 0. 0. 0. 0. 0. 1.28534704e-03 0. 1.28534704e-03
      0. 1.28534704e-03 6.42673520e-04 1.92802050e-03 6.42673520e-04 0.
      0. 0. 6.42673520e-04 1.92802050e-03 0. 6.42673520e-04 0. 0. 0.
      6.42673520e-04 0. 0. 0. 1.92802050e-03 5.14138816e-03 0. 0. 0. 0.
      0. 2.57069408e-03 0. 2.57069408e-03 0. 2.57069408e-03
      6.42673520e-04 0. 1.92802050e-03 1.28534704e-03 6.42673520e-04
      6.42673520e-04 0. 6.42673520e-04 6.42673520e-04 6.42673520e-04 0.
      0. 6.42673520e-04 6.42673520e-04 6.42673520e-04 4.49871458e-03 0.
      1.28534704e-03 1.92802050e-03 0. 0. 1.28534704e-03 1.92802050e-03
      1.28534704e-03 0. 0. 0. 1.28534704e-03 0. 6.42673520e-04 0.
      6.42673520e-04 0. 1.28534704e-03 0. 0. 6.42673520e-04 0.
      1.92802050e-03 1.92802050e-03 0. 3.21336766e-03 0. 6.42673520e-04
      0. 0. 0. 6.42673520e-04 0. 0. 0. 0. 6.42673520e-04 6.42673520e-04
      0. 6.42673520e-04 2.57069408e-03 0. 1.28534704e-03 0.
      2.57069408e-03 0. 6.42673520e-04 1.28534704e-03 0. 2.57069408e-03
      6.42673520e-04 1.28534704e-03 0. 1.28534704e-03 0. 0.
      6.42673520e-04 0. 1.92802050e-03 5.78406174e-03 2.57069408e-03
      6.42673520e-04 0. 1.28534704e-03 1.28534704e-03 6.42673520e-04 0.
      0. 1.28534704e-03 6.42673520e-04 6.42673520e-04 0. 0. 0. 0. 0.
      1.28534704e-03 5.14138816e-03 0. 6.42673520e-04 0. 0.
      2.57069408e-03 6.42673520e-04 6.42673520e-04 0. 6.42673520e-04 0.
      1.28534704e-03 1.28534704e-03 0. 3.21336766e-03 0. 0.
      3.21336766e-03 6.42673520e-04 6.42673520e-04 0. 6.42673520e-04
      6.42673520e-04 0. 0. 1.28534704e-03 6.42673520e-04 0.
      1.28534704e-03 6.42673520e-04 0. 0. 0. 0. 6.42673520e-04 0.
      6.42673520e-04 6.42673532e-03 1.92802050e-03 0. 0. 0. 0. 0. 0.
      1.28534704e-03 0. 0. 6.42673520e-04 0. 1.28534704e-03 0. 0.
      1.28534704e-03 6.42673520e-04 1.92802050e-03 6.42673520e-04
      6.42673520e-04 1.28534704e-03 6.42673520e-04 0. 1.28534704e-03
      1.92802050e-03 6.42673520e-04 0. 0. 6.42673520e-04 3.85604100e-03
      1.28534704e-03 6.42673520e-04 5.14138816e-03 1.92802050e-03
      6.42673520e-04 1.28534704e-03 6.42673520e-04 1.54241640e-02
      6.42673520e-04 0. 6.42673520e-04 6.42673520e-04 0. 0. 0.
      6.42673520e-04 0. 0. 0. 1.28534704e-03 0. 2.57069408e-03 0.
      6.42673520e-04 2.57069408e-03 6.42673520e-04 6.42673520e-04
      6.42673520e-04 0. 6.42673520e-04 6.42673520e-04 0. 1.28534704e-03
      6.42673520e-04 0. 0. 1.28534704e-03 0. 1.28534704e-03 0. 0.
      1.28534704e-03 2.57069408e-03 6.42673520e-04 6.42673520e-04
      6.42673520e-04 2.57069408e-03 0. 0. 1.28534704e-03 6.42673520e-04
      0. 0. 6.42673520e-04 0. 6.42673520e-04 6.42673520e-04
      1.28534704e-03 3.85604100e-03 2.57069408e-03 0. 0. 0.
      1.28534704e-03 0. 0. 1.92802050e-03 6.42673520e-04 6.42673520e-04
      0. 0. 1.92802050e-03 0. 0. 6.42673520e-04 1.28534704e-03 0. 0.
      6.42673520e-04 0. 0. 0. 1.28534704e-03 3.85604100e-03
      1.92802050e-03 0. 6.42673520e-04 0. 0. 2.57069408e-03 0. 0.
      6.42673520e-04 6.42673520e-04 6.42673520e-04 6.42673520e-04 0.
      1.28534704e-03 0. 1.28534704e-03 2.57069408e-03 0. 1.92802050e-03
      6.42673520e-04 6.42673520e-04 1.92802050e-03 4.49871458e-03 0. 0.
      6.42673520e-04 0. 6.42673520e-04 0. 6.42673520e-04 0.
      6.42673520e-04 0. 0. 6.42673520e-04 0. 1.92802050e-03 0.
      1.28534704e-03 6.42673520e-04 1.28534704e-03 6.42673520e-04 0. 0.
      6.42673520e-04 0. 6.42673520e-04 6.42673520e-04 6.42673520e-04
      1.28534704e-03 0. 6.42673532e-03 6.42673520e-04 0. 1.28534704e-03
      6.42673520e-04 0. 0. 0. 6.42673520e-04 0. 0. 1.92802050e-03
      6.42673520e-04 3.85604100e-03 6.42673520e-04 0. 3.85604100e-03
      1.28534704e-03 1.28534704e-03 0. 0. 0. 0. 0. 6.42673520e-04
      3.21336766e-03 0. 6.42673520e-04 6.42673520e-04 0. 0.
      6.42673520e-04 1.28534704e-03 0. 6.42673520e-04 0. 1.28534704e-03
      0. 0. 6.42673520e-04 0. 0. 1.28534704e-03 6.42673520e-04 0.
      1.28534704e-03 0. 0. 0. 6.42673520e-04 0. 1.92802050e-03 0. 0.
      3.85604100e-03 6.42673520e-04 0. 6.42673520e-04 0. 0. 0.
      6.42673520e-04 1.28534704e-03 6.42673520e-04 0. 3.85604100e-03
      2.57069408e-03 0. 0. 0. 0. 0. 1.28534704e-03 6.42673520e-04
      6.42673520e-04 6.42673520e-04 6.42673520e-04 1.92802050e-03 0.
      6.42673520e-04 1.28534704e-03 2.57069408e-03 0. 0. 6.42673520e-04
      6.42673520e-04 0. 0. 6.42673520e-04 6.42673520e-04 1.92802050e-03
      6.42673520e-04 5.78406174e-03 6.42673520e-04 0. 1.28534704e-03 0.
      0. 0. 6.42673520e-04 6.42673520e-04 1.28534704e-03 6.42673520e-04
      0. 0. 1.92802050e-03 0. 6.42673520e-04 6.42673520e-04 0. 0.
      5.78406174e-03 2.57069408e-03 6.42673520e-04 1.28534704e-03 0. 0.
      0. 0. 0. 6.42673520e-04 6.42673520e-04 1.28534704e-03
      1.92802050e-03 6.42673520e-04 0. 0. 0. 0. 6.42673520e-04
      1.92802050e-03 6.42673520e-04 6.42673532e-03 1.28534704e-03 0. 0.
      6.42673520e-04 6.42673520e-04 0. 3.21336766e-03 0. 0.
      6.42673520e-04 0. 0. 6.42673520e-04 0. 0. 0. 6.42673520e-04 0. 0.
      6.42673520e-04 6.42673520e-04 1.92802050e-03 6.42673520e-04
      6.42673520e-04 0. 0. 6.42673520e-04 1.92802050e-03 6.42673520e-04
      6.42673520e-04 0. 0. 1.92802050e-03 0. 0. 6.42673520e-04 0. 0.
      6.42673520e-04 6.42673520e-04 6.42673520e-04 6.42673520e-04 0. 0.
      6.42673520e-04 6.42673520e-04 0. 6.42673520e-04 0. 7.71208201e-03
      6.42673520e-04 0. 6.42673520e-04 0. 6.42673520e-04 6.42673520e-04
      1.47814909e-02 6.42673520e-04 1.28534704e-03 0. 0. 0.
      1.28534704e-03 6.42673520e-04 0. 6.42673520e-04 1.28534704e-03
      1.28534704e-03 0. 0. 0. 1.28534704e-03 4.49871458e-03 0.
      3.21336766e-03 6.42673520e-04 0. 0. 0. 0. 6.42673520e-04
      6.42673520e-04 1.28534704e-03 0. 0. 6.42673520e-04 0.
      5.78406174e-03 6.42673520e-04 1.92802050e-03 6.42673520e-04 0.
      2.57069408e-03 6.42673520e-04 6.42673520e-04 0. 0. 6.42673520e-04
      0. 1.92802050e-03 0. 6.42673520e-04 0. 0. 5.78406174e-03 0. 0. 0.
      6.42673520e-04 6.42673520e-04 0. 0.</_>
    <_>
      0. 0. 0. 0. 1.71969051e-03 0. 0. 0. 0. 0. 1.20378332e-02
      4.29922622e-03 0. 1.71969051e-03 0. 0. 2.57953582e-03 0. 0.
      1.71969051e-03 2.57953582e-03 0. 6.87876204e-03 0. 0.
      3.43938102e-03 0. 1.71969051e-03 0. 8.59845255e-04 0. 0. 0.
      8.59845255e-04 6.01891661e-03 0. 8.59845255e-04 0. 0.
      2.57953582e-03 0. 2.57953582e-03 8.59845255e-04 8.59845255e-04 0.
      0. 2.57953582e-03 0. 8.59845255e-04 0. 0. 1.71969051e-03 0. 0.
      8.59845255e-04 0. 0. 8.59845255e-04 8.59845255e-04 0. 0.
      1.71969051e-03 8.59845255e-04 8.59845255e-04 8.59845255e-04 0. 0.
      3.43938102e-03 0. 1.71969051e-03 8.59845255e-04 8.59845255e-04
      3.43938102e-03 0. 0. 3.43938102e-03 0. 3.43938102e-03 0. 0. 0. 0.
      0. 8.59845255e-04 3.43938102e-03 0. 8.59845243e-03 8.59845255e-04
      0. 0. 0. 0. 0. 0. 0. 8.59845255e-04 8.59845243e-03 0.
      8.59845243e-03 0. 0. 0. 0. 2.57953582e-03 0. 8.59845255e-04 0. 0.
      0. 8.59845255e-04 0. 0. 0. 0. 0. 8.59845255e-04 0. 0. 0. 0. 0.
      2.57953582e-03 0. 0. 0. 5.15907165e-03 0. 8.59845255e-04
      8.59845255e-04 1.71969051e-03 0. 0. 0. 3.43938102e-03
      2.57953582e-03 8.59845255e-04 4.29922622e-03 0. 0. 0. 0. 0.
      8.59845243e-03 1.71969051e-03 8.59845255e-04 0. 8.59845255e-04 0.
      0. 1.71969051e-03 0. 8.59845255e-04 0. 0. 8.59845255e-04
      2.57953582e-03 0. 0. 4.29922622e-03 8.59845255e-04 0. 0. 0.
      3.43938102e-03 0. 4.29922622e-03 0. 8.59845255e-04 0.
      2.57953582e-03 0. 1.71969051e-03 0. 0. 0. 0. 0. 0. 0. 0. 0.
      1.71969051e-03 0. 0. 0. 8.59845255e-04 0. 4.29922622e-03
      2.57953582e-03 8.59845255e-04 2.57953582e-03 0. 0. 0. 0. 0. 0. 0.
      0. 1.71969051e-03 8.59845255e-04 3.18142734e-02 1.71969051e-03 0.
      8.59845255e-04 0. 1.71969051e-03 0. 0. 8.59845255e-04 0. 0. 0.
      3.43938102e-03 3.43938102e-03 3.43938102e-03 0. 0. 0.
      1.71969051e-03 0. 3.43938102e-03 8.59845255e-04 8.59845255e-04 0.
      0. 0. 0. 0. 0. 8.59845255e-04 0. 0. 8.59845255e-04 8.59845255e-04
      2.57953582e-03 8.59845255e-04 8.59845255e-04 0. 0. 8.59845255e-04
      0. 0. 0. 0. 0. 0. 8.59845255e-04 0. 0. 8.59845255e-04 0. 0. 0. 0.
      0. 0. 1.71969051e-03 1.71969051e-03 0. 8.59845255e-04
      8.59845255e-04 0. 0. 8.59845255e-04 0. 6.87876204e-03 0.
      1.71969051e-03 0. 8.59845255e-04 2.57953582e-03 8.59845255e-04
      2.57953582e-03 0. 1.71969051e-03 0. 0. 8.59845255e-04
      8.59845255e-04 1.71969051e-03 4.29922622e-03 0. 1.71969051e-03 0.
      1.71969051e-03 0. 0. 0. 1.71969051e-03 6.01891661e-03
      1.71969051e-03 0. 0. 0. 0. 1.11779887e-02 2.57953582e-03 0. 0.
      8.59845255e-04 5.15907165e-03 8.59845255e-04 0. 8.59845255e-04
      3.43938102e-03 4.29922622e-03 1.71969051e-03 0. 2.40756664e-02
      3.43938102e-03 0. 8.59845255e-04 0. 1.71969051e-03 1.71969051e-03
      2.57953582e-03 8.59845255e-04 6.01891661e-03 1.71969051e-03
      1.97764412e-02 0. 1.71969051e-03 0. 0. 1.71969051e-03
      1.71969051e-03 7.73860747e-03 0. 1.71969051e-03 8.59845255e-04 0.
      3.43938102e-03 0. 0. 1.71969051e-03 8.59845255e-04 8.59845255e-04
      0. 1.71969051e-03 0. 8.59845255e-04 8.59845255e-04 8.59845255e-04
      0. 0. 8.59845255e-04 0. 0. 0. 1.71969051e-03 8.59845255e-04 0. 0.
      0. 0. 8.59845255e-04 0. 0. 0. 0. 0. 0. 0. 0. 0. 0. 0. 0. 0.
      8.59845255e-04 0. 0. 2.57953582e-03 0. 8.59845255e-04
      8.59845255e-04 0. 6.87876204e-03 0. 8.59845255e-04 1.71969051e-03
      0. 8.59845255e-04 0. 0. 0. 1.71969051e-03 5.15907165e-03 0. 0. 0.
      4.29922622e-03 8.59845255e-04 0. 0. 4.29922622e-03 0.
      2.57953582e-03 0. 1.71969051e-03 0. 2.57953582e-03 0. 0. 0. 0.
      2.57953582e-03 8.59845255e-04 0. 1.71969051e-03 1.71969051e-03 0.
      8.59845255e-04 7.73860747e-03 0. 8.59845255e-04 0. 8.59845255e-04
      3.43938102e-03 0. 0. 1.71969051e-03 0. 0. 1.71969051e-03 0.
      1.71969051e-03 0. 0. 1.71969051e-03 6.01891661e-03 0.
      1.71969051e-03 0. 8.59845255e-04 0. 0. 0. 8.59845255e-04
      8.59845255e-04 0. 0. 8.59845255e-04 8.59845255e-04 0.
      8.59845255e-04 0. 6.87876204e-03 0. 0. 0. 0. 0. 0. 0. 0. 0.
      8.59845255e-04 2.57953582e-03 0. 8.59845255e-04 0. 0. 0. 0.
      8.59845255e-04 0. 0. 0. 0. 8.59845255e-04 0. 0. 5.15907165e-03 0.
      8.59845255e-04 0. 8.59845255e-04 8.59845255e-04 0. 1.71969051e-03
      0. 8.59845255e-04 0. 0. 4.29922622e-03 0. 1.71969051e-03
      8.59845255e-04 7.73860747e-03 0. 0. 0. 0. 8.59845255e-04 0.
      1.71969051e-03 8.59845255e-04 0. 1.71969051e-03 0. 8.59845255e-04
      0. 0. 2.57953582e-03 0. 0. 0. 0. 1.71969051e-03 0. 2.57953582e-03
      0. 1.71969051e-03 8.59845255e-04 0. 0. 8.59845255e-04 0.
      8.59845255e-04 0. 0. 0. 3.43938102e-03 8.59845255e-04
      8.59845255e-04 0. 2.57953582e-03 8.59845255e-04 0. 0. 0.
      2.57953582e-03 8.59845255e-04 8.59845255e-04 8.59845255e-04 0. 0.
      0. 0. 0. 0. 0. 0. 0. 8.59845255e-04 0. 2.57953582e-03
      8.59845255e-04 0. 0. 1.11779887e-02 0. 8.59845255e-04
      1.71969051e-03 0. 6.01891661e-03 8.59845255e-04 8.59845255e-04
      2.57953582e-03 0. 2.57953582e-03 0. 0. 0. 0. 8.59845255e-04 0.
      1.71969051e-03 8.59845255e-04 0. 8.59845255e-04 8.59845255e-04
      1.71969051e-03 0. 0. 0. 2.57953582e-03 0. 8.59845255e-04 0.
      8.59845255e-04 0. 8.59845255e-04 8.59845255e-04 0. 0. 0.
      8.59845243e-03 0. 0. 0. 8.59845255e-04 0. 0. 0. 0. 0.
      8.59845255e-04 1.71969051e-03 0. 0. 0. 8.59845255e-04 0. 0.
      8.59845255e-04 8.59845255e-04 0. 1.71969051e-03 8.59845255e-04
      8.59845255e-04 3.43938102e-03 0. 0. 0. 8.59845255e-04
      6.01891661e-03 3.43938102e-03 1.71969051e-03 0. 5.15907165e-03 0.
      8.59845255e-04 1.71969051e-03 8.59845255e-04 1.46173695e-02 0. 0.
      0. 0. 2.57953582e-03 0. 8.59845255e-04 8.59845255e-04
      8.59845255e-04 8.59845255e-04 8.59845255e-04 1.71969051e-03 0.
      8.59845255e-04 0. 8.59845255e-04 3.43938102e-03 0. 1.71969051e-03
      0. 0. 0. 0. 1.71969051e-03 0. 0. 1.71969051e-03 8.59845255e-04
      8.59845255e-04 0. 0. 0. 0. 0. 3.43938102e-03 0. 0. 8.59845255e-04
      1.71969051e-03 1.71969051e-03 1.71969051e-03 8.59845255e-04
      8.59845255e-04 0. 0. 8.59845255e-04 0. 2.57953582e-03 0.
      8.59845255e-04 8.59845243e-03 0. 8.59845255e-04 0. 1.71969051e-03
      8.59845255e-04 0. 0. 1.71969051e-03 8.59845255e-04 0. 0.
      1.71969051e-03 1.71969051e-03 0. 0. 0. 1.71969051e-03 0.
      8.59845255e-04 0. 0. 1.71969051e-03 1.71969051e-03 0.
      8.59845255e-04 1.71969051e-03 8.59845255e-04 8.59845255e-04 0.
      8.59845255e-04 0. 0. 4.29922622e-03 0. 0. 0. 0. 0. 0. 0. 0.
      3.43938102e-03 1.71969051e-03 8.59845255e-04 0. 1.71969051e-03
      8.59845255e-04 4.29922622e-03 0. 8.59845255e-04 8.59845255e-04 0.
      8.59845255e-04 0. 8.59845255e-04 0. 1.71969051e-03 8.59845255e-04
      0. 0. 0. 1.71969051e-03 0. 8.59845255e-04 0. 0. 0. 0.
      8.59845255e-04 0. 8.59845255e-04 2.57953582e-03 0. 0.
      8.59845255e-04 1.71969051e-03 8.59845255e-04 8.59845255e-04 0.
      1.71969051e-03 0. 8.59845255e-04 0. 0. 0. 0. 2.57953582e-03 0. 0.
      1.71969051e-03 0. 0. 1.71969051e-03 5.15907165e-03 1.71969051e-03
      8.59845255e-04 8.59845255e-04 0. 0. 0. 0. 6.01891661e-03
      8.59845255e-04 8.59845255e-04 8.59845255e-04 8.59845255e-04 0. 0.
      1.71969051e-03 0. 8.59845255e-04 1.71969051e-03 0. 8.59845255e-04
      8.59845255e-04 2.57953582e-03 0. 2.57953582e-03 0. 0. 0. 0.
      8.59845255e-04 1.71969051e-03 0. 0. 8.59845255e-04 8.59845255e-04
      0. 8.59845255e-04 3.43938102e-03 0. 8.59845255e-04 8.59845255e-04
      0. 0. 8.59845255e-04 2.57953582e-03 0. 0. 0. 8.59845255e-04 0. 0.
      0. 0. 8.59845255e-04 0. 0. 3.43938102e-03 0. 0. 0. 8.59845255e-04
      0. 0. 2.57953582e-03 2.57953582e-03 0. 0. 0. 8.59845255e-04
      1.71969051e-03 0. 0. 8.59845255e-04 1.71969051e-03 2.57953582e-03
      4.29922622e-03 0. 8.59845255e-04 0. 0. 0. 0. 0. 0. 0.
      1.71969051e-03 1.71969051e-03 0. 8.59845255e-04 0. 0.
      1.71969051e-03 8.59845255e-04 8.59845255e-04 3.43938102e-03
      2.57953582e-03 8.59845255e-04 0. 0. 0. 0. 0. 0. 8.59845255e-04 0.
      0. 0. 1.71969051e-03 0. 8.59845255e-04 1.71969051e-03 0.
      8.59845255e-04 8.59845255e-04 0. 1.71969051e-03 8.59845255e-04 0.
      2.57953582e-03 0. 1.71969051e-03 0. 1.71969051e-03 1.71969051e-03
      0. 8.59845255e-04 8.59845255e-04 0. 0. 0. 0. 0. 0. 0. 0.
      1.71969051e-03 2.57953582e-03 1.71969051e-03 8.59845255e-04
      8.59845255e-04 1.71969051e-03 0. 0. 1.71969051e-03 0. 0. 0. 0.
      8.59845255e-04 0. 1.71969051e-03 0. 1.71969051e-03 0. 0.
      8.59845255e-04 3.43938102e-03 0. 0. 0. 3.43938102e-03 0.
      2.57953582e-03 8.59845255e-04 0. 3.43938102e-03 0. 0. 0. 0.
      1.71969051e-03 8.59845255e-04 4.29922640e-02 8.59845255e-04 0. 0.
      8.59845255e-04 0. 2.57953582e-03 0. 8.59845255e-04 0. 0.
      1.71969051e-03 0. 1.71969051e-03 0. 1.71969051e-03 1.71969051e-03
      0. 4.29922622e-03 0. 8.59845255e-04 8.59845255e-04 8.59845255e-04
      0. 0. 2.57953582e-03 0. 0. 0. 8.59845255e-04 0. 3.43938102e-03 0.
      4.29922622e-03 0. 0. 1.71969051e-03 0. 8.59845255e-04
      1.71969051e-03 8.59845255e-04 0. 0. 0. 8.59845255e-04 0. 0. 0. 0.
      8.59845255e-04 0. 2.57953582e-03 0. 8.59845255e-04 0. 0.</_>
    <_>
      0. 0. 0. 0. 1.18343194e-03 0. 0. 0. 0. 1.18343194e-03 0.
      1.18343194e-03 0. 2.36686389e-03 1.18343194e-03 0. 0. 0. 0.
      2.36686389e-03 3.55029572e-03 0. 4.73372778e-03 0. 1.18343194e-03
      1.18343194e-03 0. 0. 1.18343194e-03 1.18343194e-03 0. 0. 0. 0. 0.
      1.18343194e-03 0. 0. 1.18343194e-03 1.18343194e-03 0. 0.
      3.55029572e-03 1.18343194e-03 0. 0. 1.18343194e-03 0. 0. 0. 0. 0.
      3.55029572e-03 1.18343194e-03 0. 1.18343194e-03 1.18343194e-03
      2.36686389e-03 0. 2.36686389e-03 1.18343194e-03 0. 1.18343194e-03
      0. 1.18343194e-03 0. 1.18343194e-03 7.10059144e-03 0.
      2.36686389e-03 1.18343194e-03 0. 3.55029572e-03 0. 2.36686389e-03
      1.18343194e-03 0. 4.73372778e-03 0. 1.18343194e-03 0. 0.
      1.18343194e-03 1.18343194e-03 1.18343194e-03 0. 9.46745556e-03 0.
      0. 1.18343194e-03 0. 0. 0. 0. 0. 0. 2.36686389e-03 0. 0. 0.
      1.18343194e-03 0. 1.18343194e-03 3.55029572e-03 2.36686389e-03 0.
      0. 2.36686389e-03 0. 1.18343194e-03 0. 0. 0. 0. 0. 0.
      2.36686389e-03 0. 0. 0. 1.18343194e-03 1.18343194e-03 0. 0.
      2.36686389e-03 0. 0. 1.18343194e-03 2.36686389e-03 0. 0. 0. 0.
      3.55029572e-03 2.36686389e-03 1.18343194e-03 2.36686389e-03
      1.18343194e-03 3.55029572e-03 0. 0. 2.36686389e-03 0. 0. 0.
      1.18343194e-03 1.18343194e-03 0. 0. 0. 1.18343194e-03
      1.18343194e-03 0. 1.18343194e-03 0. 5.91715984e-03 0. 0.
      1.18343194e-03 1.18343194e-03 0. 0. 0. 0. 0. 1.18343194e-03 0.
      4.73372778e-03 0. 1.18343194e-03 0. 0. 0. 0. 0. 0. 0. 0.
      1.18343194e-03 0. 0. 0. 1.18343194e-03 0. 2.36686389e-03
      2.36686389e-03 3.55029572e-03 2.36686389e-03 1.18343194e-03 0. 0.
      0. 0. 1.18343194e-03 1.18343194e-03 1.18343194e-03 1.18343194e-03
      0. 0. 1.18343194e-03 1.18343194e-03 0. 1.18343194e-03 0.
      1.18343194e-03 2.36686389e-03 1.18343194e-03 1.18343194e-03 0. 0.
      0. 0. 0. 0. 2.36686389e-03 2.36686389e-03 0. 4.73372778e-03 0. 0.
      0. 3.55029572e-03 5.91715984e-03 7.10059144e-03 0. 0.
      4.73372778e-03 0. 2.36686389e-03 0. 0. 1.18343194e-03 0. 0.
      1.18343194e-03 0. 0. 0. 0. 0. 0. 0. 2.36686389e-03 0. 0. 0. 0. 0.
      0. 1.18343194e-03 0. 1.18343194e-03 2.36686389e-03 0. 0. 0.
      1.18343194e-03 0. 0. 4.73372778e-03 1.18343194e-03 0.
      1.18343194e-03 1.18343194e-03 0. 1.18343194e-03 1.18343194e-03
      2.36686389e-03 1.18343194e-03 0. 0. 2.36686389e-03 1.18343194e-03
      7.10059144e-03 3.55029572e-03 0. 0. 1.18343194e-03 0.
      1.18343194e-03 0. 1.18343194e-03 1.18343194e-03 0. 0.
      5.91715984e-03 2.36686389e-03 2.36686389e-03 0. 0. 1.18343194e-03
      0. 0. 2.36686389e-03 0. 1.18343194e-03 9.46745556e-03 0. 0. 0. 0.
      1.18343197e-02 1.18343194e-03 0. 0. 0. 0. 3.55029572e-03
      2.36686389e-03 2.36686394e-02 2.36686389e-03 0. 2.36686389e-03 0.
      3.55029572e-03 0. 1.18343194e-03 0. 2.36686389e-03 0.
      1.89349111e-02 2.36686389e-03 0. 0. 0. 0. 5.91715984e-03
      1.30177513e-02 0. 1.18343194e-03 1.18343194e-03 0. 2.36686389e-03
      0. 0. 1.18343194e-03 5.91715984e-03 1.18343194e-03 1.18343194e-03
      0. 0. 0. 1.18343194e-03 0. 0. 0. 0. 0. 3.55029572e-03 0. 0.
      1.18343194e-03 0. 0. 0. 1.18343194e-03 4.73372778e-03 0. 0. 0. 0.
      0. 1.18343194e-03 0. 0. 0. 0. 0. 0. 3.55029572e-03 0. 0.
      3.55029572e-03 0. 0. 0. 1.18343194e-03 3.55029572e-03
      1.18343194e-03 0. 0. 1.18343194e-03 1.18343194e-03 0.
      1.18343194e-03 2.36686389e-03 0. 0. 1.18343194e-03 0.
      2.36686389e-03 0. 3.55029572e-03 1.18343194e-03 1.18343194e-03 0.
      0. 1.18343194e-03 0. 0. 0. 1.18343194e-03 4.73372778e-03 0. 0. 0.
      2.36686389e-03 0. 0. 2.36686389e-03 2.36686389e-03 1.18343194e-03
      0. 1.18343194e-03 1.18343194e-03 1.18343194e-03 0. 2.36686389e-03
      0. 2.36686389e-03 0. 0. 1.18343194e-03 1.18343194e-03 0. 0. 0.
      1.18343194e-03 0. 0. 1.18343194e-03 0. 0. 2.36686389e-03 0.
      1.18343194e-03 0. 0. 0. 0. 0. 0. 0. 0. 0. 2.36686389e-03
      1.18343194e-03 0. 0. 1.18343194e-03 2.36686389e-03 0. 0.
      1.18343194e-03 3.55029572e-03 1.18343194e-03 2.36686389e-03 0.
      1.18343194e-03 0. 1.18343194e-03 1.18343194e-03 0. 1.18343194e-03
      1.18343194e-03 1.18343194e-03 3.55029572e-03 1.18343194e-03 0. 0.
      1.18343194e-03 0. 2.36686389e-03 0. 1.18343194e-03 0.
      2.36686389e-03 0. 1.18343194e-03 0. 2.36686389e-03 3.55029572e-03
      1.18343194e-03 1.18343194e-03 1.18343194e-03 1.18343194e-03
      1.18343194e-03 1.18343194e-03 1.18343194e-03 0. 0. 0. 0. 0. 0.
      2.36686389e-03 0. 0. 3.55029572e-03 4.73372778e-03 1.18343194e-03
      1.18343194e-03 1.18343194e-03 0. 0. 0. 0. 1.18343194e-03 0. 0. 0.
      1.18343194e-03 0. 1.18343194e-03 1.18343194e-03 0. 0. 0.
      1.18343194e-03 1.18343194e-03 0. 0. 1.18343194e-03 3.55029572e-03
      4.73372778e-03 2.36686389e-03 1.18343194e-03 1.18343194e-03
      1.18343194e-03 2.36686389e-03 0. 0. 0. 2.36686389e-03
      3.55029572e-03 0. 2.36686389e-03 1.18343194e-03 0. 1.18343194e-03
      0. 1.18343194e-03 0. 0. 0. 0. 0. 0. 0. 0. 0. 0. 2.36686389e-03 0.
      0. 1.18343194e-03 7.10059144e-03 0. 1.18343194e-03 2.36686389e-03
      0. 0. 0. 0. 1.18343194e-03 0. 0. 0. 1.18343194e-03 0. 0. 0. 0. 0.
      0. 0. 0. 1.18343194e-03 0. 0. 0. 0. 0. 0. 4.73372778e-03
      1.18343194e-03 0. 0. 0. 4.73372778e-03 0. 0. 0. 1.18343194e-03
      1.18343194e-03 0. 1.18343194e-03 0. 0. 0. 0. 1.18343194e-03 0. 0.
      2.36686389e-03 0. 0. 0. 1.18343194e-03 1.18343194e-03
      1.18343194e-03 4.73372778e-03 1.18343194e-03 0. 1.18343194e-03
      2.36686389e-03 0. 0. 3.55029572e-03 5.91715984e-03 3.55029572e-03
      0. 4.73372778e-03 0. 1.18343194e-03 4.73372778e-03 1.18343194e-03
      0. 2.36686389e-03 0. 1.18343194e-03 0. 7.10059144e-03 0. 0. 0. 0.
      1.18343194e-03 0. 0. 0. 0. 0. 0. 1.42011829e-02 1.18343194e-03
      1.18343194e-03 0. 0. 1.18343194e-03 0. 2.36686389e-03
      1.18343194e-03 3.55029572e-03 1.18343194e-03 1.18343194e-03
      3.55029572e-03 0. 0. 0. 0. 0. 2.36686389e-03 2.36686389e-03 0.
      1.18343194e-03 1.18343194e-03 0. 0. 2.36686389e-03 0. 0.
      2.36686389e-03 1.18343194e-03 0. 4.73372778e-03 2.36686389e-03
      1.18343194e-03 2.36686389e-03 0. 1.18343194e-03 0. 0.
      1.18343194e-03 1.18343194e-03 2.36686389e-03 2.36686389e-03
      3.55029572e-03 0. 0. 2.36686389e-03 0. 0. 1.18343194e-03 0.
      1.18343194e-03 1.18343194e-03 0. 0. 0. 0. 0. 1.18343194e-03 0. 0.
      0. 3.55029572e-03 0. 0. 0. 0. 0. 0. 0. 1.18343194e-03
      1.18343194e-03 0. 0. 1.18343194e-03 0. 0. 0. 1.18343194e-03 0. 0.
      0. 0. 1.18343194e-03 1.18343194e-03 0. 0. 0. 0. 1.18343194e-03 0.
      0. 0. 1.18343194e-03 0. 0. 0. 0. 1.18343194e-03 0. 2.36686389e-03
      0. 0. 1.18343194e-03 2.36686389e-03 1.18343194e-03 0. 0. 0.
      1.18343194e-03 0. 4.73372778e-03 1.18343194e-03 0. 1.18343194e-03
      0. 1.18343194e-03 0. 0. 1.18343194e-03 0. 1.18343194e-03 0. 0. 0.
      1.18343194e-03 0. 1.18343194e-03 0. 0. 0. 2.36686389e-03 0.
      1.18343194e-03 3.55029572e-03 1.18343194e-03 0. 2.36686389e-03 0.
      3.55029572e-03 0. 1.18343194e-03 0. 0. 2.36686389e-03
      2.36686389e-03 4.73372778e-03 0. 0. 1.18343194e-03 0.
      3.55029572e-03 0. 1.18343194e-03 1.18343194e-03 0. 0. 0. 0.
      1.18343194e-03 1.18343194e-03 0. 1.18343194e-03 0. 0. 0. 0. 0. 0.
      1.18343194e-03 1.18343194e-03 2.36686389e-03 3.55029572e-03 0. 0.
      0. 5.91715984e-03 1.18343194e-03 0. 0. 0. 1.18343194e-03 0.
      1.18343194e-03 0. 0. 0. 1.18343194e-03 0. 0. 1.18343194e-03 0.
      1.18343194e-03 0. 0. 0. 0. 0. 2.36686389e-03 0. 0. 1.18343194e-03
      1.18343194e-03 9.46745556e-03 1.18343194e-03 0. 2.36686389e-03
      1.18343194e-03 0. 0. 3.55029572e-03 0. 0. 0. 3.55029572e-03
      1.18343194e-03 0. 0. 0. 0. 1.18343194e-03 0. 1.18343194e-03
      3.55029572e-03 1.18343194e-03 0. 1.18343194e-03 0. 0. 0. 0. 0. 0.
      0. 0. 0. 0. 0. 1.18343194e-03 1.18343194e-03 0. 2.36686389e-03 0.
      0. 5.91715984e-03 0. 1.18343194e-03 0. 0. 0. 3.55029572e-03 0.
      1.18343194e-03 1.18343194e-03 0. 0. 0. 0. 1.18343194e-03
      3.55029572e-03 2.36686389e-03 1.18343194e-03 0. 0. 0. 0.
      1.18343194e-03 2.36686389e-03 0. 0. 2.36686389e-03 0.
      1.18343194e-03 2.36686389e-03 0. 0. 0. 4.73372778e-03
      4.73372778e-03 0. 0. 1.18343194e-03 1.18343194e-03 0. 0.
      1.18343194e-03 0. 0. 2.36686389e-03 0. 2.36686389e-03
      1.18343194e-03 0. 2.36686389e-03 0. 0. 1.18343194e-03
      1.18343194e-03 0. 0. 4.73372787e-02 1.18343194e-03 0. 0. 0.
      1.18343194e-03 2.36686389e-03 1.18343194e-03 1.18343194e-03
      1.18343194e-03 0. 0. 0. 3.55029572e-03 2.36686389e-03 0. 0. 0.
      1.18343194e-03 0. 2.36686389e-03 0. 0. 1.18343194e-03 0.
      1.18343194e-03 0. 0. 0. 3.55029572e-03 0. 1.18343194e-03 0.
      3.55029572e-03 0. 0. 2.36686389e-03 1.18343194e-03 0.
      2.36686389e-03 0. 0. 0. 1.18343194e-03 1.18343194e-03 0.
      1.18343194e-03 0. 4.73372778e-03 0. 0. 0. 1.18343194e-03 0.
      1.18343194e-03 0.</_>
    <_>
      0. 7.16845854e-04 0. 1.43369171e-03 7.16845854e-04 0. 0. 0. 0. 0.
      2.86738342e-03 7.16845854e-04 0. 6.45161280e-03 7.16845854e-04 0.
      0. 0. 0. 0. 0. 0. 7.88530428e-03 0. 0. 7.16845854e-04 0. 0. 0. 0.
      0. 7.16845854e-04 7.16845854e-04 0. 7.16845854e-04 0. 0. 0. 0.
      9.31899622e-03 0. 1.43369171e-03 2.86738342e-03 0. 0. 0.
      7.16845854e-04 0. 0. 0. 0. 0. 0. 0. 0. 0. 0. 7.16845854e-04 0.
      1.43369171e-03 7.16845854e-04 5.01792086e-03 0. 0. 0. 0.
      2.15053745e-03 2.86738342e-03 0. 2.86738342e-03 0. 0. 0. 0. 0. 0.
      0. 0. 0. 0. 0. 0. 0. 1.43369171e-03 2.15053745e-03 7.16845854e-04
      7.16845854e-04 0. 0. 7.16845854e-04 0. 7.16845854e-04 0. 0. 0.
      7.16845854e-04 1.72042996e-02 0. 1.21863792e-02 0. 2.15053745e-03
      0. 0. 4.30107489e-03 0. 7.16845854e-04 0. 0. 0. 6.45161280e-03 0.
      1.43369171e-03 0. 0. 0. 0. 0. 0. 3.58422939e-03 2.86738342e-03
      1.43369171e-03 0. 7.16845854e-04 0. 2.15053745e-03 2.86738342e-03
      0. 1.43369171e-03 7.16845854e-04 0. 7.16845854e-04 0. 0.
      2.86738342e-03 7.16845854e-04 2.86738342e-03 0. 7.16845854e-04
      5.01792086e-03 0. 7.16845854e-04 0. 2.86738342e-03 8.60214978e-03
      0. 7.16845854e-04 2.15053745e-03 0. 0. 3.01075261e-02 0. 0.
      7.16845854e-04 0. 0. 4.30107489e-03 0. 0. 7.16845854e-04 0.
      1.43369171e-03 0. 7.16845854e-04 7.16845854e-04 0. 7.16845854e-04
      7.16845854e-04 2.15053745e-03 0. 7.16845854e-04 0. 0. 0. 0. 0.
      7.16845854e-04 7.16845854e-04 0. 0. 0. 1.43369171e-03 0. 0. 0. 0.
      0. 1.43369171e-03 4.30107489e-03 1.43369171e-03 7.16845854e-04 0.
      0. 0. 0. 0. 0. 0. 0. 0. 7.16845854e-04 7.16845854e-04
      1.21863792e-02 0. 1.43369171e-03 0. 0. 0. 7.16845854e-04
      7.16845854e-04 0. 7.16845854e-04 0. 0. 7.16845854e-04
      7.16845854e-04 1.43369171e-03 7.16845854e-04 2.86738342e-03 0. 0.
      7.16845854e-04 1.43369171e-03 0. 7.16845854e-04 0. 7.16845854e-04
      2.15053745e-03 7.16845854e-04 0. 7.16845854e-04 7.16845854e-04 0.
      0. 0. 2.15053745e-03 0. 1.72042996e-02 1.43369171e-03 0. 0.
      1.43369171e-03 0. 0. 0. 2.15053745e-03 0. 0. 7.16845854e-04
      7.16845854e-04 0. 3.58422939e-03 0. 0. 0. 1.43369171e-03 0.
      7.16845854e-04 7.16845854e-04 0. 1.43369171e-03 0. 0. 0.
      5.73476683e-03 0. 0. 2.15053745e-03 7.16845854e-04 0. 0.
      1.43369171e-03 2.86738342e-03 0. 1.43369171e-03 0. 1.43369171e-03
      0. 0. 7.16845854e-04 2.15053745e-03 7.16845854e-04 0. 0. 0. 0.
      1.43369171e-03 0. 0. 0. 5.01792086e-03 2.86738342e-03
      7.16845854e-04 0. 1.43369171e-03 7.16845854e-04 7.16845854e-04
      2.15053745e-03 2.15053745e-03 0. 0. 0. 5.73476683e-03
      1.43369171e-03 0. 0. 0. 7.16845854e-04 2.15053745e-03 0.
      5.01792086e-03 5.01792086e-03 2.86738342e-03 0. 0. 7.88530428e-03
      0. 7.16845854e-04 7.16845854e-04 0. 1.43369171e-03 2.93906797e-02
      0. 7.16845854e-04 0. 0. 0. 3.58422939e-03 3.58422939e-03 0.
      7.16845877e-03 0. 0. 3.58422939e-03 0. 7.16845854e-04
      7.16845854e-04 0. 1.43369171e-03 0. 0. 0. 7.16845854e-04
      2.15053745e-03 3.58422939e-03 7.16845854e-04 1.43369171e-03 0. 0.
      1.43369171e-03 0. 0. 0. 0. 0. 2.86738342e-03 0. 7.16845854e-04 0.
      7.16845854e-04 7.16845854e-04 0. 0. 0. 0. 0. 7.16845854e-04 0. 0.
      7.16845854e-04 0. 0. 7.16845877e-03 0. 2.15053745e-03 0.
      2.15053745e-03 2.86738342e-03 0. 3.58422939e-03 0. 0.
      7.16845854e-04 0. 0. 4.30107489e-03 7.16845854e-04 0. 0. 0. 0. 0.
      0. 7.16845877e-03 7.16845854e-04 0. 7.16845854e-04 1.43369171e-03
      7.16845854e-04 0. 0. 7.16845854e-04 0. 0. 0. 0. 0. 0. 0.
      7.16845854e-04 0. 0. 3.58422939e-03 0. 0. 1.00358417e-02
      7.16845854e-04 7.16845854e-04 0. 0. 2.86738342e-03 0.
      2.15053745e-03 7.16845854e-04 0. 0. 2.15053745e-03 2.15053745e-03
      1.07526882e-02 7.16845854e-04 7.16845854e-04 7.16845854e-04
      2.15053745e-03 0. 7.16845854e-04 7.16845854e-04 0. 0.
      1.43369171e-03 7.16845854e-04 7.16845854e-04 0. 7.16845854e-04 0.
      0. 4.30107489e-03 0. 2.86738342e-03 7.16845854e-04 1.07526882e-02
      0. 0. 0. 0. 0. 0. 0. 3.58422939e-03 0. 0. 0. 0. 7.16845854e-04 0.
      0. 0. 3.58422939e-03 4.30107489e-03 0. 0. 0. 0. 7.16845854e-04 0.
      7.16845854e-04 2.15053745e-03 0. 0. 7.16845854e-04 7.16845854e-04
      7.16845854e-04 0. 0. 0. 5.73476683e-03 0. 0. 1.43369171e-03 0.
      7.16845854e-04 0. 0. 0. 2.15053745e-03 0. 0. 0. 0. 0. 0. 0.
      2.86738342e-03 6.45161280e-03 2.86738342e-03 1.43369175e-02 0.
      1.43369171e-03 1.43369171e-03 0. 0. 0. 0. 7.16845854e-04 0. 0.
      2.15053745e-03 0. 0. 0. 0. 1.43369171e-03 0. 0. 2.15053745e-03 0.
      0. 0. 1.43369171e-03 0. 7.16845854e-04 1.43369171e-03 0. 0. 0.
      1.43369171e-03 1.43369171e-03 0. 0. 0. 1.43369171e-03 0. 0.
      7.16845854e-04 8.60214978e-03 0. 1.43369171e-03 0. 2.15053745e-03
      0. 7.16845854e-04 7.16845854e-04 0. 7.16845854e-04 5.73476683e-03
      7.16845854e-04 0. 2.15053745e-03 7.16845854e-04 7.16845854e-04 0.
      0. 0. 0. 0. 1.43369171e-03 1.43369171e-03 0. 2.86738342e-03
      2.15053745e-03 0. 7.16845854e-04 0. 0. 7.16845854e-04
      7.16845854e-04 0. 0. 7.16845854e-04 7.16845854e-04 0. 0. 0. 0. 0.
      0. 0. 0. 0. 0. 5.73476683e-03 5.01792086e-03 7.16845854e-04 0. 0.
      0. 7.16845854e-04 0. 0. 0. 0. 0. 0. 0. 1.43369171e-03 0.
      7.16845854e-04 0. 0. 3.58422939e-03 0. 0. 7.16845854e-04 0.
      7.16845854e-04 2.86738342e-03 0. 0. 7.16845854e-04 0.
      1.43369171e-03 9.31899622e-03 0. 0. 1.43369171e-03 7.16845854e-04
      1.43369171e-03 7.16845854e-04 1.43369171e-03 9.31899622e-03
      1.43369171e-03 0. 1.43369171e-03 0. 2.15053745e-03 0. 0.
      2.15053745e-03 0. 0. 0. 2.15053745e-03 0. 0. 0. 3.58422939e-03
      1.43369171e-03 0. 7.16845854e-04 0. 0. 0. 0. 7.16845854e-04 0. 0.
      8.60214978e-03 2.86738342e-03 2.86738342e-03 0. 0. 0.
      7.16845854e-04 7.16845854e-04 1.43369171e-03 7.16845854e-04
      7.16845854e-04 2.86738342e-03 0. 0. 5.73476683e-03 0.
      2.86738342e-03 0. 1.43369171e-03 2.86738342e-03 0. 7.16845854e-04
      1.43369171e-03 0. 6.45161280e-03 0. 7.16845854e-04 0.
      1.43369171e-03 7.16845854e-04 0. 0. 0. 1.43369171e-03 0.
      4.30107489e-03 7.16845854e-04 1.43369171e-03 0. 7.16845854e-04
      7.16845854e-04 0. 0. 0. 0. 7.16845854e-04 0. 0. 7.16845854e-04 0.
      3.58422939e-03 7.16845854e-04 3.58422939e-03 0. 7.16845854e-04
      7.16845854e-04 0. 7.16845854e-04 0. 0. 7.16845854e-04 0. 0.
      1.43369171e-03 0. 7.16845854e-04 1.43369171e-03 0. 7.16845854e-04
      0. 0. 7.16845854e-04 0. 0. 0. 0. 7.16845854e-04 7.16845854e-04 0.
      0. 0. 1.43369171e-03 0. 7.16845854e-04 0. 0. 7.16845854e-04 0.
      7.16845854e-04 4.30107489e-03 0. 1.43369171e-03 0. 7.16845854e-04
      4.30107489e-03 0. 1.43369171e-03 7.16845854e-04 0. 0. 0. 0.
      2.15053745e-03 0. 2.86738342e-03 2.15053745e-03 0. 0. 0. 0.
      2.15053745e-03 7.16845854e-04 1.43369171e-03 0. 1.43369171e-03 0.
      0. 3.58422939e-03 4.30107489e-03 0. 2.15053745e-03 1.43369171e-03
      0. 0. 0. 7.16845854e-04 0. 1.43369171e-03 0. 7.16845854e-04 0.
      1.43369171e-03 0. 1.43369171e-03 0. 0. 0. 0. 1.43369171e-03 0.
      7.16845854e-04 3.58422939e-03 0. 5.73476683e-03 0. 0.
      1.43369171e-03 0. 7.16845854e-04 7.16845854e-04 0. 0.
      1.43369171e-03 0. 7.16845854e-04 1.29032256e-02 7.16845854e-04 0.
      0. 7.16845854e-04 0. 0. 7.16845854e-04 7.16845854e-04 0. 0.
      1.36200711e-02 0. 0. 0. 1.43369171e-03 0. 0. 0. 0. 0.
      1.64874550e-02 0. 0. 0. 0. 7.16845854e-04 7.16845854e-04
      2.86738342e-03 2.15053745e-03 0. 0. 0. 7.16845854e-04 0. 0. 0. 0.
      3.58422939e-03 0. 0. 0. 0. 0. 7.16845854e-04 0. 7.16845854e-04 0.
      0. 7.16845854e-04 7.16845854e-04 0. 0. 0. 0. 7.16845854e-04
      1.43369171e-03 4.30107489e-03 2.15053745e-03 0. 0. 7.16845854e-04
      0. 0. 0. 0. 7.16845854e-04 7.16845854e-04 7.16845854e-04
      7.16845854e-04 0. 0. 0. 7.16845877e-03 1.43369171e-03 0. 0. 0.
      4.30107489e-03 2.15053745e-03 0. 7.16845854e-04 0. 1.43369171e-03
      0. 7.16845854e-04 1.43369171e-03 0. 1.43369171e-03 0. 0.
      7.16845854e-04 1.43369171e-03 2.15053745e-03 0. 0. 0. 0. 0.
      1.43369171e-03 9.31899622e-03 0. 7.16845854e-04 0. 0. 0.
      1.43369171e-03 0. 7.16845854e-04 0. 7.16845854e-04 0.
      2.15053745e-03 7.16845854e-04 0. 0. 0. 7.16845854e-04
      3.58422939e-03 1.43369171e-03 0. 0. 7.16845854e-04 1.43369171e-03
      7.16845854e-04 0. 0. 0. 7.16845854e-04 0. 0. 0. 0. 7.16845854e-04
      0. 1.93548389e-02 2.86738342e-03 7.16845854e-04 0. 0. 0.
      7.16845854e-04 0. 0. 0. 5.73476683e-03 0. 0. 0. 0. 1.43369171e-03
      2.86738342e-03 7.16845854e-04 1.43369171e-03 7.16845854e-04 0. 0.
      0. 7.16845854e-04 7.16845854e-04 0. 7.16845854e-04 0. 0.
      7.16845854e-04 7.16845854e-04 3.58422939e-03 0. 4.30107489e-03
      2.15053745e-03 0. 1.43369171e-03 0. 0. 2.15053745e-03 0. 0.
      1.43369171e-03 0. 0. 0. 0. 0. 0. 0. 0. 7.16845854e-04 0.
      2.15053745e-03 0. 7.16845854e-04</_>
    <_>
      0. 0. 0. 0. 0. 0. 3.73134320e-03 0. 0. 0. 3.73134320e-03 0.
      7.46268639e-03 0. 0. 3.73134320e-03 3.73134320e-03 3.73134320e-03
      0. 0. 0. 0. 0. 0. 0. 3.73134320e-03 0. 0. 0. 0. 0. 0. 0. 0. 0. 0.
      0. 0. 0. 0. 0. 0. 0. 0. 0. 0. 0. 0. 0. 0. 0. 0. 0. 0. 0. 0. 0. 0.
      3.73134320e-03 0. 0. 0. 0. 0. 0. 0. 0. 0. 0. 0. 0. 0. 0. 0. 0. 0.
      0. 0. 0. 0. 0. 0. 0. 0. 3.73134320e-03 0. 0. 3.73134320e-03 0. 0.
      0. 0. 0. 0. 0. 0. 0. 0. 0. 0. 0. 0. 0. 0. 0. 0. 0. 0. 0. 0. 0. 0.
      0. 0. 3.73134320e-03 0. 0. 0. 0. 0. 0. 0. 0. 0. 0. 0. 0. 0. 0. 0.
      3.73134320e-03 0. 0. 3.73134320e-03 0. 0. 0. 0. 0. 0. 0. 0. 0. 0.
      0. 0. 0. 0. 0. 0. 0. 0. 0. 7.46268639e-03 0. 3.73134320e-03
      3.73134320e-03 0. 3.73134320e-03 0. 3.73134320e-03 0. 0. 0. 0. 0.
      3.73134320e-03 0. 0. 0. 0. 0. 0. 3.73134320e-03 0. 0. 0. 0. 0.
      3.73134320e-03 0. 0. 0. 0. 0. 0. 0. 0. 3.73134320e-03 0. 0. 0. 0.
      0. 0. 0. 3.73134320e-03 0. 0. 0. 0. 0. 0. 0. 7.46268639e-03 0. 0.
      0. 0. 3.73134320e-03 0. 0. 0. 0. 0. 0. 3.73134320e-03 0. 0. 0. 0.
      0. 0. 0. 0. 0. 0. 0. 0. 0. 3.73134320e-03 0. 0. 0. 0. 0. 0. 0. 0.
      0. 0. 0. 0. 0. 0. 0. 0. 0. 0. 3.73134320e-03 0. 0. 0. 0. 0. 0.
      3.73134320e-03 3.73134320e-03 0. 0. 0. 0. 3.73134320e-03 0. 0. 0.
      0. 0. 0. 0. 0. 0. 0. 0. 0. 3.73134320e-03 0. 0. 0. 0. 0. 0. 0. 0.
      0. 0. 0. 0. 3.73134320e-03 0. 3.73134320e-03 0. 3.73134320e-03 0.
      0. 3.73134320e-03 0. 0. 0. 1.11940298e-02 3.73134320e-03 0. 0. 0.
      3.73134320e-03 0. 0. 0. 0. 0. 0. 3.73134320e-03 0. 0. 0. 0.
      3.73134320e-03 0. 3.73134320e-03 0. 0. 0. 3.73134320e-03 0. 0. 0.
      0. 0. 7.46268639e-03 0. 1.49253728e-02 3.73134320e-03 0.
      3.73134320e-03 0. 3.73134320e-03 0. 0. 0. 3.73134320e-03 0. 0. 0.
      0. 0. 0. 3.73134320e-03 0. 0. 0. 0. 0. 0. 0. 3.73134320e-03
      3.73134320e-03 0. 0. 3.73134320e-03 0. 3.73134320e-03
      3.73134320e-03 0. 3.73134320e-03 3.73134320e-03 0. 0. 0. 0. 0. 0.
      0. 3.73134320e-03 0. 0. 0. 0. 0. 0. 0. 3.73134320e-03 0.
      3.73134320e-03 0. 0. 0. 0. 0. 0. 0. 0. 0. 0. 3.73134320e-03 0. 0.
      3.73134320e-03 0. 0. 3.73134320e-03 0. 0. 3.73134320e-03 0. 0.
      3.73134320e-03 0. 7.46268639e-03 0. 0. 0. 0. 3.73134320e-03 0. 0.
      0. 0. 7.46268639e-03 0. 0. 0. 0. 3.73134320e-03 3.73134320e-03 0.
      0. 0. 0. 0. 0. 0. 3.73134320e-03 0. 0. 3.73134320e-03 0.
      3.73134320e-03 3.73134320e-03 0. 0. 3.73134320e-03 0. 0. 0. 0. 0.
      0. 0. 3.73134320e-03 3.73134320e-03 0. 0. 0. 0. 0. 3.73134320e-03
      0. 0. 0. 0. 0. 3.73134320e-03 0. 7.46268639e-03 0. 3.73134320e-03
      0. 0. 0. 3.73134320e-03 0. 0. 3.73134320e-03 0. 0. 0. 0. 0. 0. 0.
      0. 0. 0. 0. 7.46268639e-03 0. 0. 3.73134320e-03 3.73134320e-03 0.
      0. 0. 0. 0. 0. 0. 0. 0. 0. 0. 3.73134320e-03 0. 0. 0. 0. 0. 0. 0.
      0. 0. 3.73134320e-03 0. 0. 0. 0. 0. 0. 0. 0. 0. 0. 0. 0. 0. 0. 0.
      0. 0. 0. 3.73134320e-03 0. 0. 0. 0. 0. 0. 0. 0. 7.46268639e-03 0.
      0. 0. 0. 3.73134320e-03 0. 3.73134320e-03 0. 0. 0. 0. 0. 0. 0. 0.
      0. 7.46268639e-03 0. 0. 0. 0. 0. 0. 0. 3.73134320e-03 0. 0. 0. 0.
      3.73134320e-03 0. 3.73134320e-03 7.46268639e-03 0. 0.
      7.46268639e-03 3.73134320e-03 0. 0. 3.73134320e-03 3.73134320e-03
      1.49253728e-02 0. 3.73134320e-03 0. 0. 0. 3.73134320e-03 0. 0.
      7.46268639e-03 0. 0. 0. 0. 0. 3.73134320e-03 0. 0. 7.46268639e-03
      0. 0. 0. 3.73134320e-03 0. 0. 0. 7.46268639e-03 0. 3.73134320e-03
      0. 0. 0. 0. 0. 0. 0. 0. 3.73134320e-03 0. 0. 0. 0. 0. 0. 0.
      3.73134320e-03 0. 0. 0. 0. 7.46268639e-03 0. 0. 0. 0. 0. 0. 0. 0.
      0. 0. 0. 0. 0. 0. 7.46268639e-03 0. 7.46268639e-03 0. 0.
      3.73134320e-03 0. 0. 3.73134320e-03 0. 0. 0. 0. 0. 0. 0. 0. 0.
      3.73134320e-03 0. 3.73134320e-03 0. 3.73134320e-03 0. 0. 0. 0. 0.
      0. 3.73134320e-03 0. 3.73134320e-03 0. 0. 0. 0. 7.46268639e-03 0.
      0. 0. 0. 0. 0. 7.46268639e-03 0. 0. 0. 0. 3.73134320e-03
      7.46268639e-03 0. 3.73134320e-03 0. 0. 0. 0. 7.46268639e-03
      3.73134320e-03 0. 0. 0. 7.46268639e-03 0. 0. 0. 0. 0.
      3.73134320e-03 0. 3.73134320e-03 0. 0. 0. 0. 3.73134320e-03
      3.73134320e-03 0. 0. 3.73134320e-03 0. 3.73134320e-03 0. 0. 0. 0.
      0. 0. 3.73134320e-03 3.73134320e-03 0. 0. 3.73134320e-03 0. 0. 0.
      0. 0. 0. 0. 1.49253728e-02 0. 0. 0. 0. 0. 0. 0. 0. 7.46268639e-03
      0. 0. 7.46268639e-03 7.46268639e-03 0. 3.73134320e-03 0. 0. 0. 0.
      0. 3.73134320e-03 0. 0. 3.73134320e-03 0. 0. 0. 0. 3.73134320e-03
      3.73134320e-03 0. 0. 0. 0. 0. 0. 0. 3.73134320e-03 0. 0. 0.
      3.73134320e-03 3.73134320e-03 0. 3.73134320e-03 0. 3.73134320e-03
      0. 3.73134320e-03 0. 3.73134320e-03 0. 0. 3.73134320e-03 0. 0. 0.
      7.46268639e-03 0. 0. 0. 0. 0. 0. 0. 0. 7.46268639e-03 0. 0.
      3.73134320e-03 3.73134320e-03 7.46268639e-03 0. 0. 0. 0. 0. 0.
      3.73134320e-03 0. 0. 3.73134320e-03 0. 0. 0. 0. 0. 0. 0. 0.
      3.73134320e-03 7.46268639e-03 0. 0. 0. 0. 0. 7.46268639e-03
      3.73134320e-03 0. 1.86567158e-02 0. 0. 0. 0. 0. 0. 0. 0. 0. 0.
      3.73134320e-03 0. 0. 0. 0. 0. 0. 1.86567158e-02 0. 0. 0. 0.
      3.73134320e-03 0. 3.73134320e-03 0. 0. 0. 0. 0. 0. 0. 0. 0. 0.
      3.73134320e-03 3.73134320e-03 1.11940298e-02 1.49253728e-02 0.
      1.86567158e-02 0. 0. 0. 0. 0. 0. 3.73134320e-03 0. 0.
      3.73134320e-03 3.73134320e-03 3.73134320e-03 0. 0. 0. 0. 0. 0. 0.
      3.73134320e-03 0. 3.73134320e-03 0. 3.73134320e-03 0. 0. 0. 0.
      7.46268639e-03 0. 0. 0. 0. 0. 7.46268639e-03 0. 0. 1.11940298e-02
      3.73134320e-03 0. 0. 3.73134320e-03 0. 0. 0. 0. 0. 0.
      3.73134320e-03 0. 0. 0. 0. 0. 0. 0. 0. 0. 0. 0. 0. 3.73134320e-03
      0. 0. 3.73134320e-03 3.73134320e-03 3.73134320e-03 0. 0.
      3.73134320e-03 0. 0. 0. 0. 3.73134320e-03 7.46268639e-03 0. 0. 0.
      0. 0. 0. 0. 3.73134320e-03 0. 0. 0. 0. 0. 0. 3.73134320e-03 0. 0.
      0. 0. 3.73134320e-03 0. 0. 0. 0. 3.73134320e-03 0. 0. 0. 0. 0. 0.
      0. 0. 0. 3.73134320e-03 0. 7.46268639e-03</_>
    <_>
      0. 0. 0. 0. 0. 0. 0. 0. 0. 0. 0. 0. 0. 0. 0. 0. 0. 0. 0. 0. 0. 0.
      0. 0. 0. 0. 0. 0. 0. 0. 0. 0. 0. 0. 0. 0. 0. 0. 0. 0. 0. 0. 0. 0.
      0. 0. 0. 0. 0. 0. 0. 0. 0. 0. 0. 0. 0. 0. 0. 0. 0. 0. 0. 0. 0. 0.
      0. 0. 0. 0. 0. 0. 0. 0. 0. 0. 0. 0. 0. 0. 0. 0. 0. 0. 0. 0. 0. 0.
      0. 0. 0. 0. 0. 0. 0. 0. 0. 0. 0. 0. 0. 0. 0. 0. 0. 0. 0.
      1.42857144e-02 0. 0. 0. 0. 0. 0. 0. 0. 0. 0. 0. 0. 0. 0. 0. 0. 0.
      0. 0. 0. 0. 0. 0. 0. 0. 0. 0. 0. 0. 0. 0. 0. 0. 0. 0. 0. 0. 0. 0.
      0. 1.42857144e-02 0. 0. 0. 0. 1.42857144e-02 0. 0. 0. 0. 0.
      1.42857144e-02 0. 0. 1.42857144e-02 0. 0. 0. 0. 0. 0. 0. 0. 0. 0.
      0. 0. 0. 0. 0. 0. 0. 0. 0. 0. 0. 0. 0. 0. 0. 0. 0. 0. 0. 0. 0. 0.
      1.42857144e-02 0. 0. 1.42857144e-02 0. 0. 0. 0. 0. 0. 0.
      1.42857144e-02 0. 0. 0. 0. 0. 0. 0. 0. 0. 0. 0. 0. 0. 0. 0. 0. 0.
      0. 0. 0. 0. 0. 0. 0. 0. 0. 0. 1.42857144e-02 0. 0. 0. 0. 0. 0. 0.
      0. 0. 0. 0. 0. 0. 0. 0. 1.42857144e-02 0. 0. 0. 0. 0. 0. 0. 0. 0.
      0. 0. 0. 0. 0. 0. 0. 0. 0. 0. 0. 0. 0. 0. 0. 0. 0. 0. 0.
      1.42857144e-02 0. 0. 0. 1.42857144e-02 0. 0. 0. 0. 0. 0. 0. 0. 0.
      1.42857144e-02 0. 1.42857144e-02 0. 0. 0. 0. 0. 0. 0. 0. 0. 0. 0.
      0. 0. 0. 0. 0. 0. 0. 0. 0. 0. 0. 0. 0. 0. 0. 0. 0. 0. 0. 0. 0. 0.
      0. 0. 0. 0. 0. 0. 0. 0. 0. 0. 0. 0. 0. 0. 0. 0. 0. 0. 0. 0. 0. 0.
      0. 0. 0. 0. 0. 1.42857144e-02 0. 0. 0. 0. 0. 0. 0. 0. 0. 0. 0. 0.
      0. 0. 0. 0. 0. 0. 2.85714287e-02 0. 0. 0. 2.85714287e-02 0. 0. 0.
      0. 0. 0. 0. 0. 0. 0. 0. 0. 0. 0. 0. 0. 0. 0. 0. 0. 0. 0. 0. 0. 0.
      0. 0. 1.42857144e-02 0. 0. 0. 0. 0. 0. 0. 0. 0. 0. 0. 0. 0. 0. 0.
      0. 0. 0. 0. 0. 0. 0. 0. 0. 0. 0. 0. 0. 0. 0. 0. 0. 0. 0. 0. 0. 0.
      0. 0. 0. 0. 0. 0. 0. 0. 0. 0. 0. 0. 0. 0. 0. 1.42857144e-02
      1.42857144e-02 0. 0. 0. 0. 0. 0. 0. 0. 0. 0. 0. 0. 0. 0. 0. 0. 0.
      0. 0. 0. 0. 0. 0. 1.42857144e-02 0. 0. 1.42857144e-02
      1.42857144e-02 0. 0. 0. 0. 0. 0. 0. 0. 0. 1.42857144e-02 0. 0. 0.
      0. 0. 0. 0. 0. 0. 0. 0. 0. 0. 0. 0. 0. 0. 0. 0. 0. 0. 0. 0. 0. 0.
      0. 0. 0. 0. 1.42857144e-02 0. 0. 0. 0. 0. 0. 0. 0. 0. 0. 0. 0. 0.
      0. 0. 0. 0. 0. 0. 0. 0. 0. 0. 0. 0. 0. 0. 1.42857144e-02
      1.42857144e-02 0. 0. 0. 0. 0. 0. 0. 0. 0. 0. 0. 0. 0. 0. 0. 0. 0.
      0. 0. 0. 0. 0. 0. 0. 0. 0. 0. 0. 0. 0. 0. 0. 0. 0. 0. 0. 0. 0. 0.
      0. 0. 0. 0. 0. 0. 0. 0. 0. 0. 0. 1.42857144e-02 0. 0. 0. 0. 0. 0.
      0. 0. 0. 0. 0. 0. 0. 0. 0. 0. 0. 0. 0. 0. 0. 0. 0. 0. 0. 0. 0. 0.
      0. 0. 0. 0. 0. 0. 0. 0. 1.42857144e-02 0. 0. 0. 0. 0. 0. 0. 0. 0.
      0. 0. 0. 0. 0. 0. 0. 0. 0. 0. 0. 0. 0. 0. 1.42857144e-02 0. 0. 0.
      0. 0. 0. 1.42857144e-02 0. 0. 0. 0. 0. 0. 0. 0. 0. 0. 0. 0. 0. 0.
      0. 0. 0. 0. 0. 0. 0. 0. 0. 0. 0. 0. 0. 0. 0. 0. 0. 0. 0. 0. 0. 0.
      0. 0. 0. 0. 0. 0. 0. 0. 0. 0. 0. 0. 0. 0. 0. 0. 0. 0. 0. 0. 0. 0.
      0. 0. 0. 0. 0. 0. 0. 0. 1.42857144e-02 0. 0. 0. 0. 0. 0. 0. 0. 0.
      0. 0. 1.42857144e-02 0. 0. 0. 0. 0. 0. 0. 0. 0. 0. 0. 0. 0. 0. 0.
      0. 0. 0. 1.42857144e-02 0. 0. 0. 0. 2.85714287e-02 0. 0. 0. 0. 0.
      0. 0. 0. 1.42857144e-02 0. 1.42857144e-02 0. 0. 0. 0. 0. 0. 0.
      2.85714287e-02 0. 0. 0. 0. 0. 0. 0. 0. 0. 0. 2.85714287e-02 0.
      1.42857144e-02 0. 2.85714287e-02 0. 0. 0. 0. 1.42857144e-02 0. 0.
      0. 0. 0. 0. 0. 1.42857144e-02 0. 0. 0. 0. 0. 0. 0. 0. 0. 0.
      1.42857144e-02 1.42857144e-02 0. 0. 0. 0. 0. 0. 0. 0. 0.
      2.85714287e-02 0. 0. 0. 0. 0. 0. 0. 0. 0. 0. 0. 1.42857144e-02 0.
      0. 0. 0. 0. 0. 0. 0. 1.42857144e-02 0. 0. 0. 0. 0. 0. 0. 0. 0.
      1.42857144e-02 0. 0. 0. 0. 0. 0. 0. 0. 0. 0. 0. 0. 0. 0. 0. 0.
      2.85714287e-02 0. 0. 0. 0. 0. 0. 0. 0. 0. 0. 0. 0. 1.42857144e-02
      1.42857144e-02 0. 0. 0. 0. 0. 0. 0. 0. 0. 0. 0. 0. 0. 0. 0. 0. 0.
      2.85714287e-02 0. 0. 0. 0. 0. 0. 0. 0. 0. 0. 0. 0. 1.42857144e-02
      0. 0. 1.42857144e-02 0. 0. 0. 1.42857144e-02 1.42857144e-02 0. 0.
      0. 0. 0. 0. 0. 0. 0. 0. 0. 0. 0. 0. 0. 0. 0. 0. 2.85714287e-02 0.
      0. 0. 0. 0. 0. 0. 0. 0. 0. 0. 0. 0. 0. 0. 0. 0. 0. 0. 0. 0. 0.
      1.42857144e-02 0. 0. 0. 0. 1.42857144e-02 0. 0.</_>
    <_>
      0. 0. 0. 0. 0. 0. 0. 0. 0. 0. 0. 0. 0. 5.55555569e-03 0. 0. 0. 0.
      0. 0. 0. 0. 0. 0. 0. 0. 0. 0. 0. 0. 0. 0. 0. 0. 0. 0. 0. 0. 0. 0.
      0. 0. 1.11111114e-02 5.55555569e-03 0. 0. 0. 0. 0. 0. 0. 0. 0. 0.
      0. 0. 0. 1.66666675e-02 0. 0. 0. 0. 0. 0. 0. 0. 1.11111114e-02 0.
      5.55555569e-03 0. 0. 0. 0. 0. 0. 0. 0. 0. 0. 0. 0. 0. 0.
      1.11111114e-02 0. 0. 0. 0. 0. 5.55555569e-03 0. 0. 0. 0. 0. 0. 0.
      0. 0. 0. 0. 0. 0. 0. 0. 5.55555569e-03 0. 0. 0. 0. 0. 0. 0. 0. 0.
      0. 0. 0. 0. 0. 0. 0. 0. 0. 0. 0. 0. 0. 0. 0. 0. 0. 0.
      5.55555569e-03 0. 1.11111114e-02 0. 0. 0. 0. 0. 0. 0. 0. 0.
      5.55555569e-03 0. 0. 0. 0. 0. 0. 0. 0. 0. 0. 0. 0. 0. 0. 0. 0. 0.
      0. 0. 0. 0. 0. 0. 0. 0. 0. 0. 0. 0. 0. 0. 0. 0. 0. 0. 0. 0. 0. 0.
      0. 0. 5.55555569e-03 0. 0. 0. 5.55555569e-03 0. 0. 0. 0. 0. 0. 0.
      0. 0. 0. 0. 0. 0. 0. 0. 0. 0. 0. 0. 0. 0. 0. 0. 0. 0. 0. 0. 0. 0.
      0. 1.11111114e-02 0. 0. 0. 0. 0. 0. 0. 0. 0. 0. 0. 0. 0. 0. 0. 0.
      0. 0. 0. 0. 0. 0. 0. 0. 0. 0. 0. 0. 0. 0. 5.55555569e-03 0. 0.
      1.11111114e-02 0. 0. 5.55555569e-03 0. 0. 5.55555569e-03 0. 0. 0.
      0. 0. 0. 1.11111114e-02 0. 0. 0. 0. 0. 0. 0. 0. 0. 0. 0. 0. 0. 0.
      0. 0. 0. 0. 0. 0. 0. 5.55555569e-03 1.66666675e-02 0. 0. 0. 0. 0.
      0. 5.55555569e-03 5.55555569e-03 0. 0. 0. 0. 0. 0. 0. 0. 0. 0. 0.
      0. 0. 0. 5.55555569e-03 0. 5.55555569e-03 5.55555569e-03 0. 0. 0.
      0. 0. 0. 0. 0. 0. 0. 0. 0. 0. 0. 0. 0. 0. 0. 5.55555569e-03 0. 0.
      0. 0. 0. 0. 0. 0. 5.55555569e-03 0. 0. 0. 0. 0. 0. 0. 0. 0. 0. 0.
      0. 0. 0. 0. 0. 0. 0. 0. 0. 0. 0. 0. 0. 0. 0. 5.55555569e-03 0. 0.
      5.55555569e-03 0. 0. 0. 5.55555569e-03 0. 0. 0. 0. 0. 0. 0. 0. 0.
      0. 0. 0. 0. 0. 0. 0. 0. 0. 5.55555569e-03 0. 0. 0. 0. 0. 0.
      2.22222228e-02 0. 0. 0. 0. 0. 0. 0. 0. 0. 5.55555569e-03 0. 0. 0.
      0. 0. 0. 5.55555569e-03 0. 0. 0. 0. 0. 0. 0. 0. 0. 0. 0. 0. 0. 0.
      0. 0. 0. 5.55555569e-03 0. 0. 0. 0. 0. 0. 0. 0. 0. 0. 0. 0.
      5.55555569e-03 5.55555569e-03 0. 0. 0. 0. 0. 0. 0. 0. 0. 0.
      5.55555569e-03 0. 0. 0. 0. 0. 5.55555569e-03 0. 0. 0. 0.
      5.55555569e-03 0. 0. 0. 0. 0. 0. 0. 0. 5.55555569e-03 0. 0.
      5.55555569e-03 0. 0. 0. 0. 0. 0. 0. 0. 0. 0. 0. 0. 0. 0. 0. 0. 0.
      0. 0. 0. 0. 0. 0. 0. 1.11111114e-02 0. 0. 0. 0. 0. 5.55555569e-03
      0. 1.11111114e-02 0. 0. 0. 0. 0. 0. 0. 0. 0. 0. 2.22222228e-02
      1.11111114e-02 0. 0. 0. 0. 0. 0. 0. 0. 0. 0. 0. 1.11111114e-02 0.
      0. 0. 0. 0. 5.55555569e-03 0. 0. 0. 0. 5.55555569e-03 0. 0. 0. 0.
      0. 0. 0. 0. 0. 0. 5.55555569e-03 0. 0. 0. 0. 1.66666675e-02 0. 0.
      1.11111114e-02 0. 0. 0. 5.55555569e-03 0. 0. 0. 0. 0. 0. 0. 0. 0.
      0. 0. 0. 0. 0. 0. 0. 5.55555569e-03 0. 0. 0. 0. 1.11111114e-02 0.
      1.11111114e-02 0. 0. 0. 0. 0. 0. 5.55555569e-03 0. 0. 0. 0. 0. 0.
      0. 0. 5.55555569e-03 5.55555569e-03 0. 0. 0. 0. 0. 0.
      1.66666675e-02 0. 0. 0. 0. 0. 0. 0. 0. 0. 0. 0. 0. 0. 0. 0. 0.
      5.55555569e-03 0. 0. 0. 0. 0. 0. 0. 0. 0. 0. 0. 0. 0. 0. 0. 0. 0.
      0. 0. 5.55555569e-03 5.55555569e-03 5.55555569e-03 0. 0.
      1.11111114e-02 0. 5.55555569e-03 0. 0. 0. 0. 0. 0. 0. 0. 0. 0. 0.
      0. 0. 0. 0. 0. 0. 0. 0. 0. 0. 0. 0. 0. 0. 0. 0. 0. 0. 0. 0. 0. 0.
      0. 0. 0. 0. 0. 5.55555569e-03 0. 0. 5.55555569e-03 0. 0. 0. 0.
      1.11111114e-02 0. 0. 0. 1.11111114e-02 0. 0. 0. 0. 0.
      5.55555569e-03 0. 0. 0. 0. 0. 5.55555569e-03 0. 0. 0. 0. 0. 0. 0.
      0. 0. 0. 0. 0. 0. 0. 0. 0. 0. 0. 0. 0. 0. 0. 0. 0. 0. 0. 0. 0. 0.
      0. 0. 0. 5.55555569e-03 0. 0. 0. 5.55555569e-03 2.22222228e-02 0.
      5.55555569e-03 0. 0. 0. 0. 0. 0. 0. 0. 0. 0. 0. 0. 0. 0. 0. 0. 0.
      0. 0. 1.66666675e-02 0. 5.55555569e-03 0. 0. 0. 0. 0. 0. 0. 0. 0.
      0. 0. 0. 5.55555569e-03 0. 0. 5.55555569e-03 0. 1.11111114e-02
      1.66666675e-02 1.66666675e-02 0. 0. 5.55555569e-03 0. 0. 0.
      5.55555569e-03 0. 0. 0. 0. 0. 0. 0. 0. 0. 0. 0. 5.55555569e-03 0.
      0. 0. 0. 0. 0. 0. 0. 5.55555569e-03 1.11111114e-02 0. 0. 0. 0. 0.
      0. 0. 0. 0. 2.77777780e-02 0. 0. 1.11111114e-02 0. 0. 0.
      5.55555569e-03 0. 0. 0. 0. 0. 0. 0. 0. 0. 0. 0. 0. 0. 0. 0.
      5.55555569e-03 5.55555569e-03 1.11111114e-02 0. 0. 5.55555569e-03
      0. 0. 0. 0. 0. 0. 0. 0. 0. 5.55555569e-03 5.55555569e-03 0. 0. 0.
      0. 0. 0. 0. 0. 0. 0. 0. 0. 0. 0. 0. 0. 0. 0. 0. 0. 0. 0. 0. 0. 0.
      0. 0. 0. 0. 0. 0. 5.55555569e-03 2.77777780e-02 5.55555569e-03 0.
      1.11111114e-02 1.11111114e-02 0. 0. 0. 0. 5.55555569e-03 0. 0. 0.
      0. 0. 5.55555569e-03 0. 0. 0. 0. 0. 0. 1.66666675e-02 0.
      5.55555569e-03 5.55555569e-03 0. 0. 0. 0. 0. 0. 0. 0.
      5.55555569e-03 0. 0. 0. 0. 0. 0. 5.55555569e-03 0. 0. 0. 0. 0. 0.
      0. 0. 0. 5.55555569e-03 1.11111114e-02 5.55555569e-03 0. 0.
      5.55555569e-03 0. 0. 1.11111114e-02 0. 1.11111114e-02 0.
      5.55555569e-03 0. 0. 0. 0. 0. 0. 0. 1.11111114e-02</_>
    <_>
      0. 0. 0. 0. 0. 0. 0. 0. 0. 0. 0. 2.46913591e-03 0. 0. 0. 0. 0. 0.
      0. 0. 0. 0. 7.40740774e-03 0. 0. 2.46913591e-03 0. 2.46913591e-03
      0. 0. 4.93827183e-03 0. 0. 0. 0. 0. 0. 0. 0. 2.46913591e-03 0.
      2.46913591e-03 0. 0. 0. 0. 4.93827183e-03 0. 0. 0. 2.46913591e-03
      0. 0. 0. 0. 0. 0. 0. 0. 0. 0. 0. 2.46913591e-03 0. 0. 0.
      2.46913591e-03 2.46913591e-03 2.46913591e-03 0. 0. 0. 0. 0. 0. 0.
      0. 0. 0. 0. 0. 0. 0. 0. 0. 2.46913591e-03 7.40740774e-03 0. 0.
      2.46913591e-03 9.87654366e-03 2.46913591e-03 0. 4.93827183e-03 0.
      2.46913591e-03 0. 0. 9.87654366e-03 2.46913591e-03 2.46913591e-03
      0. 2.46913591e-03 0. 0. 0. 0. 0. 0. 2.46913591e-03 0. 0. 0. 0. 0.
      0. 4.93827183e-03 0. 0. 0. 0. 0. 4.93827183e-03 0. 7.40740774e-03
      0. 2.46913591e-03 0. 0. 0. 0. 0. 0. 2.46913591e-03 0. 0.
      2.46913591e-03 2.46913591e-03 1.23456791e-02 0. 0. 4.93827183e-03
      7.40740774e-03 7.40740774e-03 0. 0. 0. 0. 2.46913591e-03
      4.93827183e-03 0. 0. 0. 0. 0. 0. 0. 0. 7.40740774e-03 0. 0. 0. 0.
      2.46913591e-03 0. 4.93827183e-03 0. 2.46913591e-03 2.46913591e-03
      0. 0. 0. 2.46913591e-03 2.46913591e-03 0. 0. 0. 0. 0.
      7.40740774e-03 0. 0. 0. 0. 0. 0. 2.46913591e-03 0. 0. 0. 0.
      2.46913591e-03 0. 2.46913591e-03 0. 0. 2.46913591e-03 0. 0. 0. 0.
      1.72839519e-02 2.46913591e-03 4.93827183e-03 0. 0. 2.46913591e-03
      0. 0. 0. 2.46913591e-03 0. 0. 0. 0. 4.93827183e-03 0. 0. 0. 0. 0.
      0. 0. 2.46913591e-03 0. 0. 2.46913591e-03 0. 0. 0. 0. 0. 0. 0.
      2.46913591e-03 0. 0. 0. 0. 0. 0. 2.46913591e-03 2.46913591e-03 0.
      0. 2.46913591e-03 0. 1.48148155e-02 0. 0. 0. 0. 0. 0. 0. 0.
      2.46913591e-03 0. 2.46913591e-03 0. 0. 0. 0. 2.46913591e-03 0. 0.
      0. 0. 2.46913591e-03 0. 2.46913591e-03 2.46913591e-03 0.
      7.40740774e-03 0. 2.46913591e-03 0. 0. 0. 0. 0. 0. 0. 0.
      2.46913591e-03 2.46913591e-03 2.46913591e-03 0. 0. 0. 0. 0. 0.
      2.46913591e-03 2.46913591e-03 2.46913591e-03 1.23456791e-02 0. 0.
      0. 0. 2.46913591e-03 0. 0. 0. 0. 0. 0. 0. 0. 9.87654366e-03 0. 0.
      0. 7.40740774e-03 0. 2.46913591e-03 2.46913591e-03 0.
      2.46913591e-03 9.87654366e-03 2.46913591e-03 0. 0. 0. 0.
      2.46913591e-03 1.23456791e-02 2.46913591e-03 7.40740774e-03 0. 0.
      2.46913591e-03 0. 0. 0. 0. 0. 0. 0. 0. 0. 0. 4.93827183e-03
      7.40740774e-03 0. 0. 0. 0. 0. 0. 0. 0. 0. 0. 0. 0. 0. 0. 0. 0. 0.
      0. 2.46913591e-03 0. 4.93827183e-03 0. 0. 0. 0. 0. 0. 0. 0. 0. 0.
      0. 0. 0. 4.93827183e-03 0. 2.46913591e-03 0. 0. 0. 0. 0. 0.
      2.46913591e-03 0. 7.40740774e-03 0. 9.87654366e-03 2.46913591e-03
      0. 0. 0. 0. 0. 2.46913591e-03 0. 0. 0. 0. 0. 0. 0. 0. 0. 0.
      2.46913591e-03 0. 0. 0. 0. 0. 0. 0. 2.46913591e-03 2.46913591e-03
      2.46913591e-03 0. 0. 0. 0. 0. 0. 0. 0. 0. 0. 0. 0. 0. 0. 0. 0. 0.
      2.46913591e-03 0. 0. 0. 0. 0. 0. 0. 0. 0. 0. 0. 4.93827183e-03
      2.46913591e-03 0. 0. 0. 2.46913591e-03 0. 0. 0. 2.46913591e-03 0.
      0. 2.46913591e-03 0. 0. 0. 0. 0. 4.93827183e-03 4.93827183e-03
      2.46913591e-03 0. 2.46913591e-03 0. 0. 0. 0. 4.93827183e-03 0.
      2.46913591e-03 4.93827183e-03 0. 0. 0. 0. 0. 2.46913591e-03 0. 0.
      0. 0. 0. 0. 0. 4.93827183e-03 0. 0. 0. 0. 0. 0. 0. 2.46913591e-03
      0. 0. 2.46913591e-03 0. 0. 0. 0. 0. 0. 0. 0. 0. 4.93827183e-03 0.
      0. 0. 7.40740774e-03 0. 0. 2.46913591e-03 0. 0. 0. 0. 0. 0. 0. 0.
      2.46913591e-03 0. 0. 2.46913591e-03 2.46913591e-03 0. 0. 0. 0. 0.
      0. 2.46913591e-03 0. 4.93827183e-03 4.93827183e-03 0. 0.
      4.93827183e-03 0. 0. 2.46913591e-03 0. 0. 0. 2.46913591e-03 0.
      7.40740774e-03 0. 0. 0. 0. 0. 4.93827183e-03 4.93827183e-03 0. 0.
      4.93827183e-03 0. 0. 2.46913591e-03 0. 4.93827183e-03 0. 0. 0.
      2.46913591e-03 0. 0. 0. 0. 0. 7.40740774e-03 0. 4.93827183e-03 0.
      0. 0. 0. 0. 0. 0. 0. 0. 0. 2.46913591e-03 0. 0. 0. 0. 0. 0.
      2.46913591e-03 0. 0. 0. 0. 0. 2.46913591e-03 2.46913591e-03 0.
      4.93827183e-03 0. 4.93827183e-03 0. 2.46913591e-03 0. 0. 0.
      1.48148155e-02 2.46913591e-03 0. 4.93827183e-03 0. 2.46913591e-03
      0. 2.46913591e-03 0. 0. 0. 0. 0. 0. 0. 0. 0. 0. 2.46913591e-03 0.
      0. 0. 2.46913591e-03 2.46913591e-03 2.46913591e-03 7.40740774e-03
      0. 0. 4.93827183e-03 0. 0. 0. 2.46913591e-03 0. 0. 0.
      2.46913591e-03 0. 0. 0. 0. 0. 0. 0. 0. 0. 2.46913591e-03 0. 0. 0.
      0. 0. 0. 0. 0. 0. 0. 0. 2.46913591e-03 0. 0. 0. 0. 0. 0. 0. 0. 0.
      2.46913591e-03 0. 2.46913591e-03 0. 2.46913591e-03 0.
      4.93827183e-03 0. 0. 0. 0. 0. 0. 0. 0. 0. 0. 2.46913591e-03 0. 0.
      0. 0. 0. 0. 2.46913591e-03 0. 0. 2.46913591e-03 0. 0. 0. 0. 0. 0.
      0. 0. 0. 2.46913591e-03 0. 0. 2.46913591e-03 0. 0. 0. 0.
      4.93827183e-03 0. 0. 0. 0. 0. 0. 0. 0. 0. 0. 2.46913591e-03 0.
      9.87654366e-03 0. 0. 0. 0. 0. 0. 0. 0. 0. 4.93827183e-03 0. 0.
      2.46913591e-03 0. 0. 4.93827183e-03 0. 2.46913591e-03
      2.46913591e-03 0. 0. 0. 0. 2.46913591e-03 0. 2.46913591e-03 0. 0.
      0. 0. 0. 0. 0. 9.87654366e-03 0. 0. 0. 0. 0. 0. 0. 2.46913591e-03
      0. 0. 0. 0. 0. 0. 2.46913591e-03 0. 0. 0. 0. 0. 0. 0. 0.
      4.93827183e-03 2.46913591e-03 0. 0. 0. 0. 0. 4.93827183e-03 0. 0.
      0. 0. 0. 2.46913591e-03 0. 0. 2.46913591e-03 0. 0. 0. 0. 0.
      2.46913591e-03 0. 0. 2.46913591e-03 0. 2.46913591e-03
      2.46913591e-03 0. 0. 0. 0. 2.46913591e-03 4.93827183e-03
      2.46913591e-03 0. 0. 0. 7.40740774e-03 0. 4.93827183e-03
      2.46913591e-03 2.46913591e-03 0. 0. 0. 0. 0. 0. 0. 2.46913591e-03
      2.46913591e-03 0. 0. 2.46913591e-03 2.46913591e-03 0. 0. 0. 0. 0.
      0. 7.40740774e-03 7.40740774e-03 0. 2.46913591e-03 0. 0. 0. 0. 0.
      2.46913591e-03 9.87654366e-03 2.46913591e-03 0. 0. 0. 0. 0.
      2.46913591e-03 0. 4.93827183e-03 0. 0. 7.40740774e-03 0.
      2.46913591e-03 0. 0. 4.93827183e-03 0. 0. 0. 0. 0. 0. 0.
      4.93827183e-03 7.40740774e-03 0. 0. 0. 0. 2.46913591e-03 0.
      2.46913591e-03 2.46913591e-03 0. 0. 0. 2.46913591e-03 0. 0. 0. 0.
      0. 2.46913591e-03 0. 7.40740774e-03 0. 0. 0. 4.93827183e-03
      2.46913591e-03 2.46913591e-03 0. 0. 0. 2.46913591e-03 0. 0. 0. 0.
      4.93827183e-03 0. 4.93827183e-03 0. 2.46913591e-03 0.
      2.46913591e-03 1.97530873e-02 0. 0. 0. 4.93827183e-03 0. 0. 0. 0.
      0. 0. 2.46913591e-03 0. 4.93827183e-03 0. 0. 0. 0. 0. 0. 0. 0. 0.
      0. 0. 0. 0. 0. 0. 0. 2.46913591e-03 7.40740774e-03 2.46913591e-03
      4.93827183e-03 0. 2.46913591e-03 2.46913591e-03 0. 2.46913591e-03
      0. 0. 0. 0. 2.46913591e-03 0. 0. 0. 2.46913591e-03 0. 0. 0. 0. 0.
      7.40740774e-03 0. 0.</_>
    <_>
      0. 8.62068962e-03 0. 0. 0. 0. 0. 0. 0. 0. 0. 0. 0. 0. 0. 0. 0. 0.
      8.62068962e-03 0. 0. 0. 0. 0. 0. 0. 0. 0. 0. 0. 0. 0. 0. 0. 0. 0.
      0. 0. 0. 0. 0. 0. 0. 0. 0. 0. 1.72413792e-02 0. 0. 0. 0. 0. 0. 0.
      0. 0. 0. 0. 8.62068962e-03 0. 0. 0. 0. 0. 0. 0. 8.62068962e-03 0.
      0. 0. 0. 0. 0. 8.62068962e-03 0. 0. 0. 0. 0. 0. 0. 0. 0. 0. 0. 0.
      0. 0. 0. 0. 0. 0. 0. 0. 0. 0. 8.62068962e-03 0. 0. 0. 0. 0. 0. 0.
      0. 0. 0. 0. 0. 0. 0. 0. 0. 0. 0. 0. 0. 0. 0. 0. 0. 0. 0. 0. 0.
      8.62068962e-03 0. 0. 0. 0. 0. 8.62068962e-03 0. 0. 0. 0. 0.
      2.58620679e-02 0. 0. 0. 0. 8.62068962e-03 0. 0. 0. 0. 0. 0.
      8.62068962e-03 0. 0. 0. 0. 0. 0. 0. 0. 0. 0. 0. 0. 0. 0. 0. 0. 0.
      0. 0. 0. 0. 0. 0. 0. 0. 0. 0. 0. 0. 0. 0. 0. 0. 0. 0. 0. 0. 0.
      1.72413792e-02 8.62068962e-03 0. 0. 0. 0. 0. 0. 0. 0. 0. 0. 0.
      6.03448264e-02 0. 0. 0. 0. 0. 0. 0. 0. 0. 0. 0. 0. 2.58620679e-02
      0. 0. 0. 0. 0. 0. 8.62068962e-03 8.62068962e-03 0. 0. 0. 0. 0. 0.
      0. 0. 0. 0. 0. 1.72413792e-02 8.62068962e-03 0. 0. 0. 0. 0. 0. 0.
      0. 0. 0. 0. 0. 0. 0. 0. 0. 8.62068962e-03 0. 0. 0. 0. 0. 0. 0. 0.
      0. 0. 0. 0. 0. 8.62068962e-03 0. 0. 8.62068962e-03 0. 0. 0. 0. 0.
      2.58620679e-02 0. 0. 0. 0. 0. 0. 0. 0. 0. 0. 0. 0. 0. 0. 0.
      8.62068962e-03 0. 0. 0. 0. 1.72413792e-02 0. 0. 0. 0. 0. 0. 0. 0.
      0. 0. 8.62068962e-03 0. 0. 0. 0. 0. 0. 3.44827585e-02 0. 0. 0. 0.
      0. 0. 0. 0. 0. 0. 1.72413792e-02 0. 8.62068962e-03 0.
      8.62068962e-03 0. 0. 8.62068962e-03 0. 0. 0. 0. 0. 0. 0. 0. 0. 0.
      0. 0. 0. 0. 8.62068962e-03 0. 0. 0. 0. 0. 0. 0. 0. 0. 0. 0.
      8.62068962e-03 0. 0. 0. 0. 0. 8.62068962e-03 0. 0. 8.62068962e-03
      0. 0. 0. 0. 0. 0. 0. 0. 8.62068962e-03 0. 0. 0. 0. 0. 0. 0. 0. 0.
      0. 0. 0. 0. 0. 0. 0. 0. 0. 8.62068962e-03 0. 0. 0. 0. 0. 0. 0. 0.
      0. 0. 0. 0. 0. 0. 0. 0. 0. 0. 0. 0. 0. 0. 0. 0. 0. 0. 0. 0. 0. 0.
      0. 0. 0. 0. 0. 0. 0. 0. 0. 0. 0. 0. 0. 0. 0. 0. 0. 0. 0. 0. 0.
      8.62068962e-03 0. 0. 0. 0. 0. 0. 0. 0. 0. 8.62068962e-03 0. 0. 0.
      0. 0. 0. 0. 0. 0. 0. 0. 0. 0. 0. 0. 8.62068962e-03 0. 0. 0. 0. 0.
      0. 0. 0. 0. 0. 0. 0. 0. 0. 0. 0. 0. 0. 0. 0. 0. 0. 0. 0. 0. 0. 0.
      8.62068962e-03 0. 0. 0. 0. 0. 0. 0. 0. 0. 0. 0. 0. 0. 0. 0. 0. 0.
      0. 0. 0. 0. 0. 0. 0. 0. 0. 0. 0. 0. 0. 8.62068962e-03
      8.62068962e-03 0. 0. 0. 0. 0. 0. 0. 0. 0. 0. 0. 0. 0.
      1.72413792e-02 0. 0. 0. 0. 0. 0. 0. 0. 2.58620679e-02 0. 0. 0. 0.
      0. 0. 0. 0. 0. 0. 0. 0. 0. 0. 0. 0. 0. 0. 0. 0. 0. 0. 0. 0. 0. 0.
      8.62068962e-03 0. 0. 0. 0. 8.62068962e-03 0. 0. 0. 0. 0. 0. 0. 0.
      0. 0. 0. 0. 0. 0. 0. 0. 0. 0. 0. 0. 0. 0. 0. 8.62068962e-03 0. 0.
      0. 0. 0. 8.62068962e-03 0. 0. 0. 0. 0. 8.62068962e-03 0.
      1.72413792e-02 0. 0. 0. 0. 8.62068962e-03 0. 0. 0. 0. 0. 0. 0. 0.
      0. 0. 0. 0. 0. 0. 0. 0. 0. 8.62068962e-03 0. 0. 0. 0. 0. 0. 0. 0.
      0. 0. 0. 0. 0. 0. 0. 0. 0. 0. 0. 0. 0. 0. 0. 0. 0. 0.
      8.62068962e-03 0. 0. 0. 0. 0. 0. 0. 0. 0. 0. 0. 0. 0. 0. 0. 0. 0.
      0. 0. 0. 0. 0. 8.62068962e-03 0. 0. 0. 1.72413792e-02 0.
      8.62068962e-03 0. 0. 0. 0. 0. 0. 0. 0. 0. 0. 0. 0. 0. 0. 0. 0. 0.
      0. 0. 2.58620679e-02 0. 0. 0. 0. 0. 0. 0. 0. 0. 0. 0. 0. 0. 0. 0.
      0. 0. 8.62068962e-03 0. 0. 0. 0. 0. 0. 0. 0. 0. 8.62068962e-03
      8.62068962e-03 0. 0. 8.62068962e-03 0. 0. 0. 0. 0. 0. 0. 0. 0. 0.
      0. 0. 0. 0. 0. 0. 0. 0. 0. 0. 0. 0. 8.62068962e-03 0.
      1.72413792e-02 0. 0. 0. 0. 8.62068962e-03 0. 0. 0. 0. 0. 0. 0. 0.
      0. 0. 0. 0. 0. 0. 0. 0. 0. 0. 0. 8.62068962e-03 0. 0. 0. 0. 0. 0.
      0. 0. 0. 0. 0. 0. 0. 0. 0. 0. 0. 0. 0. 0. 0. 8.62068962e-03
      1.72413792e-02 0. 0. 0. 0. 1.72413792e-02 0. 0. 0. 0. 0. 0. 0. 0.
      0. 0. 0. 0. 0. 0. 0. 0. 8.62068962e-03 0. 0. 0. 0. 0. 0. 0. 0. 0.
      0. 8.62068962e-03 0. 1.72413792e-02 8.62068962e-03 0. 0. 0. 0. 0.
      0. 0. 0. 0. 0. 0. 0. 0. 0. 0. 0. 0. 0. 0. 0. 0. 0. 0. 0. 0. 0. 0.
      0. 0. 0. 0. 0. 0. 0. 0. 0. 0. 0. 0. 0. 0. 0. 0. 0. 0. 0. 0. 0. 0.
      0. 0. 0. 0. 0. 0. 0. 0. 0. 1.72413792e-02 0. 0. 0. 0. 0. 0. 0. 0.
      0. 0. 0. 0. 0. 0. 0. 0. 0. 5.17241359e-02 0. 0. 0. 0. 0. 0. 0. 0.
      0. 0. 0. 0. 0. 0. 0. 8.62068962e-03 0. 0. 0. 0. 0. 0. 0. 0. 0. 0.
      0. 0. 0. 0. 0. 0. 1.72413792e-02 0. 0. 0. 0. 0. 0. 0. 0. 0. 0. 0.
      0. 0. 0. 0. 0. 0. 0. 0. 0. 0. 0.</_>
    <_>
      0. 0. 0. 0. 0. 0. 0. 0. 0. 0. 0. 0. 0. 0. 1.29870130e-02
      4.32900432e-03 0. 8.65800865e-03 0. 0. 0. 0. 0. 0. 0. 0. 0. 0. 0.
      0. 0. 0. 0. 0. 0. 0. 0. 0. 0. 0. 0. 4.32900432e-03 4.32900432e-03
      4.32900432e-03 0. 0. 0. 0. 0. 0. 0. 0. 0. 0. 0. 0. 0. 0.
      8.65800865e-03 0. 8.65800865e-03 0. 0. 0. 0. 0. 0. 0. 0. 0. 0. 0.
      0. 4.32900432e-03 0. 4.32900432e-03 0. 0. 0. 0. 4.32900432e-03 0.
      0. 0. 0. 0. 0. 0. 0. 4.32900432e-03 0. 0. 0. 0. 0. 0. 0. 0. 0. 0.
      0. 0. 0. 0. 0. 4.32900432e-03 0. 4.32900432e-03 4.32900432e-03 0.
      0. 0. 4.32900432e-03 0. 8.65800865e-03 0. 4.32900432e-03 0. 0. 0.
      0. 0. 0. 0. 0. 0. 0. 4.32900432e-03 0. 0. 0. 0. 0. 0. 0.
      4.32900432e-03 0. 0. 0. 0. 0. 0. 0. 0. 0. 0. 0. 0. 8.65800865e-03
      0. 0. 0. 0. 8.65800865e-03 0. 0. 0. 4.32900432e-03 0. 0. 0. 0. 0.
      0. 0. 0. 8.65800865e-03 0. 0. 0. 0. 0. 4.32900432e-03 0. 0. 0. 0.
      4.32900432e-03 0. 0. 0. 0. 4.32900432e-03 0. 0. 0. 0. 0. 0. 0. 0.
      4.32900432e-03 0. 0. 0. 0. 4.32900432e-03 0. 0. 0. 0. 0. 0. 0.
      8.65800865e-03 4.32900432e-03 0. 0. 0. 4.32900432e-03 0.
      4.32900432e-03 0. 0. 0. 0. 4.32900432e-03 4.32900432e-03 0. 0. 0.
      0. 4.32900432e-03 0. 0. 0. 0. 0. 0. 0. 0. 0. 8.65800865e-03 0. 0.
      0. 0. 0. 0. 0. 0. 0. 0. 0. 0. 4.32900432e-03 0. 0. 0. 0.
      4.32900432e-03 0. 0. 0. 0. 0. 4.32900432e-03 0. 0. 0. 0.
      4.32900432e-03 0. 0. 0. 0. 0. 0. 0. 4.32900432e-03 0. 0. 0. 0. 0.
      0. 0. 0. 0. 0. 0. 0. 0. 4.32900432e-03 0. 0. 4.32900432e-03 0. 0.
      0. 0. 4.32900432e-03 4.32900432e-03 0. 0. 0. 0. 4.32900432e-03 0.
      4.32900432e-03 4.32900432e-03 0. 0. 0. 0. 0. 0. 0. 0. 0. 0. 0. 0.
      0. 0. 4.32900432e-03 0. 4.32900432e-03 0. 4.32900432e-03 0. 0. 0.
      0. 0. 0. 0. 0. 4.32900432e-03 0. 0. 4.32900432e-03 0. 0. 0. 0.
      4.32900432e-03 0. 0. 0. 0. 0. 0. 0. 0. 0. 0. 0. 4.32900432e-03 0.
      0. 0. 0. 0. 0. 0. 4.32900432e-03 0. 0. 0. 0. 0. 4.32900432e-03
      4.32900432e-03 0. 0. 0. 0. 0. 0. 0. 0. 4.32900432e-03 0. 0.
      4.32900432e-03 0. 0. 0. 8.65800865e-03 0. 0. 0. 0. 0. 0. 0. 0.
      4.32900432e-03 0. 0. 0. 0. 0. 0. 0. 0. 0. 0. 0. 0. 0. 0.
      4.32900432e-03 0. 0. 4.32900432e-03 0. 0. 0. 0. 4.32900432e-03
      8.65800865e-03 0. 0. 0. 0. 4.32900432e-03 0. 0. 0. 0. 0.
      8.65800865e-03 0. 0. 0. 0. 0. 0. 0. 0. 0. 0. 0. 0. 0.
      4.32900432e-03 0. 0. 0. 4.32900432e-03 4.32900432e-03 0.
      4.32900432e-03 0. 0. 0. 0. 0. 0. 0. 0. 0. 0. 0. 0. 0. 0. 0.
      4.32900432e-03 4.32900432e-03 0. 0. 0. 0. 0. 0. 4.32900432e-03 0.
      4.32900432e-03 0. 0. 4.32900432e-03 0. 4.32900432e-03 0. 0. 0. 0.
      0. 8.65800865e-03 0. 0. 0. 0. 0. 8.65800865e-03 0. 4.32900432e-03
      0. 0. 0. 0. 8.65800865e-03 0. 0. 0. 0. 0. 0. 0. 0. 0. 0. 0. 0. 0.
      4.32900432e-03 0. 0. 0. 0. 0. 4.32900432e-03 0. 0. 0. 0. 0. 0. 0.
      0. 0. 0. 0. 0. 4.32900432e-03 4.32900432e-03 4.32900432e-03
      1.29870130e-02 0. 4.32900432e-03 0. 4.32900432e-03 0.
      4.32900432e-03 4.32900432e-03 0. 0. 0. 0. 0. 0. 0. 0. 0. 0. 0. 0.
      0. 0. 0. 0. 0. 0. 0. 0. 0. 0. 0. 0. 0. 0. 0. 0. 0. 0. 0. 0.
      4.32900432e-03 0. 0. 4.32900432e-03 4.32900432e-03 0. 0. 0. 0. 0.
      0. 0. 0. 0. 0. 0. 4.32900432e-03 0. 0. 0. 0. 0. 0. 4.32900432e-03
      0. 0. 0. 4.32900432e-03 4.32900432e-03 0. 4.32900432e-03 0. 0. 0.
      1.29870130e-02 0. 0. 4.32900432e-03 0. 0. 0. 0. 0. 0. 0. 0. 0. 0.
      0. 0. 0. 4.32900432e-03 0. 0. 0. 0. 0. 0. 0. 0. 4.32900432e-03 0.
      0. 0. 4.32900432e-03 0. 0. 0. 0. 0. 0. 0. 0. 0. 0. 0.
      4.32900432e-03 4.32900432e-03 0. 0. 0. 0. 0. 4.32900432e-03
      4.32900432e-03 0. 0. 0. 0. 0. 0. 0. 0. 0. 0. 0. 4.32900432e-03 0.
      0. 4.32900432e-03 4.32900432e-03 0. 4.32900432e-03 0. 0. 0. 0.
      4.32900432e-03 0. 0. 0. 8.65800865e-03 0. 0. 4.32900432e-03
      4.32900432e-03 0. 8.65800865e-03 4.32900432e-03 0. 0. 0. 0.
      4.32900432e-03 0. 0. 0. 4.32900432e-03 0. 0. 0. 0. 0. 0. 0. 0. 0.
      4.32900432e-03 0. 0. 0. 0. 0. 0. 4.32900432e-03 4.32900432e-03
      8.65800865e-03 0. 8.65800865e-03 4.32900432e-03 0. 0. 0.
      4.32900432e-03 0. 0. 0. 0. 0. 1.29870130e-02 4.32900432e-03 0.
      4.32900432e-03 0. 0. 4.32900432e-03 0. 0. 4.32900432e-03 0. 0. 0.
      0. 0. 0. 0. 0. 4.32900432e-03 0. 0. 0. 0. 0. 0. 0. 0. 0. 0. 0. 0.
      4.32900432e-03 0. 0. 0. 0. 0. 0. 0. 0. 0. 0. 0. 0. 4.32900432e-03
      4.32900432e-03 0. 0. 0. 8.65800865e-03 0. 4.32900432e-03 0. 0. 0.
      0. 0. 0. 0. 0. 0. 0. 0. 0. 0. 4.32900432e-03 0. 0. 0. 0. 0.
      4.32900432e-03 0. 0. 0. 0. 0. 0. 0. 0. 0. 0. 0. 0. 0.
      4.32900432e-03 2.16450207e-02 4.32900432e-03 4.32900432e-03 0. 0.
      0. 4.32900432e-03 4.32900432e-03 0. 0. 0. 0. 0. 4.32900432e-03 0.
      0. 0. 0. 4.32900432e-03 0. 0. 4.32900432e-03 0. 0. 0. 0. 0.
      4.32900432e-03 0. 0. 4.32900432e-03 0. 0. 0. 4.32900432e-03 0. 0.
      0. 0. 0. 0. 4.32900432e-03 0. 0. 4.32900432e-03 0. 4.32900432e-03
      0. 0. 0. 0. 0. 0. 0. 0. 0. 0. 0. 0. 0. 0. 0. 0. 0. 0.
      4.32900432e-03 0. 0. 0. 0. 0. 4.32900432e-03 0. 0. 0. 0. 0. 0. 0.
      4.32900432e-03 4.32900432e-03 0. 0. 0. 0. 0. 0. 0. 0. 0.
      1.29870130e-02 8.65800865e-03 4.32900432e-03 0. 0. 0.
      1.29870130e-02 0. 0. 8.65800865e-03 0. 8.65800865e-03 0.
      8.65800865e-03 0. 0. 1.29870130e-02 0. 0. 0. 0. 0. 0. 0.
      8.65800865e-03 0. 0. 0. 0. 0. 1.29870130e-02 0. 0. 0. 0. 0. 0.
      4.32900432e-03 0. 0. 0. 0. 4.32900432e-03 8.65800865e-03
      8.65800865e-03 0. 0. 0. 0. 0. 0. 0. 0. 0. 0. 0. 4.32900432e-03
      8.65800865e-03 0. 0. 0. 0. 0. 0. 0. 0. 0. 0. 4.32900432e-03 0. 0.
      0. 4.32900432e-03 0. 4.32900432e-03 0. 0. 4.32900432e-03 0.
      4.32900432e-03 0. 0. 0. 0. 0. 4.32900432e-03 0. 0. 0. 0. 0. 0. 0.
      0. 0.</_>
    <_>
      0. 0. 0. 0. 0. 0. 0. 0. 0. 9.80392192e-03 4.90196096e-03 0. 0. 0.
      0. 0. 0. 0. 0. 0. 0. 0. 0. 0. 0. 0. 0. 0. 4.90196096e-03
      9.80392192e-03 0. 0. 0. 0. 0. 0. 0. 0. 0. 0. 0. 4.90196096e-03 0.
      0. 0. 0. 0. 9.80392192e-03 4.90196096e-03 0. 0. 0. 4.90196096e-03
      0. 0. 0. 0. 0. 0. 4.90196096e-03 0. 0. 0. 0. 0. 0. 0.
      4.90196096e-03 0. 0. 0. 0. 0. 4.90196096e-03 0. 0. 4.90196096e-03
      4.90196096e-03 0. 0. 0. 0. 0. 4.90196096e-03 0. 0. 0. 0. 0.
      4.90196096e-03 0. 0. 0. 0. 0. 0. 0. 0. 1.47058833e-02 0. 0. 0. 0.
      0. 4.90196096e-03 0. 0. 0. 0. 0. 0. 0. 0. 0. 0. 0. 0. 0. 0. 0. 0.
      0. 0. 0. 0. 0. 0. 0. 0. 0. 0. 0. 0. 0. 0. 0. 0. 0. 0. 0. 0. 0. 0.
      0. 0. 0. 9.80392192e-03 0. 0. 0. 0. 0. 0. 4.90196096e-03 0. 0. 0.
      0. 0. 9.80392192e-03 0. 4.90196096e-03 0. 0. 0. 0. 0. 0. 0. 0. 0.
      0. 0. 0. 0. 0. 0. 0. 0. 0. 0. 0. 4.90196096e-03 0. 0. 0. 0. 0. 0.
      0. 0. 0. 0. 0. 0. 0. 9.80392192e-03 0. 4.90196096e-03 0. 0.
      9.80392192e-03 0. 0. 9.80392192e-03 0. 0. 0. 0. 0. 0.
      4.90196096e-03 4.90196096e-03 0. 0. 4.90196096e-03 9.80392192e-03
      0. 0. 0. 0. 0. 4.90196096e-03 0. 0. 0. 0. 0. 0. 0. 0.
      4.90196096e-03 4.90196096e-03 0. 0. 0. 0. 0. 0. 0. 0. 0. 0. 0. 0.
      0. 0. 0. 0. 0. 0. 0. 0. 0. 0. 0. 0. 4.90196096e-03 0. 0. 0. 0. 0.
      4.90196096e-03 4.90196096e-03 0. 0. 0. 4.90196096e-03
      4.90196096e-03 0. 0. 0. 9.80392192e-03 0. 4.90196096e-03 0. 0. 0.
      4.90196096e-03 0. 0. 0. 0. 0. 0. 4.90196096e-03 0. 0. 0. 0. 0. 0.
      0. 0. 4.90196096e-03 9.80392192e-03 0. 0. 0. 9.80392192e-03 0. 0.
      0. 9.80392192e-03 0. 0. 9.80392192e-03 4.90196096e-03 0. 0. 0.
      4.90196096e-03 0. 0. 0. 0. 0. 0. 4.90196096e-03 0. 0. 0. 0.
      4.90196096e-03 4.90196096e-03 0. 0. 9.80392192e-03 0. 0. 0. 0. 0.
      0. 0. 0. 0. 0. 0. 0. 0. 0. 0. 0. 0. 0. 0. 0. 0. 0. 0. 0. 0. 0.
      4.90196096e-03 9.80392192e-03 0. 0. 0. 0. 0. 0. 4.90196096e-03 0.
      0. 0. 0. 0. 0. 0. 0. 0. 1.47058833e-02 0. 0. 0. 4.90196096e-03
      1.47058833e-02 4.90196096e-03 4.90196096e-03 0. 0. 0.
      4.90196096e-03 0. 0. 0. 0. 0. 0. 0. 4.90196096e-03 0. 0. 0. 0. 0.
      0. 0. 0. 0. 4.90196096e-03 0. 0. 0. 0. 0. 4.90196096e-03 0. 0.
      4.90196096e-03 0. 0. 0. 9.80392192e-03 0. 0. 0. 0. 0. 0.
      4.90196096e-03 0. 0. 0. 0. 0. 0. 0. 0. 0. 0. 4.90196096e-03 0. 0.
      0. 0. 0. 0. 0. 0. 0. 0. 0. 0. 4.90196096e-03 0. 0. 0. 0.
      4.90196096e-03 0. 0. 0. 0. 0. 0. 0. 0. 0. 0. 4.90196096e-03
      4.90196096e-03 0. 0. 0. 0. 0. 0. 0. 0. 0. 0. 0. 0. 0. 0. 0. 0. 0.
      0. 0. 1.47058833e-02 0. 0. 0. 9.80392192e-03 0. 0. 4.90196096e-03
      0. 0. 0. 4.90196096e-03 0. 0. 0. 0. 0. 0. 0. 0. 0. 0. 0. 0. 0. 0.
      0. 0. 0. 0. 0. 0. 0. 0. 0. 0. 0. 0. 0. 0. 0. 0. 0. 0.
      4.90196096e-03 0. 4.90196096e-03 0. 0. 0. 0. 0. 0. 0. 0.
      4.90196096e-03 0. 4.90196096e-03 0. 0. 0. 0. 0. 0. 4.90196096e-03
      0. 4.90196096e-03 0. 0. 4.90196096e-03 0. 0. 0. 0. 0.
      4.90196096e-03 0. 0. 0. 0. 0. 0. 0. 0. 0. 0. 0. 4.90196096e-03 0.
      0. 0. 0. 0. 0. 0. 0. 0. 0. 9.80392192e-03 0. 0. 9.80392192e-03 0.
      0. 0. 0. 0. 0. 0. 0. 0. 0. 0. 0. 0. 9.80392192e-03 0. 0. 0.
      4.90196096e-03 0. 4.90196096e-03 0. 0. 0. 0. 0. 0. 4.90196096e-03
      0. 0. 0. 4.90196096e-03 0. 0. 0. 0. 4.90196096e-03 0. 0. 0. 0.
      4.90196096e-03 9.80392192e-03 0. 4.90196096e-03 0. 0. 0. 0. 0. 0.
      0. 0. 0. 0. 0. 0. 0. 0. 0. 0. 0. 0. 0. 0. 0. 0. 0. 4.90196096e-03
      0. 0. 0. 0. 0. 0. 0. 0. 0. 0. 0. 0. 0. 4.90196096e-03 0. 0. 0. 0.
      0. 0. 4.90196096e-03 0. 0. 0. 0. 0. 0. 0. 4.90196096e-03 0. 0. 0.
      0. 0. 4.90196096e-03 4.90196096e-03 0. 0. 0. 0. 0. 4.90196096e-03
      0. 0. 0. 0. 0. 0. 0. 0. 0. 0. 0. 0. 0. 0. 0. 0. 0. 0. 0.
      4.90196096e-03 4.90196096e-03 9.80392192e-03 0. 0. 9.80392192e-03
      0. 0. 0. 0. 1.47058833e-02 0. 2.45098043e-02 0. 0. 0. 0. 0.
      4.90196096e-03 4.90196096e-03 0. 4.90196096e-03 0. 4.90196096e-03
      0. 0. 0. 0. 0. 0. 0. 0. 0. 0. 0. 4.90196096e-03 0. 0. 0. 0. 0. 0.
      0. 0. 0. 0. 0. 0. 0. 0. 0. 0. 0. 0. 4.90196096e-03 0. 0. 0. 0.
      4.90196096e-03 0. 0. 4.90196096e-03 0. 0. 0. 4.90196096e-03 0. 0.
      0. 0. 4.90196096e-03 4.90196096e-03 4.90196096e-03 4.90196096e-03
      4.90196096e-03 0. 4.90196096e-03 0. 4.90196096e-03 0. 0. 0. 0. 0.
      4.90196096e-03 0. 0. 0. 0. 0. 0. 0. 0. 0. 0. 0. 0. 0. 0. 0.
      4.90196096e-03 4.90196096e-03 0. 0. 4.90196096e-03 0. 0.
      4.90196096e-03 4.90196096e-03 0. 0. 0. 0. 0. 0. 0. 0.
      4.90196096e-03 0. 0. 0. 0. 0. 0. 0. 0. 4.90196096e-03 0.
      4.90196096e-03 0. 0. 0. 0. 0. 9.80392192e-03 0. 0. 0. 0. 0. 0.
      4.90196096e-03 0. 9.80392192e-03 4.90196096e-03 0. 4.90196096e-03
      0. 0. 0. 0. 0. 4.90196096e-03 0. 4.90196096e-03 0. 0. 0. 0. 0. 0.
      0. 0. 0. 0. 4.90196096e-03 4.90196096e-03 0. 0. 4.90196096e-03 0.
      4.90196096e-03 0. 0. 0. 0. 0. 0. 0. 0. 9.80392192e-03 0. 0.
      4.90196096e-03 0. 0. 0. 0. 0. 0. 0. 9.80392192e-03 0. 0. 0. 0. 0.
      0. 0. 0. 0. 0. 0. 4.90196096e-03 4.90196096e-03 4.90196096e-03 0.
      0. 0. 0. 0. 0. 0. 0. 0. 0. 0. 0. 4.90196096e-03 4.90196096e-03 0.
      0. 4.90196096e-03 0. 0. 0. 0. 0. 4.90196096e-03 0. 0. 0. 0.
      4.90196096e-03 0. 0. 0. 0. 0. 0. 0. 0. 0. 0. 0. 0. 0. 0. 0. 0. 0.
      0. 0. 0. 0. 0. 0. 0. 0. 0. 0. 0. 4.90196096e-03 0. 0. 0. 0. 0. 0.
      0. 0. 0. 0. 0. 4.90196096e-03 0. 4.90196096e-03 0. 4.90196096e-03
      0. 0. 0. 0. 4.90196096e-03 0.</_>
    <_>
      0. 0. 0. 0. 0. 0. 2.33644852e-03 0. 0. 0. 0. 0. 0. 7.00934557e-03
      4.67289705e-03 0. 0. 0. 0. 2.33644852e-03 0. 0. 4.67289705e-03 0.
      2.33644852e-03 7.00934557e-03 0. 0. 0. 2.33644852e-03 0. 0. 0. 0.
      2.33644852e-03 0. 0. 0. 0. 0. 2.33644852e-03 0. 2.33644852e-03 0.
      0. 0. 0. 0. 0. 0. 0. 2.33644852e-03 0. 0. 0. 0. 0. 9.34579410e-03
      0. 2.33644852e-03 0. 0. 0. 0. 0. 0. 0. 0. 7.00934557e-03 0. 0.
